~o
<STREAMINFO> 1 39
<VECSIZE> 39<NULLD><MFCC_D_A_0><DIAGC>
~h "a"
<BEGINHMM>
<NUMSTATES> 5
<STATE> 2
<MEAN> 39
 -8.734339e-02 -3.624132e+00 -1.014039e+01 -1.008617e+01 -4.925020e+00 -4.055050e+00 -2.556421e-01 -6.406524e+00 1.139015e+00 2.699506e+00 -2.328199e+00 -5.872816e+00 7.306916e+01 -4.613616e-01 1.092378e+00 1.076116e+00 1.446832e+00 1.213648e-01 -1.262596e+00 -1.268597e+00 4.029467e-01 8.376798e-01 8.051409e-01 6.352343e-01 -4.166397e-02 -7.440103e-01 -1.943601e-01 6.476012e-01 3.002254e-01 1.995533e-01 -8.307680e-02 1.068636e-01 4.768100e-02 5.237741e-02 -3.204226e-01 -3.531207e-01 1.454939e-01 3.190235e-01 -8.674123e-01
<VARIANCE> 39
 1.636168e+01 3.036375e+01 3.591844e+01 4.424530e+01 5.596932e+01 4.047448e+01 3.855684e+01 5.519061e+01 3.933492e+01 4.999738e+01 6.625144e+01 5.655864e+01 3.337905e+01 2.155217e+00 2.587126e+00 1.419495e+00 3.301280e+00 3.007341e+00 2.494578e+00 2.992342e+00 3.518116e+00 2.823515e+00 2.612915e+00 3.295033e+00 2.607756e+00 4.581548e+00 3.562511e-01 5.444990e-01 3.077452e-01 8.467363e-01 6.064268e-01 5.595219e-01 6.567016e-01 6.124120e-01 6.687825e-01 5.934052e-01 8.543566e-01 5.626123e-01 6.750335e-01
<GCONST> 1.262428e+02
<STATE> 3
<MEAN> 39
 -2.870847e+00 2.809490e-01 -7.382988e+00 -7.684870e+00 -4.373991e+00 -5.776172e+00 -3.584827e+00 -4.522322e+00 1.319208e+00 3.873501e+00 -3.294417e-02 -5.287759e+00 6.425995e+01 -9.309311e-01 3.751995e-01 3.980692e-01 3.091178e-01 1.455982e-01 2.138870e-02 -8.839451e-02 5.768147e-01 -2.822922e-01 -2.786781e-01 3.899013e-01 5.499534e-01 -2.033774e+00 -1.394996e-02 -2.044737e-01 -2.143778e-01 -2.183885e-01 -5.955964e-02 2.508831e-01 2.134795e-01 -8.263774e-02 -4.201124e-02 -1.786685e-01 -1.431058e-01 8.234431e-02 1.809054e-01
<VARIANCE> 39
 1.010807e+01 1.451499e+01 2.794750e+01 2.174401e+01 3.416038e+01 2.456599e+01 2.357042e+01 2.776734e+01 2.920514e+01 2.704343e+01 3.572080e+01 4.094743e+01 3.174616e+01 7.434230e-01 1.665023e+00 1.622512e+00 1.720079e+00 1.921162e+00 2.287312e+00 2.466181e+00 2.245702e+00 2.505630e+00 1.676986e+00 1.775867e+00 1.698609e+00 1.322692e+00 1.660820e-01 2.806031e-01 2.814345e-01 3.963457e-01 3.321408e-01 3.793578e-01 5.316501e-01 3.873308e-01 5.086512e-01 3.261285e-01 2.308380e-01 3.338551e-01 2.483426e-01
<GCONST> 1.062967e+02
<STATE> 4
<MEAN> 39
 -9.233397e+00 2.296149e+00 -5.311153e+00 -6.025171e+00 -1.867184e+00 -2.431939e+00 -8.403454e-01 -7.983407e-01 1.354398e+00 -1.232684e-01 -5.938595e-02 -2.369283e+00 6.093264e+01 -1.170091e+00 1.607700e-01 3.566361e-01 -5.688035e-03 5.962417e-02 3.403478e-01 1.350237e-01 1.531370e-01 5.451594e-02 -4.208079e-01 1.866243e-01 4.449082e-01 -1.793772e-03 -1.396914e-01 -6.659908e-02 1.045254e-01 -7.564761e-02 -1.038465e-01 -9.144872e-02 -6.189323e-02 -5.190633e-02 1.195792e-02 -6.314965e-02 1.739264e-02 -7.804762e-02 4.095605e-01
<VARIANCE> 39
 3.688662e+01 1.253148e+01 1.938518e+01 1.998573e+01 1.462767e+01 1.996153e+01 2.399475e+01 1.894819e+01 1.728263e+01 2.458644e+01 1.807730e+01 1.824126e+01 3.823772e+01 2.444137e+00 1.348767e+00 1.492776e+00 1.327862e+00 1.201675e+00 1.418341e+00 1.686506e+00 1.639114e+00 1.363010e+00 1.436735e+00 1.763266e+00 1.587564e+00 1.916334e+00 4.161118e-01 2.955380e-01 3.005927e-01 1.895094e-01 2.820348e-01 2.922911e-01 3.331943e-01 3.376288e-01 2.615360e-01 2.730292e-01 3.313313e-01 3.043237e-01 2.776645e-01
<GCONST> 1.009855e+02
<TRANSP> 5
 0.000000e+00 1.000000e+00 0.000000e+00 0.000000e+00 0.000000e+00
 0.000000e+00 6.024792e-01 3.975208e-01 0.000000e+00 0.000000e+00
 0.000000e+00 0.000000e+00 7.967741e-01 2.032259e-01 0.000000e+00
 0.000000e+00 0.000000e+00 0.000000e+00 8.335978e-01 1.664021e-01
 0.000000e+00 0.000000e+00 0.000000e+00 0.000000e+00 0.000000e+00
<ENDHMM>
~h "e"
<BEGINHMM>
<NUMSTATES> 5
<STATE> 2
<MEAN> 39
 -4.333845e+00 3.057304e+00 2.263534e+00 2.936184e+00 -1.048658e+01 -1.340898e+01 -5.066791e+00 -5.006996e+00 -3.230963e+00 -3.387822e+00 -1.996357e+00 -1.538782e+00 6.467243e+01 -5.632499e-01 -1.838349e-01 1.550484e-01 4.378418e-01 -1.473213e-01 1.227153e-01 5.187999e-01 4.745599e-01 3.122429e-01 2.076666e-01 -5.616759e-01 3.921477e-01 -5.745497e-01 -8.593320e-02 -8.283354e-02 -1.110852e-01 -2.020942e-01 4.655172e-02 3.310733e-01 1.992476e-01 1.204663e-01 1.053153e-01 6.472395e-02 1.695873e-01 -2.255431e-02 -1.995467e-02
<VARIANCE> 39
 1.632508e+01 2.697669e+01 3.811795e+01 3.576395e+01 6.113649e+01 7.166223e+01 4.676867e+01 3.614679e+01 4.776159e+01 4.923397e+01 4.390197e+01 3.742398e+01 3.984471e+01 6.139165e-01 1.387442e+00 1.939929e+00 1.858406e+00 4.068013e+00 2.664574e+00 3.357945e+00 2.491076e+00 3.913527e+00 2.888876e+00 2.382211e+00 2.335869e+00 1.387934e+00 1.450562e-01 2.218035e-01 3.251026e-01 3.276238e-01 6.706712e-01 5.257075e-01 6.871976e-01 4.918238e-01 7.143655e-01 4.220727e-01 4.707913e-01 3.972219e-01 1.591424e-01
<GCONST> 1.172343e+02
<STATE> 3
<MEAN> 39
 -4.902472e+00 1.901585e+00 3.358881e+00 1.767173e+00 -1.308291e+01 -1.586523e+01 -4.064026e+00 -3.377796e+00 -2.390627e+00 -3.467226e+00 -1.714486e+00 2.313599e-01 6.584626e+01 -2.735334e-01 1.205737e-01 -1.872232e-01 4.262365e-02 6.599348e-01 8.432901e-01 5.908535e-01 3.795838e-01 2.585219e-02 2.871951e-01 3.726324e-01 -1.386954e-01 -9.474226e-01 -1.793969e-02 4.868313e-03 -8.720078e-02 -6.163357e-02 3.312531e-01 3.323181e-01 -3.437298e-02 -3.036084e-02 1.270509e-01 3.129178e-02 5.817230e-02 -8.444975e-02 -1.546286e-01
<VARIANCE> 39
 1.675860e+01 2.206303e+01 4.010802e+01 4.762805e+01 3.852181e+01 6.496639e+01 6.201266e+01 4.965626e+01 3.797412e+01 3.830627e+01 3.314560e+01 3.659557e+01 3.166090e+01 4.731224e-01 8.737205e-01 1.110804e+00 1.839745e+00 3.646806e+00 3.306848e+00 2.236275e+00 2.415601e+00 1.805675e+00 2.094625e+00 1.942222e+00 1.939826e+00 1.066058e+00 7.765015e-02 1.685675e-01 2.207836e-01 3.321795e-01 3.225437e-01 4.577172e-01 4.219902e-01 3.978674e-01 4.747413e-01 3.439600e-01 3.326618e-01 4.325322e-01 1.153022e-01
<GCONST> 1.090124e+02
<STATE> 4
<MEAN> 39
 -6.293668e+00 7.154573e-01 1.213808e+00 1.456169e+00 -9.553720e+00 -1.158067e+01 1.705952e-01 -1.812361e+00 -1.359585e+00 -3.394007e+00 -2.063263e+00 -1.458324e+00 6.175312e+01 -3.348466e-01 -9.897640e-02 -3.434504e-01 -1.835237e-01 8.311731e-01 7.678138e-01 1.826993e-01 3.082090e-01 4.041674e-01 3.668121e-01 1.146731e-01 5.836924e-02 -7.556497e-01 -6.110566e-03 -6.102674e-02 -2.294379e-02 -4.671603e-02 8.643717e-03 7.652137e-03 -5.647424e-02 -1.009919e-02 4.495419e-02 8.700034e-03 3.063368e-03 2.710281e-02 6.848009e-02
<VARIANCE> 39
 1.398055e+01 2.016203e+01 3.176703e+01 3.262567e+01 5.648535e+01 6.617183e+01 5.905290e+01 4.361119e+01 2.550119e+01 3.806978e+01 3.925694e+01 3.155898e+01 3.315319e+01 3.348925e-01 5.615454e-01 7.406108e-01 1.030944e+00 1.460335e+00 1.645292e+00 1.563825e+00 1.619807e+00 1.749282e+00 1.523425e+00 1.587022e+00 1.542102e+00 3.909476e-01 5.168554e-02 1.071225e-01 1.311987e-01 1.692626e-01 2.628850e-01 2.794060e-01 2.667331e-01 2.981647e-01 2.904806e-01 2.632832e-01 3.398303e-01 2.925942e-01 7.770658e-02
<GCONST> 9.706435e+01
<TRANSP> 5
 0.000000e+00 1.000000e+00 0.000000e+00 0.000000e+00 0.000000e+00
 0.000000e+00 5.064794e-01 4.935206e-01 0.000000e+00 0.000000e+00
 0.000000e+00 0.000000e+00 4.376254e-01 5.623746e-01 0.000000e+00
 0.000000e+00 0.000000e+00 0.000000e+00 8.155793e-01 1.844207e-01
 0.000000e+00 0.000000e+00 0.000000e+00 0.000000e+00 0.000000e+00
<ENDHMM>
~h "h"
<BEGINHMM>
<NUMSTATES> 5
<STATE> 2
<MEAN> 39
 -7.343817e+00 -8.976166e-01 -5.026644e+00 -1.026394e+01 -7.876693e+00 -3.981285e+00 4.357541e+00 -1.048451e+00 -4.070114e-01 -1.954762e+00 -2.624217e+00 -1.901130e+00 6.582637e+01 1.625475e+00 1.490788e+00 7.394258e-01 -2.123809e-01 -1.470864e+00 -1.357068e+00 -6.702715e-01 -1.097283e+00 -9.099083e-01 -7.412227e-01 -7.131042e-01 -3.917491e-01 1.305225e+00 2.510478e-01 -9.046204e-03 6.255191e-03 -9.346040e-02 -2.915624e-01 -2.040624e-01 -2.640209e-01 -1.815876e-01 -7.289802e-02 6.322235e-03 9.985326e-02 1.624602e-01 1.608464e-01
<VARIANCE> 39
 3.734116e+01 7.577666e+01 6.284129e+01 7.129976e+01 6.803153e+01 6.810781e+01 4.900388e+01 5.111213e+01 4.750077e+01 3.658301e+01 3.156628e+01 3.138453e+01 2.725875e+01 2.294051e+00 2.291614e+00 1.862681e+00 3.260097e+00 3.949836e+00 2.962063e+00 2.865076e+00 3.085203e+00 2.654790e+00 2.112121e+00 2.116719e+00 2.086161e+00 1.217308e+00 3.850467e-01 6.652133e-01 3.494274e-01 4.648613e-01 5.435728e-01 5.310426e-01 4.613092e-01 5.494601e-01 4.786199e-01 4.166169e-01 4.599887e-01 3.796691e-01 1.593219e-01
<GCONST> 1.224829e+02
<STATE> 3
<MEAN> 39
 4.840807e-01 2.843819e+00 -3.125193e+00 -1.211794e+01 -1.672473e+01 -1.117541e+01 -1.254172e+00 -5.983784e+00 -4.270853e+00 -4.129869e+00 -4.330525e+00 -2.330659e+00 7.205810e+01 7.074993e-01 -7.107508e-01 -1.556111e-01 -8.901486e-01 -1.523898e+00 -6.714709e-01 -9.190515e-01 -8.105398e-01 -2.567046e-01 4.959576e-02 6.337406e-01 7.257004e-01 1.250355e+00 -6.257353e-01 -4.590651e-01 -1.238391e-01 2.383152e-01 6.575348e-01 5.655971e-01 2.229665e-01 1.578877e-01 1.874963e-01 1.946030e-01 3.757201e-01 1.653632e-01 -3.875449e-01
<VARIANCE> 39
 2.181295e+01 6.609727e+01 7.661405e+01 7.959120e+01 5.992398e+01 7.116489e+01 4.883300e+01 4.928952e+01 4.800010e+01 3.596225e+01 3.544224e+01 4.213390e+01 2.501107e+01 1.000028e+00 2.216519e+00 1.639639e+00 2.385685e+00 3.499966e+00 3.072469e+00 3.609237e+00 2.839806e+00 2.562375e+00 1.792645e+00 2.190173e+00 2.054604e+00 1.323155e+00 1.852517e-01 4.604199e-01 2.806315e-01 4.394937e-01 5.246509e-01 4.090851e-01 5.630085e-01 5.655777e-01 5.156437e-01 3.606150e-01 4.732783e-01 3.218401e-01 1.531480e-01
<GCONST> 1.192854e+02
<STATE> 4
<MEAN> 39
 9.781943e-01 1.570646e+00 -3.632988e+00 -1.236368e+01 -1.821667e+01 -9.967856e+00 -2.790999e+00 -8.609712e+00 -3.620448e+00 -6.302449e+00 -2.280443e+00 1.676013e-01 7.271282e+01 -9.514178e-02 -5.679037e-01 -1.250548e-01 1.067929e-01 2.128770e-01 2.275670e-01 -4.873427e-01 -8.043488e-01 -3.909945e-01 3.391255e-02 1.046770e+00 6.064518e-01 3.281876e-01 -1.724714e-01 -1.477650e-02 8.143466e-04 3.410007e-01 4.214449e-01 2.418243e-02 -1.089334e-01 1.058595e-02 8.416810e-02 1.646821e-01 7.083128e-02 -2.145943e-01 -1.589625e-01
<VARIANCE> 39
 2.148208e+01 5.312697e+01 8.246024e+01 1.018189e+02 6.258888e+01 6.917926e+01 5.572706e+01 5.439996e+01 6.483477e+01 4.169142e+01 4.400123e+01 5.020208e+01 2.135750e+01 2.509950e-01 1.041908e+00 1.170453e+00 1.174201e+00 2.284356e+00 1.900467e+00 2.509357e+00 2.327715e+00 2.149167e+00 1.783142e+00 3.063243e+00 1.950060e+00 3.875550e-01 7.378633e-02 1.624231e-01 1.890356e-01 2.634504e-01 3.446337e-01 3.741618e-01 5.282071e-01 3.369207e-01 4.425205e-01 3.610914e-01 4.511548e-01 4.491570e-01 8.916690e-02
<GCONST> 1.101535e+02
<TRANSP> 5
 0.000000e+00 1.000000e+00 0.000000e+00 0.000000e+00 0.000000e+00
 0.000000e+00 7.951427e-01 2.048573e-01 0.000000e+00 0.000000e+00
 0.000000e+00 0.000000e+00 5.675784e-01 4.324216e-01 0.000000e+00
 0.000000e+00 0.000000e+00 0.000000e+00 6.147382e-01 3.852618e-01
 0.000000e+00 0.000000e+00 0.000000e+00 0.000000e+00 0.000000e+00
<ENDHMM>
~h "i"
<BEGINHMM>
<NUMSTATES> 5
<STATE> 2
<MEAN> 39
 -2.374581e+01 1.267356e+00 2.620112e+00 -5.440574e+00 -3.361939e+00 -5.360712e+00 3.614394e+00 -9.854060e-01 6.510027e-01 -3.318771e+00 2.345897e+00 1.892499e-02 6.932394e+01 3.258432e-01 -2.692818e-01 1.840279e+00 1.332432e+00 -3.247808e-01 -9.061544e-01 5.650319e-01 -5.369585e-01 -5.486073e-01 -3.907396e-01 -1.761853e-01 -7.525275e-02 2.101546e-01 1.013244e+00 1.972224e-01 -4.259145e-02 3.673210e-01 -1.471894e-01 -3.578547e-01 -4.648510e-01 -2.092364e-01 -2.429972e-01 -2.101486e-01 -1.560471e-01 -2.285586e-02 -2.852214e-01
<VARIANCE> 39
 2.773169e+01 2.489637e+01 5.702150e+01 3.800610e+01 3.765855e+01 5.958249e+01 4.618896e+01 2.569301e+01 2.956660e+01 2.948026e+01 1.957587e+01 2.070998e+01 1.283813e+01 6.678388e+00 1.831956e+00 2.145638e+00 2.994129e+00 2.799203e+00 2.457718e+00 2.561778e+00 2.591170e+00 2.514423e+00 1.977591e+00 1.778998e+00 1.148374e+00 1.258558e+00 4.146550e-01 4.540744e-01 3.602212e-01 4.029898e-01 4.813785e-01 4.172683e-01 4.689371e-01 4.679272e-01 4.740358e-01 3.960891e-01 3.590726e-01 2.459387e-01 1.770698e-01
<GCONST> 1.142000e+02
<STATE> 3
<MEAN> 39
 -1.252711e+01 2.117095e+00 1.085704e+01 3.377704e+00 -8.470135e+00 -1.235988e+01 -7.847449e-01 -6.905000e+00 -5.104647e+00 -7.063184e+00 -8.440238e-01 -3.786713e-03 6.778270e+01 3.472854e+00 1.348916e+00 4.233350e-01 1.780199e+00 -9.783750e-01 -2.416498e+00 -1.826985e+00 -8.451267e-01 -1.281089e+00 -1.293024e+00 -6.061745e-01 4.310597e-01 -3.758852e-01 -4.139369e-01 -2.368271e-02 -7.089292e-01 -5.662545e-01 2.222806e-01 2.952626e-01 1.076430e-01 3.951420e-01 4.410574e-01 1.830704e-01 1.011924e-01 5.659265e-02 -2.654820e-02
<VARIANCE> 39
 3.572514e+01 3.844999e+01 5.166994e+01 4.270082e+01 3.563653e+01 4.400360e+01 3.990538e+01 2.905681e+01 2.432863e+01 3.252378e+01 1.646954e+01 1.770911e+01 1.134396e+01 1.875864e+00 2.366036e+00 1.868404e+00 2.740109e+00 3.460585e+00 2.477279e+00 2.616308e+00 3.836564e+00 2.507645e+00 1.988566e+00 2.733847e+00 2.011402e+00 5.295563e-01 5.001060e-01 3.202628e-01 4.024611e-01 3.041321e-01 4.933756e-01 4.240042e-01 5.164962e-01 5.838614e-01 3.744362e-01 4.126533e-01 4.459878e-01 3.373812e-01 7.068041e-02
<GCONST> 1.129404e+02
<STATE> 4
<MEAN> 39
 -7.690391e+00 3.348206e+00 7.949727e+00 6.907578e+00 -1.008602e+01 -1.795115e+01 -2.147961e+00 -5.857434e+00 -5.098023e+00 -9.575043e+00 -1.300463e+00 1.673659e+00 6.706816e+01 8.165518e-01 3.016667e-01 -1.115188e+00 4.555480e-01 4.102696e-01 -6.067936e-01 -4.174336e-01 3.930554e-01 4.498087e-01 -2.269679e-01 -3.368761e-01 7.528628e-02 -5.028632e-01 -4.673703e-01 -1.701899e-01 -2.349895e-01 -3.798590e-01 4.778971e-01 7.423039e-01 8.429234e-02 -5.278182e-02 3.829364e-01 3.916124e-01 8.588396e-02 -2.563235e-01 -6.049083e-02
<VARIANCE> 39
 1.593342e+01 2.088643e+01 4.097780e+01 6.071688e+01 2.874942e+01 3.220250e+01 2.335337e+01 2.710773e+01 2.180712e+01 2.686693e+01 2.383216e+01 2.263179e+01 1.707471e+01 8.880448e-01 9.875425e-01 1.371274e+00 1.365615e+00 1.619640e+00 2.000104e+00 2.629059e+00 2.134755e+00 1.787167e+00 2.105161e+00 2.062968e+00 1.448113e+00 2.941174e-01 2.545241e-01 2.185104e-01 1.659708e-01 2.990786e-01 1.979178e-01 3.665696e-01 3.741755e-01 5.840211e-01 3.622712e-01 3.186379e-01 3.797290e-01 2.799902e-01 3.564442e-02
<GCONST> 1.009073e+02
<TRANSP> 5
 0.000000e+00 1.000000e+00 0.000000e+00 0.000000e+00 0.000000e+00
 0.000000e+00 7.988561e-01 2.011439e-01 0.000000e+00 0.000000e+00
 0.000000e+00 0.000000e+00 5.822051e-01 4.177949e-01 0.000000e+00
 0.000000e+00 0.000000e+00 0.000000e+00 5.915959e-01 4.084041e-01
 0.000000e+00 0.000000e+00 0.000000e+00 0.000000e+00 0.000000e+00
<ENDHMM>
~h "k"
<BEGINHMM>
<NUMSTATES> 5
<STATE> 2
<MEAN> 39
 -1.380038e+01 -3.141978e+00 2.028396e+00 -4.604530e+00 -1.046565e+01 -8.716060e+00 -7.664991e-01 -4.156607e+00 -2.986355e+00 -2.570482e+00 -4.161381e-01 -1.393288e+00 7.099540e+01 1.393763e+00 8.922420e-01 1.114792e+00 4.058304e-01 -1.196750e+00 -1.434065e+00 -5.409374e-01 -8.427393e-01 -8.694684e-01 -9.762954e-01 -4.864415e-01 -4.393727e-01 9.345390e-01 2.988400e-01 9.572655e-02 -3.402936e-02 2.868603e-02 -4.607842e-02 -8.096877e-02 -1.030123e-01 -5.895363e-03 4.728973e-03 -1.978220e-02 6.508502e-02 7.331156e-02 -1.653900e-01
<VARIANCE> 39
 4.439015e+01 3.771181e+01 4.969093e+01 3.733944e+01 4.028431e+01 5.831389e+01 4.390617e+01 4.761927e+01 3.558190e+01 3.727094e+01 2.876367e+01 3.170460e+01 2.492321e+01 4.016568e+00 3.182409e+00 2.574738e+00 3.264675e+00 4.366403e+00 3.505509e+00 3.564677e+00 3.185244e+00 3.359593e+00 3.096403e+00 2.069977e+00 2.217009e+00 3.703233e+00 6.340340e-01 8.018762e-01 5.043622e-01 6.524975e-01 7.841537e-01 6.381754e-01 5.847946e-01 5.245159e-01 5.884469e-01 6.412446e-01 4.342564e-01 3.781100e-01 8.428714e-01
<GCONST> 1.276502e+02
<STATE> 3
<MEAN> 39
 -4.263692e+00 -7.401116e-01 5.374932e+00 -3.207465e+00 -1.778930e+01 -1.807555e+01 -3.340741e+00 -7.751566e+00 -7.545159e+00 -6.854771e+00 -1.441588e+00 -2.851267e+00 7.459215e+01 4.141954e-01 -6.080723e-01 1.634491e-01 -4.899984e-01 -1.216743e+00 -7.925184e-01 -4.501998e-01 -2.019469e-01 4.643137e-02 2.008319e-01 6.861392e-01 4.731387e-01 6.467936e-01 -6.976671e-01 -1.311642e-01 -9.559367e-02 -1.225806e-02 5.121441e-01 6.551933e-01 3.426296e-01 2.635982e-01 3.401009e-01 3.372993e-01 1.476346e-01 9.240974e-02 -3.739530e-01
<VARIANCE> 39
 1.468917e+01 4.139186e+01 6.910280e+01 4.614071e+01 6.350365e+01 6.440723e+01 5.180238e+01 9.211210e+01 6.206304e+01 3.254375e+01 3.452714e+01 5.121069e+01 1.519984e+01 7.625439e-01 1.284123e+00 1.482206e+00 1.126367e+00 2.221905e+00 2.139662e+00 2.115941e+00 2.539734e+00 1.967927e+00 1.639270e+00 2.121263e+00 1.182002e+00 6.179215e-01 1.626560e-01 3.923974e-01 3.291553e-01 2.243904e-01 5.312043e-01 4.256115e-01 5.171385e-01 5.281261e-01 4.624902e-01 3.465785e-01 3.438232e-01 2.677479e-01 8.350965e-02
<GCONST> 1.112515e+02
<STATE> 4
<MEAN> 39
 -6.780690e+00 1.682935e+00 8.345591e+00 -1.468442e+00 -1.767691e+01 -1.823109e+01 -5.784650e+00 -7.550194e+00 -5.973066e+00 -7.413881e+00 1.521487e+00 1.852785e-01 7.541712e+01 -1.050228e-01 1.492152e-01 4.085339e-01 -4.054667e-02 -2.401161e-01 2.052734e-02 1.002437e-01 -2.456450e-01 9.669156e-02 9.265988e-02 1.746429e-01 9.687717e-02 -1.121105e-01 -9.422632e-02 9.033397e-02 -1.406016e-02 8.277587e-02 2.352005e-01 1.154121e-01 1.599945e-01 1.716401e-02 -1.307970e-02 9.051615e-03 -1.594805e-01 -8.845251e-02 -1.553333e-01
<VARIANCE> 39
 1.591985e+01 5.888852e+01 4.553665e+01 4.161091e+01 6.343758e+01 6.069157e+01 2.946914e+01 7.301485e+01 4.706548e+01 4.415162e+01 3.982975e+01 6.405092e+01 1.122260e+01 1.903521e-01 5.467858e-01 5.962858e-01 5.613218e-01 9.469113e-01 1.115729e+00 1.197888e+00 1.376620e+00 8.443354e-01 9.251961e-01 1.495720e+00 8.956656e-01 2.208710e-01 6.462429e-02 1.048130e-01 1.297285e-01 1.121289e-01 2.204292e-01 2.477807e-01 1.861813e-01 3.226667e-01 2.476144e-01 1.995161e-01 3.288130e-01 1.424549e-01 4.156397e-02
<GCONST> 9.143794e+01
<TRANSP> 5
 0.000000e+00 1.000000e+00 0.000000e+00 0.000000e+00 0.000000e+00
 0.000000e+00 8.525611e-01 1.474389e-01 0.000000e+00 0.000000e+00
 0.000000e+00 0.000000e+00 5.329721e-01 4.670279e-01 0.000000e+00
 0.000000e+00 0.000000e+00 0.000000e+00 5.607374e-01 4.392626e-01
 0.000000e+00 0.000000e+00 0.000000e+00 0.000000e+00 0.000000e+00
<ENDHMM>
~h "m"
<BEGINHMM>
<NUMSTATES> 5
<STATE> 2
<MEAN> 39
 2.005519e-01 7.422648e+00 7.132196e-02 2.070367e-02 -3.776730e+00 -3.794740e+00 -1.500748e+00 -8.090499e+00 -1.054031e+01 -1.127066e+01 -4.090297e+00 -1.840874e+00 6.374416e+01 1.048061e+00 -2.715750e-01 -8.929374e-01 -1.316991e+00 -1.099200e+00 -2.309603e-01 2.068013e-01 -3.383956e-01 3.842390e-02 2.848485e-02 -9.256497e-02 -6.197404e-02 1.356873e+00 -2.001246e-01 -4.500085e-01 -4.584150e-01 -5.076838e-01 -1.269229e-01 2.238976e-01 2.713030e-01 2.158746e-01 5.308445e-01 5.490699e-01 1.068682e-01 -1.684166e-03 7.236710e-02
<VARIANCE> 39
 1.193875e+01 2.244550e+01 3.507476e+01 3.511121e+01 4.494794e+01 4.334354e+01 5.138361e+01 4.898062e+01 3.889813e+01 3.988979e+01 3.992999e+01 2.365124e+01 2.259485e+01 1.220153e+00 1.987957e+00 2.916143e+00 3.860237e+00 2.403237e+00 2.126045e+00 2.407340e+00 3.172432e+00 4.410789e+00 4.859831e+00 2.306327e+00 1.619865e+00 9.438760e-01 1.517904e-01 2.382058e-01 3.068012e-01 3.968467e-01 3.816560e-01 3.925816e-01 4.238602e-01 4.616350e-01 5.497533e-01 5.637900e-01 4.546856e-01 3.152284e-01 1.244549e-01
<GCONST> 1.142483e+02
<STATE> 3
<MEAN> 39
 3.373384e+00 -6.027216e-02 -1.094095e+01 -1.503356e+01 -1.165843e+01 -1.440348e+00 4.227933e+00 -5.984433e+00 -3.262990e+00 -3.188751e+00 -3.776175e+00 -2.957031e+00 7.228213e+01 -1.098148e-01 -2.165570e+00 -1.819349e+00 -2.477067e+00 -1.542800e-01 1.903008e+00 1.506064e+00 -1.587083e-01 1.156168e+00 1.507465e+00 -1.017003e-01 -6.045677e-01 1.622913e+00 -3.299861e-01 2.469582e-01 7.325295e-01 1.072736e+00 7.806262e-01 3.621919e-02 -4.026767e-01 -1.738421e-01 -5.551915e-01 -5.119939e-01 -2.082751e-02 -3.148595e-02 -4.244096e-01
<VARIANCE> 39
 8.089096e+00 3.512684e+01 3.314905e+01 3.294183e+01 5.682328e+01 5.273051e+01 5.447546e+01 7.791257e+01 3.252415e+01 4.402986e+01 3.751512e+01 4.269685e+01 1.488896e+01 8.379262e-01 1.646385e+00 2.153596e+00 4.054904e+00 4.443406e+00 3.429693e+00 3.160183e+00 4.468669e+00 4.801551e+00 4.392677e+00 3.620662e+00 2.986577e+00 1.072111e+00 9.795725e-02 2.493073e-01 2.328908e-01 3.074335e-01 5.103193e-01 7.201365e-01 5.161815e-01 7.173682e-01 4.902576e-01 6.457583e-01 5.031831e-01 3.931331e-01 8.822121e-02
<GCONST> 1.178450e+02
<STATE> 4
<MEAN> 39
 1.326164e+00 -3.753158e+00 -1.162632e+01 -1.558060e+01 -8.621233e+00 1.242493e+00 3.814563e+00 -5.541511e+00 -2.541902e+00 -1.758441e+00 -3.932848e+00 -4.952386e+00 7.519733e+01 -2.522786e-01 -5.397198e-01 2.831532e-03 1.234808e-01 3.463053e-01 -2.718731e-02 -5.124887e-01 -8.847728e-02 3.933668e-02 3.634554e-01 2.284112e-01 -1.500100e-01 3.209645e-01 4.364143e-02 3.749960e-01 2.878586e-01 3.580574e-01 -1.010918e-01 -4.721372e-01 -3.346436e-01 5.137800e-02 -1.545490e-01 -1.879935e-01 7.653604e-02 1.627382e-01 -2.665282e-01
<VARIANCE> 39
 1.074607e+01 4.539292e+01 3.680268e+01 3.746648e+01 6.052579e+01 6.884165e+01 6.648543e+01 9.739524e+01 6.509196e+01 5.137591e+01 5.053351e+01 4.486881e+01 1.832513e+01 2.955144e-01 8.336267e-01 6.960132e-01 1.231599e+00 1.577747e+00 2.172598e+00 1.644138e+00 2.246166e+00 1.892138e+00 1.832087e+00 1.608171e+00 1.253912e+00 2.862053e-01 6.605605e-02 1.547600e-01 2.067146e-01 2.986189e-01 2.710474e-01 3.678924e-01 3.296600e-01 4.089027e-01 4.038081e-01 3.393475e-01 3.006125e-01 2.773585e-01 7.613229e-02
<GCONST> 1.039084e+02
<TRANSP> 5
 0.000000e+00 1.000000e+00 0.000000e+00 0.000000e+00 0.000000e+00
 0.000000e+00 8.628975e-01 1.371026e-01 0.000000e+00 0.000000e+00
 0.000000e+00 0.000000e+00 6.253651e-01 3.746349e-01 0.000000e+00
 0.000000e+00 0.000000e+00 0.000000e+00 6.336550e-01 3.663450e-01
 0.000000e+00 0.000000e+00 0.000000e+00 0.000000e+00 0.000000e+00
<ENDHMM>
~h "n"
<BEGINHMM>
<NUMSTATES> 5
<STATE> 2
<MEAN> 39
 2.998057e-01 2.627233e-01 -2.330865e+00 -1.630426e+00 -1.086581e+01 -1.108065e+01 -7.946277e+00 -7.425756e+00 -4.116384e+00 -7.817024e+00 -5.473551e+00 -7.411036e+00 6.931069e+01 4.328549e-03 6.051562e-01 2.998143e-01 2.617133e-01 4.425433e-01 -2.369989e-01 -5.809326e-01 -7.573089e-02 -2.590370e-01 -1.138473e-01 1.454579e-01 -5.401892e-02 -4.421662e-01 -1.203225e-01 -2.550820e-01 -3.802630e-02 -1.760848e-01 -1.739058e-01 9.728832e-02 1.936038e-01 6.245832e-02 1.889218e-01 8.121160e-02 -3.405091e-02 1.200794e-01 2.428100e-01
<VARIANCE> 39
 1.267401e+01 4.755435e+01 4.403404e+01 5.122610e+01 6.713873e+01 4.888137e+01 3.965376e+01 3.670287e+01 5.864681e+01 6.754529e+01 3.735501e+01 4.670966e+01 2.349018e+01 5.246723e-01 2.240118e+00 1.697201e+00 2.358428e+00 2.667921e+00 1.782359e+00 2.997477e+00 2.177198e+00 3.863919e+00 3.761081e+00 2.482492e+00 2.190772e+00 1.284948e+00 5.661369e-02 2.596192e-01 1.666420e-01 3.016696e-01 4.359292e-01 3.333754e-01 4.790475e-01 3.650206e-01 6.825792e-01 4.952349e-01 4.673393e-01 3.638976e-01 1.062152e-01
<GCONST> 1.137072e+02
<STATE> 3
<MEAN> 39
 -7.869669e-01 5.953933e-01 2.012861e-01 -1.127584e+00 -1.262371e+01 -1.097201e+01 -7.829699e+00 -5.977252e+00 1.216764e+00 -5.250235e+00 -5.405293e+00 -3.347113e+00 7.021584e+01 -6.569318e-01 -1.188915e+00 3.779052e-01 -1.731610e-01 -1.560106e+00 -4.004766e-01 8.559261e-01 9.896603e-01 8.844856e-01 6.773638e-02 -1.979731e-01 6.364868e-01 9.653431e-01 -4.385827e-03 5.184928e-02 4.890295e-02 -3.102864e-02 -6.161543e-02 -1.248009e-01 2.418189e-01 1.347976e-01 -3.438220e-01 7.421661e-03 2.113896e-01 -3.968570e-02 -4.368720e-02
<VARIANCE> 39
 1.360503e+01 4.423000e+01 6.715572e+01 3.088798e+01 7.000581e+01 4.192361e+01 4.073730e+01 5.046706e+01 5.837601e+01 5.182379e+01 4.080225e+01 3.376244e+01 2.656035e+01 4.704102e-01 2.379523e+00 1.996387e+00 1.255349e+00 3.110577e+00 2.760912e+00 4.702936e+00 3.504666e+00 4.878110e+00 2.896861e+00 2.960352e+00 2.653463e+00 1.007254e+00 6.515898e-02 4.645784e-01 2.944015e-01 2.193257e-01 5.715271e-01 3.628823e-01 6.736974e-01 6.545919e-01 9.130846e-01 5.875092e-01 4.272459e-01 5.157849e-01 2.259577e-01
<GCONST> 1.182985e+02
<STATE> 4
<MEAN> 39
 -2.809599e+00 -8.135579e-01 1.818312e+00 -2.358333e+00 -1.796438e+01 -1.189764e+01 -2.752774e+00 -3.844000e+00 -2.966817e+00 -7.144909e+00 -2.393909e+00 -2.964827e+00 7.065337e+01 -1.937028e-01 2.085736e-01 2.912661e-01 1.058789e-01 -5.016103e-02 -2.511197e-01 3.074222e-01 7.356743e-02 -4.633042e-01 -8.808283e-03 2.517895e-01 6.529037e-02 -3.129000e-01 3.591538e-02 5.408663e-02 -4.590547e-02 5.018593e-02 1.880497e-01 5.304925e-02 -1.256408e-01 -1.219005e-01 3.832477e-02 1.281379e-02 -7.063536e-02 -6.398440e-02 -1.028771e-01
<VARIANCE> 39
 1.205987e+01 4.650206e+01 5.240232e+01 2.536705e+01 8.390164e+01 4.511965e+01 5.121467e+01 6.164172e+01 6.554649e+01 5.510728e+01 6.251036e+01 4.175868e+01 2.254791e+01 2.137795e-01 6.705634e-01 7.350503e-01 6.424665e-01 1.877664e+00 9.443036e-01 1.401691e+00 1.261891e+00 1.451637e+00 1.752407e+00 1.595925e+00 1.248451e+00 2.479254e-01 4.663803e-02 1.437868e-01 1.218224e-01 1.388317e-01 2.671300e-01 1.842458e-01 3.032963e-01 2.485988e-01 2.552533e-01 2.998556e-01 2.337690e-01 1.898508e-01 4.265799e-02
<GCONST> 9.582861e+01
<TRANSP> 5
 0.000000e+00 1.000000e+00 0.000000e+00 0.000000e+00 0.000000e+00
 0.000000e+00 7.983710e-01 2.016290e-01 0.000000e+00 0.000000e+00
 0.000000e+00 0.000000e+00 7.583631e-01 2.416369e-01 0.000000e+00
 0.000000e+00 0.000000e+00 0.000000e+00 8.386108e-01 1.613893e-01
 0.000000e+00 0.000000e+00 0.000000e+00 0.000000e+00 0.000000e+00
<ENDHMM>
~h "p"
<BEGINHMM>
<NUMSTATES> 5
<STATE> 2
<MEAN> 39
 -2.662884e+00 -1.864350e+00 -8.689703e+00 -1.397577e+01 -9.017988e+00 -1.419788e+00 3.997963e+00 -2.311333e+00 -2.059289e+00 -1.890667e+00 -3.032604e+00 -2.666347e+00 6.908784e+01 1.662943e+00 3.686835e-01 -2.616047e-01 -1.598241e+00 -1.665387e+00 -1.458004e-01 3.907722e-01 -4.140260e-01 -7.611078e-01 -3.975500e-01 -3.623487e-01 -4.885243e-01 1.318835e+00 -1.438440e-01 -9.763834e-02 9.626478e-02 2.041422e-01 -4.705757e-03 -4.471762e-02 -2.358970e-01 -2.511494e-02 9.736730e-02 7.724009e-02 1.954097e-01 1.050627e-01 -1.507273e-01
<VARIANCE> 39
 3.368312e+01 5.180193e+01 2.819557e+01 4.038311e+01 5.865773e+01 8.044881e+01 7.028324e+01 5.045377e+01 3.451746e+01 4.117565e+01 2.956267e+01 3.123706e+01 3.063457e+01 2.871499e+00 4.840957e+00 2.444230e+00 3.316083e+00 4.675781e+00 5.137941e+00 5.374179e+00 4.247729e+00 3.075677e+00 3.375467e+00 2.739912e+00 2.453675e+00 2.268205e+00 6.154037e-01 7.801806e-01 3.882516e-01 5.777172e-01 7.572129e-01 8.454843e-01 9.179745e-01 7.276232e-01 5.582941e-01 6.139678e-01 4.622147e-01 4.234620e-01 4.430408e-01
<GCONST> 1.298239e+02
<STATE> 3
<MEAN> 39
 8.694661e-01 -4.030346e+00 -9.702357e+00 -1.707463e+01 -1.446511e+01 -4.677069e+00 3.404768e+00 -5.001882e-01 -3.681925e+00 -2.829759e+00 -2.086256e+00 -3.465214e+00 7.515607e+01 8.283875e-02 -2.998856e-01 5.692747e-02 -9.333418e-02 -4.307693e-01 1.867065e-02 -4.882558e-01 -3.177318e-01 3.910319e-01 5.089640e-01 2.245367e-01 -1.604515e-01 1.105838e-01 -2.286758e-01 7.324190e-02 6.519482e-02 3.000102e-01 2.826327e-01 -1.980798e-02 -1.227245e-01 1.257630e-02 2.051753e-01 5.527031e-02 -7.161953e-02 2.311017e-02 -2.873225e-01
<VARIANCE> 39
 1.397856e+01 5.729564e+01 3.061086e+01 3.137387e+01 5.393194e+01 9.733938e+01 7.976182e+01 8.689477e+01 6.427141e+01 5.005987e+01 3.356409e+01 4.723442e+01 2.720835e+01 7.250398e-01 2.324114e+00 8.664967e-01 1.483340e+00 1.911917e+00 2.149703e+00 3.465452e+00 2.676799e+00 3.293136e+00 2.406897e+00 1.957392e+00 2.207317e+00 1.201768e+00 2.292779e-01 3.884098e-01 1.937166e-01 3.675095e-01 4.780285e-01 4.877257e-01 5.969415e-01 5.447786e-01 5.643885e-01 4.511195e-01 3.553978e-01 3.482583e-01 1.515375e-01
<GCONST> 1.165349e+02
<STATE> 4
<MEAN> 39
 2.526986e+00 -3.826231e+00 -1.045418e+01 -1.634864e+01 -1.387751e+01 -1.222878e+00 6.202793e-01 -4.630585e+00 -1.880644e+00 -1.819985e+00 -1.375292e+00 -3.876893e+00 7.420879e+01 -8.813020e-02 -1.953830e-01 7.641056e-02 4.760587e-01 6.142903e-02 -4.236280e-01 -7.265425e-01 -1.221845e-01 5.893776e-01 2.694097e-01 -1.557747e-02 -1.438718e-01 4.868299e-03 -7.467980e-02 1.050982e-01 8.688158e-02 1.957626e-01 9.231762e-02 -1.839530e-01 -4.743914e-02 4.990415e-02 2.766163e-02 -9.079902e-02 -5.294921e-02 2.578757e-02 -1.112982e-01
<VARIANCE> 39
 9.595641e+00 7.737484e+01 4.803002e+01 3.885427e+01 9.038653e+01 7.501161e+01 7.235752e+01 5.185635e+01 6.929686e+01 4.746376e+01 3.641043e+01 4.599221e+01 1.983305e+01 2.091289e-01 8.265767e-01 6.605082e-01 1.166542e+00 1.409034e+00 1.771403e+00 1.856129e+00 1.587611e+00 1.524583e+00 1.373133e+00 1.451377e+00 1.248653e+00 2.643502e-01 5.470485e-02 1.454415e-01 1.169664e-01 1.540704e-01 2.797077e-01 2.629286e-01 2.962748e-01 2.574835e-01 2.361927e-01 2.584957e-01 2.456025e-01 2.530210e-01 4.706649e-02
<GCONST> 9.869840e+01
<TRANSP> 5
 0.000000e+00 1.000000e+00 0.000000e+00 0.000000e+00 0.000000e+00
 0.000000e+00 8.162056e-01 1.837944e-01 0.000000e+00 0.000000e+00
 0.000000e+00 0.000000e+00 6.689828e-01 3.310172e-01 0.000000e+00
 0.000000e+00 0.000000e+00 0.000000e+00 6.626196e-01 3.373804e-01
 0.000000e+00 0.000000e+00 0.000000e+00 0.000000e+00 0.000000e+00
<ENDHMM>
~h "r"
<BEGINHMM>
<NUMSTATES> 5
<STATE> 2
<MEAN> 39
 -6.865108e+00 2.610889e-01 2.188480e+00 -2.168592e+00 -8.170442e+00 -1.205879e+01 -5.159114e+00 -3.410662e+00 -1.035182e+00 -6.161061e+00 1.279852e+00 -7.106354e-01 6.701398e+01 1.352913e-01 -2.953626e-01 5.501941e-01 2.637658e-01 -6.623464e-01 -2.825934e-01 4.030218e-02 -2.887582e-01 -4.062183e-02 -4.335614e-01 -6.673021e-02 -6.951338e-02 6.598210e-01 1.220664e-01 -1.712346e-02 1.077338e-02 3.375509e-02 -3.254245e-01 -2.568157e-01 -7.088773e-02 -2.793107e-02 -1.046978e-01 -4.133256e-02 1.213913e-01 8.030928e-02 1.557890e-01
<VARIANCE> 39
 3.387965e+01 2.143893e+01 3.756738e+01 4.178673e+01 6.289418e+01 7.479937e+01 4.653461e+01 3.410022e+01 2.344857e+01 3.391219e+01 3.516791e+01 2.039779e+01 4.552020e+01 2.840086e+00 2.620633e+00 1.979972e+00 3.300004e+00 7.009606e+00 5.022866e+00 3.790086e+00 3.452994e+00 1.985133e+00 2.828150e+00 3.402366e+00 2.335154e+00 4.709209e+00 4.708224e-01 5.060232e-01 3.649892e-01 6.368876e-01 1.237763e+00 8.594818e-01 6.811134e-01 6.945170e-01 3.348560e-01 6.029935e-01 6.621720e-01 4.246004e-01 8.855091e-01
<GCONST> 1.273160e+02
<STATE> 3
<MEAN> 39
 -2.732103e+00 -6.472003e-01 5.776232e+00 2.441261e+00 -1.599082e+01 -1.477461e+01 -7.118621e+00 -5.269157e+00 -1.669020e+00 -5.069420e+00 1.473113e+00 1.814010e+00 6.785167e+01 1.403862e-01 -2.197556e-01 -1.796105e-01 8.267763e-02 -6.633995e-01 -3.442952e-01 2.737083e-01 1.893267e-01 -2.781570e-01 -1.363921e-01 5.003785e-01 3.308867e-01 1.719374e-01 -7.141353e-02 1.217883e-01 -5.801595e-02 -1.153170e-01 1.724221e-01 -3.353771e-02 1.336991e-01 5.580077e-02 -5.589695e-02 6.907380e-02 5.352391e-02 -2.906008e-02 -1.013014e-01
<VARIANCE> 39
 1.651619e+01 2.084537e+01 4.762114e+01 3.082543e+01 5.379128e+01 4.240260e+01 4.266065e+01 2.534951e+01 4.754523e+01 3.128240e+01 3.127922e+01 3.490595e+01 2.391050e+01 1.132469e+00 2.236208e+00 2.058029e+00 1.695212e+00 5.797873e+00 3.461850e+00 2.729663e+00 2.364679e+00 2.095124e+00 2.825201e+00 3.257215e+00 2.901245e+00 1.602486e+00 2.376559e-01 4.710491e-01 4.239379e-01 3.674558e-01 1.231902e+00 7.693510e-01 5.185450e-01 3.693624e-01 4.729965e-01 5.772008e-01 5.265804e-01 6.109089e-01 3.313120e-01
<GCONST> 1.192495e+02
<STATE> 4
<MEAN> 39
 -1.309696e+00 -1.720251e+00 4.356520e+00 -2.062007e+00 -1.881516e+01 -1.801905e+01 -4.347578e+00 -6.053566e+00 -5.609283e+00 -7.368372e+00 5.239974e+00 -1.257725e+00 7.050517e+01 -2.098336e-01 3.184597e-01 -9.873326e-02 -1.149448e-01 1.703818e-01 -1.044548e-02 1.620890e-01 6.716934e-02 -1.927060e-01 1.043316e-01 -2.690746e-02 -1.121133e-01 -3.448932e-01 -7.549041e-02 4.246946e-02 -4.070612e-02 5.528862e-02 2.169816e-01 1.475532e-01 -6.422155e-03 -1.078888e-02 4.389284e-02 4.623026e-02 -2.016200e-01 1.042214e-02 -1.472725e-01
<VARIANCE> 39
 8.660354e+00 1.307568e+01 3.814088e+01 4.913902e+01 3.225131e+01 6.610229e+01 3.866141e+01 3.629871e+01 3.430220e+01 4.436163e+01 4.165533e+01 3.516299e+01 1.818997e+01 2.917029e-01 3.916675e-01 5.905955e-01 5.989844e-01 1.131184e+00 1.090243e+00 1.261936e+00 1.038214e+00 1.495634e+00 1.246379e+00 1.372487e+00 1.092776e+00 4.041303e-01 5.862444e-02 8.415652e-02 1.083782e-01 1.155041e-01 2.444049e-01 1.823369e-01 2.040497e-01 1.840790e-01 2.970851e-01 2.249064e-01 2.417176e-01 2.017154e-01 4.178618e-02
<GCONST> 8.877862e+01
<TRANSP> 5
 0.000000e+00 1.000000e+00 0.000000e+00 0.000000e+00 0.000000e+00
 0.000000e+00 8.623804e-01 1.376195e-01 0.000000e+00 0.000000e+00
 0.000000e+00 0.000000e+00 7.929108e-01 2.070892e-01 0.000000e+00
 0.000000e+00 0.000000e+00 0.000000e+00 8.592808e-01 1.407192e-01
 0.000000e+00 0.000000e+00 0.000000e+00 0.000000e+00 0.000000e+00
<ENDHMM>
~h "t"
<BEGINHMM>
<NUMSTATES> 5
<STATE> 2
<MEAN> 39
 -1.127261e+01 -2.841435e+00 -4.925626e+00 -6.880344e+00 -4.041012e+00 -4.613860e+00 -2.691882e+00 -2.826448e+00 1.358445e+00 -1.536162e+00 -6.251127e-01 -4.267435e-01 6.767099e+01 9.588246e-01 -5.482286e-04 6.973326e-03 -7.659203e-01 -6.677745e-01 -5.927843e-01 -2.951131e-01 -8.394660e-01 -4.765989e-01 -2.436895e-01 -5.406390e-01 -6.292800e-01 1.855767e+00 5.979124e-01 3.180837e-01 -2.898898e-02 -2.970579e-02 -2.945989e-01 -3.460675e-02 1.121326e-01 -1.595346e-01 -3.263164e-01 -1.337508e-02 -4.478090e-02 -6.899387e-02 -2.430475e-01
<VARIANCE> 39
 4.358080e+01 4.162203e+01 3.915522e+01 3.784342e+01 3.477687e+01 4.635825e+01 3.724389e+01 3.773606e+01 3.460291e+01 2.731012e+01 2.868266e+01 2.731197e+01 5.725137e+01 6.154629e+00 4.959120e+00 3.003712e+00 3.940859e+00 4.437244e+00 5.664466e+00 4.035059e+00 4.148496e+00 4.695482e+00 3.326650e+00 2.868353e+00 3.024867e+00 6.207788e+00 6.357498e-01 7.975550e-01 4.875368e-01 6.116843e-01 7.330544e-01 1.035326e+00 8.055896e-01 7.036253e-01 7.522427e-01 6.085872e-01 5.428199e-01 5.543869e-01 1.223120e+00
<GCONST> 1.328305e+02
<STATE> 3
<MEAN> 39
 -6.875588e-01 -2.894903e-01 -5.884661e+00 -1.149943e+01 -1.020610e+01 -7.449166e+00 -2.803317e+00 -7.695597e+00 -4.056307e+00 -2.336826e+00 -3.255322e+00 -3.645848e+00 7.268575e+01 1.906289e+00 1.451812e-01 -4.963917e-01 -9.895134e-01 -1.975496e+00 -5.514969e-01 3.262621e-01 -7.119889e-01 -1.020580e+00 -6.798620e-02 1.155807e-01 6.024586e-03 7.076313e-01 -7.630708e-01 -4.955788e-01 -1.876807e-02 2.196138e-01 2.766673e-01 3.044669e-01 1.124747e-01 4.170777e-01 4.649566e-01 1.371194e-01 3.393615e-01 3.027778e-01 -2.615140e-01
<VARIANCE> 39
 2.424125e+01 3.751312e+01 5.859271e+01 6.504570e+01 5.667181e+01 7.387886e+01 5.853376e+01 5.785280e+01 4.426145e+01 5.131071e+01 3.976249e+01 4.612727e+01 2.218177e+01 3.053491e+00 3.450725e+00 2.393543e+00 3.097717e+00 4.529070e+00 5.654137e+00 4.787921e+00 4.213757e+00 3.684388e+00 3.480137e+00 3.149705e+00 3.212853e+00 1.367100e+00 2.951812e-01 4.286237e-01 3.617034e-01 4.863291e-01 6.635223e-01 7.092525e-01 6.711686e-01 6.602691e-01 5.689818e-01 5.112590e-01 4.925027e-01 5.487798e-01 2.958841e-01
<GCONST> 1.281949e+02
<STATE> 4
<MEAN> 39
 4.035366e-01 -1.423605e+00 -7.173698e+00 -1.208877e+01 -1.330720e+01 -7.953794e+00 -1.855560e+00 -7.517375e+00 -3.826597e+00 -3.132286e+00 -1.441425e+00 -1.935305e+00 7.316273e+01 7.573678e-02 -4.225648e-01 -1.565307e-01 8.217435e-02 -2.048482e-01 1.013169e-01 3.551124e-02 -1.396961e-01 -3.929592e-02 1.046344e-01 3.209212e-01 1.934924e-01 1.173267e-01 -2.935151e-01 -6.678918e-02 1.078108e-01 2.960665e-01 3.974267e-01 2.229736e-02 -1.885631e-01 2.181904e-02 1.397595e-01 8.626904e-02 7.857546e-03 -2.472559e-02 -1.100611e-01
<VARIANCE> 39
 2.791666e+01 4.890626e+01 5.960305e+01 8.524384e+01 7.087943e+01 8.377027e+01 5.343005e+01 5.917561e+01 5.406905e+01 6.874509e+01 4.359708e+01 5.484586e+01 2.180132e+01 9.246063e-01 1.311237e+00 1.202442e+00 1.720427e+00 1.875679e+00 2.639832e+00 2.434932e+00 2.278738e+00 2.142858e+00 2.077038e+00 2.070371e+00 2.020212e+00 6.726092e-01 2.267652e-01 2.617888e-01 2.077124e-01 3.312929e-01 4.404880e-01 5.387429e-01 5.494547e-01 4.803814e-01 4.262867e-01 4.575485e-01 3.904788e-01 4.092413e-01 1.065640e-01
<GCONST> 1.160417e+02
<TRANSP> 5
 0.000000e+00 1.000000e+00 0.000000e+00 0.000000e+00 0.000000e+00
 0.000000e+00 7.967616e-01 2.032384e-01 0.000000e+00 0.000000e+00
 0.000000e+00 0.000000e+00 5.307293e-01 4.692707e-01 0.000000e+00
 0.000000e+00 0.000000e+00 0.000000e+00 6.654428e-01 3.345573e-01
 0.000000e+00 0.000000e+00 0.000000e+00 0.000000e+00 0.000000e+00
<ENDHMM>
~h "u"
<BEGINHMM>
<NUMSTATES> 5
<STATE> 2
<MEAN> 39
 -5.267667e+00 5.012358e+00 7.167654e+00 3.819618e+00 -9.658500e+00 -1.209789e+01 -2.435925e+00 -9.006839e+00 -6.452237e+00 -5.179243e+00 5.877709e-01 -5.616053e-01 6.451855e+01 4.764954e-01 4.339407e-01 -8.405038e-01 -3.824311e-01 7.068398e-01 7.022841e-01 -3.005538e-01 -1.487692e-01 1.026164e-01 2.159357e-01 2.569338e-01 2.373029e-02 -5.702518e-01 -1.417351e-01 -5.166028e-02 -7.143665e-03 -1.157447e-01 1.512081e-01 3.237590e-01 6.734900e-02 -2.014491e-02 6.435762e-02 4.717282e-02 -6.927595e-02 -5.322317e-02 -4.463818e-02
<VARIANCE> 39
 1.056515e+01 2.227930e+01 5.873011e+01 5.679083e+01 3.830478e+01 5.670001e+01 2.291127e+01 4.336962e+01 2.795819e+01 5.005698e+01 3.785084e+01 2.126063e+01 1.253539e+01 3.458391e-01 6.528176e-01 8.977606e-01 2.120949e+00 1.342519e+00 2.997455e+00 1.466653e+00 3.203128e+00 2.244248e+00 2.361130e+00 2.419394e+00 1.419275e+00 3.274209e-01 8.128762e-02 1.581566e-01 1.441839e-01 2.378440e-01 1.744879e-01 5.445023e-01 2.599533e-01 5.254042e-01 3.366148e-01 5.901803e-01 5.243323e-01 3.230437e-01 3.286447e-02
<GCONST> 1.012998e+02
<STATE> 3
<MEAN> 39
 -3.978668e+00 6.370466e+00 2.714533e+00 3.516148e+00 -4.261209e+00 -1.223803e+01 -6.193857e+00 -6.803359e+00 -3.142958e+00 -7.197134e+00 -1.866085e+00 -5.137936e-01 6.350531e+01 4.757628e-02 -1.378425e-01 -9.568264e-01 -4.991966e-01 1.067321e+00 1.595757e+00 -6.733505e-02 -2.842042e-01 3.887228e-01 8.215955e-01 -2.095394e-01 -5.488620e-01 -6.223430e-01 -1.541301e-01 -1.764272e-01 1.472142e-02 -1.030486e-01 -1.459094e-01 5.166659e-02 2.578315e-01 1.579157e-01 -1.042982e-01 1.477910e-01 1.606771e-01 8.990581e-02 3.890074e-02
<VARIANCE> 39
 1.507585e+01 1.805996e+01 1.992159e+01 3.515187e+01 3.041687e+01 2.652555e+01 3.228881e+01 2.429164e+01 2.977648e+01 1.955179e+01 2.158186e+01 1.346100e+01 1.365189e+01 2.957098e-01 9.932760e-01 6.378663e-01 1.042875e+00 1.190174e+00 1.682734e+00 1.266473e+00 1.760894e+00 1.479053e+00 1.967484e+00 1.277032e+00 8.501230e-01 2.225563e-01 3.561269e-02 1.098091e-01 8.352648e-02 2.069753e-01 1.892200e-01 3.596343e-01 1.910939e-01 2.816462e-01 2.880850e-01 2.624289e-01 2.499227e-01 1.675883e-01 3.567771e-02
<GCONST> 8.705755e+01
<STATE> 4
<MEAN> 39
 -5.514355e+00 3.735972e+00 -8.716193e-01 1.673248e+00 9.494954e-02 -3.747515e+00 -1.539863e+00 -4.829492e+00 -1.211113e+00 -1.819988e+00 -9.997433e-01 -9.250081e-01 5.991226e+01 -2.859232e-01 -2.454678e-01 -2.710064e-01 -2.224025e-01 2.174246e-01 5.690655e-01 3.485824e-01 4.316292e-01 1.707195e-01 2.935303e-01 1.343588e-01 1.497272e-01 -3.918965e-01 -2.910791e-02 -2.207048e-03 6.398573e-02 2.431005e-02 -8.445210e-02 -9.876338e-02 -5.241333e-03 2.877088e-02 -2.373242e-02 -8.067662e-02 4.347466e-03 2.643104e-02 4.408580e-02
<VARIANCE> 39
 1.165622e+01 2.466503e+01 7.838587e+00 1.957570e+01 1.893002e+01 2.444348e+01 3.900337e+01 4.910102e+01 3.349718e+01 1.662878e+01 1.462928e+01 1.644463e+01 1.852587e+01 2.496485e-01 7.350878e-01 6.587853e-01 1.030449e+00 1.038144e+00 1.185583e+00 1.549066e+00 1.686875e+00 1.576877e+00 1.532380e+00 1.284226e+00 9.226422e-01 1.745812e-01 4.119948e-02 1.256346e-01 1.153043e-01 1.794052e-01 1.818085e-01 2.172146e-01 2.783014e-01 3.324027e-01 3.029547e-01 3.225708e-01 2.333925e-01 1.855026e-01 2.394738e-02
<GCONST> 8.523177e+01
<TRANSP> 5
 0.000000e+00 1.000000e+00 0.000000e+00 0.000000e+00 0.000000e+00
 0.000000e+00 6.687027e-01 3.312973e-01 0.000000e+00 0.000000e+00
 0.000000e+00 0.000000e+00 7.551022e-01 2.448978e-01 0.000000e+00
 0.000000e+00 0.000000e+00 0.000000e+00 8.836180e-01 1.163820e-01
 0.000000e+00 0.000000e+00 0.000000e+00 0.000000e+00 0.000000e+00
<ENDHMM>
~h "aa"
<BEGINHMM>
<NUMSTATES> 5
<STATE> 2
<MEAN> 39
 1.069446e+00 -7.772447e+00 -1.382164e+01 -1.522409e+01 -4.358292e+00 3.609014e+00 2.889139e+00 -7.616650e+00 -3.519933e+00 -1.430250e+00 -5.597693e+00 -6.590012e+00 7.544913e+01 -3.017881e-02 1.398930e-02 1.840877e-02 1.129045e-01 -2.847553e-02 -1.513210e-01 -1.358376e-01 1.087849e-01 2.059196e-01 2.133687e-02 8.960254e-02 -1.120583e-01 -7.168786e-02 1.442827e-02 1.291486e-01 6.315238e-02 4.952548e-02 -7.199964e-02 -1.616582e-01 -7.000905e-02 5.838263e-02 5.596140e-02 2.574423e-02 4.581097e-02 5.382726e-02 -8.904003e-02
<VARIANCE> 39
 1.164704e+01 2.867496e+01 3.072891e+01 3.504428e+01 4.640662e+01 4.693629e+01 5.919497e+01 8.594738e+01 5.299860e+01 4.741467e+01 5.158384e+01 3.870524e+01 1.580968e+01 1.760621e-01 3.758581e-01 3.871412e-01 5.691564e-01 8.050363e-01 1.146007e+00 1.062366e+00 1.390416e+00 9.820161e-01 9.687458e-01 9.713371e-01 9.183359e-01 1.843184e-01 3.939162e-02 6.721402e-02 7.208018e-02 1.086523e-01 1.414447e-01 1.837610e-01 1.941904e-01 2.370070e-01 1.814363e-01 1.935504e-01 1.826810e-01 1.767388e-01 3.157499e-02
<GCONST> 8.535637e+01
<STATE> 3
<MEAN> 39
 7.262665e-01 -2.682292e+00 -1.180132e+01 -1.287220e+01 -5.735849e+00 -1.188627e+00 7.238642e-01 -5.372528e+00 -2.478558e+00 -7.071349e-02 -2.013022e+00 -5.236023e+00 6.934994e+01 -3.255266e-01 1.038593e+00 6.703793e-01 9.867839e-01 9.746146e-02 -7.119380e-01 -6.419120e-01 2.366779e-01 2.447058e-01 2.118479e-01 5.454282e-01 7.488319e-01 -1.641490e+00 -1.492964e-01 -1.798496e-02 5.487002e-02 1.470300e-01 1.140970e-01 1.774290e-01 1.332034e-01 1.773403e-02 -7.925976e-02 -1.314972e-01 -5.084568e-02 5.482846e-02 -1.868692e-01
<VARIANCE> 39
 9.856420e+00 3.063729e+01 3.111578e+01 3.324435e+01 3.678353e+01 3.845994e+01 5.037426e+01 3.862057e+01 4.419820e+01 3.932367e+01 4.554238e+01 4.486506e+01 4.242798e+01 9.039240e-01 1.155444e+00 1.547209e+00 1.898439e+00 1.885040e+00 3.739197e+00 2.761866e+00 2.687791e+00 2.892629e+00 2.237721e+00 2.180083e+00 2.349525e+00 1.064596e+00 1.256167e-01 2.228521e-01 2.570081e-01 2.940725e-01 3.453309e-01 5.894058e-01 5.275618e-01 4.292909e-01 4.597820e-01 3.528465e-01 3.401511e-01 4.650955e-01 2.287449e-01
<GCONST> 1.122568e+02
<STATE> 4
<MEAN> 39
 -3.886328e+00 9.490539e-01 -8.216779e+00 -7.678513e+00 -4.811195e+00 -1.617802e+00 2.997950e-01 -2.106162e+00 -4.669750e-01 -4.539210e-02 -3.038374e-01 -1.776309e+00 6.048736e+01 -8.997415e-01 -6.867836e-02 3.929803e-01 5.028127e-01 1.585602e-01 -1.965291e-01 -1.057261e-01 3.001896e-01 1.865485e-01 -6.546642e-02 8.824542e-03 2.570736e-01 -7.078870e-01 -4.843542e-02 -2.094758e-01 8.671097e-03 -1.956947e-01 -1.523812e-02 -1.201602e-01 -1.009093e-01 -1.227692e-01 -7.984883e-03 -2.350828e-02 -5.790821e-02 -5.656751e-02 5.026920e-01
<VARIANCE> 39
 1.535447e+01 2.696598e+01 2.782985e+01 2.149674e+01 2.156787e+01 3.049569e+01 2.872277e+01 2.138248e+01 1.966536e+01 2.040688e+01 2.578584e+01 2.611433e+01 3.752350e+01 9.946290e-01 1.392348e+00 1.110005e+00 1.375732e+00 1.568117e+00 2.350467e+00 1.725473e+00 2.067698e+00 2.218690e+00 1.834106e+00 1.685571e+00 1.981168e+00 2.125773e+00 1.916644e-01 2.288344e-01 2.459400e-01 2.939858e-01 2.997186e-01 4.579073e-01 3.550993e-01 3.622786e-01 4.171590e-01 3.353508e-01 3.855152e-01 3.607642e-01 3.368978e-01
<GCONST> 1.050091e+02
<TRANSP> 5
 0.000000e+00 1.000000e+00 0.000000e+00 0.000000e+00 0.000000e+00
 0.000000e+00 9.159737e-01 8.402630e-02 0.000000e+00 0.000000e+00
 0.000000e+00 0.000000e+00 7.896296e-01 2.103703e-01 0.000000e+00
 0.000000e+00 0.000000e+00 0.000000e+00 8.272399e-01 1.727601e-01
 0.000000e+00 0.000000e+00 0.000000e+00 0.000000e+00 0.000000e+00
<ENDHMM>
~h "ae"
<BEGINHMM>
<NUMSTATES> 5
<STATE> 2
<MEAN> 39
 1.609967e-01 -9.381033e+00 -1.191544e+01 -1.395612e+01 -7.773036e+00 -1.532153e+00 -3.688993e-01 -4.115364e+00 1.458086e-01 -1.149705e-01 -4.742002e+00 -7.768236e+00 7.673070e+01 -1.910771e-01 -4.373043e-02 3.374299e-01 7.678638e-01 -2.286432e-01 -1.411519e+00 -6.280258e-01 7.863056e-01 8.364076e-01 -1.615086e-01 -3.200080e-01 -3.636243e-02 -5.337798e-02 -1.512681e-02 9.865370e-02 1.045862e-01 4.656164e-02 -1.048758e-01 -1.429609e-01 1.984945e-02 8.310948e-02 -4.699574e-02 -6.681071e-02 4.899464e-02 1.214661e-01 -5.618157e-02
<VARIANCE> 39
 9.761909e+00 2.179211e+01 3.201174e+01 3.651738e+01 4.466337e+01 6.547050e+01 5.071810e+01 7.605761e+01 6.666553e+01 6.399648e+01 4.927841e+01 3.587686e+01 1.020549e+01 2.283445e-01 4.925830e-01 6.665655e-01 1.064802e+00 1.277236e+00 2.334455e+00 1.863184e+00 2.222326e+00 1.957051e+00 1.497773e+00 1.398734e+00 1.261614e+00 1.674768e-01 3.363888e-02 6.746200e-02 9.428086e-02 1.299722e-01 2.002443e-01 2.370384e-01 3.227273e-01 3.039732e-01 3.299544e-01 2.676116e-01 2.789205e-01 2.068497e-01 2.064181e-02
<GCONST> 9.332090e+01
<STATE> 3
<MEAN> 39
 -1.926879e+00 -6.213309e+00 -4.594333e+00 -5.892745e+00 -1.429099e+01 -1.682247e+01 -3.545600e+00 3.147094e+00 3.490835e+00 -2.069622e+00 -3.195518e+00 -4.386160e+00 7.361195e+01 -2.996410e-01 7.727535e-01 1.006102e+00 5.890979e-01 -7.237506e-01 -5.872608e-01 1.152004e-01 -3.574524e-01 -6.145661e-01 -1.597041e-01 7.150699e-01 5.710142e-01 -6.414546e-01 -2.755658e-02 3.958167e-02 -5.377287e-02 -4.262770e-02 1.514777e-01 2.716045e-01 4.478227e-03 -2.045515e-01 -7.438451e-02 3.171211e-02 -2.528956e-02 -9.209830e-02 -6.498917e-02
<VARIANCE> 39
 1.032785e+01 2.715932e+01 5.639144e+01 4.153334e+01 5.819999e+01 4.426827e+01 5.586010e+01 3.347959e+01 3.742116e+01 5.046191e+01 3.507347e+01 3.800385e+01 1.339524e+01 2.467966e-01 5.219523e-01 7.395135e-01 9.753886e-01 1.304978e+00 1.276579e+00 1.210832e+00 1.527643e+00 1.194631e+00 1.334219e+00 1.354150e+00 1.297536e+00 1.698663e-01 3.704766e-02 8.522299e-02 1.170389e-01 1.802146e-01 1.804852e-01 1.898437e-01 2.116095e-01 2.449149e-01 2.001714e-01 2.358061e-01 2.127264e-01 1.665770e-01 2.574682e-02
<GCONST> 8.979723e+01
<STATE> 4
<MEAN> 39
 -6.117695e+00 -5.134104e-01 -5.215327e-01 -1.448198e+00 -1.255911e+01 -1.501546e+01 -1.622556e+00 3.363233e-01 2.259576e-01 -1.958775e+00 -9.572278e-01 -1.917727e+00 6.481454e+01 -3.824482e-01 2.646310e-01 -4.574952e-02 2.553160e-01 6.112615e-01 5.866126e-01 2.368708e-01 -8.007153e-02 -8.085603e-02 1.555124e-01 3.128403e-02 1.681593e-01 -1.012014e+00 8.578212e-04 -7.735045e-02 -9.574577e-02 -4.440662e-02 9.034000e-02 9.170806e-02 1.609381e-02 6.746408e-02 7.378194e-02 3.518349e-02 -6.398736e-03 1.879665e-02 1.849163e-03
<VARIANCE> 39
 1.748644e+01 2.795318e+01 4.995481e+01 2.458835e+01 5.671030e+01 5.118145e+01 5.924570e+01 4.222276e+01 3.915022e+01 4.769593e+01 4.181596e+01 4.315244e+01 3.352384e+01 2.836142e-01 7.342510e-01 9.047685e-01 1.036402e+00 1.282961e+00 1.683636e+00 1.527098e+00 1.703230e+00 1.590818e+00 1.751611e+00 2.170951e+00 1.528195e+00 3.722755e-01 4.325221e-02 9.724291e-02 1.572304e-01 1.656826e-01 1.913960e-01 2.965149e-01 2.897241e-01 3.072439e-01 2.828797e-01 2.955000e-01 3.907652e-01 2.755537e-01 4.123012e-02
<GCONST> 9.834562e+01
<TRANSP> 5
 0.000000e+00 1.000000e+00 0.000000e+00 0.000000e+00 0.000000e+00
 0.000000e+00 9.091265e-01 9.087349e-02 0.000000e+00 0.000000e+00
 0.000000e+00 0.000000e+00 8.699865e-01 1.300136e-01 0.000000e+00
 0.000000e+00 0.000000e+00 0.000000e+00 9.103748e-01 8.962516e-02
 0.000000e+00 0.000000e+00 0.000000e+00 0.000000e+00 0.000000e+00
<ENDHMM>
~h "ai"
<BEGINHMM>
<NUMSTATES> 5
<STATE> 2
<MEAN> 39
 -6.862786e-01 -7.726832e+00 -5.556582e+00 -7.980697e+00 -1.121368e+01 -1.387249e+01 -7.214992e+00 -1.895277e+00 4.048349e+00 -1.539169e+00 -3.726577e+00 -4.979691e+00 7.580260e+01 -4.668768e-01 9.307056e-01 1.675545e+00 1.503830e+00 -1.233382e+00 -1.967279e+00 -5.303873e-01 -7.661229e-02 -4.298360e-01 -9.142569e-01 5.881063e-01 1.144722e+00 -4.811540e-01 -5.654263e-02 2.245622e-01 6.340984e-02 -1.018026e-01 -5.726203e-02 3.829934e-01 3.559126e-01 -3.180416e-01 -5.036494e-01 -4.810703e-02 2.115455e-01 3.975944e-02 -1.126334e-01
<VARIANCE> 39
 1.150313e+01 3.041408e+01 6.474712e+01 4.393648e+01 7.205503e+01 8.041695e+01 4.328820e+01 4.764095e+01 4.662606e+01 8.315920e+01 5.452908e+01 4.697445e+01 1.175956e+01 3.361780e-01 8.669108e-01 1.111314e+00 1.760791e+00 1.826349e+00 3.140849e+00 2.287040e+00 4.173876e+00 3.823464e+00 3.088120e+00 3.383667e+00 1.847569e+00 2.621461e-01 4.818948e-02 1.214552e-01 1.968436e-01 2.184818e-01 3.684455e-01 4.360012e-01 3.069320e-01 5.206557e-01 4.261159e-01 5.801843e-01 5.653868e-01 4.116941e-01 2.606945e-02
<GCONST> 1.083124e+02
<STATE> 3
<MEAN> 39
 -3.190478e+00 3.808485e-01 3.498764e+00 -2.098778e+00 -1.690757e+01 -1.806290e+01 -5.747866e+00 -8.449194e+00 -6.133950e+00 -5.460843e+00 -6.241375e-01 -2.025345e+00 7.069434e+01 -3.805933e-01 1.159007e+00 6.425609e-01 4.210643e-01 2.420793e-01 5.669560e-01 3.832636e-01 -7.466552e-01 -9.163966e-01 -1.698991e-01 -2.892565e-01 -3.001570e-01 -9.778720e-01 2.294321e-02 -1.190068e-01 -2.176632e-01 -1.041728e-01 2.554700e-01 1.547819e-01 -2.111058e-02 2.153856e-01 2.523700e-01 1.167979e-01 -1.408023e-01 -1.273149e-01 -4.744555e-02
<VARIANCE> 39
 1.120978e+01 2.703371e+01 5.728628e+01 4.036653e+01 5.514075e+01 4.696671e+01 3.547549e+01 3.934128e+01 5.249994e+01 3.897779e+01 3.836499e+01 3.315955e+01 1.474621e+01 3.090150e-01 5.766921e-01 9.814598e-01 1.064553e+00 1.362506e+00 1.021930e+00 1.801189e+00 1.726951e+00 2.188531e+00 1.349708e+00 1.891235e+00 1.246802e+00 2.419069e-01 4.662515e-02 8.616320e-02 1.312062e-01 1.807965e-01 2.461338e-01 2.078916e-01 3.010755e-01 3.051473e-01 3.156350e-01 2.518617e-01 3.729135e-01 2.459548e-01 2.425328e-02
<GCONST> 9.474870e+01
<STATE> 4
<MEAN> 39
 -7.490845e+00 5.365749e+00 4.379281e+00 7.137899e-01 -9.485742e+00 -1.108516e+01 -2.365099e+00 -8.593092e+00 -5.571177e+00 -3.764118e+00 -2.528201e+00 -3.152006e+00 6.225765e+01 -3.602313e-01 -1.342450e-01 -2.962441e-01 1.015880e-01 8.021395e-01 7.695414e-01 3.112715e-01 3.814027e-01 2.241728e-01 1.818592e-01 8.083811e-02 1.671211e-01 -8.870837e-01 -7.744099e-03 -1.368840e-01 -7.620208e-02 -5.735761e-02 -2.912308e-02 -1.328578e-03 -7.186813e-03 9.172466e-02 9.421758e-02 2.343750e-02 6.004521e-02 8.667052e-02 4.936050e-02
<VARIANCE> 39
 2.097298e+01 3.487540e+01 5.121003e+01 2.817504e+01 5.134472e+01 4.322249e+01 4.865213e+01 3.441412e+01 4.820981e+01 4.082391e+01 3.008743e+01 3.007195e+01 2.429993e+01 3.419365e-01 7.257022e-01 9.124477e-01 8.742778e-01 1.368161e+00 1.362172e+00 1.529983e+00 1.784506e+00 1.748935e+00 1.611358e+00 1.509804e+00 1.233222e+00 2.260604e-01 5.462103e-02 1.011406e-01 1.270961e-01 1.671467e-01 2.180572e-01 2.224133e-01 2.797964e-01 2.939230e-01 2.907369e-01 2.562795e-01 2.660181e-01 2.381554e-01 1.726730e-02
<GCONST> 9.444626e+01
<TRANSP> 5
 0.000000e+00 1.000000e+00 0.000000e+00 0.000000e+00 0.000000e+00
 0.000000e+00 8.408089e-01 1.591911e-01 0.000000e+00 0.000000e+00
 0.000000e+00 0.000000e+00 8.475191e-01 1.524809e-01 0.000000e+00
 0.000000e+00 0.000000e+00 0.000000e+00 9.008748e-01 9.912526e-02
 0.000000e+00 0.000000e+00 0.000000e+00 0.000000e+00 0.000000e+00
<ENDHMM>
~h "ao"
<BEGINHMM>
<NUMSTATES> 5
<STATE> 2
<MEAN> 39
 1.921443e+00 -5.819471e+00 -1.252036e+01 -1.969767e+01 -1.322829e+01 3.019387e+00 6.426538e+00 -5.072992e+00 -4.347128e+00 -6.168000e+00 -3.280383e+00 -3.100802e+00 7.480204e+01 1.294727e-01 2.921808e-01 7.726054e-02 -2.574674e-01 -4.775615e-01 -1.577946e-01 7.529175e-02 6.350295e-02 1.311919e-01 3.482990e-02 -7.951733e-02 1.196561e-01 -2.647910e-01 5.906889e-03 1.244972e-01 4.286079e-02 3.916947e-03 -3.018843e-02 -1.001441e-01 -3.578421e-02 3.633888e-03 2.460632e-02 3.684774e-02 -4.537826e-02 -2.418371e-02 -6.776876e-02
<VARIANCE> 39
 1.121979e+01 2.747732e+01 3.341074e+01 2.680958e+01 6.559335e+01 6.011104e+01 3.707835e+01 1.003576e+02 4.663861e+01 5.395291e+01 3.458305e+01 3.683928e+01 1.271709e+01 2.523782e-01 5.668659e-01 3.774863e-01 5.602625e-01 8.636870e-01 9.768354e-01 9.839703e-01 1.318306e+00 1.217902e+00 1.188499e+00 1.053934e+00 1.106398e+00 3.041079e-01 4.119778e-02 5.181667e-02 6.499593e-02 9.811193e-02 1.574263e-01 1.941309e-01 1.705261e-01 2.035164e-01 2.240459e-01 1.980242e-01 1.743288e-01 1.764003e-01 2.663111e-02
<GCONST> 8.587985e+01
<STATE> 3
<MEAN> 39
 3.952023e+00 2.427329e+00 -8.426740e+00 -2.174749e+01 -2.026987e+01 -5.787007e-01 5.975346e+00 -2.593272e+00 -1.452528e+00 -2.634710e+00 -5.531956e+00 -2.063560e+00 6.919389e+01 -2.157681e-02 8.486020e-01 3.275658e-01 2.058916e-01 -3.448644e-01 -7.452185e-01 -4.215738e-01 1.736123e-01 1.093808e-01 5.596804e-02 -1.423040e-01 -1.455889e-01 -5.949434e-01 -4.606066e-02 -3.868909e-03 8.395968e-03 1.120868e-01 1.081119e-01 -3.575138e-02 -6.817954e-02 -1.333154e-02 -3.204574e-03 -4.477676e-02 3.379853e-02 -2.307658e-02 -2.332966e-02
<VARIANCE> 39
 7.206444e+00 2.382870e+01 4.669340e+01 1.930207e+01 6.751376e+01 5.751711e+01 3.962691e+01 6.331928e+01 6.201084e+01 4.928704e+01 2.945148e+01 3.228177e+01 1.516216e+01 1.253798e-01 5.210575e-01 5.101900e-01 6.024671e-01 9.125755e-01 1.147621e+00 1.162828e+00 1.289729e+00 1.338347e+00 1.079381e+00 9.653509e-01 9.415877e-01 1.757592e-01 2.440444e-02 6.957999e-02 7.957810e-02 8.957922e-02 1.557577e-01 1.753201e-01 1.900950e-01 1.980509e-01 2.049294e-01 1.925618e-01 1.688235e-01 1.580032e-01 1.906534e-02
<GCONST> 8.337894e+01
<STATE> 4
<MEAN> 39
 -3.772624e-01 7.168937e+00 -5.563172e+00 -1.379314e+01 -1.542594e+01 -7.561944e+00 4.706295e-01 -2.597185e-01 -1.520278e+00 -2.538398e+00 -4.309646e+00 -3.389891e+00 6.140387e+01 -6.166652e-01 -1.188522e-01 2.133583e-01 9.236369e-01 9.636948e-01 3.299133e-02 -3.201795e-01 1.363460e-01 1.446316e-01 7.629875e-02 2.739847e-01 1.861075e-01 -7.130300e-01 -4.497553e-02 -1.253201e-01 -2.909102e-02 9.349512e-03 7.135402e-02 1.157618e-01 6.391522e-02 2.727741e-03 2.630937e-02 4.331509e-02 6.213280e-02 7.140993e-02 2.554229e-02
<VARIANCE> 39
 1.235198e+01 2.502192e+01 2.843143e+01 3.308858e+01 5.600935e+01 3.343310e+01 4.207210e+01 3.291782e+01 3.667478e+01 4.718869e+01 2.565423e+01 2.855452e+01 3.136606e+01 3.120434e-01 6.328720e-01 6.809015e-01 1.117336e+00 1.418330e+00 1.440902e+00 1.323617e+00 1.634668e+00 1.822860e+00 1.641157e+00 1.495481e+00 1.429188e+00 2.171142e-01 4.261835e-02 9.162895e-02 1.070520e-01 1.770206e-01 2.028084e-01 2.217199e-01 2.173921e-01 2.783688e-01 3.316177e-01 2.958375e-01 2.504810e-01 2.545249e-01 2.273983e-02
<GCONST> 9.216731e+01
<TRANSP> 5
 0.000000e+00 1.000000e+00 0.000000e+00 0.000000e+00 0.000000e+00
 0.000000e+00 8.938724e-01 1.061275e-01 0.000000e+00 0.000000e+00
 0.000000e+00 0.000000e+00 8.827184e-01 1.172816e-01 0.000000e+00
 0.000000e+00 0.000000e+00 0.000000e+00 9.201728e-01 7.982726e-02
 0.000000e+00 0.000000e+00 0.000000e+00 0.000000e+00 0.000000e+00
<ENDHMM>
~h "au"
<BEGINHMM>
<NUMSTATES> 5
<STATE> 2
<MEAN> 39
 1.562742e+00 -4.761826e+00 -1.142341e+01 -1.224254e+01 -1.066040e+01 -7.109002e+00 -4.791227e+00 -6.067586e+00 9.550883e-01 1.830949e+00 1.504344e+00 -5.302217e+00 7.474165e+01 1.026692e-01 6.890552e-01 4.050676e-01 7.683390e-01 -2.923425e-01 -9.510291e-01 -9.107424e-01 -7.769040e-01 -5.994275e-03 -1.165381e-01 3.920740e-01 4.971112e-01 -4.318882e-01 4.700269e-03 1.520920e-01 6.789433e-02 7.968098e-02 6.999699e-02 9.863317e-03 5.206229e-02 -9.529404e-02 -1.555640e-01 -1.822487e-01 -7.943195e-02 5.812649e-02 -1.076367e-01
<VARIANCE> 39
 8.668273e+00 3.080424e+01 3.342168e+01 3.948719e+01 4.868809e+01 7.488026e+01 6.479570e+01 4.647675e+01 6.627396e+01 4.810218e+01 4.158040e+01 6.570737e+01 1.383394e+01 2.157933e-01 7.908514e-01 4.939476e-01 8.123298e-01 1.089492e+00 1.467421e+00 1.347880e+00 2.106605e+00 1.961036e+00 1.648177e+00 1.525550e+00 1.545866e+00 2.237792e-01 3.160540e-02 7.611565e-02 7.764037e-02 1.141066e-01 1.557872e-01 2.281933e-01 2.236194e-01 2.473702e-01 2.999077e-01 2.545156e-01 2.566135e-01 2.634937e-01 1.640999e-02
<GCONST> 9.226972e+01
<STATE> 3
<MEAN> 39
 1.978649e+00 2.547495e+00 -6.488006e+00 -6.434423e+00 -1.221139e+01 -1.119577e+01 -9.732221e+00 -1.339385e+01 -4.132720e+00 -3.843416e+00 1.261034e+00 -8.948944e-01 6.951849e+01 -5.992895e-02 9.698228e-01 5.681329e-01 5.658583e-01 2.767868e-01 -1.144760e-01 -9.838283e-02 -2.086462e-01 -8.368795e-01 -8.711813e-01 -5.355340e-01 7.912602e-02 -8.727223e-01 -5.733760e-02 -5.024043e-02 -1.714025e-02 -7.724758e-02 5.825225e-02 1.165893e-01 1.055645e-01 2.127490e-01 1.086060e-01 6.798761e-02 -8.037455e-02 -1.248191e-01 -2.132822e-02
<VARIANCE> 39
 1.109710e+01 3.377774e+01 2.505078e+01 5.673542e+01 4.509204e+01 5.933235e+01 6.378132e+01 6.598579e+01 1.130012e+02 6.532751e+01 2.905356e+01 4.316650e+01 1.899673e+01 1.921683e-01 5.627630e-01 5.798967e-01 9.474982e-01 9.905634e-01 1.225350e+00 1.508525e+00 1.631908e+00 1.556707e+00 1.437961e+00 1.491272e+00 1.328235e+00 2.393019e-01 2.587834e-02 6.370828e-02 9.042293e-02 1.385077e-01 1.898980e-01 1.817641e-01 2.320395e-01 2.531873e-01 2.895532e-01 2.086446e-01 2.415297e-01 2.101482e-01 1.511574e-02
<GCONST> 9.144787e+01
<STATE> 4
<MEAN> 39
 -1.547851e+00 7.945590e+00 -2.338773e+00 -3.006156e+00 -6.563774e+00 -7.909359e+00 -6.623536e+00 -9.525733e+00 -5.811895e+00 -6.108661e+00 -2.586618e+00 -1.968732e+00 6.107238e+01 -5.637133e-01 -1.363929e-01 1.441604e-01 2.873029e-01 6.093777e-01 4.245848e-01 2.955486e-01 5.477880e-01 2.612859e-01 8.039166e-02 -1.610335e-01 -1.975307e-02 -7.206699e-01 -4.735864e-02 -1.413462e-01 -6.304132e-02 -2.694496e-02 1.971652e-02 3.164719e-02 3.241890e-02 4.413055e-02 5.812243e-02 1.065191e-01 9.882626e-02 7.351398e-02 3.559054e-02
<VARIANCE> 39
 1.144077e+01 3.141081e+01 2.057464e+01 2.754418e+01 2.988857e+01 3.620504e+01 4.347835e+01 3.707025e+01 3.986609e+01 3.722593e+01 3.107528e+01 2.866319e+01 2.607067e+01 2.975142e-01 6.539460e-01 5.741959e-01 8.962221e-01 1.164641e+00 1.369597e+00 1.726735e+00 1.623493e+00 1.681009e+00 1.686794e+00 1.347676e+00 1.450985e+00 2.348330e-01 3.768181e-02 8.669004e-02 9.619531e-02 1.422985e-01 1.816998e-01 2.163437e-01 2.668521e-01 2.711723e-01 2.726686e-01 3.007245e-01 2.480618e-01 2.512473e-01 1.828296e-02
<GCONST> 8.993304e+01
<TRANSP> 5
 0.000000e+00 1.000000e+00 0.000000e+00 0.000000e+00 0.000000e+00
 0.000000e+00 8.567512e-01 1.432488e-01 0.000000e+00 0.000000e+00
 0.000000e+00 0.000000e+00 8.644850e-01 1.355149e-01 0.000000e+00
 0.000000e+00 0.000000e+00 0.000000e+00 9.144856e-01 8.551438e-02
 0.000000e+00 0.000000e+00 0.000000e+00 0.000000e+00 0.000000e+00
<ENDHMM>
~h "ee"
<BEGINHMM>
<NUMSTATES> 5
<STATE> 2
<MEAN> 39
 -4.214518e+00 -1.570771e+00 5.895047e+00 -3.848188e+00 -2.166969e+01 -1.947478e+01 -4.933005e+00 -9.767414e+00 -7.622156e+00 -5.459331e+00 2.208325e+00 -1.458830e+00 7.536995e+01 2.231887e-04 -5.725291e-02 -3.343890e-02 -3.687219e-02 -2.832041e-03 -2.020372e-02 2.873110e-02 8.207791e-02 5.688876e-02 -4.367199e-02 1.837400e-02 -8.047061e-03 -8.431880e-02 4.180707e-03 3.193771e-02 -2.109994e-02 8.965155e-03 3.669938e-02 1.853724e-02 5.427046e-03 2.351629e-02 1.174921e-02 -2.135598e-02 -2.981761e-02 -7.987391e-03 -3.946448e-02
<VARIANCE> 39
 8.331127e+00 2.111889e+01 4.241261e+01 5.261856e+01 4.302991e+01 5.178518e+01 3.506427e+01 4.321301e+01 2.458101e+01 4.001500e+01 5.024735e+01 6.419482e+01 8.680669e+00 8.275630e-02 2.692181e-01 3.230845e-01 4.205934e-01 5.869486e-01 6.101744e-01 6.585223e-01 6.245418e-01 6.184311e-01 6.926968e-01 6.249701e-01 5.882274e-01 9.139202e-02 1.518172e-02 4.507007e-02 5.783546e-02 7.529405e-02 1.085887e-01 1.208071e-01 1.263763e-01 1.131643e-01 1.187604e-01 1.326448e-01 1.131243e-01 1.103146e-01 1.399443e-02
<GCONST> 7.065668e+01
<STATE> 3
<MEAN> 39
 -3.643259e+00 -1.197971e+00 5.842171e+00 -1.899955e+00 -2.136156e+01 -2.044101e+01 -5.788135e+00 -5.852996e+00 -5.341706e+00 -7.383199e+00 4.806468e-02 -2.497802e-01 7.199668e+01 9.055249e-02 2.642101e-01 -2.699111e-01 1.314987e-01 3.270208e-01 1.082274e-01 1.501744e-01 1.729811e-01 1.495591e-01 -1.752976e-01 -3.670815e-01 -1.662349e-01 -6.200625e-01 5.152164e-03 8.802199e-02 -3.592109e-02 8.012310e-02 1.911785e-01 6.194409e-02 -1.281098e-03 4.606269e-03 -5.238897e-02 3.671358e-02 -9.552380e-02 -4.275310e-02 -1.215074e-01
<VARIANCE> 39
 9.085629e+00 1.928435e+01 3.508921e+01 4.043720e+01 6.182806e+01 4.973186e+01 2.960740e+01 4.064793e+01 4.799465e+01 3.482382e+01 4.241509e+01 4.440518e+01 1.376181e+01 2.383043e-01 5.770445e-01 5.774409e-01 1.078238e+00 1.211687e+00 9.273620e-01 1.684837e+00 1.144365e+00 1.505749e+00 1.247648e+00 1.408516e+00 1.391623e+00 2.592872e-01 4.076352e-02 1.023685e-01 1.000867e-01 1.887723e-01 2.130888e-01 1.958101e-01 2.927777e-01 2.303609e-01 2.606271e-01 2.383707e-01 2.337678e-01 2.319121e-01 3.874265e-02
<GCONST> 9.081256e+01
<STATE> 4
<MEAN> 39
 -4.575647e+00 1.198325e+00 2.825572e+00 -1.182550e+00 -1.361612e+01 -1.577144e+01 -3.642510e+00 -4.784299e+00 -5.352678e+00 -6.110864e+00 -1.977171e+00 -9.661532e-01 6.490018e+01 -1.956259e-01 1.506404e-01 -4.535280e-01 2.069670e-01 1.108864e+00 7.868553e-01 1.093700e-01 3.471458e-01 2.191606e-01 2.602971e-01 -7.937422e-02 1.440218e-01 -1.006929e+00 -3.880609e-02 -7.610588e-02 -3.211463e-02 -2.167552e-02 2.771727e-02 5.291565e-02 -1.292043e-02 -9.946311e-04 6.438515e-02 5.036730e-02 9.212286e-02 4.482513e-02 4.641646e-02
<VARIANCE> 39
 1.731321e+01 2.714627e+01 2.484424e+01 3.315427e+01 4.573262e+01 5.662487e+01 4.089722e+01 3.952904e+01 4.035405e+01 5.956606e+01 4.295821e+01 4.617894e+01 2.764002e+01 3.600086e-01 8.098845e-01 7.556854e-01 9.628477e-01 1.501931e+00 1.657880e+00 1.617145e+00 1.790684e+00 2.222379e+00 2.180012e+00 2.077286e+00 1.675215e+00 5.183760e-01 4.765484e-02 1.218053e-01 1.208243e-01 1.631247e-01 2.178714e-01 2.532519e-01 2.871535e-01 3.257238e-01 4.132026e-01 3.564683e-01 3.381127e-01 3.214930e-01 6.008314e-02
<GCONST> 9.979187e+01
<TRANSP> 5
 0.000000e+00 1.000000e+00 0.000000e+00 0.000000e+00 0.000000e+00
 0.000000e+00 9.361524e-01 6.384763e-02 0.000000e+00 0.000000e+00
 0.000000e+00 0.000000e+00 8.116972e-01 1.883028e-01 0.000000e+00
 0.000000e+00 0.000000e+00 0.000000e+00 8.784472e-01 1.215529e-01
 0.000000e+00 0.000000e+00 0.000000e+00 0.000000e+00 0.000000e+00
<ENDHMM>
~h "ei"
<BEGINHMM>
<NUMSTATES> 5
<STATE> 2
<MEAN> 39
 -2.995849e+00 -5.079397e+00 1.052669e+00 -5.108655e+00 -1.849891e+01 -1.979450e+01 -4.224693e+00 -1.598166e+00 -2.471828e+00 -6.802226e+00 1.056591e+00 -2.055708e+00 7.553909e+01 -8.925772e-02 4.795927e-01 6.637912e-01 2.559231e-01 -3.095738e-01 -1.293713e-01 9.704011e-03 -8.024596e-01 -7.134727e-01 -1.900500e-02 3.708932e-01 1.167190e-01 -3.210734e-01 -3.123273e-03 8.342798e-02 7.569196e-03 6.213038e-02 5.742029e-02 8.881818e-02 2.291549e-03 -8.249032e-02 -5.573128e-02 -5.562901e-04 -7.381436e-02 -7.457203e-02 -6.809474e-02
<VARIANCE> 39
 7.636662e+00 2.207149e+01 4.184717e+01 4.975655e+01 5.007907e+01 6.571949e+01 4.239282e+01 5.262954e+01 4.000493e+01 5.286477e+01 3.492222e+01 4.508263e+01 9.874091e+00 1.283564e-01 3.825881e-01 5.658890e-01 6.698224e-01 8.528872e-01 9.460205e-01 1.015303e+00 1.367144e+00 9.603851e-01 1.294424e+00 1.013360e+00 1.104184e+00 1.860495e-01 2.118556e-02 5.372799e-02 8.395551e-02 1.166879e-01 1.289413e-01 1.431457e-01 1.804796e-01 2.007494e-01 1.646981e-01 1.897248e-01 1.729426e-01 1.768854e-01 2.100528e-02
<GCONST> 8.281091e+01
<STATE> 3
<MEAN> 39
 -4.256954e+00 2.540113e+00 9.044376e+00 -1.472922e+00 -1.935497e+01 -1.593538e+01 -2.997420e+00 -1.072080e+01 -9.086967e+00 -4.643424e+00 5.613570e-01 -2.425460e+00 7.019222e+01 -1.473612e-01 7.416654e-01 3.839465e-01 2.563815e-01 4.515277e-01 6.474305e-01 1.641812e-01 -3.627891e-01 -2.854926e-01 -8.124465e-02 -3.689657e-01 -3.888022e-01 -7.016284e-01 -8.474664e-03 -2.862391e-02 -8.475138e-02 -2.009515e-02 1.219730e-01 2.158447e-02 -1.369349e-02 1.318738e-01 9.659801e-02 -2.098369e-02 -2.957326e-02 4.191739e-02 -3.010425e-02
<VARIANCE> 39
 8.227009e+00 2.062951e+01 3.945612e+01 4.910744e+01 4.902265e+01 6.964046e+01 2.608052e+01 3.823022e+01 3.844151e+01 5.222993e+01 3.524607e+01 4.054876e+01 1.185046e+01 1.287378e-01 3.795052e-01 5.865782e-01 8.486890e-01 9.019489e-01 1.032095e+00 9.633588e-01 1.214295e+00 9.965519e-01 1.026514e+00 9.401622e-01 9.041255e-01 1.560651e-01 2.305822e-02 4.862494e-02 9.126569e-02 1.343141e-01 1.525626e-01 1.899778e-01 1.762877e-01 2.026857e-01 1.670139e-01 1.836123e-01 1.575595e-01 1.689044e-01 1.418839e-02
<GCONST> 8.170061e+01
<STATE> 4
<MEAN> 39
 -6.880819e+00 6.094567e+00 8.359369e+00 1.904284e+00 -1.138852e+01 -9.190264e+00 -1.626070e+00 -9.729740e+00 -8.025169e+00 -5.960340e+00 -2.359645e+00 -3.247929e+00 6.252500e+01 -2.847171e-01 -2.063809e-01 -6.886697e-01 9.556732e-02 1.053876e+00 7.276475e-01 1.605089e-01 4.747912e-01 2.295077e-01 2.130991e-01 -2.696629e-02 1.963167e-01 -8.551637e-01 -3.148669e-02 -1.446058e-01 -1.201622e-01 -7.131884e-02 -1.042109e-02 1.230770e-02 4.030229e-02 1.180099e-01 9.382549e-02 1.138753e-01 8.485924e-02 6.328227e-02 1.124114e-02
<VARIANCE> 39
 1.149930e+01 2.835709e+01 4.328595e+01 2.416247e+01 6.137938e+01 4.868633e+01 3.716958e+01 3.652821e+01 3.457834e+01 3.822018e+01 2.574422e+01 3.217463e+01 2.538746e+01 2.885258e-01 7.105492e-01 9.732874e-01 8.861468e-01 1.622665e+00 1.353502e+00 1.653619e+00 2.031761e+00 1.553049e+00 1.574307e+00 1.524751e+00 1.431182e+00 3.290368e-01 4.863383e-02 1.024741e-01 1.362652e-01 1.438543e-01 2.719477e-01 2.501637e-01 3.216777e-01 3.430488e-01 2.455104e-01 2.499710e-01 2.590884e-01 2.386058e-01 3.780537e-02
<GCONST> 9.462680e+01
<TRANSP> 5
 0.000000e+00 1.000000e+00 0.000000e+00 0.000000e+00 0.000000e+00
 0.000000e+00 8.865154e-01 1.134846e-01 0.000000e+00 0.000000e+00
 0.000000e+00 0.000000e+00 8.788511e-01 1.211489e-01 0.000000e+00
 0.000000e+00 0.000000e+00 0.000000e+00 8.974627e-01 1.025373e-01
 0.000000e+00 0.000000e+00 0.000000e+00 0.000000e+00 0.000000e+00
<ENDHMM>
~h "ii"
<BEGINHMM>
<NUMSTATES> 5
<STATE> 2
<MEAN> 39
 -5.370737e+00 4.462324e+00 1.087223e+01 -4.502008e+00 -1.532817e+01 -1.282762e+01 -4.555224e+00 -1.445521e+01 -1.073024e+01 -7.051270e+00 -3.606726e+00 -5.633010e+00 7.134923e+01 1.161975e-02 2.062635e-01 1.138412e-02 1.310012e-01 1.073410e-01 9.822778e-02 3.751043e-02 8.977897e-03 6.511970e-02 3.737252e-02 5.363204e-02 -5.323970e-02 -2.372282e-01 8.060759e-03 2.318170e-02 -3.994028e-02 4.040622e-02 6.330343e-02 9.823773e-03 -3.235769e-03 4.132115e-02 2.300615e-02 -1.912985e-03 1.434860e-03 9.450593e-03 -4.668204e-02
<VARIANCE> 39
 1.058542e+01 2.007742e+01 4.857018e+01 5.776341e+01 4.231558e+01 5.806546e+01 3.448336e+01 3.881755e+01 2.969120e+01 3.265261e+01 3.400541e+01 4.727843e+01 7.666973e+00 1.210082e-01 2.748177e-01 3.333847e-01 4.902974e-01 6.183402e-01 5.654971e-01 6.987386e-01 6.458715e-01 6.560512e-01 7.818590e-01 8.376004e-01 6.629531e-01 9.245055e-02 2.162357e-02 4.227493e-02 5.580708e-02 8.045835e-02 1.067423e-01 1.187378e-01 1.259918e-01 1.382910e-01 1.258108e-01 1.409147e-01 1.496557e-01 1.111056e-01 1.614792e-02
<GCONST> 7.250316e+01
<STATE> 3
<MEAN> 39
 -5.924855e+00 8.377349e+00 1.204621e+01 1.048894e+00 -1.202024e+01 -1.247374e+01 -7.929056e-01 -1.128338e+01 -9.460733e+00 -5.361836e+00 -1.364148e+00 -3.287487e+00 6.793803e+01 -2.956484e-02 2.628025e-01 -2.380565e-01 1.868576e-01 5.787297e-01 2.077596e-01 8.228491e-02 2.511576e-01 1.036494e-01 -1.436979e-02 -1.065520e-01 3.066353e-03 -5.224282e-01 -4.217672e-02 -5.912997e-02 -6.182859e-02 -5.972882e-03 5.600825e-02 3.745949e-02 -1.660016e-02 3.497802e-02 -9.470433e-03 -4.348352e-02 -5.556595e-02 -3.003437e-03 -4.994479e-02
<VARIANCE> 39
 1.319890e+01 1.345469e+01 5.700579e+01 3.230078e+01 3.708749e+01 4.614140e+01 2.897741e+01 4.679007e+01 2.442763e+01 2.932612e+01 2.746620e+01 3.300697e+01 8.856153e+00 1.572154e-01 4.068957e-01 6.125900e-01 7.046485e-01 9.060184e-01 1.018319e+00 9.033555e-01 9.852893e-01 1.003955e+00 9.560643e-01 1.072647e+00 9.440913e-01 2.046235e-01 2.487112e-02 5.969276e-02 9.783217e-02 1.031805e-01 1.513759e-01 1.723691e-01 1.793691e-01 1.808069e-01 1.900027e-01 1.808202e-01 1.864325e-01 1.805633e-01 1.672230e-02
<GCONST> 8.015919e+01
<STATE> 4
<MEAN> 39
 -9.134801e+00 8.185786e+00 7.787293e+00 1.634680e+00 -5.653893e+00 -7.543562e+00 8.443809e-02 -9.712820e+00 -7.313298e+00 -5.597090e+00 -3.798128e+00 -3.231672e+00 6.059783e+01 -2.479690e-01 -4.896042e-01 -7.872546e-01 6.121639e-02 6.324157e-01 5.362550e-01 2.400327e-01 6.286436e-01 4.535960e-01 1.793701e-01 3.989337e-02 1.755025e-01 -6.602597e-01 -1.518548e-02 -8.275910e-02 -4.143233e-02 -6.814984e-02 -5.421220e-02 2.977033e-02 3.228866e-02 8.304991e-02 8.685166e-02 6.626749e-02 6.982104e-02 2.351869e-02 3.452791e-02
<VARIANCE> 39
 1.734611e+01 2.815470e+01 5.224118e+01 2.123942e+01 3.129023e+01 4.008645e+01 4.279173e+01 4.101600e+01 3.031304e+01 3.224111e+01 2.179462e+01 2.711254e+01 2.241897e+01 2.748021e-01 5.770770e-01 8.765203e-01 8.560062e-01 1.420937e+00 1.182150e+00 1.649268e+00 1.631644e+00 1.688205e+00 1.718974e+00 1.570823e+00 1.453072e+00 2.478466e-01 5.039952e-02 9.456557e-02 1.278057e-01 1.427477e-01 2.123276e-01 2.050124e-01 3.031403e-01 2.307479e-01 2.954672e-01 3.221395e-01 3.154837e-01 2.657447e-01 2.703937e-02
<GCONST> 9.215086e+01
<TRANSP> 5
 0.000000e+00 1.000000e+00 0.000000e+00 0.000000e+00 0.000000e+00
 0.000000e+00 9.091942e-01 9.080583e-02 0.000000e+00 0.000000e+00
 0.000000e+00 0.000000e+00 8.712770e-01 1.287229e-01 0.000000e+00
 0.000000e+00 0.000000e+00 0.000000e+00 9.013901e-01 9.860992e-02
 0.000000e+00 0.000000e+00 0.000000e+00 0.000000e+00 0.000000e+00
<ENDHMM>
~h "oe"
<BEGINHMM>
<NUMSTATES> 5
<STATE> 2
<MEAN> 39
 9.265279e-01 -3.206039e+00 -7.813415e+00 -1.089129e+01 -1.183376e+01 -1.111412e+01 -9.425290e+00 -1.273704e+01 -2.339408e+00 1.211499e+00 2.737004e+00 2.309525e-01 7.413553e+01 -5.945717e-01 -1.062464e+00 8.399392e-01 2.183808e+00 6.407515e-01 -2.075891e+00 -1.722724e+00 6.533352e-01 1.579005e+00 4.128291e-01 -3.376814e-01 -7.726966e-01 2.795501e-01 -2.816966e-02 2.614384e-01 3.808105e-01 4.285193e-02 -4.128631e-01 -2.835566e-01 4.188815e-01 5.444169e-01 -1.052704e-01 -6.129231e-01 -4.423641e-01 1.257330e-01 -1.921583e-01
<VARIANCE> 39
 1.089967e+01 2.746490e+01 4.469544e+01 4.943722e+01 4.596227e+01 6.805563e+01 5.017749e+01 5.222028e+01 6.519017e+01 5.244927e+01 4.847686e+01 5.533667e+01 1.337544e+01 2.512266e-01 9.893315e-01 1.554501e+00 1.746216e+00 3.093123e+00 3.189585e+00 4.159017e+00 4.515859e+00 3.611588e+00 5.236821e+00 4.205285e+00 3.058780e+00 4.072793e-01 5.033076e-02 1.271378e-01 1.702066e-01 4.119972e-01 3.972686e-01 6.918783e-01 8.058645e-01 6.255903e-01 1.137832e+00 6.725270e-01 7.149979e-01 8.199016e-01 4.328765e-02
<GCONST> 1.154211e+02
<STATE> 3
<MEAN> 39
 -1.446433e+00 -4.446105e+00 -5.583832e-01 -2.414529e+00 -1.413718e+01 -2.064708e+01 -1.069471e+01 -5.142021e+00 -6.174424e-01 -4.773669e+00 -1.349257e+00 1.656654e-01 7.213611e+01 -3.580289e-01 6.749125e-01 8.539170e-01 6.372840e-01 -5.388558e-02 -3.449134e-01 5.607367e-01 7.120398e-01 -5.871915e-01 -7.676312e-01 5.992963e-02 3.618342e-01 -1.060347e+00 1.090947e-02 1.760105e-01 -2.918796e-01 -2.413631e-01 2.266873e-01 4.697090e-01 5.815966e-02 -3.330022e-01 -3.129954e-02 4.088610e-01 2.832316e-01 -8.783790e-02 -2.120037e-01
<VARIANCE> 39
 1.067873e+01 2.340401e+01 5.106476e+01 4.532938e+01 4.901400e+01 5.160345e+01 3.652902e+01 4.089720e+01 3.610447e+01 5.477869e+01 4.930225e+01 2.943304e+01 1.848820e+01 4.512172e-01 9.784310e-01 1.567478e+00 1.473536e+00 2.552777e+00 2.793362e+00 2.506776e+00 2.532500e+00 2.319297e+00 2.378114e+00 2.482564e+00 1.865795e+00 1.179732e+00 7.667959e-02 1.653236e-01 2.361730e-01 2.528995e-01 3.705110e-01 4.292220e-01 4.040811e-01 4.280754e-01 4.291902e-01 3.765458e-01 3.957014e-01 3.215362e-01 9.295309e-02
<GCONST> 1.080761e+02
<STATE> 4
<MEAN> 39
 -4.886749e+00 7.126161e-01 6.436080e-01 -5.136170e-01 -1.098741e+01 -1.668177e+01 -5.380559e+00 -3.991720e+00 -3.185289e+00 -4.030529e+00 6.696941e-01 5.840249e-01 6.396397e+01 -4.816632e-01 1.848987e-01 -1.466325e-01 9.094779e-02 5.561241e-01 9.096436e-01 4.726289e-01 1.567554e-01 8.842266e-02 2.938895e-01 8.449455e-02 3.858552e-02 -9.414145e-01 -2.086255e-02 -1.146193e-01 -5.168692e-02 -5.471634e-02 3.465446e-02 7.385173e-02 -2.930667e-02 1.612744e-02 6.802800e-02 3.356986e-03 -4.643244e-02 1.376364e-02 1.119729e-01
<VARIANCE> 39
 1.731085e+01 2.191883e+01 3.142649e+01 3.305398e+01 4.273562e+01 4.897897e+01 4.958276e+01 4.397602e+01 3.331703e+01 4.188297e+01 2.948289e+01 2.782107e+01 3.929847e+01 3.313097e-01 6.993859e-01 9.152399e-01 9.198025e-01 1.429969e+00 1.613014e+00 1.435501e+00 1.506874e+00 1.587736e+00 1.574267e+00 1.518399e+00 1.293565e+00 5.158203e-01 5.805293e-02 1.189146e-01 1.440635e-01 1.623940e-01 2.495931e-01 2.600240e-01 2.604059e-01 2.749852e-01 2.874151e-01 2.691705e-01 2.644143e-01 2.646931e-01 9.107923e-02
<GCONST> 9.670206e+01
<TRANSP> 5
 0.000000e+00 1.000000e+00 0.000000e+00 0.000000e+00 0.000000e+00
 0.000000e+00 8.189774e-01 1.810226e-01 0.000000e+00 0.000000e+00
 0.000000e+00 0.000000e+00 8.085975e-01 1.914025e-01 0.000000e+00
 0.000000e+00 0.000000e+00 0.000000e+00 9.030877e-01 9.691235e-02
 0.000000e+00 0.000000e+00 0.000000e+00 0.000000e+00 0.000000e+00
<ENDHMM>
~h "oi"
<BEGINHMM>
<NUMSTATES> 5
<STATE> 2
<MEAN> 39
 1.682303e+00 -5.372972e-01 -7.324019e+00 -1.005284e+01 -1.188784e+01 -9.597505e+00 -9.635678e+00 -1.446707e+01 -4.305235e+00 -1.864837e+00 2.552334e+00 1.444656e+00 7.256972e+01 -6.960104e-01 -9.970130e-01 1.048479e+00 2.875409e+00 7.851142e-01 -2.295857e+00 -1.672241e+00 3.668103e-01 1.005291e+00 -1.245819e-01 -1.971434e-01 -9.638879e-01 1.753206e-01 -9.137383e-02 2.018183e-01 5.165650e-01 1.942037e-01 -4.741741e-01 -4.136512e-01 4.606544e-01 6.083761e-01 -7.013299e-02 -6.065086e-01 -4.676811e-01 1.871190e-02 -1.565541e-01
<VARIANCE> 39
 1.316285e+01 3.192813e+01 4.114705e+01 8.349902e+01 5.224550e+01 7.718235e+01 6.679028e+01 5.431188e+01 6.218847e+01 5.382160e+01 5.246462e+01 5.918311e+01 1.344280e+01 3.544011e-01 1.061676e+00 2.674158e+00 2.766162e+00 4.213885e+00 5.366777e+00 5.408755e+00 5.884149e+00 5.200876e+00 6.881142e+00 6.261172e+00 4.074153e+00 4.340568e-01 7.108013e-02 1.791164e-01 2.353297e-01 7.680591e-01 6.342088e-01 1.207272e+00 1.294407e+00 8.800064e-01 1.418933e+00 1.031153e+00 1.125705e+00 1.102062e+00 4.775551e-02
<GCONST> 1.260416e+02
<STATE> 3
<MEAN> 39
 -2.836750e+00 -1.252998e+00 2.347241e+00 1.589205e+00 -1.219352e+01 -1.809089e+01 -8.656759e+00 -9.013876e+00 -5.129946e+00 -8.775498e+00 -6.726810e-01 -7.616477e-01 7.113400e+01 -4.234327e-01 4.440194e-01 4.980443e-01 1.822348e-01 1.601567e-01 5.829093e-01 1.071015e+00 3.315370e-01 -6.773472e-01 -3.401985e-01 1.750580e-01 1.181889e-01 -6.413769e-01 5.719884e-02 1.201801e-01 -3.645890e-01 -4.539077e-01 1.619538e-01 5.082636e-01 5.013312e-02 -2.395398e-01 3.998012e-02 3.795977e-01 1.150758e-01 -5.060415e-02 -7.739874e-02
<VARIANCE> 39
 1.335638e+01 2.712506e+01 5.890676e+01 5.442987e+01 9.074236e+01 7.846617e+01 3.994453e+01 4.244685e+01 5.897330e+01 4.981647e+01 5.090802e+01 5.246697e+01 1.783815e+01 4.411688e-01 1.016313e+00 4.192943e+00 3.031968e+00 4.734711e+00 4.707142e+00 3.744485e+00 3.121787e+00 3.599044e+00 4.256528e+00 2.802342e+00 2.399127e+00 2.768563e-01 5.763230e-02 1.858860e-01 2.756281e-01 3.814787e-01 6.951530e-01 7.697063e-01 7.027010e-01 7.178723e-01 6.474712e-01 7.366199e-01 5.936162e-01 4.800868e-01 3.408360e-02
<GCONST> 1.178866e+02
<STATE> 4
<MEAN> 39
 -4.596257e+00 3.012756e+00 4.143751e+00 6.511271e-01 -1.143087e+01 -1.336997e+01 -3.360706e+00 -9.169543e+00 -6.648798e+00 -6.610857e+00 -8.221480e-01 -2.157798e+00 6.476446e+01 -3.635967e-01 1.929700e-01 -1.613652e-01 -1.363680e-01 6.828371e-01 8.421031e-01 3.265303e-01 2.261418e-01 1.777202e-01 3.340488e-01 -1.515863e-01 2.221061e-02 -7.689758e-01 2.115345e-02 -9.620290e-02 -1.181919e-01 -1.973719e-02 7.089887e-02 1.265814e-02 -7.783455e-02 7.141189e-02 1.113081e-01 3.594070e-02 5.914717e-03 3.086262e-02 2.111394e-02
<VARIANCE> 39
 1.527232e+01 2.173354e+01 4.300369e+01 3.544976e+01 5.552098e+01 5.237376e+01 4.376597e+01 4.570575e+01 3.340977e+01 4.017199e+01 2.580543e+01 3.360948e+01 2.445642e+01 2.983680e-01 9.008536e-01 1.257437e+00 1.165923e+00 1.692266e+00 1.618747e+00 1.883986e+00 2.335032e+00 1.750276e+00 1.504052e+00 1.315870e+00 1.594403e+00 2.929252e-01 5.632314e-02 1.266436e-01 1.681798e-01 1.636136e-01 2.433292e-01 2.986875e-01 3.430245e-01 3.889778e-01 3.285628e-01 2.904081e-01 2.315083e-01 2.868645e-01 3.102686e-02
<GCONST> 9.788487e+01
<TRANSP> 5
 0.000000e+00 1.000000e+00 0.000000e+00 0.000000e+00 0.000000e+00
 0.000000e+00 8.206487e-01 1.793513e-01 0.000000e+00 0.000000e+00
 0.000000e+00 0.000000e+00 8.369200e-01 1.630800e-01 0.000000e+00
 0.000000e+00 0.000000e+00 0.000000e+00 8.952640e-01 1.047360e-01
 0.000000e+00 0.000000e+00 0.000000e+00 0.000000e+00 0.000000e+00
<ENDHMM>
~h "oo"
<BEGINHMM>
<NUMSTATES> 5
<STATE> 2
<MEAN> 39
 3.959090e+00 9.726325e+00 -2.101595e+00 -1.705655e+01 -2.168092e+01 -1.498584e+01 -8.469074e+00 -7.907274e+00 1.003011e+00 1.615240e+00 -3.521570e+00 -1.669218e+00 6.696780e+01 8.121470e-03 1.224364e-01 4.979330e-02 -3.663658e-02 -1.739297e-01 6.688911e-03 1.992388e-01 1.193391e-01 5.612833e-02 1.134736e-01 -7.148282e-02 -1.551070e-01 -2.099324e-01 -3.338175e-02 1.761036e-02 -9.044372e-03 4.960701e-02 4.994838e-02 5.307712e-03 5.924635e-02 8.296435e-02 -4.138321e-02 -6.533883e-02 1.945839e-03 -3.137405e-02 -4.546823e-02
<VARIANCE> 39
 8.359661e+00 2.077962e+01 3.356713e+01 1.917438e+01 2.635188e+01 3.268159e+01 2.923078e+01 6.130082e+01 3.902076e+01 3.497594e+01 4.353961e+01 2.957969e+01 1.081606e+01 1.640073e-01 4.573983e-01 6.928848e-01 4.179391e-01 1.018258e+00 6.275473e-01 1.044440e+00 1.135594e+00 1.050015e+00 1.143020e+00 1.167551e+00 8.257698e-01 1.852450e-01 3.178306e-02 7.052006e-02 1.199069e-01 7.603981e-02 2.104118e-01 1.335083e-01 2.227270e-01 1.823152e-01 2.023377e-01 1.933907e-01 2.004788e-01 1.499186e-01 2.405139e-02
<GCONST> 8.061749e+01
<STATE> 3
<MEAN> 39
 1.230837e+00 1.442752e+01 7.841931e-01 -1.265772e+01 -2.192240e+01 -1.475933e+01 -5.242390e+00 -4.698020e+00 1.872004e+00 4.311711e+00 -1.408509e+00 -2.544462e+00 6.236983e+01 -5.024809e-01 -8.732671e-02 -2.003685e-03 5.285979e-01 6.810060e-01 4.734339e-03 -5.368686e-02 3.427213e-01 8.880470e-03 -1.857491e-01 2.981104e-01 1.003262e-01 -5.569786e-01 -9.126356e-02 -1.345870e-01 -1.839748e-02 6.755699e-02 1.747703e-01 1.058856e-01 -1.308442e-02 -3.849008e-02 -2.845670e-02 -2.504113e-03 4.686278e-03 6.534415e-02 -2.058322e-02
<VARIANCE> 39
 1.372094e+01 1.678611e+01 3.588405e+01 2.844542e+01 3.031033e+01 3.262304e+01 2.536823e+01 4.560064e+01 3.018541e+01 3.827271e+01 2.347195e+01 2.023022e+01 2.327789e+01 1.965857e-01 5.160239e-01 6.251323e-01 7.386457e-01 1.104216e+00 1.112026e+00 1.417145e+00 1.224824e+00 1.063265e+00 9.848489e-01 8.280832e-01 9.584051e-01 1.618042e-01 3.733543e-02 6.150686e-02 1.070109e-01 1.392598e-01 2.257395e-01 1.882882e-01 2.707297e-01 1.942531e-01 1.881117e-01 1.835565e-01 1.940494e-01 1.748043e-01 1.551214e-02
<GCONST> 8.274497e+01
<STATE> 4
<MEAN> 39
 -2.857512e+00 6.630799e+00 -3.338135e+00 -8.513929e+00 -1.181966e+01 -7.532803e+00 -1.984379e+00 -1.730017e+00 8.273394e-01 -6.468594e-02 -1.472296e+00 -2.032317e+00 5.903244e+01 -6.982011e-01 -6.011953e-01 -1.776334e-01 6.935898e-01 1.241659e+00 6.748298e-01 2.220173e-01 2.862710e-01 -1.939370e-01 -1.002130e-01 8.384903e-02 3.330929e-01 -5.547905e-01 2.248226e-02 1.271846e-03 2.016077e-03 -3.937256e-02 -2.332021e-02 -4.012022e-03 2.628371e-02 -2.624478e-02 -2.882992e-03 -9.593643e-03 9.535694e-03 3.233876e-02 3.629091e-02
<VARIANCE> 39
 1.458491e+01 2.075134e+01 1.796557e+01 2.693959e+01 4.609523e+01 3.938291e+01 4.756424e+01 2.921482e+01 2.331653e+01 4.729942e+01 2.350204e+01 3.024392e+01 3.281769e+01 3.690719e-01 3.617519e-01 7.460650e-01 9.167231e-01 1.245677e+00 1.112753e+00 1.328820e+00 1.457676e+00 1.684114e+00 1.362010e+00 1.681700e+00 1.385480e+00 2.209553e-01 5.317508e-02 6.308901e-02 1.329737e-01 1.530718e-01 2.023060e-01 2.222283e-01 2.317666e-01 2.827702e-01 3.486406e-01 2.570117e-01 3.090235e-01 2.511100e-01 1.885423e-02
<GCONST> 8.977757e+01
<TRANSP> 5
 0.000000e+00 1.000000e+00 0.000000e+00 0.000000e+00 0.000000e+00
 0.000000e+00 9.109027e-01 8.909735e-02 0.000000e+00 0.000000e+00
 0.000000e+00 0.000000e+00 8.720980e-01 1.279021e-01 0.000000e+00
 0.000000e+00 0.000000e+00 0.000000e+00 8.760048e-01 1.239952e-01
 0.000000e+00 0.000000e+00 0.000000e+00 0.000000e+00 0.000000e+00
<ENDHMM>
~h "ou"
<BEGINHMM>
<NUMSTATES> 5
<STATE> 2
<MEAN> 39
 3.884031e+00 5.724328e+00 -6.908356e+00 -1.567824e+01 -1.652984e+01 -7.078227e+00 -1.966843e+00 -9.376568e+00 -7.517042e+00 -5.884470e+00 1.878828e-02 1.359438e+00 6.978876e+01 4.949320e-03 3.612901e-01 1.424067e-01 5.051148e-01 2.548624e-01 -1.433785e-01 -2.629984e-01 -3.460172e-01 -3.975251e-01 -4.580666e-01 7.915694e-02 5.411351e-02 -3.330734e-01 -3.434476e-02 3.701385e-02 4.336248e-02 1.311120e-01 1.238946e-01 -1.866421e-02 -1.417720e-02 7.905009e-02 2.402941e-02 -3.527114e-02 -5.203507e-02 -6.249588e-02 -8.031589e-02
<VARIANCE> 39
 6.352089e+00 3.306309e+01 2.610948e+01 5.619143e+01 5.158834e+01 4.554839e+01 8.589220e+01 5.497525e+01 5.619144e+01 5.406704e+01 4.390742e+01 3.765059e+01 9.122179e+00 1.296261e-01 5.781183e-01 5.835623e-01 1.154863e+00 1.065367e+00 1.360778e+00 1.216083e+00 1.398611e+00 1.149006e+00 1.394187e+00 1.335776e+00 1.301187e+00 2.357200e-01 2.457904e-02 6.840361e-02 8.789093e-02 1.550383e-01 1.643833e-01 2.062769e-01 2.067780e-01 2.317582e-01 2.063036e-01 2.326236e-01 2.301435e-01 1.982509e-01 2.336746e-02
<GCONST> 8.868671e+01
<STATE> 3
<MEAN> 39
 2.331742e+00 1.065291e+01 -2.810062e+00 -8.917371e+00 -1.315355e+01 -9.908562e+00 -2.937323e+00 -9.437204e+00 -7.973875e+00 -7.601775e+00 -2.902073e+00 -9.593154e-01 6.567989e+01 -2.515647e-01 2.973694e-01 4.320197e-01 8.478675e-01 6.676157e-01 -5.587488e-04 -3.870361e-01 2.173876e-01 2.536221e-02 -2.134698e-01 -3.439834e-01 -2.553692e-01 -7.105139e-01 -6.506419e-02 -8.896426e-02 2.227111e-03 -2.317982e-02 5.520565e-02 1.172180e-01 2.062962e-02 9.871100e-03 7.806389e-02 9.951298e-02 1.020107e-02 -1.347506e-03 -3.010058e-02
<VARIANCE> 39
 7.414615e+00 3.702592e+01 2.797100e+01 4.160157e+01 3.930675e+01 5.255487e+01 7.752644e+01 5.355659e+01 4.828749e+01 5.000397e+01 4.798549e+01 4.268786e+01 2.126820e+01 1.889179e-01 4.680248e-01 6.469937e-01 1.049285e+00 1.232482e+00 1.469044e+00 1.790861e+00 1.544817e+00 1.488024e+00 1.415352e+00 1.835331e+00 1.259633e+00 2.708884e-01 3.237133e-02 7.100078e-02 9.453961e-02 1.544530e-01 1.901060e-01 2.061397e-01 2.848006e-01 2.246804e-01 2.666109e-01 2.503177e-01 2.945230e-01 2.211295e-01 1.897402e-02
<GCONST> 9.216895e+01
<STATE> 4
<MEAN> 39
 -1.909504e+00 8.166695e+00 -1.094182e+00 -2.301310e+00 -5.220155e+00 -6.074262e+00 -4.900326e+00 -7.021951e+00 -5.946337e+00 -6.855340e+00 -3.480023e+00 -2.099752e+00 6.100960e+01 -6.013412e-01 -4.543606e-01 -6.653983e-03 2.783352e-01 6.319960e-01 3.862183e-01 2.387581e-01 4.024179e-01 3.454999e-01 3.437566e-01 8.069971e-02 4.837799e-02 -5.751982e-01 -2.410959e-02 -7.981899e-02 -7.782327e-02 -8.017801e-02 -3.942152e-02 1.591506e-02 7.026596e-02 3.704885e-02 4.956703e-02 6.123018e-02 5.737174e-02 5.542695e-02 4.262361e-02
<VARIANCE> 39
 1.084904e+01 3.161117e+01 1.888755e+01 2.408905e+01 2.535771e+01 2.654320e+01 3.471579e+01 3.811282e+01 2.829175e+01 2.901367e+01 2.624248e+01 2.879105e+01 3.108399e+01 3.101352e-01 6.080438e-01 6.357384e-01 9.750798e-01 1.206779e+00 1.152853e+00 1.649114e+00 1.641397e+00 1.353998e+00 1.433548e+00 1.375855e+00 1.162480e+00 2.489666e-01 3.861524e-02 9.013101e-02 1.161453e-01 1.604362e-01 2.022751e-01 2.025708e-01 2.615457e-01 2.723192e-01 2.270499e-01 2.452924e-01 2.410078e-01 2.180529e-01 2.701275e-02
<GCONST> 8.810570e+01
<TRANSP> 5
 0.000000e+00 1.000000e+00 0.000000e+00 0.000000e+00 0.000000e+00
 0.000000e+00 8.551159e-01 1.448841e-01 0.000000e+00 0.000000e+00
 0.000000e+00 0.000000e+00 8.426852e-01 1.573148e-01 0.000000e+00
 0.000000e+00 0.000000e+00 0.000000e+00 8.942220e-01 1.057781e-01
 0.000000e+00 0.000000e+00 0.000000e+00 0.000000e+00 0.000000e+00
<ENDHMM>
~h "uu"
<BEGINHMM>
<NUMSTATES> 5
<STATE> 2
<MEAN> 39
 -2.923514e+00 -2.125156e+00 -3.110925e+00 -1.223688e-01 -9.384812e+00 -2.041830e+01 -1.126869e+01 -1.124891e+01 1.338513e+00 -9.253879e+00 -5.950307e+00 -1.984445e+00 7.385424e+01 7.448241e-02 3.228808e-01 -4.933257e-02 3.007442e-02 9.127384e-02 1.740075e-01 1.803457e-01 -4.524765e-02 -2.837161e-01 -1.035049e-01 2.839338e-02 3.338837e-01 -3.801469e-01 -6.682507e-02 9.644677e-02 4.605043e-03 -3.328080e-02 4.856508e-02 1.134744e-01 -1.518039e-02 -5.253954e-03 6.410669e-03 2.095940e-02 4.378331e-03 -3.802949e-02 -7.192410e-02
<VARIANCE> 39
 1.284019e+01 3.434449e+01 4.127912e+01 4.094083e+01 8.493839e+01 4.039505e+01 4.051795e+01 3.564293e+01 7.225643e+01 9.008067e+01 2.907250e+01 7.716081e+01 1.365469e+01 2.051995e-01 4.636249e-01 3.465674e-01 7.662203e-01 7.591886e-01 1.206519e+00 1.302807e+00 9.630954e-01 1.276188e+00 1.395215e+00 1.083659e+00 1.195212e+00 2.438169e-01 5.268779e-02 6.681471e-02 7.710895e-02 1.051265e-01 1.228427e-01 2.009701e-01 2.028127e-01 1.913138e-01 2.015585e-01 2.378495e-01 1.924945e-01 1.588087e-01 2.387350e-02
<GCONST> 8.793469e+01
<STATE> 3
<MEAN> 39
 1.456756e+00 5.251836e+00 5.450377e-01 -7.706633e-01 -8.379478e+00 -1.362410e+01 -9.970859e+00 -1.376109e+01 -6.832664e+00 -6.965735e+00 -3.092697e+00 -2.285653e+00 6.749440e+01 1.564390e-02 3.113275e-01 -2.996885e-02 1.360776e-03 1.323090e-01 2.821136e-01 -6.181878e-02 8.075158e-03 -6.225252e-02 -6.868298e-03 6.493720e-02 -1.329087e-02 -3.762976e-01 -2.959869e-02 -1.028485e-02 2.400446e-02 1.161049e-02 2.119303e-02 8.369545e-04 1.582423e-03 4.245141e-02 1.265450e-03 -6.197971e-03 -1.506505e-02 -2.344975e-02 -5.615777e-03
<VARIANCE> 39
 8.075149e+00 2.216382e+01 2.860307e+01 4.565536e+01 4.155101e+01 4.839264e+01 8.063537e+01 5.570636e+01 4.746495e+01 4.605152e+01 3.142258e+01 3.566275e+01 1.713273e+01 8.768312e-02 2.542866e-01 3.076047e-01 4.061188e-01 5.932244e-01 5.619106e-01 8.068424e-01 9.441138e-01 7.803172e-01 7.295720e-01 8.315862e-01 8.248116e-01 7.803161e-02 1.314058e-02 4.162013e-02 5.038858e-02 7.520901e-02 9.717554e-02 9.629151e-02 1.381183e-01 1.417654e-01 1.468108e-01 1.212457e-01 1.304602e-01 1.440934e-01 1.139640e-02
<GCONST> 7.269411e+01
<STATE> 4
<MEAN> 39
 -2.822289e+00 7.524090e+00 7.899547e-01 6.534791e-01 -3.531892e+00 -7.676666e+00 -5.782351e+00 -1.072885e+01 -6.331438e+00 -8.145170e+00 -3.807413e+00 -1.867122e+00 6.066806e+01 -5.121062e-01 -2.044203e-01 -5.025757e-02 9.604885e-02 6.137426e-01 6.001690e-01 3.556510e-01 6.945698e-01 1.894639e-01 2.064364e-01 6.673971e-02 -1.508305e-02 -6.476472e-01 -5.756123e-02 -1.115501e-01 -6.490617e-02 -1.164691e-02 3.445083e-02 1.497837e-02 3.782923e-02 4.511520e-02 1.263187e-01 1.016817e-01 5.856875e-02 4.991937e-02 3.966500e-03
<VARIANCE> 39
 1.203498e+01 2.644953e+01 1.741669e+01 3.158793e+01 4.262143e+01 3.974552e+01 5.673166e+01 7.336434e+01 6.519804e+01 3.650008e+01 3.147695e+01 2.671582e+01 2.400603e+01 3.197083e-01 4.829807e-01 5.495439e-01 9.693646e-01 1.289583e+00 1.256639e+00 1.925240e+00 1.509380e+00 1.570534e+00 1.570253e+00 1.399329e+00 1.148953e+00 1.981946e-01 5.430955e-02 6.728683e-02 9.002773e-02 1.545648e-01 1.774297e-01 2.182386e-01 3.463855e-01 2.775351e-01 2.743337e-01 2.563272e-01 2.381983e-01 1.849673e-01 2.159132e-02
<GCONST> 9.092487e+01
<TRANSP> 5
 0.000000e+00 1.000000e+00 0.000000e+00 0.000000e+00 0.000000e+00
 0.000000e+00 8.466662e-01 1.533338e-01 0.000000e+00 0.000000e+00
 0.000000e+00 0.000000e+00 9.317537e-01 6.824630e-02 0.000000e+00
 0.000000e+00 0.000000e+00 0.000000e+00 9.021946e-01 9.780538e-02
 0.000000e+00 0.000000e+00 0.000000e+00 0.000000e+00 0.000000e+00
<ENDHMM>
~h "sil"
<BEGINHMM>
<NUMSTATES> 5
<STATE> 2
<MEAN> 39
 -9.489690e+00 9.473572e-01 -3.151489e+00 -1.859189e+00 -2.451594e+00 -2.872569e+00 -1.020326e+00 -7.264819e-01 2.765032e-01 -8.110815e-01 2.040262e-01 -1.071552e-01 5.613387e+01 -1.463159e-01 -1.976778e-01 -1.482095e-01 -7.704410e-02 1.367332e-01 1.793322e-01 1.078075e-01 1.628729e-01 1.509183e-01 1.227862e-01 8.298608e-02 7.102142e-02 -2.327938e-02 3.504388e-02 1.955570e-03 9.554401e-04 -4.377406e-02 -6.627521e-02 -4.531681e-02 -2.182317e-03 -4.675135e-02 -4.905244e-02 -5.867744e-02 -4.520587e-02 -4.374835e-02 9.147994e-02
<VARIANCE> 39
 8.571125e+00 1.193405e+01 1.723879e+01 1.424597e+01 1.870079e+01 2.486203e+01 2.398264e+01 2.225327e+01 1.932728e+01 1.865372e+01 1.546312e+01 1.469002e+01 1.949646e+01 3.341163e-01 6.849443e-01 7.556119e-01 8.501748e-01 1.221645e+00 1.393622e+00 1.364534e+00 1.497422e+00 1.513016e+00 1.465555e+00 1.338657e+00 1.278621e+00 6.003001e-01 4.503387e-02 8.095034e-02 1.052049e-01 1.336522e-01 1.729136e-01 2.131656e-01 2.330409e-01 2.372054e-01 2.538969e-01 2.491566e-01 2.346572e-01 2.198397e-01 5.777994e-02
<GCONST> 8.401595e+01
<STATE> 3
<MEAN> 39
 -9.699375e+00 3.483465e-02 -3.241938e+00 -2.344597e+00 -3.502039e+00 -3.775583e+00 -6.337755e-01 -1.436200e+00 -7.483493e-01 -1.452664e+00 -1.477027e-01 -8.723593e-02 5.836144e+01 -5.214559e-02 -5.068148e-01 -4.433733e-01 -5.725024e-01 -1.551826e-01 4.399679e-02 1.959804e-01 4.558530e-02 2.797059e-02 -8.538322e-02 -4.141030e-02 -1.201006e-01 8.805230e-01 1.247524e-01 1.461471e-01 6.445127e-02 -4.879298e-02 -6.289631e-02 -1.824401e-02 1.755391e-02 -6.193701e-02 -6.675979e-02 -3.823091e-02 -7.408588e-02 -5.675874e-02 6.999601e-02
<VARIANCE> 39
 1.539403e+01 2.941703e+01 3.025809e+01 3.018311e+01 3.604855e+01 4.547242e+01 3.712393e+01 3.419445e+01 3.300071e+01 2.938766e+01 2.348585e+01 2.265128e+01 4.332848e+01 1.422118e+00 2.235458e+00 2.039940e+00 2.330092e+00 2.930411e+00 3.019530e+00 2.633383e+00 2.646200e+00 2.702932e+00 2.516528e+00 2.257732e+00 1.788627e+00 3.569631e+00 2.187448e-01 3.633334e-01 3.053723e-01 3.788991e-01 4.741467e-01 4.981526e-01 5.225885e-01 4.679964e-01 4.708786e-01 4.391593e-01 3.852991e-01 3.207915e-01 4.730775e-01
<GCONST> 1.155476e+02
<STATE> 4
<MEAN> 39
 -7.914810e+00 -2.150219e+00 -4.708464e+00 -3.966129e+00 -2.267317e+00 -1.886944e+00 7.407172e-01 -8.113509e-01 -3.240758e-02 -1.958048e+00 -8.235141e-01 -6.202579e-01 6.059936e+01 4.137908e-02 -3.408748e-02 -2.515763e-02 -1.738651e-01 -6.244947e-02 1.684633e-02 5.877946e-02 -2.594199e-02 -6.321643e-02 -5.219422e-02 -3.468736e-02 -3.150843e-02 2.598847e-01 7.038601e-02 7.903773e-02 4.899695e-02 2.165550e-02 -5.337047e-02 -6.290337e-02 -4.719434e-02 -7.227420e-02 -6.642231e-02 -3.902077e-02 -1.294985e-02 -1.757595e-02 3.729416e-02
<VARIANCE> 39
 1.662480e+01 2.246700e+01 2.760344e+01 2.409689e+01 2.267310e+01 2.829800e+01 2.737591e+01 2.748247e+01 2.213125e+01 2.251438e+01 1.868167e+01 1.776037e+01 3.128962e+01 7.483403e-01 9.125424e-01 9.061385e-01 1.246365e+00 1.293169e+00 1.618137e+00 1.663544e+00 1.727449e+00 1.817022e+00 1.702307e+00 1.559429e+00 1.374488e+00 1.479474e+00 9.401785e-02 1.352229e-01 1.407208e-01 1.897124e-01 2.116122e-01 2.441321e-01 2.689974e-01 2.707578e-01 2.701361e-01 2.616504e-01 2.560890e-01 2.356402e-01 9.689201e-02
<GCONST> 9.510139e+01
<TRANSP> 5
 0.000000e+00 1.000000e+00 0.000000e+00 0.000000e+00 0.000000e+00
 0.000000e+00 7.765077e-01 2.234923e-01 0.000000e+00 0.000000e+00
 0.000000e+00 0.000000e+00 4.439568e-01 5.560432e-01 0.000000e+00
 0.000000e+00 0.000000e+00 0.000000e+00 7.173925e-01 2.826075e-01
 0.000000e+00 0.000000e+00 0.000000e+00 0.000000e+00 0.000000e+00
<ENDHMM>
