~o
<STREAMINFO> 1 39
<VECSIZE> 39<NULLD><MFCC_D_A_0><DIAGC>
~s "silst"
<MEAN> 39
 -8.162045e+00 2.227355e+00 -3.130852e-01 -3.025201e-01 -1.979878e+00 -2.399937e+00 7.251513e-01 -3.040011e-01 4.442122e-01 1.101674e-01 -1.122068e-01 1.406801e-01 5.887161e+01 6.034077e-02 -5.173901e-01 -4.448960e-01 -7.042009e-01 -4.651310e-01 -4.977269e-02 4.055625e-02 -2.074508e-01 -4.603397e-02 -2.147420e-01 -1.322972e-01 -1.827506e-01 1.273485e+00 1.885829e-01 2.508392e-01 1.092011e-01 -4.018471e-02 -6.960005e-02 1.933531e-03 4.649213e-02 -1.180559e-01 -9.824570e-02 -6.821381e-02 -1.131670e-01 -4.954035e-02 2.694845e-02
<VARIANCE> 39
 1.768964e+01 3.716122e+01 3.230299e+01 3.510271e+01 4.239051e+01 5.217426e+01 4.389692e+01 3.364429e+01 3.987299e+01 2.935384e+01 2.411346e+01 2.249036e+01 6.316890e+01 1.875696e+00 2.975252e+00 2.381856e+00 2.771271e+00 3.674732e+00 3.455955e+00 2.868890e+00 2.945384e+00 3.028927e+00 2.762305e+00 2.500990e+00 1.903104e+00 5.000638e+00 2.730845e-01 4.540679e-01 3.575381e-01 4.667543e-01 5.775807e-01 5.144691e-01 5.591726e-01 4.939374e-01 5.010684e-01 4.627321e-01 4.053005e-01 3.407874e-01 7.374499e-01
<GCONST> 1.211572e+02
~h "a"
<BEGINHMM>
<NUMSTATES> 5
<STATE> 2
<MEAN> 39
 2.472890e+00 -2.927156e+00 -7.185342e+00 -8.732272e+00 -4.220424e+00 -2.770887e+00 -2.289436e-03 -5.813519e+00 3.599380e+00 6.455541e+00 -4.815986e+00 -6.206280e+00 7.385131e+01 -6.318292e-01 1.188843e+00 1.117101e+00 1.986191e+00 6.444093e-01 -1.562748e+00 -1.618057e+00 9.379194e-01 1.167898e+00 7.519007e-01 1.172274e+00 -1.273433e-01 -1.325839e+00 -1.558981e-01 8.305215e-01 3.789879e-01 2.109922e-01 3.269776e-02 1.370488e-01 8.753015e-02 2.055731e-01 -4.852063e-01 -6.533393e-01 2.109139e-01 1.629087e-01 -1.033082e+00
<VARIANCE> 39
 8.301876e+00 2.166433e+01 4.267002e+01 5.410831e+01 5.767957e+01 5.750532e+01 4.721972e+01 3.646229e+01 2.701226e+01 2.142566e+01 7.000947e+01 5.388142e+01 2.149291e+01 6.404513e-01 2.513462e+00 1.313682e+00 2.225538e+00 2.192822e+00 2.253210e+00 2.921269e+00 2.047422e+00 3.653871e+00 2.681453e+00 2.793416e+00 3.217680e+00 2.193739e+00 1.213413e-01 4.876825e-01 3.342751e-01 8.673912e-01 5.382773e-01 7.481758e-01 6.217123e-01 3.425769e-01 6.451641e-01 3.720011e-01 6.519746e-01 4.618954e-01 2.728888e-01
<GCONST> 1.175872e+02
<STATE> 3
<MEAN> 39
 -8.407733e-01 2.373551e+00 -4.438494e+00 -5.440834e+00 -1.883034e+00 -4.581309e+00 -2.393710e+00 -3.446486e+00 3.466883e+00 5.232102e+00 -7.079040e-01 -5.815805e+00 6.457325e+01 -8.673067e-01 3.848334e-01 4.733330e-01 2.310676e-01 3.279903e-01 2.716993e-01 2.550527e-02 8.790369e-01 -1.856335e-01 -2.909725e-01 5.894223e-01 2.432248e-01 -2.307396e+00 9.959430e-03 -2.792452e-01 -2.764018e-01 -2.869723e-01 -1.088756e-01 2.389177e-01 1.573720e-01 -9.293871e-02 -1.466421e-01 -1.015913e-01 -1.231407e-01 1.255157e-01 2.167198e-01
<VARIANCE> 39
 1.064839e+01 1.131125e+01 3.284019e+01 2.159919e+01 3.965372e+01 2.918153e+01 2.589981e+01 2.681095e+01 2.454604e+01 2.354826e+01 3.677385e+01 3.758827e+01 2.449825e+01 7.096546e-01 1.323938e+00 1.698316e+00 2.016515e+00 2.268051e+00 2.665551e+00 2.549648e+00 2.064361e+00 2.237075e+00 1.352092e+00 1.722157e+00 1.196633e+00 1.570890e+00 1.300595e-01 1.845562e-01 2.688061e-01 4.538054e-01 3.494213e-01 4.255020e-01 5.190834e-01 3.597088e-01 5.190083e-01 3.180046e-01 2.797685e-01 3.615428e-01 2.107505e-01
<GCONST> 1.052622e+02
<STATE> 4
<MEAN> 39
 -5.903446e+00 3.746318e+00 -3.171450e+00 -3.420044e+00 -4.532933e-01 -8.402092e-01 -5.195534e-01 -5.728500e-01 2.010366e+00 2.300403e+00 7.590310e-02 -2.944077e+00 5.834238e+01 -9.546531e-01 -2.096624e-02 2.778968e-01 -3.597624e-04 1.149956e-01 3.223628e-01 2.595551e-02 1.283209e-01 -1.412329e-01 -5.835497e-01 2.551181e-01 7.063900e-01 -3.326724e-01 -1.325012e-01 -1.374816e-01 1.081703e-01 -1.422914e-01 -1.582940e-01 -1.500682e-02 -6.701156e-02 -1.521952e-01 5.425264e-02 -7.361808e-02 -1.078617e-01 1.322717e-02 4.953060e-01
<VARIANCE> 39
 1.496990e+01 1.161198e+01 1.748713e+01 1.381771e+01 1.747098e+01 1.978881e+01 1.977355e+01 1.518054e+01 2.543993e+01 2.481968e+01 1.752371e+01 1.807108e+01 2.464680e+01 9.289201e-01 1.334177e+00 1.774305e+00 1.566636e+00 1.117636e+00 1.838319e+00 1.981054e+00 1.624535e+00 1.817348e+00 1.573093e+00 1.393179e+00 1.329076e+00 2.122725e+00 2.045096e-01 2.834631e-01 3.538086e-01 2.539274e-01 2.982252e-01 3.577859e-01 3.958897e-01 4.049999e-01 3.937957e-01 2.973269e-01 2.655966e-01 2.205221e-01 2.579699e-01
<GCONST> 9.916520e+01
<TRANSP> 5
 0.000000e+00 1.000000e+00 0.000000e+00 0.000000e+00 0.000000e+00
 0.000000e+00 6.303681e-01 3.696319e-01 0.000000e+00 0.000000e+00
 0.000000e+00 0.000000e+00 7.629301e-01 2.370699e-01 0.000000e+00
 0.000000e+00 0.000000e+00 0.000000e+00 8.346680e-01 1.653320e-01
 0.000000e+00 0.000000e+00 0.000000e+00 0.000000e+00 0.000000e+00
<ENDHMM>
~h "e"
<BEGINHMM>
<NUMSTATES> 5
<STATE> 2
<MEAN> 39
 -4.075521e+00 4.835202e+00 4.698260e+00 4.645903e+00 -9.021420e+00 -1.011236e+01 -3.074621e+00 -1.879385e+00 -1.099120e+00 -8.668704e-01 -1.769963e+00 -5.708157e-01 6.315805e+01 -2.314505e-01 -2.500919e-01 1.418593e-01 1.458541e-01 -6.758028e-01 7.246818e-03 4.548484e-01 6.128941e-01 3.590768e-01 5.958484e-02 -2.423661e-01 1.351853e-01 -1.044793e-01 -3.735450e-03 -9.983384e-02 -6.688043e-02 -1.103986e-01 1.244147e-02 9.876437e-02 4.905824e-02 2.129524e-02 -6.751295e-02 -4.033028e-02 1.785025e-01 2.277609e-02 3.224458e-02
<VARIANCE> 39
 2.008215e+01 2.498571e+01 4.541856e+01 4.225875e+01 6.100055e+01 6.678457e+01 4.545124e+01 4.109683e+01 5.785397e+01 2.689487e+01 3.701070e+01 3.401566e+01 4.138372e+01 1.371359e+00 1.377390e+00 2.397929e+00 1.847057e+00 4.332273e+00 2.960443e+00 3.178831e+00 2.167099e+00 3.617881e+00 2.669287e+00 2.300318e+00 1.626646e+00 2.109319e+00 2.741637e-01 2.631429e-01 3.897573e-01 3.733765e-01 6.688147e-01 5.890433e-01 5.418382e-01 4.878649e-01 7.665305e-01 3.563606e-01 4.089567e-01 4.241922e-01 3.363448e-01
<GCONST> 1.194924e+02
<STATE> 3
<MEAN> 39
 -3.588383e+00 3.649854e+00 8.444916e+00 4.247167e+00 -1.350808e+01 -1.236837e+01 -3.748719e+00 -1.850077e-01 1.485086e+00 -1.805512e+00 -1.917132e+00 1.548640e+00 6.553757e+01 -1.499283e-01 5.092875e-02 -9.336478e-02 3.528669e-01 1.601082e-01 2.725874e-01 6.139079e-01 4.831605e-01 -2.144910e-01 1.703473e-01 4.557934e-01 -8.455154e-02 -7.784474e-01 -5.395932e-02 -8.486236e-03 -1.660237e-01 5.982831e-02 5.900918e-01 2.729317e-01 9.536656e-02 -2.117650e-01 -9.388497e-02 5.126472e-02 9.240907e-02 -9.747584e-02 -2.547168e-01
<VARIANCE> 39
 1.502059e+01 2.088273e+01 5.851304e+01 4.086401e+01 5.926103e+01 6.439716e+01 7.327898e+01 5.169584e+01 4.667812e+01 2.697730e+01 4.665068e+01 4.660093e+01 2.345658e+01 5.507616e-01 9.232422e-01 1.011244e+00 1.559741e+00 3.264879e+00 4.564595e+00 1.855158e+00 2.655218e+00 1.328539e+00 1.950518e+00 2.012199e+00 1.864883e+00 1.166050e+00 1.222999e-01 1.995114e-01 2.548290e-01 3.281135e-01 4.607434e-01 5.708696e-01 5.757235e-01 4.283939e-01 4.380659e-01 3.302910e-01 3.993510e-01 4.585909e-01 1.412660e-01
<GCONST> 1.116553e+02
<STATE> 4
<MEAN> 39
 -5.325629e+00 2.196605e+00 5.148850e+00 4.919065e+00 -1.025890e+01 -9.365616e+00 4.286467e+00 2.013612e+00 1.351936e+00 -1.451953e+00 -1.511579e+00 -1.058748e+00 6.164418e+01 -2.029385e-01 -1.849924e-01 -3.615234e-01 -1.588409e-01 7.758260e-01 4.989244e-01 1.471200e-01 9.778877e-02 1.899156e-01 3.200549e-01 1.942672e-01 8.204723e-02 -7.090796e-01 -2.141453e-02 -2.264984e-02 -7.478642e-02 -8.112679e-02 1.574273e-01 6.320085e-02 -1.320900e-01 -6.357770e-02 3.640050e-02 1.453783e-02 -4.678481e-02 1.509804e-02 -2.432933e-02
<VARIANCE> 39
 1.447042e+01 2.096520e+01 3.291581e+01 3.507158e+01 5.934103e+01 4.611339e+01 5.491668e+01 3.564822e+01 2.955263e+01 2.763276e+01 4.362177e+01 3.154160e+01 3.872825e+01 3.292832e-01 6.874417e-01 8.260827e-01 1.280469e+00 1.720086e+00 2.074339e+00 1.651492e+00 1.815731e+00 1.836096e+00 1.242784e+00 1.786991e+00 1.270943e+00 4.438538e-01 4.455851e-02 9.924505e-02 1.508362e-01 1.696395e-01 3.025639e-01 3.107353e-01 2.451738e-01 3.122264e-01 3.095007e-01 2.283015e-01 3.527807e-01 2.364525e-01 5.992679e-02
<GCONST> 9.733051e+01
<TRANSP> 5
 0.000000e+00 1.000000e+00 0.000000e+00 0.000000e+00 0.000000e+00
 0.000000e+00 4.721450e-01 5.278550e-01 0.000000e+00 0.000000e+00
 0.000000e+00 0.000000e+00 3.584917e-01 6.415083e-01 0.000000e+00
 0.000000e+00 0.000000e+00 0.000000e+00 7.934488e-01 2.065512e-01
 0.000000e+00 0.000000e+00 0.000000e+00 0.000000e+00 0.000000e+00
<ENDHMM>
~h "h"
<BEGINHMM>
<NUMSTATES> 5
<STATE> 2
<MEAN> 39
 -5.172803e+00 3.356088e+00 -1.326785e+00 -8.178106e+00 -7.018051e+00 -3.010168e+00 5.390634e+00 -1.102315e+00 7.593106e-01 -1.004325e+00 -2.876039e+00 -1.352073e+00 6.676610e+01 1.752076e+00 1.391912e+00 7.911558e-01 -1.582386e-01 -1.674926e+00 -1.501649e+00 -7.966847e-01 -1.081802e+00 -8.801457e-01 -6.593890e-01 -7.236679e-01 -3.178377e-01 1.452715e+00 1.959023e-01 -1.803429e-01 -5.302333e-02 -3.860885e-02 -2.171933e-01 -2.125956e-01 -2.695895e-01 -7.402564e-02 -3.159113e-02 5.727902e-02 1.830159e-01 1.997502e-01 1.042861e-01
<VARIANCE> 39
 4.462333e+01 6.459566e+01 6.806563e+01 8.415983e+01 7.842222e+01 6.800304e+01 4.819073e+01 5.659237e+01 5.455202e+01 3.154512e+01 3.484097e+01 3.158344e+01 2.548130e+01 2.307892e+00 2.475717e+00 2.094690e+00 3.252395e+00 3.811571e+00 3.232343e+00 2.867583e+00 3.803420e+00 3.157642e+00 2.050293e+00 2.345376e+00 2.107219e+00 1.406160e+00 4.493344e-01 6.777491e-01 4.064305e-01 4.520401e-01 6.051148e-01 5.693409e-01 4.498102e-01 6.636431e-01 5.074467e-01 3.908945e-01 4.933840e-01 4.093831e-01 1.842457e-01
<GCONST> 1.247837e+02
<STATE> 3
<MEAN> 39
 1.968101e+00 4.664596e+00 -1.256601e-02 -8.814055e+00 -1.568246e+01 -1.023489e+01 -8.902174e-01 -4.703317e+00 -2.955366e+00 -2.824720e+00 -4.365510e+00 -1.805373e+00 7.291387e+01 4.489412e-01 -1.001970e+00 -3.781781e-01 -5.683001e-01 -9.918168e-01 -6.871260e-01 -1.077904e+00 -7.849643e-01 -5.069817e-01 -6.195690e-02 7.364174e-01 8.223076e-01 1.032906e+00 -5.457088e-01 -2.548514e-01 -9.565403e-02 1.821835e-01 6.142407e-01 4.917359e-01 1.691112e-01 2.863018e-02 8.213436e-02 1.778692e-01 3.409958e-01 1.323347e-01 -4.031928e-01
<VARIANCE> 39
 2.351970e+01 6.454358e+01 7.429319e+01 7.488318e+01 5.493985e+01 8.309438e+01 3.940942e+01 4.567958e+01 5.494001e+01 3.046492e+01 3.462682e+01 4.222200e+01 2.646901e+01 8.651379e-01 2.402723e+00 1.550797e+00 2.024268e+00 3.989736e+00 3.219110e+00 3.975514e+00 3.186859e+00 2.756097e+00 1.855841e+00 2.194512e+00 2.302521e+00 1.673936e+00 2.139090e-01 5.239016e-01 3.130617e-01 4.142106e-01 5.385001e-01 4.725111e-01 6.180156e-01 6.226293e-01 6.313560e-01 3.736361e-01 5.029553e-01 3.871273e-01 1.997006e-01
<GCONST> 1.210229e+02
<STATE> 4
<MEAN> 39
 2.215798e+00 2.939570e+00 -5.928997e-01 -9.354050e+00 -1.559152e+01 -9.819580e+00 -1.992587e+00 -7.445709e+00 -4.262706e+00 -4.499475e+00 -1.927024e+00 1.458274e+00 7.328649e+01 -1.638435e-01 -6.411788e-01 -2.479486e-02 7.169386e-02 2.008193e-01 -1.419264e-01 -9.116347e-01 -9.275287e-01 -3.747511e-01 4.493985e-01 1.221807e+00 4.794863e-01 3.033223e-01 -1.595722e-01 3.318744e-02 1.245409e-01 3.181800e-01 3.596490e-01 -2.095653e-02 -9.703001e-02 9.435191e-02 2.394615e-01 2.373196e-01 -8.014248e-02 -3.355555e-01 -1.588827e-01
<VARIANCE> 39
 2.322308e+01 4.771881e+01 8.703479e+01 7.569717e+01 5.981971e+01 9.231566e+01 5.157414e+01 5.455816e+01 5.889458e+01 3.270203e+01 3.824501e+01 5.071595e+01 2.426744e+01 2.773964e-01 1.119871e+00 1.228347e+00 1.159412e+00 3.012661e+00 1.848836e+00 3.085012e+00 2.489827e+00 2.113872e+00 2.207639e+00 2.974814e+00 1.741160e+00 4.604786e-01 7.476516e-02 2.111971e-01 2.461339e-01 2.612166e-01 3.685705e-01 4.650628e-01 6.141007e-01 3.963658e-01 5.221404e-01 3.993707e-01 4.726093e-01 5.005462e-01 1.165544e-01
<GCONST> 1.124845e+02
<TRANSP> 5
 0.000000e+00 1.000000e+00 0.000000e+00 0.000000e+00 0.000000e+00
 0.000000e+00 7.861325e-01 2.138675e-01 0.000000e+00 0.000000e+00
 0.000000e+00 0.000000e+00 5.892935e-01 4.107064e-01 0.000000e+00
 0.000000e+00 0.000000e+00 0.000000e+00 5.776129e-01 4.223871e-01
 0.000000e+00 0.000000e+00 0.000000e+00 0.000000e+00 0.000000e+00
<ENDHMM>
~h "i"
<BEGINHMM>
<NUMSTATES> 5
<STATE> 2
<MEAN> 39
 -2.206223e+01 2.300466e+00 6.334605e+00 -4.779150e+00 -4.114580e+00 3.966975e-02 2.160525e+00 -9.855726e-01 2.315107e+00 -1.177544e+00 1.533168e+00 -2.680129e-01 6.785682e+01 -1.855326e-01 1.202934e-01 2.131075e+00 1.489729e+00 -5.134163e-01 -9.907557e-01 8.437065e-01 -6.106272e-01 -7.991235e-01 -5.945366e-01 -2.393738e-01 -2.981535e-01 5.540085e-01 1.258812e+00 2.288958e-01 -6.671444e-02 4.304819e-01 -3.556531e-02 -6.350273e-01 -3.973105e-01 -1.871474e-01 -3.913419e-01 -1.632535e-01 -1.475468e-01 -2.044792e-02 -3.424405e-01
<VARIANCE> 39
 2.426076e+01 2.053288e+01 2.831164e+01 3.970550e+01 3.329812e+01 3.703870e+01 3.225393e+01 2.291772e+01 2.981241e+01 2.162502e+01 1.753187e+01 1.225051e+01 1.576923e+01 8.748597e+00 2.254054e+00 2.691397e+00 3.410331e+00 3.756945e+00 3.691144e+00 2.579864e+00 2.293860e+00 2.399582e+00 1.612179e+00 2.173875e+00 1.188719e+00 1.982444e+00 5.093735e-01 5.892462e-01 5.147821e-01 4.640191e-01 7.746650e-01 4.678221e-01 5.915666e-01 4.531336e-01 4.738692e-01 3.511832e-01 4.827324e-01 2.438691e-01 2.686470e-01
<GCONST> 1.156110e+02
<STATE> 3
<MEAN> 39
 -1.124167e+01 5.223403e+00 1.519364e+01 4.294966e+00 -6.960119e+00 -7.693320e+00 -9.940714e-01 -5.504828e+00 -4.715751e+00 -5.907652e+00 -9.518232e-01 -3.529474e-01 6.741023e+01 3.745199e+00 1.658642e+00 5.460078e-01 1.928206e+00 -8.288832e-01 -3.139009e+00 -1.574591e+00 -6.805758e-01 -1.490655e+00 -1.148886e+00 -5.514682e-01 6.275070e-01 -3.118339e-01 -3.662778e-01 -7.431613e-02 -9.063332e-01 -6.051910e-01 2.500349e-01 2.144456e-01 6.407454e-02 3.040602e-01 4.991595e-01 3.002566e-01 8.372250e-02 7.784730e-02 -5.581136e-02
<VARIANCE> 39
 3.378961e+01 3.089189e+01 2.883549e+01 4.964656e+01 3.982545e+01 2.813387e+01 3.284529e+01 2.420619e+01 2.323116e+01 2.324875e+01 1.693870e+01 1.507507e+01 8.774303e+00 1.942687e+00 2.121840e+00 1.891715e+00 2.464641e+00 3.686138e+00 1.590980e+00 2.844795e+00 3.235894e+00 1.952056e+00 2.107612e+00 3.304414e+00 1.911992e+00 5.189691e-01 5.508819e-01 3.329767e-01 2.989504e-01 3.424143e-01 5.699778e-01 5.662830e-01 6.649689e-01 4.032436e-01 2.920004e-01 3.991259e-01 5.528412e-01 3.110877e-01 6.291814e-02
<GCONST> 1.100491e+02
<STATE> 4
<MEAN> 39
 -7.176923e+00 5.115205e+00 1.012295e+01 8.369597e+00 -6.274161e+00 -1.408161e+01 -7.780233e-01 -4.864624e+00 -3.350161e+00 -4.236629e+00 -9.436144e-01 6.842265e-01 6.490063e+01 1.012527e+00 2.704157e-01 -1.845392e+00 -7.408886e-02 7.190164e-01 4.306070e-02 -6.443457e-02 -2.389186e-01 5.398601e-01 7.028800e-01 3.485638e-01 -3.871601e-01 -4.308989e-01 -4.177754e-01 -9.448427e-02 -1.774675e-01 -5.988052e-01 2.695361e-01 8.775691e-01 1.682492e-01 -1.678529e-01 2.153470e-01 3.551224e-01 3.210222e-01 -1.046013e-01 -7.195851e-02
<VARIANCE> 39
 1.247710e+01 3.018614e+01 4.059850e+01 6.764054e+01 2.578658e+01 4.052628e+01 2.163132e+01 2.284946e+01 2.106188e+01 2.727014e+01 4.299275e+01 1.906732e+01 1.230629e+01 9.733465e-01 1.038325e+00 1.067899e+00 3.142424e+00 1.234814e+00 5.533766e+00 3.576061e+00 3.113584e+00 2.225462e+00 2.836317e+00 3.893396e+00 1.675458e+00 4.584253e-01 3.167845e-01 2.712007e-01 3.039373e-01 3.185785e-01 3.157518e-01 4.436732e-01 4.210827e-01 4.235212e-01 6.630669e-01 5.661064e-01 6.718971e-01 4.524757e-01 4.749947e-02
<GCONST> 1.090483e+02
<TRANSP> 5
 0.000000e+00 1.000000e+00 0.000000e+00 0.000000e+00 0.000000e+00
 0.000000e+00 7.758408e-01 2.241592e-01 0.000000e+00 0.000000e+00
 0.000000e+00 0.000000e+00 5.791199e-01 4.208800e-01 0.000000e+00
 0.000000e+00 0.000000e+00 0.000000e+00 6.062683e-01 3.937317e-01
 0.000000e+00 0.000000e+00 0.000000e+00 0.000000e+00 0.000000e+00
<ENDHMM>
~h "k"
<BEGINHMM>
<NUMSTATES> 5
<STATE> 2
<MEAN> 39
 -9.879798e+00 7.134547e-01 5.863236e+00 7.794511e-01 -1.037970e+01 -1.134394e+01 -3.871993e-01 -4.568513e+00 -2.437433e+00 -3.231845e+00 -1.687031e+00 -8.306941e-01 7.188893e+01 2.214573e+00 1.369289e+00 1.509088e+00 4.911472e-01 -1.465441e+00 -2.069217e+00 -7.891185e-01 -1.100553e+00 -1.120759e+00 -1.446686e+00 -5.636197e-01 -4.104899e-01 1.035621e+00 1.575930e-01 -1.243941e-01 -1.579934e-01 -2.217423e-01 -8.937246e-02 -6.091009e-03 -8.383372e-02 8.086593e-02 2.119880e-02 9.397070e-02 1.928027e-01 1.304828e-01 -1.064483e-01
<VARIANCE> 39
 4.707430e+01 4.259156e+01 5.237012e+01 2.551397e+01 4.424472e+01 5.667197e+01 4.097276e+01 4.986596e+01 4.172870e+01 3.347782e+01 2.999941e+01 3.110920e+01 2.031087e+01 2.445165e+00 3.816871e+00 3.107462e+00 3.128937e+00 4.047167e+00 3.481508e+00 3.664108e+00 3.103189e+00 4.432347e+00 2.812179e+00 2.511357e+00 2.164844e+00 2.597490e+00 9.109554e-01 1.059136e+00 6.808595e-01 6.330889e-01 7.249748e-01 6.687699e-01 6.406741e-01 5.200137e-01 6.582370e-01 6.344978e-01 4.767017e-01 3.857709e-01 7.177894e-01
<GCONST> 1.281760e+02
<STATE> 3
<MEAN> 39
 -2.819221e+00 2.145907e-01 8.196459e+00 -1.840140e-01 -1.743429e+01 -1.783288e+01 -2.897351e+00 -7.527139e+00 -5.994642e+00 -5.951962e+00 -1.216229e+00 -7.619858e-01 7.581559e+01 1.039130e-01 -5.488343e-01 2.523209e-01 -5.705120e-01 -7.527370e-01 -4.783725e-01 -3.807743e-01 -2.336533e-01 -2.953371e-01 2.321295e-01 7.118117e-01 4.357938e-01 3.712221e-01 -5.250204e-01 8.003451e-02 -5.548534e-02 7.630289e-02 5.110959e-01 5.827398e-01 3.135909e-01 1.396996e-01 2.245564e-01 3.048374e-01 4.063749e-03 -4.756356e-02 -3.862071e-01
<VARIANCE> 39
 1.325936e+01 5.081360e+01 5.625305e+01 3.560900e+01 7.089301e+01 7.199686e+01 4.781163e+01 8.046344e+01 5.902874e+01 2.758416e+01 3.387414e+01 4.407682e+01 1.482815e+01 5.123789e-01 1.495607e+00 1.509488e+00 9.789537e-01 2.198706e+00 2.225220e+00 1.907280e+00 2.517150e+00 1.722635e+00 1.365531e+00 1.069368e+00 9.114168e-01 7.470535e-01 2.125399e-01 3.263949e-01 3.369197e-01 2.261388e-01 5.247788e-01 6.402013e-01 4.924805e-01 4.141309e-01 5.225339e-01 2.855528e-01 3.916552e-01 2.510852e-01 8.582510e-02
<GCONST> 1.092042e+02
<STATE> 4
<MEAN> 39
 -7.126020e+00 7.784239e+00 1.092427e+01 1.200246e+00 -1.215187e+01 -1.908691e+01 -4.064200e+00 -5.227735e+00 -5.103786e+00 -5.981449e+00 1.182508e+00 1.309588e+00 7.555470e+01 -1.284636e-01 2.153440e-01 3.095002e-01 2.487329e-02 -1.077511e-01 9.167793e-02 2.530943e-01 -1.482655e-01 2.741834e-02 2.330930e-02 5.548839e-04 2.569866e-02 -2.465073e-01 -6.173109e-02 8.342145e-02 3.183077e-05 9.256294e-02 1.071739e-01 4.876363e-02 8.975153e-02 -6.664452e-03 7.737090e-02 1.123343e-02 -1.257257e-01 -6.600792e-02 -1.018933e-01
<VARIANCE> 39
 1.706527e+01 6.192759e+01 3.205306e+01 2.161665e+01 4.971111e+01 5.132143e+01 2.473890e+01 5.262040e+01 3.992103e+01 2.470897e+01 2.829039e+01 3.185599e+01 1.440046e+01 1.621925e-01 3.704336e-01 7.445233e-01 6.254550e-01 8.863802e-01 1.247637e+00 1.087752e+00 1.312022e+00 9.906248e-01 1.000038e+00 1.534557e+00 6.626042e-01 2.563205e-01 4.126595e-02 8.200333e-02 1.308483e-01 9.793267e-02 1.888956e-01 2.257607e-01 1.609527e-01 3.156958e-01 2.356689e-01 2.469349e-01 2.844531e-01 1.130907e-01 2.855137e-02
<GCONST> 8.607078e+01
<TRANSP> 5
 0.000000e+00 1.000000e+00 0.000000e+00 0.000000e+00 0.000000e+00
 0.000000e+00 7.957698e-01 2.042302e-01 0.000000e+00 0.000000e+00
 0.000000e+00 0.000000e+00 5.253903e-01 4.746097e-01 0.000000e+00
 0.000000e+00 0.000000e+00 0.000000e+00 6.948524e-01 3.051476e-01
 0.000000e+00 0.000000e+00 0.000000e+00 0.000000e+00 0.000000e+00
<ENDHMM>
~h "m"
<BEGINHMM>
<NUMSTATES> 5
<STATE> 2
<MEAN> 39
 2.106685e+00 1.125129e+01 4.399251e+00 2.569341e+00 -3.693610e+00 -1.426833e+00 -3.876543e-01 -7.655043e+00 -1.057666e+01 -1.059396e+01 -5.084091e+00 -1.457476e+00 6.367687e+01 9.600838e-01 -5.926077e-01 -1.058937e+00 -1.669753e+00 -1.319408e+00 -7.394613e-02 3.311255e-01 -2.311408e-02 3.504620e-01 3.433717e-01 -1.627381e-01 -1.929010e-01 1.515723e+00 -2.168015e-01 -5.336212e-01 -5.003592e-01 -5.642890e-01 -1.006841e-01 2.340309e-01 3.101058e-01 2.892330e-01 5.775485e-01 6.037548e-01 9.677314e-02 -2.834288e-02 1.051001e-01
<VARIANCE> 39
 1.032579e+01 2.548503e+01 4.802924e+01 4.099558e+01 6.164834e+01 7.003371e+01 4.752930e+01 4.265211e+01 5.495570e+01 5.340367e+01 4.378590e+01 2.866807e+01 2.002604e+01 9.987510e-01 2.284707e+00 3.410910e+00 4.919510e+00 2.529592e+00 2.208478e+00 2.413749e+00 3.666612e+00 4.931710e+00 5.637879e+00 2.774196e+00 1.564852e+00 1.035309e+00 1.450668e-01 2.674866e-01 3.834506e-01 4.888340e-01 4.355405e-01 3.941576e-01 4.349737e-01 4.811417e-01 6.420794e-01 6.861116e-01 5.574186e-01 2.983226e-01 1.307673e-01
<GCONST> 1.184128e+02
<STATE> 3
<MEAN> 39
 5.028853e+00 2.024811e+00 -7.118911e+00 -1.368383e+01 -1.127602e+01 7.797769e-01 5.474429e+00 -3.362784e+00 -3.166757e+00 -1.435358e+00 -5.335218e+00 -3.243887e+00 7.268539e+01 -1.853791e-01 -2.356312e+00 -1.619179e+00 -2.406063e+00 -2.131417e-01 1.651286e+00 1.418921e+00 -1.388480e-01 9.556391e-01 1.533801e+00 -1.407922e-01 -4.354714e-01 1.644237e+00 -3.270304e-01 3.842375e-01 7.262885e-01 1.120466e+00 7.547184e-01 -7.105814e-02 -4.159808e-01 -3.590418e-01 -6.020353e-01 -5.247491e-01 2.591132e-02 1.760053e-02 -4.861516e-01
<VARIANCE> 39
 6.877086e+00 3.571193e+01 2.635670e+01 2.859642e+01 6.470078e+01 5.026998e+01 5.465659e+01 7.661092e+01 3.729304e+01 5.571482e+01 4.331447e+01 4.236987e+01 1.273998e+01 8.512645e-01 1.784480e+00 2.264059e+00 4.347464e+00 4.855760e+00 3.865021e+00 3.429067e+00 4.894571e+00 5.051277e+00 5.120924e+00 3.688848e+00 2.822491e+00 1.399661e+00 8.597484e-02 2.640374e-01 2.522255e-01 2.915005e-01 5.620255e-01 7.316015e-01 5.296578e-01 8.595058e-01 5.432950e-01 9.222251e-01 6.362370e-01 3.353063e-01 9.900422e-02
<GCONST> 1.197014e+02
<STATE> 4
<MEAN> 39
 2.296119e+00 -3.237570e+00 -9.288916e+00 -1.510690e+01 -8.459112e+00 2.442797e+00 6.750082e+00 -1.777284e+00 -4.054604e+00 -1.532409e-01 -4.304455e+00 -5.025835e+00 7.609435e+01 -2.234578e-01 -4.590878e-01 -6.021655e-03 4.515043e-03 1.556903e-01 -2.246473e-02 -2.794649e-01 -1.539676e-01 4.750723e-02 3.370231e-01 1.953309e-01 -3.639675e-02 2.343818e-01 7.770073e-02 3.158795e-01 1.815878e-01 2.457482e-01 -7.956918e-02 -3.232623e-01 -2.577053e-01 4.541829e-02 -6.294136e-02 -1.375288e-01 7.098003e-02 1.127694e-01 -2.382105e-01
<VARIANCE> 39
 8.517817e+00 4.221131e+01 2.352572e+01 2.474486e+01 5.664589e+01 5.282792e+01 6.354987e+01 8.471040e+01 4.775808e+01 3.949295e+01 4.835754e+01 4.031805e+01 1.460903e+01 2.921664e-01 6.166945e-01 5.524011e-01 1.125484e+00 1.147228e+00 1.937140e+00 1.622950e+00 2.010230e+00 1.634765e+00 2.197660e+00 1.527202e+00 1.224324e+00 3.071862e-01 5.845604e-02 1.345581e-01 1.855451e-01 2.766557e-01 2.404741e-01 3.632027e-01 3.778159e-01 3.690508e-01 3.786297e-01 4.400862e-01 3.313427e-01 2.638692e-01 7.157573e-02
<GCONST> 9.975077e+01
<TRANSP> 5
 0.000000e+00 1.000000e+00 0.000000e+00 0.000000e+00 0.000000e+00
 0.000000e+00 8.467726e-01 1.532274e-01 0.000000e+00 0.000000e+00
 0.000000e+00 0.000000e+00 6.359798e-01 3.640202e-01 0.000000e+00
 0.000000e+00 0.000000e+00 0.000000e+00 7.195367e-01 2.804633e-01
 0.000000e+00 0.000000e+00 0.000000e+00 0.000000e+00 0.000000e+00
<ENDHMM>
~h "n"
<BEGINHMM>
<NUMSTATES> 5
<STATE> 2
<MEAN> 39
 2.608137e+00 4.829688e+00 1.620069e+00 2.219090e+00 -6.381513e+00 -8.359245e+00 -5.215432e+00 -7.827077e+00 -1.628087e+00 -3.882284e+00 -5.483263e+00 -7.246271e+00 6.844830e+01 1.152977e-01 8.275146e-01 3.239543e-01 4.568787e-01 4.974747e-01 -2.440951e-01 -4.138270e-01 1.390937e-01 -4.105954e-01 -1.599153e-01 2.500589e-01 -1.138462e-01 -6.880197e-01 -1.066790e-01 -2.345885e-01 -5.714038e-02 -1.651432e-01 -1.956759e-01 5.780098e-02 1.389043e-01 1.042791e-01 1.246960e-01 4.152816e-02 -2.932586e-02 1.326512e-01 2.242703e-01
<VARIANCE> 39
 1.193346e+01 2.648507e+01 5.148909e+01 3.182850e+01 7.130181e+01 7.688387e+01 4.097323e+01 3.084291e+01 3.984493e+01 4.427100e+01 2.105728e+01 5.637689e+01 2.085269e+01 3.816584e-01 1.254989e+00 1.515329e+00 2.054184e+00 2.207264e+00 1.800601e+00 2.692554e+00 1.810123e+00 2.740911e+00 2.253247e+00 1.673403e+00 1.722645e+00 7.232713e-01 5.321301e-02 1.932184e-01 1.871894e-01 2.716280e-01 3.297244e-01 3.052418e-01 4.643456e-01 3.358328e-01 5.655191e-01 4.306499e-01 2.955261e-01 2.942849e-01 7.629307e-02
<GCONST> 1.059580e+02
<STATE> 3
<MEAN> 39
 9.373984e-01 3.833644e+00 3.811925e+00 2.551039e+00 -1.158851e+01 -8.500291e+00 -6.336336e+00 -5.466870e+00 2.319645e+00 -3.644922e+00 -5.696947e+00 -2.859004e+00 6.960316e+01 -7.106898e-01 -1.411010e+00 3.185655e-01 -1.575333e-01 -1.770014e+00 -2.654584e-01 9.124711e-01 1.018962e+00 1.501309e+00 3.152410e-01 -5.254135e-01 6.053103e-01 1.172016e+00 -3.625001e-02 -2.369643e-03 1.613476e-02 -8.251945e-02 -8.574452e-02 -1.914320e-01 2.689208e-01 1.486250e-01 -2.310157e-01 7.863772e-02 1.392934e-01 -3.360103e-02 1.993001e-02
<VARIANCE> 39
 1.083158e+01 3.660773e+01 6.306817e+01 3.608260e+01 7.239247e+01 3.986203e+01 4.501317e+01 5.820206e+01 6.624963e+01 3.190555e+01 4.602315e+01 3.018641e+01 3.108681e+01 4.935032e-01 2.292966e+00 1.743828e+00 1.342932e+00 3.005461e+00 3.006078e+00 5.497280e+00 4.511542e+00 5.175716e+00 2.852514e+00 2.760444e+00 2.775775e+00 9.017353e-01 7.296693e-02 5.100619e-01 2.798826e-01 2.574593e-01 5.817466e-01 4.514767e-01 7.027503e-01 7.860863e-01 1.286680e+00 5.024557e-01 5.403286e-01 4.464366e-01 2.655609e-01
<GCONST> 1.195337e+02
<STATE> 4
<MEAN> 39
 -1.747903e+00 3.338891e+00 5.476240e+00 5.778140e-01 -1.534703e+01 -1.175089e+01 -7.962623e-01 -1.422842e+00 2.139853e+00 -1.390873e+00 -4.771291e+00 -1.246016e+00 7.027367e+01 -3.160611e-01 2.626187e-01 3.635513e-01 5.744826e-02 -5.502113e-02 -3.964298e-01 4.937184e-01 1.236284e-01 -5.793131e-01 -2.311509e-02 2.014967e-01 1.267413e-01 -3.361157e-01 6.342401e-02 8.131504e-02 -3.209291e-02 7.323240e-02 2.374747e-01 1.381823e-01 -1.558115e-01 -1.651603e-01 1.484337e-02 -6.548271e-02 -2.786579e-02 -9.450907e-02 -1.623708e-01
<VARIANCE> 39
 1.247591e+01 3.961746e+01 6.298859e+01 3.968304e+01 9.423423e+01 6.189022e+01 7.712772e+01 5.987318e+01 4.958339e+01 2.913453e+01 5.316775e+01 2.225491e+01 3.006002e+01 1.636085e-01 5.704809e-01 6.530703e-01 8.863436e-01 1.663164e+00 1.444829e+00 1.292000e+00 1.380083e+00 1.951803e+00 1.697110e+00 1.509625e+00 1.274192e+00 2.754216e-01 4.194586e-02 1.713400e-01 1.142840e-01 1.916782e-01 3.220272e-01 2.403010e-01 3.502624e-01 2.792947e-01 3.500858e-01 2.648709e-01 2.788882e-01 1.902854e-01 5.607444e-02
<GCONST> 9.783155e+01
<TRANSP> 5
 0.000000e+00 1.000000e+00 0.000000e+00 0.000000e+00 0.000000e+00
 0.000000e+00 8.570608e-01 1.429392e-01 0.000000e+00 0.000000e+00
 0.000000e+00 0.000000e+00 7.693169e-01 2.306831e-01 0.000000e+00
 0.000000e+00 0.000000e+00 0.000000e+00 7.994978e-01 2.005022e-01
 0.000000e+00 0.000000e+00 0.000000e+00 0.000000e+00 0.000000e+00
<ENDHMM>
~h "p"
<BEGINHMM>
<NUMSTATES> 5
<STATE> 2
<MEAN> 39
 2.170228e+00 1.880357e+00 -6.445428e+00 -1.323038e+01 -9.195281e+00 -1.521517e-01 5.368779e+00 -2.842864e+00 -1.645593e+00 -8.415324e-01 -4.026766e+00 -4.124835e+00 7.142374e+01 1.342170e+00 -3.128881e-01 -2.751008e-01 -1.502502e+00 -1.753242e+00 -1.139076e-01 1.323118e-01 -4.617230e-01 -7.133353e-01 -2.414419e-01 -4.165033e-01 -6.209245e-01 1.657181e+00 -5.523227e-01 -3.799522e-01 1.390445e-01 4.899074e-01 2.235874e-01 -8.962824e-02 -4.666316e-01 7.739849e-02 2.987690e-01 1.793952e-01 3.318851e-01 2.281768e-01 -1.931314e-01
<VARIANCE> 39
 1.903588e+01 5.305098e+01 3.655713e+01 2.809045e+01 6.867590e+01 9.844389e+01 4.903768e+01 5.024542e+01 3.807745e+01 3.188970e+01 3.182634e+01 4.705729e+01 3.089646e+01 2.657134e+00 4.988699e+00 2.468356e+00 3.280997e+00 4.673328e+00 4.844295e+00 4.194829e+00 3.471128e+00 3.377391e+00 3.444534e+00 2.845280e+00 3.044747e+00 1.930327e+00 3.379786e-01 6.457516e-01 4.195064e-01 4.520738e-01 6.839076e-01 7.930962e-01 6.289538e-01 5.901327e-01 4.776850e-01 5.763569e-01 4.492046e-01 4.671812e-01 4.567826e-01
<GCONST> 1.273242e+02
<STATE> 3
<MEAN> 39
 1.685187e+00 -3.370784e+00 -7.296821e+00 -1.413345e+01 -1.203352e+01 -4.042474e+00 3.198079e+00 -1.285757e-01 -1.343328e+00 -1.230718e+00 -3.103121e+00 -4.885552e+00 7.678888e+01 3.224119e-02 4.558101e-02 1.457642e-01 3.331763e-02 -3.205711e-01 -3.931702e-01 -4.961095e-01 -1.348985e-01 4.293719e-01 4.256324e-01 -3.904195e-02 -8.812937e-03 -1.290749e-01 -5.772657e-02 2.347075e-01 2.746949e-02 1.799098e-01 1.599058e-01 -1.364784e-01 -9.030211e-04 3.244127e-02 7.058482e-02 -3.386375e-02 -4.370883e-02 1.067978e-01 -2.845745e-01
<VARIANCE> 39
 1.567459e+01 5.078391e+01 2.759704e+01 2.005423e+01 5.366777e+01 1.169909e+02 9.505025e+01 8.469386e+01 6.451807e+01 4.603710e+01 3.623908e+01 4.468686e+01 3.221835e+01 5.508481e-01 2.118628e+00 8.957385e-01 1.355481e+00 1.905995e+00 3.084707e+00 4.440363e+00 3.134210e+00 3.876171e+00 2.617750e+00 1.882919e+00 1.601743e+00 9.851973e-01 1.525657e-01 3.611020e-01 1.729562e-01 3.165773e-01 4.301155e-01 5.064433e-01 6.422345e-01 5.729983e-01 5.808553e-01 4.850166e-01 3.995709e-01 3.471055e-01 1.454721e-01
<GCONST> 1.159319e+02
<STATE> 4
<MEAN> 39
 3.769076e+00 1.646205e+00 -4.957973e+00 -1.346636e+01 -1.125505e+01 -3.361083e-01 2.501969e+00 -3.942564e+00 4.285592e-01 7.962292e-02 -4.021916e+00 -4.702486e+00 7.367906e+01 -4.038982e-02 1.509628e-01 1.510374e-01 3.446435e-01 -8.415511e-02 -5.373054e-01 -3.837128e-01 2.527927e-03 2.838408e-01 1.525107e-01 -4.416833e-02 4.483641e-02 -1.408669e-01 -3.543435e-02 8.959530e-02 7.521798e-02 1.166238e-01 6.729827e-02 -8.072540e-02 -4.659171e-03 1.596022e-02 -2.449292e-02 -1.047261e-01 3.015353e-03 2.606327e-02 -8.219504e-02
<VARIANCE> 39
 1.031030e+01 6.207248e+01 6.676758e+01 2.608017e+01 1.073688e+02 1.435595e+02 4.397885e+01 5.787038e+01 5.136250e+01 4.709070e+01 3.379031e+01 4.836588e+01 1.869591e+01 1.780912e-01 7.181448e-01 7.367898e-01 1.022016e+00 1.492625e+00 2.248841e+00 1.764928e+00 1.301126e+00 1.488587e+00 1.319634e+00 1.719835e+00 1.243836e+00 2.559608e-01 4.509145e-02 1.392807e-01 1.211525e-01 1.550282e-01 2.631195e-01 2.833380e-01 3.608514e-01 2.604844e-01 2.763017e-01 2.788735e-01 2.524852e-01 1.941972e-01 3.985676e-02
<GCONST> 9.817223e+01
<TRANSP> 5
 0.000000e+00 1.000000e+00 0.000000e+00 0.000000e+00 0.000000e+00
 0.000000e+00 7.479658e-01 2.520342e-01 0.000000e+00 0.000000e+00
 0.000000e+00 0.000000e+00 7.010446e-01 2.989555e-01 0.000000e+00
 0.000000e+00 0.000000e+00 0.000000e+00 6.800852e-01 3.199148e-01
 0.000000e+00 0.000000e+00 0.000000e+00 0.000000e+00 0.000000e+00
<ENDHMM>
~h "r"
<BEGINHMM>
<NUMSTATES> 5
<STATE> 2
<MEAN> 39
 -8.128262e-01 3.262540e+00 4.018122e+00 4.314198e+00 -9.251793e+00 -1.571383e+01 -6.331183e+00 -6.425344e+00 4.076506e-01 -2.906871e+00 2.009381e+00 -1.605998e+00 6.609404e+01 -1.150254e-01 -1.117900e-01 -1.993451e-02 2.598352e-01 6.375377e-01 3.692582e-01 4.562749e-01 -3.020150e-01 -1.697897e-01 -3.324941e-01 -1.855859e-01 -1.066984e-01 -3.498766e-01 2.253875e-02 -6.487066e-02 6.221353e-02 -1.160615e-01 -1.804713e-01 -1.852067e-01 8.316134e-02 2.379475e-01 -7.559841e-02 1.655521e-02 8.742615e-02 9.389226e-02 1.574054e-01
<VARIANCE> 39
 1.682437e+01 2.076930e+01 3.978639e+01 6.046119e+01 4.301189e+01 5.975301e+01 3.362951e+01 5.176897e+01 3.901585e+01 3.471585e+01 3.664984e+01 2.405500e+01 3.327496e+01 8.984218e-01 2.463130e+00 2.343477e+00 3.344810e+00 4.016237e+00 5.942313e+00 2.380735e+00 3.436021e+00 1.490469e+00 2.549702e+00 3.018878e+00 2.134130e+00 3.833650e+00 1.826907e-01 5.225741e-01 3.783024e-01 7.287074e-01 6.553366e-01 1.128465e+00 3.597558e-01 6.104043e-01 2.974464e-01 4.707928e-01 5.928717e-01 3.589555e-01 5.336586e-01
<GCONST> 1.212036e+02
<STATE> 3
<MEAN> 39
 -3.588226e+00 4.025153e+00 6.185945e+00 8.395871e+00 -8.407704e+00 -1.397791e+01 -7.425832e+00 -3.717883e+00 3.197025e+00 -1.920622e+00 -2.004256e+00 2.912128e+00 6.538020e+01 -4.564229e-01 -2.007353e-01 3.256868e-01 3.146278e-01 -7.630724e-01 1.178516e-01 5.876526e-01 5.795563e-01 -1.133128e-01 -6.089691e-02 3.343241e-01 8.103511e-01 -2.495551e-02 -2.996341e-02 5.873333e-02 4.457819e-02 -1.377461e-01 -3.403512e-01 3.200286e-02 8.380060e-02 2.430948e-01 6.891520e-02 -9.951735e-03 1.982881e-01 2.494968e-02 1.391925e-01
<VARIANCE> 39
 1.723112e+01 1.953277e+01 5.323189e+01 2.405728e+01 6.144100e+01 8.153175e+01 4.399523e+01 3.057609e+01 4.164456e+01 2.008214e+01 2.876314e+01 3.285574e+01 2.034011e+01 7.013693e-01 1.413314e+00 2.075414e+00 1.568996e+00 7.029025e+00 3.901520e+00 3.352074e+00 3.330918e+00 4.819034e+00 1.722179e+00 2.639329e+00 3.378540e+00 8.917261e-01 1.121721e-01 2.340311e-01 4.972138e-01 2.922758e-01 1.457149e+00 7.544507e-01 6.708754e-01 7.377989e-01 1.150629e+00 3.460588e-01 2.980540e-01 8.577357e-01 2.712308e-01
<GCONST> 1.182860e+02
<STATE> 4
<MEAN> 39
 5.994000e-02 9.958268e-01 5.978252e+00 -1.898952e+00 -1.345743e+01 -1.839576e+01 -4.056170e+00 -3.714917e+00 -4.550961e+00 -3.262921e+00 3.200026e+00 -5.882987e-01 6.899474e+01 -2.850340e-01 3.015980e-01 2.895061e-01 -2.054352e-01 2.421455e-01 3.721204e-01 2.568092e-01 3.758585e-01 -2.355630e-01 2.785449e-01 5.440641e-02 -4.189301e-01 -3.852604e-01 -4.964513e-02 5.874449e-02 -8.934613e-02 1.221526e-01 1.171536e-01 1.237643e-01 3.249986e-02 -4.396177e-02 2.886358e-02 1.301397e-02 -1.694560e-01 -9.266806e-02 -1.199327e-01
<VARIANCE> 39
 1.586973e+01 1.044919e+01 3.510055e+01 5.981004e+01 7.019669e+01 9.501367e+01 3.245921e+01 2.466263e+01 5.895091e+01 3.459682e+01 6.595412e+01 2.810927e+01 2.091040e+01 3.224439e-01 5.311348e-01 6.619528e-01 9.756730e-01 1.322766e+00 1.074685e+00 1.525563e+00 1.442618e+00 1.502082e+00 1.443737e+00 1.445234e+00 1.452184e+00 5.307600e-01 7.736203e-02 1.143925e-01 1.000951e-01 1.355266e-01 3.709181e-01 2.167185e-01 1.939000e-01 1.862184e-01 3.139324e-01 2.236169e-01 2.244757e-01 2.889579e-01 5.817901e-02
<GCONST> 9.482885e+01
<TRANSP> 5
 0.000000e+00 1.000000e+00 0.000000e+00 0.000000e+00 0.000000e+00
 0.000000e+00 7.685079e-01 2.314921e-01 0.000000e+00 0.000000e+00
 0.000000e+00 0.000000e+00 6.937488e-01 3.062513e-01 0.000000e+00
 0.000000e+00 0.000000e+00 0.000000e+00 8.195961e-01 1.804039e-01
 0.000000e+00 0.000000e+00 0.000000e+00 0.000000e+00 0.000000e+00
<ENDHMM>
~h "t"
<BEGINHMM>
<NUMSTATES> 5
<STATE> 2
<MEAN> 39
 -7.404541e+00 8.523144e-02 -7.016234e-01 -4.070865e+00 -3.653659e+00 -3.686929e+00 -3.301893e+00 -3.372704e+00 2.062193e+00 -7.420963e-01 -1.614145e+00 -5.315193e-01 6.846007e+01 1.505060e+00 2.550393e-01 -4.801468e-02 -9.090887e-01 -9.020230e-01 -8.430582e-01 -4.249767e-01 -1.097051e+00 -7.261831e-01 -1.785850e-01 -6.990194e-01 -6.619746e-01 2.112357e+00 5.428873e-01 2.803133e-01 -1.173491e-01 -5.699506e-02 -2.427997e-01 -2.475190e-02 2.476066e-01 -3.570855e-02 -3.002516e-01 8.932746e-02 5.358137e-02 5.591995e-02 -4.577992e-01
<VARIANCE> 39
 4.254101e+01 4.162449e+01 3.939116e+01 4.717093e+01 3.995055e+01 4.931033e+01 3.843351e+01 4.142343e+01 4.037069e+01 3.427437e+01 3.050094e+01 3.002361e+01 6.606898e+01 6.705974e+00 5.380166e+00 3.228530e+00 4.889978e+00 5.101019e+00 5.982486e+00 4.420958e+00 5.271363e+00 5.588202e+00 4.062516e+00 3.305383e+00 3.480129e+00 7.752310e+00 9.459271e-01 1.043688e+00 5.444707e-01 7.559723e-01 7.972630e-01 1.029428e+00 8.919072e-01 9.122891e-01 9.375976e-01 7.098132e-01 6.067531e-01 6.307972e-01 1.453908e+00
<GCONST> 1.381125e+02
<STATE> 3
<MEAN> 39
 2.021624e+00 6.786031e-01 -4.419238e+00 -1.026031e+01 -8.911827e+00 -5.670252e+00 -1.732713e+00 -6.115853e+00 -2.689056e+00 -1.679130e-01 -3.460593e+00 -2.360571e+00 7.396236e+01 1.169788e+00 -5.629719e-01 -7.491451e-01 -9.132010e-01 -1.370407e+00 -1.818728e-01 5.788447e-01 -2.308739e-01 -6.853645e-01 3.208050e-01 2.500316e-01 4.083645e-01 5.450382e-01 -8.409213e-01 -3.263360e-01 1.476068e-01 3.587829e-01 3.726890e-01 2.365507e-01 -4.213058e-02 2.668016e-01 3.976463e-01 9.075068e-02 2.703958e-01 2.321311e-01 -3.097630e-01
<VARIANCE> 39
 2.001979e+01 3.862093e+01 5.891494e+01 6.210361e+01 6.653011e+01 8.493610e+01 4.810732e+01 5.870655e+01 4.385215e+01 5.377478e+01 4.102242e+01 5.090595e+01 2.693091e+01 2.425727e+00 2.917161e+00 2.265009e+00 2.536874e+00 4.018305e+00 5.136174e+00 4.141113e+00 3.850431e+00 3.863072e+00 2.836412e+00 3.048949e+00 2.651690e+00 1.508652e+00 2.928366e-01 4.883218e-01 3.386306e-01 5.154617e-01 7.542358e-01 8.212802e-01 7.088213e-01 7.830117e-01 6.141075e-01 5.833668e-01 5.244772e-01 5.533000e-01 2.757235e-01
<GCONST> 1.279077e+02
<STATE> 4
<MEAN> 39
 2.385023e+00 -9.916974e-02 -5.315168e+00 -1.098687e+01 -9.970031e+00 -5.957217e+00 -1.752200e+00 -6.145860e+00 -2.816005e+00 -3.098859e-02 -1.443745e+00 -1.351167e+00 7.385426e+01 7.685603e-03 -2.263820e-01 1.127709e-02 1.970360e-01 -1.606572e-01 -2.262349e-01 -2.266056e-01 -2.345064e-01 2.344421e-02 3.678757e-01 2.089434e-01 7.594433e-02 -3.884528e-02 -2.376267e-01 2.710854e-02 2.005377e-01 3.291834e-01 2.421562e-01 -8.487917e-02 -2.123961e-01 7.946456e-03 2.060259e-01 3.226525e-02 -6.834805e-02 -9.430321e-02 -9.126072e-02
<VARIANCE> 39
 2.408410e+01 4.042142e+01 5.871648e+01 5.351262e+01 7.350899e+01 9.374265e+01 5.162611e+01 6.179350e+01 6.360236e+01 6.499069e+01 5.359780e+01 5.659942e+01 2.504685e+01 8.444903e-01 1.327497e+00 1.246538e+00 2.059460e+00 2.176748e+00 3.294804e+00 3.327847e+00 2.642437e+00 3.034225e+00 2.406539e+00 2.217114e+00 2.280161e+00 7.464924e-01 1.663699e-01 2.447172e-01 2.327069e-01 3.486306e-01 4.546871e-01 5.968622e-01 5.388125e-01 5.340751e-01 5.307608e-01 5.268902e-01 4.090326e-01 4.740350e-01 1.175527e-01
<GCONST> 1.182809e+02
<TRANSP> 5
 0.000000e+00 1.000000e+00 0.000000e+00 0.000000e+00 0.000000e+00
 0.000000e+00 7.789532e-01 2.210468e-01 0.000000e+00 0.000000e+00
 0.000000e+00 0.000000e+00 5.179501e-01 4.820499e-01 0.000000e+00
 0.000000e+00 0.000000e+00 0.000000e+00 6.424860e-01 3.575140e-01
 0.000000e+00 0.000000e+00 0.000000e+00 0.000000e+00 0.000000e+00
<ENDHMM>
~h "u"
<BEGINHMM>
<NUMSTATES> 5
<STATE> 2
<MEAN> 39
 -3.566618e+00 9.397195e+00 1.074267e+01 4.457865e+00 -8.420931e+00 -1.013811e+01 1.309866e+00 -1.031990e+01 -7.590084e+00 -1.566298e+00 2.160042e+00 -3.186033e+00 6.595457e+01 3.948111e-01 3.780322e-01 -6.116877e-01 -1.341947e-01 4.200671e-01 1.288643e-01 -1.884928e-01 1.354748e-01 -4.363997e-02 -4.356581e-02 5.154254e-01 3.054757e-01 -5.664494e-01 -1.609753e-01 -6.556936e-02 2.448655e-02 -2.691583e-02 1.599495e-01 2.651706e-01 -1.559296e-01 1.366919e-01 2.287834e-01 -1.894134e-01 -2.824305e-01 3.423128e-02 -1.053102e-01
<VARIANCE> 39
 7.595520e+00 1.193897e+01 7.261688e+01 2.229932e+01 4.308381e+01 6.763352e+01 3.512531e+01 4.644125e+01 3.017435e+01 3.244762e+01 2.286578e+01 2.742904e+01 2.177539e+01 3.064290e-01 5.791407e-01 5.462962e-01 2.073212e+00 1.234547e+00 3.387591e+00 2.189267e+00 2.627123e+00 2.284856e+00 1.952552e+00 1.920125e+00 1.313682e+00 3.687547e-01 1.161426e-01 1.176800e-01 1.082872e-01 1.807396e-01 1.993703e-01 5.894970e-01 3.167376e-01 5.918334e-01 3.462799e-01 4.709899e-01 3.809814e-01 2.870109e-01 3.110835e-02
<GCONST> 9.881751e+01
<STATE> 3
<MEAN> 39
 -3.200188e+00 8.260556e+00 5.884650e+00 2.652005e+00 -1.288597e+00 -9.300388e+00 -5.087124e+00 -6.035603e+00 -2.962490e+00 -4.888165e+00 3.229486e-01 -1.774586e-01 6.370773e+01 3.674012e-01 3.093074e-01 -9.709166e-01 -5.457246e-01 7.978294e-01 1.084505e+00 -6.050878e-01 -6.343197e-01 2.166531e-01 3.460724e-01 -3.063721e-01 -1.937773e-01 -5.739097e-01 -1.219010e-01 -1.235760e-01 2.293597e-02 -3.761117e-02 -1.666187e-01 1.220417e-01 2.270733e-01 -1.227516e-02 -2.394865e-01 1.420159e-01 1.221969e-01 -1.960567e-02 5.784654e-02
<VARIANCE> 39
 2.128927e+01 1.356882e+01 2.710007e+01 2.359573e+01 4.788899e+01 3.618577e+01 3.576874e+01 3.786507e+01 3.077790e+01 1.600034e+01 2.549781e+01 1.170816e+01 1.914729e+01 5.074950e-01 7.298232e-01 9.098509e-01 9.549941e-01 2.068785e+00 2.261088e+00 1.154248e+00 2.004199e+00 2.531310e+00 2.907178e+00 1.154254e+00 9.799018e-01 5.261680e-01 1.141916e-01 1.078537e-01 9.822463e-02 1.945721e-01 2.749788e-01 5.927619e-01 2.564665e-01 3.545924e-01 2.110474e-01 4.412583e-01 3.081749e-01 1.974989e-01 8.726030e-02
<GCONST> 9.586994e+01
<STATE> 4
<MEAN> 39
 -1.850515e+00 9.745498e+00 2.168858e+00 2.536193e+00 -3.978075e-01 -4.823087e+00 -4.210844e+00 -7.518349e+00 -2.913256e+00 -2.371946e+00 -3.935538e-02 -3.558814e-01 6.109771e+01 -3.504933e-01 -3.625438e-01 -2.777329e-01 -5.992408e-02 4.072964e-01 6.684167e-01 3.847358e-01 4.353121e-01 1.809245e-01 2.122986e-01 -1.521704e-01 6.781761e-02 -4.360931e-01 -8.536925e-02 -1.108983e-01 6.051977e-02 5.080947e-02 -4.031365e-02 -4.952922e-02 6.009163e-02 1.329883e-01 4.810870e-02 -5.432534e-04 4.450186e-02 2.597141e-02 2.873624e-02
<VARIANCE> 39
 1.299443e+01 1.756394e+01 1.183003e+01 1.176604e+01 1.693180e+01 2.513801e+01 3.397564e+01 3.492883e+01 2.361959e+01 1.500156e+01 1.300123e+01 1.643106e+01 2.109474e+01 3.667708e-01 7.789689e-01 7.927054e-01 9.259939e-01 9.782005e-01 1.412436e+00 1.454355e+00 1.587337e+00 1.194086e+00 1.572622e+00 1.231409e+00 7.922692e-01 1.729016e-01 5.197988e-02 1.185390e-01 1.414998e-01 1.968088e-01 2.037044e-01 2.568109e-01 2.657059e-01 2.950290e-01 2.777818e-01 3.204839e-01 2.135376e-01 1.358890e-01 2.584898e-02
<GCONST> 8.412659e+01
<TRANSP> 5
 0.000000e+00 1.000000e+00 0.000000e+00 0.000000e+00 0.000000e+00
 0.000000e+00 6.875095e-01 3.124905e-01 0.000000e+00 0.000000e+00
 0.000000e+00 0.000000e+00 7.213460e-01 2.786541e-01 0.000000e+00
 0.000000e+00 0.000000e+00 0.000000e+00 8.856090e-01 1.143910e-01
 0.000000e+00 0.000000e+00 0.000000e+00 0.000000e+00 0.000000e+00
<ENDHMM>
~h "aa"
<BEGINHMM>
<NUMSTATES> 5
<STATE> 2
<MEAN> 39
 2.770123e+00 -5.515817e+00 -1.025918e+01 -1.464971e+01 -2.155663e+00 6.091751e+00 3.668808e+00 -7.454353e+00 -3.574677e+00 2.080482e+00 -9.716690e+00 -5.665421e+00 7.548724e+01 -2.310609e-02 1.236872e-01 -4.111227e-02 1.484091e-01 -4.805850e-02 -2.468188e-01 -9.911732e-02 9.182836e-02 2.391104e-01 1.008037e-02 1.660536e-01 -2.369642e-02 -1.399915e-01 1.456514e-02 1.385307e-01 7.638738e-02 9.427335e-02 -6.344341e-02 -1.759159e-01 -6.349274e-02 6.775155e-02 6.289688e-02 -3.729445e-02 1.087121e-01 5.472669e-02 -1.012464e-01
<VARIANCE> 39
 1.247844e+01 2.434998e+01 3.132169e+01 4.180011e+01 4.716708e+01 6.090744e+01 5.650694e+01 5.105787e+01 7.021866e+01 3.083652e+01 3.820450e+01 3.330124e+01 2.270081e+01 2.372399e-01 4.197026e-01 5.068744e-01 6.563894e-01 1.027996e+00 1.419974e+00 9.621702e-01 1.332920e+00 1.137794e+00 9.668693e-01 9.218677e-01 9.024051e-01 2.362920e-01 4.933245e-02 8.693960e-02 9.285820e-02 1.221435e-01 1.675608e-01 2.321613e-01 2.137495e-01 2.547251e-01 2.085076e-01 1.756261e-01 1.705237e-01 1.767783e-01 4.873859e-02
<GCONST> 8.822253e+01
<STATE> 3
<MEAN> 39
 2.486933e+00 2.797801e-01 -8.286606e+00 -1.075276e+01 -5.533526e+00 1.129734e+00 2.557474e+00 -4.590601e+00 -1.713125e+00 2.363447e+00 -3.456141e+00 -4.876104e+00 6.851301e+01 -3.911406e-01 1.189879e+00 6.751151e-01 1.304642e+00 3.019291e-01 -8.849871e-01 -7.716788e-01 2.656292e-01 4.805847e-01 -9.811789e-02 9.210412e-01 8.168123e-01 -1.883349e+00 -1.877188e-01 -1.957529e-02 5.513180e-02 1.112780e-01 1.725547e-01 1.627282e-01 6.040260e-02 4.731778e-02 -5.512445e-02 -1.546724e-01 -1.064308e-01 5.977136e-03 -2.095589e-01
<VARIANCE> 39
 8.762023e+00 3.467030e+01 3.783081e+01 3.326628e+01 4.615516e+01 4.991826e+01 3.822382e+01 3.829860e+01 5.885826e+01 3.780921e+01 4.595934e+01 3.581735e+01 5.573981e+01 8.985213e-01 1.167681e+00 1.845349e+00 2.165749e+00 1.830791e+00 4.489908e+00 3.066777e+00 2.791692e+00 3.672770e+00 1.905582e+00 2.570537e+00 1.918803e+00 1.200367e+00 1.243785e-01 2.630076e-01 3.191033e-01 3.674730e-01 3.570643e-01 6.839954e-01 5.311902e-01 5.252331e-01 5.236333e-01 3.515697e-01 3.755490e-01 3.606342e-01 2.669713e-01
<GCONST> 1.148468e+02
<STATE> 4
<MEAN> 39
 -2.980384e+00 3.686341e+00 -5.988493e+00 -5.540151e+00 -3.235024e+00 -8.906204e-01 1.938439e+00 -3.045839e-01 1.286506e+00 4.569272e-01 -8.033622e-01 -7.869056e-01 5.879395e+01 -9.471624e-01 -2.863441e-01 3.783157e-01 4.594225e-01 2.224669e-01 -2.456480e-01 -2.590756e-01 3.311845e-01 2.466962e-01 -1.140712e-01 5.088765e-02 1.725227e-01 -5.717065e-01 1.784338e-02 -2.387481e-01 2.727751e-02 -1.972183e-01 -3.820901e-02 -5.807404e-02 -1.443633e-01 -1.561968e-01 -4.497662e-02 1.570382e-02 -8.787835e-02 -9.662188e-02 6.328831e-01
<VARIANCE> 39
 1.371161e+01 2.131148e+01 2.162597e+01 1.468035e+01 2.409320e+01 4.103580e+01 2.870493e+01 2.079021e+01 2.150764e+01 2.155093e+01 2.840047e+01 2.859271e+01 4.365441e+01 1.083242e+00 1.834185e+00 1.365544e+00 1.761955e+00 1.820256e+00 2.494645e+00 1.888989e+00 2.183121e+00 2.764623e+00 2.168280e+00 1.636199e+00 1.870557e+00 3.949558e+00 1.971638e-01 2.589450e-01 3.034618e-01 3.181332e-01 3.322403e-01 4.347629e-01 3.859518e-01 3.880576e-01 5.117611e-01 3.904814e-01 4.066465e-01 3.310323e-01 5.012284e-01
<GCONST> 1.083428e+02
<TRANSP> 5
 0.000000e+00 1.000000e+00 0.000000e+00 0.000000e+00 0.000000e+00
 0.000000e+00 9.035257e-01 9.647433e-02 0.000000e+00 0.000000e+00
 0.000000e+00 0.000000e+00 7.692069e-01 2.307931e-01 0.000000e+00
 0.000000e+00 0.000000e+00 0.000000e+00 8.404414e-01 1.595586e-01
 0.000000e+00 0.000000e+00 0.000000e+00 0.000000e+00 0.000000e+00
<ENDHMM>
~h "ae"
<BEGINHMM>
<NUMSTATES> 5
<STATE> 2
<MEAN> 39
 9.951608e-01 -6.691821e+00 -8.141305e+00 -1.104213e+01 -5.200917e+00 -1.931779e+00 -8.608255e-01 -1.671002e+00 3.336325e+00 3.352882e+00 -7.345627e+00 -8.596646e+00 7.709666e+01 -1.302046e-01 1.233731e-01 4.747234e-01 7.346128e-01 -2.204747e-01 -1.596711e+00 -5.796990e-01 8.444421e-01 7.110009e-01 -2.668265e-01 -3.378631e-01 7.462267e-02 -1.901925e-01 -1.329929e-02 9.310627e-02 1.182629e-01 1.870374e-02 -9.493648e-02 -5.806965e-02 2.642191e-02 1.484187e-02 -4.072556e-02 -8.006505e-02 1.079233e-01 1.236488e-01 -4.465802e-02
<VARIANCE> 39
 9.658766e+00 2.573696e+01 2.482682e+01 3.945821e+01 3.503383e+01 9.559333e+01 5.598107e+01 6.570879e+01 5.501769e+01 3.817205e+01 5.058231e+01 4.233588e+01 1.423815e+01 1.930871e-01 4.307949e-01 7.247449e-01 1.117850e+00 1.280325e+00 2.276060e+00 2.282230e+00 1.985004e+00 2.305737e+00 1.445589e+00 1.444195e+00 1.319309e+00 1.728320e-01 2.910976e-02 7.304414e-02 1.065002e-01 1.388175e-01 2.008898e-01 3.723584e-01 3.959166e-01 2.975489e-01 3.731188e-01 2.540196e-01 2.623081e-01 2.155305e-01 2.118438e-02
<GCONST> 9.417518e+01
<STATE> 3
<MEAN> 39
 -6.483873e-01 -2.479147e+00 1.894668e-02 -4.789039e+00 -1.141237e+01 -1.654899e+01 -2.753370e+00 3.951074e+00 5.410499e+00 3.150603e-01 -4.635422e+00 -3.629358e+00 7.363885e+01 -2.681080e-01 8.230353e-01 1.032233e+00 6.128426e-01 -7.372928e-01 -3.402009e-01 1.830883e-01 -4.766869e-01 -5.898698e-01 -2.226562e-01 7.816032e-01 5.945476e-01 -6.666034e-01 -3.518536e-02 3.040040e-02 -7.391980e-02 5.407106e-02 1.263487e-01 1.880582e-01 -2.520798e-03 -1.501529e-01 -6.414977e-02 2.426126e-02 -7.632152e-02 -7.811760e-02 -6.287721e-02
<VARIANCE> 39
 9.384995e+00 3.399060e+01 5.086337e+01 3.659866e+01 5.411146e+01 4.416144e+01 6.912991e+01 4.434578e+01 3.753123e+01 2.761972e+01 3.701460e+01 4.214898e+01 1.475962e+01 2.389937e-01 6.020048e-01 6.005742e-01 8.864439e-01 1.078764e+00 1.439464e+00 1.185743e+00 1.456937e+00 1.045799e+00 1.341541e+00 1.484674e+00 1.341199e+00 1.998127e-01 3.731697e-02 9.086533e-02 8.114892e-02 1.867855e-01 1.708033e-01 1.612484e-01 1.746572e-01 2.470412e-01 2.112562e-01 2.112892e-01 2.043809e-01 1.546267e-01 2.708876e-02
<GCONST> 8.881766e+01
<STATE> 4
<MEAN> 39
 -4.896588e+00 3.245017e+00 4.261076e+00 2.293111e+00 -1.109780e+01 -1.423834e+01 4.897445e-01 1.440109e+00 2.702638e+00 -1.079127e+00 -1.302472e+00 -3.935074e-01 6.491100e+01 -3.724701e-01 2.362481e-01 2.228987e-02 2.844490e-01 4.484534e-01 5.146691e-01 3.063437e-01 -1.522474e-01 -1.205621e-01 5.747071e-02 2.373076e-01 2.364233e-01 -1.056146e+00 7.236485e-03 -8.339549e-02 -1.231631e-01 -8.876043e-02 1.344017e-01 8.588802e-02 -1.531668e-02 1.057168e-01 5.752389e-02 8.377720e-02 8.490008e-03 -2.136133e-02 -3.136323e-02
<VARIANCE> 39
 2.012662e+01 2.851025e+01 4.203622e+01 2.537101e+01 5.971836e+01 4.695007e+01 8.536262e+01 5.033103e+01 3.984166e+01 3.903684e+01 5.275122e+01 3.847326e+01 3.170320e+01 3.419783e-01 8.830551e-01 9.676592e-01 1.064660e+00 1.399301e+00 1.970767e+00 1.610321e+00 1.961791e+00 1.659442e+00 1.707723e+00 2.166338e+00 1.633364e+00 4.978407e-01 5.337968e-02 1.245773e-01 1.840010e-01 1.700639e-01 2.321990e-01 3.659056e-01 3.136298e-01 3.454573e-01 3.136766e-01 2.872740e-01 3.788177e-01 3.071216e-01 6.178295e-02
<GCONST> 1.018247e+02
<TRANSP> 5
 0.000000e+00 1.000000e+00 0.000000e+00 0.000000e+00 0.000000e+00
 0.000000e+00 9.092341e-01 9.076583e-02 0.000000e+00 0.000000e+00
 0.000000e+00 0.000000e+00 8.549473e-01 1.450527e-01 0.000000e+00
 0.000000e+00 0.000000e+00 0.000000e+00 9.111739e-01 8.882605e-02
 0.000000e+00 0.000000e+00 0.000000e+00 0.000000e+00 0.000000e+00
<ENDHMM>
~h "ai"
<BEGINHMM>
<NUMSTATES> 5
<STATE> 2
<MEAN> 39
 3.170093e-01 -2.793604e+00 -3.998949e-01 -4.580425e+00 -9.169106e+00 -1.638906e+01 -6.912235e+00 2.915766e-01 5.858756e+00 7.327880e-01 -3.789333e+00 -2.595125e+00 7.532413e+01 -5.139579e-01 1.213744e+00 2.031839e+00 1.705048e+00 -1.432449e+00 -1.553004e+00 -2.643054e-01 -4.064462e-01 -1.028231e+00 -1.221716e+00 1.099701e+00 1.362086e+00 -7.082080e-01 -9.361859e-02 2.316507e-01 -1.374639e-02 -1.116571e-01 2.981099e-02 6.293719e-01 3.949165e-01 -4.198964e-01 -5.075195e-01 4.869291e-02 1.479798e-01 -1.907488e-01 -1.013219e-01
<VARIANCE> 39
 1.312271e+01 2.763966e+01 6.454996e+01 4.200160e+01 7.576418e+01 7.569335e+01 5.702027e+01 4.401499e+01 4.844471e+01 4.823537e+01 4.743463e+01 4.737137e+01 9.837597e+00 4.770204e-01 9.086621e-01 1.144301e+00 1.681462e+00 1.620789e+00 4.442818e+00 2.074322e+00 4.338399e+00 3.481902e+00 3.330345e+00 2.897652e+00 2.084029e+00 2.843567e-01 5.775538e-02 1.199977e-01 2.536336e-01 1.783190e-01 4.112100e-01 4.261629e-01 3.012685e-01 5.252764e-01 4.695795e-01 5.372406e-01 6.855670e-01 4.106885e-01 3.050342e-02
<GCONST> 1.089119e+02
<STATE> 3
<MEAN> 39
 -1.753923e+00 3.963140e+00 6.747100e+00 8.041014e-01 -1.385434e+01 -1.879501e+01 -3.413425e+00 -6.267098e+00 -5.212763e+00 -2.513351e+00 -6.605965e-01 -7.808739e-01 7.078717e+01 -5.191686e-01 1.254294e+00 8.677779e-01 7.290645e-01 2.213971e-01 7.244098e-01 6.424025e-01 -9.825726e-01 -1.281793e+00 -2.492396e-01 -4.089643e-01 -2.063256e-01 -1.053155e+00 4.193619e-02 -1.531619e-01 -2.336495e-01 -1.359823e-01 2.764504e-01 1.330085e-01 -3.706868e-02 2.143532e-01 2.741321e-01 1.223517e-01 -1.773511e-01 -1.357896e-01 -3.907396e-02
<VARIANCE> 39
 1.272512e+01 2.098874e+01 4.168319e+01 4.496443e+01 5.354499e+01 5.599180e+01 4.595405e+01 3.592596e+01 7.148973e+01 2.375331e+01 2.967157e+01 3.323465e+01 9.749608e+00 4.029177e-01 7.516875e-01 1.004246e+00 9.077200e-01 1.060904e+00 8.982120e-01 2.196292e+00 1.593337e+00 2.133765e+00 1.293627e+00 1.867951e+00 1.199064e+00 2.470465e-01 5.484173e-02 8.960015e-02 1.538244e-01 1.578764e-01 2.059442e-01 2.253762e-01 3.781691e-01 3.372131e-01 3.131408e-01 2.262312e-01 3.771554e-01 2.364668e-01 2.502097e-02
<GCONST> 9.424918e+01
<STATE> 4
<MEAN> 39
 -7.036664e+00 9.683146e+00 9.298953e+00 4.247786e+00 -7.754920e+00 -1.038118e+01 4.553221e-01 -8.161248e+00 -4.764193e+00 -2.060402e+00 -2.669481e+00 -1.780975e+00 6.199161e+01 -3.265078e-01 -7.763087e-02 -2.061677e-01 6.308330e-02 6.949244e-01 7.919486e-01 2.849478e-01 1.879087e-01 1.554314e-01 9.248842e-02 1.298544e-01 5.565456e-02 -9.807054e-01 1.449643e-02 -1.536829e-01 -1.205194e-01 -6.855663e-02 7.072343e-03 -3.530018e-03 -6.109399e-02 1.111450e-01 1.207467e-01 2.458865e-02 3.816533e-02 7.772088e-02 3.597182e-02
<VARIANCE> 39
 2.592883e+01 2.985747e+01 4.084753e+01 2.691985e+01 6.800856e+01 5.239421e+01 5.345546e+01 3.544762e+01 5.498491e+01 3.846001e+01 3.575271e+01 2.808369e+01 2.397255e+01 4.371276e-01 7.909588e-01 9.118140e-01 8.808364e-01 1.390920e+00 1.219723e+00 1.504914e+00 1.880639e+00 1.718867e+00 1.449518e+00 1.694535e+00 1.293058e+00 2.130956e-01 6.908034e-02 9.724490e-02 1.380518e-01 1.758550e-01 2.236678e-01 1.780595e-01 2.459140e-01 3.156035e-01 2.810723e-01 2.264665e-01 3.075910e-01 2.692083e-01 2.113290e-02
<GCONST> 9.563846e+01
<TRANSP> 5
 0.000000e+00 1.000000e+00 0.000000e+00 0.000000e+00 0.000000e+00
 0.000000e+00 8.053197e-01 1.946803e-01 0.000000e+00 0.000000e+00
 0.000000e+00 0.000000e+00 8.031956e-01 1.968044e-01 0.000000e+00
 0.000000e+00 0.000000e+00 0.000000e+00 9.100202e-01 8.997981e-02
 0.000000e+00 0.000000e+00 0.000000e+00 0.000000e+00 0.000000e+00
<ENDHMM>
~h "ao"
<BEGINHMM>
<NUMSTATES> 5
<STATE> 2
<MEAN> 39
 2.001210e+00 -3.916958e+00 -8.256531e+00 -1.599976e+01 -1.283740e+01 -7.453426e-01 7.467984e+00 1.401142e+00 -4.176817e+00 -6.078887e+00 -6.243655e+00 -3.183875e+00 7.590079e+01 3.648769e-01 4.364696e-01 1.572099e-01 -4.363268e-01 -7.293477e-01 1.081794e-01 -2.518079e-01 -2.157444e-01 2.523723e-01 3.199478e-01 -2.052938e-01 -2.610079e-03 -5.774117e-01 5.205000e-02 1.834649e-01 4.965259e-02 1.207858e-02 -2.016670e-02 -5.768207e-02 -6.245418e-02 -4.988172e-02 2.551332e-02 1.325085e-01 -2.378421e-02 -6.565597e-02 -1.279561e-01
<VARIANCE> 39
 1.857977e+01 2.978619e+01 2.318591e+01 2.152933e+01 9.352217e+01 5.524711e+01 4.633204e+01 8.361810e+01 4.642107e+01 4.148156e+01 3.088309e+01 3.746395e+01 2.561743e+01 6.752724e-01 8.793355e-01 5.168216e-01 7.823749e-01 1.613684e+00 1.707119e+00 1.296525e+00 1.768788e+00 2.106886e+00 2.538147e+00 1.622621e+00 1.896554e+00 9.095867e-01 1.320155e-01 9.499672e-02 1.007712e-01 1.540772e-01 3.520906e-01 3.349723e-01 1.853557e-01 3.204740e-01 4.088172e-01 3.526525e-01 2.772943e-01 2.996757e-01 8.156276e-02
<GCONST> 1.015650e+02
<STATE> 3
<MEAN> 39
 6.010303e+00 2.140879e+00 -6.501234e+00 -1.888822e+01 -1.681016e+01 1.987838e+00 6.454852e+00 -2.680832e+00 -8.381156e-01 3.748722e-01 -7.517897e+00 -1.553386e+00 7.050135e+01 3.227132e-02 7.037753e-01 2.822355e-01 4.220169e-03 -3.783881e-01 -5.925314e-01 -1.833502e-01 2.108341e-01 1.140431e-01 1.182425e-01 -6.105849e-03 -8.232107e-02 -4.793659e-01 -4.099178e-02 5.511171e-02 2.057170e-02 5.380002e-02 6.600085e-02 -5.455117e-02 -5.873927e-02 1.069537e-03 3.341280e-02 -4.533775e-02 1.375959e-02 1.042758e-03 -2.795490e-02
<VARIANCE> 39
 6.153540e+00 3.030545e+01 3.577018e+01 2.525682e+01 8.196226e+01 6.546156e+01 2.837096e+01 7.945860e+01 8.076156e+01 4.155669e+01 2.251071e+01 3.126754e+01 1.948106e+01 1.341235e-01 6.305440e-01 5.075341e-01 5.049307e-01 9.415702e-01 1.357372e+00 1.353015e+00 1.305761e+00 1.331328e+00 1.214934e+00 9.011956e-01 8.775412e-01 2.528987e-01 2.656519e-02 7.700544e-02 7.729620e-02 6.530599e-02 1.943427e-01 2.017748e-01 1.991356e-01 2.171341e-01 2.240144e-01 2.177913e-01 1.575360e-01 1.841784e-01 2.527509e-02
<GCONST> 8.542020e+01
<STATE> 4
<MEAN> 39
 2.667707e+00 1.093542e+01 -1.964753e+00 -1.338371e+01 -1.499532e+01 -5.402609e+00 2.510331e+00 4.096391e-01 9.652096e-02 5.089246e-02 -5.031358e+00 -3.078673e+00 6.144942e+01 -5.281619e-01 1.320538e-01 2.087478e-01 8.272468e-01 7.343323e-01 -8.437701e-02 -3.060030e-01 1.185289e-01 1.632292e-01 -3.876803e-03 2.724749e-01 2.180591e-01 -7.811304e-01 -5.907541e-02 -1.415680e-01 -2.367584e-02 6.551134e-02 9.689268e-02 8.443470e-02 4.334846e-02 9.950778e-03 5.853362e-03 3.694492e-02 6.937605e-02 4.929670e-02 1.129744e-02
<VARIANCE> 39
 1.344418e+01 1.897591e+01 2.734538e+01 3.019520e+01 5.865640e+01 4.343250e+01 4.948021e+01 3.151297e+01 4.308088e+01 3.712358e+01 2.616866e+01 2.291625e+01 3.598681e+01 3.669233e-01 7.211918e-01 6.197894e-01 1.141606e+00 1.509916e+00 1.415467e+00 1.096933e+00 1.636068e+00 1.884304e+00 1.599523e+00 1.428285e+00 1.421297e+00 2.470800e-01 4.915865e-02 8.517938e-02 1.044565e-01 1.741004e-01 1.854405e-01 2.122291e-01 1.905034e-01 2.621942e-01 3.266274e-01 3.064356e-01 2.371582e-01 2.554771e-01 2.787640e-02
<GCONST> 9.216915e+01
<TRANSP> 5
 0.000000e+00 1.000000e+00 0.000000e+00 0.000000e+00 0.000000e+00
 0.000000e+00 7.856702e-01 2.143298e-01 0.000000e+00 0.000000e+00
 0.000000e+00 0.000000e+00 8.962291e-01 1.037709e-01 0.000000e+00
 0.000000e+00 0.000000e+00 0.000000e+00 9.277178e-01 7.228217e-02
 0.000000e+00 0.000000e+00 0.000000e+00 0.000000e+00 0.000000e+00
<ENDHMM>
~h "au"
<BEGINHMM>
<NUMSTATES> 5
<STATE> 2
<MEAN> 39
 3.073797e+00 -1.312500e+00 -7.589644e+00 -1.180867e+01 -9.096853e+00 -4.741924e+00 -1.768627e+00 -4.201122e+00 3.497759e-01 4.031176e+00 2.752250e-01 -4.892040e+00 7.484218e+01 2.295214e-01 7.258530e-01 2.481308e-01 4.984987e-01 -3.175418e-01 -6.235237e-01 -6.789020e-01 -9.173396e-01 -2.020120e-01 2.477388e-02 7.025622e-01 4.777702e-01 -5.037999e-01 2.543715e-02 1.323979e-01 1.198119e-02 7.432141e-02 7.905802e-02 4.764335e-02 7.522304e-02 -1.095559e-01 -1.397658e-01 -1.696848e-01 -2.916138e-02 9.135477e-02 -1.011042e-01
<VARIANCE> 39
 7.262303e+00 3.159407e+01 3.191289e+01 3.916610e+01 5.352869e+01 1.197368e+02 6.392051e+01 4.077441e+01 6.290494e+01 4.467348e+01 4.955995e+01 5.677297e+01 1.396198e+01 2.618469e-01 8.136744e-01 5.013228e-01 8.072020e-01 1.247762e+00 1.564483e+00 1.275142e+00 2.113510e+00 1.986750e+00 1.864705e+00 1.411311e+00 1.658258e+00 2.531653e-01 3.307968e-02 8.191539e-02 8.737328e-02 1.231493e-01 1.777241e-01 2.578931e-01 2.486833e-01 2.776742e-01 3.234054e-01 3.129191e-01 2.558875e-01 2.476584e-01 2.220201e-02
<GCONST> 9.433471e+01
<STATE> 3
<MEAN> 39
 5.468338e+00 5.651680e+00 -4.554238e+00 -8.256374e+00 -1.060170e+01 -7.609932e+00 -6.053731e+00 -1.320237e+01 -5.206810e+00 4.861342e-01 2.492238e+00 -8.414196e-01 6.897089e+01 6.322369e-02 1.236452e+00 5.064170e-01 3.679310e-01 2.807122e-01 9.271696e-02 -1.559320e-01 -3.358116e-01 -1.081309e+00 -9.395595e-01 -4.017424e-01 2.366425e-01 -9.827125e-01 -8.974510e-02 -1.918404e-02 3.623259e-02 -3.453676e-02 4.956259e-02 1.067345e-01 8.767686e-02 2.664065e-01 7.436516e-02 -1.332916e-02 -1.828569e-01 -1.398167e-01 -2.983380e-02
<VARIANCE> 39
 5.723577e+00 2.894005e+01 2.387643e+01 4.215476e+01 5.977338e+01 8.093342e+01 5.888270e+01 5.884141e+01 1.054255e+02 3.536339e+01 2.748628e+01 4.246611e+01 1.155588e+01 2.149465e-01 8.495750e-01 6.406072e-01 1.041663e+00 1.202711e+00 1.643886e+00 1.630778e+00 1.742849e+00 1.689907e+00 1.757392e+00 1.857921e+00 1.577347e+00 2.701703e-01 3.385789e-02 7.575607e-02 1.067602e-01 1.659484e-01 2.096860e-01 1.834260e-01 2.598625e-01 2.772214e-01 3.254132e-01 2.353915e-01 2.622164e-01 2.339220e-01 1.781247e-02
<GCONST> 9.326936e+01
<STATE> 4
<MEAN> 39
 1.440410e+00 1.309105e+01 9.865519e-02 -3.682786e+00 -6.156750e+00 -4.152583e+00 -2.731443e+00 -8.566760e+00 -6.470230e+00 -5.757801e+00 -2.697302e+00 -1.380491e+00 6.031715e+01 -5.661021e-01 -3.677398e-02 2.779177e-01 5.203210e-01 6.563337e-01 2.197161e-01 2.191505e-01 5.689219e-01 3.357248e-01 -1.262971e-01 -2.713885e-01 -1.970267e-02 -7.764168e-01 -6.239408e-02 -1.905047e-01 -4.755897e-02 7.503804e-03 4.040945e-02 3.692754e-03 -7.446457e-03 4.021687e-02 9.667435e-02 1.318690e-01 1.056547e-01 6.734143e-02 3.533005e-02
<VARIANCE> 39
 1.024594e+01 2.832046e+01 1.550240e+01 2.241066e+01 3.454960e+01 3.647806e+01 4.214700e+01 3.471637e+01 5.443935e+01 3.875923e+01 3.713285e+01 3.056008e+01 2.537217e+01 3.299769e-01 8.459165e-01 6.464677e-01 9.501436e-01 1.115283e+00 1.447734e+00 1.806472e+00 1.580995e+00 1.836102e+00 1.813098e+00 1.622762e+00 1.611042e+00 2.668880e-01 3.722572e-02 9.585444e-02 1.157801e-01 1.480518e-01 1.777190e-01 2.279883e-01 2.989918e-01 2.662386e-01 2.937918e-01 3.227244e-01 2.894405e-01 2.595057e-01 2.431554e-02
<GCONST> 9.205595e+01
<TRANSP> 5
 0.000000e+00 1.000000e+00 0.000000e+00 0.000000e+00 0.000000e+00
 0.000000e+00 8.550237e-01 1.449763e-01 0.000000e+00 0.000000e+00
 0.000000e+00 0.000000e+00 8.492403e-01 1.507597e-01 0.000000e+00
 0.000000e+00 0.000000e+00 0.000000e+00 9.181158e-01 8.188424e-02
 0.000000e+00 0.000000e+00 0.000000e+00 0.000000e+00 0.000000e+00
<ENDHMM>
~h "ee"
<BEGINHMM>
<NUMSTATES> 5
<STATE> 2
<MEAN> 39
 -2.395516e+00 5.252947e-01 8.609031e+00 -1.737874e+00 -2.081752e+01 -1.863449e+01 -4.298386e+00 -7.851987e+00 -7.154982e+00 -4.038689e+00 6.208410e-01 -1.041535e+00 7.518874e+01 -7.638458e-03 -4.862125e-03 2.179050e-02 -4.156725e-02 6.204826e-02 -3.870027e-02 -1.222979e-02 6.563362e-02 8.186583e-03 5.981061e-03 2.650771e-03 -3.802446e-03 -1.395578e-01 7.282843e-03 2.493684e-02 -1.906866e-02 2.084290e-02 4.768469e-02 3.566991e-02 4.327181e-03 8.568875e-03 2.363611e-02 -1.367450e-02 -1.156823e-02 -1.363094e-03 -3.488012e-02
<VARIANCE> 39
 4.988143e+00 3.095457e+01 4.804412e+01 4.490233e+01 4.523210e+01 5.609180e+01 3.770648e+01 4.025378e+01 2.792119e+01 3.995494e+01 4.683631e+01 7.458495e+01 1.230255e+01 9.569731e-02 2.926012e-01 3.070851e-01 5.518298e-01 7.832353e-01 7.043329e-01 7.070981e-01 6.357310e-01 7.592899e-01 7.039628e-01 6.957980e-01 5.436651e-01 1.050286e-01 1.773061e-02 4.837362e-02 5.858493e-02 1.035352e-01 1.364515e-01 1.412733e-01 1.362650e-01 1.155859e-01 1.460758e-01 1.403662e-01 1.272758e-01 1.035013e-01 1.904967e-02
<GCONST> 7.420213e+01
<STATE> 3
<MEAN> 39
 -9.965900e-01 2.337819e+00 8.039095e+00 7.451652e-01 -1.732510e+01 -2.112903e+01 -5.465328e+00 -4.589511e+00 -3.362676e+00 -5.193204e+00 -1.871863e+00 1.032854e+00 7.118728e+01 4.169798e-02 2.074430e-01 -1.806161e-01 3.672914e-02 2.977922e-01 8.008705e-02 1.209847e-01 2.676464e-01 2.715195e-01 -1.019841e-01 -2.341376e-01 -1.044459e-01 -5.284536e-01 -1.152247e-02 3.110550e-02 -3.765700e-03 4.743176e-02 1.171114e-01 7.696403e-02 3.737951e-02 5.527160e-02 -8.474035e-03 3.236877e-02 -6.927577e-02 -4.659909e-02 -7.791955e-02
<VARIANCE> 39
 1.114293e+01 2.494168e+01 2.139244e+01 3.424466e+01 9.773392e+01 5.103768e+01 2.385414e+01 4.358965e+01 5.912476e+01 2.839891e+01 4.976102e+01 3.738864e+01 1.134873e+01 2.079448e-01 5.112051e-01 6.049352e-01 9.984451e-01 1.387387e+00 8.318091e-01 1.729464e+00 1.230374e+00 1.570613e+00 1.373235e+00 1.263498e+00 1.000326e+00 1.824262e-01 3.291830e-02 8.722768e-02 9.469336e-02 1.676849e-01 2.385674e-01 1.811344e-01 2.869520e-01 2.440115e-01 3.017038e-01 2.305834e-01 2.371595e-01 2.066174e-01 2.634174e-02
<GCONST> 8.908632e+01
<STATE> 4
<MEAN> 39
 -2.793434e+00 2.736439e+00 6.654449e+00 1.845104e+00 -1.117621e+01 -1.492129e+01 -3.946398e+00 -1.497873e+00 -1.959359e+00 -3.128744e+00 -3.412750e+00 1.871716e-02 6.432847e+01 -2.673821e-01 1.144054e-01 -4.450857e-01 1.975631e-01 9.952073e-01 7.690768e-01 2.871413e-01 3.033868e-01 3.454513e-01 4.005806e-01 6.613605e-02 1.505174e-01 -1.083136e+00 -4.610502e-02 -1.597717e-02 -6.448707e-02 -1.484366e-03 9.382232e-02 7.342180e-02 2.181660e-02 -1.635994e-02 -3.068147e-02 6.995654e-02 1.222096e-01 4.754022e-02 -3.458410e-02
<VARIANCE> 39
 1.346406e+01 2.325349e+01 2.092323e+01 2.588491e+01 6.393092e+01 6.502435e+01 4.515178e+01 3.859214e+01 5.004214e+01 3.561710e+01 4.969669e+01 5.889155e+01 2.364054e+01 4.026450e-01 9.270906e-01 7.210617e-01 1.179247e+00 1.493278e+00 1.630712e+00 1.709229e+00 2.631561e+00 2.636159e+00 1.786326e+00 2.208430e+00 1.584313e+00 5.461888e-01 6.275883e-02 1.444403e-01 1.118778e-01 1.919208e-01 2.621175e-01 2.671311e-01 3.092812e-01 4.606917e-01 5.148070e-01 3.091449e-01 3.517906e-01 2.965483e-01 5.470862e-02
<GCONST> 1.014315e+02
<TRANSP> 5
 0.000000e+00 1.000000e+00 0.000000e+00 0.000000e+00 0.000000e+00
 0.000000e+00 9.346567e-01 6.534335e-02 0.000000e+00 0.000000e+00
 0.000000e+00 0.000000e+00 8.383809e-01 1.616191e-01 0.000000e+00
 0.000000e+00 0.000000e+00 0.000000e+00 8.716616e-01 1.283384e-01
 0.000000e+00 0.000000e+00 0.000000e+00 0.000000e+00 0.000000e+00
<ENDHMM>
~h "ei"
<BEGINHMM>
<NUMSTATES> 5
<STATE> 2
<MEAN> 39
 -1.432421e+00 -1.410217e+00 4.846407e+00 -2.775394e+00 -1.523876e+01 -2.140992e+01 -3.425182e+00 -1.547080e+00 -2.366955e+00 -3.999977e+00 1.141508e-01 -8.994832e-01 7.594730e+01 -5.313633e-02 4.518818e-01 5.057177e-01 2.012137e-01 -2.208935e-01 -1.055155e-01 -8.245793e-03 -6.591129e-01 -7.069607e-01 -4.719368e-02 3.089592e-01 5.532295e-02 -3.237765e-01 -6.283186e-03 7.898273e-02 -2.707427e-04 5.578114e-02 5.415518e-02 8.621486e-02 -4.307627e-03 -4.099596e-02 -4.596267e-02 -9.318841e-04 -6.293923e-02 -3.377260e-02 -6.337620e-02
<VARIANCE> 39
 4.616423e+00 2.350889e+01 3.541553e+01 5.107110e+01 5.034745e+01 6.772412e+01 5.048416e+01 4.709467e+01 4.534729e+01 4.448061e+01 3.246601e+01 3.941023e+01 9.933293e+00 1.393966e-01 3.393252e-01 5.177308e-01 6.523985e-01 7.151195e-01 9.023170e-01 9.101655e-01 1.215206e+00 9.322021e-01 1.382985e+00 1.002220e+00 9.437090e-01 1.964480e-01 2.278133e-02 5.551146e-02 9.202829e-02 1.069578e-01 1.312886e-01 1.240082e-01 1.808867e-01 2.016893e-01 1.615811e-01 1.951007e-01 1.731595e-01 1.666716e-01 2.562223e-02
<GCONST> 8.154013e+01
<STATE> 3
<MEAN> 39
 -2.476546e+00 4.644729e+00 1.172881e+01 7.430590e-01 -1.734333e+01 -1.656540e+01 -2.116695e+00 -8.517485e+00 -8.902658e+00 -3.277531e+00 -2.555663e-01 -1.208537e+00 7.018253e+01 -1.300217e-01 6.732869e-01 3.612446e-01 2.354286e-01 3.292919e-01 5.219588e-01 2.543575e-01 -2.365183e-01 -2.916104e-01 -8.613189e-02 -3.416607e-01 -3.548191e-01 -6.590670e-01 -1.735223e-02 -2.047055e-02 -3.187869e-02 4.629273e-03 8.923260e-02 5.113114e-02 -1.358241e-03 3.447402e-02 7.139339e-02 -1.270490e-02 -2.629284e-02 1.994276e-02 -2.114784e-02
<VARIANCE> 39
 4.536222e+00 2.286919e+01 2.644421e+01 4.630577e+01 6.886439e+01 7.750015e+01 2.642043e+01 4.085317e+01 4.977013e+01 4.334903e+01 3.698870e+01 3.974002e+01 1.025872e+01 1.187889e-01 4.059568e-01 6.121317e-01 9.031332e-01 1.014247e+00 1.100806e+00 1.016486e+00 1.240020e+00 8.601313e-01 7.832630e-01 7.551289e-01 8.925256e-01 1.519644e-01 2.167564e-02 4.302848e-02 9.909300e-02 1.350447e-01 1.803262e-01 1.879360e-01 1.857264e-01 2.430963e-01 1.573805e-01 1.548006e-01 1.458771e-01 1.649877e-01 1.395550e-02
<GCONST> 8.084996e+01
<STATE> 4
<MEAN> 39
 -5.623694e+00 9.886747e+00 1.294146e+01 4.763564e+00 -1.172221e+01 -8.907071e+00 8.252290e-01 -9.831042e+00 -7.322107e+00 -4.505704e+00 -2.934604e+00 -2.555495e+00 6.255971e+01 -2.891484e-01 -7.135571e-02 -4.212600e-01 2.237370e-01 1.015097e+00 8.263561e-01 2.407854e-01 2.387381e-01 8.021960e-02 2.651905e-01 -1.273660e-02 3.440603e-02 -9.207416e-01 -2.440432e-02 -1.549545e-01 -1.555289e-01 -6.981635e-02 5.180362e-02 2.487528e-02 2.661583e-02 1.446332e-01 8.809060e-02 9.249651e-02 8.403081e-02 5.818499e-02 -1.641563e-02
<VARIANCE> 39
 1.213589e+01 2.964807e+01 3.872833e+01 1.952087e+01 7.989613e+01 5.662770e+01 3.703035e+01 3.983081e+01 5.319878e+01 3.795105e+01 2.582669e+01 3.984870e+01 2.607824e+01 2.560621e-01 9.075882e-01 9.357657e-01 8.281310e-01 1.583238e+00 1.583752e+00 1.838857e+00 2.021853e+00 1.835046e+00 1.762178e+00 1.530137e+00 1.335539e+00 3.445739e-01 4.707180e-02 1.152644e-01 1.163642e-01 1.280382e-01 2.580228e-01 3.125650e-01 3.587129e-01 3.181518e-01 2.891375e-01 2.820933e-01 2.593780e-01 2.245316e-01 4.322747e-02
<GCONST> 9.645136e+01
<TRANSP> 5
 0.000000e+00 1.000000e+00 0.000000e+00 0.000000e+00 0.000000e+00
 0.000000e+00 8.889224e-01 1.110776e-01 0.000000e+00 0.000000e+00
 0.000000e+00 0.000000e+00 8.847865e-01 1.152135e-01 0.000000e+00
 0.000000e+00 0.000000e+00 0.000000e+00 9.041529e-01 9.584716e-02
 0.000000e+00 0.000000e+00 0.000000e+00 0.000000e+00 0.000000e+00
<ENDHMM>
~h "ii"
<BEGINHMM>
<NUMSTATES> 5
<STATE> 2
<MEAN> 39
 -4.047496e+00 6.456720e+00 1.422422e+01 -1.381958e+00 -1.430929e+01 -1.569006e+01 -3.001338e+00 -1.105074e+01 -1.292192e+01 -5.050956e+00 -2.441577e+00 -2.060792e+00 7.170765e+01 -3.019577e-02 3.094355e-01 1.443098e-01 2.223734e-01 1.443315e-01 2.674179e-01 1.824624e-01 7.150368e-02 1.352013e-01 -8.921986e-03 1.284553e-01 -2.679152e-02 -2.928822e-01 7.949508e-03 3.436566e-02 -5.214477e-02 8.825935e-02 1.005224e-01 2.613543e-02 -6.926703e-04 6.965931e-02 7.723003e-02 -9.207737e-04 -3.748915e-02 5.409980e-03 -6.601036e-02
<VARIANCE> 39
 9.957305e+00 1.813905e+01 2.557396e+01 5.393974e+01 4.380560e+01 7.614638e+01 5.374885e+01 5.126365e+01 3.240160e+01 2.328973e+01 1.915572e+01 3.987171e+01 8.789483e+00 1.514852e-01 3.956600e-01 4.131722e-01 7.274625e-01 1.094714e+00 1.082980e+00 9.234871e-01 7.258064e-01 8.504935e-01 9.245247e-01 1.186730e+00 8.042835e-01 1.198268e-01 3.348968e-02 6.180344e-02 7.708225e-02 1.203433e-01 1.878280e-01 1.629910e-01 1.737929e-01 1.690843e-01 1.765779e-01 1.658215e-01 2.137267e-01 1.447101e-01 2.429088e-02
<GCONST> 8.032095e+01
<STATE> 3
<MEAN> 39
 -4.556603e+00 1.169769e+01 1.323523e+01 1.794040e+00 -9.555214e+00 -1.224831e+01 1.317213e+00 -1.200896e+01 -8.195087e+00 -4.961216e+00 -3.111020e+00 -2.518629e+00 6.865668e+01 -2.931858e-02 3.893322e-01 -1.225283e-01 2.585857e-01 5.187178e-01 1.669030e-01 5.216936e-02 1.585344e-01 2.414881e-01 1.186277e-01 -1.323166e-02 2.987716e-02 -5.401247e-01 -2.322235e-02 -5.349697e-02 -6.176575e-02 -2.259408e-02 1.526666e-02 -9.912898e-03 -3.887078e-02 1.094314e-02 1.945169e-02 -1.272190e-02 9.107221e-03 2.951762e-02 -2.611737e-02
<VARIANCE> 39
 1.378616e+01 1.669026e+01 5.790641e+01 2.649263e+01 4.202105e+01 5.128938e+01 2.687539e+01 3.693499e+01 3.478730e+01 2.318057e+01 2.529683e+01 4.170705e+01 8.930047e+00 1.273768e-01 4.356065e-01 4.927102e-01 5.444613e-01 9.020574e-01 1.089993e+00 1.017528e+00 9.838554e-01 9.795538e-01 8.315811e-01 9.990209e-01 8.035625e-01 2.345773e-01 2.176987e-02 5.507885e-02 7.120728e-02 7.017148e-02 1.466658e-01 1.911236e-01 1.941483e-01 1.767719e-01 1.823881e-01 1.517244e-01 1.772788e-01 1.600570e-01 2.041868e-02
<GCONST> 7.876030e+01
<STATE> 4
<MEAN> 39
 -8.679611e+00 1.240755e+01 1.262338e+01 5.530784e+00 -4.071880e+00 -6.879362e+00 3.247968e+00 -9.954978e+00 -5.875217e+00 -3.609927e+00 -3.130564e+00 -1.661748e+00 5.988692e+01 -2.353427e-01 -4.364164e-01 -7.349923e-01 1.472660e-01 5.357351e-01 5.126478e-01 3.434393e-01 4.904086e-01 4.195657e-01 2.346720e-01 -1.082351e-02 1.529146e-01 -7.067243e-01 -1.261332e-02 -1.001084e-01 -3.431782e-02 -6.586053e-02 -5.011008e-02 3.453706e-02 1.539746e-02 1.078468e-01 3.331888e-02 3.388330e-02 4.442875e-02 -1.131231e-02 2.200538e-02
<VARIANCE> 39
 1.784551e+01 2.176347e+01 4.855244e+01 1.596881e+01 4.249918e+01 4.861517e+01 3.726405e+01 2.755507e+01 3.201091e+01 2.432797e+01 2.085146e+01 3.046100e+01 2.281157e+01 2.534747e-01 5.597413e-01 6.456320e-01 8.233992e-01 1.483647e+00 1.190799e+00 1.550247e+00 1.568623e+00 1.733794e+00 1.878063e+00 1.612595e+00 1.392037e+00 1.999309e-01 4.681990e-02 8.803071e-02 9.561840e-02 1.414106e-01 2.182456e-01 2.050107e-01 2.876016e-01 2.166270e-01 3.136758e-01 3.589667e-01 3.300423e-01 2.617730e-01 1.956643e-02
<GCONST> 9.010720e+01
<TRANSP> 5
 0.000000e+00 1.000000e+00 0.000000e+00 0.000000e+00 0.000000e+00
 0.000000e+00 8.797035e-01 1.202965e-01 0.000000e+00 0.000000e+00
 0.000000e+00 0.000000e+00 8.840588e-01 1.159412e-01 0.000000e+00
 0.000000e+00 0.000000e+00 0.000000e+00 9.132491e-01 8.675086e-02
 0.000000e+00 0.000000e+00 0.000000e+00 0.000000e+00 0.000000e+00
<ENDHMM>
~h "oe"
<BEGINHMM>
<NUMSTATES> 5
<STATE> 2
<MEAN> 39
 1.666807e+00 -2.806362e+00 -4.532693e+00 -7.727301e+00 -1.015532e+01 -1.200252e+01 -1.109132e+01 -1.014343e+01 1.707112e+00 4.209382e+00 8.879250e-01 -2.504478e-01 7.491875e+01 -5.389572e-01 -7.538333e-01 1.147574e+00 1.707957e+00 2.627606e-01 -1.866213e+00 -1.063971e+00 9.184716e-01 1.517663e+00 1.163028e-02 -8.264996e-01 -5.564429e-01 4.858524e-02 2.182551e-02 3.169356e-01 2.579112e-01 -1.061376e-02 -3.604601e-01 -4.445976e-02 5.744312e-01 4.653010e-01 -3.683279e-01 -6.551114e-01 -2.837448e-01 2.670434e-01 -2.454768e-01
<VARIANCE> 39
 1.522409e+01 3.147375e+01 4.328043e+01 4.122623e+01 4.126345e+01 6.340200e+01 2.814604e+01 4.944531e+01 5.148859e+01 3.012636e+01 4.975918e+01 3.032552e+01 1.892038e+01 3.605006e-01 1.086655e+00 1.221337e+00 1.934030e+00 2.680563e+00 2.859622e+00 3.875979e+00 4.010514e+00 4.192466e+00 4.287104e+00 3.910871e+00 2.996839e+00 5.415828e-01 6.551934e-02 1.111108e-01 1.781927e-01 2.971285e-01 4.005158e-01 5.313874e-01 5.615820e-01 6.463751e-01 8.655553e-01 4.272092e-01 8.086747e-01 6.096449e-01 5.785866e-02
<GCONST> 1.125161e+02
<STATE> 3
<MEAN> 39
 2.730053e-01 -2.162771e+00 2.175000e+00 -1.206084e+00 -1.191378e+01 -1.928961e+01 -1.066806e+01 -3.615360e+00 1.493858e+00 -1.973665e+00 -3.537388e+00 2.404823e-01 7.138026e+01 -3.440252e-01 8.705847e-01 7.688386e-01 7.028484e-01 1.071428e-01 -2.538036e-01 4.926718e-01 6.550350e-01 -4.170376e-01 -5.484624e-01 4.123028e-01 2.793918e-01 -1.294978e+00 -1.130878e-02 1.642724e-01 -2.419041e-01 -1.891586e-01 2.199784e-01 3.751774e-01 1.594293e-03 -2.824339e-01 -1.854950e-02 3.955779e-01 3.623015e-01 -1.130901e-01 -1.987610e-01
<VARIANCE> 39
 9.268723e+00 2.589881e+01 3.850453e+01 4.298511e+01 3.781746e+01 6.668920e+01 3.554974e+01 4.725561e+01 3.172411e+01 4.492199e+01 4.515052e+01 2.283777e+01 2.385417e+01 5.058112e-01 1.063737e+00 1.575251e+00 1.382001e+00 2.382674e+00 2.422366e+00 2.508131e+00 2.691061e+00 2.521735e+00 2.054208e+00 2.266215e+00 1.638106e+00 1.268461e+00 7.727298e-02 1.741499e-01 2.858840e-01 2.296121e-01 3.374359e-01 4.361244e-01 3.707608e-01 5.161099e-01 3.961022e-01 3.187468e-01 3.473684e-01 3.027128e-01 1.032351e-01
<GCONST> 1.070221e+02
<STATE> 4
<MEAN> 39
 -3.272560e+00 3.508618e+00 3.726797e+00 2.431252e+00 -8.602609e+00 -1.469242e+01 -4.787564e+00 -1.545119e+00 3.968289e-01 -8.479819e-01 5.132730e-01 1.140001e+00 6.316786e+01 -5.256721e-01 1.661931e-01 -1.181761e-01 2.159206e-01 5.037736e-01 9.071591e-01 6.201856e-01 2.368937e-01 6.798190e-02 1.611156e-01 2.087078e-01 1.022023e-01 -9.952713e-01 -2.331605e-02 -1.541786e-01 -8.475892e-02 -7.112738e-02 2.486254e-02 9.265650e-02 -8.695917e-03 -3.553072e-04 6.276055e-02 -1.131223e-02 -1.018065e-01 1.889493e-02 1.471037e-01
<VARIANCE> 39
 2.038794e+01 2.337765e+01 2.689243e+01 3.368008e+01 4.023665e+01 4.741309e+01 5.591080e+01 5.804752e+01 3.535849e+01 3.199761e+01 3.112235e+01 2.870842e+01 4.520795e+01 3.898770e-01 8.263596e-01 9.025183e-01 9.247915e-01 1.476491e+00 1.921621e+00 1.343440e+00 1.732545e+00 1.677977e+00 1.402471e+00 1.479888e+00 1.157830e+00 6.525483e-01 7.220718e-02 1.437510e-01 1.489209e-01 1.695609e-01 2.932166e-01 2.836417e-01 2.526282e-01 3.219745e-01 3.196033e-01 2.358002e-01 2.543843e-01 2.180096e-01 1.321116e-01
<GCONST> 9.872623e+01
<TRANSP> 5
 0.000000e+00 1.000000e+00 0.000000e+00 0.000000e+00 0.000000e+00
 0.000000e+00 8.116657e-01 1.883343e-01 0.000000e+00 0.000000e+00
 0.000000e+00 0.000000e+00 7.983576e-01 2.016424e-01 0.000000e+00
 0.000000e+00 0.000000e+00 0.000000e+00 8.975082e-01 1.024918e-01
 0.000000e+00 0.000000e+00 0.000000e+00 0.000000e+00 0.000000e+00
<ENDHMM>
~h "oi"
<BEGINHMM>
<NUMSTATES> 5
<STATE> 2
<MEAN> 39
 3.250225e+00 1.474401e+00 -4.305605e+00 -7.684716e+00 -9.736746e+00 -8.977070e+00 -9.276547e+00 -1.374220e+01 -3.023063e+00 8.579479e-01 1.891033e+00 7.774039e-01 7.265540e+01 -6.674355e-01 -8.641638e-01 1.120114e+00 2.842805e+00 9.498019e-01 -2.449275e+00 -1.842356e+00 6.071544e-01 1.333436e+00 -8.921035e-02 -8.055611e-01 -1.188988e+00 7.883877e-03 -1.173095e-01 2.167452e-01 4.832019e-01 2.710276e-01 -4.858979e-01 -4.304375e-01 5.717927e-01 7.014433e-01 -3.669312e-02 -7.858640e-01 -5.226867e-01 1.318769e-01 -1.333173e-01
<VARIANCE> 39
 1.462129e+01 3.641076e+01 3.740679e+01 7.068246e+01 5.264150e+01 8.352428e+01 6.086594e+01 6.105960e+01 6.224693e+01 3.652738e+01 4.772662e+01 4.560740e+01 1.705692e+01 3.625604e-01 1.095909e+00 1.974882e+00 2.859761e+00 4.380887e+00 4.368504e+00 4.806956e+00 5.425820e+00 4.576764e+00 7.120825e+00 6.705106e+00 3.751939e+00 4.323672e-01 6.598499e-02 1.928073e-01 1.925572e-01 6.271248e-01 7.379926e-01 1.009808e+00 1.203084e+00 8.170385e-01 1.333812e+00 8.915110e-01 1.305232e+00 1.131804e+00 5.548293e-02
<GCONST> 1.244690e+02
<STATE> 3
<MEAN> 39
 -8.535737e-01 2.116597e+00 4.761234e+00 3.859102e+00 -9.135416e+00 -1.731096e+01 -8.033001e+00 -8.667322e+00 -1.888377e+00 -6.595797e+00 -3.536500e+00 2.807061e-01 7.101109e+01 -5.002221e-01 5.784239e-01 6.972194e-01 4.578131e-01 1.219742e-01 5.961795e-01 1.248204e+00 5.137334e-01 -8.289424e-01 -3.798555e-01 3.915058e-01 4.624571e-01 -6.847704e-01 4.870429e-02 1.340089e-01 -3.207291e-01 -5.332924e-01 7.193238e-02 6.170070e-01 1.170559e-01 -2.619266e-01 -1.173597e-01 4.016573e-01 2.992044e-01 -1.520152e-02 -8.510402e-02
<VARIANCE> 39
 1.259327e+01 3.352419e+01 4.995412e+01 6.410744e+01 9.332485e+01 1.050746e+02 4.030718e+01 5.220304e+01 7.010799e+01 4.079621e+01 4.151916e+01 3.843990e+01 1.601531e+01 5.882529e-01 1.159882e+00 4.566957e+00 4.213189e+00 6.183497e+00 7.383608e+00 4.110246e+00 3.121969e+00 4.036508e+00 5.421978e+00 3.220885e+00 2.156972e+00 3.848381e-01 8.289512e-02 2.025449e-01 2.948797e-01 4.168301e-01 9.010559e-01 9.507032e-01 8.867301e-01 7.572057e-01 7.711216e-01 8.787870e-01 6.879771e-01 4.440483e-01 4.228260e-02
<GCONST> 1.222867e+02
<STATE> 4
<MEAN> 39
 -2.771464e+00 5.586952e+00 7.688293e+00 4.894421e+00 -1.046937e+01 -1.409872e+01 -2.645339e+00 -7.299527e+00 -5.216524e+00 -4.739548e+00 -5.952500e-01 -2.001526e-01 6.535338e+01 -3.681594e-01 2.827555e-01 4.308594e-02 -2.342794e-02 5.436987e-01 8.183288e-01 4.839219e-01 1.391215e-01 8.349817e-02 2.712241e-01 -5.301102e-02 2.974578e-02 -8.562754e-01 3.237418e-02 -9.959898e-02 -1.838292e-01 -6.302238e-02 1.543656e-01 6.931710e-02 -1.029507e-01 3.159150e-02 1.409147e-01 6.027173e-02 -4.669140e-02 -6.358350e-02 4.094318e-03
<VARIANCE> 39
 1.988675e+01 2.541022e+01 3.543864e+01 4.012049e+01 5.350839e+01 6.282321e+01 4.575027e+01 4.724550e+01 3.491737e+01 3.800552e+01 3.259608e+01 3.342124e+01 2.863761e+01 3.244344e-01 9.132113e-01 1.408582e+00 1.178143e+00 1.855923e+00 1.795247e+00 1.843270e+00 2.588347e+00 1.658833e+00 1.796716e+00 1.259456e+00 1.404022e+00 3.760341e-01 6.043395e-02 1.293363e-01 1.644641e-01 1.655009e-01 2.444402e-01 3.566980e-01 2.815491e-01 4.214053e-01 3.304663e-01 3.623146e-01 2.393524e-01 2.668542e-01 3.665028e-02
<GCONST> 1.000335e+02
<TRANSP> 5
 0.000000e+00 1.000000e+00 0.000000e+00 0.000000e+00 0.000000e+00
 0.000000e+00 7.949879e-01 2.050121e-01 0.000000e+00 0.000000e+00
 0.000000e+00 0.000000e+00 8.093971e-01 1.906029e-01 0.000000e+00
 0.000000e+00 0.000000e+00 0.000000e+00 8.902650e-01 1.097350e-01
 0.000000e+00 0.000000e+00 0.000000e+00 0.000000e+00 0.000000e+00
<ENDHMM>
~h "oo"
<BEGINHMM>
<NUMSTATES> 5
<STATE> 2
<MEAN> 39
 7.048136e+00 1.324062e+01 -1.310612e+00 -1.576734e+01 -2.055231e+01 -1.394068e+01 -6.502395e+00 -5.511286e+00 3.966145e+00 3.143221e+00 -5.844668e+00 -7.629352e-01 6.689193e+01 -1.243102e-02 3.146934e-01 2.648644e-01 -2.875570e-02 -2.162615e-01 7.029273e-02 1.946963e-01 2.011764e-01 9.181140e-02 1.868521e-01 -2.005980e-02 -1.624823e-01 -2.740934e-01 -3.722007e-02 3.340410e-02 7.790182e-03 6.272066e-02 6.078098e-02 5.738543e-03 4.489218e-02 9.328415e-02 -2.705937e-02 -7.744567e-02 2.354591e-02 -4.722595e-02 -3.833444e-02
<VARIANCE> 39
 7.657400e+00 1.348870e+01 2.972329e+01 1.787555e+01 2.800603e+01 3.039941e+01 2.043952e+01 5.100082e+01 5.398990e+01 3.273629e+01 1.671211e+01 2.042450e+01 1.381236e+01 1.744680e-01 5.385863e-01 6.339023e-01 4.844926e-01 1.166645e+00 7.715891e-01 9.272655e-01 1.237357e+00 1.195260e+00 6.970445e-01 1.052010e+00 8.653467e-01 1.919045e-01 3.110391e-02 8.210126e-02 1.248612e-01 8.613114e-02 2.545257e-01 1.629226e-01 1.609066e-01 1.882597e-01 2.177863e-01 1.082057e-01 1.799218e-01 1.591292e-01 2.505193e-02
<GCONST> 7.861130e+01
<STATE> 3
<MEAN> 39
 4.263983e+00 1.730180e+01 1.941796e+00 -1.156817e+01 -2.079595e+01 -1.232967e+01 -3.327068e+00 -4.611669e-01 4.400132e+00 5.224936e+00 -3.769313e+00 -4.093340e+00 6.293154e+01 -5.420520e-01 1.125626e-01 2.296378e-01 5.714644e-01 7.978803e-01 1.348540e-01 1.108766e-01 5.827064e-01 1.845193e-01 -1.420326e-01 4.292461e-01 1.526648e-01 -5.245699e-01 -1.089249e-01 -1.650496e-01 3.236261e-02 1.192929e-02 1.288605e-01 7.683187e-02 2.685388e-02 -1.041722e-01 -5.892555e-02 -3.169131e-02 4.959286e-02 1.120280e-01 2.540347e-03
<VARIANCE> 39
 1.400905e+01 1.299568e+01 3.387233e+01 2.416564e+01 3.390927e+01 3.027674e+01 3.170961e+01 4.595158e+01 2.107004e+01 3.270548e+01 1.543294e+01 1.725862e+01 1.314674e+01 1.620329e-01 4.928831e-01 7.987297e-01 8.346416e-01 1.004414e+00 1.309858e+00 1.722912e+00 1.155589e+00 1.135589e+00 8.078221e-01 8.297979e-01 1.050326e+00 1.513883e-01 3.083060e-02 5.431451e-02 1.368315e-01 1.390358e-01 1.923164e-01 2.032361e-01 2.955604e-01 1.244033e-01 1.982704e-01 1.297568e-01 1.876050e-01 2.072368e-01 1.271496e-02
<GCONST> 8.025024e+01
<STATE> 4
<MEAN> 39
 -5.101711e-01 1.258090e+01 2.010211e+00 -7.535233e+00 -1.303161e+01 -7.444423e+00 2.271366e-01 -6.534718e-01 3.760984e+00 3.548790e+00 -1.266483e+00 -2.070155e+00 5.816382e+01 -6.419046e-01 -6.021559e-01 -2.411138e-01 6.459326e-01 1.066440e+00 3.451406e-01 1.365386e-01 1.138276e-01 -3.160725e-01 -2.231577e-01 2.195012e-01 3.101879e-01 -5.935866e-01 4.325272e-03 -3.512048e-02 -5.165721e-02 8.921273e-03 5.447515e-02 3.827100e-02 -2.979265e-02 -3.125737e-02 -1.753943e-02 -2.527096e-02 -2.190630e-02 1.814178e-02 -2.223004e-03
<VARIANCE> 39
 9.305964e+00 2.103972e+01 3.037231e+01 3.085953e+01 5.570679e+01 6.075361e+01 5.558467e+01 2.592308e+01 3.020696e+01 4.610804e+01 2.181665e+01 3.145569e+01 3.794171e+01 3.787623e-01 4.113276e-01 6.120921e-01 9.048708e-01 1.546303e+00 1.203576e+00 1.174585e+00 1.182018e+00 1.163562e+00 1.633986e+00 1.573923e+00 1.505789e+00 1.844883e-01 5.176183e-02 5.910316e-02 1.099553e-01 1.487153e-01 2.953223e-01 2.102333e-01 2.302105e-01 2.441223e-01 2.069303e-01 3.249642e-01 3.282472e-01 2.516986e-01 2.443295e-02
<GCONST> 9.045225e+01
<TRANSP> 5
 0.000000e+00 1.000000e+00 0.000000e+00 0.000000e+00 0.000000e+00
 0.000000e+00 8.940414e-01 1.059586e-01 0.000000e+00 0.000000e+00
 0.000000e+00 0.000000e+00 8.437040e-01 1.562960e-01 0.000000e+00
 0.000000e+00 0.000000e+00 0.000000e+00 8.944654e-01 1.055346e-01
 0.000000e+00 0.000000e+00 0.000000e+00 0.000000e+00 0.000000e+00
<ENDHMM>
~h "ou"
<BEGINHMM>
<NUMSTATES> 5
<STATE> 2
<MEAN> 39
 5.828278e+00 6.293104e+00 -5.074169e+00 -1.366563e+01 -1.500125e+01 -6.497409e+00 -7.835667e-01 -8.938337e+00 -7.915818e+00 -2.737760e+00 -1.731361e-01 1.341061e+00 7.065633e+01 6.249892e-02 6.844233e-01 3.684018e-01 4.200118e-01 1.414248e-02 -2.216401e-01 -1.658496e-01 -2.532117e-01 -5.116279e-01 -6.261966e-01 -1.031424e-01 -5.741376e-02 -5.414888e-01 -2.123548e-02 6.243105e-02 5.540401e-02 1.354082e-01 1.200669e-01 3.820477e-02 2.139196e-02 1.669791e-01 5.155390e-02 -4.580444e-02 -6.366714e-02 -7.789706e-02 -1.115563e-01
<VARIANCE> 39
 6.394499e+00 3.098283e+01 2.399756e+01 5.677980e+01 6.834312e+01 6.035238e+01 6.356159e+01 6.818463e+01 5.898342e+01 4.831151e+01 2.969679e+01 2.810523e+01 1.188029e+01 2.048693e-01 6.393703e-01 6.266237e-01 1.253806e+00 1.213414e+00 1.851403e+00 1.626718e+00 1.386114e+00 1.384724e+00 1.452050e+00 1.481442e+00 1.175033e+00 2.841050e-01 3.865157e-02 1.076516e-01 9.826587e-02 1.749426e-01 2.523524e-01 2.692073e-01 3.207966e-01 2.106070e-01 2.875202e-01 2.635779e-01 2.568341e-01 1.747108e-01 4.460079e-02
<GCONST> 9.365881e+01
<STATE> 3
<MEAN> 39
 4.908158e+00 1.316697e+01 -7.768222e-01 -8.469293e+00 -1.299965e+01 -8.062361e+00 -1.286051e+00 -8.202743e+00 -8.438996e+00 -5.503705e+00 -2.887982e+00 -5.468847e-01 6.550837e+01 -2.095579e-01 4.532196e-01 4.316597e-01 8.504196e-01 7.916093e-01 1.602695e-01 -4.563150e-01 2.969776e-01 2.336515e-02 -2.042337e-01 -1.751922e-01 -2.023551e-01 -7.827273e-01 -7.908290e-02 -1.043753e-01 9.477714e-04 7.362763e-05 1.155915e-01 9.598608e-02 -5.146577e-02 -1.639451e-02 1.376822e-01 1.193845e-01 2.771827e-02 2.842282e-02 -2.942836e-02
<VARIANCE> 39
 7.083410e+00 2.817895e+01 2.258014e+01 4.260714e+01 4.760795e+01 6.616203e+01 6.337305e+01 5.262858e+01 4.633276e+01 5.613094e+01 3.914498e+01 4.056483e+01 1.855583e+01 1.908731e-01 7.183693e-01 7.511514e-01 1.071967e+00 1.228167e+00 1.546443e+00 2.059520e+00 1.431751e+00 1.774166e+00 1.523785e+00 1.648396e+00 1.263241e+00 3.976364e-01 3.417908e-02 1.091293e-01 1.245669e-01 1.527352e-01 1.816155e-01 2.428855e-01 3.307656e-01 2.242056e-01 3.508133e-01 2.764488e-01 2.771693e-01 2.261051e-01 2.703708e-02
<GCONST> 9.450006e+01
<STATE> 4
<MEAN> 39
 4.231511e-01 1.263292e+01 2.362643e+00 -1.389872e+00 -4.179249e+00 -4.391016e+00 -3.284372e+00 -5.780741e+00 -4.803529e+00 -4.536316e+00 -3.611750e+00 -2.210018e+00 6.042515e+01 -5.962054e-01 -4.423928e-01 3.366113e-02 4.175963e-01 6.568264e-01 3.663388e-01 1.650054e-01 3.373474e-01 4.244509e-01 1.724761e-01 5.885766e-02 4.383532e-02 -6.295031e-01 -4.732663e-02 -1.171388e-01 -6.730737e-02 -5.915758e-02 -3.696872e-02 4.115471e-03 9.623578e-02 2.636662e-02 5.032120e-02 3.361636e-02 2.694141e-02 3.057086e-02 6.101663e-02
<VARIANCE> 39
 1.055514e+01 3.540558e+01 1.385060e+01 2.210748e+01 3.584513e+01 2.947853e+01 3.242245e+01 3.652529e+01 3.158993e+01 3.215654e+01 3.216977e+01 2.882821e+01 3.609164e+01 3.616764e-01 7.393678e-01 5.952621e-01 9.989402e-01 1.412832e+00 1.241395e+00 1.866387e+00 1.679065e+00 1.411350e+00 1.520794e+00 1.421476e+00 1.115106e+00 3.745463e-01 4.360674e-02 1.107016e-01 1.190178e-01 1.654692e-01 2.144856e-01 1.955654e-01 3.022934e-01 2.693847e-01 2.612966e-01 2.700587e-01 2.863004e-01 2.143165e-01 4.868540e-02
<GCONST> 9.140936e+01
<TRANSP> 5
 0.000000e+00 1.000000e+00 0.000000e+00 0.000000e+00 0.000000e+00
 0.000000e+00 8.369542e-01 1.630458e-01 0.000000e+00 0.000000e+00
 0.000000e+00 0.000000e+00 8.362846e-01 1.637154e-01 0.000000e+00
 0.000000e+00 0.000000e+00 0.000000e+00 9.007260e-01 9.927399e-02
 0.000000e+00 0.000000e+00 0.000000e+00 0.000000e+00 0.000000e+00
<ENDHMM>
~h "sp"
<BEGINHMM>
<NUMSTATES> 3
<STATE> 2
~s "silst"
<TRANSP> 3
 0.000000e+00 7.000000e-01 3.000000e-01
 0.000000e+00 9.000000e-01 9.999999e-02
 0.000000e+00 0.000000e+00 0.000000e+00
<ENDHMM>
~h "uu"
<BEGINHMM>
<NUMSTATES> 5
<STATE> 2
<MEAN> 39
 2.089479e+00 8.329367e+00 2.085554e+00 -2.602432e+00 -4.944092e+00 -1.185856e+01 -2.295210e+00 -1.632604e+01 -8.855951e+00 -6.929428e+00 -5.068150e+00 -7.141114e-01 7.062819e+01 1.664662e-01 5.015557e-01 -1.171218e-01 -2.671355e-01 -3.838709e-02 3.482473e-01 -1.102634e-01 2.102243e-01 -3.422871e-01 -1.312532e-01 -5.481308e-02 1.502018e-01 -5.332908e-01 -3.595087e-02 6.353168e-03 1.963434e-02 7.789900e-02 4.477545e-02 3.894437e-02 -1.341102e-01 2.460750e-02 1.121564e-01 -4.928195e-03 -4.945104e-03 -9.888759e-02 -1.563052e-02
<VARIANCE> 39
 9.194036e+00 3.644514e+01 2.675671e+01 1.847076e+01 5.953804e+01 8.083635e+01 1.084234e+02 6.624396e+01 3.035503e+01 6.205975e+01 2.938210e+01 5.973907e+01 1.974570e+01 1.435430e-01 6.504714e-01 3.917586e-01 1.098446e+00 8.276348e-01 1.090195e+00 1.683224e+00 1.532971e+00 1.018956e+00 1.412585e+00 1.797249e+00 1.495109e+00 1.834538e-01 2.885773e-02 1.387602e-01 8.414191e-02 2.163369e-01 1.230452e-01 1.801819e-01 2.795764e-01 2.584288e-01 1.849647e-01 2.429543e-01 3.072926e-01 2.265130e-01 3.374898e-02
<GCONST> 9.121555e+01
<STATE> 3
<MEAN> 39
 4.745013e+00 9.221782e+00 1.327001e+00 -1.505464e+00 -7.335298e+00 -1.107950e+01 -1.089628e+01 -1.160662e+01 -9.445023e+00 -6.392948e+00 -3.538116e+00 -3.234694e+00 6.557734e+01 -2.362943e-02 1.972057e-01 2.629591e-02 7.359830e-02 1.312066e-01 3.534502e-01 -1.579627e-01 2.706032e-02 -4.894904e-02 6.984034e-02 -8.438280e-03 -1.240230e-01 -3.392857e-01 -4.028161e-02 -3.926071e-02 2.388333e-02 1.733326e-03 1.156557e-02 1.308352e-02 4.983432e-02 -2.020976e-05 1.974305e-02 -5.078714e-02 -2.553820e-02 1.108776e-02 5.519005e-03
<VARIANCE> 39
 5.694814e+00 1.792716e+01 1.454803e+01 3.274385e+01 3.148047e+01 3.524430e+01 7.368342e+01 4.957452e+01 3.436192e+01 2.696989e+01 3.738840e+01 3.258031e+01 1.124295e+01 7.154001e-02 1.725723e-01 2.394281e-01 3.895872e-01 5.826330e-01 5.930156e-01 8.407131e-01 6.685141e-01 6.598532e-01 6.791714e-01 5.829773e-01 7.199293e-01 5.859108e-02 1.352959e-02 2.984045e-02 3.547928e-02 5.932987e-02 9.545649e-02 8.938605e-02 1.462021e-01 1.233945e-01 1.219410e-01 1.320203e-01 9.889269e-02 1.304179e-01 8.113057e-03
<GCONST> 6.507584e+01
<STATE> 4
<MEAN> 39
 9.258615e-01 1.174433e+01 3.850337e+00 -9.706946e-01 -5.236060e+00 -4.174265e+00 -6.452813e+00 -1.133937e+01 -1.036842e+01 -9.299796e+00 -5.789245e+00 -1.507373e+00 5.894160e+01 -5.416144e-01 -2.065975e-01 7.963491e-02 4.087626e-01 7.129500e-01 3.728427e-01 4.786060e-01 6.300283e-01 4.883867e-01 4.105832e-02 1.409900e-01 4.052110e-02 -6.721022e-01 -8.053316e-02 -9.364659e-02 -7.182541e-02 5.423004e-03 1.343021e-01 -1.313807e-02 1.952833e-02 6.449597e-02 1.182823e-01 1.909677e-01 8.532401e-02 3.247540e-02 -3.399972e-02
<VARIANCE> 39
 9.939017e+00 1.659211e+01 9.383288e+00 2.687783e+01 6.249695e+01 2.555271e+01 3.166142e+01 7.002056e+01 3.726391e+01 4.017215e+01 3.497456e+01 2.926723e+01 2.107907e+01 3.275915e-01 3.815267e-01 5.361881e-01 9.489437e-01 1.328606e+00 1.043003e+00 1.345343e+00 1.701302e+00 1.563685e+00 1.454427e+00 1.371039e+00 1.235926e+00 1.367825e-01 4.435452e-02 5.813156e-02 8.496398e-02 1.666476e-01 1.498283e-01 2.201634e-01 2.624704e-01 2.546738e-01 2.972773e-01 2.061699e-01 2.208713e-01 2.217240e-01 1.688918e-02
<GCONST> 8.621711e+01
<TRANSP> 5
 0.000000e+00 1.000000e+00 0.000000e+00 0.000000e+00 0.000000e+00
 0.000000e+00 8.992243e-01 1.007757e-01 0.000000e+00 0.000000e+00
 0.000000e+00 0.000000e+00 9.012706e-01 9.872940e-02 0.000000e+00
 0.000000e+00 0.000000e+00 0.000000e+00 8.905381e-01 1.094619e-01
 0.000000e+00 0.000000e+00 0.000000e+00 0.000000e+00 0.000000e+00
<ENDHMM>
~h "sil"
<BEGINHMM>
<NUMSTATES> 5
<STATE> 2
<MEAN> 39
 -7.621465e+00 4.742425e+00 1.817337e+00 1.950130e+00 -5.475320e-01 -1.188948e+00 2.040126e+00 9.470267e-01 1.470046e+00 1.026771e+00 1.535622e-01 9.227127e-01 5.400430e+01 -2.500235e-01 -4.299161e-01 -3.691387e-01 -1.579176e-01 3.040116e-01 3.042828e-01 1.467289e-01 3.573070e-01 2.507602e-01 1.441345e-01 1.210709e-01 2.648684e-02 -7.097627e-03 5.490049e-02 1.699390e-02 5.092569e-03 -9.635876e-02 -1.517950e-01 -7.265306e-02 -2.342462e-02 -1.007963e-01 -7.077177e-02 -8.554874e-02 -8.193186e-02 -8.162845e-02 1.863720e-01
<VARIANCE> 39
 9.694972e+00 1.561483e+01 1.843178e+01 1.771900e+01 3.175624e+01 4.074991e+01 3.027053e+01 3.394653e+01 3.059813e+01 2.176288e+01 1.747840e+01 1.867281e+01 2.374416e+01 5.576333e-01 1.102852e+00 1.119691e+00 1.281050e+00 2.047003e+00 1.913745e+00 1.822413e+00 1.884018e+00 1.840259e+00 1.773875e+00 1.602155e+00 1.565619e+00 1.259820e+00 6.485558e-02 1.187643e-01 1.209443e-01 1.715560e-01 2.119839e-01 2.318180e-01 2.715558e-01 2.602441e-01 2.803665e-01 2.671886e-01 2.574502e-01 2.389143e-01 1.066129e-01
<GCONST> 9.482719e+01
<STATE> 3
~s "silst"
<STATE> 4
<MEAN> 39
 -6.690849e+00 2.345128e+00 -9.994189e-01 -1.951159e+00 -1.570916e+00 -1.371705e+00 2.155007e+00 -4.622722e-01 3.611052e-02 -8.835374e-01 -1.141795e+00 -5.138162e-01 5.972443e+01 1.777855e-01 6.929977e-02 -2.154847e-02 -2.691706e-01 -1.980771e-01 -2.331611e-02 7.348020e-02 -1.530802e-01 -1.399799e-01 -1.808054e-01 -1.774964e-01 -1.262490e-01 5.254117e-01 1.275163e-01 1.360937e-01 9.123194e-02 5.224824e-02 -9.096657e-02 -1.007144e-01 -8.273575e-02 -1.071123e-01 -7.416824e-02 -3.531296e-02 -3.610519e-02 -2.488190e-02 3.976777e-02
<VARIANCE> 39
 2.375298e+01 3.917875e+01 3.413283e+01 4.286888e+01 3.917992e+01 4.347213e+01 4.245081e+01 3.413769e+01 4.037852e+01 3.345343e+01 2.543145e+01 2.476217e+01 4.945398e+01 1.423647e+00 1.544375e+00 1.329709e+00 1.810846e+00 1.969382e+00 2.229421e+00 2.078054e+00 2.154305e+00 2.460121e+00 2.240473e+00 1.923082e+00 1.689258e+00 2.891220e+00 1.430699e-01 2.131045e-01 1.787518e-01 2.501210e-01 2.710387e-01 2.762947e-01 2.933207e-01 2.697832e-01 2.945676e-01 3.144468e-01 2.760780e-01 2.517317e-01 1.671319e-01
<GCONST> 1.081061e+02
<TRANSP> 5
 0.000000e+00 1.000000e+00 0.000000e+00 0.000000e+00 0.000000e+00
 0.000000e+00 5.301698e-01 2.698302e-01 2.000000e-01 0.000000e+00
 0.000000e+00 0.000000e+00 4.317464e-01 5.682536e-01 0.000000e+00
 0.000000e+00 2.000000e-01 0.000000e+00 4.228392e-01 3.771608e-01
 0.000000e+00 0.000000e+00 0.000000e+00 0.000000e+00 0.000000e+00
<ENDHMM>
