~o
<STREAMINFO> 1 39
<VECSIZE> 39<NULLD><MFCC_D_A_0><DIAGC>
~s "silst"
<MEAN> 39
 -8.057070e+00 -1.380424e+00 -5.421931e+00 -4.969473e+00 -5.532006e+00 -5.458397e+00 -2.472282e+00 -3.109364e+00 -4.195264e-01 -1.227872e+00 1.030857e+00 -9.762687e-01 6.424930e+01 5.408604e-02 -2.407824e-01 -1.923682e-01 -4.849144e-01 -3.553338e-02 8.966200e-02 1.019848e-01 -1.100626e-01 2.208571e-02 -3.758914e-02 6.797295e-02 -6.695277e-02 6.838431e-01 1.810235e-01 1.574446e-01 1.324580e-01 9.404403e-02 -4.268069e-02 3.198261e-02 7.414175e-02 1.116681e-02 -1.442571e-01 -1.395283e-02 -1.085298e-01 -3.614441e-02 -1.530765e-01
<VARIANCE> 39
 4.396819e+01 4.928020e+01 6.034479e+01 7.276894e+01 7.026841e+01 7.740780e+01 5.364605e+01 4.929510e+01 4.939283e+01 4.309303e+01 3.741323e+01 3.332665e+01 6.155309e+01 2.972923e+00 3.410129e+00 3.351401e+00 4.343124e+00 4.532429e+00 5.001406e+00 3.663455e+00 3.744001e+00 3.685740e+00 3.546591e+00 2.880370e+00 2.452065e+00 4.953031e+00 4.915856e-01 6.018102e-01 5.618327e-01 7.619258e-01 7.990494e-01 8.186863e-01 6.452147e-01 7.223539e-01 6.996185e-01 6.673627e-01 5.478603e-01 4.698142e-01 6.524097e-01
<GCONST> 1.341977e+02
~h "N"
<BEGINHMM>
<NUMSTATES> 5
<STATE> 2
<MEAN> 39
 9.726059e-01 4.199639e+00 -1.696134e+00 -3.077944e+00 -7.884785e+00 -9.676339e+00 -4.076468e+00 -4.812797e+00 -5.799882e+00 -4.526566e+00 -2.376369e+00 -3.667638e+00 6.573962e+01 7.858337e-02 5.591247e-01 -5.155663e-02 -2.476206e-01 1.484439e-01 3.746021e-01 1.427950e-01 -2.269381e-01 -3.993416e-01 2.404834e-02 -4.720213e-02 5.176907e-02 -3.359789e-01 -8.912612e-02 -3.960925e-01 -1.667160e-01 -2.136485e-01 -8.557454e-02 7.390108e-03 1.001992e-01 -5.081076e-02 3.696539e-01 2.012049e-01 3.038858e-02 -9.555878e-02 3.176900e-01
<VARIANCE> 39
 8.144622e+00 3.618075e+01 2.298524e+01 3.579098e+01 4.151501e+01 4.400982e+01 4.646701e+01 4.235136e+01 4.437060e+01 4.587516e+01 4.205868e+01 3.627873e+01 2.243997e+01 3.544511e-01 1.103454e+00 1.095687e+00 1.848278e+00 1.972969e+00 2.415337e+00 2.067632e+00 2.187401e+00 3.004828e+00 2.395978e+00 1.965554e+00 1.510869e+00 5.870962e-01 6.125071e-02 1.298054e-01 2.047340e-01 2.796264e-01 3.714278e-01 4.547051e-01 3.859046e-01 4.395642e-01 5.171921e-01 4.434776e-01 3.745742e-01 3.146132e-01 5.782031e-02
<GCONST> 1.048891e+02
<STATE> 3
<MEAN> 39
 4.061881e-01 3.834739e+00 -2.871725e+00 -5.064367e+00 -7.477119e+00 -7.974366e+00 -2.976436e+00 -6.065944e+00 -4.497948e+00 -3.503958e+00 -2.105691e+00 -3.819039e+00 6.623856e+01 -1.834098e-01 -7.994663e-01 -5.258733e-01 -7.450724e-01 -1.131169e-01 5.143191e-01 3.895982e-01 -1.654476e-01 9.457251e-01 5.699327e-01 -1.456171e-01 -4.060030e-01 5.865847e-01 -2.812456e-03 -3.148831e-01 -1.471855e-01 -9.968592e-03 -7.444464e-02 6.272009e-02 1.174456e-01 6.605630e-02 1.744964e-01 1.441103e-01 -9.452835e-03 -1.641968e-01 1.554790e-01
<VARIANCE> 39
 9.310716e+00 3.417509e+01 2.871969e+01 4.453507e+01 5.241750e+01 6.290590e+01 5.315762e+01 5.000604e+01 5.393010e+01 5.191898e+01 4.771748e+01 4.060076e+01 2.076301e+01 3.901069e-01 1.494697e+00 1.840755e+00 2.222643e+00 2.543484e+00 3.143502e+00 2.671057e+00 2.913474e+00 3.797666e+00 2.786437e+00 2.878095e+00 1.994039e+00 5.971243e-01 6.623703e-02 1.695768e-01 2.162159e-01 2.917506e-01 4.039353e-01 4.628372e-01 4.796006e-01 4.897940e-01 5.242867e-01 4.457995e-01 4.300406e-01 3.475095e-01 7.676928e-02
<GCONST> 1.114115e+02
<STATE> 4
<MEAN> 39
 1.536474e-01 -1.856228e+00 -7.275372e+00 -7.711844e+00 -8.040655e+00 -4.435948e+00 -4.188513e-01 -5.312397e+00 -8.385316e-01 -1.740763e+00 -3.337441e+00 -6.316211e+00 6.890528e+01 -4.245133e-02 -5.758227e-01 -5.600588e-01 -2.606068e-01 2.224140e-02 4.118123e-01 4.234803e-01 1.120030e-01 3.163292e-01 3.993013e-01 -4.149489e-02 -3.604549e-01 2.051495e-01 -1.100662e-02 1.476111e-01 1.091903e-01 1.416957e-01 2.678630e-02 -1.116982e-01 -7.900073e-02 6.138736e-02 -1.525325e-01 -6.324298e-02 6.593395e-02 9.001397e-02 -1.320156e-01
<VARIANCE> 39
 9.960338e+00 4.938732e+01 4.696822e+01 5.675717e+01 5.890634e+01 8.098634e+01 7.149748e+01 6.751195e+01 6.901463e+01 6.606000e+01 8.401544e+01 4.402079e+01 2.325628e+01 2.700121e-01 1.223960e+00 1.336066e+00 1.249246e+00 1.727304e+00 1.891737e+00 2.115686e+00 2.186087e+00 2.495278e+00 1.834322e+00 2.066617e+00 1.867485e+00 4.768410e-01 4.602174e-02 1.515110e-01 1.832112e-01 2.281581e-01 3.033758e-01 3.425934e-01 3.697126e-01 4.025010e-01 4.239715e-01 3.288423e-01 3.197612e-01 2.710089e-01 5.017544e-02
<GCONST> 1.070368e+02
<TRANSP> 5
 0.000000e+00 1.000000e+00 0.000000e+00 0.000000e+00 0.000000e+00
 0.000000e+00 6.765422e-01 3.234577e-01 0.000000e+00 0.000000e+00
 0.000000e+00 0.000000e+00 5.136039e-01 4.863961e-01 0.000000e+00
 0.000000e+00 0.000000e+00 0.000000e+00 7.286172e-01 2.713827e-01
 0.000000e+00 0.000000e+00 0.000000e+00 0.000000e+00 0.000000e+00
<ENDHMM>
~h "a"
<BEGINHMM>
<NUMSTATES> 5
<STATE> 2
<MEAN> 39
 1.316970e+00 -5.018586e+00 -1.005531e+01 -1.011853e+01 -1.046038e+01 -6.850948e+00 -1.797596e+00 -6.027550e+00 -4.584975e-01 7.322450e-01 -6.419908e-01 -5.000780e+00 7.201841e+01 -2.389134e-02 4.020536e-01 3.272918e-01 6.068770e-01 3.853754e-01 -1.033987e-01 -5.638856e-01 1.045049e-01 1.273880e-01 1.851845e-01 -7.682866e-02 -1.826499e-02 -6.464728e-01 -1.545415e-01 3.671862e-01 3.349811e-01 2.742972e-01 1.516190e-01 -4.936598e-03 -1.028212e-01 1.480290e-02 -1.999718e-01 -2.605507e-01 -3.532360e-02 1.584569e-01 -3.636734e-01
<VARIANCE> 39
 1.337754e+01 4.795612e+01 3.812032e+01 5.039986e+01 5.824033e+01 7.587683e+01 6.846741e+01 6.378732e+01 5.497651e+01 5.051977e+01 6.257652e+01 6.239951e+01 3.076542e+01 6.901256e-01 1.912779e+00 1.965561e+00 2.658028e+00 2.564421e+00 3.368651e+00 3.335469e+00 2.834367e+00 3.130757e+00 2.821768e+00 2.642032e+00 2.568931e+00 1.082993e+00 1.371943e-01 2.413617e-01 2.482342e-01 3.293501e-01 4.621536e-01 5.224157e-01 5.326231e-01 5.341424e-01 5.794122e-01 5.358903e-01 5.163200e-01 4.951027e-01 1.528835e-01
<GCONST> 1.196085e+02
<STATE> 3
<MEAN> 39
 4.313881e-01 -8.227035e-01 -7.725569e+00 -7.082345e+00 -8.022098e+00 -6.373621e+00 -3.451594e+00 -5.280754e+00 -1.280728e+00 5.240023e-01 -5.078818e-01 -4.047565e+00 6.731040e+01 -5.656863e-01 6.692655e-01 7.095378e-01 9.230834e-01 7.011474e-01 2.266074e-01 -2.888247e-01 3.187512e-01 -1.236511e-01 -1.851903e-01 9.092085e-03 3.266077e-01 -1.253295e+00 -1.413779e-01 -8.683376e-02 -6.126009e-03 -6.991675e-02 -7.539666e-02 3.427628e-02 1.655410e-01 2.856576e-02 -3.276777e-02 -1.266123e-01 1.460237e-03 9.805847e-02 1.834686e-02
<VARIANCE> 39
 1.475210e+01 3.619791e+01 3.589928e+01 4.599509e+01 5.145431e+01 6.178458e+01 5.723823e+01 5.200154e+01 4.567821e+01 4.509856e+01 5.244323e+01 4.959067e+01 2.932998e+01 8.134844e-01 1.491671e+00 1.882670e+00 2.161871e+00 2.443765e+00 2.657760e+00 2.823814e+00 2.727752e+00 2.787848e+00 2.700314e+00 2.427446e+00 2.199630e+00 1.151133e+00 1.085126e-01 2.228067e-01 2.688075e-01 3.382115e-01 3.987220e-01 4.357912e-01 4.967074e-01 4.405929e-01 4.773778e-01 4.343491e-01 4.071432e-01 3.855246e-01 1.909235e-01
<GCONST> 1.151759e+02
<STATE> 4
<MEAN> 39
 -2.252997e+00 2.140014e-01 -6.290009e+00 -5.440477e+00 -6.641676e+00 -5.048758e+00 -2.772840e+00 -3.639065e+00 -1.336407e+00 7.464393e-02 1.895587e-01 -2.149301e+00 6.398920e+01 -7.205108e-01 1.252521e-01 4.228247e-01 4.568271e-01 3.006782e-01 7.097515e-02 -2.057948e-02 1.490669e-01 -1.004627e-01 -2.834881e-01 -3.175246e-03 3.351750e-01 -6.474141e-01 -5.563956e-03 -1.710888e-01 -9.045681e-02 -2.121641e-01 -1.963137e-01 -1.058924e-01 9.650868e-02 -1.188669e-01 -2.890759e-03 -4.654986e-02 -3.807170e-03 -4.182163e-02 3.353203e-01
<VARIANCE> 39
 2.464446e+01 3.644481e+01 3.480294e+01 4.304181e+01 4.464544e+01 5.508858e+01 4.880116e+01 4.571023e+01 4.044735e+01 4.035530e+01 4.097802e+01 3.988406e+01 4.410427e+01 9.845285e-01 1.477277e+00 1.759254e+00 1.878334e+00 2.285874e+00 2.622838e+00 2.695456e+00 2.532157e+00 2.579233e+00 2.560449e+00 2.238675e+00 2.005300e+00 1.428062e+00 1.797759e-01 2.828662e-01 3.255915e-01 3.888584e-01 5.052418e-01 5.027211e-01 5.592104e-01 4.988509e-01 4.999358e-01 4.731835e-01 4.337709e-01 4.073279e-01 3.006652e-01
<GCONST> 1.168484e+02
<TRANSP> 5
 0.000000e+00 1.000000e+00 0.000000e+00 0.000000e+00 0.000000e+00
 0.000000e+00 5.230788e-01 4.769212e-01 0.000000e+00 0.000000e+00
 0.000000e+00 0.000000e+00 3.761342e-01 6.238658e-01 0.000000e+00
 0.000000e+00 0.000000e+00 0.000000e+00 3.477395e-01 6.522605e-01
 0.000000e+00 0.000000e+00 0.000000e+00 0.000000e+00 0.000000e+00
<ENDHMM>
~h "e"
<BEGINHMM>
<NUMSTATES> 5
<STATE> 2
<MEAN> 39
 -1.881222e+00 -9.334790e-01 -1.376939e+00 6.976771e-01 -1.169148e+01 -1.464590e+01 -6.815128e+00 -5.288041e+00 -2.778661e+00 -2.426347e+00 4.496187e-01 -8.354922e-01 6.781585e+01 -1.426750e-01 1.442458e-01 2.919323e-01 3.962636e-01 2.224634e-01 7.714310e-02 1.244954e-01 1.318744e-01 7.466993e-02 5.947236e-03 -5.184266e-02 2.096935e-01 -4.768431e-01 -1.036694e-01 2.449770e-02 -1.565110e-01 -1.262018e-01 3.156685e-01 2.996427e-01 6.238054e-02 -3.697082e-02 3.143322e-02 4.353221e-02 -2.877842e-02 -4.104088e-02 -1.573487e-01
<VARIANCE> 39
 2.319445e+01 3.466778e+01 5.060965e+01 4.298581e+01 8.063220e+01 6.737543e+01 4.516262e+01 5.025395e+01 4.987601e+01 4.452075e+01 3.473913e+01 3.523523e+01 3.124055e+01 9.765825e-01 1.326037e+00 1.802204e+00 1.660544e+00 2.984237e+00 3.111892e+00 2.408403e+00 2.323766e+00 2.665331e+00 2.932291e+00 2.203614e+00 1.895038e+00 2.229903e+00 1.771753e-01 2.519699e-01 3.042743e-01 3.355767e-01 5.520413e-01 5.456361e-01 4.401300e-01 4.433676e-01 5.386172e-01 4.595557e-01 3.666663e-01 3.618016e-01 2.420434e-01
<GCONST> 1.171698e+02
<STATE> 3
<MEAN> 39
 -1.297501e+00 -1.772590e+00 -1.424453e+00 1.471248e+00 -1.277682e+01 -1.555355e+01 -7.417229e+00 -5.587082e+00 -2.166458e+00 -2.339811e+00 -1.362853e-01 -2.667577e-01 6.836818e+01 -8.214965e-02 4.977463e-01 4.237293e-02 2.651342e-01 8.156667e-01 6.482741e-01 1.572315e-01 -7.800297e-02 -2.241725e-01 -4.345391e-02 -1.085489e-01 -3.418582e-02 -7.911709e-01 -3.362745e-02 1.226280e-01 -1.205321e-01 -1.481370e-01 3.105660e-01 3.285826e-01 2.346115e-02 -4.628401e-02 -8.158517e-02 -1.110772e-02 -1.065746e-02 -1.360941e-01 -1.475080e-01
<VARIANCE> 39
 1.894948e+01 3.582023e+01 5.538984e+01 4.499338e+01 8.263434e+01 6.269760e+01 5.018758e+01 4.992398e+01 4.752843e+01 4.440243e+01 4.262507e+01 3.720864e+01 3.077091e+01 6.642273e-01 1.018064e+00 1.291672e+00 1.419340e+00 2.598175e+00 2.514698e+00 1.938555e+00 1.964406e+00 2.030790e+00 2.178233e+00 2.103106e+00 1.769501e+00 1.082157e+00 1.115601e-01 2.328939e-01 2.772388e-01 2.915468e-01 4.195488e-01 4.415862e-01 4.264634e-01 4.467376e-01 4.983431e-01 4.339048e-01 3.727962e-01 3.390197e-01 2.334711e-01
<GCONST> 1.125923e+02
<STATE> 4
<MEAN> 39
 -3.377346e+00 7.359862e-01 -8.861860e-01 1.525451e+00 -9.539619e+00 -1.261124e+01 -4.517058e+00 -4.316621e+00 -2.757332e+00 -2.271464e+00 -2.411451e-01 -6.246150e-01 6.398433e+01 -2.432641e-01 3.244742e-01 -2.363832e-01 -1.693336e-01 9.469718e-01 9.181608e-01 1.468287e-01 1.815055e-02 -5.834157e-02 4.898317e-02 -1.034443e-01 -9.407227e-02 -7.347162e-01 1.775818e-02 -8.446983e-02 -1.459019e-01 -1.729531e-01 -1.481258e-02 3.485440e-02 -2.275361e-02 -2.700821e-03 5.678822e-02 -1.703849e-02 -1.352051e-02 -4.440469e-02 1.689995e-01
<VARIANCE> 39
 2.343553e+01 2.461827e+01 3.423901e+01 3.663024e+01 6.494097e+01 6.144550e+01 4.852833e+01 4.666901e+01 3.932082e+01 3.498606e+01 3.944344e+01 3.133068e+01 3.350182e+01 5.424997e-01 1.020794e+00 1.239655e+00 1.232037e+00 2.074604e+00 2.067337e+00 1.989234e+00 1.952775e+00 2.317065e+00 2.138652e+00 1.876995e+00 1.736565e+00 7.311354e-01 8.389753e-02 1.618939e-01 2.251312e-01 2.318778e-01 3.651823e-01 3.459935e-01 3.182343e-01 3.506711e-01 3.731551e-01 3.676559e-01 3.468084e-01 3.124264e-01 1.874173e-01
<GCONST> 1.067619e+02
<TRANSP> 5
 0.000000e+00 1.000000e+00 0.000000e+00 0.000000e+00 0.000000e+00
 0.000000e+00 2.541947e-01 7.458052e-01 0.000000e+00 0.000000e+00
 0.000000e+00 0.000000e+00 3.426862e-01 6.573138e-01 0.000000e+00
 0.000000e+00 0.000000e+00 0.000000e+00 5.722288e-01 4.277712e-01
 0.000000e+00 0.000000e+00 0.000000e+00 0.000000e+00 0.000000e+00
<ENDHMM>
~h "f"
<BEGINHMM>
<NUMSTATES> 5
<STATE> 2
<MEAN> 39
 -1.155534e+01 -6.989568e-01 -1.006032e+01 -4.979907e+00 -6.160205e+00 -3.799202e+00 4.092238e-01 -2.291702e+00 -7.366908e-01 -2.140921e+00 -3.947700e-01 -1.115096e+00 6.607833e+01 3.454004e+00 -1.624870e-02 -4.921588e-01 -2.199543e+00 -1.475115e+00 -6.334683e-03 6.795005e-01 -2.139487e-01 -1.098793e+00 -3.407428e-01 -3.219858e-01 -3.640441e-01 8.130088e-01 4.548706e-01 -2.061130e-01 -1.856117e-01 -2.724858e-01 -2.702062e-01 5.692919e-02 1.145606e-01 -7.660313e-02 -1.282590e-01 1.260934e-01 1.073583e-01 -9.424905e-02 3.125131e-01
<VARIANCE> 39
 7.404460e+01 2.421631e+01 2.837695e+01 4.699228e+01 4.216438e+01 3.234660e+01 3.686674e+01 2.888518e+01 2.908754e+01 2.293464e+01 2.153885e+01 2.467547e+01 2.233914e+01 5.275055e+00 2.493268e+00 2.489492e+00 3.323407e+00 3.883361e+00 2.756639e+00 3.003880e+00 3.438819e+00 2.793496e+00 2.538481e+00 2.149748e+00 2.377388e+00 1.433041e+00 1.298808e+00 5.147958e-01 3.167986e-01 6.257103e-01 6.787521e-01 4.715580e-01 4.875948e-01 5.066396e-01 5.027026e-01 4.455581e-01 3.826739e-01 3.698263e-01 2.228991e-01
<GCONST> 1.202727e+02
<STATE> 3
<MEAN> 39
 -8.527329e-01 -2.232239e+00 -1.213224e+01 -1.181290e+01 -1.167233e+01 -3.843186e+00 2.614701e+00 -2.823242e+00 -3.826282e+00 -2.239100e+00 -1.338626e-01 -1.742070e+00 6.990021e+01 2.049689e+00 -1.548544e+00 -9.080976e-01 -1.482588e+00 -8.619486e-01 3.223521e-01 7.483368e-01 -1.647122e-01 -6.107907e-01 4.640114e-01 2.786708e-01 -5.761933e-01 1.525839e+00 -1.029933e+00 -3.230597e-01 2.230253e-01 8.083643e-01 7.413985e-01 1.355250e-01 -2.560645e-01 2.613147e-02 4.166503e-01 2.708350e-01 3.857105e-02 -9.686402e-02 -2.098386e-01
<VARIANCE> 39
 6.407620e+01 2.974765e+01 4.613387e+01 6.369086e+01 4.461705e+01 5.064043e+01 4.636332e+01 4.871957e+01 3.221132e+01 3.562565e+01 3.147330e+01 4.278979e+01 2.749746e+01 3.842586e+00 2.519833e+00 2.373649e+00 2.512961e+00 3.249174e+00 2.951833e+00 3.109060e+00 2.873066e+00 2.690523e+00 2.667446e+00 2.245082e+00 2.134313e+00 1.423848e+00 9.554799e-01 4.353604e-01 3.390746e-01 5.764484e-01 6.602893e-01 5.756424e-01 5.150709e-01 5.978920e-01 5.830824e-01 4.609274e-01 4.142956e-01 4.529440e-01 1.761077e-01
<GCONST> 1.232455e+02
<STATE> 4
<MEAN> 39
 2.178378e-01 -6.142708e+00 -1.303440e+01 -1.324107e+01 -1.032969e+01 -1.811861e+00 4.092272e+00 -2.905410e+00 -4.620470e+00 -9.262884e-01 -3.946943e-01 -3.572716e+00 7.236647e+01 2.626622e-01 -1.417927e+00 -1.575616e-01 8.050853e-02 5.595735e-01 5.411301e-01 4.693419e-02 -3.226073e-01 6.445884e-02 7.566018e-01 -1.379140e-01 -6.432546e-01 6.407544e-01 -6.192673e-01 2.917502e-01 3.978152e-01 7.084033e-01 4.593932e-01 -8.926042e-02 -3.962724e-01 -4.706440e-02 3.166164e-01 1.438030e-02 -1.702333e-01 5.560852e-02 -5.049663e-01
<VARIANCE> 39
 4.321393e+01 3.984880e+01 4.400049e+01 5.485132e+01 4.467627e+01 5.659993e+01 5.041650e+01 5.296466e+01 3.754358e+01 4.014499e+01 3.926174e+01 4.390585e+01 3.546741e+01 2.119785e+00 1.907779e+00 1.430486e+00 1.837006e+00 2.233458e+00 3.011922e+00 2.591319e+00 2.507884e+00 2.757725e+00 2.551164e+00 2.242079e+00 1.956103e+00 1.055496e+00 6.354572e-01 3.240133e-01 2.941880e-01 4.589345e-01 6.003145e-01 4.351680e-01 5.093520e-01 5.435074e-01 4.332999e-01 4.486953e-01 3.842187e-01 3.884774e-01 1.638333e-01
<GCONST> 1.190480e+02
<TRANSP> 5
 0.000000e+00 1.000000e+00 0.000000e+00 0.000000e+00 0.000000e+00
 0.000000e+00 7.091889e-01 2.908111e-01 0.000000e+00 0.000000e+00
 0.000000e+00 0.000000e+00 2.368570e-01 7.631430e-01 0.000000e+00
 0.000000e+00 0.000000e+00 0.000000e+00 3.925264e-01 6.074736e-01
 0.000000e+00 0.000000e+00 0.000000e+00 0.000000e+00 0.000000e+00
<ENDHMM>
~h "h"
<BEGINHMM>
<NUMSTATES> 5
<STATE> 2
<MEAN> 39
 -5.909659e+00 -1.559052e+00 -4.488785e+00 -7.516591e+00 -4.926354e+00 -3.159194e+00 4.216721e+00 -8.947812e-01 -1.008415e+00 -1.367635e+00 -2.128264e+00 -3.051746e+00 6.694852e+01 7.935009e-01 9.388081e-01 5.898334e-01 -1.844842e-01 -1.002420e+00 -9.387196e-01 -2.799352e-01 -5.920484e-01 -7.781469e-01 -5.174356e-01 -3.277752e-01 -2.688653e-01 4.617981e-01 3.424045e-01 1.462259e-01 -4.636617e-02 -1.762106e-01 -4.397698e-01 -3.035240e-01 -2.707765e-01 -2.760181e-01 -1.692600e-01 -4.127920e-02 5.664834e-02 3.048228e-02 1.508044e-01
<VARIANCE> 39
 2.382995e+01 6.067527e+01 5.813025e+01 6.971688e+01 6.077616e+01 6.808250e+01 4.439500e+01 4.839226e+01 4.447547e+01 3.621399e+01 3.834227e+01 3.524867e+01 3.887602e+01 2.209301e+00 2.056113e+00 2.217298e+00 2.430903e+00 2.949934e+00 3.066495e+00 2.745242e+00 3.042952e+00 2.751496e+00 2.228710e+00 2.502188e+00 2.268034e+00 1.074038e+00 1.891074e-01 3.513201e-01 2.828571e-01 3.674779e-01 3.858856e-01 4.563456e-01 4.431100e-01 5.072815e-01 4.803339e-01 4.023704e-01 4.249920e-01 4.006626e-01 1.074901e-01
<GCONST> 1.188100e+02
<STATE> 3
<MEAN> 39
 -2.191595e-01 8.950716e-01 -4.422558e+00 -9.927231e+00 -1.157029e+01 -8.987692e+00 6.390971e-01 -4.163729e+00 -3.504803e+00 -2.806536e+00 -4.005044e+00 -4.569955e+00 7.089720e+01 7.567027e-01 -8.113243e-02 -4.020435e-02 -7.322775e-01 -1.618299e+00 -8.725143e-01 -5.610634e-01 -6.708562e-01 -4.971558e-01 -1.630914e-01 5.201990e-01 3.570004e-01 7.738999e-01 -3.389908e-01 -2.990298e-01 -8.499433e-02 1.405570e-01 3.090689e-01 3.565677e-01 8.579315e-02 2.795345e-02 1.435082e-01 1.699580e-01 2.935424e-01 1.542725e-01 -1.773630e-01
<VARIANCE> 39
 2.069946e+01 6.754351e+01 7.129381e+01 7.717719e+01 7.701563e+01 7.235194e+01 5.269564e+01 5.167859e+01 4.869865e+01 4.467421e+01 4.291447e+01 4.080835e+01 4.406224e+01 1.366488e+00 2.196168e+00 2.264905e+00 2.580601e+00 3.280136e+00 3.381228e+00 3.364340e+00 3.032900e+00 3.142094e+00 2.280184e+00 2.342293e+00 2.057263e+00 1.521232e+00 2.401550e-01 4.013822e-01 2.668450e-01 3.743247e-01 4.986068e-01 4.775851e-01 5.269618e-01 5.223771e-01 5.219477e-01 4.359032e-01 4.330346e-01 3.555392e-01 1.589725e-01
<GCONST> 1.220028e+02
<STATE> 4
<MEAN> 39
 -4.673408e-01 1.018561e+00 -2.685978e+00 -9.113638e+00 -1.386704e+01 -9.579645e+00 4.718174e-01 -6.346328e+00 -5.575930e+00 -3.506189e+00 -6.327132e-01 -3.141007e+00 7.079601e+01 3.095682e-02 -1.010614e-01 1.509726e-01 1.038078e-01 -3.580275e-01 -1.321868e-01 -3.781905e-01 -6.336540e-01 -3.897117e-01 1.311060e-01 7.285861e-01 2.025751e-01 6.445150e-02 -9.539275e-02 -9.424105e-03 1.010675e-02 2.306455e-01 2.819563e-01 3.556122e-02 -8.016855e-02 4.889632e-02 1.451600e-01 7.216564e-02 -8.694746e-02 -1.400908e-01 -1.107912e-01
<VARIANCE> 39
 2.210773e+01 4.703896e+01 8.913850e+01 9.327077e+01 6.954098e+01 7.245682e+01 6.017485e+01 6.708248e+01 5.305660e+01 4.586881e+01 4.310304e+01 4.193448e+01 3.135357e+01 3.476652e-01 1.306054e+00 1.373270e+00 1.318510e+00 2.425457e+00 1.830068e+00 1.972080e+00 2.247146e+00 2.082850e+00 1.877296e+00 2.250740e+00 1.605206e+00 4.387978e-01 8.541439e-02 1.634088e-01 1.923714e-01 2.569458e-01 3.186063e-01 3.736900e-01 4.012600e-01 3.775450e-01 3.863659e-01 3.325706e-01 3.584639e-01 3.296992e-01 7.786028e-02
<GCONST> 1.097932e+02
<TRANSP> 5
 0.000000e+00 1.000000e+00 0.000000e+00 0.000000e+00 0.000000e+00
 0.000000e+00 6.479468e-01 3.520532e-01 0.000000e+00 0.000000e+00
 0.000000e+00 0.000000e+00 4.556195e-01 5.443805e-01 0.000000e+00
 0.000000e+00 0.000000e+00 0.000000e+00 5.754641e-01 4.245359e-01
 0.000000e+00 0.000000e+00 0.000000e+00 0.000000e+00 0.000000e+00
<ENDHMM>
~h "i"
<BEGINHMM>
<NUMSTATES> 5
<STATE> 2
<MEAN> 39
 -8.273005e+00 8.730291e-01 3.996451e+00 -9.659338e-02 -9.065120e+00 -1.053563e+01 -1.748523e+00 -5.807963e+00 -2.984895e+00 -4.242223e+00 4.444678e-01 -1.963694e+00 6.683614e+01 -4.461404e-02 5.205240e-01 9.990131e-01 4.834442e-01 -1.317734e-01 -3.183863e-01 2.167343e-01 -1.024040e-01 -5.038048e-01 -5.435576e-01 -2.497850e-02 1.434838e-02 -1.024376e-01 2.759865e-01 1.064252e-01 -1.110444e-01 9.722107e-02 1.530287e-02 -8.406232e-02 -1.585383e-01 -2.611286e-02 -1.093290e-01 -7.348835e-02 -1.269073e-01 -3.626118e-02 -5.061898e-02
<VARIANCE> 39
 5.453853e+01 3.321173e+01 4.379113e+01 5.120388e+01 7.537766e+01 7.300140e+01 5.174761e+01 4.738698e+01 5.135492e+01 4.099500e+01 3.074279e+01 3.000905e+01 3.031947e+01 2.378591e+00 1.960279e+00 2.329032e+00 2.411144e+00 3.250481e+00 3.453847e+00 2.517524e+00 2.827885e+00 2.807697e+00 2.509824e+00 2.098515e+00 1.959028e+00 1.413443e+00 3.639458e-01 2.930475e-01 3.675338e-01 4.030907e-01 6.230844e-01 6.996883e-01 4.987487e-01 4.826492e-01 5.138035e-01 4.818016e-01 4.023730e-01 3.636859e-01 2.155915e-01
<GCONST> 1.213073e+02
<STATE> 3
<MEAN> 39
 -4.687415e+00 2.901880e+00 6.662814e+00 2.358644e+00 -1.213809e+01 -1.344716e+01 -3.132105e+00 -7.528155e+00 -6.105974e+00 -7.032267e+00 -3.227183e-01 -2.717407e+00 6.743361e+01 5.036426e-01 5.296677e-01 3.979307e-01 5.533828e-01 -4.429643e-01 -7.489871e-01 -1.483277e-01 -7.912526e-02 -6.683355e-01 -6.788374e-01 -1.116962e-01 1.825662e-01 -1.589244e-01 -4.894043e-02 -1.720009e-01 -4.935619e-01 -1.958216e-01 2.640859e-01 2.152134e-01 -8.238695e-02 1.502838e-01 2.637548e-01 2.548979e-01 -2.689773e-02 3.605633e-02 -8.346070e-02
<VARIANCE> 39
 2.100097e+01 3.284857e+01 4.680878e+01 5.082199e+01 7.773035e+01 5.914426e+01 4.706740e+01 4.924390e+01 4.985017e+01 3.632424e+01 3.131274e+01 3.307905e+01 2.567414e+01 1.980913e+00 1.578410e+00 2.164666e+00 1.799430e+00 3.731747e+00 4.055543e+00 2.677284e+00 3.052942e+00 2.886170e+00 2.546271e+00 2.225050e+00 1.904606e+00 1.256424e+00 1.896841e-01 2.367848e-01 2.845720e-01 3.174843e-01 5.555381e-01 5.589707e-01 4.768640e-01 4.873932e-01 4.729749e-01 4.321820e-01 4.101024e-01 3.534416e-01 1.412921e-01
<GCONST> 1.172323e+02
<STATE> 4
<MEAN> 39
 -4.086740e+00 3.666694e+00 6.217507e+00 4.359341e+00 -1.099867e+01 -1.555965e+01 -3.436721e+00 -7.269944e+00 -6.399599e+00 -7.972838e+00 -7.293233e-01 -1.590556e+00 6.687774e+01 1.337434e-01 1.114786e-01 -7.915935e-01 -1.676002e-01 7.291740e-01 6.398196e-01 -3.071454e-01 2.158453e-01 2.470692e-01 3.558305e-01 -4.974841e-02 1.126147e-02 -5.381453e-01 -4.731666e-02 -6.519128e-02 -2.358164e-01 -2.327729e-01 1.752564e-01 3.695787e-01 1.997307e-02 4.643789e-04 1.090158e-01 2.081717e-01 1.412757e-02 -5.323381e-02 -6.039521e-02
<VARIANCE> 39
 1.832512e+01 3.177474e+01 4.101229e+01 4.634391e+01 7.010931e+01 5.756923e+01 5.184857e+01 4.972785e+01 5.277996e+01 3.725219e+01 3.494125e+01 3.164320e+01 2.698638e+01 8.113439e-01 1.061717e+00 2.022264e+00 1.489472e+00 2.517457e+00 3.359656e+00 2.357278e+00 2.549296e+00 2.764482e+00 2.355619e+00 1.886332e+00 1.567272e+00 8.428082e-01 1.151663e-01 1.778920e-01 2.541669e-01 2.683684e-01 4.185604e-01 5.206290e-01 4.384115e-01 4.579546e-01 4.720997e-01 4.195786e-01 3.690892e-01 3.059493e-01 1.283499e-01
<GCONST> 1.117524e+02
<TRANSP> 5
 0.000000e+00 1.000000e+00 0.000000e+00 0.000000e+00 0.000000e+00
 0.000000e+00 3.851418e-01 6.148582e-01 0.000000e+00 0.000000e+00
 0.000000e+00 0.000000e+00 2.811524e-01 7.188476e-01 0.000000e+00
 0.000000e+00 0.000000e+00 0.000000e+00 6.703120e-01 3.296880e-01
 0.000000e+00 0.000000e+00 0.000000e+00 0.000000e+00 0.000000e+00
<ENDHMM>
~h "k"
<BEGINHMM>
<NUMSTATES> 5
<STATE> 2
<MEAN> 39
 -7.026334e+00 -1.361526e+00 -5.814683e+00 -6.912254e+00 -5.041175e+00 -5.466194e+00 -3.620988e+00 -5.384042e+00 -8.925434e-01 -2.668838e+00 5.760058e-01 -2.011283e+00 6.661889e+01 1.383105e+00 2.214113e-01 5.436448e-01 -9.693024e-02 -1.061258e+00 -9.433538e-01 -2.586433e-01 -5.779181e-01 -5.629998e-01 -2.164543e-01 -3.715671e-01 -7.152901e-01 1.059492e+00 2.204092e-01 -1.719727e-02 -8.447610e-03 -3.518476e-02 -3.605625e-01 -2.023780e-01 3.480126e-02 3.395411e-02 -4.357780e-02 4.871848e-02 5.479064e-02 2.520136e-02 7.322240e-02
<VARIANCE> 39
 4.249619e+01 5.806080e+01 6.688373e+01 6.331144e+01 6.912605e+01 6.810442e+01 5.800583e+01 4.916312e+01 5.237054e+01 4.475021e+01 4.219189e+01 3.676522e+01 4.192092e+01 4.523985e+00 4.422252e+00 4.682977e+00 4.781158e+00 5.968111e+00 5.494977e+00 5.004610e+00 5.009784e+00 4.672101e+00 4.085091e+00 3.768440e+00 3.030205e+00 2.005049e+00 6.592395e-01 8.138536e-01 7.441065e-01 7.183182e-01 8.868262e-01 8.603048e-01 8.219792e-01 8.127140e-01 7.904138e-01 6.842113e-01 6.704690e-01 5.397049e-01 4.308856e-01
<GCONST> 1.375942e+02
<STATE> 3
<MEAN> 39
 -8.731011e-01 -1.780844e+00 -4.644965e+00 -8.738414e+00 -1.150986e+01 -1.009346e+01 -3.955559e+00 -5.924594e+00 -2.861713e+00 -2.536228e+00 5.156755e-01 -4.151847e+00 7.136472e+01 7.373223e-01 -6.102387e-01 -2.257705e-01 -4.939394e-01 -1.365050e+00 -3.695416e-01 5.365795e-01 1.901685e-01 -1.761348e-01 3.556296e-01 2.838893e-01 -6.229457e-02 6.697461e-01 -5.757601e-01 -1.078040e-01 -1.238218e-01 1.558896e-01 5.359986e-01 4.360631e-01 1.091109e-01 7.335966e-02 2.048729e-01 8.075915e-02 8.492777e-02 1.818713e-01 -3.171100e-01
<VARIANCE> 39
 2.665471e+01 6.120797e+01 7.645599e+01 6.546960e+01 6.974592e+01 8.370363e+01 5.695709e+01 5.493943e+01 5.829206e+01 5.337678e+01 5.027130e+01 4.367199e+01 4.121041e+01 1.644799e+00 1.930100e+00 2.649364e+00 2.504081e+00 3.181070e+00 3.892294e+00 3.387021e+00 3.367651e+00 3.249705e+00 2.849744e+00 2.545578e+00 2.216816e+00 9.631929e-01 3.373894e-01 4.249404e-01 4.158555e-01 4.754785e-01 5.958862e-01 6.298540e-01 6.254358e-01 7.680725e-01 6.440302e-01 6.242896e-01 5.223233e-01 4.453254e-01 1.712335e-01
<GCONST> 1.262750e+02
<STATE> 4
<MEAN> 39
 -1.286047e+00 -1.486375e+00 -3.823712e+00 -8.184514e+00 -1.213377e+01 -9.576160e+00 -3.121519e+00 -5.660588e+00 -2.543801e+00 -2.277223e+00 8.904825e-01 -3.798114e+00 7.071656e+01 6.527033e-02 -1.316305e-01 -1.519804e-02 8.481104e-02 -3.149348e-01 1.253810e-01 4.016898e-01 1.260907e-02 -5.520952e-02 2.059825e-01 4.082453e-02 1.150707e-02 -2.634349e-02 -2.880841e-01 1.392974e-01 6.460460e-02 2.454596e-01 4.638423e-01 1.713927e-01 -9.103137e-02 -1.767082e-02 5.595676e-02 -8.305509e-02 -6.888815e-02 8.219461e-02 -2.868660e-01
<VARIANCE> 39
 3.095576e+01 6.585484e+01 8.853443e+01 7.628524e+01 7.414040e+01 7.963545e+01 5.896741e+01 5.774694e+01 6.245220e+01 5.766356e+01 5.258157e+01 4.532933e+01 3.930787e+01 7.079273e-01 1.289335e+00 1.536982e+00 1.774220e+00 2.161265e+00 2.334947e+00 2.192918e+00 2.228523e+00 2.371920e+00 2.115525e+00 1.855203e+00 1.713201e+00 6.846323e-01 2.677482e-01 3.140028e-01 3.581121e-01 3.849917e-01 4.760749e-01 5.484228e-01 5.105728e-01 5.620726e-01 5.294368e-01 4.748834e-01 4.238595e-01 3.493151e-01 1.575497e-01
<GCONST> 1.188885e+02
<TRANSP> 5
 0.000000e+00 1.000000e+00 0.000000e+00 0.000000e+00 0.000000e+00
 0.000000e+00 7.449281e-01 2.550719e-01 0.000000e+00 0.000000e+00
 0.000000e+00 0.000000e+00 3.303763e-01 6.696237e-01 0.000000e+00
 0.000000e+00 0.000000e+00 0.000000e+00 2.214299e-01 7.785701e-01
 0.000000e+00 0.000000e+00 0.000000e+00 0.000000e+00 0.000000e+00
<ENDHMM>
~h "m"
<BEGINHMM>
<NUMSTATES> 5
<STATE> 2
<MEAN> 39
 9.661635e-01 6.664990e+00 -1.026480e+00 -1.286373e+00 -5.207044e+00 -5.665998e+00 -1.813371e+00 -6.823205e+00 -1.032326e+01 -1.023116e+01 -4.301856e+00 -2.177019e+00 6.474422e+01 5.179571e-01 -4.496033e-01 -1.181840e+00 -1.439760e+00 -9.437659e-01 -2.910322e-02 5.260776e-01 -1.225807e-01 5.106044e-01 5.373399e-01 9.143984e-02 -3.903778e-02 8.435873e-01 3.210271e-03 -3.910238e-01 -4.688886e-01 -5.038761e-01 -2.787173e-01 9.298074e-02 2.057024e-01 7.167007e-02 5.142677e-01 5.817590e-01 1.878748e-01 -1.066493e-01 2.458298e-01
<VARIANCE> 39
 8.612567e+00 2.837648e+01 3.135984e+01 3.334812e+01 5.132140e+01 3.456413e+01 6.178527e+01 4.327213e+01 4.134148e+01 3.502885e+01 3.317994e+01 3.298678e+01 1.796750e+01 6.121235e-01 1.292039e+00 2.251038e+00 3.258442e+00 2.688366e+00 2.215157e+00 2.572491e+00 2.399885e+00 3.404875e+00 3.504965e+00 2.401727e+00 1.790112e+00 7.466105e-01 9.422424e-02 2.022770e-01 2.663525e-01 4.164920e-01 4.069242e-01 4.328033e-01 4.720320e-01 4.479643e-01 5.345606e-01 4.938266e-01 5.034180e-01 3.903857e-01 9.553923e-02
<GCONST> 1.109171e+02
<STATE> 3
<MEAN> 39
 3.248111e+00 1.227864e+00 -1.012993e+01 -1.223373e+01 -1.184645e+01 -4.318628e+00 2.636053e+00 -6.031131e+00 -4.535761e+00 -3.328068e+00 -2.380706e+00 -3.167203e+00 7.004108e+01 1.328905e-01 -1.978901e+00 -1.954900e+00 -2.004384e+00 -6.442127e-01 1.112112e+00 1.230727e+00 -3.946451e-02 1.424512e+00 1.826688e+00 4.369350e-01 -7.041966e-01 1.418248e+00 -2.743526e-01 2.453320e-02 6.498980e-01 9.002734e-01 5.910609e-01 -2.183572e-02 -3.951869e-01 -1.725903e-02 -2.644663e-01 -3.389080e-01 -1.138331e-01 -1.061609e-01 -2.665279e-01
<VARIANCE> 39
 7.754127e+00 4.621992e+01 3.603660e+01 4.137704e+01 4.832737e+01 5.306966e+01 6.653788e+01 6.390287e+01 3.980787e+01 4.070912e+01 3.837226e+01 4.091272e+01 2.214198e+01 6.611829e-01 1.794101e+00 2.164975e+00 4.146175e+00 4.305373e+00 4.444726e+00 4.092810e+00 4.148348e+00 5.411487e+00 4.479499e+00 4.661873e+00 3.462639e+00 7.948234e-01 7.051667e-02 2.634290e-01 3.121313e-01 4.535764e-01 5.212624e-01 6.862587e-01 6.694425e-01 5.935240e-01 6.530066e-01 5.703571e-01 5.576469e-01 4.464998e-01 1.075099e-01
<GCONST> 1.203064e+02
<STATE> 4
<MEAN> 39
 2.094268e+00 -2.940234e+00 -1.149868e+01 -1.261012e+01 -1.028298e+01 -1.761744e+00 3.017742e+00 -6.627917e+00 -3.185848e+00 -2.180376e+00 -2.406660e+00 -6.049185e+00 7.226520e+01 -2.652186e-01 -8.559302e-01 1.948752e-02 2.936867e-01 2.648283e-01 -1.154969e-02 -3.505556e-01 3.910754e-02 5.065548e-01 4.315973e-01 1.149152e-01 -4.000075e-01 3.608872e-01 -4.422349e-02 4.320816e-01 4.935249e-01 4.739565e-01 5.541783e-02 -4.195316e-01 -3.839467e-01 9.968499e-02 -2.068412e-01 -3.381727e-01 -7.199850e-02 2.487926e-01 -3.496393e-01
<VARIANCE> 39
 1.013044e+01 5.571603e+01 3.838132e+01 4.595444e+01 5.786948e+01 6.673836e+01 8.080215e+01 7.887642e+01 4.963563e+01 5.298276e+01 5.708526e+01 4.882089e+01 2.407652e+01 3.056337e-01 9.984279e-01 1.043656e+00 1.753809e+00 2.043133e+00 3.189299e+00 2.734041e+00 2.558280e+00 3.103162e+00 2.489643e+00 2.463302e+00 2.159311e+00 3.521120e-01 8.239917e-02 2.324815e-01 3.066361e-01 3.397878e-01 4.544048e-01 4.880533e-01 5.114863e-01 5.371202e-01 5.505899e-01 6.224941e-01 5.558473e-01 4.326100e-01 1.050587e-01
<GCONST> 1.136408e+02
<TRANSP> 5
 0.000000e+00 1.000000e+00 0.000000e+00 0.000000e+00 0.000000e+00
 0.000000e+00 7.453746e-01 2.546254e-01 0.000000e+00 0.000000e+00
 0.000000e+00 0.000000e+00 5.524644e-01 4.475356e-01 0.000000e+00
 0.000000e+00 0.000000e+00 0.000000e+00 5.035984e-01 4.964016e-01
 0.000000e+00 0.000000e+00 0.000000e+00 0.000000e+00 0.000000e+00
<ENDHMM>
~h "n"
<BEGINHMM>
<NUMSTATES> 5
<STATE> 2
<MEAN> 39
 1.494738e+00 4.854842e+00 -1.324583e+00 -8.921055e-01 -7.065838e+00 -8.839373e+00 -7.096473e+00 -7.535394e+00 -7.230248e+00 -5.207805e+00 -2.739525e+00 -4.470956e+00 6.472652e+01 -2.171231e-02 3.840075e-01 1.272299e-01 1.861010e-01 4.511636e-01 -1.643055e-01 -3.568620e-01 -7.748441e-02 -2.707659e-01 -8.059407e-02 2.013228e-01 -1.068016e-01 -2.491448e-01 5.894657e-03 -4.242667e-01 -3.932666e-01 -2.880199e-01 -2.811084e-01 1.684490e-02 2.378759e-01 5.534749e-02 3.384984e-01 1.983531e-01 1.093798e-02 5.981271e-02 3.330187e-01
<VARIANCE> 39
 7.790795e+00 2.710923e+01 2.860247e+01 3.568800e+01 4.112429e+01 3.561483e+01 5.073961e+01 3.368212e+01 3.684302e+01 4.060544e+01 2.720563e+01 3.434969e+01 1.765114e+01 2.489144e-01 1.084679e+00 1.566256e+00 1.413340e+00 1.557338e+00 1.515394e+00 1.862050e+00 1.721604e+00 1.969025e+00 1.831362e+00 1.364569e+00 1.427018e+00 3.954013e-01 5.031907e-02 1.789758e-01 2.619818e-01 2.760307e-01 3.494211e-01 3.297705e-01 4.521994e-01 4.119525e-01 4.219120e-01 3.975268e-01 3.240735e-01 3.553696e-01 5.871805e-02
<GCONST> 1.002830e+02
<STATE> 3
<MEAN> 39
 1.266973e+00 9.163264e-01 -5.769819e+00 -2.853020e+00 -8.180700e+00 -8.950322e+00 -5.411777e+00 -7.927285e+00 -4.825322e+00 -2.285950e+00 -1.859585e+00 -4.410788e+00 6.760139e+01 -6.360573e-02 -1.230206e+00 -1.424870e+00 -1.279022e+00 -1.144544e+00 3.373902e-01 1.456728e+00 4.717668e-01 1.236643e+00 7.571568e-01 -2.662665e-01 -2.840751e-02 1.127682e+00 -4.264891e-02 1.496087e-01 9.451766e-02 -1.748877e-01 -1.922673e-01 8.744991e-02 3.096282e-01 2.477987e-01 6.365849e-02 -7.329065e-02 -1.018542e-01 -3.727480e-02 -5.855570e-02
<VARIANCE> 39
 1.181120e+01 4.339885e+01 4.865965e+01 4.651355e+01 6.100394e+01 4.622522e+01 6.276720e+01 4.906216e+01 6.377582e+01 5.306791e+01 3.999963e+01 4.297781e+01 2.581984e+01 5.373991e-01 2.379570e+00 3.124346e+00 3.273077e+00 3.890781e+00 3.817953e+00 5.205056e+00 3.990289e+00 4.862041e+00 4.052238e+00 3.340051e+00 3.614869e+00 6.739424e-01 6.405552e-02 4.907724e-01 6.292782e-01 5.426971e-01 6.906552e-01 5.976520e-01 8.639325e-01 6.402110e-01 9.564555e-01 6.851539e-01 5.727601e-01 5.425416e-01 2.294288e-01
<GCONST> 1.247509e+02
<STATE> 4
<MEAN> 39
 1.676605e-01 6.554381e-01 -5.842777e+00 -7.331562e+00 -1.375196e+01 -8.382917e+00 5.619669e-02 -3.944643e+00 -2.612577e+00 -2.914040e+00 -3.086817e+00 -3.971333e+00 6.921355e+01 -1.395295e-01 2.276475e-01 1.135657e-01 -3.198053e-01 -3.825030e-01 1.881598e-02 5.317165e-01 4.852145e-01 1.555179e-01 -6.819632e-03 -6.842345e-02 -4.324074e-02 -1.641436e-01 -8.515033e-03 1.494506e-01 2.032260e-01 2.138119e-01 2.306471e-01 -3.571067e-02 -3.079606e-01 -1.131492e-01 -1.305352e-01 -7.032436e-02 8.713645e-02 4.111332e-02 -1.930743e-01
<VARIANCE> 39
 1.746807e+01 5.432454e+01 6.135516e+01 5.009422e+01 7.675909e+01 6.011223e+01 5.582055e+01 5.608788e+01 5.655047e+01 5.820158e+01 5.741000e+01 4.151020e+01 2.681521e+01 2.122812e-01 9.011682e-01 1.144887e+00 1.580813e+00 2.008817e+00 1.932941e+00 2.214551e+00 2.160867e+00 2.677702e+00 1.987270e+00 2.123278e+00 1.495869e+00 3.465223e-01 5.334308e-02 1.886431e-01 2.670150e-01 3.208035e-01 3.783488e-01 3.754141e-01 4.575417e-01 3.666135e-01 4.920545e-01 3.973264e-01 4.012796e-01 3.291389e-01 7.518910e-02
<GCONST> 1.088048e+02
<TRANSP> 5
 0.000000e+00 1.000000e+00 0.000000e+00 0.000000e+00 0.000000e+00
 0.000000e+00 7.679415e-01 2.320585e-01 0.000000e+00 0.000000e+00
 0.000000e+00 0.000000e+00 7.073379e-01 2.926621e-01 0.000000e+00
 0.000000e+00 0.000000e+00 0.000000e+00 6.426881e-01 3.573119e-01
 0.000000e+00 0.000000e+00 0.000000e+00 0.000000e+00 0.000000e+00
<ENDHMM>
~h "o"
<BEGINHMM>
<NUMSTATES> 5
<STATE> 2
<MEAN> 39
 2.486681e+00 5.237774e+00 -7.620953e+00 -1.188668e+01 -1.456823e+01 -8.175901e+00 1.284409e+00 -4.291335e+00 -4.197824e+00 -2.665652e+00 -1.310971e+00 -1.746292e+00 6.700135e+01 -1.015849e-01 2.219889e-01 2.638688e-01 2.830369e-01 2.378552e-01 2.362623e-01 2.199950e-01 1.286272e-01 2.097609e-02 -1.302321e-01 -2.332301e-01 -4.928604e-02 -3.784153e-01 -2.052694e-01 -1.987833e-01 9.664994e-02 3.442330e-01 4.616580e-01 1.226509e-01 -1.543755e-01 -5.507696e-02 1.751379e-03 -3.482426e-02 2.136019e-02 -4.441818e-02 -6.170370e-02
<VARIANCE> 39
 1.234103e+01 4.204487e+01 2.887601e+01 4.426086e+01 6.062306e+01 4.544521e+01 5.501537e+01 5.031601e+01 4.850830e+01 3.761782e+01 3.997337e+01 3.512171e+01 2.437801e+01 7.914482e-01 1.293327e+00 1.531436e+00 2.788323e+00 3.737818e+00 2.686322e+00 3.023280e+00 2.804077e+00 2.950452e+00 2.712466e+00 2.454248e+00 1.855570e+00 8.048936e-01 1.211703e-01 1.972889e-01 2.498102e-01 3.767744e-01 5.636827e-01 4.875983e-01 5.323576e-01 4.763587e-01 5.134000e-01 5.065361e-01 4.548090e-01 3.884613e-01 9.397613e-02
<GCONST> 1.139715e+02
<STATE> 3
<MEAN> 39
 1.731255e+00 4.902302e+00 -7.291745e+00 -1.044435e+01 -1.258049e+01 -6.974030e+00 1.356712e+00 -4.265132e+00 -4.288124e+00 -3.100440e+00 -1.532558e+00 -1.826037e+00 6.613654e+01 -4.659230e-01 -2.760670e-01 2.888605e-01 8.512909e-01 1.082850e+00 4.080410e-01 -1.696968e-01 -7.499776e-02 -3.282213e-02 -1.167459e-01 3.615566e-03 3.383396e-02 -4.240189e-01 -1.255607e-01 -1.500413e-01 6.308070e-02 2.073578e-01 2.073313e-01 -3.069441e-02 -2.184123e-01 -8.691782e-02 7.589048e-03 2.869698e-02 5.477055e-02 -2.507873e-02 8.032398e-03
<VARIANCE> 39
 1.365996e+01 3.940705e+01 2.908831e+01 4.718519e+01 5.607264e+01 4.428873e+01 5.492756e+01 4.827686e+01 4.738093e+01 3.642394e+01 4.026585e+01 3.438223e+01 2.627860e+01 8.771335e-01 1.370991e+00 1.879336e+00 2.976428e+00 3.643310e+00 3.141841e+00 3.222203e+00 2.902548e+00 3.162075e+00 2.618359e+00 2.678806e+00 2.217920e+00 7.992972e-01 1.180659e-01 2.181360e-01 2.764949e-01 4.059861e-01 6.343865e-01 4.787512e-01 5.136933e-01 4.741180e-01 5.273718e-01 5.104731e-01 4.805220e-01 3.891072e-01 1.302321e-01
<GCONST> 1.156190e+02
<STATE> 4
<MEAN> 39
 -1.404612e-01 3.674392e+00 -7.065300e+00 -8.546667e+00 -9.363168e+00 -5.667853e+00 6.369151e-01 -4.648068e+00 -4.306681e+00 -3.242041e+00 -1.220195e+00 -1.694125e+00 6.510334e+01 -5.805918e-01 -4.241590e-01 3.617689e-01 9.565406e-01 1.059663e+00 2.327792e-01 -4.911293e-01 -2.356632e-01 -1.298524e-03 -1.907460e-02 5.099264e-02 -3.579864e-02 -3.478005e-01 5.832075e-02 2.505008e-02 5.976067e-02 -2.085990e-02 -2.059536e-01 -1.848164e-01 -9.815788e-02 7.134099e-04 1.268912e-02 -6.764164e-03 -1.766448e-02 -5.479471e-02 9.191168e-02
<VARIANCE> 39
 2.092607e+01 3.974559e+01 3.227043e+01 4.866307e+01 5.179493e+01 4.824821e+01 5.848841e+01 5.076828e+01 4.905202e+01 3.544954e+01 3.829123e+01 3.040944e+01 3.635843e+01 9.448292e-01 1.651091e+00 2.016882e+00 3.172092e+00 3.623939e+00 3.394467e+00 3.595944e+00 3.106143e+00 3.084509e+00 2.659555e+00 2.437197e+00 2.186423e+00 9.434696e-01 1.773119e-01 2.843160e-01 3.560634e-01 4.244447e-01 6.268928e-01 5.449486e-01 5.296115e-01 5.675701e-01 5.720689e-01 4.812726e-01 5.259238e-01 3.931639e-01 1.880996e-01
<GCONST> 1.189470e+02
<TRANSP> 5
 0.000000e+00 1.000000e+00 0.000000e+00 0.000000e+00 0.000000e+00
 0.000000e+00 3.863760e-01 6.136240e-01 0.000000e+00 0.000000e+00
 0.000000e+00 0.000000e+00 3.143423e-01 6.856577e-01 0.000000e+00
 0.000000e+00 0.000000e+00 0.000000e+00 4.356335e-01 5.643666e-01
 0.000000e+00 0.000000e+00 0.000000e+00 0.000000e+00 0.000000e+00
<ENDHMM>
~h "p"
<BEGINHMM>
<NUMSTATES> 5
<STATE> 2
<MEAN> 39
 -4.431181e+00 -6.714846e-02 -7.325219e+00 -9.297822e+00 -6.087451e+00 -4.868167e+00 9.391642e-01 -4.112051e+00 -2.807651e+00 -3.604147e+00 -1.797184e+00 -2.335387e+00 6.742690e+01 1.731103e+00 5.696791e-01 -2.260988e-01 -1.199038e+00 -1.436349e+00 -8.325253e-01 1.402966e-01 -7.492412e-01 -9.990357e-01 -6.442449e-01 -2.968451e-01 -3.309999e-01 1.570720e+00 9.708174e-02 5.520430e-02 4.426477e-02 5.406173e-02 -2.224322e-01 -1.932674e-02 -1.617789e-01 4.096697e-02 5.697256e-02 1.896865e-01 1.683882e-01 8.158749e-02 -1.479986e-01
<VARIANCE> 39
 3.655980e+01 4.687025e+01 3.173548e+01 5.312144e+01 6.303207e+01 6.097937e+01 5.491094e+01 3.989298e+01 3.730941e+01 3.398052e+01 2.923519e+01 2.567573e+01 3.655258e+01 3.546582e+00 6.126884e+00 2.683645e+00 3.684243e+00 6.433929e+00 4.480465e+00 4.508456e+00 3.962195e+00 3.374588e+00 3.585626e+00 3.146518e+00 2.328811e+00 2.998531e+00 7.948727e-01 1.165867e+00 4.359874e-01 6.601043e-01 1.127190e+00 8.280118e-01 7.574956e-01 7.449259e-01 6.405410e-01 6.336764e-01 5.224718e-01 4.136829e-01 5.691881e-01
<GCONST> 1.321015e+02
<STATE> 3
<MEAN> 39
 7.948545e-01 -2.513472e+00 -8.375883e+00 -1.463062e+01 -1.206219e+01 -7.239604e+00 2.201269e+00 -2.903251e+00 -3.886053e+00 -3.183798e+00 -6.705123e-01 -3.149508e+00 7.477190e+01 2.328420e-01 -3.598686e-01 1.838481e-02 8.797535e-02 -4.240219e-01 -3.710347e-01 -6.196063e-01 -4.564339e-01 2.717579e-01 5.472923e-01 3.656371e-01 -1.619716e-01 3.485759e-01 -3.755578e-01 -4.367330e-02 1.455254e-01 4.282477e-01 4.165757e-01 2.989703e-02 -1.859071e-01 6.689995e-02 3.158395e-01 1.168689e-01 -7.219198e-02 -1.644296e-02 -3.450425e-01
<VARIANCE> 39
 1.467131e+01 7.098809e+01 3.133737e+01 4.420429e+01 5.670332e+01 8.027202e+01 9.687481e+01 7.492306e+01 6.532677e+01 5.310503e+01 4.698349e+01 4.189459e+01 4.773697e+01 9.557379e-01 3.009891e+00 1.056635e+00 2.034856e+00 2.801400e+00 2.803381e+00 4.279686e+00 2.985548e+00 3.762955e+00 3.176449e+00 2.481717e+00 2.341833e+00 1.239243e+00 2.741410e-01 5.241958e-01 2.976800e-01 4.267379e-01 6.256505e-01 5.894408e-01 8.083776e-01 6.586804e-01 7.455959e-01 5.433320e-01 5.464501e-01 4.221926e-01 1.804023e-01
<GCONST> 1.239470e+02
<STATE> 4
<MEAN> 39
 2.005261e+00 -1.141186e+00 -8.781666e+00 -1.479311e+01 -1.269401e+01 -3.895510e+00 3.530739e-01 -5.703676e+00 -3.401082e+00 -2.412341e+00 -7.870936e-02 -4.146232e+00 7.288226e+01 -5.908178e-02 -1.928458e-01 1.443460e-01 5.808433e-01 1.299137e-01 -3.332368e-01 -6.943352e-01 -1.809132e-01 4.411426e-01 3.704587e-01 -4.421037e-02 -2.124205e-01 -5.891003e-02 -1.752131e-01 3.566882e-02 1.277284e-01 2.238770e-01 1.938532e-01 -3.118027e-02 -4.060543e-02 1.131798e-01 5.625575e-02 -1.168215e-01 -1.049288e-01 2.065607e-02 -1.663222e-01
<VARIANCE> 39
 9.401883e+00 8.099252e+01 5.838987e+01 5.352592e+01 7.789850e+01 9.188515e+01 7.580972e+01 5.867252e+01 6.118442e+01 6.188452e+01 5.488428e+01 3.861311e+01 2.900708e+01 3.094992e-01 1.085247e+00 9.881425e-01 1.679587e+00 1.782845e+00 2.267234e+00 2.388342e+00 2.058962e+00 2.141906e+00 1.793250e+00 2.050045e+00 1.625218e+00 4.007122e-01 1.098665e-01 2.612503e-01 2.112336e-01 2.376183e-01 4.458233e-01 3.956241e-01 3.614163e-01 3.656892e-01 3.696707e-01 3.871543e-01 4.190991e-01 3.276252e-01 8.439191e-02
<GCONST> 1.102380e+02
<TRANSP> 5
 0.000000e+00 1.000000e+00 0.000000e+00 0.000000e+00 0.000000e+00
 0.000000e+00 7.779458e-01 2.220542e-01 0.000000e+00 0.000000e+00
 0.000000e+00 0.000000e+00 5.414424e-01 4.585576e-01 0.000000e+00
 0.000000e+00 0.000000e+00 0.000000e+00 5.604913e-01 4.395088e-01
 0.000000e+00 0.000000e+00 0.000000e+00 0.000000e+00 0.000000e+00
<ENDHMM>
~h "r"
<BEGINHMM>
<NUMSTATES> 5
<STATE> 2
<MEAN> 39
 1.373694e-01 -3.841732e-01 -4.030410e+00 -1.801870e-01 -7.761358e+00 -1.164886e+01 -6.035179e+00 -8.579293e+00 -4.261714e+00 -2.837391e+00 -4.201545e-01 -2.652268e+00 6.804889e+01 -6.566685e-03 -2.394502e-01 6.754994e-04 4.820037e-01 -1.786125e-01 -3.021323e-01 -4.055388e-01 -3.287489e-01 -1.884162e-03 -2.007033e-01 1.752708e-01 1.008411e-01 1.643446e-01 7.413246e-02 5.620017e-02 -7.280501e-02 -2.983570e-01 -4.208962e-01 2.417774e-02 2.286398e-01 8.194152e-02 -1.175883e-02 6.644849e-03 6.118779e-02 3.590411e-04 1.017122e-01
<VARIANCE> 39
 1.930274e+01 3.930224e+01 6.047038e+01 5.931526e+01 7.059840e+01 5.969320e+01 4.981303e+01 4.832073e+01 4.285490e+01 4.747410e+01 3.643164e+01 3.575296e+01 2.785169e+01 1.647851e+00 2.421091e+00 3.546739e+00 3.967565e+00 7.227365e+00 5.354586e+00 4.358757e+00 3.962972e+00 3.879070e+00 4.411758e+00 3.550961e+00 3.070901e+00 1.468670e+00 2.894004e-01 4.404505e-01 5.162830e-01 5.409598e-01 1.145968e+00 9.873878e-01 7.992793e-01 7.929915e-01 7.075095e-01 7.707536e-01 6.884351e-01 6.061171e-01 2.943816e-01
<GCONST> 1.305182e+02
<STATE> 3
<MEAN> 39
 9.605831e-01 -1.153948e+00 -5.186777e+00 -1.718462e-03 -9.713257e+00 -1.224055e+01 -6.221254e+00 -8.352371e+00 -3.735164e+00 -2.704432e+00 3.217091e-01 -1.559264e+00 6.858282e+01 9.019190e-02 2.266323e-01 1.695782e-01 -2.394701e-01 -1.242649e+00 -1.413569e-01 5.192400e-01 1.477156e-01 -4.628680e-01 -4.886013e-01 3.385974e-01 3.571418e-01 1.172898e-01 -5.947605e-02 1.500546e-01 6.500000e-02 -2.467002e-01 3.502792e-02 2.574642e-01 2.956716e-01 1.579883e-01 -7.830290e-02 3.091115e-02 -1.259271e-03 -8.692269e-02 -1.018554e-01
<VARIANCE> 39
 1.528409e+01 3.856844e+01 6.488354e+01 5.235074e+01 7.685730e+01 6.181343e+01 5.620718e+01 5.040107e+01 5.062560e+01 4.297121e+01 3.740155e+01 3.915027e+01 2.321941e+01 1.047217e+00 1.715251e+00 2.650190e+00 2.823440e+00 4.182311e+00 4.197474e+00 3.547550e+00 3.154849e+00 4.090226e+00 3.468186e+00 3.086608e+00 2.904101e+00 8.959541e-01 1.550089e-01 2.435578e-01 3.703286e-01 3.206052e-01 8.341743e-01 6.764029e-01 6.376976e-01 5.705206e-01 6.722060e-01 5.478346e-01 5.260375e-01 5.261317e-01 1.447781e-01
<GCONST> 1.221286e+02
<STATE> 4
<MEAN> 39
 1.173240e+00 -2.717329e-01 -4.290041e+00 -2.564039e+00 -1.302364e+01 -1.185421e+01 -5.586562e+00 -8.041419e+00 -5.605192e+00 -4.469943e+00 8.713759e-01 -2.293305e+00 6.854729e+01 -1.078996e-01 3.493918e-01 1.653818e-01 -3.863694e-01 -2.748646e-01 3.442841e-01 4.775677e-01 1.918359e-01 -1.833171e-01 -1.737714e-01 1.711535e-02 1.164875e-02 -1.792608e-01 -8.460077e-02 2.877992e-02 2.215481e-02 3.986524e-03 2.687650e-01 1.053449e-01 -3.537562e-03 1.555363e-02 6.994088e-02 7.704028e-02 -8.802512e-02 -4.158245e-02 -9.496316e-02
<VARIANCE> 39
 1.412269e+01 3.885179e+01 6.357877e+01 6.255691e+01 7.085057e+01 5.982522e+01 5.395158e+01 4.401296e+01 4.509158e+01 4.328362e+01 3.747764e+01 3.651511e+01 2.153606e+01 4.565189e-01 9.355888e-01 1.316264e+00 1.570819e+00 2.387233e+00 2.078023e+00 2.190544e+00 2.001378e+00 2.070540e+00 2.142433e+00 1.878160e+00 1.843526e+00 4.963275e-01 7.945823e-02 1.507389e-01 2.187628e-01 2.222491e-01 4.114951e-01 3.821908e-01 3.564584e-01 3.496764e-01 3.908763e-01 3.730178e-01 3.553110e-01 3.215632e-01 7.783217e-02
<GCONST> 1.072232e+02
<TRANSP> 5
 0.000000e+00 1.000000e+00 0.000000e+00 0.000000e+00 0.000000e+00
 0.000000e+00 5.829902e-01 4.170098e-01 0.000000e+00 0.000000e+00
 0.000000e+00 0.000000e+00 2.614755e-01 7.385245e-01 0.000000e+00
 0.000000e+00 0.000000e+00 0.000000e+00 5.867634e-01 4.132366e-01
 0.000000e+00 0.000000e+00 0.000000e+00 0.000000e+00 0.000000e+00
<ENDHMM>
~h "t"
<BEGINHMM>
<NUMSTATES> 5
<STATE> 2
<MEAN> 39
 -1.347774e+01 -1.502776e+00 -3.440458e+00 -5.550552e+00 -3.920919e+00 -6.240541e+00 -2.814306e+00 -2.309839e+00 9.525242e-01 -2.053335e+00 2.265729e-01 -7.992622e-01 6.626054e+01 9.119122e-01 -2.305067e-02 3.404880e-01 -2.281746e-01 -5.003761e-01 -8.117262e-01 -3.674828e-01 -8.539301e-01 -2.916277e-01 -3.510538e-01 -4.251349e-01 -6.439181e-01 1.474574e+00 7.058741e-01 2.214703e-01 -4.791955e-02 5.640896e-02 -3.334401e-01 -6.806864e-02 -9.920426e-02 -2.417213e-01 -2.736704e-01 3.580123e-02 -4.961686e-02 -9.609527e-02 -1.357268e-01
<VARIANCE> 39
 5.259210e+01 3.779011e+01 4.965770e+01 4.212432e+01 3.698139e+01 5.315850e+01 3.880827e+01 3.704813e+01 3.604552e+01 3.231511e+01 2.813842e+01 2.769707e+01 5.089333e+01 7.595807e+00 3.989577e+00 4.013537e+00 4.680347e+00 4.238408e+00 4.780915e+00 3.946118e+00 3.946043e+00 4.124496e+00 3.810810e+00 2.995633e+00 3.157997e+00 5.011648e+00 8.253294e-01 6.762069e-01 6.237782e-01 7.294373e-01 7.172365e-01 8.513466e-01 7.499132e-01 6.689887e-01 6.830515e-01 6.740292e-01 5.621687e-01 5.940857e-01 9.277608e-01
<GCONST> 1.336318e+02
<STATE> 3
<MEAN> 39
 -2.326216e+00 1.886386e-02 -3.660150e+00 -7.604649e+00 -1.051201e+01 -1.011614e+01 -5.014389e+00 -8.168171e+00 -3.264380e+00 -2.908065e+00 -1.971707e+00 -4.160502e+00 7.099680e+01 2.489229e+00 1.129654e-01 -6.412951e-01 -5.476469e-01 -1.828552e+00 -4.795359e-01 -5.927643e-02 -8.848028e-01 -9.046887e-01 1.988797e-01 8.317003e-02 -8.320582e-02 5.129847e-01 -7.345412e-01 -3.344763e-01 -1.220481e-01 1.053107e-01 4.237350e-01 4.424506e-01 2.873973e-01 5.055529e-01 2.902053e-01 1.478491e-01 2.793313e-01 4.100315e-01 -4.154960e-01
<VARIANCE> 39
 2.556113e+01 3.521898e+01 7.122883e+01 6.948110e+01 6.263736e+01 7.445037e+01 5.106859e+01 4.586056e+01 4.255806e+01 5.952762e+01 4.077715e+01 4.225107e+01 2.677003e+01 2.425752e+00 2.943618e+00 2.424653e+00 3.299206e+00 4.612419e+00 4.706398e+00 4.095083e+00 3.565769e+00 3.905815e+00 4.062223e+00 3.064754e+00 3.543388e+00 1.510208e+00 3.703808e-01 4.015497e-01 4.911272e-01 5.743689e-01 7.690173e-01 7.608659e-01 6.605018e-01 5.541360e-01 5.900945e-01 7.275213e-01 5.552543e-01 5.135914e-01 3.393005e-01
<GCONST> 1.292416e+02
<STATE> 4
<MEAN> 39
 -5.789025e-01 -2.421784e+00 -6.266653e+00 -9.895101e+00 -1.191082e+01 -8.581638e+00 -3.793745e+00 -7.584950e+00 -3.364908e+00 -2.405022e+00 -1.251550e+00 -3.421075e+00 7.211341e+01 4.272880e-01 -1.861084e-01 -2.575406e-01 2.634695e-01 3.900086e-02 2.483635e-01 6.920805e-02 9.346396e-03 -2.028388e-01 1.571516e-01 2.570004e-01 2.582393e-01 -2.636436e-01 -4.541541e-01 6.958586e-02 1.927607e-01 3.035547e-01 4.575238e-01 5.839147e-02 -7.480405e-02 1.335525e-01 1.288208e-01 -4.715000e-02 -1.469678e-02 2.441673e-02 -2.705401e-01
<VARIANCE> 39
 2.331723e+01 4.529069e+01 6.456625e+01 7.229619e+01 7.114869e+01 7.685954e+01 6.005832e+01 5.155952e+01 5.388173e+01 6.710667e+01 4.673681e+01 5.554308e+01 3.092118e+01 9.836230e-01 1.520107e+00 1.392832e+00 1.869654e+00 2.564803e+00 2.799854e+00 2.643709e+00 2.415211e+00 2.521896e+00 2.368421e+00 2.338354e+00 2.019398e+00 1.032419e+00 3.067408e-01 3.057539e-01 3.504020e-01 4.293423e-01 5.931791e-01 6.303647e-01 5.885172e-01 5.123156e-01 5.474254e-01 5.776311e-01 4.663776e-01 5.078903e-01 1.762872e-01
<GCONST> 1.210043e+02
<TRANSP> 5
 0.000000e+00 1.000000e+00 0.000000e+00 0.000000e+00 0.000000e+00
 0.000000e+00 7.428135e-01 2.571865e-01 0.000000e+00 0.000000e+00
 0.000000e+00 0.000000e+00 4.754278e-01 5.245722e-01 0.000000e+00
 0.000000e+00 0.000000e+00 0.000000e+00 4.954930e-01 5.045071e-01
 0.000000e+00 0.000000e+00 0.000000e+00 0.000000e+00 0.000000e+00
<ENDHMM>
~h "u"
<BEGINHMM>
<NUMSTATES> 5
<STATE> 2
<MEAN> 39
 2.762555e-01 5.290261e+00 -2.022983e+00 -2.417592e+00 -1.212961e+01 -1.026509e+01 -3.957103e+00 -1.186236e+01 -8.788447e+00 -5.262830e+00 1.068678e+00 -3.539271e-01 6.686949e+01 4.192894e-02 1.471722e-01 -5.211888e-02 -6.902676e-01 -4.734950e-01 4.574742e-01 5.279795e-01 9.354964e-03 2.783810e-02 1.986135e-01 2.644933e-01 3.095056e-01 -1.190347e-01 -1.233311e-01 -2.044035e-01 -6.828281e-02 1.839613e-02 3.043957e-01 3.906982e-02 -1.474979e-01 1.908102e-01 2.881539e-01 1.823644e-01 -2.209655e-02 -6.226134e-02 -9.600271e-03
<VARIANCE> 39
 1.867526e+01 3.600435e+01 5.426861e+01 5.590217e+01 6.277545e+01 4.979321e+01 6.727018e+01 4.488042e+01 4.686640e+01 5.353468e+01 4.101076e+01 3.823255e+01 1.965525e+01 4.640937e-01 9.243611e-01 1.334860e+00 2.147418e+00 2.406127e+00 2.285774e+00 2.327811e+00 2.347703e+00 2.229315e+00 2.174334e+00 2.423218e+00 1.988569e+00 6.688811e-01 1.043375e-01 1.568595e-01 2.012833e-01 2.634159e-01 3.354051e-01 3.934193e-01 3.901476e-01 4.204136e-01 4.258717e-01 4.557928e-01 4.436372e-01 3.736525e-01 7.319399e-02
<GCONST> 1.098541e+02
<STATE> 3
<MEAN> 39
 5.776917e-01 4.503930e+00 -2.575264e+00 -3.029048e+00 -1.181660e+01 -9.139672e+00 -5.782389e+00 -1.024975e+01 -7.893353e+00 -5.301188e+00 5.880823e-01 -5.630761e-01 6.620812e+01 -1.104584e-01 -2.102302e-01 -9.393765e-02 -4.652370e-01 1.199709e-01 5.030310e-01 1.472056e-01 3.190376e-01 3.091516e-01 6.255360e-01 2.701316e-01 8.399571e-02 -1.768887e-01 -1.172376e-01 -1.954935e-01 -3.746421e-02 6.045633e-02 2.408421e-01 -3.165010e-02 -3.248622e-02 1.535938e-01 1.395219e-01 1.593703e-01 -1.219554e-02 -6.244515e-02 7.666287e-03
<VARIANCE> 39
 2.271266e+01 3.565191e+01 5.028788e+01 6.825980e+01 6.553327e+01 5.336705e+01 5.982956e+01 4.497375e+01 5.487930e+01 4.589585e+01 4.259622e+01 3.100800e+01 2.495455e+01 4.880771e-01 1.133011e+00 1.416961e+00 1.807276e+00 2.615907e+00 2.056184e+00 2.043905e+00 1.988505e+00 2.414289e+00 2.609880e+00 2.612224e+00 1.838101e+00 9.070984e-01 8.892237e-02 1.429272e-01 1.864439e-01 2.511056e-01 3.441029e-01 3.801357e-01 3.877882e-01 3.840586e-01 4.298442e-01 3.877990e-01 4.153944e-01 3.340447e-01 7.897102e-02
<GCONST> 1.098812e+02
<STATE> 4
<MEAN> 39
 -4.539328e-01 4.298368e+00 -2.561430e+00 -3.010447e+00 -9.558571e+00 -8.051781e+00 -5.150171e+00 -9.878072e+00 -6.748641e+00 -3.448650e+00 9.825971e-01 -8.161315e-01 6.548940e+01 -3.135701e-01 -4.560116e-01 -1.181346e-01 -1.856747e-01 4.550566e-01 4.301574e-01 2.423765e-01 5.981786e-01 5.044879e-01 6.303984e-01 7.108013e-02 -7.496723e-02 -2.178774e-01 -6.353571e-02 -8.163291e-02 -3.338096e-02 6.756143e-02 9.259963e-02 -8.544447e-02 -2.907361e-02 1.272827e-01 1.061915e-01 -3.244221e-03 -3.629831e-02 -3.165577e-02 -1.192855e-02
<VARIANCE> 39
 2.058359e+01 3.251857e+01 4.911126e+01 6.822506e+01 7.161861e+01 4.875077e+01 5.895522e+01 4.322254e+01 4.513579e+01 4.734504e+01 3.886991e+01 3.000339e+01 2.971233e+01 4.773498e-01 1.033880e+00 1.186220e+00 1.419927e+00 1.980443e+00 2.033474e+00 2.051969e+00 1.880635e+00 2.339869e+00 2.390935e+00 1.794836e+00 1.666967e+00 8.230031e-01 6.605170e-02 1.332957e-01 1.919058e-01 2.292208e-01 3.448675e-01 3.244194e-01 3.567320e-01 3.254179e-01 3.708384e-01 3.374683e-01 3.587286e-01 2.947330e-01 8.045720e-02
<GCONST> 1.065582e+02
<TRANSP> 5
 0.000000e+00 1.000000e+00 0.000000e+00 0.000000e+00 0.000000e+00
 0.000000e+00 4.320593e-01 5.679408e-01 0.000000e+00 0.000000e+00
 0.000000e+00 0.000000e+00 2.927423e-01 7.072577e-01 0.000000e+00
 0.000000e+00 0.000000e+00 0.000000e+00 4.527407e-01 5.472594e-01
 0.000000e+00 0.000000e+00 0.000000e+00 0.000000e+00 0.000000e+00
<ENDHMM>
~h "w"
<BEGINHMM>
<NUMSTATES> 5
<STATE> 2
<MEAN> 39
 3.341223e+00 7.652991e+00 -3.969037e+00 -9.361702e+00 -1.525390e+01 -8.518896e+00 -1.761853e+00 -5.551463e+00 -4.102312e+00 -3.511020e+00 -2.648022e+00 -1.929013e+00 6.485716e+01 3.758917e-01 -2.909942e-01 -8.690534e-01 -1.682491e+00 -1.090653e+00 5.417239e-01 1.367931e+00 3.789381e-01 -9.152627e-02 8.079024e-02 1.489736e-02 3.352017e-01 5.142696e-01 -1.563449e-01 -4.174109e-01 -7.268658e-02 1.014368e-01 2.491623e-01 1.719781e-01 1.738869e-01 -1.244597e-02 -8.230886e-02 -3.297874e-02 1.317070e-01 1.132701e-01 1.977089e-01
<VARIANCE> 39
 1.071575e+01 3.227378e+01 3.000731e+01 7.006845e+01 7.370292e+01 3.357832e+01 5.457332e+01 4.692402e+01 3.420246e+01 3.629543e+01 2.751786e+01 2.682494e+01 2.318020e+01 6.380140e-01 2.478327e+00 1.794894e+00 2.604794e+00 3.869865e+00 3.641199e+00 3.404859e+00 3.066881e+00 2.914398e+00 2.298564e+00 2.332341e+00 2.080551e+00 1.458538e+00 7.807075e-02 2.268266e-01 2.628974e-01 4.267349e-01 7.567451e-01 6.609328e-01 6.246213e-01 5.541221e-01 5.050419e-01 4.779661e-01 4.192059e-01 3.979741e-01 8.501123e-02
<GCONST> 1.149061e+02
<STATE> 3
<MEAN> 39
 3.697922e+00 3.991553e+00 -7.846201e+00 -1.456093e+01 -1.701088e+01 -5.622307e+00 4.122049e+00 -3.992321e+00 -4.598458e+00 -3.658532e+00 -2.244173e+00 6.633562e-01 6.749640e+01 -2.964315e-01 -1.781631e+00 -1.101673e+00 -5.487785e-01 9.110426e-01 1.388356e+00 1.017877e+00 -4.747836e-01 -5.572687e-01 2.418250e-01 9.666834e-01 6.330938e-01 1.045252e+00 -2.438482e-01 -1.285347e-01 2.400652e-01 6.822663e-01 6.365255e-01 -1.537028e-01 -6.357334e-01 -2.436783e-01 1.655146e-01 2.440745e-01 1.476540e-01 -3.123025e-01 -8.988235e-02
<VARIANCE> 39
 1.055044e+01 3.611834e+01 3.679303e+01 6.977349e+01 7.398181e+01 4.738897e+01 6.712112e+01 6.285262e+01 4.188386e+01 3.816227e+01 3.997567e+01 3.490050e+01 2.400088e+01 6.486237e-01 2.618267e+00 1.438539e+00 2.182344e+00 3.197252e+00 3.441529e+00 4.171028e+00 4.071008e+00 3.074964e+00 3.207437e+00 3.186392e+00 2.640887e+00 1.139944e+00 9.382413e-02 3.218735e-01 2.460736e-01 4.037680e-01 6.632187e-01 7.494059e-01 8.026176e-01 6.295143e-01 7.098997e-01 5.378910e-01 5.705913e-01 5.187800e-01 1.388951e-01
<GCONST> 1.198846e+02
<STATE> 4
<MEAN> 39
 2.285198e+00 -4.374388e-01 -9.930997e+00 -1.414102e+01 -1.310964e+01 -2.920158e+00 3.891074e+00 -5.911989e+00 -5.575331e+00 -1.969732e+00 6.610700e-01 -1.291074e-01 6.968127e+01 -5.212022e-01 -1.236553e+00 -3.163328e-01 7.284724e-01 1.345621e+00 2.373220e-01 -5.766681e-01 -3.948949e-01 4.577524e-01 7.566313e-01 3.996007e-01 -6.616579e-01 4.670770e-01 -4.777174e-02 2.626686e-01 2.932810e-01 3.397380e-01 -5.763973e-02 -4.662966e-01 -3.262482e-01 2.268484e-01 2.808251e-01 -5.466668e-02 -3.539547e-01 -2.260752e-01 -2.300342e-01
<VARIANCE> 39
 1.447963e+01 4.804611e+01 4.549105e+01 7.644553e+01 6.706815e+01 5.241957e+01 7.881663e+01 7.222820e+01 4.106515e+01 4.686729e+01 4.785821e+01 4.805232e+01 3.068650e+01 5.092965e-01 1.539483e+00 1.136807e+00 2.017341e+00 2.428137e+00 4.069766e+00 3.846398e+00 2.697248e+00 3.218053e+00 2.788182e+00 2.763122e+00 2.612046e+00 6.936653e-01 9.450278e-02 2.327789e-01 2.389672e-01 2.933008e-01 4.472198e-01 5.266735e-01 6.236421e-01 6.259373e-01 4.797420e-01 5.467556e-01 5.723820e-01 4.531802e-01 9.653048e-02
<GCONST> 1.170498e+02
<TRANSP> 5
 0.000000e+00 1.000000e+00 0.000000e+00 0.000000e+00 0.000000e+00
 0.000000e+00 6.532499e-01 3.467501e-01 0.000000e+00 0.000000e+00
 0.000000e+00 0.000000e+00 4.727034e-01 5.272966e-01 0.000000e+00
 0.000000e+00 0.000000e+00 0.000000e+00 6.100756e-01 3.899244e-01
 0.000000e+00 0.000000e+00 0.000000e+00 0.000000e+00 0.000000e+00
<ENDHMM>
~h "aa"
<BEGINHMM>
<NUMSTATES> 5
<STATE> 2
<MEAN> 39
 1.893978e+00 -6.977822e+00 -1.355295e+01 -1.449388e+01 -7.773124e+00 2.158082e+00 4.689918e+00 -5.888553e+00 -3.599637e+00 -9.052301e-01 -3.579870e+00 -6.353565e+00 7.303192e+01 -7.983492e-02 -1.083247e-01 4.143276e-02 3.606235e-01 2.148622e-01 -2.679345e-01 -3.046819e-01 5.727468e-02 2.695554e-01 1.914755e-01 -1.076409e-01 -2.374797e-01 -5.838513e-02 -3.511528e-03 1.775907e-01 9.824990e-02 7.782850e-02 -8.612709e-02 -2.138510e-01 -1.194526e-01 5.972692e-02 5.359216e-02 -6.940913e-03 3.326753e-02 7.071417e-02 -9.134021e-02
<VARIANCE> 39
 1.118623e+01 4.184101e+01 2.682674e+01 3.723135e+01 5.488300e+01 5.330568e+01 5.835592e+01 6.890513e+01 4.712057e+01 4.695805e+01 5.757214e+01 5.079978e+01 2.907315e+01 1.574159e-01 5.357177e-01 4.900275e-01 7.016585e-01 1.105751e+00 1.399811e+00 1.250578e+00 1.421358e+00 1.281382e+00 1.172969e+00 1.306611e+00 1.178444e+00 1.578135e-01 3.281808e-02 8.374112e-02 8.911041e-02 1.253693e-01 1.659105e-01 1.992158e-01 2.224160e-01 2.357043e-01 2.288710e-01 2.112191e-01 2.132867e-01 2.101318e-01 2.366273e-02
<GCONST> 8.990211e+01
<STATE> 3
<MEAN> 39
 1.435256e+00 -5.974957e+00 -1.165445e+01 -1.028366e+01 -7.235963e+00 -4.436286e+00 8.034688e-01 -3.727761e+00 -3.812691e-01 1.027077e+00 -2.994833e+00 -6.671443e+00 7.200304e+01 -2.839386e-01 1.005546e+00 1.019136e+00 1.365623e+00 1.164147e-01 -1.198389e+00 -1.099167e+00 1.706389e-01 3.811970e-01 -5.966880e-02 1.749201e-01 4.267277e-01 -8.820649e-01 -1.241297e-01 1.838330e-01 2.181162e-01 1.386527e-01 4.250987e-02 1.376135e-01 8.606051e-02 -2.739682e-02 -2.217966e-01 -1.850329e-01 9.073099e-02 1.659730e-01 -2.395474e-01
<VARIANCE> 39
 1.048339e+01 4.231858e+01 3.583846e+01 4.807893e+01 5.296793e+01 7.629266e+01 6.417852e+01 5.817887e+01 5.906826e+01 4.939782e+01 5.890892e+01 5.789174e+01 3.133136e+01 6.807259e-01 1.250259e+00 1.439437e+00 1.772346e+00 2.934737e+00 2.938046e+00 2.955334e+00 2.775901e+00 2.958845e+00 2.604143e+00 2.566881e+00 2.437373e+00 7.069724e-01 8.103415e-02 1.839846e-01 2.145723e-01 2.500046e-01 3.971559e-01 5.018100e-01 5.266318e-01 4.585735e-01 4.782868e-01 4.072153e-01 4.173137e-01 4.136367e-01 7.798231e-02
<GCONST> 1.137654e+02
<STATE> 4
<MEAN> 39
 -2.374477e+00 -7.203941e-01 -8.043920e+00 -6.473005e+00 -5.478312e+00 -3.246075e+00 -5.877433e-01 -2.351509e+00 -7.591586e-01 5.103555e-01 -1.084575e+00 -3.748029e+00 6.412869e+01 -8.363261e-01 4.612487e-01 7.049600e-01 7.950039e-01 7.931595e-02 -1.820252e-01 -1.397352e-01 3.113765e-01 -7.244655e-02 -3.049890e-01 2.877034e-01 4.867046e-01 -1.060716e+00 -3.648584e-02 -1.582994e-01 -2.784376e-02 -1.632490e-01 -7.848431e-02 1.476794e-03 7.299829e-02 -1.051986e-01 -6.279533e-02 -5.422772e-02 3.557282e-03 -3.668469e-02 2.333148e-01
<VARIANCE> 39
 1.963523e+01 3.136854e+01 3.073916e+01 3.806419e+01 4.025790e+01 5.606944e+01 4.445620e+01 3.869318e+01 3.670364e+01 3.645014e+01 3.832266e+01 3.353448e+01 4.456238e+01 7.567638e-01 1.433493e+00 1.918015e+00 1.646099e+00 2.041449e+00 2.697141e+00 2.592284e+00 2.525216e+00 2.738360e+00 2.377710e+00 2.233445e+00 2.100281e+00 1.139266e+00 1.247310e-01 2.145579e-01 2.477763e-01 2.719082e-01 3.917742e-01 4.563036e-01 4.371020e-01 4.435644e-01 4.680190e-01 4.245321e-01 4.122265e-01 3.725442e-01 1.973439e-01
<GCONST> 1.120640e+02
<TRANSP> 5
 0.000000e+00 1.000000e+00 0.000000e+00 0.000000e+00 0.000000e+00
 0.000000e+00 8.702011e-01 1.297989e-01 0.000000e+00 0.000000e+00
 0.000000e+00 0.000000e+00 7.042527e-01 2.957473e-01 0.000000e+00
 0.000000e+00 0.000000e+00 0.000000e+00 5.853304e-01 4.146696e-01
 0.000000e+00 0.000000e+00 0.000000e+00 0.000000e+00 0.000000e+00
<ENDHMM>
~h "ae"
<BEGINHMM>
<NUMSTATES> 5
<STATE> 2
<MEAN> 39
 1.338129e+00 -8.845617e+00 -1.284052e+01 -1.098446e+01 -8.095430e+00 -2.976222e+00 1.508437e+00 -4.031631e+00 5.969894e-02 8.023152e-01 -1.385133e+00 -7.997719e+00 7.381676e+01 -2.598905e-01 -2.514510e-01 4.564339e-01 4.915007e-01 5.449441e-02 -8.396716e-01 -8.271257e-01 4.800235e-01 9.299793e-01 9.448376e-02 -5.230096e-01 -3.801062e-01 6.871228e-02 -2.185515e-02 1.687083e-01 1.708581e-01 1.532768e-01 -9.078247e-02 -2.805637e-01 -9.075470e-02 6.660314e-02 -3.828499e-02 -1.179776e-01 2.192650e-02 2.216522e-01 -1.076471e-01
<VARIANCE> 39
 1.289339e+01 3.786915e+01 3.059459e+01 3.775641e+01 5.209690e+01 6.959010e+01 5.240760e+01 6.147733e+01 5.927633e+01 4.534427e+01 6.461884e+01 4.015145e+01 2.677269e+01 2.860256e-01 5.429760e-01 8.515610e-01 1.422721e+00 1.602557e+00 3.090483e+00 2.103539e+00 2.310300e+00 1.931324e+00 1.748314e+00 1.937137e+00 1.751502e+00 2.104553e-01 4.148575e-02 9.675121e-02 1.283793e-01 1.688553e-01 2.459678e-01 3.298900e-01 3.591031e-01 3.484109e-01 3.672431e-01 3.085642e-01 3.222036e-01 2.930894e-01 3.478397e-02
<GCONST> 1.007935e+02
<STATE> 3
<MEAN> 39
 -6.343164e-01 -7.621081e+00 -6.319358e+00 -5.376737e+00 -1.245292e+01 -1.423959e+01 -3.658969e+00 -1.378837e-01 3.695409e+00 -4.611354e-01 -2.967349e+00 -5.508967e+00 7.296758e+01 -2.693905e-01 7.992524e-01 1.103166e+00 8.483779e-01 -5.412413e-01 -9.467749e-01 -4.307435e-01 -1.531617e-01 -4.957867e-01 -3.879040e-01 3.670880e-01 7.749544e-01 -6.106532e-01 -1.185067e-02 1.447163e-01 -2.793077e-03 -4.078057e-02 1.566975e-01 3.302758e-01 1.033087e-01 -2.094347e-01 -2.411070e-01 -2.952749e-02 5.488623e-02 -2.770213e-02 -1.445964e-01
<VARIANCE> 39
 1.183811e+01 3.493143e+01 4.374132e+01 3.673648e+01 6.874625e+01 6.641080e+01 4.888361e+01 4.912079e+01 4.872173e+01 4.991689e+01 4.203241e+01 4.267073e+01 2.281134e+01 3.299281e-01 5.655319e-01 9.884679e-01 1.134988e+00 1.618439e+00 1.796334e+00 1.745100e+00 1.934425e+00 1.810508e+00 1.699026e+00 1.823768e+00 1.681310e+00 2.477113e-01 4.239539e-02 9.841848e-02 1.481941e-01 1.817802e-01 2.401610e-01 2.659600e-01 2.701913e-01 3.077273e-01 3.223520e-01 2.911362e-01 2.907526e-01 2.648670e-01 4.508043e-02
<GCONST> 9.891768e+01
<STATE> 4
<MEAN> 39
 -3.852973e+00 -2.874238e+00 -2.606641e+00 -1.152218e+00 -1.007113e+01 -1.387043e+01 -2.870745e+00 -7.026502e-01 1.467547e+00 -7.442597e-01 -1.710567e+00 -3.317193e+00 6.673753e+01 -4.155372e-01 6.484821e-01 3.371207e-01 4.712459e-01 3.964061e-01 4.189882e-01 3.465632e-03 -1.042002e-01 -2.617019e-01 -1.156751e-01 6.705689e-02 3.873047e-01 -1.104060e+00 6.978077e-03 -5.887996e-02 -1.879825e-01 -1.531615e-01 8.173850e-02 2.341992e-01 7.655281e-02 4.367096e-02 -2.302045e-03 7.514392e-02 5.276673e-02 -2.082199e-02 -3.775351e-02
<VARIANCE> 39
 2.339042e+01 3.548655e+01 5.079462e+01 3.151685e+01 5.704768e+01 6.499585e+01 6.726945e+01 5.165527e+01 4.642023e+01 4.989892e+01 4.525637e+01 4.848566e+01 3.504367e+01 4.544349e-01 9.752585e-01 1.384383e+00 1.258454e+00 1.850867e+00 2.351712e+00 2.006652e+00 2.136746e+00 1.902529e+00 2.198238e+00 2.098482e+00 1.774214e+00 4.569016e-01 5.760370e-02 1.452370e-01 1.986996e-01 2.076284e-01 2.682276e-01 3.444856e-01 3.724393e-01 3.661088e-01 3.750601e-01 3.741189e-01 3.779503e-01 3.344212e-01 7.412756e-02
<GCONST> 1.067967e+02
<TRANSP> 5
 0.000000e+00 1.000000e+00 0.000000e+00 0.000000e+00 0.000000e+00
 0.000000e+00 8.441924e-01 1.558076e-01 0.000000e+00 0.000000e+00
 0.000000e+00 0.000000e+00 7.174464e-01 2.825536e-01 0.000000e+00
 0.000000e+00 0.000000e+00 0.000000e+00 7.023513e-01 2.976488e-01
 0.000000e+00 0.000000e+00 0.000000e+00 0.000000e+00 0.000000e+00
<ENDHMM>
~h "ai"
<BEGINHMM>
<NUMSTATES> 5
<STATE> 2
<MEAN> 39
 -6.332546e-01 -6.815530e+00 -6.322274e+00 -5.133200e+00 -1.041056e+01 -1.433954e+01 -6.134182e+00 -3.937876e+00 4.305913e+00 -2.142013e-01 -3.068185e+00 -4.267584e+00 7.422069e+01 -5.758697e-01 2.705904e-01 1.986632e+00 1.624097e+00 -1.039447e+00 -2.371872e+00 -6.076375e-01 8.656224e-01 6.038862e-02 -1.474151e+00 -3.295872e-01 9.301440e-01 -1.901963e-01 3.350705e-02 4.106259e-01 1.323179e-01 -2.495732e-01 -2.374618e-01 4.672672e-01 5.399007e-01 -2.985448e-01 -8.036578e-01 -2.439423e-01 3.407768e-01 2.890954e-01 -2.221722e-01
<VARIANCE> 39
 1.382518e+01 4.443104e+01 5.208677e+01 5.633426e+01 5.719356e+01 7.795375e+01 4.843978e+01 6.896194e+01 4.399324e+01 6.833253e+01 5.451273e+01 5.722003e+01 2.358007e+01 3.597293e-01 1.037032e+00 1.488361e+00 1.870235e+00 2.040793e+00 2.948191e+00 3.209724e+00 3.544187e+00 4.385678e+00 2.967828e+00 4.015218e+00 2.255486e+00 3.107743e-01 5.409224e-02 1.614560e-01 2.734150e-01 2.617888e-01 4.084602e-01 5.617169e-01 4.947716e-01 6.378265e-01 4.828362e-01 8.250005e-01 5.479488e-01 5.363632e-01 4.581225e-02
<GCONST> 1.144459e+02
<STATE> 3
<MEAN> 39
 -2.536651e+00 -2.572024e+00 2.124874e+00 -2.111543e+00 -1.557094e+01 -1.859492e+01 -5.526383e+00 -5.892262e+00 -2.917998e+00 -5.458655e+00 -2.974636e-01 -1.019291e+00 7.207069e+01 -2.948686e-01 8.663785e-01 8.824595e-01 5.349371e-01 -1.110683e-01 1.606771e-01 2.416880e-01 -4.861334e-01 -8.739638e-01 -3.155425e-01 1.642755e-02 -1.176651e-01 -6.796522e-01 7.602271e-02 -1.234409e-02 -3.439317e-01 -1.512738e-01 3.547716e-01 3.301586e-01 -3.904437e-02 4.365367e-02 2.378131e-01 3.059833e-01 -1.054275e-01 -2.156594e-01 -1.011664e-01
<VARIANCE> 39
 1.280287e+01 3.811408e+01 6.125620e+01 5.498395e+01 6.753089e+01 6.993610e+01 4.559327e+01 6.080090e+01 5.780286e+01 5.134321e+01 4.563779e+01 4.615131e+01 1.813058e+01 2.892070e-01 7.001402e-01 1.445183e+00 1.132563e+00 1.866560e+00 1.844029e+00 1.723460e+00 2.274634e+00 2.484677e+00 1.927528e+00 2.174441e+00 1.555317e+00 3.695948e-01 4.550462e-02 1.077256e-01 1.811822e-01 1.847833e-01 3.152060e-01 3.609813e-01 3.283021e-01 4.149644e-01 3.903979e-01 4.454036e-01 4.203188e-01 3.240968e-01 4.821913e-02
<GCONST> 1.045536e+02
<STATE> 4
<MEAN> 39
 -5.310582e+00 2.225206e+00 3.882437e+00 1.046818e+00 -1.102636e+01 -1.442720e+01 -3.106282e+00 -7.305464e+00 -4.078308e+00 -3.779523e+00 -2.117600e+00 -2.539556e+00 6.616952e+01 -2.392378e-01 1.314919e-01 -2.512779e-01 1.723099e-01 7.646201e-01 7.537584e-01 3.880714e-02 3.613597e-01 1.999873e-01 3.338613e-01 3.383429e-02 -9.518601e-03 -8.670450e-01 1.514685e-02 -1.131172e-01 -2.196780e-01 -1.215629e-01 1.303803e-01 1.595895e-01 -5.432835e-02 9.109114e-02 1.320774e-01 1.333974e-01 7.012589e-02 3.082110e-02 -4.812816e-03
<VARIANCE> 39
 2.515956e+01 5.208607e+01 6.390105e+01 4.521540e+01 5.793432e+01 6.191720e+01 5.857191e+01 4.602555e+01 6.393738e+01 4.573945e+01 3.380856e+01 4.218320e+01 3.179960e+01 4.354510e-01 1.000797e+00 1.593975e+00 1.262350e+00 1.991685e+00 2.285327e+00 1.854578e+00 2.223173e+00 2.324151e+00 2.223696e+00 1.978371e+00 1.680281e+00 5.834460e-01 6.919818e-02 1.507073e-01 1.970534e-01 1.989911e-01 2.806613e-01 3.278258e-01 3.672328e-01 3.740188e-01 4.177738e-01 3.272073e-01 3.480144e-01 2.929250e-01 5.843891e-02
<GCONST> 1.074312e+02
<TRANSP> 5
 0.000000e+00 1.000000e+00 0.000000e+00 0.000000e+00 0.000000e+00
 0.000000e+00 7.254640e-01 2.745360e-01 0.000000e+00 0.000000e+00
 0.000000e+00 0.000000e+00 6.964160e-01 3.035840e-01 0.000000e+00
 0.000000e+00 0.000000e+00 0.000000e+00 6.614511e-01 3.385489e-01
 0.000000e+00 0.000000e+00 0.000000e+00 0.000000e+00 0.000000e+00
<ENDHMM>
~h "ao"
<BEGINHMM>
<NUMSTATES> 5
<STATE> 2
<MEAN> 39
 1.925768e-01 -5.653530e+00 -9.563961e+00 -1.866351e+01 -1.363718e+01 -2.301381e+00 7.671160e+00 2.810133e+00 -4.934527e+00 -6.224431e+00 -3.138072e+00 -4.662536e+00 7.722583e+01 1.320042e-01 3.440208e-01 1.455104e-01 -2.343493e-01 -6.276529e-01 -1.040985e-01 -2.739123e-02 -1.555357e-01 1.367899e-01 2.938372e-01 -1.697505e-01 1.350024e-01 -3.911068e-01 1.213358e-02 1.627926e-01 3.336753e-02 2.095853e-02 -2.527237e-02 -1.039803e-01 -6.448210e-02 -7.851331e-02 4.718284e-02 7.643829e-02 -5.547633e-02 1.261330e-02 -1.011193e-01
<VARIANCE> 39
 1.227423e+01 3.651501e+01 2.197980e+01 1.746395e+01 6.688400e+01 9.734517e+01 5.861649e+01 6.574805e+01 4.406184e+01 5.660945e+01 2.952953e+01 3.421532e+01 2.314366e+01 4.531909e-01 1.016823e+00 5.061017e-01 8.087760e-01 1.520651e+00 1.610714e+00 1.472821e+00 1.615286e+00 2.231277e+00 2.179072e+00 1.466677e+00 1.457030e+00 5.961469e-01 7.863946e-02 1.129873e-01 9.881835e-02 1.396643e-01 2.914676e-01 2.997482e-01 2.424878e-01 2.470525e-01 4.008242e-01 3.397856e-01 2.261407e-01 2.589475e-01 5.934098e-02
<GCONST> 9.865563e+01
<STATE> 3
<MEAN> 39
 3.684378e+00 -6.364037e-01 -1.067898e+01 -2.112806e+01 -1.655336e+01 2.003785e+00 5.021777e+00 -4.437314e+00 -2.732489e+00 -3.593919e+00 -4.511779e+00 -2.718585e+00 7.053690e+01 1.882013e-02 6.166083e-01 2.050981e-01 5.409846e-02 -3.910414e-01 -5.424532e-01 -2.040332e-01 2.681720e-01 5.062133e-02 1.376862e-02 -9.587043e-02 -1.444363e-02 -3.873365e-01 -2.736249e-02 3.914752e-02 2.053675e-02 6.622532e-02 4.214125e-02 -6.343852e-02 -4.210263e-02 9.280309e-03 -1.496853e-03 -1.725365e-02 3.276780e-03 -2.483893e-02 -3.061233e-02
<VARIANCE> 39
 6.087502e+00 3.890594e+01 5.729308e+01 2.555732e+01 8.575879e+01 6.268826e+01 4.940681e+01 6.974969e+01 5.408576e+01 5.368208e+01 4.077349e+01 3.688311e+01 1.380305e+01 9.739648e-02 4.332062e-01 4.193521e-01 5.514715e-01 6.975064e-01 9.043459e-01 9.210570e-01 1.022721e+00 9.540657e-01 8.983176e-01 9.948893e-01 7.757657e-01 1.278833e-01 1.661034e-02 4.539353e-02 6.082206e-02 8.033344e-02 1.159260e-01 1.292366e-01 1.375881e-01 1.681731e-01 1.497348e-01 1.659218e-01 1.684506e-01 1.301721e-01 9.857406e-03
<GCONST> 7.884923e+01
<STATE> 4
<MEAN> 39
 -4.082944e-01 7.801499e+00 -5.474939e+00 -1.348047e+01 -1.709550e+01 -7.811765e+00 8.669155e-02 1.213560e-01 -2.678083e+00 -1.237026e+00 -4.270630e+00 -3.640655e+00 6.186537e+01 -6.481676e-01 -6.753282e-02 1.797461e-01 9.867828e-01 9.383913e-01 1.049923e-01 -3.306383e-01 4.338539e-02 1.311121e-01 5.105601e-02 2.288827e-01 1.887114e-01 -7.455844e-01 -4.635867e-02 -1.344323e-01 -3.020063e-02 1.247215e-02 1.008875e-01 1.278214e-01 6.361245e-02 1.433038e-02 2.366332e-02 2.998668e-02 5.441634e-02 7.272802e-02 2.194865e-02
<VARIANCE> 39
 1.239044e+01 2.282712e+01 3.318113e+01 3.268621e+01 5.310439e+01 3.244163e+01 4.300798e+01 3.099024e+01 4.383034e+01 4.139645e+01 2.568809e+01 2.777364e+01 2.475405e+01 3.107042e-01 7.346672e-01 7.520941e-01 1.129962e+00 1.432970e+00 1.624647e+00 1.516806e+00 1.613429e+00 1.957120e+00 1.613226e+00 1.445821e+00 1.483405e+00 2.086463e-01 4.186231e-02 8.932641e-02 1.142382e-01 1.807313e-01 2.139001e-01 2.367800e-01 2.520358e-01 2.824859e-01 3.380373e-01 3.096793e-01 2.465722e-01 2.417118e-01 2.390946e-02
<GCONST> 9.278142e+01
<TRANSP> 5
 0.000000e+00 1.000000e+00 0.000000e+00 0.000000e+00 0.000000e+00
 0.000000e+00 8.246258e-01 1.753741e-01 0.000000e+00 0.000000e+00
 0.000000e+00 0.000000e+00 9.245721e-01 7.542793e-02 0.000000e+00
 0.000000e+00 0.000000e+00 0.000000e+00 9.150113e-01 8.498868e-02
 0.000000e+00 0.000000e+00 0.000000e+00 0.000000e+00 0.000000e+00
<ENDHMM>
~h "au"
<BEGINHMM>
<NUMSTATES> 5
<STATE> 2
<MEAN> 39
 1.500648e+00 -4.855161e+00 -1.004653e+01 -9.239908e+00 -1.132253e+01 -9.325941e+00 -6.414749e+00 -5.077948e+00 1.021852e+00 4.875934e-01 -2.626163e-01 -6.277597e+00 7.284574e+01 2.641347e-02 7.429931e-01 4.710233e-01 5.828178e-01 -2.479208e-01 -6.619167e-01 -6.646684e-01 -6.040595e-01 -3.148469e-01 -2.095517e-01 4.191395e-01 4.944077e-01 -4.572254e-01 -5.754125e-03 2.050950e-01 8.413598e-02 6.488169e-02 9.554833e-02 8.690238e-02 1.348990e-03 -1.476704e-01 -2.344307e-01 -1.615337e-01 -2.584639e-02 9.689546e-02 -1.355895e-01
<VARIANCE> 39
 8.522426e+00 3.025385e+01 2.604064e+01 4.947294e+01 4.959250e+01 6.470702e+01 7.438732e+01 4.903886e+01 4.876065e+01 6.664121e+01 5.177684e+01 5.728712e+01 2.087420e+01 1.892397e-01 5.970689e-01 5.687228e-01 7.905652e-01 1.172731e+00 1.767236e+00 1.415693e+00 2.157636e+00 1.939661e+00 1.626779e+00 1.462216e+00 1.387874e+00 1.903009e-01 3.371997e-02 8.643392e-02 1.019576e-01 1.332314e-01 1.925755e-01 2.802342e-01 2.631538e-01 2.588231e-01 3.144163e-01 3.019865e-01 2.536712e-01 2.342582e-01 2.640458e-02
<GCONST> 9.429465e+01
<STATE> 3
<MEAN> 39
 2.353818e+00 2.805797e+00 -6.014707e+00 -7.064076e+00 -1.152821e+01 -8.787154e+00 -6.065454e+00 -1.256697e+01 -6.549307e+00 -1.291151e+00 2.818467e+00 1.032943e-01 6.864608e+01 2.512117e-02 1.270740e+00 4.996759e-01 4.632118e-01 2.558054e-01 3.812318e-01 1.408655e-01 -1.601093e-01 -1.000310e+00 -1.069603e+00 -5.133935e-01 2.451374e-01 -9.722744e-01 -6.137653e-02 -4.971679e-02 2.684818e-02 9.597702e-03 9.944832e-02 7.385366e-02 1.019428e-01 3.702428e-01 1.800602e-01 -3.395728e-03 -1.750491e-01 -1.964191e-01 -5.313393e-02
<VARIANCE> 39
 8.077174e+00 2.875442e+01 2.241414e+01 5.023031e+01 4.954319e+01 5.757988e+01 8.299584e+01 6.511585e+01 5.831080e+01 5.873165e+01 3.901362e+01 4.165493e+01 1.978168e+01 2.261289e-01 6.466112e-01 7.281440e-01 1.155051e+00 1.389297e+00 1.809211e+00 1.960114e+00 2.512834e+00 2.045012e+00 2.301774e+00 1.982295e+00 1.782875e+00 2.448519e-01 3.457194e-02 8.546199e-02 1.183106e-01 1.852560e-01 2.511581e-01 2.910835e-01 3.496192e-01 3.749670e-01 3.592018e-01 3.799282e-01 3.242466e-01 2.720200e-01 2.713488e-02
<GCONST> 9.872475e+01
<STATE> 4
<MEAN> 39
 -2.463413e-01 8.278912e+00 -2.253022e+00 -3.407315e+00 -7.337168e+00 -6.539804e+00 -4.187491e+00 -8.076553e+00 -7.259366e+00 -5.677834e+00 -1.855304e+00 -1.667911e+00 6.265825e+01 -4.471439e-01 6.717106e-02 3.473323e-01 5.361285e-01 6.674123e-01 3.397655e-01 1.452976e-01 5.116659e-01 1.464537e-01 -1.606265e-01 -3.258070e-01 -1.293114e-01 -6.616297e-01 -3.971722e-02 -1.912060e-01 -1.002995e-01 -7.914909e-02 2.778970e-03 1.102481e-02 2.554059e-02 -1.997986e-02 8.001115e-02 1.483545e-01 1.070721e-01 6.453737e-02 8.308705e-02
<VARIANCE> 39
 1.135771e+01 2.986879e+01 2.465572e+01 3.400960e+01 3.986496e+01 3.682107e+01 5.696072e+01 3.555945e+01 3.782288e+01 4.262801e+01 3.236883e+01 2.895934e+01 2.353550e+01 3.518473e-01 8.253235e-01 8.654380e-01 1.236487e+00 1.496628e+00 1.562929e+00 1.937270e+00 2.039293e+00 2.089268e+00 2.062713e+00 1.712506e+00 1.627395e+00 3.230686e-01 4.660834e-02 1.061929e-01 1.292510e-01 1.853118e-01 2.417541e-01 2.525832e-01 2.900273e-01 3.383619e-01 3.363239e-01 3.383561e-01 2.645075e-01 2.583016e-01 3.080184e-02
<GCONST> 9.644398e+01
<TRANSP> 5
 0.000000e+00 1.000000e+00 0.000000e+00 0.000000e+00 0.000000e+00
 0.000000e+00 7.826571e-01 2.173429e-01 0.000000e+00 0.000000e+00
 0.000000e+00 0.000000e+00 7.543934e-01 2.456066e-01 0.000000e+00
 0.000000e+00 0.000000e+00 0.000000e+00 8.071930e-01 1.928069e-01
 0.000000e+00 0.000000e+00 0.000000e+00 0.000000e+00 0.000000e+00
<ENDHMM>
~h "ee"
<BEGINHMM>
<NUMSTATES> 5
<STATE> 2
<MEAN> 39
 -4.212742e+00 -1.519141e+00 6.378823e+00 -4.411500e+00 -2.071602e+01 -1.958822e+01 -4.886753e+00 -9.455500e+00 -7.506028e+00 -5.197657e+00 2.458205e+00 -3.048086e+00 7.496467e+01 -2.050025e-03 -6.128183e-02 -1.853035e-02 -2.293814e-02 2.850583e-03 -1.234102e-02 1.835378e-02 6.996149e-02 5.074335e-02 -3.718191e-02 3.745741e-02 -2.160630e-02 -9.203401e-02 4.054826e-03 2.928221e-02 -2.021586e-02 1.096166e-02 3.619409e-02 2.527103e-02 2.982471e-03 1.878620e-02 1.225014e-02 -1.705608e-02 -3.035454e-02 -1.295847e-04 -4.105673e-02
<VARIANCE> 39
 7.407826e+00 2.270065e+01 4.094927e+01 5.591901e+01 5.821457e+01 7.415768e+01 4.397046e+01 3.381155e+01 2.651549e+01 4.323571e+01 4.648058e+01 6.755695e+01 1.744786e+01 8.290056e-02 2.781253e-01 3.431953e-01 4.522214e-01 5.776653e-01 6.109260e-01 6.481591e-01 6.558810e-01 6.438937e-01 6.744015e-01 7.383124e-01 5.740479e-01 9.607400e-02 1.620555e-02 4.649605e-02 6.242748e-02 8.472962e-02 1.123092e-01 1.200463e-01 1.256216e-01 1.219281e-01 1.231831e-01 1.336616e-01 1.318212e-01 1.095034e-01 1.614055e-02
<GCONST> 7.321458e+01
<STATE> 3
<MEAN> 39
 -3.298923e+00 -1.368841e+00 5.188435e+00 -1.942476e+00 -1.852618e+01 -2.216390e+01 -5.693997e+00 -6.055262e+00 -4.384299e+00 -5.968433e+00 -3.717188e-01 -6.037151e-01 7.204734e+01 6.033118e-02 2.020711e-01 -2.584573e-01 1.237056e-01 1.935769e-01 3.135840e-01 9.531220e-02 2.672149e-01 2.344930e-01 -1.276530e-01 -4.664308e-01 -1.592195e-01 -5.999357e-01 -4.457605e-03 9.814960e-02 -4.190915e-02 9.391606e-02 1.660784e-01 9.976920e-02 -1.348242e-03 -1.213063e-02 -3.273514e-02 1.135317e-02 -7.327469e-02 -5.934723e-02 -1.269985e-01
<VARIANCE> 39
 1.003650e+01 2.245196e+01 3.628017e+01 4.484180e+01 7.757994e+01 5.860299e+01 3.656836e+01 4.929949e+01 5.944656e+01 3.591109e+01 4.920554e+01 5.317764e+01 1.630862e+01 2.333233e-01 5.130975e-01 5.759321e-01 9.587407e-01 1.193361e+00 1.007252e+00 1.591063e+00 1.287539e+00 1.624552e+00 1.309658e+00 1.536643e+00 1.378166e+00 2.162054e-01 3.780814e-02 1.093205e-01 1.102623e-01 1.793346e-01 2.439707e-01 2.039212e-01 2.976627e-01 2.729702e-01 2.981514e-01 2.787049e-01 2.655896e-01 2.346262e-01 3.974341e-02
<GCONST> 9.348268e+01
<STATE> 4
<MEAN> 39
 -5.423369e+00 1.121913e-01 3.134185e+00 -7.652978e-01 -1.452579e+01 -1.438230e+01 -3.375448e+00 -4.694102e+00 -4.788418e+00 -5.200721e+00 -1.468188e+00 -2.269644e+00 6.455212e+01 -2.145146e-01 3.309804e-01 -6.038713e-01 3.748330e-01 1.247994e+00 1.042907e+00 3.532673e-02 3.441099e-01 7.223172e-02 2.851734e-01 -1.030080e-01 2.927903e-01 -1.205102e+00 -2.997729e-02 -3.170431e-02 -3.449887e-02 -5.849689e-02 1.117781e-01 4.239579e-02 1.978380e-03 1.049216e-02 -3.032103e-02 3.478284e-02 1.163546e-01 4.137412e-02 3.691196e-02
<VARIANCE> 39
 1.115096e+01 2.256040e+01 3.287251e+01 3.393461e+01 5.848574e+01 6.040517e+01 3.605825e+01 3.662120e+01 5.587263e+01 5.951600e+01 4.086132e+01 5.658532e+01 3.339635e+01 4.999548e-01 1.075818e+00 8.467838e-01 1.172464e+00 1.883849e+00 1.884126e+00 1.891118e+00 2.226719e+00 2.482779e+00 2.576609e+00 2.346266e+00 1.933963e+00 5.135209e-01 5.330889e-02 1.448209e-01 1.270422e-01 1.667941e-01 2.307533e-01 2.861977e-01 3.303356e-01 3.732706e-01 4.711913e-01 4.022895e-01 3.597979e-01 3.494267e-01 7.114630e-02
<GCONST> 1.038117e+02
<TRANSP> 5
 0.000000e+00 1.000000e+00 0.000000e+00 0.000000e+00 0.000000e+00
 0.000000e+00 9.307334e-01 6.926661e-02 0.000000e+00 0.000000e+00
 0.000000e+00 0.000000e+00 8.079923e-01 1.920077e-01 0.000000e+00
 0.000000e+00 0.000000e+00 0.000000e+00 8.425995e-01 1.574006e-01
 0.000000e+00 0.000000e+00 0.000000e+00 0.000000e+00 0.000000e+00
<ENDHMM>
~h "ei"
<BEGINHMM>
<NUMSTATES> 5
<STATE> 2
<MEAN> 39
 -2.767380e+00 -5.027697e+00 1.469668e+00 -5.345363e+00 -1.701394e+01 -2.044606e+01 -3.498358e+00 -1.155752e+00 -3.261300e+00 -6.654010e+00 7.570717e-01 -3.230703e+00 7.544511e+01 -1.114194e-01 4.634554e-01 6.530414e-01 1.957494e-01 -3.357199e-01 -1.428790e-01 -4.259275e-03 -6.775334e-01 -6.447799e-01 5.043716e-02 4.357444e-01 2.182137e-02 -2.872171e-01 -3.945416e-03 9.045380e-02 7.470688e-03 5.910410e-02 5.540748e-02 8.114792e-02 -1.112812e-02 -9.028528e-02 -4.185066e-02 5.001781e-03 -4.543132e-02 -4.346186e-02 -6.998285e-02
<VARIANCE> 39
 6.297544e+00 2.574413e+01 3.637395e+01 5.014273e+01 6.630080e+01 8.523293e+01 4.106306e+01 5.841439e+01 3.961232e+01 5.328606e+01 4.181492e+01 4.136160e+01 1.626806e+01 1.246212e-01 3.456906e-01 4.902392e-01 5.794741e-01 7.211574e-01 8.885956e-01 8.485624e-01 1.403322e+00 1.067726e+00 1.118463e+00 1.001239e+00 7.896833e-01 1.479390e-01 2.036183e-02 5.438400e-02 7.189064e-02 8.896272e-02 1.174224e-01 1.347994e-01 1.656120e-01 2.016197e-01 1.653354e-01 1.742526e-01 1.658808e-01 1.460775e-01 2.072844e-02
<GCONST> 8.140753e+01
<STATE> 3
<MEAN> 39
 -4.130665e+00 2.422649e+00 8.912115e+00 -2.947388e+00 -1.862426e+01 -1.526635e+01 -3.770973e+00 -9.990881e+00 -9.701183e+00 -3.980748e+00 8.227991e-01 -4.451908e+00 6.947783e+01 -1.296546e-01 7.064516e-01 3.166563e-01 3.046013e-01 3.943844e-01 6.154361e-01 7.671485e-02 -3.788825e-01 -1.901800e-01 -1.074562e-01 -4.079151e-01 -2.582696e-01 -6.881260e-01 -1.068908e-02 -4.139613e-02 -8.166788e-02 1.590703e-02 1.161519e-01 2.779779e-02 9.954259e-03 1.062488e-01 6.698467e-02 -4.166622e-02 -3.219856e-02 4.020988e-02 -2.503225e-02
<VARIANCE> 39
 6.432791e+00 2.475116e+01 3.260287e+01 5.149694e+01 6.348286e+01 8.309610e+01 3.673188e+01 3.614481e+01 2.904651e+01 5.088127e+01 3.645526e+01 3.949064e+01 1.933524e+01 1.322605e-01 4.249675e-01 6.496833e-01 7.709336e-01 9.074964e-01 9.873214e-01 1.030342e+00 1.437135e+00 9.246112e-01 9.889409e-01 1.023138e+00 9.265857e-01 1.584103e-01 2.316794e-02 4.983424e-02 9.237866e-02 1.275988e-01 1.620567e-01 1.735702e-01 1.817425e-01 2.249066e-01 1.682198e-01 1.758734e-01 1.651342e-01 1.715963e-01 1.365086e-02
<GCONST> 8.284393e+01
<STATE> 4
<MEAN> 39
 -7.436484e+00 5.883874e+00 8.704013e+00 2.350496e+00 -1.165523e+01 -9.521686e+00 -1.881625e+00 -9.414800e+00 -8.371476e+00 -6.235503e+00 -2.688136e+00 -3.517871e+00 6.243083e+01 -3.208016e-01 -1.842615e-01 -7.552028e-01 2.004274e-01 1.054295e+00 8.102271e-01 1.807245e-01 4.904446e-01 1.808351e-01 2.287565e-01 6.771353e-02 2.649910e-01 -8.847458e-01 -3.210753e-02 -1.367772e-01 -1.333127e-01 -9.406827e-02 -9.468804e-03 2.306836e-02 4.792088e-02 1.351155e-01 9.910119e-02 1.252579e-01 8.260840e-02 5.002841e-02 1.552077e-02
<VARIANCE> 39
 1.157448e+01 2.774611e+01 4.831092e+01 2.744386e+01 6.692025e+01 6.023485e+01 4.152197e+01 3.536351e+01 4.261142e+01 3.822719e+01 2.223053e+01 3.649605e+01 2.991470e+01 3.053199e-01 7.822618e-01 1.081434e+00 9.120161e-01 1.736140e+00 1.480550e+00 1.811396e+00 2.196185e+00 1.592613e+00 1.762720e+00 1.599749e+00 1.432514e+00 3.291255e-01 5.241307e-02 1.115037e-01 1.506673e-01 1.477595e-01 2.862776e-01 2.700407e-01 3.425156e-01 3.765525e-01 2.458218e-01 2.800824e-01 2.734734e-01 2.467868e-01 4.206108e-02
<GCONST> 9.725907e+01
<TRANSP> 5
 0.000000e+00 1.000000e+00 0.000000e+00 0.000000e+00 0.000000e+00
 0.000000e+00 8.857114e-01 1.142886e-01 0.000000e+00 0.000000e+00
 0.000000e+00 0.000000e+00 8.918628e-01 1.081372e-01 0.000000e+00
 0.000000e+00 0.000000e+00 0.000000e+00 8.930182e-01 1.069818e-01
 0.000000e+00 0.000000e+00 0.000000e+00 0.000000e+00 0.000000e+00
<ENDHMM>
~h "ii"
<BEGINHMM>
<NUMSTATES> 5
<STATE> 2
<MEAN> 39
 -4.244531e+00 2.663086e+00 9.173468e+00 -2.947534e+00 -1.550727e+01 -1.299537e+01 -5.058853e+00 -1.202913e+01 -1.042443e+01 -7.006144e+00 -7.559843e-01 -5.069034e+00 7.047057e+01 1.173270e-01 2.793337e-01 -7.632323e-02 9.230293e-02 2.713893e-01 3.636264e-01 1.953429e-01 -2.096608e-02 -1.068227e-01 -3.614804e-02 -3.579215e-02 2.069712e-02 -3.736157e-01 -4.639198e-02 9.816855e-03 -4.413103e-02 5.324919e-02 7.563317e-02 1.174750e-02 4.626615e-02 5.369448e-02 3.811588e-02 -1.979892e-02 -3.507938e-02 2.101524e-03 -1.509525e-02
<VARIANCE> 39
 1.335359e+01 2.012201e+01 4.620527e+01 5.857984e+01 5.602645e+01 7.898785e+01 5.943926e+01 4.535838e+01 3.339318e+01 4.478924e+01 3.250292e+01 4.238632e+01 2.050432e+01 2.792389e-01 5.324814e-01 7.404419e-01 7.711696e-01 1.297919e+00 1.343767e+00 1.316293e+00 1.047175e+00 1.096504e+00 1.107325e+00 1.091243e+00 9.195364e-01 2.912196e-01 4.801273e-02 8.003616e-02 1.224637e-01 1.257337e-01 2.359604e-01 2.215614e-01 2.410893e-01 1.796654e-01 1.958098e-01 2.167217e-01 2.012087e-01 1.518136e-01 4.634509e-02
<GCONST> 9.085742e+01
<STATE> 3
<MEAN> 39
 -5.144064e+00 7.379895e+00 9.399262e+00 -1.053626e+00 -1.043824e+01 -1.259228e+01 -1.742630e+00 -1.088251e+01 -9.867912e+00 -6.340053e+00 -3.567498e+00 -4.078831e+00 6.754137e+01 -1.159601e-03 1.837454e-01 -1.889516e-01 8.935321e-02 4.197342e-01 2.194241e-01 9.165248e-02 1.197304e-01 -3.586427e-02 1.527959e-03 -9.456096e-02 1.571177e-01 -4.265614e-01 -3.114553e-02 -9.912927e-02 -5.967626e-02 1.406787e-02 -3.163350e-02 -9.835952e-03 -2.103730e-02 1.701285e-02 2.749865e-02 -1.014090e-02 -2.253068e-02 1.740250e-02 3.508204e-02
<VARIANCE> 39
 1.792353e+01 1.772792e+01 8.998236e+01 4.259042e+01 4.448645e+01 4.770634e+01 5.002351e+01 3.555117e+01 2.631308e+01 2.775041e+01 4.949291e+01 3.220009e+01 1.730583e+01 1.922712e-01 4.267401e-01 5.895929e-01 6.506557e-01 9.430841e-01 1.119502e+00 1.167851e+00 1.137118e+00 1.224315e+00 1.032143e+00 1.190784e+00 9.509232e-01 2.232488e-01 3.033082e-02 6.939130e-02 9.848802e-02 1.032306e-01 1.906577e-01 2.011062e-01 1.982812e-01 2.035520e-01 1.995040e-01 1.788687e-01 1.974765e-01 1.668421e-01 4.467917e-02
<GCONST> 8.631245e+01
<STATE> 4
<MEAN> 39
 -7.091613e+00 6.485575e+00 6.727196e+00 2.131529e+00 -5.754585e+00 -8.234687e+00 -1.355811e+00 -8.888845e+00 -8.975374e+00 -6.141217e+00 -3.246187e+00 -2.738115e+00 6.136209e+01 -1.265928e-01 -4.087237e-01 -9.372544e-01 4.059942e-02 6.684625e-01 7.957572e-01 2.785255e-01 5.716910e-01 2.242187e-01 1.563080e-01 9.456385e-03 1.989351e-01 -5.999135e-01 -8.323004e-03 -1.447541e-01 -1.367635e-01 -1.922924e-01 -1.406535e-01 4.008924e-02 3.627641e-02 7.006093e-02 1.680074e-01 1.222290e-01 8.130056e-02 -4.770404e-03 1.141312e-01
<VARIANCE> 39
 3.072150e+01 2.900870e+01 5.740142e+01 2.831331e+01 3.899828e+01 4.732066e+01 5.821469e+01 3.476435e+01 3.118645e+01 3.535756e+01 2.526171e+01 2.745428e+01 2.461625e+01 4.631102e-01 6.748644e-01 8.902616e-01 1.003060e+00 1.514191e+00 1.393213e+00 1.772827e+00 1.833747e+00 1.996651e+00 1.877451e+00 1.593148e+00 1.742337e+00 3.162382e-01 6.425080e-02 1.388398e-01 1.802507e-01 2.074195e-01 2.555050e-01 2.724954e-01 3.368436e-01 3.059728e-01 3.488932e-01 3.353969e-01 3.244705e-01 3.463442e-01 6.736173e-02
<GCONST> 9.961553e+01
<TRANSP> 5
 0.000000e+00 1.000000e+00 0.000000e+00 0.000000e+00 0.000000e+00
 0.000000e+00 7.742462e-01 2.257538e-01 0.000000e+00 0.000000e+00
 0.000000e+00 0.000000e+00 7.813960e-01 2.186040e-01 0.000000e+00
 0.000000e+00 0.000000e+00 0.000000e+00 7.086945e-01 2.913054e-01
 0.000000e+00 0.000000e+00 0.000000e+00 0.000000e+00 0.000000e+00
<ENDHMM>
~h "oe"
<BEGINHMM>
<NUMSTATES> 5
<STATE> 2
<MEAN> 39
 1.063981e+00 -3.671645e+00 -7.476239e+00 -9.766150e+00 -1.108550e+01 -1.129584e+01 -1.086273e+01 -1.321414e+01 -9.531312e-01 2.366634e+00 2.642225e+00 -1.233701e+00 7.335187e+01 -6.627300e-01 -1.057158e+00 1.096355e+00 2.312377e+00 3.547868e-01 -2.441316e+00 -1.756784e+00 1.144485e+00 2.026645e+00 9.678985e-02 -8.677555e-01 -9.636310e-01 2.953566e-01 -4.719365e-02 3.125595e-01 3.868361e-01 -5.722947e-02 -5.079534e-01 -2.290862e-01 6.397014e-01 6.104277e-01 -3.003199e-01 -8.522343e-01 -4.227430e-01 3.240842e-01 -1.985977e-01
<VARIANCE> 39
 1.048305e+01 2.611105e+01 4.821870e+01 4.867969e+01 5.437087e+01 6.651369e+01 4.392305e+01 5.318688e+01 5.502238e+01 4.430231e+01 4.497323e+01 5.333543e+01 1.781720e+01 2.198173e-01 9.819621e-01 1.238471e+00 1.758178e+00 2.951870e+00 2.562941e+00 3.951404e+00 3.711662e+00 3.142733e+00 4.907882e+00 2.823366e+00 2.804288e+00 3.332089e-01 4.805916e-02 1.130569e-01 1.811234e-01 3.726861e-01 3.579798e-01 6.061347e-01 6.124607e-01 6.320981e-01 9.795145e-01 4.199988e-01 7.572334e-01 6.563016e-01 3.314020e-02
<GCONST> 1.117395e+02
<STATE> 3
<MEAN> 39
 -1.513939e+00 -4.614036e+00 -2.494562e-01 -2.966776e+00 -1.509774e+01 -2.057702e+01 -1.015647e+01 -4.811202e+00 -4.574364e-01 -4.903511e+00 -7.989793e-01 -3.213563e-01 7.182758e+01 -3.546666e-01 6.619544e-01 7.936383e-01 5.543748e-01 -1.364518e-01 -3.447723e-01 5.670059e-01 5.238273e-01 -6.857470e-01 -7.139227e-01 7.425769e-02 3.664746e-01 -8.529595e-01 1.860920e-02 1.743339e-01 -2.504853e-01 -1.869361e-01 2.506637e-01 4.702963e-01 1.684244e-02 -2.698209e-01 -6.916444e-02 3.764048e-01 2.014083e-01 -9.953776e-02 -2.055573e-01
<VARIANCE> 39
 8.951561e+00 2.278054e+01 4.822206e+01 4.525967e+01 6.371011e+01 5.312082e+01 3.403483e+01 4.001439e+01 4.475483e+01 5.327968e+01 4.142524e+01 3.241626e+01 1.860973e+01 3.758726e-01 8.718014e-01 1.390381e+00 1.372766e+00 2.245434e+00 2.509695e+00 2.138460e+00 2.422103e+00 1.939921e+00 2.460901e+00 2.169715e+00 1.685521e+00 8.099639e-01 6.422929e-02 1.392204e-01 2.121089e-01 2.392230e-01 3.159595e-01 4.031348e-01 3.451400e-01 3.921777e-01 4.239033e-01 3.754588e-01 3.721620e-01 2.922775e-01 6.753522e-02
<GCONST> 1.049734e+02
<STATE> 4
<MEAN> 39
 -5.583755e+00 1.387629e+00 4.533775e-01 2.271818e-01 -1.008705e+01 -1.498923e+01 -5.341804e+00 -3.699045e+00 -3.105696e+00 -3.540997e+00 8.479462e-01 3.241447e-01 6.251483e+01 -4.969547e-01 1.423612e-01 -2.609960e-01 1.199418e-01 6.398576e-01 1.012869e+00 4.077438e-01 2.064592e-01 1.322342e-01 3.324305e-01 3.603444e-02 1.077206e-01 -9.367830e-01 -1.642697e-02 -1.324450e-01 -5.100928e-02 -7.636203e-02 1.054503e-02 3.506655e-02 -5.467925e-03 2.206935e-02 7.861276e-02 -1.631750e-02 -4.239692e-02 1.266893e-02 1.306449e-01
<VARIANCE> 39
 1.592171e+01 1.976246e+01 2.968954e+01 2.792586e+01 4.165981e+01 5.300803e+01 5.124474e+01 4.231027e+01 3.393157e+01 4.008000e+01 2.708968e+01 2.666797e+01 4.472385e+01 3.645630e-01 6.679271e-01 8.858478e-01 9.405413e-01 1.389785e+00 1.842050e+00 1.509685e+00 1.617246e+00 1.593395e+00 1.622541e+00 1.497900e+00 1.422363e+00 5.718004e-01 6.086516e-02 1.171921e-01 1.419869e-01 1.707883e-01 2.515553e-01 2.629112e-01 2.815832e-01 3.083133e-01 2.831240e-01 2.863684e-01 2.828304e-01 2.777639e-01 8.238187e-02
<GCONST> 9.713879e+01
<TRANSP> 5
 0.000000e+00 1.000000e+00 0.000000e+00 0.000000e+00 0.000000e+00
 0.000000e+00 7.693092e-01 2.306909e-01 0.000000e+00 0.000000e+00
 0.000000e+00 0.000000e+00 8.420851e-01 1.579149e-01 0.000000e+00
 0.000000e+00 0.000000e+00 0.000000e+00 8.964643e-01 1.035356e-01
 0.000000e+00 0.000000e+00 0.000000e+00 0.000000e+00 0.000000e+00
<ENDHMM>
~h "oi"
<BEGINHMM>
<NUMSTATES> 5
<STATE> 2
<MEAN> 39
 2.265432e+00 -7.571161e-01 -7.960314e+00 -1.139567e+01 -9.993219e+00 -8.488653e+00 -9.736666e+00 -1.546255e+01 -5.488100e+00 9.454504e-02 3.889473e+00 -2.653919e-01 7.228513e+01 -7.214535e-01 -1.197889e+00 9.671305e-01 3.250907e+00 1.105762e+00 -2.790883e+00 -2.469422e+00 3.859037e-01 1.930374e+00 5.064697e-01 -5.246238e-01 -1.689872e+00 2.708142e-01 -1.250710e-01 1.979324e-01 6.479579e-01 3.076314e-01 -6.753699e-01 -6.859695e-01 5.613369e-01 9.103237e-01 7.072344e-02 -9.361914e-01 -7.255260e-01 7.882147e-02 -1.532474e-01
<VARIANCE> 39
 1.089065e+01 2.868541e+01 4.298510e+01 7.084907e+01 5.008783e+01 6.983357e+01 7.736080e+01 5.216822e+01 6.320859e+01 4.693592e+01 4.412486e+01 5.924610e+01 1.845150e+01 3.494866e-01 8.695189e-01 2.048385e+00 2.036881e+00 3.541306e+00 3.762770e+00 3.302105e+00 4.918967e+00 3.528301e+00 5.664925e+00 5.151366e+00 2.674089e+00 3.311608e-01 5.564824e-02 1.477768e-01 1.754318e-01 5.792773e-01 4.505939e-01 8.982835e-01 1.129130e+00 5.439097e-01 1.516807e+00 7.352175e-01 8.087941e-01 1.105150e+00 4.431127e-02
<GCONST> 1.192134e+02
<STATE> 3
<MEAN> 39
 -2.481437e+00 -1.770718e+00 1.613651e+00 6.746336e-01 -1.128421e+01 -1.891280e+01 -9.454874e+00 -9.081528e+00 -4.738474e+00 -7.053028e+00 -7.678561e-01 -2.272962e+00 7.114004e+01 -5.157636e-01 3.389600e-01 8.628511e-01 6.496247e-01 -1.078319e-01 1.147681e-01 1.107501e+00 5.631918e-01 -7.717063e-01 -7.850538e-01 1.108794e-01 3.310532e-01 -5.935569e-01 6.671429e-02 1.892934e-01 -3.160588e-01 -5.260940e-01 8.023301e-02 6.410754e-01 2.045346e-01 -3.026554e-01 -1.649852e-01 3.153085e-01 1.869954e-01 3.819738e-02 -1.058902e-01
<VARIANCE> 39
 1.386042e+01 2.618530e+01 6.180354e+01 5.363398e+01 9.658077e+01 7.779288e+01 4.636342e+01 4.724077e+01 7.245702e+01 4.797255e+01 4.936955e+01 4.850689e+01 2.757830e+01 4.304228e-01 1.125890e+00 4.611143e+00 3.634480e+00 4.895819e+00 6.023766e+00 3.968076e+00 3.492231e+00 3.790213e+00 4.952995e+00 3.309449e+00 2.390544e+00 2.980766e-01 6.309810e-02 2.114842e-01 2.958388e-01 4.130906e-01 7.136488e-01 7.563527e-01 8.985305e-01 6.535639e-01 8.580930e-01 7.710795e-01 7.110320e-01 5.371881e-01 3.937874e-02
<GCONST> 1.212656e+02
<STATE> 4
<MEAN> 39
 -4.588143e+00 2.829168e+00 4.611431e+00 7.836587e-01 -1.222191e+01 -1.410775e+01 -3.820351e+00 -9.187765e+00 -7.698332e+00 -6.499523e+00 -8.208224e-01 -3.009494e+00 6.473563e+01 -3.646359e-01 2.508191e-01 -1.262061e-01 -5.866366e-02 6.419750e-01 8.688817e-01 3.303697e-01 2.261489e-01 1.097027e-01 3.072277e-01 -1.923095e-01 5.528564e-02 -7.918221e-01 7.647457e-03 -1.100363e-01 -1.482586e-01 -3.713709e-02 1.130078e-01 4.125755e-02 -8.181352e-02 1.041087e-01 1.518821e-01 6.071552e-02 9.326674e-03 1.984416e-02 1.305654e-02
<VARIANCE> 39
 1.575347e+01 2.299978e+01 3.961235e+01 3.578628e+01 6.425311e+01 5.387230e+01 4.675587e+01 4.137830e+01 3.629741e+01 4.142247e+01 2.803218e+01 4.564922e+01 3.047502e+01 2.967080e-01 8.770838e-01 1.155914e+00 1.148125e+00 1.658226e+00 1.551816e+00 1.870057e+00 2.167734e+00 1.825021e+00 1.514394e+00 1.363952e+00 1.628060e+00 2.865587e-01 5.061367e-02 1.142729e-01 1.592781e-01 1.572642e-01 2.373856e-01 2.795900e-01 3.260821e-01 3.490278e-01 3.085262e-01 2.857386e-01 2.414808e-01 2.838946e-01 2.942932e-02
<GCONST> 9.791681e+01
<TRANSP> 5
 0.000000e+00 1.000000e+00 0.000000e+00 0.000000e+00 0.000000e+00
 0.000000e+00 7.534100e-01 2.465900e-01 0.000000e+00 0.000000e+00
 0.000000e+00 0.000000e+00 8.421753e-01 1.578247e-01 0.000000e+00
 0.000000e+00 0.000000e+00 0.000000e+00 8.974973e-01 1.025027e-01
 0.000000e+00 0.000000e+00 0.000000e+00 0.000000e+00 0.000000e+00
<ENDHMM>
~h "oo"
<BEGINHMM>
<NUMSTATES> 5
<STATE> 2
<MEAN> 39
 3.918265e+00 9.901275e+00 -2.555455e+00 -1.445041e+01 -2.079737e+01 -1.307187e+01 -5.817042e+00 -6.392434e+00 -1.889898e+00 -1.582526e-01 -2.814743e+00 -3.245265e+00 6.711582e+01 1.100312e-02 -3.837462e-02 -7.446118e-02 5.201961e-02 -8.979197e-02 1.590206e-01 3.755906e-01 5.965913e-02 -1.848498e-01 -3.958870e-02 5.111494e-02 -3.354680e-02 -7.718311e-02 -1.074237e-01 -8.407035e-02 -8.165449e-02 1.205797e-01 2.720678e-01 9.039818e-02 1.012434e-01 7.800540e-02 -9.052442e-02 -1.475750e-01 2.261069e-02 7.499373e-02 -3.792489e-02
<VARIANCE> 39
 6.383935e+00 2.649360e+01 3.773564e+01 3.094151e+01 3.778334e+01 3.423212e+01 4.091852e+01 4.746175e+01 3.562622e+01 5.180305e+01 2.984934e+01 2.794302e+01 1.205585e+01 1.356617e-01 4.824477e-01 6.430955e-01 6.763846e-01 1.169093e+00 9.801080e-01 1.452021e+00 1.365070e+00 1.528543e+00 1.215868e+00 1.233196e+00 1.055883e+00 1.943555e-01 4.650382e-02 1.171537e-01 1.510808e-01 1.469878e-01 3.039666e-01 1.958514e-01 2.602554e-01 2.579449e-01 2.930315e-01 2.862688e-01 2.455065e-01 2.273355e-01 2.538624e-02
<GCONST> 8.827082e+01
<STATE> 3
<MEAN> 39
 2.415041e+00 1.114093e+01 -1.604140e+00 -1.297359e+01 -2.014315e+01 -1.281327e+01 -1.916814e+00 -5.276473e+00 -2.174192e+00 -3.123443e-01 -1.781705e+00 -4.899007e+00 6.629406e+01 -1.491840e-01 -5.127774e-01 -4.837396e-01 2.986656e-01 5.907734e-01 2.000631e-01 8.462238e-01 2.407175e-01 -7.580907e-01 -5.292879e-01 2.229699e-01 2.964272e-01 -2.592257e-02 -6.168681e-02 -2.338137e-01 -1.529378e-01 2.644665e-01 5.090822e-01 5.449432e-02 -1.186858e-01 -9.888452e-02 -1.769957e-01 -1.110284e-01 1.182382e-01 2.487366e-01 -5.906017e-04
<VARIANCE> 39
 9.987091e+00 4.108348e+01 4.544382e+01 3.932925e+01 4.616927e+01 4.687856e+01 4.416473e+01 4.954672e+01 4.459636e+01 5.650465e+01 3.984190e+01 2.209961e+01 1.851016e+01 2.730263e-01 7.560232e-01 1.032381e+00 1.503901e+00 1.487939e+00 1.889755e+00 3.103560e+00 2.554111e+00 2.877364e+00 2.264782e+00 2.528394e+00 1.797142e+00 3.927832e-01 5.399416e-02 1.195084e-01 1.838306e-01 2.858807e-01 5.047657e-01 3.993244e-01 4.377445e-01 3.631267e-01 4.447585e-01 3.769776e-01 3.945930e-01 3.927128e-01 3.189769e-02
<GCONST> 1.039783e+02
<STATE> 4
<MEAN> 39
 1.535846e+00 7.641447e+00 -4.085186e+00 -1.152122e+01 -1.696079e+01 -9.850379e+00 -2.697033e-01 -4.689141e+00 -5.383000e+00 -2.782178e+00 -1.442087e+00 -2.919306e+00 6.499616e+01 -2.964505e-01 -1.027829e+00 -8.091131e-01 1.180039e+00 1.911061e+00 4.542717e-01 -1.462504e-02 -1.859674e-01 -1.057999e+00 -3.618935e-01 6.870868e-01 9.989379e-01 -1.356491e-01 -5.788606e-02 -1.018247e-01 -1.490265e-02 3.352931e-01 5.025006e-01 -1.233564e-02 -5.517008e-01 -2.175882e-01 2.873073e-01 2.144887e-01 9.125469e-02 1.680852e-02 -5.462794e-02
<VARIANCE> 39
 1.824638e+01 2.746696e+01 3.397169e+01 4.362527e+01 5.170923e+01 4.700074e+01 6.336962e+01 4.630880e+01 4.950876e+01 6.258706e+01 3.669065e+01 3.302060e+01 3.541156e+01 5.899277e-01 7.499914e-01 1.366881e+00 1.712218e+00 2.241819e+00 2.495278e+00 2.605093e+00 2.794933e+00 3.283569e+00 3.408238e+00 2.874694e+00 2.730671e+00 4.899724e-01 6.839380e-02 1.138863e-01 1.932818e-01 3.329635e-01 7.182413e-01 4.907647e-01 6.887157e-01 5.830831e-01 5.057699e-01 4.562890e-01 4.994848e-01 5.083117e-01 4.846583e-02
<GCONST> 1.117674e+02
<TRANSP> 5
 0.000000e+00 1.000000e+00 0.000000e+00 0.000000e+00 0.000000e+00
 0.000000e+00 7.345887e-01 2.654112e-01 0.000000e+00 0.000000e+00
 0.000000e+00 0.000000e+00 4.836400e-01 5.163600e-01 0.000000e+00
 0.000000e+00 0.000000e+00 0.000000e+00 5.780827e-01 4.219173e-01
 0.000000e+00 0.000000e+00 0.000000e+00 0.000000e+00 0.000000e+00
<ENDHMM>
~h "ou"
<BEGINHMM>
<NUMSTATES> 5
<STATE> 2
<MEAN> 39
 3.615922e+00 3.974793e+00 -7.054586e+00 -1.301854e+01 -1.563574e+01 -7.361001e+00 -5.630020e+00 -9.409033e+00 -8.066240e+00 -5.089177e+00 1.894113e+00 5.965170e-01 6.934538e+01 -4.042414e-02 3.567221e-01 3.059877e-01 5.833368e-01 1.321610e-01 -2.317484e-01 -2.995763e-01 -2.365267e-01 -3.315665e-01 -3.852922e-01 -9.126293e-02 -2.194075e-02 -3.172344e-01 -3.215869e-02 5.355254e-02 4.788677e-02 7.063360e-02 9.715991e-02 8.199392e-03 3.224805e-02 8.777927e-02 3.073794e-02 -4.240850e-02 -7.842533e-02 -5.038295e-02 -7.617430e-02
<VARIANCE> 39
 7.008882e+00 3.187860e+01 2.155286e+01 6.821737e+01 5.109802e+01 4.732896e+01 9.809326e+01 5.849702e+01 6.111597e+01 4.708065e+01 4.171463e+01 3.731300e+01 1.387320e+01 1.248794e-01 4.450105e-01 5.652189e-01 9.306508e-01 9.227752e-01 1.171961e+00 1.115780e+00 1.360289e+00 1.201527e+00 1.363312e+00 1.170934e+00 1.115505e+00 1.864049e-01 2.343816e-02 5.983688e-02 7.957967e-02 1.366479e-01 1.603529e-01 1.994723e-01 1.813461e-01 2.324086e-01 1.995228e-01 2.398284e-01 1.857202e-01 1.764238e-01 2.056342e-02
<GCONST> 8.677174e+01
<STATE> 3
<MEAN> 39
 1.985386e+00 1.170067e+01 -1.584803e+00 -8.865718e+00 -1.420917e+01 -9.399429e+00 -1.873299e+00 -8.425827e+00 -8.834391e+00 -7.173300e+00 -3.846016e+00 -2.442918e+00 6.529913e+01 -2.849065e-01 2.839795e-01 3.329450e-01 7.625589e-01 7.019065e-01 1.348439e-01 -3.164924e-01 2.091834e-01 5.229307e-02 -2.695133e-01 -3.214456e-01 -1.854487e-01 -6.558793e-01 -6.493499e-02 -9.520569e-02 -7.430545e-03 2.697990e-02 9.679806e-02 1.167382e-01 1.632650e-03 -1.108214e-02 7.681681e-02 1.038177e-01 3.944514e-02 2.540456e-02 -2.884282e-02
<VARIANCE> 39
 5.058628e+00 3.090365e+01 2.824662e+01 4.131964e+01 4.795133e+01 5.019582e+01 8.888948e+01 4.274242e+01 3.777798e+01 4.450685e+01 3.784336e+01 4.074488e+01 1.954328e+01 1.776546e-01 4.901485e-01 6.436272e-01 9.851272e-01 1.168290e+00 1.354526e+00 1.753604e+00 1.606227e+00 1.328375e+00 1.506525e+00 1.353779e+00 1.363505e+00 2.331738e-01 3.003909e-02 6.268916e-02 9.716776e-02 1.437423e-01 1.806792e-01 2.056794e-01 2.644472e-01 2.466483e-01 2.354600e-01 2.622376e-01 2.310154e-01 2.191870e-01 2.093425e-02
<GCONST> 8.980728e+01
<STATE> 4
<MEAN> 39
 -2.675785e+00 8.479195e+00 -8.148991e-01 -1.722863e+00 -5.481603e+00 -5.510060e+00 -4.976707e+00 -6.309899e+00 -6.493884e+00 -6.063797e+00 -3.812906e+00 -2.207764e+00 6.003234e+01 -6.795194e-01 -4.614478e-01 -1.069367e-01 3.109508e-01 6.505667e-01 4.973055e-01 2.186114e-01 4.427693e-01 4.536268e-01 4.118419e-01 9.867754e-02 1.343356e-01 -6.530653e-01 -2.476062e-02 -8.355314e-02 -8.293725e-02 -1.024373e-01 -4.924976e-02 6.458388e-03 9.230484e-02 5.089350e-02 5.189995e-02 7.006026e-02 5.241236e-02 4.195771e-02 4.921974e-02
<VARIANCE> 39
 9.958230e+00 3.247317e+01 2.087818e+01 2.384212e+01 2.673357e+01 2.568714e+01 3.311909e+01 3.380025e+01 2.449249e+01 3.028268e+01 2.911325e+01 2.883863e+01 2.305109e+01 3.507532e-01 6.743903e-01 7.030959e-01 1.172696e+00 1.361486e+00 1.240566e+00 1.793930e+00 1.683067e+00 1.395322e+00 1.483834e+00 1.547869e+00 1.332807e+00 3.373699e-01 4.783243e-02 1.021139e-01 1.355555e-01 1.968557e-01 2.214819e-01 2.316271e-01 2.757388e-01 3.009164e-01 2.533673e-01 2.746581e-01 2.758873e-01 2.522498e-01 4.054813e-02
<GCONST> 9.111800e+01
<TRANSP> 5
 0.000000e+00 1.000000e+00 0.000000e+00 0.000000e+00 0.000000e+00
 0.000000e+00 8.697777e-01 1.302222e-01 0.000000e+00 0.000000e+00
 0.000000e+00 0.000000e+00 8.587075e-01 1.412925e-01 0.000000e+00
