~o
<STREAMINFO> 1 39
<VECSIZE> 39<NULLD><MFCC_D_A_0><DIAGC>
~s "silst"
<MEAN> 39
 -1.053396e+01 -1.015882e+00 -3.966744e+00 -3.365834e+00 -4.371946e+00 -4.001947e+00 -9.807819e-01 -1.610736e+00 -4.730759e-01 -1.216929e+00 3.443851e-01 -8.085378e-02 6.061032e+01 -1.430613e-01 -7.820571e-01 -5.595806e-01 -8.601950e-01 -4.045053e-01 -3.415783e-02 2.574338e-01 -5.399946e-02 8.633085e-02 -1.480573e-02 5.759761e-02 -1.382434e-01 1.331562e+00 1.220918e-01 1.836978e-01 8.135703e-02 -2.551506e-02 5.468540e-03 7.506504e-02 9.765765e-02 -1.483853e-02 -3.014094e-02 -1.660724e-02 -9.723643e-02 -5.636460e-02 -5.824218e-02
<VARIANCE> 39
 1.780815e+01 3.783259e+01 3.614253e+01 4.296288e+01 4.340780e+01 5.986958e+01 4.134954e+01 3.757045e+01 3.664387e+01 3.326316e+01 2.609091e+01 2.528061e+01 5.821832e+01 1.733380e+00 2.794302e+00 2.612410e+00 2.986594e+00 4.082403e+00 4.117157e+00 3.229138e+00 3.128487e+00 2.774814e+00 2.833905e+00 2.376482e+00 1.977270e+00 4.486544e+00 3.007553e-01 5.508895e-01 4.190299e-01 5.465212e-01 6.706588e-01 7.175587e-01 6.395535e-01 5.937544e-01 5.530805e-01 5.461128e-01 4.570689e-01 3.813205e-01 8.037573e-01
<GCONST> 1.241538e+02
~h "a"
<BEGINHMM>
<NUMSTATES> 5
<STATE> 2
<MEAN> 39
 7.768261e-01 -4.087202e+00 -1.023126e+01 -1.040408e+01 -4.326597e+00 -4.335723e+00 -1.958621e+00 -5.525074e+00 2.377909e+00 2.924635e+00 -3.689379e+00 -8.228190e+00 7.311917e+01 -8.696094e-01 1.500938e+00 1.319895e+00 1.662432e+00 4.234414e-01 -1.364150e+00 -1.361731e+00 7.609211e-01 6.366494e-01 7.976168e-01 7.724656e-01 2.387922e-01 -1.346283e+00 -2.111109e-01 6.122149e-01 2.326144e-01 1.424450e-01 -1.007665e-01 1.178904e-01 2.117699e-01 2.854274e-02 -3.763366e-01 -4.648035e-01 1.140220e-01 4.008364e-01 -8.063221e-01
<VARIANCE> 39
 6.438635e+00 2.584564e+01 3.942674e+01 4.053924e+01 4.643807e+01 4.426496e+01 3.942982e+01 4.656277e+01 3.804611e+01 5.922471e+01 7.225802e+01 6.099973e+01 1.615257e+01 8.167053e-01 1.976976e+00 1.264332e+00 2.045703e+00 1.709779e+00 2.142568e+00 2.477875e+00 2.127297e+00 2.933858e+00 2.211832e+00 2.555468e+00 2.962919e+00 1.504819e+00 1.099130e-01 4.757116e-01 2.833578e-01 5.159389e-01 5.127163e-01 6.086334e-01 4.950545e-01 3.553867e-01 6.054310e-01 4.739839e-01 7.355305e-01 5.630876e-01 2.391249e-01
<GCONST> 1.155619e+02
<STATE> 3
<MEAN> 39
 -3.150161e+00 7.048641e-01 -7.207666e+00 -7.799767e+00 -3.909484e+00 -6.471712e+00 -3.756311e+00 -4.464146e+00 1.881721e+00 4.198138e+00 1.614156e-01 -4.919307e+00 6.439885e+01 -9.524933e-01 2.735681e-01 4.229345e-01 2.178961e-01 1.472234e-01 1.909079e-01 3.879806e-02 6.217252e-01 -2.897214e-01 -4.105674e-01 2.783308e-01 4.415233e-01 -2.188220e+00 7.640181e-02 -3.294581e-01 -2.792955e-01 -2.587215e-01 -1.018408e-01 2.660910e-01 1.986868e-01 -7.625409e-02 -1.306730e-01 -1.895306e-01 -1.128372e-01 5.105009e-02 2.071512e-01
<VARIANCE> 39
 1.074504e+01 1.554153e+01 3.257118e+01 2.268377e+01 3.757499e+01 2.266965e+01 2.227157e+01 2.621751e+01 2.293550e+01 2.824111e+01 3.472248e+01 4.277869e+01 2.709672e+01 7.779784e-01 1.404916e+00 1.495656e+00 1.737885e+00 2.287795e+00 2.350673e+00 2.410108e+00 2.384912e+00 2.508112e+00 1.386776e+00 1.851735e+00 1.707877e+00 1.426262e+00 1.532547e-01 2.491153e-01 2.548377e-01 4.507038e-01 3.238419e-01 3.810199e-01 4.703589e-01 3.522562e-01 4.241480e-01 3.101813e-01 2.555127e-01 3.456924e-01 2.100880e-01
<GCONST> 1.054871e+02
<STATE> 4
<MEAN> 39
 -6.242461e+00 2.065300e+00 -5.167157e+00 -4.802930e+00 -2.173242e+00 -1.649448e+00 -9.822988e-01 -1.794758e+00 2.907100e-01 1.020264e+00 -4.727486e-01 -2.664165e+00 5.914435e+01 -7.509431e-01 8.444763e-02 1.257419e-01 8.500297e-02 1.277596e-01 3.259273e-01 2.038108e-01 2.176144e-01 -4.785596e-02 -4.152711e-01 1.936138e-01 5.455621e-01 -5.318555e-01 -1.786851e-01 -4.633490e-02 4.661256e-02 -8.541647e-02 -6.048971e-02 -5.259170e-02 1.539002e-02 -2.651297e-02 1.013082e-01 -5.885128e-02 1.173854e-02 -3.809389e-02 4.700172e-01
<VARIANCE> 39
 8.535303e+00 1.245308e+01 1.528261e+01 1.391594e+01 1.670524e+01 1.658682e+01 2.597608e+01 1.531193e+01 2.277129e+01 1.820429e+01 1.439697e+01 1.724501e+01 2.013099e+01 6.885103e-01 8.255485e-01 9.846255e-01 1.078961e+00 1.030217e+00 1.387413e+00 1.584232e+00 1.324745e+00 1.480763e+00 1.354913e+00 1.167505e+00 1.378542e+00 1.158673e+00 1.770392e-01 2.189085e-01 2.500110e-01 1.688410e-01 2.789194e-01 2.969528e-01 3.683144e-01 3.437632e-01 3.051057e-01 2.658125e-01 2.596087e-01 2.733542e-01 1.393043e-01
<GCONST> 9.166890e+01
<TRANSP> 5
 0.000000e+00 1.000000e+00 0.000000e+00 0.000000e+00 0.000000e+00
 0.000000e+00 6.329694e-01 3.670307e-01 0.000000e+00 0.000000e+00
 0.000000e+00 0.000000e+00 7.198927e-01 2.801073e-01 0.000000e+00
 0.000000e+00 0.000000e+00 0.000000e+00 7.950993e-01 2.049008e-01
 0.000000e+00 0.000000e+00 0.000000e+00 0.000000e+00 0.000000e+00
<ENDHMM>
~h "e"
<BEGINHMM>
<NUMSTATES> 5
<STATE> 2
<MEAN> 39
 -4.837474e+00 2.762819e+00 2.538898e+00 2.004495e+00 -1.135486e+01 -1.331748e+01 -4.488636e+00 -4.937834e+00 -4.222302e+00 -2.893102e+00 -6.911600e-01 -5.832161e-01 6.393954e+01 -4.288447e-01 -1.464010e-01 1.559992e-01 2.217889e-01 1.877661e-02 3.482017e-01 4.210501e-01 4.955643e-01 2.164873e-01 1.341452e-01 -2.011107e-01 3.561772e-01 -5.650603e-01 -1.590086e-02 -6.879164e-02 -1.149981e-01 -1.454156e-01 3.494867e-02 2.155671e-01 7.302526e-02 1.009105e-01 1.354272e-01 3.319939e-02 1.720785e-01 -2.730304e-02 -1.791937e-03
<VARIANCE> 39
 1.804032e+01 2.658646e+01 3.645946e+01 3.614454e+01 5.178924e+01 5.940667e+01 4.635131e+01 3.714569e+01 4.765656e+01 3.228641e+01 3.531028e+01 3.210196e+01 4.005801e+01 1.011527e+00 1.220870e+00 1.932865e+00 1.784145e+00 3.541637e+00 2.330777e+00 3.480816e+00 1.824082e+00 3.422275e+00 2.432498e+00 2.535836e+00 2.066038e+00 1.759693e+00 1.814813e-01 2.392925e-01 2.996293e-01 3.338103e-01 6.105096e-01 4.796911e-01 6.288150e-01 3.815246e-01 6.673443e-01 3.093361e-01 3.245191e-01 4.494035e-01 2.244979e-01
<GCONST> 1.152358e+02
<STATE> 3
<MEAN> 39
 -4.663490e+00 1.196793e+00 4.965930e+00 1.178791e+00 -1.530992e+01 -1.622171e+01 -4.589287e+00 -4.160469e+00 -2.726438e+00 -4.198253e+00 -1.015959e-01 8.547136e-01 6.574298e+01 -2.124532e-01 2.552223e-01 -2.913171e-01 2.101278e-01 9.161409e-01 7.817012e-01 3.083510e-01 1.487246e-01 3.142662e-02 1.365366e-01 2.232792e-01 -1.398004e-01 -1.098237e+00 -5.360595e-02 1.853466e-02 -1.390497e-01 -1.208881e-02 4.380956e-01 3.243246e-01 6.016443e-02 -2.142485e-02 1.359162e-01 4.765131e-02 -7.282349e-02 -1.023451e-01 -1.400418e-01
<VARIANCE> 39
 1.286733e+01 1.801164e+01 4.703782e+01 4.378418e+01 6.146482e+01 6.492702e+01 6.976087e+01 5.685846e+01 3.312048e+01 3.993858e+01 3.850885e+01 3.764281e+01 3.273768e+01 4.311352e-01 8.253064e-01 1.038815e+00 1.441464e+00 2.847806e+00 3.302712e+00 2.053478e+00 2.379167e+00 1.485806e+00 1.303411e+00 2.141680e+00 1.956154e+00 8.631601e-01 8.972637e-02 1.660607e-01 2.008432e-01 2.927652e-01 3.408108e-01 4.208750e-01 4.587740e-01 3.971132e-01 3.535535e-01 3.337093e-01 3.462431e-01 3.545734e-01 1.310102e-01
<GCONST> 1.074782e+02
<STATE> 4
<MEAN> 39
 -6.766962e+00 -1.644772e-01 5.738109e-01 1.145043e+00 -9.247021e+00 -9.601176e+00 1.586689e+00 -8.005556e-01 -5.255988e-01 -3.046232e+00 -1.645153e+00 -1.565676e+00 6.146906e+01 -2.928216e-01 -2.205248e-01 -4.380606e-01 -2.401885e-01 8.626280e-01 7.324796e-01 8.317308e-02 3.117399e-01 5.017102e-01 4.043894e-01 2.986246e-02 6.475997e-02 -6.400361e-01 5.607991e-03 -2.803383e-02 -1.760020e-02 -6.229876e-02 -2.877931e-02 -3.179626e-02 -9.688066e-02 -4.845394e-02 -1.482681e-02 1.974671e-02 5.957478e-03 8.321559e-03 5.189428e-02
<VARIANCE> 39
 1.330043e+01 1.969809e+01 3.089709e+01 2.777838e+01 5.855863e+01 4.659125e+01 5.037678e+01 3.281414e+01 2.630331e+01 3.226826e+01 3.984341e+01 2.922116e+01 2.764231e+01 3.045853e-01 5.990630e-01 7.438452e-01 9.646086e-01 1.610532e+00 1.662945e+00 1.417498e+00 1.736199e+00 1.743735e+00 1.761864e+00 1.744985e+00 1.538684e+00 3.078539e-01 4.334842e-02 9.690341e-02 1.375195e-01 1.423805e-01 2.441987e-01 2.451658e-01 2.218520e-01 2.912139e-01 2.897698e-01 2.709006e-01 3.526162e-01 2.880509e-01 4.005572e-02
<GCONST> 9.421986e+01
<TRANSP> 5
 0.000000e+00 1.000000e+00 0.000000e+00 0.000000e+00 0.000000e+00
 0.000000e+00 5.202302e-01 4.797698e-01 0.000000e+00 0.000000e+00
 0.000000e+00 0.000000e+00 5.183105e-01 4.816895e-01 0.000000e+00
 0.000000e+00 0.000000e+00 0.000000e+00 8.089867e-01 1.910133e-01
 0.000000e+00 0.000000e+00 0.000000e+00 0.000000e+00 0.000000e+00
<ENDHMM>
~h "h"
<BEGINHMM>
<NUMSTATES> 5
<STATE> 2
<MEAN> 39
 -8.386066e+00 -1.257205e+00 -4.685645e+00 -9.246771e+00 -6.875642e+00 -3.280926e+00 4.653204e+00 -7.898867e-01 -3.480771e-01 -1.692739e+00 -2.192636e+00 -1.820951e+00 6.548612e+01 1.667158e+00 1.790250e+00 9.211742e-01 4.611778e-02 -1.247625e+00 -1.306918e+00 -6.863480e-01 -1.080328e+00 -1.025316e+00 -8.129193e-01 -8.372818e-01 -5.623893e-01 1.145077e+00 4.216362e-01 1.046314e-01 5.418312e-02 -1.465801e-01 -4.649725e-01 -3.706476e-01 -3.531633e-01 -2.643428e-01 -1.573464e-01 -6.846115e-02 3.276607e-02 1.194074e-01 2.389835e-01
<VARIANCE> 39
 2.858236e+01 6.702926e+01 6.484244e+01 7.134904e+01 6.058800e+01 5.999205e+01 4.565537e+01 4.941963e+01 4.404026e+01 3.384678e+01 3.054006e+01 3.289234e+01 2.673656e+01 2.145396e+00 1.640850e+00 1.700151e+00 2.797166e+00 3.536026e+00 2.942348e+00 2.672700e+00 3.049647e+00 2.499135e+00 2.120440e+00 2.103818e+00 1.939973e+00 1.071469e+00 2.703969e-01 5.592032e-01 3.637712e-01 4.604374e-01 4.552193e-01 4.281991e-01 4.156744e-01 5.295067e-01 4.623261e-01 3.904280e-01 4.285463e-01 3.765450e-01 1.477855e-01
<GCONST> 1.192281e+02
<STATE> 3
<MEAN> 39
 5.984411e-01 3.596490e+00 -3.214017e+00 -1.194241e+01 -1.629788e+01 -1.145504e+01 -1.191806e+00 -5.806124e+00 -4.143855e+00 -4.470496e+00 -4.942433e+00 -2.523959e+00 7.130750e+01 1.085426e+00 -3.571977e-01 -1.115813e-01 -1.096920e+00 -1.929621e+00 -9.510317e-01 -9.341709e-01 -9.061061e-01 -3.918679e-01 -1.402766e-01 2.958446e-01 6.052109e-01 1.385255e+00 -6.354498e-01 -5.726632e-01 -1.837913e-01 1.227763e-01 5.763534e-01 6.203422e-01 2.380012e-01 1.822214e-01 2.132987e-01 2.281559e-01 4.219971e-01 2.455995e-01 -3.026712e-01
<VARIANCE> 39
 2.085870e+01 6.530558e+01 7.205161e+01 7.258318e+01 5.947724e+01 6.732135e+01 4.712345e+01 4.853185e+01 4.243066e+01 3.760460e+01 3.247631e+01 3.628230e+01 2.768271e+01 1.566637e+00 2.644176e+00 1.759984e+00 2.666991e+00 3.837617e+00 3.494604e+00 3.887516e+00 3.105739e+00 2.824583e+00 1.984680e+00 2.201646e+00 2.027612e+00 1.694970e+00 1.913758e-01 4.930680e-01 2.687874e-01 4.199966e-01 4.976698e-01 3.785547e-01 5.679523e-01 5.687039e-01 4.862441e-01 3.701690e-01 4.599415e-01 3.153106e-01 1.717261e-01
<GCONST> 1.203072e+02
<STATE> 4
<MEAN> 39
 1.400166e+00 1.737284e+00 -4.569400e+00 -1.395302e+01 -1.789665e+01 -8.535440e+00 -2.380137e+00 -8.752530e+00 -4.450021e+00 -5.995944e+00 -1.650789e+00 8.369371e-01 7.264700e+01 -1.372383e-01 -7.904594e-01 -2.408532e-01 2.785861e-01 4.626081e-01 2.374218e-01 -7.242662e-01 -9.915555e-01 -4.019008e-01 3.273888e-01 1.370133e+00 6.233941e-01 4.410436e-01 -1.902569e-01 -3.620343e-02 5.897875e-02 4.595923e-01 4.231786e-01 -1.351426e-01 -2.241148e-01 4.107964e-02 2.233138e-01 2.414349e-01 1.217058e-02 -3.299019e-01 -1.735938e-01
<VARIANCE> 39
 2.012980e+01 5.304093e+01 7.694639e+01 8.724009e+01 6.114405e+01 6.833092e+01 5.654187e+01 5.221225e+01 6.459409e+01 4.205035e+01 4.552230e+01 5.158756e+01 2.049924e+01 2.439181e-01 9.740840e-01 1.172052e+00 1.431807e+00 2.818739e+00 1.890044e+00 2.678855e+00 2.530514e+00 2.320580e+00 2.235292e+00 3.181522e+00 2.240052e+00 3.319081e-01 8.024555e-02 1.543852e-01 2.109445e-01 2.942205e-01 3.769049e-01 4.948399e-01 5.592954e-01 3.933269e-01 5.938463e-01 3.976394e-01 5.362276e-01 5.345902e-01 9.568331e-02
<GCONST> 1.122498e+02
<TRANSP> 5
 0.000000e+00 1.000000e+00 0.000000e+00 0.000000e+00 0.000000e+00
 0.000000e+00 7.552705e-01 2.447296e-01 0.000000e+00 0.000000e+00
 0.000000e+00 0.000000e+00 6.478623e-01 3.521378e-01 0.000000e+00
 0.000000e+00 0.000000e+00 0.000000e+00 6.499656e-01 3.500345e-01
 0.000000e+00 0.000000e+00 0.000000e+00 0.000000e+00 0.000000e+00
<ENDHMM>
~h "i"
<BEGINHMM>
<NUMSTATES> 5
<STATE> 2
<MEAN> 39
 -2.418161e+01 1.919800e+00 1.022923e+00 -6.938396e+00 -3.463654e+00 -4.803360e+00 2.235694e+00 -4.073626e-01 1.324332e+00 -3.155658e+00 2.651775e+00 -2.662088e-01 6.926091e+01 -3.138247e-01 -1.639298e-01 1.839504e+00 1.000766e+00 -3.109380e-01 -7.109694e-01 6.818708e-01 -4.113148e-01 -4.423647e-01 -3.869398e-01 -1.298441e-01 -6.871776e-02 4.199620e-01 1.017007e+00 9.335901e-02 2.113046e-02 3.718177e-01 -1.167882e-01 -3.474911e-01 -2.895122e-01 -2.168760e-01 -2.685985e-01 -1.358122e-01 -1.588024e-01 -3.950442e-02 -3.036166e-01
<VARIANCE> 39
 2.061603e+01 2.423382e+01 5.813249e+01 3.652647e+01 3.345192e+01 4.812811e+01 4.871211e+01 2.815458e+01 2.558382e+01 3.099893e+01 1.952264e+01 2.154087e+01 1.463805e+01 7.486505e+00 2.163959e+00 2.087044e+00 3.039677e+00 2.614985e+00 2.485027e+00 2.263108e+00 2.197661e+00 2.327307e+00 1.869159e+00 1.906001e+00 1.153811e+00 1.568454e+00 3.710967e-01 5.158256e-01 3.917512e-01 3.605059e-01 4.842008e-01 4.219043e-01 5.531899e-01 4.565573e-01 4.476328e-01 3.842126e-01 3.799737e-01 2.324877e-01 1.870712e-01
<GCONST> 1.139389e+02
<STATE> 3
<MEAN> 39
 -1.264818e+01 3.190640e+00 1.127492e+01 2.252829e+00 -7.975424e+00 -1.079467e+01 -1.154179e+00 -6.511300e+00 -4.928886e+00 -7.139069e+00 -7.218832e-01 -5.808433e-01 6.807481e+01 3.734399e+00 1.447510e+00 4.976082e-01 1.815929e+00 -1.313072e+00 -2.715335e+00 -1.897086e+00 -1.215255e+00 -1.362055e+00 -1.388685e+00 -5.601023e-01 5.937045e-01 -1.687031e-01 -4.120181e-01 -1.102068e-01 -7.963040e-01 -5.253359e-01 1.524789e-01 1.487072e-01 1.170703e-01 3.984556e-01 4.154383e-01 1.882084e-01 1.474951e-01 1.788897e-01 -1.248999e-03
<VARIANCE> 39
 3.711592e+01 2.898354e+01 3.908459e+01 5.204690e+01 3.365369e+01 3.781839e+01 3.816087e+01 2.939192e+01 2.195655e+01 2.858453e+01 1.654279e+01 1.711567e+01 1.056140e+01 1.381303e+00 2.089827e+00 1.941053e+00 2.775417e+00 3.278709e+00 1.614853e+00 2.752311e+00 4.521403e+00 2.298400e+00 1.959473e+00 2.861893e+00 1.654394e+00 6.413066e-01 5.265477e-01 3.226356e-01 3.251521e-01 3.461449e-01 4.630560e-01 4.296336e-01 5.960649e-01 5.318332e-01 3.247998e-01 3.863435e-01 4.581912e-01 2.797078e-01 8.532927e-02
<GCONST> 1.111282e+02
<STATE> 4
<MEAN> 39
 -8.278417e+00 1.444322e+00 4.978456e+00 7.054017e+00 -1.062033e+01 -1.794787e+01 -3.355522e+00 -5.760884e+00 -2.458048e+00 -8.335861e+00 -1.849396e+00 2.922188e+00 6.723365e+01 7.995100e-01 1.364436e-01 -1.179653e+00 1.939722e-01 6.063933e-01 3.322011e-02 -1.857022e-01 8.598404e-02 3.689425e-01 2.093331e-01 -1.786057e-01 -1.646048e-01 -5.231228e-01 -3.183836e-01 -3.857122e-02 -1.140775e-01 -3.915289e-01 3.123617e-01 6.476892e-01 1.165073e-01 -1.488247e-01 8.099095e-02 3.006684e-01 1.513547e-01 -2.277705e-01 -6.183062e-02
<VARIANCE> 39
 1.592003e+01 3.414960e+01 5.545621e+01 6.862238e+01 3.834014e+01 3.099483e+01 3.110953e+01 3.029967e+01 2.685608e+01 3.504312e+01 2.666239e+01 2.142115e+01 2.042786e+01 8.874549e-01 1.284686e+00 1.346994e+00 1.924026e+00 1.478766e+00 3.726212e+00 2.161267e+00 2.723148e+00 1.987117e+00 2.137325e+00 2.402375e+00 2.137867e+00 3.536891e-01 2.623878e-01 2.711450e-01 2.182741e-01 2.513801e-01 2.912329e-01 4.428301e-01 3.082666e-01 6.127958e-01 5.006080e-01 3.744571e-01 4.912770e-01 4.104067e-01 3.753937e-02
<GCONST> 1.071475e+02
<TRANSP> 5
 0.000000e+00 1.000000e+00 0.000000e+00 0.000000e+00 0.000000e+00
 0.000000e+00 8.370240e-01 1.629760e-01 0.000000e+00 0.000000e+00
 0.000000e+00 0.000000e+00 6.052305e-01 3.947696e-01 0.000000e+00
 0.000000e+00 0.000000e+00 0.000000e+00 7.298343e-01 2.701657e-01
 0.000000e+00 0.000000e+00 0.000000e+00 0.000000e+00 0.000000e+00
<ENDHMM>
~h "k"
<BEGINHMM>
<NUMSTATES> 5
<STATE> 2
<MEAN> 39
 -1.372258e+01 -2.170915e+00 3.271891e+00 -3.603618e+00 -1.035246e+01 -9.485127e+00 -7.630937e-01 -4.518052e+00 -3.453059e+00 -3.173018e+00 -1.191423e+00 -1.733186e+00 7.051672e+01 2.144735e+00 1.320051e+00 1.411730e+00 8.280455e-01 -1.262753e+00 -1.799485e+00 -7.250310e-01 -1.053586e+00 -1.164499e+00 -1.363955e+00 -6.928051e-01 -6.080582e-01 8.568796e-01 3.534556e-01 5.027208e-02 -1.023735e-01 -1.195833e-01 -2.460633e-01 -2.436025e-01 -2.411145e-01 -8.460931e-02 -5.420666e-02 -2.891853e-02 1.203579e-01 1.155596e-01 6.300464e-02
<VARIANCE> 39
 4.426982e+01 4.005050e+01 4.981334e+01 3.559959e+01 3.546072e+01 4.971758e+01 4.103931e+01 4.714265e+01 3.441548e+01 3.681958e+01 2.716846e+01 3.347290e+01 2.145963e+01 3.091242e+00 2.890560e+00 2.509949e+00 2.787185e+00 4.283255e+00 3.188683e+00 3.768503e+00 3.093346e+00 3.426890e+00 2.890017e+00 2.121484e+00 2.261689e+00 2.727052e+00 6.738350e-01 8.993139e-01 5.228049e-01 6.222965e-01 6.999587e-01 6.016204e-01 6.046099e-01 5.163816e-01 5.957310e-01 6.690554e-01 4.524868e-01 3.895538e-01 6.549491e-01
<GCONST> 1.260427e+02
<STATE> 3
<MEAN> 39
 -3.903054e+00 -9.194502e-01 4.990309e+00 -3.169425e+00 -1.791799e+01 -1.798894e+01 -3.500839e+00 -7.548233e+00 -7.151756e+00 -6.805452e+00 -1.399013e+00 -2.851334e+00 7.461595e+01 5.883961e-01 -6.385971e-01 1.405490e-01 -5.677141e-01 -1.335440e+00 -9.496112e-01 -5.688305e-01 -2.198444e-01 1.667736e-02 1.594381e-01 6.450763e-01 4.449489e-01 8.031077e-01 -7.427770e-01 -1.982661e-01 -9.743963e-02 -4.128348e-02 4.910141e-01 6.442139e-01 3.339546e-01 2.617674e-01 3.609715e-01 3.664908e-01 1.840108e-01 1.149738e-01 -3.660857e-01
<VARIANCE> 39
 1.406967e+01 3.829679e+01 6.552448e+01 4.512166e+01 6.427673e+01 6.288676e+01 5.152689e+01 9.172784e+01 5.859472e+01 3.422626e+01 3.396168e+01 4.964652e+01 1.481268e+01 1.013046e+00 1.434053e+00 1.590786e+00 1.279896e+00 2.691272e+00 2.559909e+00 2.336338e+00 2.668917e+00 2.116996e+00 1.803009e+00 2.089332e+00 1.265916e+00 8.521974e-01 1.760381e-01 3.952332e-01 3.279198e-01 2.352190e-01 5.343773e-01 4.143336e-01 5.086387e-01 5.199890e-01 4.676142e-01 3.609629e-01 3.610919e-01 2.673486e-01 8.120894e-02
<GCONST> 1.127571e+02
<STATE> 4
<MEAN> 39
 -7.649418e+00 2.524040e+00 8.403583e+00 -1.001425e+00 -1.637519e+01 -1.960322e+01 -5.581747e+00 -7.279827e+00 -5.925719e+00 -7.562500e+00 6.904697e-01 1.478629e+00 7.504326e+01 -1.081324e-01 1.200694e-01 3.363091e-01 7.753313e-03 -1.960452e-01 5.701591e-02 1.434507e-01 -2.409772e-01 9.833875e-02 8.409660e-02 1.170116e-01 1.483164e-01 -1.483088e-01 -7.672401e-02 9.575268e-02 -1.551846e-02 8.405969e-02 1.979001e-01 1.013504e-01 1.139046e-01 2.126069e-04 -8.852553e-03 1.750758e-02 -1.240305e-01 -9.514786e-02 -1.312417e-01
<VARIANCE> 39
 1.889776e+01 6.605345e+01 4.467399e+01 3.436376e+01 6.583974e+01 5.951831e+01 2.729262e+01 6.376442e+01 4.367119e+01 4.284483e+01 3.173028e+01 4.720758e+01 1.354354e+01 1.728036e-01 4.703534e-01 6.285358e-01 5.685381e-01 9.081212e-01 1.068017e+00 1.227060e+00 1.320067e+00 8.949510e-01 1.064446e+00 1.435928e+00 7.757685e-01 2.290730e-01 4.759083e-02 1.034923e-01 1.155954e-01 1.031953e-01 1.904278e-01 2.188862e-01 1.691563e-01 2.939121e-01 2.435468e-01 2.334261e-01 3.268134e-01 1.282612e-01 3.717444e-02
<GCONST> 8.957613e+01
<TRANSP> 5
 0.000000e+00 1.000000e+00 0.000000e+00 0.000000e+00 0.000000e+00
 0.000000e+00 7.823904e-01 2.176097e-01 0.000000e+00 0.000000e+00
 0.000000e+00 0.000000e+00 6.115973e-01 3.884027e-01 0.000000e+00
 0.000000e+00 0.000000e+00 0.000000e+00 6.130889e-01 3.869111e-01
 0.000000e+00 0.000000e+00 0.000000e+00 0.000000e+00 0.000000e+00
<ENDHMM>
~h "m"
<BEGINHMM>
<NUMSTATES> 5
<STATE> 2
<MEAN> 39
 -1.206560e-01 7.465632e+00 3.413720e-01 4.943194e-01 -3.146843e+00 -3.763054e+00 -1.491010e+00 -7.931172e+00 -1.048244e+01 -1.109189e+01 -4.034912e+00 -1.844370e+00 6.330013e+01 1.092950e+00 -7.205524e-02 -6.846584e-01 -1.066579e+00 -9.781176e-01 -3.142584e-01 1.282118e-01 -4.133717e-01 -2.019063e-01 -1.747054e-01 -1.155378e-01 -5.458196e-02 1.285719e+00 -1.884479e-01 -4.376988e-01 -4.659293e-01 -5.105444e-01 -1.531940e-01 1.893772e-01 2.470089e-01 2.268156e-01 5.222396e-01 5.409933e-01 1.234845e-01 1.818876e-02 7.027303e-02
<VARIANCE> 39
 1.203889e+01 2.163573e+01 3.187338e+01 3.145735e+01 4.369112e+01 3.973174e+01 4.978541e+01 4.830225e+01 3.651227e+01 3.910771e+01 3.874767e+01 2.276036e+01 2.298087e+01 1.286576e+00 1.910644e+00 2.607935e+00 3.361976e+00 2.199769e+00 1.889868e+00 2.197436e+00 2.912818e+00 4.122931e+00 4.298316e+00 2.247938e+00 1.465395e+00 9.047250e-01 1.485853e-01 2.406411e-01 2.862481e-01 3.711278e-01 3.458391e-01 3.718401e-01 4.091344e-01 4.275853e-01 5.241699e-01 5.530957e-01 4.394879e-01 3.035713e-01 1.228189e-01
<GCONST> 1.121769e+02
<STATE> 3
<MEAN> 39
 3.529273e+00 9.051937e-01 -1.037643e+01 -1.441356e+01 -1.170420e+01 -2.330201e+00 3.207983e+00 -5.989395e+00 -3.544648e+00 -3.811786e+00 -3.829868e+00 -2.868973e+00 7.175682e+01 1.564510e-03 -2.203760e+00 -2.033170e+00 -2.757039e+00 -4.021416e-01 1.828958e+00 1.596842e+00 -7.964380e-02 1.385593e+00 1.703917e+00 -5.366904e-02 -5.807620e-01 1.704291e+00 -3.587977e-01 1.526761e-01 6.709936e-01 9.789976e-01 7.969401e-01 1.383651e-01 -3.049131e-01 -1.809629e-01 -5.020850e-01 -4.397821e-01 -2.539048e-02 -5.543601e-02 -3.739172e-01
<VARIANCE> 39
 6.833804e+00 3.636377e+01 3.479650e+01 3.515488e+01 5.422422e+01 5.407991e+01 5.545482e+01 7.346134e+01 3.243497e+01 4.342732e+01 3.615371e+01 3.923151e+01 1.401916e+01 8.691464e-01 1.712003e+00 2.294558e+00 4.173673e+00 4.869417e+00 3.471830e+00 3.107943e+00 4.711301e+00 4.912728e+00 4.847162e+00 3.880128e+00 3.152112e+00 1.196348e+00 8.999435e-02 2.652576e-01 2.766382e-01 3.745486e-01 4.726937e-01 7.150821e-01 5.402467e-01 7.101331e-01 5.221403e-01 6.462440e-01 4.874991e-01 3.727614e-01 1.004934e-01
<GCONST> 1.186335e+02
<STATE> 4
<MEAN> 39
 1.152809e+00 -3.603142e+00 -1.192483e+01 -1.574865e+01 -8.723093e+00 1.000834e+00 4.715771e+00 -5.290375e+00 -3.502163e+00 -1.880258e+00 -3.629672e+00 -4.880294e+00 7.557024e+01 -2.657302e-01 -5.928900e-01 -2.125874e-02 1.325756e-01 3.511243e-01 5.921859e-02 -4.456400e-01 -1.494006e-01 -5.420132e-02 3.405131e-01 2.070628e-01 -1.478856e-01 3.321929e-01 5.369750e-02 3.437063e-01 2.712801e-01 3.489787e-01 -8.900831e-02 -4.373414e-01 -3.344774e-01 4.771595e-02 -1.211735e-01 -1.772899e-01 5.149061e-02 1.449280e-01 -2.673570e-01
<VARIANCE> 39
 1.029086e+01 4.518115e+01 3.467968e+01 3.477306e+01 5.685568e+01 5.298373e+01 6.297261e+01 1.024720e+02 5.880584e+01 5.675387e+01 4.789627e+01 4.107446e+01 1.668634e+01 3.210915e-01 7.053127e-01 6.396465e-01 1.111815e+00 1.557678e+00 2.160985e+00 1.752073e+00 2.295770e+00 1.937325e+00 1.820308e+00 1.673669e+00 1.283681e+00 2.645435e-01 6.599889e-02 1.726880e-01 2.073034e-01 3.148457e-01 2.634291e-01 3.841206e-01 3.750154e-01 4.305562e-01 4.033265e-01 3.767901e-01 3.239644e-01 2.766561e-01 8.977539e-02
<GCONST> 1.036594e+02
<TRANSP> 5
 0.000000e+00 1.000000e+00 0.000000e+00 0.000000e+00 0.000000e+00
 0.000000e+00 8.706586e-01 1.293414e-01 0.000000e+00 0.000000e+00
 0.000000e+00 0.000000e+00 6.532982e-01 3.467018e-01 0.000000e+00
 0.000000e+00 0.000000e+00 0.000000e+00 6.791933e-01 3.208066e-01
 0.000000e+00 0.000000e+00 0.000000e+00 0.000000e+00 0.000000e+00
<ENDHMM>
~h "n"
<BEGINHMM>
<NUMSTATES> 5
<STATE> 2
<MEAN> 39
 1.145654e+00 3.969697e+00 -2.346393e-01 -1.186441e+00 -9.457238e+00 -1.104154e+01 -7.731424e+00 -7.340440e+00 -4.820133e+00 -8.167631e+00 -4.255530e+00 -4.995210e+00 6.723527e+01 3.648403e-02 5.512675e-01 3.556979e-02 1.955283e-01 4.819631e-01 -2.980410e-01 -3.666774e-01 2.135147e-01 -2.987713e-01 -2.622721e-01 1.982342e-01 -5.412775e-02 -3.961357e-01 -1.071113e-01 -3.389498e-01 -5.385482e-02 -1.210315e-01 -2.748565e-01 3.720530e-02 7.928813e-02 8.949853e-03 2.823861e-01 1.724277e-01 -4.902356e-02 9.766780e-02 2.654767e-01
<VARIANCE> 39
 8.769639e+00 2.566913e+01 5.115394e+01 3.673810e+01 5.604507e+01 3.905171e+01 3.825176e+01 3.101330e+01 3.048611e+01 6.644292e+01 2.878342e+01 3.651459e+01 1.397455e+01 2.539028e-01 7.200484e-01 1.030076e+00 1.139922e+00 1.628932e+00 1.092534e+00 1.685220e+00 1.243135e+00 1.809161e+00 2.212023e+00 1.465395e+00 1.151700e+00 3.130129e-01 4.113122e-02 1.124835e-01 1.665089e-01 2.168694e-01 2.675321e-01 2.113782e-01 3.807008e-01 2.838606e-01 3.653443e-01 4.460805e-01 3.037738e-01 2.658567e-01 4.451508e-02
<GCONST> 9.589927e+01
<STATE> 3
<MEAN> 39
 -1.124323e+00 -3.979678e-01 -7.083235e-01 -8.120180e-01 -1.233664e+01 -1.160167e+01 -7.811070e+00 -5.393979e+00 7.334745e-02 -5.934050e+00 -6.102261e+00 -3.970353e+00 7.015930e+01 -7.776940e-01 -1.674102e+00 2.753271e-01 -3.087487e-01 -1.797759e+00 -3.011409e-01 9.109381e-01 8.353099e-01 1.203347e+00 5.126236e-01 -3.989197e-01 5.181457e-01 1.317083e+00 -3.202469e-02 7.318035e-02 6.758545e-02 -4.591637e-02 -9.230047e-02 -9.964541e-02 3.029852e-01 1.611501e-01 -3.072293e-01 -5.252161e-02 2.228650e-01 -5.935151e-03 -3.706352e-02
<VARIANCE> 39
 1.267163e+01 4.386633e+01 5.015719e+01 3.713749e+01 6.377946e+01 4.122706e+01 4.384377e+01 5.209155e+01 6.674498e+01 6.181924e+01 4.696741e+01 4.001389e+01 3.308464e+01 4.501610e-01 1.578372e+00 2.026350e+00 1.765026e+00 3.433388e+00 2.819812e+00 5.240855e+00 4.115872e+00 5.169960e+00 3.853289e+00 3.759536e+00 3.181362e+00 6.111256e-01 7.544162e-02 4.704615e-01 2.621980e-01 2.767950e-01 6.434156e-01 3.939448e-01 6.367550e-01 6.623909e-01 1.028941e+00 5.929147e-01 5.729771e-01 5.184412e-01 2.583504e-01
<GCONST> 1.204949e+02
<STATE> 4
<MEAN> 39
 -3.763108e+00 -2.655169e+00 1.370971e+00 -2.414060e+00 -1.877657e+01 -1.348693e+01 -2.654704e+00 -3.388804e+00 -1.673576e+00 -5.403199e+00 -2.716078e+00 -2.180595e+00 7.158373e+01 -1.617572e-01 2.904809e-01 3.670993e-01 1.140871e-01 -1.462895e-01 -2.954361e-01 3.968982e-01 4.825020e-02 -5.383699e-01 -8.713605e-02 2.065527e-01 1.685040e-02 -3.623436e-01 5.478319e-02 1.100523e-01 3.656335e-03 5.840159e-02 1.982529e-01 8.496094e-02 -1.660808e-01 -1.210250e-01 1.788716e-02 -6.593070e-02 -4.375555e-02 -6.434917e-02 -1.442845e-01
<VARIANCE> 39
 1.476417e+01 5.143184e+01 6.159020e+01 3.536937e+01 5.747643e+01 5.157676e+01 5.277978e+01 6.737075e+01 7.534412e+01 4.907424e+01 5.751960e+01 4.760705e+01 2.511192e+01 1.960723e-01 5.816746e-01 7.374296e-01 9.439036e-01 1.493237e+00 1.186320e+00 1.337616e+00 1.240742e+00 1.412684e+00 1.683954e+00 1.536601e+00 1.382021e+00 2.169052e-01 4.112547e-02 1.167595e-01 1.128485e-01 2.052996e-01 2.139567e-01 2.284861e-01 2.961002e-01 2.421066e-01 2.407306e-01 2.489052e-01 2.618254e-01 2.142435e-01 3.786028e-02
<GCONST> 9.643027e+01
<TRANSP> 5
 0.000000e+00 1.000000e+00 0.000000e+00 0.000000e+00 0.000000e+00
 0.000000e+00 8.504719e-01 1.495281e-01 0.000000e+00 0.000000e+00
 0.000000e+00 0.000000e+00 7.729866e-01 2.270134e-01 0.000000e+00
 0.000000e+00 0.000000e+00 0.000000e+00 8.328695e-01 1.671306e-01
 0.000000e+00 0.000000e+00 0.000000e+00 0.000000e+00 0.000000e+00
<ENDHMM>
~h "p"
<BEGINHMM>
<NUMSTATES> 5
<STATE> 2
<MEAN> 39
 -1.664979e+00 -5.552970e-02 -8.128806e+00 -1.410661e+01 -9.897710e+00 -2.246460e+00 3.418947e+00 -2.768445e+00 -2.426604e+00 -2.623247e+00 -3.247476e+00 -2.645601e+00 6.878053e+01 2.112859e+00 5.423343e-01 -3.673244e-01 -1.940402e+00 -2.074023e+00 -4.958022e-01 3.703589e-01 -5.511594e-01 -8.887158e-01 -5.257170e-01 -4.043680e-01 -4.524656e-01 1.690623e+00 -2.816517e-01 -3.365488e-01 -6.071143e-03 2.102266e-01 8.838316e-02 -6.441103e-03 -2.632597e-01 4.233943e-02 1.934980e-01 1.850945e-01 3.144574e-01 1.861595e-01 -1.113394e-01
<VARIANCE> 39
 2.867805e+01 5.194542e+01 3.389567e+01 4.318081e+01 5.938533e+01 8.322910e+01 6.185241e+01 4.725140e+01 3.529926e+01 3.508937e+01 2.798066e+01 2.978899e+01 2.673241e+01 2.315443e+00 4.698464e+00 2.784752e+00 3.054166e+00 4.725276e+00 4.898867e+00 5.487772e+00 4.234452e+00 3.194931e+00 3.247134e+00 2.889942e+00 2.661276e+00 2.264111e+00 5.948377e-01 7.316446e-01 4.012056e-01 6.009337e-01 8.348721e-01 8.638753e-01 8.796245e-01 7.196363e-01 5.084544e-01 5.371039e-01 3.974094e-01 4.165987e-01 4.735122e-01
<GCONST> 1.290206e+02
<STATE> 3
<MEAN> 39
 4.689137e-01 -4.725274e+00 -9.803904e+00 -1.655347e+01 -1.324686e+01 -4.282402e+00 4.137044e+00 -1.309383e+00 -3.255053e+00 -1.952071e+00 -2.550192e+00 -3.843202e+00 7.533494e+01 5.041629e-02 -2.863217e-01 2.719516e-02 -3.438167e-03 -3.146871e-01 2.641596e-03 -4.113982e-01 -2.975070e-01 1.830063e-01 3.139071e-01 1.599291e-01 -1.847765e-01 1.463457e-01 -1.928039e-01 1.362235e-01 8.327774e-02 2.859662e-01 2.162578e-01 -4.321450e-02 -1.068708e-01 9.968363e-04 1.740416e-01 2.374453e-02 -6.625785e-02 2.028147e-02 -2.909686e-01
<VARIANCE> 39
 1.812234e+01 5.448661e+01 2.686708e+01 2.888426e+01 6.016352e+01 9.522361e+01 9.874355e+01 7.958817e+01 6.034655e+01 5.333134e+01 3.412305e+01 4.501237e+01 2.738793e+01 9.950575e-01 2.657425e+00 8.813490e-01 1.489208e+00 1.968530e+00 2.654883e+00 4.116377e+00 2.811038e+00 3.391106e+00 2.648023e+00 2.115749e+00 2.135903e+00 1.334360e+00 2.710522e-01 3.786446e-01 1.947252e-01 3.782797e-01 4.886534e-01 4.995841e-01 7.497547e-01 5.785132e-01 5.693247e-01 4.658043e-01 3.868686e-01 3.438814e-01 1.874342e-01
<GCONST> 1.187621e+02
<STATE> 4
<MEAN> 39
 2.216247e+00 -2.837590e+00 -9.396698e+00 -1.647364e+01 -1.335533e+01 4.076251e-01 2.000993e+00 -4.839494e+00 -1.859832e+00 -1.951365e+00 -1.824429e+00 -4.217379e+00 7.379880e+01 -8.063281e-02 -1.824715e-01 2.243866e-02 4.335859e-01 4.374439e-02 -3.917711e-01 -5.828569e-01 -6.708031e-02 4.819238e-01 2.515127e-01 -4.465817e-02 -1.202574e-01 -6.818578e-03 -6.906527e-02 8.421797e-02 9.958564e-02 1.724268e-01 5.074045e-02 -1.579624e-01 -6.640524e-02 4.509286e-02 3.554722e-02 -7.195341e-02 -6.515619e-02 1.095778e-02 -9.035845e-02
<VARIANCE> 39
 9.161464e+00 7.276785e+01 6.717183e+01 2.962179e+01 9.907293e+01 9.417673e+01 6.058481e+01 5.400227e+01 6.407841e+01 5.013914e+01 3.894728e+01 4.588332e+01 1.770119e+01 2.064117e-01 7.416767e-01 6.914163e-01 1.114780e+00 1.393806e+00 1.618601e+00 1.786320e+00 1.441474e+00 1.414181e+00 1.309716e+00 1.423702e+00 1.182180e+00 2.456255e-01 5.641639e-02 1.261776e-01 1.225244e-01 1.502460e-01 2.528658e-01 2.475747e-01 2.785896e-01 2.402249e-01 2.205758e-01 2.540955e-01 2.436855e-01 2.327832e-01 4.603943e-02
<GCONST> 9.755714e+01
<TRANSP> 5
 0.000000e+00 1.000000e+00 0.000000e+00 0.000000e+00 0.000000e+00
 0.000000e+00 7.510291e-01 2.489709e-01 0.000000e+00 0.000000e+00
 0.000000e+00 0.000000e+00 7.216123e-01 2.783878e-01 0.000000e+00
 0.000000e+00 0.000000e+00 0.000000e+00 7.101639e-01 2.898361e-01
 0.000000e+00 0.000000e+00 0.000000e+00 0.000000e+00 0.000000e+00
<ENDHMM>
~h "r"
<BEGINHMM>
<NUMSTATES> 5
<STATE> 2
<MEAN> 39
 -4.161177e+00 -2.375258e-01 3.220359e+00 -1.543425e+00 -1.026571e+01 -1.324308e+01 -4.683635e+00 -4.631907e+00 -2.276136e+00 -5.780322e+00 1.934024e+00 -5.652419e-01 6.730196e+01 4.747763e-02 -2.952164e-01 2.607423e-01 2.449942e-01 -3.889202e-01 1.847208e-03 2.887737e-01 -1.589061e-01 -5.195791e-02 -3.957263e-01 -3.399936e-02 2.921830e-02 3.536974e-01 7.857966e-02 -1.190442e-02 1.858350e-02 -2.744742e-03 -2.595561e-01 -2.160223e-01 -3.139918e-02 -7.399864e-03 -5.036440e-02 -1.915026e-02 1.672359e-01 3.703396e-02 1.600567e-01
<VARIANCE> 39
 2.363129e+01 2.451138e+01 3.135926e+01 4.132692e+01 6.566704e+01 6.761879e+01 3.924394e+01 2.665883e+01 2.513216e+01 3.588122e+01 3.387866e+01 1.909894e+01 3.818707e+01 1.933421e+00 2.933583e+00 1.939755e+00 2.975085e+00 6.737967e+00 4.764561e+00 2.803539e+00 2.514701e+00 1.454479e+00 3.068493e+00 3.674249e+00 2.506957e+00 3.624410e+00 3.580163e-01 6.166809e-01 3.463353e-01 5.921941e-01 1.360400e+00 8.612847e-01 5.197067e-01 5.065219e-01 2.446176e-01 6.828369e-01 7.149811e-01 4.743271e-01 6.807653e-01
<GCONST> 1.238644e+02
<STATE> 3
<MEAN> 39
 -4.842177e+00 1.211085e+00 4.252632e+00 5.143700e+00 -1.205569e+01 -1.581357e+01 -7.805090e+00 -4.694773e+00 1.008107e+00 -4.429345e+00 -6.036583e-01 2.092959e+00 6.739207e+01 -1.755086e-02 -4.475925e-02 -8.346416e-02 1.875930e-01 -1.306864e+00 -8.892696e-01 2.513061e-01 3.892048e-01 -2.752369e-01 -1.921517e-02 9.400864e-01 5.462192e-01 3.651840e-01 -7.554013e-02 9.316670e-02 2.840794e-02 -1.500411e-01 1.106296e-01 -3.346603e-02 1.194447e-01 1.118650e-01 -1.970035e-01 3.184819e-02 2.405541e-02 8.175835e-03 -1.037643e-01
<VARIANCE> 39
 1.932421e+01 2.158257e+01 4.467526e+01 2.506302e+01 6.257560e+01 6.410181e+01 4.821715e+01 2.473364e+01 4.647519e+01 2.794783e+01 2.788766e+01 3.856849e+01 2.157871e+01 9.012983e-01 1.375357e+00 2.110112e+00 1.753458e+00 3.417716e+00 3.629780e+00 4.070049e+00 2.875588e+00 4.077978e+00 2.162750e+00 2.063059e+00 2.738571e+00 6.907797e-01 1.737595e-01 2.448334e-01 4.975756e-01 4.383411e-01 1.118943e+00 9.793923e-01 7.544875e-01 5.067484e-01 9.024992e-01 3.928412e-01 4.066507e-01 7.133042e-01 2.933355e-01
<GCONST> 1.183225e+02
<STATE> 4
<MEAN> 39
 -1.648699e+00 -1.705824e+00 3.445544e+00 -1.973754e+00 -1.754431e+01 -1.823857e+01 -4.506811e+00 -6.141877e+00 -5.429157e+00 -7.603642e+00 3.531387e+00 -1.672272e+00 7.030936e+01 -2.343507e-01 3.260537e-01 -5.130527e-02 -1.184702e-01 3.348468e-01 1.081810e-01 1.221837e-01 1.094875e-01 -2.517106e-01 8.574156e-02 -1.270172e-02 -1.617115e-01 -4.373162e-01 -5.687499e-02 2.728334e-02 -4.741582e-02 7.187726e-02 1.768865e-01 1.285788e-01 2.608872e-03 -2.408319e-02 3.291475e-02 4.880709e-02 -1.699403e-01 1.553709e-02 -1.288961e-01
<VARIANCE> 39
 1.061945e+01 1.254190e+01 3.854990e+01 5.036359e+01 4.582130e+01 6.554259e+01 3.781536e+01 3.315871e+01 3.201862e+01 5.571387e+01 5.653957e+01 3.517107e+01 1.870805e+01 2.709040e-01 3.931161e-01 5.638778e-01 7.735158e-01 1.175517e+00 8.333266e-01 1.267752e+00 9.335725e-01 1.375655e+00 1.190371e+00 1.231419e+00 1.205572e+00 3.574430e-01 5.319568e-02 8.095354e-02 9.408882e-02 1.152998e-01 2.263487e-01 1.560161e-01 2.197178e-01 1.638695e-01 2.482035e-01 2.256446e-01 2.348588e-01 2.032175e-01 3.321969e-02
<GCONST> 8.826228e+01
<TRANSP> 5
 0.000000e+00 1.000000e+00 0.000000e+00 0.000000e+00 0.000000e+00
 0.000000e+00 8.607646e-01 1.392355e-01 0.000000e+00 0.000000e+00
 0.000000e+00 0.000000e+00 6.306696e-01 3.693303e-01 0.000000e+00
 0.000000e+00 0.000000e+00 0.000000e+00 8.741378e-01 1.258622e-01
 0.000000e+00 0.000000e+00 0.000000e+00 0.000000e+00 0.000000e+00
<ENDHMM>
~h "t"
<BEGINHMM>
<NUMSTATES> 5
<STATE> 2
<MEAN> 39
 -1.191822e+01 -2.930858e+00 -4.529242e+00 -6.297974e+00 -3.847223e+00 -4.804338e+00 -2.824980e+00 -2.406193e+00 1.661341e+00 -1.634607e+00 -5.003635e-01 -1.620691e-01 6.726350e+01 8.080417e-01 -3.691158e-02 4.447183e-02 -6.915668e-01 -5.887734e-01 -6.599252e-01 -4.278135e-01 -8.052279e-01 -3.783396e-01 -2.284862e-01 -4.956229e-01 -6.329933e-01 1.970100e+00 6.629997e-01 3.827373e-01 -3.150902e-02 -4.120026e-02 -2.988868e-01 -6.515610e-02 8.782607e-02 -2.128325e-01 -3.574730e-01 -1.971740e-02 -7.328666e-02 -1.059087e-01 -2.104573e-01
<VARIANCE> 39
 3.720114e+01 3.934721e+01 4.029290e+01 3.889663e+01 3.496479e+01 4.768772e+01 3.627824e+01 3.661172e+01 3.328492e+01 2.852802e+01 2.730194e+01 2.663163e+01 5.908878e+01 5.853476e+00 4.820922e+00 3.057135e+00 3.935506e+00 4.033293e+00 5.432372e+00 4.027447e+00 4.156872e+00 4.570738e+00 3.309859e+00 2.856222e+00 2.936284e+00 6.867683e+00 5.971963e-01 7.597296e-01 4.999901e-01 6.264496e-01 7.299328e-01 9.754724e-01 8.223816e-01 6.967025e-01 7.375367e-01 6.293856e-01 5.406181e-01 5.420555e-01 1.233469e+00
<GCONST> 1.323274e+02
<STATE> 3
<MEAN> 39
 -2.378936e-01 4.021727e-01 -5.606034e+00 -1.132461e+01 -1.064635e+01 -8.098624e+00 -3.474442e+00 -8.086295e+00 -4.005884e+00 -2.524481e+00 -3.412641e+00 -3.591397e+00 7.210488e+01 2.026227e+00 1.128537e-01 -6.478292e-01 -1.215556e+00 -2.041838e+00 -4.975235e-01 4.075935e-01 -7.304206e-01 -1.055275e+00 -7.774983e-02 5.813061e-02 6.193605e-02 8.233406e-01 -8.096420e-01 -5.586777e-01 -6.317332e-02 1.886839e-01 3.024891e-01 3.896621e-01 1.757507e-01 4.575958e-01 4.366722e-01 1.571730e-01 3.436182e-01 3.333637e-01 -2.537358e-01
<VARIANCE> 39
 1.729733e+01 3.356847e+01 5.509410e+01 6.407954e+01 6.172052e+01 6.959604e+01 5.338900e+01 5.312685e+01 4.243702e+01 4.956339e+01 3.739893e+01 4.483346e+01 2.292372e+01 3.084126e+00 3.538799e+00 2.110279e+00 2.906047e+00 4.519742e+00 5.324033e+00 4.520987e+00 4.297221e+00 4.017403e+00 3.573586e+00 3.176189e+00 3.250379e+00 1.369789e+00 2.185211e-01 3.871861e-01 3.408347e-01 5.029433e-01 7.195840e-01 6.641482e-01 7.082220e-01 6.003851e-01 5.868492e-01 5.099618e-01 4.839125e-01 5.172225e-01 3.614776e-01
<GCONST> 1.269626e+02
<STATE> 4
<MEAN> 39
 6.924069e-01 -2.448374e+00 -8.010567e+00 -1.363188e+01 -1.284088e+01 -6.036754e+00 -1.236509e+00 -7.592592e+00 -4.355868e+00 -2.510843e+00 -1.476699e+00 -2.015516e+00 7.357742e+01 -3.279191e-02 -4.508140e-01 -1.418391e-01 2.236707e-01 5.520049e-02 1.511838e-01 -1.696515e-01 -2.579053e-01 2.158865e-03 2.586362e-01 4.125075e-01 1.107700e-01 1.162977e-01 -2.480420e-01 1.371118e-02 1.588753e-01 3.377107e-01 3.296914e-01 -1.147647e-01 -2.622091e-01 1.345633e-02 1.913828e-01 9.101191e-02 -2.700271e-02 -1.013109e-01 -1.114477e-01
<VARIANCE> 39
 2.135054e+01 4.833807e+01 5.600253e+01 6.452538e+01 7.044073e+01 8.618762e+01 5.685608e+01 6.128101e+01 5.834636e+01 6.869520e+01 4.889127e+01 5.647339e+01 2.377938e+01 8.841073e-01 1.356137e+00 1.084061e+00 1.658818e+00 2.119583e+00 2.674635e+00 2.695692e+00 2.399644e+00 2.273986e+00 2.332840e+00 2.362409e+00 2.074591e+00 6.777691e-01 1.702920e-01 2.356573e-01 1.918956e-01 3.237952e-01 4.177296e-01 5.586131e-01 5.111847e-01 4.735641e-01 4.563693e-01 4.557886e-01 4.112872e-01 4.280808e-01 1.064289e-01
<GCONST> 1.158888e+02
<TRANSP> 5
 0.000000e+00 1.000000e+00 0.000000e+00 0.000000e+00 0.000000e+00
 0.000000e+00 7.956331e-01 2.043669e-01 0.000000e+00 0.000000e+00
 0.000000e+00 0.000000e+00 5.984358e-01 4.015642e-01 0.000000e+00
 0.000000e+00 0.000000e+00 0.000000e+00 7.054987e-01 2.945013e-01
 0.000000e+00 0.000000e+00 0.000000e+00 0.000000e+00 0.000000e+00
<ENDHMM>
~h "u"
<BEGINHMM>
<NUMSTATES> 5
<STATE> 2
<MEAN> 39
 -4.968063e+00 6.664308e+00 6.869503e+00 2.251230e+00 -9.824560e+00 -1.239289e+01 -1.369605e-01 -1.033124e+01 -7.773635e+00 -4.271587e+00 1.517492e+00 -2.065088e+00 6.537708e+01 3.777751e-01 3.525947e-01 -5.948657e-01 -1.322114e-01 4.415643e-01 2.460648e-01 -2.905984e-01 2.931580e-01 -1.048066e-02 -1.996305e-01 2.916401e-01 6.830236e-02 -6.189715e-01 -1.921373e-01 -9.185881e-02 1.702335e-03 5.816423e-03 2.040458e-01 1.857855e-01 -1.123560e-01 1.415849e-01 2.537643e-01 -1.143504e-01 -2.455267e-01 -2.993220e-02 -5.764536e-02
<VARIANCE> 39
 6.594524e+00 1.957190e+01 5.898041e+01 2.711926e+01 3.487919e+01 6.760899e+01 3.730231e+01 4.174403e+01 2.544894e+01 4.193912e+01 2.245625e+01 2.786471e+01 2.191777e+01 2.421763e-01 6.558961e-01 6.509914e-01 2.102555e+00 1.301665e+00 3.171045e+00 1.798404e+00 3.049793e+00 2.160539e+00 1.959544e+00 1.845245e+00 1.500295e+00 3.287748e-01 9.332410e-02 1.319568e-01 1.095525e-01 1.804486e-01 1.826265e-01 5.110406e-01 3.047278e-01 5.070362e-01 3.041783e-01 4.320430e-01 3.350435e-01 2.935006e-01 3.550396e-02
<GCONST> 9.822644e+01
<STATE> 3
<MEAN> 39
 -4.663258e+00 5.169825e+00 3.092574e+00 2.412503e+00 -3.774851e+00 -1.237210e+01 -6.887280e+00 -5.835325e+00 -2.904932e+00 -8.101851e+00 -1.864001e+00 -7.406911e-01 6.409032e+01 1.402182e-01 7.445095e-02 -9.110396e-01 -3.638472e-01 1.045164e+00 1.177523e+00 -4.772568e-01 -5.346546e-01 1.885836e-01 6.228404e-01 -4.578713e-01 -4.941393e-01 -5.145575e-01 -1.191197e-01 -1.515636e-01 1.999721e-02 -6.301782e-02 -1.602846e-01 9.134759e-02 3.102448e-01 9.634233e-02 -1.751491e-01 2.019487e-01 1.413421e-01 5.723372e-02 4.711458e-02
<VARIANCE> 39
 1.761142e+01 1.383605e+01 2.315789e+01 3.731543e+01 4.743851e+01 3.452937e+01 2.613968e+01 2.871112e+01 2.606159e+01 2.293421e+01 2.992608e+01 1.192854e+01 1.433597e+01 4.820091e-01 9.516876e-01 8.527819e-01 7.672223e-01 1.791057e+00 1.957966e+00 1.048266e+00 1.422250e+00 2.007977e+00 2.529014e+00 1.032352e+00 8.991565e-01 3.782329e-01 9.720337e-02 1.066534e-01 1.071508e-01 1.780353e-01 2.728358e-01 4.246902e-01 1.854207e-01 3.240389e-01 2.079120e-01 3.742903e-01 1.971503e-01 1.780993e-01 6.929679e-02
<GCONST> 9.185146e+01
<STATE> 4
<MEAN> 39
 -4.283837e+00 6.036082e+00 2.977464e-02 1.238737e+00 -1.910942e+00 -7.499745e+00 -5.207198e+00 -8.485601e+00 -4.188688e+00 -3.520754e+00 -1.160680e+00 -1.581287e+00 6.161354e+01 -3.609025e-01 -4.484802e-01 -4.181374e-01 -1.719495e-01 4.429638e-01 8.311285e-01 5.237264e-01 4.423742e-01 2.052056e-01 4.259413e-01 -1.739951e-02 6.937221e-02 -4.654504e-01 -8.254296e-02 -8.252491e-02 3.791748e-02 2.755668e-03 -7.933421e-02 -3.165201e-02 9.434525e-02 1.995881e-01 1.006263e-01 -1.832384e-02 3.991175e-02 7.437678e-02 1.550611e-02
<VARIANCE> 39
 1.274643e+01 2.306891e+01 1.110458e+01 2.045985e+01 2.283682e+01 1.974844e+01 3.294617e+01 3.098235e+01 2.841563e+01 1.449774e+01 1.514208e+01 1.640483e+01 1.499440e+01 2.788699e-01 7.978301e-01 6.869526e-01 1.060826e+00 1.022126e+00 1.463205e+00 1.534497e+00 1.557452e+00 1.252533e+00 1.537055e+00 1.196819e+00 6.508518e-01 1.679616e-01 3.940303e-02 1.166968e-01 1.236835e-01 2.024567e-01 1.906738e-01 2.307104e-01 2.688953e-01 2.831394e-01 2.631836e-01 3.136629e-01 2.433819e-01 1.145608e-01 2.685251e-02
<GCONST> 8.368596e+01
<TRANSP> 5
 0.000000e+00 1.000000e+00 0.000000e+00 0.000000e+00 0.000000e+00
 0.000000e+00 6.575051e-01 3.424949e-01 0.000000e+00 0.000000e+00
 0.000000e+00 0.000000e+00 6.890786e-01 3.109213e-01 0.000000e+00
 0.000000e+00 0.000000e+00 0.000000e+00 8.361561e-01 1.638440e-01
 0.000000e+00 0.000000e+00 0.000000e+00 0.000000e+00 0.000000e+00
<ENDHMM>
~h "aa"
<BEGINHMM>
<NUMSTATES> 5
<STATE> 2
<MEAN> 39
 1.221961e+00 -7.765662e+00 -1.403111e+01 -1.503339e+01 -4.139896e+00 3.718570e+00 2.823204e+00 -8.005527e+00 -3.151413e+00 -1.643372e+00 -5.758060e+00 -6.503333e+00 7.540512e+01 -3.860053e-02 -1.811600e-02 1.472513e-02 9.331620e-02 -1.513752e-02 -1.547894e-01 -1.338510e-01 1.007504e-01 2.210268e-01 -8.318814e-03 6.645324e-02 -1.182077e-01 -3.015853e-02 1.334113e-02 1.236856e-01 6.076709e-02 3.395070e-02 -9.140736e-02 -1.651599e-01 -6.849537e-02 7.862762e-02 4.732734e-02 2.260216e-02 4.601077e-02 3.503786e-02 -7.263267e-02
<VARIANCE> 39
 1.171678e+01 2.940443e+01 3.146929e+01 3.698403e+01 4.701134e+01 4.834706e+01 5.971214e+01 8.733424e+01 5.343273e+01 4.837351e+01 5.242028e+01 3.851911e+01 1.483418e+01 1.189884e-01 3.275064e-01 3.592593e-01 5.118555e-01 7.216032e-01 9.559000e-01 9.640444e-01 1.288732e+00 8.966120e-01 8.371111e-01 9.129971e-01 8.524664e-01 1.150759e-01 2.541832e-02 5.630263e-02 6.435849e-02 9.665341e-02 1.197801e-01 1.725324e-01 1.808738e-01 2.116571e-01 1.743069e-01 1.663890e-01 1.672598e-01 1.577872e-01 2.014373e-02
<GCONST> 8.138804e+01
<STATE> 3
<MEAN> 39
 1.068871e+00 -3.281507e+00 -1.149618e+01 -1.321936e+01 -6.130294e+00 -1.646829e+00 5.301422e-01 -5.528880e+00 -2.399165e+00 -1.618095e-01 -2.625840e+00 -5.515133e+00 7.104717e+01 -2.663403e-01 1.172510e+00 7.723895e-01 1.072945e+00 8.359700e-02 -8.971832e-01 -8.356844e-01 1.505937e-01 2.409433e-01 1.791436e-01 5.139396e-01 7.107654e-01 -1.601491e+00 -1.485134e-01 3.021106e-02 5.797908e-02 1.705064e-01 1.441556e-01 2.253931e-01 1.767426e-01 8.030625e-03 -1.171602e-01 -1.390262e-01 -1.368701e-02 9.083114e-02 -2.711270e-01
<VARIANCE> 39
 1.073688e+01 3.496885e+01 3.466263e+01 3.917664e+01 4.130025e+01 4.271198e+01 5.219503e+01 4.288316e+01 4.742830e+01 4.329034e+01 4.739288e+01 5.059172e+01 3.116495e+01 1.181827e+00 1.293436e+00 1.721425e+00 2.039523e+00 2.326318e+00 3.528612e+00 2.759044e+00 2.832313e+00 3.152110e+00 2.528996e+00 2.160140e+00 2.511800e+00 1.173866e+00 1.747136e-01 2.772025e-01 2.786284e-01 3.094587e-01 3.961991e-01 5.615876e-01 5.262506e-01 4.610795e-01 5.228090e-01 3.999347e-01 3.765676e-01 4.794881e-01 1.936293e-01
<GCONST> 1.153095e+02
<STATE> 4
<MEAN> 39
 -4.079520e+00 9.598465e-01 -8.423964e+00 -7.709593e+00 -4.552650e+00 -1.053834e+00 3.263154e-01 -2.222892e+00 -7.048017e-01 -6.523416e-02 -2.667335e-01 -1.944384e+00 5.973824e+01 -8.962752e-01 -1.602471e-01 3.605600e-01 4.209043e-01 1.257500e-01 -1.147644e-01 -1.626144e-02 3.365356e-01 1.551496e-01 -6.934395e-02 5.558705e-02 2.801504e-01 -6.307495e-01 -3.820709e-02 -2.133830e-01 1.545266e-02 -2.060530e-01 -2.134165e-02 -1.851419e-01 -1.491563e-01 -1.148205e-01 1.634147e-02 -5.858230e-03 -5.722433e-02 -6.223733e-02 5.598164e-01
<VARIANCE> 39
 1.191737e+01 2.401516e+01 2.812103e+01 2.089188e+01 1.978967e+01 2.777242e+01 2.835236e+01 2.103583e+01 2.148025e+01 2.092823e+01 2.710382e+01 2.285785e+01 2.937280e+01 8.172818e-01 1.401564e+00 1.091930e+00 1.290375e+00 1.377560e+00 2.337394e+00 1.762673e+00 1.999225e+00 2.284089e+00 1.730760e+00 1.682983e+00 1.745115e+00 2.374593e+00 1.386777e-01 1.876259e-01 2.280084e-01 2.721150e-01 2.736348e-01 4.178360e-01 3.347824e-01 3.454655e-01 3.787110e-01 3.080050e-01 3.588635e-01 3.404038e-01 2.864502e-01
<GCONST> 1.022957e+02
<TRANSP> 5
 0.000000e+00 1.000000e+00 0.000000e+00 0.000000e+00 0.000000e+00
 0.000000e+00 9.066309e-01 9.336911e-02 0.000000e+00 0.000000e+00
 0.000000e+00 0.000000e+00 8.081280e-01 1.918720e-01 0.000000e+00
 0.000000e+00 0.000000e+00 0.000000e+00 8.395368e-01 1.604632e-01
 0.000000e+00 0.000000e+00 0.000000e+00 0.000000e+00 0.000000e+00
<ENDHMM>
~h "ae"
<BEGINHMM>
<NUMSTATES> 5
<STATE> 2
<MEAN> 39
 1.207943e-01 -9.475256e+00 -1.176001e+01 -1.383895e+01 -7.853373e+00 -1.772282e+00 -1.043830e+00 -4.348968e+00 4.380082e-01 -8.233142e-02 -4.891649e+00 -8.042948e+00 7.661945e+01 -2.268001e-01 -4.543881e-02 4.142397e-01 7.859443e-01 -2.611713e-01 -1.427025e+00 -6.928874e-01 8.414826e-01 9.356714e-01 -2.148914e-01 -3.163018e-01 -5.159219e-02 -3.456867e-02 -1.205668e-02 9.830016e-02 1.052004e-01 2.706642e-02 -1.096282e-01 -1.326386e-01 3.151651e-02 9.356603e-02 -5.652817e-02 -8.518836e-02 6.546573e-02 1.344313e-01 -5.451160e-02
<VARIANCE> 39
 9.705061e+00 2.251678e+01 3.261299e+01 3.908378e+01 4.386045e+01 6.609688e+01 4.681976e+01 7.713799e+01 6.501824e+01 6.340197e+01 5.075514e+01 3.679767e+01 9.917450e+00 2.029255e-01 4.371681e-01 5.864275e-01 9.747221e-01 1.197257e+00 2.232980e+00 1.861382e+00 2.230261e+00 1.843109e+00 1.353790e+00 1.281944e+00 1.269803e+00 1.362492e-01 2.741583e-02 6.502112e-02 8.880949e-02 1.233892e-01 1.933105e-01 2.261514e-01 3.158467e-01 2.941736e-01 3.290441e-01 2.473516e-01 2.556027e-01 2.063276e-01 1.762721e-02
<GCONST> 9.152427e+01
<STATE> 3
<MEAN> 39
 -2.054074e+00 -5.504953e+00 -3.834933e+00 -5.987503e+00 -1.501029e+01 -1.664673e+01 -3.690497e+00 2.295226e+00 2.265032e+00 -2.747212e+00 -3.006106e+00 -4.441309e+00 7.329755e+01 -2.637912e-01 8.060924e-01 9.009687e-01 5.371768e-01 -5.102264e-01 -5.016057e-01 1.027232e-01 -3.011536e-01 -6.753308e-01 -1.163775e-01 5.550925e-01 4.524831e-01 -6.594263e-01 -2.629584e-02 3.593130e-02 -5.636158e-02 -1.585730e-02 1.690287e-01 2.199413e-01 2.620759e-02 -1.462264e-01 -3.586052e-02 2.718228e-02 -3.016182e-02 -6.986635e-02 -6.892832e-02
<VARIANCE> 39
 1.013980e+01 2.942806e+01 5.184819e+01 3.614566e+01 5.756718e+01 4.264635e+01 4.754346e+01 3.371930e+01 4.197122e+01 4.923835e+01 3.314507e+01 3.693789e+01 1.407628e+01 1.975908e-01 4.826856e-01 7.776991e-01 9.118536e-01 1.425042e+00 1.288946e+00 1.010798e+00 1.516721e+00 1.047545e+00 1.221350e+00 1.322088e+00 1.394078e+00 1.588982e-01 3.320970e-02 7.582995e-02 1.086417e-01 1.670668e-01 1.706719e-01 1.851958e-01 1.795485e-01 2.526264e-01 1.879565e-01 2.162360e-01 2.027981e-01 1.646516e-01 2.309901e-02
<GCONST> 8.793431e+01
<STATE> 4
<MEAN> 39
 -6.783500e+00 -2.541258e-01 -3.911633e-01 -5.896052e-01 -1.201681e+01 -1.501850e+01 -1.123874e+00 4.920992e-01 1.090185e+00 -1.259871e+00 -3.752597e-01 -1.221112e+00 6.359371e+01 -4.145801e-01 1.468896e-01 -1.500178e-01 2.105898e-01 6.559108e-01 6.673404e-01 2.203032e-01 1.215250e-02 8.635167e-02 1.871403e-01 6.797192e-02 2.099216e-01 -1.097679e+00 8.031477e-03 -8.792236e-02 -1.020763e-01 -7.237701e-02 7.511029e-02 1.126981e-01 1.499780e-02 5.402571e-02 3.759859e-02 4.695590e-02 -8.301013e-04 -2.967504e-03 2.300212e-02
<VARIANCE> 39
 1.774306e+01 2.966775e+01 5.203198e+01 2.514260e+01 5.121544e+01 4.853278e+01 6.967378e+01 4.564711e+01 4.093512e+01 4.795849e+01 4.467969e+01 4.296084e+01 3.277169e+01 3.625667e-01 7.548016e-01 1.058493e+00 1.141249e+00 1.592297e+00 1.884803e+00 1.860646e+00 1.837016e+00 1.756068e+00 1.959635e+00 2.396648e+00 1.503301e+00 4.567942e-01 4.897427e-02 1.125900e-01 1.643337e-01 1.808881e-01 2.128325e-01 3.140316e-01 3.344408e-01 3.386730e-01 3.287739e-01 3.431970e-01 4.219098e-01 2.923811e-01 6.075506e-02
<GCONST> 1.019146e+02
<TRANSP> 5
 0.000000e+00 1.000000e+00 0.000000e+00 0.000000e+00 0.000000e+00
 0.000000e+00 9.003152e-01 9.968483e-02 0.000000e+00 0.000000e+00
 0.000000e+00 0.000000e+00 8.885224e-01 1.114776e-01 0.000000e+00
 0.000000e+00 0.000000e+00 0.000000e+00 9.048496e-01 9.515036e-02
 0.000000e+00 0.000000e+00 0.000000e+00 0.000000e+00 0.000000e+00
<ENDHMM>
~h "ai"
<BEGINHMM>
<NUMSTATES> 5
<STATE> 2
<MEAN> 39
 -7.699227e-01 -7.772858e+00 -5.376990e+00 -7.578100e+00 -1.145887e+01 -1.437715e+01 -7.354129e+00 -1.565385e+00 4.356297e+00 -1.615386e+00 -3.986296e+00 -4.827664e+00 7.580238e+01 -4.457931e-01 9.674231e-01 1.742905e+00 1.524910e+00 -1.332438e+00 -1.980204e+00 -4.811460e-01 -8.326739e-02 -5.549677e-01 -9.780019e-01 6.880012e-01 1.221389e+00 -5.310549e-01 -4.805141e-02 2.354530e-01 6.289203e-02 -1.054658e-01 -4.573032e-02 4.382559e-01 3.702748e-01 -3.682404e-01 -5.419627e-01 -4.168100e-02 2.470636e-01 1.974617e-02 -1.204620e-01
<VARIANCE> 39
 1.174635e+01 2.991253e+01 6.038275e+01 4.328105e+01 7.090686e+01 7.788355e+01 4.405151e+01 4.692859e+01 4.478602e+01 8.052595e+01 4.914255e+01 4.867606e+01 1.191495e+01 4.147413e-01 8.232881e-01 1.107352e+00 1.732125e+00 1.858238e+00 3.324572e+00 2.173758e+00 4.272948e+00 3.543213e+00 3.028228e+00 3.428539e+00 1.764473e+00 2.969942e-01 5.588761e-02 1.288902e-01 2.053636e-01 2.247135e-01 3.768892e-01 4.379215e-01 3.069336e-01 5.278681e-01 3.945749e-01 5.885736e-01 5.307921e-01 4.225364e-01 3.037717e-02
<GCONST> 1.086120e+02
<STATE> 3
<MEAN> 39
 -3.067410e+00 4.192838e-01 3.432381e+00 -2.440467e+00 -1.702723e+01 -1.753696e+01 -5.703546e+00 -8.628482e+00 -6.241815e+00 -5.576215e+00 -3.930425e-01 -2.514023e+00 7.052245e+01 -3.559159e-01 1.124055e+00 6.272035e-01 3.940760e-01 2.941810e-01 5.640436e-01 3.300968e-01 -7.405261e-01 -8.575445e-01 -1.123796e-01 -2.996998e-01 -3.232007e-01 -9.571017e-01 1.337346e-02 -1.230064e-01 -1.932647e-01 -6.499442e-02 2.515619e-01 1.477068e-01 -2.007392e-02 2.086570e-01 2.410568e-01 9.098748e-02 -1.496496e-01 -1.149219e-01 -3.997474e-02
<VARIANCE> 39
 1.012066e+01 2.630701e+01 5.690742e+01 4.057573e+01 5.277988e+01 4.741430e+01 3.527260e+01 4.020808e+01 5.030415e+01 3.694545e+01 3.930735e+01 3.308480e+01 1.464505e+01 2.931736e-01 5.865161e-01 9.659531e-01 1.052782e+00 1.373656e+00 1.038589e+00 1.720479e+00 1.848235e+00 2.107962e+00 1.369783e+00 1.871473e+00 1.246546e+00 2.356392e-01 4.575812e-02 8.032063e-02 1.332932e-01 1.879387e-01 2.493507e-01 2.075489e-01 2.981988e-01 3.066685e-01 3.019688e-01 2.536156e-01 3.763958e-01 2.489602e-01 2.404948e-02
<GCONST> 9.439021e+01
<STATE> 4
<MEAN> 39
 -8.093801e+00 5.865312e+00 5.113603e+00 1.315827e+00 -9.248695e+00 -1.097482e+01 -1.955372e+00 -8.668482e+00 -5.745439e+00 -3.680275e+00 -2.839283e+00 -3.011698e+00 6.188348e+01 -3.810958e-01 -2.004972e-01 -3.528052e-01 8.600514e-02 8.079227e-01 8.015278e-01 3.258120e-01 4.108015e-01 2.751253e-01 1.932613e-01 1.039096e-01 2.003954e-01 -9.085083e-01 1.170544e-03 -1.365041e-01 -9.912370e-02 -8.849844e-02 -2.763514e-02 -3.633691e-03 -2.007963e-02 8.901383e-02 1.000923e-01 3.238127e-02 6.209969e-02 9.267695e-02 5.040120e-02
<VARIANCE> 39
 2.104012e+01 3.408900e+01 4.452408e+01 2.632922e+01 5.078543e+01 4.610487e+01 5.108732e+01 3.312753e+01 4.798626e+01 4.299596e+01 3.050514e+01 3.092463e+01 2.539287e+01 3.915573e-01 7.627854e-01 9.434575e-01 9.382268e-01 1.394984e+00 1.444969e+00 1.602271e+00 1.833085e+00 1.800622e+00 1.624135e+00 1.554691e+00 1.255124e+00 2.383714e-01 5.960404e-02 1.091172e-01 1.373255e-01 1.708125e-01 2.163219e-01 2.284858e-01 2.906355e-01 3.041227e-01 2.914067e-01 2.619012e-01 2.821237e-01 2.429507e-01 2.004669e-02
<GCONST> 9.559937e+01
<TRANSP> 5
 0.000000e+00 1.000000e+00 0.000000e+00 0.000000e+00 0.000000e+00
 0.000000e+00 8.362475e-01 1.637525e-01 0.000000e+00 0.000000e+00
 0.000000e+00 0.000000e+00 8.588869e-01 1.411131e-01 0.000000e+00
 0.000000e+00 0.000000e+00 0.000000e+00 8.936870e-01 1.063130e-01
 0.000000e+00 0.000000e+00 0.000000e+00 0.000000e+00 0.000000e+00
<ENDHMM>
~h "ao"
<BEGINHMM>
<NUMSTATES> 5
<STATE> 2
<MEAN> 39
 4.988462e-02 -5.939084e+00 -1.074106e+01 -1.841949e+01 -1.468923e+01 -3.289520e-01 7.776645e+00 6.248567e-01 -5.711217e+00 -6.546455e+00 -3.905224e+00 -3.642571e+00 7.539058e+01 2.510926e-01 4.533521e-01 1.792760e-01 -3.331987e-01 -7.301577e-01 -7.350581e-02 -5.462025e-02 -1.977092e-01 2.968057e-01 1.618017e-01 -2.286478e-01 1.130557e-01 -4.894551e-01 2.306174e-02 1.624864e-01 2.266710e-02 -7.330154e-03 5.062954e-04 -9.499092e-02 -4.944144e-02 -8.678391e-02 4.437248e-02 4.987776e-02 -5.683458e-02 6.714826e-03 -8.910015e-02
<VARIANCE> 39
 1.398334e+01 3.301972e+01 2.233909e+01 2.129009e+01 7.086435e+01 6.925903e+01 4.459111e+01 7.690642e+01 4.863024e+01 5.075948e+01 2.695105e+01 3.785103e+01 2.426568e+01 5.139497e-01 8.844504e-01 5.166596e-01 7.742538e-01 1.326867e+00 1.586853e+00 1.453885e+00 2.036408e+00 1.990693e+00 2.201682e+00 1.349355e+00 1.658795e+00 6.099492e-01 8.864159e-02 9.180087e-02 9.099860e-02 1.434110e-01 2.526935e-01 3.261580e-01 2.430755e-01 3.078409e-01 3.725910e-01 3.431216e-01 2.210461e-01 2.774024e-01 6.266475e-02
<GCONST> 9.860069e+01
<STATE> 3
<MEAN> 39
 4.021322e+00 -6.861649e-01 -1.087273e+01 -2.164505e+01 -1.728105e+01 1.258384e+00 5.667216e+00 -5.033674e+00 -2.259201e+00 -4.440443e+00 -4.363732e+00 -1.728789e+00 7.086326e+01 1.490287e-02 6.634047e-01 2.467792e-01 2.633736e-02 -3.678508e-01 -6.026456e-01 -2.394939e-01 2.701479e-01 9.667724e-02 1.863107e-02 -1.224151e-01 -7.510916e-02 -4.167951e-01 -3.185056e-02 3.927140e-02 2.316985e-02 7.299390e-02 4.808983e-02 -5.448161e-02 -4.510617e-02 1.667311e-02 1.302246e-03 -1.163482e-02 1.073700e-02 -3.397848e-02 -3.022796e-02
<VARIANCE> 39
 5.963691e+00 3.950072e+01 4.143341e+01 2.323790e+01 7.307433e+01 5.230456e+01 3.518561e+01 7.834179e+01 5.424480e+01 5.042443e+01 3.465234e+01 3.076766e+01 1.451742e+01 9.629283e-02 4.151713e-01 3.937465e-01 5.642890e-01 6.944552e-01 8.905303e-01 9.172411e-01 9.817467e-01 1.014973e+00 8.109435e-01 8.350681e-01 8.118410e-01 1.248408e-01 1.653818e-02 4.186748e-02 5.777243e-02 7.772852e-02 1.193254e-01 1.256462e-01 1.393003e-01 1.608593e-01 1.624291e-01 1.463765e-01 1.527076e-01 1.308321e-01 9.407741e-03
<GCONST> 7.676937e+01
<STATE> 4
<MEAN> 39
 -3.703356e-01 7.364313e+00 -5.482097e+00 -1.395112e+01 -1.621942e+01 -7.814507e+00 5.659359e-01 -3.811246e-01 -1.418303e+00 -1.835092e+00 -4.181118e+00 -3.331686e+00 6.117805e+01 -6.322863e-01 -1.022782e-01 2.020977e-01 9.347436e-01 9.824947e-01 4.828697e-02 -3.138091e-01 1.013457e-01 1.561884e-01 7.514872e-02 2.937498e-01 1.974286e-01 -7.528148e-01 -4.253786e-02 -1.304613e-01 -3.040604e-02 1.458427e-02 8.138935e-02 1.227644e-01 5.907268e-02 8.984304e-03 2.374654e-02 3.616342e-02 5.714378e-02 7.102090e-02 2.370165e-02
<VARIANCE> 39
 1.268234e+01 2.345562e+01 2.862588e+01 3.465943e+01 5.720885e+01 3.205055e+01 4.345421e+01 3.443391e+01 3.796036e+01 4.547510e+01 2.573908e+01 2.919874e+01 3.223919e+01 3.346072e-01 7.602090e-01 7.261006e-01 1.133560e+00 1.479609e+00 1.509261e+00 1.435761e+00 1.721060e+00 1.930276e+00 1.652227e+00 1.528134e+00 1.495031e+00 2.334552e-01 4.470798e-02 9.736204e-02 1.115727e-01 1.845549e-01 2.175478e-01 2.313758e-01 2.375081e-01 2.898485e-01 3.450321e-01 3.009344e-01 2.592821e-01 2.606806e-01 2.622303e-02
<GCONST> 9.373656e+01
<TRANSP> 5
 0.000000e+00 1.000000e+00 0.000000e+00 0.000000e+00 0.000000e+00
 0.000000e+00 7.927281e-01 2.072719e-01 0.000000e+00 0.000000e+00
 0.000000e+00 0.000000e+00 9.156537e-01 8.434630e-02 0.000000e+00
 0.000000e+00 0.000000e+00 0.000000e+00 9.212006e-01 7.879937e-02
 0.000000e+00 0.000000e+00 0.000000e+00 0.000000e+00 0.000000e+00
<ENDHMM>
~h "au"
<BEGINHMM>
<NUMSTATES> 5
<STATE> 2
<MEAN> 39
 1.245395e+00 -4.922651e+00 -1.119034e+01 -1.081552e+01 -1.089228e+01 -7.927744e+00 -6.514957e+00 -6.036797e+00 2.507526e+00 1.651036e-01 5.718601e-01 -5.261981e+00 7.474553e+01 3.380381e-02 6.197068e-01 4.639575e-01 7.416768e-01 -2.786748e-01 -9.202757e-01 -8.938552e-01 -6.467114e-01 1.119702e-02 -1.966750e-01 3.043907e-01 4.607312e-01 -3.798702e-01 1.102820e-02 1.328307e-01 4.070245e-02 6.058576e-02 6.038545e-02 2.038638e-02 5.986847e-02 -9.629054e-02 -1.601186e-01 -1.324904e-01 -3.350657e-02 4.750288e-02 -9.381099e-02
<VARIANCE> 39
 9.825279e+00 2.758173e+01 3.242616e+01 6.015318e+01 5.267355e+01 8.592632e+01 7.470599e+01 4.296217e+01 6.531871e+01 6.514262e+01 4.068758e+01 6.033217e+01 1.301804e+01 2.008342e-01 6.179176e-01 4.640463e-01 7.627136e-01 9.806026e-01 1.281943e+00 1.221139e+00 1.867504e+00 1.736223e+00 1.481300e+00 1.471041e+00 1.475156e+00 1.575435e-01 2.579114e-02 6.983211e-02 7.355244e-02 1.021306e-01 1.575559e-01 2.183145e-01 2.011030e-01 2.092785e-01 2.705015e-01 2.428157e-01 2.330309e-01 2.475845e-01 1.573484e-02
<GCONST> 9.039797e+01
<STATE> 3
<MEAN> 39
 2.359802e+00 3.482712e+00 -5.799253e+00 -6.605424e+00 -1.141522e+01 -1.094839e+01 -9.169773e+00 -1.382412e+01 -5.999378e+00 -2.889659e+00 2.038285e+00 -7.820525e-01 6.849726e+01 -4.601088e-02 9.756173e-01 4.732183e-01 4.584604e-01 3.136639e-01 4.234093e-02 4.940853e-02 -1.996555e-01 -8.315682e-01 -7.651070e-01 -4.515176e-01 4.397527e-02 -9.292831e-01 -7.240609e-02 -5.187108e-02 2.052101e-03 -7.583198e-02 4.671127e-02 1.069996e-01 1.123810e-01 2.311160e-01 1.344737e-01 4.475385e-02 -1.239291e-01 -1.110199e-01 -2.376253e-02
<VARIANCE> 39
 8.753959e+00 2.294939e+01 2.462982e+01 4.880315e+01 4.058759e+01 5.894781e+01 5.974584e+01 6.396053e+01 8.093863e+01 5.863850e+01 2.778604e+01 4.051894e+01 1.482327e+01 2.044493e-01 6.459759e-01 6.345825e-01 1.015554e+00 1.049888e+00 1.367524e+00 1.568127e+00 1.804394e+00 1.687074e+00 1.602656e+00 1.593196e+00 1.328194e+00 2.275086e-01 2.720811e-02 6.189238e-02 9.559684e-02 1.464289e-01 1.893777e-01 1.827958e-01 2.502935e-01 2.629192e-01 2.895661e-01 2.287609e-01 2.505604e-01 2.184253e-01 1.539571e-02
<GCONST> 9.095614e+01
<STATE> 4
<MEAN> 39
 -1.875996e+00 8.939390e+00 -2.076123e+00 -3.281733e+00 -6.601341e+00 -7.088118e+00 -5.740933e+00 -9.507208e+00 -6.295446e+00 -6.412046e+00 -3.050531e+00 -1.860425e+00 6.017301e+01 -6.448315e-01 -2.253721e-01 1.532488e-01 3.472771e-01 6.752283e-01 4.138277e-01 2.774495e-01 6.216567e-01 3.721839e-01 1.424802e-01 -1.705849e-01 -2.545839e-02 -7.583361e-01 -4.080847e-02 -1.601935e-01 -7.663979e-02 -2.705733e-02 2.301408e-02 2.043970e-02 1.618672e-02 4.101085e-02 6.218846e-02 1.229251e-01 1.278281e-01 8.263873e-02 4.637681e-02
<VARIANCE> 39
 1.091322e+01 2.923820e+01 2.031404e+01 3.114017e+01 3.049275e+01 3.267562e+01 4.002632e+01 3.375856e+01 4.054001e+01 3.550227e+01 3.070584e+01 3.032778e+01 2.362103e+01 3.315534e-01 7.382730e-01 6.136760e-01 9.968054e-01 1.227066e+00 1.442819e+00 1.855407e+00 1.743161e+00 1.714600e+00 1.840604e+00 1.465787e+00 1.573112e+00 2.427636e-01 4.166682e-02 9.685139e-02 1.028269e-01 1.566577e-01 1.957370e-01 2.299837e-01 2.776748e-01 2.874534e-01 2.860079e-01 3.078049e-01 2.599492e-01 2.668445e-01 2.075694e-02
<GCONST> 9.144806e+01
<TRANSP> 5
 0.000000e+00 1.000000e+00 0.000000e+00 0.000000e+00 0.000000e+00
 0.000000e+00 8.752719e-01 1.247282e-01 0.000000e+00 0.000000e+00
 0.000000e+00 0.000000e+00 8.711143e-01 1.288858e-01 0.000000e+00
 0.000000e+00 0.000000e+00 0.000000e+00 9.028419e-01 9.715809e-02
 0.000000e+00 0.000000e+00 0.000000e+00 0.000000e+00 0.000000e+00
<ENDHMM>
~h "ee"
<BEGINHMM>
<NUMSTATES> 5
<STATE> 2
<MEAN> 39
 -4.258749e+00 -1.480477e+00 5.811626e+00 -4.032162e+00 -2.183954e+01 -1.914948e+01 -4.738041e+00 -9.916822e+00 -7.645275e+00 -5.268358e+00 2.209317e+00 -1.769854e+00 7.531931e+01 3.722196e-04 -4.912587e-02 -3.324205e-02 -2.708510e-02 1.511650e-02 -2.189253e-02 2.690219e-02 7.957438e-02 4.308552e-02 -5.285823e-02 2.125348e-02 -8.459833e-03 -9.447700e-02 5.886883e-03 2.893419e-02 -1.969949e-02 7.227617e-03 3.296342e-02 1.397059e-02 7.510719e-03 2.247121e-02 1.191750e-02 -2.441254e-02 -2.543691e-02 -4.051977e-03 -3.668565e-02
<VARIANCE> 39
 7.769338e+00 2.163435e+01 4.420552e+01 5.289452e+01 4.079664e+01 5.059423e+01 3.636504e+01 4.397316e+01 2.459485e+01 4.014855e+01 5.160725e+01 6.567096e+01 9.076653e+00 8.069747e-02 2.612764e-01 3.190491e-01 4.239233e-01 5.712687e-01 5.929064e-01 6.293610e-01 6.139808e-01 6.248896e-01 6.872086e-01 6.279236e-01 5.667104e-01 8.959359e-02 1.456928e-02 4.292460e-02 5.701701e-02 7.530993e-02 1.029195e-01 1.164884e-01 1.234630e-01 1.106398e-01 1.184559e-01 1.294231e-01 1.116798e-01 1.106339e-01 1.308329e-02
<GCONST> 7.016058e+01
<STATE> 3
<MEAN> 39
 -3.488413e+00 -1.174428e+00 5.463184e+00 -1.238592e+00 -1.990450e+01 -2.173373e+01 -6.357947e+00 -5.275928e+00 -5.345822e+00 -6.854534e+00 -7.407780e-01 8.776339e-01 7.159143e+01 3.759165e-02 2.005933e-01 -1.999312e-01 7.848371e-02 2.631860e-01 1.535382e-01 1.745786e-01 1.997007e-01 1.857432e-01 -1.591210e-01 -3.082512e-01 -2.017759e-01 -5.690684e-01 2.853001e-03 6.951047e-02 -2.524133e-02 7.677780e-02 1.620768e-01 9.063295e-02 1.667882e-02 -8.580601e-03 -3.366195e-02 1.623239e-02 -9.046902e-02 -5.356603e-02 -1.145666e-01
<VARIANCE> 39
 1.000249e+01 1.966547e+01 3.022218e+01 3.909315e+01 7.774348e+01 4.932553e+01 2.857677e+01 4.222797e+01 4.783265e+01 3.644551e+01 4.421480e+01 4.378888e+01 1.557761e+01 2.273104e-01 5.186762e-01 5.788118e-01 9.570599e-01 1.139127e+00 9.339973e-01 1.650475e+00 1.146036e+00 1.526882e+00 1.247184e+00 1.446014e+00 1.443769e+00 2.198837e-01 3.785437e-02 9.947056e-02 1.043824e-01 1.821823e-01 2.216205e-01 2.001980e-01 2.877961e-01 2.300813e-01 2.612365e-01 2.530821e-01 2.430295e-01 2.282781e-01 3.548009e-02
<GCONST> 9.067373e+01
<STATE> 4
<MEAN> 39
 -5.609348e+00 3.379796e-01 3.309492e+00 -9.091440e-01 -1.404728e+01 -1.456717e+01 -2.659528e+00 -4.572093e+00 -4.585516e+00 -5.493287e+00 -9.168152e-01 -1.610040e+00 6.379028e+01 -2.411504e-01 1.667596e-01 -5.715415e-01 2.716024e-01 1.305887e+00 1.018017e+00 1.679555e-01 3.058084e-01 2.428360e-01 3.770942e-01 -1.099370e-01 2.322843e-01 -1.214047e+00 -2.657425e-02 -3.148871e-02 -4.854981e-02 -3.905285e-02 7.709996e-02 4.645436e-02 -1.598066e-02 1.903811e-02 7.168094e-03 4.204653e-02 9.050424e-02 4.105690e-02 3.093664e-02
<VARIANCE> 39
 1.126016e+01 2.140535e+01 2.669104e+01 3.111898e+01 4.986573e+01 5.072745e+01 3.684530e+01 3.918761e+01 4.459323e+01 5.130508e+01 4.391348e+01 4.649960e+01 3.784327e+01 4.761664e-01 1.023690e+00 8.089082e-01 1.208644e+00 1.569649e+00 1.822441e+00 1.858470e+00 2.283966e+00 2.417405e+00 2.259375e+00 2.295376e+00 1.927411e+00 5.338344e-01 5.563633e-02 1.430615e-01 1.207047e-01 1.734823e-01 2.216409e-01 3.014338e-01 3.286476e-01 3.893803e-01 4.716671e-01 3.378730e-01 3.671190e-01 3.505510e-01 7.092899e-02
<GCONST> 1.023041e+02
<TRANSP> 5
 0.000000e+00 1.000000e+00 0.000000e+00 0.000000e+00 0.000000e+00
 0.000000e+00 9.340270e-01 6.597305e-02 0.000000e+00 0.000000e+00
 0.000000e+00 0.000000e+00 8.377511e-01 1.622490e-01 0.000000e+00
 0.000000e+00 0.000000e+00 0.000000e+00 8.525564e-01 1.474436e-01
 0.000000e+00 0.000000e+00 0.000000e+00 0.000000e+00 0.000000e+00
<ENDHMM>
~h "ei"
<BEGINHMM>
<NUMSTATES> 5
<STATE> 2
<MEAN> 39
 -2.786352e+00 -4.872227e+00 9.343810e-01 -4.956488e+00 -1.817659e+01 -1.978429e+01 -3.758136e+00 -1.209642e+00 -2.462173e+00 -7.060276e+00 9.320883e-01 -2.457022e+00 7.561619e+01 -1.046815e-01 4.723878e-01 6.720686e-01 2.077670e-01 -3.166059e-01 -1.008944e-01 -3.391446e-02 -7.946321e-01 -6.892339e-01 4.120102e-02 4.372648e-01 1.260553e-01 -2.882176e-01 -3.060961e-03 8.720347e-02 1.111703e-03 4.719469e-02 5.951605e-02 7.892253e-02 -7.875713e-04 -8.833171e-02 -6.044397e-02 1.311532e-02 -7.826851e-02 -5.153478e-02 -6.761384e-02
<VARIANCE> 39
 6.317703e+00 2.190464e+01 3.924812e+01 5.129563e+01 4.955880e+01 7.033604e+01 4.332030e+01 5.023616e+01 3.745732e+01 5.779763e+01 3.812635e+01 4.574310e+01 9.047873e+00 1.237786e-01 3.925236e-01 4.991194e-01 5.362670e-01 7.335318e-01 8.419477e-01 8.580582e-01 1.286397e+00 9.883285e-01 1.224620e+00 9.088583e-01 9.400781e-01 1.647939e-01 2.025427e-02 5.343997e-02 7.473033e-02 8.894497e-02 1.108040e-01 1.295471e-01 1.599317e-01 1.882896e-01 1.598390e-01 1.769359e-01 1.561213e-01 1.579392e-01 2.068083e-02
<GCONST> 8.017261e+01
<STATE> 3
<MEAN> 39
 -3.927415e+00 2.458517e+00 8.650778e+00 -2.118017e+00 -1.889650e+01 -1.530951e+01 -3.263164e+00 -1.037366e+01 -9.269706e+00 -4.758453e+00 6.833307e-01 -3.216421e+00 6.986282e+01 -1.288660e-01 7.018013e-01 3.031877e-01 2.851062e-01 4.303760e-01 5.640636e-01 1.388621e-01 -3.157711e-01 -2.112673e-01 -1.085809e-01 -4.037593e-01 -3.345947e-01 -6.930425e-01 -1.845801e-02 -3.955200e-02 -7.918629e-02 1.130471e-02 1.230676e-01 3.064978e-02 5.376455e-04 1.049031e-01 8.956108e-02 -3.083678e-02 -2.062045e-02 4.212206e-02 -2.529973e-02
<VARIANCE> 39
 5.774971e+00 2.257160e+01 3.257539e+01 4.905384e+01 4.980726e+01 6.731587e+01 2.729333e+01 3.996274e+01 3.221968e+01 5.083391e+01 3.589322e+01 3.658015e+01 1.281109e+01 1.262273e-01 3.909650e-01 6.133174e-01 8.115289e-01 9.412457e-01 1.025194e+00 1.020792e+00 1.407959e+00 9.373801e-01 1.018008e+00 9.440371e-01 1.047504e+00 1.618816e-01 2.228121e-02 4.877455e-02 9.003761e-02 1.306283e-01 1.618917e-01 1.778349e-01 1.827123e-01 2.203567e-01 1.642992e-01 1.714040e-01 1.632332e-01 1.856318e-01 1.398141e-02
<GCONST> 8.154523e+01
<STATE> 4
<MEAN> 39
 -7.290511e+00 5.966202e+00 8.535370e+00 2.177665e+00 -1.176788e+01 -9.328652e+00 -1.732166e+00 -9.843884e+00 -8.079724e+00 -6.020211e+00 -2.692655e+00 -2.856258e+00 6.238527e+01 -3.211342e-01 -2.274345e-01 -7.223102e-01 8.136329e-02 1.103811e+00 7.965106e-01 1.647517e-01 4.418662e-01 1.879762e-01 2.381831e-01 4.513284e-02 1.989899e-01 -9.015885e-01 -2.645678e-02 -1.397325e-01 -1.258803e-01 -9.500458e-02 -1.865771e-02 1.075464e-02 4.962295e-02 1.421918e-01 1.014804e-01 1.196884e-01 7.999752e-02 4.849647e-02 1.548148e-02
<VARIANCE> 39
 1.125912e+01 2.789218e+01 4.877932e+01 2.451286e+01 7.032581e+01 5.124578e+01 3.657846e+01 3.559611e+01 4.049028e+01 3.786312e+01 2.437453e+01 3.754850e+01 2.907188e+01 3.247500e-01 8.064708e-01 1.090721e+00 9.682161e-01 1.770754e+00 1.443105e+00 1.789610e+00 2.161824e+00 1.711902e+00 1.691635e+00 1.544122e+00 1.472438e+00 3.298677e-01 5.387894e-02 1.153579e-01 1.469557e-01 1.498390e-01 2.957586e-01 2.766324e-01 3.467724e-01 3.514028e-01 2.617827e-01 2.725424e-01 2.636919e-01 2.515710e-01 4.285489e-02
<GCONST> 9.717233e+01
<TRANSP> 5
 0.000000e+00 1.000000e+00 0.000000e+00 0.000000e+00 0.000000e+00
 0.000000e+00 8.808532e-01 1.191468e-01 0.000000e+00 0.000000e+00
 0.000000e+00 0.000000e+00 8.878390e-01 1.121610e-01 0.000000e+00
 0.000000e+00 0.000000e+00 0.000000e+00 8.957088e-01 1.042912e-01
 0.000000e+00 0.000000e+00 0.000000e+00 0.000000e+00 0.000000e+00
<ENDHMM>
~h "ii"
<BEGINHMM>
<NUMSTATES> 5
<STATE> 2
<MEAN> 39
 -5.272626e+00 3.190396e+00 1.037706e+01 -4.479417e+00 -1.583134e+01 -1.285789e+01 -4.909454e+00 -1.389075e+01 -1.061334e+01 -6.596702e+00 -1.872474e+00 -5.786425e+00 7.167729e+01 2.809849e-02 2.257341e-01 -3.846292e-02 1.127175e-01 1.429771e-01 1.262707e-01 1.021262e-01 1.827384e-02 4.592268e-02 -2.178697e-02 3.958695e-03 -1.008396e-01 -2.830617e-01 5.875108e-03 3.456366e-02 -5.359986e-02 4.618349e-02 7.839943e-02 2.064375e-02 1.137215e-02 4.343669e-02 1.929736e-02 -1.066332e-02 -2.208287e-02 -2.002181e-03 -6.272024e-02
<VARIANCE> 39
 8.793079e+00 1.701427e+01 2.762040e+01 7.214352e+01 4.524530e+01 6.669286e+01 4.027027e+01 5.478846e+01 3.029826e+01 3.599092e+01 3.260148e+01 5.232994e+01 8.326648e+00 1.320397e-01 3.078673e-01 3.872277e-01 5.728605e-01 6.792674e-01 6.355600e-01 7.045830e-01 5.439495e-01 6.752119e-01 8.116876e-01 9.412069e-01 7.150909e-01 1.022842e-01 2.440498e-02 4.946494e-02 5.932883e-02 9.402484e-02 1.152739e-01 1.317817e-01 1.286599e-01 1.276043e-01 1.267279e-01 1.484580e-01 1.727781e-01 1.167097e-01 1.715931e-02
<GCONST> 7.461755e+01
<STATE> 3
<MEAN> 39
 -5.891826e+00 8.938713e+00 1.102549e+01 -1.801184e-01 -1.174168e+01 -1.233842e+01 -8.491142e-01 -1.248682e+01 -9.005378e+00 -6.114439e+00 -3.512457e+00 -3.498282e+00 6.813481e+01 -4.780203e-02 1.951414e-01 -1.303757e-01 1.577925e-01 4.074255e-01 1.181006e-01 3.796511e-03 1.787900e-01 1.265577e-01 6.275722e-02 -3.927983e-04 6.019659e-02 -4.104464e-01 -2.878401e-02 -5.613970e-02 -2.672317e-02 1.295186e-02 3.688684e-02 2.334553e-02 -2.724679e-02 3.371007e-02 6.460885e-03 -3.267475e-02 -6.578871e-03 1.224208e-02 -2.642645e-02
<VARIANCE> 39
 1.321056e+01 1.353668e+01 7.559107e+01 2.460603e+01 3.904575e+01 4.200002e+01 2.487231e+01 3.583007e+01 2.951797e+01 2.921696e+01 3.122929e+01 3.163325e+01 7.506479e+00 1.381345e-01 3.661238e-01 5.493607e-01 6.011610e-01 8.321348e-01 9.157833e-01 8.727927e-01 1.074128e+00 8.750246e-01 8.356005e-01 9.902869e-01 8.504016e-01 1.942715e-01 2.356046e-02 5.106298e-02 8.817392e-02 8.469643e-02 1.392560e-01 1.565482e-01 1.713050e-01 1.920805e-01 1.666025e-01 1.528273e-01 1.656359e-01 1.563629e-01 1.841151e-02
<GCONST> 7.752717e+01
<STATE> 4
<MEAN> 39
 -9.444320e+00 8.509468e+00 9.550845e+00 2.442016e+00 -6.160631e+00 -7.444144e+00 -2.555915e-01 -1.036221e+01 -8.106302e+00 -5.571335e+00 -3.725208e+00 -3.148032e+00 6.004924e+01 -2.724806e-01 -5.254596e-01 -8.469877e-01 1.386559e-01 7.545598e-01 6.762071e-01 2.962403e-01 6.982287e-01 4.114723e-01 1.306977e-01 3.248070e-02 1.433507e-01 -7.446731e-01 -2.551553e-02 -9.176131e-02 -7.238395e-02 -1.126553e-01 -6.505654e-02 2.391890e-02 4.400725e-02 1.159226e-01 1.115362e-01 8.779436e-02 8.454876e-02 3.388143e-02 3.266022e-02
<VARIANCE> 39
 1.877177e+01 2.330563e+01 5.079884e+01 2.086307e+01 3.854430e+01 4.115339e+01 4.536799e+01 3.017345e+01 3.049970e+01 3.282969e+01 2.130389e+01 2.877207e+01 2.220240e+01 3.332670e-01 6.678189e-01 9.161466e-01 9.017003e-01 1.543000e+00 1.249200e+00 1.787988e+00 1.746909e+00 1.913391e+00 1.938415e+00 1.577406e+00 1.554197e+00 2.471642e-01 5.758660e-02 1.082629e-01 1.347112e-01 1.598187e-01 2.273739e-01 2.205185e-01 3.237736e-01 2.370679e-01 3.214928e-01 3.605117e-01 3.291089e-01 2.851314e-01 3.010480e-02
<GCONST> 9.415359e+01
<TRANSP> 5
 0.000000e+00 1.000000e+00 0.000000e+00 0.000000e+00 0.000000e+00
 0.000000e+00 8.943098e-01 1.056902e-01 0.000000e+00 0.000000e+00
 0.000000e+00 0.000000e+00 9.025452e-01 9.745480e-02 0.000000e+00
 0.000000e+00 0.000000e+00 0.000000e+00 8.866407e-01 1.133594e-01
 0.000000e+00 0.000000e+00 0.000000e+00 0.000000e+00 0.000000e+00
<ENDHMM>
~h "oe"
<BEGINHMM>
<NUMSTATES> 5
<STATE> 2
<MEAN> 39
 8.244779e-01 -3.799524e+00 -7.874355e+00 -9.550212e+00 -1.072986e+01 -1.200972e+01 -1.092034e+01 -1.296080e+01 -9.884089e-01 2.646120e+00 2.889848e+00 -8.595531e-01 7.429536e+01 -6.405520e-01 -9.555030e-01 1.138268e+00 2.369746e+00 3.309809e-01 -2.501332e+00 -1.644089e+00 1.113085e+00 1.899233e+00 1.225484e-01 -9.645901e-01 -9.655694e-01 2.325554e-01 -1.891118e-02 3.201634e-01 3.967609e-01 -9.245013e-02 -5.361783e-01 -2.171468e-01 6.750704e-01 6.287159e-01 -3.552250e-01 -8.976715e-01 -4.465870e-01 3.891626e-01 -2.085661e-01
<VARIANCE> 39
 1.089631e+01 2.432404e+01 4.576404e+01 4.338800e+01 4.376510e+01 6.097748e+01 3.722203e+01 5.127248e+01 5.589796e+01 4.389225e+01 4.749505e+01 5.328232e+01 1.243083e+01 2.490633e-01 9.012828e-01 1.186735e+00 1.674409e+00 2.734138e+00 2.640855e+00 3.810991e+00 3.804167e+00 3.187160e+00 4.755370e+00 2.778860e+00 2.814363e+00 3.376880e-01 4.573852e-02 9.768751e-02 1.783523e-01 3.338993e-01 3.282160e-01 5.803803e-01 5.450774e-01 5.995097e-01 8.665147e-01 3.880060e-01 7.056119e-01 6.289967e-01 3.632094e-02
<GCONST> 1.097630e+02
<STATE> 3
<MEAN> 39
 -1.404593e+00 -4.247388e+00 -5.840409e-01 -3.045783e+00 -1.483155e+01 -2.133355e+01 -9.900303e+00 -4.695773e+00 -1.411908e+00 -5.374907e+00 -6.979975e-01 -8.114275e-03 7.209484e+01 -3.433794e-01 6.542184e-01 8.098047e-01 5.471135e-01 -7.353289e-02 -2.684613e-01 5.485459e-01 5.648786e-01 -5.737511e-01 -6.549741e-01 5.770720e-02 2.847151e-01 -9.547513e-01 5.663395e-03 1.497518e-01 -2.305588e-01 -1.881944e-01 2.392588e-01 4.653414e-01 2.903290e-02 -2.775885e-01 -1.771924e-02 3.485838e-01 2.215892e-01 -8.695003e-02 -2.057770e-01
<VARIANCE> 39
 9.043334e+00 2.105246e+01 4.943891e+01 4.538001e+01 4.931438e+01 4.967971e+01 3.779377e+01 3.984868e+01 3.546344e+01 5.263440e+01 4.738303e+01 3.090508e+01 1.434913e+01 3.853783e-01 8.658296e-01 1.341656e+00 1.371032e+00 2.198349e+00 2.541446e+00 2.225325e+00 2.384075e+00 1.982418e+00 2.374982e+00 2.261585e+00 1.715666e+00 9.238103e-01 6.634925e-02 1.412019e-01 2.147213e-01 2.394612e-01 3.013213e-01 3.768292e-01 3.614244e-01 3.802434e-01 3.815039e-01 3.485346e-01 3.761919e-01 2.891828e-01 7.510535e-02
<GCONST> 1.043516e+02
<STATE> 4
<MEAN> 39
 -5.717352e+00 1.059543e+00 6.615070e-01 1.847320e-01 -9.680672e+00 -1.499690e+01 -4.788972e+00 -3.988024e+00 -2.708108e+00 -3.372651e+00 5.340245e-01 7.198457e-01 6.255943e+01 -4.952321e-01 8.033460e-02 -2.515542e-01 5.695103e-02 6.449150e-01 9.885880e-01 4.577270e-01 2.030509e-01 1.835597e-01 3.097284e-01 7.218812e-02 8.692396e-02 -9.490919e-01 -9.807171e-03 -1.196526e-01 -5.484124e-02 -7.442921e-02 -6.964549e-03 3.027985e-02 -2.151108e-02 2.136671e-02 4.918236e-02 -8.730775e-03 -4.501961e-02 2.096630e-02 1.419278e-01
<VARIANCE> 39
 1.704413e+01 2.141537e+01 2.975411e+01 2.953737e+01 3.567535e+01 4.315460e+01 5.248844e+01 4.468414e+01 3.561451e+01 3.861515e+01 2.901133e+01 2.669591e+01 3.498476e+01 3.692824e-01 7.089562e-01 8.909268e-01 9.411600e-01 1.434676e+00 1.686917e+00 1.477129e+00 1.575425e+00 1.701038e+00 1.624685e+00 1.524584e+00 1.371939e+00 5.771000e-01 6.324704e-02 1.254600e-01 1.455961e-01 1.682194e-01 2.692852e-01 2.764702e-01 2.713371e-01 2.907710e-01 3.102767e-01 2.710236e-01 2.744433e-01 2.712592e-01 8.485928e-02
<GCONST> 9.708224e+01
<TRANSP> 5
 0.000000e+00 1.000000e+00 0.000000e+00 0.000000e+00 0.000000e+00
 0.000000e+00 7.664744e-01 2.335257e-01 0.000000e+00 0.000000e+00
 0.000000e+00 0.000000e+00 8.504977e-01 1.495023e-01 0.000000e+00
 0.000000e+00 0.000000e+00 0.000000e+00 9.003536e-01 9.964638e-02
 0.000000e+00 0.000000e+00 0.000000e+00 0.000000e+00 0.000000e+00
<ENDHMM>
~h "oi"
<BEGINHMM>
<NUMSTATES> 5
<STATE> 2
<MEAN> 39
 1.986914e+00 -6.705307e-01 -8.072873e+00 -1.004693e+01 -1.032948e+01 -8.655707e+00 -1.044102e+01 -1.581220e+01 -4.466077e+00 4.193573e-02 4.060552e+00 8.146457e-01 7.272118e+01 -7.477498e-01 -1.147589e+00 1.068252e+00 3.359815e+00 1.032170e+00 -2.982511e+00 -2.392769e+00 5.699944e-01 1.947947e+00 2.415103e-01 -7.303078e-01 -1.684964e+00 2.338390e-01 -1.096434e-01 2.135432e-01 6.642427e-01 2.279855e-01 -7.410516e-01 -6.261316e-01 6.679387e-01 9.555817e-01 -6.058132e-02 -1.023757e+00 -7.513556e-01 1.750725e-01 -1.685695e-01
<VARIANCE> 39
 1.128558e+01 2.885140e+01 4.082059e+01 6.697482e+01 4.089707e+01 6.077528e+01 5.648953e+01 5.072098e+01 6.342959e+01 4.488432e+01 4.482262e+01 5.991735e+01 1.258624e+01 3.488757e-01 8.354203e-01 1.964183e+00 1.883785e+00 3.530329e+00 3.440313e+00 3.635199e+00 5.072839e+00 3.161587e+00 5.931677e+00 5.098035e+00 2.495900e+00 3.377697e-01 5.648214e-02 1.381782e-01 1.894470e-01 5.599278e-01 4.179073e-01 9.148417e-01 9.387175e-01 5.893643e-01 1.367926e+00 6.200347e-01 8.753074e-01 1.020028e+00 4.519024e-02
<GCONST> 1.173889e+02
<STATE> 3
<MEAN> 39
 -2.547784e+00 -1.466869e+00 1.111794e+00 1.249154e+00 -1.165013e+01 -1.826057e+01 -9.550824e+00 -9.079346e+00 -4.298918e+00 -8.018876e+00 -1.172338e+00 -3.054341e-01 7.138016e+01 -4.955797e-01 3.392190e-01 8.144421e-01 4.965550e-01 -7.533475e-02 1.522847e-01 1.128755e+00 5.764000e-01 -7.313440e-01 -7.278408e-01 9.134868e-02 2.137867e-01 -6.079827e-01 6.045751e-02 1.805864e-01 -2.946844e-01 -5.129331e-01 7.321776e-02 5.925723e-01 1.865068e-01 -2.924784e-01 -1.273316e-01 3.411683e-01 1.952049e-01 -3.158771e-03 -9.724873e-02
<VARIANCE> 39
 1.408111e+01 2.708131e+01 6.167721e+01 5.415262e+01 8.760239e+01 7.909875e+01 4.238999e+01 4.299392e+01 5.887722e+01 4.953106e+01 4.817367e+01 4.425328e+01 1.822418e+01 4.469678e-01 1.076856e+00 4.573917e+00 3.714997e+00 4.978350e+00 5.845531e+00 3.857314e+00 3.375316e+00 3.733492e+00 4.913942e+00 3.200916e+00 2.691283e+00 2.947264e-01 6.619792e-02 2.041557e-01 3.038200e-01 4.098380e-01 7.105335e-01 8.009051e-01 8.650309e-01 6.824014e-01 7.868381e-01 7.687781e-01 6.873440e-01 5.585687e-01 3.885925e-02
<GCONST> 1.203256e+02
<STATE> 4
<MEAN> 39
 -4.694574e+00 2.815796e+00 4.411816e+00 7.116638e-01 -1.182773e+01 -1.362242e+01 -3.373500e+00 -9.291478e+00 -6.687175e+00 -6.741042e+00 -5.014517e-01 -2.172511e+00 6.481884e+01 -3.547739e-01 1.973393e-01 -1.470555e-01 -1.160851e-01 6.733862e-01 8.412443e-01 3.185337e-01 2.172983e-01 1.754251e-01 3.379689e-01 -1.398424e-01 1.130809e-02 -7.703224e-01 2.091574e-02 -9.586452e-02 -1.381101e-01 -2.766723e-02 9.424691e-02 2.924545e-02 -7.410191e-02 8.186834e-02 1.289944e-01 4.716586e-02 -9.699524e-03 2.269444e-02 1.802611e-02
<VARIANCE> 39
 1.577724e+01 2.275569e+01 4.115431e+01 3.700095e+01 5.546880e+01 5.027393e+01 4.412106e+01 4.468685e+01 3.437969e+01 4.166998e+01 2.867112e+01 3.921320e+01 2.795089e+01 3.108770e-01 9.210054e-01 1.259317e+00 1.110499e+00 1.706614e+00 1.607290e+00 1.902449e+00 2.394811e+00 1.734970e+00 1.490023e+00 1.366006e+00 1.601000e+00 3.013454e-01 5.465958e-02 1.221248e-01 1.634712e-01 1.663485e-01 2.408106e-01 2.882195e-01 3.385257e-01 3.928116e-01 3.175957e-01 2.859522e-01 2.326407e-01 2.741027e-01 3.142489e-02
<GCONST> 9.826337e+01
<TRANSP> 5
 0.000000e+00 1.000000e+00 0.000000e+00 0.000000e+00 0.000000e+00
 0.000000e+00 7.405820e-01 2.594180e-01 0.000000e+00 0.000000e+00
 0.000000e+00 0.000000e+00 8.470604e-01 1.529396e-01 0.000000e+00
 0.000000e+00 0.000000e+00 0.000000e+00 9.020801e-01 9.791996e-02
 0.000000e+00 0.000000e+00 0.000000e+00 0.000000e+00 0.000000e+00
<ENDHMM>
~h "oo"
<BEGINHMM>
<NUMSTATES> 5
<STATE> 2
<MEAN> 39
 4.107710e+00 9.644885e+00 -2.085619e+00 -1.689164e+01 -2.137751e+01 -1.489066e+01 -8.674358e+00 -7.591986e+00 8.893448e-01 1.481424e+00 -2.999474e+00 -1.455667e+00 6.695531e+01 -1.331501e-02 1.338131e-01 6.809214e-02 -4.028598e-02 -1.118416e-01 -2.417350e-02 2.182463e-01 4.434590e-02 -3.404638e-02 6.816061e-02 -1.081397e-01 -1.537213e-01 -1.959513e-01 -3.104510e-02 1.709463e-02 -1.142383e-02 5.139013e-02 4.835898e-02 9.830055e-03 6.589153e-02 7.879507e-02 -2.427321e-02 -8.124846e-02 8.006912e-03 -2.696320e-02 -3.622464e-02
<VARIANCE> 39
 7.965296e+00 1.975537e+01 3.402514e+01 1.987428e+01 2.349710e+01 3.097129e+01 2.617040e+01 5.727838e+01 3.897551e+01 3.671786e+01 4.156600e+01 2.898274e+01 1.003573e+01 1.537770e-01 3.984317e-01 6.385713e-01 3.852840e-01 9.953866e-01 6.060137e-01 9.613703e-01 1.064074e+00 1.043739e+00 1.073463e+00 1.047817e+00 8.311059e-01 1.585064e-01 2.336351e-02 6.491094e-02 1.113015e-01 7.094947e-02 1.881681e-01 1.360006e-01 1.975521e-01 1.762766e-01 2.042859e-01 1.817486e-01 1.861122e-01 1.430240e-01 1.889937e-02
<GCONST> 7.803326e+01
<STATE> 3
<MEAN> 39
 1.528592e+00 1.514404e+01 -3.437198e-02 -1.275811e+01 -2.226444e+01 -1.496234e+01 -4.996217e+00 -3.637298e+00 1.608294e+00 3.987712e+00 -2.382860e+00 -3.706790e+00 6.322639e+01 -4.489925e-01 4.292201e-02 1.700085e-02 5.101297e-01 5.885561e-01 3.136426e-02 -7.212866e-03 4.125785e-01 1.890221e-01 -2.349582e-01 3.370340e-01 2.697240e-02 -5.048015e-01 -9.504613e-02 -1.615268e-01 -1.049979e-02 4.337880e-02 1.626240e-01 9.814104e-02 -1.561756e-02 -4.177305e-02 -3.115073e-02 9.182986e-03 3.740773e-02 8.874777e-02 -1.188636e-02
<VARIANCE> 39
 1.405906e+01 1.608693e+01 2.841660e+01 3.091842e+01 3.431293e+01 2.732664e+01 2.584804e+01 4.334635e+01 2.321227e+01 3.428440e+01 2.410350e+01 1.700109e+01 1.425972e+01 1.539884e-01 5.202050e-01 7.281930e-01 6.897047e-01 1.144061e+00 1.003810e+00 1.502588e+00 1.106645e+00 1.045706e+00 7.536938e-01 7.690463e-01 8.855442e-01 1.293146e-01 3.259655e-02 6.173207e-02 1.211290e-01 1.384544e-01 2.153361e-01 1.606344e-01 2.794335e-01 1.599152e-01 1.960989e-01 1.339197e-01 1.589543e-01 1.628166e-01 1.373912e-02
<GCONST> 7.950984e+01
<STATE> 4
<MEAN> 39
 -2.450760e+00 8.019005e+00 -2.174249e+00 -9.616931e+00 -1.433274e+01 -9.119191e+00 -2.313981e+00 -3.224324e+00 1.366424e+00 9.307787e-01 -1.793358e+00 -1.675391e+00 5.853258e+01 -7.266027e-01 -6.700098e-01 -1.948565e-01 7.257044e-01 1.225691e+00 6.516887e-01 1.578953e-01 3.632879e-01 -2.220615e-01 -3.887685e-02 1.542631e-01 4.269075e-01 -6.552749e-01 -2.630056e-03 -8.679954e-03 -1.628116e-02 -1.651842e-02 1.439518e-02 1.512227e-02 1.099141e-02 -2.143995e-02 6.349067e-03 6.561497e-03 -8.769824e-03 2.019876e-02 2.203718e-02
<VARIANCE> 39
 1.208886e+01 1.979271e+01 3.288576e+01 3.046257e+01 5.320100e+01 5.214043e+01 4.825211e+01 4.668357e+01 3.065312e+01 5.640130e+01 2.764866e+01 3.099323e+01 3.505158e+01 4.198965e-01 3.842272e-01 7.658483e-01 9.932529e-01 1.481931e+00 1.303306e+00 1.464661e+00 1.590115e+00 1.533633e+00 1.606076e+00 1.747146e+00 1.411459e+00 2.628192e-01 6.804782e-02 6.997354e-02 1.363191e-01 1.745764e-01 2.573234e-01 2.414241e-01 2.616037e-01 2.971083e-01 3.127334e-01 3.065081e-01 3.352199e-01 2.690652e-01 3.123899e-02
<GCONST> 9.471591e+01
<TRANSP> 5
 0.000000e+00 1.000000e+00 0.000000e+00 0.000000e+00 0.000000e+00
 0.000000e+00 9.083105e-01 9.168950e-02 0.000000e+00 0.000000e+00
 0.000000e+00 0.000000e+00 8.452536e-01 1.547463e-01 0.000000e+00
 0.000000e+00 0.000000e+00 0.000000e+00 8.840477e-01 1.159523e-01
 0.000000e+00 0.000000e+00 0.000000e+00 0.000000e+00 0.000000e+00
<ENDHMM>
~h "ou"
<BEGINHMM>
<NUMSTATES> 5
<STATE> 2
<MEAN> 39
 3.874181e+00 4.710165e+00 -7.340987e+00 -1.430182e+01 -1.538774e+01 -7.468341e+00 -3.761322e+00 -9.586345e+00 -7.255795e+00 -6.617028e+00 9.998932e-01 1.399921e+00 6.992667e+01 -3.042501e-02 3.647521e-01 2.308946e-01 5.960448e-01 2.434500e-01 -3.123162e-01 -2.988164e-01 -2.766025e-01 -3.568342e-01 -4.101209e-01 -5.456290e-02 1.952793e-02 -3.348337e-01 -3.065942e-02 5.414711e-02 4.683368e-02 7.927525e-02 7.638668e-02 -1.596675e-02 1.503134e-02 9.691796e-02 2.597479e-02 -2.669126e-02 -7.783750e-02 -6.290437e-02 -8.059675e-02
<VARIANCE> 39
 7.125416e+00 3.167875e+01 2.356694e+01 7.666700e+01 5.136229e+01 4.460807e+01 9.065833e+01 5.434184e+01 6.903788e+01 5.142513e+01 4.313967e+01 3.841208e+01 9.223614e+00 1.228961e-01 5.571995e-01 5.884753e-01 1.138417e+00 9.847851e-01 1.276888e+00 1.180268e+00 1.441768e+00 1.125513e+00 1.299745e+00 1.405569e+00 1.313118e+00 2.008864e-01 2.233524e-02 6.429606e-02 7.988315e-02 1.604693e-01 1.513427e-01 1.878622e-01 1.999615e-01 2.139107e-01 1.958982e-01 2.105925e-01 2.214488e-01 2.043377e-01 2.159998e-02
<GCONST> 8.797814e+01
<STATE> 3
<MEAN> 39
 2.159206e+00 1.123757e+01 -2.388936e+00 -8.601753e+00 -1.347386e+01 -9.663865e+00 -2.531160e+00 -9.272543e+00 -7.912311e+00 -7.353802e+00 -3.821699e+00 -1.250742e+00 6.511517e+01 -2.797281e-01 2.511256e-01 3.824432e-01 7.443519e-01 6.858033e-01 1.515542e-01 -3.102073e-01 2.118063e-01 3.121617e-02 -2.038585e-01 -3.024122e-01 -2.448453e-01 -6.752049e-01 -6.910682e-02 -1.048721e-01 -5.728030e-04 8.333011e-03 9.294026e-02 1.217967e-01 1.317132e-02 -7.236216e-03 7.783099e-02 8.373067e-02 4.059489e-02 1.778265e-02 -2.182270e-02
<VARIANCE> 39
 5.765073e+00 3.174146e+01 2.464013e+01 4.277762e+01 4.204341e+01 5.185891e+01 8.009833e+01 4.938033e+01 4.187957e+01 5.029562e+01 3.635119e+01 3.858025e+01 1.990532e+01 1.700705e-01 4.413057e-01 6.560075e-01 9.862477e-01 1.128306e+00 1.345246e+00 1.888821e+00 1.484200e+00 1.485433e+00 1.489604e+00 1.623451e+00 1.145860e+00 2.093709e-01 2.814238e-02 6.589754e-02 9.284521e-02 1.423233e-01 1.881259e-01 2.114528e-01 2.828893e-01 2.255314e-01 2.569334e-01 2.666236e-01 2.757455e-01 2.086053e-01 1.698166e-02
<GCONST> 8.977606e+01
<STATE> 4
<MEAN> 39
 -2.435329e+00 8.133922e+00 -7.057375e-01 -2.072068e+00 -4.613615e+00 -5.497991e+00 -4.398417e+00 -6.823424e+00 -5.674903e+00 -6.444846e+00 -3.569459e+00 -1.967630e+00 6.042862e+01 -6.586285e-01 -5.452025e-01 -7.204077e-02 2.518853e-01 6.173244e-01 3.916479e-01 2.513480e-01 4.563616e-01 3.978390e-01 3.983487e-01 1.357649e-01 8.232757e-02 -6.187921e-01 -1.671026e-02 -7.738017e-02 -8.671512e-02 -9.959642e-02 -6.007053e-02 6.781302e-04 6.918770e-02 3.402013e-02 4.708415e-02 6.320599e-02 5.029684e-02 4.215344e-02 5.208039e-02
<VARIANCE> 39
 9.790684e+00 3.059014e+01 1.824289e+01 2.386130e+01 2.407481e+01 2.379159e+01 2.960874e+01 3.813542e+01 2.714885e+01 2.803676e+01 2.659752e+01 3.011307e+01 3.598643e+01 3.756506e-01 6.647902e-01 6.905583e-01 1.118532e+00 1.366023e+00 1.221983e+00 1.738137e+00 1.730013e+00 1.412809e+00 1.574736e+00 1.507089e+00 1.283735e+00 3.469447e-01 4.732728e-02 1.017475e-01 1.290792e-01 1.890343e-01 2.213443e-01 2.147894e-01 2.864197e-01 2.919067e-01 2.520975e-01 2.635334e-01 2.725060e-01 2.414718e-01 4.019798e-02
<GCONST> 9.088419e+01
<TRANSP> 5
 0.000000e+00 1.000000e+00 0.000000e+00 0.000000e+00 0.000000e+00
 0.000000e+00 8.600279e-01 1.399722e-01 0.000000e+00 0.000000e+00
 0.000000e+00 0.000000e+00 8.603378e-01 1.396622e-01 0.000000e+00
 0.000000e+00 0.000000e+00 0.000000e+00 8.856202e-01 1.143798e-01
 0.000000e+00 0.000000e+00 0.000000e+00 0.000000e+00 0.000000e+00
<ENDHMM>
~h "sp"
<BEGINHMM>
<NUMSTATES> 3
<STATE> 2
~s "silst"
<TRANSP> 3
 0.000000e+00 1.278883e-01 8.721117e-01
 0.000000e+00 7.435651e-01 2.564349e-01
 0.000000e+00 0.000000e+00 0.000000e+00
<ENDHMM>
~h "uu"
<BEGINHMM>
<NUMSTATES> 5
<STATE> 2
<MEAN> 39
 -1.860142e+00 1.064505e+00 -1.327187e+00 -2.075933e-01 -8.914347e+00 -1.756128e+01 -8.608580e+00 -1.372882e+01 -2.147017e+00 -9.037932e+00 -5.813371e+00 -8.306827e-01 7.189799e+01 1.247485e-01 4.401731e-01 -6.737232e-02 -4.573457e-02 5.108561e-02 2.775564e-01 6.386814e-02 6.903943e-02 -2.486684e-01 -5.230016e-02 1.037439e-01 1.611080e-01 -4.748758e-01 -3.085883e-02 4.261199e-02 3.996508e-03 -3.084419e-03 3.517756e-02 6.312013e-02 -5.011584e-02 1.159116e-02 4.325621e-04 3.379113e-02 8.010210e-03 -5.602227e-02 -3.958642e-02
<VARIANCE> 39
 1.412908e+01 4.470832e+01 4.864463e+01 4.834580e+01 7.057160e+01 6.316922e+01 6.349520e+01 6.895173e+01 8.247271e+01 7.760596e+01 3.206584e+01 6.482861e+01 1.705976e+01 1.422234e-01 4.166343e-01 3.700874e-01 6.975236e-01 8.048580e-01 8.912984e-01 1.304936e+00 1.252279e+00 1.086133e+00 1.199248e+00 1.239931e+00 1.209399e+00 1.798342e-01 3.004766e-02 6.615260e-02 6.847215e-02 1.241528e-01 1.165398e-01 1.553074e-01 2.053017e-01 2.068040e-01 1.813555e-01 2.119093e-01 2.102176e-01 1.717335e-01 2.151562e-02
<GCONST> 8.826956e+01
<STATE> 3
<MEAN> 39
 2.012088e+00 5.255420e+00 -3.972748e-02 -8.780054e-01 -7.553728e+00 -1.363661e+01 -1.169170e+01 -1.201466e+01 -6.796546e+00 -6.809601e+00 -2.160892e+00 -3.232680e+00 6.667108e+01 -3.620535e-02 2.158174e-01 -3.032302e-02 2.727245e-02 2.244559e-01 2.708997e-01 -7.325045e-02 -1.494226e-02 -7.753091e-02 3.188155e-02 -3.180330e-02 -4.901183e-02 -3.280928e-01 -3.931014e-02 -1.131791e-02 2.803111e-02 -1.560659e-03 3.479280e-03 8.405969e-03 3.633450e-02 2.813414e-02 2.112493e-02 -2.133597e-02 -2.340016e-02 7.571002e-03 -2.212851e-03
<VARIANCE> 39
 5.362537e+00 2.061390e+01 2.080479e+01 3.829396e+01 2.908411e+01 4.861640e+01 7.047356e+01 3.710520e+01 4.150902e+01 4.349178e+01 2.423842e+01 2.904122e+01 1.702384e+01 7.270568e-02 1.789730e-01 2.463734e-01 3.185694e-01 5.155878e-01 5.899046e-01 7.371896e-01 6.674632e-01 6.972262e-01 6.639147e-01 5.919492e-01 7.182669e-01 5.771144e-02 1.147152e-02 3.194270e-02 4.072905e-02 5.385244e-02 9.359726e-02 9.955683e-02 1.284695e-01 1.171028e-01 1.437507e-01 1.168259e-01 9.263512e-02 1.317577e-01 8.268575e-03
<GCONST> 6.561760e+01
<STATE> 4
<MEAN> 39
 -2.245907e+00 8.715330e+00 1.772010e+00 6.257328e-01 -5.214959e+00 -8.199945e+00 -6.704546e+00 -1.221354e+01 -7.732722e+00 -7.901964e+00 -4.803080e+00 -2.037688e+00 6.006895e+01 -6.259804e-01 -2.078920e-01 5.273633e-03 1.760684e-01 6.936446e-01 6.210316e-01 3.862492e-01 7.278463e-01 3.109628e-01 1.100071e-01 1.169419e-01 -2.652916e-02 -7.534894e-01 -7.486316e-02 -1.311258e-01 -8.614735e-02 -1.047020e-02 1.026246e-01 4.625774e-02 6.987657e-02 6.077800e-02 1.422088e-01 1.201787e-01 8.386944e-02 3.316161e-02 -2.384059e-03
<VARIANCE> 39
 1.207267e+01 1.875210e+01 1.411170e+01 3.806535e+01 5.662099e+01 3.874991e+01 5.168842e+01 6.602058e+01 5.509962e+01 3.803734e+01 2.930618e+01 2.897225e+01 2.490912e+01 3.278989e-01 6.137515e-01 6.512896e-01 1.077428e+00 1.327506e+00 1.280868e+00 1.987227e+00 1.662747e+00 1.895272e+00 1.588552e+00 1.406769e+00 1.070122e+00 1.742014e-01 5.599871e-02 7.922710e-02 1.107357e-01 1.655061e-01 1.557714e-01 2.264393e-01 3.162654e-01 2.835058e-01 3.108062e-01 2.552843e-01 2.325756e-01 1.781324e-01 2.654861e-02
<GCONST> 9.183379e+01
<TRANSP> 5
 0.000000e+00 1.000000e+00 0.000000e+00 0.000000e+00 0.000000e+00
 0.000000e+00 9.023407e-01 9.765936e-02 0.000000e+00 0.000000e+00
 0.000000e+00 0.000000e+00 9.086985e-01 9.130154e-02 0.000000e+00
 0.000000e+00 0.000000e+00 0.000000e+00 8.812200e-01 1.187800e-01
 0.000000e+00 0.000000e+00 0.000000e+00 0.000000e+00 0.000000e+00
<ENDHMM>
~h "sil"
<BEGINHMM>
<NUMSTATES> 5
<STATE> 2
<MEAN> 39
 -9.031516e+00 6.630577e-01 -3.519134e+00 -1.868137e+00 -1.943151e+00 -2.422775e+00 -8.179689e-01 -7.631027e-01 3.485888e-01 -8.379411e-01 1.213028e-01 -7.017108e-02 5.648673e+01 -1.322342e-01 -1.637801e-01 -1.412472e-01 -7.380903e-02 1.249725e-01 2.034047e-01 1.336242e-01 2.018049e-01 1.688009e-01 1.264534e-01 9.426744e-02 7.110879e-02 -4.508233e-02 3.205133e-02 -3.441386e-03 5.425513e-05 -4.369875e-02 -7.807202e-02 -6.224011e-02 -9.023325e-03 -5.613001e-02 -5.962639e-02 -6.644040e-02 -4.781432e-02 -4.342067e-02 8.509365e-02
<VARIANCE> 39
 9.158999e+00 1.125886e+01 1.513623e+01 1.272206e+01 1.603900e+01 2.149637e+01 2.253163e+01 2.027902e+01 1.816078e+01 1.703507e+01 1.480099e+01 1.369493e+01 2.103644e+01 2.572926e-01 5.501355e-01 6.347401e-01 7.788853e-01 1.057188e+00 1.279631e+00 1.303216e+00 1.385612e+00 1.422413e+00 1.364618e+00 1.292221e+00 1.264939e+00 4.574008e-01 3.769773e-02 6.874372e-02 9.432398e-02 1.190604e-01 1.632041e-01 2.015843e-01 2.265274e-01 2.268712e-01 2.440503e-01 2.360788e-01 2.249853e-01 2.183612e-01 4.454094e-02
<GCONST> 8.043362e+01
<STATE> 3
~s "silst"
<STATE> 4
<MEAN> 39
 -8.474408e+00 -2.526792e+00 -4.591394e+00 -4.569006e+00 -2.955361e+00 -2.158981e+00 1.064330e+00 -5.665921e-01 -7.382636e-02 -2.113983e+00 -9.514815e-01 -7.668216e-01 6.084122e+01 8.506884e-02 -7.108510e-03 2.599776e-02 -1.914226e-01 -1.071624e-01 -1.544548e-02 7.471903e-02 -9.306111e-02 -1.632152e-01 -1.413078e-01 -1.179532e-01 -7.638062e-02 3.068149e-01 1.072938e-01 1.402257e-01 9.430631e-02 6.539784e-02 -3.773731e-02 -6.195254e-02 -7.103083e-02 -8.426072e-02 -7.765825e-02 -4.980824e-02 -1.026561e-02 -1.658713e-02 4.216987e-02
<VARIANCE> 39
 1.823240e+01 2.398903e+01 3.241230e+01 2.927845e+01 2.671484e+01 3.381885e+01 3.054977e+01 3.255915e+01 2.300954e+01 2.584312e+01 2.027345e+01 1.992564e+01 3.458561e+01 8.720219e-01 1.139477e+00 1.041653e+00 1.401057e+00 1.388279e+00 1.708426e+00 1.756977e+00 1.871678e+00 1.966189e+00 1.885541e+00 1.674486e+00 1.421408e+00 1.406085e+00 1.123861e-01 1.386764e-01 1.495548e-01 2.065662e-01 2.241668e-01 2.518395e-01 2.830152e-01 2.858689e-01 2.942324e-01 2.841467e-01 2.675725e-01 2.371484e-01 1.024150e-01
<GCONST> 9.865350e+01
<TRANSP> 5
 0.000000e+00 1.000000e+00 0.000000e+00 0.000000e+00 0.000000e+00
 0.000000e+00 7.778954e-01 4.656760e-02 1.755370e-01 0.000000e+00
 0.000000e+00 0.000000e+00 7.545392e-01 2.454609e-01 0.000000e+00
 0.000000e+00 6.166830e-02 0.000000e+00 6.268961e-01 3.114356e-01
 0.000000e+00 0.000000e+00 0.000000e+00 0.000000e+00 0.000000e+00
<ENDHMM>
