~o
<STREAMINFO> 1 39
<VECSIZE> 39<NULLD><MFCC_D_A_0><DIAGC>
~h "proto"
<BEGINHMM>
<NUMSTATES> 5
<STATE> 2
<MEAN> 39
 -2.224326e+000 3.869608e+000 9.542428e-001 -3.458138e+000 -7.921994e+000 -6.621119e+000 -5.920139e-001 -4.034312e+000 -2.100028e+000 -1.666080e+000 -2.079659e+000 -1.246666e+000 6.588331e+001 2.274543e-002 1.479582e-002 1.370627e-002 5.975570e-003 -3.661323e-002 -5.320187e-002 -9.133484e-003 -1.730699e-002 -1.653184e-002 -1.525151e-002 -5.346208e-003 -9.812288e-003 -8.149792e-003 -5.211601e-003 8.047853e-003 -1.524321e-003 6.729801e-003 1.349869e-002 1.418732e-002 3.674627e-003 3.888939e-003 5.550982e-003 6.958154e-003 2.882549e-003 3.265106e-003 -2.764040e-002
<VARIANCE> 39
 3.740973e+001 5.313155e+001 6.812322e+001 7.659717e+001 8.296675e+001 1.014055e+002 5.983440e+001 6.302224e+001 6.048460e+001 4.457723e+001 3.898028e+001 3.780531e+001 7.723595e+001 1.302501e+000 1.750577e+000 1.578707e+000 2.198211e+000 2.607947e+000 2.777526e+000 2.401972e+000 2.521378e+000 2.600509e+000 2.285602e+000 2.060752e+000 1.744259e+000 2.146788e+000 1.843455e-001 2.617738e-001 2.252331e-001 3.039368e-001 3.743387e-001 4.005016e-001 4.053887e-001 4.049863e-001 4.323907e-001 3.924566e-001 3.604958e-001 3.066924e-001 2.188757e-001
<GCONST> 1.194094e+002
<STATE> 3
<MEAN> 39
 -2.224326e+000 3.869608e+000 9.542428e-001 -3.458138e+000 -7.921994e+000 -6.621119e+000 -5.920139e-001 -4.034312e+000 -2.100028e+000 -1.666080e+000 -2.079659e+000 -1.246666e+000 6.588331e+001 2.274543e-002 1.479582e-002 1.370627e-002 5.975570e-003 -3.661323e-002 -5.320187e-002 -9.133484e-003 -1.730699e-002 -1.653184e-002 -1.525151e-002 -5.346208e-003 -9.812288e-003 -8.149792e-003 -5.211601e-003 8.047853e-003 -1.524321e-003 6.729801e-003 1.349869e-002 1.418732e-002 3.674627e-003 3.888939e-003 5.550982e-003 6.958154e-003 2.882549e-003 3.265106e-003 -2.764040e-002
<VARIANCE> 39
 3.740973e+001 5.313155e+001 6.812322e+001 7.659717e+001 8.296675e+001 1.014055e+002 5.983440e+001 6.302224e+001 6.048460e+001 4.457723e+001 3.898028e+001 3.780531e+001 7.723595e+001 1.302501e+000 1.750577e+000 1.578707e+000 2.198211e+000 2.607947e+000 2.777526e+000 2.401972e+000 2.521378e+000 2.600509e+000 2.285602e+000 2.060752e+000 1.744259e+000 2.146788e+000 1.843455e-001 2.617738e-001 2.252331e-001 3.039368e-001 3.743387e-001 4.005016e-001 4.053887e-001 4.049863e-001 4.323907e-001 3.924566e-001 3.604958e-001 3.066924e-001 2.188757e-001
<GCONST> 1.194094e+002
<STATE> 4
<MEAN> 39
 -2.224326e+000 3.869608e+000 9.542428e-001 -3.458138e+000 -7.921994e+000 -6.621119e+000 -5.920139e-001 -4.034312e+000 -2.100028e+000 -1.666080e+000 -2.079659e+000 -1.246666e+000 6.588331e+001 2.274543e-002 1.479582e-002 1.370627e-002 5.975570e-003 -3.661323e-002 -5.320187e-002 -9.133484e-003 -1.730699e-002 -1.653184e-002 -1.525151e-002 -5.346208e-003 -9.812288e-003 -8.149792e-003 -5.211601e-003 8.047853e-003 -1.524321e-003 6.729801e-003 1.349869e-002 1.418732e-002 3.674627e-003 3.888939e-003 5.550982e-003 6.958154e-003 2.882549e-003 3.265106e-003 -2.764040e-002
<VARIANCE> 39
 3.740973e+001 5.313155e+001 6.812322e+001 7.659717e+001 8.296675e+001 1.014055e+002 5.983440e+001 6.302224e+001 6.048460e+001 4.457723e+001 3.898028e+001 3.780531e+001 7.723595e+001 1.302501e+000 1.750577e+000 1.578707e+000 2.198211e+000 2.607947e+000 2.777526e+000 2.401972e+000 2.521378e+000 2.600509e+000 2.285602e+000 2.060752e+000 1.744259e+000 2.146788e+000 1.843455e-001 2.617738e-001 2.252331e-001 3.039368e-001 3.743387e-001 4.005016e-001 4.053887e-001 4.049863e-001 4.323907e-001 3.924566e-001 3.604958e-001 3.066924e-001 2.188757e-001
<GCONST> 1.194094e+002
<TRANSP> 5
 0.000000e+000 1.000000e+000 0.000000e+000 0.000000e+000 0.000000e+000
 0.000000e+000 6.000000e-001 4.000000e-001 0.000000e+000 0.000000e+000
 0.000000e+000 0.000000e+000 6.000000e-001 4.000000e-001 0.000000e+000
 0.000000e+000 0.000000e+000 0.000000e+000 7.000000e-001 3.000000e-001
 0.000000e+000 0.000000e+000 0.000000e+000 0.000000e+000 0.000000e+000
<ENDHMM>
