~o
<STREAMINFO> 1 39
<VECSIZE> 39<NULLD><MFCC_D_A_0><DIAGC>
~s "silst"
<MEAN> 39
 -1.063189e+01 -1.111368e+00 -3.916827e+00 -3.432003e+00 -4.541546e+00 -4.070383e+00 -9.239737e-01 -1.742787e+00 -4.828328e-01 -1.182294e+00 4.073876e-01 -1.608885e-02 6.072762e+01 -2.206369e-01 -8.138824e-01 -5.589820e-01 -8.643610e-01 -4.239339e-01 -8.018479e-03 2.883517e-01 -4.018682e-02 1.174578e-01 2.241956e-02 9.053269e-02 -1.158724e-01 1.280277e+00 1.041112e-01 1.717209e-01 7.917318e-02 -3.391175e-03 2.605293e-02 7.498887e-02 9.730694e-02 1.773594e-03 -9.947307e-03 -7.156407e-03 -9.035654e-02 -4.977963e-02 -7.908223e-02
<VARIANCE> 39
 1.903103e+01 3.792657e+01 3.658442e+01 4.417341e+01 4.355005e+01 6.177521e+01 4.205429e+01 3.778122e+01 3.704689e+01 3.365589e+01 2.622785e+01 2.572228e+01 5.952838e+01 1.632096e+00 2.717219e+00 2.593756e+00 2.946626e+00 4.058733e+00 4.215077e+00 3.187003e+00 3.086508e+00 2.737102e+00 2.838422e+00 2.352532e+00 1.956089e+00 4.496635e+00 2.822128e-01 5.448791e-01 4.187443e-01 5.476389e-01 6.685343e-01 7.255142e-01 6.290945e-01 5.755420e-01 5.349950e-01 5.430896e-01 4.534122e-01 3.865041e-01 7.819676e-01
<GCONST> 1.240648e+02
~h "a"
<BEGINHMM>
<NUMSTATES> 5
<STATE> 2
<MEAN> 39
 7.800782e-01 -4.127116e+00 -1.036097e+01 -1.034990e+01 -4.185714e+00 -4.435146e+00 -2.105735e+00 -5.371907e+00 2.405098e+00 2.532922e+00 -3.719409e+00 -8.436687e+00 7.315758e+01 -8.711541e-01 1.503928e+00 1.325595e+00 1.650098e+00 4.158636e-01 -1.346685e+00 -1.305611e+00 7.490441e-01 6.311008e-01 7.688482e-01 7.767975e-01 2.447516e-01 -1.340610e+00 -2.123877e-01 5.966990e-01 2.370781e-01 1.401277e-01 -9.884782e-02 1.209043e-01 2.149420e-01 9.769073e-03 -3.676461e-01 -4.289309e-01 1.053719e-01 4.083221e-01 -7.910233e-01
<VARIANCE> 39
 6.226890e+00 2.682891e+01 4.050816e+01 3.966475e+01 4.571112e+01 4.275701e+01 3.969536e+01 4.559082e+01 3.748174e+01 6.348018e+01 7.035591e+01 5.973027e+01 1.570062e+01 8.036440e-01 1.931745e+00 1.245834e+00 2.035527e+00 1.680940e+00 2.127422e+00 2.484915e+00 2.095068e+00 2.889638e+00 2.202208e+00 2.600655e+00 2.960292e+00 1.501583e+00 1.072582e-01 4.885922e-01 2.885996e-01 5.004326e-01 4.980605e-01 6.165152e-01 5.017685e-01 3.541606e-01 6.029864e-01 5.258399e-01 7.126990e-01 5.601726e-01 2.387971e-01
<GCONST> 1.154296e+02
<STATE> 3
<MEAN> 39
 -3.497269e+00 1.030369e+00 -6.970145e+00 -7.473140e+00 -3.643805e+00 -6.511135e+00 -3.610373e+00 -4.284380e+00 1.905336e+00 3.936962e+00 3.340644e-01 -4.736601e+00 6.457082e+01 -9.596447e-01 2.280516e-01 4.858470e-01 2.046117e-01 8.762079e-02 2.078651e-01 1.936436e-02 5.459011e-01 -4.655496e-01 -5.012335e-01 2.789974e-01 5.492267e-01 -2.249228e+00 1.218916e-01 -3.816197e-01 -3.127464e-01 -2.882621e-01 -1.294670e-01 2.844946e-01 2.244918e-01 -9.357116e-02 -1.280186e-01 -1.869634e-01 -1.428580e-01 4.349040e-02 2.116614e-01
<VARIANCE> 39
 1.237548e+01 1.709879e+01 3.264876e+01 2.244081e+01 3.638514e+01 2.295494e+01 2.226027e+01 2.780016e+01 2.205165e+01 3.379996e+01 3.575085e+01 4.388079e+01 2.552817e+01 8.189737e-01 1.519270e+00 1.484493e+00 1.726354e+00 2.330761e+00 2.370292e+00 2.470825e+00 2.590931e+00 2.639419e+00 1.393780e+00 1.813686e+00 1.937427e+00 1.368386e+00 1.893043e-01 2.727602e-01 2.593309e-01 4.624543e-01 3.206791e-01 3.725064e-01 4.493226e-01 3.918404e-01 4.559500e-01 3.170468e-01 2.680449e-01 3.594422e-01 2.136159e-01
<GCONST> 1.068306e+02
<STATE> 4
<MEAN> 39
 -5.950665e+00 1.835483e+00 -5.422111e+00 -5.101675e+00 -2.487589e+00 -1.746624e+00 -1.129114e+00 -1.991072e+00 2.790051e-01 1.178585e+00 -6.237308e-01 -2.788035e+00 5.902185e+01 -7.083892e-01 7.003844e-02 8.288667e-02 1.036511e-01 1.628177e-01 3.165275e-01 2.327735e-01 2.944483e-01 3.245967e-02 -3.545176e-01 1.539245e-01 4.761187e-01 -5.628732e-01 -1.931907e-01 -1.190898e-02 6.276818e-02 -6.141930e-02 -3.310263e-02 -7.007963e-02 -8.715525e-03 -1.412102e-02 1.071740e-01 -5.669841e-02 3.985925e-02 -4.047735e-02 4.654167e-01
<VARIANCE> 39
 8.433816e+00 1.188018e+01 1.627580e+01 1.559601e+01 1.842535e+01 1.667430e+01 2.507016e+01 1.596119e+01 2.316354e+01 1.742750e+01 1.413664e+01 1.693246e+01 1.850143e+01 6.560172e-01 7.279553e-01 9.612647e-01 9.989869e-01 1.020241e+00 1.388286e+00 1.540648e+00 1.248913e+00 1.276937e+00 1.283384e+00 1.111052e+00 1.242841e+00 1.028960e+00 1.444833e-01 1.802738e-01 2.340191e-01 1.621353e-01 2.783278e-01 2.868862e-01 3.745303e-01 3.168694e-01 2.818743e-01 2.565996e-01 2.472426e-01 2.800984e-01 1.343322e-01
<GCONST> 9.012263e+01
<TRANSP> 5
 0.000000e+00 1.000000e+00 0.000000e+00 0.000000e+00 0.000000e+00
 0.000000e+00 6.462733e-01 3.537267e-01 0.000000e+00 0.000000e+00
 0.000000e+00 0.000000e+00 7.107412e-01 2.892588e-01 0.000000e+00
 0.000000e+00 0.000000e+00 0.000000e+00 7.959648e-01 2.040353e-01
 0.000000e+00 0.000000e+00 0.000000e+00 0.000000e+00 0.000000e+00
<ENDHMM>
~h "e"
<BEGINHMM>
<NUMSTATES> 5
<STATE> 2
<MEAN> 39
 -4.311653e+00 2.571484e+00 3.563937e+00 2.044850e+00 -1.230962e+01 -1.450611e+01 -4.802075e+00 -4.852063e+00 -4.778062e+00 -3.227101e+00 -1.355010e-01 -3.676230e-01 6.441718e+01 -4.670581e-01 3.946564e-02 3.034475e-02 2.117086e-01 3.008250e-01 3.598833e-01 4.501067e-01 4.569007e-01 1.830260e-02 2.886455e-01 -1.356407e-01 2.632242e-01 -7.393293e-01 -3.864028e-02 -5.789684e-02 -1.525607e-01 -1.746503e-01 8.627509e-02 2.558537e-01 5.349988e-02 7.323010e-02 1.691616e-01 4.343177e-02 1.258772e-01 -5.733055e-02 -2.576138e-02
<VARIANCE> 39
 1.708937e+01 2.824572e+01 3.369221e+01 3.288586e+01 5.269931e+01 5.507333e+01 4.647263e+01 3.759874e+01 5.427173e+01 3.140825e+01 4.063651e+01 3.093770e+01 3.649249e+01 9.277794e-01 1.339923e+00 1.606445e+00 1.673310e+00 3.031705e+00 2.191309e+00 3.222621e+00 1.754004e+00 2.891688e+00 2.219210e+00 2.777544e+00 2.268308e+00 1.272113e+00 1.855419e-01 2.695978e-01 2.718853e-01 3.211764e-01 6.144819e-01 4.994554e-01 5.646967e-01 3.669351e-01 5.587207e-01 3.121629e-01 4.105545e-01 4.943967e-01 1.993537e-01
<GCONST> 1.141109e+02
<STATE> 3
<MEAN> 39
 -4.658631e+00 1.329295e+00 4.591202e+00 9.677604e-01 -1.501902e+01 -1.660891e+01 -4.870326e+00 -4.160472e+00 -2.757143e+00 -4.235604e+00 1.748862e-01 7.812058e-01 6.568458e+01 -2.088461e-01 2.956672e-01 -3.623620e-01 1.888663e-01 1.060000e+00 9.178530e-01 3.295626e-01 8.783410e-02 1.284009e-01 1.763836e-01 1.572473e-02 -1.988111e-01 -1.157697e+00 -4.800794e-02 -2.173088e-02 -1.111482e-01 -3.763679e-03 3.943825e-01 3.544678e-01 7.738940e-02 6.272001e-03 1.546730e-01 2.833957e-02 -1.079584e-01 -1.176316e-01 -1.132025e-01
<VARIANCE> 39
 1.300398e+01 1.846575e+01 4.664952e+01 4.470188e+01 5.798737e+01 6.693719e+01 7.022411e+01 5.750180e+01 3.427847e+01 4.014994e+01 3.531791e+01 3.415961e+01 3.493125e+01 4.340042e-01 7.870686e-01 1.084700e+00 1.456764e+00 2.619751e+00 3.227102e+00 2.001953e+00 2.375895e+00 1.539673e+00 1.320124e+00 2.173892e+00 1.996184e+00 8.192772e-01 8.607283e-02 1.666957e-01 2.028273e-01 2.773468e-01 3.180676e-01 4.165820e-01 4.432989e-01 4.111179e-01 3.417202e-01 3.151065e-01 3.233518e-01 3.348070e-01 1.281792e-01
<GCONST> 1.069480e+02
<STATE> 4
<MEAN> 39
 -6.828516e+00 -6.741536e-02 5.218407e-01 1.082808e+00 -8.899175e+00 -9.495777e+00 1.443092e+00 -7.840769e-01 -4.156137e-01 -2.938657e+00 -1.811749e+00 -1.683290e+00 6.134055e+01 -3.163345e-01 -2.499937e-01 -4.410331e-01 -2.642327e-01 9.293226e-01 7.918648e-01 8.485585e-02 3.675583e-01 5.086786e-01 4.024648e-01 4.421210e-03 2.899348e-02 -6.445449e-01 6.145572e-03 -3.495408e-02 -8.527047e-03 -5.595115e-02 -6.073562e-02 -6.102829e-02 -1.013105e-01 -5.707943e-02 -3.030544e-02 5.800855e-03 1.307524e-02 2.358746e-02 6.623867e-02
<VARIANCE> 39
 1.368064e+01 2.017447e+01 3.004852e+01 2.642911e+01 5.643460e+01 4.640039e+01 5.097216e+01 3.236101e+01 2.564019e+01 3.292181e+01 4.037871e+01 2.989700e+01 2.814957e+01 3.145176e-01 6.205672e-01 7.988249e-01 9.792689e-01 1.614047e+00 1.661082e+00 1.472425e+00 1.753752e+00 1.795952e+00 1.812577e+00 1.746203e+00 1.577441e+00 3.110628e-01 4.575788e-02 9.845717e-02 1.395226e-01 1.479995e-01 2.453929e-01 2.452120e-01 2.273024e-01 2.884580e-01 2.845063e-01 2.747249e-01 3.575110e-01 2.986000e-01 4.406636e-02
<GCONST> 9.478059e+01
<TRANSP> 5
 0.000000e+00 1.000000e+00 0.000000e+00 0.000000e+00 0.000000e+00
 0.000000e+00 5.281033e-01 4.718967e-01 0.000000e+00 0.000000e+00
 0.000000e+00 0.000000e+00 5.611426e-01 4.388573e-01 0.000000e+00
 0.000000e+00 0.000000e+00 0.000000e+00 8.024917e-01 1.975082e-01
 0.000000e+00 0.000000e+00 0.000000e+00 0.000000e+00 0.000000e+00
<ENDHMM>
~h "h"
<BEGINHMM>
<NUMSTATES> 5
<STATE> 2
<MEAN> 39
 -8.822431e+00 -1.618353e+00 -4.885983e+00 -9.273001e+00 -6.576843e+00 -2.850828e+00 4.873823e+00 -6.103052e-01 -1.399859e-01 -1.520082e+00 -1.986409e+00 -1.636981e+00 6.529622e+01 1.601378e+00 1.864246e+00 9.678386e-01 1.566090e-01 -1.111047e+00 -1.229095e+00 -6.576120e-01 -1.057015e+00 -1.043188e+00 -8.463642e-01 -8.618887e-01 -6.192952e-01 1.065032e+00 4.927841e-01 1.808711e-01 1.046893e-01 -1.313441e-01 -5.059667e-01 -4.251729e-01 -3.916551e-01 -3.096379e-01 -1.980332e-01 -9.871956e-02 -5.103961e-03 8.981568e-02 2.630956e-01
<VARIANCE> 39
 2.559827e+01 6.257058e+01 6.213462e+01 7.303313e+01 5.920726e+01 5.921030e+01 4.483804e+01 4.704783e+01 4.292342e+01 3.316183e+01 3.039031e+01 3.302959e+01 2.652633e+01 2.000611e+00 1.516970e+00 1.618695e+00 2.659474e+00 3.235001e+00 2.878569e+00 2.622954e+00 2.992510e+00 2.495353e+00 2.127752e+00 2.066186e+00 1.905357e+00 1.003315e+00 2.263871e-01 4.895654e-01 3.447028e-01 4.720802e-01 4.513661e-01 4.072565e-01 4.012946e-01 5.087512e-01 4.474419e-01 3.826639e-01 4.154113e-01 3.704803e-01 1.424072e-01
<GCONST> 1.177645e+02
<STATE> 3
<MEAN> 39
 3.164605e-01 3.755033e+00 -2.950424e+00 -1.136101e+01 -1.563028e+01 -1.133457e+01 -1.008958e+00 -5.647630e+00 -4.217618e+00 -4.504853e+00 -4.940561e+00 -2.723121e+00 7.099629e+01 1.316640e+00 -1.637853e-01 -2.818934e-02 -1.108995e+00 -2.117380e+00 -1.173778e+00 -1.009096e+00 -9.731615e-01 -4.370461e-01 -1.954545e-01 1.647317e-01 5.266622e-01 1.462246e+00 -6.214390e-01 -6.274984e-01 -2.238355e-01 4.598199e-02 4.862306e-01 5.856437e-01 2.280593e-01 1.989070e-01 2.391066e-01 2.385446e-01 4.189428e-01 2.713175e-01 -2.645802e-01
<VARIANCE> 39
 2.090028e+01 6.417886e+01 7.309317e+01 7.246485e+01 5.954486e+01 6.656190e+01 4.719874e+01 4.752346e+01 4.133782e+01 3.731335e+01 3.199821e+01 3.533604e+01 2.861869e+01 1.842751e+00 2.889192e+00 1.887328e+00 2.774571e+00 3.884497e+00 3.494283e+00 3.805971e+00 3.177967e+00 2.842769e+00 1.964534e+00 2.287182e+00 2.015399e+00 1.729779e+00 1.858599e-01 4.798374e-01 2.804055e-01 4.215828e-01 5.126168e-01 3.933958e-01 5.586799e-01 5.488502e-01 4.559847e-01 3.711778e-01 4.491723e-01 3.113681e-01 1.805660e-01
<GCONST> 1.206140e+02
<STATE> 4
<MEAN> 39
 1.618243e+00 2.108520e+00 -4.597111e+00 -1.459060e+01 -1.804802e+01 -8.321169e+00 -1.803968e+00 -8.619783e+00 -4.883452e+00 -5.756378e+00 -1.662404e+00 8.646314e-01 7.237719e+01 -1.279913e-01 -8.313793e-01 -2.513842e-01 2.264955e-01 4.350822e-01 2.591008e-01 -7.113745e-01 -1.011194e+00 -4.052700e-01 3.322824e-01 1.387178e+00 6.538683e-01 4.723725e-01 -2.066044e-01 -4.085209e-02 5.398320e-02 4.771825e-01 4.592099e-01 -1.228473e-01 -2.253761e-01 3.598649e-02 2.109403e-01 2.425279e-01 3.625336e-02 -3.195330e-01 -1.873450e-01
<VARIANCE> 39
 1.943873e+01 5.269132e+01 7.552375e+01 7.525489e+01 6.225422e+01 6.763095e+01 5.638004e+01 5.257297e+01 5.541462e+01 4.191440e+01 4.561657e+01 5.208449e+01 1.989256e+01 2.465029e-01 9.159697e-01 1.178845e+00 1.459514e+00 2.858363e+00 1.940956e+00 2.707760e+00 2.548824e+00 2.334482e+00 2.283675e+00 3.125182e+00 2.255625e+00 3.241199e-01 8.613690e-02 1.637538e-01 2.150197e-01 2.961937e-01 4.000667e-01 5.044502e-01 5.645732e-01 4.060623e-01 6.123868e-01 4.043389e-01 5.521225e-01 5.436221e-01 9.930660e-02
<GCONST> 1.123101e+02
<TRANSP> 5
 0.000000e+00 1.000000e+00 0.000000e+00 0.000000e+00 0.000000e+00
 0.000000e+00 7.328100e-01 2.671901e-01 0.000000e+00 0.000000e+00
 0.000000e+00 0.000000e+00 6.669743e-01 3.330257e-01 0.000000e+00
 0.000000e+00 0.000000e+00 0.000000e+00 6.609010e-01 3.390990e-01
 0.000000e+00 0.000000e+00 0.000000e+00 0.000000e+00 0.000000e+00
<ENDHMM>
~h "i"
<BEGINHMM>
<NUMSTATES> 5
<STATE> 2
<MEAN> 39
 -2.424444e+01 2.071770e+00 8.257453e-01 -7.048813e+00 -3.368714e+00 -4.737051e+00 2.090436e+00 -2.806132e-01 1.421024e+00 -3.183899e+00 2.677398e+00 -3.029151e-01 6.935199e+01 -4.289035e-01 -1.787193e-01 1.832494e+00 9.407509e-01 -2.948275e-01 -6.650624e-01 7.167523e-01 -3.511518e-01 -4.230790e-01 -3.643804e-01 -8.770078e-02 -6.578867e-02 4.395547e-01 1.013676e+00 7.211839e-02 3.964353e-02 3.816588e-01 -1.105611e-01 -3.405178e-01 -2.603444e-01 -2.153408e-01 -2.656523e-01 -1.312526e-01 -1.608217e-01 -3.971283e-02 -3.186304e-01
<VARIANCE> 39
 2.022486e+01 2.390743e+01 5.821886e+01 3.633453e+01 3.304476e+01 4.792366e+01 4.944118e+01 2.818956e+01 2.540162e+01 3.122749e+01 1.957423e+01 2.192960e+01 1.408926e+01 7.212029e+00 2.152615e+00 2.106246e+00 3.054415e+00 2.560868e+00 2.431201e+00 2.162269e+00 1.917696e+00 2.340227e+00 1.776386e+00 1.841681e+00 1.144883e+00 1.590541e+00 3.658032e-01 5.081212e-01 3.984924e-01 3.602422e-01 4.769815e-01 4.262532e-01 5.605922e-01 4.558043e-01 4.458855e-01 3.827410e-01 3.740946e-01 2.354994e-01 1.827281e-01
<GCONST> 1.135176e+02
<STATE> 3
<MEAN> 39
 -1.294260e+01 2.965939e+00 1.123481e+01 2.163272e+00 -7.795685e+00 -1.054113e+01 -7.891434e-01 -6.255400e+00 -4.938239e+00 -6.964913e+00 -6.454124e-01 -6.371095e-01 6.791945e+01 3.777518e+00 1.447050e+00 5.290996e-01 1.857623e+00 -1.322976e+00 -2.741117e+00 -1.904395e+00 -1.298603e+00 -1.352555e+00 -1.442025e+00 -6.102825e-01 5.487942e-01 -1.624081e-01 -3.572422e-01 -7.388549e-02 -7.909214e-01 -5.171224e-01 1.117731e-01 1.232115e-01 6.400555e-02 3.445176e-01 4.035965e-01 1.657352e-01 1.377280e-01 1.818803e-01 9.775512e-03
<VARIANCE> 39
 3.694495e+01 3.003534e+01 3.978887e+01 5.093180e+01 3.260245e+01 3.951304e+01 3.901092e+01 2.905877e+01 2.174391e+01 2.862776e+01 1.722455e+01 1.671744e+01 1.064739e+01 1.341593e+00 2.059173e+00 1.986940e+00 2.737046e+00 3.440497e+00 1.556490e+00 2.688983e+00 4.939501e+00 2.251546e+00 2.032959e+00 2.988845e+00 1.629936e+00 6.491837e-01 5.887623e-01 3.671490e-01 3.217725e-01 3.475245e-01 4.652382e-01 4.441405e-01 6.299321e-01 5.456380e-01 3.377860e-01 3.860734e-01 4.679858e-01 2.795852e-01 8.938122e-02
<GCONST> 1.117527e+02
<STATE> 4
<MEAN> 39
 -8.227133e+00 1.332733e+00 4.799758e+00 6.877995e+00 -1.088733e+01 -1.811020e+01 -3.501917e+00 -5.854197e+00 -2.417012e+00 -8.423520e+00 -1.851917e+00 2.985875e+00 6.735571e+01 7.865282e-01 1.248292e-01 -1.150375e+00 2.272491e-01 5.510778e-01 -2.455544e-02 -1.828884e-01 1.387098e-01 3.885378e-01 1.945378e-01 -1.800028e-01 -1.273023e-01 -5.158247e-01 -3.233277e-01 -3.467941e-02 -1.146496e-01 -3.898670e-01 3.151775e-01 6.396427e-01 1.190435e-01 -1.318816e-01 8.131126e-02 3.090830e-01 1.444084e-01 -2.218823e-01 -6.555652e-02
<VARIANCE> 39
 1.626545e+01 3.385353e+01 5.525857e+01 6.776196e+01 3.821583e+01 3.100641e+01 3.181894e+01 3.148150e+01 2.710145e+01 3.470546e+01 2.577403e+01 2.121914e+01 2.057169e+01 9.056057e-01 1.301977e+00 1.392706e+00 1.842325e+00 1.449383e+00 3.514417e+00 2.107540e+00 2.616046e+00 1.978398e+00 2.145944e+00 2.365246e+00 2.198684e+00 3.619248e-01 2.696173e-01 2.648537e-01 2.148109e-01 2.514713e-01 3.063515e-01 4.447608e-01 3.221151e-01 6.470809e-01 5.021982e-01 3.582170e-01 4.749762e-01 4.097992e-01 3.709325e-02
<GCONST> 1.071330e+02
<TRANSP> 5
 0.000000e+00 1.000000e+00 0.000000e+00 0.000000e+00 0.000000e+00
 0.000000e+00 8.370192e-01 1.629808e-01 0.000000e+00 0.000000e+00
 0.000000e+00 0.000000e+00 6.187556e-01 3.812445e-01 0.000000e+00
 0.000000e+00 0.000000e+00 0.000000e+00 7.237460e-01 2.762540e-01
 0.000000e+00 0.000000e+00 0.000000e+00 0.000000e+00 0.000000e+00
<ENDHMM>
~h "k"
<BEGINHMM>
<NUMSTATES> 5
<STATE> 2
<MEAN> 39
 -1.406611e+01 -2.380452e+00 3.180852e+00 -3.571391e+00 -9.869252e+00 -9.100733e+00 -2.556886e-01 -4.072397e+00 -3.171542e+00 -2.997082e+00 -1.181351e+00 -1.772569e+00 7.006004e+01 2.230477e+00 1.400814e+00 1.519422e+00 9.833819e-01 -1.164607e+00 -1.746114e+00 -6.484571e-01 -1.019502e+00 -1.214282e+00 -1.483882e+00 -7.753258e-01 -6.613248e-01 7.555778e-01 4.324712e-01 9.179868e-02 -9.828155e-02 -1.388498e-01 -3.400079e-01 -3.460701e-01 -3.325966e-01 -1.645751e-01 -1.351658e-01 -8.879220e-02 1.092117e-01 9.714325e-02 1.466642e-01
<VARIANCE> 39
 3.837007e+01 4.038590e+01 4.958174e+01 3.506824e+01 3.384761e+01 4.571727e+01 4.024321e+01 4.335088e+01 3.297231e+01 3.555890e+01 2.624051e+01 3.177933e+01 1.991601e+01 2.838428e+00 2.903036e+00 2.449909e+00 2.484828e+00 4.284329e+00 3.136849e+00 3.759345e+00 3.032874e+00 3.406843e+00 2.824323e+00 1.912518e+00 2.234618e+00 2.509734e+00 5.970901e-01 8.855259e-01 5.180372e-01 6.114834e-01 6.723996e-01 5.463542e-01 5.641948e-01 4.777653e-01 5.738485e-01 6.497049e-01 4.415620e-01 3.822321e-01 6.043821e-01
<GCONST> 1.242924e+02
<STATE> 3
<MEAN> 39
 -3.887846e+00 -4.516810e-01 5.124975e+00 -3.246387e+00 -1.778940e+01 -1.769657e+01 -3.472105e+00 -7.886480e+00 -7.428734e+00 -7.009993e+00 -1.776545e+00 -3.113723e+00 7.426723e+01 8.640909e-01 -5.013595e-01 1.361132e-01 -5.512634e-01 -1.524327e+00 -1.156423e+00 -7.070635e-01 -3.669216e-01 -9.756655e-02 3.958466e-02 5.707646e-01 3.816810e-01 9.058569e-01 -7.893965e-01 -2.843825e-01 -1.336416e-01 -8.615155e-02 4.712705e-01 6.442184e-01 3.274207e-01 3.069877e-01 4.118819e-01 4.196231e-01 2.454509e-01 1.625321e-01 -3.331966e-01
<VARIANCE> 39
 1.373627e+01 3.680619e+01 6.554864e+01 4.657474e+01 6.174901e+01 6.236677e+01 5.303229e+01 9.425814e+01 5.895977e+01 3.405623e+01 3.333838e+01 4.815508e+01 1.571953e+01 1.423388e+00 1.679543e+00 1.652730e+00 1.408541e+00 2.855754e+00 2.788403e+00 2.660782e+00 3.030800e+00 2.459217e+00 2.012608e+00 2.374213e+00 1.528304e+00 8.688104e-01 1.641121e-01 4.143213e-01 3.379987e-01 2.579534e-01 5.303394e-01 3.959461e-01 5.229895e-01 5.112115e-01 4.632311e-01 3.672937e-01 3.490113e-01 2.888839e-01 8.993320e-02
<GCONST> 1.145849e+02
<STATE> 4
<MEAN> 39
 -7.478177e+00 2.627779e+00 8.222020e+00 -1.074825e+00 -1.627026e+01 -1.944013e+01 -5.723433e+00 -6.878994e+00 -5.874540e+00 -6.962403e+00 7.516841e-01 1.249247e+00 7.498440e+01 -1.127586e-01 9.687266e-02 3.760134e-01 1.383894e-04 -2.243365e-01 6.200055e-02 1.242239e-01 -2.255623e-01 9.384128e-02 5.112261e-02 1.381405e-01 1.733241e-01 -1.351118e-01 -9.002848e-02 9.517682e-02 -1.526933e-02 8.822247e-02 2.205069e-01 1.186931e-01 1.275033e-01 7.104597e-04 -1.203681e-02 1.525592e-02 -1.389561e-01 -9.049014e-02 -1.438262e-01
<VARIANCE> 39
 1.930342e+01 6.699274e+01 4.528302e+01 3.417700e+01 6.483319e+01 5.914569e+01 2.961047e+01 6.450379e+01 4.489257e+01 3.972772e+01 3.204937e+01 4.864221e+01 1.430139e+01 1.838654e-01 5.064024e-01 6.591853e-01 5.768487e-01 9.436740e-01 1.159852e+00 1.285937e+00 1.388123e+00 9.521538e-01 1.051388e+00 1.512591e+00 7.864397e-01 2.451938e-01 5.429580e-02 1.148509e-01 1.282739e-01 1.055811e-01 2.108115e-01 2.347264e-01 1.818456e-01 3.259433e-01 2.670965e-01 2.329932e-01 3.366768e-01 1.402019e-01 4.294507e-02
<GCONST> 9.140043e+01
<TRANSP> 5
 0.000000e+00 1.000000e+00 0.000000e+00 0.000000e+00 0.000000e+00
 0.000000e+00 7.560736e-01 2.439264e-01 0.000000e+00 0.000000e+00
 0.000000e+00 0.000000e+00 6.368515e-01 3.631484e-01 0.000000e+00
 0.000000e+00 0.000000e+00 0.000000e+00 6.054826e-01 3.945174e-01
 0.000000e+00 0.000000e+00 0.000000e+00 0.000000e+00 0.000000e+00
<ENDHMM>
~h "m"
<BEGINHMM>
<NUMSTATES> 5
<STATE> 2
<MEAN> 39
 -3.361995e-01 7.463871e+00 3.572385e-01 6.301381e-01 -2.844940e+00 -3.621206e+00 -1.342738e+00 -7.806164e+00 -1.027723e+01 -1.096965e+01 -3.987648e+00 -1.888648e+00 6.313921e+01 1.108647e+00 -3.394708e-04 -5.893375e-01 -9.620676e-01 -9.252491e-01 -3.392103e-01 9.001438e-02 -4.616867e-01 -2.852332e-01 -2.619851e-01 -1.480662e-01 -6.806375e-02 1.269647e+00 -1.752364e-01 -4.220644e-01 -4.603191e-01 -5.087591e-01 -1.659015e-01 1.694999e-01 2.320809e-01 2.185338e-01 5.099242e-01 5.252639e-01 1.244015e-01 2.415046e-02 7.344473e-02
<VARIANCE> 39
 1.302549e+01 2.142973e+01 3.105454e+01 3.025351e+01 4.325030e+01 3.876805e+01 5.037774e+01 4.784623e+01 3.801269e+01 3.901333e+01 3.841436e+01 2.238424e+01 2.300715e+01 1.327148e+00 1.922974e+00 2.511767e+00 3.243480e+00 2.132213e+00 1.826258e+00 2.163129e+00 2.861701e+00 4.046325e+00 4.208686e+00 2.244554e+00 1.455462e+00 8.961270e-01 1.502731e-01 2.406848e-01 2.841314e-01 3.684496e-01 3.343199e-01 3.607786e-01 4.058291e-01 4.246229e-01 5.206447e-01 5.516962e-01 4.261171e-01 3.003130e-01 1.209821e-01
<GCONST> 1.118215e+02
<STATE> 3
<MEAN> 39
 3.523175e+00 1.239603e+00 -1.004030e+01 -1.405948e+01 -1.174992e+01 -2.675711e+00 3.025831e+00 -5.889779e+00 -3.699925e+00 -3.964417e+00 -3.779410e+00 -2.697585e+00 7.150223e+01 7.336157e-02 -2.205124e+00 -2.156410e+00 -2.925810e+00 -5.338568e-01 1.783747e+00 1.653516e+00 -1.275077e-02 1.455644e+00 1.788195e+00 -4.816684e-02 -5.508335e-01 1.749501e+00 -3.669718e-01 1.103553e-01 6.331039e-01 9.307112e-01 8.050689e-01 2.065603e-01 -2.534631e-01 -1.838488e-01 -4.774346e-01 -4.143905e-01 -3.282094e-02 -7.162030e-02 -3.589633e-01
<VARIANCE> 39
 6.677950e+00 3.597599e+01 3.624317e+01 3.730783e+01 5.336354e+01 5.444609e+01 5.602805e+01 7.270702e+01 3.202878e+01 4.359655e+01 3.600133e+01 3.722307e+01 1.426856e+01 9.193262e-01 1.757335e+00 2.339682e+00 3.957904e+00 5.005959e+00 3.624548e+00 3.108245e+00 4.799879e+00 4.899388e+00 4.838344e+00 3.881721e+00 3.174104e+00 1.202290e+00 9.146794e-02 2.741979e-01 2.983960e-01 4.109351e-01 4.646313e-01 6.910895e-01 5.640047e-01 7.032774e-01 5.389656e-01 6.515274e-01 4.929392e-01 3.581651e-01 1.028224e-01
<GCONST> 1.190223e+02
<STATE> 4
<MEAN> 39
 1.320413e+00 -3.536157e+00 -1.186537e+01 -1.568654e+01 -8.802760e+00 1.099813e+00 4.059900e+00 -6.216636e+00 -3.006436e+00 -1.660256e+00 -4.052783e+00 -5.128007e+00 7.538757e+01 -2.874691e-01 -6.535885e-01 -2.839681e-02 1.366908e-01 3.935890e-01 1.168963e-01 -4.440075e-01 -1.877850e-01 -2.075163e-02 3.589510e-01 1.692615e-01 -1.422687e-01 3.688354e-01 4.630712e-02 3.678986e-01 3.077887e-01 4.063450e-01 -7.424121e-02 -4.659742e-01 -3.561192e-01 5.526550e-02 -1.609837e-01 -2.165574e-01 6.210287e-02 1.555999e-01 -2.889498e-01
<VARIANCE> 39
 1.020024e+01 4.338836e+01 3.548402e+01 3.658663e+01 5.790026e+01 5.618111e+01 6.156897e+01 9.791935e+01 5.812000e+01 5.869019e+01 4.811607e+01 4.202973e+01 1.704361e+01 3.455338e-01 7.450110e-01 6.865740e-01 1.171396e+00 1.666535e+00 2.388536e+00 1.838370e+00 2.502436e+00 2.089524e+00 1.906038e+00 1.787732e+00 1.350235e+00 2.893447e-01 7.028406e-02 1.769067e-01 2.248712e-01 3.401886e-01 2.845142e-01 4.148367e-01 3.935188e-01 4.657202e-01 4.224440e-01 3.946650e-01 3.421771e-01 2.932892e-01 9.330535e-02
<GCONST> 1.054147e+02
<TRANSP> 5
 0.000000e+00 1.000000e+00 0.000000e+00 0.000000e+00 0.000000e+00
 0.000000e+00 8.739468e-01 1.260532e-01 0.000000e+00 0.000000e+00
 0.000000e+00 0.000000e+00 6.531852e-01 3.468147e-01 0.000000e+00
 0.000000e+00 0.000000e+00 0.000000e+00 6.687038e-01 3.312961e-01
 0.000000e+00 0.000000e+00 0.000000e+00 0.000000e+00 0.000000e+00
<ENDHMM>
~h "n"
<BEGINHMM>
<NUMSTATES> 5
<STATE> 2
<MEAN> 39
 1.159912e+00 4.225501e+00 -2.363754e-01 -1.193283e+00 -9.361175e+00 -1.104639e+01 -7.680237e+00 -7.299160e+00 -5.002272e+00 -8.115541e+00 -3.942966e+00 -4.900863e+00 6.708003e+01 1.030231e-02 4.762526e-01 2.530500e-02 1.566583e-01 4.158187e-01 -2.813234e-01 -3.315753e-01 2.060501e-01 -2.352968e-01 -2.328743e-01 2.024297e-01 -2.397488e-02 -3.388782e-01 -1.049557e-01 -3.434238e-01 -4.865927e-02 -1.045175e-01 -2.760928e-01 4.355508e-02 6.208583e-02 1.082571e-02 3.041248e-01 1.713969e-01 -7.991792e-02 9.570707e-02 2.609301e-01
<VARIANCE> 39
 8.775576e+00 2.483489e+01 5.127628e+01 3.623721e+01 5.531455e+01 3.687900e+01 3.884650e+01 3.155955e+01 2.983192e+01 6.685767e+01 2.889784e+01 3.566941e+01 1.405541e+01 2.232925e-01 6.135516e-01 9.874228e-01 1.011829e+00 1.493682e+00 1.063722e+00 1.601552e+00 1.213013e+00 1.701624e+00 2.112707e+00 1.384174e+00 1.073496e+00 2.350946e-01 4.030075e-02 1.126066e-01 1.631958e-01 2.143514e-01 2.713138e-01 2.039735e-01 3.756108e-01 2.891162e-01 3.539899e-01 4.477808e-01 3.035631e-01 2.633002e-01 4.444389e-02
<GCONST> 9.452172e+01
<STATE> 3
<MEAN> 39
 -1.289488e+00 -4.473041e-01 -8.636906e-01 -5.450853e-01 -1.226802e+01 -1.150459e+01 -7.598176e+00 -5.224267e+00 1.356200e-01 -5.689586e+00 -6.110328e+00 -3.987144e+00 7.000558e+01 -7.828950e-01 -1.675424e+00 2.991427e-01 -3.005918e-01 -1.785478e+00 -3.008851e-01 8.973163e-01 8.746868e-01 1.214699e+00 4.587744e-01 -4.334047e-01 5.446481e-01 1.301713e+00 -3.025796e-02 8.225615e-02 7.966840e-02 -4.678480e-02 -1.007449e-01 -1.030820e-01 3.095522e-01 1.586226e-01 -3.253382e-01 -5.900612e-02 2.372051e-01 1.981819e-03 -4.112758e-02
<VARIANCE> 39
 1.378405e+01 4.329488e+01 4.830590e+01 4.028456e+01 6.291821e+01 4.162306e+01 4.427622e+01 5.122451e+01 6.663477e+01 6.168197e+01 4.623096e+01 4.044669e+01 3.437950e+01 4.410944e-01 1.582853e+00 1.995674e+00 1.773170e+00 3.422401e+00 2.842852e+00 5.271870e+00 3.997763e+00 5.283422e+00 3.962238e+00 3.755171e+00 3.171784e+00 6.046070e-01 7.512996e-02 4.694966e-01 2.550122e-01 2.753845e-01 6.410055e-01 3.814140e-01 6.383708e-01 6.413730e-01 1.030771e+00 5.803809e-01 5.708073e-01 5.195730e-01 2.560141e-01
<GCONST> 1.204812e+02
<STATE> 4
<MEAN> 39
 -3.891193e+00 -2.861365e+00 1.368175e+00 -2.392293e+00 -1.910854e+01 -1.345471e+01 -2.543365e+00 -3.306563e+00 -1.621828e+00 -5.517323e+00 -2.715802e+00 -2.182309e+00 7.167427e+01 -1.545532e-01 2.962253e-01 3.798990e-01 1.117699e-01 -1.956588e-01 -2.957257e-01 3.969006e-01 3.966167e-02 -5.486606e-01 -1.016445e-01 2.502143e-01 2.692006e-02 -3.660644e-01 5.758893e-02 1.178348e-01 2.880170e-03 5.956740e-02 2.051019e-01 7.546669e-02 -1.735328e-01 -1.340846e-01 2.027893e-02 -5.443495e-02 -3.976482e-02 -6.093705e-02 -1.465345e-01
<VARIANCE> 39
 1.524932e+01 4.965051e+01 6.171035e+01 3.715091e+01 5.539758e+01 5.119277e+01 5.326402e+01 6.908546e+01 7.604193e+01 4.847069e+01 5.671474e+01 4.954666e+01 2.450873e+01 1.983389e-01 6.007009e-01 7.444007e-01 9.319623e-01 1.519819e+00 1.145512e+00 1.364203e+00 1.242183e+00 1.409521e+00 1.663076e+00 1.575800e+00 1.402763e+00 2.187799e-01 4.133012e-02 1.134313e-01 1.100050e-01 2.011537e-01 2.122536e-01 2.262048e-01 2.906392e-01 2.382376e-01 2.325348e-01 2.531869e-01 2.541208e-01 2.172379e-01 3.602143e-02
<GCONST> 9.633862e+01
<TRANSP> 5
 0.000000e+00 1.000000e+00 0.000000e+00 0.000000e+00 0.000000e+00
 0.000000e+00 8.453772e-01 1.546228e-01 0.000000e+00 0.000000e+00
 0.000000e+00 0.000000e+00 7.784057e-01 2.215943e-01 0.000000e+00
 0.000000e+00 0.000000e+00 0.000000e+00 8.313555e-01 1.686445e-01
 0.000000e+00 0.000000e+00 0.000000e+00 0.000000e+00 0.000000e+00
<ENDHMM>
~h "p"
<BEGINHMM>
<NUMSTATES> 5
<STATE> 2
<MEAN> 39
 -2.488699e+00 -5.174444e-02 -7.959855e+00 -1.319195e+01 -9.093781e+00 -2.308325e+00 3.000639e+00 -2.592704e+00 -2.205286e+00 -2.590099e+00 -3.071902e+00 -2.382520e+00 6.813579e+01 2.300321e+00 7.699872e-01 -3.515161e-01 -2.016331e+00 -2.177820e+00 -6.254627e-01 4.173064e-01 -5.741041e-01 -9.294563e-01 -5.809267e-01 -5.274953e-01 -5.017735e-01 1.740236e+00 -1.794331e-01 -2.717615e-01 -1.076208e-02 1.130046e-01 -9.209260e-03 -2.229989e-02 -2.027318e-01 3.407593e-02 1.455741e-01 1.855582e-01 2.772505e-01 1.694752e-01 -9.615188e-02
<VARIANCE> 39
 3.023096e+01 4.996687e+01 3.188347e+01 4.427803e+01 5.725690e+01 8.007413e+01 5.990353e+01 4.466211e+01 3.261564e+01 3.361378e+01 2.697989e+01 2.748938e+01 2.633363e+01 1.992628e+00 4.468810e+00 2.903382e+00 3.012957e+00 4.642730e+00 4.982765e+00 5.519883e+00 4.513089e+00 3.055203e+00 3.194041e+00 2.801140e+00 2.549922e+00 2.458390e+00 6.271030e-01 8.103169e-01 4.099527e-01 6.030317e-01 8.471119e-01 8.748575e-01 9.062110e-01 7.273749e-01 5.198533e-01 5.331306e-01 4.225112e-01 4.057440e-01 5.101151e-01
<GCONST> 1.287968e+02
<STATE> 3
<MEAN> 39
 5.723497e-01 -4.263039e+00 -9.657780e+00 -1.647075e+01 -1.350180e+01 -4.696337e+00 4.260403e+00 -1.675866e+00 -3.321208e+00 -1.805845e+00 -2.633487e+00 -3.609684e+00 7.518400e+01 1.032884e-01 -3.251669e-01 -8.798070e-03 -1.143441e-01 -3.990182e-01 7.511446e-03 -3.304429e-01 -2.875982e-01 9.654561e-02 2.707574e-01 2.312296e-01 -1.525477e-01 2.399443e-01 -2.408030e-01 8.353765e-02 1.003660e-01 3.209285e-01 2.552527e-01 6.567407e-03 -1.297278e-01 8.704838e-03 2.050060e-01 4.513957e-02 -2.477648e-02 1.867635e-02 -3.060827e-01
<VARIANCE> 39
 1.794292e+01 5.388558e+01 2.622957e+01 2.811236e+01 6.166093e+01 8.877472e+01 9.933244e+01 7.970279e+01 6.171399e+01 5.341248e+01 3.466631e+01 4.606355e+01 2.731638e+01 1.143854e+00 2.916915e+00 9.363175e-01 1.615476e+00 2.011324e+00 2.629680e+00 4.121155e+00 2.842210e+00 3.404694e+00 2.721651e+00 2.208926e+00 2.251324e+00 1.593391e+00 3.107639e-01 4.054046e-01 2.182988e-01 4.067919e-01 5.199286e-01 4.810714e-01 7.931026e-01 6.184940e-01 5.919972e-01 4.814448e-01 3.978689e-01 3.592817e-01 2.026291e-01
<GCONST> 1.201763e+02
<STATE> 4
<MEAN> 39
 2.418203e+00 -3.136150e+00 -1.015195e+01 -1.706351e+01 -1.379583e+01 3.074651e-01 2.293154e+00 -4.560568e+00 -2.059160e+00 -1.632872e+00 -1.253191e+00 -3.766284e+00 7.390077e+01 -8.185410e-02 -2.760441e-01 -7.350873e-03 4.321479e-01 1.003337e-01 -2.876260e-01 -6.378005e-01 -1.341575e-01 5.185879e-01 3.539951e-01 -2.260750e-02 -1.935752e-01 4.046703e-02 -8.591755e-02 8.608738e-02 1.037210e-01 1.972685e-01 7.742388e-02 -1.837557e-01 -8.731548e-02 5.852527e-02 6.345065e-02 -7.919616e-02 -8.700912e-02 -1.657678e-03 -1.030276e-01
<VARIANCE> 39
 8.833666e+00 7.489948e+01 6.600603e+01 3.058319e+01 9.521239e+01 8.986813e+01 5.704083e+01 5.602265e+01 6.493239e+01 4.708530e+01 3.480546e+01 4.333743e+01 1.823806e+01 2.115040e-01 7.634377e-01 7.553319e-01 1.132809e+00 1.447827e+00 1.650507e+00 1.878239e+00 1.566270e+00 1.530980e+00 1.352424e+00 1.441639e+00 1.289808e+00 2.571059e-01 6.204629e-02 1.419875e-01 1.304358e-01 1.612772e-01 2.704363e-01 3.001206e-01 2.660444e-01 2.564863e-01 2.306604e-01 2.606195e-01 2.492209e-01 2.440287e-01 5.430161e-02
<GCONST> 9.880032e+01
<TRANSP> 5
 0.000000e+00 1.000000e+00 0.000000e+00 0.000000e+00 0.000000e+00
 0.000000e+00 7.493339e-01 2.506661e-01 0.000000e+00 0.000000e+00
 0.000000e+00 0.000000e+00 7.279692e-01 2.720308e-01 0.000000e+00
 0.000000e+00 0.000000e+00 0.000000e+00 6.971944e-01 3.028056e-01
 0.000000e+00 0.000000e+00 0.000000e+00 0.000000e+00 0.000000e+00
<ENDHMM>
~h "r"
<BEGINHMM>
<NUMSTATES> 5
<STATE> 2
<MEAN> 39
 -4.556950e+00 -1.103115e-01 2.907055e+00 -1.918730e+00 -9.647932e+00 -1.258175e+01 -4.396509e+00 -4.610461e+00 -1.952406e+00 -5.871341e+00 1.831879e+00 -5.568202e-01 6.712125e+01 9.068833e-02 -3.666258e-01 4.111876e-01 1.865686e-01 -5.732955e-01 -1.242040e-01 2.445590e-01 -1.788262e-01 -8.273353e-02 -4.573621e-01 3.709526e-02 7.425888e-02 5.336863e-01 9.400305e-02 -1.498442e-02 1.541553e-02 1.320141e-02 -3.002242e-01 -2.347705e-01 -5.095197e-02 -1.638294e-02 -6.282125e-02 -1.673281e-02 1.622230e-01 4.019702e-02 1.771204e-01
<VARIANCE> 39
 2.567073e+01 2.403170e+01 3.189983e+01 4.004334e+01 6.540197e+01 6.941432e+01 3.835982e+01 2.559289e+01 2.166638e+01 3.588123e+01 3.383503e+01 1.788331e+01 4.255751e+01 2.041866e+00 2.720514e+00 1.984311e+00 3.119371e+00 6.781063e+00 4.645317e+00 2.979127e+00 2.565303e+00 1.662211e+00 3.023666e+00 3.477151e+00 2.415194e+00 3.672558e+00 3.648041e-01 5.773042e-01 3.693965e-01 6.143100e-01 1.416879e+00 8.558754e-01 5.500308e-01 5.204862e-01 2.938582e-01 6.908176e-01 6.782776e-01 4.555576e-01 7.203990e-01
<GCONST> 1.242457e+02
<STATE> 3
<MEAN> 39
 -4.734927e+00 8.560795e-01 4.134878e+00 4.676767e+00 -1.308572e+01 -1.633671e+01 -7.217702e+00 -4.868338e+00 5.732636e-01 -4.282784e+00 -6.173626e-01 2.387930e+00 6.775470e+01 7.703041e-02 -8.285013e-02 -1.503268e-01 3.406704e-01 -1.538882e+00 -1.009323e+00 2.372248e-01 3.081858e-01 -1.542092e-01 -4.829316e-02 1.009061e+00 6.219825e-01 4.244922e-01 -9.085162e-02 1.292082e-01 4.366526e-03 -1.391927e-01 2.373900e-01 5.364567e-04 1.394711e-01 1.124956e-01 -1.279135e-01 7.983111e-03 6.736203e-02 -2.855025e-03 -1.765382e-01
<VARIANCE> 39
 1.910165e+01 2.179483e+01 4.468890e+01 2.865881e+01 6.149337e+01 5.848749e+01 5.157933e+01 2.607323e+01 4.509458e+01 3.027448e+01 2.723172e+01 3.954245e+01 2.063143e+01 8.289323e-01 1.392023e+00 2.078642e+00 1.714243e+00 3.015290e+00 3.252413e+00 3.746335e+00 2.883365e+00 3.566396e+00 2.217618e+00 1.756121e+00 2.396651e+00 6.633848e-01 1.668555e-01 2.323443e-01 4.782169e-01 4.442781e-01 9.769436e-01 9.015196e-01 6.916701e-01 5.144077e-01 9.302333e-01 4.128659e-01 3.918197e-01 6.740659e-01 2.473398e-01
<GCONST> 1.170098e+02
<STATE> 4
<MEAN> 39
 -1.567977e+00 -1.769972e+00 3.669250e+00 -1.931614e+00 -1.769394e+01 -1.812082e+01 -4.444375e+00 -6.299002e+00 -5.340453e+00 -7.728263e+00 3.619404e+00 -1.654583e+00 7.045711e+01 -2.237439e-01 2.932789e-01 -1.402225e-02 -1.184812e-01 3.082111e-01 7.312538e-02 9.809206e-02 1.203638e-01 -2.502868e-01 2.160235e-02 4.086566e-02 -1.428371e-01 -4.127769e-01 -5.224817e-02 3.167655e-02 -4.131921e-02 6.637445e-02 1.766432e-01 1.086309e-01 -8.009574e-04 -1.664267e-02 9.344835e-03 6.481062e-02 -1.695183e-01 2.076953e-02 -1.275948e-01
<VARIANCE> 39
 1.050318e+01 1.220123e+01 3.959583e+01 5.250727e+01 4.714141e+01 6.624706e+01 3.943856e+01 3.228388e+01 2.789311e+01 5.547958e+01 5.690670e+01 3.542736e+01 1.740990e+01 2.290066e-01 3.714017e-01 5.190505e-01 7.483779e-01 9.931780e-01 7.653949e-01 1.187244e+00 8.213651e-01 1.377545e+00 1.123715e+00 1.148484e+00 1.029492e+00 3.223914e-01 4.867665e-02 8.384562e-02 8.736786e-02 1.100043e-01 2.337147e-01 1.414798e-01 2.113765e-01 1.514115e-01 2.324442e-01 2.269356e-01 2.198787e-01 1.742394e-01 3.199442e-02
<GCONST> 8.629560e+01
<TRANSP> 5
 0.000000e+00 1.000000e+00 0.000000e+00 0.000000e+00 0.000000e+00
 0.000000e+00 8.557195e-01 1.442805e-01 0.000000e+00 0.000000e+00
 0.000000e+00 0.000000e+00 6.469060e-01 3.530940e-01 0.000000e+00
 0.000000e+00 0.000000e+00 0.000000e+00 8.677824e-01 1.322176e-01
 0.000000e+00 0.000000e+00 0.000000e+00 0.000000e+00 0.000000e+00
<ENDHMM>
~h "t"
<BEGINHMM>
<NUMSTATES> 5
<STATE> 2
<MEAN> 39
 -1.198794e+01 -2.955760e+00 -4.634926e+00 -6.233991e+00 -3.753790e+00 -4.657778e+00 -2.793883e+00 -2.107037e+00 1.739149e+00 -1.514428e+00 -3.751631e-01 -5.981566e-02 6.687801e+01 6.720022e-01 -1.421772e-01 4.027135e-02 -7.058858e-01 -5.478755e-01 -6.333582e-01 -4.527809e-01 -7.698808e-01 -3.104601e-01 -2.091545e-01 -4.700837e-01 -6.166563e-01 2.049891e+00 6.667986e-01 3.876653e-01 -2.625209e-02 -4.489936e-02 -2.930793e-01 -7.487308e-02 7.226854e-02 -2.330471e-01 -3.647404e-01 -2.940769e-02 -8.030170e-02 -1.184372e-01 -1.711895e-01
<VARIANCE> 39
 3.577722e+01 3.878466e+01 3.992460e+01 3.877297e+01 3.469198e+01 4.721198e+01 3.555822e+01 3.458102e+01 3.253724e+01 2.810351e+01 2.680091e+01 2.594826e+01 6.247992e+01 5.803229e+00 4.806757e+00 3.036096e+00 3.917954e+00 3.931561e+00 5.419146e+00 3.956395e+00 4.033118e+00 4.526644e+00 3.250167e+00 2.816252e+00 2.898646e+00 6.995289e+00 5.942984e-01 7.554135e-01 5.019097e-01 6.272995e-01 7.291015e-01 9.701672e-01 8.115407e-01 6.779305e-01 7.344266e-01 6.232854e-01 5.313141e-01 5.307292e-01 1.267782e+00
<GCONST> 1.319272e+02
<STATE> 3
<MEAN> 39
 -6.048846e-01 6.397197e-01 -5.119581e+00 -1.072241e+01 -1.031535e+01 -8.225111e+00 -3.752430e+00 -8.291022e+00 -3.930968e+00 -2.778641e+00 -3.331426e+00 -3.592572e+00 7.187790e+01 2.194008e+00 2.911480e-01 -6.099060e-01 -1.225655e+00 -2.117219e+00 -6.258248e-01 3.570348e-01 -8.206492e-01 -1.120352e+00 -1.569065e-01 -1.551661e-02 -9.797961e-03 8.175360e-01 -7.751361e-01 -5.652943e-01 -9.351770e-02 1.304623e-01 2.425385e-01 3.906772e-01 2.141159e-01 4.854491e-01 4.298065e-01 1.707351e-01 3.342915e-01 3.369037e-01 -2.538206e-01
<VARIANCE> 39
 1.763505e+01 3.208032e+01 5.488430e+01 6.541418e+01 6.132008e+01 6.910722e+01 5.368592e+01 5.269054e+01 4.111964e+01 4.889926e+01 3.675705e+01 4.502999e+01 2.351505e+01 3.108704e+00 3.683712e+00 2.253845e+00 3.125039e+00 4.536214e+00 5.272789e+00 4.649254e+00 4.531078e+00 4.041083e+00 3.740506e+00 3.276149e+00 3.375501e+00 1.474415e+00 2.454200e-01 3.744220e-01 3.345369e-01 5.103916e-01 7.149693e-01 6.722832e-01 6.983072e-01 5.916442e-01 5.712365e-01 5.144149e-01 4.977058e-01 5.327011e-01 4.158612e-01
<GCONST> 1.275951e+02
<STATE> 4
<MEAN> 39
 9.236584e-01 -2.299619e+00 -8.234269e+00 -1.411402e+01 -1.284072e+01 -5.583213e+00 -8.538581e-01 -7.536913e+00 -4.573428e+00 -2.362848e+00 -1.672338e+00 -1.981730e+00 7.344649e+01 -2.079144e-02 -4.987779e-01 -1.868926e-01 1.687283e-01 4.201683e-02 2.453716e-01 -1.186169e-01 -2.631961e-01 -4.358032e-02 2.888062e-01 4.557372e-01 1.349712e-01 1.529539e-01 -2.796069e-01 4.235468e-03 1.690958e-01 3.583898e-01 3.585512e-01 -1.067551e-01 -2.794643e-01 7.816525e-04 2.029314e-01 9.683924e-02 -5.602099e-03 -9.963166e-02 -1.185833e-01
<VARIANCE> 39
 1.989004e+01 4.821466e+01 5.478442e+01 5.717982e+01 7.119810e+01 8.090152e+01 5.441357e+01 6.106409e+01 5.652261e+01 6.684708e+01 4.916245e+01 5.545803e+01 2.360881e+01 8.707937e-01 1.373541e+00 1.098594e+00 1.635974e+00 2.185627e+00 2.659985e+00 2.717297e+00 2.412138e+00 2.306511e+00 2.227021e+00 2.374138e+00 2.071618e+00 6.733301e-01 1.764902e-01 2.488527e-01 1.942258e-01 3.271287e-01 4.425730e-01 5.692924e-01 5.194015e-01 4.822148e-01 4.720451e-01 4.459885e-01 4.196758e-01 4.262988e-01 1.095073e-01
<GCONST> 1.157736e+02
<TRANSP> 5
 0.000000e+00 1.000000e+00 0.000000e+00 0.000000e+00 0.000000e+00
 0.000000e+00 7.953545e-01 2.046455e-01 0.000000e+00 0.000000e+00
 0.000000e+00 0.000000e+00 5.989929e-01 4.010072e-01 0.000000e+00
 0.000000e+00 0.000000e+00 0.000000e+00 7.074805e-01 2.925195e-01
 0.000000e+00 0.000000e+00 0.000000e+00 0.000000e+00 0.000000e+00
<ENDHMM>
~h "u"
<BEGINHMM>
<NUMSTATES> 5
<STATE> 2
<MEAN> 39
 -5.012782e+00 6.573024e+00 6.804704e+00 2.161583e+00 -9.784553e+00 -1.230654e+01 -8.861461e-02 -1.009351e+01 -7.609419e+00 -4.164862e+00 1.736639e+00 -1.982400e+00 6.524408e+01 3.901320e-01 3.890237e-01 -6.092023e-01 -1.324043e-01 4.448224e-01 2.468881e-01 -3.187651e-01 2.854070e-01 7.372499e-03 -2.530554e-01 2.227438e-01 8.963823e-02 -6.216323e-01 -1.830436e-01 -7.746864e-02 1.111446e-02 3.342040e-03 2.051889e-01 1.920284e-01 -1.223515e-01 9.501636e-02 2.264709e-01 -1.200546e-01 -2.587573e-01 -5.094454e-02 -5.200643e-02
<VARIANCE> 39
 6.990936e+00 2.118516e+01 5.843632e+01 2.834382e+01 3.224377e+01 6.672754e+01 3.535484e+01 4.221217e+01 2.679455e+01 4.072906e+01 2.190172e+01 2.796385e+01 2.233849e+01 2.365819e-01 6.480050e-01 6.680926e-01 2.099126e+00 1.275669e+00 3.059491e+00 1.872455e+00 3.014452e+00 2.153548e+00 1.955235e+00 1.959774e+00 1.421472e+00 3.199524e-01 9.345348e-02 1.323256e-01 1.103782e-01 1.855686e-01 1.755901e-01 5.294807e-01 2.910703e-01 5.115076e-01 3.110773e-01 4.459562e-01 3.427974e-01 2.986261e-01 3.828357e-02
<GCONST> 9.838815e+01
<STATE> 3
<MEAN> 39
 -4.598769e+00 5.356046e+00 3.240934e+00 2.731916e+00 -3.724577e+00 -1.254141e+01 -6.937685e+00 -5.742032e+00 -2.915277e+00 -8.398371e+00 -2.111980e+00 -6.811177e-01 6.417532e+01 1.459320e-01 5.134559e-02 -9.088041e-01 -3.554852e-01 1.081482e+00 1.241888e+00 -4.599625e-01 -5.999755e-01 1.836701e-01 6.735362e-01 -4.399082e-01 -5.811549e-01 -5.050786e-01 -1.291917e-01 -1.753613e-01 6.431182e-03 -6.992992e-02 -1.451140e-01 1.135688e-01 3.277384e-01 1.166373e-01 -1.533134e-01 2.341753e-01 1.771381e-01 6.017032e-02 4.417746e-02
<VARIANCE> 39
 1.763357e+01 1.328053e+01 2.235821e+01 3.938400e+01 4.551017e+01 3.298893e+01 2.543531e+01 2.611107e+01 2.435648e+01 2.220875e+01 2.907581e+01 1.136131e+01 1.401480e+01 4.829533e-01 9.213538e-01 8.136744e-01 7.556295e-01 1.839131e+00 1.986333e+00 1.028212e+00 1.412423e+00 1.947630e+00 2.363579e+00 9.872877e-01 9.049377e-01 3.762031e-01 9.628250e-02 1.098298e-01 1.055973e-01 1.742883e-01 2.697686e-01 3.965847e-01 1.706999e-01 3.040440e-01 2.172521e-01 3.570135e-01 1.928942e-01 1.724427e-01 6.802709e-02
<GCONST> 9.088324e+01
<STATE> 4
<MEAN> 39
 -4.478216e+00 5.996555e+00 8.287616e-03 1.330190e+00 -1.731126e+00 -7.347334e+00 -5.103074e+00 -8.419885e+00 -4.129929e+00 -3.400244e+00 -1.184222e+00 -1.520630e+00 6.156870e+01 -3.860376e-01 -4.812354e-01 -4.513555e-01 -1.992613e-01 4.439914e-01 8.642119e-01 5.351009e-01 4.646151e-01 2.167917e-01 4.571337e-01 7.201903e-03 7.048158e-02 -4.688706e-01 -7.639543e-02 -7.722346e-02 3.431547e-02 -4.084593e-03 -9.691571e-02 -4.073929e-02 8.972301e-02 1.932981e-01 9.989515e-02 -2.856919e-02 3.778302e-02 7.555637e-02 1.862335e-02
<VARIANCE> 39
 1.336282e+01 2.220968e+01 1.082862e+01 2.143759e+01 2.343122e+01 1.951527e+01 3.370634e+01 3.280634e+01 2.892928e+01 1.399286e+01 1.501958e+01 1.701544e+01 1.486789e+01 3.144430e-01 8.366009e-01 7.262245e-01 1.134248e+00 1.034754e+00 1.479882e+00 1.530310e+00 1.609698e+00 1.345273e+00 1.556978e+00 1.187938e+00 6.237405e-01 1.705779e-01 4.182142e-02 1.192590e-01 1.245273e-01 1.998243e-01 1.952620e-01 2.426328e-01 2.721883e-01 2.970065e-01 2.622058e-01 3.099685e-01 2.372045e-01 1.154506e-01 2.754814e-02
<GCONST> 8.440784e+01
<TRANSP> 5
 0.000000e+00 1.000000e+00 0.000000e+00 0.000000e+00 0.000000e+00
 0.000000e+00 6.714694e-01 3.285306e-01 0.000000e+00 0.000000e+00
 0.000000e+00 0.000000e+00 6.888374e-01 3.111626e-01 0.000000e+00
 0.000000e+00 0.000000e+00 0.000000e+00 8.380193e-01 1.619808e-01
 0.000000e+00 0.000000e+00 0.000000e+00 0.000000e+00 0.000000e+00
<ENDHMM>
~h "aa"
<BEGINHMM>
<NUMSTATES> 5
<STATE> 2
<MEAN> 39
 1.268049e+00 -7.658064e+00 -1.408615e+01 -1.515549e+01 -4.260709e+00 3.573572e+00 3.005947e+00 -7.600385e+00 -3.377038e+00 -1.680202e+00 -5.455547e+00 -6.183834e+00 7.544625e+01 -4.075664e-02 -4.085296e-02 -7.944945e-04 8.860185e-02 -2.700303e-03 -1.400712e-01 -1.381920e-01 7.560090e-02 2.106702e-01 -7.991687e-03 6.285554e-02 -1.340082e-01 -1.000986e-02 1.398077e-02 1.196704e-01 5.791205e-02 2.864121e-02 -9.061418e-02 -1.604856e-01 -6.964233e-02 7.955045e-02 4.686982e-02 2.393659e-02 3.865679e-02 2.909012e-02 -6.742092e-02
<VARIANCE> 39
 1.169377e+01 3.150497e+01 3.120671e+01 3.552332e+01 4.671131e+01 4.868898e+01 5.953862e+01 9.126367e+01 5.381369e+01 4.827656e+01 5.394074e+01 3.512884e+01 1.461983e+01 1.110586e-01 2.983772e-01 3.466685e-01 4.930115e-01 6.940343e-01 9.000303e-01 9.243641e-01 1.202513e+00 8.784371e-01 8.288228e-01 9.152046e-01 8.516023e-01 9.875562e-02 2.248190e-02 5.130709e-02 6.144448e-02 9.114511e-02 1.157100e-01 1.638498e-01 1.732607e-01 1.998584e-01 1.690167e-01 1.633485e-01 1.628419e-01 1.556731e-01 1.762356e-02
<GCONST> 8.001701e+01
<STATE> 3
<MEAN> 39
 9.935042e-01 -3.432007e+00 -1.120379e+01 -1.291379e+01 -5.790090e+00 -1.204533e+00 4.201703e-01 -5.794910e+00 -2.164019e+00 -3.166333e-01 -3.336876e+00 -6.447510e+00 7.216660e+01 -1.977349e-01 1.254783e+00 8.699145e-01 1.102424e+00 1.036070e-01 -1.010782e+00 -8.522560e-01 1.273064e-01 2.174986e-01 1.700841e-01 5.300964e-01 7.321755e-01 -1.504568e+00 -1.361176e-01 5.145621e-02 6.628875e-02 1.759996e-01 1.460215e-01 2.092963e-01 1.636921e-01 -7.992817e-03 -1.222431e-01 -1.362789e-01 -1.784414e-02 8.956321e-02 -3.165925e-01
<VARIANCE> 39
 1.126878e+01 3.667970e+01 3.701286e+01 4.325579e+01 4.421438e+01 4.672994e+01 5.346008e+01 4.735917e+01 5.073395e+01 4.577709e+01 4.945542e+01 5.611120e+01 2.218309e+01 1.165646e+00 1.188100e+00 1.563657e+00 1.989123e+00 2.270404e+00 3.371577e+00 2.784304e+00 2.821226e+00 3.287511e+00 2.568287e+00 2.178768e+00 2.359889e+00 1.202520e+00 1.761468e-01 2.757876e-01 2.671450e-01 2.985357e-01 3.873567e-01 5.832388e-01 5.457014e-01 4.556839e-01 5.277963e-01 4.006121e-01 3.730875e-01 4.694856e-01 1.594816e-01
<GCONST> 1.152758e+02
<STATE> 4
<MEAN> 39
 -3.636929e+00 7.107550e-01 -8.742527e+00 -8.131588e+00 -4.700068e+00 -1.097390e+00 3.298679e-01 -2.650471e+00 -1.005992e+00 -9.888777e-02 -2.379285e-01 -2.010930e+00 5.991896e+01 -8.518323e-01 -8.061679e-02 2.756866e-01 4.414876e-01 1.011135e-01 -4.151463e-02 1.111865e-02 3.981580e-01 1.428355e-01 -6.647096e-02 7.326186e-02 2.324205e-01 -8.384584e-01 -4.910542e-02 -2.086881e-01 8.004075e-03 -1.845648e-01 -2.465253e-02 -1.706415e-01 -1.163589e-01 -8.220660e-02 3.487648e-02 3.875041e-03 -4.417333e-02 -4.019353e-02 5.268943e-01
<VARIANCE> 39
 1.267292e+01 2.433126e+01 2.897554e+01 2.374519e+01 2.033671e+01 2.800220e+01 3.049924e+01 2.279850e+01 2.185662e+01 2.082575e+01 2.704161e+01 2.389498e+01 2.740385e+01 6.824171e-01 1.113693e+00 1.068383e+00 1.196635e+00 1.347328e+00 2.184699e+00 1.675001e+00 2.041481e+00 2.156065e+00 1.690441e+00 1.600868e+00 1.779508e+00 1.842535e+00 1.347012e-01 1.871482e-01 2.275844e-01 2.769214e-01 2.702513e-01 4.060854e-01 3.343566e-01 3.595692e-01 3.661897e-01 3.074907e-01 3.557334e-01 3.473588e-01 2.448534e-01
<GCONST> 1.015107e+02
<TRANSP> 5
 0.000000e+00 1.000000e+00 0.000000e+00 0.000000e+00 0.000000e+00
 0.000000e+00 9.046775e-01 9.532252e-02 0.000000e+00 0.000000e+00
 0.000000e+00 0.000000e+00 8.083999e-01 1.916002e-01 0.000000e+00
 0.000000e+00 0.000000e+00 0.000000e+00 8.458050e-01 1.541949e-01
 0.000000e+00 0.000000e+00 0.000000e+00 0.000000e+00 0.000000e+00
<ENDHMM>
~h "ae"
<BEGINHMM>
<NUMSTATES> 5
<STATE> 2
<MEAN> 39
 1.807984e-01 -9.417134e+00 -1.181143e+01 -1.404681e+01 -7.806639e+00 -1.409587e+00 -9.296437e-01 -4.588001e+00 1.495645e-01 -2.199757e-01 -4.833496e+00 -8.057242e+00 7.663671e+01 -2.271613e-01 -6.376503e-02 3.974663e-01 7.735958e-01 -2.434197e-01 -1.401934e+00 -7.085713e-01 8.187433e-01 9.649152e-01 -2.170073e-01 -3.279045e-01 -6.905122e-02 -1.836378e-02 -1.195286e-02 9.576572e-02 9.910747e-02 3.337116e-02 -1.081370e-01 -1.507799e-01 3.001269e-02 1.070191e-01 -4.606590e-02 -8.746953e-02 5.882756e-02 1.360263e-01 -5.269114e-02
<VARIANCE> 39
 9.841340e+00 2.236206e+01 3.238225e+01 3.822449e+01 4.433798e+01 6.143572e+01 4.647520e+01 7.579837e+01 6.655396e+01 6.496172e+01 5.077089e+01 3.680077e+01 9.763368e+00 1.966103e-01 4.244862e-01 5.796818e-01 9.647069e-01 1.176869e+00 2.238334e+00 1.810006e+00 2.247862e+00 1.789440e+00 1.337336e+00 1.278445e+00 1.206451e+00 1.271416e-01 2.677051e-02 6.508420e-02 8.512507e-02 1.209138e-01 1.959664e-01 2.058009e-01 3.137557e-01 2.864655e-01 3.261757e-01 2.460317e-01 2.537974e-01 2.068713e-01 1.740997e-02
<GCONST> 9.093414e+01
<STATE> 3
<MEAN> 39
 -2.041155e+00 -5.581882e+00 -3.950555e+00 -5.995859e+00 -1.487635e+01 -1.658528e+01 -3.715070e+00 2.280644e+00 2.297705e+00 -2.700436e+00 -3.111191e+00 -4.491233e+00 7.332434e+01 -2.574149e-01 7.972682e-01 8.915995e-01 5.515142e-01 -5.046874e-01 -5.387332e-01 1.048483e-01 -2.580548e-01 -6.718343e-01 -1.133649e-01 5.360312e-01 4.646380e-01 -6.598753e-01 -2.516164e-02 3.833631e-02 -4.842268e-02 -2.070073e-02 1.629061e-01 2.285894e-01 2.507988e-02 -1.498294e-01 -4.381115e-02 2.966928e-02 -2.164447e-02 -6.482322e-02 -7.116584e-02
<VARIANCE> 39
 1.016873e+01 3.013250e+01 5.267960e+01 3.605964e+01 5.740042e+01 4.309169e+01 4.722107e+01 3.384729e+01 4.218913e+01 4.966558e+01 3.352353e+01 3.708295e+01 1.427562e+01 1.951969e-01 4.764485e-01 7.729905e-01 9.221915e-01 1.439266e+00 1.356864e+00 1.052606e+00 1.588744e+00 1.061749e+00 1.220535e+00 1.319282e+00 1.414251e+00 1.564912e-01 3.298417e-02 7.547811e-02 1.132962e-01 1.657518e-01 1.707122e-01 1.946167e-01 1.821428e-01 2.535246e-01 1.949957e-01 2.154060e-01 2.049984e-01 1.660078e-01 2.291032e-02
<GCONST> 8.829400e+01
<STATE> 4
<MEAN> 39
 -6.822793e+00 -1.412579e-01 -2.615241e-01 -5.079755e-01 -1.204885e+01 -1.511549e+01 -1.131568e+00 5.087959e-01 1.121690e+00 -1.172165e+00 -3.270321e-01 -1.142078e+00 6.345872e+01 -4.259106e-01 1.305237e-01 -1.692071e-01 2.124877e-01 6.738905e-01 6.885037e-01 2.335873e-01 3.003937e-02 1.066266e-01 1.782127e-01 7.288974e-02 2.187702e-01 -1.111743e+00 8.277894e-03 -9.068779e-02 -1.036439e-01 -7.816080e-02 6.833945e-02 1.132179e-01 1.896792e-02 5.346145e-02 3.012344e-02 4.588308e-02 -1.230983e-03 -7.919720e-04 2.684955e-02
<VARIANCE> 39
 1.791696e+01 3.009034e+01 5.126907e+01 2.521306e+01 5.122624e+01 4.769085e+01 7.001965e+01 4.637554e+01 4.119619e+01 4.821657e+01 4.505257e+01 4.305635e+01 3.422204e+01 3.719548e-01 7.709010e-01 1.084843e+00 1.143887e+00 1.629540e+00 1.915344e+00 1.895699e+00 1.826916e+00 1.784832e+00 1.983651e+00 2.398681e+00 1.507147e+00 4.590582e-01 5.012660e-02 1.141380e-01 1.648024e-01 1.808512e-01 2.148583e-01 3.110196e-01 3.337053e-01 3.377700e-01 3.332968e-01 3.486248e-01 4.223813e-01 2.914581e-01 6.230976e-02
<GCONST> 1.022453e+02
<TRANSP> 5
 0.000000e+00 1.000000e+00 0.000000e+00 0.000000e+00 0.000000e+00
 0.000000e+00 8.986570e-01 1.013430e-01 0.000000e+00 0.000000e+00
 0.000000e+00 0.000000e+00 8.926370e-01 1.073631e-01 0.000000e+00
 0.000000e+00 0.000000e+00 0.000000e+00 9.030920e-01 9.690797e-02
 0.000000e+00 0.000000e+00 0.000000e+00 0.000000e+00 0.000000e+00
<ENDHMM>
~h "ai"
<BEGINHMM>
<NUMSTATES> 5
<STATE> 2
<MEAN> 39
 -5.969856e-01 -8.106873e+00 -6.069075e+00 -8.073698e+00 -1.092403e+01 -1.365421e+01 -7.160147e+00 -1.602821e+00 4.254497e+00 -1.382647e+00 -4.198842e+00 -5.363853e+00 7.594791e+01 -4.210902e-01 8.825859e-01 1.674664e+00 1.541152e+00 -1.285109e+00 -2.098644e+00 -6.029107e-01 1.855335e-02 -3.584479e-01 -9.244082e-01 5.606724e-01 1.158587e+00 -4.983400e-01 -5.060041e-02 2.497867e-01 9.261468e-02 -7.933052e-02 -9.001632e-02 3.835354e-01 3.710812e-01 -3.467292e-01 -5.424469e-01 -8.249889e-02 2.611913e-01 7.417507e-02 -1.216929e-01
<VARIANCE> 39
 1.199517e+01 2.935854e+01 5.922435e+01 4.411699e+01 6.874931e+01 8.285919e+01 4.422167e+01 4.721737e+01 4.392021e+01 8.316856e+01 4.708884e+01 5.126801e+01 1.206128e+01 4.237777e-01 8.540530e-01 1.168437e+00 1.777889e+00 1.921713e+00 3.231169e+00 2.367359e+00 4.113811e+00 3.714372e+00 2.960092e+00 3.595248e+00 1.842155e+00 2.964583e-01 5.473558e-02 1.283910e-01 2.019564e-01 2.384488e-01 3.648714e-01 4.823655e-01 3.165663e-01 5.261086e-01 3.806493e-01 5.914961e-01 4.957871e-01 4.325928e-01 3.020443e-02
<GCONST> 1.090212e+02
<STATE> 3
<MEAN> 39
 -3.053980e+00 4.502549e-01 3.463919e+00 -2.485145e+00 -1.706921e+01 -1.741200e+01 -5.713845e+00 -8.660472e+00 -6.029997e+00 -5.558739e+00 -4.174897e-01 -2.546385e+00 7.052324e+01 -3.540815e-01 1.126477e+00 6.497126e-01 4.135101e-01 2.801490e-01 5.476054e-01 3.128631e-01 -7.466642e-01 -8.742525e-01 -1.329055e-01 -2.874804e-01 -3.030938e-01 -9.555270e-01 9.061981e-03 -1.199825e-01 -1.937890e-01 -6.315592e-02 2.560734e-01 1.523107e-01 -1.107068e-02 2.014224e-01 2.255861e-01 9.330922e-02 -1.515488e-01 -1.126535e-01 -3.948303e-02
<VARIANCE> 39
 1.014040e+01 2.772766e+01 5.766257e+01 4.011735e+01 5.237403e+01 4.790054e+01 3.512106e+01 4.130578e+01 5.149000e+01 3.701313e+01 3.996028e+01 3.338281e+01 1.519994e+01 2.867406e-01 5.991067e-01 9.792515e-01 1.051071e+00 1.422911e+00 1.055153e+00 1.707742e+00 1.894659e+00 2.108971e+00 1.469013e+00 1.876010e+00 1.272296e+00 2.368163e-01 4.553793e-02 7.988431e-02 1.316994e-01 1.874793e-01 2.570433e-01 2.130366e-01 2.962275e-01 3.096313e-01 3.042862e-01 2.586622e-01 3.851356e-01 2.577362e-01 2.432417e-02
<GCONST> 9.486828e+01
<STATE> 4
<MEAN> 39
 -8.210239e+00 5.811583e+00 5.030417e+00 1.438583e+00 -8.962453e+00 -1.084825e+01 -1.891150e+00 -8.437757e+00 -5.694438e+00 -3.635253e+00 -2.826985e+00 -2.881430e+00 6.172943e+01 -3.948480e-01 -2.314278e-01 -3.876710e-01 6.562348e-02 7.993981e-01 8.125868e-01 3.417009e-01 4.264429e-01 2.889485e-01 2.018600e-01 1.381053e-01 2.253137e-01 -9.102377e-01 5.889100e-03 -1.330959e-01 -9.875157e-02 -9.570517e-02 -3.688805e-02 -9.872135e-03 -2.638036e-02 7.553627e-02 1.004623e-01 3.333928e-02 5.737873e-02 8.318403e-02 5.284744e-02
<VARIANCE> 39
 2.085862e+01 3.414211e+01 4.389703e+01 2.546283e+01 5.048897e+01 4.688789e+01 5.094784e+01 3.323546e+01 4.804287e+01 4.278078e+01 3.034996e+01 3.083118e+01 2.576604e+01 4.024771e-01 7.646782e-01 9.333056e-01 9.665073e-01 1.393419e+00 1.447177e+00 1.591024e+00 1.847492e+00 1.842622e+00 1.615499e+00 1.556587e+00 1.265151e+00 2.344771e-01 6.014427e-02 1.104622e-01 1.391764e-01 1.745126e-01 2.183475e-01 2.329819e-01 2.917099e-01 3.094028e-01 2.954493e-01 2.610887e-01 2.827927e-01 2.435130e-01 2.027284e-02
<GCONST> 9.575158e+01
<TRANSP> 5
 0.000000e+00 1.000000e+00 0.000000e+00 0.000000e+00 0.000000e+00
 0.000000e+00 8.422037e-01 1.577964e-01 0.000000e+00 0.000000e+00
 0.000000e+00 0.000000e+00 8.656448e-01 1.343552e-01 0.000000e+00
 0.000000e+00 0.000000e+00 0.000000e+00 8.938810e-01 1.061190e-01
 0.000000e+00 0.000000e+00 0.000000e+00 0.000000e+00 0.000000e+00
<ENDHMM>
~h "ao"
<BEGINHMM>
<NUMSTATES> 5
<STATE> 2
<MEAN> 39
 2.806203e-01 -5.671268e+00 -1.076812e+01 -1.856045e+01 -1.513943e+01 -5.371150e-01 8.167475e+00 1.258648e+00 -5.778272e+00 -5.978773e+00 -3.863898e+00 -3.640443e+00 7.546714e+01 2.287733e-01 4.243067e-01 2.068398e-01 -2.965328e-01 -7.192230e-01 -5.995779e-02 -3.810714e-02 -2.264107e-01 3.199445e-01 1.998986e-01 -2.360266e-01 6.468921e-02 -4.869151e-01 2.132871e-02 1.708509e-01 2.285382e-02 -3.962046e-03 -1.451870e-02 -9.873293e-02 -7.000989e-02 -8.647555e-02 6.006946e-02 5.244883e-02 -6.298697e-02 9.606740e-03 -9.623488e-02
<VARIANCE> 39
 1.385428e+01 3.376325e+01 2.177820e+01 2.031282e+01 6.673521e+01 7.202390e+01 4.444569e+01 7.763901e+01 5.031082e+01 5.335358e+01 2.760271e+01 3.752198e+01 2.558025e+01 4.919140e-01 8.945273e-01 5.129850e-01 7.564464e-01 1.325738e+00 1.569409e+00 1.551352e+00 2.017779e+00 1.982326e+00 2.120476e+00 1.358356e+00 1.592512e+00 6.099795e-01 8.517981e-02 8.594900e-02 9.116737e-02 1.386860e-01 2.591966e-01 3.235318e-01 2.587302e-01 3.071089e-01 3.809370e-01 3.417548e-01 2.192919e-01 2.819982e-01 6.138408e-02
<GCONST> 9.852932e+01
<STATE> 3
<MEAN> 39
 3.789789e+00 -7.367381e-01 -1.065963e+01 -2.144354e+01 -1.669118e+01 1.661033e+00 5.669272e+00 -5.204562e+00 -2.250742e+00 -4.791132e+00 -4.510471e+00 -2.023014e+00 7.094997e+01 1.215540e-02 6.364573e-01 2.303869e-01 2.063743e-02 -3.599271e-01 -5.809786e-01 -2.373538e-01 2.934771e-01 8.275267e-02 1.818512e-03 -1.212666e-01 -4.631102e-02 -4.057885e-01 -2.814938e-02 3.950230e-02 2.164537e-02 6.778333e-02 4.699932e-02 -5.720776e-02 -3.747374e-02 1.965578e-02 -1.286163e-03 -1.068898e-02 8.860106e-03 -3.506050e-02 -2.929843e-02
<VARIANCE> 39
 6.619100e+00 3.931721e+01 4.338621e+01 2.481130e+01 7.801489e+01 5.420824e+01 3.535403e+01 7.620284e+01 5.319489e+01 4.924591e+01 3.549369e+01 3.342008e+01 1.427507e+01 9.423157e-02 4.038573e-01 3.798927e-01 5.672929e-01 6.902366e-01 8.474479e-01 8.897796e-01 9.369868e-01 9.989865e-01 8.054475e-01 8.394678e-01 8.390076e-01 1.175687e-01 1.619469e-02 4.038532e-02 5.545617e-02 7.809253e-02 1.147189e-01 1.195271e-01 1.351167e-01 1.520296e-01 1.599430e-01 1.425363e-01 1.526655e-01 1.297035e-01 8.821944e-03
<GCONST> 7.646367e+01
<STATE> 4
<MEAN> 39
 -3.953774e-01 7.246188e+00 -5.481632e+00 -1.385651e+01 -1.609564e+01 -7.705532e+00 5.600516e-01 -3.159671e-01 -1.459350e+00 -1.924281e+00 -4.163925e+00 -3.297587e+00 6.121483e+01 -6.356565e-01 -9.869421e-02 1.987812e-01 9.287109e-01 9.763172e-01 3.908813e-02 -2.973965e-01 9.601063e-02 1.537305e-01 7.149357e-02 2.900079e-01 1.910416e-01 -7.515871e-01 -4.240452e-02 -1.290845e-01 -2.831261e-02 1.310699e-02 7.738321e-02 1.194119e-01 5.542723e-02 1.732121e-03 2.419994e-02 3.671934e-02 5.469567e-02 6.988360e-02 2.407541e-02
<VARIANCE> 39
 1.302015e+01 2.418962e+01 2.874341e+01 3.477755e+01 5.945464e+01 3.292718e+01 4.347654e+01 3.549682e+01 3.784518e+01 4.642352e+01 2.587913e+01 2.958956e+01 3.277751e+01 3.354851e-01 7.810965e-01 7.413515e-01 1.141583e+00 1.485799e+00 1.519233e+00 1.456413e+00 1.722536e+00 1.930446e+00 1.656201e+00 1.536604e+00 1.504140e+00 2.330178e-01 4.493056e-02 9.738274e-02 1.128746e-01 1.858079e-01 2.207407e-01 2.312137e-01 2.381242e-01 2.895814e-01 3.433937e-01 3.026070e-01 2.631107e-01 2.614535e-01 2.619372e-02
<GCONST> 9.410252e+01
<TRANSP> 5
 0.000000e+00 1.000000e+00 0.000000e+00 0.000000e+00 0.000000e+00
 0.000000e+00 7.926536e-01 2.073464e-01 0.000000e+00 0.000000e+00
 0.000000e+00 0.000000e+00 9.178004e-01 8.219959e-02 0.000000e+00
 0.000000e+00 0.000000e+00 0.000000e+00 9.227696e-01 7.723040e-02
 0.000000e+00 0.000000e+00 0.000000e+00 0.000000e+00 0.000000e+00
<ENDHMM>
~h "au"
<BEGINHMM>
<NUMSTATES> 5
<STATE> 2
<MEAN> 39
 1.241312e+00 -5.118534e+00 -1.128245e+01 -1.093567e+01 -1.099622e+01 -7.722998e+00 -6.208496e+00 -5.844959e+00 2.482562e+00 1.100029e-01 6.000265e-01 -5.151971e+00 7.480045e+01 2.863658e-02 5.989870e-01 4.596630e-01 7.163972e-01 -2.734980e-01 -9.331729e-01 -8.861898e-01 -6.128846e-01 2.139539e-02 -1.882986e-01 3.068025e-01 4.456916e-01 -3.656687e-01 1.069184e-02 1.325665e-01 4.219018e-02 5.864900e-02 5.751892e-02 1.331901e-02 5.015183e-02 -9.557942e-02 -1.574988e-01 -1.278896e-01 -3.349398e-02 5.004692e-02 -9.282340e-02
<VARIANCE> 39
 1.008694e+01 2.728265e+01 3.145288e+01 6.006821e+01 5.160903e+01 8.580782e+01 8.014002e+01 4.360289e+01 6.560499e+01 6.244624e+01 4.008237e+01 6.047807e+01 1.321476e+01 1.940310e-01 6.002229e-01 4.572108e-01 7.766605e-01 9.555266e-01 1.268056e+00 1.199121e+00 1.785343e+00 1.713957e+00 1.449720e+00 1.456555e+00 1.448341e+00 1.501995e-01 2.499868e-02 6.927072e-02 7.146338e-02 9.983367e-02 1.520177e-01 2.155638e-01 1.977405e-01 1.995286e-01 2.682879e-01 2.367340e-01 2.251534e-01 2.457982e-01 1.512500e-02
<GCONST> 8.981992e+01
<STATE> 3
<MEAN> 39
 2.228339e+00 3.630462e+00 -5.623149e+00 -6.490001e+00 -1.125336e+01 -1.111747e+01 -9.194669e+00 -1.368194e+01 -6.019729e+00 -3.063168e+00 1.719662e+00 -9.659376e-01 6.834417e+01 -5.626343e-02 9.615707e-01 4.768003e-01 4.591897e-01 3.177436e-01 7.806221e-02 4.398082e-02 -1.787460e-01 -7.821497e-01 -7.183822e-01 -4.474462e-01 4.263184e-02 -9.266154e-01 -7.087014e-02 -5.441993e-02 -4.610075e-03 -6.584696e-02 4.886025e-02 1.076380e-01 1.103159e-01 2.196080e-01 1.365423e-01 4.744698e-02 -1.112487e-01 -1.033979e-01 -2.212888e-02
<VARIANCE> 39
 8.876506e+00 2.300043e+01 2.378802e+01 4.874271e+01 4.044757e+01 5.746663e+01 5.740020e+01 6.454959e+01 7.915887e+01 6.074971e+01 2.896962e+01 4.031500e+01 1.622066e+01 2.090540e-01 6.321378e-01 6.150205e-01 1.003721e+00 1.049582e+00 1.362957e+00 1.569604e+00 1.854004e+00 1.697399e+00 1.613753e+00 1.582350e+00 1.321202e+00 2.324759e-01 2.748435e-02 6.195825e-02 9.222619e-02 1.448888e-01 1.909604e-01 1.821900e-01 2.510098e-01 2.563128e-01 2.859820e-01 2.373436e-01 2.560070e-01 2.106525e-01 1.604743e-02
<GCONST> 9.101908e+01
<STATE> 4
<MEAN> 39
 -2.137526e+00 9.046022e+00 -1.947093e+00 -3.200619e+00 -6.346687e+00 -6.778201e+00 -5.589087e+00 -9.322244e+00 -6.298432e+00 -6.281933e+00 -3.009806e+00 -1.731878e+00 5.976441e+01 -6.717380e-01 -2.929568e-01 1.275958e-01 3.562310e-01 6.896700e-01 4.186980e-01 2.843314e-01 6.524677e-01 4.079137e-01 1.704205e-01 -1.375312e-01 -2.332571e-02 -7.463623e-01 -3.333649e-02 -1.543499e-01 -7.971371e-02 -3.388599e-02 1.744352e-02 1.953220e-02 2.089798e-02 3.493574e-02 5.753023e-02 1.201159e-01 1.250457e-01 8.021866e-02 5.124585e-02
<VARIANCE> 39
 1.130849e+01 2.848700e+01 2.027002e+01 3.052113e+01 3.018665e+01 3.056422e+01 3.879359e+01 3.142371e+01 3.853485e+01 3.518914e+01 3.039087e+01 3.059445e+01 2.509478e+01 3.413393e-01 7.398630e-01 6.240625e-01 9.868605e-01 1.242793e+00 1.450092e+00 1.877277e+00 1.759802e+00 1.742469e+00 1.876097e+00 1.478817e+00 1.605331e+00 2.400471e-01 4.607154e-02 1.032077e-01 1.062892e-01 1.587771e-01 1.999167e-01 2.320807e-01 2.831199e-01 2.962617e-01 2.915654e-01 3.141454e-01 2.656919e-01 2.784760e-01 2.206258e-02
<GCONST> 9.184055e+01
<TRANSP> 5
 0.000000e+00 1.000000e+00 0.000000e+00 0.000000e+00 0.000000e+00
 0.000000e+00 8.759251e-01 1.240748e-01 0.000000e+00 0.000000e+00
 0.000000e+00 0.000000e+00 8.787904e-01 1.212096e-01 0.000000e+00
 0.000000e+00 0.000000e+00 0.000000e+00 9.010605e-01 9.893951e-02
 0.000000e+00 0.000000e+00 0.000000e+00 0.000000e+00 0.000000e+00
<ENDHMM>
~h "ee"
<BEGINHMM>
<NUMSTATES> 5
<STATE> 2
<MEAN> 39
 -4.264222e+00 -1.482097e+00 5.807852e+00 -4.042511e+00 -2.182900e+01 -1.920880e+01 -4.729552e+00 -1.000708e+01 -7.646849e+00 -5.280803e+00 2.229289e+00 -1.719110e+00 7.533759e+01 -1.184177e-03 -4.999622e-02 -3.488423e-02 -2.650575e-02 8.926276e-03 -2.524152e-02 2.465020e-02 7.986826e-02 3.935201e-02 -4.511555e-02 2.395640e-02 -9.042466e-03 -8.781285e-02 5.419631e-03 2.711611e-02 -1.831440e-02 6.174861e-03 3.309839e-02 1.176266e-02 8.390334e-03 2.405743e-02 1.061208e-02 -2.459435e-02 -2.619649e-02 -5.507488e-03 -3.602363e-02
<VARIANCE> 39
 7.893923e+00 2.157866e+01 4.395587e+01 5.256694e+01 4.065563e+01 5.074778e+01 3.611285e+01 4.391677e+01 2.456573e+01 4.034714e+01 5.152745e+01 6.480906e+01 9.051688e+00 7.904114e-02 2.586663e-01 3.216699e-01 4.107937e-01 5.742077e-01 5.885223e-01 6.278796e-01 6.078649e-01 6.143105e-01 6.942517e-01 6.317421e-01 5.657431e-01 8.859588e-02 1.427381e-02 4.230118e-02 5.658163e-02 7.300160e-02 1.024513e-01 1.152824e-01 1.222225e-01 1.087678e-01 1.176518e-01 1.297260e-01 1.125127e-01 1.095215e-01 1.276040e-02
<GCONST> 6.990897e+01
<STATE> 3
<MEAN> 39
 -3.608693e+00 -1.225926e+00 5.468277e+00 -1.306425e+00 -1.982087e+01 -2.168288e+01 -6.358235e+00 -5.253147e+00 -5.454724e+00 -6.834799e+00 -7.902125e-01 7.817628e-01 7.167520e+01 3.278223e-02 1.919801e-01 -1.901505e-01 7.207265e-02 2.585932e-01 1.570009e-01 1.582484e-01 1.902090e-01 1.888790e-01 -1.559077e-01 -2.833160e-01 -1.826246e-01 -5.668917e-01 5.479645e-03 7.232206e-02 -2.930632e-02 7.904869e-02 1.607617e-01 9.299420e-02 1.284347e-02 -1.163294e-02 -2.653613e-02 1.612707e-02 -8.200399e-02 -4.918481e-02 -1.148090e-01
<VARIANCE> 39
 1.001906e+01 1.985658e+01 3.130270e+01 3.976705e+01 7.697781e+01 4.970246e+01 2.899939e+01 4.155537e+01 4.675380e+01 3.659089e+01 4.401507e+01 4.665757e+01 1.626794e+01 2.252427e-01 5.154789e-01 5.638891e-01 9.604596e-01 1.104727e+00 9.348660e-01 1.598522e+00 1.140194e+00 1.520847e+00 1.221955e+00 1.446070e+00 1.431554e+00 2.171806e-01 3.713447e-02 9.935279e-02 1.053256e-01 1.835286e-01 2.206395e-01 2.028110e-01 2.836651e-01 2.268367e-01 2.633243e-01 2.505884e-01 2.408173e-01 2.276179e-01 3.615893e-02
<GCONST> 9.064795e+01
<STATE> 4
<MEAN> 39
 -5.575844e+00 5.241104e-01 3.425369e+00 -8.153082e-01 -1.418495e+01 -1.455957e+01 -2.684364e+00 -4.646000e+00 -4.526053e+00 -5.517421e+00 -8.611143e-01 -1.636772e+00 6.368305e+01 -2.299123e-01 2.004208e-01 -5.810574e-01 2.901331e-01 1.363467e+00 1.043050e+00 1.692692e-01 3.169925e-01 2.273829e-01 3.625723e-01 -1.212065e-01 2.076453e-01 -1.240328e+00 -3.083047e-02 -3.908773e-02 -4.947437e-02 -5.079657e-02 6.255705e-02 4.012785e-02 -1.298904e-02 1.756076e-02 -2.981103e-03 4.471849e-02 9.231496e-02 4.103532e-02 4.265259e-02
<VARIANCE> 39
 1.184781e+01 2.137391e+01 2.629687e+01 3.175754e+01 5.022274e+01 4.742488e+01 3.700401e+01 4.015081e+01 4.485555e+01 5.227396e+01 4.416953e+01 4.564383e+01 3.949701e+01 5.083580e-01 1.113431e+00 8.123040e-01 1.221163e+00 1.618235e+00 1.840732e+00 1.990738e+00 2.310552e+00 2.453881e+00 2.322225e+00 2.301084e+00 1.993218e+00 5.390992e-01 5.669902e-02 1.446678e-01 1.218846e-01 1.745210e-01 2.269766e-01 3.074721e-01 3.369878e-01 3.949947e-01 4.787796e-01 3.347116e-01 3.665771e-01 3.504882e-01 7.325238e-02
<GCONST> 1.029198e+02
<TRANSP> 5
 0.000000e+00 1.000000e+00 0.000000e+00 0.000000e+00 0.000000e+00
 0.000000e+00 9.333178e-01 6.668226e-02 0.000000e+00 0.000000e+00
 0.000000e+00 0.000000e+00 8.460797e-01 1.539203e-01 0.000000e+00
 0.000000e+00 0.000000e+00 0.000000e+00 8.521419e-01 1.478580e-01
 0.000000e+00 0.000000e+00 0.000000e+00 0.000000e+00 0.000000e+00
<ENDHMM>
~h "ei"
<BEGINHMM>
<NUMSTATES> 5
<STATE> 2
<MEAN> 39
 -2.762358e+00 -4.939298e+00 8.294894e-01 -4.986798e+00 -1.814003e+01 -1.976475e+01 -3.735825e+00 -9.912665e-01 -2.344750e+00 -7.173133e+00 9.450582e-01 -2.508601e+00 7.565640e+01 -1.056660e-01 4.617573e-01 6.720174e-01 2.025511e-01 -3.215280e-01 -1.119717e-01 -3.903395e-02 -7.906517e-01 -6.787562e-01 4.034026e-02 4.627300e-01 1.396190e-01 -2.795058e-01 -3.527492e-03 9.006724e-02 4.870954e-03 4.847430e-02 5.548941e-02 7.789441e-02 1.118112e-03 -9.804759e-02 -6.671475e-02 1.698069e-02 -7.892145e-02 -4.756201e-02 -6.947201e-02
<VARIANCE> 39
 6.318524e+00 2.175957e+01 3.954422e+01 5.153743e+01 5.013646e+01 7.119217e+01 4.305068e+01 4.931125e+01 3.698638e+01 5.710016e+01 3.822781e+01 4.614161e+01 9.076674e+00 1.234250e-01 3.835202e-01 4.943390e-01 5.285668e-01 7.202098e-01 8.261372e-01 8.505324e-01 1.269588e+00 1.004603e+00 1.219519e+00 8.818468e-01 9.197166e-01 1.618240e-01 2.045191e-02 5.394379e-02 7.496110e-02 8.903889e-02 1.084701e-01 1.267918e-01 1.578436e-01 1.835625e-01 1.561019e-01 1.757831e-01 1.546081e-01 1.559902e-01 2.094653e-02
<GCONST> 7.990166e+01
<STATE> 3
<MEAN> 39
 -4.013268e+00 2.506945e+00 8.750439e+00 -2.055467e+00 -1.894660e+01 -1.543275e+01 -3.186990e+00 -1.042977e+01 -9.287115e+00 -4.740728e+00 6.016489e-01 -3.157367e+00 6.988667e+01 -1.319549e-01 7.091906e-01 3.145993e-01 2.897859e-01 4.293712e-01 5.750642e-01 1.409950e-01 -3.387657e-01 -2.245274e-01 -1.069319e-01 -4.048943e-01 -3.271298e-01 -7.011770e-01 -1.698464e-02 -4.144581e-02 -8.363458e-02 1.175032e-02 1.273230e-01 3.345158e-02 -1.027229e-03 1.108991e-01 9.040600e-02 -2.791667e-02 -1.954529e-02 3.558113e-02 -2.681543e-02
<VARIANCE> 39
 6.187790e+00 2.317351e+01 3.401385e+01 4.808826e+01 4.888634e+01 6.728083e+01 2.773437e+01 3.999463e+01 3.304291e+01 5.069759e+01 3.579543e+01 3.715915e+01 1.355183e+01 1.285708e-01 3.969862e-01 6.283783e-01 8.206037e-01 9.689944e-01 1.050261e+00 1.026710e+00 1.435346e+00 9.590173e-01 1.043805e+00 9.484448e-01 1.071290e+00 1.631101e-01 2.254547e-02 5.068181e-02 9.089362e-02 1.314562e-01 1.644007e-01 1.829295e-01 1.845920e-01 2.218552e-01 1.682205e-01 1.735315e-01 1.632940e-01 1.912567e-01 1.429659e-02
<GCONST> 8.219817e+01
<STATE> 4
<MEAN> 39
 -7.334173e+00 5.861186e+00 8.105668e+00 2.164814e+00 -1.125218e+01 -9.001279e+00 -1.765278e+00 -9.641766e+00 -8.001200e+00 -5.989634e+00 -2.592363e+00 -2.846959e+00 6.199756e+01 -3.223888e-01 -2.838526e-01 -7.799597e-01 5.330860e-02 1.116720e+00 7.794824e-01 1.716383e-01 5.138373e-01 2.273886e-01 2.552833e-01 5.006209e-02 2.093161e-01 -8.927674e-01 -2.427499e-02 -1.267848e-01 -1.087481e-01 -9.507445e-02 -3.756808e-02 4.970085e-03 5.300600e-02 1.383485e-01 1.097027e-01 1.155116e-01 7.252469e-02 4.962467e-02 2.443587e-02
<VARIANCE> 39
 1.112379e+01 2.795835e+01 4.865759e+01 2.469956e+01 6.893131e+01 4.864516e+01 3.632702e+01 3.485531e+01 3.844422e+01 3.721481e+01 2.454039e+01 3.631535e+01 3.000604e+01 3.430058e-01 7.827774e-01 1.061661e+00 9.893768e-01 1.854107e+00 1.461396e+00 1.819471e+00 2.155707e+00 1.729736e+00 1.712640e+00 1.558234e+00 1.481949e+00 3.494771e-01 5.656549e-02 1.181561e-01 1.543556e-01 1.494706e-01 3.003025e-01 2.794759e-01 3.523358e-01 3.539402e-01 2.615159e-01 2.822716e-01 2.735910e-01 2.483119e-01 4.521518e-02
<GCONST> 9.747070e+01
<TRANSP> 5
 0.000000e+00 1.000000e+00 0.000000e+00 0.000000e+00 0.000000e+00
 0.000000e+00 8.783394e-01 1.216606e-01 0.000000e+00 0.000000e+00
 0.000000e+00 0.000000e+00 8.933609e-01 1.066391e-01 0.000000e+00
 0.000000e+00 0.000000e+00 0.000000e+00 8.967413e-01 1.032587e-01
 0.000000e+00 0.000000e+00 0.000000e+00 0.000000e+00 0.000000e+00
<ENDHMM>
~h "ii"
<BEGINHMM>
<NUMSTATES> 5
<STATE> 2
<MEAN> 39
 -5.204852e+00 3.088731e+00 1.017321e+01 -4.236563e+00 -1.566141e+01 -1.276191e+01 -4.786716e+00 -1.356550e+01 -1.057804e+01 -6.676612e+00 -1.537371e+00 -5.844095e+00 7.175731e+01 2.435919e-02 2.146093e-01 -4.516014e-02 9.516262e-02 1.583396e-01 1.167161e-01 8.486214e-02 -3.144907e-03 3.871703e-02 -1.845574e-02 3.273147e-03 -1.128462e-01 -2.808096e-01 6.719528e-03 3.274973e-02 -4.895117e-02 4.493516e-02 7.167669e-02 1.914551e-02 1.264049e-02 3.315820e-02 1.516121e-02 -1.153357e-02 -2.792446e-02 -5.505393e-03 -5.884096e-02
<VARIANCE> 39
 8.499138e+00 1.771965e+01 2.635076e+01 7.515317e+01 4.871571e+01 6.603681e+01 4.117419e+01 5.669579e+01 2.932882e+01 3.697107e+01 3.528253e+01 5.361719e+01 8.200155e+00 1.304320e-01 2.908533e-01 3.590256e-01 5.558156e-01 6.263769e-01 6.186307e-01 6.971561e-01 5.124825e-01 6.486526e-01 8.109702e-01 9.223867e-01 6.880539e-01 9.966525e-02 2.398946e-02 4.739831e-02 5.469926e-02 8.862272e-02 1.106283e-01 1.273796e-01 1.256294e-01 1.113355e-01 1.244047e-01 1.458083e-01 1.695040e-01 1.128444e-01 1.608600e-02
<GCONST> 7.375243e+01
<STATE> 3
<MEAN> 39
 -5.999206e+00 8.920671e+00 1.124424e+01 -3.251622e-01 -1.196227e+01 -1.246742e+01 -1.034937e+00 -1.272857e+01 -8.944153e+00 -6.143115e+00 -3.782739e+00 -3.222928e+00 6.815777e+01 -5.024282e-02 2.021930e-01 -1.246789e-01 1.622338e-01 4.002739e-01 1.273355e-01 2.785505e-02 1.804123e-01 1.258367e-01 6.366344e-02 -8.715751e-03 5.554630e-02 -4.076027e-01 -2.864995e-02 -5.295455e-02 -3.279443e-02 1.198831e-02 4.337523e-02 2.594764e-02 -2.529095e-02 4.173623e-02 7.635530e-03 -3.090827e-02 -1.794973e-03 1.098600e-02 -3.024446e-02
<VARIANCE> 39
 1.357439e+01 1.379060e+01 7.644209e+01 2.317513e+01 3.876817e+01 4.229080e+01 2.428050e+01 3.377744e+01 2.982849e+01 2.943605e+01 2.750566e+01 3.132068e+01 7.817520e+00 1.376401e-01 3.786049e-01 5.668738e-01 6.075174e-01 8.534175e-01 9.351737e-01 8.706021e-01 1.081345e+00 8.792657e-01 8.392681e-01 9.816996e-01 8.613352e-01 1.912233e-01 2.410493e-02 5.279081e-02 9.239469e-02 8.888253e-02 1.411642e-01 1.594288e-01 1.694450e-01 2.025992e-01 1.660067e-01 1.561722e-01 1.686173e-01 1.587972e-01 1.933645e-02
<GCONST> 7.780795e+01
<STATE> 4
<MEAN> 39
 -9.402608e+00 8.435246e+00 9.428697e+00 2.421318e+00 -6.140265e+00 -7.340278e+00 -2.688603e-01 -1.031990e+01 -8.072818e+00 -5.561826e+00 -3.754353e+00 -3.211427e+00 6.000135e+01 -2.768804e-01 -5.315338e-01 -8.534446e-01 1.269023e-01 7.596763e-01 6.805191e-01 2.984586e-01 7.174297e-01 4.232916e-01 1.368197e-01 4.817901e-02 1.465635e-01 -7.490768e-01 -2.665038e-02 -8.897033e-02 -7.015885e-02 -1.134809e-01 -6.704938e-02 2.354966e-02 4.010466e-02 1.096662e-01 1.144669e-01 9.061186e-02 8.683853e-02 3.548759e-02 3.318745e-02
<VARIANCE> 39
 1.871500e+01 2.330247e+01 5.054928e+01 2.101406e+01 3.887440e+01 4.099617e+01 4.514756e+01 3.115800e+01 3.031041e+01 3.298744e+01 2.135391e+01 2.867643e+01 2.248311e+01 3.489411e-01 6.851350e-01 9.217109e-01 9.290861e-01 1.558677e+00 1.270841e+00 1.810724e+00 1.765818e+00 1.922178e+00 1.924320e+00 1.593839e+00 1.569133e+00 2.476938e-01 5.830842e-02 1.085755e-01 1.343229e-01 1.595459e-01 2.278721e-01 2.257966e-01 3.267477e-01 2.393278e-01 3.198495e-01 3.574889e-01 3.264105e-01 2.827265e-01 3.058221e-02
<GCONST> 9.441309e+01
<TRANSP> 5
 0.000000e+00 1.000000e+00 0.000000e+00 0.000000e+00 0.000000e+00
 0.000000e+00 8.950624e-01 1.049375e-01 0.000000e+00 0.000000e+00
 0.000000e+00 0.000000e+00 9.031754e-01 9.682465e-02 0.000000e+00
 0.000000e+00 0.000000e+00 0.000000e+00 8.879769e-01 1.120231e-01
 0.000000e+00 0.000000e+00 0.000000e+00 0.000000e+00 0.000000e+00
<ENDHMM>
~h "oe"
<BEGINHMM>
<NUMSTATES> 5
<STATE> 2
<MEAN> 39
 8.420075e-01 -3.687816e+00 -7.986777e+00 -9.698319e+00 -1.072900e+01 -1.174537e+01 -1.078152e+01 -1.306981e+01 -1.269170e+00 2.630906e+00 3.111308e+00 -8.194674e-01 7.432816e+01 -6.444491e-01 -9.938402e-01 1.098722e+00 2.414856e+00 3.810308e-01 -2.519625e+00 -1.746168e+00 1.051845e+00 1.965011e+00 2.221808e-01 -9.330173e-01 -1.035556e+00 2.517628e-01 -2.393599e-02 3.098774e-01 4.073880e-01 -6.773445e-02 -5.402907e-01 -2.551232e-01 6.555157e-01 6.559460e-01 -3.173932e-01 -9.144111e-01 -4.901928e-01 3.738595e-01 -2.040303e-01
<VARIANCE> 39
 1.137652e+01 2.512710e+01 4.535950e+01 4.316835e+01 4.423173e+01 6.023462e+01 3.847728e+01 5.154896e+01 5.819935e+01 4.461828e+01 4.640229e+01 5.425195e+01 1.262232e+01 2.421790e-01 8.914294e-01 1.184741e+00 1.624216e+00 2.785407e+00 2.570828e+00 3.663269e+00 3.865199e+00 3.074712e+00 4.750719e+00 2.790331e+00 2.703525e+00 3.324093e-01 4.646948e-02 9.889351e-02 1.774034e-01 3.415486e-01 3.293397e-01 5.735512e-01 5.642200e-01 5.854066e-01 8.924206e-01 3.897755e-01 6.747020e-01 6.548492e-01 3.472370e-02
<GCONST> 1.097688e+02
<STATE> 3
<MEAN> 39
 -1.447336e+00 -4.220768e+00 -7.168142e-01 -3.323597e+00 -1.492727e+01 -2.144013e+01 -9.693104e+00 -4.635363e+00 -1.473376e+00 -5.171774e+00 -4.902478e-01 -1.356698e-01 7.228970e+01 -3.279538e-01 6.339129e-01 8.024817e-01 5.192139e-01 -9.760590e-02 -3.079135e-01 5.494494e-01 5.313184e-01 -5.730505e-01 -6.640207e-01 7.088598e-03 2.619474e-01 -8.911226e-01 7.590479e-03 1.548012e-01 -2.060924e-01 -1.665903e-01 2.332478e-01 4.545591e-01 4.068198e-02 -2.584354e-01 -2.946064e-02 3.096370e-01 2.102662e-01 -7.591841e-02 -2.055701e-01
<VARIANCE> 39
 9.476443e+00 2.090888e+01 4.900269e+01 4.549968e+01 4.894545e+01 4.778656e+01 3.820254e+01 4.091471e+01 3.614512e+01 5.313803e+01 4.648515e+01 3.066743e+01 1.325707e+01 3.658035e-01 8.412829e-01 1.307624e+00 1.310127e+00 2.041204e+00 2.446988e+00 2.197470e+00 2.379552e+00 1.883145e+00 2.325620e+00 2.181381e+00 1.619889e+00 8.294930e-01 6.318689e-02 1.323372e-01 2.094983e-01 2.353117e-01 2.857293e-01 3.671025e-01 3.753309e-01 3.724810e-01 3.846648e-01 3.637579e-01 3.676784e-01 2.775643e-01 7.094923e-02
<GCONST> 1.034587e+02
<STATE> 4
<MEAN> 39
 -5.846939e+00 1.151033e+00 7.467186e-01 4.796522e-01 -9.525025e+00 -1.472329e+01 -4.860568e+00 -4.110834e+00 -2.554688e+00 -3.309986e+00 2.696010e-01 6.042253e-01 6.231679e+01 -5.185732e-01 6.403816e-02 -2.842351e-01 5.154392e-02 6.871079e-01 1.033467e+00 4.679483e-01 2.209529e-01 2.035792e-01 3.248853e-01 8.250154e-02 8.122328e-02 -9.882170e-01 -9.948381e-03 -1.332002e-01 -6.292538e-02 -9.098034e-02 -2.218638e-02 2.353915e-02 -2.095545e-02 2.441312e-02 5.406795e-02 2.842094e-03 -3.641218e-02 3.080342e-02 1.524376e-01
<VARIANCE> 39
 1.682012e+01 2.292852e+01 2.979395e+01 2.863283e+01 3.353059e+01 4.266116e+01 5.431633e+01 4.434864e+01 3.614442e+01 3.862434e+01 2.943365e+01 2.698206e+01 3.334352e+01 3.840079e-01 7.271618e-01 9.298792e-01 9.915968e-01 1.492942e+00 1.698728e+00 1.522886e+00 1.649760e+00 1.766949e+00 1.688946e+00 1.594585e+00 1.457585e+00 6.170085e-01 6.516152e-02 1.260258e-01 1.525698e-01 1.708117e-01 2.788363e-01 2.688702e-01 2.751713e-01 2.994623e-01 3.152962e-01 2.786250e-01 2.868395e-01 2.764210e-01 8.308862e-02
<GCONST> 9.781728e+01
<TRANSP> 5
 0.000000e+00 1.000000e+00 0.000000e+00 0.000000e+00 0.000000e+00
 0.000000e+00 7.630056e-01 2.369944e-01 0.000000e+00 0.000000e+00
 0.000000e+00 0.000000e+00 8.602430e-01 1.397570e-01 0.000000e+00
 0.000000e+00 0.000000e+00 0.000000e+00 8.962977e-01 1.037023e-01
 0.000000e+00 0.000000e+00 0.000000e+00 0.000000e+00 0.000000e+00
<ENDHMM>
~h "oi"
<BEGINHMM>
<NUMSTATES> 5
<STATE> 2
<MEAN> 39
 2.037450e+00 -6.705163e-01 -8.167161e+00 -1.023161e+01 -1.023525e+01 -8.415942e+00 -1.040152e+01 -1.603773e+01 -4.683417e+00 1.430627e-01 4.315238e+00 8.810573e-01 7.274100e+01 -7.445216e-01 -1.168518e+00 1.032582e+00 3.379412e+00 1.103453e+00 -3.007739e+00 -2.482698e+00 5.282570e-01 2.048790e+00 3.561862e-01 -7.493237e-01 -1.790551e+00 2.439242e-01 -1.137206e-01 2.108683e-01 6.733649e-01 2.508785e-01 -7.532912e-01 -6.736823e-01 6.705416e-01 1.006945e+00 -2.902130e-02 -1.051552e+00 -8.026192e-01 1.625363e-01 -1.677101e-01
<VARIANCE> 39
 1.123135e+01 2.868342e+01 4.010751e+01 6.611470e+01 3.926818e+01 5.832953e+01 5.586687e+01 4.973526e+01 6.185984e+01 4.498697e+01 4.340623e+01 5.963747e+01 1.242499e+01 3.536487e-01 8.322282e-01 1.922956e+00 1.887340e+00 3.369691e+00 3.364269e+00 3.504616e+00 4.859785e+00 2.940279e+00 5.581189e+00 5.019529e+00 2.309993e+00 3.408970e-01 5.467391e-02 1.356966e-01 1.893441e-01 5.461247e-01 4.089889e-01 8.588229e-01 9.267868e-01 5.490614e-01 1.310131e+00 6.075832e-01 8.180072e-01 1.000949e+00 4.549082e-02
<GCONST> 1.163996e+02
<STATE> 3
<MEAN> 39
 -2.474989e+00 -1.512872e+00 9.726433e-01 1.159777e+00 -1.170926e+01 -1.830658e+01 -9.631227e+00 -9.071865e+00 -4.121811e+00 -7.917715e+00 -1.201338e+00 -3.470864e-01 7.143379e+01 -5.027130e-01 3.264448e-01 8.511232e-01 5.461043e-01 -1.035658e-01 7.975300e-02 1.111101e+00 6.097892e-01 -7.224132e-01 -7.766860e-01 6.048079e-02 2.136780e-01 -5.991188e-01 5.997984e-02 1.846624e-01 -2.817705e-01 -5.117397e-01 6.239038e-02 5.987691e-01 2.010867e-01 -2.929179e-01 -1.494200e-01 3.227960e-01 2.013867e-01 1.214019e-02 -1.000287e-01
<VARIANCE> 39
 1.406458e+01 2.706939e+01 6.199757e+01 5.414703e+01 8.691976e+01 7.764415e+01 4.300340e+01 4.303070e+01 5.966200e+01 5.012989e+01 4.796050e+01 4.428694e+01 1.805197e+01 4.402215e-01 1.071574e+00 4.518158e+00 3.758963e+00 4.907048e+00 5.958695e+00 3.794772e+00 3.465532e+00 3.718529e+00 4.974738e+00 3.206825e+00 2.657142e+00 2.964885e-01 6.624375e-02 2.012196e-01 3.093589e-01 4.029551e-01 7.074265e-01 7.805486e-01 8.710115e-01 6.635194e-01 8.126798e-01 7.748031e-01 6.821723e-01 5.679418e-01 3.885027e-02
<GCONST> 1.203125e+02
<STATE> 4
<MEAN> 39
 -4.800033e+00 2.868998e+00 4.448220e+00 7.169704e-01 -1.161863e+01 -1.343579e+01 -3.300417e+00 -9.276574e+00 -6.651398e+00 -6.638638e+00 -5.350078e-01 -2.157370e+00 6.466842e+01 -3.600846e-01 1.668251e-01 -1.657194e-01 -1.254181e-01 6.851703e-01 8.433505e-01 3.058311e-01 2.318369e-01 1.944601e-01 3.565284e-01 -1.434354e-01 1.847756e-02 -7.641266e-01 2.195784e-02 -9.582850e-02 -1.349224e-01 -2.896742e-02 8.267035e-02 2.141198e-02 -6.918842e-02 8.362009e-02 1.246814e-01 4.510717e-02 -4.450558e-03 2.238161e-02 2.022671e-02
<VARIANCE> 39
 1.600220e+01 2.247731e+01 4.063291e+01 3.660587e+01 5.628652e+01 5.038359e+01 4.358922e+01 4.447537e+01 3.459572e+01 4.145225e+01 2.841367e+01 3.890706e+01 2.795593e+01 3.115953e-01 9.526971e-01 1.280955e+00 1.118280e+00 1.695754e+00 1.616427e+00 1.894570e+00 2.401373e+00 1.741412e+00 1.488854e+00 1.374677e+00 1.619508e+00 2.996273e-01 5.453738e-02 1.227250e-01 1.665967e-01 1.675494e-01 2.443527e-01 2.898450e-01 3.374600e-01 3.969227e-01 3.203415e-01 2.834462e-01 2.375771e-01 2.766860e-01 3.163295e-02
<GCONST> 9.839214e+01
<TRANSP> 5
 0.000000e+00 1.000000e+00 0.000000e+00 0.000000e+00 0.000000e+00
 0.000000e+00 7.281139e-01 2.718861e-01 0.000000e+00 0.000000e+00
 0.000000e+00 0.000000e+00 8.514745e-01 1.485255e-01 0.000000e+00
 0.000000e+00 0.000000e+00 0.000000e+00 9.031587e-01 9.684132e-02
 0.000000e+00 0.000000e+00 0.000000e+00 0.000000e+00 0.000000e+00
<ENDHMM>
~h "oo"
<BEGINHMM>
<NUMSTATES> 5
<STATE> 2
<MEAN> 39
 4.063080e+00 9.399812e+00 -2.077242e+00 -1.693470e+01 -2.125945e+01 -1.475058e+01 -8.809304e+00 -7.594722e+00 9.033776e-01 1.319602e+00 -2.897769e+00 -1.426146e+00 6.714197e+01 -4.600144e-03 1.203088e-01 7.075985e-02 -5.451216e-02 -1.114317e-01 -2.259016e-02 1.946254e-01 1.303058e-02 -2.842491e-02 8.940296e-02 -1.223776e-01 -1.386170e-01 -1.825135e-01 -2.811474e-02 2.834689e-02 -8.530927e-03 4.701366e-02 3.565999e-02 8.776631e-03 7.996768e-02 7.269496e-02 -3.336370e-02 -7.763027e-02 1.970668e-03 -3.571425e-02 -4.270529e-02
<VARIANCE> 39
 8.250344e+00 1.913393e+01 3.485481e+01 1.952282e+01 2.249023e+01 3.133735e+01 2.652344e+01 5.799306e+01 3.946222e+01 3.656581e+01 4.189755e+01 2.872566e+01 9.999195e+00 1.567241e-01 3.935896e-01 6.388969e-01 3.701706e-01 9.690152e-01 5.919865e-01 9.213757e-01 1.018055e+00 1.038347e+00 1.102892e+00 1.070797e+00 8.398977e-01 1.564020e-01 2.391391e-02 6.350900e-02 1.116599e-01 7.004257e-02 1.860644e-01 1.325605e-01 2.062482e-01 1.739354e-01 2.011888e-01 1.861532e-01 1.959673e-01 1.444591e-01 1.948171e-02
<GCONST> 7.799637e+01
<STATE> 3
<MEAN> 39
 1.478068e+00 1.512733e+01 -2.413712e-02 -1.268757e+01 -2.217632e+01 -1.516933e+01 -5.272210e+00 -3.983707e+00 1.375569e+00 4.111073e+00 -2.177011e+00 -3.462163e+00 6.331814e+01 -4.227831e-01 3.807826e-02 6.292528e-03 4.974158e-01 5.553334e-01 -6.523702e-03 -2.044535e-02 4.082550e-01 1.968368e-01 -2.389932e-01 3.151951e-01 3.368512e-02 -4.979897e-01 -9.114497e-02 -1.585238e-01 -1.401342e-02 5.926086e-02 1.707771e-01 1.084860e-01 -5.231811e-03 -2.773694e-02 -1.396949e-02 1.086501e-02 1.809827e-02 8.226860e-02 -1.346482e-02
<VARIANCE> 39
 1.426628e+01 1.541909e+01 2.726334e+01 3.038020e+01 3.479763e+01 2.630070e+01 2.494792e+01 4.279933e+01 2.316970e+01 3.243233e+01 2.693520e+01 1.751766e+01 1.435245e+01 1.488344e-01 5.562235e-01 6.778150e-01 6.552741e-01 1.143679e+00 9.415461e-01 1.423716e+00 1.064312e+00 9.976054e-01 7.191317e-01 8.213995e-01 9.026869e-01 1.124064e-01 3.075664e-02 6.093754e-02 1.183664e-01 1.381873e-01 2.199012e-01 1.629714e-01 2.802908e-01 1.776495e-01 1.984185e-01 1.307569e-01 1.684246e-01 1.627415e-01 1.415951e-02
<GCONST> 7.916740e+01
<STATE> 4
<MEAN> 39
 -2.439502e+00 7.923687e+00 -2.333184e+00 -9.803552e+00 -1.456744e+01 -8.998405e+00 -2.196027e+00 -3.242114e+00 1.437965e+00 6.582707e-01 -2.010906e+00 -1.837620e+00 5.830796e+01 -7.609395e-01 -6.723155e-01 -1.741661e-01 7.354219e-01 1.262646e+00 6.936652e-01 1.932101e-01 4.163604e-01 -2.335892e-01 -1.957172e-02 1.871734e-01 4.274351e-01 -6.620521e-01 -9.074651e-03 -6.390250e-03 -1.183440e-02 -2.332984e-02 8.064749e-03 1.127721e-02 1.850002e-03 -1.602505e-02 5.320336e-03 1.375659e-02 -5.449887e-03 1.892027e-02 2.650292e-02
<VARIANCE> 39
 1.278159e+01 1.780725e+01 3.368869e+01 3.120573e+01 5.562495e+01 5.087997e+01 4.938232e+01 4.884388e+01 3.192805e+01 5.787325e+01 2.678132e+01 3.146398e+01 3.471680e+01 4.344767e-01 4.015279e-01 8.502097e-01 1.051387e+00 1.586137e+00 1.361415e+00 1.540042e+00 1.643374e+00 1.635759e+00 1.691072e+00 1.723837e+00 1.424758e+00 2.997929e-01 7.310029e-02 7.261454e-02 1.403167e-01 1.814040e-01 2.632774e-01 2.423017e-01 2.616761e-01 2.963589e-01 3.179351e-01 3.170911e-01 3.297689e-01 2.677673e-01 3.505645e-02
<GCONST> 9.586531e+01
<TRANSP> 5
 0.000000e+00 1.000000e+00 0.000000e+00 0.000000e+00 0.000000e+00
 0.000000e+00 9.065583e-01 9.344167e-02 0.000000e+00 0.000000e+00
 0.000000e+00 0.000000e+00 8.590076e-01 1.409924e-01 0.000000e+00
 0.000000e+00 0.000000e+00 0.000000e+00 8.811728e-01 1.188273e-01
 0.000000e+00 0.000000e+00 0.000000e+00 0.000000e+00 0.000000e+00
<ENDHMM>
~h "ou"
<BEGINHMM>
<NUMSTATES> 5
<STATE> 2
<MEAN> 39
 3.715951e+00 4.645867e+00 -7.253345e+00 -1.372236e+01 -1.514938e+01 -7.537261e+00 -4.317739e+00 -9.600689e+00 -6.817102e+00 -6.945721e+00 8.758160e-01 1.238788e+00 6.999393e+01 -5.284297e-02 3.647845e-01 2.253585e-01 6.031135e-01 2.476073e-01 -3.054857e-01 -2.893580e-01 -2.368000e-01 -3.288319e-01 -3.956096e-01 -6.044129e-02 6.983251e-03 -3.312860e-01 -2.616235e-02 4.949336e-02 4.279344e-02 6.851339e-02 6.309760e-02 -1.189205e-02 1.897559e-02 8.364568e-02 2.173483e-02 -1.882186e-02 -7.216074e-02 -6.084352e-02 -7.345653e-02
<VARIANCE> 39
 8.198298e+00 3.472644e+01 2.294027e+01 8.564361e+01 4.996908e+01 4.315171e+01 8.820143e+01 5.255903e+01 7.906874e+01 5.080131e+01 4.366141e+01 3.799866e+01 1.116050e+01 1.260641e-01 5.213689e-01 5.440302e-01 1.115505e+00 9.354633e-01 1.192443e+00 1.132415e+00 1.396638e+00 1.087152e+00 1.229085e+00 1.356257e+00 1.274880e+00 1.871916e-01 2.145361e-02 6.142516e-02 7.539664e-02 1.560326e-01 1.429159e-01 1.763940e-01 1.854894e-01 2.075830e-01 1.889518e-01 1.969531e-01 2.135591e-01 1.984846e-01 1.950633e-02
<GCONST> 8.726091e+01
<STATE> 3
<MEAN> 39
 1.932126e+00 1.141423e+01 -2.045849e+00 -8.404646e+00 -1.332792e+01 -9.526398e+00 -2.318989e+00 -9.165636e+00 -7.703817e+00 -7.120521e+00 -4.072545e+00 -1.388058e+00 6.499070e+01 -2.776834e-01 2.374275e-01 3.691300e-01 7.345698e-01 6.959987e-01 1.824830e-01 -3.040480e-01 2.075937e-01 1.874085e-02 -2.316445e-01 -2.979036e-01 -2.424509e-01 -6.774861e-01 -6.626718e-02 -1.086575e-01 -4.887742e-03 1.416465e-02 1.036524e-01 1.228057e-01 1.793824e-02 -3.476749e-03 7.405994e-02 7.226960e-02 3.913333e-02 1.689165e-02 -1.936112e-02
<VARIANCE> 39
 5.829035e+00 3.244501e+01 2.440678e+01 3.975002e+01 4.218420e+01 5.355336e+01 7.754458e+01 5.013239e+01 4.137320e+01 5.022084e+01 3.555737e+01 3.827062e+01 2.168516e+01 1.727771e-01 4.466556e-01 6.471080e-01 9.491987e-01 1.157508e+00 1.356415e+00 1.856112e+00 1.477821e+00 1.458201e+00 1.521028e+00 1.618321e+00 1.137042e+00 1.987949e-01 2.821497e-02 6.492393e-02 9.194026e-02 1.371618e-01 1.880666e-01 2.081306e-01 2.848020e-01 2.232746e-01 2.537907e-01 2.666662e-01 2.741609e-01 2.103972e-01 1.638856e-02
<GCONST> 8.959035e+01
<STATE> 4
<MEAN> 39
 -2.598636e+00 7.984835e+00 -7.437464e-01 -1.874456e+00 -4.415948e+00 -5.508722e+00 -4.515779e+00 -6.767158e+00 -5.647140e+00 -6.347122e+00 -3.424895e+00 -1.885025e+00 6.008764e+01 -6.916184e-01 -5.802895e-01 -8.330931e-02 2.422979e-01 6.132451e-01 3.982181e-01 2.706633e-01 4.770314e-01 4.225002e-01 4.431661e-01 1.391422e-01 9.043413e-02 -6.334901e-01 -1.349681e-02 -7.048102e-02 -8.929136e-02 -1.124453e-01 -7.502300e-02 2.763931e-03 7.272400e-02 3.269512e-02 4.923129e-02 6.648728e-02 5.011030e-02 4.624177e-02 5.381038e-02
<VARIANCE> 39
 1.026652e+01 2.812982e+01 1.831397e+01 2.406142e+01 2.295140e+01 2.312002e+01 2.926169e+01 3.829057e+01 2.679669e+01 2.844821e+01 2.639012e+01 3.074432e+01 3.623496e+01 3.843246e-01 6.825747e-01 7.412537e-01 1.197175e+00 1.386318e+00 1.228423e+00 1.788400e+00 1.759927e+00 1.480330e+00 1.592319e+00 1.548671e+00 1.333030e+00 3.589665e-01 5.062225e-02 1.063911e-01 1.336548e-01 1.986591e-01 2.244305e-01 2.211588e-01 2.954791e-01 3.011318e-01 2.614087e-01 2.732581e-01 2.804659e-01 2.499309e-01 4.289062e-02
<GCONST> 9.170994e+01
<TRANSP> 5
 0.000000e+00 1.000000e+00 0.000000e+00 0.000000e+00 0.000000e+00
 0.000000e+00 8.663535e-01 1.336465e-01 0.000000e+00 0.000000e+00
 0.000000e+00 0.000000e+00 8.627666e-01 1.372334e-01 0.000000e+00
 0.000000e+00 0.000000e+00 0.000000e+00 8.811975e-01 1.188026e-01
 0.000000e+00 0.000000e+00 0.000000e+00 0.000000e+00 0.000000e+00
<ENDHMM>
~h "sp"
<BEGINHMM>
<NUMSTATES> 3
<STATE> 2
~s "silst"
<TRANSP> 3
 0.000000e+00 1.485919e-01 8.514081e-01
 0.000000e+00 7.353072e-01 2.646928e-01
 0.000000e+00 0.000000e+00 0.000000e+00
<ENDHMM>
~h "uu"
<BEGINHMM>
<NUMSTATES> 5
<STATE> 2
<MEAN> 39
 -1.923099e+00 6.146153e-01 -1.541517e+00 -1.152726e-01 -9.271628e+00 -1.764571e+01 -8.845462e+00 -1.341086e+01 -1.622764e+00 -9.255715e+00 -5.677779e+00 -5.918388e-01 7.213631e+01 1.004215e-01 4.312822e-01 -4.275690e-02 -1.076701e-02 2.779673e-02 2.338901e-01 1.011800e-01 6.118094e-02 -2.412458e-01 -8.061193e-02 8.718606e-02 1.835917e-01 -4.480923e-01 -3.009562e-02 5.023181e-02 4.130817e-03 -1.985513e-03 3.639393e-02 5.186071e-02 -4.945816e-02 9.066589e-03 -8.144035e-03 2.988799e-02 8.286097e-03 -6.013547e-02 -3.971294e-02
<VARIANCE> 39
 1.434708e+01 4.461740e+01 4.820986e+01 4.733802e+01 7.269412e+01 6.157489e+01 6.033351e+01 6.495901e+01 8.427483e+01 7.970705e+01 3.298672e+01 6.574377e+01 1.697206e+01 1.631143e-01 4.170497e-01 3.469568e-01 7.146798e-01 7.639098e-01 9.025785e-01 1.244141e+00 1.241040e+00 1.067076e+00 1.201362e+00 1.248997e+00 1.226277e+00 1.896316e-01 3.082740e-02 6.473379e-02 6.736466e-02 1.201054e-01 1.115589e-01 1.526620e-01 1.905773e-01 1.984048e-01 1.778631e-01 2.112896e-01 2.135946e-01 1.631211e-01 2.108760e-02
<GCONST> 8.799108e+01
<STATE> 3
<MEAN> 39
 1.969044e+00 5.287250e+00 5.475476e-03 -1.023217e+00 -7.451087e+00 -1.358659e+01 -1.167117e+01 -1.209788e+01 -6.921061e+00 -6.733204e+00 -2.192046e+00 -3.426084e+00 6.671501e+01 -2.548379e-02 2.086181e-01 -3.536892e-02 2.657756e-02 2.292774e-01 2.631553e-01 -8.682331e-02 -2.562840e-02 -6.507361e-02 2.567248e-02 -3.724823e-02 -5.144728e-02 -3.271652e-01 -3.794581e-02 -1.306378e-02 2.576832e-02 4.345152e-04 8.816456e-04 9.934824e-03 3.226921e-02 2.489970e-02 2.454007e-02 -1.535686e-02 -2.778203e-02 7.735055e-03 -2.688789e-03
<VARIANCE> 39
 5.413185e+00 2.077578e+01 2.128642e+01 3.781526e+01 2.834774e+01 4.928418e+01 7.197673e+01 3.764685e+01 4.078135e+01 4.217291e+01 2.394493e+01 2.757624e+01 1.767951e+01 7.469490e-02 1.794761e-01 2.496496e-01 3.176934e-01 5.166555e-01 5.772547e-01 7.229500e-01 6.337117e-01 7.128342e-01 6.708511e-01 5.762674e-01 7.374910e-01 5.743699e-02 1.093680e-02 3.232181e-02 4.090964e-02 5.505381e-02 9.319836e-02 9.843650e-02 1.317270e-01 1.164749e-01 1.447425e-01 1.163234e-01 8.769623e-02 1.330035e-01 8.326369e-03
<GCONST> 6.552946e+01
<STATE> 4
<MEAN> 39
 -2.349690e+00 8.649459e+00 1.762080e+00 8.181952e-01 -5.051697e+00 -8.298978e+00 -6.647197e+00 -1.232006e+01 -7.469000e+00 -7.831110e+00 -4.724946e+00 -2.027506e+00 6.000944e+01 -6.166852e-01 -2.111404e-01 -3.796650e-02 1.454946e-01 6.995645e-01 6.448148e-01 3.303812e-01 7.288690e-01 3.047602e-01 1.510127e-01 1.397579e-01 -2.916474e-04 -7.564449e-01 -7.102299e-02 -1.240239e-01 -8.141635e-02 -1.726495e-02 9.318154e-02 5.237552e-02 8.708461e-02 7.083531e-02 1.287957e-01 1.197128e-01 7.327644e-02 4.098095e-02 5.988359e-03
<VARIANCE> 39
 1.258447e+01 1.831228e+01 1.425093e+01 3.860216e+01 5.707591e+01 4.114077e+01 5.186644e+01 6.761928e+01 5.753874e+01 3.786153e+01 2.894716e+01 2.809175e+01 2.792211e+01 3.377948e-01 6.420558e-01 7.026905e-01 1.119579e+00 1.340870e+00 1.333502e+00 2.078637e+00 1.684168e+00 1.928860e+00 1.607157e+00 1.399700e+00 1.055255e+00 1.817951e-01 5.792734e-02 7.900024e-02 1.109860e-01 1.621179e-01 1.617348e-01 2.309828e-01 3.387554e-01 2.863436e-01 3.169468e-01 2.540614e-01 2.276678e-01 1.828371e-01 2.881804e-02
<GCONST> 9.268057e+01
<TRANSP> 5
 0.000000e+00 1.000000e+00 0.000000e+00 0.000000e+00 0.000000e+00
 0.000000e+00 9.005798e-01 9.942030e-02 0.000000e+00 0.000000e+00
 0.000000e+00 0.000000e+00 9.089507e-01 9.104928e-02 0.000000e+00
 0.000000e+00 0.000000e+00 0.000000e+00 8.885584e-01 1.114416e-01
 0.000000e+00 0.000000e+00 0.000000e+00 0.000000e+00 0.000000e+00
<ENDHMM>
~h "sil"
<BEGINHMM>
<NUMSTATES> 5
<STATE> 2
<MEAN> 39
 -8.710379e+00 1.613503e-01 -3.846750e+00 -2.156594e+00 -1.917524e+00 -2.379127e+00 -7.747054e-01 -7.885007e-01 3.823720e-01 -1.004544e+00 -1.417647e-02 -1.606219e-01 5.706042e+01 -1.125007e-01 -1.296368e-01 -1.214551e-01 -6.783152e-02 1.024201e-01 1.748111e-01 1.152777e-01 1.613408e-01 1.401315e-01 1.069034e-01 7.820783e-02 6.619615e-02 -4.417294e-02 2.877853e-02 3.554251e-03 9.814415e-03 -2.752729e-02 -6.413888e-02 -5.342674e-02 -7.380144e-03 -4.771440e-02 -5.469915e-02 -5.529297e-02 -3.433765e-02 -3.532576e-02 7.316544e-02
<VARIANCE> 39
 1.032969e+01 1.222310e+01 1.571310e+01 1.259604e+01 1.565815e+01 2.162207e+01 2.247384e+01 1.975203e+01 1.740880e+01 1.708154e+01 1.492178e+01 1.356103e+01 2.230170e+01 2.338180e-01 5.071005e-01 5.967401e-01 7.421722e-01 1.006160e+00 1.231560e+00 1.267951e+00 1.340176e+00 1.386887e+00 1.343323e+00 1.265410e+00 1.235639e+00 4.162682e-01 3.599048e-02 6.545967e-02 9.264971e-02 1.184302e-01 1.615695e-01 2.002833e-01 2.242289e-01 2.247391e-01 2.415714e-01 2.342325e-01 2.249357e-01 2.166481e-01 4.021523e-02
<GCONST> 7.973521e+01
<STATE> 3
~s "silst"
<STATE> 4
<MEAN> 39
 -9.109015e+00 -2.374856e+00 -4.266792e+00 -4.552249e+00 -3.245220e+00 -2.221913e+00 1.341643e+00 -3.404523e-01 -3.972996e-02 -1.921339e+00 -8.434773e-01 -7.037788e-01 6.057703e+01 9.505916e-02 -3.575777e-02 3.171030e-02 -2.107969e-01 -1.090452e-01 -1.278076e-02 8.822346e-02 -8.190028e-02 -1.772777e-01 -1.535354e-01 -1.207446e-01 -8.248746e-02 3.758496e-01 1.309183e-01 1.578932e-01 9.391199e-02 6.127268e-02 -4.238480e-02 -7.356194e-02 -8.886471e-02 -1.072630e-01 -1.022216e-01 -7.982475e-02 -3.194714e-02 -3.058385e-02 5.457898e-02
<VARIANCE> 39
 1.782466e+01 2.618551e+01 3.448996e+01 3.341616e+01 2.901167e+01 3.669169e+01 3.114768e+01 3.536255e+01 2.426396e+01 2.733263e+01 2.136544e+01 2.132107e+01 4.077963e+01 9.095228e-01 1.262919e+00 1.147122e+00 1.527834e+00 1.456370e+00 1.818275e+00 1.858438e+00 1.990064e+00 2.074927e+00 1.959237e+00 1.774192e+00 1.489965e+00 1.552323e+00 1.304270e-01 1.591528e-01 1.597118e-01 2.217877e-01 2.289496e-01 2.594614e-01 2.923567e-01 3.024051e-01 3.078714e-01 2.940289e-01 2.786768e-01 2.409497e-01 1.287227e-01
<GCONST> 1.013523e+02
<TRANSP> 5
 0.000000e+00 1.000000e+00 0.000000e+00 0.000000e+00 0.000000e+00
 0.000000e+00 8.060662e-01 3.664633e-02 1.572874e-01 0.000000e+00
 0.000000e+00 0.000000e+00 7.788907e-01 2.211093e-01 0.000000e+00
 0.000000e+00 4.721259e-02 0.000000e+00 5.841275e-01 3.686600e-01
 0.000000e+00 0.000000e+00 0.000000e+00 0.000000e+00 0.000000e+00
<ENDHMM>
