~o
<STREAMINFO> 1 39
<VECSIZE> 39<NULLD><MFCC_D_A_0><DIAGC>
~s "silst"
<MEAN> 39
 -7.568732e+00 -1.455784e+00 -5.274014e+00 -5.402377e+00 -6.068784e+00 -5.510616e+00 -2.347875e+00 -3.333889e+00 -6.055463e-01 -1.374526e+00 9.433144e-01 -1.167567e+00 6.457427e+01 1.390075e-02 -2.255795e-01 -1.503118e-01 -4.628499e-01 -5.839886e-02 8.332520e-02 7.498097e-02 -1.428784e-01 1.701687e-02 -4.436000e-02 9.707938e-02 -6.916291e-02 6.721724e-01 1.411369e-01 1.661328e-01 1.404083e-01 1.457952e-01 -9.208683e-03 3.537171e-02 6.264950e-02 9.311561e-03 -1.361549e-01 -1.081967e-02 -1.114465e-01 -2.738152e-02 -1.919446e-01
<VARIANCE> 39
 4.462299e+01 5.189523e+01 6.298651e+01 7.641877e+01 7.081339e+01 7.895721e+01 5.646910e+01 5.107284e+01 5.009085e+01 4.505114e+01 3.966142e+01 3.438158e+01 6.416859e+01 2.961031e+00 3.592842e+00 3.412872e+00 4.348487e+00 4.687352e+00 5.215936e+00 3.868510e+00 3.847687e+00 3.750897e+00 3.743038e+00 2.950677e+00 2.498847e+00 5.124015e+00 4.725489e-01 6.248531e-01 5.687351e-01 7.495438e-01 8.016506e-01 8.322831e-01 6.656256e-01 7.379104e-01 6.995865e-01 6.992300e-01 5.610864e-01 4.707933e-01 6.338285e-01
<GCONST> 1.351429e+02
~h "N"
<BEGINHMM>
<NUMSTATES> 5
<STATE> 2
<MEAN> 39
 1.126856e+00 4.536768e+00 -1.952265e+00 -3.029103e+00 -7.765868e+00 -9.273347e+00 -3.844720e+00 -4.845191e+00 -5.980268e+00 -4.164812e+00 -2.417351e+00 -3.663946e+00 6.538078e+01 7.937292e-02 6.024303e-01 2.028829e-02 -8.222543e-02 1.063967e-01 2.209948e-01 1.550518e-01 -8.705723e-02 -5.049502e-01 -5.922497e-02 -4.245330e-03 2.960014e-02 -3.945913e-01 -1.049684e-01 -3.926405e-01 -1.543881e-01 -2.268252e-01 -7.054469e-02 -2.565769e-03 7.975321e-02 -5.595723e-02 3.722563e-01 1.654316e-01 4.996973e-02 -6.602921e-02 3.233302e-01
<VARIANCE> 39
 7.630180e+00 3.431947e+01 2.063244e+01 3.369038e+01 3.801645e+01 3.992513e+01 4.307972e+01 3.954892e+01 3.894484e+01 4.162132e+01 4.108396e+01 3.589877e+01 2.178027e+01 2.865851e-01 8.299045e-01 8.950003e-01 1.472945e+00 1.684050e+00 2.056519e+00 1.858324e+00 1.942029e+00 2.625201e+00 2.117167e+00 1.740716e+00 1.405535e+00 3.923319e-01 5.559336e-02 1.153434e-01 1.972612e-01 2.765465e-01 3.581626e-01 4.377728e-01 3.679572e-01 4.325464e-01 4.711266e-01 4.240456e-01 3.428701e-01 2.935894e-01 5.225689e-02
<GCONST> 1.008560e+02
<STATE> 3
<MEAN> 39
 2.600417e-01 3.811018e+00 -2.835259e+00 -4.912984e+00 -7.131520e+00 -8.362405e+00 -3.228954e+00 -6.069963e+00 -4.290469e+00 -3.739573e+00 -1.851810e+00 -3.508704e+00 6.606998e+01 -2.340215e-01 -1.031695e+00 -6.585554e-01 -9.325054e-01 4.672378e-03 6.302850e-01 3.614621e-01 -2.425876e-01 1.185775e+00 6.998724e-01 -1.796397e-01 -4.524504e-01 7.732141e-01 2.964595e-02 -3.231707e-01 -1.971334e-01 -3.008008e-02 -9.028745e-02 1.191367e-01 1.688413e-01 5.620020e-02 1.644135e-01 2.023375e-01 -2.929916e-02 -2.048283e-01 1.566513e-01
<VARIANCE> 39
 9.054500e+00 3.343309e+01 2.813025e+01 4.537201e+01 5.489930e+01 6.428607e+01 5.399585e+01 5.045192e+01 5.702660e+01 5.201913e+01 4.886570e+01 4.141006e+01 2.150846e+01 4.327868e-01 1.410994e+00 2.063488e+00 2.512914e+00 2.860848e+00 3.537534e+00 2.931324e+00 3.380191e+00 4.002464e+00 3.211043e+00 3.206441e+00 2.323242e+00 5.356134e-01 6.826238e-02 1.793427e-01 2.221668e-01 3.125589e-01 4.398517e-01 4.872552e-01 5.165052e-01 5.101933e-01 5.498317e-01 4.472985e-01 4.552550e-01 3.693966e-01 8.279442e-02
<GCONST> 1.133736e+02
<STATE> 4
<MEAN> 39
 2.904466e-01 -2.264117e+00 -7.952358e+00 -8.044518e+00 -7.721450e+00 -3.765269e+00 -2.743552e-01 -5.217689e+00 -6.324456e-01 -1.352546e+00 -3.287775e+00 -6.429961e+00 6.900334e+01 -3.258621e-02 -5.664228e-01 -5.749547e-01 -2.658901e-01 2.480526e-02 4.254248e-01 4.390986e-01 1.573008e-01 2.719396e-01 3.714454e-01 -2.782682e-02 -3.489515e-01 1.945321e-01 -1.966761e-02 1.759652e-01 1.404580e-01 1.513310e-01 1.075998e-02 -1.421353e-01 -8.367942e-02 5.761564e-02 -1.702723e-01 -8.473178e-02 7.545505e-02 1.096013e-01 -1.436687e-01
<VARIANCE> 39
 9.925020e+00 4.813742e+01 3.945312e+01 5.638833e+01 5.597266e+01 7.782152e+01 7.282641e+01 6.839822e+01 6.735834e+01 6.819371e+01 8.490205e+01 4.278871e+01 2.303984e+01 2.517860e-01 1.140095e+00 1.268695e+00 1.184220e+00 1.709350e+00 1.818104e+00 2.116548e+00 2.160508e+00 2.255484e+00 1.723167e+00 2.005281e+00 1.818724e+00 4.339379e-01 4.113723e-02 1.436585e-01 1.700516e-01 2.273344e-01 2.872454e-01 3.298248e-01 3.556882e-01 3.953868e-01 4.236654e-01 3.270662e-01 3.180938e-01 2.745177e-01 4.746254e-02
<GCONST> 1.056787e+02
<TRANSP> 5
 0.000000e+00 1.000000e+00 0.000000e+00 0.000000e+00 0.000000e+00
 0.000000e+00 7.072307e-01 2.927693e-01 0.000000e+00 0.000000e+00
 0.000000e+00 0.000000e+00 5.363713e-01 4.636288e-01 0.000000e+00
 0.000000e+00 0.000000e+00 0.000000e+00 7.165363e-01 2.834637e-01
 0.000000e+00 0.000000e+00 0.000000e+00 0.000000e+00 0.000000e+00
<ENDHMM>
~h "a"
<BEGINHMM>
<NUMSTATES> 5
<STATE> 2
<MEAN> 39
 1.237532e+00 -5.440508e+00 -1.013796e+01 -1.056265e+01 -1.050777e+01 -6.719099e+00 -1.659338e+00 -5.578804e+00 -2.165989e-01 2.577547e-01 -8.349942e-01 -5.221342e+00 7.245522e+01 3.546170e-02 3.624112e-01 2.173483e-01 4.543713e-01 2.793013e-01 -9.644605e-03 -3.939505e-01 6.944980e-02 5.415474e-02 1.295213e-01 -9.272458e-02 2.266658e-02 -5.730960e-01 -1.435560e-01 3.765531e-01 3.293230e-01 2.839791e-01 1.411636e-01 -3.234251e-02 -1.269694e-01 -2.262999e-02 -1.971795e-01 -2.167280e-01 -2.567686e-02 1.576444e-01 -3.611048e-01
<VARIANCE> 39
 1.317733e+01 4.789166e+01 3.771676e+01 4.922932e+01 5.934794e+01 7.746205e+01 6.974767e+01 6.450280e+01 5.481958e+01 5.238953e+01 6.168707e+01 6.145171e+01 3.106564e+01 6.612046e-01 1.730296e+00 1.857084e+00 2.500883e+00 2.486565e+00 3.341209e+00 3.229032e+00 2.722990e+00 2.985759e+00 2.703489e+00 2.562618e+00 2.443027e+00 9.482260e-01 1.388120e-01 2.232287e-01 2.377335e-01 3.055930e-01 4.577788e-01 5.062722e-01 5.014004e-01 5.149726e-01 5.570934e-01 5.320411e-01 4.878410e-01 4.795721e-01 1.398612e-01
<GCONST> 1.184180e+02
<STATE> 3
<MEAN> 39
 8.523620e-01 -1.031535e+00 -7.935639e+00 -7.527493e+00 -8.560759e+00 -6.605272e+00 -3.275821e+00 -5.646769e+00 -1.561203e+00 2.233518e-01 -8.043913e-01 -4.115181e+00 6.798712e+01 -5.122290e-01 7.780352e-01 8.124862e-01 1.056382e+00 7.630461e-01 1.647138e-01 -4.001126e-01 2.481199e-01 -1.413477e-01 -2.000307e-01 -3.288331e-02 3.010079e-01 -1.271737e+00 -1.742425e-01 -5.406205e-02 2.863919e-02 -2.336784e-02 -1.816712e-02 5.031579e-02 1.422957e-01 6.179978e-02 -1.514503e-02 -1.179121e-01 6.728157e-03 9.269418e-02 -4.425409e-02
<VARIANCE> 39
 1.418394e+01 3.719784e+01 3.659112e+01 4.802554e+01 5.404684e+01 6.386186e+01 6.020568e+01 5.411355e+01 4.680994e+01 4.687722e+01 5.415167e+01 5.077247e+01 2.668143e+01 8.200157e-01 1.594096e+00 1.888433e+00 2.192452e+00 2.461429e+00 2.718473e+00 2.874763e+00 2.848550e+00 2.888282e+00 2.813605e+00 2.523978e+00 2.292078e+00 1.168164e+00 1.046734e-01 2.172813e-01 2.607831e-01 3.364863e-01 4.063549e-01 4.453985e-01 5.016362e-01 4.414373e-01 4.877076e-01 4.474009e-01 4.104191e-01 3.834060e-01 1.750920e-01
<GCONST> 1.156997e+02
<STATE> 4
<MEAN> 39
 -2.002220e+00 2.415103e-01 -6.378912e+00 -5.541485e+00 -6.774170e+00 -5.138325e+00 -2.945875e+00 -3.782941e+00 -1.299067e+00 2.194978e-01 2.294466e-01 -2.155105e+00 6.397677e+01 -7.376052e-01 2.015077e-01 4.094091e-01 5.144023e-01 3.290803e-01 8.534463e-02 -5.197755e-02 2.144547e-01 -5.407159e-02 -2.147664e-01 1.964690e-02 3.408908e-01 -8.311117e-01 -2.387811e-02 -1.843925e-01 -1.012776e-01 -2.187815e-01 -1.828620e-01 -9.813514e-02 1.119481e-01 -9.168106e-02 -4.912382e-03 -5.211575e-02 -4.262132e-03 -3.753462e-02 3.338800e-01
<VARIANCE> 39
 2.241571e+01 3.593847e+01 3.465094e+01 4.328278e+01 4.419373e+01 5.558281e+01 4.958216e+01 4.553188e+01 4.046748e+01 4.123033e+01 4.181052e+01 4.072916e+01 4.169764e+01 9.338725e-01 1.342384e+00 1.733660e+00 1.833144e+00 2.292900e+00 2.541556e+00 2.674607e+00 2.539583e+00 2.579384e+00 2.548818e+00 2.247431e+00 1.988084e+00 1.322424e+00 1.710528e-01 2.745161e-01 3.204155e-01 3.932108e-01 5.040146e-01 4.993062e-01 5.595809e-01 4.911583e-01 5.017696e-01 4.757284e-01 4.335751e-01 4.111505e-01 2.835534e-01
<GCONST> 1.163022e+02
<TRANSP> 5
 0.000000e+00 1.000000e+00 0.000000e+00 0.000000e+00 0.000000e+00
 0.000000e+00 5.487536e-01 4.512464e-01 0.000000e+00 0.000000e+00
 0.000000e+00 0.000000e+00 3.404923e-01 6.595078e-01 0.000000e+00
 0.000000e+00 0.000000e+00 0.000000e+00 3.919478e-01 6.080522e-01
 0.000000e+00 0.000000e+00 0.000000e+00 0.000000e+00 0.000000e+00
<ENDHMM>
~h "e"
<BEGINHMM>
<NUMSTATES> 5
<STATE> 2
<MEAN> 39
 -1.439380e+00 -1.331022e+00 -1.263849e+00 9.097009e-01 -1.283176e+01 -1.528603e+01 -6.934336e+00 -5.220754e+00 -2.683435e+00 -2.583801e+00 6.938887e-01 -7.529461e-01 6.847632e+01 -1.331429e-01 2.348924e-01 4.062216e-01 4.632057e-01 3.239290e-01 1.158195e-01 7.086930e-02 1.422483e-01 4.438780e-03 -2.689858e-02 -1.203778e-02 2.555316e-01 -5.386701e-01 -1.631699e-01 6.471394e-02 -1.230369e-01 -1.424423e-01 4.571387e-01 3.743804e-01 6.049484e-02 -5.473905e-02 2.110356e-02 8.226255e-02 -6.369842e-02 -5.994211e-02 -2.485439e-01
<VARIANCE> 39
 2.267107e+01 3.234600e+01 5.127042e+01 4.427987e+01 8.059505e+01 6.670803e+01 4.755269e+01 5.013372e+01 4.867246e+01 4.495415e+01 3.555154e+01 3.603995e+01 2.880156e+01 7.880797e-01 1.190988e+00 1.609657e+00 1.577066e+00 2.718442e+00 3.152872e+00 2.232434e+00 2.259233e+00 2.546803e+00 2.774460e+00 2.238808e+00 1.956762e+00 2.060309e+00 1.790161e-01 2.542347e-01 3.015114e-01 3.644742e-01 4.972937e-01 5.158891e-01 4.384162e-01 4.299515e-01 5.093113e-01 4.646157e-01 3.667491e-01 3.687372e-01 2.025695e-01
<GCONST> 1.159998e+02
<STATE> 3
<MEAN> 39
 -1.222808e+00 -2.064918e+00 -9.492695e-01 1.928579e+00 -1.337298e+01 -1.599586e+01 -7.663546e+00 -5.713669e+00 -1.756769e+00 -2.349456e+00 3.046244e-04 -3.558249e-01 6.868259e+01 -1.038776e-01 6.323397e-01 1.079817e-01 2.504162e-01 1.078049e+00 7.923796e-01 7.278997e-02 -1.237404e-01 -3.363028e-01 -1.665545e-02 -1.289704e-01 -1.159365e-01 -9.779116e-01 -5.761211e-02 1.268917e-01 -8.920472e-02 -1.582450e-01 2.914141e-01 3.120170e-01 3.812456e-02 -2.289664e-02 -9.881273e-02 -4.277495e-02 -1.896482e-02 -1.166361e-01 -1.557758e-01
<VARIANCE> 39
 1.872390e+01 3.413695e+01 6.039357e+01 4.250684e+01 8.959304e+01 6.262251e+01 4.946791e+01 4.917604e+01 4.654008e+01 4.162809e+01 4.160512e+01 3.731896e+01 2.930124e+01 6.755157e-01 1.157592e+00 1.426775e+00 1.536182e+00 2.576616e+00 2.594468e+00 2.064691e+00 2.030844e+00 2.258983e+00 2.399237e+00 2.145861e+00 1.821926e+00 1.090715e+00 9.696501e-02 2.369369e-01 2.839717e-01 3.015561e-01 3.822882e-01 4.438154e-01 4.257175e-01 4.278720e-01 4.783727e-01 4.368772e-01 3.766269e-01 3.297626e-01 2.060989e-01
<GCONST> 1.127853e+02
<STATE> 4
<MEAN> 39
 -3.314733e+00 1.344296e+00 -5.876036e-01 1.703226e+00 -8.800167e+00 -1.247945e+01 -5.326312e+00 -4.631608e+00 -3.430138e+00 -2.381262e+00 9.100285e-02 -6.169580e-01 6.352485e+01 -3.443938e-01 3.635843e-01 -2.133926e-01 -2.043122e-01 1.060897e+00 1.014238e+00 1.801675e-01 3.190308e-02 -1.059768e-01 -1.349323e-02 -1.136134e-01 -8.149670e-02 -8.356911e-01 1.788128e-02 -1.724843e-01 -2.063107e-01 -1.975899e-01 -1.017460e-01 -2.709825e-02 1.941978e-02 1.363252e-02 1.116352e-01 -9.916419e-03 -1.709872e-02 -2.424202e-02 2.798226e-01
<VARIANCE> 39
 2.328577e+01 2.176021e+01 3.079369e+01 3.320066e+01 6.227887e+01 5.607431e+01 4.195150e+01 4.465507e+01 3.855806e+01 3.376862e+01 3.745836e+01 3.056799e+01 3.314651e+01 6.118577e-01 1.138264e+00 1.463157e+00 1.265901e+00 2.128388e+00 2.106640e+00 2.066080e+00 1.978413e+00 2.497356e+00 2.385934e+00 1.872205e+00 1.810879e+00 7.892823e-01 8.858280e-02 1.659769e-01 2.446486e-01 2.565480e-01 3.957197e-01 3.833601e-01 3.325972e-01 3.545627e-01 3.721729e-01 3.603863e-01 3.381836e-01 3.160194e-01 2.246083e-01
<GCONST> 1.074266e+02
<TRANSP> 5
 0.000000e+00 1.000000e+00 0.000000e+00 0.000000e+00 0.000000e+00
 0.000000e+00 1.926793e-01 8.073207e-01 0.000000e+00 0.000000e+00
 0.000000e+00 0.000000e+00 4.266045e-01 5.733955e-01 0.000000e+00
 0.000000e+00 0.000000e+00 0.000000e+00 5.955569e-01 4.044431e-01
 0.000000e+00 0.000000e+00 0.000000e+00 0.000000e+00 0.000000e+00
<ENDHMM>
~h "f"
<BEGINHMM>
<NUMSTATES> 5
<STATE> 2
<MEAN> 39
 -1.395124e+01 -1.643279e+00 -9.782465e+00 -3.275263e+00 -4.868371e+00 -3.299884e+00 1.487610e-01 -1.942219e+00 6.472688e-01 -1.437715e+00 2.363276e-01 -9.502681e-01 6.551129e+01 3.011706e+00 6.989159e-02 -2.775327e-01 -1.883334e+00 -1.109096e+00 3.183575e-02 6.011218e-01 -7.862297e-02 -9.202983e-01 -3.174186e-01 -4.001928e-01 -3.196432e-01 5.388061e-01 7.628813e-01 6.041139e-03 -1.370152e-01 -4.209557e-01 -4.258045e-01 -1.526095e-02 1.090816e-01 -1.067916e-01 -2.850016e-01 2.844266e-02 4.315796e-02 -8.489499e-02 2.807483e-01
<VARIANCE> 39
 4.879982e+01 2.584355e+01 2.760136e+01 3.530629e+01 3.528258e+01 3.235934e+01 3.397818e+01 2.577079e+01 2.756995e+01 2.254861e+01 2.019215e+01 2.087661e+01 2.261584e+01 5.657684e+00 2.338158e+00 2.278361e+00 3.199864e+00 3.595416e+00 2.744484e+00 2.768797e+00 3.005887e+00 2.870292e+00 2.518145e+00 2.006614e+00 2.159582e+00 1.353827e+00 8.187677e-01 4.943220e-01 3.485072e-01 4.697683e-01 5.000593e-01 4.628212e-01 4.876379e-01 4.815234e-01 4.512482e-01 4.570764e-01 3.788317e-01 3.574986e-01 2.486074e-01
<GCONST> 1.172372e+02
<STATE> 3
<MEAN> 39
 8.836663e-01 -7.759660e-01 -1.204309e+01 -1.296950e+01 -1.228775e+01 -4.042771e+00 2.784833e+00 -3.127680e+00 -4.702531e+00 -2.588463e+00 -6.718160e-01 -1.464019e+00 6.955196e+01 2.786562e+00 -1.411408e+00 -1.134437e+00 -2.024141e+00 -1.487273e+00 8.454899e-02 7.528273e-01 -3.292758e-01 -9.612933e-01 2.691450e-01 2.542162e-01 -4.528414e-01 1.777913e+00 -1.265326e+00 -5.503782e-01 1.573858e-01 8.854002e-01 7.915146e-01 1.674690e-01 -2.451476e-01 8.198883e-02 5.283117e-01 3.375594e-01 1.369384e-01 -1.077802e-01 -1.144795e-01
<VARIANCE> 39
 3.614141e+01 2.777115e+01 4.196601e+01 5.177549e+01 3.751520e+01 5.212574e+01 4.169469e+01 4.783997e+01 2.697105e+01 3.322477e+01 3.257693e+01 4.505744e+01 2.575657e+01 3.814016e+00 2.563853e+00 2.709888e+00 2.962640e+00 3.743907e+00 3.248694e+00 3.283730e+00 3.662672e+00 2.920308e+00 2.986578e+00 2.398674e+00 2.422709e+00 1.231247e+00 5.161422e-01 3.847942e-01 3.138900e-01 4.499355e-01 5.025059e-01 5.956277e-01 4.651761e-01 5.231834e-01 4.785847e-01 4.075764e-01 3.966579e-01 4.336253e-01 1.567496e-01
<GCONST> 1.208287e+02
<STATE> 4
<MEAN> 39
 8.421842e-01 -6.631410e+00 -1.310238e+01 -1.365550e+01 -1.094128e+01 -1.794563e+00 4.246716e+00 -2.922730e+00 -4.972114e+00 -8.235727e-01 -3.641080e-01 -3.756896e+00 7.280399e+01 1.555020e-01 -1.445709e+00 -9.999630e-02 1.770598e-01 5.547340e-01 5.155354e-01 2.385028e-02 -3.174556e-01 1.397229e-01 7.363942e-01 -1.323648e-01 -6.741511e-01 6.399688e-01 -6.516085e-01 3.315692e-01 3.801514e-01 7.182778e-01 5.016453e-01 -4.350618e-02 -3.721555e-01 -3.413248e-02 3.436514e-01 1.892378e-02 -1.579269e-01 6.253792e-02 -5.458701e-01
<VARIANCE> 39
 3.292478e+01 3.824655e+01 4.237262e+01 4.898090e+01 4.147443e+01 6.011893e+01 4.795130e+01 5.587964e+01 3.508812e+01 4.161354e+01 3.988132e+01 4.393393e+01 3.433987e+01 1.511493e+00 1.804736e+00 1.280085e+00 1.632989e+00 2.104488e+00 2.983824e+00 2.544851e+00 2.314876e+00 2.695563e+00 2.453080e+00 2.098458e+00 1.888908e+00 9.543030e-01 5.722126e-01 3.046819e-01 2.914433e-01 4.189748e-01 6.219268e-01 4.700977e-01 4.981071e-01 5.796189e-01 4.066443e-01 4.819525e-01 4.023114e-01 3.762968e-01 1.478226e-01
<GCONST> 1.172793e+02
<TRANSP> 5
 0.000000e+00 1.000000e+00 0.000000e+00 0.000000e+00 0.000000e+00
 0.000000e+00 7.474125e-01 2.525875e-01 0.000000e+00 0.000000e+00
 0.000000e+00 0.000000e+00 3.603840e-01 6.396160e-01 0.000000e+00
 0.000000e+00 0.000000e+00 0.000000e+00 4.537737e-01 5.462263e-01
 0.000000e+00 0.000000e+00 0.000000e+00 0.000000e+00 0.000000e+00
<ENDHMM>
~h "h"
<BEGINHMM>
<NUMSTATES> 5
<STATE> 2
<MEAN> 39
 -6.197258e+00 -1.992055e+00 -4.768051e+00 -7.395878e+00 -4.528638e+00 -2.556664e+00 4.432815e+00 -5.700848e-01 -6.868140e-01 -1.228599e+00 -1.946771e+00 -2.971737e+00 6.675062e+01 6.111625e-01 8.303424e-01 5.733469e-01 -1.109444e-01 -7.881531e-01 -7.608748e-01 -1.731945e-01 -4.847691e-01 -7.181829e-01 -4.641415e-01 -2.946398e-01 -2.750177e-01 3.534079e-01 3.824101e-01 2.216558e-01 -1.849792e-02 -1.665673e-01 -4.574504e-01 -3.412225e-01 -2.900227e-01 -2.986917e-01 -2.050790e-01 -6.621413e-02 1.708809e-02 2.346629e-03 1.485687e-01
<VARIANCE> 39
 2.216337e+01 5.983955e+01 5.456211e+01 6.789909e+01 5.873193e+01 6.557959e+01 4.273372e+01 4.690269e+01 4.160283e+01 3.611773e+01 3.755892e+01 3.514404e+01 3.891773e+01 1.990261e+00 2.074489e+00 2.133554e+00 2.225670e+00 2.712144e+00 2.923098e+00 2.638994e+00 2.844514e+00 2.652338e+00 2.236571e+00 2.453449e+00 2.228143e+00 9.388761e-01 1.620114e-01 2.928367e-01 2.658626e-01 3.547146e-01 3.740835e-01 4.313905e-01 4.251990e-01 4.833693e-01 4.573797e-01 4.018297e-01 4.166168e-01 3.998441e-01 9.817686e-02
<GCONST> 1.169609e+02
<STATE> 3
<MEAN> 39
 -5.243439e-01 1.296389e+00 -4.025021e+00 -9.762320e+00 -1.108447e+01 -8.734357e+00 8.038164e-01 -4.003044e+00 -3.722412e+00 -2.851740e+00 -4.034694e+00 -4.571519e+00 7.055925e+01 9.312814e-01 7.421033e-02 3.874712e-03 -7.861093e-01 -1.746652e+00 -1.045916e+00 -6.702758e-01 -7.583158e-01 -5.636001e-01 -1.910024e-01 4.127551e-01 2.675536e-01 8.680780e-01 -3.249979e-01 -3.498923e-01 -1.311717e-01 7.701812e-02 2.269758e-01 3.222518e-01 7.620203e-02 2.817610e-02 1.728774e-01 1.777780e-01 3.153301e-01 1.835794e-01 -1.411819e-01
<VARIANCE> 39
 2.072478e+01 6.594720e+01 6.982912e+01 7.543474e+01 7.458238e+01 7.185104e+01 5.177242e+01 5.110199e+01 4.747830e+01 4.441251e+01 4.097313e+01 3.972411e+01 4.446555e+01 1.642311e+00 2.258294e+00 2.290405e+00 2.702688e+00 3.308861e+00 3.447570e+00 3.256936e+00 3.062364e+00 3.060139e+00 2.241510e+00 2.424334e+00 2.133440e+00 1.536346e+00 2.414245e-01 3.957650e-01 2.630522e-01 3.826072e-01 4.933091e-01 4.791175e-01 5.155755e-01 5.126578e-01 4.851307e-01 4.205529e-01 4.211322e-01 3.572710e-01 1.555133e-01
<GCONST> 1.218816e+02
<STATE> 4
<MEAN> 39
 -3.818731e-01 1.114162e+00 -3.081772e+00 -9.682532e+00 -1.370803e+01 -9.504048e+00 5.870613e-01 -5.836849e+00 -5.345691e+00 -3.050758e+00 -7.003142e-01 -3.165154e+00 7.091346e+01 8.862686e-02 -1.213063e-01 1.009239e-01 2.418277e-02 -4.831116e-01 -1.800908e-01 -4.001604e-01 -6.494457e-01 -4.117813e-01 9.542720e-02 7.416973e-01 2.414059e-01 1.146625e-01 -1.030731e-01 -2.157976e-02 8.320318e-03 2.350621e-01 2.823808e-01 5.912722e-02 -6.536898e-02 4.033070e-02 1.320410e-01 6.070980e-02 -7.483327e-02 -1.236193e-01 -1.168087e-01
<VARIANCE> 39
 2.195578e+01 4.809875e+01 8.212682e+01 9.030752e+01 7.283304e+01 7.137075e+01 6.208300e+01 6.423775e+01 5.131438e+01 4.900726e+01 4.337071e+01 4.185162e+01 3.254489e+01 3.815150e-01 1.314812e+00 1.435866e+00 1.388192e+00 2.471053e+00 1.880849e+00 1.935936e+00 2.268051e+00 2.099590e+00 1.885866e+00 2.274641e+00 1.637057e+00 4.415896e-01 9.041567e-02 1.633549e-01 1.878557e-01 2.648959e-01 3.253033e-01 3.759582e-01 4.022764e-01 3.669972e-01 3.745128e-01 3.337400e-01 3.577658e-01 3.312887e-01 8.062188e-02
<GCONST> 1.101437e+02
<TRANSP> 5
 0.000000e+00 1.000000e+00 0.000000e+00 0.000000e+00 0.000000e+00
 0.000000e+00 6.572561e-01 3.427439e-01 0.000000e+00 0.000000e+00
 0.000000e+00 0.000000e+00 4.671200e-01 5.328801e-01 0.000000e+00
 0.000000e+00 0.000000e+00 0.000000e+00 5.493270e-01 4.506730e-01
 0.000000e+00 0.000000e+00 0.000000e+00 0.000000e+00 0.000000e+00
<ENDHMM>
~h "i"
<BEGINHMM>
<NUMSTATES> 5
<STATE> 2
<MEAN> 39
 -7.448941e+00 8.723896e-01 4.283340e+00 4.825124e-01 -9.414858e+00 -1.100667e+01 -2.067985e+00 -6.222680e+00 -3.112060e+00 -4.628206e+00 3.762718e-01 -2.041101e+00 6.707455e+01 3.454164e-02 6.588300e-01 1.059255e+00 6.123803e-01 -1.437789e-01 -3.706807e-01 2.117186e-01 -1.100896e-01 -5.790332e-01 -5.922139e-01 -2.345584e-03 -1.524462e-02 -2.172388e-01 2.140693e-01 8.542692e-02 -1.484177e-01 4.374341e-02 4.311415e-02 -1.734281e-02 -1.102402e-01 2.006908e-02 -8.621965e-02 -4.144136e-02 -1.203937e-01 -3.285679e-02 -6.207414e-02
<VARIANCE> 39
 4.596603e+01 3.425950e+01 4.104996e+01 5.015389e+01 7.544532e+01 7.474552e+01 5.353651e+01 4.737860e+01 5.314632e+01 4.098640e+01 3.140036e+01 3.058121e+01 2.909859e+01 2.009752e+00 1.986073e+00 2.280439e+00 2.217434e+00 3.274605e+00 3.666557e+00 2.665858e+00 2.990857e+00 2.865376e+00 2.492327e+00 2.161484e+00 1.981508e+00 1.208603e+00 3.536888e-01 2.789786e-01 3.593958e-01 3.983809e-01 6.878564e-01 7.753453e-01 5.369773e-01 4.950640e-01 5.490105e-01 5.171544e-01 4.251499e-01 3.805221e-01 2.001444e-01
<GCONST> 1.213432e+02
<STATE> 3
<MEAN> 39
 -4.521071e+00 2.942418e+00 7.069708e+00 2.547650e+00 -1.274513e+01 -1.393886e+01 -3.222505e+00 -7.888457e+00 -6.390327e+00 -7.373734e+00 -2.393930e-01 -2.851562e+00 6.764260e+01 3.822078e-01 4.452936e-01 3.704343e-01 4.691602e-01 -4.809629e-01 -6.372198e-01 -5.544022e-03 1.131132e-03 -6.029700e-01 -6.054509e-01 -1.681306e-02 1.827879e-01 -1.438169e-01 -7.640589e-02 -1.905788e-01 -5.077212e-01 -2.031577e-01 3.216221e-01 2.788081e-01 -8.167687e-02 1.831157e-01 2.971854e-01 2.867386e-01 -3.368108e-02 4.499625e-02 -1.082982e-01
<VARIANCE> 39
 1.848058e+01 3.219431e+01 4.461846e+01 5.171761e+01 7.804129e+01 5.813072e+01 4.739898e+01 4.937462e+01 5.058476e+01 3.664987e+01 3.283071e+01 3.400859e+01 2.445667e+01 1.707695e+00 1.598322e+00 2.162837e+00 1.739921e+00 3.764905e+00 4.259518e+00 2.710578e+00 3.187453e+00 2.873277e+00 2.527580e+00 2.280360e+00 1.879354e+00 1.375882e+00 1.901411e-01 2.471678e-01 2.796044e-01 3.243948e-01 5.483952e-01 5.683299e-01 4.859249e-01 4.974228e-01 4.915385e-01 4.394190e-01 4.305992e-01 3.608856e-01 1.375960e-01
<GCONST> 1.173239e+02
<STATE> 4
<MEAN> 39
 -3.935783e+00 3.635602e+00 5.932044e+00 3.929985e+00 -1.127024e+01 -1.505585e+01 -3.737067e+00 -7.388402e+00 -6.495509e+00 -7.787240e+00 -5.937547e-01 -1.748812e+00 6.664011e+01 7.488915e-02 1.136403e-01 -7.621798e-01 -2.100207e-01 7.570588e-01 7.031956e-01 -2.562226e-01 2.602733e-01 2.496815e-01 3.750977e-01 -4.647342e-02 3.288630e-02 -5.680717e-01 -3.260420e-02 -6.281006e-02 -1.935700e-01 -1.903466e-01 1.262661e-01 2.632990e-01 1.558461e-02 -3.396045e-03 8.488402e-02 1.542458e-01 -5.133261e-03 -4.287290e-02 -2.905878e-02
<VARIANCE> 39
 1.771632e+01 3.103600e+01 4.008317e+01 4.439849e+01 7.371314e+01 5.830178e+01 5.192050e+01 4.994849e+01 5.284067e+01 3.711000e+01 3.491151e+01 3.199919e+01 2.833249e+01 7.113953e-01 1.031613e+00 1.844015e+00 1.428018e+00 2.315969e+00 3.127814e+00 2.197238e+00 2.414731e+00 2.618872e+00 2.187609e+00 1.775182e+00 1.509716e+00 7.992269e-01 9.400839e-02 1.679545e-01 2.414242e-01 2.546165e-01 3.984527e-01 5.136474e-01 4.195702e-01 4.382410e-01 4.353762e-01 3.900238e-01 3.428714e-01 2.943008e-01 1.248606e-01
<GCONST> 1.100915e+02
<TRANSP> 5
 0.000000e+00 1.000000e+00 0.000000e+00 0.000000e+00 0.000000e+00
 0.000000e+00 3.767658e-01 6.232342e-01 0.000000e+00 0.000000e+00
 0.000000e+00 0.000000e+00 3.524918e-01 6.475083e-01 0.000000e+00
 0.000000e+00 0.000000e+00 0.000000e+00 7.147225e-01 2.852775e-01
 0.000000e+00 0.000000e+00 0.000000e+00 0.000000e+00 0.000000e+00
<ENDHMM>
~h "k"
<BEGINHMM>
<NUMSTATES> 5
<STATE> 2
<MEAN> 39
 -8.414286e+00 -1.683992e+00 -6.359036e+00 -6.639792e+00 -3.636554e+00 -4.495318e+00 -3.456144e+00 -4.619872e+00 -9.373128e-03 -2.177223e+00 8.575407e-01 -1.458409e+00 6.552946e+01 1.195166e+00 1.823356e-01 4.260533e-01 -2.463585e-01 -8.151144e-01 -7.150871e-01 -2.529061e-01 -6.186008e-01 -4.924216e-01 -1.839259e-01 -3.942231e-01 -7.270134e-01 1.113627e+00 3.729765e-01 6.973191e-02 8.278950e-02 -4.530626e-02 -4.839333e-01 -3.074017e-01 8.372536e-03 -2.569852e-02 -1.344329e-01 8.296281e-03 6.522801e-03 -3.175804e-02 1.431429e-01
<VARIANCE> 39
 3.397752e+01 5.363162e+01 6.527214e+01 6.358654e+01 6.181594e+01 6.246938e+01 5.575536e+01 4.653848e+01 4.908478e+01 4.307646e+01 3.951174e+01 3.392049e+01 4.404508e+01 4.831225e+00 4.634899e+00 5.014466e+00 4.822365e+00 5.781587e+00 5.430372e+00 4.888972e+00 4.852726e+00 4.707812e+00 4.002926e+00 3.690334e+00 2.972181e+00 2.264664e+00 5.594207e-01 7.874659e-01 7.865348e-01 7.235541e-01 7.963693e-01 7.818195e-01 8.080779e-01 8.013507e-01 7.753960e-01 6.644987e-01 6.446032e-01 5.292401e-01 4.904483e-01
<GCONST> 1.365918e+02
<STATE> 3
<MEAN> 39
 -9.035494e-01 -1.247452e+00 -5.368896e+00 -9.024241e+00 -1.042949e+01 -9.467897e+00 -4.193481e+00 -6.350269e+00 -2.670352e+00 -2.262290e+00 1.149626e-01 -4.264300e+00 7.110152e+01 1.249424e+00 -5.393214e-01 -1.505775e-01 -6.081042e-01 -1.859457e+00 -7.692101e-01 4.821406e-01 5.315274e-02 -3.300753e-01 3.417298e-01 1.553204e-01 -2.005045e-01 9.936252e-01 -6.383343e-01 -2.546137e-01 -1.912176e-01 1.337172e-01 4.780847e-01 4.350117e-01 1.761514e-01 1.378898e-01 2.410174e-01 1.006574e-01 1.712905e-01 2.472770e-01 -2.863049e-01
<VARIANCE> 39
 2.846031e+01 5.938111e+01 6.609538e+01 5.800103e+01 6.472557e+01 7.881020e+01 5.627606e+01 5.247254e+01 5.299893e+01 5.107737e+01 5.019057e+01 4.245137e+01 3.824658e+01 2.552803e+00 2.281123e+00 3.040636e+00 3.121968e+00 3.539389e+00 4.562730e+00 4.144454e+00 4.156546e+00 3.677186e+00 3.380575e+00 2.877315e+00 2.642165e+00 9.957060e-01 3.399210e-01 5.004538e-01 4.548217e-01 5.173101e-01 6.092643e-01 6.628194e-01 6.829399e-01 7.975536e-01 6.752441e-01 6.669796e-01 5.748264e-01 4.456565e-01 1.674731e-01
<GCONST> 1.286069e+02
<STATE> 4
<MEAN> 39
 -1.261329e+00 -2.090970e+00 -5.133827e+00 -9.347437e+00 -1.161486e+01 -8.796871e+00 -2.510407e+00 -5.641114e+00 -2.240335e+00 -1.504806e+00 6.466341e-01 -3.855637e+00 7.123426e+01 1.612610e-01 -2.326798e-01 2.654263e-02 4.742587e-02 -5.492160e-01 1.667738e-04 4.520412e-01 -3.687467e-02 -1.029000e-01 2.111590e-01 9.515750e-02 3.512383e-02 1.371703e-01 -3.743449e-01 1.673152e-01 8.064881e-02 3.232009e-01 5.604030e-01 2.351201e-01 -9.650684e-02 -2.917581e-02 6.325573e-02 -9.280442e-02 -3.379041e-02 1.146190e-01 -3.959253e-01
<VARIANCE> 39
 3.517236e+01 6.798518e+01 8.000743e+01 6.402991e+01 6.773492e+01 7.468345e+01 5.512524e+01 5.545508e+01 5.540097e+01 5.415664e+01 4.954118e+01 4.374434e+01 4.024378e+01 9.635016e-01 1.474599e+00 1.776389e+00 1.978609e+00 2.370911e+00 2.664470e+00 2.577349e+00 2.517676e+00 2.659077e+00 2.261788e+00 2.064229e+00 1.802269e+00 6.878756e-01 3.741552e-01 4.295463e-01 4.297252e-01 4.792695e-01 5.444933e-01 6.488016e-01 6.142556e-01 7.103443e-01 6.188948e-01 5.752745e-01 4.855871e-01 4.029123e-01 1.743777e-01
<GCONST> 1.223015e+02
<TRANSP> 5
 0.000000e+00 1.000000e+00 0.000000e+00 0.000000e+00 0.000000e+00
 0.000000e+00 7.356229e-01 2.643771e-01 0.000000e+00 0.000000e+00
 0.000000e+00 0.000000e+00 3.754472e-01 6.245528e-01 0.000000e+00
 0.000000e+00 0.000000e+00 0.000000e+00 1.808997e-01 8.191003e-01
 0.000000e+00 0.000000e+00 0.000000e+00 0.000000e+00 0.000000e+00
<ENDHMM>
~h "m"
<BEGINHMM>
<NUMSTATES> 5
<STATE> 2
<MEAN> 39
 9.150973e-01 6.714649e+00 -8.934648e-01 -1.183148e+00 -5.012581e+00 -5.516607e+00 -1.712285e+00 -6.735542e+00 -1.039029e+01 -1.029865e+01 -4.336572e+00 -2.177268e+00 6.471078e+01 4.937420e-01 -4.240649e-01 -1.121969e+00 -1.367750e+00 -9.039686e-01 -3.647685e-02 5.175794e-01 -1.167489e-01 4.639431e-01 4.734076e-01 6.819452e-02 -2.566566e-02 8.116694e-01 1.510417e-02 -3.900186e-01 -4.866266e-01 -5.178556e-01 -2.972408e-01 7.843943e-02 1.946176e-01 6.627574e-02 5.250468e-01 5.953280e-01 2.000553e-01 -1.008178e-01 2.536721e-01
<VARIANCE> 39
 8.548914e+00 2.814071e+01 3.077958e+01 3.242203e+01 5.033370e+01 3.361887e+01 6.121066e+01 4.335452e+01 4.067635e+01 3.470328e+01 3.323409e+01 3.294348e+01 1.782351e+01 5.878940e-01 1.199505e+00 2.181065e+00 3.162759e+00 2.555936e+00 2.099441e+00 2.451569e+00 2.293653e+00 3.254404e+00 3.365269e+00 2.331852e+00 1.740883e+00 7.074512e-01 9.039818e-02 2.003172e-01 2.563692e-01 4.091758e-01 3.922179e-01 4.222248e-01 4.688501e-01 4.445694e-01 5.225616e-01 4.790952e-01 4.979740e-01 3.889036e-01 9.161685e-02
<GCONST> 1.099032e+02
<STATE> 3
<MEAN> 39
 3.241723e+00 1.756424e+00 -9.745668e+00 -1.180403e+01 -1.170628e+01 -4.661375e+00 2.445566e+00 -5.934683e+00 -4.946940e+00 -3.651974e+00 -2.255041e+00 -2.823966e+00 6.972338e+01 2.102610e-01 -1.992506e+00 -2.130298e+00 -2.237366e+00 -8.340979e-01 1.090553e+00 1.330877e+00 -2.940047e-02 1.481309e+00 1.953357e+00 5.273426e-01 -6.542622e-01 1.490630e+00 -2.798302e-01 -3.751611e-02 6.018071e-01 8.555893e-01 5.896460e-01 4.592973e-02 -3.496241e-01 -2.554874e-02 -2.191676e-01 -2.808399e-01 -1.152858e-01 -1.500677e-01 -2.344103e-01
<VARIANCE> 39
 7.891743e+00 4.356824e+01 3.693757e+01 4.128551e+01 4.769761e+01 4.865175e+01 6.612632e+01 6.136078e+01 3.737137e+01 3.947247e+01 3.632653e+01 3.914643e+01 2.204040e+01 6.588947e-01 1.864622e+00 2.085870e+00 4.019677e+00 4.311333e+00 4.471785e+00 4.090673e+00 4.202500e+00 5.335221e+00 4.329044e+00 4.665414e+00 3.511123e+00 7.971310e-01 7.140683e-02 2.444132e-01 3.232066e-01 4.819126e-01 5.129023e-01 6.437660e-01 6.671387e-01 5.695519e-01 6.532675e-01 5.565233e-01 5.366029e-01 4.207717e-01 1.099905e-01
<GCONST> 1.197082e+02
<STATE> 4
<MEAN> 39
 2.120974e+00 -3.181654e+00 -1.164792e+01 -1.225645e+01 -9.979255e+00 -1.579688e+00 2.556051e+00 -7.246504e+00 -3.158522e+00 -1.824433e+00 -2.350427e+00 -6.041921e+00 7.214084e+01 -3.054379e-01 -1.016150e+00 -1.312561e-02 2.743375e-01 2.587161e-01 1.718555e-02 -3.853734e-01 7.327022e-02 7.335469e-01 5.329925e-01 4.213307e-02 -5.687143e-01 4.567040e-01 -6.574281e-02 4.809413e-01 5.918859e-01 5.690864e-01 8.761704e-02 -4.585252e-01 -4.342345e-01 1.363570e-01 -2.628870e-01 -4.401376e-01 -8.809140e-02 2.691358e-01 -3.972180e-01
<VARIANCE> 39
 9.635675e+00 5.381465e+01 3.912979e+01 4.644742e+01 5.697646e+01 6.748497e+01 7.957349e+01 7.675953e+01 4.948886e+01 5.330090e+01 5.780534e+01 5.030967e+01 2.402317e+01 3.372173e-01 1.087471e+00 1.107497e+00 1.941446e+00 2.262327e+00 3.434408e+00 2.918034e+00 2.675759e+00 3.446203e+00 2.704034e+00 2.684295e+00 2.336672e+00 3.747317e-01 8.845775e-02 2.482034e-01 3.204970e-01 3.824348e-01 4.944305e-01 5.378512e-01 5.629672e-01 5.869535e-01 5.880538e-01 6.242461e-01 6.046872e-01 4.661982e-01 1.114318e-01
<GCONST> 1.155793e+02
<TRANSP> 5
 0.000000e+00 1.000000e+00 0.000000e+00 0.000000e+00 0.000000e+00
 0.000000e+00 7.419052e-01 2.580948e-01 0.000000e+00 0.000000e+00
 0.000000e+00 0.000000e+00 5.279658e-01 4.720342e-01 0.000000e+00
 0.000000e+00 0.000000e+00 0.000000e+00 4.710725e-01 5.289275e-01
 0.000000e+00 0.000000e+00 0.000000e+00 0.000000e+00 0.000000e+00
<ENDHMM>
~h "n"
<BEGINHMM>
<NUMSTATES> 5
<STATE> 2
<MEAN> 39
 1.469370e+00 5.098153e+00 -1.291959e+00 -9.309544e-01 -6.828886e+00 -8.657196e+00 -7.167642e+00 -7.432551e+00 -7.467869e+00 -5.216641e+00 -2.595774e+00 -4.408577e+00 6.450953e+01 -4.708963e-02 2.918789e-01 1.067687e-01 1.621690e-01 3.506090e-01 -2.079596e-01 -3.466538e-01 -7.242456e-02 -1.752744e-01 -5.373041e-02 1.872676e-01 -7.563582e-02 -1.808188e-01 1.751303e-02 -4.538384e-01 -4.283949e-01 -2.897225e-01 -2.817897e-01 3.112949e-02 2.442330e-01 4.412889e-02 3.571930e-01 2.207643e-01 -6.779504e-03 5.053681e-02 3.448852e-01
<VARIANCE> 39
 7.935112e+00 2.628363e+01 2.822303e+01 3.433389e+01 4.005626e+01 3.380037e+01 5.109991e+01 3.489297e+01 3.687762e+01 3.952229e+01 2.713530e+01 3.411992e+01 1.746068e+01 2.293274e-01 1.038134e+00 1.482385e+00 1.318787e+00 1.391751e+00 1.466891e+00 1.749198e+00 1.649585e+00 1.827283e+00 1.759409e+00 1.325384e+00 1.332065e+00 3.429270e-01 5.109835e-02 1.811909e-01 2.677076e-01 2.776155e-01 3.596700e-01 3.404760e-01 4.666510e-01 4.166892e-01 4.340183e-01 3.981134e-01 3.279256e-01 3.619857e-01 5.920305e-02
<GCONST> 9.950752e+01
<STATE> 3
<MEAN> 39
 1.229756e+00 9.330404e-01 -5.558813e+00 -2.427892e+00 -7.711156e+00 -9.137984e+00 -5.756870e+00 -8.027048e+00 -4.874467e+00 -2.260368e+00 -1.646838e+00 -4.469259e+00 6.753792e+01 -4.639893e-02 -1.342438e+00 -1.592124e+00 -1.374170e+00 -1.146242e+00 3.467791e-01 1.464493e+00 4.497635e-01 1.311245e+00 8.311681e-01 -2.253369e-01 -5.336268e-03 1.231207e+00 -4.674356e-02 1.558953e-01 6.899622e-02 -2.316120e-01 -2.375740e-01 1.159767e-01 3.803283e-01 2.695061e-01 6.427248e-02 -8.075938e-02 -1.182989e-01 -2.906124e-02 -4.289078e-02
<VARIANCE> 39
 1.197268e+01 4.170907e+01 4.713572e+01 4.534586e+01 6.164947e+01 4.492149e+01 6.012430e+01 4.842903e+01 6.131539e+01 5.166153e+01 3.907358e+01 4.165082e+01 2.563337e+01 5.670081e-01 2.224385e+00 3.022655e+00 3.209291e+00 3.968679e+00 3.809275e+00 5.241014e+00 4.088953e+00 4.936246e+00 4.063188e+00 3.349773e+00 3.731883e+00 5.818126e-01 6.421985e-02 4.736286e-01 6.125651e-01 5.189952e-01 6.883297e-01 5.772975e-01 8.047270e-01 6.368864e-01 9.202603e-01 6.698213e-01 5.622282e-01 5.282568e-01 2.243108e-01
<GCONST> 1.240053e+02
<STATE> 4
<MEAN> 39
 2.527742e-01 -4.275238e-01 -7.020054e+00 -7.674965e+00 -1.325342e+01 -7.800520e+00 -2.946971e-01 -4.537102e+00 -2.431819e+00 -2.818418e+00 -3.182058e+00 -4.601372e+00 6.967034e+01 -1.190744e-01 1.951733e-01 3.540428e-02 -4.964055e-01 -5.849421e-01 5.204090e-02 7.545758e-01 5.507030e-01 2.368805e-01 -4.382793e-02 -1.093761e-01 2.685640e-03 -7.086222e-02 -8.823580e-03 2.278270e-01 3.000048e-01 2.709429e-01 2.274503e-01 -8.100411e-02 -3.357166e-01 -9.247039e-02 -1.706166e-01 -1.081365e-01 1.104933e-01 6.115709e-02 -2.453695e-01
<VARIANCE> 39
 1.846387e+01 5.256236e+01 5.266337e+01 5.017038e+01 7.508337e+01 6.419681e+01 5.531129e+01 5.823750e+01 5.919230e+01 6.134264e+01 6.748367e+01 4.528258e+01 2.695569e+01 2.337392e-01 1.094182e+00 1.267894e+00 1.856318e+00 2.323537e+00 2.267143e+00 2.581652e+00 2.330586e+00 2.812394e+00 2.185677e+00 2.370129e+00 1.637094e+00 3.605989e-01 6.024256e-02 1.894947e-01 2.923962e-01 3.286471e-01 3.928083e-01 4.253983e-01 4.747573e-01 4.118056e-01 5.602109e-01 4.584612e-01 4.360790e-01 3.712713e-01 7.955232e-02
<GCONST> 1.116612e+02
<TRANSP> 5
 0.000000e+00 1.000000e+00 0.000000e+00 0.000000e+00 0.000000e+00
 0.000000e+00 7.600170e-01 2.399830e-01 0.000000e+00 0.000000e+00
 0.000000e+00 0.000000e+00 6.802260e-01 3.197739e-01 0.000000e+00
 0.000000e+00 0.000000e+00 0.000000e+00 6.162634e-01 3.837366e-01
 0.000000e+00 0.000000e+00 0.000000e+00 0.000000e+00 0.000000e+00
<ENDHMM>
~h "o"
<BEGINHMM>
<NUMSTATES> 5
<STATE> 2
<MEAN> 39
 3.002148e+00 5.708979e+00 -7.738559e+00 -1.312006e+01 -1.593068e+01 -8.627137e+00 1.800375e+00 -3.970224e+00 -4.184376e+00 -2.982342e+00 -1.798417e+00 -1.716800e+00 6.736359e+01 -4.240016e-02 2.729868e-01 2.334177e-01 1.748831e-01 8.657575e-02 2.244874e-01 3.552938e-01 1.674985e-01 -1.221691e-01 -2.231901e-01 -2.027036e-01 -1.158954e-02 -3.328064e-01 -2.288218e-01 -2.285589e-01 1.022017e-01 4.393249e-01 6.032360e-01 1.732557e-01 -1.961512e-01 -1.064401e-01 -2.418971e-02 -2.408378e-03 7.756703e-02 -4.310833e-02 -8.826812e-02
<VARIANCE> 39
 1.056224e+01 3.969424e+01 2.656354e+01 3.894080e+01 5.382445e+01 4.500761e+01 5.346333e+01 4.978019e+01 4.838177e+01 3.680472e+01 3.936913e+01 3.467401e+01 2.131531e+01 5.978887e-01 1.261506e+00 1.424550e+00 2.375629e+00 3.199654e+00 2.504676e+00 2.784019e+00 2.745690e+00 2.750779e+00 2.584963e+00 2.446728e+00 1.776092e+00 7.221110e-01 1.028937e-01 1.598201e-01 2.193404e-01 3.192762e-01 4.560856e-01 4.567324e-01 5.085322e-01 4.566307e-01 5.007594e-01 4.872179e-01 4.456419e-01 3.878993e-01 7.285123e-02
<GCONST> 1.106763e+02
<STATE> 3
<MEAN> 39
 2.089497e+00 4.940821e+00 -7.489530e+00 -1.077648e+01 -1.292394e+01 -6.831782e+00 1.965775e+00 -4.282553e+00 -4.900233e+00 -3.650967e+00 -1.562623e+00 -1.698856e+00 6.640237e+01 -5.161382e-01 -3.339342e-01 3.327393e-01 1.149402e+00 1.480462e+00 5.763812e-01 -3.032393e-01 -2.266864e-01 -1.686904e-01 -8.137617e-02 1.773778e-01 1.004083e-01 -5.133137e-01 -1.719471e-01 -1.759398e-01 8.358613e-02 2.518858e-01 2.894513e-01 -1.196012e-02 -3.006930e-01 -1.050014e-01 1.091878e-01 1.161050e-01 3.955358e-02 -6.266925e-02 -2.061059e-02
<VARIANCE> 39
 1.126059e+01 3.669680e+01 2.824998e+01 4.362946e+01 4.859113e+01 4.337261e+01 5.651460e+01 4.912679e+01 4.685523e+01 3.804107e+01 4.488554e+01 3.532384e+01 2.423951e+01 7.949221e-01 1.249904e+00 1.821245e+00 2.835938e+00 3.438845e+00 3.204012e+00 3.126635e+00 3.016442e+00 3.205055e+00 2.542582e+00 2.730412e+00 2.266283e+00 7.678238e-01 9.961754e-02 1.987688e-01 2.516217e-01 3.310918e-01 5.043010e-01 4.550202e-01 4.937861e-01 4.641210e-01 5.061684e-01 4.922992e-01 4.941620e-01 3.820291e-01 1.061299e-01
<GCONST> 1.137256e+02
<STATE> 4
<MEAN> 39
 -9.353960e-02 3.891988e+00 -6.723751e+00 -7.625494e+00 -8.610696e+00 -5.158764e+00 2.190645e-01 -4.996249e+00 -4.637036e+00 -3.002298e+00 -8.875616e-01 -1.505064e+00 6.455220e+01 -7.486590e-01 -4.989260e-01 4.388091e-01 1.068046e+00 1.212467e+00 2.786936e-01 -6.087968e-01 -2.348426e-01 1.790724e-01 1.410941e-01 1.905322e-02 -7.845239e-02 -4.677299e-01 4.789505e-02 -8.421579e-03 2.463068e-02 -1.188127e-01 -3.179883e-01 -2.424398e-01 -3.802209e-02 4.442867e-02 6.264960e-02 -1.358926e-02 -6.751534e-02 -6.947087e-02 1.494012e-01
<VARIANCE> 39
 1.885308e+01 3.611658e+01 3.124251e+01 4.475467e+01 4.605616e+01 4.488429e+01 5.589437e+01 4.928010e+01 4.828780e+01 3.451113e+01 3.766106e+01 3.070749e+01 3.313289e+01 8.397442e-01 1.536059e+00 1.948705e+00 2.895552e+00 3.303003e+00 3.241931e+00 3.502308e+00 2.992543e+00 3.127509e+00 2.548130e+00 2.456780e+00 2.232900e+00 8.185761e-01 1.533067e-01 2.753666e-01 3.665411e-01 4.111814e-01 5.911537e-01 5.305000e-01 5.055935e-01 5.451226e-01 5.694515e-01 4.676139e-01 5.279104e-01 3.951127e-01 1.831385e-01
<GCONST> 1.171599e+02
<TRANSP> 5
 0.000000e+00 1.000000e+00 0.000000e+00 0.000000e+00 0.000000e+00
 0.000000e+00 5.241275e-01 4.758724e-01 0.000000e+00 0.000000e+00
 0.000000e+00 0.000000e+00 3.037674e-01 6.962327e-01 0.000000e+00
 0.000000e+00 0.000000e+00 0.000000e+00 4.283864e-01 5.716136e-01
 0.000000e+00 0.000000e+00 0.000000e+00 0.000000e+00 0.000000e+00
<ENDHMM>
~h "p"
<BEGINHMM>
<NUMSTATES> 5
<STATE> 2
<MEAN> 39
 -5.831141e+00 -2.887833e-01 -7.001722e+00 -8.024973e+00 -4.936364e+00 -4.652210e+00 4.511472e-01 -3.736203e+00 -1.997068e+00 -3.050967e+00 -1.477735e+00 -2.031512e+00 6.605715e+01 1.619145e+00 5.469538e-01 -2.006120e-01 -1.181672e+00 -1.258991e+00 -8.293778e-01 2.369588e-01 -7.527292e-01 -9.299692e-01 -7.055938e-01 -3.868118e-01 -3.840525e-01 1.650438e+00 2.579181e-01 1.585122e-01 3.253780e-02 -7.081576e-02 -3.279753e-01 -2.221929e-02 -6.451097e-02 3.200413e-02 -5.609898e-02 1.170577e-01 1.125981e-01 5.277624e-02 -7.401112e-02
<VARIANCE> 39
 3.300326e+01 4.184969e+01 3.086409e+01 4.766502e+01 5.435435e+01 5.371986e+01 4.695082e+01 3.701011e+01 3.280938e+01 3.201323e+01 2.670010e+01 2.395286e+01 3.926178e+01 3.870443e+00 6.009308e+00 2.716214e+00 3.690282e+00 6.367296e+00 4.590195e+00 4.615155e+00 4.013034e+00 3.248029e+00 3.349411e+00 2.915785e+00 2.168305e+00 3.311401e+00 6.842400e-01 1.092534e+00 4.363024e-01 5.929222e-01 9.667733e-01 8.294511e-01 7.244025e-01 7.201761e-01 5.747407e-01 6.231979e-01 5.099644e-01 3.929673e-01 6.508437e-01
<GCONST> 1.303249e+02
<STATE> 3
<MEAN> 39
 1.286779e+00 -8.103127e-01 -8.093135e+00 -1.460252e+01 -1.244596e+01 -7.602564e+00 2.274192e+00 -3.418955e+00 -4.819087e+00 -3.719602e+00 -1.010756e+00 -2.827233e+00 7.393202e+01 5.227443e-01 -4.305369e-01 -1.469291e-01 -2.556123e-01 -7.500769e-01 -3.904713e-01 -4.354426e-01 -4.725223e-01 -3.148246e-02 5.127698e-01 5.794657e-01 -2.926907e-02 6.265105e-01 -5.216033e-01 -2.351578e-01 1.300013e-01 5.277272e-01 5.270422e-01 1.082164e-01 -2.843669e-01 3.813129e-02 4.604337e-01 2.332817e-01 2.945121e-02 -8.334110e-03 -3.602587e-01
<VARIANCE> 39
 1.211038e+01 6.580869e+01 3.264891e+01 4.536338e+01 5.466808e+01 7.505239e+01 9.934206e+01 6.891783e+01 6.203704e+01 5.263272e+01 4.683353e+01 4.180256e+01 4.557784e+01 1.249537e+00 3.504688e+00 1.334037e+00 2.465230e+00 3.329345e+00 2.850834e+00 4.066854e+00 3.102436e+00 3.768005e+00 3.419269e+00 2.597920e+00 2.418598e+00 1.494679e+00 2.834671e-01 5.807864e-01 3.145283e-01 4.599213e-01 6.840348e-01 6.184480e-01 9.131952e-01 6.980330e-01 7.259203e-01 5.595406e-01 5.900353e-01 4.497838e-01 1.994228e-01
<GCONST> 1.256603e+02
<STATE> 4
<MEAN> 39
 2.030188e+00 -9.896381e-01 -9.228898e+00 -1.525704e+01 -1.282461e+01 -4.425849e+00 5.297839e-01 -6.288809e+00 -3.581462e+00 -2.914878e+00 -3.163123e-01 -3.542299e+00 7.290668e+01 -5.840713e-02 -3.380771e-01 6.762311e-02 6.179159e-01 1.294124e-01 -2.858941e-01 -8.415971e-01 -2.971010e-01 5.167812e-01 4.982017e-01 6.230080e-02 -2.396313e-01 2.804666e-02 -2.428450e-01 1.221975e-02 1.555500e-01 2.971461e-01 2.709786e-01 -2.966583e-02 -7.935876e-02 1.472180e-01 1.112896e-01 -9.077892e-02 -1.469259e-01 4.364563e-03 -2.109491e-01
<VARIANCE> 39
 9.868713e+00 7.871229e+01 5.707504e+01 5.689373e+01 7.811013e+01 8.369408e+01 7.594467e+01 6.139837e+01 6.154110e+01 6.080492e+01 4.603875e+01 4.019301e+01 3.378280e+01 3.541209e-01 1.278119e+00 1.030577e+00 1.822072e+00 2.018972e+00 2.313680e+00 2.679227e+00 2.133580e+00 2.463433e+00 1.789284e+00 2.287359e+00 1.895275e+00 4.631869e-01 1.389315e-01 3.172030e-01 2.426466e-01 2.694191e-01 5.187780e-01 4.642025e-01 3.957073e-01 4.445184e-01 4.300635e-01 4.382362e-01 4.532817e-01 3.523777e-01 9.722829e-02
<GCONST> 1.133788e+02
<TRANSP> 5
 0.000000e+00 1.000000e+00 0.000000e+00 0.000000e+00 0.000000e+00
 0.000000e+00 7.915341e-01 2.084660e-01 0.000000e+00 0.000000e+00
 0.000000e+00 0.000000e+00 5.293303e-01 4.706697e-01 0.000000e+00
 0.000000e+00 0.000000e+00 0.000000e+00 5.127183e-01 4.872817e-01
 0.000000e+00 0.000000e+00 0.000000e+00 0.000000e+00 0.000000e+00
<ENDHMM>
~h "r"
<BEGINHMM>
<NUMSTATES> 5
<STATE> 2
<MEAN> 39
 -1.957909e-01 -5.619431e-01 -4.088821e+00 1.035833e-01 -6.585741e+00 -1.109772e+01 -6.276393e+00 -8.498980e+00 -3.899008e+00 -2.238095e+00 -6.283058e-01 -2.754631e+00 6.772139e+01 -9.165072e-02 -3.659803e-01 1.502779e-01 5.609625e-01 -2.966910e-01 -5.383301e-01 -5.125279e-01 -2.789748e-01 1.362856e-01 -2.013706e-01 4.119714e-02 3.648681e-02 2.848184e-01 1.463211e-01 4.601496e-02 -1.200921e-01 -3.381830e-01 -6.332003e-01 -5.619998e-02 2.818169e-01 6.813628e-02 -8.221872e-02 -5.322760e-02 1.228398e-01 2.653755e-02 1.762547e-01
<VARIANCE> 39
 2.011479e+01 3.786572e+01 5.802250e+01 5.305877e+01 6.566480e+01 5.581945e+01 4.725351e+01 4.635837e+01 4.231821e+01 4.351636e+01 3.483553e+01 3.528355e+01 2.756183e+01 1.692791e+00 2.234346e+00 3.546359e+00 3.824129e+00 6.686570e+00 5.053010e+00 4.349497e+00 3.983666e+00 3.938839e+00 4.272262e+00 3.470227e+00 2.989679e+00 1.376822e+00 3.103884e-01 4.655106e-01 5.252513e-01 5.465239e-01 1.051051e+00 9.963109e-01 8.148733e-01 7.981971e-01 7.434369e-01 7.409521e-01 6.721212e-01 6.396782e-01 2.905861e-01
<GCONST> 1.297416e+02
<STATE> 3
<MEAN> 39
 1.186265e+00 -1.739466e+00 -5.583243e+00 -7.634433e-02 -1.005612e+01 -1.276899e+01 -6.580836e+00 -8.550715e+00 -3.551624e+00 -2.378171e+00 3.662803e-01 -1.992832e+00 6.905159e+01 3.053131e-01 1.891595e-01 -4.479243e-02 -2.672860e-01 -1.502759e+00 -2.526933e-01 4.843166e-01 4.947238e-02 -5.123900e-01 -5.326198e-01 5.005407e-01 3.989966e-01 2.245086e-01 -6.117243e-02 1.999240e-01 7.903296e-02 -2.698450e-01 7.129115e-02 3.333299e-01 3.489198e-01 1.791484e-01 -1.030139e-01 -1.378332e-02 -1.532628e-02 -5.964856e-02 -1.391127e-01
<VARIANCE> 39
 1.369138e+01 3.680338e+01 6.462006e+01 5.208912e+01 7.363203e+01 6.190743e+01 5.409167e+01 5.212848e+01 4.757918e+01 4.508749e+01 3.938983e+01 3.931487e+01 2.312601e+01 1.144457e+00 1.779347e+00 2.979578e+00 3.031485e+00 3.720377e+00 4.305714e+00 3.467678e+00 3.168169e+00 3.898951e+00 3.842707e+00 3.147609e+00 2.973238e+00 8.309183e-01 1.448561e-01 2.301304e-01 3.624490e-01 3.293438e-01 7.432413e-01 6.297598e-01 5.788695e-01 5.724722e-01 6.080691e-01 5.736661e-01 5.512878e-01 4.932968e-01 1.354286e-01
<GCONST> 1.216427e+02
<STATE> 4
<MEAN> 39
 1.340473e+00 -1.079968e+00 -4.610619e+00 -1.941122e+00 -1.298590e+01 -1.256509e+01 -6.031389e+00 -8.126143e+00 -5.008153e+00 -4.173946e+00 8.942117e-01 -2.427280e+00 6.899863e+01 -5.073543e-02 4.034480e-01 1.938643e-01 -3.985945e-01 -4.527611e-01 3.263588e-01 5.702194e-01 1.764376e-01 -2.981285e-01 -3.048366e-01 5.348236e-02 6.428283e-02 -1.457663e-01 -1.160851e-01 7.698064e-02 6.275813e-02 -2.101120e-02 3.281497e-01 1.784404e-01 3.291651e-02 3.324068e-02 5.893102e-02 7.586599e-02 -1.160255e-01 -5.422821e-02 -1.391945e-01
<VARIANCE> 39
 1.308088e+01 3.741568e+01 6.632938e+01 6.179283e+01 7.256952e+01 6.011583e+01 5.652455e+01 4.676608e+01 4.438709e+01 4.520933e+01 3.957483e+01 3.820410e+01 2.104354e+01 5.034630e-01 9.833133e-01 1.507361e+00 1.778213e+00 2.587256e+00 2.408034e+00 2.389730e+00 2.158093e+00 2.228587e+00 2.361105e+00 2.063398e+00 2.048136e+00 4.810926e-01 8.856571e-02 1.588478e-01 2.616798e-01 2.414271e-01 4.389147e-01 4.215229e-01 3.893218e-01 3.956458e-01 4.105231e-01 4.245675e-01 3.929990e-01 3.502321e-01 8.064417e-02
<GCONST> 1.097129e+02
<TRANSP> 5
 0.000000e+00 1.000000e+00 0.000000e+00 0.000000e+00 0.000000e+00
 0.000000e+00 5.242058e-01 4.757942e-01 0.000000e+00 0.000000e+00
 0.000000e+00 0.000000e+00 2.573383e-01 7.426616e-01 0.000000e+00
 0.000000e+00 0.000000e+00 0.000000e+00 5.131075e-01 4.868926e-01
 0.000000e+00 0.000000e+00 0.000000e+00 0.000000e+00 0.000000e+00
<ENDHMM>
~h "t"
<BEGINHMM>
<NUMSTATES> 5
<STATE> 2
<MEAN> 39
 -1.396445e+01 -1.539887e+00 -3.786192e+00 -5.814880e+00 -3.810774e+00 -5.832050e+00 -2.362163e+00 -1.971073e+00 1.126427e+00 -1.795665e+00 3.668337e-01 -7.008463e-01 6.615977e+01 6.880230e-01 -1.025489e-01 4.463213e-01 -2.264747e-01 -4.501403e-01 -8.245812e-01 -2.979052e-01 -7.580894e-01 -2.329084e-01 -3.903562e-01 -4.134686e-01 -6.188148e-01 1.547211e+00 7.558610e-01 2.357156e-01 -1.134421e-02 8.784798e-02 -3.344347e-01 -9.979750e-02 -1.408433e-01 -2.706671e-01 -2.903865e-01 5.985929e-03 -6.790194e-02 -1.232833e-01 -1.229449e-01
<VARIANCE> 39
 5.427747e+01 3.632901e+01 4.583218e+01 3.936941e+01 3.564979e+01 5.035228e+01 3.804812e+01 3.531816e+01 3.420245e+01 3.004770e+01 2.709731e+01 2.716250e+01 5.026964e+01 7.547878e+00 3.826114e+00 3.679933e+00 4.527214e+00 3.982118e+00 4.471742e+00 3.843437e+00 3.801351e+00 3.971775e+00 3.637934e+00 2.944080e+00 3.099713e+00 4.883364e+00 7.750014e-01 6.486992e-01 5.559539e-01 7.025101e-01 6.850733e-01 8.017139e-01 7.187473e-01 6.364002e-01 6.581008e-01 6.526942e-01 5.450118e-01 5.772049e-01 9.064341e-01
<GCONST> 1.320077e+02
<STATE> 3
<MEAN> 39
 -3.190945e+00 4.163948e-01 -2.584897e+00 -6.753462e+00 -9.906898e+00 -1.029875e+01 -5.225838e+00 -8.008172e+00 -3.278423e+00 -3.414758e+00 -2.106096e+00 -4.177698e+00 7.065289e+01 2.842192e+00 3.392707e-01 -5.154975e-01 -4.100254e-01 -1.984358e+00 -7.335724e-01 -2.866262e-01 -1.093063e+00 -1.045615e+00 4.372191e-02 9.063363e-03 -2.107398e-01 5.465844e-01 -6.641433e-01 -3.588980e-01 -2.336110e-01 8.849561e-03 3.215225e-01 4.518669e-01 3.200558e-01 4.982922e-01 2.890995e-01 1.995449e-01 3.101591e-01 4.327207e-01 -4.002068e-01
<VARIANCE> 39
 2.897607e+01 3.393923e+01 7.374611e+01 6.956755e+01 6.053545e+01 7.201167e+01 4.936843e+01 4.386370e+01 4.225419e+01 5.624814e+01 3.875634e+01 4.010347e+01 2.591610e+01 2.362657e+00 3.106899e+00 2.675032e+00 3.848836e+00 4.627144e+00 4.944105e+00 4.232563e+00 3.657570e+00 3.980166e+00 4.256311e+00 3.141710e+00 3.692718e+00 1.554362e+00 3.883957e-01 3.770464e-01 4.843822e-01 5.712917e-01 7.713860e-01 7.614750e-01 6.301507e-01 5.269696e-01 5.837333e-01 6.768262e-01 5.432003e-01 4.938304e-01 3.808424e-01
<GCONST> 1.294154e+02
<STATE> 4
<MEAN> 39
 -7.485911e-01 -1.879894e+00 -5.543691e+00 -9.413839e+00 -1.230182e+01 -9.067678e+00 -3.805385e+00 -7.638241e+00 -3.666839e+00 -2.606437e+00 -1.036837e+00 -3.198376e+00 7.192631e+01 6.004548e-01 -2.546486e-01 -3.957432e-01 1.438204e-01 -9.992655e-02 2.960145e-01 9.141552e-02 -2.487021e-03 -2.476248e-01 2.103963e-01 3.176393e-01 3.071919e-01 -2.176932e-01 -5.526359e-01 2.586035e-02 1.697534e-01 2.877222e-01 5.353549e-01 1.508900e-01 -3.293408e-02 1.683511e-01 1.591376e-01 -3.717099e-02 7.476223e-03 5.393343e-02 -3.156261e-01
<VARIANCE> 39
 2.382694e+01 4.323617e+01 6.985184e+01 8.045297e+01 7.117828e+01 7.782977e+01 6.179155e+01 5.226339e+01 4.948117e+01 6.797872e+01 4.606389e+01 5.255474e+01 3.036227e+01 1.094961e+00 1.636638e+00 1.441917e+00 1.957032e+00 2.821567e+00 2.913021e+00 2.715561e+00 2.465534e+00 2.569876e+00 2.405782e+00 2.402158e+00 2.077903e+00 1.177010e+00 3.421757e-01 3.373868e-01 3.981098e-01 4.860727e-01 6.365346e-01 7.090612e-01 6.362769e-01 5.544988e-01 5.793350e-01 6.218945e-01 4.871616e-01 5.380071e-01 2.068401e-01
<GCONST> 1.229211e+02
<TRANSP> 5
 0.000000e+00 1.000000e+00 0.000000e+00 0.000000e+00 0.000000e+00
 0.000000e+00 7.366514e-01 2.633485e-01 0.000000e+00 0.000000e+00
 0.000000e+00 0.000000e+00 4.531505e-01 5.468495e-01 0.000000e+00
 0.000000e+00 0.000000e+00 0.000000e+00 4.621005e-01 5.378995e-01
 0.000000e+00 0.000000e+00 0.000000e+00 0.000000e+00 0.000000e+00
<ENDHMM>
~h "u"
<BEGINHMM>
<NUMSTATES> 5
<STATE> 2
<MEAN> 39
 7.177812e-01 5.596462e+00 -2.561651e+00 -2.655375e+00 -1.196993e+01 -1.009207e+01 -4.282827e+00 -1.186784e+01 -9.552993e+00 -5.933104e+00 6.041886e-01 -2.670380e-01 6.669933e+01 4.200061e-02 1.716142e-01 9.799145e-03 -7.799327e-01 -7.227168e-01 4.689100e-01 6.826309e-01 -1.009885e-01 -8.492529e-02 1.500751e-01 2.404310e-01 3.689032e-01 -6.559867e-02 -1.381846e-01 -2.388110e-01 -6.870005e-02 1.857026e-02 3.108002e-01 2.183704e-02 -1.483075e-01 1.692359e-01 3.214153e-01 2.496500e-01 3.563327e-02 -7.477141e-02 1.873007e-02
<VARIANCE> 39
 1.767344e+01 3.483648e+01 4.392994e+01 5.046297e+01 5.924538e+01 4.955518e+01 6.271240e+01 4.142526e+01 4.477267e+01 4.880055e+01 4.034577e+01 3.712926e+01 1.901346e+01 4.539993e-01 8.922356e-01 1.349420e+00 2.259487e+00 2.475978e+00 2.157630e+00 2.411835e+00 2.390839e+00 2.290347e+00 2.234676e+00 2.482988e+00 2.088855e+00 5.975632e-01 1.064317e-01 1.633744e-01 2.070200e-01 2.731597e-01 3.585769e-01 4.103609e-01 4.096986e-01 4.275121e-01 4.341974e-01 4.562689e-01 4.522594e-01 3.885629e-01 7.415459e-02
<GCONST> 1.094578e+02
<STATE> 3
<MEAN> 39
 7.944193e-01 4.503181e+00 -3.071728e+00 -3.684306e+00 -1.220545e+01 -8.883302e+00 -5.523535e+00 -1.086909e+01 -8.526212e+00 -5.199518e+00 9.238813e-01 -2.999297e-01 6.645334e+01 -1.249974e-01 -3.272969e-01 -8.305311e-02 -4.707453e-01 1.060748e-01 4.702891e-01 1.230881e-01 3.246400e-01 3.774490e-01 7.474049e-01 4.300186e-01 8.148206e-02 -8.628862e-02 -1.300829e-01 -2.068686e-01 -1.957482e-02 8.821933e-02 3.039383e-01 -3.769474e-02 -5.785554e-02 2.220067e-01 2.019826e-01 1.573996e-01 -4.880573e-02 -1.116689e-01 -6.949441e-03
<VARIANCE> 39
 2.309676e+01 3.411367e+01 4.675375e+01 6.384169e+01 6.807561e+01 5.155152e+01 5.993679e+01 4.483355e+01 5.367236e+01 4.627014e+01 4.161021e+01 3.336404e+01 2.453460e+01 4.840489e-01 1.289624e+00 1.480426e+00 2.062723e+00 2.556762e+00 2.260770e+00 2.315608e+00 2.112023e+00 2.557816e+00 2.728166e+00 2.816078e+00 1.893441e+00 9.492873e-01 9.712069e-02 1.424025e-01 1.991782e-01 2.660805e-01 3.617728e-01 3.944156e-01 4.128547e-01 4.027317e-01 4.625885e-01 4.108724e-01 4.442155e-01 3.617069e-01 7.818580e-02
<GCONST> 1.112150e+02
<STATE> 4
<MEAN> 39
 -1.596659e-02 3.598833e+00 -3.515721e+00 -4.357297e+00 -1.056525e+01 -7.942540e+00 -4.976806e+00 -1.023268e+01 -6.752189e+00 -2.840420e+00 1.758270e+00 -8.487496e-01 6.624866e+01 -3.072245e-01 -5.151340e-01 -1.005987e-01 -1.330043e-01 5.600615e-01 3.873472e-01 1.918505e-01 6.940874e-01 6.106635e-01 6.552446e-01 3.257904e-02 -2.288155e-01 -1.685029e-01 -6.227215e-02 -3.830481e-02 -4.773570e-03 8.563345e-02 1.018599e-01 -6.778903e-02 -9.547133e-03 1.280966e-01 6.941850e-02 -6.889240e-02 -8.431333e-02 -3.569105e-02 -4.780122e-02
<VARIANCE> 39
 1.948738e+01 3.232221e+01 4.945613e+01 7.445856e+01 7.258334e+01 5.068546e+01 6.323135e+01 4.342751e+01 4.452923e+01 5.271767e+01 4.229662e+01 3.087056e+01 2.995552e+01 4.506350e-01 1.080964e+00 1.245660e+00 1.509979e+00 1.871806e+00 2.143814e+00 2.106157e+00 1.812758e+00 2.393564e+00 2.441544e+00 1.753264e+00 1.639782e+00 7.879947e-01 6.071048e-02 1.243934e-01 1.752949e-01 2.218086e-01 3.297358e-01 3.328698e-01 3.465590e-01 3.334102e-01 3.598133e-01 3.573347e-01 3.697440e-01 2.961307e-01 7.247991e-02
<GCONST> 1.066342e+02
<TRANSP> 5
 0.000000e+00 1.000000e+00 0.000000e+00 0.000000e+00 0.000000e+00
 0.000000e+00 4.997590e-01 5.002410e-01 0.000000e+00 0.000000e+00
 0.000000e+00 0.000000e+00 2.662908e-01 7.337093e-01 0.000000e+00
 0.000000e+00 0.000000e+00 0.000000e+00 5.016097e-01 4.983903e-01
 0.000000e+00 0.000000e+00 0.000000e+00 0.000000e+00 0.000000e+00
<ENDHMM>
~h "w"
<BEGINHMM>
<NUMSTATES> 5
<STATE> 2
<MEAN> 39
 3.412808e+00 8.156618e+00 -3.949991e+00 -9.504088e+00 -1.516849e+01 -8.363150e+00 -1.593250e+00 -5.319802e+00 -3.961537e+00 -3.344541e+00 -2.626483e+00 -1.956817e+00 6.449467e+01 3.646300e-01 -3.084634e-01 -8.338001e-01 -1.732448e+00 -1.203698e+00 4.163655e-01 1.340760e+00 4.350214e-01 9.145290e-04 1.158900e-01 -9.114152e-03 2.812454e-01 5.775878e-01 -1.496980e-01 -4.473975e-01 -1.068709e-01 7.730679e-02 2.418891e-01 1.907627e-01 2.000498e-01 -2.303095e-02 -9.645716e-02 -3.788258e-02 1.417688e-01 1.376239e-01 2.249246e-01
<VARIANCE> 39
 9.526095e+00 2.982364e+01 2.947784e+01 6.189466e+01 7.136182e+01 3.198269e+01 5.098047e+01 4.303709e+01 3.211397e+01 3.657486e+01 2.588144e+01 2.536945e+01 2.111917e+01 6.489296e-01 2.164249e+00 1.663300e+00 2.467614e+00 3.608916e+00 3.373366e+00 3.292854e+00 2.926862e+00 2.724504e+00 2.159165e+00 2.182830e+00 1.927002e+00 1.252415e+00 7.491997e-02 2.031425e-01 2.502288e-01 4.031603e-01 6.789870e-01 6.531785e-01 5.816321e-01 5.306227e-01 4.825564e-01 4.693836e-01 3.906569e-01 3.755386e-01 7.594149e-02
<GCONST> 1.123686e+02
<STATE> 3
<MEAN> 39
 3.962515e+00 3.760329e+00 -8.476556e+00 -1.583255e+01 -1.791560e+01 -5.434917e+00 5.284795e+00 -3.262620e+00 -4.471106e+00 -3.498276e+00 -2.853436e+00 1.118829e+00 6.772967e+01 -2.963618e-01 -1.940767e+00 -1.236542e+00 -5.644966e-01 1.027039e+00 1.621557e+00 1.163775e+00 -6.103844e-01 -7.353829e-01 1.948497e-01 1.120069e+00 7.805256e-01 1.114398e+00 -2.514189e-01 -1.078712e-01 2.438990e-01 7.321188e-01 7.282279e-01 -1.259256e-01 -7.060404e-01 -2.838108e-01 1.732485e-01 2.887493e-01 2.073685e-01 -3.491589e-01 -1.246312e-01
<VARIANCE> 39
 9.813579e+00 3.343477e+01 3.466123e+01 5.967172e+01 6.673705e+01 4.798682e+01 6.230383e+01 6.084635e+01 4.168231e+01 3.706662e+01 4.147205e+01 3.561279e+01 2.177110e+01 6.205081e-01 2.253381e+00 1.354413e+00 2.072492e+00 2.952152e+00 3.105975e+00 3.815725e+00 3.946827e+00 2.861016e+00 3.252715e+00 3.056959e+00 2.505557e+00 1.071607e+00 9.640337e-02 3.204822e-01 2.326116e-01 3.782016e-01 6.199433e-01 6.801393e-01 7.345852e-01 5.871266e-01 6.870657e-01 5.200091e-01 5.350921e-01 5.015461e-01 1.256553e-01
<GCONST> 1.177380e+02
<STATE> 4
<MEAN> 39
 2.457603e+00 -1.276010e+00 -1.080959e+01 -1.448427e+01 -1.232622e+01 -2.057312e+00 4.262229e+00 -6.482058e+00 -5.758115e+00 -1.137815e+00 1.373936e+00 -1.560254e-02 7.019058e+01 -5.264304e-01 -1.339955e+00 -3.199384e-01 9.219232e-01 1.567668e+00 1.258662e-01 -8.476449e-01 -4.165700e-01 6.534852e-01 9.577132e-01 3.443790e-01 -9.045821e-01 5.193284e-01 -4.838245e-02 3.165815e-01 3.375376e-01 3.487604e-01 -1.030271e-01 -5.274822e-01 -3.481241e-01 3.144121e-01 3.366725e-01 -1.196496e-01 -4.810615e-01 -2.471944e-01 -2.561639e-01
<VARIANCE> 39
 1.322843e+01 4.644944e+01 4.095723e+01 6.715532e+01 5.645709e+01 4.764648e+01 6.780031e+01 7.158163e+01 3.990575e+01 4.469539e+01 4.479174e+01 4.753287e+01 2.960102e+01 4.482493e-01 1.401046e+00 1.042396e+00 2.028888e+00 2.076329e+00 3.737854e+00 3.736008e+00 2.555463e+00 3.145143e+00 2.653525e+00 2.664381e+00 2.531307e+00 5.959512e-01 9.231406e-02 2.261688e-01 2.380469e-01 2.810059e-01 4.016283e-01 5.122253e-01 5.474690e-01 6.070268e-01 4.565766e-01 5.402047e-01 5.289479e-01 4.391414e-01 9.920961e-02
<GCONST> 1.146152e+02
<TRANSP> 5
 0.000000e+00 1.000000e+00 0.000000e+00 0.000000e+00 0.000000e+00
 0.000000e+00 6.404025e-01 3.595975e-01 0.000000e+00 0.000000e+00
 0.000000e+00 0.000000e+00 4.956414e-01 5.043586e-01 0.000000e+00
 0.000000e+00 0.000000e+00 0.000000e+00 5.810497e-01 4.189502e-01
 0.000000e+00 0.000000e+00 0.000000e+00 0.000000e+00 0.000000e+00
<ENDHMM>
~h "aa"
<BEGINHMM>
<NUMSTATES> 5
<STATE> 2
<MEAN> 39
 1.905796e+00 -6.869644e+00 -1.356965e+01 -1.455073e+01 -7.791361e+00 2.274345e+00 4.783617e+00 -5.837166e+00 -3.724931e+00 -9.763818e-01 -3.483153e+00 -6.279814e+00 7.299989e+01 -7.918639e-02 -1.239220e-01 2.924986e-02 3.447316e-01 2.207017e-01 -2.393744e-01 -3.097277e-01 5.732175e-02 2.649515e-01 1.897533e-01 -1.015251e-01 -2.391014e-01 -4.851810e-02 -2.258404e-03 1.734125e-01 9.472384e-02 7.582251e-02 -8.727073e-02 -2.180168e-01 -1.202205e-01 6.180867e-02 5.885839e-02 -2.135464e-03 2.634796e-02 6.622279e-02 -8.682624e-02
<VARIANCE> 39
 1.130407e+01 4.242266e+01 2.695485e+01 3.661837e+01 5.463330e+01 5.183552e+01 5.803125e+01 6.998962e+01 4.670517e+01 4.731763e+01 5.713646e+01 5.051414e+01 2.895270e+01 1.535065e-01 5.015216e-01 4.636110e-01 7.036871e-01 1.077353e+00 1.339130e+00 1.251711e+00 1.395839e+00 1.274459e+00 1.162261e+00 1.299821e+00 1.158604e+00 1.458088e-01 3.181946e-02 8.100588e-02 8.823882e-02 1.231633e-01 1.640776e-01 1.978491e-01 2.203879e-01 2.329515e-01 2.250822e-01 2.103778e-01 2.085659e-01 2.072078e-01 2.218955e-02
<GCONST> 8.927441e+01
<STATE> 3
<MEAN> 39
 1.328183e+00 -6.711612e+00 -1.180223e+01 -1.036634e+01 -6.915203e+00 -4.389470e+00 7.824631e-01 -3.785693e+00 -1.974240e-02 8.512887e-01 -3.521940e+00 -7.300568e+00 7.274628e+01 -2.188187e-01 9.839724e-01 1.010061e+00 1.295141e+00 -2.445798e-02 -1.358731e+00 -1.079609e+00 2.115834e-01 4.167413e-01 -4.706670e-02 1.198752e-01 4.031048e-01 -7.982828e-01 -1.069317e-01 2.290866e-01 2.433685e-01 1.440565e-01 2.265679e-02 1.078754e-01 6.918254e-02 -5.364001e-02 -2.473028e-01 -1.831585e-01 1.237147e-01 2.009470e-01 -2.495167e-01
<VARIANCE> 39
 1.050266e+01 4.166132e+01 3.517527e+01 4.789244e+01 5.277277e+01 7.885013e+01 6.104271e+01 6.013687e+01 5.925031e+01 5.059043e+01 6.029104e+01 5.566022e+01 2.961400e+01 6.359378e-01 1.176025e+00 1.374271e+00 1.761437e+00 2.746839e+00 2.668035e+00 2.832808e+00 2.701271e+00 2.851216e+00 2.524080e+00 2.479270e+00 2.360992e+00 5.998462e-01 7.924034e-02 1.636339e-01 1.972910e-01 2.389148e-01 3.790686e-01 4.759843e-01 4.994062e-01 4.451204e-01 4.564140e-01 3.928090e-01 4.034674e-01 3.909150e-01 7.252897e-02
<GCONST> 1.122858e+02
<STATE> 4
<MEAN> 39
 -1.960891e+00 -9.669514e-01 -8.223505e+00 -6.820734e+00 -5.695833e+00 -3.339098e+00 -5.023115e-01 -2.589485e+00 -9.875245e-01 6.012463e-01 -1.206940e+00 -3.973619e+00 6.458900e+01 -8.004290e-01 5.688023e-01 7.203206e-01 8.492951e-01 1.039128e-01 -1.325051e-01 -1.484410e-01 3.045527e-01 -8.419812e-02 -2.910362e-01 3.087215e-01 5.018986e-01 -1.187636e+00 -4.985894e-02 -1.588436e-01 -4.884136e-02 -1.509513e-01 -6.171172e-02 6.145344e-02 1.069578e-01 -7.486063e-02 -6.284832e-02 -5.303692e-02 1.247717e-02 -2.723186e-02 1.749935e-01
<VARIANCE> 39
 1.874305e+01 3.186662e+01 3.117205e+01 3.960195e+01 4.121807e+01 5.871342e+01 4.779485e+01 4.131063e+01 3.897324e+01 3.808666e+01 4.063986e+01 3.481873e+01 4.396399e+01 7.014983e-01 1.347758e+00 1.924286e+00 1.606403e+00 2.026522e+00 2.657431e+00 2.659635e+00 2.551669e+00 2.716770e+00 2.364747e+00 2.237805e+00 2.089508e+00 9.957577e-01 1.150121e-01 2.033845e-01 2.414398e-01 2.696522e-01 3.846494e-01 4.735076e-01 4.487309e-01 4.431891e-01 4.603261e-01 4.223063e-01 4.041563e-01 3.692998e-01 1.754124e-01
<GCONST> 1.118922e+02
<TRANSP> 5
 0.000000e+00 1.000000e+00 0.000000e+00 0.000000e+00 0.000000e+00
 0.000000e+00 8.650472e-01 1.349528e-01 0.000000e+00 0.000000e+00
 0.000000e+00 0.000000e+00 6.953949e-01 3.046051e-01 0.000000e+00
 0.000000e+00 0.000000e+00 0.000000e+00 6.092762e-01 3.907237e-01
 0.000000e+00 0.000000e+00 0.000000e+00 0.000000e+00 0.000000e+00
<ENDHMM>
~h "ae"
<BEGINHMM>
<NUMSTATES> 5
<STATE> 2
<MEAN> 39
 1.480746e+00 -8.636384e+00 -1.301074e+01 -1.155251e+01 -8.216077e+00 -2.299160e+00 1.971455e+00 -4.288029e+00 -7.340688e-01 7.049847e-01 -1.108425e+00 -7.766239e+00 7.372017e+01 -2.530873e-01 -3.138041e-01 4.004473e-01 4.135851e-01 1.271791e-01 -6.910222e-01 -8.181103e-01 4.087351e-01 9.383263e-01 1.569057e-01 -5.437509e-01 -4.663275e-01 1.040175e-01 -2.386757e-02 1.568177e-01 1.653711e-01 1.710465e-01 -7.197700e-02 -3.173173e-01 -1.176302e-01 9.526237e-02 6.977133e-03 -1.141391e-01 -2.785021e-03 2.028807e-01 -1.032930e-01
<VARIANCE> 39
 1.287639e+01 3.987220e+01 2.884208e+01 3.802140e+01 5.176660e+01 6.546197e+01 5.114044e+01 5.999155e+01 5.854400e+01 4.566692e+01 6.330045e+01 4.042934e+01 2.692051e+01 2.839265e-01 5.228014e-01 8.128691e-01 1.395520e+00 1.591692e+00 2.994376e+00 2.051840e+00 2.319962e+00 1.898313e+00 1.733337e+00 1.900959e+00 1.659585e+00 2.043039e-01 4.371750e-02 9.761018e-02 1.272395e-01 1.652712e-01 2.488608e-01 2.977647e-01 3.536632e-01 3.332291e-01 3.427850e-01 3.053006e-01 3.218845e-01 2.991440e-01 3.623526e-02
<GCONST> 1.002244e+02
<STATE> 3
<MEAN> 39
 -4.677172e-01 -8.180304e+00 -7.100093e+00 -5.878439e+00 -1.185309e+01 -1.347593e+01 -3.481560e+00 -1.742011e-01 4.153462e+00 -2.015630e-01 -3.377189e+00 -6.142386e+00 7.337731e+01 -2.476327e-01 7.635304e-01 1.087523e+00 8.914487e-01 -5.833569e-01 -1.158620e+00 -5.116022e-01 -4.306716e-02 -3.483037e-01 -3.816191e-01 3.432321e-01 8.326065e-01 -5.824060e-01 -1.068625e-02 1.664767e-01 3.571277e-02 -3.475925e-02 1.110048e-01 3.272294e-01 1.035600e-01 -2.402726e-01 -3.014799e-01 -5.175307e-02 9.627972e-02 2.689026e-02 -1.530068e-01
<VARIANCE> 39
 1.140428e+01 3.383624e+01 4.332456e+01 3.608527e+01 7.097395e+01 6.910223e+01 4.823228e+01 5.128622e+01 4.888234e+01 4.977485e+01 4.489184e+01 4.326946e+01 2.334011e+01 3.584003e-01 5.471591e-01 1.012701e+00 1.155880e+00 1.680656e+00 2.014176e+00 1.883639e+00 2.125743e+00 1.999138e+00 1.708955e+00 1.901252e+00 1.624815e+00 2.397206e-01 4.346862e-02 1.015901e-01 1.567789e-01 1.847612e-01 2.587897e-01 2.840078e-01 2.852784e-01 3.099784e-01 3.346674e-01 2.987146e-01 3.078842e-01 2.825029e-01 4.520504e-02
<GCONST> 1.000391e+02
<STATE> 4
<MEAN> 39
 -3.516614e+00 -3.018024e+00 -2.674921e+00 -1.449436e+00 -1.034360e+01 -1.430395e+01 -3.417898e+00 -9.789478e-01 1.404106e+00 -6.789396e-01 -1.652068e+00 -3.309168e+00 6.716643e+01 -4.183296e-01 7.411181e-01 4.135798e-01 5.306906e-01 3.729373e-01 3.611805e-01 -1.691519e-02 -1.554793e-01 -3.096967e-01 -1.829342e-01 5.416330e-02 3.900310e-01 -1.139475e+00 2.635540e-03 -7.012583e-02 -1.975588e-01 -1.505598e-01 8.578061e-02 2.429970e-01 9.658669e-02 6.145772e-02 9.116907e-03 8.451203e-02 4.198299e-02 -3.573490e-02 -3.837021e-02
<VARIANCE> 39
 2.218187e+01 3.351637e+01 5.141137e+01 3.312202e+01 6.049326e+01 6.552477e+01 6.736913e+01 5.361876e+01 4.794197e+01 5.016455e+01 4.694787e+01 4.850685e+01 3.347731e+01 4.549860e-01 1.004799e+00 1.413160e+00 1.276213e+00 1.869862e+00 2.327171e+00 2.018535e+00 2.105041e+00 1.937567e+00 2.260058e+00 2.124878e+00 1.790021e+00 4.578541e-01 5.976501e-02 1.474624e-01 1.969164e-01 2.110618e-01 2.699753e-01 3.445972e-01 3.751573e-01 3.633949e-01 3.756672e-01 3.889905e-01 3.823028e-01 3.402014e-01 7.630559e-02
<GCONST> 1.071727e+02
<TRANSP> 5
 0.000000e+00 1.000000e+00 0.000000e+00 0.000000e+00 0.000000e+00
 0.000000e+00 8.422262e-01 1.577738e-01 0.000000e+00 0.000000e+00
 0.000000e+00 0.000000e+00 7.370772e-01 2.629228e-01 0.000000e+00
 0.000000e+00 0.000000e+00 0.000000e+00 7.049026e-01 2.950974e-01
 0.000000e+00 0.000000e+00 0.000000e+00 0.000000e+00 0.000000e+00
<ENDHMM>
~h "ai"
<BEGINHMM>
<NUMSTATES> 5
<STATE> 2
<MEAN> 39
 -3.981920e-01 -6.979648e+00 -7.241535e+00 -5.642217e+00 -9.709653e+00 -1.322145e+01 -5.823538e+00 -4.402845e+00 4.542918e+00 5.088344e-01 -3.149543e+00 -4.933156e+00 7.430748e+01 -5.780824e-01 1.174514e-01 1.937975e+00 1.706905e+00 -9.542204e-01 -2.599319e+00 -8.069813e-01 1.092975e+00 4.278361e-01 -1.443251e+00 -5.686232e-01 8.243353e-01 -1.148623e-01 2.469802e-02 4.497016e-01 2.158958e-01 -2.246139e-01 -3.288818e-01 3.743160e-01 5.648759e-01 -2.257356e-01 -8.640331e-01 -3.583533e-01 3.475050e-01 4.056935e-01 -2.372273e-01
<VARIANCE> 39
 1.386359e+01 4.567785e+01 4.799807e+01 5.690084e+01 5.339301e+01 8.160663e+01 4.906527e+01 6.926506e+01 4.233446e+01 6.824686e+01 5.575701e+01 5.828259e+01 2.492514e+01 3.741649e-01 1.031409e+00 1.519838e+00 1.921668e+00 2.093098e+00 2.711459e+00 3.237734e+00 3.286626e+00 4.321947e+00 3.017965e+00 3.781633e+00 2.517648e+00 3.072116e-01 5.682033e-02 1.673461e-01 2.627020e-01 2.728593e-01 3.733927e-01 6.160089e-01 5.067267e-01 6.650841e-01 4.626468e-01 8.253835e-01 5.700161e-01 4.883306e-01 4.807851e-02
<GCONST> 1.145594e+02
<STATE> 3
<MEAN> 39
 -2.418523e+00 -3.539676e+00 1.503792e+00 -2.549380e+00 -1.565696e+01 -1.841121e+01 -5.870142e+00 -5.145092e+00 -1.950152e+00 -5.532683e+00 -4.466466e-01 -9.509281e-01 7.263518e+01 -3.211384e-01 8.731937e-01 1.060414e+00 5.921674e-01 -3.473301e-01 -3.081557e-02 2.566237e-01 -5.181743e-01 -1.002749e+00 -4.030025e-01 1.723605e-01 4.815662e-02 -6.206780e-01 8.033615e-02 1.795677e-02 -3.526180e-01 -1.695347e-01 3.724357e-01 3.844555e-01 -8.012047e-03 -3.794881e-02 1.786208e-01 3.326087e-01 -1.065647e-01 -2.638040e-01 -1.064336e-01
<VARIANCE> 39
 1.275183e+01 3.762920e+01 6.100467e+01 5.789095e+01 6.787099e+01 7.082684e+01 4.511623e+01 6.062673e+01 5.736560e+01 5.291410e+01 4.855978e+01 4.593479e+01 1.831324e+01 2.853633e-01 6.950238e-01 1.494694e+00 1.100623e+00 1.835579e+00 1.871051e+00 1.734423e+00 2.434586e+00 2.549474e+00 2.052997e+00 2.372793e+00 1.595080e+00 3.330477e-01 4.424668e-02 1.033750e-01 1.682460e-01 1.878931e-01 2.995619e-01 3.837214e-01 3.179194e-01 4.441819e-01 3.911106e-01 4.479244e-01 4.341599e-01 3.173726e-01 4.671736e-02
<GCONST> 1.047389e+02
<STATE> 4
<MEAN> 39
 -4.995975e+00 2.270261e+00 4.229262e+00 1.165176e+00 -1.160785e+01 -1.501906e+01 -3.239615e+00 -7.515951e+00 -4.336524e+00 -3.898495e+00 -2.080763e+00 -2.423663e+00 6.667784e+01 -2.269349e-01 1.973487e-01 -2.189527e-01 1.828413e-01 8.426991e-01 7.937953e-01 2.290711e-02 3.668179e-01 1.722336e-01 3.315519e-01 -1.371547e-02 -1.091381e-01 -8.880486e-01 1.444975e-02 -1.152215e-01 -2.292055e-01 -1.184798e-01 1.552512e-01 1.841256e-01 -5.928230e-02 1.027755e-01 1.447842e-01 1.393625e-01 7.389280e-02 3.676238e-02 -1.527712e-02
<VARIANCE> 39
 2.432619e+01 5.023716e+01 6.272810e+01 4.795712e+01 5.732686e+01 6.349971e+01 5.764186e+01 4.755650e+01 6.428882e+01 4.465671e+01 3.246533e+01 4.367381e+01 2.908501e+01 4.412409e-01 1.039116e+00 1.643256e+00 1.360860e+00 2.117280e+00 2.316243e+00 1.968455e+00 2.215699e+00 2.388463e+00 2.244273e+00 2.044832e+00 1.762315e+00 6.478986e-01 7.234200e-02 1.517545e-01 2.055032e-01 2.107708e-01 2.978888e-01 3.222045e-01 3.817610e-01 3.970108e-01 4.330130e-01 3.300906e-01 3.526488e-01 3.032265e-01 6.443377e-02
<GCONST> 1.083104e+02
<TRANSP> 5
 0.000000e+00 1.000000e+00 0.000000e+00 0.000000e+00 0.000000e+00
 0.000000e+00 7.127893e-01 2.872107e-01 0.000000e+00 0.000000e+00
 0.000000e+00 0.000000e+00 7.088554e-01 2.911446e-01 0.000000e+00
 0.000000e+00 0.000000e+00 0.000000e+00 6.866750e-01 3.133250e-01
 0.000000e+00 0.000000e+00 0.000000e+00 0.000000e+00 0.000000e+00
<ENDHMM>
~h "ao"
<BEGINHMM>
<NUMSTATES> 5
<STATE> 2
<MEAN> 39
 3.845574e-01 -5.220470e+00 -9.851507e+00 -1.837698e+01 -1.383303e+01 -2.995829e+00 7.509642e+00 3.551782e+00 -4.607389e+00 -5.109981e+00 -3.317082e+00 -4.467521e+00 7.711979e+01 1.379468e-01 3.240263e-01 1.717452e-01 -1.884532e-01 -6.223150e-01 -1.109780e-01 -3.682815e-02 -1.552391e-01 9.433244e-02 3.090540e-01 -1.293497e-01 7.139155e-02 -3.704460e-01 9.228110e-03 1.652191e-01 4.317274e-02 2.289962e-02 -2.781692e-02 -1.056095e-01 -7.432920e-02 -7.458469e-02 6.291710e-02 6.204209e-02 -4.229560e-02 2.262997e-02 -1.077525e-01
<VARIANCE> 39
 1.279150e+01 4.016388e+01 2.062181e+01 1.700941e+01 6.138195e+01 9.530855e+01 5.995631e+01 6.336248e+01 4.933198e+01 6.105260e+01 2.761365e+01 3.144745e+01 2.240271e+01 4.591032e-01 1.097843e+00 5.081891e-01 8.097427e-01 1.600528e+00 1.685313e+00 1.691557e+00 1.785307e+00 2.600268e+00 2.181497e+00 1.412315e+00 1.372880e+00 6.472369e-01 8.098506e-02 1.293237e-01 1.031755e-01 1.421939e-01 2.951081e-01 3.125789e-01 2.934478e-01 2.890094e-01 4.597886e-01 3.576542e-01 2.311354e-01 2.526956e-01 6.673916e-02
<GCONST> 1.000852e+02
<STATE> 3
<MEAN> 39
 3.550948e+00 -9.535793e-01 -1.064993e+01 -2.119838e+01 -1.640888e+01 2.287803e+00 5.015314e+00 -4.771317e+00 -2.718358e+00 -4.011052e+00 -4.389267e+00 -2.814709e+00 7.061633e+01 1.466138e-02 6.020936e-01 1.955331e-01 4.226950e-02 -3.975141e-01 -5.316920e-01 -1.895421e-01 2.693065e-01 5.250334e-02 1.708648e-03 -8.563832e-02 1.831350e-02 -3.817730e-01 -2.331959e-02 4.461645e-02 1.767847e-02 6.332517e-02 3.924905e-02 -7.074528e-02 -4.104087e-02 1.578911e-02 -5.894121e-03 -1.565955e-02 -5.015037e-03 -2.508488e-02 -3.187619e-02
<VARIANCE> 39
 6.491765e+00 3.926222e+01 5.893384e+01 2.555955e+01 8.848346e+01 6.328711e+01 5.027023e+01 6.924821e+01 5.444753e+01 5.335272e+01 4.196533e+01 3.816242e+01 1.375258e+01 9.427001e-02 4.113639e-01 4.163253e-01 5.517193e-01 6.782109e-01 8.694816e-01 9.027517e-01 9.912364e-01 9.327132e-01 8.864260e-01 1.022929e+00 8.113385e-01 1.189354e-01 1.613269e-02 4.158184e-02 6.016214e-02 8.113664e-02 1.158911e-01 1.228202e-01 1.389657e-01 1.574044e-01 1.478410e-01 1.591224e-01 1.675797e-01 1.303000e-01 9.273550e-03
<GCONST> 7.847076e+01
<STATE> 4
<MEAN> 39
 -2.162980e-01 7.799042e+00 -5.523416e+00 -1.364605e+01 -1.734670e+01 -7.845033e+00 1.599847e-01 1.036322e-01 -2.723548e+00 -1.230060e+00 -4.272264e+00 -3.634688e+00 6.199613e+01 -6.472602e-01 -4.030102e-02 1.797924e-01 9.866436e-01 9.316030e-01 9.050061e-02 -3.423164e-01 4.404058e-02 1.310453e-01 3.395980e-02 2.159606e-01 1.736500e-01 -7.562556e-01 -5.167321e-02 -1.369325e-01 -2.944394e-02 1.576806e-02 1.112900e-01 1.352260e-01 6.118233e-02 9.016842e-03 2.383042e-02 3.045851e-02 5.341455e-02 6.764023e-02 2.027138e-02
<VARIANCE> 39
 1.247344e+01 2.284921e+01 3.393105e+01 3.199074e+01 5.299541e+01 3.261151e+01 4.321590e+01 3.150515e+01 4.408338e+01 4.144016e+01 2.589577e+01 2.760523e+01 2.421596e+01 3.105195e-01 7.662104e-01 7.671500e-01 1.142953e+00 1.463771e+00 1.641419e+00 1.520029e+00 1.627138e+00 1.953558e+00 1.633380e+00 1.444447e+00 1.486268e+00 2.119432e-01 4.262645e-02 8.844884e-02 1.161345e-01 1.790936e-01 2.128609e-01 2.348332e-01 2.488335e-01 2.862785e-01 3.343809e-01 3.110635e-01 2.486820e-01 2.417671e-01 2.387073e-02
<GCONST> 9.294698e+01
<TRANSP> 5
 0.000000e+00 1.000000e+00 0.000000e+00 0.000000e+00 0.000000e+00
 0.000000e+00 8.409742e-01 1.590258e-01 0.000000e+00 0.000000e+00
 0.000000e+00 0.000000e+00 9.241658e-01 7.583421e-02 0.000000e+00
 0.000000e+00 0.000000e+00 0.000000e+00 9.147270e-01 8.527293e-02
 0.000000e+00 0.000000e+00 0.000000e+00 0.000000e+00 0.000000e+00
<ENDHMM>
~h "au"
<BEGINHMM>
<NUMSTATES> 5
<STATE> 2
<MEAN> 39
 1.492717e+00 -4.964139e+00 -1.008834e+01 -9.104846e+00 -1.139676e+01 -9.493228e+00 -6.428725e+00 -4.963490e+00 1.106585e+00 2.491159e-01 -3.681942e-01 -6.235650e+00 7.289178e+01 1.345109e-02 7.054020e-01 4.595633e-01 5.716463e-01 -2.488697e-01 -6.716332e-01 -6.414322e-01 -5.712674e-01 -2.948065e-01 -1.717769e-01 4.065154e-01 4.714573e-01 -4.319642e-01 -9.329321e-03 2.102988e-01 8.489991e-02 5.636320e-02 9.682254e-02 8.250658e-02 -6.391351e-03 -1.584152e-01 -2.311311e-01 -1.472296e-01 -2.027746e-02 9.296068e-02 -1.371878e-01
<VARIANCE> 39
 8.720881e+00 2.895247e+01 2.563684e+01 5.072402e+01 4.884112e+01 6.938715e+01 7.632822e+01 4.798548e+01 4.837835e+01 6.505148e+01 5.004121e+01 5.678611e+01 2.185891e+01 1.869554e-01 5.742074e-01 5.783982e-01 7.957543e-01 1.144575e+00 1.717103e+00 1.420299e+00 2.049926e+00 1.871541e+00 1.606530e+00 1.425627e+00 1.365571e+00 1.843477e-01 3.672636e-02 8.731642e-02 1.030328e-01 1.357274e-01 1.912256e-01 2.750270e-01 2.543742e-01 2.484667e-01 3.085375e-01 2.924968e-01 2.437377e-01 2.294908e-01 2.748065e-02
<GCONST> 9.401511e+01
<STATE> 3
<MEAN> 39
 2.262914e+00 2.854537e+00 -6.067385e+00 -7.411850e+00 -1.152647e+01 -8.578499e+00 -5.508544e+00 -1.273337e+01 -6.599350e+00 -8.999499e-01 3.022002e+00 3.394020e-01 6.884551e+01 4.578280e-02 1.311871e+00 4.992719e-01 4.709632e-01 2.433576e-01 3.997975e-01 1.499087e-01 -2.065431e-01 -1.020352e+00 -1.110854e+00 -5.027913e-01 2.498727e-01 -9.922969e-01 -5.571615e-02 -4.603131e-02 2.929815e-02 2.148996e-02 1.103501e-01 8.084427e-02 9.878546e-02 3.893068e-01 1.790991e-01 -2.421782e-02 -1.881319e-01 -2.020424e-01 -6.040477e-02
<VARIANCE> 39
 8.470016e+00 2.937560e+01 2.297292e+01 5.110667e+01 5.054964e+01 5.764428e+01 8.214986e+01 6.410043e+01 5.854434e+01 6.139454e+01 4.018144e+01 4.063045e+01 2.099402e+01 2.356682e-01 6.560824e-01 7.352735e-01 1.176998e+00 1.439863e+00 1.853572e+00 2.007059e+00 2.711921e+00 2.091456e+00 2.389262e+00 2.047061e+00 1.842910e+00 2.444508e-01 3.707630e-02 9.076846e-02 1.217581e-01 1.918473e-01 2.592808e-01 3.094679e-01 3.711071e-01 3.777592e-01 3.777915e-01 4.125228e-01 3.391912e-01 2.767814e-01 2.870999e-02
<GCONST> 9.991655e+01
<STATE> 4
<MEAN> 39
 -1.389512e-01 8.361907e+00 -2.249810e+00 -3.425594e+00 -7.509987e+00 -6.736347e+00 -4.393419e+00 -8.197649e+00 -7.316662e+00 -5.701293e+00 -1.837061e+00 -1.722506e+00 6.276851e+01 -4.465698e-01 8.265211e-02 3.623362e-01 5.568985e-01 6.837408e-01 3.477767e-01 1.373909e-01 5.155839e-01 1.380007e-01 -1.730736e-01 -3.346938e-01 -1.381095e-01 -6.764441e-01 -4.664568e-02 -1.979630e-01 -9.863257e-02 -7.718924e-02 8.312892e-03 1.990235e-02 3.153000e-02 -1.795180e-02 8.082359e-02 1.499354e-01 1.073625e-01 6.629214e-02 8.129103e-02
<VARIANCE> 39
 1.136375e+01 2.978899e+01 2.467244e+01 3.404258e+01 3.955824e+01 3.691986e+01 5.806455e+01 3.503833e+01 3.777740e+01 4.246412e+01 3.237195e+01 2.899284e+01 2.313366e+01 3.623729e-01 8.385609e-01 8.681604e-01 1.260466e+00 1.495904e+00 1.592761e+00 1.967530e+00 2.074533e+00 2.140729e+00 2.054221e+00 1.732005e+00 1.627414e+00 3.222926e-01 4.692810e-02 1.051889e-01 1.277310e-01 1.861243e-01 2.373009e-01 2.507608e-01 2.872031e-01 3.366190e-01 3.357102e-01 3.370279e-01 2.624799e-01 2.569018e-01 3.087240e-02
<GCONST> 9.650230e+01
<TRANSP> 5
 0.000000e+00 1.000000e+00 0.000000e+00 0.000000e+00 0.000000e+00
 0.000000e+00 7.934228e-01 2.065772e-01 0.000000e+00 0.000000e+00
 0.000000e+00 0.000000e+00 7.576970e-01 2.423031e-01 0.000000e+00
 0.000000e+00 0.000000e+00 0.000000e+00 8.015083e-01 1.984917e-01
 0.000000e+00 0.000000e+00 0.000000e+00 0.000000e+00 0.000000e+00
<ENDHMM>
~h "ee"
<BEGINHMM>
<NUMSTATES> 5
<STATE> 2
<MEAN> 39
 -4.136344e+00 -1.390710e+00 6.419077e+00 -4.322641e+00 -2.067225e+01 -1.965698e+01 -5.003405e+00 -9.326088e+00 -7.603069e+00 -5.113027e+00 2.466916e+00 -2.954661e+00 7.481830e+01 -5.678550e-03 -6.498715e-02 -2.080886e-02 -2.223336e-02 3.573689e-03 -1.877609e-02 2.722114e-02 7.451325e-02 4.519230e-02 -3.308570e-02 3.158542e-02 -1.224994e-02 -8.521138e-02 2.467826e-03 2.812755e-02 -1.905430e-02 1.101411e-02 3.935790e-02 2.545908e-02 7.668550e-03 2.090168e-02 1.366026e-02 -1.659153e-02 -3.170023e-02 -1.770356e-03 -3.964588e-02
<VARIANCE> 39
 7.662804e+00 2.307684e+01 4.023318e+01 5.566823e+01 5.833116e+01 7.327624e+01 4.273571e+01 3.449929e+01 2.648990e+01 4.265447e+01 4.606994e+01 6.660731e+01 1.827096e+01 8.109921e-02 2.797464e-01 3.410102e-01 4.375316e-01 5.802878e-01 6.117593e-01 6.445659e-01 6.614390e-01 6.421655e-01 6.822448e-01 7.366375e-01 5.822184e-01 9.171503e-02 1.632408e-02 4.754587e-02 6.230228e-02 8.177796e-02 1.127718e-01 1.190992e-01 1.263589e-01 1.238292e-01 1.226336e-01 1.356228e-01 1.314240e-01 1.101087e-01 1.642003e-02
<GCONST> 7.319994e+01
<STATE> 3
<MEAN> 39
 -3.563807e+00 -1.828949e+00 4.906195e+00 -2.101402e+00 -1.818112e+01 -2.227024e+01 -5.397874e+00 -6.340441e+00 -4.034366e+00 -6.226595e+00 -6.850999e-01 -7.719526e-01 7.244827e+01 6.744127e-02 2.049615e-01 -2.537946e-01 1.437092e-01 2.327525e-01 3.330091e-01 4.664875e-02 2.666749e-01 2.767200e-01 -1.124483e-01 -4.276653e-01 -1.838559e-01 -6.311932e-01 -1.634302e-03 1.061518e-01 -3.907932e-02 9.247375e-02 1.605943e-01 1.085134e-01 -8.659035e-03 -1.276744e-02 -2.508658e-02 1.739564e-02 -6.665248e-02 -5.477297e-02 -1.315843e-01
<VARIANCE> 39
 1.009955e+01 2.148907e+01 3.881115e+01 4.535156e+01 8.009158e+01 5.994982e+01 4.084631e+01 5.112466e+01 5.711735e+01 3.752612e+01 4.991094e+01 6.042343e+01 1.719926e+01 2.479816e-01 5.109416e-01 5.883337e-01 1.086846e+00 1.249540e+00 1.035078e+00 1.601963e+00 1.286453e+00 1.654958e+00 1.321747e+00 1.623441e+00 1.369013e+00 2.131909e-01 3.832566e-02 1.108874e-01 1.136634e-01 1.963608e-01 2.572914e-01 2.104799e-01 2.996837e-01 2.766031e-01 3.059972e-01 2.818569e-01 2.729385e-01 2.369193e-01 4.081690e-02
<GCONST> 9.462383e+01
<STATE> 4
<MEAN> 39
 -5.161077e+00 2.277701e-01 3.335314e+00 -6.392094e-01 -1.499934e+01 -1.415319e+01 -3.439400e+00 -4.942929e+00 -4.599736e+00 -5.478199e+00 -1.561519e+00 -2.515900e+00 6.471992e+01 -1.857002e-01 3.955238e-01 -6.095639e-01 3.908821e-01 1.323297e+00 1.043630e+00 3.345804e-02 3.431045e-01 -3.312811e-03 2.793815e-01 -1.049699e-01 2.510668e-01 -1.235002e+00 -3.847140e-02 -4.482927e-02 -3.731043e-02 -7.959412e-02 9.608862e-02 3.798249e-02 6.664539e-03 1.634060e-02 -3.583002e-02 4.063574e-02 1.296570e-01 4.451037e-02 5.250220e-02
<VARIANCE> 39
 1.188455e+01 2.251399e+01 3.296174e+01 3.489456e+01 5.802512e+01 5.726868e+01 3.545341e+01 3.589475e+01 5.808431e+01 6.258289e+01 4.264288e+01 5.463844e+01 3.316825e+01 5.265019e-01 1.146217e+00 8.791174e-01 1.109792e+00 1.935309e+00 1.926567e+00 2.042324e+00 2.270571e+00 2.640728e+00 2.699082e+00 2.423706e+00 1.967981e+00 5.253723e-01 5.529854e-02 1.460921e-01 1.307916e-01 1.670270e-01 2.349073e-01 2.982447e-01 3.292816e-01 3.751828e-01 4.814589e-01 4.118735e-01 3.692685e-01 3.526026e-01 7.553468e-02
<GCONST> 1.045967e+02
<TRANSP> 5
 0.000000e+00 1.000000e+00 0.000000e+00 0.000000e+00 0.000000e+00
 0.000000e+00 9.313829e-01 6.861711e-02 0.000000e+00 0.000000e+00
 0.000000e+00 0.000000e+00 8.128455e-01 1.871545e-01 0.000000e+00
 0.000000e+00 0.000000e+00 0.000000e+00 8.371359e-01 1.628641e-01
 0.000000e+00 0.000000e+00 0.000000e+00 0.000000e+00 0.000000e+00
<ENDHMM>
~h "ei"
<BEGINHMM>
<NUMSTATES> 5
<STATE> 2
<MEAN> 39
 -2.731414e+00 -5.091616e+00 1.369922e+00 -5.287916e+00 -1.699250e+01 -2.043483e+01 -3.606488e+00 -1.007021e+00 -3.095927e+00 -6.688015e+00 6.824020e-01 -3.135756e+00 7.543559e+01 -1.103178e-01 4.489547e-01 6.481512e-01 1.883502e-01 -3.450869e-01 -1.621101e-01 6.805083e-03 -6.618079e-01 -6.201203e-01 4.662670e-02 4.447338e-01 3.537364e-02 -2.748068e-01 -5.317217e-03 9.638146e-02 9.800817e-03 5.754478e-02 5.815069e-02 8.283878e-02 -1.293214e-02 -9.955443e-02 -4.922880e-02 7.487418e-03 -4.395757e-02 -4.492855e-02 -7.310178e-02
<VARIANCE> 39
 6.326887e+00 2.570670e+01 3.675070e+01 5.059964e+01 6.619341e+01 8.539024e+01 3.987873e+01 5.777672e+01 4.003664e+01 5.289494e+01 4.195595e+01 4.108782e+01 1.643705e+01 1.225284e-01 3.344333e-01 4.898596e-01 5.765832e-01 7.174014e-01 8.943861e-01 8.685098e-01 1.424006e+00 1.099408e+00 1.108792e+00 9.913003e-01 7.969457e-01 1.451305e-01 2.089762e-02 5.582897e-02 7.202592e-02 8.861884e-02 1.163050e-01 1.390745e-01 1.657759e-01 2.030390e-01 1.646993e-01 1.748027e-01 1.669106e-01 1.440741e-01 2.144320e-02
<GCONST> 8.148978e+01
<STATE> 3
<MEAN> 39
 -4.232859e+00 2.431399e+00 8.946419e+00 -2.892576e+00 -1.864427e+01 -1.532879e+01 -3.647243e+00 -1.002608e+01 -9.684767e+00 -4.055877e+00 7.707835e-01 -4.482719e+00 6.957195e+01 -1.328207e-01 7.099839e-01 3.264899e-01 3.059753e-01 3.995116e-01 6.216968e-01 8.064315e-02 -3.860447e-01 -2.095050e-01 -1.055444e-01 -4.055001e-01 -2.563323e-01 -6.935685e-01 -9.647615e-03 -4.265713e-02 -8.498025e-02 1.954538e-02 1.199295e-01 2.888591e-02 1.060115e-02 1.110564e-01 7.042679e-02 -4.005393e-02 -2.909609e-02 4.171553e-02 -2.653273e-02
<VARIANCE> 39
 6.964376e+00 2.531961e+01 3.313984e+01 5.069536e+01 6.295422e+01 8.284223e+01 3.783006e+01 3.692905e+01 2.955477e+01 5.144022e+01 3.640112e+01 4.035401e+01 2.046130e+01 1.346081e-01 4.267628e-01 6.642397e-01 7.802585e-01 9.390845e-01 9.826605e-01 1.038120e+00 1.445896e+00 9.383182e-01 1.020871e+00 1.030692e+00 9.284961e-01 1.589302e-01 2.334465e-02 5.126192e-02 9.219808e-02 1.281462e-01 1.662289e-01 1.717285e-01 1.835090e-01 2.240812e-01 1.684851e-01 1.779244e-01 1.680770e-01 1.742381e-01 1.390133e-02
<GCONST> 8.337270e+01
<STATE> 4
<MEAN> 39
 -7.484959e+00 5.861657e+00 8.540511e+00 2.412569e+00 -1.136948e+01 -9.411187e+00 -1.955643e+00 -9.292750e+00 -8.301392e+00 -6.142808e+00 -2.644983e+00 -3.413743e+00 6.214866e+01 -3.292145e-01 -2.148468e-01 -8.002160e-01 1.894779e-01 1.065298e+00 8.167790e-01 1.709173e-01 5.143265e-01 1.959624e-01 2.546112e-01 9.397523e-02 2.728821e-01 -8.904910e-01 -3.194337e-02 -1.321202e-01 -1.254926e-01 -9.855662e-02 -2.217554e-02 1.776152e-02 5.308857e-02 1.312850e-01 9.992141e-02 1.218863e-01 7.912167e-02 4.437460e-02 2.144225e-02
<VARIANCE> 39
 1.143863e+01 2.780419e+01 4.818974e+01 2.761843e+01 6.682700e+01 5.902223e+01 4.121490e+01 3.448553e+01 4.224147e+01 3.802913e+01 2.166171e+01 3.624967e+01 2.937402e+01 3.197096e-01 7.879186e-01 1.080482e+00 9.269378e-01 1.754709e+00 1.504338e+00 1.845025e+00 2.240426e+00 1.616602e+00 1.769160e+00 1.599291e+00 1.449304e+00 3.346613e-01 5.422231e-02 1.152484e-01 1.554345e-01 1.501306e-01 2.897068e-01 2.786759e-01 3.493560e-01 3.806870e-01 2.467804e-01 2.826782e-01 2.740222e-01 2.487196e-01 4.374149e-02
<GCONST> 9.756445e+01
<TRANSP> 5
 0.000000e+00 1.000000e+00 0.000000e+00 0.000000e+00 0.000000e+00
 0.000000e+00 8.849458e-01 1.150543e-01 0.000000e+00 0.000000e+00
 0.000000e+00 0.000000e+00 8.967221e-01 1.032779e-01 0.000000e+00
 0.000000e+00 0.000000e+00 0.000000e+00 8.916391e-01 1.083609e-01
 0.000000e+00 0.000000e+00 0.000000e+00 0.000000e+00 0.000000e+00
<ENDHMM>
~h "ii"
<BEGINHMM>
<NUMSTATES> 5
<STATE> 2
<MEAN> 39
 -4.322912e+00 2.347730e+00 8.837055e+00 -3.282126e+00 -1.611848e+01 -1.280906e+01 -5.315673e+00 -1.216862e+01 -1.045203e+01 -7.244858e+00 -6.532851e-01 -5.133057e+00 7.051349e+01 1.370214e-01 3.136109e-01 -7.173337e-02 4.411459e-02 3.145472e-01 3.990766e-01 2.004256e-01 -4.916615e-02 -1.840377e-01 -4.875784e-02 -3.074155e-02 4.154095e-02 -4.166450e-01 -5.530479e-02 1.378881e-02 -3.954292e-02 6.407147e-02 8.793776e-02 1.140455e-02 6.135072e-02 5.202900e-02 3.926364e-02 -2.185310e-02 -3.612028e-02 1.755306e-03 -1.994828e-02
<VARIANCE> 39
 1.393823e+01 2.033132e+01 4.901674e+01 5.307339e+01 5.594905e+01 8.187106e+01 6.128234e+01 4.493877e+01 3.513782e+01 4.759227e+01 3.211873e+01 4.493532e+01 2.187576e+01 3.194349e-01 6.209943e-01 8.372919e-01 9.199137e-01 1.487691e+00 1.505540e+00 1.536785e+00 1.141949e+00 1.229220e+00 1.179591e+00 1.142997e+00 9.653227e-01 3.490960e-01 5.831047e-02 8.740366e-02 1.315824e-01 1.429328e-01 2.559560e-01 2.481706e-01 2.698846e-01 1.874926e-01 2.146285e-01 2.231368e-01 2.016546e-01 1.618742e-01 5.395388e-02
<GCONST> 9.385439e+01
<STATE> 3
<MEAN> 39
 -5.303291e+00 7.402154e+00 9.844068e+00 -8.492023e-01 -1.011360e+01 -1.290036e+01 -1.656612e+00 -1.069580e+01 -9.895502e+00 -6.163985e+00 -3.399912e+00 -3.817537e+00 6.775085e+01 -9.171608e-03 1.841589e-01 -1.709893e-01 9.744584e-02 3.916189e-01 2.107517e-01 1.030824e-01 1.229272e-01 -1.629075e-02 -9.495243e-03 -9.489115e-02 1.228656e-01 -4.181389e-01 -3.346592e-02 -9.108198e-02 -6.235256e-02 1.847104e-02 -2.933908e-02 -9.053053e-03 -1.234741e-02 1.917231e-02 2.561904e-02 -6.054427e-03 -1.800986e-02 1.118578e-02 3.237571e-02
<VARIANCE> 39
 1.989531e+01 1.863217e+01 8.526567e+01 4.622238e+01 4.506833e+01 4.665510e+01 4.877092e+01 3.604704e+01 2.518711e+01 2.639392e+01 4.829395e+01 3.137208e+01 1.773068e+01 1.817280e-01 4.070004e-01 5.740627e-01 6.377532e-01 9.261948e-01 1.057882e+00 1.090255e+00 1.104200e+00 1.149118e+00 1.008506e+00 1.133947e+00 9.446409e-01 2.070366e-01 2.886030e-02 7.009399e-02 9.735812e-02 9.873004e-02 1.840977e-01 1.978176e-01 1.911235e-01 2.033907e-01 1.932218e-01 1.805375e-01 2.010435e-01 1.618412e-01 4.387163e-02
<GCONST> 8.557450e+01
<STATE> 4
<MEAN> 39
 -6.688141e+00 6.122717e+00 6.031713e+00 2.127218e+00 -5.876209e+00 -8.127862e+00 -1.718330e+00 -8.689150e+00 -8.908149e+00 -6.141113e+00 -3.130647e+00 -2.884861e+00 6.110223e+01 -1.319072e-01 -4.256128e-01 -9.739685e-01 -3.380619e-03 6.847069e-01 8.731478e-01 3.433437e-01 5.730671e-01 2.392894e-01 1.795320e-01 2.218372e-02 2.170490e-01 -5.965288e-01 -3.058917e-03 -1.534367e-01 -1.339364e-01 -2.002531e-01 -1.563946e-01 4.439478e-02 4.059189e-02 7.139639e-02 1.703277e-01 1.300016e-01 7.521800e-02 5.781191e-03 1.289379e-01
<VARIANCE> 39
 2.899117e+01 2.719333e+01 5.234589e+01 2.807407e+01 3.587314e+01 4.960928e+01 5.844794e+01 3.734827e+01 3.214763e+01 3.608096e+01 2.584081e+01 2.655332e+01 2.358810e+01 5.541404e-01 7.221140e-01 9.090655e-01 1.094942e+00 1.526345e+00 1.544408e+00 1.891227e+00 1.984655e+00 2.074559e+00 1.908556e+00 1.677869e+00 1.799522e+00 3.276690e-01 7.500972e-02 1.486115e-01 1.858063e-01 2.076182e-01 2.650233e-01 2.898713e-01 3.673768e-01 3.241908e-01 3.630782e-01 3.415668e-01 3.271916e-01 3.541898e-01 6.966528e-02
<GCONST> 1.008332e+02
<TRANSP> 5
 0.000000e+00 1.000000e+00 0.000000e+00 0.000000e+00 0.000000e+00
 0.000000e+00 7.636280e-01 2.363720e-01 0.000000e+00 0.000000e+00
 0.000000e+00 0.000000e+00 8.067688e-01 1.932312e-01 0.000000e+00
 0.000000e+00 0.000000e+00 0.000000e+00 7.075694e-01 2.924306e-01
 0.000000e+00 0.000000e+00 0.000000e+00 0.000000e+00 0.000000e+00
<ENDHMM>
~h "oe"
<BEGINHMM>
<NUMSTATES> 5
<STATE> 2
<MEAN> 39
 1.302172e+00 -3.376189e+00 -7.763020e+00 -1.033555e+01 -1.120253e+01 -1.069125e+01 -1.041160e+01 -1.356903e+01 -1.642447e+00 2.139717e+00 2.940047e+00 -1.038708e+00 7.317166e+01 -6.580394e-01 -1.138558e+00 1.017347e+00 2.346435e+00 4.887289e-01 -2.404784e+00 -1.938747e+00 1.012816e+00 2.104872e+00 3.146249e-01 -7.860936e-01 -1.066610e+00 3.365268e-01 -6.382077e-02 2.945421e-01 4.106384e-01 -2.817068e-03 -5.123191e-01 -2.952899e-01 5.823643e-01 6.628926e-01 -1.985245e-01 -8.447253e-01 -4.874263e-01 2.683442e-01 -1.902418e-01
<VARIANCE> 39
 1.017844e+01 2.599575e+01 4.763550e+01 4.954838e+01 5.506081e+01 6.868115e+01 4.625226e+01 5.153560e+01 5.780801e+01 4.654652e+01 4.518734e+01 5.455673e+01 1.816703e+01 2.078932e-01 9.556764e-01 1.255282e+00 1.698062e+00 2.908472e+00 2.552677e+00 3.646330e+00 3.842520e+00 2.926365e+00 4.837640e+00 3.005733e+00 2.553744e+00 3.242540e-01 4.592611e-02 1.168910e-01 1.719971e-01 3.821150e-01 3.611371e-01 6.218055e-01 6.580065e-01 5.931519e-01 1.046456e+00 4.413744e-01 7.205978e-01 7.185495e-01 3.324495e-02
<GCONST> 1.117724e+02
<STATE> 3
<MEAN> 39
 -1.531976e+00 -4.691173e+00 -2.898207e-01 -3.070398e+00 -1.512011e+01 -2.041615e+01 -1.016996e+01 -4.830789e+00 -3.029892e-01 -4.653356e+00 -7.843173e-01 -3.943664e-01 7.197282e+01 -3.589438e-01 6.257274e-01 8.251942e-01 5.580227e-01 -1.891311e-01 -4.238117e-01 5.798664e-01 5.656456e-01 -6.622488e-01 -7.764568e-01 3.511512e-02 3.724889e-01 -8.044074e-01 2.358787e-02 1.846838e-01 -2.414190e-01 -1.874460e-01 2.470594e-01 4.688029e-01 4.440800e-02 -2.692451e-01 -1.037042e-01 3.476112e-01 2.035921e-01 -8.508818e-02 -2.073917e-01
<VARIANCE> 39
 9.323899e+00 2.232652e+01 4.842892e+01 4.629155e+01 6.349167e+01 5.263523e+01 3.436671e+01 4.034064e+01 4.654116e+01 5.332567e+01 4.117900e+01 3.336404e+01 1.798380e+01 3.633651e-01 8.660775e-01 1.385891e+00 1.378041e+00 2.192880e+00 2.518565e+00 2.106996e+00 2.484712e+00 1.960293e+00 2.441499e+00 2.143722e+00 1.685049e+00 7.616096e-01 6.300915e-02 1.347283e-01 2.075526e-01 2.419780e-01 3.073412e-01 3.914425e-01 3.627931e-01 3.862478e-01 4.472635e-01 3.878448e-01 3.756801e-01 2.951086e-01 6.482617e-02
<GCONST> 1.049135e+02
<STATE> 4
<MEAN> 39
 -5.517867e+00 1.613534e+00 6.483710e-01 3.332581e-01 -1.022563e+01 -1.524724e+01 -5.422542e+00 -3.907425e+00 -3.279710e+00 -3.582115e+00 8.658023e-01 3.488065e-01 6.247212e+01 -5.103705e-01 1.577499e-01 -2.774300e-01 1.425044e-01 6.703057e-01 1.062514e+00 4.175619e-01 2.129827e-01 1.317898e-01 3.527941e-01 4.422637e-02 1.008776e-01 -9.844095e-01 -2.316882e-02 -1.462931e-01 -5.394881e-02 -8.652583e-02 1.565740e-03 3.647691e-02 -4.643801e-03 2.337972e-02 8.638493e-02 -1.206571e-02 -3.623716e-02 2.526639e-02 1.379914e-01
<VARIANCE> 39
 1.616035e+01 1.960217e+01 2.841729e+01 2.770611e+01 4.023572e+01 5.371386e+01 5.306319e+01 4.248044e+01 3.339689e+01 4.102308e+01 2.751606e+01 2.606505e+01 4.498975e+01 3.788273e-01 6.952431e-01 9.229219e-01 9.814193e-01 1.444414e+00 1.873797e+00 1.541210e+00 1.669533e+00 1.630071e+00 1.682889e+00 1.552488e+00 1.442732e+00 6.025128e-01 6.273449e-02 1.190450e-01 1.474620e-01 1.761818e-01 2.572434e-01 2.647184e-01 2.837633e-01 3.160024e-01 2.897840e-01 2.898183e-01 2.915981e-01 2.765591e-01 8.419070e-02
<GCONST> 9.780852e+01
<TRANSP> 5
 0.000000e+00 1.000000e+00 0.000000e+00 0.000000e+00 0.000000e+00
 0.000000e+00 7.669942e-01 2.330057e-01 0.000000e+00 0.000000e+00
 0.000000e+00 0.000000e+00 8.483179e-01 1.516822e-01 0.000000e+00
 0.000000e+00 0.000000e+00 0.000000e+00 8.909873e-01 1.090127e-01
 0.000000e+00 0.000000e+00 0.000000e+00 0.000000e+00 0.000000e+00
<ENDHMM>
~h "oi"
<BEGINHMM>
<NUMSTATES> 5
<STATE> 2
<MEAN> 39
 2.460377e+00 -4.377126e-01 -8.064099e+00 -1.182409e+01 -1.015294e+01 -8.028736e+00 -9.177473e+00 -1.557377e+01 -5.976509e+00 2.380781e-01 4.066155e+00 -5.610822e-02 7.208929e+01 -7.021437e-01 -1.209956e+00 8.614208e-01 3.212168e+00 1.221234e+00 -2.648534e+00 -2.544021e+00 2.304770e-01 1.907509e+00 6.956354e-01 -4.058719e-01 -1.738345e+00 2.826790e-01 -1.319981e-01 1.754828e-01 6.421045e-01 3.638027e-01 -6.386908e-01 -7.488520e-01 4.811454e-01 9.271474e-01 1.473982e-01 -8.936398e-01 -7.669883e-01 1.489704e-02 -1.453176e-01
<VARIANCE> 39
 1.128741e+01 2.869211e+01 4.233972e+01 7.029012e+01 4.961335e+01 6.662051e+01 7.766095e+01 5.024195e+01 6.068604e+01 5.157311e+01 4.266246e+01 5.893965e+01 1.962139e+01 3.498887e-01 8.762674e-01 1.961991e+00 2.098188e+00 3.298784e+00 3.966398e+00 2.993268e+00 4.810734e+00 3.522775e+00 5.108269e+00 5.380579e+00 2.555604e+00 3.291496e-01 5.383043e-02 1.474125e-01 1.770029e-01 5.564709e-01 4.784075e-01 8.036835e-01 1.132359e+00 5.168802e-01 1.436258e+00 7.978700e-01 7.382696e-01 1.111473e+00 4.479625e-02
<GCONST> 1.187421e+02
<STATE> 3
<MEAN> 39
 -2.355586e+00 -1.906779e+00 1.453245e+00 5.561007e-01 -1.137075e+01 -1.903229e+01 -9.653563e+00 -9.018777e+00 -4.541057e+00 -6.963503e+00 -7.589209e-01 -2.356887e+00 7.120924e+01 -5.262594e-01 3.140128e-01 9.136999e-01 7.218486e-01 -1.345880e-01 8.651532e-03 1.079684e+00 6.039138e-01 -7.645425e-01 -8.469104e-01 8.988987e-02 3.242838e-01 -5.802106e-01 6.679074e-02 1.976836e-01 -3.044073e-01 -5.308315e-01 7.008965e-02 6.614000e-01 2.346086e-01 -3.096752e-01 -2.008267e-01 2.952723e-01 1.979397e-01 5.695811e-02 -1.109451e-01
<VARIANCE> 39
 1.389569e+01 2.570123e+01 6.217115e+01 5.435395e+01 9.414476e+01 7.542137e+01 4.736802e+01 4.751375e+01 7.290385e+01 4.819931e+01 4.918351e+01 4.880733e+01 2.729007e+01 4.163293e-01 1.120202e+00 4.573926e+00 3.571545e+00 4.793214e+00 6.174771e+00 3.882302e+00 3.570987e+00 3.762149e+00 5.014292e+00 3.282387e+00 2.336046e+00 3.054185e-01 6.225228e-02 2.066368e-01 2.988685e-01 4.016924e-01 7.052202e-01 7.165602e-01 9.249998e-01 6.332610e-01 8.832072e-01 7.780547e-01 6.931294e-01 5.448925e-01 3.932923e-02
<GCONST> 1.210826e+02
<STATE> 4
<MEAN> 39
 -4.579152e+00 2.934991e+00 4.768812e+00 8.737296e-01 -1.232349e+01 -1.412215e+01 -3.737253e+00 -9.304515e+00 -7.801751e+00 -6.634078e+00 -8.062281e-01 -3.105112e+00 6.476791e+01 -3.669130e-01 2.592777e-01 -1.348065e-01 -5.546826e-02 6.607920e-01 9.043765e-01 3.374896e-01 2.288602e-01 1.060286e-01 2.961438e-01 -2.063114e-01 5.255984e-02 -8.030065e-01 6.026118e-03 -1.181424e-01 -1.529750e-01 -4.170965e-02 1.119317e-01 3.683713e-02 -8.177595e-02 1.109616e-01 1.564717e-01 6.072634e-02 8.742873e-03 2.978143e-02 1.404233e-02
<VARIANCE> 39
 1.582369e+01 2.294754e+01 3.897687e+01 3.560040e+01 6.465919e+01 5.332031e+01 4.668740e+01 4.149324e+01 3.618824e+01 3.964802e+01 2.835405e+01 4.543198e+01 3.047215e+01 3.025719e-01 9.030349e-01 1.161711e+00 1.177785e+00 1.686152e+00 1.545412e+00 1.894394e+00 2.200948e+00 1.815579e+00 1.491991e+00 1.370627e+00 1.645965e+00 2.844366e-01 5.120127e-02 1.155777e-01 1.595342e-01 1.543281e-01 2.441623e-01 2.771324e-01 3.221575e-01 3.467432e-01 3.056039e-01 2.851328e-01 2.461968e-01 2.816677e-01 3.029516e-02
<GCONST> 9.799805e+01
<TRANSP> 5
 0.000000e+00 1.000000e+00 0.000000e+00 0.000000e+00 0.000000e+00
 0.000000e+00 7.551897e-01 2.448103e-01 0.000000e+00 0.000000e+00
 0.000000e+00 0.000000e+00 8.459332e-01 1.540668e-01 0.000000e+00
 0.000000e+00 0.000000e+00 0.000000e+00 8.952366e-01 1.047634e-01
 0.000000e+00 0.000000e+00 0.000000e+00 0.000000e+00 0.000000e+00
<ENDHMM>
~h "oo"
<BEGINHMM>
<NUMSTATES> 5
<STATE> 2
<MEAN> 39
 3.493236e+00 1.049580e+01 -2.097382e+00 -1.428066e+01 -2.069903e+01 -1.328466e+01 -5.588266e+00 -6.017006e+00 -1.760497e+00 4.518896e-02 -2.435971e+00 -3.356733e+00 6.698810e+01 -6.696390e-03 -4.190772e-02 -6.721372e-02 5.385800e-02 -7.639780e-02 1.395823e-01 3.128974e-01 6.683204e-02 -1.324102e-01 -1.644845e-02 1.002305e-01 -1.691109e-02 -9.457611e-02 -1.184529e-01 -9.299931e-02 -9.870395e-02 1.093819e-01 2.803876e-01 1.163463e-01 1.188641e-01 7.116950e-02 -6.584520e-02 -1.225959e-01 6.835520e-03 7.379176e-02 -4.603789e-02
<VARIANCE> 39
 8.356005e+00 2.689281e+01 3.885978e+01 3.058603e+01 3.822425e+01 3.509616e+01 4.051068e+01 4.765464e+01 3.379314e+01 5.117594e+01 3.074593e+01 2.646213e+01 1.256191e+01 1.562945e-01 4.787772e-01 6.675944e-01 6.714054e-01 1.241332e+00 9.602173e-01 1.352538e+00 1.296846e+00 1.442458e+00 1.184775e+00 1.239941e+00 1.021461e+00 1.973778e-01 5.425130e-02 1.219368e-01 1.546358e-01 1.658779e-01 3.205095e-01 2.123952e-01 2.671413e-01 2.539548e-01 2.870362e-01 2.768478e-01 2.566756e-01 2.184939e-01 2.732294e-02
<GCONST> 8.904672e+01
<STATE> 3
<MEAN> 39
 2.651942e+00 1.037667e+01 -1.640562e+00 -1.298808e+01 -2.045192e+01 -1.235892e+01 -1.569667e+00 -5.812127e+00 -2.062065e+00 -6.115866e-01 -2.148624e+00 -5.219766e+00 6.616946e+01 -1.056383e-01 -6.458957e-01 -6.444378e-01 2.440953e-01 6.207741e-01 3.014265e-01 1.090617e+00 3.246387e-01 -9.927616e-01 -6.231892e-01 1.339077e-01 3.091392e-01 5.226168e-02 -5.648869e-02 -2.594061e-01 -1.850342e-01 3.324559e-01 5.995299e-01 8.342727e-02 -1.659834e-01 -1.585868e-01 -2.576105e-01 -1.322316e-01 1.731499e-01 3.223319e-01 -7.403039e-03
<VARIANCE> 39
 8.647495e+00 3.331593e+01 4.557240e+01 3.757071e+01 5.334056e+01 4.915905e+01 4.872314e+01 4.850233e+01 4.547504e+01 6.450879e+01 4.301909e+01 2.469900e+01 2.177483e+01 3.349718e-01 8.028797e-01 1.052313e+00 1.630138e+00 1.642632e+00 2.114390e+00 3.313835e+00 3.063480e+00 3.071074e+00 2.908627e+00 2.711333e+00 2.027375e+00 4.399107e-01 6.099672e-02 1.356836e-01 1.884301e-01 2.999222e-01 5.038564e-01 4.625438e-01 4.701946e-01 4.504449e-01 4.622551e-01 4.285639e-01 4.851648e-01 4.228866e-01 3.923481e-02
<GCONST> 1.072032e+02
<STATE> 4
<MEAN> 39
 3.090977e+00 6.550355e+00 -6.125643e+00 -1.211427e+01 -1.653281e+01 -9.317440e+00 1.113808e+00 -5.657166e+00 -8.092138e+00 -5.477063e+00 -1.085493e+00 -2.024547e+00 6.689777e+01 -1.547741e-01 -1.321928e+00 -1.041823e+00 1.706959e+00 2.724867e+00 4.631949e-01 -6.606037e-01 -7.275100e-01 -1.070004e+00 -5.979344e-02 1.068583e+00 1.195270e+00 -3.970372e-02 -1.173912e-01 -5.501552e-02 1.382684e-01 4.493414e-01 5.931940e-01 -4.794482e-02 -8.001785e-01 -2.597194e-01 5.789691e-01 4.359454e-01 5.112402e-03 -2.091782e-01 -1.139295e-01
<VARIANCE> 39
 1.375871e+01 2.707911e+01 2.859973e+01 4.530925e+01 5.223433e+01 4.389331e+01 6.075003e+01 5.211674e+01 4.875042e+01 5.199829e+01 4.050528e+01 3.749714e+01 2.689598e+01 5.857007e-01 9.425245e-01 1.687101e+00 1.809312e+00 3.180998e+00 3.915326e+00 3.400566e+00 3.183903e+00 3.520675e+00 4.157872e+00 3.250483e+00 3.190126e+00 5.200739e-01 7.928947e-02 1.406931e-01 2.586905e-01 3.323947e-01 7.953758e-01 6.838409e-01 7.530805e-01 7.598925e-01 5.737341e-01 6.377646e-01 6.805583e-01 6.294667e-01 6.318099e-02
<GCONST> 1.160812e+02
<TRANSP> 5
 0.000000e+00 1.000000e+00 0.000000e+00 0.000000e+00 0.000000e+00
 0.000000e+00 7.672019e-01 2.327981e-01 0.000000e+00 0.000000e+00
 0.000000e+00 0.000000e+00 4.916669e-01 5.083331e-01 0.000000e+00
 0.000000e+00 0.000000e+00 0.000000e+00 6.102045e-01 3.897955e-01
 0.000000e+00 0.000000e+00 0.000000e+00 0.000000e+00 0.000000e+00
<ENDHMM>
~h "ou"
<BEGINHMM>
<NUMSTATES> 5
<STATE> 2
<MEAN> 39
 3.567745e+00 4.130595e+00 -6.876650e+00 -1.235896e+01 -1.543025e+01 -7.392304e+00 -6.130347e+00 -9.365591e+00 -7.947450e+00 -5.305434e+00 1.985518e+00 2.679369e-01 6.910277e+01 -6.617962e-02 3.517439e-01 3.316916e-01 5.807310e-01 1.274948e-01 -2.558081e-01 -2.858459e-01 -1.965996e-01 -2.723713e-01 -3.889160e-01 -1.136002e-01 -3.034757e-02 -3.116258e-01 -2.886228e-02 5.110203e-02 4.337921e-02 5.533568e-02 8.981965e-02 1.234536e-02 3.798020e-02 7.033651e-02 2.525754e-02 -3.704853e-02 -7.261744e-02 -4.362403e-02 -6.985744e-02
<VARIANCE> 39
 7.300036e+00 3.312331e+01 2.150101e+01 7.106889e+01 4.893721e+01 4.921113e+01 9.336492e+01 5.627511e+01 6.367096e+01 4.841024e+01 4.033973e+01 3.772472e+01 1.408257e+01 1.266828e-01 4.267771e-01 5.219896e-01 8.736507e-01 8.394396e-01 1.122667e+00 1.079288e+00 1.332790e+00 1.203722e+00 1.303943e+00 1.149492e+00 1.094152e+00 1.721848e-01 2.263461e-02 5.717826e-02 7.533279e-02 1.283271e-01 1.545043e-01 1.898406e-01 1.729300e-01 2.246236e-01 1.903039e-01 2.246728e-01 1.783028e-01 1.726155e-01 1.879642e-02
<GCONST> 8.570551e+01
<STATE> 3
<MEAN> 39
 1.801090e+00 1.211654e+01 -1.162225e+00 -8.945267e+00 -1.403731e+01 -9.410829e+00 -1.209511e+00 -8.348584e+00 -8.668908e+00 -7.155530e+00 -4.369825e+00 -2.655926e+00 6.523372e+01 -2.840008e-01 2.752500e-01 3.220082e-01 7.791714e-01 7.300677e-01 1.892609e-01 -3.132687e-01 2.002807e-01 5.308468e-03 -2.787735e-01 -3.154113e-01 -1.747704e-01 -6.710008e-01 -6.815588e-02 -9.880424e-02 -9.920669e-03 3.365297e-02 1.011589e-01 1.112652e-01 1.033425e-03 4.117696e-03 7.728547e-02 1.030723e-01 4.507337e-02 2.803987e-02 -3.075414e-02
<VARIANCE> 39
 4.951963e+00 3.107112e+01 2.768168e+01 4.031542e+01 5.057661e+01 4.853509e+01 8.493183e+01 4.442647e+01 3.747956e+01 4.409675e+01 3.455689e+01 4.103399e+01 2.242549e+01 1.846255e-01 5.044900e-01 6.525835e-01 9.904937e-01 1.184674e+00 1.317078e+00 1.759934e+00 1.635990e+00 1.342959e+00 1.525605e+00 1.344275e+00 1.381117e+00 2.262229e-01 3.048038e-02 6.435856e-02 1.011693e-01 1.459215e-01 1.821822e-01 2.027393e-01 2.699758e-01 2.567928e-01 2.374253e-01 2.686305e-01 2.331737e-01 2.249843e-01 2.150043e-02
<GCONST> 9.013502e+01
<STATE> 4
<MEAN> 39
 -2.823279e+00 8.273844e+00 -8.162410e-01 -1.530044e+00 -5.285402e+00 -5.532265e+00 -5.159966e+00 -6.352070e+00 -6.513380e+00 -5.903279e+00 -3.624084e+00 -2.091562e+00 5.988727e+01 -7.096310e-01 -4.834856e-01 -1.275893e-01 2.928306e-01 6.489168e-01 5.047311e-01 2.404631e-01 4.888707e-01 4.950106e-01 4.570930e-01 1.073582e-01 1.445160e-01 -6.800044e-01 -2.357522e-02 -8.606114e-02 -8.667567e-02 -1.099693e-01 -5.806056e-02 7.047047e-03 9.234563e-02 4.627218e-02 5.782821e-02 7.387651e-02 4.591404e-02 4.124391e-02 5.318978e-02
<VARIANCE> 39
 1.037135e+01 2.906531e+01 2.076550e+01 2.437401e+01 2.589831e+01 2.571541e+01 3.355845e+01 3.300401e+01 2.396119e+01 2.982524e+01 3.029629e+01 2.872087e+01 2.259396e+01 3.659098e-01 7.392660e-01 7.566957e-01 1.212677e+00 1.422304e+00 1.263783e+00 1.882877e+00 1.683908e+00 1.402719e+00 1.558612e+00 1.575346e+00 1.384480e+00 3.689288e-01 5.243381e-02 1.122167e-01 1.423248e-01 2.070202e-01 2.354839e-01 2.377964e-01 2.866921e-01 3.058412e-01 2.568542e-01 2.868698e-01 2.862273e-01 2.621184e-01 4.528677e-02
<GCONST> 9.222441e+01
<TRANSP> 5
 0.000000e+00 1.000000e+00 0.000000e+00 0.000000e+00 0.000000e+00
 0.000000e+00 8.747973e-01 1.252027e-01 0.000000e+00 0.000000e+00
 0.000000e+00 0.000000e+00 8.571276e-01 1.428724e-01 0.000000e+00
