~o
<STREAMINFO> 1 39
<VECSIZE> 39<NULLD><MFCC_D_A_0><DIAGC>
~h "a"
<BEGINHMM>
<NUMSTATES> 5
<STATE> 2
<MEAN> 39
 3.783989e-02 -1.975540e+00 -9.853712e+00 -1.031999e+01 -4.765390e+00 -3.311682e+00 -8.440087e-01 -6.928310e+00 -3.461450e-03 1.277992e+00 -2.064765e+00 -5.347551e+00 7.147589e+01 -3.245274e-01 1.214066e-01 2.546720e-01 5.342551e-01 3.614360e-01 -7.239274e-01 -7.268871e-01 4.395866e-01 8.608173e-01 8.034154e-01 4.397001e-01 -3.019864e-01 -1.911986e-01 -2.091994e-01 4.056292e-01 3.393432e-01 2.788484e-01 -4.336368e-02 -7.926144e-02 -3.005785e-02 1.024968e-01 -2.066745e-01 -2.598356e-01 3.722728e-02 1.754639e-01 -6.314582e-01
<VARIANCE> 39
 1.533116e+01 3.446806e+01 4.118910e+01 4.453848e+01 4.806803e+01 3.799645e+01 4.245596e+01 4.880186e+01 4.031679e+01 5.161908e+01 5.857667e+01 5.842539e+01 3.948495e+01 2.315239e+00 4.195688e+00 3.931775e+00 5.443064e+00 3.014238e+00 3.231421e+00 3.714912e+00 3.661273e+00 3.705683e+00 3.658860e+00 3.531724e+00 3.548535e+00 5.879143e+00 3.489727e-01 8.538697e-01 8.376270e-01 1.163668e+00 5.425987e-01 7.014646e-01 7.692485e-01 7.100519e-01 7.528424e-01 6.439502e-01 7.387705e-01 6.830274e-01 7.431700e-01
<GCONST> 1.326809e+02
<STATE> 3
<MEAN> 39
 -2.862786e+00 1.037276e-01 -7.714941e+00 -7.884421e+00 -3.917680e+00 -5.377248e+00 -2.992703e+00 -4.313765e+00 1.246339e+00 3.551587e+00 -6.394142e-02 -5.158823e+00 6.430499e+01 -9.666004e-01 4.283363e-01 4.554220e-01 2.981901e-01 8.907929e-02 -8.606562e-02 -7.651038e-02 5.811945e-01 -1.475972e-01 -1.639984e-01 3.324479e-01 4.262841e-01 -1.921271e+00 -4.199828e-02 -1.289817e-01 -1.513674e-01 -1.891137e-01 -7.465292e-02 2.133387e-01 1.900455e-01 -1.008135e-01 -9.408007e-02 -1.999730e-01 -1.235261e-01 1.108788e-01 1.445413e-01
<VARIANCE> 39
 1.140226e+01 1.597272e+01 2.952485e+01 2.301579e+01 3.232635e+01 2.582587e+01 2.665551e+01 2.921855e+01 3.101256e+01 3.180208e+01 3.683512e+01 4.507410e+01 3.691717e+01 8.651366e-01 1.881771e+00 1.657601e+00 1.814267e+00 2.010138e+00 2.263195e+00 2.526469e+00 2.349939e+00 2.512185e+00 1.810731e+00 1.718458e+00 1.819159e+00 1.606975e+00 1.874105e-01 3.169804e-01 3.069800e-01 3.826968e-01 3.473980e-01 4.225821e-01 5.333421e-01 4.183570e-01 5.412320e-01 3.463692e-01 2.788243e-01 3.907124e-01 3.345849e-01
<GCONST> 1.093498e+02
<STATE> 4
<MEAN> 39
 -9.665180e+00 2.010972e+00 -5.631163e+00 -6.273876e+00 -2.411866e+00 -3.121275e+00 -1.110098e+00 -9.905949e-01 1.611833e+00 -8.812989e-02 -8.018970e-02 -2.856699e+00 6.194238e+01 -1.175132e+00 1.937468e-01 5.583951e-01 2.737343e-04 -5.755574e-06 2.784447e-01 1.488326e-01 1.270587e-01 -5.597177e-02 -4.514750e-01 1.981146e-01 4.422041e-01 -7.420951e-02 -8.577561e-03 -1.061705e-01 6.021027e-02 -4.462745e-02 -9.641543e-02 -7.447841e-02 -1.567665e-02 -9.764867e-02 -8.428458e-03 -4.123890e-02 -1.003733e-02 -4.744019e-02 3.296406e-01
<VARIANCE> 39
 4.785588e+01 1.635266e+01 2.904387e+01 1.993940e+01 1.896057e+01 2.332830e+01 2.588041e+01 2.121939e+01 1.817436e+01 3.027746e+01 2.095631e+01 2.119685e+01 4.022755e+01 2.765113e+00 1.879725e+00 2.223166e+00 1.338124e+00 1.438468e+00 1.716602e+00 1.959318e+00 1.846456e+00 1.643877e+00 1.663283e+00 1.809043e+00 1.685686e+00 2.579421e+00 4.510785e-01 3.633233e-01 3.615788e-01 2.445855e-01 3.281709e-01 3.458669e-01 3.849496e-01 3.587283e-01 3.385260e-01 2.941636e-01 3.154362e-01 2.975917e-01 3.098162e-01
<GCONST> 1.069654e+02
<TRANSP> 5
 0.000000e+00 1.000000e+00 0.000000e+00 0.000000e+00 0.000000e+00
 0.000000e+00 7.640737e-01 2.359264e-01 0.000000e+00 0.000000e+00
 0.000000e+00 0.000000e+00 7.059683e-01 2.940316e-01 0.000000e+00
 0.000000e+00 0.000000e+00 0.000000e+00 8.637663e-01 1.362337e-01
 0.000000e+00 0.000000e+00 0.000000e+00 0.000000e+00 0.000000e+00
<ENDHMM>
~h "e"
<BEGINHMM>
<NUMSTATES> 5
<STATE> 2
<MEAN> 39
 -3.974299e+00 1.974851e+00 2.521363e+00 1.561248e+00 -1.170036e+01 -1.380861e+01 -5.057084e+00 -4.362079e+00 -2.707194e+00 -3.956027e+00 -2.078599e+00 -1.177897e+00 6.577005e+01 -3.550501e-01 -1.980903e-01 1.654665e-01 2.552963e-01 -3.828105e-01 -1.840185e-02 5.018311e-01 3.993873e-01 2.020425e-01 1.124349e-01 -3.666399e-01 2.761822e-01 -2.496790e-01 -1.043332e-01 -5.887889e-02 -1.214101e-01 -1.754051e-01 1.027864e-01 2.572525e-01 1.789186e-01 8.520276e-02 1.175287e-02 3.474678e-02 1.044381e-01 -4.541050e-02 -3.413943e-02
<VARIANCE> 39
 1.821613e+01 2.435734e+01 3.853729e+01 4.387817e+01 6.644084e+01 6.969115e+01 4.881263e+01 3.811371e+01 4.821283e+01 4.908166e+01 4.272362e+01 3.811820e+01 3.844168e+01 1.016424e+00 1.351314e+00 1.865556e+00 1.640531e+00 4.123543e+00 2.904280e+00 3.173251e+00 2.328973e+00 3.213847e+00 2.510919e+00 2.618106e+00 2.133292e+00 1.257730e+00 1.836918e-01 2.400187e-01 2.967244e-01 3.544440e-01 6.431047e-01 5.530483e-01 5.732695e-01 5.272982e-01 6.128051e-01 4.967322e-01 4.655246e-01 4.138639e-01 1.870922e-01
<GCONST> 1.178284e+02
<STATE> 3
<MEAN> 39
 -4.659250e+00 1.412624e+00 2.971819e+00 1.273206e+00 -1.307643e+01 -1.462685e+01 -3.493030e+00 -3.397776e+00 -2.486260e+00 -3.953750e+00 -1.902031e+00 -4.930076e-01 6.588940e+01 -2.499827e-01 2.583538e-02 -1.129234e-01 9.544527e-02 2.869665e-01 4.401040e-01 5.574878e-01 4.005902e-01 2.025223e-02 2.171078e-01 1.608621e-01 -2.669570e-02 -6.042650e-01 -3.659542e-02 1.314673e-02 -8.658707e-02 -5.024484e-02 2.871990e-01 2.423710e-01 -1.326780e-02 -1.970781e-02 8.023656e-02 3.819678e-02 8.628421e-02 -7.147105e-02 -1.361693e-01
<VARIANCE> 39
 1.603053e+01 2.162400e+01 3.875515e+01 4.901334e+01 4.864434e+01 6.871385e+01 5.561555e+01 4.557004e+01 3.906818e+01 4.030245e+01 4.235214e+01 3.826844e+01 3.226977e+01 5.548131e-01 8.987660e-01 1.082810e+00 1.462688e+00 3.394278e+00 2.922552e+00 2.331175e+00 2.277473e+00 2.144383e+00 2.124734e+00 2.114689e+00 1.776774e+00 1.026067e+00 1.111717e-01 1.673326e-01 2.175624e-01 2.995435e-01 3.966209e-01 4.489113e-01 4.571950e-01 3.639142e-01 4.690382e-01 3.303506e-01 3.944303e-01 3.766991e-01 1.316757e-01
<GCONST> 1.098144e+02
<STATE> 4
<MEAN> 39
 -5.627708e+00 8.663481e-01 2.279800e+00 1.097375e+00 -1.131691e+01 -1.228097e+01 -5.277826e-01 -2.314548e+00 -2.196946e+00 -4.084189e+00 -1.053720e+00 -1.593891e+00 6.352344e+01 -3.043562e-01 -2.943694e-02 -3.119794e-01 -7.555261e-03 8.054207e-01 6.300659e-01 1.971626e-01 2.404478e-01 3.384930e-01 3.552143e-01 1.429801e-01 8.618197e-02 -7.585025e-01 -2.811543e-02 -5.428396e-02 -4.356695e-02 -5.292159e-02 8.350106e-02 4.704307e-02 -6.696336e-02 -3.122889e-02 5.577941e-02 3.704366e-02 -1.681858e-02 1.535674e-02 1.641911e-02
<VARIANCE> 39
 1.455834e+01 1.695744e+01 3.319305e+01 3.800446e+01 6.049950e+01 6.597573e+01 5.621000e+01 4.473779e+01 2.874788e+01 4.010321e+01 3.867884e+01 3.343949e+01 3.423204e+01 3.702699e-01 6.251765e-01 7.717397e-01 1.134801e+00 1.764952e+00 1.834110e+00 1.676509e+00 1.617595e+00 1.778191e+00 1.533454e+00 1.631694e+00 1.658363e+00 5.428610e-01 6.324972e-02 1.192328e-01 1.416096e-01 1.870959e-01 3.143042e-01 3.083257e-01 2.937163e-01 3.251434e-01 3.187807e-01 2.786009e-01 3.332027e-01 3.185572e-01 1.068191e-01
<GCONST> 1.000587e+02
<TRANSP> 5
 0.000000e+00 1.000000e+00 0.000000e+00 0.000000e+00 0.000000e+00
 0.000000e+00 4.484065e-01 5.515935e-01 0.000000e+00 0.000000e+00
 0.000000e+00 0.000000e+00 4.357539e-01 5.642461e-01 0.000000e+00
 0.000000e+00 0.000000e+00 0.000000e+00 7.911261e-01 2.088738e-01
 0.000000e+00 0.000000e+00 0.000000e+00 0.000000e+00 0.000000e+00
<ENDHMM>
~h "h"
<BEGINHMM>
<NUMSTATES> 5
<STATE> 2
<MEAN> 39
 -5.390305e+00 -3.768004e-01 -5.200161e+00 -1.107322e+01 -9.878248e+00 -5.255031e+00 3.514451e+00 -1.945079e+00 -1.077757e+00 -2.591985e+00 -2.969256e+00 -2.063495e+00 6.738983e+01 1.547082e+00 1.072293e+00 5.761253e-01 -3.258938e-01 -1.609486e+00 -1.323429e+00 -7.562898e-01 -1.042629e+00 -7.652948e-01 -5.837154e-01 -4.714053e-01 -1.777813e-01 1.356558e+00 6.066279e-02 -1.323979e-01 -3.349987e-02 -1.940445e-02 -8.813874e-02 -2.376200e-02 -1.648144e-01 -1.075418e-01 -1.153494e-02 5.699817e-02 1.706325e-01 1.714924e-01 3.868666e-02
<VARIANCE> 39
 4.738367e+01 8.049761e+01 6.311355e+01 6.956109e+01 7.825278e+01 7.438975e+01 5.365105e+01 5.297556e+01 4.677783e+01 3.678835e+01 3.254780e+01 3.159625e+01 3.039362e+01 2.256218e+00 3.287490e+00 1.967765e+00 3.229047e+00 4.065287e+00 2.984998e+00 3.028523e+00 3.265167e+00 2.696700e+00 2.182446e+00 2.459653e+00 2.266552e+00 1.198744e+00 5.019081e-01 6.948522e-01 3.357029e-01 4.875221e-01 6.691789e-01 5.984778e-01 5.236950e-01 5.827146e-01 4.812568e-01 4.056112e-01 4.811251e-01 3.792540e-01 2.055426e-01
<GCONST> 1.251631e+02
<STATE> 3
<MEAN> 39
 2.156820e-01 1.802666e+00 -3.302004e+00 -1.152557e+01 -1.645561e+01 -1.030294e+01 -9.155974e-01 -6.226889e+00 -4.124700e+00 -4.001605e+00 -3.418530e+00 -1.792751e+00 7.220025e+01 4.756349e-01 -4.564849e-01 8.079785e-02 -2.283966e-01 -1.010234e+00 -5.551429e-01 -8.654026e-01 -9.841892e-01 -3.665481e-01 -2.437092e-02 7.298651e-01 5.212432e-01 8.577110e-01 -4.196192e-01 -2.677494e-01 -5.608093e-02 2.165429e-01 4.712391e-01 2.874012e-01 9.009629e-02 1.111559e-01 1.209527e-01 8.979458e-02 2.342647e-01 7.178842e-02 -3.090733e-01
<VARIANCE> 39
 2.374368e+01 6.312420e+01 8.379869e+01 8.269231e+01 6.874781e+01 7.580750e+01 5.028579e+01 4.948552e+01 5.054541e+01 4.153403e+01 3.957800e+01 5.317561e+01 2.355416e+01 9.377425e-01 2.001993e+00 1.665906e+00 2.501339e+00 3.128115e+00 2.787850e+00 3.039339e+00 2.631740e+00 2.554532e+00 1.954663e+00 2.488022e+00 2.303318e+00 9.059971e-01 1.751715e-01 4.064399e-01 2.860087e-01 4.379820e-01 5.501096e-01 4.995033e-01 5.298573e-01 5.299135e-01 5.227461e-01 4.269199e-01 5.128310e-01 3.989202e-01 1.271928e-01
<GCONST> 1.197988e+02
<STATE> 4
<MEAN> 39
 5.197160e-01 9.271543e-01 -3.756083e+00 -1.046467e+01 -1.736275e+01 -1.227343e+01 -2.556595e+00 -8.240518e+00 -3.989533e+00 -5.384742e+00 -1.142945e+00 -5.760622e-01 7.260450e+01 -7.853738e-02 -2.817328e-01 1.038811e-01 2.358792e-01 -1.359811e-02 -6.176545e-02 -4.553772e-01 -6.247340e-01 -2.646677e-01 -1.043699e-01 7.120963e-01 4.418180e-01 1.685401e-01 -1.342597e-01 1.009618e-03 -1.965380e-02 2.023268e-01 3.140935e-01 7.018131e-02 -2.275280e-02 5.792817e-02 8.269461e-02 1.102847e-01 4.797194e-03 -1.229953e-01 -1.526649e-01
<VARIANCE> 39
 2.009348e+01 5.305688e+01 8.587282e+01 9.866273e+01 6.176382e+01 8.267711e+01 5.484192e+01 5.521605e+01 6.297660e+01 4.551127e+01 4.215232e+01 6.229403e+01 1.847289e+01 2.997085e-01 1.128897e+00 1.204372e+00 1.386525e+00 2.143478e+00 2.102955e+00 2.507292e+00 2.404029e+00 2.174518e+00 1.881845e+00 2.896812e+00 2.058678e+00 4.952817e-01 8.077929e-02 1.643175e-01 1.744374e-01 2.524866e-01 3.426017e-01 3.660920e-01 4.405991e-01 3.673482e-01 4.062023e-01 3.327942e-01 4.749045e-01 4.291353e-01 6.751481e-02
<GCONST> 1.105921e+02
<TRANSP> 5
 0.000000e+00 1.000000e+00 0.000000e+00 0.000000e+00 0.000000e+00
 0.000000e+00 8.014217e-01 1.985783e-01 0.000000e+00 0.000000e+00
 0.000000e+00 0.000000e+00 4.498756e-01 5.501243e-01 0.000000e+00
 0.000000e+00 0.000000e+00 0.000000e+00 6.156729e-01 3.843271e-01
 0.000000e+00 0.000000e+00 0.000000e+00 0.000000e+00 0.000000e+00
<ENDHMM>
~h "i"
<BEGINHMM>
<NUMSTATES> 5
<STATE> 2
<MEAN> 39
 -2.236662e+01 1.644742e+00 3.866425e+00 -4.558584e+00 -4.082818e+00 -5.682294e+00 2.544978e+00 -1.673701e+00 -3.901017e-02 -3.641202e+00 1.696729e+00 2.486897e-02 6.875370e+01 4.444991e-01 2.499270e-02 1.792148e+00 1.354376e+00 -5.081423e-01 -1.008538e+00 3.195924e-01 -5.382985e-01 -6.756787e-01 -6.041706e-01 -2.763825e-01 -1.663573e-02 3.231469e-01 8.466167e-01 1.566250e-01 -8.422862e-02 2.656578e-01 -1.018728e-01 -2.826703e-01 -3.635336e-01 -1.705527e-01 -1.798440e-01 -1.259176e-01 -9.176621e-02 -5.955363e-03 -2.509748e-01
<VARIANCE> 39
 4.297803e+01 2.740670e+01 5.799572e+01 4.652642e+01 3.847436e+01 6.141630e+01 4.872356e+01 2.639321e+01 3.243602e+01 2.940223e+01 1.856670e+01 1.975742e+01 1.487361e+01 9.259723e+00 2.205304e+00 2.270720e+00 3.449132e+00 3.075792e+00 3.056780e+00 3.275982e+00 2.983510e+00 2.896208e+00 2.061768e+00 1.897566e+00 1.304944e+00 1.552945e+00 7.089524e-01 4.404507e-01 4.978017e-01 4.947737e-01 5.071149e-01 4.782983e-01 5.266206e-01 4.803011e-01 5.112042e-01 4.146054e-01 3.910288e-01 2.631110e-01 2.067005e-01
<GCONST> 1.190118e+02
<STATE> 3
<MEAN> 39
 -1.245838e+01 1.983345e+00 1.004987e+01 3.300810e+00 -8.376997e+00 -1.248904e+01 -3.341893e-01 -6.374166e+00 -4.559829e+00 -6.995963e+00 -3.225867e-01 3.467618e-01 6.762542e+01 2.847658e+00 1.028694e+00 1.241243e-01 1.611799e+00 -4.549152e-01 -2.058571e+00 -1.368980e+00 -6.199174e-01 -9.344790e-01 -1.068191e+00 -4.347482e-01 3.945666e-01 -4.402629e-01 -3.818992e-01 1.201555e-02 -5.652707e-01 -5.438093e-01 2.664673e-01 3.351842e-01 5.854731e-02 3.064154e-01 3.904831e-01 1.259628e-01 4.741229e-02 6.026588e-05 -2.550112e-02
<VARIANCE> 39
 3.866768e+01 3.168669e+01 5.191098e+01 5.683652e+01 4.109487e+01 4.689745e+01 4.613413e+01 3.279450e+01 3.047859e+01 3.213694e+01 2.013797e+01 1.979940e+01 1.228214e+01 2.174223e+00 2.223590e+00 1.936962e+00 2.403025e+00 3.141903e+00 2.526400e+00 3.216794e+00 3.541986e+00 2.598397e+00 1.962754e+00 2.833253e+00 1.866967e+00 4.748086e-01 5.541503e-01 3.455530e-01 3.744018e-01 3.421307e-01 5.406971e-01 4.788293e-01 5.398139e-01 6.408188e-01 4.462698e-01 4.564561e-01 4.343148e-01 3.283387e-01 7.363792e-02
<GCONST> 1.149473e+02
<STATE> 4
<MEAN> 39
 -7.682882e+00 2.835452e+00 7.595692e+00 5.779916e+00 -8.949819e+00 -1.642756e+01 -2.340524e+00 -6.206120e+00 -4.708312e+00 -8.808599e+00 -1.013322e+00 9.301787e-01 6.700176e+01 9.602470e-01 4.670352e-01 -9.555385e-01 1.774326e-01 3.293103e-01 -4.192024e-01 -4.660357e-01 1.709343e-01 2.478849e-01 -1.421472e-01 -2.018709e-01 7.800930e-02 -4.419972e-01 -4.309908e-01 -1.096813e-01 -1.837247e-01 -3.462169e-01 3.243586e-01 5.965592e-01 1.179372e-01 1.052471e-02 2.666999e-01 3.203359e-01 7.811240e-02 -1.547814e-01 -6.343575e-02
<VARIANCE> 39
 1.674149e+01 2.335673e+01 4.093588e+01 6.327089e+01 3.634677e+01 4.005505e+01 2.426795e+01 2.979058e+01 2.366642e+01 3.486152e+01 2.898219e+01 2.201000e+01 1.584154e+01 1.409971e+00 1.272108e+00 1.551355e+00 1.706447e+00 1.859916e+00 3.001044e+00 2.585095e+00 2.566643e+00 2.185102e+00 2.404541e+00 2.396909e+00 1.641934e+00 3.697813e-01 2.620836e-01 2.200502e-01 2.008514e-01 3.002141e-01 2.430215e-01 4.490030e-01 3.759444e-01 5.735371e-01 4.185405e-01 3.852001e-01 4.423145e-01 2.951870e-01 5.222534e-02
<GCONST> 1.062882e+02
<TRANSP> 5
 0.000000e+00 1.000000e+00 0.000000e+00 0.000000e+00 0.000000e+00
 0.000000e+00 8.108345e-01 1.891655e-01 0.000000e+00 0.000000e+00
 0.000000e+00 0.000000e+00 5.116553e-01 4.883447e-01 0.000000e+00
 0.000000e+00 0.000000e+00 0.000000e+00 5.885419e-01 4.114581e-01
 0.000000e+00 0.000000e+00 0.000000e+00 0.000000e+00 0.000000e+00
<ENDHMM>
~h "k"
<BEGINHMM>
<NUMSTATES> 5
<STATE> 2
<MEAN> 39
 -1.222286e+01 -2.535140e+00 2.930218e+00 -3.930005e+00 -1.197278e+01 -1.077494e+01 -1.655741e+00 -4.962725e+00 -3.501225e+00 -3.339404e+00 -5.581805e-01 -1.822505e+00 7.176434e+01 1.621337e+00 8.839881e-01 1.143319e+00 4.326349e-01 -1.197025e+00 -1.519492e+00 -6.560531e-01 -8.341793e-01 -8.384257e-01 -9.135411e-01 -3.686927e-01 -3.286586e-01 7.139993e-01 1.420474e-01 2.022712e-03 -7.128618e-02 -3.545169e-02 2.294485e-03 1.808719e-02 -3.885857e-02 1.567927e-02 3.916007e-02 5.482583e-02 1.143777e-01 1.140261e-01 -1.549965e-01
<VARIANCE> 39
 5.402839e+01 3.712079e+01 5.184280e+01 3.512018e+01 5.037043e+01 7.148582e+01 4.255901e+01 5.192368e+01 4.020704e+01 3.647700e+01 3.198458e+01 3.570554e+01 2.355780e+01 3.348479e+00 3.139461e+00 2.410878e+00 2.725699e+00 4.105750e+00 3.229747e+00 3.288684e+00 3.131781e+00 3.339040e+00 2.958676e+00 2.324379e+00 2.231368e+00 2.383808e+00 7.755415e-01 7.394618e-01 4.785703e-01 5.455853e-01 8.143992e-01 6.773741e-01 5.776338e-01 5.433214e-01 5.821887e-01 6.238481e-01 4.486630e-01 3.688685e-01 6.813322e-01
<GCONST> 1.272777e+02
<STATE> 3
<MEAN> 39
 -4.578323e+00 -5.987774e-01 5.913643e+00 -3.132082e+00 -1.750004e+01 -1.755534e+01 -3.923501e+00 -7.682110e+00 -6.614470e+00 -6.804024e+00 -1.168624e+00 -2.163537e+00 7.461412e+01 2.503277e-01 -2.194437e-01 3.109084e-01 -3.564276e-01 -9.069697e-01 -5.216976e-01 -2.872136e-01 -3.740416e-01 -3.970140e-02 1.317821e-01 6.658533e-01 3.634247e-01 3.687315e-01 -5.416247e-01 -6.250504e-02 -1.231267e-01 2.992304e-02 4.498876e-01 5.191311e-01 3.340657e-01 2.221327e-01 2.558962e-01 2.541966e-01 2.553096e-02 1.348409e-02 -3.362373e-01
<VARIANCE> 39
 1.596857e+01 4.478142e+01 6.778640e+01 4.704982e+01 6.691944e+01 6.915050e+01 4.283206e+01 8.934368e+01 5.999697e+01 3.413696e+01 3.795203e+01 5.404315e+01 1.522182e+01 6.578048e-01 1.059538e+00 1.127058e+00 9.725978e-01 1.838063e+00 1.889010e+00 1.887685e+00 2.131697e+00 1.768817e+00 1.537094e+00 2.089686e+00 1.140748e+00 5.591465e-01 1.870345e-01 3.580744e-01 2.552189e-01 1.920982e-01 4.431746e-01 4.494588e-01 4.323396e-01 4.903342e-01 4.413325e-01 3.364324e-01 3.635396e-01 2.517738e-01 6.268977e-02
<GCONST> 1.086841e+02
<STATE> 4
<MEAN> 39
 -6.220277e+00 6.512523e-01 7.639135e+00 -2.995045e+00 -1.785945e+01 -1.783569e+01 -4.663803e+00 -8.892024e+00 -6.481373e+00 -6.988444e+00 1.252498e+00 -1.244609e+00 7.495627e+01 -4.732130e-02 1.351434e-01 2.812194e-01 -3.559053e-03 -2.710159e-01 -7.932790e-03 6.548797e-02 -3.108606e-01 3.408261e-02 1.559677e-01 1.528240e-01 6.396794e-02 -1.059404e-01 -1.030341e-01 6.711929e-02 -2.255283e-02 8.406633e-02 2.130932e-01 1.413879e-01 9.729101e-02 5.619007e-02 6.745365e-03 1.450696e-02 -1.185164e-01 -7.198744e-02 -1.332286e-01
<VARIANCE> 39
 1.592976e+01 4.922438e+01 4.899622e+01 5.441441e+01 6.134787e+01 6.213557e+01 3.429292e+01 7.599249e+01 4.733964e+01 4.312453e+01 4.774092e+01 6.957027e+01 1.200784e+01 1.992111e-01 5.313688e-01 5.421322e-01 6.031173e-01 1.058337e+00 1.011983e+00 1.154458e+00 1.221411e+00 9.273702e-01 9.460431e-01 1.395966e+00 8.763003e-01 2.387127e-01 7.034289e-02 9.769849e-02 1.022846e-01 1.137404e-01 2.499461e-01 2.252160e-01 2.250062e-01 2.668469e-01 2.304240e-01 1.989129e-01 2.813700e-01 1.534286e-01 3.495368e-02
<GCONST> 9.154053e+01
<TRANSP> 5
 0.000000e+00 1.000000e+00 0.000000e+00 0.000000e+00 0.000000e+00
 0.000000e+00 8.462518e-01 1.537481e-01 0.000000e+00 0.000000e+00
 0.000000e+00 0.000000e+00 2.574189e-01 7.425811e-01 0.000000e+00
 0.000000e+00 0.000000e+00 0.000000e+00 5.849763e-01 4.150237e-01
 0.000000e+00 0.000000e+00 0.000000e+00 0.000000e+00 0.000000e+00
<ENDHMM>
~h "m"
<BEGINHMM>
<NUMSTATES> 5
<STATE> 2
<MEAN> 39
 5.259919e-01 6.697149e+00 -1.288247e+00 -1.538696e+00 -5.002087e+00 -3.251537e+00 -5.119503e-01 -7.505624e+00 -9.750486e+00 -1.107009e+01 -4.103259e+00 -1.860028e+00 6.490002e+01 8.948820e-01 -6.724693e-01 -1.212644e+00 -1.769519e+00 -1.215484e+00 6.582212e-02 4.786170e-01 -2.158036e-01 4.240561e-01 3.986827e-01 -1.165259e-01 -1.270599e-01 1.487338e+00 -2.093910e-01 -4.059485e-01 -3.533467e-01 -4.030986e-01 -2.629812e-02 2.598149e-01 2.436576e-01 1.590585e-01 4.524227e-01 4.962750e-01 9.565280e-02 -2.237576e-02 4.650538e-02
<VARIANCE> 39
 1.320879e+01 2.764311e+01 4.843910e+01 5.505579e+01 5.471952e+01 4.711426e+01 5.571976e+01 5.774076e+01 4.710483e+01 4.915245e+01 4.197906e+01 2.507415e+01 2.701733e+01 1.077044e+00 2.301235e+00 3.181242e+00 4.568548e+00 2.898687e+00 2.751199e+00 2.936180e+00 3.646533e+00 4.865416e+00 5.671961e+00 2.606086e+00 1.826395e+00 9.828048e-01 1.446490e-01 2.671562e-01 4.504716e-01 6.388402e-01 5.458592e-01 4.437845e-01 4.803163e-01 5.890083e-01 7.268182e-01 7.651789e-01 4.966580e-01 3.148876e-01 1.374358e-01
<GCONST> 1.206858e+02
<STATE> 3
<MEAN> 39
 2.755068e+00 -4.443045e-01 -1.040631e+01 -1.461681e+01 -1.065990e+01 -6.119907e-01 4.416039e+00 -6.335956e+00 -3.596914e+00 -3.416201e+00 -4.009205e+00 -3.005930e+00 7.239740e+01 -1.430243e-01 -1.796379e+00 -1.472998e+00 -1.940895e+00 6.049946e-02 1.620325e+00 1.034367e+00 -2.903895e-01 8.839974e-01 1.251054e+00 -3.647054e-02 -4.584062e-01 1.323119e+00 -2.328199e-01 2.705998e-01 6.209113e-01 9.305030e-01 5.767510e-01 -1.024305e-01 -4.309219e-01 -9.848252e-02 -4.464598e-01 -4.388095e-01 2.724895e-02 -5.431594e-03 -3.702089e-01
<VARIANCE> 39
 1.129343e+01 3.743912e+01 4.401165e+01 4.198095e+01 6.229381e+01 5.509416e+01 5.862769e+01 8.542251e+01 4.041454e+01 5.139336e+01 3.936850e+01 4.167562e+01 1.903439e+01 7.420605e-01 1.638098e+00 2.102604e+00 3.790789e+00 3.862357e+00 3.702333e+00 3.185824e+00 4.062366e+00 4.134890e+00 3.659353e+00 3.154732e+00 2.520980e+00 9.681205e-01 1.024069e-01 2.474874e-01 2.947478e-01 4.831994e-01 5.963933e-01 6.513963e-01 5.113795e-01 6.351584e-01 5.539410e-01 6.930917e-01 4.713063e-01 3.810851e-01 1.056508e-01
<GCONST> 1.195269e+02
<STATE> 4
<MEAN> 39
 1.721817e+00 -3.807115e+00 -1.193157e+01 -1.502230e+01 -7.669646e+00 1.394893e+00 3.572192e+00 -6.785490e+00 -2.100916e+00 -2.379117e+00 -3.776693e+00 -4.379616e+00 7.435201e+01 -1.946445e-01 -4.339025e-01 2.053077e-02 6.831510e-02 2.635702e-01 2.807131e-02 -3.568324e-01 6.357491e-03 1.402779e-01 3.119989e-01 2.244472e-01 -1.837237e-01 2.299181e-01 8.828908e-03 2.957821e-01 2.440011e-01 2.884330e-01 -3.483633e-02 -3.390782e-01 -2.438844e-01 5.170786e-02 -1.388986e-01 -1.501140e-01 6.857499e-02 1.062485e-01 -2.131120e-01
<VARIANCE> 39
 1.063467e+01 4.394721e+01 3.878991e+01 4.016298e+01 6.159130e+01 7.402728e+01 6.462654e+01 9.795066e+01 6.851187e+01 4.984958e+01 4.845189e+01 4.343108e+01 1.799774e+01 3.325542e-01 9.959477e-01 8.825205e-01 1.344021e+00 1.372226e+00 2.251640e+00 1.706457e+00 2.059833e+00 1.873619e+00 1.812643e+00 1.573579e+00 1.223593e+00 4.707447e-01 6.266204e-02 1.311635e-01 1.938045e-01 3.240019e-01 2.913328e-01 3.736774e-01 3.166557e-01 3.593366e-01 3.377824e-01 3.129408e-01 2.688159e-01 2.600873e-01 6.620012e-02
<GCONST> 1.040237e+02
<TRANSP> 5
 0.000000e+00 1.000000e+00 0.000000e+00 0.000000e+00 0.000000e+00
 0.000000e+00 8.456502e-01 1.543498e-01 0.000000e+00 0.000000e+00
 0.000000e+00 0.000000e+00 5.160303e-01 4.839697e-01 0.000000e+00
 0.000000e+00 0.000000e+00 0.000000e+00 6.900486e-01 3.099513e-01
 0.000000e+00 0.000000e+00 0.000000e+00 0.000000e+00 0.000000e+00
<ENDHMM>
~h "n"
<BEGINHMM>
<NUMSTATES> 5
<STATE> 2
<MEAN> 39
 2.014381e-02 -1.351047e+00 -3.682923e+00 -1.909153e+00 -1.098638e+01 -1.033099e+01 -7.274641e+00 -7.033086e+00 -2.139885e+00 -7.046206e+00 -5.905029e+00 -6.463490e+00 7.043453e+01 -8.208974e-02 2.263675e-01 2.583936e-01 2.258688e-01 1.167725e-01 -1.935926e-01 -4.064213e-01 1.478186e-01 5.917051e-02 -8.149351e-02 -3.307547e-02 3.575400e-03 -1.832173e-01 -9.788802e-02 -1.578871e-01 1.483139e-02 -1.283049e-01 -1.547612e-01 1.206469e-02 1.603061e-01 9.770630e-02 2.827866e-02 1.167933e-02 4.143582e-02 8.752618e-02 1.638217e-01
<VARIANCE> 39
 1.264944e+01 5.308410e+01 6.180193e+01 4.747374e+01 6.662052e+01 5.309914e+01 4.370707e+01 4.233056e+01 6.673441e+01 7.282841e+01 4.089335e+01 5.143077e+01 2.730023e+01 5.534905e-01 2.810293e+00 1.791324e+00 2.270518e+00 3.094573e+00 2.072193e+00 3.252950e+00 2.451216e+00 4.588236e+00 3.708581e+00 2.678607e+00 2.460832e+00 1.645400e+00 5.756254e-02 2.738332e-01 1.912469e-01 3.131776e-01 4.212246e-01 3.442013e-01 5.440030e-01 4.046710e-01 7.702342e-01 5.085697e-01 4.756307e-01 3.795477e-01 1.467892e-01
<GCONST> 1.173312e+02
<STATE> 3
<MEAN> 39
 -4.848648e-01 7.934209e-01 -8.470579e-01 -1.222521e+00 -1.122470e+01 -1.086510e+01 -7.564644e+00 -5.746838e+00 -2.770209e-01 -5.393863e+00 -5.142224e+00 -4.529373e+00 6.980620e+01 -4.565153e-01 -4.381284e-01 4.665712e-01 -5.414928e-02 -9.790269e-01 -3.908570e-01 4.380659e-01 6.763297e-01 3.455427e-01 -8.023425e-02 2.094810e-02 3.883130e-01 4.246839e-01 -2.260488e-02 -4.625215e-02 1.861447e-02 -3.708472e-02 -1.022279e-01 -4.005110e-02 1.989909e-01 8.033670e-02 -1.501828e-01 5.033181e-02 7.048915e-02 2.300262e-02 2.074671e-02
<VARIANCE> 39
 1.341558e+01 5.183646e+01 6.078759e+01 3.667374e+01 6.942854e+01 4.239600e+01 4.397720e+01 4.529945e+01 6.459267e+01 5.334380e+01 4.052602e+01 4.351776e+01 2.925483e+01 4.243239e-01 2.629930e+00 1.639790e+00 1.324342e+00 3.243973e+00 2.142950e+00 4.064724e+00 2.965772e+00 4.383907e+00 2.751560e+00 2.372614e+00 2.382408e+00 1.232670e+00 5.590279e-02 3.682838e-01 2.556076e-01 2.128707e-01 4.687855e-01 3.283625e-01 5.790516e-01 4.977122e-01 8.335227e-01 4.903429e-01 3.955249e-01 4.256806e-01 1.786078e-01
<GCONST> 1.159481e+02
<STATE> 4
<MEAN> 39
 -2.292698e+00 -2.380883e-01 1.786755e+00 -2.165163e+00 -1.698142e+01 -1.197598e+01 -3.300012e+00 -3.729538e+00 -3.377252e+00 -6.681959e+00 -2.487269e+00 -3.527222e+00 7.038326e+01 -2.362311e-01 1.054474e-01 2.638007e-01 1.597959e-01 -1.660218e-01 -2.801724e-01 3.253102e-01 1.865130e-01 -3.127984e-01 2.910255e-02 1.852314e-01 7.969908e-02 -2.265497e-01 1.551245e-02 2.844810e-02 -4.272878e-02 4.108491e-02 1.523154e-01 5.821763e-02 -7.011775e-02 -8.968729e-02 4.550321e-02 1.531558e-02 -3.756640e-02 -2.831420e-02 -7.981434e-02
<VARIANCE> 39
 1.231093e+01 4.545643e+01 4.807625e+01 2.607370e+01 9.022099e+01 4.133033e+01 5.011226e+01 5.578446e+01 5.953590e+01 5.384526e+01 5.914131e+01 3.809369e+01 2.417828e+01 2.401565e-01 9.920558e-01 8.142556e-01 7.515534e-01 2.217640e+00 1.122969e+00 1.772975e+00 1.527878e+00 1.972443e+00 1.992344e+00 1.683351e+00 1.364535e+00 3.986295e-01 4.430972e-02 1.779084e-01 1.241426e-01 1.431659e-01 2.841209e-01 1.873839e-01 3.354018e-01 2.807930e-01 3.523590e-01 3.308293e-01 2.585838e-01 2.307082e-01 5.959062e-02
<GCONST> 9.958251e+01
<TRANSP> 5
 0.000000e+00 1.000000e+00 0.000000e+00 0.000000e+00 0.000000e+00
 0.000000e+00 8.076356e-01 1.923644e-01 0.000000e+00 0.000000e+00
 0.000000e+00 0.000000e+00 7.507649e-01 2.492351e-01 0.000000e+00
 0.000000e+00 0.000000e+00 0.000000e+00 8.532659e-01 1.467341e-01
 0.000000e+00 0.000000e+00 0.000000e+00 0.000000e+00 0.000000e+00
<ENDHMM>
~h "p"
<BEGINHMM>
<NUMSTATES> 5
<STATE> 2
<MEAN> 39
 -1.595217e+00 -2.870004e+00 -9.413277e+00 -1.528344e+01 -1.008516e+01 -1.085397e+00 4.736396e+00 -1.919196e+00 -2.513418e+00 -2.186604e+00 -2.814818e+00 -2.974901e+00 7.076690e+01 1.258097e+00 1.052778e-01 -1.695255e-01 -1.206514e+00 -1.401773e+00 -9.473105e-02 1.453919e-01 -3.796795e-01 -5.394273e-01 -2.483202e-01 -1.680595e-01 -4.265215e-01 1.055991e+00 -2.184641e-01 -8.511376e-02 1.007375e-01 3.029338e-01 9.505837e-02 -9.427011e-02 -2.978248e-01 -4.185643e-02 1.588325e-01 6.329574e-02 1.652950e-01 1.067093e-01 -1.563761e-01
<VARIANCE> 39
 3.016969e+01 5.487854e+01 2.777728e+01 3.561436e+01 5.902650e+01 8.105341e+01 6.824641e+01 5.457167e+01 4.102567e+01 4.322123e+01 3.203379e+01 3.594091e+01 3.476855e+01 2.902993e+00 4.536302e+00 2.061621e+00 3.149737e+00 4.358792e+00 4.448241e+00 4.985785e+00 3.803012e+00 3.265789e+00 3.249980e+00 2.625535e+00 2.437795e+00 1.821088e+00 5.335836e-01 6.946290e-01 3.213848e-01 5.081992e-01 6.875055e-01 7.564593e-01 8.014587e-01 6.821849e-01 5.420589e-01 5.829063e-01 4.512292e-01 4.127682e-01 3.615378e-01
<GCONST> 1.280213e+02
<STATE> 3
<MEAN> 39
 1.235425e+00 -3.864601e+00 -9.974785e+00 -1.684218e+01 -1.389817e+01 -3.794096e+00 2.192095e+00 -2.014601e+00 -2.891459e+00 -2.117434e+00 -2.046955e+00 -3.783354e+00 7.478605e+01 1.014290e-01 -5.597085e-02 8.271019e-02 2.204492e-02 -3.642047e-01 -2.464976e-01 -6.319675e-01 -3.063373e-01 4.186746e-01 3.889436e-01 8.690774e-02 -1.016624e-01 5.150265e-02 -1.814001e-01 6.885484e-02 5.417979e-02 2.698229e-01 2.246194e-01 -6.728945e-02 -7.719368e-02 4.354433e-02 1.224233e-01 -2.319619e-02 -5.798619e-02 5.846596e-02 -2.276263e-01
<VARIANCE> 39
 1.348124e+01 6.908500e+01 3.715842e+01 3.174046e+01 5.713531e+01 1.129637e+02 7.870523e+01 8.308961e+01 6.443628e+01 5.073443e+01 3.719784e+01 4.925370e+01 2.690413e+01 6.030346e-01 2.110687e+00 8.961305e-01 1.671604e+00 2.076262e+00 2.346166e+00 3.543207e+00 2.674337e+00 3.139249e+00 2.192643e+00 2.017434e+00 2.010538e+00 8.917949e-01 1.831135e-01 3.696738e-01 1.829094e-01 3.180830e-01 4.633007e-01 4.556401e-01 5.876718e-01 4.868145e-01 5.064068e-01 4.389852e-01 3.379250e-01 3.356698e-01 1.220072e-01
<GCONST> 1.156070e+02
<STATE> 4
<MEAN> 39
 2.252233e+00 -2.263794e+00 -9.672413e+00 -1.599317e+01 -1.456578e+01 -3.848099e+00 -4.592574e-01 -4.717492e+00 -1.864495e+00 -2.520019e+00 -1.755020e+00 -3.801750e+00 7.366876e+01 -8.483387e-02 6.815499e-02 1.658776e-01 4.891948e-01 -4.413030e-02 -5.659624e-01 -5.750483e-01 -1.550663e-01 3.906322e-01 9.075597e-02 -4.851489e-03 -5.757242e-02 -1.136304e-01 -5.291709e-02 9.004454e-02 5.616677e-02 1.404310e-01 7.482141e-02 -9.410211e-02 -1.590253e-02 3.199797e-02 -3.321529e-02 -8.974818e-02 -3.334399e-02 3.740274e-02 -9.636334e-02
<VARIANCE> 39
 9.868109e+00 8.590352e+01 5.084628e+01 5.025021e+01 8.392043e+01 8.551263e+01 7.828832e+01 5.689059e+01 7.361882e+01 5.353050e+01 3.614471e+01 4.675972e+01 2.109968e+01 2.266590e-01 8.957211e-01 6.480868e-01 1.203472e+00 1.416052e+00 2.012873e+00 1.996444e+00 1.632423e+00 1.783164e+00 1.399333e+00 1.598558e+00 1.382533e+00 3.073880e-01 5.199490e-02 1.398344e-01 1.048165e-01 1.606904e-01 2.492970e-01 2.758022e-01 3.026069e-01 2.653519e-01 2.726465e-01 2.497825e-01 2.769295e-01 2.606556e-01 3.812689e-02
<GCONST> 1.004312e+02
<TRANSP> 5
 0.000000e+00 1.000000e+00 0.000000e+00 0.000000e+00 0.000000e+00
 0.000000e+00 8.252496e-01 1.747504e-01 0.000000e+00 0.000000e+00
 0.000000e+00 0.000000e+00 5.926124e-01 4.073876e-01 0.000000e+00
 0.000000e+00 0.000000e+00 0.000000e+00 7.016410e-01 2.983590e-01
 0.000000e+00 0.000000e+00 0.000000e+00 0.000000e+00 0.000000e+00
<ENDHMM>
~h "r"
<BEGINHMM>
<NUMSTATES> 5
<STATE> 2
<MEAN> 39
 -5.088384e+00 4.668391e-01 3.225636e+00 -7.367527e-01 -1.040254e+01 -1.485786e+01 -6.160072e+00 -4.755803e+00 -1.420739e+00 -6.032067e+00 1.587420e+00 -5.708579e-01 6.805107e+01 9.667152e-02 -2.628848e-01 3.480076e-01 2.757265e-01 -4.674801e-01 -1.104870e-01 7.030839e-02 -3.060640e-01 -2.193405e-01 -3.952612e-01 2.283519e-02 1.889475e-03 2.867699e-01 5.786129e-02 -3.913812e-02 -1.122045e-02 -1.320444e-02 -2.341821e-01 -1.405549e-01 2.675365e-02 3.594857e-03 -5.633983e-02 -5.257306e-02 1.190532e-01 9.886880e-02 1.077400e-01
<VARIANCE> 39
 2.872764e+01 1.939062e+01 4.104283e+01 4.629880e+01 6.738296e+01 6.639497e+01 4.828126e+01 3.607382e+01 2.613852e+01 3.492993e+01 3.827870e+01 2.461162e+01 3.086125e+01 2.029773e+00 2.221542e+00 2.070010e+00 2.723144e+00 8.003717e+00 5.076063e+00 3.603728e+00 3.294619e+00 2.081196e+00 2.693060e+00 3.360834e+00 2.713880e+00 3.884415e+00 3.637382e-01 4.442937e-01 3.591467e-01 5.519369e-01 1.485520e+00 9.103633e-01 6.869164e-01 6.578453e-01 4.320701e-01 5.435774e-01 6.114222e-01 4.939206e-01 6.689680e-01
<GCONST> 1.262364e+02
<STATE> 3
<MEAN> 39
 -3.398422e+00 -4.804167e-01 5.157097e+00 2.941534e+00 -1.471721e+01 -1.606656e+01 -7.052461e+00 -5.454451e+00 -2.339352e+00 -5.321774e+00 9.982390e-01 1.327767e+00 6.730785e+01 -6.258158e-02 -1.954841e-01 -4.744237e-02 9.965539e-03 -4.329243e-01 -1.967232e-01 4.672453e-01 1.810699e-01 -1.572886e-01 -1.314296e-01 4.453301e-01 4.284839e-01 5.553198e-02 -3.800038e-02 1.208103e-01 -1.468334e-02 -1.150576e-01 4.630133e-02 -3.986776e-02 1.478756e-01 8.898731e-02 -1.998205e-02 8.580979e-02 9.897166e-02 -5.365128e-02 -3.232284e-02
<VARIANCE> 39
 1.617049e+01 2.396274e+01 4.171893e+01 3.828044e+01 6.336586e+01 4.942719e+01 3.821654e+01 2.951747e+01 4.409335e+01 3.260036e+01 3.726366e+01 2.997761e+01 2.794357e+01 1.123409e+00 1.944092e+00 1.941532e+00 1.718700e+00 6.163108e+00 4.101649e+00 2.507344e+00 2.465098e+00 2.269033e+00 2.692268e+00 3.329675e+00 2.933536e+00 1.618875e+00 2.172113e-01 4.209854e-01 3.816130e-01 3.344691e-01 1.249039e+00 8.173898e-01 4.757332e-01 4.114901e-01 5.049575e-01 5.534487e-01 5.676662e-01 6.172816e-01 3.271833e-01
<GCONST> 1.198165e+02
<STATE> 4
<MEAN> 39
 -1.761545e+00 -1.441358e+00 4.503006e+00 -5.929972e-01 -1.796687e+01 -1.868043e+01 -4.054099e+00 -6.167609e+00 -4.675282e+00 -6.783611e+00 5.215099e+00 8.287107e-01 6.965408e+01 -2.350144e-01 2.409931e-01 -1.042311e-01 -2.105950e-01 8.896733e-02 1.594705e-01 3.355370e-01 1.256921e-01 -1.542102e-01 1.704662e-01 2.700062e-02 -1.739058e-01 -3.645660e-01 -5.107968e-02 4.758074e-02 -5.307974e-02 3.406573e-02 1.600430e-01 1.572530e-01 -2.815963e-02 2.997669e-02 6.171549e-03 2.592514e-02 -1.823842e-01 -8.010415e-02 -1.243782e-01
<VARIANCE> 39
 1.329132e+01 1.424707e+01 4.155172e+01 4.726964e+01 3.945970e+01 6.988606e+01 4.353869e+01 3.866799e+01 3.893070e+01 4.599995e+01 4.340809e+01 2.912814e+01 2.325031e+01 4.513260e-01 5.687678e-01 8.437216e-01 7.354540e-01 1.842529e+00 1.626822e+00 1.580441e+00 1.332577e+00 1.642516e+00 1.459423e+00 1.892392e+00 1.411195e+00 5.612066e-01 8.869892e-02 1.155560e-01 1.443778e-01 1.337550e-01 4.226812e-01 2.878278e-01 2.734313e-01 2.527544e-01 3.257257e-01 2.841518e-01 2.896347e-01 2.807471e-01 7.428890e-02
<GCONST> 9.812267e+01
<TRANSP> 5
 0.000000e+00 1.000000e+00 0.000000e+00 0.000000e+00 0.000000e+00
 0.000000e+00 8.456049e-01 1.543951e-01 0.000000e+00 0.000000e+00
 0.000000e+00 0.000000e+00 6.589739e-01 3.410261e-01 0.000000e+00
 0.000000e+00 0.000000e+00 0.000000e+00 8.459859e-01 1.540141e-01
 0.000000e+00 0.000000e+00 0.000000e+00 0.000000e+00 0.000000e+00
<ENDHMM>
~h "t"
<BEGINHMM>
<NUMSTATES> 5
<STATE> 2
<MEAN> 39
 -9.120854e+00 -2.292835e+00 -5.464102e+00 -8.050025e+00 -5.029330e+00 -4.762988e+00 -2.606069e+00 -3.547339e+00 3.366437e-01 -1.419327e+00 -9.927956e-01 -9.919444e-01 6.828232e+01 1.123345e+00 -3.614614e-02 -1.253331e-01 -8.760017e-01 -8.821034e-01 -5.146372e-01 -1.040013e-01 -7.873478e-01 -5.490682e-01 -1.604148e-01 -4.375545e-01 -4.828811e-01 1.644796e+00 3.355850e-01 1.582996e-01 -1.350650e-02 3.253402e-02 -1.969175e-01 -4.872337e-03 8.784659e-02 -5.265484e-02 -1.724946e-01 2.968523e-03 1.273530e-02 2.417919e-03 -2.268174e-01
<VARIANCE> 39
 5.627972e+01 4.210856e+01 4.079410e+01 4.569614e+01 4.346220e+01 4.842729e+01 3.987938e+01 4.354395e+01 4.040828e+01 3.201547e+01 3.182648e+01 3.172216e+01 5.820969e+01 5.780944e+00 4.762232e+00 2.854612e+00 3.752780e+00 4.916780e+00 5.741389e+00 4.231479e+00 4.272491e+00 4.754075e+00 3.406436e+00 2.999948e+00 3.174426e+00 5.644895e+00 8.653627e-01 8.626260e-01 4.657286e-01 6.106607e-01 7.709683e-01 1.019254e+00 8.099637e-01 7.513788e-01 8.388491e-01 6.011326e-01 5.719245e-01 5.935721e-01 1.127058e+00
<GCONST> 1.349947e+02
<STATE> 3
<MEAN> 39
 -1.502432e+00 -1.536629e+00 -6.105055e+00 -1.148360e+01 -1.021231e+01 -7.317029e+00 -2.413182e+00 -6.796449e+00 -3.141914e+00 -1.855689e+00 -2.431869e+00 -3.203962e+00 7.280810e+01 1.164102e+00 -6.195242e-02 -1.313184e-01 -2.867463e-01 -1.290827e+00 -6.507145e-01 -1.074931e-01 -4.756870e-01 -5.206230e-01 -2.155461e-02 1.785156e-01 6.209057e-03 5.002975e-01 -5.132858e-01 -1.939980e-01 6.138629e-02 2.501829e-01 2.780170e-01 1.452775e-01 -2.391865e-02 2.204864e-01 2.859805e-01 5.670361e-02 1.790555e-01 1.487612e-01 -2.225724e-01
<VARIANCE> 39
 3.637018e+01 4.207083e+01 6.114879e+01 6.914391e+01 6.045659e+01 7.557784e+01 5.534633e+01 6.141220e+01 4.929903e+01 5.711045e+01 4.073128e+01 4.678366e+01 2.531409e+01 2.758920e+00 2.747436e+00 2.230405e+00 3.083588e+00 3.849726e+00 4.912280e+00 4.284761e+00 3.540009e+00 3.402627e+00 2.935322e+00 2.675359e+00 2.866548e+00 1.215623e+00 4.159260e-01 4.467997e-01 3.437065e-01 4.703809e-01 6.464669e-01 7.739251e-01 6.384160e-01 6.854484e-01 5.902370e-01 5.464101e-01 4.817972e-01 5.148128e-01 2.544160e-01
<GCONST> 1.278728e+02
<STATE> 4
<MEAN> 39
 -1.739216e-02 -1.625675e+00 -6.601332e+00 -1.068912e+01 -1.295163e+01 -9.234833e+00 -3.092838e+00 -7.673164e+00 -3.573011e+00 -2.988088e+00 -1.814533e+00 -2.129103e+00 7.301419e+01 1.642755e-01 -2.665992e-01 -5.567327e-03 2.255006e-01 -3.393821e-01 -1.961516e-01 -1.066581e-01 -1.458847e-01 -1.792611e-02 3.416423e-02 1.878755e-01 1.425355e-01 9.935212e-02 -2.796841e-01 -4.721016e-02 7.354257e-02 2.209727e-01 3.165452e-01 8.658253e-02 -5.256775e-02 6.211433e-02 1.148905e-01 2.989588e-02 3.050828e-02 3.118839e-02 -1.136817e-01
<VARIANCE> 39
 3.111662e+01 4.661935e+01 6.499234e+01 9.153146e+01 6.992348e+01 8.493230e+01 5.752604e+01 5.624065e+01 5.490656e+01 6.954279e+01 4.382790e+01 5.567171e+01 2.244558e+01 1.313074e+00 1.419121e+00 1.382029e+00 1.992152e+00 2.126053e+00 3.001318e+00 2.655468e+00 2.418340e+00 2.380806e+00 2.260162e+00 2.071428e+00 2.118472e+00 7.846949e-01 2.396193e-01 2.782473e-01 2.223591e-01 3.308802e-01 4.300998e-01 5.228764e-01 5.142489e-01 4.965848e-01 4.294404e-01 4.589042e-01 3.813495e-01 4.018204e-01 1.235482e-01
<GCONST> 1.180793e+02
<TRANSP> 5
 0.000000e+00 1.000000e+00 0.000000e+00 0.000000e+00 0.000000e+00
 0.000000e+00 8.301577e-01 1.698423e-01 0.000000e+00 0.000000e+00
 0.000000e+00 0.000000e+00 4.014507e-01 5.985493e-01 0.000000e+00
 0.000000e+00 0.000000e+00 0.000000e+00 5.561967e-01 4.438033e-01
 0.000000e+00 0.000000e+00 0.000000e+00 0.000000e+00 0.000000e+00
<ENDHMM>
~h "u"
<BEGINHMM>
<NUMSTATES> 5
<STATE> 2
<MEAN> 39
 -5.965043e+00 4.844625e+00 7.591834e+00 4.413700e+00 -8.330511e+00 -1.274716e+01 -3.000059e+00 -7.792992e+00 -5.383125e+00 -6.370997e+00 -1.714563e-01 -2.105186e-01 6.496519e+01 4.260637e-01 2.987881e-01 -8.983952e-01 -2.634170e-01 8.080220e-01 6.061476e-01 -4.123161e-01 -2.088149e-01 2.733808e-01 3.322828e-01 6.667064e-02 -1.455833e-01 -5.273365e-01 -1.470657e-01 -1.099173e-01 -4.825106e-02 -1.254775e-01 1.366431e-01 3.482447e-01 8.056369e-02 -3.701136e-02 4.302836e-02 1.412487e-01 3.062153e-03 -9.362561e-02 -3.097130e-02
<VARIANCE> 39
 1.321570e+01 1.870942e+01 5.068685e+01 5.191768e+01 5.144238e+01 5.435389e+01 2.247971e+01 3.982533e+01 3.070015e+01 4.625177e+01 3.260766e+01 2.088299e+01 1.262175e+01 5.233626e-01 8.500516e-01 9.244018e-01 1.779415e+00 1.567334e+00 3.076103e+00 1.497553e+00 2.983931e+00 2.028358e+00 2.151366e+00 2.102198e+00 1.385145e+00 3.947087e-01 1.289057e-01 1.558805e-01 1.414611e-01 2.339964e-01 2.289003e-01 5.183201e-01 2.760325e-01 5.142857e-01 3.294946e-01 4.666554e-01 4.186386e-01 2.898695e-01 5.664355e-02
<GCONST> 1.022319e+02
<STATE> 3
<MEAN> 39
 -4.600204e+00 5.712936e+00 2.572501e+00 3.002290e+00 -4.980618e+00 -1.210811e+01 -4.729925e+00 -7.206828e+00 -3.781823e+00 -6.873099e+00 -1.059146e+00 -6.686014e-02 6.340751e+01 2.429845e-01 1.024765e-01 -9.505355e-01 -4.589309e-01 9.795920e-01 1.390998e+00 -2.237109e-01 -2.041355e-01 1.720642e-01 6.205124e-01 -1.277816e-01 -4.333749e-01 -6.760087e-01 -1.797971e-01 -1.590760e-01 1.421246e-02 -7.873188e-02 -9.904668e-02 9.770721e-02 2.311589e-01 1.057136e-01 -1.126604e-01 1.204836e-01 9.145951e-02 4.789745e-02 3.306305e-02
<VARIANCE> 39
 1.461038e+01 1.877840e+01 2.431947e+01 4.284726e+01 3.740266e+01 3.909495e+01 3.429094e+01 3.529892e+01 3.342851e+01 2.555180e+01 2.462377e+01 1.399133e+01 1.510136e+01 3.562993e-01 9.638481e-01 6.986036e-01 1.299887e+00 1.445688e+00 2.391669e+00 1.281387e+00 1.927386e+00 1.760055e+00 2.550911e+00 1.462850e+00 1.017349e+00 2.900013e-01 4.924899e-02 1.339368e-01 9.939320e-02 2.201674e-01 2.462056e-01 4.765598e-01 2.122243e-01 4.104826e-01 2.888104e-01 3.793857e-01 3.071435e-01 2.107862e-01 4.488157e-02
<GCONST> 9.409624e+01
<STATE> 4
<MEAN> 39
 -6.126057e+00 3.640434e+00 -8.674388e-01 1.344228e+00 -7.932942e-01 -4.107773e+00 -1.726092e+00 -3.674536e+00 -7.261666e-01 -2.075147e+00 -5.600803e-01 -6.642473e-01 5.963889e+01 -2.565942e-01 -2.203087e-01 -2.984906e-01 -2.111516e-01 2.704164e-01 5.929464e-01 2.326282e-01 3.283549e-01 1.687495e-01 2.880362e-01 4.794747e-02 3.941857e-02 -3.836133e-01 -2.688525e-02 -2.072178e-02 4.388146e-02 7.794097e-03 -6.626930e-02 -7.026995e-02 2.760738e-02 3.703669e-02 -6.794301e-03 -4.627712e-02 1.686097e-02 1.856707e-02 3.557439e-02
<VARIANCE> 39
 1.524360e+01 2.366519e+01 1.090459e+01 2.053896e+01 1.951507e+01 3.233241e+01 3.844381e+01 4.369028e+01 3.038058e+01 1.900637e+01 1.490053e+01 1.515121e+01 2.506504e+01 2.805338e-01 7.105176e-01 6.736259e-01 1.001554e+00 9.870034e-01 1.260256e+00 1.387307e+00 1.618169e+00 1.536564e+00 1.518513e+00 1.224916e+00 9.621998e-01 1.935019e-01 4.433033e-02 1.161371e-01 1.071427e-01 1.850385e-01 1.782350e-01 2.174802e-01 2.595711e-01 2.978361e-01 3.147043e-01 3.058731e-01 2.356171e-01 2.016992e-01 2.420793e-02
<GCONST> 8.613124e+01
<TRANSP> 5
 0.000000e+00 1.000000e+00 0.000000e+00 0.000000e+00 0.000000e+00
 0.000000e+00 6.848015e-01 3.151984e-01 0.000000e+00 0.000000e+00
 0.000000e+00 0.000000e+00 5.922669e-01 4.077331e-01 0.000000e+00
 0.000000e+00 0.000000e+00 0.000000e+00 9.275288e-01 7.247118e-02
 0.000000e+00 0.000000e+00 0.000000e+00 0.000000e+00 0.000000e+00
<ENDHMM>
~h "aa"
<BEGINHMM>
<NUMSTATES> 5
<STATE> 2
<MEAN> 39
 8.359259e-01 -7.657395e+00 -1.359140e+01 -1.534451e+01 -4.437326e+00 3.442634e+00 2.670980e+00 -7.134999e+00 -3.906757e+00 -7.394621e-01 -5.374584e+00 -6.981378e+00 7.513936e+01 -4.450268e-02 1.101394e-01 4.091520e-02 1.830006e-01 -1.609366e-03 -1.702470e-01 -1.481650e-01 8.035310e-02 1.958295e-01 5.854920e-02 1.449887e-01 -2.381373e-02 -2.023249e-01 -7.334684e-03 1.148324e-01 6.271292e-02 8.013266e-02 -3.635348e-02 -1.431512e-01 -5.314211e-02 4.298325e-02 4.988905e-02 6.347428e-03 3.231459e-02 6.274241e-02 -1.117538e-01
<VARIANCE> 39
 1.221590e+01 2.882836e+01 3.110905e+01 3.346185e+01 4.202168e+01 4.168450e+01 5.875277e+01 7.579584e+01 4.709112e+01 4.326672e+01 5.378910e+01 3.821395e+01 2.069055e+01 3.158844e-01 5.948455e-01 5.344466e-01 7.723444e-01 9.744784e-01 1.555556e+00 1.285110e+00 1.616775e+00 1.187737e+00 1.131192e+00 1.130926e+00 1.140871e+00 5.081442e-01 6.499111e-02 8.822720e-02 9.162272e-02 1.383575e-01 1.744904e-01 2.452015e-01 2.364591e-01 2.633870e-01 2.157101e-01 2.109813e-01 2.076173e-01 2.154748e-01 6.213241e-02
<GCONST> 9.266779e+01
<STATE> 3
<MEAN> 39
 -3.490766e-01 -2.263607e+00 -1.152949e+01 -1.176350e+01 -5.124931e+00 -2.761807e-01 1.057468e+00 -4.937796e+00 -1.651219e+00 1.954389e-02 -1.622286e+00 -4.942848e+00 6.755507e+01 -4.219351e-01 6.704717e-01 4.923734e-01 7.967947e-01 7.364950e-02 -4.436806e-01 -3.979039e-01 3.487892e-01 2.847829e-01 1.460815e-01 3.519217e-01 5.635557e-01 -1.411235e+00 -9.292036e-02 -4.544708e-02 5.351533e-02 5.352981e-02 2.818063e-02 3.166080e-02 4.941942e-04 -1.284263e-02 -5.140433e-02 -7.678077e-02 -4.543581e-02 3.370577e-02 -3.321804e-02
<VARIANCE> 39
 1.329222e+01 3.405367e+01 3.116284e+01 3.052800e+01 3.226981e+01 3.460017e+01 4.273083e+01 3.568213e+01 3.655244e+01 3.600759e+01 3.998567e+01 4.380787e+01 5.181970e+01 9.585199e-01 1.150874e+00 1.300159e+00 1.507975e+00 1.542030e+00 3.247841e+00 2.446366e+00 2.371080e+00 2.436509e+00 1.855578e+00 1.886698e+00 2.126773e+00 1.298942e+00 1.403153e-01 2.193838e-01 2.324166e-01 2.633283e-01 2.837893e-01 5.481607e-01 4.641912e-01 3.724936e-01 3.999192e-01 3.227631e-01 3.168171e-01 4.196448e-01 2.327681e-01
<GCONST> 1.094837e+02
<STATE> 4
<MEAN> 39
 -3.170803e+00 -4.362829e-01 -8.907082e+00 -8.504969e+00 -5.501138e+00 -1.925990e+00 8.882520e-02 -2.842655e+00 -5.038759e-01 -2.606672e-01 -8.278691e-01 -2.499777e+00 6.226216e+01 -6.926059e-01 1.506461e-01 4.224481e-01 5.770235e-01 9.622492e-02 -3.860466e-01 -2.732054e-01 2.353358e-01 1.165560e-01 -5.454421e-02 9.495151e-02 2.828876e-01 -7.926558e-01 -4.816017e-02 -1.390544e-01 8.120964e-03 -1.384262e-01 1.611675e-02 -3.360176e-02 -3.116149e-02 -8.232038e-02 -2.307452e-02 -4.524525e-02 -4.665875e-02 -4.620754e-02 3.408198e-01
<VARIANCE> 39
 1.953739e+01 3.186597e+01 3.030232e+01 2.685174e+01 2.836984e+01 3.225865e+01 3.154825e+01 2.742594e+01 2.262785e+01 2.506812e+01 2.711501e+01 3.320493e+01 5.314920e+01 1.230053e+00 1.833416e+00 1.309979e+00 1.772657e+00 1.726077e+00 2.663743e+00 2.126828e+00 2.213785e+00 2.359263e+00 2.079944e+00 1.916618e+00 2.249094e+00 2.488948e+00 2.164257e-01 2.758679e-01 2.589614e-01 3.153341e-01 3.506297e-01 5.215753e-01 4.006361e-01 4.103450e-01 4.346592e-01 3.770653e-01 3.896994e-01 4.036011e-01 3.905473e-01
<GCONST> 1.107793e+02
<TRANSP> 5
 0.000000e+00 1.000000e+00 0.000000e+00 0.000000e+00 0.000000e+00
 0.000000e+00 9.136680e-01 8.633201e-02 0.000000e+00 0.000000e+00
 0.000000e+00 0.000000e+00 7.405981e-01 2.594019e-01 0.000000e+00
 0.000000e+00 0.000000e+00 0.000000e+00 8.135087e-01 1.864913e-01
 0.000000e+00 0.000000e+00 0.000000e+00 0.000000e+00 0.000000e+00
<ENDHMM>
~h "ae"
<BEGINHMM>
<NUMSTATES> 5
<STATE> 2
<MEAN> 39
 1.192672e-01 -9.231771e+00 -1.130757e+01 -1.300136e+01 -8.572769e+00 -3.368258e+00 -7.208250e-01 -2.707173e+00 1.074142e+00 -4.519860e-01 -4.755894e+00 -7.174940e+00 7.654113e+01 -1.704512e-01 6.798670e-02 4.271883e-01 7.287351e-01 -3.307363e-01 -1.321068e+00 -5.031207e-01 6.359487e-01 6.122366e-01 -1.467527e-01 -1.453917e-01 7.977872e-02 -1.385932e-01 -2.485672e-02 9.091848e-02 1.001105e-01 2.506125e-02 -7.914355e-02 -5.558863e-02 2.010504e-02 4.049461e-03 -6.724297e-02 -3.515923e-02 6.539300e-02 8.928031e-02 -5.147533e-02
<VARIANCE> 39
 1.003658e+01 2.513193e+01 3.532172e+01 4.136356e+01 4.672465e+01 9.069141e+01 5.295365e+01 7.872060e+01 6.360379e+01 6.062398e+01 4.724200e+01 4.064300e+01 1.097503e+01 2.408969e-01 5.788520e-01 7.680703e-01 1.080907e+00 1.415195e+00 2.299768e+00 1.865103e+00 2.308790e+00 2.027497e+00 1.435646e+00 1.525096e+00 1.337530e+00 2.135214e-01 3.719634e-02 7.139420e-02 1.004296e-01 1.377767e-01 2.052547e-01 2.769254e-01 3.007908e-01 3.108414e-01 3.054596e-01 2.617612e-01 2.559802e-01 2.068135e-01 2.313768e-02
<GCONST> 9.543588e+01
<STATE> 3
<MEAN> 39
 -2.030527e+00 -5.828003e+00 -4.347468e+00 -5.763120e+00 -1.352174e+01 -1.701605e+01 -3.578398e+00 2.978590e+00 4.069011e+00 -1.098930e+00 -3.092144e+00 -4.120636e+00 7.350190e+01 -3.496698e-01 7.602947e-01 1.039072e+00 6.065883e-01 -7.434552e-01 -5.040619e-01 1.009561e-01 -3.459690e-01 -5.405975e-01 -2.108951e-01 6.974421e-01 6.199618e-01 -6.580279e-01 -2.661895e-02 2.901564e-02 -7.708260e-02 -3.027644e-02 1.626759e-01 2.463288e-01 2.667501e-02 -1.783530e-01 -7.873219e-02 2.562477e-02 -4.341914e-02 -9.737121e-02 -7.349648e-02
<VARIANCE> 39
 1.075589e+01 2.807501e+01 5.549701e+01 4.207174e+01 5.324560e+01 4.844968e+01 6.155364e+01 3.588995e+01 3.598847e+01 4.705081e+01 3.443574e+01 3.858249e+01 1.445136e+01 2.714339e-01 5.680825e-01 7.204168e-01 1.013349e+00 1.252119e+00 1.328463e+00 1.287196e+00 1.550248e+00 1.345954e+00 1.420989e+00 1.553690e+00 1.327318e+00 2.023944e-01 4.020774e-02 8.962989e-02 1.162291e-01 1.864546e-01 1.763494e-01 1.724814e-01 2.181823e-01 2.580839e-01 2.181814e-01 2.411386e-01 2.462018e-01 1.812966e-01 2.564994e-02
<GCONST> 9.124199e+01
<STATE> 4
<MEAN> 39
 -5.744115e+00 -1.453864e+00 -1.371539e+00 -2.199425e+00 -1.217828e+01 -1.409566e+01 -1.477993e+00 7.876962e-01 2.834422e-01 -2.549152e+00 -8.017842e-01 -2.211011e+00 6.571561e+01 -3.540505e-01 3.127019e-01 1.025051e-01 2.515249e-01 4.677405e-01 4.702170e-01 2.004471e-01 -1.908591e-01 -1.406643e-01 9.782335e-02 1.256056e-01 1.773747e-01 -8.537546e-01 6.216560e-03 -4.660264e-02 -7.968085e-02 -3.734278e-02 8.144073e-02 6.940154e-02 -8.477975e-03 2.936688e-02 5.114913e-02 1.307483e-02 -3.115281e-02 -9.572770e-03 -2.719909e-03
<VARIANCE> 39
 1.718886e+01 2.671100e+01 4.720068e+01 2.618678e+01 6.265208e+01 5.877880e+01 5.173597e+01 3.809828e+01 3.609738e+01 4.535734e+01 3.557235e+01 3.823733e+01 3.589719e+01 2.329914e-01 6.357050e-01 8.353167e-01 9.440575e-01 1.177868e+00 1.569467e+00 1.364220e+00 1.561657e+00 1.494567e+00 1.638869e+00 1.843031e+00 1.491521e+00 3.148202e-01 3.508840e-02 8.212887e-02 1.284958e-01 1.518846e-01 1.743646e-01 2.696705e-01 2.571420e-01 2.631956e-01 2.460705e-01 2.810046e-01 3.413940e-01 2.653310e-01 2.966771e-02
<GCONST> 9.476884e+01
<TRANSP> 5
 0.000000e+00 1.000000e+00 0.000000e+00 0.000000e+00 0.000000e+00
 0.000000e+00 9.223894e-01 7.761066e-02 0.000000e+00 0.000000e+00
 0.000000e+00 0.000000e+00 7.703061e-01 2.296939e-01 0.000000e+00
 0.000000e+00 0.000000e+00 0.000000e+00 9.255742e-01 7.442585e-02
 0.000000e+00 0.000000e+00 0.000000e+00 0.000000e+00 0.000000e+00
<ENDHMM>
~h "ai"
<BEGINHMM>
<NUMSTATES> 5
<STATE> 2
<MEAN> 39
 -9.998424e-01 -6.718891e+00 -4.346547e+00 -7.382865e+00 -1.204727e+01 -1.456969e+01 -6.850372e+00 -3.278822e+00 2.743461e+00 -2.294147e+00 -2.554423e+00 -3.854305e+00 7.527288e+01 -4.435757e-01 9.902066e-01 1.560435e+00 1.387655e+00 -1.042157e+00 -1.418495e+00 -3.582725e-01 -4.508647e-01 -6.184503e-01 -8.236797e-01 5.905147e-01 9.082159e-01 -5.290147e-01 -3.964604e-02 1.552820e-01 -8.270811e-03 -1.286087e-01 3.841877e-02 3.794113e-01 3.109987e-01 -1.986860e-01 -3.412290e-01 2.721341e-03 6.638069e-02 -8.367378e-02 -9.163460e-02
<VARIANCE> 39
 1.186126e+01 3.379206e+01 7.636082e+01 4.833153e+01 7.072648e+01 8.369523e+01 4.439594e+01 5.047248e+01 5.405181e+01 7.650932e+01 5.891167e+01 4.152837e+01 1.136633e+01 3.359414e-01 1.000216e+00 1.281571e+00 1.618608e+00 1.996997e+00 3.569743e+00 2.335559e+00 4.043875e+00 3.758791e+00 3.192545e+00 3.350209e+00 1.974335e+00 2.991005e-01 4.438126e-02 1.077529e-01 1.877536e-01 2.034937e-01 3.409718e-01 4.206184e-01 3.198863e-01 5.475086e-01 5.255550e-01 5.478635e-01 6.449429e-01 3.734802e-01 2.296981e-02
<GCONST> 1.091273e+02
<STATE> 3
<MEAN> 39
 -3.140650e+00 2.904881e-01 3.244552e+00 -1.688689e+00 -1.598249e+01 -1.855163e+01 -5.492279e+00 -7.988700e+00 -5.592004e+00 -4.736191e+00 -1.232919e+00 -1.656974e+00 7.080661e+01 -3.908289e-01 1.112126e+00 7.087041e-01 4.851076e-01 1.236681e-01 4.963526e-01 4.590899e-01 -6.955420e-01 -9.714565e-01 -2.399653e-01 -2.289851e-01 -1.905489e-01 -9.784288e-01 2.688003e-02 -1.206803e-01 -2.173344e-01 -1.342373e-01 2.305056e-01 1.656267e-01 -4.777478e-02 1.832100e-01 2.262377e-01 1.244901e-01 -7.566392e-02 -1.007848e-01 -4.228794e-02
<VARIANCE> 39
 1.321631e+01 3.163908e+01 5.972287e+01 3.873872e+01 5.787970e+01 4.948278e+01 3.777724e+01 3.967851e+01 5.701538e+01 3.931344e+01 3.510502e+01 3.432458e+01 1.525367e+01 3.138811e-01 5.990261e-01 1.059456e+00 1.138664e+00 1.429164e+00 1.162749e+00 1.940232e+00 1.706226e+00 2.313816e+00 1.360997e+00 1.968152e+00 1.401842e+00 2.459327e-01 4.848298e-02 9.192430e-02 1.352886e-01 1.825944e-01 2.620793e-01 2.058085e-01 3.114862e-01 3.228652e-01 3.556209e-01 2.584333e-01 3.629759e-01 2.409380e-01 2.329982e-02
<GCONST> 9.633275e+01
<STATE> 4
<MEAN> 39
 -6.820228e+00 3.384438e+00 2.623382e+00 -3.359590e-01 -9.793063e+00 -1.043482e+01 -2.841281e+00 -7.680650e+00 -5.016550e+00 -4.079768e+00 -1.960882e+00 -2.832147e+00 6.298579e+01 -3.297696e-01 1.195213e-02 -2.035689e-01 6.779109e-02 6.835535e-01 6.857104e-01 2.615851e-01 2.630421e-01 1.708187e-01 1.707240e-01 4.611378e-02 1.081763e-01 -7.966682e-01 3.405840e-03 -1.001207e-01 -7.180736e-02 -3.677272e-02 -9.353086e-05 -7.175095e-04 -1.819892e-02 7.495122e-02 8.819291e-02 2.481497e-02 2.392797e-02 3.986800e-02 3.399945e-02
<VARIANCE> 39
 1.856677e+01 4.019426e+01 6.201284e+01 2.963822e+01 5.896056e+01 5.313618e+01 4.208791e+01 3.977666e+01 4.595272e+01 3.791966e+01 2.915794e+01 2.955293e+01 2.597142e+01 2.745802e-01 7.354077e-01 8.553775e-01 8.570910e-01 1.300083e+00 1.273761e+00 1.419930e+00 1.687058e+00 1.601977e+00 1.400132e+00 1.512566e+00 1.269441e+00 2.569095e-01 4.333132e-02 9.115107e-02 1.252015e-01 1.569510e-01 2.240344e-01 2.140736e-01 2.679470e-01 2.874596e-01 2.711577e-01 2.342565e-01 2.677178e-01 2.435425e-01 1.741683e-02
<GCONST> 9.372757e+01
<TRANSP> 5
 0.000000e+00 1.000000e+00 0.000000e+00 0.000000e+00 0.000000e+00
 0.000000e+00 8.391029e-01 1.608971e-01 0.000000e+00 0.000000e+00
 0.000000e+00 0.000000e+00 7.720088e-01 2.279912e-01 0.000000e+00
 0.000000e+00 0.000000e+00 0.000000e+00 9.253848e-01 7.461520e-02
 0.000000e+00 0.000000e+00 0.000000e+00 0.000000e+00 0.000000e+00
<ENDHMM>
~h "ao"
<BEGINHMM>
<NUMSTATES> 5
<STATE> 2
<MEAN> 39
 2.050855e+00 -5.171391e+00 -1.186688e+01 -2.028428e+01 -1.477040e+01 2.878966e+00 6.814447e+00 -4.547370e+00 -3.993673e+00 -5.427052e+00 -3.827362e+00 -2.588054e+00 7.436689e+01 1.277609e-01 3.443033e-01 1.000030e-01 -2.567894e-01 -4.928077e-01 -1.648641e-01 1.512061e-02 3.197948e-02 1.236273e-01 9.338830e-02 -9.320976e-02 6.055512e-02 -2.975397e-01 -4.945695e-05 1.195794e-01 4.176386e-02 2.561466e-02 -1.442691e-02 -1.026572e-01 -5.165789e-02 -6.314753e-03 2.295494e-02 2.630820e-02 -2.714070e-02 -2.248138e-02 -6.906602e-02
<VARIANCE> 39
 1.100873e+01 3.065571e+01 3.535294e+01 2.369505e+01 7.213811e+01 6.517257e+01 3.919658e+01 1.101500e+02 5.764956e+01 5.407384e+01 3.510565e+01 3.668703e+01 1.625679e+01 2.788087e-01 6.987814e-01 4.528429e-01 6.468828e-01 9.864985e-01 1.183023e+00 1.162073e+00 1.470240e+00 1.404941e+00 1.231675e+00 1.130348e+00 1.082020e+00 3.492202e-01 4.803639e-02 7.199632e-02 7.505234e-02 1.155089e-01 1.793548e-01 2.190195e-01 1.981397e-01 2.234917e-01 2.567280e-01 2.081093e-01 1.897416e-01 1.807123e-01 3.378792e-02
<GCONST> 9.011470e+01
<STATE> 3
<MEAN> 39
 3.390749e+00 1.535350e+00 -8.440626e+00 -2.151774e+01 -2.023933e+01 -8.748820e-01 5.968859e+00 -2.584216e+00 -2.083157e+00 -1.979074e+00 -5.301273e+00 -2.725150e+00 7.001022e+01 -7.851347e-03 7.908908e-01 2.661951e-01 1.506426e-01 -3.345077e-01 -6.650448e-01 -3.590726e-01 1.111229e-01 1.540240e-01 6.914382e-02 -1.272148e-01 -1.091557e-01 -5.932572e-01 -4.297779e-02 -7.562819e-03 -3.379784e-04 1.070411e-01 1.083632e-01 -3.690514e-02 -7.711384e-02 6.459295e-03 4.004215e-03 -5.903205e-02 3.865013e-02 -6.087215e-03 -2.947358e-02
<VARIANCE> 39
 9.118517e+00 2.644140e+01 5.031608e+01 1.883887e+01 7.419168e+01 6.250899e+01 4.161686e+01 6.531250e+01 5.909546e+01 5.001809e+01 3.285122e+01 3.297302e+01 1.978389e+01 1.561253e-01 6.144773e-01 5.303721e-01 7.042120e-01 1.029032e+00 1.172109e+00 1.240668e+00 1.385967e+00 1.368980e+00 1.163025e+00 1.032152e+00 9.933572e-01 2.465078e-01 2.763870e-02 8.753750e-02 8.444770e-02 1.073252e-01 1.877627e-01 1.853982e-01 2.120162e-01 2.181219e-01 2.138530e-01 1.948991e-01 1.888766e-01 1.755898e-01 2.351461e-02
<GCONST> 8.732718e+01
<STATE> 4
<MEAN> 39
 4.952755e-01 6.405473e+00 -6.496653e+00 -1.499891e+01 -1.540946e+01 -6.367857e+00 1.406842e+00 -4.322281e-01 -1.365225e+00 -3.099909e+00 -4.413311e+00 -3.285027e+00 6.289282e+01 -4.844896e-01 6.134193e-02 2.608425e-01 8.005067e-01 6.965044e-01 -1.414957e-01 -3.792000e-01 1.659161e-01 1.179406e-01 6.164204e-02 2.015264e-01 1.275022e-01 -6.601045e-01 -4.337303e-02 -9.212636e-02 -1.259579e-02 2.827153e-02 7.530429e-02 8.286086e-02 4.429379e-02 -1.019477e-02 1.050425e-02 3.108524e-02 4.429644e-02 4.651468e-02 1.424503e-02
<VARIANCE> 39
 1.500275e+01 2.635979e+01 3.224528e+01 3.930616e+01 6.157204e+01 3.695895e+01 4.247856e+01 3.261239e+01 3.526777e+01 4.833686e+01 2.465325e+01 2.806362e+01 3.444998e+01 2.960977e-01 6.364113e-01 5.878153e-01 1.011278e+00 1.417891e+00 1.389922e+00 1.183337e+00 1.461601e+00 1.629306e+00 1.496901e+00 1.322582e+00 1.349792e+00 1.907139e-01 3.721430e-02 8.087282e-02 9.471007e-02 1.513415e-01 1.772005e-01 2.049112e-01 1.930118e-01 2.464689e-01 2.929243e-01 2.702323e-01 2.230662e-01 2.286813e-01 1.935067e-02
<GCONST> 9.026777e+01
<TRANSP> 5
 0.000000e+00 1.000000e+00 0.000000e+00 0.000000e+00 0.000000e+00
 0.000000e+00 9.038581e-01 9.614190e-02 0.000000e+00 0.000000e+00
 0.000000e+00 0.000000e+00 8.210298e-01 1.789702e-01 0.000000e+00
 0.000000e+00 0.000000e+00 0.000000e+00 9.332908e-01 6.670923e-02
 0.000000e+00 0.000000e+00 0.000000e+00 0.000000e+00 0.000000e+00
<ENDHMM>
~h "au"
<BEGINHMM>
<NUMSTATES> 5
<STATE> 2
<MEAN> 39
 1.645758e+00 -3.864943e+00 -1.071889e+01 -1.206144e+01 -1.139827e+01 -6.760905e+00 -4.940653e+00 -7.764470e+00 2.210090e-01 1.714875e+00 1.932890e+00 -4.294820e+00 7.410142e+01 1.128883e-01 8.071586e-01 4.098391e-01 6.977025e-01 -1.829014e-01 -7.668492e-01 -7.516939e-01 -7.559267e-01 -2.343132e-01 -3.018718e-01 2.307604e-01 4.503665e-01 -5.280799e-01 -9.489350e-03 1.186277e-01 6.904027e-02 4.807503e-02 6.628367e-02 2.153853e-02 6.905516e-02 -2.313424e-03 -1.185415e-01 -1.660035e-01 -1.139762e-01 9.477464e-03 -9.821291e-02
<VARIANCE> 39
 9.234312e+00 3.844799e+01 3.586244e+01 4.057813e+01 4.675026e+01 7.663128e+01 6.597829e+01 5.819217e+01 8.236237e+01 5.457585e+01 4.017812e+01 7.074307e+01 1.700904e+01 2.358842e-01 9.503956e-01 5.608609e-01 9.671760e-01 1.096899e+00 1.713725e+00 1.486794e+00 2.214469e+00 2.297106e+00 1.912344e+00 1.693409e+00 1.548199e+00 3.256060e-01 3.845649e-02 8.747124e-02 8.985858e-02 1.487594e-01 1.704216e-01 2.261631e-01 2.408247e-01 2.967208e-01 3.378514e-01 2.617943e-01 2.601874e-01 2.773575e-01 1.954499e-02
<GCONST> 9.661026e+01
<STATE> 3
<MEAN> 39
 1.984819e+00 2.019572e+00 -7.072299e+00 -7.453649e+00 -1.208270e+01 -1.042544e+01 -8.627436e+00 -1.282655e+01 -3.042321e+00 -2.841985e+00 1.200373e+00 -1.135630e+00 7.019894e+01 -4.336646e-02 9.440066e-01 6.286693e-01 6.776647e-01 2.121816e-01 -2.296624e-01 -2.801644e-01 -2.631497e-01 -7.315181e-01 -8.753797e-01 -4.444237e-01 1.222197e-01 -8.456165e-01 -5.628929e-02 -6.026088e-02 -1.791683e-02 -3.870044e-02 5.944550e-02 9.921357e-02 9.214539e-02 1.843666e-01 5.189648e-02 3.454852e-02 -5.761268e-02 -8.075609e-02 -1.943309e-02
<VARIANCE> 39
 1.111298e+01 4.338987e+01 3.056054e+01 5.526015e+01 4.808152e+01 6.256035e+01 6.233476e+01 7.023712e+01 1.197367e+02 6.377423e+01 3.160909e+01 4.535257e+01 2.273716e+01 2.019240e-01 6.024054e-01 5.785059e-01 9.522077e-01 1.095139e+00 1.284303e+00 1.477080e+00 1.801477e+00 1.716374e+00 1.633477e+00 1.621340e+00 1.442691e+00 2.815078e-01 3.016789e-02 7.507943e-02 8.711468e-02 1.340962e-01 1.921324e-01 1.884835e-01 2.339923e-01 2.565507e-01 3.057823e-01 2.398665e-01 2.459377e-01 2.174089e-01 1.708003e-02
<GCONST> 9.396099e+01
<STATE> 4
<MEAN> 39
 -1.224824e+00 6.196901e+00 -3.294628e+00 -3.349544e+00 -6.982716e+00 -8.477830e+00 -7.191567e+00 -9.371026e+00 -5.078777e+00 -5.736052e+00 -1.861816e+00 -2.020080e+00 6.237414e+01 -4.541650e-01 2.263035e-02 1.783075e-01 2.893154e-01 4.962350e-01 3.014092e-01 2.439191e-01 4.365843e-01 9.715894e-02 -1.593024e-02 -1.896414e-01 8.908391e-03 -6.682485e-01 -3.936433e-02 -9.978049e-02 -4.682758e-02 -2.704012e-02 2.270618e-02 4.058352e-02 3.547211e-02 4.407871e-02 6.271116e-02 8.690144e-02 5.824274e-02 3.054822e-02 2.551167e-02
<VARIANCE> 39
 1.398195e+01 3.615888e+01 2.242826e+01 3.058078e+01 3.337411e+01 4.307695e+01 4.985080e+01 4.353473e+01 4.676000e+01 3.946588e+01 3.063124e+01 2.989409e+01 3.187540e+01 2.674592e-01 6.359427e-01 5.404254e-01 7.918413e-01 1.072960e+00 1.311762e+00 1.644982e+00 1.513614e+00 1.590478e+00 1.517544e+00 1.280732e+00 1.329985e+00 2.226581e-01 3.336163e-02 7.726773e-02 8.680046e-02 1.262634e-01 1.701442e-01 2.011916e-01 2.542835e-01 2.559873e-01 2.516435e-01 2.711498e-01 2.336962e-01 2.302629e-01 1.636324e-02
<GCONST> 8.943361e+01
<TRANSP> 5
 0.000000e+00 1.000000e+00 0.000000e+00 0.000000e+00 0.000000e+00
 0.000000e+00 8.452227e-01 1.547773e-01 0.000000e+00 0.000000e+00
 0.000000e+00 0.000000e+00 7.887095e-01 2.112905e-01 0.000000e+00
 0.000000e+00 0.000000e+00 0.000000e+00 9.345554e-01 6.544464e-02
 0.000000e+00 0.000000e+00 0.000000e+00 0.000000e+00 0.000000e+00
<ENDHMM>
~h "ee"
<BEGINHMM>
<NUMSTATES> 5
<STATE> 2
<MEAN> 39
 -4.229298e+00 -1.578724e+00 6.065987e+00 -3.515476e+00 -2.175272e+01 -1.959155e+01 -5.207775e+00 -9.391798e+00 -7.498332e+00 -5.799655e+00 2.071496e+00 -1.176372e+00 7.523644e+01 9.081393e-03 -6.352779e-02 -3.609144e-02 -4.224581e-02 -1.773670e-02 -2.655624e-02 2.994692e-02 7.576252e-02 7.524598e-02 -5.836337e-02 3.552510e-02 -1.568540e-02 -1.016216e-01 -3.967344e-03 3.714180e-02 -2.009938e-02 1.248997e-02 6.014827e-02 2.676660e-02 2.088894e-02 2.355414e-02 6.397420e-03 -9.370276e-03 -3.499665e-02 -1.472588e-02 -4.608021e-02
<VARIANCE> 39
 8.379933e+00 2.098721e+01 4.159586e+01 5.166531e+01 4.469527e+01 5.045540e+01 3.466764e+01 4.446184e+01 2.696069e+01 3.958595e+01 4.935680e+01 6.305804e+01 8.887949e+00 1.066312e-01 3.307785e-01 3.633467e-01 5.052981e-01 7.193573e-01 6.503771e-01 7.762823e-01 6.972299e-01 6.940120e-01 7.199752e-01 7.203041e-01 6.800309e-01 1.347420e-01 2.167596e-02 5.578579e-02 6.533619e-02 8.900253e-02 1.371162e-01 1.333137e-01 1.508474e-01 1.304521e-01 1.353951e-01 1.406377e-01 1.293073e-01 1.207512e-01 2.038074e-02
<GCONST> 7.514757e+01
<STATE> 3
<MEAN> 39
 -3.401471e+00 -6.441361e-01 5.445108e+00 -2.249841e+00 -2.025448e+01 -1.959993e+01 -5.505626e+00 -6.643372e+00 -5.869181e+00 -6.711810e+00 4.023648e-01 -6.540584e-01 7.208426e+01 6.883418e-02 2.758009e-01 -2.711932e-01 1.269742e-01 3.872932e-01 1.827488e-01 1.033162e-01 1.957741e-01 8.001383e-02 -1.503816e-01 -3.207259e-01 -1.154325e-01 -6.012925e-01 -7.191228e-03 6.307711e-02 -4.856117e-02 6.029694e-02 1.422700e-01 6.312733e-02 1.823853e-02 1.019377e-02 -2.527182e-02 1.810150e-02 -8.019037e-02 -1.929196e-02 -9.737303e-02
<VARIANCE> 39
 1.064896e+01 2.294432e+01 3.517887e+01 4.255437e+01 6.171817e+01 5.573840e+01 3.067989e+01 4.065107e+01 4.025153e+01 4.135640e+01 4.553949e+01 4.864320e+01 1.381691e+01 2.252278e-01 5.766529e-01 5.749203e-01 9.475851e-01 1.275597e+00 9.676162e-01 1.476952e+00 1.075054e+00 1.388354e+00 1.311462e+00 1.324755e+00 1.272089e+00 3.030912e-01 3.564258e-02 9.412969e-02 9.478234e-02 1.607068e-01 2.052777e-01 1.918255e-01 2.624321e-01 2.081669e-01 2.499282e-01 2.307254e-01 2.160017e-01 2.196903e-01 3.799000e-02
<GCONST> 9.026206e+01
<STATE> 4
<MEAN> 39
 -4.257238e+00 2.828984e-01 2.649995e+00 -1.818061e+00 -1.469015e+01 -1.601299e+01 -3.958869e+00 -4.970356e+00 -5.358733e+00 -6.825187e+00 -1.684011e+00 -1.123791e+00 6.606840e+01 -1.450011e-01 1.398435e-01 -3.767069e-01 1.636410e-01 9.436970e-01 6.511190e-01 1.120464e-01 3.507965e-01 2.295516e-01 1.881492e-01 -1.650541e-01 9.076735e-02 -8.829088e-01 -2.496887e-02 -4.770439e-02 -3.504298e-02 -1.677860e-02 4.045392e-02 5.361512e-02 -1.587789e-02 1.484871e-02 6.692737e-02 6.661253e-02 7.052988e-02 4.741373e-02 1.008498e-02
<VARIANCE> 39
 1.420184e+01 2.428059e+01 2.761471e+01 3.440066e+01 5.629121e+01 6.459893e+01 3.986310e+01 4.205279e+01 3.960194e+01 5.682418e+01 4.235214e+01 4.456891e+01 2.576905e+01 2.849301e-01 6.851434e-01 6.741031e-01 9.259342e-01 1.365913e+00 1.533945e+00 1.632223e+00 1.554987e+00 2.061178e+00 2.013974e+00 1.929751e+00 1.655424e+00 4.738475e-01 4.049779e-02 1.094164e-01 1.115005e-01 1.547732e-01 2.021446e-01 2.367014e-01 2.763655e-01 2.996416e-01 3.789048e-01 3.381793e-01 3.280711e-01 3.162245e-01 5.167745e-02
<GCONST> 9.762219e+01
<TRANSP> 5
 0.000000e+00 1.000000e+00 0.000000e+00 0.000000e+00 0.000000e+00
 0.000000e+00 9.407488e-01 5.925118e-02 0.000000e+00 0.000000e+00
 0.000000e+00 0.000000e+00 7.488413e-01 2.511587e-01 0.000000e+00
 0.000000e+00 0.000000e+00 0.000000e+00 8.771311e-01 1.228689e-01
 0.000000e+00 0.000000e+00 0.000000e+00 0.000000e+00 0.000000e+00
<ENDHMM>
~h "ei"
<BEGINHMM>
<NUMSTATES> 5
<STATE> 2
<MEAN> 39
 -3.246287e+00 -4.300531e+00 2.111125e+00 -4.730333e+00 -1.909373e+01 -1.981511e+01 -4.420215e+00 -2.575450e+00 -3.159834e+00 -6.444561e+00 9.581364e-01 -1.677971e+00 7.504964e+01 -1.013637e-01 5.291809e-01 6.560270e-01 2.834160e-01 -2.291983e-01 -3.139228e-02 1.274619e-02 -7.751126e-01 -6.684256e-01 -2.782532e-02 2.813138e-01 3.509519e-02 -3.776647e-01 -3.255113e-03 6.774632e-02 1.720563e-04 3.881466e-02 8.042397e-02 9.500094e-02 1.961911e-02 -5.282888e-02 -2.819318e-02 -7.400964e-03 -7.313623e-02 -5.696614e-02 -6.382382e-02
<VARIANCE> 39
 8.700667e+00 2.317021e+01 4.713330e+01 5.188155e+01 4.774792e+01 6.535909e+01 3.964971e+01 6.035464e+01 4.675854e+01 5.268477e+01 3.422628e+01 4.418948e+01 1.215277e+01 1.398061e-01 4.298853e-01 6.051363e-01 7.560222e-01 9.480072e-01 1.101533e+00 1.074730e+00 1.387100e+00 9.707984e-01 1.279548e+00 1.073043e+00 1.214371e+00 2.110146e-01 2.414421e-02 5.484641e-02 8.739635e-02 1.298990e-01 1.431248e-01 1.613014e-01 1.899895e-01 2.167402e-01 1.704875e-01 1.951823e-01 1.703303e-01 1.908332e-01 2.155110e-02
<GCONST> 8.528436e+01
<STATE> 3
<MEAN> 39
 -4.483024e+00 2.328917e+00 8.907175e+00 -1.345138e+00 -1.962985e+01 -1.643750e+01 -3.203909e+00 -9.947583e+00 -8.401210e+00 -5.264231e+00 4.754504e-01 -1.971213e+00 7.055795e+01 -1.636600e-01 6.969233e-01 3.962855e-01 2.490479e-01 4.330510e-01 5.815347e-01 1.595568e-01 -4.211054e-01 -3.832504e-01 -9.525729e-02 -2.936323e-01 -2.941187e-01 -6.941027e-01 -4.637242e-03 -3.386923e-02 -9.380902e-02 -1.614405e-02 1.051011e-01 2.758312e-02 -1.099927e-03 1.151367e-01 7.767850e-02 3.124583e-03 -2.995884e-02 2.145665e-02 -3.895565e-02
<VARIANCE> 39
 9.928970e+00 2.311168e+01 4.245330e+01 4.987042e+01 4.750697e+01 6.776071e+01 2.770678e+01 4.046163e+01 4.418060e+01 5.225444e+01 3.305045e+01 4.173545e+01 1.335000e+01 1.442897e-01 3.746882e-01 6.298031e-01 7.807474e-01 9.721824e-01 1.043150e+00 9.214516e-01 1.295397e+00 1.077257e+00 1.088096e+00 1.006311e+00 9.430538e-01 1.822807e-01 2.498942e-02 5.447487e-02 9.866853e-02 1.229012e-01 1.583120e-01 1.848391e-01 1.712149e-01 2.171949e-01 1.738245e-01 1.924206e-01 1.657148e-01 1.641324e-01 1.679784e-02
<GCONST> 8.347915e+01
<STATE> 4
<MEAN> 39
 -6.336622e+00 5.331993e+00 7.394360e+00 9.997202e-01 -1.143435e+01 -9.723635e+00 -1.500306e+00 -9.391218e+00 -7.758040e+00 -5.622963e+00 -1.625496e+00 -3.260396e+00 6.362348e+01 -2.226108e-01 -4.547624e-02 -4.927930e-01 1.004433e-01 9.098814e-01 6.740932e-01 1.691903e-01 3.562616e-01 1.908590e-01 1.663048e-01 -1.164525e-01 9.946163e-02 -7.536845e-01 -2.283069e-02 -1.041020e-01 -8.852847e-02 -3.834727e-02 1.886891e-02 5.760983e-03 2.407650e-02 9.431723e-02 6.343023e-02 5.928032e-02 5.862039e-02 4.539547e-02 1.251704e-02
<VARIANCE> 39
 1.008044e+01 2.868616e+01 4.881226e+01 2.672889e+01 6.001301e+01 5.038562e+01 3.405484e+01 4.041195e+01 3.288005e+01 3.937101e+01 2.789841e+01 3.102002e+01 2.479446e+01 2.136849e-01 5.980312e-01 8.618739e-01 8.227541e-01 1.381764e+00 1.238083e+00 1.425144e+00 1.739262e+00 1.347493e+00 1.420102e+00 1.352671e+00 1.268751e+00 2.962435e-01 3.710230e-02 8.529504e-02 1.157474e-01 1.303935e-01 2.249775e-01 2.229425e-01 2.811416e-01 3.057077e-01 2.245535e-01 2.448667e-01 2.406406e-01 2.178543e-01 3.032936e-02
<GCONST> 9.117450e+01
<TRANSP> 5
 0.000000e+00 1.000000e+00 0.000000e+00 0.000000e+00 0.000000e+00
 0.000000e+00 8.891091e-01 1.108909e-01 0.000000e+00 0.000000e+00
 0.000000e+00 0.000000e+00 8.389251e-01 1.610749e-01 0.000000e+00
 0.000000e+00 0.000000e+00 0.000000e+00 9.153031e-01 8.469690e-02
 0.000000e+00 0.000000e+00 0.000000e+00 0.000000e+00 0.000000e+00
<ENDHMM>
~h "ii"
<BEGINHMM>
<NUMSTATES> 5
<STATE> 2
<MEAN> 39
 -5.841304e+00 5.033372e+00 1.195202e+01 -3.633680e+00 -1.558263e+01 -1.298036e+01 -3.790916e+00 -1.434381e+01 -1.078210e+01 -6.250134e+00 -3.288661e+00 -4.903588e+00 7.108286e+01 5.771357e-03 2.565542e-01 4.705057e-02 1.646410e-01 1.381287e-01 1.166065e-01 6.815299e-02 4.175051e-02 6.937795e-02 6.104506e-02 3.552567e-02 -8.560683e-02 -2.568249e-01 -1.325620e-02 1.458303e-02 -4.951552e-02 3.311671e-02 6.986754e-02 1.899957e-02 4.886577e-03 5.516028e-02 4.238901e-02 -7.661763e-03 -1.175054e-02 8.334450e-03 -5.365855e-02
<VARIANCE> 39
 1.229250e+01 2.117220e+01 4.906130e+01 5.807818e+01 3.910540e+01 5.488530e+01 3.842103e+01 4.090480e+01 3.062229e+01 3.206541e+01 3.218220e+01 4.940052e+01 9.005270e+00 1.552004e-01 3.432810e-01 4.120498e-01 5.500602e-01 7.933481e-01 7.592648e-01 7.774728e-01 7.933164e-01 7.736298e-01 8.532407e-01 8.993502e-01 7.596576e-01 1.392592e-01 2.893431e-02 5.493949e-02 7.138196e-02 8.812802e-02 1.298872e-01 1.388980e-01 1.415660e-01 1.613703e-01 1.528710e-01 1.605956e-01 1.632993e-01 1.245655e-01 2.163930e-02
<GCONST> 7.776690e+01
<STATE> 3
<MEAN> 39
 -5.801719e+00 8.101109e+00 1.167886e+01 1.239061e-01 -1.195208e+01 -1.231369e+01 -1.610484e+00 -1.193521e+01 -9.936957e+00 -5.979449e+00 -2.062004e+00 -4.405593e+00 6.807131e+01 -3.648628e-02 1.876424e-01 -2.514758e-01 1.620561e-01 4.625927e-01 2.105426e-01 3.081437e-02 1.764640e-01 1.489575e-01 -3.096664e-02 -4.338654e-02 5.933399e-02 -4.810861e-01 -1.912027e-02 -5.474840e-02 -6.260826e-02 -2.153137e-03 4.820075e-02 2.447048e-02 -1.090734e-02 2.500561e-02 -5.265282e-03 -1.838355e-02 -2.649157e-02 7.720895e-03 -4.472557e-02
<VARIANCE> 39
 1.279902e+01 1.660979e+01 5.652461e+01 4.120531e+01 4.236247e+01 4.799748e+01 3.388966e+01 4.063905e+01 2.467106e+01 2.978960e+01 3.228849e+01 3.203016e+01 1.098805e+01 1.561058e-01 3.522374e-01 5.212919e-01 6.287133e-01 9.024181e-01 8.919553e-01 8.821488e-01 9.079117e-01 9.009640e-01 9.254375e-01 9.700913e-01 8.824428e-01 1.920585e-01 2.466620e-02 5.751377e-02 8.132556e-02 9.440066e-02 1.442146e-01 1.605083e-01 1.671663e-01 1.607205e-01 1.713589e-01 1.794919e-01 1.714080e-01 1.657666e-01 1.601847e-02
<GCONST> 7.914387e+01
<STATE> 4
<MEAN> 39
 -8.737701e+00 7.150664e+00 6.139919e+00 8.858743e-01 -5.522799e+00 -7.642513e+00 -5.594345e-01 -8.599549e+00 -6.603326e+00 -5.818534e+00 -3.258121e+00 -3.024415e+00 6.094454e+01 -2.073977e-01 -4.047217e-01 -6.833230e-01 4.343056e-02 5.634197e-01 4.214445e-01 2.172585e-01 5.173416e-01 3.790605e-01 1.501434e-01 2.320497e-02 1.843438e-01 -5.630774e-01 -1.063246e-02 -6.126633e-02 -2.713847e-02 -3.703344e-02 -3.420151e-02 3.371996e-02 2.548474e-02 6.425211e-02 5.159545e-02 5.640575e-02 4.642094e-02 1.357392e-02 2.570173e-02
<VARIANCE> 39
 1.642998e+01 2.858315e+01 5.448826e+01 2.273927e+01 3.078091e+01 4.071325e+01 3.777760e+01 4.604781e+01 3.095069e+01 3.211370e+01 2.271430e+01 2.545350e+01 2.347892e+01 2.423397e-01 5.075630e-01 8.049387e-01 7.818393e-01 1.249217e+00 1.101504e+00 1.432209e+00 1.385915e+00 1.533907e+00 1.500804e+00 1.521161e+00 1.309370e+00 2.390357e-01 4.288090e-02 8.284419e-02 1.188695e-01 1.277023e-01 1.943622e-01 1.847137e-01 2.602446e-01 2.183608e-01 2.805594e-01 2.821518e-01 3.010238e-01 2.516463e-01 2.329982e-02
<GCONST> 8.960300e+01
<TRANSP> 5
 0.000000e+00 1.000000e+00 0.000000e+00 0.000000e+00 0.000000e+00
 0.000000e+00 9.064434e-01 9.355665e-02 0.000000e+00 0.000000e+00
 0.000000e+00 0.000000e+00 8.739034e-01 1.260966e-01 0.000000e+00
 0.000000e+00 0.000000e+00 0.000000e+00 9.117445e-01 8.825546e-02
 0.000000e+00 0.000000e+00 0.000000e+00 0.000000e+00 0.000000e+00
<ENDHMM>
~h "oe"
<BEGINHMM>
<NUMSTATES> 5
<STATE> 2
<MEAN> 39
 1.610348e-01 -3.006778e+00 -5.477817e+00 -9.308313e+00 -1.325129e+01 -1.340055e+01 -9.377333e+00 -1.112767e+01 -2.137339e+00 -5.517349e-01 1.884153e+00 7.128977e-01 7.406050e+01 -4.899719e-01 -7.052454e-01 7.785245e-01 1.753089e+00 4.999819e-01 -1.561894e+00 -1.039637e+00 6.386902e-01 8.407929e-01 -4.124165e-02 -1.106741e-01 -2.249614e-01 -1.690321e-02 -2.804819e-02 2.095008e-01 1.833480e-01 -1.281353e-02 -1.759174e-01 -2.884852e-02 2.822586e-01 2.598910e-01 -9.645063e-02 -2.423857e-01 -1.954449e-01 3.558842e-02 -2.001397e-01
<VARIANCE> 39
 1.290066e+01 3.232275e+01 4.805993e+01 6.204874e+01 4.844923e+01 7.488820e+01 5.738231e+01 5.660490e+01 6.474567e+01 6.017182e+01 5.591171e+01 4.262497e+01 1.553370e+01 3.777791e-01 1.513837e+00 1.850159e+00 2.160065e+00 3.171275e+00 3.947335e+00 5.322617e+00 4.281855e+00 4.807939e+00 5.042651e+00 4.345617e+00 3.456582e+00 9.356718e-01 6.943014e-02 1.824433e-01 2.885876e-01 4.091730e-01 5.468846e-01 7.763685e-01 9.019855e-01 7.595665e-01 9.963101e-01 9.250159e-01 7.953038e-01 7.229288e-01 7.226193e-02
<GCONST> 1.220887e+02
<STATE> 3
<MEAN> 39
 -1.744843e+00 -3.474915e+00 -1.188272e-01 -2.089570e+00 -1.335591e+01 -1.992266e+01 -1.039040e+01 -5.638299e+00 -9.524333e-01 -3.914149e+00 -5.496260e-01 6.759002e-01 7.090187e+01 -3.962062e-01 5.909038e-01 6.093359e-01 5.881687e-01 1.548342e-01 -1.636718e-01 4.932255e-01 6.341494e-01 -3.229856e-01 -4.179257e-01 7.142683e-02 1.999063e-01 -1.172754e+00 -4.529656e-03 9.965143e-02 -2.543381e-01 -2.179001e-01 1.307862e-01 3.671009e-01 9.217878e-02 -2.469248e-01 -6.977366e-03 2.843806e-01 1.558066e-01 -4.467379e-02 -1.399134e-01
<VARIANCE> 39
 1.342290e+01 2.787227e+01 5.140243e+01 4.220866e+01 5.195761e+01 5.150727e+01 4.351807e+01 4.299527e+01 3.715065e+01 5.659144e+01 5.131759e+01 2.692847e+01 2.717446e+01 4.452545e-01 1.051171e+00 1.655085e+00 1.532995e+00 2.379932e+00 2.976444e+00 2.438578e+00 2.601050e+00 2.495375e+00 2.397029e+00 2.453737e+00 1.784838e+00 1.334369e+00 7.935330e-02 1.956874e-01 2.338587e-01 2.442680e-01 3.853335e-01 3.911833e-01 4.276404e-01 4.485686e-01 4.466933e-01 4.457363e-01 4.267512e-01 3.538022e-01 1.255134e-01
<GCONST> 1.102751e+02
<STATE> 4
<MEAN> 39
 -4.199543e+00 -1.282504e-01 4.257877e-01 -1.036880e+00 -1.146269e+01 -1.725490e+01 -6.952118e+00 -4.495670e+00 -2.852981e+00 -4.447661e+00 4.749150e-01 6.788694e-01 6.494017e+01 -4.914672e-01 2.967269e-01 -4.804297e-02 1.315635e-01 5.326018e-01 8.160404e-01 4.817625e-01 1.891378e-01 -1.198790e-02 1.914361e-01 6.087273e-02 -1.767222e-02 -9.571065e-01 -2.508997e-02 -9.652190e-02 -6.670206e-02 -5.488738e-02 5.426638e-02 1.105721e-01 -2.753875e-02 -6.626757e-03 6.129962e-02 2.775274e-02 -2.661937e-02 1.331040e-03 1.020448e-01
<VARIANCE> 39
 1.718830e+01 2.400971e+01 3.481982e+01 3.198373e+01 4.719833e+01 5.396142e+01 4.561880e+01 3.766771e+01 3.304634e+01 4.394449e+01 3.296698e+01 2.485144e+01 3.766221e+01 3.851988e-01 8.592578e-01 1.028434e+00 1.027136e+00 1.510013e+00 1.795187e+00 1.509022e+00 1.546901e+00 1.679318e+00 1.703931e+00 1.648962e+00 1.370630e+00 7.213552e-01 6.862305e-02 1.402965e-01 1.586417e-01 1.722667e-01 2.571491e-01 2.778044e-01 2.845672e-01 3.034391e-01 3.202648e-01 2.931479e-01 2.790535e-01 2.793990e-01 1.209361e-01
<GCONST> 9.959824e+01
<TRANSP> 5
 0.000000e+00 1.000000e+00 0.000000e+00 0.000000e+00 0.000000e+00
 0.000000e+00 8.496722e-01 1.503278e-01 0.000000e+00 0.000000e+00
 0.000000e+00 0.000000e+00 6.727386e-01 3.272614e-01 0.000000e+00
 0.000000e+00 0.000000e+00 0.000000e+00 8.866783e-01 1.133217e-01
 0.000000e+00 0.000000e+00 0.000000e+00 0.000000e+00 0.000000e+00
<ENDHMM>
~h "oi"
<BEGINHMM>
<NUMSTATES> 5
<STATE> 2
<MEAN> 39
 7.755678e-01 -2.095337e-01 -4.991032e+00 -8.366287e+00 -1.268433e+01 -1.181338e+01 -8.490470e+00 -1.298966e+01 -4.770233e+00 -4.233906e+00 9.672173e-01 7.275850e-01 7.221791e+01 -5.375869e-01 -5.797832e-01 8.759389e-01 1.948758e+00 5.372851e-01 -1.255047e+00 -7.806760e-01 1.565046e-01 2.242592e-01 -2.085874e-01 1.471328e-01 -4.322780e-01 -6.061614e-03 -6.554478e-02 1.390565e-01 2.301899e-01 4.076691e-02 -1.621474e-01 -8.566438e-02 2.390801e-01 2.604048e-01 -3.734315e-02 -1.984192e-01 -1.919892e-01 -3.613334e-02 -1.089761e-01
<VARIANCE> 39
 1.571945e+01 3.313432e+01 5.313295e+01 1.047708e+02 6.307100e+01 9.756001e+01 6.817828e+01 5.404371e+01 5.894370e+01 5.923140e+01 5.547078e+01 5.832239e+01 1.379090e+01 4.952480e-01 1.533503e+00 3.355749e+00 4.547729e+00 4.535709e+00 6.744041e+00 6.644080e+00 5.132181e+00 5.802001e+00 6.148041e+00 5.606689e+00 4.026868e+00 5.177979e-01 8.131855e-02 2.284731e-01 4.433771e-01 8.129961e-01 8.605553e-01 1.308322e+00 1.291081e+00 1.029708e+00 1.231676e+00 1.210901e+00 1.102769e+00 9.139358e-01 5.358034e-02
<GCONST> 1.306692e+02
<STATE> 3
<MEAN> 39
 -2.922214e+00 -6.295323e-02 3.055335e+00 1.724133e+00 -1.152021e+01 -1.709783e+01 -7.874860e+00 -9.713212e+00 -5.763690e+00 -8.065142e+00 -7.352911e-01 -7.382967e-01 7.044486e+01 -4.056747e-01 4.943685e-01 3.083816e-01 -1.958999e-02 3.132922e-01 7.995995e-01 8.789945e-01 3.824321e-01 -3.786623e-01 -4.530822e-02 9.110446e-02 -1.466904e-03 -6.706355e-01 5.722392e-02 8.339298e-02 -3.117736e-01 -3.514147e-01 1.165626e-01 3.591495e-01 1.703770e-02 -1.251903e-01 7.756586e-02 2.425036e-01 4.971027e-02 -1.107752e-02 -6.617714e-02
<VARIANCE> 39
 1.383516e+01 2.724357e+01 6.596468e+01 5.273260e+01 8.720863e+01 7.437300e+01 4.803963e+01 4.942052e+01 5.800611e+01 5.408255e+01 4.336834e+01 4.304871e+01 1.812920e+01 4.493369e-01 1.010795e+00 3.594415e+00 2.959734e+00 4.462673e+00 5.132336e+00 3.505694e+00 3.435823e+00 3.183799e+00 4.184629e+00 2.741104e+00 2.276212e+00 2.917830e-01 5.799446e-02 1.733660e-01 2.844516e-01 3.701309e-01 7.088523e-01 7.414727e-01 7.249252e-01 6.893616e-01 6.235300e-01 7.634847e-01 5.566289e-01 4.733721e-01 3.370570e-02
<GCONST> 1.175240e+02
<STATE> 4
<MEAN> 39
 -4.184967e+00 2.565675e+00 3.651926e+00 4.295251e-01 -1.127714e+01 -1.304945e+01 -4.211390e+00 -8.721936e+00 -6.413342e+00 -6.969258e+00 -7.042715e-01 -1.873231e+00 6.542949e+01 -3.277469e-01 2.629158e-01 -1.925047e-01 -1.774155e-01 6.358106e-01 7.697352e-01 4.350653e-01 2.149030e-01 7.087761e-02 2.867076e-01 -1.686216e-01 1.512764e-02 -7.371132e-01 2.603469e-02 -7.256456e-02 -1.156881e-01 -3.889288e-02 5.117617e-02 -7.156562e-04 -7.967199e-02 4.221179e-02 9.483322e-02 4.130537e-02 -3.667252e-03 7.061147e-03 1.480091e-02
<VARIANCE> 39
 1.337853e+01 2.315557e+01 4.643002e+01 3.906861e+01 6.525545e+01 5.713205e+01 4.232458e+01 4.207450e+01 3.323983e+01 4.109278e+01 2.947015e+01 3.371062e+01 2.137254e+01 3.421617e-01 8.701054e-01 1.523837e+00 1.419311e+00 2.079966e+00 1.813831e+00 2.070900e+00 2.336331e+00 1.864231e+00 1.698123e+00 1.426438e+00 1.734614e+00 2.894361e-01 5.656066e-02 1.260137e-01 1.956439e-01 1.903646e-01 3.032557e-01 3.456963e-01 3.528757e-01 4.468605e-01 3.388214e-01 3.428290e-01 2.776500e-01 3.256077e-01 2.954637e-02
<GCONST> 1.006757e+02
<TRANSP> 5
 0.000000e+00 1.000000e+00 0.000000e+00 0.000000e+00 0.000000e+00
 0.000000e+00 8.806202e-01 1.193798e-01 0.000000e+00 0.000000e+00
 0.000000e+00 0.000000e+00 7.240103e-01 2.759897e-01 0.000000e+00
 0.000000e+00 0.000000e+00 0.000000e+00 8.893164e-01 1.106836e-01
 0.000000e+00 0.000000e+00 0.000000e+00 0.000000e+00 0.000000e+00
<ENDHMM>
~h "oo"
<BEGINHMM>
<NUMSTATES> 5
<STATE> 2
<MEAN> 39
 3.711261e+00 1.026258e+01 -1.770433e+00 -1.666731e+01 -2.235037e+01 -1.474543e+01 -7.457387e+00 -7.760221e+00 1.080187e+00 2.058674e+00 -3.729873e+00 -2.215961e+00 6.679105e+01 -1.665843e-02 1.579183e-01 8.773542e-02 6.757602e-03 -1.705423e-01 2.161300e-02 1.368384e-01 1.166109e-01 9.701574e-02 1.443546e-01 -3.101562e-02 -1.117804e-01 -2.394308e-01 -4.427639e-02 1.479231e-03 -8.453974e-03 5.578760e-02 9.107754e-02 9.431999e-03 4.287358e-02 7.384845e-02 -3.833657e-02 -5.847859e-02 8.393127e-03 -2.113239e-02 -4.191037e-02
<VARIANCE> 39
 8.447361e+00 2.298307e+01 3.298415e+01 2.099893e+01 3.331452e+01 3.581904e+01 3.988839e+01 6.183722e+01 3.843208e+01 3.602475e+01 4.306891e+01 3.218099e+01 1.271034e+01 2.053222e-01 5.085965e-01 7.041594e-01 4.926537e-01 1.157800e+00 7.354856e-01 1.235273e+00 1.226945e+00 1.080582e+00 1.105396e+00 1.263204e+00 8.529290e-01 2.127205e-01 3.909897e-02 8.320801e-02 1.237406e-01 8.326809e-02 2.318466e-01 1.467941e-01 2.535609e-01 2.064562e-01 2.047755e-01 1.917800e-01 2.254465e-01 1.609931e-01 2.766485e-02
<GCONST> 8.425826e+01
<STATE> 3
<MEAN> 39
 1.531664e+00 1.351553e+01 1.905210e-01 -1.314851e+01 -2.175543e+01 -1.409333e+01 -5.344845e+00 -4.981959e+00 1.738126e+00 3.357486e+00 -1.544547e+00 -2.650686e+00 6.290449e+01 -4.654629e-01 -1.077258e-01 -3.758123e-02 4.107004e-01 6.154138e-01 3.497501e-02 2.561648e-02 3.538302e-01 -3.978845e-02 -2.028504e-01 2.936569e-01 6.247035e-02 -5.169514e-01 -6.889799e-02 -1.167602e-01 -2.952591e-02 5.502982e-02 1.422112e-01 6.011228e-02 -1.033963e-02 -2.742032e-02 -2.897558e-02 -1.283032e-02 1.225728e-02 4.755682e-02 -2.365814e-02
<VARIANCE> 39
 1.362933e+01 2.285952e+01 3.732188e+01 3.023516e+01 3.120404e+01 3.533224e+01 2.946111e+01 4.505054e+01 3.122106e+01 4.076824e+01 2.203959e+01 2.286408e+01 2.174919e+01 2.505927e-01 4.810144e-01 6.293754e-01 7.326393e-01 1.119778e+00 9.893906e-01 1.405048e+00 1.134717e+00 1.055707e+00 1.055115e+00 9.062906e-01 9.391217e-01 1.832393e-01 3.761814e-02 6.002784e-02 1.121093e-01 1.331896e-01 2.158937e-01 1.801777e-01 2.559162e-01 1.898154e-01 1.897501e-01 1.812280e-01 1.882059e-01 1.614739e-01 1.544993e-02
<GCONST> 8.342055e+01
<STATE> 4
<MEAN> 39
 -3.208222e+00 6.685709e+00 -3.021273e+00 -8.497961e+00 -1.193332e+01 -8.202325e+00 -2.691964e+00 -1.967674e+00 8.147955e-01 3.277998e-01 -9.439999e-01 -1.805210e+00 5.901163e+01 -5.994928e-01 -5.117019e-01 -1.703513e-01 6.346663e-01 1.110455e+00 5.405464e-01 1.612158e-01 2.579700e-01 -1.506492e-01 -1.261442e-01 1.031424e-01 3.063540e-01 -5.122284e-01 2.481995e-03 -1.828789e-02 -3.830059e-03 -1.423675e-02 -2.644964e-03 3.920238e-02 1.632785e-02 -2.155616e-02 6.351359e-04 -7.843975e-03 4.054846e-03 3.924022e-02 2.925717e-02
<VARIANCE> 39
 1.961913e+01 2.427505e+01 1.975981e+01 2.657367e+01 5.003873e+01 4.203997e+01 4.185699e+01 2.649134e+01 2.071391e+01 4.521758e+01 2.248600e+01 2.649502e+01 3.068865e+01 3.328462e-01 3.963765e-01 6.768885e-01 8.853109e-01 1.322827e+00 1.171296e+00 1.181065e+00 1.339800e+00 1.520494e+00 1.287446e+00 1.475179e+00 1.297267e+00 2.007412e-01 4.653893e-02 6.632572e-02 1.173711e-01 1.603914e-01 2.111789e-01 2.180075e-01 2.285102e-01 2.462089e-01 3.059821e-01 2.345629e-01 2.786919e-01 2.276379e-01 1.925417e-02
<GCONST> 8.844839e+01
<TRANSP> 5
 0.000000e+00 1.000000e+00 0.000000e+00 0.000000e+00 0.000000e+00
 0.000000e+00 9.183393e-01 8.166075e-02 0.000000e+00 0.000000e+00
 0.000000e+00 0.000000e+00 8.520827e-01 1.479173e-01 0.000000e+00
 0.000000e+00 0.000000e+00 0.000000e+00 8.989943e-01 1.010056e-01
 0.000000e+00 0.000000e+00 0.000000e+00 0.000000e+00 0.000000e+00
<ENDHMM>
~h "ou"
<BEGINHMM>
<NUMSTATES> 5
<STATE> 2
<MEAN> 39
 3.425699e+00 6.263715e+00 -6.335910e+00 -1.472187e+01 -1.602818e+01 -7.714648e+00 -1.484999e+00 -9.774475e+00 -7.348057e+00 -5.878753e+00 -6.048012e-01 1.293545e+00 6.949619e+01 -3.076021e-02 3.628920e-01 1.921727e-01 5.703648e-01 3.093103e-01 -1.253427e-01 -3.201231e-01 -2.293718e-01 -3.726160e-01 -5.287220e-01 -1.146063e-03 5.225893e-02 -3.878528e-01 -4.844225e-02 4.329447e-03 3.562050e-02 1.298302e-01 1.294042e-01 1.730946e-02 -6.223896e-03 8.962135e-02 3.426675e-02 -9.333285e-03 -4.488009e-02 -5.518135e-02 -8.722448e-02
<VARIANCE> 39
 7.522493e+00 3.684848e+01 2.921905e+01 6.005254e+01 4.787395e+01 4.919254e+01 8.269187e+01 5.283391e+01 5.544989e+01 5.278166e+01 4.963461e+01 4.204289e+01 1.324998e+01 1.974372e-01 7.306572e-01 7.109429e-01 1.367890e+00 1.307863e+00 1.599418e+00 1.459329e+00 1.632708e+00 1.377008e+00 1.484717e+00 1.524972e+00 1.349543e+00 3.582274e-01 3.765745e-02 9.579117e-02 1.123736e-01 1.820882e-01 2.081277e-01 2.533962e-01 2.701501e-01 2.507836e-01 2.516824e-01 2.678646e-01 2.474973e-01 2.144179e-01 3.306634e-02
<GCONST> 9.498945e+01
<STATE> 3
<MEAN> 39
 2.591240e+00 9.417820e+00 -3.404203e+00 -9.856707e+00 -1.314614e+01 -8.720462e+00 -2.855230e+00 -9.702226e+00 -8.497210e+00 -7.558714e+00 -1.861493e+00 -2.929425e-02 6.645930e+01 -2.396879e-01 2.898294e-01 3.282998e-01 8.172722e-01 6.317629e-01 -3.641950e-02 -3.750090e-01 1.905566e-01 -8.508079e-02 -2.570067e-01 -1.763151e-01 -1.581235e-01 -6.731507e-01 -5.298383e-02 -5.963725e-02 2.231502e-03 -2.437577e-02 3.664676e-02 6.179429e-02 5.747214e-03 2.264650e-02 7.795351e-02 8.182206e-02 -9.322679e-03 -1.227703e-02 -4.004706e-02
<VARIANCE> 39
 9.735592e+00 4.070732e+01 2.837757e+01 5.196082e+01 4.142077e+01 4.693775e+01 7.200285e+01 5.436418e+01 4.911125e+01 4.901934e+01 5.330707e+01 4.014762e+01 2.282388e+01 2.368581e-01 5.686306e-01 6.939134e-01 1.133850e+00 1.205340e+00 1.449281e+00 1.745897e+00 1.675681e+00 1.419948e+00 1.461686e+00 1.828110e+00 1.387415e+00 3.669118e-01 3.566198e-02 8.942480e-02 1.090220e-01 1.681972e-01 1.928155e-01 2.194684e-01 2.626461e-01 2.408194e-01 2.515701e-01 2.595957e-01 2.922450e-01 2.270367e-01 2.501250e-02
<GCONST> 9.462833e+01
<STATE> 4
<MEAN> 39
 -1.471588e+00 7.728810e+00 -1.746449e+00 -3.210251e+00 -6.023877e+00 -6.557618e+00 -5.025255e+00 -7.182716e+00 -5.672297e+00 -6.551047e+00 -2.845183e+00 -1.594593e+00 6.166690e+01 -5.162760e-01 -3.079689e-01 6.080490e-02 3.098972e-01 5.734411e-01 3.312185e-01 1.385902e-01 3.353840e-01 3.043455e-01 2.744434e-01 1.241525e-02 4.479662e-03 -5.484616e-01 -2.923458e-02 -7.556862e-02 -4.288542e-02 -5.077721e-02 -1.259899e-02 2.663748e-02 5.373709e-02 2.002535e-02 4.033367e-02 4.206182e-02 3.461570e-02 2.422013e-02 4.199985e-02
<VARIANCE> 39
 1.350625e+01 3.810337e+01 2.001466e+01 2.962572e+01 3.103537e+01 3.173918e+01 4.092971e+01 3.832925e+01 3.281113e+01 3.289492e+01 2.820731e+01 2.762666e+01 2.999535e+01 2.862869e-01 6.036160e-01 6.145810e-01 9.327016e-01 1.153185e+00 1.134996e+00 1.581565e+00 1.536898e+00 1.336875e+00 1.416016e+00 1.375428e+00 1.120960e+00 2.541142e-01 3.486177e-02 8.388457e-02 1.042002e-01 1.470258e-01 1.940349e-01 1.884441e-01 2.534800e-01 2.527352e-01 2.263552e-01 2.453095e-01 2.464179e-01 2.089417e-01 3.119413e-02
<GCONST> 8.875179e+01
<TRANSP> 5
 0.000000e+00 1.000000e+00 0.000000e+00 0.000000e+00 0.000000e+00
 0.000000e+00 8.286966e-01 1.713034e-01 0.000000e+00 0.000000e+00
 0.000000e+00 0.000000e+00 7.964390e-01 2.035610e-01 0.000000e+00
 0.000000e+00 0.000000e+00 0.000000e+00 9.209217e-01 7.907832e-02
 0.000000e+00 0.000000e+00 0.000000e+00 0.000000e+00 0.000000e+00
<ENDHMM>
~h "uu"
<BEGINHMM>
<NUMSTATES> 5
<STATE> 2
<MEAN> 39
 -2.052509e+00 -1.278264e+00 -2.264765e+00 -3.583643e-01 -9.187330e+00 -1.963715e+01 -1.068009e+01 -1.227807e+01 -3.048377e-01 -8.827849e+00 -6.082707e+00 -2.854778e+00 7.341366e+01 7.159480e-02 3.357304e-01 -2.649391e-02 6.759754e-02 5.799912e-02 1.287742e-01 1.095892e-01 -6.560032e-02 -2.903627e-01 -1.036017e-01 4.385937e-02 3.221256e-01 -3.777294e-01 -7.222594e-02 7.754835e-02 1.597438e-02 -1.873243e-02 5.014987e-02 1.072584e-01 -3.313011e-02 1.658496e-03 2.157385e-02 1.390959e-02 1.333310e-02 -4.448322e-02 -6.038708e-02
<VARIANCE> 39
 1.419713e+01 3.763866e+01 3.961830e+01 3.789660e+01 7.189323e+01 4.554005e+01 5.795512e+01 4.635484e+01 8.557963e+01 7.861465e+01 3.149181e+01 6.564433e+01 1.675047e+01 2.101706e-01 4.685787e-01 3.831588e-01 7.879115e-01 7.177026e-01 1.120365e+00 1.310593e+00 1.006421e+00 1.239362e+00 1.296458e+00 1.196238e+00 1.108906e+00 2.222062e-01 5.567801e-02 7.144003e-02 8.242732e-02 1.082199e-01 1.137370e-01 1.968887e-01 2.135691e-01 1.966011e-01 2.029890e-01 2.207358e-01 2.119827e-01 1.719343e-01 2.628968e-02
<GCONST> 8.905280e+01
<STATE> 3
<MEAN> 39
 9.648563e-01 5.045580e+00 4.759262e-01 -7.925856e-01 -8.538757e+00 -1.382094e+01 -9.731504e+00 -1.412205e+01 -6.471636e+00 -6.977899e+00 -3.243065e+00 -1.905938e+00 6.780162e+01 2.671115e-02 3.107964e-01 -5.057224e-02 -1.344148e-03 1.467246e-01 2.751876e-01 -6.713317e-02 2.009714e-02 -1.088528e-01 -2.213799e-02 1.055564e-01 3.623160e-03 -3.984109e-01 -2.947417e-02 -8.362120e-03 1.467801e-02 1.297735e-02 2.280238e-02 1.053188e-02 -5.536601e-03 3.421129e-02 9.274339e-03 2.622470e-03 -1.291561e-02 -2.393242e-02 -1.248457e-02
<VARIANCE> 39
 1.052990e+01 2.862416e+01 3.264178e+01 4.685909e+01 4.581989e+01 5.306146e+01 8.125210e+01 5.676811e+01 5.344442e+01 5.251702e+01 3.090015e+01 4.241991e+01 1.966519e+01 1.103801e-01 2.561319e-01 3.364363e-01 4.264594e-01 6.408706e-01 6.399469e-01 8.551307e-01 9.775404e-01 8.189371e-01 7.817237e-01 8.657695e-01 8.840597e-01 1.006794e-01 1.880708e-02 4.212358e-02 5.316487e-02 7.827228e-02 1.027492e-01 1.037192e-01 1.377278e-01 1.605427e-01 1.536215e-01 1.392295e-01 1.409042e-01 1.421352e-01 1.260792e-02
<GCONST> 7.635620e+01
<STATE> 4
<MEAN> 39
 -2.907327e+00 5.879804e+00 -1.011739e-01 8.632367e-01 -3.375330e+00 -7.981419e+00 -5.893663e+00 -8.534654e+00 -4.660875e+00 -7.733819e+00 -3.048947e+00 -1.473314e+00 6.139561e+01 -4.179941e-01 -1.444128e-01 -4.130196e-02 3.290737e-02 4.723901e-01 5.683069e-01 3.973697e-01 6.040598e-01 1.379735e-01 1.634289e-01 -2.178411e-02 -2.436207e-02 -5.205677e-01 -4.233737e-02 -7.629608e-02 -4.230110e-02 -1.381347e-02 3.147895e-02 -4.279903e-03 5.592871e-02 5.061732e-02 7.927831e-02 6.054568e-02 2.958323e-02 3.229028e-02 8.439062e-03
<VARIANCE> 39
 1.346542e+01 3.020089e+01 1.749656e+01 3.003662e+01 4.393064e+01 4.678133e+01 5.345684e+01 7.236670e+01 6.426989e+01 3.810161e+01 2.901894e+01 2.478476e+01 2.239944e+01 2.645149e-01 4.494836e-01 4.546514e-01 8.354251e-01 1.136717e+00 1.112844e+00 1.593313e+00 1.361353e+00 1.295277e+00 1.349770e+00 1.199724e+00 1.030783e+00 1.890824e-01 4.137599e-02 5.861481e-02 7.631359e-02 1.329847e-01 1.606856e-01 1.976541e-01 2.985528e-01 2.244365e-01 2.421985e-01 2.255566e-01 2.131115e-01 1.702621e-01 1.715268e-02
<GCONST> 8.729233e+01
<TRANSP> 5
 0.000000e+00 1.000000e+00 0.000000e+00 0.000000e+00 0.000000e+00
 0.000000e+00 8.309529e-01 1.690471e-01 0.000000e+00 0.000000e+00
 0.000000e+00 0.000000e+00 9.305476e-01 6.945238e-02 0.000000e+00
 0.000000e+00 0.000000e+00 0.000000e+00 9.169784e-01 8.302157e-02
 0.000000e+00 0.000000e+00 0.000000e+00 0.000000e+00 0.000000e+00
<ENDHMM>
~h "sil"
<BEGINHMM>
<NUMSTATES> 5
<STATE> 2
<MEAN> 39
 -9.385172e+00 1.181999e+00 -2.385404e+00 -1.503561e+00 -2.877173e+00 -3.485761e+00 -1.033932e+00 -9.359635e-01 -1.538019e-01 -1.005317e+00 -6.149292e-03 -9.358311e-02 5.650869e+01 -1.648194e-01 -2.680312e-01 -1.911568e-01 -1.017273e-01 1.360403e-01 1.614676e-01 9.645826e-02 1.360219e-01 1.288959e-01 7.508358e-02 6.219203e-02 4.430491e-02 5.176234e-02 3.786629e-02 -6.261522e-03 -1.631717e-02 -7.120468e-02 -6.894282e-02 -4.034775e-02 -2.621061e-03 -4.429584e-02 -4.419457e-02 -5.024811e-02 -4.066005e-02 -3.994903e-02 1.202481e-01
<VARIANCE> 39
 1.085394e+01 1.639804e+01 2.175296e+01 1.702867e+01 2.633038e+01 3.255117e+01 2.675501e+01 2.739191e+01 2.389177e+01 2.210589e+01 1.737826e+01 1.632600e+01 2.315904e+01 4.883478e-01 9.780025e-01 9.555277e-01 1.070121e+00 1.510647e+00 1.592467e+00 1.544079e+00 1.691461e+00 1.686985e+00 1.614651e+00 1.435824e+00 1.311150e+00 1.168647e+00 6.184425e-02 1.109351e-01 1.231025e-01 1.543371e-01 1.932575e-01 2.279350e-01 2.567815e-01 2.534302e-01 2.621470e-01 2.495755e-01 2.342732e-01 2.118514e-01 9.747984e-02
<GCONST> 9.123750e+01
<STATE> 3
<MEAN> 39
 -9.396046e+00 3.100355e-01 -2.998008e+00 -2.429416e+00 -3.525489e+00 -3.951088e+00 -7.050996e-01 -1.571796e+00 -1.090058e+00 -1.763496e+00 -5.705451e-01 -3.746933e-01 5.872196e+01 5.830878e-02 -3.372685e-01 -3.770386e-01 -5.456725e-01 -1.467884e-01 4.427728e-02 1.871931e-01 2.867604e-02 -3.670961e-02 -8.321936e-02 -8.414696e-02 -9.830125e-02 8.292767e-01 1.268066e-01 1.310868e-01 5.121586e-02 -4.972311e-02 -7.686863e-02 -6.573400e-03 3.126922e-02 -4.657499e-02 -5.335927e-02 -1.043874e-02 -4.742742e-02 -3.470426e-02 3.410779e-02
<VARIANCE> 39
 1.772414e+01 3.103478e+01 2.831251e+01 3.024501e+01 3.433215e+01 4.035382e+01 3.576887e+01 3.469242e+01 3.396354e+01 2.835107e+01 2.285709e+01 2.153600e+01 4.294981e+01 1.665625e+00 2.154896e+00 1.893495e+00 2.288229e+00 2.863976e+00 2.904703e+00 2.505072e+00 2.704908e+00 2.645754e+00 2.465126e+00 2.186631e+00 1.748957e+00 3.648115e+00 2.176159e-01 3.588606e-01 2.948965e-01 3.678742e-01 4.397829e-01 4.723321e-01 4.972511e-01 4.591740e-01 4.534771e-01 4.195065e-01 3.761863e-01 3.228101e-01 4.184683e-01
<GCONST> 1.147546e+02
<STATE> 4
<MEAN> 39
 -8.251859e+00 -1.361100e+00 -4.514185e+00 -3.717438e+00 -2.548078e+00 -2.192455e+00 5.151842e-01 -9.034303e-01 -8.816242e-02 -1.725795e+00 -6.947076e-01 -5.626528e-01 5.964585e+01 4.141007e-02 -4.707249e-02 -5.616952e-02 -1.755144e-01 -4.702805e-02 5.567779e-02 8.367950e-02 -4.658171e-03 -3.242051e-02 -1.454781e-02 -4.230991e-03 -1.556545e-02 2.121113e-01 5.708399e-02 5.782398e-02 4.255157e-02 1.504055e-02 -5.239628e-02 -5.216336e-02 -3.960306e-02 -6.077791e-02 -4.854016e-02 -3.351158e-02 -1.410679e-02 -1.677775e-02 2.614996e-02
<VARIANCE> 39
 1.782401e+01 2.305662e+01 2.677818e+01 2.623734e+01 2.441798e+01 3.052110e+01 2.899468e+01 2.824877e+01 2.513509e+01 2.411084e+01 1.963886e+01 1.844294e+01 3.515999e+01 7.380521e-01 8.759287e-01 8.902925e-01 1.230624e+00 1.386662e+00 1.691006e+00 1.648847e+00 1.691765e+00 1.790788e+00 1.705447e+00 1.546571e+00 1.420172e+00 1.199176e+00 9.428672e-02 1.381557e-01 1.448125e-01 1.894367e-01 2.266624e-01 2.614213e-01 2.686628e-01 2.714863e-01 2.855246e-01 2.753262e-01 2.647141e-01 2.442558e-01 9.901333e-02
<GCONST> 9.607430e+01
<TRANSP> 5
 0.000000e+00 1.000000e+00 0.000000e+00 0.000000e+00 0.000000e+00
 0.000000e+00 7.339013e-01 2.660987e-01 0.000000e+00 0.000000e+00
 0.000000e+00 0.000000e+00 4.942006e-01 5.057994e-01 0.000000e+00
 0.000000e+00 0.000000e+00 0.000000e+00 7.674875e-01 2.325125e-01
 0.000000e+00 0.000000e+00 0.000000e+00 0.000000e+00 0.000000e+00
<ENDHMM>
