~o
<STREAMINFO> 1 39
<VECSIZE> 39<NULLD><MFCC_D_A_0><DIAGC>
~h "N"
<BEGINHMM>
<NUMSTATES> 5
<STATE> 2
<MEAN> 39
 1.058058e+00 2.044620e+00 -3.336048e+00 -4.139042e+00 -7.682178e+00 -9.218288e+00 -4.183180e+00 -5.670797e+00 -4.406117e+00 -2.860472e+00 -2.319161e+00 -3.727185e+00 6.703417e+01 1.247384e-01 1.143983e+00 4.207958e-01 2.971978e-01 1.955342e-01 2.256905e-01 9.269197e-02 1.306066e-02 -9.174318e-01 -3.898089e-01 -1.529171e-01 1.618105e-01 -8.354363e-01 -5.464084e-02 -2.706907e-01 -1.213912e-01 -1.267619e-01 -1.259450e-01 -6.191448e-02 1.149861e-01 5.463061e-02 1.971402e-01 1.093900e-01 5.298075e-02 -8.376187e-02 2.403869e-01
<VARIANCE> 39
 8.187659e+00 4.105215e+01 2.637178e+01 4.100967e+01 4.417839e+01 5.588383e+01 5.086213e+01 4.894814e+01 4.986834e+01 5.487811e+01 4.736988e+01 4.411717e+01 2.509571e+01 3.160664e-01 9.797786e-01 1.172541e+00 1.706581e+00 1.944939e+00 2.595953e+00 2.318777e+00 2.459606e+00 3.048469e+00 2.412900e+00 1.946050e+00 1.922012e+00 4.807668e-01 5.760169e-02 1.399759e-01 1.908929e-01 2.822670e-01 3.382631e-01 4.245403e-01 3.837168e-01 4.205245e-01 5.107402e-01 4.225177e-01 3.626420e-01 2.988961e-01 7.196791e-02
<GCONST> 1.064650e+02
<STATE> 3
<MEAN> 39
 9.778111e-01 4.358994e+00 -2.568877e+00 -3.957681e+00 -7.813728e+00 -8.493681e+00 -3.095802e+00 -5.390897e+00 -5.945544e+00 -3.794257e+00 -2.091739e+00 -3.399952e+00 6.550111e+01 -8.954862e-02 1.567470e-01 -9.941413e-03 -2.377433e-01 -3.001649e-02 2.484839e-01 2.486482e-01 6.446595e-02 5.614084e-02 2.542309e-02 -9.548317e-02 -1.395240e-01 -6.358270e-02 -7.541826e-02 -3.830613e-01 -1.781527e-01 -1.790001e-01 -3.569841e-02 5.642112e-02 4.345989e-02 -4.682702e-02 3.603151e-01 1.653297e-01 2.710403e-02 -9.520951e-02 2.738643e-01
<VARIANCE> 39
 8.490387e+00 3.633239e+01 2.322513e+01 3.871296e+01 4.200799e+01 5.271691e+01 4.795214e+01 4.554614e+01 4.714536e+01 4.666876e+01 4.371806e+01 4.065514e+01 2.222146e+01 2.731582e-01 1.054498e+00 1.118568e+00 1.549162e+00 1.651170e+00 2.093549e+00 1.866405e+00 2.194698e+00 2.822367e+00 2.183424e+00 1.979111e+00 1.554909e+00 4.755668e-01 5.407038e-02 1.429915e-01 1.948749e-01 2.879077e-01 3.395008e-01 4.345395e-01 4.007121e-01 4.478816e-01 5.102295e-01 4.107795e-01 3.593408e-01 3.383803e-01 6.445520e-02
<GCONST> 1.042512e+02
<STATE> 4
<MEAN> 39
 4.214814e-01 8.642861e-01 -5.646794e+00 -6.040018e+00 -7.600991e+00 -5.580524e+00 -1.384199e+00 -5.041372e+00 -2.161027e+00 -2.700738e+00 -3.208403e+00 -5.368887e+00 6.738745e+01 -1.192395e-01 -5.468969e-01 -5.202343e-01 -3.386641e-01 1.296176e-01 4.543005e-01 2.901743e-01 4.612878e-04 5.211889e-01 3.472928e-01 -9.020765e-02 -3.264518e-01 2.576060e-01 -2.062613e-02 -5.432131e-02 -2.116257e-02 1.118788e-02 8.470461e-03 -1.857488e-03 1.988437e-02 5.420323e-03 -1.294376e-02 4.400739e-02 5.451577e-02 5.469535e-03 5.542554e-03
<VARIANCE> 39
 8.333887e+00 5.080503e+01 3.680966e+01 5.022503e+01 5.189170e+01 7.506342e+01 6.018661e+01 5.879023e+01 6.873874e+01 5.815712e+01 7.072582e+01 4.266443e+01 2.317789e+01 2.567630e-01 1.210866e+00 1.295511e+00 1.481552e+00 1.703169e+00 2.215031e+00 2.000866e+00 2.245565e+00 2.889561e+00 1.931288e+00 2.123689e+00 1.756961e+00 4.940850e-01 4.247899e-02 1.873879e-01 1.911997e-01 2.327061e-01 2.932300e-01 3.499877e-01 3.704500e-01 3.815046e-01 4.621130e-01 3.420849e-01 3.260212e-01 3.013263e-01 6.980207e-02
<GCONST> 1.067744e+02
<TRANSP> 5
 0.000000e+00 1.000000e+00 0.000000e+00 0.000000e+00 0.000000e+00
 0.000000e+00 5.965081e-01 4.034918e-01 0.000000e+00 0.000000e+00
 0.000000e+00 0.000000e+00 5.621483e-01 4.378516e-01 0.000000e+00
 0.000000e+00 0.000000e+00 0.000000e+00 7.775990e-01 2.224010e-01
 0.000000e+00 0.000000e+00 0.000000e+00 0.000000e+00 0.000000e+00
<ENDHMM>
~h "a"
<BEGINHMM>
<NUMSTATES> 5
<STATE> 2
<MEAN> 39
 3.644593e-01 -2.819097e+00 -8.395046e+00 -8.977016e+00 -9.311476e+00 -6.656197e+00 -1.867067e+00 -5.490782e+00 -1.185699e+00 -4.339714e-01 -4.666204e-01 -3.880364e+00 7.023994e+01 3.255274e-02 -2.195092e-01 -2.779729e-01 1.902384e-02 1.372084e-01 2.080358e-01 -5.499263e-02 1.224589e-01 3.763299e-01 4.981062e-01 1.249548e-01 -9.141147e-02 -1.258296e-01 -1.558729e-01 1.925290e-01 2.231154e-01 2.172785e-01 1.069836e-01 -1.770283e-02 -6.415127e-02 3.578617e-02 -1.186208e-01 -1.290131e-01 -2.240850e-02 7.856863e-02 -2.648434e-01
<VARIANCE> 39
 1.704956e+01 5.186604e+01 4.318217e+01 5.349095e+01 6.122015e+01 7.682979e+01 6.593092e+01 6.189779e+01 5.041247e+01 5.028090e+01 5.645184e+01 5.683340e+01 3.402953e+01 1.273825e+00 2.079208e+00 2.352325e+00 2.987988e+00 3.065132e+00 3.512139e+00 3.569331e+00 3.108968e+00 3.431553e+00 3.485907e+00 2.933527e+00 2.882983e+00 1.516692e+00 2.285999e-01 3.372434e-01 3.736421e-01 4.365166e-01 5.628601e-01 5.792450e-01 6.090076e-01 5.805242e-01 6.011108e-01 6.073848e-01 5.570425e-01 5.509554e-01 2.295755e-01
<GCONST> 1.249591e+02
<STATE> 3
<MEAN> 39
 3.097380e-01 -2.797312e+00 -8.632333e+00 -8.740915e+00 -8.972466e+00 -6.195783e+00 -2.089802e+00 -5.345788e+00 -7.759020e-01 3.150762e-01 -3.159345e-01 -4.078241e+00 6.958374e+01 -1.579345e-01 1.944633e-01 1.608776e-01 4.367514e-01 2.694637e-01 1.283325e-01 -1.836677e-01 1.542983e-01 5.590536e-02 2.123071e-01 7.761703e-02 7.316405e-02 -6.247711e-01 -1.306282e-01 1.807369e-01 2.136380e-01 1.786572e-01 6.286865e-02 -3.204232e-02 -3.192450e-02 1.105065e-02 -1.599567e-01 -1.876787e-01 -4.371459e-02 9.761933e-02 -2.167163e-01
<VARIANCE> 39
 1.755432e+01 5.007868e+01 3.994558e+01 5.119208e+01 5.842167e+01 7.088285e+01 6.504137e+01 6.010486e+01 5.046175e+01 5.047528e+01 5.727898e+01 5.739375e+01 3.581253e+01 1.020078e+00 1.844400e+00 2.094873e+00 2.526232e+00 2.634083e+00 3.123874e+00 3.344990e+00 2.866457e+00 2.918838e+00 2.956730e+00 2.578212e+00 2.496038e+00 1.423530e+00 1.758582e-01 3.153073e-01 3.408321e-01 3.981237e-01 5.017527e-01 5.218950e-01 5.686149e-01 5.328010e-01 5.754179e-01 5.584860e-01 5.011750e-01 4.908991e-01 2.314943e-01
<GCONST> 1.218101e+02
<STATE> 4
<MEAN> 39
 -4.001848e-01 -2.159889e+00 -8.308982e+00 -7.860775e+00 -8.209754e+00 -5.416722e+00 -2.591411e+00 -4.874411e+00 -7.161444e-01 7.765200e-01 -3.519923e-01 -4.165621e+00 6.745458e+01 -3.843440e-01 4.014491e-01 3.971453e-01 5.847168e-01 3.066313e-01 6.384102e-02 -1.479501e-01 2.003378e-01 -1.384632e-01 -6.816643e-02 2.683895e-02 2.460902e-01 -8.603694e-01 -9.441787e-02 3.415392e-02 9.255832e-02 1.486027e-02 -1.665324e-02 -4.845484e-02 2.972641e-02 -1.406798e-02 -6.576166e-02 -1.337227e-01 -3.284075e-02 4.731118e-02 5.223043e-03
<VARIANCE> 39
 2.063395e+01 4.601292e+01 3.810961e+01 4.729942e+01 5.353539e+01 6.334128e+01 6.133264e+01 5.464952e+01 4.686421e+01 4.912000e+01 5.735583e+01 5.360008e+01 4.161394e+01 8.897159e-01 1.572729e+00 1.720035e+00 2.063131e+00 2.366319e+00 2.608844e+00 2.799917e+00 2.587825e+00 2.536619e+00 2.495022e+00 2.216178e+00 2.101377e+00 1.281594e+00 1.390483e-01 2.725849e-01 2.979732e-01 3.589504e-01 4.424129e-01 4.491693e-01 5.159816e-01 4.816690e-01 4.872747e-01 4.681487e-01 4.304162e-01 4.076432e-01 2.415925e-01
<GCONST> 1.176569e+02
<TRANSP> 5
 0.000000e+00 1.000000e+00 0.000000e+00 0.000000e+00 0.000000e+00
 0.000000e+00 2.884345e-01 7.115655e-01 0.000000e+00 0.000000e+00
 0.000000e+00 0.000000e+00 2.956485e-01 7.043515e-01 0.000000e+00
 0.000000e+00 0.000000e+00 0.000000e+00 4.655671e-01 5.344329e-01
 0.000000e+00 0.000000e+00 0.000000e+00 0.000000e+00 0.000000e+00
<ENDHMM>
~h "e"
<BEGINHMM>
<NUMSTATES> 5
<STATE> 2
<MEAN> 39
 -3.092941e+00 -1.520925e-01 -8.138180e-01 1.519651e+00 -9.607576e+00 -1.347638e+01 -7.492035e+00 -5.158015e+00 -2.575725e+00 -2.829702e+00 2.335161e-01 -8.275985e-01 6.533609e+01 -3.319090e-01 -4.877308e-02 1.109824e-03 7.999097e-02 4.091648e-01 2.192587e-01 -2.562715e-02 9.408332e-03 9.294086e-02 8.250798e-02 -1.226608e-01 8.909418e-02 -3.988942e-01 1.169848e-02 -9.055749e-02 -2.710046e-01 -2.412362e-01 4.220064e-02 1.231728e-01 1.333586e-01 -4.188815e-02 -2.149624e-02 2.837136e-02 -8.031234e-03 -8.534236e-02 1.738537e-01
<VARIANCE> 39
 2.439377e+01 2.920757e+01 4.138039e+01 3.695457e+01 7.810178e+01 6.598723e+01 4.008729e+01 4.416333e+01 4.208619e+01 3.444918e+01 3.239360e+01 3.157682e+01 4.328637e+01 1.126231e+00 2.000607e+00 2.264094e+00 1.848174e+00 4.213993e+00 4.351916e+00 2.661586e+00 2.409574e+00 2.997869e+00 2.717902e+00 2.212523e+00 2.117606e+00 2.799562e+00 2.070700e-01 3.652519e-01 3.894336e-01 3.848121e-01 7.842359e-01 7.368870e-01 5.294107e-01 4.655223e-01 5.620202e-01 4.580607e-01 4.087026e-01 4.131846e-01 4.893102e-01
<GCONST> 1.209858e+02
<STATE> 3
<MEAN> 39
 -3.112390e+00 -4.126519e-01 -1.602203e+00 1.111004e+00 -8.508355e+00 -1.280322e+01 -7.244016e+00 -5.786142e+00 -2.494977e+00 -2.544406e+00 -5.376823e-02 -1.166819e+00 6.577959e+01 -1.224294e-01 -2.946194e-02 -3.867237e-01 -3.080752e-01 4.596896e-01 4.620228e-01 2.564946e-01 -6.794073e-02 -1.210933e-01 -2.011576e-02 -5.311492e-02 -1.047792e-01 1.421973e-03 1.225634e-01 7.821903e-03 -2.133510e-01 -1.889663e-01 -6.323119e-02 1.163671e-01 1.169394e-01 -1.494381e-02 -7.380585e-02 -1.458230e-02 3.897276e-02 -7.856207e-02 1.337066e-01
<VARIANCE> 39
 2.695009e+01 2.998854e+01 4.385717e+01 3.827863e+01 8.042416e+01 6.437445e+01 4.162437e+01 4.495947e+01 4.396773e+01 3.516339e+01 3.402814e+01 3.302935e+01 4.382610e+01 1.139540e+00 2.014453e+00 2.444245e+00 2.081316e+00 3.830554e+00 3.572102e+00 2.511670e+00 2.457864e+00 3.181823e+00 2.653634e+00 2.305221e+00 2.057752e+00 2.032317e+00 2.395000e-01 3.789883e-01 4.448380e-01 3.773292e-01 7.384235e-01 6.422285e-01 4.895250e-01 4.648502e-01 5.822434e-01 4.560813e-01 4.102718e-01 4.430808e-01 4.986383e-01
<GCONST> 1.211888e+02
<STATE> 4
<MEAN> 39
 -2.949651e+00 4.924268e-03 -1.676763e+00 2.095758e-01 -8.607361e+00 -1.205941e+01 -6.469680e+00 -5.760696e+00 -3.344029e+00 -2.829990e+00 3.046155e-01 -1.652126e+00 6.581531e+01 6.420529e-02 8.809010e-02 -5.545107e-01 -4.455162e-01 3.447900e-01 6.327532e-01 3.776338e-01 -2.200042e-02 -1.944793e-01 -5.658104e-02 -1.090988e-02 -1.823271e-01 -1.846150e-02 1.040300e-01 1.713743e-02 -7.879350e-02 -1.130771e-01 -1.075908e-01 9.735860e-03 3.981506e-02 1.350986e-03 -1.890857e-03 -2.167352e-02 5.400241e-03 -1.729227e-02 8.407474e-02
<VARIANCE> 39
 2.750873e+01 2.813178e+01 4.773763e+01 3.771180e+01 9.213358e+01 6.549052e+01 4.226706e+01 4.515880e+01 4.527119e+01 4.021814e+01 3.788683e+01 3.095208e+01 3.836170e+01 1.190744e+00 1.751867e+00 2.237456e+00 2.112517e+00 3.499359e+00 2.665601e+00 2.271476e+00 2.314185e+00 2.875625e+00 2.584355e+00 2.289201e+00 2.194648e+00 1.836320e+00 2.153940e-01 2.735671e-01 3.543327e-01 3.176867e-01 6.004660e-01 4.854653e-01 4.141967e-01 4.034660e-01 4.978080e-01 4.514804e-01 4.125158e-01 3.922401e-01 2.945535e-01
<GCONST> 1.181395e+02
<TRANSP> 5
 0.000000e+00 1.000000e+00 0.000000e+00 0.000000e+00 0.000000e+00
 0.000000e+00 4.615165e-01 5.384835e-01 0.000000e+00 0.000000e+00
 0.000000e+00 0.000000e+00 3.584822e-01 6.415178e-01 0.000000e+00
 0.000000e+00 0.000000e+00 0.000000e+00 4.780567e-01 5.219433e-01
 0.000000e+00 0.000000e+00 0.000000e+00 0.000000e+00 0.000000e+00
<ENDHMM>
~h "f"
<BEGINHMM>
<NUMSTATES> 5
<STATE> 2
<MEAN> 39
 -1.524796e+01 -2.515100e+00 -9.436636e+00 -2.275295e+00 -5.032895e+00 -3.324380e+00 1.709092e-01 -1.743581e+00 1.475546e+00 -1.318955e+00 6.852454e-01 -8.524491e-01 6.565238e+01 2.511902e+00 -1.722962e-02 -1.149261e-01 -1.526342e+00 -8.833045e-01 -2.258252e-02 4.626100e-01 3.348738e-03 -8.401285e-01 -3.196316e-01 -3.703682e-01 -2.767315e-01 3.852097e-01 8.100766e-01 6.988776e-02 -7.684632e-02 -4.234866e-01 -4.169288e-01 1.957012e-02 1.215815e-01 -1.047956e-01 -3.419069e-01 -5.693182e-02 -2.936312e-02 -9.067276e-02 2.147654e-01
<VARIANCE> 39
 4.745074e+01 2.615966e+01 2.937295e+01 3.860327e+01 3.706012e+01 3.777457e+01 3.400869e+01 2.548528e+01 3.029104e+01 2.254202e+01 2.288060e+01 2.078524e+01 2.033612e+01 6.010637e+00 2.098758e+00 2.249579e+00 3.630074e+00 3.309513e+00 2.994421e+00 2.663544e+00 2.738126e+00 2.564605e+00 2.577456e+00 2.043284e+00 1.921070e+00 1.227089e+00 7.005526e-01 4.327083e-01 3.801511e-01 4.755401e-01 5.089245e-01 4.902757e-01 4.715234e-01 4.742793e-01 3.969675e-01 4.953944e-01 3.828399e-01 3.358584e-01 2.368410e-01
<GCONST> 1.170147e+02
<STATE> 3
<MEAN> 39
 -1.351788e+00 -1.312905e+00 -1.037720e+01 -1.065280e+01 -1.094009e+01 -4.095257e+00 2.286067e+00 -2.537323e+00 -4.047719e+00 -2.979803e+00 -1.107715e+00 -2.176438e+00 6.866669e+01 3.294748e+00 -8.526623e-01 -8.134667e-01 -2.157674e+00 -1.879220e+00 1.490902e-01 9.029671e-01 -4.574251e-01 -1.495535e+00 -3.275034e-01 -4.690765e-02 -5.434948e-01 1.622556e+00 -9.899228e-01 -4.670356e-01 3.929181e-02 5.431345e-01 5.141309e-01 2.779639e-01 -8.552115e-02 -2.763591e-02 3.066058e-01 2.035618e-01 1.342394e-01 -3.704508e-02 -1.707423e-03
<VARIANCE> 39
 4.966921e+01 2.786246e+01 4.750014e+01 6.978542e+01 4.504671e+01 5.932152e+01 4.467869e+01 3.988427e+01 2.883242e+01 3.423972e+01 3.121142e+01 3.825072e+01 2.609830e+01 3.798806e+00 3.298359e+00 4.195269e+00 3.658234e+00 3.995955e+00 3.782374e+00 4.041349e+00 4.040525e+00 2.464522e+00 3.368413e+00 2.373725e+00 2.482038e+00 1.446517e+00 6.963158e-01 4.838934e-01 3.768710e-01 5.737485e-01 6.814530e-01 4.974795e-01 4.669160e-01 4.580812e-01 4.327090e-01 4.514682e-01 3.785037e-01 3.985916e-01 2.551877e-01
<GCONST> 1.245273e+02
<STATE> 4
<MEAN> 39
 7.572167e-01 -5.127460e+00 -1.173875e+01 -1.247001e+01 -1.169507e+01 -2.774502e+00 3.744155e+00 -3.262464e+00 -5.171352e+00 -2.741532e+00 -7.736874e-01 -3.470212e+00 7.175400e+01 7.553660e-01 -1.365495e+00 -1.959908e-01 -4.811586e-01 -1.508936e-02 8.317480e-01 4.122950e-01 -4.267210e-01 -4.898399e-01 1.212678e-01 -9.930186e-02 -5.107214e-01 8.259677e-01 -9.321751e-01 1.093239e-01 3.025210e-01 6.700845e-01 7.593204e-01 1.982465e-01 -2.456897e-01 3.358579e-02 4.134996e-01 1.687554e-01 -6.645198e-02 9.518896e-02 -5.116532e-01
<VARIANCE> 39
 3.289566e+01 3.721574e+01 6.752862e+01 7.179099e+01 4.715014e+01 7.428947e+01 5.848026e+01 5.385046e+01 3.174226e+01 4.420629e+01 3.547439e+01 4.478239e+01 2.996266e+01 2.227061e+00 2.614660e+00 2.731784e+00 1.950600e+00 3.223786e+00 2.664769e+00 2.375837e+00 2.410037e+00 2.293550e+00 2.612894e+00 1.824039e+00 2.030829e+00 1.323283e+00 4.908921e-01 3.720844e-01 3.393503e-01 4.154108e-01 6.336521e-01 5.072045e-01 5.331478e-01 5.231382e-01 3.724957e-01 4.656243e-01 3.710669e-01 3.634481e-01 1.466096e-01
<GCONST> 1.204709e+02
<TRANSP> 5
 0.000000e+00 1.000000e+00 0.000000e+00 0.000000e+00 0.000000e+00
 0.000000e+00 7.471514e-01 2.528487e-01 0.000000e+00 0.000000e+00
 0.000000e+00 0.000000e+00 3.750295e-01 6.249706e-01 0.000000e+00
 0.000000e+00 0.000000e+00 0.000000e+00 3.300185e-01 6.699815e-01
 0.000000e+00 0.000000e+00 0.000000e+00 0.000000e+00 0.000000e+00
<ENDHMM>
~h "h"
<BEGINHMM>
<NUMSTATES> 5
<STATE> 2
<MEAN> 39
 -4.129883e+00 -2.232249e+00 -6.597486e+00 -9.406925e+00 -5.425890e+00 -3.807095e+00 3.896070e+00 -1.379153e+00 -7.760702e-01 -1.163227e+00 -2.801317e+00 -3.369451e+00 6.871043e+01 2.748622e-01 4.243307e-01 5.721437e-01 4.112321e-02 -6.896717e-01 -7.254730e-01 -1.338852e-01 -1.082051e-01 -2.976559e-01 -2.833011e-01 -8.064541e-02 -7.104896e-02 3.826500e-01 1.312674e-01 9.518091e-02 3.895950e-02 -3.560745e-02 -2.597856e-01 -1.453649e-01 -1.432127e-01 -1.874284e-01 -1.582140e-01 -3.917017e-02 1.360895e-01 7.402055e-02 1.051588e-02
<VARIANCE> 39
 2.764454e+01 6.584634e+01 5.453010e+01 7.022189e+01 7.195351e+01 7.800084e+01 5.286358e+01 4.995032e+01 4.658248e+01 4.204132e+01 4.260928e+01 4.078605e+01 4.038314e+01 2.164973e+00 2.355716e+00 2.347319e+00 2.882221e+00 3.648742e+00 3.363768e+00 3.007969e+00 3.106295e+00 2.846496e+00 2.327401e+00 2.603224e+00 2.382759e+00 1.112529e+00 2.612251e-01 3.902315e-01 2.708106e-01 3.754026e-01 5.164315e-01 5.432854e-01 5.371680e-01 5.314212e-01 5.326054e-01 4.226523e-01 4.863859e-01 4.156445e-01 1.130277e-01
<GCONST> 1.224262e+02
<STATE> 3
<MEAN> 39
 -2.642454e+00 -7.018076e-01 -3.853792e+00 -7.220691e+00 -8.282484e+00 -7.153852e+00 2.361407e+00 -1.898605e+00 -1.835544e+00 -1.742260e+00 -2.788820e+00 -3.792384e+00 7.006584e+01 2.763120e-01 4.966733e-01 6.998243e-01 6.561249e-02 -1.105800e+00 -7.713230e-01 -4.193470e-01 -5.792043e-01 -6.166477e-01 -3.054398e-01 4.551539e-01 2.178255e-01 1.478533e-01 1.781614e-02 -1.635850e-02 -7.349396e-02 -5.043944e-02 -5.240049e-02 4.109205e-02 -9.721715e-02 -2.079633e-01 -7.254661e-02 2.128586e-02 1.276422e-01 3.254114e-02 -6.608780e-02
<VARIANCE> 39
 2.400702e+01 5.554617e+01 6.317873e+01 7.417117e+01 6.958606e+01 7.664009e+01 4.923009e+01 5.614258e+01 5.021700e+01 4.709437e+01 4.284586e+01 4.007579e+01 4.036608e+01 1.316145e+00 1.677811e+00 2.178329e+00 2.296309e+00 2.629355e+00 2.737404e+00 2.550188e+00 2.969656e+00 2.652228e+00 2.272739e+00 2.546142e+00 2.111003e+00 9.327680e-01 2.078282e-01 2.894563e-01 2.201954e-01 3.235352e-01 5.079786e-01 4.779730e-01 4.436763e-01 5.246718e-01 5.160369e-01 4.041721e-01 4.298456e-01 3.762486e-01 1.018253e-01
<GCONST> 1.185555e+02
<STATE> 4
<MEAN> 39
 -2.104440e+00 1.234878e+00 -1.079493e+00 -6.697125e+00 -1.207107e+01 -1.023584e+01 7.928479e-01 -5.488801e+00 -4.624312e+00 -2.856153e+00 -1.058118e+00 -3.630430e+00 7.014597e+01 1.704660e-01 3.337957e-01 4.236286e-01 9.895077e-02 -6.633347e-01 -4.047447e-01 -4.175698e-01 -6.714441e-01 -5.475478e-01 -1.979384e-01 4.271007e-01 1.447677e-01 -5.233446e-02 -1.317995e-02 -5.288953e-02 -8.766059e-02 4.697630e-02 1.276880e-01 5.513123e-02 -2.423409e-02 1.924225e-02 5.132528e-02 2.593192e-02 -2.904768e-02 -2.820227e-02 -4.478771e-02
<VARIANCE> 39
 2.248538e+01 4.658538e+01 7.757066e+01 8.477296e+01 6.995017e+01 7.916467e+01 5.376884e+01 6.765496e+01 5.036570e+01 4.411204e+01 4.215684e+01 3.764629e+01 3.230394e+01 6.038021e-01 1.285654e+00 1.491117e+00 1.612277e+00 2.062290e+00 1.934650e+00 2.021141e+00 2.360271e+00 2.170406e+00 1.883672e+00 2.061563e+00 1.677364e+00 5.104749e-01 1.027011e-01 1.681746e-01 1.626155e-01 2.501792e-01 3.384037e-01 3.345158e-01 3.634362e-01 3.675544e-01 3.620960e-01 3.368144e-01 3.737619e-01 3.002388e-01 6.915494e-02
<GCONST> 1.099233e+02
<TRANSP> 5
 0.000000e+00 1.000000e+00 0.000000e+00 0.000000e+00 0.000000e+00
 0.000000e+00 5.929723e-01 4.070277e-01 0.000000e+00 0.000000e+00
 0.000000e+00 0.000000e+00 3.836701e-01 6.163299e-01 0.000000e+00
 0.000000e+00 0.000000e+00 0.000000e+00 6.013667e-01 3.986334e-01
 0.000000e+00 0.000000e+00 0.000000e+00 0.000000e+00 0.000000e+00
<ENDHMM>
~h "i"
<BEGINHMM>
<NUMSTATES> 5
<STATE> 2
<MEAN> 39
 -4.444541e+00 1.732397e+00 5.633799e+00 2.779012e+00 -1.140364e+01 -1.451250e+01 -3.458030e+00 -7.161142e+00 -4.657195e+00 -7.135728e+00 -8.370155e-01 -2.350874e+00 6.832410e+01 -7.589497e-04 4.954063e-01 9.307165e-01 5.565001e-01 -5.652300e-01 -6.142884e-01 2.133806e-01 -1.032542e-01 -6.932778e-01 -7.092328e-01 2.275730e-01 2.154469e-01 -1.250995e-01 -1.139070e-02 -9.295136e-03 -3.770772e-01 -1.849839e-01 2.743092e-01 3.300630e-01 -6.220764e-03 6.138729e-02 9.441613e-02 2.495941e-01 1.525070e-02 -2.356195e-02 -1.566888e-01
<VARIANCE> 39
 2.268366e+01 3.411234e+01 4.790948e+01 4.768808e+01 7.719744e+01 6.653641e+01 5.198316e+01 5.194365e+01 6.034600e+01 4.225587e+01 3.515305e+01 3.339119e+01 2.479678e+01 1.444650e+00 1.629364e+00 2.573310e+00 1.848876e+00 3.571856e+00 4.151670e+00 2.804163e+00 3.122780e+00 2.998320e+00 2.882113e+00 2.422711e+00 1.893340e+00 1.199733e+00 2.722481e-01 2.844326e-01 3.541229e-01 3.485310e-01 6.745156e-01 7.513511e-01 5.464674e-01 5.695914e-01 6.103481e-01 5.447642e-01 4.632531e-01 3.930633e-01 1.657405e-01
<GCONST> 1.206755e+02
<STATE> 3
<MEAN> 39
 -4.228275e+00 2.858380e+00 6.555047e+00 3.512995e+00 -1.203204e+01 -1.492992e+01 -3.282176e+00 -7.476570e+00 -6.211682e+00 -7.827340e+00 -3.848289e-01 -2.136198e+00 6.761470e+01 5.416871e-02 3.763248e-01 -8.257771e-02 9.290731e-02 2.044267e-01 2.233249e-01 -3.872319e-02 6.168967e-02 -2.491236e-01 -4.626329e-02 1.393689e-01 1.082809e-01 -4.827520e-01 -1.156480e-02 -8.467434e-02 -3.866675e-01 -2.211231e-01 2.847141e-01 3.269340e-01 -8.083406e-02 8.130269e-02 2.016523e-01 2.475219e-01 -5.636563e-02 -2.786552e-02 -1.046256e-01
<VARIANCE> 39
 1.893362e+01 3.158932e+01 4.217302e+01 4.820838e+01 7.816586e+01 6.264137e+01 4.961919e+01 4.886241e+01 5.342558e+01 3.926802e+01 3.500061e+01 3.406483e+01 2.384928e+01 9.626400e-01 1.308752e+00 2.367065e+00 1.572267e+00 3.169476e+00 3.758664e+00 2.536338e+00 2.665411e+00 2.734009e+00 2.415219e+00 1.914806e+00 1.659034e+00 1.043906e+00 1.483574e-01 2.224888e-01 2.919618e-01 3.073910e-01 5.035881e-01 6.203820e-01 4.734014e-01 4.944019e-01 4.985242e-01 4.600263e-01 3.918399e-01 3.303641e-01 1.370129e-01
<GCONST> 1.149601e+02
<STATE> 4
<MEAN> 39
 -4.045205e+00 3.958732e+00 5.165591e+00 3.112580e+00 -1.087778e+01 -1.311076e+01 -4.081041e+00 -7.156947e+00 -6.745420e+00 -7.020874e+00 -1.685012e-01 -2.032314e+00 6.551520e+01 -4.281379e-03 7.896427e-02 -7.183018e-01 -3.655656e-01 6.100510e-01 6.978025e-01 -8.994005e-02 2.696191e-01 1.933239e-01 3.590442e-01 -4.415425e-03 8.861335e-02 -5.100502e-01 -3.069546e-02 -1.007311e-01 -1.370885e-01 -1.387251e-01 4.322749e-02 1.034910e-01 3.089337e-02 1.885355e-02 1.064614e-01 9.454168e-02 -3.650847e-02 -2.230106e-02 4.951262e-02
<VARIANCE> 39
 2.130379e+01 3.056003e+01 3.882519e+01 4.249029e+01 7.831503e+01 5.708427e+01 4.668392e+01 4.487275e+01 4.581168e+01 3.517897e+01 3.198762e+01 3.012473e+01 2.730024e+01 7.964833e-01 1.190385e+00 1.803017e+00 1.611323e+00 2.486695e+00 3.068630e+00 2.207976e+00 2.418549e+00 2.590904e+00 2.142828e+00 1.715173e+00 1.518549e+00 8.526197e-01 1.105966e-01 1.786102e-01 2.642232e-01 2.695838e-01 4.302882e-01 5.072778e-01 4.013059e-01 4.359729e-01 4.140986e-01 3.843237e-01 3.311572e-01 2.992142e-01 1.476952e-01
<GCONST> 1.105181e+02
<TRANSP> 5
 0.000000e+00 1.000000e+00 0.000000e+00 0.000000e+00 0.000000e+00
 0.000000e+00 4.476810e-01 5.523190e-01 0.000000e+00 0.000000e+00
 0.000000e+00 0.000000e+00 4.644159e-01 5.355841e-01 0.000000e+00
 0.000000e+00 0.000000e+00 0.000000e+00 7.001842e-01 2.998158e-01
 0.000000e+00 0.000000e+00 0.000000e+00 0.000000e+00 0.000000e+00
<ENDHMM>
~h "k"
<BEGINHMM>
<NUMSTATES> 5
<STATE> 2
<MEAN> 39
 -9.719590e+00 -2.674519e+00 -6.562972e+00 -7.518894e+00 -4.090340e+00 -3.918143e+00 -2.614657e+00 -3.972983e+00 4.308949e-01 -1.458829e+00 1.578235e+00 -1.222983e+00 6.563620e+01 7.787754e-01 -1.251484e-02 4.066660e-01 -3.936015e-01 -6.543946e-01 -4.544038e-01 4.179434e-02 -5.199757e-01 -4.672128e-01 -1.492267e-01 -3.069049e-01 -5.925143e-01 1.121223e+00 4.510721e-01 2.399088e-01 2.379059e-01 1.394518e-01 -3.605499e-01 -3.090299e-01 -5.396617e-02 -7.681469e-02 -2.227504e-01 -4.020295e-02 -8.237288e-02 -6.339776e-02 1.290470e-02
<VARIANCE> 39
 3.716431e+01 5.102994e+01 6.602272e+01 6.057486e+01 6.438641e+01 6.082467e+01 5.149421e+01 4.199945e+01 4.359464e+01 3.920873e+01 3.912165e+01 3.148777e+01 5.263558e+01 4.811436e+00 4.631187e+00 4.653636e+00 4.579397e+00 5.331662e+00 4.888570e+00 4.421681e+00 4.542533e+00 4.139277e+00 3.755245e+00 3.636525e+00 2.672235e+00 3.053296e+00 5.907103e-01 8.857523e-01 8.031324e-01 8.220125e-01 9.824204e-01 8.367585e-01 7.919337e-01 8.192036e-01 7.246299e-01 6.618484e-01 6.644741e-01 5.055344e-01 7.139515e-01
<GCONST> 1.366975e+02
<STATE> 3
<MEAN> 39
 -4.135530e+00 -1.105416e+00 -4.850142e+00 -8.397520e+00 -7.745284e+00 -6.768749e+00 -2.873177e+00 -5.712648e+00 -1.882760e+00 -2.303536e+00 -3.004372e-03 -3.454394e+00 6.911742e+01 1.961511e+00 4.756333e-01 6.200558e-01 1.732380e-02 -1.647824e+00 -1.177295e+00 -7.552223e-02 -4.953902e-01 -8.550841e-01 -8.842809e-02 -2.984346e-01 -5.144253e-01 8.273255e-01 -2.055908e-01 -1.629140e-01 -1.719254e-01 1.030642e-01 4.683221e-02 1.240894e-02 -1.528833e-03 8.225422e-02 1.410232e-01 6.470440e-02 1.527127e-01 1.811226e-01 -1.322143e-01
<VARIANCE> 39
 4.597818e+01 5.659071e+01 7.470467e+01 5.285997e+01 6.523363e+01 6.587527e+01 5.305326e+01 4.813600e+01 4.799429e+01 4.406426e+01 4.656461e+01 3.717774e+01 3.907693e+01 2.787640e+00 3.589208e+00 3.367465e+00 3.774288e+00 4.372024e+00 4.531217e+00 4.363531e+00 4.511511e+00 4.039510e+00 3.796562e+00 3.202356e+00 2.915215e+00 1.246793e+00 6.523713e-01 5.932320e-01 5.305672e-01 5.789813e-01 8.512872e-01 7.586558e-01 6.666519e-01 7.353808e-01 6.708847e-01 6.340774e-01 5.792787e-01 4.479410e-01 2.586216e-01
<GCONST> 1.319726e+02
<STATE> 4
<MEAN> 39
 -1.740511e+00 -1.018885e+00 -4.198460e+00 -8.352775e+00 -1.034078e+01 -8.492521e+00 -3.002970e+00 -6.266828e+00 -2.696055e+00 -2.297628e+00 7.359359e-02 -3.917604e+00 7.039335e+01 1.131780e+00 1.239820e-01 2.890896e-01 2.092417e-01 -1.154201e+00 -8.781842e-01 -3.652371e-02 -2.707599e-01 -4.383905e-01 1.134848e-02 -1.220009e-02 -1.700760e-01 4.760106e-01 -4.717740e-01 -1.327850e-01 -1.451770e-01 1.269839e-01 3.446048e-01 2.092045e-01 3.506374e-02 1.142141e-01 2.088747e-01 2.237303e-02 1.072665e-01 1.770928e-01 -2.408048e-01
<VARIANCE> 39
 3.628450e+01 6.550446e+01 8.810996e+01 5.667878e+01 6.790993e+01 7.233237e+01 5.358058e+01 5.410763e+01 5.400099e+01 4.887184e+01 4.647862e+01 4.164445e+01 3.665616e+01 2.022753e+00 2.744167e+00 2.728391e+00 3.225708e+00 3.778043e+00 4.058820e+00 3.576096e+00 3.358624e+00 3.396487e+00 3.003802e+00 2.604071e+00 2.368324e+00 1.099526e+00 4.289927e-01 4.598491e-01 4.470826e-01 4.791293e-01 7.014481e-01 6.818924e-01 6.308593e-01 7.195840e-01 6.356086e-01 5.985755e-01 4.985666e-01 4.219960e-01 1.805033e-01
<GCONST> 1.278994e+02
<TRANSP> 5
 0.000000e+00 1.000000e+00 0.000000e+00 0.000000e+00 0.000000e+00
 0.000000e+00 7.052842e-01 2.947159e-01 0.000000e+00 0.000000e+00
 0.000000e+00 0.000000e+00 3.189487e-01 6.810513e-01 0.000000e+00
 0.000000e+00 0.000000e+00 0.000000e+00 2.424954e-01 7.575046e-01
 0.000000e+00 0.000000e+00 0.000000e+00 0.000000e+00 0.000000e+00
<ENDHMM>
~h "m"
<BEGINHMM>
<NUMSTATES> 5
<STATE> 2
<MEAN> 39
 1.226293e+00 6.319614e+00 -1.756669e+00 -2.059283e+00 -5.592614e+00 -5.315558e+00 -1.217573e+00 -6.688367e+00 -1.023090e+01 -1.008519e+01 -4.387795e+00 -2.318221e+00 6.520592e+01 4.354795e-01 -5.655047e-01 -1.246351e+00 -1.496863e+00 -9.216038e-01 1.125032e-01 6.616561e-01 -8.064637e-02 6.322100e-01 5.890970e-01 4.257518e-02 -8.323647e-02 8.451492e-01 -3.449656e-03 -3.652529e-01 -4.246610e-01 -4.534023e-01 -2.429333e-01 8.621031e-02 1.510147e-01 4.381657e-02 4.869996e-01 5.693676e-01 2.027788e-01 -1.036115e-01 2.306410e-01
<VARIANCE> 39
 8.502479e+00 3.020948e+01 3.590656e+01 4.056357e+01 5.275457e+01 3.493920e+01 6.350195e+01 4.465198e+01 4.314641e+01 3.767339e+01 3.440516e+01 3.296585e+01 1.857888e+01 4.926270e-01 1.260854e+00 2.380157e+00 3.545049e+00 2.709019e+00 2.263866e+00 2.593981e+00 2.398543e+00 3.233337e+00 3.349340e+00 2.369466e+00 1.770492e+00 7.446470e-01 8.981934e-02 2.067365e-01 3.331524e-01 5.279509e-01 4.655061e-01 4.300723e-01 4.996369e-01 4.593563e-01 5.893724e-01 5.363841e-01 5.105916e-01 3.879738e-01 1.071527e-01
<GCONST> 1.123391e+02
<STATE> 3
<MEAN> 39
 2.781291e+00 2.555366e+00 -8.268318e+00 -9.891255e+00 -1.043992e+01 -4.813559e+00 1.515713e+00 -6.371916e+00 -5.750983e+00 -5.145982e+00 -2.988352e+00 -2.964795e+00 6.902032e+01 2.695164e-01 -1.686435e+00 -2.045894e+00 -2.210595e+00 -9.759821e-01 7.665749e-01 1.085670e+00 -7.606347e-02 1.502280e+00 1.874479e+00 5.398074e-01 -5.050909e-01 1.374115e+00 -2.043602e-01 -1.288364e-01 3.716970e-01 5.561147e-01 3.769648e-01 4.778155e-02 -2.330399e-01 1.903795e-02 -6.843247e-02 -6.478135e-02 -1.477476e-03 -1.338031e-01 -1.216542e-01
<VARIANCE> 39
 8.606183e+00 4.235506e+01 4.572139e+01 5.094794e+01 5.046416e+01 4.693456e+01 6.627908e+01 5.809304e+01 3.940688e+01 4.217501e+01 3.746102e+01 3.967488e+01 2.141985e+01 5.527225e-01 2.037952e+00 2.332241e+00 4.207227e+00 4.137925e+00 4.409611e+00 4.099677e+00 3.907714e+00 4.650403e+00 4.149551e+00 4.480496e+00 3.252889e+00 8.663715e-01 8.749151e-02 2.643202e-01 4.496299e-01 7.145212e-01 5.783533e-01 5.934614e-01 6.573901e-01 5.306388e-01 6.802083e-01 6.607267e-01 5.651250e-01 4.344664e-01 1.371644e-01
<GCONST> 1.215000e+02
<STATE> 4
<MEAN> 39
 2.394515e+00 -2.196661e+00 -1.140388e+01 -1.246258e+01 -1.033837e+01 -2.259871e+00 2.220350e+00 -6.954465e+00 -3.289318e+00 -2.617188e+00 -2.736779e+00 -5.368054e+00 7.161609e+01 -1.962726e-01 -1.140507e+00 -4.407285e-01 -2.408239e-01 1.823379e-02 2.790926e-01 4.717564e-02 8.597510e-02 8.064494e-01 8.566842e-01 2.707545e-01 -5.053061e-01 5.842599e-01 -1.252209e-01 3.406421e-01 5.791286e-01 6.475680e-01 2.272782e-01 -3.320198e-01 -4.005677e-01 9.653924e-02 -2.619667e-01 -3.718807e-01 -7.077850e-02 1.273974e-01 -3.525402e-01
<VARIANCE> 39
 9.681040e+00 5.483425e+01 3.849427e+01 4.576492e+01 5.334039e+01 6.798203e+01 7.792882e+01 7.272932e+01 4.727948e+01 4.959514e+01 5.327483e+01 5.130228e+01 2.569099e+01 4.692681e-01 1.923763e+00 1.853914e+00 2.774441e+00 2.729614e+00 3.868345e+00 3.317913e+00 2.974495e+00 3.923641e+00 3.645862e+00 3.229384e+00 2.754528e+00 9.016290e-01 8.604065e-02 2.686065e-01 3.581833e-01 4.982548e-01 5.308822e-01 6.233220e-01 6.219289e-01 5.714604e-01 5.900641e-01 6.007740e-01 5.685615e-01 4.689986e-01 1.151699e-01
<GCONST> 1.199565e+02
<TRANSP> 5
 0.000000e+00 1.000000e+00 0.000000e+00 0.000000e+00 0.000000e+00
 0.000000e+00 6.894389e-01 3.105612e-01 0.000000e+00 0.000000e+00
 0.000000e+00 0.000000e+00 4.187672e-01 5.812328e-01 0.000000e+00
 0.000000e+00 0.000000e+00 0.000000e+00 4.903205e-01 5.096795e-01
 0.000000e+00 0.000000e+00 0.000000e+00 0.000000e+00 0.000000e+00
<ENDHMM>
~h "n"
<BEGINHMM>
<NUMSTATES> 5
<STATE> 2
<MEAN> 39
 1.698590e+00 1.805517e+00 -4.240561e+00 -2.702981e+00 -8.329406e+00 -7.653704e+00 -5.229997e+00 -8.044646e+00 -6.404858e+00 -4.005575e+00 -2.453661e+00 -4.191187e+00 6.656951e+01 -6.082714e-02 1.050830e+00 1.001811e+00 1.006116e+00 9.236935e-01 -2.170001e-01 -1.027576e+00 -3.508527e-01 -8.945745e-01 -3.375638e-01 9.154457e-02 -1.370390e-01 -8.891056e-01 -6.125121e-02 -1.298044e-01 -1.388544e-01 -2.513939e-01 -1.623547e-01 -4.349223e-02 1.873399e-01 1.587240e-01 1.903003e-01 4.480569e-02 5.929978e-03 7.383432e-04 1.660158e-01
<VARIANCE> 39
 9.123960e+00 4.284099e+01 4.223135e+01 4.647675e+01 5.539170e+01 4.822821e+01 5.522438e+01 4.142042e+01 4.837754e+01 4.462788e+01 3.630582e+01 3.718179e+01 2.275057e+01 4.021460e-01 1.853420e+00 2.060740e+00 2.247115e+00 2.464288e+00 2.576988e+00 3.252890e+00 2.788428e+00 3.223275e+00 2.657978e+00 2.183730e+00 2.369577e+00 7.790858e-01 6.909619e-02 3.098272e-01 3.222834e-01 2.838718e-01 4.463880e-01 3.849898e-01 5.072392e-01 4.841548e-01 6.181018e-01 4.719011e-01 3.790463e-01 3.970726e-01 1.336775e-01
<GCONST> 1.131586e+02
<STATE> 3
<MEAN> 39
 1.528325e+00 4.251409e+00 -2.219532e+00 -9.363725e-01 -6.569253e+00 -8.496096e+00 -6.998223e+00 -8.188699e+00 -7.651085e+00 -4.341682e+00 -1.983805e+00 -4.427935e+00 6.485253e+01 -9.105790e-02 6.739040e-02 6.030573e-02 1.710574e-01 2.100362e-01 -2.574412e-01 -3.254001e-01 2.254394e-03 1.422875e-01 5.854576e-02 5.646113e-02 -1.061294e-01 -4.661018e-02 1.330992e-02 -4.248646e-01 -4.549405e-01 -3.543366e-01 -3.280820e-01 3.124662e-02 3.687057e-01 1.398837e-01 3.836007e-01 1.875376e-01 -4.292855e-02 1.801592e-02 3.485314e-01
<VARIANCE> 39
 8.280787e+00 3.311327e+01 3.044070e+01 3.645974e+01 4.652760e+01 3.510565e+01 5.384536e+01 3.720361e+01 4.447367e+01 3.868503e+01 3.127489e+01 3.629128e+01 1.907460e+01 3.017667e-01 1.897976e+00 2.463503e+00 1.944115e+00 2.290027e+00 1.842439e+00 2.751287e+00 2.240824e+00 3.036514e+00 2.373821e+00 1.780347e+00 1.885530e+00 8.058099e-01 5.669283e-02 2.752421e-01 3.274144e-01 3.205682e-01 4.429359e-01 3.854762e-01 5.801427e-01 5.106928e-01 5.890488e-01 4.885735e-01 3.912718e-01 4.381245e-01 9.041099e-02
<GCONST> 1.091641e+02
<STATE> 4
<MEAN> 39
 1.050413e+00 1.462988e+00 -3.827899e+00 -2.058454e+00 -8.904493e+00 -9.198156e+00 -6.204828e+00 -7.391513e+00 -4.776051e+00 -3.343823e+00 -2.680046e+00 -4.975579e+00 6.680461e+01 -4.507646e-02 -7.969293e-01 -9.926137e-01 -7.138734e-01 -5.642519e-01 1.102224e-01 8.620968e-01 3.469651e-01 7.449971e-01 4.888266e-01 -9.213200e-02 -1.625003e-02 6.710294e-01 -3.067242e-03 7.691227e-03 -9.204711e-02 -2.086890e-01 -1.617516e-01 9.655687e-02 2.423776e-01 1.185895e-01 5.484521e-02 -2.396630e-03 -1.381764e-02 5.747726e-02 4.051995e-02
<VARIANCE> 39
 1.025725e+01 4.388525e+01 4.723440e+01 3.757820e+01 6.409123e+01 4.230384e+01 5.435329e+01 4.575851e+01 4.980550e+01 5.461127e+01 3.900909e+01 3.692210e+01 2.668623e+01 3.423678e-01 2.091916e+00 2.788521e+00 2.492864e+00 3.094432e+00 2.762866e+00 4.033547e+00 3.078791e+00 3.855208e+00 3.097371e+00 2.526970e+00 2.450032e+00 8.837229e-01 4.797253e-02 4.207502e-01 4.718602e-01 4.113587e-01 5.689219e-01 4.557214e-01 7.108718e-01 5.238155e-01 6.595380e-01 5.413089e-01 4.590062e-01 3.801819e-01 1.725783e-01
<GCONST> 1.174946e+02
<TRANSP> 5
 0.000000e+00 1.000000e+00 0.000000e+00 0.000000e+00 0.000000e+00
 0.000000e+00 5.407352e-01 4.592647e-01 0.000000e+00 0.000000e+00
 0.000000e+00 0.000000e+00 5.980431e-01 4.019569e-01 0.000000e+00
 0.000000e+00 0.000000e+00 0.000000e+00 7.447893e-01 2.552107e-01
 0.000000e+00 0.000000e+00 0.000000e+00 0.000000e+00 0.000000e+00
<ENDHMM>
~h "o"
<BEGINHMM>
<NUMSTATES> 5
<STATE> 2
<MEAN> 39
 2.610738e+00 4.625175e+00 -8.255774e+00 -1.200906e+01 -1.410581e+01 -8.024755e+00 8.348708e-01 -4.822188e+00 -4.367913e+00 -2.960339e+00 -1.543888e+00 -1.994105e+00 6.757333e+01 2.401640e-01 3.521818e-01 -1.844966e-01 -5.859877e-01 -7.362368e-01 1.201998e-01 7.268872e-01 3.198620e-01 -1.267125e-01 -1.844583e-01 -1.490829e-01 2.313519e-01 -9.543631e-02 -2.165075e-01 -1.309892e-01 1.666533e-01 3.609571e-01 4.248093e-01 1.571923e-01 -6.940645e-02 -2.334898e-02 -7.167703e-03 -3.996129e-02 -1.061936e-04 -6.153709e-02 -1.200788e-01
<VARIANCE> 39
 1.056091e+01 4.142371e+01 3.061528e+01 4.287408e+01 6.506173e+01 5.039497e+01 5.742267e+01 5.047714e+01 4.799116e+01 3.719304e+01 4.151266e+01 3.459575e+01 2.218861e+01 7.259518e-01 1.319267e+00 1.497018e+00 3.178725e+00 3.802310e+00 2.939822e+00 3.576915e+00 2.853265e+00 2.844585e+00 2.520666e+00 2.390863e+00 1.889775e+00 6.650769e-01 1.363233e-01 2.360955e-01 3.175174e-01 3.748939e-01 6.476851e-01 5.195845e-01 5.516744e-01 4.970094e-01 5.563892e-01 4.921689e-01 4.637724e-01 4.261419e-01 9.412426e-02
<GCONST> 1.149582e+02
<STATE> 3
<MEAN> 39
 2.595141e+00 4.989810e+00 -8.299437e+00 -1.204278e+01 -1.414503e+01 -7.276309e+00 2.148331e+00 -4.236475e+00 -4.851530e+00 -3.353498e+00 -1.642106e+00 -1.666030e+00 6.703242e+01 -1.930002e-01 1.249112e-02 1.711518e-01 3.631255e-01 4.136485e-01 3.309987e-01 1.930771e-01 5.212649e-02 -1.221486e-01 -1.567264e-01 1.783715e-02 9.877832e-02 -3.255564e-01 -1.980339e-01 -1.538924e-01 1.663041e-01 3.942032e-01 4.677784e-01 6.079707e-02 -2.856298e-01 -1.130716e-01 5.251158e-02 5.988753e-02 3.926640e-02 -8.005884e-02 -9.368314e-02
<VARIANCE> 39
 1.127740e+01 3.663527e+01 2.826093e+01 3.989499e+01 5.507552e+01 4.612035e+01 5.607233e+01 4.970865e+01 4.708261e+01 3.683646e+01 4.399888e+01 3.417583e+01 2.128609e+01 6.357756e-01 1.416708e+00 1.543760e+00 2.938101e+00 3.972182e+00 2.944494e+00 3.343472e+00 2.948079e+00 2.897099e+00 2.451340e+00 2.588375e+00 1.976215e+00 6.470160e-01 1.084222e-01 1.960262e-01 2.759802e-01 3.654538e-01 5.356601e-01 4.980738e-01 5.125294e-01 4.703167e-01 5.163315e-01 4.687487e-01 4.925440e-01 3.942236e-01 8.833672e-02
<GCONST> 1.132721e+02
<STATE> 4
<MEAN> 39
 1.626644e+00 4.858360e+00 -7.451741e+00 -1.012349e+01 -1.189202e+01 -6.175014e+00 1.704947e+00 -4.227254e+00 -5.112732e+00 -3.520859e+00 -1.284728e+00 -1.612871e+00 6.570782e+01 -5.434769e-01 -2.940478e-01 4.088839e-01 9.764163e-01 1.113182e+00 3.389398e-01 -4.241211e-01 -1.893229e-01 2.750240e-02 6.970179e-02 1.077314e-01 -3.048022e-02 -4.547496e-01 -8.268784e-02 -7.236653e-02 7.884524e-02 1.431517e-01 9.123254e-02 -6.998257e-02 -1.941985e-01 -4.053065e-02 6.910519e-02 6.751528e-02 -2.274427e-02 -6.337477e-02 -9.589054e-03
<VARIANCE> 39
 1.350147e+01 3.502882e+01 2.873522e+01 4.225141e+01 5.252623e+01 4.447813e+01 5.462617e+01 4.927812e+01 4.577176e+01 3.532518e+01 4.203273e+01 3.202575e+01 2.412666e+01 7.200766e-01 1.340956e+00 1.680913e+00 2.770757e+00 3.345395e+00 2.998490e+00 3.181703e+00 2.684740e+00 2.823042e+00 2.394791e+00 2.426503e+00 2.091895e+00 6.698869e-01 1.116288e-01 2.214952e-01 2.737783e-01 3.681911e-01 5.947460e-01 4.677992e-01 4.745908e-01 4.590552e-01 4.826480e-01 4.416673e-01 4.826779e-01 3.655981e-01 1.083970e-01
<GCONST> 1.131579e+02
<TRANSP> 5
 0.000000e+00 1.000000e+00 0.000000e+00 0.000000e+00 0.000000e+00
 0.000000e+00 4.760290e-01 5.239710e-01 0.000000e+00 0.000000e+00
 0.000000e+00 0.000000e+00 4.430675e-01 5.569324e-01 0.000000e+00
 0.000000e+00 0.000000e+00 0.000000e+00 5.389653e-01 4.610347e-01
 0.000000e+00 0.000000e+00 0.000000e+00 0.000000e+00 0.000000e+00
<ENDHMM>
~h "p"
<BEGINHMM>
<NUMSTATES> 5
<STATE> 2
<MEAN> 39
 -5.188871e+00 -1.498420e+00 -7.916357e+00 -9.790309e+00 -6.373660e+00 -2.449283e+00 2.066651e+00 -1.235773e+00 -9.646232e-01 -1.486836e+00 -8.396532e-01 -1.871475e+00 6.558558e+01 5.682839e-01 -2.870743e-01 -2.475024e-01 -8.013156e-01 -7.508676e-01 -4.134035e-01 2.416964e-01 -3.292368e-01 -3.078550e-01 -3.464485e-01 -1.742886e-01 -2.249808e-01 1.206637e+00 1.255227e-01 4.117361e-02 5.361829e-02 4.980264e-02 -1.264160e-01 -6.699403e-02 -1.161043e-01 -7.824400e-02 -4.196144e-02 -2.531006e-02 6.925930e-02 7.048407e-03 6.748942e-02
<VARIANCE> 39
 3.207829e+01 4.394407e+01 2.835097e+01 4.913030e+01 4.811116e+01 5.809795e+01 5.369903e+01 3.970952e+01 2.740651e+01 2.919019e+01 2.883510e+01 2.571045e+01 6.625633e+01 4.089756e+00 4.293570e+00 1.941550e+00 3.373474e+00 5.098592e+00 4.315084e+00 3.863843e+00 3.702580e+00 2.781103e+00 3.045408e+00 2.526888e+00 2.085917e+00 4.069589e+00 5.850787e-01 8.130372e-01 3.655599e-01 5.577368e-01 8.059324e-01 7.991472e-01 6.800902e-01 6.886238e-01 5.093594e-01 5.658069e-01 4.431197e-01 3.715250e-01 7.559869e-01
<GCONST> 1.280941e+02
<STATE> 3
<MEAN> 39
 -1.961434e+00 -2.023205e+00 -8.112352e+00 -1.227514e+01 -9.440446e+00 -4.530242e+00 2.017334e+00 -3.430586e+00 -2.786098e+00 -2.546030e+00 -1.525447e+00 -2.530494e+00 7.033992e+01 7.212727e-01 -3.467608e-02 9.974211e-03 -1.880103e-01 -7.483352e-01 -3.625279e-01 -3.185750e-01 -4.784509e-01 -3.305972e-01 -1.013073e-01 1.986634e-01 -6.963871e-02 6.814912e-01 -1.068618e-01 1.256509e-01 1.088420e-01 2.474626e-01 1.585570e-01 -3.356047e-02 -2.263439e-01 -3.891218e-02 8.262339e-02 8.253235e-02 9.452656e-02 2.075801e-02 -2.504675e-01
<VARIANCE> 39
 3.518274e+01 5.998597e+01 3.643126e+01 5.756565e+01 6.651758e+01 6.466381e+01 7.052795e+01 4.764500e+01 4.249300e+01 4.510831e+01 3.319975e+01 3.178263e+01 5.970528e+01 2.443053e+00 4.195899e+00 1.758761e+00 2.498548e+00 3.463397e+00 3.058935e+00 3.361837e+00 2.764302e+00 3.197576e+00 2.864341e+00 2.434120e+00 2.154608e+00 1.566838e+00 5.380103e-01 7.596675e-01 3.132243e-01 4.255656e-01 7.500347e-01 5.582892e-01 6.806164e-01 5.505612e-01 5.913218e-01 5.510287e-01 4.430352e-01 3.874114e-01 3.160072e-01
<GCONST> 1.259965e+02
<STATE> 4
<MEAN> 39
 2.163974e-01 -1.528782e+00 -8.089032e+00 -1.421613e+01 -1.311820e+01 -6.508689e+00 -2.659887e-01 -3.149841e+00 -1.767764e+00 -3.055369e+00 -1.792422e+00 -2.823586e+00 7.271816e+01 2.073063e-01 2.402941e-01 2.025236e-01 2.103261e-01 -3.152317e-01 -3.728207e-01 -4.343663e-01 -3.241605e-01 1.348032e-02 1.422631e-01 9.593906e-02 -8.952991e-02 4.645593e-03 -6.222237e-02 9.939141e-02 6.464344e-02 1.235014e-01 7.208657e-02 -6.845228e-02 -9.866574e-02 -2.503760e-02 3.690103e-02 2.168581e-02 -5.151493e-03 -1.948286e-02 -1.240729e-01
<VARIANCE> 39
 2.244639e+01 8.396692e+01 4.356008e+01 5.467322e+01 7.905331e+01 8.557085e+01 8.147397e+01 6.423529e+01 6.162215e+01 5.015358e+01 3.154594e+01 3.352930e+01 4.911262e+01 1.101754e+00 2.439514e+00 1.037566e+00 1.548169e+00 2.120598e+00 2.007222e+00 2.600951e+00 2.201812e+00 2.651909e+00 2.098981e+00 1.910927e+00 1.546601e+00 7.952810e-01 1.894662e-01 3.153405e-01 1.608449e-01 2.804572e-01 3.826871e-01 3.299932e-01 4.360985e-01 3.637843e-01 4.297328e-01 3.674738e-01 3.198931e-01 2.650562e-01 1.205271e-01
<GCONST> 1.142425e+02
<TRANSP> 5
 0.000000e+00 1.000000e+00 0.000000e+00 0.000000e+00 0.000000e+00
 0.000000e+00 7.900822e-01 2.099177e-01 0.000000e+00 0.000000e+00
 0.000000e+00 0.000000e+00 4.003289e-01 5.996711e-01 0.000000e+00
 0.000000e+00 0.000000e+00 0.000000e+00 6.491122e-01 3.508878e-01
 0.000000e+00 0.000000e+00 0.000000e+00 0.000000e+00 0.000000e+00
<ENDHMM>
~h "r"
<BEGINHMM>
<NUMSTATES> 5
<STATE> 2
<MEAN> 39
 1.637376e+00 -2.162943e+00 -6.558163e+00 -2.005749e+00 -9.219651e+00 -1.155573e+01 -5.766857e+00 -8.516292e+00 -3.663102e+00 -1.044285e+00 5.383908e-01 -2.917477e+00 6.932552e+01 -1.266936e-01 4.064085e-02 4.976973e-01 1.176696e+00 2.645449e-01 -3.997344e-01 -7.105507e-01 -1.740902e-01 5.081750e-02 -1.699441e-01 -5.117791e-02 -2.578401e-02 -3.797285e-01 -8.857329e-02 6.155087e-02 5.204543e-02 -2.579038e-01 -2.056034e-01 1.495725e-01 2.352595e-01 1.369145e-01 2.707186e-02 -1.578636e-01 -7.793960e-02 -1.257088e-02 4.920994e-02
<VARIANCE> 39
 1.305168e+01 3.985873e+01 5.928504e+01 5.060780e+01 6.745778e+01 6.120535e+01 5.697023e+01 5.218839e+01 4.781778e+01 4.665971e+01 4.234265e+01 4.387743e+01 2.481061e+01 9.973004e-01 1.787305e+00 2.591108e+00 3.389315e+00 5.559954e+00 4.498427e+00 4.093606e+00 3.469545e+00 3.686123e+00 3.774299e+00 3.599269e+00 2.995960e+00 1.305091e+00 1.706801e-01 3.015386e-01 4.212713e-01 4.467750e-01 1.106620e+00 8.506964e-01 7.459202e-01 6.801605e-01 7.128582e-01 6.601498e-01 6.460105e-01 5.880667e-01 2.448444e-01
<GCONST> 1.261057e+02
<STATE> 3
<MEAN> 39
 1.219968e+00 -1.714398e+00 -5.528805e+00 -3.035982e-01 -9.247962e+00 -1.198298e+01 -6.478422e+00 -8.363070e+00 -3.472838e+00 -1.580832e+00 4.814182e-01 -2.939310e+00 6.855663e+01 -2.708292e-01 1.785514e-01 5.193349e-01 4.736774e-01 -1.091005e-01 -2.607015e-02 -1.219819e-01 7.957450e-02 3.102594e-02 -4.085115e-01 -1.083049e-01 5.532087e-02 -2.653383e-01 -6.671254e-02 6.268796e-02 2.208259e-02 -3.261276e-01 -1.551574e-01 1.398253e-01 2.831286e-01 1.066341e-01 -3.484733e-02 -9.702859e-02 -1.462438e-02 5.242828e-02 5.200588e-02
<VARIANCE> 39
 1.311751e+01 3.650229e+01 5.948915e+01 5.131344e+01 7.321996e+01 6.163079e+01 5.364227e+01 4.832951e+01 4.332183e+01 4.475695e+01 3.930076e+01 3.839067e+01 2.504765e+01 1.021508e+00 1.765944e+00 2.815521e+00 2.917927e+00 5.234560e+00 4.395130e+00 3.506063e+00 3.208993e+00 3.546291e+00 3.609973e+00 3.273546e+00 2.881891e+00 1.226189e+00 1.642863e-01 3.045380e-01 4.018310e-01 4.167628e-01 1.053708e+00 8.140152e-01 6.735119e-01 6.378027e-01 6.612290e-01 6.386871e-01 6.023315e-01 5.275077e-01 2.437359e-01
<GCONST> 1.243063e+02
<STATE> 4
<MEAN> 39
 5.736226e-01 -1.156915e+00 -4.361402e+00 -1.255155e-02 -9.813209e+00 -1.197364e+01 -6.400128e+00 -8.008470e+00 -3.507703e+00 -2.433669e+00 3.368422e-01 -2.679868e+00 6.795327e+01 -3.562635e-01 2.941364e-01 4.979672e-01 -4.625577e-02 -1.214681e-01 2.244893e-01 3.017983e-01 2.474118e-01 -1.019727e-01 -4.730233e-01 -1.222264e-01 1.945140e-01 -2.703236e-01 -2.387625e-02 4.331672e-02 -2.225638e-02 -1.895577e-01 -4.602351e-02 6.088214e-02 1.627353e-01 5.072578e-02 -5.414322e-02 -8.786945e-03 1.265208e-02 1.066264e-02 1.093248e-02
<VARIANCE> 39
 1.506559e+01 3.552834e+01 5.922523e+01 5.202149e+01 7.191700e+01 6.197707e+01 5.358091e+01 4.666005e+01 4.170274e+01 4.359517e+01 3.862770e+01 3.668176e+01 2.465613e+01 9.585527e-01 1.635550e+00 2.549805e+00 2.333269e+00 4.351399e+00 3.773726e+00 3.037454e+00 2.813960e+00 3.232015e+00 3.343860e+00 2.658071e+00 2.500176e+00 1.119831e+00 1.525156e-01 2.668759e-01 3.494400e-01 3.605725e-01 8.216285e-01 6.700508e-01 5.533700e-01 5.530434e-01 5.500711e-01 5.461546e-01 5.234171e-01 4.363207e-01 1.998211e-01
<GCONST> 1.204071e+02
<TRANSP> 5
 0.000000e+00 1.000000e+00 0.000000e+00 0.000000e+00 0.000000e+00
 0.000000e+00 4.023032e-01 5.976968e-01 0.000000e+00 0.000000e+00
 0.000000e+00 0.000000e+00 3.534169e-01 6.465831e-01 0.000000e+00
 0.000000e+00 0.000000e+00 0.000000e+00 4.195235e-01 5.804765e-01
 0.000000e+00 0.000000e+00 0.000000e+00 0.000000e+00 0.000000e+00
<ENDHMM>
~h "t"
<BEGINHMM>
<NUMSTATES> 5
<STATE> 2
<MEAN> 39
 -1.167977e+01 -1.381430e+00 -4.505836e+00 -6.684878e+00 -4.778697e+00 -5.617015e+00 -2.448062e+00 -2.539512e+00 6.164261e-01 -1.148268e+00 2.842319e-01 -1.090494e+00 6.615594e+01 4.819579e-01 -1.396166e-01 3.143876e-01 -2.355423e-01 -4.611977e-01 -6.120102e-01 -9.086814e-02 -5.712377e-01 -2.686052e-01 -3.275060e-01 -2.721373e-01 -3.591663e-01 1.107130e+00 4.789191e-01 1.510851e-01 8.126670e-03 9.504070e-02 -1.887279e-01 -5.649398e-02 -8.567501e-02 -1.731520e-01 -1.992585e-01 -4.876801e-02 -6.291167e-02 -6.881055e-02 -1.096020e-01
<VARIANCE> 39
 7.080064e+01 3.826159e+01 4.513089e+01 3.976680e+01 4.065918e+01 5.366133e+01 4.026546e+01 3.928453e+01 3.513202e+01 3.344403e+01 3.057267e+01 3.162190e+01 5.942685e+01 7.287162e+00 3.616336e+00 3.410548e+00 4.272586e+00 4.263587e+00 4.452074e+00 3.615761e+00 3.875278e+00 4.040096e+00 3.459288e+00 2.914245e+00 3.270548e+00 5.123981e+00 1.022317e+00 6.771898e-01 5.196193e-01 6.885697e-01 7.667083e-01 8.671890e-01 7.298583e-01 6.913392e-01 6.936122e-01 6.663989e-01 5.645714e-01 6.268701e-01 1.064755e+00
<GCONST> 1.339805e+02
<STATE> 3
<MEAN> 39
 -6.091847e+00 -1.008814e+00 -3.542364e+00 -6.550694e+00 -7.789948e+00 -8.364496e+00 -3.753331e+00 -5.358977e+00 -1.676827e+00 -2.363155e+00 -1.151646e+00 -2.850822e+00 6.892185e+01 1.938995e+00 4.102730e-01 5.554257e-02 1.014228e-01 -1.056395e+00 -5.939869e-01 -4.151521e-01 -8.600956e-01 -8.314098e-01 -3.173558e-01 -2.537723e-01 -3.124062e-01 3.262193e-01 -1.899747e-01 -6.270047e-02 -1.198050e-01 1.618556e-02 1.174481e-01 1.810166e-01 1.783077e-02 1.418915e-01 9.874701e-02 9.608861e-02 1.458109e-01 1.723472e-01 -2.357305e-01
<VARIANCE> 39
 5.666208e+01 3.640619e+01 6.234535e+01 6.003495e+01 5.765747e+01 6.579478e+01 4.510207e+01 4.493472e+01 4.479647e+01 4.990248e+01 3.615020e+01 3.983857e+01 4.242806e+01 4.933288e+00 3.132242e+00 2.931636e+00 4.106969e+00 5.264377e+00 4.944679e+00 3.995276e+00 3.836610e+00 3.825557e+00 3.881598e+00 2.916717e+00 3.518531e+00 2.843848e+00 9.057988e-01 5.237285e-01 5.465562e-01 6.272742e-01 8.474974e-01 8.063367e-01 6.549759e-01 6.607452e-01 6.759051e-01 7.082345e-01 5.603932e-01 6.086538e-01 5.325962e-01
<GCONST> 1.339342e+02
<STATE> 4
<MEAN> 39
 -3.482706e+00 -6.508014e-01 -3.879862e+00 -7.114425e+00 -9.214164e+00 -9.089574e+00 -4.405538e+00 -6.319904e+00 -2.496534e+00 -2.715171e+00 -1.206670e+00 -3.071226e+00 6.963533e+01 1.179103e+00 1.554812e-01 -1.110776e-01 1.160860e-01 -5.787134e-01 -1.573423e-01 -2.110541e-01 -4.164073e-01 -4.275001e-01 -5.069987e-02 7.030719e-02 -9.294880e-03 -1.467712e-03 -4.568009e-01 -1.210978e-01 -4.834983e-02 6.973043e-02 3.257926e-01 2.028210e-01 8.742365e-02 2.257753e-01 1.962132e-01 9.137574e-02 1.164732e-01 1.467375e-01 -1.930399e-01
<VARIANCE> 39
 4.234054e+01 3.807741e+01 6.777377e+01 7.400521e+01 6.800385e+01 7.297164e+01 4.976964e+01 4.711209e+01 4.757344e+01 5.606900e+01 3.844535e+01 4.346051e+01 4.043586e+01 3.299603e+00 2.478634e+00 2.199199e+00 2.891820e+00 4.303073e+00 4.034092e+00 3.376222e+00 3.162407e+00 3.144775e+00 3.268026e+00 2.653699e+00 2.806769e+00 2.392318e+00 5.930345e-01 4.198334e-01 4.894528e-01 5.819446e-01 7.890040e-01 7.221211e-01 5.948381e-01 5.851652e-01 5.810568e-01 6.269047e-01 4.846895e-01 5.510148e-01 3.287651e-01
<GCONST> 1.295393e+02
<TRANSP> 5
 0.000000e+00 1.000000e+00 0.000000e+00 0.000000e+00 0.000000e+00
 0.000000e+00 7.209156e-01 2.790844e-01 0.000000e+00 0.000000e+00
 0.000000e+00 0.000000e+00 3.345232e-01 6.654769e-01 0.000000e+00
 0.000000e+00 0.000000e+00 0.000000e+00 2.799447e-01 7.200553e-01
 0.000000e+00 0.000000e+00 0.000000e+00 0.000000e+00 0.000000e+00
<ENDHMM>
~h "u"
<BEGINHMM>
<NUMSTATES> 5
<STATE> 2
<MEAN> 39
 -3.193816e+00 2.813531e+00 -2.351377e+00 1.116581e-01 -5.767691e+00 -1.027280e+01 -8.240635e+00 -9.653780e+00 -4.573331e+00 -4.772651e+00 -6.553288e-01 -2.351445e+00 6.623779e+01 7.352057e-01 2.506681e-01 4.813269e-01 4.986898e-01 -7.967458e-01 -7.194969e-01 -5.291707e-01 -5.121452e-01 -3.628328e-01 -1.088660e-01 5.325659e-02 -1.779814e-01 3.401023e-01 -2.706814e-02 2.712096e-02 -2.128859e-02 -1.886406e-01 -2.292813e-01 2.063079e-01 3.504263e-01 1.866921e-01 -7.890294e-02 4.299766e-02 9.601386e-02 1.609122e-01 -1.473110e-01
<VARIANCE> 39
 4.288083e+01 3.814566e+01 3.520653e+01 5.225509e+01 6.351993e+01 5.241868e+01 5.358997e+01 5.119081e+01 5.307339e+01 4.393472e+01 3.423922e+01 3.032012e+01 2.224142e+01 3.802136e+00 3.370900e+00 3.182596e+00 4.224393e+00 5.393822e+00 4.520971e+00 4.117245e+00 4.644354e+00 4.957480e+00 3.251963e+00 3.011743e+00 2.440854e+00 1.268670e+00 6.322951e-01 6.259205e-01 3.957047e-01 6.291412e-01 9.919465e-01 8.318757e-01 8.752522e-01 8.970990e-01 8.845883e-01 6.268497e-01 6.406298e-01 5.132301e-01 2.448277e-01
<GCONST> 1.308700e+02
<STATE> 3
<MEAN> 39
 -1.039790e+00 3.387353e+00 -1.181748e+00 5.994763e-01 -9.028919e+00 -1.165666e+01 -8.699741e+00 -1.060973e+01 -5.757205e+00 -4.644842e+00 -2.770874e-01 -2.339250e+00 6.649662e+01 4.133227e-01 3.700285e-01 4.526119e-01 2.224918e-02 -9.118495e-01 1.297346e-01 3.142399e-01 -6.606132e-04 -4.234912e-01 -2.150036e-02 2.351640e-01 2.495368e-01 -2.252074e-01 -2.778739e-01 -8.959043e-02 -9.866960e-02 -2.223539e-01 2.649983e-01 4.014772e-01 3.073386e-01 2.220357e-01 8.787747e-02 8.272891e-02 5.020177e-02 1.202392e-01 -1.803838e-01
<VARIANCE> 39
 2.556608e+01 3.513308e+01 3.357623e+01 5.023571e+01 5.953823e+01 5.002986e+01 5.102903e+01 4.239677e+01 5.243728e+01 4.865427e+01 3.941622e+01 2.761277e+01 1.894839e+01 2.175909e+00 1.700220e+00 2.652277e+00 3.218902e+00 4.061509e+00 3.617456e+00 3.357635e+00 3.377591e+00 3.707904e+00 2.678276e+00 2.820586e+00 2.153512e+00 7.810509e-01 3.487619e-01 3.269163e-01 2.809330e-01 5.026004e-01 6.923620e-01 6.165095e-01 6.267926e-01 6.061586e-01 7.417381e-01 5.351166e-01 5.223675e-01 4.219115e-01 1.223462e-01
<GCONST> 1.213010e+02
<STATE> 4
<MEAN> 39
 -7.909925e-01 4.435923e+00 -3.471701e-01 9.434202e-01 -9.663089e+00 -1.077986e+01 -8.629652e+00 -1.076741e+01 -6.264798e+00 -4.745187e+00 -4.595437e-01 -1.311111e+00 6.498601e+01 -1.500356e-01 1.861771e-01 2.157856e-01 -2.505600e-01 -3.179031e-02 6.705629e-01 5.497395e-01 3.292974e-01 -7.865763e-02 1.794547e-01 1.803746e-01 2.638184e-01 -4.923261e-01 -1.648712e-01 -1.239108e-01 -1.022318e-01 -6.403583e-02 2.419730e-01 1.420418e-01 8.548230e-02 1.392666e-01 1.252523e-01 1.006584e-01 4.425598e-03 -1.533317e-02 -8.174258e-02
<VARIANCE> 39
 2.105551e+01 3.568758e+01 3.152263e+01 5.029897e+01 5.631231e+01 4.923245e+01 5.605270e+01 4.078240e+01 4.646715e+01 4.865125e+01 3.948864e+01 2.798634e+01 2.228081e+01 1.013721e+00 9.331637e-01 1.755879e+00 2.238896e+00 3.397192e+00 2.483249e+00 2.594102e+00 2.410374e+00 2.666031e+00 2.168111e+00 2.224242e+00 1.965023e+00 7.663591e-01 1.697622e-01 1.808544e-01 2.308757e-01 3.381423e-01 4.703062e-01 4.264621e-01 4.503154e-01 4.580534e-01 5.191084e-01 4.154815e-01 4.069830e-01 3.496452e-01 1.035788e-01
<GCONST> 1.124370e+02
<TRANSP> 5
 0.000000e+00 1.000000e+00 0.000000e+00 0.000000e+00 0.000000e+00
 0.000000e+00 4.282208e-01 5.717792e-01 0.000000e+00 0.000000e+00
 0.000000e+00 0.000000e+00 2.919210e-01 7.080791e-01 0.000000e+00
 0.000000e+00 0.000000e+00 0.000000e+00 5.373679e-01 4.626320e-01
 0.000000e+00 0.000000e+00 0.000000e+00 0.000000e+00 0.000000e+00
<ENDHMM>
~h "w"
<BEGINHMM>
<NUMSTATES> 5
<STATE> 2
<MEAN> 39
 4.053349e+00 5.030247e+00 -7.065278e+00 -1.395810e+01 -1.779756e+01 -6.668445e+00 2.207573e+00 -4.373703e+00 -3.889176e+00 -3.087570e+00 -2.610846e+00 -6.966715e-01 6.690469e+01 -1.960839e-02 -1.310914e+00 -1.074713e+00 -1.052432e+00 6.862441e-02 1.095139e+00 1.304048e+00 -4.507774e-02 -3.485836e-01 1.220116e-01 4.815275e-01 4.867346e-01 9.145882e-01 -2.240223e-01 -2.523907e-01 1.170930e-01 4.876908e-01 5.908608e-01 6.841720e-02 -3.173398e-01 -1.588837e-01 4.214488e-03 9.823943e-02 1.451407e-01 -1.155507e-01 -5.569898e-03
<VARIANCE> 39
 9.023241e+00 4.161716e+01 3.583506e+01 6.094160e+01 6.962437e+01 4.797586e+01 6.372052e+01 5.744850e+01 3.933260e+01 3.911917e+01 3.667836e+01 3.287867e+01 2.562466e+01 6.678281e-01 3.317406e+00 1.694842e+00 2.944269e+00 4.857220e+00 3.765788e+00 4.365898e+00 4.080702e+00 3.281883e+00 2.871511e+00 3.170493e+00 2.752755e+00 1.404727e+00 9.143586e-02 3.596725e-01 2.797893e-01 4.959247e-01 7.809854e-01 8.007504e-01 9.030728e-01 6.615260e-01 7.111598e-01 5.587359e-01 5.558144e-01 5.713478e-01 1.510881e-01
<GCONST> 1.218956e+02
<STATE> 3
<MEAN> 39
 2.993820e+00 1.306971e+00 -9.051228e+00 -1.393749e+01 -1.393911e+01 -3.363931e+00 3.700889e+00 -5.842939e+00 -5.260629e+00 -2.679376e+00 -3.162745e-01 2.553256e-01 6.889324e+01 -4.339499e-01 -1.208136e+00 -4.381038e-01 3.715850e-01 1.220280e+00 6.095948e-01 -2.515867e-01 -4.951136e-01 1.602241e-01 6.074697e-01 5.984150e-01 -3.198093e-01 5.172671e-01 -1.244554e-01 1.629943e-01 3.096438e-01 4.570753e-01 9.213946e-02 -4.768276e-01 -4.650567e-01 1.200885e-01 3.022056e-01 3.932860e-02 -2.302281e-01 -2.737737e-01 -1.752492e-01
<VARIANCE> 39
 1.094763e+01 5.075334e+01 4.331378e+01 7.508559e+01 6.274850e+01 4.933202e+01 7.703931e+01 6.948042e+01 3.943441e+01 4.025906e+01 4.275166e+01 4.350093e+01 2.788036e+01 5.454210e-01 1.964363e+00 1.144507e+00 2.415025e+00 2.990499e+00 3.790730e+00 4.126130e+00 3.022944e+00 3.179652e+00 2.897166e+00 2.905261e+00 2.857115e+00 8.077754e-01 8.236494e-02 2.891877e-01 2.273470e-01 3.323847e-01 4.749940e-01 5.888547e-01 6.419408e-01 6.532556e-01 5.432705e-01 5.295969e-01 6.033609e-01 4.687804e-01 1.267674e-01
<GCONST> 1.180570e+02
<STATE> 4
<MEAN> 39
 2.305496e+00 -3.749346e-01 -9.894989e+00 -1.345480e+01 -1.209304e+01 -3.337065e+00 2.763341e+00 -5.584013e+00 -4.335124e+00 -1.556312e+00 -5.072776e-01 -2.089444e+00 6.923104e+01 -4.347347e-01 -5.718845e-01 -2.860761e-02 6.772184e-01 8.476889e-01 -1.432173e-01 -5.431709e-01 8.674121e-03 5.012650e-01 3.592768e-01 -1.749808e-02 -4.423212e-01 7.307976e-02 -3.653226e-02 1.731034e-01 1.664640e-01 1.448947e-01 -1.043973e-01 -2.677860e-01 -1.078681e-01 1.600816e-01 9.385376e-02 -7.495613e-02 -1.638365e-01 -4.720072e-03 -1.410737e-01
<VARIANCE> 39
 1.212779e+01 5.930997e+01 4.716146e+01 6.689101e+01 5.972776e+01 5.546177e+01 7.422424e+01 6.379724e+01 4.598196e+01 4.127288e+01 4.636034e+01 5.622598e+01 2.847840e+01 4.942766e-01 1.279844e+00 1.031190e+00 1.944185e+00 2.380119e+00 3.306156e+00 3.100253e+00 2.336612e+00 2.502665e+00 2.416549e+00 2.404827e+00 2.200106e+00 6.228818e-01 6.283808e-02 2.118819e-01 1.963222e-01 2.463169e-01 3.759738e-01 4.274051e-01 4.868971e-01 4.731666e-01 4.049906e-01 4.556710e-01 4.625175e-01 3.860518e-01 8.611493e-02
<GCONST> 1.124077e+02
<TRANSP> 5
 0.000000e+00 1.000000e+00 0.000000e+00 0.000000e+00 0.000000e+00
 0.000000e+00 6.548147e-01 3.451854e-01 0.000000e+00 0.000000e+00
 0.000000e+00 0.000000e+00 3.582006e-01 6.417994e-01 0.000000e+00
 0.000000e+00 0.000000e+00 0.000000e+00 5.738355e-01 4.261645e-01
 0.000000e+00 0.000000e+00 0.000000e+00 0.000000e+00 0.000000e+00
<ENDHMM>
~h "aa"
<BEGINHMM>
<NUMSTATES> 5
<STATE> 2
<MEAN> 39
 1.921811e+00 -7.204159e+00 -1.369440e+01 -1.564459e+01 -8.351500e+00 2.555760e+00 5.721303e+00 -5.617445e+00 -4.779161e+00 -1.021213e+00 -3.186333e+00 -5.750644e+00 7.361596e+01 -7.505032e-02 -4.027742e-01 -1.186982e-01 2.623926e-01 4.020672e-01 1.124344e-01 -1.577608e-01 -7.190578e-02 1.741182e-01 2.218490e-01 -1.648692e-01 -3.306957e-01 7.335744e-02 -2.970270e-02 2.117899e-01 1.209696e-01 1.294217e-01 -5.274442e-02 -2.359528e-01 -1.599020e-01 7.294157e-02 9.397096e-02 -3.258350e-02 -1.917165e-04 6.760549e-02 -1.269805e-01
<VARIANCE> 39
 1.195505e+01 4.146246e+01 2.579565e+01 3.189114e+01 5.306445e+01 4.732309e+01 5.455747e+01 7.037938e+01 4.361184e+01 4.387923e+01 5.652100e+01 4.815219e+01 2.899030e+01 2.742116e-01 6.937098e-01 5.437956e-01 8.708484e-01 1.272299e+00 1.466709e+00 1.463365e+00 1.538964e+00 1.440940e+00 1.302298e+00 1.413599e+00 1.303376e+00 2.459077e-01 6.953750e-02 1.119521e-01 1.148025e-01 1.643097e-01 2.240582e-01 2.427095e-01 2.633356e-01 2.751179e-01 2.719222e-01 2.453152e-01 2.425499e-01 2.296920e-01 3.963058e-02
<GCONST> 9.519051e+01
<STATE> 3
<MEAN> 39
 1.674465e+00 -6.948506e+00 -1.323592e+01 -1.273755e+01 -6.705989e+00 6.087565e-01 3.121368e+00 -5.296422e+00 -2.036283e+00 -2.238230e-01 -3.680004e+00 -7.277991e+00 7.264280e+01 -1.298779e-01 2.640315e-01 2.953539e-01 6.175449e-01 5.965092e-02 -7.778018e-01 -5.723411e-01 2.461042e-01 4.691684e-01 1.623599e-01 -7.078406e-02 -1.013919e-01 -2.646412e-01 -3.350279e-02 1.845815e-01 1.570275e-01 1.030449e-01 -7.553629e-02 -1.610451e-01 -1.043284e-01 1.152353e-02 1.310952e-03 -3.347236e-02 7.329307e-02 1.239999e-01 -1.195884e-01
<VARIANCE> 39
 1.035947e+01 4.146176e+01 2.953500e+01 3.841548e+01 5.115327e+01 6.209363e+01 5.862734e+01 6.903693e+01 5.058076e+01 5.034489e+01 6.106955e+01 5.285679e+01 3.078428e+01 2.623116e-01 6.672833e-01 7.262029e-01 9.987206e-01 1.389899e+00 1.689166e+00 1.686399e+00 1.688616e+00 1.667656e+00 1.425584e+00 1.616503e+00 1.414727e+00 2.466439e-01 4.324360e-02 1.052283e-01 1.149035e-01 1.453188e-01 2.031342e-01 2.445256e-01 2.703818e-01 2.834626e-01 2.693086e-01 2.561557e-01 2.514475e-01 2.535266e-01 3.891262e-02
<GCONST> 9.689265e+01
<STATE> 4
<MEAN> 39
 -1.237914e-01 -4.047846e+00 -1.039700e+01 -9.132216e+00 -6.347126e+00 -3.653304e+00 8.214247e-02 -3.272624e+00 -2.587333e-01 6.264969e-01 -2.548517e+00 -6.178668e+00 6.902721e+01 -4.653956e-01 8.071932e-01 8.365612e-01 9.922734e-01 -5.773795e-02 -7.648249e-01 -6.402232e-01 2.371132e-01 2.212327e-01 -7.860178e-02 2.476890e-01 5.143534e-01 -1.010975e+00 -6.852949e-02 5.536099e-02 1.055368e-01 3.743151e-02 2.219487e-03 9.343957e-02 6.574982e-02 -5.536876e-02 -1.835718e-01 -1.171689e-01 8.358337e-02 1.107302e-01 -8.964073e-02
<VARIANCE> 39
 1.449167e+01 4.133121e+01 3.266761e+01 4.194684e+01 4.789400e+01 6.796805e+01 5.462366e+01 5.117032e+01 4.909364e+01 4.624127e+01 5.164154e+01 4.841641e+01 5.216069e+01 6.505094e-01 1.125977e+00 1.366502e+00 1.543262e+00 2.158244e+00 2.818441e+00 2.696616e+00 2.479254e+00 2.501878e+00 2.265749e+00 2.213643e+00 2.117661e+00 7.955444e-01 8.444120e-02 1.852815e-01 2.076397e-01 2.294758e-01 3.196532e-01 4.332019e-01 4.372537e-01 4.051097e-01 4.208785e-01 3.816321e-01 3.789696e-01 3.679252e-01 1.279921e-01
<GCONST> 1.112523e+02
<TRANSP> 5
 0.000000e+00 1.000000e+00 0.000000e+00 0.000000e+00 0.000000e+00
 0.000000e+00 8.090391e-01 1.909609e-01 0.000000e+00 0.000000e+00
 0.000000e+00 0.000000e+00 7.580475e-01 2.419525e-01 0.000000e+00
 0.000000e+00 0.000000e+00 0.000000e+00 7.088862e-01 2.911138e-01
 0.000000e+00 0.000000e+00 0.000000e+00 0.000000e+00 0.000000e+00
<ENDHMM>
~h "ae"
<BEGINHMM>
<NUMSTATES> 5
<STATE> 2
<MEAN> 39
 1.583574e+00 -8.785772e+00 -1.295855e+01 -1.156231e+01 -8.801743e+00 -2.631948e+00 1.952420e+00 -4.279824e+00 -6.789050e-01 4.798316e-01 -1.278752e+00 -7.474339e+00 7.402085e+01 -1.633668e-01 -2.598646e-01 3.124053e-01 3.449878e-01 3.636323e-03 -6.179645e-01 -6.880642e-01 3.568086e-01 7.923352e-01 1.339212e-01 -4.053343e-01 -3.641544e-01 7.559162e-02 -3.149655e-02 1.401343e-01 1.587178e-01 1.658886e-01 -4.022602e-02 -2.629078e-01 -1.105741e-01 5.694066e-02 -3.823601e-04 -7.718562e-02 -4.047793e-03 1.635249e-01 -1.022063e-01
<VARIANCE> 39
 1.220550e+01 3.998883e+01 2.954464e+01 3.667134e+01 5.105440e+01 7.082531e+01 5.042291e+01 6.177613e+01 6.210754e+01 4.473449e+01 6.422037e+01 4.258930e+01 2.720279e+01 3.227510e-01 6.533087e-01 9.068477e-01 1.432156e+00 1.680212e+00 2.977130e+00 2.229918e+00 2.267618e+00 2.006960e+00 1.726293e+00 2.044276e+00 1.762265e+00 2.699541e-01 4.729176e-02 1.057392e-01 1.338059e-01 1.752612e-01 2.512174e-01 3.348705e-01 3.496324e-01 3.405943e-01 3.617868e-01 2.977034e-01 3.305880e-01 2.940440e-01 4.360048e-02
<GCONST> 1.020433e+02
<STATE> 3
<MEAN> 39
 4.566802e-01 -8.576544e+00 -9.678273e+00 -6.789949e+00 -9.834162e+00 -1.052861e+01 -2.942085e+00 -1.430899e+00 4.063750e+00 1.068212e+00 -3.128759e+00 -7.458780e+00 7.331416e+01 -2.505374e-01 5.376021e-01 1.020801e+00 9.652582e-01 -5.040418e-01 -1.444089e+00 -7.866955e-01 2.515785e-01 2.257043e-01 -3.421474e-01 -1.758928e-02 6.720575e-01 -4.560870e-01 -3.307397e-02 1.943367e-01 1.145243e-01 -1.125586e-02 -1.108659e-03 1.981106e-01 1.341394e-01 -1.943570e-01 -3.393016e-01 -1.115052e-01 1.442155e-01 1.748773e-01 -1.446285e-01
<VARIANCE> 39
 1.301518e+01 3.717776e+01 3.457434e+01 3.570049e+01 5.754614e+01 7.066586e+01 4.991808e+01 5.769083e+01 5.182370e+01 4.698296e+01 5.146726e+01 4.468390e+01 2.617080e+01 4.390579e-01 8.062473e-01 1.105694e+00 1.333616e+00 1.902894e+00 2.242062e+00 2.215835e+00 2.448242e+00 2.624420e+00 1.913812e+00 2.330653e+00 1.863646e+00 3.530726e-01 5.155776e-02 1.181898e-01 1.769592e-01 2.182534e-01 2.801239e-01 3.837801e-01 3.366853e-01 3.494386e-01 3.970074e-01 3.470015e-01 3.500808e-01 3.355124e-01 5.841094e-02
<GCONST> 1.049005e+02
<STATE> 4
<MEAN> 39
 -2.362559e+00 -4.155097e+00 -4.064277e+00 -3.182048e+00 -1.103846e+01 -1.415103e+01 -3.434968e+00 -4.697077e-01 1.584407e+00 -1.092464e+00 -2.192166e+00 -4.160836e+00 6.888854e+01 -3.476048e-01 6.651986e-01 6.242653e-01 5.245675e-01 -1.503029e-02 -8.797359e-02 -1.029091e-01 -1.562551e-01 -3.660736e-01 -2.080826e-01 1.733512e-01 4.706132e-01 -8.011397e-01 8.598026e-04 6.115291e-03 -1.225754e-01 -9.091103e-02 1.106483e-01 2.401754e-01 8.193012e-02 -5.097678e-02 -5.257812e-02 3.658516e-02 3.274667e-02 -4.858702e-02 -5.603429e-02
<VARIANCE> 39
 1.888165e+01 3.537093e+01 4.397485e+01 3.570262e+01 6.303501e+01 6.666487e+01 5.473213e+01 5.186811e+01 4.858990e+01 4.909939e+01 3.872424e+01 4.233368e+01 3.775547e+01 3.487200e-01 7.523664e-01 1.239947e+00 1.120584e+00 1.610605e+00 2.152956e+00 1.668286e+00 1.827175e+00 1.808803e+00 1.833542e+00 1.840653e+00 1.660203e+00 3.827439e-01 4.396504e-02 1.147704e-01 1.662609e-01 1.815354e-01 2.349617e-01 3.075780e-01 2.881649e-01 3.168430e-01 3.213797e-01 3.240583e-01 3.164239e-01 2.911122e-01 5.423704e-02
<GCONST> 1.019779e+02
<TRANSP> 5
 0.000000e+00 1.000000e+00 0.000000e+00 0.000000e+00 0.000000e+00
 0.000000e+00 8.417428e-01 1.582573e-01 0.000000e+00 0.000000e+00
 0.000000e+00 0.000000e+00 5.860694e-01 4.139306e-01 0.000000e+00
 0.000000e+00 0.000000e+00 0.000000e+00 8.098363e-01 1.901637e-01
 0.000000e+00 0.000000e+00 0.000000e+00 0.000000e+00 0.000000e+00
<ENDHMM>
~h "ai"
<BEGINHMM>
<NUMSTATES> 5
<STATE> 2
<MEAN> 39
 -8.222544e-02 -6.668067e+00 -8.363469e+00 -8.165609e+00 -9.439439e+00 -1.046335e+01 -3.590892e+00 -6.014348e+00 2.000362e+00 1.901284e+00 -1.498892e+00 -5.109855e+00 7.449476e+01 -4.833319e-01 -3.062827e-01 1.502806e+00 1.692801e+00 -4.604950e-01 -2.476686e+00 -1.200536e+00 7.899650e-01 1.016145e+00 -6.233970e-01 -6.213355e-01 2.037925e-01 8.552431e-02 -4.913482e-02 4.362739e-01 4.004119e-01 1.793088e-02 -3.120329e-01 1.389247e-02 3.239551e-01 3.433394e-02 -5.417960e-01 -5.290896e-01 3.289724e-02 3.931459e-01 -2.594784e-01
<VARIANCE> 39
 1.275285e+01 4.217719e+01 5.160678e+01 5.934693e+01 5.541884e+01 9.939713e+01 6.325396e+01 7.311320e+01 5.147486e+01 6.971047e+01 7.106603e+01 6.119512e+01 2.512351e+01 4.828904e-01 1.498060e+00 2.364456e+00 2.368291e+00 2.696652e+00 4.061119e+00 4.207927e+00 4.226642e+00 4.854270e+00 4.946568e+00 3.780704e+00 3.100872e+00 5.257347e-01 8.585435e-02 2.219681e-01 3.667533e-01 4.412730e-01 4.355908e-01 8.590436e-01 7.740475e-01 8.384472e-01 9.273778e-01 1.004082e+00 9.199238e-01 6.025927e-01 6.629474e-02
<GCONST> 1.239282e+02
<STATE> 3
<MEAN> 39
 -1.343877e+00 -5.670876e+00 -3.238043e+00 -3.556451e+00 -1.231342e+01 -1.677392e+01 -5.498938e+00 -4.621221e+00 2.114140e+00 -2.047605e+00 -2.104040e+00 -2.659450e+00 7.366312e+01 -4.687266e-01 6.438891e-01 1.647361e+00 1.065628e+00 -8.701802e-01 -1.205896e+00 -9.947780e-02 7.436485e-02 -6.430641e-01 -9.522957e-01 1.343274e-01 6.849324e-01 -4.043177e-01 4.760424e-02 2.396414e-01 -1.517477e-01 -2.358608e-01 1.206543e-01 5.674126e-01 2.390403e-01 -2.702718e-01 -3.629425e-01 1.507167e-01 1.993535e-01 -8.330324e-02 -1.825502e-01
<VARIANCE> 39
 1.398508e+01 4.305962e+01 7.096906e+01 5.938050e+01 6.280797e+01 8.758515e+01 5.125705e+01 6.070892e+01 6.168723e+01 6.478942e+01 5.474879e+01 5.743498e+01 2.235799e+01 3.571292e-01 1.042431e+00 2.023994e+00 1.624938e+00 2.171314e+00 3.103212e+00 2.476842e+00 3.538743e+00 3.796070e+00 3.398573e+00 3.567930e+00 2.406781e+00 4.313962e-01 6.042192e-02 1.600983e-01 2.845501e-01 2.573393e-01 3.809889e-01 5.333137e-01 4.647267e-01 5.840951e-01 6.514238e-01 6.783969e-01 5.886773e-01 4.925568e-01 5.409028e-02
<GCONST> 1.155593e+02
<STATE> 4
<MEAN> 39
 -3.117984e+00 -1.425768e+00 1.673505e+00 -1.519251e+00 -1.319133e+01 -1.696198e+01 -5.450473e+00 -5.782420e+00 -1.944780e+00 -4.240168e+00 -1.562474e+00 -2.040068e+00 7.005608e+01 -2.558472e-01 5.673210e-01 3.197792e-01 3.462350e-01 2.969390e-01 4.075180e-01 5.835688e-02 -3.307653e-02 -2.898818e-01 6.895133e-02 2.643860e-02 -3.905666e-02 -7.830369e-01 2.980982e-02 -4.016944e-02 -2.167613e-01 -9.362812e-02 2.061721e-01 2.571028e-01 -8.123724e-03 3.536632e-02 9.790917e-02 1.599748e-01 1.748904e-02 -5.490179e-02 -8.823648e-02
<VARIANCE> 39
 1.602791e+01 4.656536e+01 7.018674e+01 5.445185e+01 6.613371e+01 6.539919e+01 4.675376e+01 5.859423e+01 6.981587e+01 5.230424e+01 4.135349e+01 4.576536e+01 2.856076e+01 3.666960e-01 9.606634e-01 1.733830e+00 1.284848e+00 2.062154e+00 2.263304e+00 1.751186e+00 2.241164e+00 2.666878e+00 2.231347e+00 2.145037e+00 1.709116e+00 5.620832e-01 5.642728e-02 1.280070e-01 2.053094e-01 1.924905e-01 2.909617e-01 3.351861e-01 3.249210e-01 4.003985e-01 4.289833e-01 3.606815e-01 3.777860e-01 2.999231e-01 6.181125e-02
<GCONST> 1.077453e+02
<TRANSP> 5
 0.000000e+00 1.000000e+00 0.000000e+00 0.000000e+00 0.000000e+00
 0.000000e+00 6.503638e-01 3.496362e-01 0.000000e+00 0.000000e+00
 0.000000e+00 0.000000e+00 5.326512e-01 4.673488e-01 0.000000e+00
 0.000000e+00 0.000000e+00 0.000000e+00 8.153821e-01 1.846180e-01
 0.000000e+00 0.000000e+00 0.000000e+00 0.000000e+00 0.000000e+00
<ENDHMM>
~h "ao"
<BEGINHMM>
<NUMSTATES> 5
<STATE> 2
<MEAN> 39
 1.916224e+00 -5.521103e+00 -1.152859e+01 -2.010289e+01 -1.358977e+01 2.697358e+00 5.833887e+00 -3.660702e+00 -3.839357e+00 -5.438832e+00 -3.408278e+00 -3.738566e+00 7.452425e+01 9.651452e-02 2.868046e-01 8.411279e-02 -2.200594e-01 -5.083866e-01 -1.002271e-01 5.648622e-02 7.863785e-02 4.648732e-02 1.088035e-01 -6.709688e-02 5.531085e-02 -2.424745e-01 -1.187112e-02 1.298039e-01 5.019612e-02 4.280505e-02 -1.679436e-02 -1.131137e-01 -5.594725e-02 -1.101637e-02 1.393307e-02 2.892707e-02 -4.351671e-02 5.848948e-04 -8.659135e-02
<VARIANCE> 39
 9.636977e+00 3.158968e+01 4.305825e+01 2.230533e+01 7.986612e+01 9.208493e+01 5.796752e+01 1.050775e+02 5.559097e+01 5.325742e+01 3.963571e+01 4.250178e+01 2.283514e+01 2.831429e-01 8.118716e-01 4.971087e-01 6.825184e-01 1.176739e+00 1.310438e+00 1.191694e+00 1.415012e+00 1.551962e+00 1.409829e+00 1.290533e+00 1.059760e+00 3.831062e-01 5.498653e-02 8.402928e-02 8.989447e-02 1.241948e-01 2.134777e-01 2.342343e-01 2.130581e-01 2.240199e-01 2.866553e-01 2.401814e-01 2.032156e-01 1.879413e-01 3.878588e-02
<GCONST> 9.387177e+01
<STATE> 3
<MEAN> 39
 3.402494e+00 1.404944e+00 -8.449831e+00 -2.108862e+01 -1.993237e+01 -1.666351e+00 6.002034e+00 -1.584746e+00 -3.378586e+00 -1.196113e+00 -4.810282e+00 -3.544736e+00 7.050386e+01 -1.658991e-02 7.762626e-01 2.372311e-01 1.427473e-01 -4.193637e-01 -6.179485e-01 -3.585309e-01 1.288817e-01 8.839174e-02 8.618712e-02 -1.194428e-01 -2.266780e-02 -5.694206e-01 -4.406204e-02 -5.917698e-03 1.934280e-03 1.029611e-01 9.944864e-02 -2.493736e-02 -7.694321e-02 4.287809e-06 2.355063e-02 -5.309990e-02 3.321788e-02 -4.252170e-03 -3.101217e-02
<VARIANCE> 39
 8.427737e+00 2.736126e+01 5.835330e+01 2.080217e+01 7.934285e+01 6.686988e+01 4.892976e+01 6.221626e+01 5.847395e+01 4.904255e+01 3.695257e+01 3.473512e+01 1.612447e+01 1.464700e-01 5.836770e-01 5.466254e-01 6.607468e-01 9.924452e-01 1.105691e+00 1.259893e+00 1.272388e+00 1.308611e+00 1.196028e+00 1.101339e+00 9.054216e-01 2.368184e-01 2.502340e-02 7.967088e-02 8.538138e-02 1.052917e-01 1.855684e-01 1.745339e-01 2.109899e-01 2.020454e-01 2.044718e-01 2.173534e-01 1.961877e-01 1.563172e-01 2.215299e-02
<GCONST> 8.688522e+01
<STATE> 4
<MEAN> 39
 -8.665682e-01 5.648933e+00 -6.740170e+00 -1.287835e+01 -1.384129e+01 -5.501845e+00 5.271947e-01 2.255123e-01 -2.091014e+00 -2.434485e+00 -3.978400e+00 -2.504818e+00 6.197123e+01 -4.794415e-01 6.649792e-04 1.843665e-01 7.408929e-01 6.323223e-01 -1.359825e-02 -2.773095e-01 1.259789e-01 1.362198e-01 6.376414e-02 1.336861e-01 1.352819e-01 -5.680019e-01 -2.604528e-02 -6.824278e-02 -8.144154e-03 9.036317e-03 5.211041e-02 5.522084e-02 2.890135e-02 -1.300432e-02 5.143329e-03 2.513495e-02 2.688679e-02 2.092610e-02 1.805844e-02
<VARIANCE> 39
 1.992659e+01 2.843976e+01 3.531027e+01 4.464518e+01 7.147808e+01 4.009859e+01 3.740520e+01 2.923359e+01 3.485647e+01 4.065492e+01 2.430555e+01 2.698939e+01 3.219258e+01 2.940630e-01 6.127445e-01 6.064883e-01 9.943401e-01 1.283812e+00 1.491452e+00 1.284335e+00 1.341792e+00 1.676944e+00 1.478937e+00 1.417457e+00 1.297835e+00 1.991789e-01 3.697300e-02 7.394179e-02 9.211037e-02 1.444749e-01 1.781133e-01 2.134049e-01 2.058275e-01 2.341565e-01 2.936011e-01 2.649377e-01 2.558041e-01 2.247335e-01 1.837183e-02
<GCONST> 9.049994e+01
<TRANSP> 5
 0.000000e+00 1.000000e+00 0.000000e+00 0.000000e+00 0.000000e+00
 0.000000e+00 9.107095e-01 8.929052e-02 0.000000e+00 0.000000e+00
 0.000000e+00 0.000000e+00 8.370851e-01 1.629149e-01 0.000000e+00
 0.000000e+00 0.000000e+00 0.000000e+00 9.449707e-01 5.502928e-02
 0.000000e+00 0.000000e+00 0.000000e+00 0.000000e+00 0.000000e+00
<ENDHMM>
~h "au"
<BEGINHMM>
<NUMSTATES> 5
<STATE> 2
<MEAN> 39
 1.442139e+00 -4.409592e+00 -9.855668e+00 -1.055068e+01 -1.098265e+01 -7.880867e+00 -3.746054e+00 -7.037179e+00 -1.011476e+00 2.194710e+00 1.591376e+00 -4.385852e+00 7.346915e+01 1.155698e-01 6.734954e-01 2.131045e-01 3.509083e-01 -2.901648e-01 -3.061610e-01 -3.324085e-01 -6.255546e-01 -3.006136e-01 -2.583697e-01 2.778617e-01 3.155492e-01 -4.258465e-01 -7.841557e-02 2.689823e-01 1.552030e-01 1.496488e-01 1.499156e-01 2.966326e-02 -4.993800e-02 -5.334057e-02 -1.677068e-01 -2.757621e-01 -1.079823e-01 6.492133e-02 -2.088579e-01
<VARIANCE> 39
 8.817184e+00 3.793476e+01 2.768170e+01 4.164758e+01 4.602148e+01 5.298793e+01 7.145287e+01 6.350279e+01 6.045531e+01 5.818309e+01 5.379005e+01 6.724791e+01 2.631693e+01 3.321912e-01 1.333766e+00 8.677009e-01 1.209776e+00 1.535964e+00 2.377923e+00 2.433491e+00 2.768429e+00 2.878160e+00 2.520583e+00 2.149469e+00 1.606671e+00 5.067182e-01 9.346707e-02 1.614179e-01 1.693723e-01 2.141374e-01 2.765249e-01 3.851153e-01 4.422168e-01 4.690818e-01 4.722227e-01 4.205939e-01 3.642404e-01 3.159917e-01 5.431402e-02
<GCONST> 1.073523e+02
<STATE> 3
<MEAN> 39
 1.976809e+00 -7.120651e-01 -8.243191e+00 -8.675954e+00 -1.142017e+01 -8.445948e+00 -4.696371e+00 -8.877838e+00 -2.230360e+00 4.728136e-01 1.346236e+00 -3.141342e+00 7.079439e+01 4.329986e-02 1.021634e+00 5.221485e-01 5.914661e-01 4.834483e-03 -1.228297e-01 -2.693213e-01 -3.556754e-01 -6.023939e-01 -7.884950e-01 -1.149662e-01 3.162573e-01 -7.308304e-01 -3.017389e-02 4.925014e-02 8.183330e-02 6.513160e-02 1.126262e-01 7.972851e-02 1.312102e-02 1.156182e-01 -7.047930e-02 -9.917124e-02 -8.822811e-02 -1.714581e-02 -9.090289e-02
<VARIANCE> 39
 8.053288e+00 4.623023e+01 2.845507e+01 4.411539e+01 4.626587e+01 5.833002e+01 7.701054e+01 6.762329e+01 6.898136e+01 6.608504e+01 5.177797e+01 6.340501e+01 2.119285e+01 2.277618e-01 8.191261e-01 7.477193e-01 1.155333e+00 1.405028e+00 2.201663e+00 1.964362e+00 2.804315e+00 2.537117e+00 2.587532e+00 2.086495e+00 1.828859e+00 3.412836e-01 3.883839e-02 1.286372e-01 1.254043e-01 1.865297e-01 2.322071e-01 3.221993e-01 3.504916e-01 4.447629e-01 4.658042e-01 4.192359e-01 3.333926e-01 2.997293e-01 3.656529e-02
<GCONST> 1.031705e+02
<STATE> 4
<MEAN> 39
 3.730964e-01 4.658121e+00 -4.382020e+00 -4.105998e+00 -8.663381e+00 -7.971122e+00 -6.034040e+00 -8.285634e+00 -5.482110e+00 -4.258261e+00 -6.728040e-01 -1.974108e+00 6.488238e+01 -2.661358e-01 3.724658e-01 3.554855e-01 4.469910e-01 3.952941e-01 1.865039e-01 5.042183e-02 2.210245e-01 -2.052686e-01 -3.240485e-01 -2.377191e-01 8.495747e-02 -6.285342e-01 -3.207619e-02 -9.028532e-02 -4.602965e-02 -4.758513e-02 3.339937e-02 4.119180e-02 4.304797e-02 4.896198e-02 5.817854e-02 8.033990e-02 1.890039e-02 -5.853627e-03 2.375268e-02
<VARIANCE> 39
 1.295757e+01 4.389289e+01 2.843053e+01 3.897961e+01 5.099378e+01 5.119724e+01 6.409921e+01 5.056590e+01 5.265493e+01 5.107517e+01 3.656456e+01 3.633369e+01 3.155342e+01 2.816688e-01 8.408271e-01 7.270434e-01 1.033908e+00 1.344592e+00 1.548106e+00 1.691794e+00 1.896925e+00 1.965146e+00 1.845885e+00 1.584150e+00 1.485186e+00 2.857897e-01 3.741795e-02 9.326068e-02 1.106764e-01 1.608779e-01 2.192923e-01 2.335851e-01 2.594869e-01 3.154944e-01 3.084889e-01 3.005315e-01 2.474546e-01 2.410138e-01 2.779271e-02
<GCONST> 9.664662e+01
<TRANSP> 5
 0.000000e+00 1.000000e+00 0.000000e+00 0.000000e+00 0.000000e+00
 0.000000e+00 6.635227e-01 3.364773e-01 0.000000e+00 0.000000e+00
 0.000000e+00 0.000000e+00 6.900484e-01 3.099516e-01 0.000000e+00
 0.000000e+00 0.000000e+00 0.000000e+00 8.888243e-01 1.111757e-01
 0.000000e+00 0.000000e+00 0.000000e+00 0.000000e+00 0.000000e+00
<ENDHMM>
~h "ee"
<BEGINHMM>
<NUMSTATES> 5
<STATE> 2
<MEAN> 39
 -4.205546e+00 -1.476756e+00 6.588052e+00 -3.795630e+00 -2.044607e+01 -2.001727e+01 -5.028876e+00 -9.342836e+00 -7.022605e+00 -5.582942e+00 2.154464e+00 -2.426146e+00 7.520903e+01 1.322927e-02 -8.485731e-02 -3.696866e-02 -4.952444e-02 -4.638444e-02 -8.661583e-03 -1.320453e-02 7.716585e-02 6.896429e-02 -3.863755e-02 4.515501e-02 -2.182555e-02 -9.187865e-02 -1.766093e-02 3.422029e-02 -2.580943e-02 1.818432e-02 8.649281e-02 4.762886e-02 3.027275e-02 3.300567e-02 1.680136e-02 -6.750619e-03 -5.218745e-02 -1.942118e-02 -5.946742e-02
<VARIANCE> 39
 8.032442e+00 2.305417e+01 3.999334e+01 5.642777e+01 6.051401e+01 7.187667e+01 4.302024e+01 3.699404e+01 3.226612e+01 4.324204e+01 4.517929e+01 6.538988e+01 1.562845e+01 1.197680e-01 3.722664e-01 4.230639e-01 5.606372e-01 8.324877e-01 7.359256e-01 8.327716e-01 7.904788e-01 7.863490e-01 7.879403e-01 8.549585e-01 6.779240e-01 1.684636e-01 3.048773e-02 6.723159e-02 7.830544e-02 1.005205e-01 1.707929e-01 1.499126e-01 1.672782e-01 1.587645e-01 1.508046e-01 1.571598e-01 1.520537e-01 1.258765e-01 2.710181e-02
<GCONST> 8.045452e+01
<STATE> 3
<MEAN> 39
 -3.059698e+00 -1.162271e+00 4.990336e+00 -2.999215e+00 -1.890664e+01 -1.913684e+01 -5.320641e+00 -7.409804e+00 -5.266846e+00 -5.947643e+00 -5.501482e-02 -2.598121e+00 7.203955e+01 1.337315e-01 2.465044e-01 -2.705271e-01 1.982515e-01 4.694971e-01 2.533288e-01 -4.375476e-02 2.011704e-01 5.242576e-02 -8.744009e-02 -3.030147e-01 -1.147946e-01 -5.947060e-01 -1.420384e-02 7.375336e-02 -4.004004e-02 3.408420e-02 1.024427e-01 6.186891e-02 2.709929e-03 1.824864e-02 -3.531431e-02 -7.516708e-03 -1.505913e-02 -1.780917e-02 -8.669568e-02
<VARIANCE> 39
 1.057026e+01 2.401562e+01 3.989318e+01 4.524543e+01 7.565318e+01 7.112565e+01 3.858268e+01 3.737540e+01 5.268401e+01 4.393830e+01 5.325315e+01 6.101692e+01 1.500899e+01 2.496487e-01 6.444622e-01 6.256175e-01 1.034703e+00 1.521040e+00 1.028439e+00 1.706726e+00 1.146862e+00 1.691273e+00 1.519067e+00 1.653286e+00 1.174495e+00 3.488741e-01 3.612640e-02 1.033721e-01 1.108806e-01 1.798414e-01 2.457667e-01 1.765251e-01 2.995728e-01 2.233599e-01 3.212625e-01 2.674213e-01 2.652380e-01 2.086435e-01 4.733066e-02
<GCONST> 9.478342e+01
<STATE> 4
<MEAN> 39
 -4.576665e+00 2.460721e-01 1.997790e+00 -1.653553e+00 -1.327751e+01 -1.466074e+01 -3.794692e+00 -4.499652e+00 -5.639283e+00 -5.251492e+00 -1.269525e+00 -2.131171e+00 6.482598e+01 -1.897840e-01 1.417563e-01 -4.520438e-01 1.972590e-01 8.251952e-01 6.621045e-01 8.022588e-02 3.576446e-01 1.757926e-01 1.900036e-01 -1.349607e-01 1.828055e-01 -8.073754e-01 -2.167843e-02 -3.080155e-02 -2.760918e-02 -2.902994e-02 2.709009e-02 3.349633e-02 -9.563341e-03 3.068351e-03 3.062657e-02 5.004443e-02 5.471760e-02 2.507609e-02 2.270857e-02
<VARIANCE> 39
 1.448474e+01 2.423285e+01 3.263493e+01 3.519851e+01 6.729480e+01 8.032545e+01 3.931170e+01 3.498590e+01 4.551178e+01 5.350524e+01 3.766132e+01 5.209183e+01 3.123194e+01 2.818933e-01 7.106631e-01 6.470095e-01 9.269414e-01 1.442823e+00 1.582518e+00 1.565937e+00 1.652269e+00 1.844277e+00 1.889572e+00 1.795454e+00 1.686516e+00 4.198358e-01 3.648663e-02 1.096328e-01 1.051874e-01 1.533087e-01 2.122425e-01 2.323878e-01 2.683243e-01 2.859101e-01 3.638537e-01 3.340279e-01 3.034520e-01 3.016281e-01 4.712455e-02
<GCONST> 9.759321e+01
<TRANSP> 5
 0.000000e+00 1.000000e+00 0.000000e+00 0.000000e+00 0.000000e+00
 0.000000e+00 9.374175e-01 6.258248e-02 0.000000e+00 0.000000e+00
 0.000000e+00 0.000000e+00 7.630745e-01 2.369255e-01 0.000000e+00
 0.000000e+00 0.000000e+00 0.000000e+00 8.835146e-01 1.164853e-01
 0.000000e+00 0.000000e+00 0.000000e+00 0.000000e+00 0.000000e+00
<ENDHMM>
~h "ei"
<BEGINHMM>
<NUMSTATES> 5
<STATE> 2
<MEAN> 39
 -3.355011e+00 -5.419591e+00 1.921121e+00 -5.531463e+00 -1.832900e+01 -1.951737e+01 -4.308570e+00 -2.088905e+00 -3.258215e+00 -6.210359e+00 9.912743e-02 -3.024539e+00 7.517983e+01 -1.087677e-01 5.134943e-01 6.682354e-01 2.239078e-01 -3.650738e-01 -8.565670e-02 -1.181781e-03 -6.453867e-01 -5.899600e-01 -3.997482e-02 3.446640e-01 -3.324592e-03 -3.345970e-01 1.787245e-04 9.977682e-02 7.778406e-03 6.211733e-02 8.444989e-02 9.016738e-02 1.189316e-02 -8.816236e-02 -3.697748e-02 -4.958449e-03 -5.236082e-02 -5.054159e-02 -8.838025e-02
<VARIANCE> 39
 8.488482e+00 2.871286e+01 5.030549e+01 5.092751e+01 6.512863e+01 8.625052e+01 3.924584e+01 6.742931e+01 5.765809e+01 5.195046e+01 4.428054e+01 4.879132e+01 1.869650e+01 1.608364e-01 5.166343e-01 6.222060e-01 8.189908e-01 1.014194e+00 1.137200e+00 1.172351e+00 1.623767e+00 1.167848e+00 1.314572e+00 1.179322e+00 1.069211e+00 2.206872e-01 3.031328e-02 7.115095e-02 1.007408e-01 1.450281e-01 1.660766e-01 1.756902e-01 2.139962e-01 2.417917e-01 1.893614e-01 2.048474e-01 1.871287e-01 1.846614e-01 2.732358e-02
<GCONST> 8.984581e+01
<STATE> 3
<MEAN> 39
 -4.419724e+00 1.779856e+00 9.113415e+00 -1.884832e+00 -1.891924e+01 -1.718118e+01 -3.200729e+00 -9.357010e+00 -8.485246e+00 -5.003859e+00 9.605931e-01 -2.936535e+00 7.090189e+01 -1.508731e-01 6.788063e-01 4.046682e-01 2.919309e-01 3.291308e-01 5.705773e-01 8.960366e-02 -4.085551e-01 -4.028497e-01 -7.997131e-02 -2.171832e-01 -2.454697e-01 -6.823076e-01 -3.340562e-03 -3.122185e-02 -9.542920e-02 -3.802043e-03 1.139549e-01 2.994344e-02 4.969410e-03 9.852634e-02 7.133445e-02 -1.444050e-02 -4.283110e-02 1.705811e-02 -3.935418e-02
<VARIANCE> 39
 1.028005e+01 2.604453e+01 4.163328e+01 5.366517e+01 5.992203e+01 7.974815e+01 3.504697e+01 4.025108e+01 4.303476e+01 5.286149e+01 3.460593e+01 4.276402e+01 1.796322e+01 1.420195e-01 3.783573e-01 6.185808e-01 7.341582e-01 8.945449e-01 9.865452e-01 9.257364e-01 1.362189e+00 1.053302e+00 1.007506e+00 1.093228e+00 8.945836e-01 1.842504e-01 2.349253e-02 5.634192e-02 9.509376e-02 1.152953e-01 1.546518e-01 1.726800e-01 1.649471e-01 2.300231e-01 1.696465e-01 1.833361e-01 1.655445e-01 1.537201e-01 1.579903e-02
<GCONST> 8.403537e+01
<STATE> 4
<MEAN> 39
 -6.456537e+00 4.239673e+00 5.678385e+00 2.979463e-01 -1.044527e+01 -8.539884e+00 -1.767381e+00 -7.777497e+00 -7.532204e+00 -4.963960e+00 -1.439701e+00 -3.576253e+00 6.244182e+01 -2.133273e-01 -5.780785e-02 -5.204988e-01 1.385292e-01 8.074371e-01 6.509852e-01 1.816776e-01 3.836778e-01 2.138650e-01 1.991756e-01 -9.242979e-02 1.941636e-01 -6.693374e-01 -1.647136e-02 -7.914360e-02 -6.394457e-02 -3.405645e-02 1.830656e-03 1.066539e-03 1.783545e-02 6.705615e-02 4.909688e-02 4.443733e-02 3.940765e-02 3.141812e-02 2.104401e-02
<VARIANCE> 39
 1.024087e+01 3.006926e+01 5.774682e+01 3.043913e+01 6.614653e+01 5.796636e+01 4.011728e+01 4.337884e+01 3.711850e+01 3.856997e+01 2.571055e+01 3.139890e+01 2.835292e+01 2.127520e-01 6.014075e-01 8.603699e-01 8.576924e-01 1.418214e+00 1.333356e+00 1.512605e+00 1.867141e+00 1.266633e+00 1.479042e+00 1.410918e+00 1.179533e+00 2.964878e-01 3.716367e-02 8.334656e-02 1.242353e-01 1.347878e-01 2.296320e-01 2.279813e-01 2.869078e-01 3.107477e-01 2.206880e-01 2.504827e-01 2.406648e-01 2.139323e-01 2.846958e-02
<GCONST> 9.247938e+01
<TRANSP> 5
 0.000000e+00 1.000000e+00 0.000000e+00 0.000000e+00 0.000000e+00
 0.000000e+00 9.039694e-01 9.603062e-02 0.000000e+00 0.000000e+00
 0.000000e+00 0.000000e+00 8.513247e-01 1.486754e-01 0.000000e+00
 0.000000e+00 0.000000e+00 0.000000e+00 9.296013e-01 7.039867e-02
 0.000000e+00 0.000000e+00 0.000000e+00 0.000000e+00 0.000000e+00
<ENDHMM>
~h "ii"
<BEGINHMM>
<NUMSTATES> 5
<STATE> 2
<MEAN> 39
 -5.640050e+00 9.931989e-01 8.574653e+00 4.008067e-01 -1.794408e+01 -1.566513e+01 -4.216602e+00 -1.127062e+01 -9.080617e+00 -9.394090e+00 -2.083261e-01 -4.742500e+00 7.139305e+01 7.724100e-01 -1.157717e-02 -5.307860e-01 1.235568e-01 9.147678e-02 5.546698e-02 -2.674008e-01 -2.575994e-02 -8.508473e-02 5.609416e-02 -2.215907e-03 2.028228e-01 -3.991539e-01 -1.973928e-01 6.469037e-02 -2.545770e-01 -1.860607e-01 5.529014e-01 4.130926e-01 9.539802e-02 1.920546e-01 6.539354e-02 1.405139e-01 -7.171401e-02 5.112915e-02 -1.924955e-01
<VARIANCE> 39
 1.502435e+01 3.253138e+01 5.342566e+01 4.662324e+01 7.131006e+01 5.562717e+01 5.781911e+01 4.795322e+01 3.738966e+01 4.550108e+01 3.859172e+01 3.634648e+01 2.259296e+01 1.110982e+00 1.072950e+00 2.117396e+00 1.417835e+00 3.728668e+00 3.053649e+00 2.582047e+00 2.263820e+00 1.886458e+00 1.882830e+00 1.881360e+00 1.502737e+00 6.260716e-01 1.875241e-01 2.415608e-01 3.200868e-01 3.143231e-01 5.646377e-01 5.769582e-01 5.508449e-01 4.807905e-01 4.346779e-01 3.788939e-01 3.545364e-01 3.143591e-01 8.274691e-02
<GCONST> 1.126862e+02
<STATE> 3
<MEAN> 39
 -2.904071e+00 3.230243e+00 5.979731e+00 -8.568226e-01 -1.342305e+01 -1.243782e+01 -5.350525e+00 -1.031851e+01 -9.791324e+00 -7.916729e+00 -1.727884e+00 -3.982430e+00 6.827905e+01 4.078117e-01 6.382558e-01 -5.193600e-01 -4.265298e-01 1.062589e+00 1.094918e+00 3.169678e-01 7.222797e-02 -5.037777e-01 6.082364e-02 -1.345242e-01 1.440189e-01 -7.860220e-01 -1.684475e-01 -4.159060e-02 5.858970e-02 -1.769513e-05 -9.513963e-02 9.439126e-03 2.205740e-01 -3.258992e-02 1.289270e-02 -5.934496e-02 1.133671e-02 9.039475e-03 8.321594e-02
<VARIANCE> 39
 1.581407e+01 2.781439e+01 6.726241e+01 4.476928e+01 5.158915e+01 5.751726e+01 5.476029e+01 4.162454e+01 3.447106e+01 3.869659e+01 2.995342e+01 3.507738e+01 2.815055e+01 5.344724e-01 8.660953e-01 1.265313e+00 1.552745e+00 2.228689e+00 2.518353e+00 2.504526e+00 1.675615e+00 2.026752e+00 1.929895e+00 1.555867e+00 1.306077e+00 5.458809e-01 7.878307e-02 1.646373e-01 2.290909e-01 2.226764e-01 3.608439e-01 3.732789e-01 3.799620e-01 3.362893e-01 3.483896e-01 3.151524e-01 2.796662e-01 2.249905e-01 9.963499e-02
<GCONST> 1.048593e+02
<STATE> 4
<MEAN> 39
 -5.579878e+00 6.072878e+00 7.804693e+00 -9.433878e-01 -9.252298e+00 -1.032384e+01 -2.385654e+00 -1.007009e+01 -9.516573e+00 -6.043309e+00 -3.000370e+00 -3.866610e+00 6.545159e+01 -4.405466e-02 -7.126260e-02 -4.561723e-01 2.244638e-02 4.190441e-01 3.942667e-01 1.918747e-01 2.421103e-01 1.042190e-01 7.943226e-02 -3.112319e-02 1.711338e-01 -4.089721e-01 -1.624840e-02 -9.795865e-02 -7.088953e-02 -4.518710e-02 -6.626397e-02 -7.877180e-03 1.738779e-04 1.905657e-02 8.224856e-02 4.980554e-02 1.192906e-02 -2.220219e-03 6.197499e-02
<VARIANCE> 39
 2.269258e+01 2.392473e+01 7.112645e+01 4.796264e+01 5.142857e+01 5.779919e+01 5.373932e+01 4.056426e+01 2.949353e+01 3.117553e+01 3.555458e+01 3.590436e+01 3.454969e+01 2.659939e-01 5.419358e-01 8.255249e-01 8.099956e-01 1.070103e+00 1.166492e+00 1.246081e+00 1.264258e+00 1.349989e+00 1.301948e+00 1.317414e+00 1.178377e+00 2.500691e-01 4.077196e-02 9.352017e-02 1.329766e-01 1.508727e-01 1.974985e-01 2.062051e-01 2.321269e-01 2.231023e-01 2.540067e-01 2.474515e-01 2.439291e-01 2.217536e-01 4.722841e-02
<GCONST> 9.288952e+01
<TRANSP> 5
 0.000000e+00 1.000000e+00 0.000000e+00 0.000000e+00 0.000000e+00
 0.000000e+00 7.538720e-01 2.461279e-01 0.000000e+00 0.000000e+00
 0.000000e+00 0.000000e+00 5.697556e-01 4.302445e-01 0.000000e+00
 0.000000e+00 0.000000e+00 0.000000e+00 9.013878e-01 9.861224e-02
 0.000000e+00 0.000000e+00 0.000000e+00 0.000000e+00 0.000000e+00
<ENDHMM>
~h "oe"
<BEGINHMM>
<NUMSTATES> 5
<STATE> 2
<MEAN> 39
 7.838368e-01 -2.090931e+00 -6.169554e+00 -1.136395e+01 -1.416663e+01 -1.162789e+01 -7.737900e+00 -1.145553e+01 -2.344955e+00 -7.925577e-01 1.262802e+00 4.516740e-01 7.296893e+01 -3.884355e-01 -8.507788e-01 5.715235e-01 1.490834e+00 4.922917e-01 -1.346624e+00 -1.114732e+00 4.346357e-01 8.656453e-01 7.834184e-02 5.385701e-02 -1.507673e-01 2.051092e-01 -8.458392e-02 1.282208e-01 1.890660e-01 8.300481e-02 -7.522362e-02 -7.684002e-02 1.623212e-01 2.465688e-01 -3.677457e-02 -2.002280e-01 -1.311491e-01 -4.815947e-03 -1.541860e-01
<VARIANCE> 39
 1.414279e+01 3.818689e+01 4.829187e+01 6.330941e+01 5.588458e+01 6.900156e+01 7.177929e+01 5.564066e+01 5.961999e+01 5.779629e+01 5.361084e+01 4.381632e+01 2.166195e+01 6.038716e-01 1.542327e+00 1.887848e+00 2.426661e+00 3.032853e+00 3.826182e+00 5.038728e+00 4.042994e+00 4.554368e+00 4.686244e+00 4.192829e+00 3.303377e+00 8.007563e-01 9.510248e-02 2.446176e-01 2.541542e-01 4.179378e-01 5.911912e-01 6.872471e-01 9.777189e-01 6.965765e-01 9.643736e-01 9.007140e-01 8.092151e-01 6.887141e-01 7.622704e-02
<GCONST> 1.233222e+02
<STATE> 3
<MEAN> 39
 -1.652057e+00 -4.101599e+00 -4.558239e-01 -2.785960e+00 -1.374120e+01 -1.941812e+01 -1.041852e+01 -5.882787e+00 7.820094e-02 -3.547910e+00 -5.461679e-01 4.744743e-02 7.144299e+01 -4.071425e-01 5.026504e-01 7.547185e-01 7.061016e-01 -2.459214e-02 -3.706084e-01 4.536948e-01 8.032842e-01 -4.205092e-01 -6.528618e-01 -2.475646e-02 3.257960e-01 -9.571306e-01 1.301350e-02 1.528303e-01 -2.529022e-01 -2.043134e-01 1.638614e-01 4.341907e-01 7.624783e-02 -2.581093e-01 -9.731922e-02 2.909751e-01 1.749222e-01 -2.985936e-02 -1.801223e-01
<VARIANCE> 39
 1.274376e+01 2.839753e+01 5.392308e+01 4.338014e+01 6.107428e+01 5.670264e+01 4.382814e+01 4.286159e+01 3.839126e+01 5.836548e+01 4.105317e+01 2.885841e+01 2.977612e+01 4.324931e-01 1.074081e+00 1.739913e+00 1.453213e+00 2.463853e+00 3.413265e+00 2.447749e+00 2.814611e+00 2.623456e+00 2.670801e+00 2.412802e+00 1.838929e+00 1.300039e+00 7.709055e-02 1.908410e-01 2.440217e-01 2.465082e-01 3.986849e-01 4.703342e-01 4.543402e-01 4.740229e-01 4.997434e-01 5.061737e-01 4.036270e-01 3.666040e-01 1.117274e-01
<GCONST> 1.114031e+02
<STATE> 4
<MEAN> 39
 -4.549636e+00 -3.053956e-01 3.273628e-01 -7.429559e-01 -1.142711e+01 -1.624391e+01 -6.712985e+00 -3.695843e+00 -2.489624e+00 -3.939972e+00 6.371988e-01 3.110284e-01 6.445194e+01 -4.650942e-01 2.645489e-01 -9.473449e-02 1.743687e-01 4.758207e-01 7.848904e-01 3.778728e-01 1.531357e-01 -1.183250e-02 1.846384e-01 4.531864e-02 5.446871e-02 -8.665974e-01 -1.420070e-02 -7.510773e-02 -6.608816e-02 -6.515330e-02 6.192156e-02 9.464866e-02 -1.859942e-02 -1.216747e-02 6.562102e-02 3.289440e-02 -2.100143e-02 -2.408365e-02 8.134759e-02
<VARIANCE> 39
 1.670045e+01 2.483191e+01 3.331989e+01 3.143141e+01 5.469822e+01 5.731969e+01 4.346125e+01 4.147031e+01 3.738127e+01 4.297789e+01 2.936393e+01 2.610599e+01 4.735773e+01 3.643392e-01 8.489290e-01 9.484343e-01 1.018541e+00 1.533933e+00 2.058548e+00 1.520729e+00 1.590772e+00 1.571736e+00 1.703870e+00 1.531797e+00 1.401914e+00 7.009017e-01 6.223145e-02 1.325040e-01 1.489557e-01 1.760148e-01 2.611725e-01 2.989733e-01 2.728428e-01 3.141735e-01 2.962192e-01 3.052226e-01 2.850306e-01 2.752507e-01 1.032041e-01
<GCONST> 9.964117e+01
<TRANSP> 5
 0.000000e+00 1.000000e+00 0.000000e+00 0.000000e+00 0.000000e+00
 0.000000e+00 8.712901e-01 1.287099e-01 0.000000e+00 0.000000e+00
 0.000000e+00 0.000000e+00 6.898498e-01 3.101503e-01 0.000000e+00
 0.000000e+00 0.000000e+00 0.000000e+00 9.099412e-01 9.005883e-02
 0.000000e+00 0.000000e+00 0.000000e+00 0.000000e+00 0.000000e+00
<ENDHMM>
~h "oi"
<BEGINHMM>
<NUMSTATES> 5
<STATE> 2
<MEAN> 39
 1.429178e+00 5.567908e-02 -5.026649e+00 -9.940866e+00 -1.290669e+01 -1.133702e+01 -7.791021e+00 -1.245080e+01 -5.310644e+00 -3.817376e+00 5.601359e-01 -1.068470e-01 7.172794e+01 -5.213151e-01 -6.156268e-01 8.185735e-01 1.823275e+00 4.819622e-01 -1.185091e+00 -7.711323e-01 7.434672e-02 2.128541e-01 -1.183786e-01 2.224618e-01 -4.100723e-01 6.640756e-02 -8.984379e-02 1.118353e-01 2.043243e-01 1.081344e-01 -8.861243e-02 -7.916123e-02 2.143579e-01 2.231583e-01 -3.482340e-02 -1.819278e-01 -1.426588e-01 -3.153181e-02 -1.046006e-01
<VARIANCE> 39
 1.536084e+01 3.541670e+01 5.108178e+01 1.049863e+02 7.516404e+01 9.901385e+01 8.219266e+01 5.352318e+01 5.838942e+01 6.059283e+01 5.387576e+01 5.082484e+01 2.146722e+01 4.783789e-01 1.524912e+00 3.098777e+00 4.555661e+00 4.232891e+00 6.317482e+00 6.274893e+00 4.789089e+00 5.720088e+00 5.983858e+00 5.090631e+00 3.859789e+00 5.357778e-01 8.339418e-02 2.384510e-01 4.043034e-01 7.914069e-01 8.526352e-01 1.245122e+00 1.237372e+00 9.190526e-01 1.221907e+00 1.148487e+00 1.028775e+00 8.647617e-01 5.299689e-02
<GCONST> 1.303441e+02
<STATE> 3
<MEAN> 39
 -2.857434e+00 -2.779346e-01 3.425020e+00 1.390348e+00 -1.072962e+01 -1.805050e+01 -7.293375e+00 -1.000994e+01 -5.902905e+00 -7.138047e+00 -6.529149e-01 -2.111887e+00 7.057005e+01 -4.193151e-01 4.842736e-01 3.426704e-01 7.111612e-02 2.442829e-01 8.114055e-01 7.910683e-01 3.298289e-01 -4.893411e-01 -1.328530e-01 7.034971e-02 1.428873e-01 -6.695684e-01 6.284032e-02 8.225070e-02 -3.364246e-01 -3.595972e-01 1.257287e-01 3.784140e-01 2.234826e-03 -1.196697e-01 8.062701e-02 2.368298e-01 1.941362e-02 -8.093974e-03 -6.807713e-02
<VARIANCE> 39
 1.368962e+01 2.849710e+01 6.305323e+01 4.998136e+01 9.917995e+01 7.930150e+01 4.907600e+01 5.476402e+01 7.211903e+01 5.008649e+01 4.344365e+01 4.753344e+01 2.385034e+01 4.138031e-01 1.039990e+00 3.453308e+00 3.130577e+00 4.056843e+00 5.198557e+00 3.694740e+00 3.264701e+00 3.300574e+00 4.066236e+00 2.854247e+00 2.242253e+00 2.977609e-01 5.332198e-02 1.818629e-01 2.656320e-01 3.657614e-01 6.598310e-01 7.303538e-01 7.344458e-01 6.151267e-01 6.818351e-01 7.710253e-01 5.446683e-01 4.743876e-01 3.312880e-02
<GCONST> 1.179850e+02
<STATE> 4
<MEAN> 39
 -4.810972e+00 2.173388e+00 3.376619e+00 4.974508e-02 -1.068819e+01 -1.196602e+01 -4.146142e+00 -8.273431e+00 -7.100821e+00 -6.054546e+00 -7.323691e-01 -2.851169e+00 6.413574e+01 -3.292465e-01 1.481134e-01 -3.009688e-01 -1.435084e-01 6.344275e-01 8.080280e-01 3.575898e-01 2.877426e-01 1.849375e-01 2.795535e-01 -1.580544e-01 1.083068e-01 -6.934016e-01 2.367855e-02 -6.127635e-02 -9.968850e-02 -3.648495e-02 2.711902e-02 -1.112109e-02 -5.066314e-02 6.017961e-02 9.141617e-02 4.182182e-02 1.216375e-02 -1.413181e-03 2.014784e-02
<VARIANCE> 39
 1.408423e+01 2.425082e+01 4.572871e+01 3.803704e+01 7.435717e+01 6.439218e+01 4.418487e+01 3.688596e+01 3.866421e+01 4.050032e+01 2.702242e+01 4.360894e+01 3.053252e+01 3.162939e-01 9.106627e-01 1.404052e+00 1.349148e+00 1.979612e+00 1.793782e+00 2.043218e+00 2.179650e+00 2.014488e+00 1.705984e+00 1.533352e+00 1.769178e+00 2.830907e-01 5.202438e-02 1.270117e-01 1.792357e-01 1.878788e-01 3.122037e-01 3.400835e-01 3.641632e-01 4.027129e-01 3.477871e-01 3.247728e-01 2.828963e-01 3.229492e-01 2.757804e-02
<GCONST> 1.010773e+02
<TRANSP> 5
 0.000000e+00 1.000000e+00 0.000000e+00 0.000000e+00 0.000000e+00
 0.000000e+00 8.897974e-01 1.102026e-01 0.000000e+00 0.000000e+00
 0.000000e+00 0.000000e+00 7.342931e-01 2.657068e-01 0.000000e+00
 0.000000e+00 0.000000e+00 0.000000e+00 9.101513e-01 8.984867e-02
 0.000000e+00 0.000000e+00 0.000000e+00 0.000000e+00 0.000000e+00
<ENDHMM>
~h "oo"
<BEGINHMM>
<NUMSTATES> 5
<STATE> 2
<MEAN> 39
 3.559180e+00 1.070107e+01 -1.678484e+00 -1.427607e+01 -2.064613e+01 -1.307033e+01 -4.101510e+00 -6.544595e+00 -1.958698e+00 -9.142448e-01 -3.280913e+00 -4.943821e+00 6.675581e+01 3.340530e-01 -9.326081e-02 -8.648469e-02 -2.206127e-01 -7.060249e-01 -8.435366e-02 4.288830e-01 -1.072764e-02 -4.360283e-01 -3.740913e-02 8.092702e-02 -4.447628e-02 1.654215e-01 -2.821155e-01 -3.446586e-01 -3.083753e-01 1.530692e-01 5.312979e-01 2.931694e-01 2.036324e-01 1.192726e-01 -5.712603e-02 -1.220840e-01 1.571190e-01 2.433400e-01 -5.251347e-02
<VARIANCE> 39
 7.011008e+00 2.444123e+01 4.006623e+01 3.016904e+01 4.329234e+01 3.444580e+01 4.818422e+01 4.289048e+01 3.484772e+01 5.404964e+01 3.394868e+01 2.420681e+01 1.338787e+01 6.489087e-01 1.178626e+00 1.104752e+00 1.255868e+00 3.089622e+00 1.831618e+00 2.747688e+00 2.154838e+00 2.165495e+00 1.881385e+00 1.852928e+00 1.642220e+00 3.650701e-01 1.503075e-01 2.658100e-01 2.252277e-01 2.954626e-01 4.960822e-01 3.499498e-01 4.630297e-01 4.192658e-01 4.018135e-01 3.842362e-01 4.034996e-01 3.400347e-01 4.916081e-02
<GCONST> 1.045997e+02
<STATE> 3
<MEAN> 39
 3.832388e+00 8.083774e+00 -4.807242e+00 -1.354542e+01 -1.950593e+01 -1.092894e+01 2.112770e-01 -5.682516e+00 -6.013840e+00 -4.544678e+00 -2.334893e+00 -3.778684e+00 6.761232e+01 5.411273e-02 -1.016981e+00 -1.022319e+00 8.594763e-01 1.610812e+00 4.731680e-01 1.722608e-01 -3.882586e-01 -1.207134e+00 -4.250067e-01 7.605271e-01 9.768241e-01 1.549292e-01 -1.244480e-01 -1.417717e-01 -5.089216e-02 4.525163e-01 7.715434e-01 6.557351e-02 -5.614880e-01 -2.691356e-01 2.066188e-01 2.577182e-01 1.800765e-01 5.900779e-02 -9.874174e-02
<VARIANCE> 39
 8.144213e+00 3.039773e+01 3.677884e+01 4.063811e+01 5.495667e+01 4.452275e+01 6.144867e+01 4.919835e+01 5.210157e+01 5.062364e+01 3.831493e+01 3.354129e+01 1.667281e+01 3.495772e-01 1.100363e+00 1.374415e+00 1.943627e+00 4.456683e+00 2.819278e+00 4.017473e+00 3.469763e+00 3.357230e+00 3.971370e+00 3.018350e+00 2.863456e+00 3.607369e-01 7.418647e-02 1.645455e-01 2.382723e-01 3.319896e-01 6.756747e-01 5.963542e-01 8.738616e-01 6.695641e-01 6.491945e-01 6.445256e-01 5.876310e-01 5.996357e-01 5.491741e-02
<GCONST> 1.138814e+02
<STATE> 4
<MEAN> 39
 2.566118e+00 6.700325e+00 -5.935081e+00 -1.003208e+01 -1.305515e+01 -9.671518e+00 -3.910543e+00 -7.285460e+00 -5.661716e+00 -2.468246e+00 5.581400e-01 -1.007355e+00 6.597297e+01 -3.711014e-01 -8.216182e-01 -3.888945e-01 1.472418e+00 2.102270e+00 1.439434e-01 -1.002248e+00 -5.912195e-01 4.257977e-02 5.419920e-01 6.460224e-01 2.178411e-01 -1.832868e-01 -1.099893e-01 2.929468e-02 2.367553e-01 1.555245e-01 -9.076467e-02 -1.740519e-01 -1.447860e-01 3.522571e-02 3.322688e-01 1.516261e-01 -1.544232e-01 -2.607059e-01 -3.811799e-02
<VARIANCE> 39
 1.472885e+01 3.493792e+01 3.911304e+01 4.244032e+01 8.804488e+01 4.622232e+01 5.339251e+01 5.171126e+01 5.169105e+01 5.862204e+01 3.072640e+01 3.300674e+01 2.626684e+01 5.253992e-01 9.336734e-01 1.379831e+00 2.194890e+00 5.144472e+00 3.495914e+00 3.756766e+00 3.213778e+00 2.638493e+00 2.835908e+00 2.514739e+00 2.394063e+00 4.027949e-01 8.339575e-02 1.430731e-01 2.469289e-01 2.909500e-01 8.366092e-01 6.651582e-01 6.093404e-01 4.913952e-01 5.708462e-01 5.547817e-01 4.894443e-01 5.272737e-01 6.979690e-02
<GCONST> 1.144308e+02
<TRANSP> 5
 0.000000e+00 1.000000e+00 0.000000e+00 0.000000e+00 0.000000e+00
 0.000000e+00 7.802097e-01 2.197903e-01 0.000000e+00 0.000000e+00
 0.000000e+00 0.000000e+00 6.129355e-01 3.870645e-01 0.000000e+00
 0.000000e+00 0.000000e+00 0.000000e+00 7.109206e-01 2.890794e-01
 0.000000e+00 0.000000e+00 0.000000e+00 0.000000e+00 0.000000e+00
<ENDHMM>
~h "ou"
<BEGINHMM>
<NUMSTATES> 5
<STATE> 2
<MEAN> 39
 3.411533e+00 4.964343e+00 -6.634224e+00 -1.510349e+01 -1.666234e+01 -7.978940e+00 -1.080299e+00 -8.450965e+00 -7.489584e+00 -4.387383e+00 9.680015e-02 1.684275e-01 7.006232e+01 2.044375e-02 2.765359e-01 1.263994e-01 4.559465e-01 3.151274e-02 -1.929523e-01 -4.012581e-01 -3.019393e-01 -3.395884e-01 -3.451074e-01 8.257563e-02 3.224191e-02 -2.567182e-01 -7.250464e-02 3.113750e-02 5.624397e-02 1.773247e-01 1.847911e-01 4.225515e-02 -1.011591e-02 7.454928e-02 5.440268e-02 -3.872916e-02 -7.376368e-02 -5.374528e-02 -1.194131e-01
<VARIANCE> 39
 6.189354e+00 4.296027e+01 3.569150e+01 5.427152e+01 5.576313e+01 5.745215e+01 9.772567e+01 4.908868e+01 5.254898e+01 4.453452e+01 4.774023e+01 4.076577e+01 1.748098e+01 2.281012e-01 8.153833e-01 7.693900e-01 1.294989e+00 1.476926e+00 1.570605e+00 1.606264e+00 1.677129e+00 1.620455e+00 1.683180e+00 1.563645e+00 1.391725e+00 4.033183e-01 5.713060e-02 1.149097e-01 1.218227e-01 1.944622e-01 2.528310e-01 2.682109e-01 2.991016e-01 2.965014e-01 2.819904e-01 2.940516e-01 2.676566e-01 2.408495e-01 4.485832e-02
<GCONST> 9.837127e+01
<STATE> 3
<MEAN> 39
 2.728909e+00 8.734039e+00 -3.966565e+00 -1.184603e+01 -1.509501e+01 -8.484671e+00 -2.704938e+00 -9.098005e+00 -8.651392e+00 -5.834122e+00 -9.277795e-01 -1.042491e+00 6.739474e+01 -1.655719e-01 3.024212e-01 3.004511e-01 7.076204e-01 3.893537e-01 -9.030807e-02 -3.526606e-01 7.747060e-02 -1.106122e-01 -3.466832e-01 -2.068923e-01 -1.294787e-01 -4.984252e-01 -4.464679e-02 -2.627764e-02 9.225010e-03 2.157199e-02 5.556136e-02 4.351175e-02 1.447303e-02 3.946488e-02 4.535045e-02 2.052720e-02 -2.807917e-02 -6.480678e-03 -4.232595e-02
<VARIANCE> 39
 7.756501e+00 4.411776e+01 3.426088e+01 4.868343e+01 5.372697e+01 4.525592e+01 9.169601e+01 5.813362e+01 5.035410e+01 4.534991e+01 5.566322e+01 4.477254e+01 1.723672e+01 1.961754e-01 5.012074e-01 6.492146e-01 1.039874e+00 1.148484e+00 1.291459e+00 1.513356e+00 1.570860e+00 1.257626e+00 1.431985e+00 1.448339e+00 1.351420e+00 3.225745e-01 3.105658e-02 6.879736e-02 9.843352e-02 1.440531e-01 1.699944e-01 1.939524e-01 2.349024e-01 2.412850e-01 2.110716e-01 2.434578e-01 2.311258e-01 2.106504e-01 2.343694e-02
<GCONST> 9.195596e+01
<STATE> 4
<MEAN> 39
 -1.730340e+00 7.208066e+00 -2.375982e+00 -3.334915e+00 -7.311939e+00 -5.867417e+00 -5.103213e+00 -6.081268e+00 -6.049071e+00 -6.089498e+00 -2.673395e+00 -1.871391e+00 6.129084e+01 -4.475011e-01 -1.810514e-01 6.202231e-02 3.521815e-01 5.403680e-01 3.192853e-01 9.861827e-02 2.672443e-01 2.593585e-01 1.660785e-01 -5.706523e-02 2.181918e-02 -5.025527e-01 -2.276664e-02 -5.249931e-02 -3.463805e-02 -5.057744e-02 2.949256e-04 2.688922e-02 4.778950e-02 1.010096e-02 2.803755e-02 5.266764e-02 3.096391e-02 2.512518e-02 2.280775e-02
<VARIANCE> 39
 1.721817e+01 4.554178e+01 2.420649e+01 3.187781e+01 4.067359e+01 3.585643e+01 4.922972e+01 3.999875e+01 3.495202e+01 3.616062e+01 3.062755e+01 2.829815e+01 2.785164e+01 2.793581e-01 5.750861e-01 5.980510e-01 1.004336e+00 1.153665e+00 1.181778e+00 1.470254e+00 1.485659e+00 1.334095e+00 1.421516e+00 1.397424e+00 1.192624e+00 2.402235e-01 3.417736e-02 7.611034e-02 9.922463e-02 1.565202e-01 1.839503e-01 2.029318e-01 2.300773e-01 2.566522e-01 2.318863e-01 2.593404e-01 2.383881e-01 2.142325e-01 2.647363e-02
<GCONST> 8.992058e+01
<TRANSP> 5
 0.000000e+00 1.000000e+00 0.000000e+00 0.000000e+00 0.000000e+00
 0.000000e+00 8.166755e-01 1.833245e-01 0.000000e+00 0.000000e+00
 0.000000e+00 0.000000e+00 8.488753e-01 1.511247e-01 0.000000e+00
 0.000000e+00 0.000000e+00 0.000000e+00 9.298908e-01 7.010919e-02
 0.000000e+00 0.000000e+00 0.000000e+00 0.000000e+00 0.000000e+00
<ENDHMM>
~h "uu"
<BEGINHMM>
<NUMSTATES> 5
<STATE> 2
<MEAN> 39
 -2.888574e+00 2.001688e+00 -1.868216e+00 -2.160364e-01 -7.717667e+00 -1.176354e+01 -8.940653e+00 -1.026422e+01 -4.583973e+00 -6.092430e+00 -3.585607e+00 -2.339500e+00 6.706666e+01 2.013573e+00 1.414014e+00 2.969569e-01 -5.326433e-01 -1.509057e+00 -8.641744e-01 -6.497526e-01 -1.137815e+00 -1.305928e+00 -8.668952e-01 -1.652898e-01 -7.776411e-02 2.342479e-01 -5.095901e-01 -2.122566e-01 -1.898240e-01 -3.044556e-01 -8.409838e-02 1.829309e-01 3.553150e-01 4.412851e-01 2.586961e-01 2.508204e-01 2.392522e-01 1.429473e-01 -3.085155e-02
<VARIANCE> 39
