~o
<STREAMINFO> 1 39
<VECSIZE> 39<NULLD><MFCC_D_A_0><DIAGC>
~s "silst"
<MEAN> 39
 -1.059676e+01 -1.115611e+00 -3.845752e+00 -3.501415e+00 -4.631195e+00 -4.261072e+00 -1.006847e+00 -1.846637e+00 -5.731290e-01 -1.217424e+00 3.949752e-01 -4.824942e-02 6.079560e+01 -2.706322e-01 -8.458331e-01 -5.717604e-01 -8.702601e-01 -4.231003e-01 2.532807e-02 3.065973e-01 -2.597625e-02 1.348848e-01 4.035841e-02 1.159844e-01 -1.012721e-01 1.246342e+00 7.911761e-02 1.557091e-01 7.483570e-02 1.041204e-02 3.700603e-02 8.567889e-02 9.919716e-02 1.298090e-02 1.224896e-02 -1.907269e-04 -8.270589e-02 -3.978017e-02 -8.713278e-02
<VARIANCE> 39
 1.957910e+01 3.862253e+01 3.624238e+01 4.469808e+01 4.425554e+01 6.176140e+01 4.228220e+01 3.765733e+01 3.716710e+01 3.392096e+01 2.633575e+01 2.570717e+01 5.939496e+01 1.580584e+00 2.700758e+00 2.586648e+00 2.943420e+00 4.086993e+00 4.246473e+00 3.157766e+00 3.073255e+00 2.712543e+00 2.863403e+00 2.370862e+00 1.948249e+00 4.537320e+00 2.659306e-01 5.434477e-01 4.195945e-01 5.520083e-01 6.775447e-01 7.299460e-01 6.173390e-01 5.668330e-01 5.220158e-01 5.425836e-01 4.544010e-01 3.874260e-01 7.748333e-01
<GCONST> 1.240187e+02
~h "a"
<BEGINHMM>
<NUMSTATES> 5
<STATE> 2
<MEAN> 39
 7.808381e-01 -4.142285e+00 -1.050473e+01 -1.036770e+01 -4.079503e+00 -4.465260e+00 -2.239624e+00 -5.318868e+00 2.513665e+00 2.325761e+00 -3.795046e+00 -8.576568e+00 7.318196e+01 -8.660486e-01 1.487769e+00 1.323978e+00 1.633889e+00 4.050856e-01 -1.340732e+00 -1.275078e+00 7.598162e-01 6.383680e-01 7.339543e-01 7.715414e-01 2.378711e-01 -1.328159e+00 -2.128912e-01 5.936632e-01 2.492564e-01 1.445355e-01 -1.027574e-01 1.187743e-01 2.130311e-01 4.897510e-03 -3.727214e-01 -4.168124e-01 1.038550e-01 4.134465e-01 -7.851551e-01
<VARIANCE> 39
 6.099382e+00 2.729185e+01 4.192786e+01 3.919628e+01 4.603517e+01 4.180429e+01 3.970804e+01 4.489898e+01 3.777889e+01 6.489138e+01 6.951910e+01 5.889136e+01 1.543947e+01 7.910615e-01 1.943950e+00 1.224638e+00 2.041291e+00 1.654963e+00 2.116511e+00 2.487695e+00 2.103381e+00 2.855906e+00 2.237247e+00 2.612344e+00 2.940891e+00 1.510512e+00 1.055385e-01 4.939153e-01 3.061202e-01 4.944080e-01 4.953154e-01 6.118952e-01 5.091969e-01 3.530068e-01 6.108713e-01 5.296075e-01 7.019287e-01 5.523145e-01 2.385747e-01
<GCONST> 1.154033e+02
<STATE> 3
<MEAN> 39
 -3.715547e+00 1.147267e+00 -6.894578e+00 -7.171773e+00 -3.445865e+00 -6.564250e+00 -3.460931e+00 -4.250853e+00 1.851766e+00 3.719970e+00 2.877532e-01 -4.746360e+00 6.481265e+01 -9.600517e-01 2.067240e-01 5.411119e-01 2.072763e-01 7.726422e-02 2.399968e-01 2.531801e-02 5.453976e-01 -5.281308e-01 -5.051144e-01 2.615899e-01 5.969009e-01 -2.290346e+00 1.575696e-01 -4.067328e-01 -3.360517e-01 -3.088951e-01 -1.512465e-01 2.794696e-01 2.163250e-01 -8.232448e-02 -1.248905e-01 -1.872137e-01 -1.484094e-01 3.107148e-02 1.994403e-01
<VARIANCE> 39
 1.288935e+01 1.769018e+01 3.262231e+01 2.165800e+01 3.608227e+01 2.343944e+01 2.280213e+01 2.859590e+01 2.178145e+01 3.667724e+01 3.605487e+01 4.378319e+01 2.369439e+01 8.629770e-01 1.595831e+00 1.488514e+00 1.734109e+00 2.418265e+00 2.403101e+00 2.492732e+00 2.691738e+00 2.619893e+00 1.374196e+00 1.836860e+00 1.992214e+00 1.360086e+00 1.855460e-01 2.694803e-01 2.603444e-01 4.573666e-01 3.152260e-01 3.770120e-01 4.356707e-01 3.972483e-01 4.702579e-01 3.151233e-01 2.764088e-01 3.828444e-01 2.116245e-01
<GCONST> 1.072017e+02
<STATE> 4
<MEAN> 39
 -5.740186e+00 1.748044e+00 -5.539442e+00 -5.359288e+00 -2.678428e+00 -1.818473e+00 -1.252575e+00 -2.040427e+00 3.108258e-01 1.322210e+00 -6.265581e-01 -2.798577e+00 5.894535e+01 -6.794050e-01 6.333793e-02 5.576446e-02 9.841273e-02 1.678406e-01 2.989254e-01 2.213729e-01 3.068762e-01 3.752442e-02 -3.267277e-01 1.465654e-01 4.423276e-01 -5.961789e-01 -2.035197e-01 3.944939e-03 7.034652e-02 -5.025174e-02 -1.527901e-02 -6.319362e-02 -1.146079e-02 -2.361671e-02 1.062420e-01 -5.715886e-02 4.941520e-02 -3.831770e-02 4.669051e-01
<VARIANCE> 39
 8.647667e+00 1.157024e+01 1.673631e+01 1.690861e+01 1.899677e+01 1.672338e+01 2.463935e+01 1.614098e+01 2.346608e+01 1.719529e+01 1.432934e+01 1.724209e+01 1.765549e+01 6.421731e-01 7.042823e-01 9.605576e-01 9.888368e-01 9.570785e-01 1.386974e+00 1.550940e+00 1.222773e+00 1.228350e+00 1.251180e+00 1.077729e+00 1.208790e+00 9.453166e-01 1.298016e-01 1.743892e-01 2.260874e-01 1.666905e-01 2.808887e-01 2.886772e-01 3.870881e-01 3.203955e-01 2.752344e-01 2.551759e-01 2.464496e-01 2.805160e-01 1.306466e-01
<GCONST> 8.974318e+01
<TRANSP> 5
 0.000000e+00 1.000000e+00 0.000000e+00 0.000000e+00 0.000000e+00
 0.000000e+00 6.533045e-01 3.466955e-01 0.000000e+00 0.000000e+00
 0.000000e+00 0.000000e+00 7.023928e-01 2.976073e-01 0.000000e+00
 0.000000e+00 0.000000e+00 0.000000e+00 7.968916e-01 2.031084e-01
 0.000000e+00 0.000000e+00 0.000000e+00 0.000000e+00 0.000000e+00
<ENDHMM>
~h "e"
<BEGINHMM>
<NUMSTATES> 5
<STATE> 2
<MEAN> 39
 -4.260523e+00 2.022329e+00 4.015657e+00 2.049607e+00 -1.354298e+01 -1.492336e+01 -4.473446e+00 -4.930158e+00 -4.850808e+00 -3.629215e+00 2.299795e-01 -3.074336e-01 6.486797e+01 -4.575139e-01 1.956095e-01 9.344022e-02 1.909902e-01 4.832957e-01 3.373840e-01 3.758609e-01 4.124898e-01 6.326771e-02 4.334835e-01 1.980111e-03 2.253123e-01 -8.672629e-01 -4.934645e-02 -2.603938e-02 -1.777640e-01 -1.871095e-01 1.242521e-01 2.860282e-01 5.172454e-02 1.065239e-01 1.763636e-01 2.312887e-02 6.296250e-02 -7.834283e-02 -7.019734e-02
<VARIANCE> 39
 1.816613e+01 2.927986e+01 3.281996e+01 3.494396e+01 4.999736e+01 5.399721e+01 4.424557e+01 3.878987e+01 5.640733e+01 3.357529e+01 4.391631e+01 2.969020e+01 3.522768e+01 8.748209e-01 1.562189e+00 1.559631e+00 1.833974e+00 2.896155e+00 2.198327e+00 2.764209e+00 1.771144e+00 2.627688e+00 2.171146e+00 2.572338e+00 2.322584e+00 1.319883e+00 1.771419e-01 3.265243e-01 2.748374e-01 3.325666e-01 6.037799e-01 4.795196e-01 4.899239e-01 3.689824e-01 4.953280e-01 3.103656e-01 4.466450e-01 4.801868e-01 1.812517e-01
<GCONST> 1.139252e+02
<STATE> 3
<MEAN> 39
 -4.676043e+00 1.402532e+00 4.196444e+00 7.709100e-01 -1.469010e+01 -1.701563e+01 -5.069932e+00 -4.065675e+00 -2.757720e+00 -4.440259e+00 4.217796e-01 8.737150e-01 6.561559e+01 -1.862687e-01 3.030873e-01 -4.395685e-01 1.438068e-01 1.142681e+00 1.021911e+00 3.634227e-01 9.794828e-02 1.171724e-01 2.110698e-01 -1.323478e-01 -2.376719e-01 -1.218728e+00 -4.346614e-02 -6.645780e-02 -8.239656e-02 2.058518e-02 3.433033e-01 3.872694e-01 8.072731e-02 1.922801e-02 1.668268e-01 3.005475e-02 -1.210695e-01 -1.198981e-01 -8.808271e-02
<VARIANCE> 39
 1.312956e+01 1.881753e+01 4.737017e+01 4.358010e+01 5.635777e+01 6.796084e+01 6.591766e+01 5.555294e+01 3.367383e+01 3.896203e+01 3.182760e+01 3.101029e+01 3.643892e+01 4.542345e-01 7.944074e-01 1.083622e+00 1.541732e+00 2.419081e+00 3.122249e+00 2.064408e+00 2.486354e+00 1.537710e+00 1.428346e+00 2.086277e+00 2.020589e+00 7.841648e-01 7.942820e-02 1.662567e-01 2.112846e-01 2.664495e-01 3.025217e-01 4.023506e-01 4.109950e-01 4.221475e-01 3.241163e-01 3.078504e-01 3.116316e-01 3.288406e-01 1.230277e-01
<GCONST> 1.063393e+02
<STATE> 4
<MEAN> 39
 -6.855705e+00 9.876166e-02 5.345111e-01 1.058684e+00 -8.741499e+00 -9.405568e+00 1.353986e+00 -7.711482e-01 -3.507636e-01 -2.866359e+00 -1.834742e+00 -1.790885e+00 6.111096e+01 -3.452024e-01 -2.713868e-01 -4.240721e-01 -2.451823e-01 9.684543e-01 8.551045e-01 9.138981e-02 3.868610e-01 5.261286e-01 4.250441e-01 -5.992122e-03 2.865085e-02 -6.580764e-01 1.638494e-03 -4.186182e-02 -1.002147e-02 -5.662993e-02 -7.916676e-02 -8.182861e-02 -1.072595e-01 -5.765809e-02 -3.414986e-02 -2.071146e-03 2.259496e-02 4.015943e-02 7.963724e-02
<VARIANCE> 39
 1.380591e+01 1.970647e+01 2.989711e+01 2.542145e+01 5.418940e+01 4.510413e+01 5.068402e+01 3.194540e+01 2.511026e+01 3.262156e+01 4.109486e+01 3.011133e+01 2.766796e+01 3.208391e-01 6.519069e-01 8.460993e-01 1.005781e+00 1.571122e+00 1.592814e+00 1.494528e+00 1.793738e+00 1.799011e+00 1.843783e+00 1.737499e+00 1.519859e+00 2.966043e-01 4.791835e-02 1.021177e-01 1.400147e-01 1.522815e-01 2.510730e-01 2.493928e-01 2.407540e-01 2.894747e-01 2.842501e-01 2.822891e-01 3.560632e-01 2.890767e-01 5.136393e-02
<GCONST> 9.502156e+01
<TRANSP> 5
 0.000000e+00 1.000000e+00 0.000000e+00 0.000000e+00 0.000000e+00
 0.000000e+00 5.196856e-01 4.803145e-01 0.000000e+00 0.000000e+00
 0.000000e+00 0.000000e+00 5.785558e-01 4.214442e-01 0.000000e+00
 0.000000e+00 0.000000e+00 0.000000e+00 7.954561e-01 2.045439e-01
 0.000000e+00 0.000000e+00 0.000000e+00 0.000000e+00 0.000000e+00
<ENDHMM>
~h "h"
<BEGINHMM>
<NUMSTATES> 5
<STATE> 2
<MEAN> 39
 -9.072710e+00 -1.925526e+00 -5.044421e+00 -9.178946e+00 -6.364766e+00 -2.677613e+00 4.995314e+00 -5.341262e-01 1.690646e-02 -1.469925e+00 -1.863731e+00 -1.600829e+00 6.522801e+01 1.595976e+00 1.911264e+00 1.012068e+00 2.353891e-01 -1.051339e+00 -1.194548e+00 -6.438313e-01 -1.051993e+00 -1.058097e+00 -8.677309e-01 -8.874561e-01 -6.583992e-01 1.029878e+00 5.452847e-01 2.289234e-01 1.353400e-01 -1.286515e-01 -5.370132e-01 -4.585328e-01 -4.165467e-01 -3.313574e-01 -2.198756e-01 -1.210987e-01 -2.879350e-02 7.303536e-02 2.804191e-01
<VARIANCE> 39
 2.425425e+01 6.060161e+01 6.140726e+01 7.186019e+01 5.915568e+01 5.840894e+01 4.410473e+01 4.605298e+01 4.206364e+01 3.259000e+01 3.059429e+01 3.228462e+01 2.570732e+01 1.890534e+00 1.456489e+00 1.599617e+00 2.558408e+00 3.054987e+00 2.846223e+00 2.602993e+00 2.979814e+00 2.452897e+00 2.124527e+00 2.022128e+00 1.897346e+00 9.844092e-01 1.933126e-01 4.488353e-01 3.331473e-01 4.735501e-01 4.452136e-01 4.014516e-01 3.941713e-01 5.050934e-01 4.452776e-01 3.792656e-01 4.057109e-01 3.669502e-01 1.394043e-01
<GCONST> 1.168241e+02
<STATE> 3
<MEAN> 39
 1.172817e-02 3.789596e+00 -2.721009e+00 -1.089899e+01 -1.508044e+01 -1.118662e+01 -8.923982e-01 -5.548009e+00 -4.246156e+00 -4.449529e+00 -4.899265e+00 -2.846963e+00 7.084345e+01 1.457284e+00 -9.701446e-03 1.331106e-02 -1.104998e+00 -2.219825e+00 -1.334805e+00 -1.084223e+00 -1.023350e+00 -4.912162e-01 -2.351645e-01 7.937221e-02 4.638261e-01 1.503556e+00 -6.057615e-01 -6.586183e-01 -2.488178e-01 -8.984402e-03 4.161320e-01 5.516788e-01 2.184467e-01 2.016954e-01 2.528101e-01 2.436441e-01 4.168554e-01 2.876709e-01 -2.362648e-01
<VARIANCE> 39
 2.135660e+01 6.349006e+01 7.391621e+01 7.303370e+01 6.042958e+01 6.684410e+01 4.729649e+01 4.698810e+01 4.145824e+01 3.688802e+01 3.137617e+01 3.561005e+01 2.907606e+01 1.909377e+00 3.094767e+00 1.928272e+00 2.880410e+00 3.876846e+00 3.348680e+00 3.740706e+00 3.202843e+00 2.909143e+00 1.925000e+00 2.355751e+00 2.012754e+00 1.726962e+00 1.887454e-01 4.633673e-01 2.854917e-01 4.194482e-01 5.220504e-01 4.157151e-01 5.597759e-01 5.384369e-01 4.377500e-01 3.669032e-01 4.425323e-01 3.067224e-01 1.878154e-01
<GCONST> 1.207940e+02
<STATE> 4
<MEAN> 39
 1.717924e+00 2.314884e+00 -4.670932e+00 -1.481216e+01 -1.814392e+01 -8.270004e+00 -1.633759e+00 -8.502019e+00 -4.960642e+00 -5.711625e+00 -1.817542e+00 8.039382e-01 7.224429e+01 -1.182901e-01 -8.410828e-01 -2.492704e-01 1.647023e-01 3.909573e-01 2.960862e-01 -6.743690e-01 -9.970359e-01 -4.166200e-01 3.147667e-01 1.370129e+00 6.818239e-01 4.884953e-01 -2.219944e-01 -4.847281e-02 5.167200e-02 4.845289e-01 4.855977e-01 -9.769262e-02 -2.138217e-01 2.963538e-02 1.982976e-01 2.372564e-01 5.780329e-02 -3.045100e-01 -1.969008e-01
<VARIANCE> 39
 1.907814e+01 5.242325e+01 7.310760e+01 7.256434e+01 6.228593e+01 6.689495e+01 5.625589e+01 5.235954e+01 5.193259e+01 4.195384e+01 4.570694e+01 5.151199e+01 1.980327e+01 2.497694e-01 9.046014e-01 1.179277e+00 1.487758e+00 2.874048e+00 1.948164e+00 2.708478e+00 2.583177e+00 2.314637e+00 2.339373e+00 3.081465e+00 2.233411e+00 3.331416e-01 9.188377e-02 1.731456e-01 2.111980e-01 2.957638e-01 4.154490e-01 5.073848e-01 5.640914e-01 4.169938e-01 6.128712e-01 4.073763e-01 5.528013e-01 5.423863e-01 1.024213e-01
<GCONST> 1.123935e+02
<TRANSP> 5
 0.000000e+00 1.000000e+00 0.000000e+00 0.000000e+00 0.000000e+00
 0.000000e+00 7.112676e-01 2.887324e-01 0.000000e+00 0.000000e+00
 0.000000e+00 0.000000e+00 6.729763e-01 3.270237e-01 0.000000e+00
 0.000000e+00 0.000000e+00 0.000000e+00 6.724612e-01 3.275389e-01
 0.000000e+00 0.000000e+00 0.000000e+00 0.000000e+00 0.000000e+00
<ENDHMM>
~h "i"
<BEGINHMM>
<NUMSTATES> 5
<STATE> 2
<MEAN> 39
 -2.419074e+01 2.066221e+00 7.206509e-01 -7.040581e+00 -3.331093e+00 -4.698954e+00 2.092830e+00 -2.702121e-01 1.447913e+00 -3.150019e+00 2.651396e+00 -2.885373e-01 6.932935e+01 -4.852591e-01 -1.810223e-01 1.831152e+00 9.158731e-01 -3.096583e-01 -6.564956e-01 7.261642e-01 -3.494005e-01 -4.056922e-01 -3.584259e-01 -8.282951e-02 -6.041626e-02 4.660007e-01 1.004589e+00 7.054250e-02 5.035189e-02 3.797673e-01 -1.124791e-01 -3.353601e-01 -2.501336e-01 -2.149075e-01 -2.625833e-01 -1.265565e-01 -1.556063e-01 -3.725627e-02 -3.210631e-01
<VARIANCE> 39
 2.045133e+01 2.381734e+01 5.839342e+01 3.607552e+01 3.304097e+01 4.775259e+01 4.915964e+01 2.799344e+01 2.546295e+01 3.125181e+01 1.958252e+01 2.190824e+01 1.427114e+01 7.252921e+00 2.121459e+00 2.088832e+00 3.059036e+00 2.613701e+00 2.407602e+00 2.134715e+00 1.881106e+00 2.346561e+00 1.771601e+00 1.825752e+00 1.150207e+00 1.624892e+00 3.709280e-01 5.036139e-01 4.061576e-01 3.582848e-01 4.736923e-01 4.309389e-01 5.624906e-01 4.524263e-01 4.433681e-01 3.839516e-01 3.724526e-01 2.369889e-01 1.833636e-01
<GCONST> 1.135215e+02
<STATE> 3
<MEAN> 39
 -1.308579e+01 2.898401e+00 1.118808e+01 2.080312e+00 -7.753359e+00 -1.047450e+01 -7.355899e-01 -6.231083e+00 -4.859127e+00 -6.898239e+00 -5.905647e-01 -6.594616e-01 6.788212e+01 3.789360e+00 1.449539e+00 5.484703e-01 1.867576e+00 -1.304896e+00 -2.750702e+00 -1.912962e+00 -1.306692e+00 -1.363100e+00 -1.443860e+00 -6.120685e-01 5.481647e-01 -1.672366e-01 -3.408018e-01 -6.093084e-02 -7.897887e-01 -5.142313e-01 1.027937e-01 1.154449e-01 4.919887e-02 3.390119e-01 3.925202e-01 1.596643e-01 1.299057e-01 1.830499e-01 9.841812e-03
<VARIANCE> 39
 3.643039e+01 3.034430e+01 3.995221e+01 5.051949e+01 3.275175e+01 3.944452e+01 3.924211e+01 2.909611e+01 2.207299e+01 2.882569e+01 1.760478e+01 1.637473e+01 1.069540e+01 1.325090e+00 2.065763e+00 1.977064e+00 2.729108e+00 3.484275e+00 1.571429e+00 2.621811e+00 4.966312e+00 2.232498e+00 2.026644e+00 2.986644e+00 1.618953e+00 6.540120e-01 5.907651e-01 3.711825e-01 3.217923e-01 3.460069e-01 4.661311e-01 4.480832e-01 6.292218e-01 5.461698e-01 3.389191e-01 3.840801e-01 4.764818e-01 2.776937e-01 9.035623e-02
<GCONST> 1.117968e+02
<STATE> 4
<MEAN> 39
 -8.198109e+00 1.278958e+00 4.870139e+00 6.817120e+00 -1.102728e+01 -1.820733e+01 -3.555566e+00 -5.959418e+00 -2.494266e+00 -8.492754e+00 -1.851324e+00 2.994532e+00 6.748566e+01 7.946059e-01 1.200404e-01 -1.143249e+00 2.663320e-01 5.071355e-01 -9.992749e-02 -1.763915e-01 1.984144e-01 4.083145e-01 1.674835e-01 -1.821707e-01 -1.015096e-01 -5.087690e-01 -3.363952e-01 -3.524820e-02 -1.216793e-01 -3.948473e-01 3.163426e-01 6.398819e-01 1.286993e-01 -1.138475e-01 1.013483e-01 3.217937e-01 1.439410e-01 -2.164516e-01 -6.951067e-02
<VARIANCE> 39
 1.658817e+01 3.388782e+01 5.573723e+01 6.768029e+01 3.796815e+01 3.115391e+01 3.201554e+01 3.155181e+01 2.688521e+01 3.421916e+01 2.527512e+01 2.146668e+01 2.039791e+01 9.330940e-01 1.321119e+00 1.417218e+00 1.794337e+00 1.444663e+00 3.368756e+00 2.093588e+00 2.493036e+00 1.981143e+00 2.178510e+00 2.363875e+00 2.234196e+00 3.662889e-01 2.797142e-01 2.624214e-01 2.178656e-01 2.562313e-01 3.140967e-01 4.443324e-01 3.315530e-01 6.545116e-01 5.026456e-01 3.437989e-01 4.609853e-01 4.133599e-01 3.579534e-02
<GCONST> 1.071358e+02
<TRANSP> 5
 0.000000e+00 1.000000e+00 0.000000e+00 0.000000e+00 0.000000e+00
 0.000000e+00 8.385710e-01 1.614290e-01 0.000000e+00 0.000000e+00
 0.000000e+00 0.000000e+00 6.189455e-01 3.810545e-01 0.000000e+00
 0.000000e+00 0.000000e+00 0.000000e+00 7.152959e-01 2.847041e-01
 0.000000e+00 0.000000e+00 0.000000e+00 0.000000e+00 0.000000e+00
<ENDHMM>
~h "k"
<BEGINHMM>
<NUMSTATES> 5
<STATE> 2
<MEAN> 39
 -1.459963e+01 -2.732190e+00 3.118801e+00 -3.622295e+00 -9.518623e+00 -8.534176e+00 1.004794e-01 -3.822726e+00 -2.932133e+00 -2.730032e+00 -1.140001e+00 -1.641854e+00 6.988916e+01 2.226259e+00 1.499372e+00 1.640162e+00 1.096524e+00 -1.064246e+00 -1.688717e+00 -6.097341e-01 -1.029484e+00 -1.201070e+00 -1.534717e+00 -8.428629e-01 -7.108713e-01 6.838735e-01 5.232788e-01 1.622755e-01 -7.910477e-02 -1.267188e-01 -3.887695e-01 -4.221452e-01 -3.865869e-01 -2.077742e-01 -1.865651e-01 -1.381062e-01 1.001109e-01 7.263742e-02 1.696379e-01
<VARIANCE> 39
 3.442439e+01 3.964879e+01 4.698188e+01 3.426148e+01 3.183968e+01 4.196592e+01 3.839254e+01 4.280034e+01 3.262151e+01 3.596610e+01 2.688179e+01 3.163157e+01 2.059604e+01 2.818578e+00 2.902010e+00 2.344887e+00 2.333266e+00 4.103121e+00 3.058227e+00 3.713050e+00 3.003365e+00 3.358965e+00 2.853246e+00 1.799515e+00 2.265406e+00 2.482588e+00 5.267716e-01 8.450117e-01 4.997634e-01 6.209877e-01 6.801493e-01 5.099246e-01 5.343516e-01 4.748560e-01 5.596976e-01 6.388078e-01 4.472164e-01 3.782523e-01 6.419716e-01
<GCONST> 1.233786e+02
<STATE> 3
<MEAN> 39
 -3.989862e+00 -3.478858e-02 5.267381e+00 -3.117204e+00 -1.753145e+01 -1.748223e+01 -3.546736e+00 -7.745870e+00 -7.472520e+00 -7.068914e+00 -1.929321e+00 -3.265615e+00 7.397127e+01 1.146351e+00 -3.902484e-01 1.497334e-01 -5.387560e-01 -1.694463e+00 -1.394523e+00 -8.068974e-01 -4.594913e-01 -2.712411e-01 -9.710675e-02 4.862260e-01 3.259423e-01 1.014679e+00 -8.094997e-01 -3.781937e-01 -1.920356e-01 -1.476721e-01 4.264883e-01 6.294184e-01 3.153642e-01 3.160145e-01 4.291111e-01 4.535174e-01 2.814141e-01 2.037678e-01 -2.911716e-01
<VARIANCE> 39
 1.387283e+01 3.622454e+01 6.446759e+01 4.621338e+01 6.071718e+01 5.917508e+01 5.369952e+01 9.043052e+01 5.529736e+01 3.245934e+01 3.220920e+01 4.585614e+01 1.575985e+01 1.822594e+00 1.856056e+00 1.691548e+00 1.540140e+00 3.102456e+00 2.981379e+00 2.914116e+00 3.242318e+00 2.906101e+00 2.202729e+00 2.521249e+00 1.628268e+00 8.922141e-01 1.508143e-01 4.387256e-01 3.543899e-01 2.752206e-01 5.311396e-01 3.922295e-01 5.458295e-01 4.955032e-01 4.483163e-01 3.703630e-01 3.424604e-01 2.978471e-01 1.070257e-01
<GCONST> 1.156880e+02
<STATE> 4
<MEAN> 39
 -7.251299e+00 2.404794e+00 7.924104e+00 -1.112042e+00 -1.618292e+01 -1.921184e+01 -5.915645e+00 -6.931774e+00 -5.873384e+00 -6.586778e+00 7.538028e-01 1.029828e+00 7.489977e+01 -1.131820e-01 7.416029e-02 3.797668e-01 -8.669909e-03 -2.227942e-01 6.857391e-02 1.251388e-01 -2.355674e-01 6.255625e-02 3.872040e-02 1.657914e-01 1.900717e-01 -1.170865e-01 -1.060205e-01 9.380503e-02 -3.766604e-03 8.881041e-02 2.244187e-01 1.272234e-01 1.439112e-01 1.752711e-02 -2.350996e-03 8.990554e-03 -1.411386e-01 -8.489888e-02 -1.536869e-01
<VARIANCE> 39
 1.933099e+01 6.631171e+01 4.506656e+01 3.338449e+01 6.268057e+01 5.877356e+01 3.131859e+01 6.500329e+01 4.521132e+01 3.752728e+01 3.110002e+01 4.871390e+01 1.442041e+01 1.911808e-01 5.439706e-01 6.870645e-01 5.729853e-01 1.019057e+00 1.212059e+00 1.294176e+00 1.469275e+00 1.011354e+00 1.052120e+00 1.557458e+00 8.236718e-01 2.634784e-01 5.997022e-02 1.210291e-01 1.434199e-01 1.069930e-01 2.380261e-01 2.597050e-01 1.900848e-01 3.479986e-01 2.820812e-01 2.275311e-01 3.357501e-01 1.496258e-01 4.624261e-02
<GCONST> 9.263084e+01
<TRANSP> 5
 0.000000e+00 1.000000e+00 0.000000e+00 0.000000e+00 0.000000e+00
 0.000000e+00 7.304121e-01 2.695878e-01 0.000000e+00 0.000000e+00
 0.000000e+00 0.000000e+00 6.541654e-01 3.458346e-01 0.000000e+00
 0.000000e+00 0.000000e+00 0.000000e+00 6.203189e-01 3.796811e-01
 0.000000e+00 0.000000e+00 0.000000e+00 0.000000e+00 0.000000e+00
<ENDHMM>
~h "m"
<BEGINHMM>
<NUMSTATES> 5
<STATE> 2
<MEAN> 39
 -3.969049e-01 7.482830e+00 3.844591e-01 6.777325e-01 -2.795808e+00 -3.582715e+00 -1.339797e+00 -7.741578e+00 -1.026904e+01 -1.093866e+01 -3.973864e+00 -1.913816e+00 6.306289e+01 1.116252e+00 2.655350e-02 -5.498273e-01 -9.189455e-01 -9.080245e-01 -3.524128e-01 6.680884e-02 -4.768896e-01 -3.201975e-01 -3.017990e-01 -1.558950e-01 -7.095315e-02 1.257134e+00 -1.700132e-01 -4.181542e-01 -4.600905e-01 -5.086541e-01 -1.721907e-01 1.591145e-01 2.240564e-01 2.165876e-01 5.088376e-01 5.224621e-01 1.254660e-01 2.813501e-02 7.491788e-02
<VARIANCE> 39
 1.325154e+01 2.138146e+01 3.061317e+01 2.998025e+01 4.287849e+01 3.844978e+01 5.025582e+01 4.782999e+01 3.804541e+01 3.929608e+01 3.844764e+01 2.227783e+01 2.285645e+01 1.346843e+00 1.895897e+00 2.433851e+00 3.162960e+00 2.084635e+00 1.801793e+00 2.144714e+00 2.821597e+00 4.000976e+00 4.135395e+00 2.216661e+00 1.445794e+00 8.891265e-01 1.508427e-01 2.416332e-01 2.847671e-01 3.724026e-01 3.315799e-01 3.527789e-01 4.066258e-01 4.234046e-01 5.197464e-01 5.509149e-01 4.196562e-01 3.002608e-01 1.205811e-01
<GCONST> 1.115875e+02
<STATE> 3
<MEAN> 39
 3.532387e+00 1.590281e+00 -9.776056e+00 -1.367398e+01 -1.176610e+01 -3.101389e+00 2.884831e+00 -5.773151e+00 -3.820768e+00 -4.129129e+00 -3.680729e+00 -2.540601e+00 7.129080e+01 1.355557e-01 -2.214921e+00 -2.269682e+00 -3.081515e+00 -6.705896e-01 1.736750e+00 1.705231e+00 2.891752e-02 1.504490e+00 1.855337e+00 -3.104136e-02 -5.152340e-01 1.803998e+00 -3.767811e-01 6.978117e-02 5.963609e-01 8.844014e-01 8.121569e-01 2.744694e-01 -2.023442e-01 -1.955209e-01 -4.578459e-01 -3.850929e-01 -3.529710e-02 -8.473708e-02 -3.433777e-01
<VARIANCE> 39
 6.583426e+00 3.506604e+01 3.708753e+01 3.930437e+01 5.245469e+01 5.274756e+01 5.585620e+01 7.159495e+01 3.133211e+01 4.358505e+01 3.506254e+01 3.558354e+01 1.448046e+01 9.515886e-01 1.816285e+00 2.292261e+00 3.684987e+00 5.054675e+00 3.742996e+00 3.074681e+00 4.865964e+00 4.888966e+00 4.889485e+00 3.933513e+00 3.224404e+00 1.205850e+00 9.242699e-02 2.770234e-01 3.131741e-01 4.441880e-01 4.580941e-01 6.524506e-01 5.717881e-01 6.924902e-01 5.477453e-01 6.647249e-01 5.047398e-01 3.439584e-01 1.064992e-01
<GCONST> 1.190997e+02
<STATE> 4
<MEAN> 39
 1.477859e+00 -3.552244e+00 -1.188985e+01 -1.568106e+01 -8.664317e+00 1.385860e+00 3.820780e+00 -6.977638e+00 -2.811886e+00 -1.729590e+00 -4.213800e+00 -5.202554e+00 7.513933e+01 -3.173143e-01 -7.172506e-01 -4.251778e-02 1.249985e-01 4.584655e-01 2.163348e-01 -4.161866e-01 -2.290467e-01 2.560315e-02 3.753021e-01 1.358562e-01 -1.761794e-01 4.088432e-01 3.581782e-02 3.902598e-01 3.482597e-01 4.640682e-01 -5.776434e-02 -5.015907e-01 -3.781280e-01 6.934347e-02 -1.997252e-01 -2.470256e-01 6.120183e-02 1.681454e-01 -3.105619e-01
<VARIANCE> 39
 9.844019e+00 4.255657e+01 3.618427e+01 3.711742e+01 5.925152e+01 5.652232e+01 6.053487e+01 9.474529e+01 5.739107e+01 5.784034e+01 4.951774e+01 4.361310e+01 1.667459e+01 3.602023e-01 7.769535e-01 7.278578e-01 1.197695e+00 1.772626e+00 2.620070e+00 1.905612e+00 2.671383e+00 2.177699e+00 1.964385e+00 1.886225e+00 1.397552e+00 3.090308e-01 7.486230e-02 1.754673e-01 2.447823e-01 3.615128e-01 3.024600e-01 4.351602e-01 4.086789e-01 4.951495e-01 4.355466e-01 4.125728e-01 3.589626e-01 3.078089e-01 9.471922e-02
<GCONST> 1.066294e+02
<TRANSP> 5
 0.000000e+00 1.000000e+00 0.000000e+00 0.000000e+00 0.000000e+00
 0.000000e+00 8.737780e-01 1.262220e-01 0.000000e+00 0.000000e+00
 0.000000e+00 0.000000e+00 6.480893e-01 3.519106e-01 0.000000e+00
 0.000000e+00 0.000000e+00 0.000000e+00 6.622288e-01 3.377712e-01
 0.000000e+00 0.000000e+00 0.000000e+00 0.000000e+00 0.000000e+00
<ENDHMM>
~h "n"
<BEGINHMM>
<NUMSTATES> 5
<STATE> 2
<MEAN> 39
 1.181043e+00 4.378167e+00 -2.900776e-01 -1.209419e+00 -9.155796e+00 -1.108735e+01 -7.633820e+00 -7.213094e+00 -5.119655e+00 -8.005100e+00 -3.727179e+00 -4.855154e+00 6.700384e+01 -1.009700e-02 4.252468e-01 2.042547e-02 1.374540e-01 3.667204e-01 -2.795981e-01 -3.237277e-01 2.150134e-01 -1.670972e-01 -2.009155e-01 1.943187e-01 3.764207e-03 -2.988033e-01 -1.029831e-01 -3.420117e-01 -4.320195e-02 -1.009890e-01 -2.737680e-01 4.803083e-02 4.938846e-02 6.737056e-03 3.141156e-01 1.657669e-01 -1.089792e-01 9.322465e-02 2.559046e-01
<VARIANCE> 39
 8.633554e+00 2.464605e+01 5.056224e+01 3.545846e+01 5.408463e+01 3.511375e+01 4.001483e+01 3.122462e+01 3.009815e+01 6.567606e+01 2.954948e+01 3.527255e+01 1.402958e+01 2.086210e-01 5.444247e-01 9.390470e-01 9.380995e-01 1.361230e+00 1.019594e+00 1.523302e+00 1.188965e+00 1.579794e+00 2.039045e+00 1.300043e+00 1.026331e+00 1.877176e-01 3.941741e-02 1.137576e-01 1.620705e-01 2.096963e-01 2.744520e-01 2.021549e-01 3.845933e-01 2.918809e-01 3.541669e-01 4.377414e-01 2.986000e-01 2.593699e-01 4.458566e-02
<GCONST> 9.339289e+01
<STATE> 3
<MEAN> 39
 -1.390225e+00 -3.529750e-01 -8.456802e-01 -4.851593e-01 -1.212481e+01 -1.149156e+01 -7.521660e+00 -5.178351e+00 1.118884e-01 -5.558573e+00 -6.062811e+00 -3.856680e+00 6.997110e+01 -7.919398e-01 -1.646862e+00 3.125938e-01 -3.055080e-01 -1.778423e+00 -3.123443e-01 8.935016e-01 8.776279e-01 1.220631e+00 4.576587e-01 -4.663297e-01 5.751841e-01 1.288369e+00 -2.827181e-02 8.127531e-02 7.899827e-02 -3.953828e-02 -1.074289e-01 -1.061785e-01 3.244945e-01 1.556586e-01 -3.361613e-01 -5.495702e-02 2.458912e-01 -2.668189e-03 -4.301942e-02
<VARIANCE> 39
 1.443356e+01 4.335177e+01 4.743927e+01 4.033496e+01 6.290184e+01 4.130032e+01 4.389770e+01 5.074109e+01 6.576708e+01 6.177989e+01 4.586469e+01 4.179958e+01 3.405873e+01 4.412082e-01 1.606526e+00 1.970996e+00 1.754221e+00 3.410096e+00 2.822898e+00 5.356916e+00 3.916337e+00 5.300468e+00 3.956016e+00 3.748689e+00 3.200225e+00 6.030471e-01 7.556256e-02 4.631857e-01 2.531366e-01 2.749657e-01 6.348587e-01 3.780443e-01 6.432533e-01 6.309935e-01 1.014393e+00 5.811331e-01 5.698012e-01 5.263317e-01 2.539353e-01
<GCONST> 1.204170e+02
<STATE> 4
<MEAN> 39
 -4.041354e+00 -2.925836e+00 1.384537e+00 -2.276603e+00 -1.933008e+01 -1.342717e+01 -2.393431e+00 -3.264105e+00 -1.536039e+00 -5.509956e+00 -2.774158e+00 -2.166673e+00 7.163657e+01 -1.542505e-01 2.895988e-01 3.820459e-01 1.082624e-01 -2.312462e-01 -3.037519e-01 3.837300e-01 3.683726e-02 -5.447639e-01 -1.022597e-01 3.101019e-01 4.268989e-02 -3.736029e-01 6.022474e-02 1.221189e-01 -2.335379e-03 5.572503e-02 2.149454e-01 7.200904e-02 -1.788131e-01 -1.436652e-01 2.029390e-02 -4.524340e-02 -3.689254e-02 -6.052736e-02 -1.486015e-01
<VARIANCE> 39
 1.579506e+01 4.813832e+01 6.152407e+01 3.909282e+01 5.411788e+01 5.079022e+01 5.456330e+01 6.963837e+01 7.551767e+01 4.886012e+01 5.509833e+01 5.141167e+01 2.461888e+01 2.011165e-01 6.097776e-01 7.525519e-01 9.231271e-01 1.508361e+00 1.128443e+00 1.388324e+00 1.233915e+00 1.413602e+00 1.632849e+00 1.637029e+00 1.411288e+00 2.246177e-01 4.180744e-02 1.118375e-01 1.094942e-01 2.005318e-01 2.131684e-01 2.211988e-01 2.918661e-01 2.359040e-01 2.298302e-01 2.554489e-01 2.489686e-01 2.212798e-01 3.505657e-02
<GCONST> 9.641267e+01
<TRANSP> 5
 0.000000e+00 1.000000e+00 0.000000e+00 0.000000e+00 0.000000e+00
 0.000000e+00 8.400559e-01 1.599442e-01 0.000000e+00 0.000000e+00
 0.000000e+00 0.000000e+00 7.824876e-01 2.175124e-01 0.000000e+00
 0.000000e+00 0.000000e+00 0.000000e+00 8.326972e-01 1.673028e-01
 0.000000e+00 0.000000e+00 0.000000e+00 0.000000e+00 0.000000e+00
<ENDHMM>
~h "p"
<BEGINHMM>
<NUMSTATES> 5
<STATE> 2
<MEAN> 39
 -3.169165e+00 -1.125326e-01 -7.764310e+00 -1.239472e+01 -8.536995e+00 -2.300492e+00 2.545554e+00 -2.559829e+00 -1.917602e+00 -2.446927e+00 -2.948840e+00 -2.246588e+00 6.760887e+01 2.432065e+00 9.416863e-01 -3.210883e-01 -2.098168e+00 -2.235524e+00 -6.804805e-01 4.621261e-01 -5.991299e-01 -9.739558e-01 -6.177463e-01 -6.436992e-01 -5.682330e-01 1.779359e+00 -9.174310e-02 -2.013734e-01 -8.405052e-03 3.418522e-02 -7.036103e-02 -3.262615e-02 -1.445379e-01 4.146513e-02 9.383434e-02 1.753976e-01 2.497807e-01 1.472946e-01 -8.523152e-02
<VARIANCE> 39
 3.089272e+01 4.878511e+01 3.141431e+01 4.506091e+01 5.468602e+01 7.750740e+01 5.679276e+01 4.287730e+01 3.161128e+01 3.168633e+01 2.606602e+01 2.703374e+01 2.515586e+01 1.677737e+00 4.219750e+00 2.984529e+00 2.997234e+00 4.599398e+00 5.176252e+00 5.703599e+00 4.685369e+00 3.014756e+00 3.176109e+00 2.653303e+00 2.479610e+00 2.642371e+00 6.231527e-01 8.661567e-01 4.277862e-01 6.037933e-01 8.403597e-01 8.761635e-01 9.415436e-01 7.277514e-01 5.350652e-01 5.261368e-01 4.366347e-01 4.138860e-01 5.350763e-01
<GCONST> 1.285528e+02
<STATE> 3
<MEAN> 39
 6.813628e-01 -3.914243e+00 -9.673415e+00 -1.647476e+01 -1.363434e+01 -4.915632e+00 4.426378e+00 -1.713510e+00 -3.422959e+00 -1.890375e+00 -2.679093e+00 -3.408009e+00 7.510308e+01 1.567315e-01 -3.638672e-01 -6.254746e-02 -2.170657e-01 -4.820030e-01 -2.282752e-02 -2.612115e-01 -2.685249e-01 2.119697e-02 2.495608e-01 2.886870e-01 -1.161523e-01 3.425755e-01 -2.815014e-01 2.759311e-02 1.030757e-01 3.426382e-01 2.755808e-01 4.346543e-02 -1.400997e-01 1.017144e-02 2.324433e-01 7.268858e-02 1.209760e-02 2.547018e-02 -3.176036e-01
<VARIANCE> 39
 1.771701e+01 5.306455e+01 2.626495e+01 2.783113e+01 6.074910e+01 8.622083e+01 1.012945e+02 7.864377e+01 6.126767e+01 5.403014e+01 3.505177e+01 4.638818e+01 2.731859e+01 1.316303e+00 3.063998e+00 1.024044e+00 1.749417e+00 2.119343e+00 2.647435e+00 4.135806e+00 2.925349e+00 3.408299e+00 2.774223e+00 2.257621e+00 2.307939e+00 1.840670e+00 3.563083e-01 4.312226e-01 2.323706e-01 4.122091e-01 5.378067e-01 4.832474e-01 8.169497e-01 6.425266e-01 5.953327e-01 4.951982e-01 4.015270e-01 3.627557e-01 2.131184e-01
<GCONST> 1.212687e+02
<STATE> 4
<MEAN> 39
 2.461175e+00 -3.387926e+00 -1.103756e+01 -1.712904e+01 -1.344592e+01 8.507065e-02 2.391802e+00 -4.438776e+00 -2.553171e+00 -1.625473e+00 -1.115815e+00 -3.565484e+00 7.395776e+01 -8.128683e-02 -3.353125e-01 -3.130139e-02 4.138201e-01 1.300381e-01 -2.140311e-01 -6.736300e-01 -1.785962e-01 5.487638e-01 4.225314e-01 2.367843e-02 -2.180357e-01 6.610020e-02 -1.021491e-01 8.874621e-02 1.098240e-01 2.155576e-01 1.137887e-01 -1.954518e-01 -1.052659e-01 7.589941e-02 7.740938e-02 -7.612333e-02 -1.023144e-01 -1.443985e-02 -1.180231e-01
<VARIANCE> 39
 9.060692e+00 7.539124e+01 5.241872e+01 3.099286e+01 8.893369e+01 8.052510e+01 5.557058e+01 5.933674e+01 6.059633e+01 4.699618e+01 3.587477e+01 4.296112e+01 1.897353e+01 2.145210e-01 8.022235e-01 7.842887e-01 1.119821e+00 1.508583e+00 1.624493e+00 1.882134e+00 1.666479e+00 1.611707e+00 1.347022e+00 1.473958e+00 1.434957e+00 2.700675e-01 6.842013e-02 1.582624e-01 1.329424e-01 1.726258e-01 2.855012e-01 3.224765e-01 2.729079e-01 2.761872e-01 2.421711e-01 2.660012e-01 2.629345e-01 2.484617e-01 6.207233e-02
<GCONST> 9.965632e+01
<TRANSP> 5
 0.000000e+00 1.000000e+00 0.000000e+00 0.000000e+00 0.000000e+00
 0.000000e+00 7.447467e-01 2.552532e-01 0.000000e+00 0.000000e+00
 0.000000e+00 0.000000e+00 7.340916e-01 2.659083e-01 0.000000e+00
 0.000000e+00 0.000000e+00 0.000000e+00 6.841100e-01 3.158900e-01
 0.000000e+00 0.000000e+00 0.000000e+00 0.000000e+00 0.000000e+00
<ENDHMM>
~h "r"
<BEGINHMM>
<NUMSTATES> 5
<STATE> 2
<MEAN> 39
 -5.418159e+00 -2.494974e-01 1.962962e+00 -2.030982e+00 -9.050540e+00 -1.257580e+01 -5.119164e+00 -4.645911e+00 -1.287383e+00 -5.385031e+00 9.421063e-01 -2.515264e-01 6.740276e+01 1.172793e-01 -3.668241e-01 3.226361e-01 1.350372e-01 -5.311449e-01 -2.234886e-01 1.071655e-01 -1.843206e-01 -6.027579e-02 -4.308895e-01 -5.040758e-02 1.121008e-02 6.147081e-01 1.051625e-01 -7.345951e-03 1.603955e-02 2.777331e-02 -2.815449e-01 -2.611727e-01 -5.248712e-02 -6.275255e-03 -8.279115e-02 -3.184828e-02 1.419840e-01 4.030805e-02 1.734452e-01
<VARIANCE> 39
 3.558567e+01 2.366023e+01 3.717734e+01 3.848687e+01 6.370630e+01 6.661014e+01 4.285563e+01 3.059504e+01 2.208407e+01 3.965825e+01 3.597058e+01 1.670736e+01 4.819175e+01 2.538045e+00 2.491481e+00 1.944716e+00 3.022954e+00 6.557502e+00 4.692605e+00 3.252870e+00 2.835675e+00 1.957508e+00 2.911674e+00 3.364852e+00 2.274229e+00 3.981929e+00 4.359494e-01 5.392576e-01 3.661044e-01 5.865247e-01 1.335341e+00 8.982756e-01 6.057275e-01 5.788965e-01 3.694313e-01 6.775525e-01 6.374834e-01 4.472348e-01 7.894079e-01
<GCONST> 1.259522e+02
<STATE> 3
<MEAN> 39
 -4.329629e+00 4.483939e-01 3.435092e+00 4.428884e+00 -1.409229e+01 -1.722241e+01 -6.907654e+00 -4.842545e+00 -1.944460e-01 -4.296400e+00 -7.141888e-01 2.559959e+00 6.807716e+01 1.367750e-01 -1.031735e-01 -1.746717e-01 3.501309e-01 -1.517482e+00 -1.070393e+00 3.373082e-01 2.254166e-01 -1.240171e-01 -1.029847e-01 1.021848e+00 6.643328e-01 4.714709e-01 -1.224858e-01 1.231308e-01 1.199596e-02 -1.824178e-01 3.529006e-01 1.086101e-01 1.641101e-01 6.721015e-02 -3.607343e-02 2.299486e-02 8.043737e-02 -4.609618e-02 -2.277417e-01
<VARIANCE> 39
 1.966747e+01 2.283535e+01 4.604513e+01 3.120514e+01 5.543280e+01 5.373442e+01 5.346397e+01 2.884217e+01 4.437748e+01 3.374075e+01 3.163146e+01 3.854660e+01 2.187482e+01 8.739108e-01 1.419298e+00 2.016258e+00 1.651261e+00 3.256123e+00 3.191191e+00 3.537479e+00 2.902138e+00 3.311255e+00 2.311082e+00 1.672122e+00 2.200336e+00 6.632988e-01 1.589724e-01 2.331436e-01 4.282880e-01 4.037397e-01 8.309622e-01 7.428135e-01 5.560319e-01 4.681553e-01 8.755097e-01 4.261631e-01 4.077302e-01 6.281096e-01 2.002964e-01
<GCONST> 1.160783e+02
<STATE> 4
<MEAN> 39
 -1.542141e+00 -1.709266e+00 3.827397e+00 -1.914733e+00 -1.762459e+01 -1.797238e+01 -4.299694e+00 -6.329797e+00 -5.446813e+00 -7.755315e+00 3.669648e+00 -1.766698e+00 7.045126e+01 -2.240443e-01 2.831475e-01 1.343449e-02 -1.174227e-01 3.098274e-01 6.113297e-02 8.121434e-02 1.092023e-01 -2.550823e-01 2.402369e-03 7.440639e-02 -1.375553e-01 -4.062035e-01 -5.161364e-02 3.271359e-02 -4.104905e-02 6.915221e-02 1.623991e-01 1.020760e-01 -5.093944e-03 -1.681719e-02 3.481944e-03 7.556199e-02 -1.683487e-01 2.810171e-02 -1.276711e-01
<VARIANCE> 39
 1.055498e+01 1.196850e+01 3.992738e+01 5.356810e+01 4.621095e+01 6.746469e+01 4.035991e+01 3.230421e+01 2.769632e+01 5.610414e+01 5.712616e+01 3.506469e+01 1.742142e+01 1.955315e-01 3.659199e-01 4.859403e-01 7.456585e-01 8.940112e-01 7.298931e-01 1.120460e+00 7.224578e-01 1.392888e+00 1.110826e+00 1.070527e+00 9.336725e-01 2.938718e-01 4.711509e-02 8.257859e-02 8.137204e-02 1.069220e-01 2.322869e-01 1.349023e-01 2.091522e-01 1.447456e-01 2.290208e-01 2.225783e-01 1.954239e-01 1.539812e-01 3.219342e-02
<GCONST> 8.496130e+01
<TRANSP> 5
 0.000000e+00 1.000000e+00 0.000000e+00 0.000000e+00 0.000000e+00
 0.000000e+00 8.767476e-01 1.232524e-01 0.000000e+00 0.000000e+00
 0.000000e+00 0.000000e+00 6.725348e-01 3.274652e-01 0.000000e+00
 0.000000e+00 0.000000e+00 0.000000e+00 8.622195e-01 1.377804e-01
 0.000000e+00 0.000000e+00 0.000000e+00 0.000000e+00 0.000000e+00
<ENDHMM>
~h "t"
<BEGINHMM>
<NUMSTATES> 5
<STATE> 2
<MEAN> 39
 -1.209802e+01 -3.031458e+00 -4.755641e+00 -6.345590e+00 -3.567587e+00 -4.470942e+00 -2.762134e+00 -1.947001e+00 1.891940e+00 -1.362602e+00 -3.273340e-01 -6.180482e-02 6.670225e+01 6.159187e-01 -1.986043e-01 3.715171e-02 -7.263677e-01 -5.500970e-01 -6.436912e-01 -4.584119e-01 -7.695228e-01 -2.856532e-01 -2.199230e-01 -4.744423e-01 -6.144380e-01 2.139550e+00 6.824269e-01 4.034576e-01 -2.523826e-02 -4.893237e-02 -2.932038e-01 -7.358165e-02 7.175217e-02 -2.517342e-01 -3.820047e-01 -3.134294e-02 -8.550811e-02 -1.278702e-01 -1.609436e-01
<VARIANCE> 39
 3.403687e+01 3.890710e+01 4.021645e+01 3.783830e+01 3.177052e+01 4.659195e+01 3.548428e+01 3.338267e+01 3.089677e+01 2.693856e+01 2.645963e+01 2.595321e+01 6.362500e+01 5.741593e+00 4.794713e+00 3.056756e+00 3.895948e+00 3.810300e+00 5.412966e+00 3.906454e+00 3.967959e+00 4.463272e+00 3.197496e+00 2.788132e+00 2.930222e+00 6.894530e+00 5.855755e-01 7.475501e-01 5.038611e-01 6.335704e-01 7.240663e-01 9.731633e-01 8.042348e-01 6.684462e-01 7.255049e-01 6.221655e-01 5.283533e-01 5.312200e-01 1.287648e+00
<GCONST> 1.314771e+02
<STATE> 3
<MEAN> 39
 -8.771300e-01 7.082834e-01 -4.825184e+00 -1.031457e+01 -1.011894e+01 -8.219409e+00 -3.863778e+00 -8.336836e+00 -3.824204e+00 -2.914869e+00 -3.303625e+00 -3.637106e+00 7.176988e+01 2.306423e+00 4.118541e-01 -5.790650e-01 -1.226252e+00 -2.159204e+00 -6.862463e-01 3.291268e-01 -8.941190e-01 -1.186837e+00 -1.876021e-01 -5.500809e-02 -5.438544e-02 8.160558e-01 -7.427871e-01 -5.635924e-01 -1.194228e-01 9.624748e-02 2.042846e-01 3.787524e-01 2.377235e-01 4.954434e-01 4.133976e-01 1.748009e-01 3.354079e-01 3.412032e-01 -2.558556e-01
<VARIANCE> 39
 1.840886e+01 3.092841e+01 5.463683e+01 6.713522e+01 6.184074e+01 6.816031e+01 5.284381e+01 5.184435e+01 4.119280e+01 4.797149e+01 3.597933e+01 4.503739e+01 2.399043e+01 3.113595e+00 3.741828e+00 2.350287e+00 3.264107e+00 4.580088e+00 5.320752e+00 4.740721e+00 4.602447e+00 4.119430e+00 3.821561e+00 3.372805e+00 3.451721e+00 1.533529e+00 2.677169e-01 3.801371e-01 3.313829e-01 5.200354e-01 7.159021e-01 6.876732e-01 6.998880e-01 5.847015e-01 5.665998e-01 5.060544e-01 5.042171e-01 5.320697e-01 4.507207e-01
<GCONST> 1.280483e+02
<STATE> 4
<MEAN> 39
 1.034471e+00 -2.159154e+00 -8.331798e+00 -1.425843e+01 -1.295022e+01 -5.451754e+00 -6.501818e-01 -7.517798e+00 -4.749683e+00 -2.412476e+00 -1.730179e+00 -1.948011e+00 7.336562e+01 -7.946001e-03 -5.310813e-01 -2.188670e-01 1.161737e-01 2.882762e-02 2.848648e-01 -8.170905e-02 -2.563314e-01 -9.419944e-02 2.781969e-01 4.761216e-01 1.621899e-01 1.739155e-01 -3.036174e-01 -1.249866e-02 1.746607e-01 3.684956e-01 3.778741e-01 -9.504711e-02 -2.857019e-01 -3.948302e-03 2.204066e-01 1.056041e-01 1.096022e-02 -9.143242e-02 -1.207254e-01
<VARIANCE> 39
 1.934189e+01 4.813025e+01 5.442873e+01 5.616102e+01 7.165045e+01 7.773284e+01 5.281153e+01 6.090923e+01 5.611447e+01 6.619184e+01 4.942964e+01 5.497003e+01 2.397771e+01 8.732715e-01 1.413630e+00 1.106549e+00 1.613546e+00 2.262170e+00 2.632044e+00 2.760330e+00 2.401939e+00 2.341251e+00 2.235956e+00 2.370854e+00 2.054419e+00 6.774171e-01 1.860268e-01 2.556897e-01 1.967233e-01 3.208705e-01 4.636264e-01 5.631446e-01 5.322291e-01 4.865812e-01 4.903424e-01 4.500232e-01 4.240458e-01 4.310015e-01 1.104704e-01
<GCONST> 1.159433e+02
<TRANSP> 5
 0.000000e+00 1.000000e+00 0.000000e+00 0.000000e+00 0.000000e+00
 0.000000e+00 7.897880e-01 2.102120e-01 0.000000e+00 0.000000e+00
 0.000000e+00 0.000000e+00 5.940831e-01 4.059170e-01 0.000000e+00
 0.000000e+00 0.000000e+00 0.000000e+00 7.107081e-01 2.892919e-01
 0.000000e+00 0.000000e+00 0.000000e+00 0.000000e+00 0.000000e+00
<ENDHMM>
~h "u"
<BEGINHMM>
<NUMSTATES> 5
<STATE> 2
<MEAN> 39
 -5.061848e+00 6.518908e+00 6.727525e+00 2.135939e+00 -9.804512e+00 -1.227156e+01 -3.832752e-02 -9.907412e+00 -7.475430e+00 -4.167704e+00 1.866042e+00 -1.887684e+00 6.519057e+01 3.942517e-01 4.114943e-01 -6.115336e-01 -1.240218e-01 4.363914e-01 2.307927e-01 -3.272865e-01 2.951952e-01 3.709510e-02 -2.553643e-01 1.879990e-01 1.016358e-01 -6.229869e-01 -1.769988e-01 -7.152535e-02 1.531364e-02 -2.880443e-04 2.121773e-01 2.034984e-01 -1.301840e-01 6.135777e-02 2.110373e-01 -1.149161e-01 -2.637451e-01 -5.971004e-02 -4.821436e-02
<VARIANCE> 39
 7.301268e+00 2.212012e+01 5.834347e+01 2.888375e+01 3.097041e+01 6.659566e+01 3.473734e+01 4.289740e+01 2.816470e+01 4.032615e+01 2.089205e+01 2.863244e+01 2.255640e+01 2.426101e-01 6.010699e-01 6.643053e-01 2.076934e+00 1.242153e+00 2.989310e+00 1.919499e+00 2.990300e+00 2.102790e+00 1.973774e+00 1.993190e+00 1.378377e+00 3.101967e-01 9.368408e-02 1.362768e-01 1.110198e-01 1.871400e-01 1.745503e-01 5.321353e-01 2.815933e-01 5.203654e-01 3.206564e-01 4.566597e-01 3.504088e-01 3.029018e-01 4.060760e-02
<GCONST> 9.849408e+01
<STATE> 3
<MEAN> 39
 -4.450475e+00 5.533334e+00 3.346879e+00 3.026633e+00 -3.889786e+00 -1.277457e+01 -6.946625e+00 -5.603511e+00 -2.848989e+00 -8.469114e+00 -2.248469e+00 -5.739408e-01 6.424575e+01 1.532465e-01 4.853865e-02 -8.964952e-01 -3.511704e-01 1.092382e+00 1.274452e+00 -4.478781e-01 -6.422100e-01 1.813754e-01 6.843283e-01 -4.349898e-01 -6.306251e-01 -4.971152e-01 -1.350466e-01 -1.919362e-01 -3.064839e-03 -7.911915e-02 -1.262086e-01 1.340699e-01 3.197624e-01 1.136271e-01 -1.446346e-01 2.422022e-01 1.946276e-01 4.742136e-02 4.399676e-02
<VARIANCE> 39
 1.757815e+01 1.329693e+01 2.189526e+01 3.962557e+01 4.309481e+01 3.127001e+01 2.457473e+01 2.438868e+01 2.338155e+01 2.172683e+01 2.829654e+01 1.133819e+01 1.337930e+01 4.759597e-01 9.163936e-01 7.938941e-01 7.765958e-01 1.816982e+00 1.991790e+00 1.032536e+00 1.410643e+00 1.872336e+00 2.238725e+00 9.779066e-01 8.871586e-01 3.709332e-01 9.365523e-02 1.059122e-01 9.986759e-02 1.654639e-01 2.596979e-01 3.696859e-01 1.685368e-01 2.889757e-01 2.237040e-01 3.323043e-01 1.940884e-01 1.689440e-01 6.437331e-02
<GCONST> 8.990100e+01
<STATE> 4
<MEAN> 39
 -4.678629e+00 5.862603e+00 -3.708157e-02 1.403411e+00 -1.454161e+00 -7.086782e+00 -4.979722e+00 -8.340969e+00 -4.109657e+00 -3.305214e+00 -1.222297e+00 -1.477711e+00 6.148421e+01 -3.939833e-01 -5.002866e-01 -4.775944e-01 -2.295709e-01 4.361207e-01 8.938373e-01 5.362261e-01 4.638208e-01 2.194868e-01 4.810964e-01 4.953195e-02 9.386308e-02 -4.696709e-01 -6.971429e-02 -6.665540e-02 3.484515e-02 -8.859761e-03 -1.161505e-01 -6.133886e-02 8.420588e-02 1.838447e-01 9.499535e-02 -3.288609e-02 3.869633e-02 7.707519e-02 2.028685e-02
<VARIANCE> 39
 1.359597e+01 2.188085e+01 1.049310e+01 2.275588e+01 2.434486e+01 1.958082e+01 3.413538e+01 3.527813e+01 2.943694e+01 1.377185e+01 1.495952e+01 1.725784e+01 1.460931e+01 3.194279e-01 8.504981e-01 7.649016e-01 1.188752e+00 1.052039e+00 1.495118e+00 1.555449e+00 1.707132e+00 1.445234e+00 1.570290e+00 1.202948e+00 6.245394e-01 1.733348e-01 4.367308e-02 1.223564e-01 1.267273e-01 2.040911e-01 2.025598e-01 2.622532e-01 2.813423e-01 3.160049e-01 2.589438e-01 3.176926e-01 2.311067e-01 1.180722e-01 2.829467e-02
<GCONST> 8.525472e+01
<TRANSP> 5
 0.000000e+00 1.000000e+00 0.000000e+00 0.000000e+00 0.000000e+00
 0.000000e+00 6.798396e-01 3.201605e-01 0.000000e+00 0.000000e+00
 0.000000e+00 0.000000e+00 7.007304e-01 2.992697e-01 0.000000e+00
 0.000000e+00 0.000000e+00 0.000000e+00 8.381367e-01 1.618634e-01
 0.000000e+00 0.000000e+00 0.000000e+00 0.000000e+00 0.000000e+00
<ENDHMM>
~h "aa"
<BEGINHMM>
<NUMSTATES> 5
<STATE> 2
<MEAN> 39
 1.283311e+00 -7.571960e+00 -1.407038e+01 -1.518694e+01 -4.287160e+00 3.542622e+00 3.086022e+00 -7.487603e+00 -3.475259e+00 -1.683201e+00 -5.380601e+00 -6.117855e+00 7.544825e+01 -4.371549e-02 -5.242850e-02 -7.448766e-03 8.928616e-02 4.230510e-03 -1.358311e-01 -1.284491e-01 6.655684e-02 1.994369e-01 -4.009798e-03 6.867283e-02 -1.380585e-01 -2.837776e-03 1.382194e-02 1.156761e-01 5.414713e-02 2.813555e-02 -8.834659e-02 -1.585279e-01 -6.982703e-02 8.025350e-02 4.981437e-02 2.415269e-02 3.710719e-02 2.424228e-02 -6.395789e-02
<VARIANCE> 39
 1.164934e+01 3.234014e+01 3.135107e+01 3.530143e+01 4.657614e+01 4.840355e+01 5.918603e+01 9.259469e+01 5.342572e+01 4.822556e+01 5.423708e+01 3.467081e+01 1.456237e+01 1.081646e-01 2.906216e-01 3.433028e-01 4.903602e-01 6.757705e-01 8.828381e-01 9.136626e-01 1.187201e+00 8.820633e-01 8.332167e-01 9.154899e-01 8.473820e-01 9.420898e-02 2.129653e-02 4.964942e-02 6.087903e-02 9.018535e-02 1.145690e-01 1.629233e-01 1.727713e-01 1.977491e-01 1.662776e-01 1.628125e-01 1.609626e-01 1.561335e-01 1.671048e-02
<GCONST> 7.961960e+01
<STATE> 3
<MEAN> 39
 9.688357e-01 -3.608215e+00 -1.111757e+01 -1.286463e+01 -5.748137e+00 -1.062843e+00 3.460265e-01 -5.839613e+00 -2.069083e+00 -3.947775e-01 -3.573609e+00 -6.692194e+00 7.260806e+01 -1.587039e-01 1.279828e+00 8.982521e-01 1.113058e+00 9.388640e-02 -1.078005e+00 -8.836806e-01 1.050894e-01 2.206327e-01 1.693402e-01 5.345822e-01 7.440584e-01 -1.448821e+00 -1.267775e-01 7.600603e-02 8.202093e-02 1.784090e-01 1.557639e-01 2.006590e-01 1.557615e-01 -1.631245e-02 -1.353417e-01 -1.273776e-01 -1.530487e-02 9.498467e-02 -3.429604e-01
<VARIANCE> 39
 1.177667e+01 3.811798e+01 3.782342e+01 4.402137e+01 4.507992e+01 4.900552e+01 5.411926e+01 4.848896e+01 5.452770e+01 4.695874e+01 5.047884e+01 5.602885e+01 1.951620e+01 1.148560e+00 1.166410e+00 1.512857e+00 1.947094e+00 2.242740e+00 3.246587e+00 2.729511e+00 2.767642e+00 3.391395e+00 2.589575e+00 2.215064e+00 2.267743e+00 1.199574e+00 1.788491e-01 2.680762e-01 2.559183e-01 2.931876e-01 3.754624e-01 5.900116e-01 5.452191e-01 4.523960e-01 5.317324e-01 3.989997e-01 3.718483e-01 4.647184e-01 1.408775e-01
<GCONST> 1.150897e+02
<STATE> 4
<MEAN> 39
 -3.385625e+00 6.134444e-01 -8.842725e+00 -8.343569e+00 -4.773447e+00 -1.078430e+00 3.278430e-01 -2.869741e+00 -1.165496e+00 -1.199009e-01 -2.922572e-01 -2.081251e+00 6.013167e+01 -8.246924e-01 -1.919650e-02 2.535059e-01 4.664551e-01 9.141205e-02 1.886615e-02 2.788255e-02 4.359632e-01 1.215744e-01 -7.431620e-02 9.337997e-02 2.040785e-01 -9.659559e-01 -5.578040e-02 -2.151613e-01 1.558883e-03 -1.734915e-01 -3.512178e-02 -1.601324e-01 -1.026741e-01 -6.183178e-02 4.502537e-02 4.006598e-03 -3.936306e-02 -3.319956e-02 5.035971e-01
<VARIANCE> 39
 1.288348e+01 2.445240e+01 2.956782e+01 2.528742e+01 2.081321e+01 2.802287e+01 3.196378e+01 2.348295e+01 2.147808e+01 2.091888e+01 2.663147e+01 2.439781e+01 2.681764e+01 6.225402e-01 9.771647e-01 1.053514e+00 1.185942e+00 1.349290e+00 2.054003e+00 1.680372e+00 2.035646e+00 2.100294e+00 1.657850e+00 1.561834e+00 1.825357e+00 1.537243e+00 1.309101e-01 1.854360e-01 2.294057e-01 2.774059e-01 2.729088e-01 4.034328e-01 3.348682e-01 3.615424e-01 3.648973e-01 3.108901e-01 3.542788e-01 3.518470e-01 2.145452e-01
<GCONST> 1.010213e+02
<TRANSP> 5
 0.000000e+00 1.000000e+00 0.000000e+00 0.000000e+00 0.000000e+00
 0.000000e+00 9.039094e-01 9.609057e-02 0.000000e+00 0.000000e+00
 0.000000e+00 0.000000e+00 8.076435e-01 1.923564e-01 0.000000e+00
 0.000000e+00 0.000000e+00 0.000000e+00 8.475318e-01 1.524682e-01
 0.000000e+00 0.000000e+00 0.000000e+00 0.000000e+00 0.000000e+00
<ENDHMM>
~h "ae"
<BEGINHMM>
<NUMSTATES> 5
<STATE> 2
<MEAN> 39
 2.431780e-01 -9.352355e+00 -1.185317e+01 -1.416062e+01 -7.739201e+00 -1.163865e+00 -8.103720e-01 -4.755033e+00 -8.858086e-02 -2.961849e-01 -4.777714e+00 -8.050666e+00 7.662729e+01 -2.259032e-01 -7.446355e-02 3.832630e-01 7.711381e-01 -2.211810e-01 -1.380605e+00 -7.130582e-01 7.997269e-01 9.711537e-01 -2.137607e-01 -3.393983e-01 -8.400749e-02 -9.085349e-03 -1.289937e-02 9.210769e-02 9.545358e-02 3.722788e-02 -1.088868e-01 -1.610249e-01 2.641171e-02 1.155996e-01 -3.708787e-02 -9.091935e-02 5.466073e-02 1.375534e-01 -5.053362e-02
<VARIANCE> 39
 9.903029e+00 2.236739e+01 3.221273e+01 3.786956e+01 4.493393e+01 5.954019e+01 4.617297e+01 7.473409e+01 6.801361e+01 6.628012e+01 5.072081e+01 3.684655e+01 9.721841e+00 1.903830e-01 4.150470e-01 5.659690e-01 9.463873e-01 1.142522e+00 2.222160e+00 1.776266e+00 2.241556e+00 1.760843e+00 1.327449e+00 1.270530e+00 1.161356e+00 1.214792e-01 2.615728e-02 6.486223e-02 8.346121e-02 1.193237e-01 1.956627e-01 1.936814e-01 3.127445e-01 2.786892e-01 3.245018e-01 2.449636e-01 2.509808e-01 2.070476e-01 1.716433e-02
<GCONST> 9.046892e+01
<STATE> 3
<MEAN> 39
 -2.025275e+00 -5.653305e+00 -4.053793e+00 -6.048227e+00 -1.475981e+01 -1.650511e+01 -3.736177e+00 2.294269e+00 2.361707e+00 -2.665959e+00 -3.187482e+00 -4.544257e+00 7.335303e+01 -2.548633e-01 7.898051e-01 8.899059e-01 5.567867e-01 -5.133206e-01 -5.689485e-01 1.046654e-01 -2.269897e-01 -6.575769e-01 -1.182042e-01 5.289065e-01 4.725797e-01 -6.575123e-01 -2.394353e-02 3.929226e-02 -4.356235e-02 -2.254907e-02 1.575246e-01 2.336692e-01 2.657524e-02 -1.547057e-01 -5.006851e-02 3.179488e-02 -1.507236e-02 -6.131494e-02 -7.231575e-02
<VARIANCE> 39
 1.015534e+01 3.046219e+01 5.300530e+01 3.622477e+01 5.743551e+01 4.328029e+01 4.721457e+01 3.400099e+01 4.218734e+01 4.983734e+01 3.380870e+01 3.725938e+01 1.438233e+01 1.970629e-01 4.757718e-01 7.740843e-01 9.369016e-01 1.458576e+00 1.409879e+00 1.081423e+00 1.641096e+00 1.092643e+00 1.225133e+00 1.314961e+00 1.416668e+00 1.562425e-01 3.303685e-02 7.535250e-02 1.150000e-01 1.649511e-01 1.734546e-01 1.979115e-01 1.842214e-01 2.544226e-01 1.990818e-01 2.151786e-01 2.075218e-01 1.673795e-01 2.285470e-02
<GCONST> 8.860880e+01
<STATE> 4
<MEAN> 39
 -6.849144e+00 -9.101203e-02 -9.558797e-02 -4.372832e-01 -1.209226e+01 -1.511049e+01 -1.072359e+00 4.979235e-01 1.086622e+00 -1.234147e+00 -3.485670e-01 -1.134880e+00 6.348592e+01 -4.241234e-01 1.213562e-01 -1.783739e-01 2.121925e-01 6.828992e-01 6.962259e-01 2.328604e-01 2.614344e-02 1.058822e-01 1.778859e-01 7.456761e-02 2.177226e-01 -1.116158e+00 9.806957e-03 -8.964634e-02 -1.039549e-01 -8.092950e-02 6.483021e-02 1.097811e-01 1.736583e-02 5.477538e-02 2.922127e-02 4.543088e-02 -4.228958e-03 2.639627e-04 2.791492e-02
<VARIANCE> 39
 1.800074e+01 3.032375e+01 4.923190e+01 2.508681e+01 5.126616e+01 4.820198e+01 7.082314e+01 4.676240e+01 4.103517e+01 4.809200e+01 4.518186e+01 4.361644e+01 3.461191e+01 3.768314e-01 7.776426e-01 1.093346e+00 1.150166e+00 1.641075e+00 1.931612e+00 1.915498e+00 1.835568e+00 1.799564e+00 1.992136e+00 2.397081e+00 1.521038e+00 4.608489e-01 5.053419e-02 1.152896e-01 1.650644e-01 1.814787e-01 2.166958e-01 3.122253e-01 3.350779e-01 3.377883e-01 3.348373e-01 3.501000e-01 4.223174e-01 2.929515e-01 6.293879e-02
<GCONST> 1.024180e+02
<TRANSP> 5
 0.000000e+00 1.000000e+00 0.000000e+00 0.000000e+00 0.000000e+00
 0.000000e+00 8.976318e-01 1.023682e-01 0.000000e+00 0.000000e+00
 0.000000e+00 0.000000e+00 8.950447e-01 1.049553e-01 0.000000e+00
 0.000000e+00 0.000000e+00 0.000000e+00 9.022092e-01 9.779082e-02
 0.000000e+00 0.000000e+00 0.000000e+00 0.000000e+00 0.000000e+00
<ENDHMM>
~h "ai"
<BEGINHMM>
<NUMSTATES> 5
<STATE> 2
<MEAN> 39
 -4.820080e-01 -8.308132e+00 -6.500753e+00 -8.539496e+00 -1.052883e+01 -1.302555e+01 -6.992388e+00 -1.603644e+00 4.169731e+00 -1.115591e+00 -4.267758e+00 -5.767256e+00 7.607350e+01 -4.004237e-01 8.166515e-01 1.626909e+00 1.551184e+00 -1.235958e+00 -2.181825e+00 -7.062675e-01 1.006521e-01 -1.862225e-01 -8.624636e-01 4.553248e-01 1.101336e+00 -4.708786e-01 -5.383785e-02 2.613147e-01 1.140203e-01 -5.509704e-02 -1.218956e-01 3.286940e-01 3.638750e-01 -3.212495e-01 -5.388042e-01 -1.109610e-01 2.588203e-01 1.204936e-01 -1.231776e-01
<VARIANCE> 39
 1.196782e+01 2.874703e+01 5.709948e+01 4.539765e+01 6.761797e+01 8.617307e+01 4.433463e+01 4.697737e+01 4.324310e+01 8.472394e+01 4.613300e+01 5.189893e+01 1.225671e+01 4.329123e-01 8.847678e-01 1.215957e+00 1.830621e+00 1.967984e+00 3.173857e+00 2.509692e+00 4.036937e+00 3.819284e+00 2.903471e+00 3.717921e+00 1.933511e+00 2.980253e-01 5.437526e-02 1.283769e-01 1.984300e-01 2.522840e-01 3.570821e-01 5.361130e-01 3.217391e-01 5.364570e-01 3.734252e-01 5.905944e-01 4.840303e-01 4.410875e-01 3.034631e-02
<GCONST> 1.094190e+02
<STATE> 3
<MEAN> 39
 -3.051611e+00 4.499281e-01 3.495615e+00 -2.520701e+00 -1.706806e+01 -1.732949e+01 -5.756249e+00 -8.637959e+00 -5.902088e+00 -5.482091e+00 -4.698246e-01 -2.556735e+00 7.052715e+01 -3.550664e-01 1.124193e+00 6.653240e-01 4.355494e-01 2.600346e-01 5.294136e-01 3.030058e-01 -7.499314e-01 -8.939274e-01 -1.484971e-01 -2.683179e-01 -2.774940e-01 -9.529555e-01 7.709826e-03 -1.168332e-01 -1.965189e-01 -6.367148e-02 2.587924e-01 1.600414e-01 -6.998833e-04 1.915761e-01 2.125740e-01 9.395699e-02 -1.499281e-01 -1.138542e-01 -3.976470e-02
<VARIANCE> 39
 1.013807e+01 2.852956e+01 5.851541e+01 3.978060e+01 5.205462e+01 4.876197e+01 3.493336e+01 4.206457e+01 5.298129e+01 3.722679e+01 4.040997e+01 3.371980e+01 1.594459e+01 2.820851e-01 6.061454e-01 9.879658e-01 1.055291e+00 1.475556e+00 1.062912e+00 1.705568e+00 1.920640e+00 2.121656e+00 1.564584e+00 1.885577e+00 1.276089e+00 2.382758e-01 4.505305e-02 7.999534e-02 1.298823e-01 1.858970e-01 2.582327e-01 2.176626e-01 2.953742e-01 3.106899e-01 3.093177e-01 2.608813e-01 3.865525e-01 2.619229e-01 2.447473e-02
<GCONST> 9.522395e+01
<STATE> 4
<MEAN> 39
 -8.288452e+00 5.764325e+00 4.924800e+00 1.532185e+00 -8.750268e+00 -1.079668e+01 -1.844459e+00 -8.334312e+00 -5.610435e+00 -3.608945e+00 -2.813036e+00 -2.791532e+00 6.164124e+01 -4.035398e-01 -2.509691e-01 -4.131843e-01 4.339287e-02 7.950315e-01 8.199210e-01 3.568415e-01 4.432817e-01 3.069737e-01 2.062062e-01 1.585299e-01 2.381587e-01 -9.124522e-01 8.494502e-03 -1.300566e-01 -9.600119e-02 -9.988190e-02 -4.499129e-02 -1.412820e-02 -3.050940e-02 7.257173e-02 1.019640e-01 3.447406e-02 5.498230e-02 7.902247e-02 5.366218e-02
<VARIANCE> 39
 2.072000e+01 3.460547e+01 4.415176e+01 2.467190e+01 4.968712e+01 4.739239e+01 5.105787e+01 3.291737e+01 4.806293e+01 4.290433e+01 3.028563e+01 3.069986e+01 2.603380e+01 4.075141e-01 7.667068e-01 9.206074e-01 9.743589e-01 1.394124e+00 1.451479e+00 1.580580e+00 1.866724e+00 1.877079e+00 1.617399e+00 1.562224e+00 1.273504e+00 2.308760e-01 6.043020e-02 1.120209e-01 1.408751e-01 1.759220e-01 2.183725e-01 2.353543e-01 2.917558e-01 3.116650e-01 2.974685e-01 2.604175e-01 2.837883e-01 2.443044e-01 2.042658e-02
<GCONST> 9.583344e+01
<TRANSP> 5
 0.000000e+00 1.000000e+00 0.000000e+00 0.000000e+00 0.000000e+00
 0.000000e+00 8.458150e-01 1.541850e-01 0.000000e+00 0.000000e+00
 0.000000e+00 0.000000e+00 8.710611e-01 1.289389e-01 0.000000e+00
 0.000000e+00 0.000000e+00 0.000000e+00 8.932509e-01 1.067491e-01
 0.000000e+00 0.000000e+00 0.000000e+00 0.000000e+00 0.000000e+00
<ENDHMM>
~h "ao"
<BEGINHMM>
<NUMSTATES> 5
<STATE> 2
<MEAN> 39
 3.853037e-01 -5.372863e+00 -1.084121e+01 -1.852066e+01 -1.531670e+01 -7.691909e-01 7.997636e+00 1.557314e+00 -5.796514e+00 -5.503365e+00 -4.021760e+00 -3.563927e+00 7.552636e+01 2.087333e-01 3.975537e-01 2.068967e-01 -2.825810e-01 -6.911966e-01 -7.117998e-02 -3.578602e-02 -2.104514e-01 3.010180e-01 2.064236e-01 -2.293574e-01 3.662668e-02 -4.642955e-01 2.051490e-02 1.722404e-01 2.698826e-02 4.619522e-03 -2.388027e-02 -9.841845e-02 -7.068451e-02 -8.614015e-02 6.480265e-02 4.166357e-02 -5.815318e-02 4.114166e-03 -9.988735e-02
<VARIANCE> 39
 1.407751e+01 3.514104e+01 2.153951e+01 2.074033e+01 6.571642e+01 7.226051e+01 4.555842e+01 7.635945e+01 5.082447e+01 5.768204e+01 2.806837e+01 3.498600e+01 2.591052e+01 4.812765e-01 9.297600e-01 5.066949e-01 7.928880e-01 1.325716e+00 1.565210e+00 1.572340e+00 2.007934e+00 2.009050e+00 2.074841e+00 1.366571e+00 1.537686e+00 6.121196e-01 8.227386e-02 9.185243e-02 9.108411e-02 1.441785e-01 2.632272e-01 3.192925e-01 2.669267e-01 3.067172e-01 3.814591e-01 3.387499e-01 2.263663e-01 2.822523e-01 6.048456e-02
<GCONST> 9.877451e+01
<STATE> 3
<MEAN> 39
 3.664776e+00 -7.282469e-01 -1.026301e+01 -2.143622e+01 -1.674937e+01 1.990633e+00 5.745963e+00 -5.351398e+00 -2.010078e+00 -4.812475e+00 -4.419504e+00 -2.151161e+00 7.102441e+01 1.493277e-02 6.154560e-01 2.199715e-01 2.527095e-02 -3.543362e-01 -5.747538e-01 -2.365625e-01 2.870228e-01 7.735851e-02 8.641354e-03 -1.166697e-01 -3.517228e-02 -3.959914e-01 -2.545189e-02 3.983173e-02 2.066049e-02 6.246407e-02 4.628371e-02 -5.833457e-02 -4.008393e-02 2.085491e-02 -2.032210e-03 -5.260690e-03 6.236878e-03 -3.088045e-02 -2.841304e-02
<VARIANCE> 39
 6.867436e+00 3.890408e+01 5.063345e+01 2.444821e+01 8.040569e+01 5.647356e+01 3.543610e+01 7.475214e+01 5.448379e+01 4.866008e+01 3.486024e+01 3.428114e+01 1.408196e+01 9.483752e-02 3.982891e-01 3.847905e-01 5.668858e-01 6.857410e-01 8.358377e-01 9.072646e-01 9.202042e-01 9.953056e-01 8.167329e-01 8.353894e-01 8.472586e-01 1.155120e-01 1.638037e-02 3.963663e-02 5.605085e-02 8.000501e-02 1.118888e-01 1.192202e-01 1.343988e-01 1.471885e-01 1.590873e-01 1.406496e-01 1.506480e-01 1.290726e-01 8.512407e-03
<GCONST> 7.656258e+01
<STATE> 4
<MEAN> 39
 -3.736914e-01 7.250348e+00 -5.489640e+00 -1.386589e+01 -1.612291e+01 -7.688602e+00 5.731084e-01 -3.018216e-01 -1.445257e+00 -1.907961e+00 -4.149952e+00 -3.274112e+00 6.120113e+01 -6.376671e-01 -9.505708e-02 1.999243e-01 9.277065e-01 9.735546e-01 3.837297e-02 -2.956641e-01 9.253696e-02 1.525577e-01 7.235231e-02 2.909812e-01 1.861950e-01 -7.522594e-01 -4.269767e-02 -1.287790e-01 -2.831409e-02 1.279897e-02 7.635955e-02 1.183335e-01 5.560895e-02 4.660074e-04 2.340571e-02 3.574741e-02 5.382754e-02 6.875300e-02 2.424550e-02
<VARIANCE> 39
 1.325631e+01 2.400410e+01 2.885943e+01 3.492477e+01 5.945492e+01 3.288298e+01 4.336359e+01 3.565645e+01 3.775463e+01 4.612835e+01 2.586436e+01 2.954266e+01 3.286091e+01 3.362122e-01 7.897052e-01 7.457205e-01 1.142911e+00 1.485926e+00 1.518818e+00 1.454651e+00 1.717744e+00 1.926370e+00 1.648208e+00 1.533107e+00 1.501687e+00 2.322426e-01 4.513584e-02 9.713231e-02 1.131580e-01 1.857742e-01 2.205327e-01 2.312473e-01 2.381563e-01 2.900450e-01 3.428556e-01 3.029467e-01 2.629687e-01 2.614281e-01 2.621629e-02
<GCONST> 9.412004e+01
<TRANSP> 5
 0.000000e+00 1.000000e+00 0.000000e+00 0.000000e+00 0.000000e+00
 0.000000e+00 8.000692e-01 1.999308e-01 0.000000e+00 0.000000e+00
 0.000000e+00 0.000000e+00 9.193581e-01 8.064196e-02 0.000000e+00
 0.000000e+00 0.000000e+00 0.000000e+00 9.231815e-01 7.681852e-02
 0.000000e+00 0.000000e+00 0.000000e+00 0.000000e+00 0.000000e+00
<ENDHMM>
~h "au"
<BEGINHMM>
<NUMSTATES> 5
<STATE> 2
<MEAN> 39
 1.249441e+00 -5.272751e+00 -1.133286e+01 -1.107460e+01 -1.107097e+01 -7.497518e+00 -5.900462e+00 -5.685264e+00 2.377993e+00 6.117216e-02 6.039990e-01 -5.106819e+00 7.484169e+01 2.872133e-02 5.827964e-01 4.488001e-01 7.000463e-01 -2.729678e-01 -9.385307e-01 -8.833157e-01 -5.879021e-01 2.963759e-02 -1.726622e-01 3.043635e-01 4.312748e-01 -3.561675e-01 1.149236e-02 1.347704e-01 4.346631e-02 5.699443e-02 5.487656e-02 6.988234e-03 3.850174e-02 -9.706157e-02 -1.503097e-01 -1.275756e-01 -3.340797e-02 5.229713e-02 -9.240455e-02
<VARIANCE> 39
 1.031291e+01 2.693013e+01 3.090500e+01 5.964940e+01 5.055843e+01 8.640920e+01 8.382651e+01 4.383564e+01 6.595716e+01 6.021350e+01 4.003621e+01 6.032664e+01 1.347812e+01 1.930445e-01 5.964858e-01 4.549637e-01 7.827720e-01 9.410365e-01 1.256567e+00 1.185097e+00 1.720764e+00 1.713734e+00 1.448944e+00 1.445522e+00 1.426396e+00 1.471736e-01 2.496591e-02 6.877325e-02 6.978025e-02 9.837940e-02 1.475120e-01 2.141077e-01 1.992746e-01 1.940512e-01 2.672503e-01 2.323147e-01 2.201895e-01 2.441081e-01 1.491177e-02
<GCONST> 8.953079e+01
<STATE> 3
<MEAN> 39
 2.144434e+00 3.793926e+00 -5.488104e+00 -6.397015e+00 -1.116907e+01 -1.123241e+01 -9.293203e+00 -1.348580e+01 -5.996468e+00 -3.148299e+00 1.425022e+00 -1.130102e+00 6.820984e+01 -6.748758e-02 9.503640e-01 4.782101e-01 4.576820e-01 3.222572e-01 1.073653e-01 3.822482e-02 -1.692807e-01 -7.439725e-01 -6.882676e-01 -4.544830e-01 3.658853e-02 -9.184340e-01 -7.047857e-02 -5.800625e-02 -9.550914e-03 -5.848613e-02 5.226905e-02 1.093984e-01 1.120348e-01 2.091969e-01 1.360471e-01 4.587678e-02 -1.003960e-01 -9.733682e-02 -2.145154e-02
<VARIANCE> 39
 8.862874e+00 2.326548e+01 2.368863e+01 4.848352e+01 3.987510e+01 5.685396e+01 5.574656e+01 6.398382e+01 7.871536e+01 6.218486e+01 3.022212e+01 4.046679e+01 1.741700e+01 2.115242e-01 6.229879e-01 6.072202e-01 1.003806e+00 1.040307e+00 1.355281e+00 1.569786e+00 1.890491e+00 1.707257e+00 1.601080e+00 1.563290e+00 1.329363e+00 2.371937e-01 2.763927e-02 6.199438e-02 9.122065e-02 1.464910e-01 1.915387e-01 1.820408e-01 2.483272e-01 2.548595e-01 2.846418e-01 2.431419e-01 2.596954e-01 2.063374e-01 1.666238e-02
<GCONST> 9.113573e+01
<STATE> 4
<MEAN> 39
 -2.322791e+00 9.220810e+00 -1.927982e+00 -3.111223e+00 -6.272737e+00 -6.581815e+00 -5.419152e+00 -9.383560e+00 -6.337299e+00 -6.284804e+00 -3.002948e+00 -1.586768e+00 5.942040e+01 -6.971267e-01 -3.415865e-01 1.056994e-01 3.625835e-01 7.072637e-01 4.287844e-01 3.001939e-01 6.872710e-01 4.478999e-01 2.010578e-01 -1.077567e-01 -1.707597e-02 -7.501153e-01 -3.030160e-02 -1.543029e-01 -7.945853e-02 -3.713725e-02 1.364665e-02 1.799900e-02 1.982006e-02 3.293435e-02 5.350678e-02 1.207807e-01 1.244337e-01 8.022595e-02 5.415210e-02
<VARIANCE> 39
 1.152789e+01 2.825491e+01 2.013323e+01 3.047965e+01 2.906828e+01 2.874503e+01 3.806761e+01 3.045257e+01 3.784644e+01 3.530331e+01 3.057113e+01 3.040136e+01 2.492705e+01 3.458913e-01 7.336094e-01 6.319245e-01 9.854162e-01 1.261888e+00 1.469164e+00 1.910452e+00 1.767760e+00 1.765423e+00 1.905418e+00 1.502496e+00 1.632470e+00 2.382952e-01 4.787237e-02 1.069699e-01 1.073010e-01 1.588689e-01 2.024733e-01 2.366094e-01 2.890402e-01 3.020968e-01 2.947105e-01 3.186101e-01 2.700348e-01 2.872737e-01 2.253603e-02
<GCONST> 9.204207e+01
<TRANSP> 5
 0.000000e+00 1.000000e+00 0.000000e+00 0.000000e+00 0.000000e+00
 0.000000e+00 8.769802e-01 1.230198e-01 0.000000e+00 0.000000e+00
 0.000000e+00 0.000000e+00 8.848758e-01 1.151242e-01 0.000000e+00
 0.000000e+00 0.000000e+00 0.000000e+00 8.961335e-01 1.038665e-01
 0.000000e+00 0.000000e+00 0.000000e+00 0.000000e+00 0.000000e+00
<ENDHMM>
~h "ee"
<BEGINHMM>
<NUMSTATES> 5
<STATE> 2
<MEAN> 39
 -4.272069e+00 -1.494349e+00 5.808735e+00 -4.042728e+00 -2.182307e+01 -1.923846e+01 -4.717622e+00 -1.004046e+01 -7.649264e+00 -5.302292e+00 2.233135e+00 -1.693224e+00 7.534593e+01 -1.480940e-03 -5.087722e-02 -3.497862e-02 -2.776806e-02 4.477261e-03 -2.761712e-02 2.213240e-02 7.928889e-02 3.631102e-02 -4.220038e-02 2.408112e-02 -9.592935e-03 -8.434036e-02 5.181981e-03 2.759223e-02 -1.790481e-02 6.398326e-03 3.377169e-02 1.121477e-02 7.645518e-03 2.539992e-02 1.045577e-02 -2.353994e-02 -2.727759e-02 -5.998687e-03 -3.576535e-02
<VARIANCE> 39
 7.944287e+00 2.159541e+01 4.385150e+01 5.237139e+01 4.077089e+01 5.080005e+01 3.601627e+01 4.387917e+01 2.457506e+01 4.061030e+01 5.136969e+01 6.456837e+01 9.037125e+00 7.957309e-02 2.593551e-01 3.224799e-01 4.086200e-01 5.764058e-01 5.883987e-01 6.293228e-01 6.074362e-01 6.097581e-01 6.977586e-01 6.333224e-01 5.657092e-01 8.853414e-02 1.420230e-02 4.261073e-02 5.641926e-02 7.249402e-02 1.027823e-01 1.150381e-01 1.222956e-01 1.081718e-01 1.179276e-01 1.302000e-01 1.130225e-01 1.097285e-01 1.274864e-02
<GCONST> 6.992006e+01
<STATE> 3
<MEAN> 39
 -3.655037e+00 -1.223000e+00 5.449897e+00 -1.339377e+00 -1.977829e+01 -2.167667e+01 -6.325202e+00 -5.277869e+00 -5.504913e+00 -6.830431e+00 -8.167667e-01 7.256699e-01 7.170750e+01 2.963156e-02 1.850217e-01 -1.870739e-01 7.267380e-02 2.592386e-01 1.534906e-01 1.554917e-01 1.893989e-01 1.909385e-01 -1.584792e-01 -2.767765e-01 -1.737789e-01 -5.644205e-01 6.711444e-03 7.187975e-02 -3.073533e-02 8.010757e-02 1.583954e-01 9.508561e-02 1.062501e-02 -1.194370e-02 -2.256241e-02 1.671850e-02 -7.842579e-02 -4.651229e-02 -1.147116e-01
<VARIANCE> 39
 1.002281e+01 2.009985e+01 3.162808e+01 4.000978e+01 7.654894e+01 4.985206e+01 2.928090e+01 4.153749e+01 4.618368e+01 3.666716e+01 4.387274e+01 4.762754e+01 1.643514e+01 2.221734e-01 5.101687e-01 5.587836e-01 9.565182e-01 1.096893e+00 9.328029e-01 1.577514e+00 1.141878e+00 1.514059e+00 1.213053e+00 1.433036e+00 1.417664e+00 2.149055e-01 3.685283e-02 9.866802e-02 1.059108e-01 1.833170e-01 2.192687e-01 2.034941e-01 2.810395e-01 2.259220e-01 2.631497e-01 2.492920e-01 2.394344e-01 2.274215e-01 3.609915e-02
<GCONST> 9.056100e+01
<STATE> 4
<MEAN> 39
 -5.492462e+00 5.853471e-01 3.510417e+00 -7.249033e-01 -1.426576e+01 -1.450175e+01 -2.781010e+00 -4.727610e+00 -4.468904e+00 -5.600031e+00 -9.382316e-01 -1.632320e+00 6.373355e+01 -2.181150e-01 2.265660e-01 -5.840453e-01 2.871849e-01 1.388269e+00 1.038699e+00 1.678277e-01 3.092709e-01 2.046537e-01 3.342884e-01 -1.275637e-01 1.751859e-01 -1.248080e+00 -3.319738e-02 -4.446085e-02 -5.031535e-02 -5.847811e-02 5.380719e-02 3.638824e-02 -8.601706e-03 1.897156e-02 -4.937803e-03 4.636633e-02 1.000675e-01 4.214623e-02 4.896446e-02
<VARIANCE> 39
 1.224764e+01 2.147044e+01 2.621188e+01 3.226485e+01 5.108248e+01 4.714199e+01 3.689179e+01 3.996817e+01 4.500921e+01 5.311713e+01 4.480876e+01 4.540724e+01 4.002567e+01 5.250435e-01 1.157958e+00 8.252100e-01 1.234244e+00 1.653006e+00 1.865961e+00 2.067394e+00 2.321357e+00 2.492092e+00 2.333159e+00 2.325932e+00 1.999400e+00 5.327865e-01 5.691415e-02 1.445253e-01 1.237681e-01 1.765060e-01 2.336738e-01 3.057579e-01 3.399656e-01 3.944810e-01 4.756868e-01 3.415643e-01 3.705718e-01 3.509502e-01 7.482460e-02
<GCONST> 1.033205e+02
<TRANSP> 5
 0.000000e+00 1.000000e+00 0.000000e+00 0.000000e+00 0.000000e+00
 0.000000e+00 9.332752e-01 6.672484e-02 0.000000e+00 0.000000e+00
 0.000000e+00 0.000000e+00 8.486540e-01 1.513460e-01 0.000000e+00
 0.000000e+00 0.000000e+00 0.000000e+00 8.538910e-01 1.461090e-01
 0.000000e+00 0.000000e+00 0.000000e+00 0.000000e+00 0.000000e+00
<ENDHMM>
~h "ei"
<BEGINHMM>
<NUMSTATES> 5
<STATE> 2
<MEAN> 39
 -2.735901e+00 -4.956098e+00 7.475476e-01 -5.033262e+00 -1.811649e+01 -1.977368e+01 -3.666851e+00 -8.089186e-01 -2.261873e+00 -7.234482e+00 9.463130e-01 -2.534143e+00 7.568739e+01 -1.032976e-01 4.612560e-01 6.744394e-01 1.999525e-01 -3.303900e-01 -1.237013e-01 -4.624844e-02 -7.788184e-01 -6.636795e-01 4.003701e-02 4.733959e-01 1.448158e-01 -2.778337e-01 -5.478445e-03 9.278353e-02 7.102508e-03 4.976596e-02 5.427232e-02 7.938170e-02 2.033278e-03 -1.065541e-01 -7.187115e-02 2.030635e-02 -7.854697e-02 -4.688856e-02 -7.055343e-02
<VARIANCE> 39
 6.343023e+00 2.184542e+01 4.001045e+01 5.191662e+01 5.085135e+01 7.215211e+01 4.255750e+01 4.870228e+01 3.672511e+01 5.706187e+01 3.847028e+01 4.637331e+01 9.127970e+00 1.243158e-01 3.752523e-01 4.860355e-01 5.285172e-01 7.083517e-01 8.179150e-01 8.474104e-01 1.260754e+00 1.018600e+00 1.220012e+00 8.710923e-01 9.104452e-01 1.603565e-01 2.074757e-02 5.369594e-02 7.543711e-02 8.997910e-02 1.046744e-01 1.253428e-01 1.564751e-01 1.789433e-01 1.539328e-01 1.756588e-01 1.528898e-01 1.548890e-01 2.105137e-02
<GCONST> 7.977251e+01
<STATE> 3
<MEAN> 39
 -4.080364e+00 2.551986e+00 8.791449e+00 -1.960935e+00 -1.893962e+01 -1.548452e+01 -3.148779e+00 -1.044785e+01 -9.259471e+00 -4.798044e+00 5.185416e-01 -3.145818e+00 6.986600e+01 -1.353139e-01 7.080408e-01 3.172817e-01 2.970124e-01 4.374462e-01 5.855960e-01 1.407525e-01 -3.453716e-01 -2.350336e-01 -1.157329e-01 -4.008038e-01 -3.221518e-01 -7.076566e-01 -1.566212e-02 -4.416982e-02 -8.741309e-02 1.091826e-02 1.288007e-01 3.618573e-02 -3.296979e-03 1.137818e-01 9.312749e-02 -2.362378e-02 -1.619941e-02 3.405349e-02 -2.735968e-02
<VARIANCE> 39
 6.461839e+00 2.343659e+01 3.470396e+01 4.760268e+01 4.885134e+01 6.692066e+01 2.797549e+01 4.032722e+01 3.404644e+01 5.058898e+01 3.586881e+01 3.773320e+01 1.409454e+01 1.302392e-01 3.987023e-01 6.380767e-01 8.226505e-01 9.939235e-01 1.048924e+00 1.032402e+00 1.446926e+00 9.896865e-01 1.054099e+00 9.545937e-01 1.081013e+00 1.645001e-01 2.296241e-02 5.164272e-02 9.183300e-02 1.323594e-01 1.654186e-01 1.826035e-01 1.862595e-01 2.242602e-01 1.709161e-01 1.755691e-01 1.642870e-01 1.926943e-01 1.459205e-02
<GCONST> 8.263595e+01
<STATE> 4
<MEAN> 39
 -7.383477e+00 5.832459e+00 7.911221e+00 2.159033e+00 -1.093508e+01 -8.777799e+00 -1.788549e+00 -9.533384e+00 -7.902035e+00 -5.921084e+00 -2.527841e+00 -2.756793e+00 6.173684e+01 -3.206542e-01 -3.109044e-01 -8.122817e-01 4.167421e-02 1.122921e+00 7.713243e-01 1.714531e-01 5.403183e-01 2.494400e-01 2.901092e-01 6.177113e-02 2.176398e-01 -8.888103e-01 -2.520785e-02 -1.209824e-01 -9.855021e-02 -9.523381e-02 -4.718136e-02 -4.558908e-04 5.726958e-02 1.364734e-01 1.053104e-01 1.101968e-01 6.769479e-02 4.309832e-02 2.966515e-02
<VARIANCE> 39
 1.109213e+01 2.800833e+01 4.838292e+01 2.448166e+01 6.824245e+01 4.717185e+01 3.633255e+01 3.404439e+01 3.748618e+01 3.693975e+01 2.432269e+01 3.616983e+01 3.077863e+01 3.559917e-01 7.720658e-01 1.056455e+00 9.949585e-01 1.894960e+00 1.483187e+00 1.847813e+00 2.158360e+00 1.726227e+00 1.712268e+00 1.555972e+00 1.485113e+00 3.585549e-01 5.765751e-02 1.194275e-01 1.576149e-01 1.500102e-01 3.019668e-01 2.842772e-01 3.593271e-01 3.541969e-01 2.628489e-01 2.855703e-01 2.758629e-01 2.500498e-01 4.623494e-02
<GCONST> 9.762373e+01
<TRANSP> 5
 0.000000e+00 1.000000e+00 0.000000e+00 0.000000e+00 0.000000e+00
 0.000000e+00 8.767750e-01 1.232250e-01 0.000000e+00 0.000000e+00
 0.000000e+00 0.000000e+00 8.966045e-01 1.033954e-01 0.000000e+00
 0.000000e+00 0.000000e+00 0.000000e+00 8.963880e-01 1.036120e-01
 0.000000e+00 0.000000e+00 0.000000e+00 0.000000e+00 0.000000e+00
<ENDHMM>
~h "ii"
<BEGINHMM>
<NUMSTATES> 5
<STATE> 2
<MEAN> 39
 -5.064918e+00 3.388957e+00 9.736839e+00 -4.355259e+00 -1.482424e+01 -1.324046e+01 -4.613248e+00 -1.319510e+01 -1.093444e+01 -6.985813e+00 -1.934079e+00 -5.913645e+00 7.162170e+01 2.395563e-02 1.946133e-01 -4.129333e-02 7.366271e-02 1.496852e-01 1.028447e-01 5.503077e-02 -2.512871e-02 2.783609e-02 -3.465290e-02 9.401473e-03 -8.026375e-02 -2.682115e-01 8.598699e-03 2.743441e-02 -4.566739e-02 4.429905e-02 6.224667e-02 2.074587e-02 1.076199e-02 2.678404e-02 1.187073e-02 -1.500398e-02 -2.811112e-02 -4.324396e-03 -5.285337e-02
<VARIANCE> 39
 8.131149e+00 1.853748e+01 2.665523e+01 7.133257e+01 5.414784e+01 6.508007e+01 3.983364e+01 5.489838e+01 2.880185e+01 3.680612e+01 3.786134e+01 5.211345e+01 8.123372e+00 1.266430e-01 2.706343e-01 3.235276e-01 5.246728e-01 5.944831e-01 6.009263e-01 6.770015e-01 5.122975e-01 6.185523e-01 7.874064e-01 8.973531e-01 6.678578e-01 9.554132e-02 2.317223e-02 4.415138e-02 5.000620e-02 8.140627e-02 1.077800e-01 1.240993e-01 1.222931e-01 1.081325e-01 1.194779e-01 1.396258e-01 1.647514e-01 1.058658e-01 1.476023e-02
<GCONST> 7.254708e+01
<STATE> 3
<MEAN> 39
 -6.247940e+00 8.944184e+00 1.184099e+01 4.030380e-02 -1.261762e+01 -1.198349e+01 -9.894576e-01 -1.303819e+01 -8.475274e+00 -5.806628e+00 -3.510770e+00 -2.903443e+00 6.811050e+01 -5.739870e-02 2.193447e-01 -1.356340e-01 1.887170e-01 4.240244e-01 1.472326e-01 5.879371e-02 2.087501e-01 1.387331e-01 8.725221e-02 -2.029808e-02 3.208293e-02 -4.266590e-01 -3.230204e-02 -5.222345e-02 -3.750160e-02 1.113739e-02 5.358740e-02 2.794068e-02 -2.545465e-02 4.960805e-02 8.931966e-03 -2.785161e-02 4.365202e-05 1.017389e-02 -3.550896e-02
<VARIANCE> 39
 1.412403e+01 1.496921e+01 7.789909e+01 2.178720e+01 3.732226e+01 4.087650e+01 2.501499e+01 3.413092e+01 2.858950e+01 2.874466e+01 2.561017e+01 3.093288e+01 8.450900e+00 1.403925e-01 4.026400e-01 6.111333e-01 6.364126e-01 8.853845e-01 9.841262e-01 9.067839e-01 1.108674e+00 9.227074e-01 8.702310e-01 9.998931e-01 9.004135e-01 1.955714e-01 2.514944e-02 5.754066e-02 1.002647e-01 9.725805e-02 1.473702e-01 1.637861e-01 1.756642e-01 2.116461e-01 1.748100e-01 1.644956e-01 1.751956e-01 1.699523e-01 2.115773e-02
<GCONST> 7.905882e+01
<STATE> 4
<MEAN> 39
 -9.381277e+00 8.376390e+00 9.324468e+00 2.413540e+00 -6.106674e+00 -7.292264e+00 -2.633994e-01 -1.027140e+01 -8.049161e+00 -5.564833e+00 -3.752051e+00 -3.238561e+00 5.995737e+01 -2.792281e-01 -5.328399e-01 -8.577831e-01 1.196320e-01 7.584748e-01 6.783341e-01 3.011028e-01 7.216015e-01 4.309226e-01 1.435203e-01 5.904041e-02 1.499152e-01 -7.498139e-01 -2.662388e-02 -8.754268e-02 -6.819539e-02 -1.135194e-01 -6.758175e-02 2.212061e-02 3.641944e-02 1.054271e-01 1.158238e-01 9.082289e-02 8.722284e-02 3.563773e-02 3.430757e-02
<VARIANCE> 39
 1.859639e+01 2.322265e+01 4.992377e+01 2.106964e+01 3.879326e+01 4.101908e+01 4.497227e+01 3.175122e+01 3.014066e+01 3.299416e+01 2.144405e+01 2.857900e+01 2.232162e+01 3.540801e-01 6.899852e-01 9.254965e-01 9.377927e-01 1.566614e+00 1.278161e+00 1.814380e+00 1.767113e+00 1.925183e+00 1.919081e+00 1.608004e+00 1.574740e+00 2.469998e-01 5.858822e-02 1.081202e-01 1.335538e-01 1.592738e-01 2.273594e-01 2.281905e-01 3.283630e-01 2.405577e-01 3.182458e-01 3.559734e-01 3.260377e-01 2.807710e-01 3.045361e-02
<GCONST> 9.444213e+01
<TRANSP> 5
 0.000000e+00 1.000000e+00 0.000000e+00 0.000000e+00 0.000000e+00
 0.000000e+00 9.016759e-01 9.832402e-02 0.000000e+00 0.000000e+00
 0.000000e+00 0.000000e+00 8.980501e-01 1.019500e-01 0.000000e+00
 0.000000e+00 0.000000e+00 0.000000e+00 8.880948e-01 1.119051e-01
 0.000000e+00 0.000000e+00 0.000000e+00 0.000000e+00 0.000000e+00
<ENDHMM>
~h "oe"
<BEGINHMM>
<NUMSTATES> 5
<STATE> 2
<MEAN> 39
 9.186456e-01 -3.567471e+00 -8.036476e+00 -9.830430e+00 -1.076269e+01 -1.153500e+01 -1.067264e+01 -1.316259e+01 -1.475995e+00 2.515417e+00 3.202236e+00 -8.091431e-01 7.428848e+01 -6.505232e-01 -1.027136e+00 1.073749e+00 2.450895e+00 4.200086e-01 -2.531006e+00 -1.806793e+00 1.023797e+00 2.017187e+00 2.868325e-01 -9.151813e-01 -1.085854e+00 2.671142e-01 -2.699845e-02 3.068055e-01 4.151130e-01 -4.911968e-02 -5.474637e-01 -2.782193e-01 6.424250e-01 6.788294e-01 -2.891613e-01 -9.206176e-01 -5.144300e-01 3.607252e-01 -2.023459e-01
<VARIANCE> 39
 1.127731e+01 2.520414e+01 4.573553e+01 4.339537e+01 4.481131e+01 6.080053e+01 3.896230e+01 5.165891e+01 5.935949e+01 4.495957e+01 4.567553e+01 5.469313e+01 1.266103e+01 2.343336e-01 8.598915e-01 1.187083e+00 1.569008e+00 2.806234e+00 2.556229e+00 3.591619e+00 3.844672e+00 2.985455e+00 4.758543e+00 2.803313e+00 2.627874e+00 3.236973e-01 4.564866e-02 9.881037e-02 1.762887e-01 3.470639e-01 3.284429e-01 5.768189e-01 5.681453e-01 5.569005e-01 9.121251e-01 3.896495e-01 6.569730e-01 6.711105e-01 3.488829e-02
<GCONST> 1.096085e+02
<STATE> 3
<MEAN> 39
 -1.423338e+00 -4.192458e+00 -7.790687e-01 -3.392209e+00 -1.495083e+01 -2.139652e+01 -9.607291e+00 -4.548411e+00 -1.494664e+00 -5.049242e+00 -3.664874e-01 -1.802030e-01 7.236701e+01 -3.222794e-01 6.224369e-01 8.142945e-01 5.054495e-01 -1.211165e-01 -3.202657e-01 5.527855e-01 5.179172e-01 -5.706713e-01 -6.690440e-01 -3.422365e-02 2.555792e-01 -8.573290e-01 7.681262e-03 1.562550e-01 -1.964851e-01 -1.569256e-01 2.297208e-01 4.483195e-01 4.666993e-02 -2.556592e-01 -3.708446e-02 2.891187e-01 2.019502e-01 -6.999874e-02 -2.032780e-01
<VARIANCE> 39
 9.681519e+00 2.103044e+01 4.841287e+01 4.588121e+01 4.889051e+01 4.678447e+01 3.855802e+01 4.099483e+01 3.645349e+01 5.435501e+01 4.638988e+01 3.051779e+01 1.271271e+01 3.576973e-01 8.189476e-01 1.289227e+00 1.271926e+00 1.942134e+00 2.407113e+00 2.166496e+00 2.387146e+00 1.832747e+00 2.277332e+00 2.097630e+00 1.598407e+00 7.755020e-01 6.232044e-02 1.289186e-01 2.053892e-01 2.321005e-01 2.798052e-01 3.643907e-01 3.825007e-01 3.666221e-01 3.872831e-01 3.672802e-01 3.646751e-01 2.749768e-01 6.913868e-02
<GCONST> 1.029893e+02
<STATE> 4
<MEAN> 39
 -5.928524e+00 1.139118e+00 8.001842e-01 5.413278e-01 -9.430980e+00 -1.455415e+01 -4.866953e+00 -4.253251e+00 -2.477777e+00 -3.211557e+00 1.829698e-01 5.516131e-01 6.221173e+01 -5.262961e-01 5.960894e-02 -3.006343e-01 5.845358e-02 7.153867e-01 1.050469e+00 4.645378e-01 2.323113e-01 2.226301e-01 3.312730e-01 1.016560e-01 8.215322e-02 -1.007760e+00 -8.755887e-03 -1.387632e-01 -6.731642e-02 -1.011007e-01 -2.767907e-02 2.104914e-02 -2.214879e-02 2.929529e-02 5.147047e-02 2.527615e-03 -3.474650e-02 3.335144e-02 1.560944e-01
<VARIANCE> 39
 1.641114e+01 2.389487e+01 2.952106e+01 2.789516e+01 3.213770e+01 4.340617e+01 5.498304e+01 4.430899e+01 3.624192e+01 3.897695e+01 2.971647e+01 2.775900e+01 3.263834e+01 3.920375e-01 7.410315e-01 9.337338e-01 1.030764e+00 1.541832e+00 1.714966e+00 1.546777e+00 1.670281e+00 1.808761e+00 1.727776e+00 1.675793e+00 1.482533e+00 6.543301e-01 6.659905e-02 1.272649e-01 1.558774e-01 1.729129e-01 2.843152e-01 2.680896e-01 2.754757e-01 3.032319e-01 3.213663e-01 2.853006e-01 2.966514e-01 2.810149e-01 8.394528e-02
<GCONST> 9.833535e+01
<TRANSP> 5
 0.000000e+00 1.000000e+00 0.000000e+00 0.000000e+00 0.000000e+00
 0.000000e+00 7.596866e-01 2.403134e-01 0.000000e+00 0.000000e+00
 0.000000e+00 0.000000e+00 8.643548e-01 1.356452e-01 0.000000e+00
 0.000000e+00 0.000000e+00 0.000000e+00 8.951183e-01 1.048817e-01
 0.000000e+00 0.000000e+00 0.000000e+00 0.000000e+00 0.000000e+00
<ENDHMM>
~h "oi"
<BEGINHMM>
<NUMSTATES> 5
<STATE> 2
<MEAN> 39
 2.059142e+00 -6.141572e-01 -8.205665e+00 -1.038918e+01 -1.024375e+01 -8.209168e+00 -1.035861e+01 -1.618629e+01 -4.805750e+00 1.476851e-01 4.450605e+00 9.405793e-01 7.272273e+01 -7.443011e-01 -1.175761e+00 1.003021e+00 3.387158e+00 1.150866e+00 -2.998484e+00 -2.535456e+00 4.879611e-01 2.082611e+00 4.381307e-01 -7.342276e-01 -1.832077e+00 2.504582e-01 -1.137429e-01 2.065651e-01 6.762937e-01 2.681694e-01 -7.541913e-01 -7.022627e-01 6.612402e-01 1.032640e+00 -5.385794e-03 -1.059770e+00 -8.328693e-01 1.494144e-01 -1.673726e-01
<VARIANCE> 39
 1.125008e+01 2.839269e+01 3.971625e+01 6.506878e+01 3.903791e+01 5.643795e+01 5.554205e+01 4.900490e+01 6.130199e+01 4.540166e+01 4.294590e+01 5.990779e+01 1.236771e+01 3.555407e-01 8.330015e-01 1.891776e+00 1.888274e+00 3.283484e+00 3.363556e+00 3.398338e+00 4.786716e+00 2.887525e+00 5.315587e+00 5.041884e+00 2.242190e+00 3.382322e-01 5.386401e-02 1.360392e-01 1.888237e-01 5.352621e-01 4.095311e-01 8.267726e-01 9.336365e-01 5.274409e-01 1.290322e+00 6.087778e-01 7.832690e-01 1.002882e+00 4.553503e-02
<GCONST> 1.159550e+02
<STATE> 3
<MEAN> 39
 -2.418086e+00 -1.560434e+00 8.810172e-01 1.129285e+00 -1.173609e+01 -1.836692e+01 -9.700606e+00 -9.048876e+00 -4.040357e+00 -7.852548e+00 -1.204126e+00 -3.740138e-01 7.147519e+01 -5.054683e-01 3.136395e-01 8.707218e-01 5.748297e-01 -1.140463e-01 3.669496e-02 1.101110e+00 6.260517e-01 -7.127501e-01 -8.043483e-01 4.694344e-02 2.111429e-01 -5.943309e-01 5.818089e-02 1.881424e-01 -2.733822e-01 -5.135019e-01 5.653998e-02 6.038849e-01 2.133113e-01 -2.937868e-01 -1.623401e-01 3.130114e-01 2.049689e-01 2.082291e-02 -1.012538e-01
<VARIANCE> 39
 1.411423e+01 2.712002e+01 6.249056e+01 5.428827e+01 8.612125e+01 7.641872e+01 4.299155e+01 4.274036e+01 5.998483e+01 5.076067e+01 4.782931e+01 4.425990e+01 1.795420e+01 4.378615e-01 1.072992e+00 4.510608e+00 3.788669e+00 4.876783e+00 6.053432e+00 3.772689e+00 3.509233e+00 3.723416e+00 5.038164e+00 3.209800e+00 2.639174e+00 2.998533e-01 6.706981e-02 1.993698e-01 3.160351e-01 3.988955e-01 7.066628e-01 7.671412e-01 8.738326e-01 6.533861e-01 8.243611e-01 7.806866e-01 6.777088e-01 5.684838e-01 3.890103e-02
<GCONST> 1.203445e+02
<STATE> 4
<MEAN> 39
 -4.836343e+00 2.875792e+00 4.447711e+00 7.110546e-01 -1.153498e+01 -1.334038e+01 -3.276390e+00 -9.269147e+00 -6.648977e+00 -6.601150e+00 -5.501345e-01 -2.171920e+00 6.462071e+01 -3.643212e-01 1.568805e-01 -1.760965e-01 -1.305532e-01 6.865075e-01 8.443006e-01 3.063779e-01 2.409015e-01 2.020561e-01 3.630271e-01 -1.432134e-01 2.347405e-02 -7.607540e-01 2.270176e-02 -9.591978e-02 -1.327121e-01 -2.917296e-02 7.616610e-02 1.700196e-02 -6.725197e-02 8.431869e-02 1.237956e-01 4.446338e-02 -1.624584e-03 2.297669e-02 2.160068e-02
<VARIANCE> 39
 1.603996e+01 2.241104e+01 4.043563e+01 3.643196e+01 5.663276e+01 5.081501e+01 4.331277e+01 4.459957e+01 3.444856e+01 4.129379e+01 2.836267e+01 3.858772e+01 2.797789e+01 3.135496e-01 9.688461e-01 1.281256e+00 1.125437e+00 1.691289e+00 1.623283e+00 1.889915e+00 2.407901e+00 1.743033e+00 1.498188e+00 1.387013e+00 1.626772e+00 2.951211e-01 5.433339e-02 1.233223e-01 1.676215e-01 1.681355e-01 2.477988e-01 2.924599e-01 3.384568e-01 3.995632e-01 3.214778e-01 2.834682e-01 2.406083e-01 2.795392e-01 3.172797e-02
<GCONST> 9.848547e+01
<TRANSP> 5
 0.000000e+00 1.000000e+00 0.000000e+00 0.000000e+00 0.000000e+00
 0.000000e+00 7.223967e-01 2.776033e-01 0.000000e+00 0.000000e+00
 0.000000e+00 0.000000e+00 8.532234e-01 1.467766e-01 0.000000e+00
 0.000000e+00 0.000000e+00 0.000000e+00 9.036937e-01 9.630631e-02
 0.000000e+00 0.000000e+00 0.000000e+00 0.000000e+00 0.000000e+00
<ENDHMM>
~h "oo"
<BEGINHMM>
<NUMSTATES> 5
<STATE> 2
<MEAN> 39
 4.056424e+00 9.300132e+00 -2.132396e+00 -1.696569e+01 -2.124432e+01 -1.468318e+01 -8.857964e+00 -7.566718e+00 9.394498e-01 1.233410e+00 -2.908016e+00 -1.383217e+00 6.720791e+01 8.375971e-04 1.152570e-01 7.266732e-02 -6.652880e-02 -1.155146e-01 -1.283708e-02 1.825580e-01 1.304020e-02 -1.545477e-02 9.940876e-02 -1.313654e-01 -1.345350e-01 -1.786901e-01 -2.873718e-02 3.032114e-02 -7.843353e-03 4.547449e-02 3.327005e-02 8.277515e-03 8.350879e-02 7.185350e-02 -3.865704e-02 -7.524972e-02 -7.049858e-04 -4.274210e-02 -4.540074e-02
<VARIANCE> 39
 8.334795e+00 1.899632e+01 3.499091e+01 1.923889e+01 2.260136e+01 3.131293e+01 2.641352e+01 5.853594e+01 4.017273e+01 3.664164e+01 4.172118e+01 2.886457e+01 1.002812e+01 1.569269e-01 3.969074e-01 6.434519e-01 3.662444e-01 9.636135e-01 5.907375e-01 9.064292e-01 1.006887e+00 1.032996e+00 1.119622e+00 1.078765e+00 8.325748e-01 1.601239e-01 2.455162e-02 6.456364e-02 1.135552e-01 7.040311e-02 1.873420e-01 1.296885e-01 2.073145e-01 1.713121e-01 1.980340e-01 1.899987e-01 1.999659e-01 1.457424e-01 2.024261e-02
<GCONST> 7.813605e+01
<STATE> 3
<MEAN> 39
 1.485488e+00 1.505119e+01 1.801323e-02 -1.275528e+01 -2.214212e+01 -1.530010e+01 -5.387281e+00 -4.221437e+00 1.253949e+00 4.170089e+00 -2.085137e+00 -3.351600e+00 6.335318e+01 -4.131238e-01 4.330986e-02 3.954914e-03 4.904245e-01 5.392732e-01 -2.818143e-02 -2.053997e-02 3.955938e-01 1.738321e-01 -2.299384e-01 3.070318e-01 3.265464e-02 -4.928512e-01 -8.779231e-02 -1.533841e-01 -1.329806e-02 6.534430e-02 1.712437e-01 1.128380e-01 -4.258165e-04 -2.119599e-02 -7.437929e-03 4.349372e-03 1.368172e-02 7.994745e-02 -1.372174e-02
<VARIANCE> 39
 1.423567e+01 1.519085e+01 2.693044e+01 3.006920e+01 3.436624e+01 2.684428e+01 2.494352e+01 4.311427e+01 2.312748e+01 3.163704e+01 2.752079e+01 1.755669e+01 1.457650e+01 1.447147e-01 5.530055e-01 6.599183e-01 6.273739e-01 1.141620e+00 9.187223e-01 1.413605e+00 1.071467e+00 9.938375e-01 6.932378e-01 8.317685e-01 9.213589e-01 1.114403e-01 2.997905e-02 6.116279e-02 1.156013e-01 1.360209e-01 2.178779e-01 1.670363e-01 2.756282e-01 1.824033e-01 2.010757e-01 1.292410e-01 1.659200e-01 1.610048e-01 1.395542e-02
<GCONST> 7.893360e+01
<STATE> 4
<MEAN> 39
 -2.472362e+00 8.007300e+00 -2.340124e+00 -9.945553e+00 -1.481858e+01 -9.063719e+00 -2.245970e+00 -3.254079e+00 1.451689e+00 6.580751e-01 -2.085767e+00 -1.894071e+00 5.817342e+01 -7.830994e-01 -6.823091e-01 -1.809724e-01 7.597504e-01 1.294729e+00 7.042946e-01 2.150568e-01 4.420845e-01 -2.297785e-01 -3.945145e-02 2.060266e-01 4.292629e-01 -6.657729e-01 -9.619690e-03 -7.007041e-03 -1.217786e-02 -2.253850e-02 1.098750e-02 1.177402e-02 -4.785249e-03 -2.057969e-02 6.586104e-04 1.289245e-02 -4.532710e-03 2.078030e-02 2.714032e-02
<VARIANCE> 39
 1.335985e+01 1.782116e+01 3.444250e+01 3.096095e+01 5.435593e+01 4.974922e+01 4.971021e+01 5.006634e+01 3.256421e+01 5.854362e+01 2.704685e+01 3.159560e+01 3.451673e+01 4.405882e-01 4.069861e-01 8.787966e-01 1.098309e+00 1.603653e+00 1.384783e+00 1.537323e+00 1.639418e+00 1.670834e+00 1.744903e+00 1.709386e+00 1.440641e+00 3.136904e-01 7.495543e-02 7.256143e-02 1.428589e-01 1.838885e-01 2.717608e-01 2.424712e-01 2.588315e-01 2.982014e-01 3.161887e-01 3.267455e-01 3.303288e-01 2.707950e-01 3.638219e-02
<GCONST> 9.633655e+01
<TRANSP> 5
 0.000000e+00 1.000000e+00 0.000000e+00 0.000000e+00 0.000000e+00
 0.000000e+00 9.052860e-01 9.471411e-02 0.000000e+00 0.000000e+00
 0.000000e+00 0.000000e+00 8.641964e-01 1.358037e-01 0.000000e+00
 0.000000e+00 0.000000e+00 0.000000e+00 8.785312e-01 1.214688e-01
 0.000000e+00 0.000000e+00 0.000000e+00 0.000000e+00 0.000000e+00
<ENDHMM>
~h "ou"
<BEGINHMM>
<NUMSTATES> 5
<STATE> 2
<MEAN> 39
 3.652813e+00 4.703633e+00 -7.178339e+00 -1.341817e+01 -1.496731e+01 -7.686610e+00 -4.591362e+00 -9.522445e+00 -6.636430e+00 -7.092682e+00 8.119916e-01 1.090072e+00 6.992936e+01 -6.789732e-02 3.552188e-01 2.311543e-01 5.983192e-01 2.416530e-01 -3.061981e-01 -2.668995e-01 -2.066511e-01 -3.034399e-01 -3.983620e-01 -5.941883e-02 -7.499489e-03 -3.287960e-01 -2.428627e-02 4.430754e-02 4.085169e-02 6.394185e-02 5.634491e-02 -4.889407e-03 1.919825e-02 7.698229e-02 1.392989e-02 -1.288243e-02 -6.751499e-02 -5.591476e-02 -7.051928e-02
<VARIANCE> 39
 8.215250e+00 3.684179e+01 2.248450e+01 8.745491e+01 4.830610e+01 4.299888e+01 8.852362e+01 5.131189e+01 8.095220e+01 4.959911e+01 4.273560e+01 3.752891e+01 1.222356e+01 1.289074e-01 5.110006e-01 5.160455e-01 1.093000e+00 9.035873e-01 1.156849e+00 1.134395e+00 1.376999e+00 1.074747e+00 1.196071e+00 1.335868e+00 1.247399e+00 1.856250e-01 2.087921e-02 6.037743e-02 7.235859e-02 1.521347e-01 1.427449e-01 1.710593e-01 1.818731e-01 2.046129e-01 1.872288e-01 1.921151e-01 2.104153e-01 1.939598e-01 1.870361e-02
<GCONST> 8.679877e+01
<STATE> 3
<MEAN> 39
 1.821789e+00 1.162586e+01 -1.751192e+00 -8.317945e+00 -1.322678e+01 -9.396394e+00 -2.123980e+00 -9.173416e+00 -7.686595e+00 -6.973665e+00 -4.317987e+00 -1.519699e+00 6.486631e+01 -2.791309e-01 2.293864e-01 3.695098e-01 7.527128e-01 7.194124e-01 1.943478e-01 -3.266943e-01 2.106467e-01 1.059685e-02 -2.338050e-01 -2.841389e-01 -2.379015e-01 -6.894209e-01 -6.732204e-02 -1.134494e-01 -7.358306e-03 1.979074e-02 1.087619e-01 1.174698e-01 1.697567e-02 5.119924e-03 8.193311e-02 6.760379e-02 4.045429e-02 1.449653e-02 -1.855550e-02
<VARIANCE> 39
 5.890277e+00 3.196569e+01 2.415166e+01 3.692319e+01 4.383941e+01 5.500965e+01 7.394126e+01 5.183057e+01 4.092322e+01 5.111137e+01 3.624347e+01 3.898740e+01 2.277679e+01 1.798046e-01 4.671183e-01 6.502320e-01 9.407935e-01 1.170087e+00 1.393281e+00 1.860045e+00 1.496565e+00 1.475989e+00 1.546239e+00 1.631157e+00 1.148414e+00 1.984575e-01 2.910062e-02 6.713820e-02 9.458459e-02 1.379208e-01 1.874942e-01 2.076355e-01 2.886850e-01 2.266109e-01 2.603001e-01 2.705504e-01 2.746682e-01 2.148612e-01 1.614068e-02
<GCONST> 8.999242e+01
<STATE> 4
<MEAN> 39
 -2.678606e+00 7.912086e+00 -7.428456e-01 -1.782405e+00 -4.333281e+00 -5.521364e+00 -4.521777e+00 -6.705879e+00 -5.619082e+00 -6.256525e+00 -3.249542e+00 -1.823484e+00 5.993920e+01 -7.131539e-01 -5.984609e-01 -8.863317e-02 2.358475e-01 6.076781e-01 3.993778e-01 2.858452e-01 5.033659e-01 4.485846e-01 4.627034e-01 1.306529e-01 9.009169e-02 -6.375876e-01 -1.316934e-02 -6.851784e-02 -9.276102e-02 -1.190399e-01 -8.105803e-02 5.575511e-03 7.299598e-02 2.773707e-02 4.952225e-02 6.429617e-02 4.438818e-02 4.752228e-02 5.577808e-02
<VARIANCE> 39
 1.046808e+01 2.670374e+01 1.807670e+01 2.413384e+01 2.286590e+01 2.304181e+01 2.915959e+01 3.828424e+01 2.679025e+01 2.886231e+01 2.599186e+01 3.096490e+01 3.659696e+01 3.849318e-01 6.861703e-01 7.764370e-01 1.240573e+00 1.400887e+00 1.236691e+00 1.811649e+00 1.806192e+00 1.494370e+00 1.609621e+00 1.585369e+00 1.357758e+00 3.641517e-01 5.216953e-02 1.095185e-01 1.356965e-01 2.026047e-01 2.272395e-01 2.294782e-01 3.026604e-01 3.059162e-01 2.656021e-01 2.791004e-01 2.877210e-01 2.539434e-01 4.534405e-02
<GCONST> 9.221106e+01
<TRANSP> 5
 0.000000e+00 1.000000e+00 0.000000e+00 0.000000e+00 0.000000e+00
 0.000000e+00 8.724557e-01 1.275443e-01 0.000000e+00 0.000000e+00
 0.000000e+00 0.000000e+00 8.612400e-01 1.387600e-01 0.000000e+00
 0.000000e+00 0.000000e+00 0.000000e+00 8.785215e-01 1.214785e-01
 0.000000e+00 0.000000e+00 0.000000e+00 0.000000e+00 0.000000e+00
<ENDHMM>
~h "sp"
<BEGINHMM>
<NUMSTATES> 3
<STATE> 2
~s "silst"
<TRANSP> 3
 0.000000e+00 1.601514e-01 8.398486e-01
 0.000000e+00 7.241339e-01 2.758661e-01
 0.000000e+00 0.000000e+00 0.000000e+00
<ENDHMM>
~h "uu"
<BEGINHMM>
<NUMSTATES> 5
<STATE> 2
<MEAN> 39
 -1.960762e+00 4.118968e-01 -1.611304e+00 -7.808654e-02 -9.408614e+00 -1.770872e+01 -9.031898e+00 -1.325237e+01 -1.398356e+00 -9.293440e+00 -5.607832e+00 -5.427870e-01 7.224034e+01 9.308290e-02 4.270083e-01 -3.157683e-02 -1.036846e-03 2.269040e-02 2.218077e-01 1.133393e-01 5.894238e-02 -2.333972e-01 -8.041233e-02 8.057861e-02 1.935863e-01 -4.409018e-01 -3.128811e-02 5.552915e-02 6.314272e-03 -1.322993e-03 4.064571e-02 4.587766e-02 -4.823230e-02 9.823171e-03 -1.456708e-02 2.602560e-02 9.798098e-03 -6.496236e-02 -3.953976e-02
<VARIANCE> 39
 1.428817e+01 4.404589e+01 4.810014e+01 4.622548e+01 7.355633e+01 6.090337e+01 5.848806e+01 6.338273e+01 8.313823e+01 8.038503e+01 3.329153e+01 6.662762e+01 1.667485e+01 1.635545e-01 4.251472e-01 3.416141e-01 7.242319e-01 7.466490e-01 9.047306e-01 1.229629e+00 1.227972e+00 1.079788e+00 1.195865e+00 1.249627e+00 1.237472e+00 1.915699e-01 3.163487e-02 6.513943e-02 6.724479e-02 1.177283e-01 1.127822e-01 1.529259e-01 1.864128e-01 1.942985e-01 1.777167e-01 2.114316e-01 2.146240e-01 1.610258e-01 2.113691e-02
<GCONST> 8.787093e+01
<STATE> 3
<MEAN> 39
 1.965261e+00 5.336799e+00 8.347778e-03 -1.107528e+00 -7.415877e+00 -1.353078e+01 -1.156556e+01 -1.216028e+01 -7.027104e+00 -6.705863e+00 -2.236977e+00 -3.462807e+00 6.671595e+01 -2.235515e-02 2.056361e-01 -3.902692e-02 2.837169e-02 2.262654e-01 2.632125e-01 -9.286431e-02 -2.385712e-02 -6.590084e-02 1.748563e-02 -3.543354e-02 -5.224611e-02 -3.272080e-01 -3.744657e-02 -1.555526e-02 2.407183e-02 1.904924e-03 -8.470889e-04 8.810686e-03 3.324211e-02 2.175675e-02 2.705633e-02 -1.458510e-02 -3.071634e-02 8.026643e-03 -2.687165e-03
<VARIANCE> 39
 5.457924e+00 2.090492e+01 2.149869e+01 3.778382e+01 2.805231e+01 4.913821e+01 7.382503e+01 3.790002e+01 4.074416e+01 4.188324e+01 2.416411e+01 2.705284e+01 1.788277e+01 7.616652e-02 1.789813e-01 2.493788e-01 3.153274e-01 5.194547e-01 5.662835e-01 7.226439e-01 6.465182e-01 7.144264e-01 6.829163e-01 5.798708e-01 7.501888e-01 5.747270e-02 1.084006e-02 3.257310e-02 4.088875e-02 5.685480e-02 9.221040e-02 9.763823e-02 1.329877e-01 1.157870e-01 1.456389e-01 1.158775e-01 8.713058e-02 1.328799e-01 8.358241e-03
<GCONST> 6.563721e+01
<STATE> 4
<MEAN> 39
 -2.384733e+00 8.617329e+00 1.761979e+00 8.998893e-01 -4.993331e+00 -8.352180e+00 -6.601503e+00 -1.237978e+01 -7.361427e+00 -7.816495e+00 -4.699304e+00 -2.015987e+00 6.000650e+01 -6.105462e-01 -2.115775e-01 -5.533775e-02 1.293044e-01 7.021289e-01 6.526858e-01 3.296932e-01 7.233538e-01 3.053895e-01 1.636292e-01 1.460190e-01 8.452305e-03 -7.558882e-01 -6.873531e-02 -1.205044e-01 -8.027453e-02 -2.007010e-02 8.723319e-02 5.589775e-02 8.853248e-02 7.626460e-02 1.244139e-01 1.198695e-01 7.049643e-02 4.382237e-02 7.664796e-03
<VARIANCE> 39
 1.265391e+01 1.817309e+01 1.434852e+01 3.923608e+01 5.696035e+01 4.264590e+01 5.193867e+01 6.877428e+01 5.862560e+01 3.788744e+01 2.873310e+01 2.770223e+01 2.904514e+01 3.462863e-01 6.500678e-01 7.125880e-01 1.127819e+00 1.342231e+00 1.350711e+00 2.078642e+00 1.691551e+00 1.924774e+00 1.612732e+00 1.390808e+00 1.050190e+00 1.826199e-01 5.799680e-02 7.866171e-02 1.100731e-01 1.609664e-01 1.642025e-01 2.341529e-01 3.497393e-01 2.899284e-01 3.179420e-01 2.532078e-01 2.256793e-01 1.840697e-01 2.944317e-02
<GCONST> 9.293651e+01
<TRANSP> 5
 0.000000e+00 1.000000e+00 0.000000e+00 0.000000e+00 0.000000e+00
 0.000000e+00 8.993548e-01 1.006452e-01 0.000000e+00 0.000000e+00
 0.000000e+00 0.000000e+00 9.094943e-01 9.050566e-02 0.000000e+00
 0.000000e+00 0.000000e+00 0.000000e+00 8.909246e-01 1.090754e-01
 0.000000e+00 0.000000e+00 0.000000e+00 0.000000e+00 0.000000e+00
<ENDHMM>
~h "sil"
<BEGINHMM>
<NUMSTATES> 5
<STATE> 2
<MEAN> 39
 -8.534245e+00 -9.089284e-02 -3.905067e+00 -2.338784e+00 -1.931762e+00 -2.374478e+00 -7.068150e-01 -8.212025e-01 3.623413e-01 -1.125813e+00 -1.042005e-01 -2.358434e-01 5.743998e+01 -1.021034e-01 -1.139281e-01 -1.109564e-01 -6.785538e-02 9.246553e-02 1.566230e-01 9.979992e-02 1.454183e-01 1.210410e-01 9.326711e-02 6.732394e-02 6.482136e-02 -4.415990e-02 2.734331e-02 7.863499e-03 1.396558e-02 -1.967987e-02 -5.719810e-02 -4.858225e-02 -8.478874e-03 -4.488014e-02 -5.068370e-02 -4.926332e-02 -2.645126e-02 -3.182449e-02 6.759230e-02
<VARIANCE> 39
 1.098753e+01 1.278823e+01 1.623376e+01 1.281142e+01 1.569184e+01 2.208121e+01 2.269842e+01 1.990368e+01 1.724558e+01 1.753780e+01 1.507594e+01 1.382424e+01 2.353517e+01 2.271676e-01 4.909765e-01 5.851017e-01 7.349640e-01 9.931433e-01 1.220043e+00 1.265431e+00 1.330027e+00 1.376700e+00 1.338014e+00 1.255394e+00 1.225914e+00 3.991441e-01 3.552445e-02 6.460494e-02 9.285644e-02 1.196291e-01 1.618307e-01 2.006306e-01 2.243274e-01 2.260213e-01 2.427615e-01 2.346676e-01 2.255895e-01 2.165951e-01 3.828245e-02
<GCONST> 7.979665e+01
<STATE> 3
~s "silst"
<STATE> 4
<MEAN> 39
 -9.597651e+00 -2.146842e+00 -4.271527e+00 -4.468295e+00 -3.362240e+00 -2.176933e+00 1.467127e+00 -1.497128e-01 2.841399e-02 -1.702428e+00 -6.868020e-01 -5.699107e-01 6.013787e+01 8.871406e-02 -6.664915e-02 3.513924e-02 -2.120267e-01 -1.128172e-01 -8.491864e-04 1.110416e-01 -8.517624e-02 -1.674847e-01 -1.612486e-01 -1.228375e-01 -9.694844e-02 4.391830e-01 1.511171e-01 1.707686e-01 9.538078e-02 5.666797e-02 -4.813927e-02 -8.795981e-02 -9.935502e-02 -1.250740e-01 -1.205759e-01 -9.941568e-02 -5.372687e-02 -4.175362e-02 6.692448e-02
<VARIANCE> 39
 1.679862e+01 2.789197e+01 3.548987e+01 3.724566e+01 3.064425e+01 3.832832e+01 3.201128e+01 3.666708e+01 2.554112e+01 2.796663e+01 2.213453e+01 2.171997e+01 4.444592e+01 9.416142e-01 1.363477e+00 1.232058e+00 1.601748e+00 1.514761e+00 1.883674e+00 1.902343e+00 2.046082e+00 2.153107e+00 2.027658e+00 1.843110e+00 1.537862e+00 1.685895e+00 1.466006e-01 1.781135e-01 1.688972e-01 2.334467e-01 2.340389e-01 2.674190e-01 3.009582e-01 3.098617e-01 3.158873e-01 3.024774e-01 2.855141e-01 2.448579e-01 1.536874e-01
<GCONST> 1.031625e+02
<TRANSP> 5
 0.000000e+00 1.000000e+00 0.000000e+00 0.000000e+00 0.000000e+00
 0.000000e+00 8.198748e-01 3.120269e-02 1.489224e-01 0.000000e+00
 0.000000e+00 0.000000e+00 7.885265e-01 2.114735e-01 0.000000e+00
 0.000000e+00 3.864617e-02 0.000000e+00 5.597051e-01 4.016487e-01
 0.000000e+00 0.000000e+00 0.000000e+00 0.000000e+00 0.000000e+00
<ENDHMM>
