~o
<STREAMINFO> 1 39
<VECSIZE> 39<NULLD><MFCC_D_A_0><DIAGC>
~s "silst"
<MEAN> 39
 -9.841603e+00 -2.612404e+00 -6.289267e+00 -5.973094e+00 -4.292178e+00 -3.653847e+00 -1.550600e+00 -1.927153e+00 8.720284e-01 -8.474610e-01 1.544850e+00 -5.529934e-01 6.363628e+01 1.043115e-01 -4.956481e-01 -3.218387e-01 -8.408155e-01 -2.415548e-01 -9.053284e-02 2.044241e-01 -3.303942e-01 4.769364e-03 -1.794247e-01 6.266147e-02 -1.845444e-01 1.352108e+00 2.617739e-01 2.521474e-01 2.068365e-01 1.654110e-01 -6.764080e-02 -2.635699e-03 7.019003e-02 -1.104595e-02 -2.117275e-01 -4.267836e-02 -1.539207e-01 -6.505574e-02 -1.837575e-01
<VARIANCE> 39
 3.172556e+01 4.717223e+01 5.455791e+01 6.872534e+01 6.103062e+01 6.790582e+01 4.971930e+01 4.326774e+01 4.138808e+01 3.740661e+01 3.401591e+01 2.903175e+01 7.081499e+01 2.947046e+00 3.598919e+00 3.366845e+00 4.253815e+00 4.299178e+00 5.065470e+00 3.560336e+00 3.819901e+00 3.445621e+00 3.406907e+00 2.824682e+00 2.342748e+00 4.801761e+00 4.824170e-01 6.820688e-01 5.909079e-01 8.360969e-01 8.176070e-01 8.562344e-01 6.634120e-01 7.737933e-01 6.621732e-01 6.858589e-01 5.494909e-01 4.492840e-01 8.307503e-01
<GCONST> 1.331430e+02
~h "N"
<BEGINHMM>
<NUMSTATES> 5
<STATE> 2
<MEAN> 39
 1.131354e+00 4.749161e+00 -1.874237e+00 -3.050720e+00 -7.784594e+00 -9.243803e+00 -3.805104e+00 -4.761156e+00 -6.078936e+00 -4.292777e+00 -2.410112e+00 -3.652718e+00 6.527275e+01 5.489275e-02 5.233726e-01 -1.461241e-02 -1.395982e-01 9.996809e-02 2.229110e-01 1.557289e-01 -8.529407e-02 -4.343168e-01 -3.419849e-02 5.301818e-03 2.149616e-02 -3.249810e-01 -1.054472e-01 -4.020775e-01 -1.569603e-01 -2.328773e-01 -6.712847e-02 1.844973e-02 7.715333e-02 -7.427963e-02 3.862367e-01 1.722091e-01 4.518286e-02 -6.494353e-02 3.251323e-01
<VARIANCE> 39
 7.641488e+00 3.348427e+01 2.018197e+01 3.380491e+01 3.785723e+01 3.968699e+01 4.328438e+01 3.975482e+01 4.001826e+01 4.115244e+01 4.097146e+01 3.560002e+01 2.166666e+01 2.882557e-01 8.543777e-01 9.118063e-01 1.493016e+00 1.684244e+00 2.079856e+00 1.818506e+00 1.921345e+00 2.743448e+00 2.108769e+00 1.783321e+00 1.391825e+00 4.000452e-01 5.539676e-02 1.197405e-01 2.013618e-01 2.860813e-01 3.633710e-01 4.491517e-01 3.716340e-01 4.392749e-01 4.816694e-01 4.317546e-01 3.479554e-01 3.093266e-01 5.235866e-02
<GCONST> 1.011963e+02
<STATE> 3
<MEAN> 39
 1.945826e-01 3.584085e+00 -3.047956e+00 -5.265020e+00 -7.157896e+00 -8.059291e+00 -3.071573e+00 -6.185978e+00 -3.973454e+00 -3.390858e+00 -1.847908e+00 -3.571915e+00 6.625032e+01 -2.169901e-01 -1.119352e+00 -7.416648e-01 -9.712046e-01 -2.882524e-02 7.105247e-01 4.517338e-01 -2.654146e-01 1.189741e+00 7.693199e-01 -1.856759e-01 -5.081897e-01 8.200969e-01 4.064146e-02 -2.827138e-01 -1.886847e-01 3.132381e-03 -8.315162e-02 1.022853e-01 1.772140e-01 7.641718e-02 1.080774e-01 1.688303e-01 -2.464152e-02 -1.889944e-01 1.215549e-01
<VARIANCE> 39
 9.216097e+00 3.318010e+01 2.807415e+01 4.656943e+01 5.551579e+01 6.675526e+01 5.622277e+01 5.200982e+01 5.777395e+01 5.431640e+01 4.975876e+01 4.188754e+01 2.134314e+01 4.368220e-01 1.364847e+00 2.076966e+00 2.525375e+00 2.878672e+00 3.601674e+00 3.143874e+00 3.485895e+00 4.039321e+00 3.184079e+00 3.275327e+00 2.466780e+00 5.076776e-01 6.806374e-02 1.796700e-01 2.213240e-01 3.169987e-01 4.429545e-01 4.959111e-01 5.151431e-01 5.084875e-01 5.465970e-01 4.600420e-01 4.455580e-01 3.659125e-01 8.335512e-02
<GCONST> 1.137722e+02
<STATE> 4
<MEAN> 39
 2.791781e-01 -2.486245e+00 -8.131908e+00 -8.161400e+00 -7.703760e+00 -3.506231e+00 -1.272235e-01 -5.204417e+00 -6.042930e-01 -1.275029e+00 -3.266172e+00 -6.575768e+00 6.907349e+01 -3.281640e-02 -5.339162e-01 -5.500132e-01 -2.470456e-01 2.805564e-02 3.897742e-01 4.240083e-01 1.780276e-01 2.459703e-01 3.442497e-01 -2.353491e-02 -3.136675e-01 1.674888e-01 -2.522557e-02 1.989211e-01 1.584450e-01 1.627686e-01 1.026594e-02 -1.629999e-01 -1.042306e-01 5.939763e-02 -1.611479e-01 -9.704728e-02 7.758562e-02 1.249566e-01 -1.568352e-01
<VARIANCE> 39
 9.966315e+00 4.826188e+01 3.953620e+01 5.800379e+01 5.627492e+01 7.769781e+01 7.374638e+01 6.937953e+01 6.648136e+01 6.770567e+01 8.666180e+01 4.338783e+01 2.332438e+01 2.537834e-01 1.112033e+00 1.228832e+00 1.124852e+00 1.668136e+00 1.810642e+00 2.059801e+00 2.145003e+00 2.156431e+00 1.697350e+00 1.948524e+00 1.747245e+00 4.227616e-01 4.070354e-02 1.363293e-01 1.675314e-01 2.232413e-01 2.765182e-01 3.231342e-01 3.513728e-01 3.917173e-01 4.101081e-01 3.103017e-01 3.180429e-01 2.746592e-01 4.485674e-02
<GCONST> 1.051372e+02
<TRANSP> 5
 0.000000e+00 1.000000e+00 0.000000e+00 0.000000e+00 0.000000e+00
 0.000000e+00 7.159920e-01 2.840080e-01 0.000000e+00 0.000000e+00
 0.000000e+00 0.000000e+00 5.458535e-01 4.541465e-01 0.000000e+00
 0.000000e+00 0.000000e+00 0.000000e+00 7.257433e-01 2.742567e-01
 0.000000e+00 0.000000e+00 0.000000e+00 0.000000e+00 0.000000e+00
<ENDHMM>
~h "a"
<BEGINHMM>
<NUMSTATES> 5
<STATE> 2
<MEAN> 39
 1.255960e+00 -5.470778e+00 -1.019272e+01 -1.061608e+01 -1.042750e+01 -6.734474e+00 -1.642481e+00 -5.554384e+00 -1.940407e-01 3.553994e-01 -7.545023e-01 -5.206707e+00 7.249620e+01 1.844191e-02 4.038346e-01 2.576964e-01 4.852710e-01 2.978753e-01 4.589923e-03 -4.053449e-01 6.354456e-02 3.400742e-02 1.028842e-01 -1.001558e-01 4.310858e-02 -6.156175e-01 -1.441203e-01 3.869527e-01 3.351724e-01 2.889963e-01 1.285997e-01 -2.921367e-02 -1.278902e-01 -2.641931e-02 -2.038518e-01 -2.270972e-01 -2.463809e-02 1.619030e-01 -3.719967e-01
<VARIANCE> 39
 1.304170e+01 4.666923e+01 3.740816e+01 4.925386e+01 6.000976e+01 7.728879e+01 7.061069e+01 6.508746e+01 5.534751e+01 5.240361e+01 6.110392e+01 6.108204e+01 3.032145e+01 6.371402e-01 1.701294e+00 1.802495e+00 2.437776e+00 2.448799e+00 3.310929e+00 3.164421e+00 2.702877e+00 2.951269e+00 2.695587e+00 2.517565e+00 2.441272e+00 9.218649e-01 1.370117e-01 2.183217e-01 2.353153e-01 3.049360e-01 4.566604e-01 5.097837e-01 5.096866e-01 5.156694e-01 5.608701e-01 5.294356e-01 4.919088e-01 4.716118e-01 1.333136e-01
<GCONST> 1.180717e+02
<STATE> 3
<MEAN> 39
 7.699841e-01 -8.777657e-01 -7.807000e+00 -7.428635e+00 -8.377400e+00 -6.541709e+00 -3.390351e+00 -5.631793e+00 -1.588266e+00 2.509329e-01 -8.625478e-01 -4.149090e+00 6.777378e+01 -5.478910e-01 8.356921e-01 8.641872e-01 1.108613e+00 7.529482e-01 1.749389e-01 -4.003040e-01 2.533379e-01 -1.716292e-01 -2.524070e-01 -3.054398e-02 3.295714e-01 -1.357955e+00 -1.639904e-01 -7.936107e-02 2.408985e-03 -3.718342e-02 -3.968552e-02 4.477331e-02 1.517799e-01 6.259757e-02 -9.538194e-03 -1.029695e-01 1.615713e-02 8.541005e-02 -2.853315e-02
<VARIANCE> 39
 1.400535e+01 3.638342e+01 3.626902e+01 4.790511e+01 5.427079e+01 6.219928e+01 5.926131e+01 5.308453e+01 4.639792e+01 4.683722e+01 5.555041e+01 4.986679e+01 2.557680e+01 7.917054e-01 1.477764e+00 1.812320e+00 2.069878e+00 2.471052e+00 2.715154e+00 2.849023e+00 2.851907e+00 2.847007e+00 2.753606e+00 2.492880e+00 2.213323e+00 1.088249e+00 9.911738e-02 2.034080e-01 2.476148e-01 3.235518e-01 3.972966e-01 4.305524e-01 4.775069e-01 4.346284e-01 4.766360e-01 4.366619e-01 4.097339e-01 3.787027e-01 1.511360e-01
<GCONST> 1.146417e+02
<STATE> 4
<MEAN> 39
 -2.155896e+00 4.924304e-01 -6.180349e+00 -5.253749e+00 -6.629842e+00 -5.025133e+00 -3.032705e+00 -3.767205e+00 -1.385676e+00 2.104495e-01 2.550877e-01 -2.015869e+00 6.355202e+01 -7.569147e-01 2.005883e-01 4.017003e-01 5.300509e-01 2.884638e-01 6.967993e-02 -5.328134e-02 2.181889e-01 -8.043882e-02 -2.164268e-01 3.314392e-02 3.730409e-01 -8.972991e-01 -7.049599e-03 -2.076097e-01 -1.277959e-01 -2.501505e-01 -1.928026e-01 -1.134932e-01 1.189939e-01 -8.916140e-02 9.484502e-03 -3.038140e-02 -2.140740e-03 -4.984570e-02 3.724340e-01
<VARIANCE> 39
 2.193968e+01 3.558267e+01 3.445400e+01 4.226841e+01 4.236903e+01 5.378250e+01 4.862978e+01 4.451463e+01 3.967865e+01 4.037991e+01 4.031234e+01 3.976043e+01 3.992805e+01 8.907840e-01 1.288087e+00 1.715552e+00 1.815442e+00 2.301950e+00 2.522042e+00 2.696479e+00 2.470477e+00 2.516940e+00 2.469550e+00 2.264570e+00 1.945512e+00 1.247775e+00 1.572670e-01 2.471645e-01 2.929607e-01 3.569711e-01 4.738120e-01 4.710212e-01 5.255609e-01 4.742240e-01 4.717423e-01 4.534139e-01 4.046679e-01 3.936794e-01 2.327366e-01
<GCONST> 1.147068e+02
<TRANSP> 5
 0.000000e+00 1.000000e+00 0.000000e+00 0.000000e+00 0.000000e+00
 0.000000e+00 5.716827e-01 4.283173e-01 0.000000e+00 0.000000e+00
 0.000000e+00 0.000000e+00 3.760973e-01 6.239027e-01 0.000000e+00
 0.000000e+00 0.000000e+00 0.000000e+00 4.159124e-01 5.840877e-01
 0.000000e+00 0.000000e+00 0.000000e+00 0.000000e+00 0.000000e+00
<ENDHMM>
~h "e"
<BEGINHMM>
<NUMSTATES> 5
<STATE> 2
<MEAN> 39
 -1.607348e+00 -1.370440e+00 -1.076475e+00 7.939129e-01 -1.296211e+01 -1.560437e+01 -6.798270e+00 -5.063500e+00 -2.655972e+00 -2.643452e+00 9.161714e-01 -5.679466e-01 6.853287e+01 -8.977172e-02 2.351661e-01 3.479235e-01 4.341502e-01 3.281853e-01 1.799290e-01 2.913666e-02 9.363033e-02 2.629265e-02 -1.782325e-02 -2.502384e-02 2.231820e-01 -5.122060e-01 -1.559720e-01 7.653485e-02 -1.366008e-01 -1.200381e-01 4.782859e-01 4.084315e-01 4.511795e-02 -6.298780e-02 2.593898e-02 7.655837e-02 -8.729407e-02 -8.966453e-02 -2.718461e-01
<VARIANCE> 39
 2.373245e+01 3.280419e+01 5.177959e+01 4.540232e+01 8.100544e+01 6.921545e+01 4.718600e+01 5.288633e+01 4.777924e+01 4.556924e+01 3.636325e+01 3.633831e+01 2.865170e+01 8.257938e-01 1.148817e+00 1.659892e+00 1.562110e+00 2.548493e+00 3.043327e+00 2.316361e+00 2.264265e+00 2.578547e+00 2.622783e+00 2.243250e+00 1.872428e+00 2.100825e+00 1.883159e-01 2.621003e-01 3.051857e-01 3.642744e-01 5.255575e-01 5.523890e-01 4.511161e-01 4.636246e-01 5.260666e-01 4.927645e-01 3.682649e-01 3.750207e-01 2.015809e-01
<GCONST> 1.165352e+02
<STATE> 3
<MEAN> 39
 -1.101467e+00 -2.012774e+00 -1.191379e+00 1.925306e+00 -1.325781e+01 -1.591143e+01 -7.846017e+00 -5.845349e+00 -1.721394e+00 -2.308738e+00 2.914348e-02 -3.893412e-01 6.867419e+01 -8.568856e-02 6.827703e-01 6.456678e-02 2.203515e-01 1.143042e+00 8.932009e-01 8.599892e-02 -1.475909e-01 -3.945537e-01 -1.825133e-02 -1.341152e-01 -1.407909e-01 -1.033718e+00 -6.757176e-02 1.306457e-01 -6.042504e-02 -1.549881e-01 2.789300e-01 2.996827e-01 5.995227e-02 -3.436077e-03 -1.043157e-01 -5.188448e-02 -2.578071e-02 -1.106629e-01 -1.597190e-01
<VARIANCE> 39
 1.886883e+01 3.383698e+01 6.187401e+01 4.191060e+01 8.873182e+01 6.202400e+01 4.869822e+01 4.882234e+01 4.627420e+01 4.267983e+01 4.112676e+01 3.814470e+01 2.843218e+01 6.672561e-01 1.205742e+00 1.417324e+00 1.640056e+00 2.562787e+00 2.662492e+00 2.082381e+00 2.115288e+00 2.383044e+00 2.480225e+00 2.162965e+00 1.822062e+00 1.095971e+00 9.839281e-02 2.274855e-01 3.005166e-01 2.937392e-01 3.733508e-01 4.379042e-01 4.212809e-01 4.340716e-01 4.860171e-01 4.546475e-01 3.834123e-01 3.308671e-01 1.942739e-01
<GCONST> 1.129970e+02
<STATE> 4
<MEAN> 39
 -3.312624e+00 1.442033e+00 -6.499566e-01 1.617546e+00 -8.750783e+00 -1.222596e+01 -5.116421e+00 -4.575127e+00 -3.430212e+00 -2.466418e+00 -7.605791e-03 -6.648165e-01 6.343607e+01 -3.516390e-01 3.671811e-01 -2.063368e-01 -1.975491e-01 1.049907e+00 1.009289e+00 2.040913e-01 6.791811e-02 -1.038463e-01 -6.178379e-03 -1.254647e-01 -9.066907e-02 -8.483706e-01 1.758323e-02 -1.738300e-01 -1.888896e-01 -1.790672e-01 -1.160511e-01 -4.686373e-02 1.845084e-02 1.664826e-02 1.156499e-01 -4.326721e-03 -1.165092e-02 -2.353192e-02 2.760515e-01
<VARIANCE> 39
 2.325353e+01 2.166279e+01 2.992094e+01 3.277392e+01 6.060601e+01 5.562989e+01 4.240499e+01 4.420930e+01 3.839649e+01 3.328023e+01 3.697644e+01 3.066366e+01 3.209616e+01 5.978748e-01 1.132951e+00 1.482858e+00 1.287772e+00 2.107451e+00 2.084121e+00 2.054430e+00 2.047846e+00 2.492785e+00 2.463588e+00 1.911202e+00 1.831485e+00 7.702800e-01 8.046377e-02 1.513832e-01 2.318412e-01 2.553240e-01 3.652928e-01 3.527973e-01 3.191452e-01 3.374394e-01 3.640566e-01 3.375543e-01 3.317913e-01 3.119965e-01 1.946648e-01
<GCONST> 1.065695e+02
<TRANSP> 5
 0.000000e+00 1.000000e+00 0.000000e+00 0.000000e+00 0.000000e+00
 0.000000e+00 2.214552e-01 7.785447e-01 0.000000e+00 0.000000e+00
 0.000000e+00 0.000000e+00 4.399550e-01 5.600450e-01 0.000000e+00
 0.000000e+00 0.000000e+00 0.000000e+00 6.109489e-01 3.890511e-01
 0.000000e+00 0.000000e+00 0.000000e+00 0.000000e+00 0.000000e+00
<ENDHMM>
~h "f"
<BEGINHMM>
<NUMSTATES> 5
<STATE> 2
<MEAN> 39
 -1.346290e+01 -1.450077e+00 -9.673779e+00 -3.643632e+00 -4.956407e+00 -3.458106e+00 1.796088e-01 -1.934441e+00 3.083514e-01 -1.506444e+00 1.888758e-02 -1.028194e+00 6.570696e+01 3.237119e+00 1.121564e-01 -2.638564e-01 -1.952852e+00 -1.221002e+00 7.928614e-03 6.018509e-01 -1.384615e-01 -1.001422e+00 -3.359047e-01 -4.031240e-01 -3.563723e-01 5.665366e-01 7.255105e-01 -2.384181e-02 -1.654901e-01 -4.022774e-01 -4.260607e-01 -1.703307e-02 1.128690e-01 -1.258539e-01 -2.627845e-01 3.952912e-02 5.987445e-02 -9.534452e-02 3.041225e-01
<VARIANCE> 39
 5.299171e+01 2.493238e+01 2.768362e+01 3.661115e+01 3.573427e+01 3.283414e+01 3.442068e+01 2.600938e+01 2.739379e+01 2.244485e+01 2.008648e+01 2.149473e+01 2.077453e+01 5.336245e+00 2.370782e+00 2.366780e+00 3.208781e+00 3.720551e+00 2.810770e+00 2.884569e+00 3.079269e+00 2.888325e+00 2.564285e+00 2.039131e+00 2.197817e+00 1.313910e+00 8.964866e-01 5.117607e-01 3.355981e-01 4.918788e-01 5.131492e-01 4.648553e-01 4.958302e-01 4.819038e-01 4.485131e-01 4.557588e-01 3.820527e-01 3.592780e-01 2.300028e-01
<GCONST> 1.175559e+02
<STATE> 3
<MEAN> 39
 1.174294e+00 -9.416757e-01 -1.214617e+01 -1.309265e+01 -1.247414e+01 -4.037150e+00 2.843808e+00 -3.202322e+00 -4.753052e+00 -2.539864e+00 -5.971349e-01 -1.484947e+00 6.968648e+01 2.664499e+00 -1.480078e+00 -1.141953e+00 -1.936371e+00 -1.429143e+00 1.075465e-01 7.274097e-01 -3.438749e-01 -8.625273e-01 3.151214e-01 2.825074e-01 -4.671323e-01 1.770540e+00 -1.302112e+00 -5.278483e-01 1.832409e-01 9.115544e-01 8.329046e-01 1.675671e-01 -2.576264e-01 8.808019e-02 5.454127e-01 3.299879e-01 1.173832e-01 -1.037164e-01 -1.493339e-01
<VARIANCE> 39
 3.326215e+01 2.844133e+01 4.330013e+01 5.106677e+01 3.777691e+01 5.361777e+01 4.329806e+01 4.861053e+01 2.682711e+01 3.362709e+01 3.247342e+01 4.604092e+01 2.587978e+01 3.702145e+00 2.495358e+00 2.603218e+00 2.945774e+00 3.613000e+00 3.271823e+00 3.363166e+00 3.605680e+00 2.886819e+00 3.035528e+00 2.379599e+00 2.387727e+00 1.221942e+00 4.560135e-01 3.794024e-01 3.138798e-01 4.363962e-01 4.986327e-01 6.038897e-01 4.653435e-01 5.413538e-01 4.671701e-01 4.119498e-01 3.943535e-01 4.414365e-01 1.523481e-01
<GCONST> 1.205994e+02
<STATE> 4
<MEAN> 39
 9.101332e-01 -6.742578e+00 -1.311238e+01 -1.359764e+01 -1.094432e+01 -1.821943e+00 4.275234e+00 -3.003180e+00 -4.984107e+00 -7.512039e-01 -4.232023e-01 -3.820011e+00 7.290694e+01 8.623827e-02 -1.414495e+00 -6.188899e-02 2.447962e-01 6.041486e-01 5.138250e-01 5.178260e-03 -3.364039e-01 1.860280e-01 7.323782e-01 -1.561358e-01 -6.791111e-01 5.970528e-01 -6.457834e-01 3.506073e-01 3.900397e-01 7.155883e-01 4.935195e-01 -4.413734e-02 -3.715382e-01 -3.044470e-02 3.350827e-01 7.108477e-03 -1.672769e-01 6.559106e-02 -5.579057e-01
<VARIANCE> 39
 3.160375e+01 3.829307e+01 4.358616e+01 4.969639e+01 4.156648e+01 6.177596e+01 4.990829e+01 5.475042e+01 3.603033e+01 4.278396e+01 3.987684e+01 4.404345e+01 3.389289e+01 1.277192e+00 1.856145e+00 1.235644e+00 1.624693e+00 1.983864e+00 3.014017e+00 2.615030e+00 2.376909e+00 2.628216e+00 2.420389e+00 2.108868e+00 1.934282e+00 9.447835e-01 5.576496e-01 2.878909e-01 2.989849e-01 4.210016e-01 6.312939e-01 4.816322e-01 5.140149e-01 5.805472e-01 4.194247e-01 4.976777e-01 4.064590e-01 3.789102e-01 1.475510e-01
<GCONST> 1.172772e+02
<TRANSP> 5
 0.000000e+00 1.000000e+00 0.000000e+00 0.000000e+00 0.000000e+00
 0.000000e+00 7.345101e-01 2.654899e-01 0.000000e+00 0.000000e+00
 0.000000e+00 0.000000e+00 3.552379e-01 6.447621e-01 0.000000e+00
 0.000000e+00 0.000000e+00 0.000000e+00 4.462461e-01 5.537539e-01
 0.000000e+00 0.000000e+00 0.000000e+00 0.000000e+00 0.000000e+00
<ENDHMM>
~h "h"
<BEGINHMM>
<NUMSTATES> 5
<STATE> 2
<MEAN> 39
 -6.218854e+00 -1.888755e+00 -4.475798e+00 -7.197848e+00 -4.677367e+00 -2.732132e+00 4.515264e+00 -5.235097e-01 -6.621031e-01 -1.303104e+00 -1.935555e+00 -3.006250e+00 6.676028e+01 6.215409e-01 8.710384e-01 6.013296e-01 -1.054991e-01 -8.321807e-01 -7.731093e-01 -1.787275e-01 -5.328790e-01 -7.589884e-01 -4.891578e-01 -2.634163e-01 -2.663916e-01 3.335761e-01 3.789295e-01 2.100837e-01 -3.163852e-02 -1.744369e-01 -4.483790e-01 -3.351286e-01 -2.986834e-01 -3.066448e-01 -2.032947e-01 -5.903364e-02 1.242828e-02 2.958363e-03 1.527452e-01
<VARIANCE> 39
 2.189647e+01 5.917483e+01 5.604438e+01 7.059297e+01 5.854772e+01 6.657120e+01 4.265686e+01 4.707179e+01 4.160490e+01 3.595832e+01 3.741310e+01 3.463261e+01 3.818317e+01 1.948007e+00 2.026253e+00 2.120245e+00 2.175219e+00 2.663046e+00 2.885505e+00 2.605722e+00 2.854364e+00 2.654720e+00 2.243294e+00 2.529955e+00 2.269609e+00 9.212708e-01 1.600921e-01 2.897802e-01 2.632068e-01 3.444408e-01 3.719094e-01 4.336506e-01 4.252677e-01 4.882316e-01 4.611238e-01 3.933794e-01 4.131385e-01 3.967544e-01 9.663197e-02
<GCONST> 1.167971e+02
<STATE> 3
<MEAN> 39
 -4.214405e-01 1.471005e+00 -3.954791e+00 -9.816157e+00 -1.130631e+01 -8.761745e+00 8.037637e-01 -4.143289e+00 -3.890627e+00 -2.958576e+00 -3.918306e+00 -4.520499e+00 7.046754e+01 9.618410e-01 5.593351e-02 -5.028998e-02 -8.226229e-01 -1.763226e+00 -1.046262e+00 -6.788917e-01 -7.942104e-01 -5.706763e-01 -1.848014e-01 3.965624e-01 2.751719e-01 8.825837e-01 -3.358748e-01 -3.661663e-01 -1.346583e-01 8.922341e-02 2.495186e-01 3.293295e-01 7.954297e-02 4.584470e-02 1.864698e-01 1.837007e-01 3.026304e-01 1.787947e-01 -1.415771e-01
<VARIANCE> 39
 2.064426e+01 6.533256e+01 7.121194e+01 7.629968e+01 7.378766e+01 7.126159e+01 5.147861e+01 5.062738e+01 4.537333e+01 4.378331e+01 4.115425e+01 3.941676e+01 4.461258e+01 1.557875e+00 2.261819e+00 2.216774e+00 2.625638e+00 3.251381e+00 3.433189e+00 3.218984e+00 3.051361e+00 3.079680e+00 2.209083e+00 2.401219e+00 2.100084e+00 1.496127e+00 2.307520e-01 3.795297e-01 2.615730e-01 3.804471e-01 4.842044e-01 4.695955e-01 5.012337e-01 4.949870e-01 4.647443e-01 4.126856e-01 4.267271e-01 3.511445e-01 1.530714e-01
<GCONST> 1.213136e+02
<STATE> 4
<MEAN> 39
 -3.636459e-01 1.273757e+00 -2.837601e+00 -9.572911e+00 -1.385717e+01 -9.694456e+00 5.866127e-01 -6.061183e+00 -5.604568e+00 -3.183341e+00 -6.626257e-01 -3.195615e+00 7.086441e+01 9.031335e-02 -1.468848e-01 6.615146e-02 2.626660e-02 -4.401599e-01 -1.587328e-01 -4.035206e-01 -6.350583e-01 -3.919330e-01 9.812215e-02 6.869940e-01 2.160694e-01 1.145221e-01 -1.102222e-01 -2.908027e-02 1.438982e-02 2.378853e-01 2.913002e-01 6.371120e-02 -6.088440e-02 6.511088e-02 1.429300e-01 6.070313e-02 -7.608087e-02 -1.202680e-01 -1.186489e-01
<VARIANCE> 39
 2.120598e+01 4.718359e+01 8.453145e+01 9.030922e+01 7.110498e+01 7.187315e+01 6.157312e+01 6.350263e+01 5.026118e+01 4.817624e+01 4.284761e+01 4.191342e+01 3.186291e+01 3.537100e-01 1.265034e+00 1.352672e+00 1.316886e+00 2.355896e+00 1.841216e+00 1.894204e+00 2.241165e+00 2.069787e+00 1.824224e+00 2.215090e+00 1.555686e+00 4.250811e-01 8.375424e-02 1.629210e-01 1.844872e-01 2.558064e-01 3.159270e-01 3.668473e-01 3.874539e-01 3.453415e-01 3.607771e-01 3.243017e-01 3.530129e-01 3.267862e-01 7.825601e-02
<GCONST> 1.091124e+02
<TRANSP> 5
 0.000000e+00 1.000000e+00 0.000000e+00 0.000000e+00 0.000000e+00
 0.000000e+00 6.653479e-01 3.346520e-01 0.000000e+00 0.000000e+00
 0.000000e+00 0.000000e+00 4.778264e-01 5.221736e-01 0.000000e+00
 0.000000e+00 0.000000e+00 0.000000e+00 5.707641e-01 4.292360e-01
 0.000000e+00 0.000000e+00 0.000000e+00 0.000000e+00 0.000000e+00
<ENDHMM>
~h "i"
<BEGINHMM>
<NUMSTATES> 5
<STATE> 2
<MEAN> 39
 -7.354770e+00 1.030560e+00 4.467265e+00 5.293005e-01 -9.563507e+00 -1.115982e+01 -2.082417e+00 -6.365235e+00 -3.242277e+00 -4.782312e+00 3.522764e-01 -2.082885e+00 6.713758e+01 3.859190e-02 6.309801e-01 1.016565e+00 6.152424e-01 -1.256272e-01 -3.553713e-01 1.923096e-01 -7.482176e-02 -5.381940e-01 -5.758756e-01 -2.551222e-02 -1.613786e-02 -2.171827e-01 2.014236e-01 7.123020e-02 -1.584979e-01 4.653468e-02 6.668425e-02 -4.525207e-03 -1.132840e-01 3.570648e-02 -6.899313e-02 -3.022298e-02 -1.176893e-01 -1.944570e-02 -7.061052e-02
<VARIANCE> 39
 4.531255e+01 3.408780e+01 4.088956e+01 5.015822e+01 7.697492e+01 7.564455e+01 5.289006e+01 4.650342e+01 5.370765e+01 4.128138e+01 3.117677e+01 3.105349e+01 2.918465e+01 1.983464e+00 1.954485e+00 2.274484e+00 2.183424e+00 3.293538e+00 3.689399e+00 2.634506e+00 2.953410e+00 2.784708e+00 2.473126e+00 2.124006e+00 1.946554e+00 1.243128e+00 3.459447e-01 2.757361e-01 3.590176e-01 3.942705e-01 6.824744e-01 7.746785e-01 5.329103e-01 4.872358e-01 5.565971e-01 5.227902e-01 4.154344e-01 3.836060e-01 1.965277e-01
<GCONST> 1.211607e+02
<STATE> 3
<MEAN> 39
 -4.466978e+00 3.039497e+00 7.244178e+00 2.672271e+00 -1.303839e+01 -1.405596e+01 -3.305655e+00 -7.951288e+00 -6.569500e+00 -7.502140e+00 -2.728873e-01 -2.793810e+00 6.761707e+01 3.538459e-01 3.878188e-01 2.972481e-01 4.665570e-01 -3.800089e-01 -6.020193e-01 -1.774724e-02 8.618303e-02 -5.216698e-01 -5.485357e-01 -2.514518e-02 2.142477e-01 -1.652347e-01 -7.888216e-02 -1.814066e-01 -5.068601e-01 -2.019032e-01 3.494930e-01 2.917425e-01 -8.529595e-02 1.804744e-01 3.033814e-01 2.928520e-01 -2.381133e-02 4.321484e-02 -1.202015e-01
<VARIANCE> 39
 1.795633e+01 3.200821e+01 4.408531e+01 5.178283e+01 7.842239e+01 5.831301e+01 4.652670e+01 4.888345e+01 4.910537e+01 3.652108e+01 3.309536e+01 3.449921e+01 2.425520e+01 1.635685e+00 1.544330e+00 2.134138e+00 1.711443e+00 3.733277e+00 4.131629e+00 2.719899e+00 3.088905e+00 2.861394e+00 2.537045e+00 2.271125e+00 1.833482e+00 1.363134e+00 1.819926e-01 2.378619e-01 2.702827e-01 3.202161e-01 5.321149e-01 5.599403e-01 4.774569e-01 4.941827e-01 4.713338e-01 4.390496e-01 4.210294e-01 3.573056e-01 1.353205e-01
<GCONST> 1.167360e+02
<STATE> 4
<MEAN> 39
 -3.953777e+00 3.705203e+00 5.771800e+00 4.004071e+00 -1.102329e+01 -1.493417e+01 -3.840121e+00 -7.171099e+00 -6.447220e+00 -7.677541e+00 -5.723294e-01 -1.706856e+00 6.639687e+01 4.891727e-02 1.028910e-01 -8.163024e-01 -2.295202e-01 8.542709e-01 7.946315e-01 -2.612329e-01 2.785736e-01 2.932084e-01 4.219235e-01 -5.041480e-02 4.051276e-02 -6.184534e-01 -3.250635e-02 -6.150180e-02 -1.716715e-01 -1.882966e-01 9.302189e-02 2.498364e-01 3.155425e-02 -2.476524e-02 6.668447e-02 1.366792e-01 -3.038585e-03 -4.543997e-02 -1.678671e-02
<VARIANCE> 39
 1.819117e+01 3.129614e+01 3.946798e+01 4.329836e+01 7.240093e+01 5.821428e+01 5.218819e+01 4.971957e+01 5.198308e+01 3.724707e+01 3.456083e+01 3.145593e+01 2.921968e+01 7.135891e-01 1.030338e+00 1.816436e+00 1.435463e+00 2.295485e+00 3.130166e+00 2.204375e+00 2.392617e+00 2.617527e+00 2.209045e+00 1.789542e+00 1.552710e+00 8.292357e-01 9.282391e-02 1.658024e-01 2.363172e-01 2.480521e-01 3.855867e-01 5.083063e-01 4.169489e-01 4.308570e-01 4.318570e-01 3.901936e-01 3.389430e-01 2.922601e-01 1.215711e-01
<GCONST> 1.099255e+02
<TRANSP> 5
 0.000000e+00 1.000000e+00 0.000000e+00 0.000000e+00 0.000000e+00
 0.000000e+00 3.787765e-01 6.212235e-01 0.000000e+00 0.000000e+00
 0.000000e+00 0.000000e+00 3.761877e-01 6.238123e-01 0.000000e+00
 0.000000e+00 0.000000e+00 0.000000e+00 7.247732e-01 2.752267e-01
 0.000000e+00 0.000000e+00 0.000000e+00 0.000000e+00 0.000000e+00
<ENDHMM>
~h "k"
<BEGINHMM>
<NUMSTATES> 5
<STATE> 2
<MEAN> 39
 -8.268356e+00 -1.476135e+00 -6.087014e+00 -6.575237e+00 -3.939594e+00 -4.649733e+00 -3.540919e+00 -4.791821e+00 -1.894704e-01 -2.319602e+00 7.884602e-01 -1.551101e+00 6.554837e+01 1.187110e+00 1.880374e-01 4.576718e-01 -2.134936e-01 -8.458629e-01 -7.416216e-01 -2.457138e-01 -6.072326e-01 -5.003362e-01 -1.842867e-01 -4.030270e-01 -7.312722e-01 1.078979e+00 3.495966e-01 4.752576e-02 6.448197e-02 -5.478742e-02 -4.686069e-01 -2.971640e-01 1.743243e-02 -1.973526e-02 -1.235218e-01 1.258236e-02 1.221265e-02 -1.829414e-02 1.478092e-01
<VARIANCE> 39
 3.537440e+01 5.437749e+01 6.604321e+01 6.450987e+01 6.205554e+01 6.367549e+01 5.713635e+01 4.668998e+01 4.990224e+01 4.395317e+01 4.064444e+01 3.419247e+01 4.303696e+01 4.916385e+00 4.610392e+00 4.968436e+00 4.838264e+00 5.863117e+00 5.475755e+00 4.992813e+00 4.858079e+00 4.748764e+00 4.028993e+00 3.672977e+00 2.955489e+00 2.143943e+00 5.784764e-01 7.880484e-01 7.792128e-01 7.149509e-01 8.062605e-01 7.917605e-01 8.325365e-01 7.921495e-01 7.830595e-01 6.639578e-01 6.543884e-01 5.285404e-01 4.695547e-01
<GCONST> 1.368087e+02
<STATE> 3
<MEAN> 39
 -8.606474e-01 -1.271328e+00 -5.247837e+00 -8.963776e+00 -1.059865e+01 -9.635077e+00 -4.120021e+00 -6.388804e+00 -2.754837e+00 -2.275084e+00 1.222202e-01 -4.324005e+00 7.118184e+01 1.217331e+00 -5.446798e-01 -1.702148e-01 -6.187528e-01 -1.834753e+00 -7.303281e-01 5.149049e-01 6.813537e-02 -3.150966e-01 3.411072e-01 1.600002e-01 -1.897319e-01 9.748425e-01 -6.435736e-01 -2.457197e-01 -1.923380e-01 1.314499e-01 5.010769e-01 4.529528e-01 1.612600e-01 1.386352e-01 2.500623e-01 1.022611e-01 1.669503e-01 2.489552e-01 -2.953250e-01
<VARIANCE> 39
 2.793532e+01 5.951056e+01 6.852233e+01 5.862095e+01 6.495696e+01 7.936989e+01 5.631650e+01 5.230728e+01 5.379140e+01 5.125027e+01 4.980605e+01 4.237831e+01 3.787569e+01 2.459724e+00 2.231682e+00 3.000962e+00 3.062350e+00 3.447830e+00 4.494514e+00 4.029050e+00 4.018165e+00 3.641965e+00 3.333323e+00 2.855447e+00 2.609682e+00 9.692515e-01 3.296418e-01 4.898738e-01 4.545474e-01 5.149784e-01 6.039746e-01 6.575465e-01 6.781899e-01 7.950732e-01 6.763674e-01 6.651927e-01 5.603129e-01 4.445921e-01 1.638757e-01
<GCONST> 1.282442e+02
<STATE> 4
<MEAN> 39
 -1.188003e+00 -1.971335e+00 -4.972215e+00 -9.378996e+00 -1.173670e+01 -8.982537e+00 -2.415442e+00 -5.662932e+00 -2.366566e+00 -1.575371e+00 6.542178e-01 -3.922022e+00 7.125737e+01 1.568806e-01 -2.178213e-01 9.010293e-03 4.673169e-02 -5.104613e-01 2.636051e-02 4.392244e-01 -1.423302e-02 -7.951105e-02 2.212707e-01 6.478948e-02 4.349268e-02 1.094472e-01 -3.676270e-01 1.599886e-01 7.726026e-02 3.244967e-01 5.615931e-01 2.316397e-01 -1.070130e-01 -3.199642e-02 6.446149e-02 -8.778574e-02 -3.249694e-02 1.171675e-01 -3.900334e-01
<VARIANCE> 39
 3.395290e+01 6.713531e+01 8.271750e+01 6.558350e+01 6.875379e+01 7.618884e+01 5.524453e+01 5.568884e+01 5.646012e+01 5.434198e+01 4.928814e+01 4.384196e+01 3.954171e+01 8.871121e-01 1.406653e+00 1.666324e+00 1.858085e+00 2.239800e+00 2.572803e+00 2.512432e+00 2.450963e+00 2.633274e+00 2.249096e+00 2.007124e+00 1.735554e+00 6.223425e-01 3.614946e-01 4.042696e-01 4.233656e-01 4.688101e-01 5.345809e-01 6.409056e-01 5.850910e-01 6.940993e-01 6.006922e-01 5.561858e-01 4.728879e-01 3.971006e-01 1.693418e-01
<GCONST> 1.214035e+02
<TRANSP> 5
 0.000000e+00 1.000000e+00 0.000000e+00 0.000000e+00 0.000000e+00
 0.000000e+00 7.378852e-01 2.621147e-01 0.000000e+00 0.000000e+00
 0.000000e+00 0.000000e+00 3.720307e-01 6.279692e-01 0.000000e+00
 0.000000e+00 0.000000e+00 0.000000e+00 2.023467e-01 7.976534e-01
 0.000000e+00 0.000000e+00 0.000000e+00 0.000000e+00 0.000000e+00
<ENDHMM>
~h "m"
<BEGINHMM>
<NUMSTATES> 5
<STATE> 2
<MEAN> 39
 9.270868e-01 6.726075e+00 -8.927570e-01 -1.189349e+00 -5.087660e+00 -5.529738e+00 -1.701476e+00 -6.762538e+00 -1.039761e+01 -1.032807e+01 -4.340529e+00 -2.182777e+00 6.474218e+01 4.908326e-01 -4.325953e-01 -1.128102e+00 -1.370255e+00 -9.063685e-01 -3.668839e-02 5.134567e-01 -1.241187e-01 4.640900e-01 4.811708e-01 9.027443e-02 -2.451614e-02 8.193373e-01 1.127114e-02 -3.901010e-01 -4.835990e-01 -5.104871e-01 -2.890104e-01 7.908662e-02 1.920579e-01 6.659832e-02 5.238404e-01 5.964653e-01 2.009595e-01 -1.019703e-01 2.496156e-01
<VARIANCE> 39
 8.526775e+00 2.814280e+01 3.104715e+01 3.258455e+01 5.049842e+01 3.363062e+01 6.166777e+01 4.336449e+01 4.116647e+01 3.452016e+01 3.363699e+01 3.317744e+01 1.770612e+01 5.875819e-01 1.202527e+00 2.185937e+00 3.153876e+00 2.544184e+00 2.094637e+00 2.460166e+00 2.298960e+00 3.248812e+00 3.369337e+00 2.360173e+00 1.739521e+00 7.021419e-01 9.335171e-02 2.019315e-01 2.576651e-01 4.115158e-01 3.939952e-01 4.213861e-01 4.700982e-01 4.428940e-01 5.230029e-01 4.879098e-01 5.010244e-01 3.884596e-01 9.476884e-02
<GCONST> 1.100585e+02
<STATE> 3
<MEAN> 39
 3.241958e+00 1.662913e+00 -9.860323e+00 -1.186613e+01 -1.173701e+01 -4.630677e+00 2.466092e+00 -5.974411e+00 -4.917254e+00 -3.575534e+00 -2.174765e+00 -2.805336e+00 6.981191e+01 2.007734e-01 -2.016240e+00 -2.120317e+00 -2.215796e+00 -8.150948e-01 1.089650e+00 1.313128e+00 -4.167868e-02 1.492822e+00 1.982652e+00 5.377909e-01 -6.714115e-01 1.495831e+00 -2.804199e-01 -2.964719e-02 6.165720e-01 8.662601e-01 5.917844e-01 3.635202e-02 -3.549287e-01 -1.861422e-02 -2.220874e-01 -2.884250e-01 -1.286002e-01 -1.514489e-01 -2.423309e-01
<VARIANCE> 39
 7.891008e+00 4.342272e+01 3.623788e+01 4.048854e+01 4.734286e+01 4.882400e+01 6.620980e+01 6.120619e+01 3.726272e+01 3.928616e+01 3.635740e+01 3.916276e+01 2.207401e+01 6.636894e-01 1.831883e+00 2.107212e+00 4.060479e+00 4.329747e+00 4.472614e+00 4.128367e+00 4.213235e+00 5.345495e+00 4.373334e+00 4.696786e+00 3.518439e+00 7.867997e-01 7.162190e-02 2.440591e-01 3.147307e-01 4.676776e-01 5.094301e-01 6.489584e-01 6.724388e-01 5.744264e-01 6.515284e-01 5.488816e-01 5.361956e-01 4.223791e-01 1.080604e-01
<GCONST> 1.196214e+02
<STATE> 4
<MEAN> 39
 2.102061e+00 -3.267546e+00 -1.170217e+01 -1.229510e+01 -9.978793e+00 -1.610404e+00 2.499579e+00 -7.241083e+00 -3.079024e+00 -1.704562e+00 -2.257650e+00 -6.092901e+00 7.222437e+01 -3.007020e-01 -1.004289e+00 6.263986e-03 2.971370e-01 2.573305e-01 -5.259492e-03 -3.932672e-01 8.423764e-02 7.274537e-01 5.320892e-01 3.385134e-02 -5.629531e-01 4.412062e-01 -6.352213e-02 4.905897e-01 5.908533e-01 5.659507e-01 8.402786e-02 -4.537260e-01 -4.268565e-01 1.393731e-01 -2.647827e-01 -4.531901e-01 -9.665611e-02 2.768654e-01 -4.021386e-01
<VARIANCE> 39
 9.784516e+00 5.338741e+01 3.822224e+01 4.496665e+01 5.663495e+01 6.765572e+01 7.921727e+01 7.668106e+01 4.992895e+01 5.296147e+01 5.727507e+01 5.020488e+01 2.402166e+01 3.487831e-01 1.080747e+00 1.101842e+00 1.926537e+00 2.239456e+00 3.454288e+00 2.948937e+00 2.692106e+00 3.445071e+00 2.707126e+00 2.684727e+00 2.323212e+00 3.787270e-01 8.805459e-02 2.407644e-01 3.125068e-01 3.715720e-01 4.924707e-01 5.353854e-01 5.555056e-01 5.893528e-01 5.929336e-01 6.134267e-01 6.011557e-01 4.618150e-01 1.079975e-01
<GCONST> 1.153830e+02
<TRANSP> 5
 0.000000e+00 1.000000e+00 0.000000e+00 0.000000e+00 0.000000e+00
 0.000000e+00 7.463221e-01 2.536779e-01 0.000000e+00 0.000000e+00
 0.000000e+00 0.000000e+00 5.319107e-01 4.680893e-01 0.000000e+00
 0.000000e+00 0.000000e+00 0.000000e+00 4.790406e-01 5.209594e-01
 0.000000e+00 0.000000e+00 0.000000e+00 0.000000e+00 0.000000e+00
<ENDHMM>
~h "n"
<BEGINHMM>
<NUMSTATES> 5
<STATE> 2
<MEAN> 39
 1.469884e+00 5.106388e+00 -1.286557e+00 -9.049615e-01 -6.795615e+00 -8.647988e+00 -7.224195e+00 -7.526309e+00 -7.531486e+00 -5.208581e+00 -2.582117e+00 -4.433430e+00 6.448508e+01 -4.443981e-02 2.630740e-01 8.002163e-02 1.588380e-01 3.464389e-01 -2.190333e-01 -3.464302e-01 -7.694176e-02 -1.589968e-01 -4.270621e-02 1.829510e-01 -6.915569e-02 -1.660233e-01 2.034942e-02 -4.625527e-01 -4.397461e-01 -2.978480e-01 -2.858298e-01 2.995054e-02 2.513835e-01 4.914794e-02 3.661312e-01 2.282374e-01 -7.136352e-03 5.160699e-02 3.515081e-01
<VARIANCE> 39
 7.972231e+00 2.623350e+01 2.806540e+01 3.391768e+01 3.999091e+01 3.351815e+01 5.071857e+01 3.476676e+01 3.617344e+01 3.958390e+01 2.684958e+01 3.418757e+01 1.716906e+01 2.270522e-01 1.067295e+00 1.478276e+00 1.305910e+00 1.369677e+00 1.467072e+00 1.724780e+00 1.620468e+00 1.808273e+00 1.721959e+00 1.331439e+00 1.319847e+00 3.469634e-01 5.194398e-02 1.791271e-01 2.700416e-01 2.815312e-01 3.663188e-01 3.432378e-01 4.699001e-01 4.271940e-01 4.380887e-01 4.031556e-01 3.286408e-01 3.685321e-01 5.945139e-02
<GCONST> 9.949276e+01
<STATE> 3
<MEAN> 39
 1.222146e+00 8.488949e-01 -5.737199e+00 -2.441459e+00 -7.644060e+00 -9.120979e+00 -5.659587e+00 -8.034630e+00 -4.870704e+00 -2.202426e+00 -1.644532e+00 -4.516227e+00 6.764483e+01 -4.902956e-02 -1.341165e+00 -1.605115e+00 -1.408618e+00 -1.162285e+00 3.491372e-01 1.472445e+00 4.926220e-01 1.356600e+00 8.360341e-01 -2.251566e-01 -2.655106e-02 1.227191e+00 -4.921762e-02 1.759372e-01 9.667474e-02 -2.192460e-01 -2.311517e-01 1.219440e-01 3.624850e-01 2.637755e-01 5.639240e-02 -9.189010e-02 -1.107899e-01 -2.325341e-02 -5.929023e-02
<VARIANCE> 39
 1.212535e+01 4.096636e+01 4.737684e+01 4.561551e+01 6.280822e+01 4.558012e+01 5.922054e+01 4.872297e+01 6.169547e+01 5.167833e+01 3.924073e+01 4.273714e+01 2.543366e+01 5.675908e-01 2.233137e+00 3.029878e+00 3.172078e+00 3.987911e+00 3.883472e+00 5.236380e+00 4.199258e+00 5.054286e+00 4.130947e+00 3.415824e+00 3.723214e+00 5.838220e-01 6.465700e-02 4.573721e-01 6.110649e-01 5.305281e-01 7.074016e-01 5.799428e-01 7.971027e-01 6.279980e-01 9.344161e-01 6.785313e-01 5.644840e-01 5.367283e-01 2.231224e-01
<GCONST> 1.242127e+02
<STATE> 4
<MEAN> 39
 2.775069e-01 -1.150889e-01 -6.971813e+00 -7.889205e+00 -1.317163e+01 -7.702262e+00 -1.986093e-01 -4.283953e+00 -2.326109e+00 -2.698795e+00 -3.083700e+00 -4.677204e+00 6.959459e+01 -1.147328e-01 2.321714e-01 7.178900e-02 -4.517470e-01 -5.625858e-01 5.985158e-02 6.814796e-01 5.231958e-01 2.225228e-01 -5.232123e-02 -7.068506e-02 2.633783e-02 -1.026385e-01 -1.157705e-02 2.238536e-01 2.970248e-01 2.710960e-01 2.283729e-01 -7.538034e-02 -3.331820e-01 -1.044913e-01 -1.802151e-01 -9.956474e-02 1.076808e-01 6.345577e-02 -2.407489e-01
<VARIANCE> 39
 1.802752e+01 5.476550e+01 5.428516e+01 4.856458e+01 7.208797e+01 6.411658e+01 5.364080e+01 5.764252e+01 5.619886e+01 5.935205e+01 6.830885e+01 4.532935e+01 2.563324e+01 2.248316e-01 9.888856e-01 1.122652e+00 1.732369e+00 2.324549e+00 2.095256e+00 2.473280e+00 2.242140e+00 2.668405e+00 2.158416e+00 2.329506e+00 1.672597e+00 3.420205e-01 5.887302e-02 1.802875e-01 2.890317e-01 3.136242e-01 3.735073e-01 4.207863e-01 4.621403e-01 3.975959e-01 5.330219e-01 4.253518e-01 4.191602e-01 3.438248e-01 7.135123e-02
<GCONST> 1.102622e+02
<TRANSP> 5
 0.000000e+00 1.000000e+00 0.000000e+00 0.000000e+00 0.000000e+00
 0.000000e+00 7.604990e-01 2.395010e-01 0.000000e+00 0.000000e+00
 0.000000e+00 0.000000e+00 6.911777e-01 3.088223e-01 0.000000e+00
 0.000000e+00 0.000000e+00 0.000000e+00 6.398479e-01 3.601521e-01
 0.000000e+00 0.000000e+00 0.000000e+00 0.000000e+00 0.000000e+00
<ENDHMM>
~h "o"
<BEGINHMM>
<NUMSTATES> 5
<STATE> 2
<MEAN> 39
 3.004664e+00 5.720903e+00 -7.757010e+00 -1.319023e+01 -1.612665e+01 -8.572379e+00 1.914783e+00 -3.891504e+00 -4.156794e+00 -2.980030e+00 -1.849514e+00 -1.691822e+00 6.728989e+01 -6.225036e-02 2.374868e-01 2.392690e-01 2.197808e-01 1.556233e-01 2.482345e-01 3.584844e-01 1.359450e-01 -1.367183e-01 -2.170935e-01 -1.967476e-01 -1.330466e-02 -3.241986e-01 -2.300705e-01 -2.328688e-01 1.016239e-01 4.430980e-01 6.201065e-01 1.758335e-01 -2.125318e-01 -1.131612e-01 -2.630514e-02 1.309527e-03 8.458380e-02 -4.521656e-02 -8.696268e-02
<VARIANCE> 39
 1.025759e+01 3.910327e+01 2.622356e+01 3.873611e+01 5.265287e+01 4.471568e+01 5.216281e+01 4.977102e+01 4.834093e+01 3.755667e+01 4.078657e+01 3.444672e+01 2.129226e+01 5.978458e-01 1.301229e+00 1.447003e+00 2.372878e+00 3.262622e+00 2.538407e+00 2.808443e+00 2.786324e+00 2.776217e+00 2.560214e+00 2.450649e+00 1.804525e+00 7.435300e-01 1.013062e-01 1.650311e-01 2.199314e-01 3.204385e-01 4.499922e-01 4.623200e-01 5.013976e-01 4.602735e-01 5.066491e-01 4.957870e-01 4.547724e-01 3.860092e-01 7.699376e-02
<GCONST> 1.108709e+02
<STATE> 3
<MEAN> 39
 2.049808e+00 4.821602e+00 -7.524493e+00 -1.065037e+01 -1.275213e+01 -6.750384e+00 2.110309e+00 -4.372921e+00 -5.062126e+00 -3.639912e+00 -1.449543e+00 -1.533425e+00 6.638100e+01 -5.606990e-01 -3.673899e-01 3.841508e-01 1.249279e+00 1.605730e+00 5.883855e-01 -4.098794e-01 -2.590465e-01 -1.267322e-01 -7.553977e-02 1.749865e-01 7.426798e-02 -5.359893e-01 -1.670844e-01 -1.619860e-01 9.063306e-02 2.412347e-01 2.601567e-01 -2.274437e-02 -3.230062e-01 -9.271776e-02 1.263226e-01 1.172526e-01 2.397904e-02 -8.207126e-02 -2.114525e-02
<VARIANCE> 39
 1.137191e+01 3.686794e+01 2.860151e+01 4.384982e+01 4.624908e+01 4.489013e+01 5.625223e+01 5.104145e+01 4.716869e+01 3.806765e+01 4.635499e+01 3.582072e+01 2.487553e+01 8.049092e-01 1.273539e+00 1.897962e+00 2.847641e+00 3.459736e+00 3.358166e+00 3.278567e+00 2.997171e+00 3.292649e+00 2.626716e+00 2.711800e+00 2.380958e+00 7.803918e-01 9.769112e-02 2.083248e-01 2.563294e-01 3.189383e-01 4.878798e-01 4.660617e-01 4.905993e-01 4.912394e-01 5.333761e-01 5.017271e-01 5.231115e-01 3.858639e-01 1.113556e-01
<GCONST> 1.143806e+02
<STATE> 4
<MEAN> 39
 -3.832478e-01 3.868930e+00 -6.488822e+00 -7.319130e+00 -8.288227e+00 -5.055582e+00 7.835817e-02 -4.905157e+00 -4.390437e+00 -3.011050e+00 -9.509714e-01 -1.563893e+00 6.429867e+01 -7.768265e-01 -5.023582e-01 4.494781e-01 1.060467e+00 1.184585e+00 2.728972e-01 -6.311175e-01 -1.981161e-01 1.918903e-01 1.466558e-01 2.973250e-02 -1.099934e-01 -4.756918e-01 7.809070e-02 3.546469e-03 -7.977258e-03 -1.588128e-01 -3.611213e-01 -2.509016e-01 -1.456870e-02 3.747044e-02 3.280424e-02 -1.569939e-02 -5.583481e-02 -4.901743e-02 1.636550e-01
<VARIANCE> 39
 1.938353e+01 3.698067e+01 3.144390e+01 4.571092e+01 4.443661e+01 4.547653e+01 5.443934e+01 4.778888e+01 4.848723e+01 3.423068e+01 3.616239e+01 2.968865e+01 3.391980e+01 8.443210e-01 1.594979e+00 1.926842e+00 2.786963e+00 3.100620e+00 3.199463e+00 3.395646e+00 2.980484e+00 3.092840e+00 2.551561e+00 2.481285e+00 2.142729e+00 9.011062e-01 1.506243e-01 2.682893e-01 3.558014e-01 3.867244e-01 5.460989e-01 5.090351e-01 4.928296e-01 5.238371e-01 5.444446e-01 4.620741e-01 5.029060e-01 3.909488e-01 1.781314e-01
<GCONST> 1.165769e+02
<TRANSP> 5
 0.000000e+00 1.000000e+00 0.000000e+00 0.000000e+00 0.000000e+00
 0.000000e+00 5.451338e-01 4.548662e-01 0.000000e+00 0.000000e+00
 0.000000e+00 0.000000e+00 3.044043e-01 6.955957e-01 0.000000e+00
 0.000000e+00 0.000000e+00 0.000000e+00 4.530272e-01 5.469729e-01
 0.000000e+00 0.000000e+00 0.000000e+00 0.000000e+00 0.000000e+00
<ENDHMM>
~h "p"
<BEGINHMM>
<NUMSTATES> 5
<STATE> 2
<MEAN> 39
 -5.016392e+00 6.877744e-02 -7.203710e+00 -8.291183e+00 -5.459140e+00 -5.130862e+00 3.473833e-01 -4.184837e+00 -2.701415e+00 -3.664285e+00 -1.965437e+00 -2.275940e+00 6.661418e+01 1.716822e+00 6.884567e-01 -1.690406e-01 -1.129380e+00 -1.404293e+00 -8.726737e-01 1.010978e-01 -7.112954e-01 -1.011799e+00 -6.869920e-01 -3.494635e-01 -3.432062e-01 1.499239e+00 1.611003e-01 1.030298e-01 3.606275e-02 -1.054852e-02 -2.725582e-01 -3.331920e-02 -1.236368e-01 2.324136e-02 1.610503e-03 1.736549e-01 1.607858e-01 8.786674e-02 -1.124948e-01
<VARIANCE> 39
 3.504569e+01 4.540385e+01 3.098480e+01 4.872256e+01 6.003579e+01 5.494550e+01 4.901236e+01 3.606112e+01 3.405574e+01 3.260093e+01 2.687511e+01 2.429568e+01 3.551370e+01 3.833009e+00 6.150418e+00 2.716705e+00 3.646785e+00 6.565263e+00 4.270559e+00 4.436205e+00 3.812168e+00 3.368898e+00 3.434855e+00 2.977701e+00 2.288186e+00 3.012779e+00 7.342988e-01 1.183667e+00 4.326704e-01 5.818444e-01 1.075829e+00 7.808839e-01 7.015700e-01 6.892153e-01 5.869193e-01 6.121089e-01 5.134299e-01 4.044503e-01 5.846090e-01
<GCONST> 1.305439e+02
<STATE> 3
<MEAN> 39
 1.283433e+00 -1.000266e+00 -8.056981e+00 -1.445152e+01 -1.244130e+01 -7.667002e+00 2.163294e+00 -3.679186e+00 -4.760070e+00 -3.554795e+00 -8.792635e-01 -2.850866e+00 7.406659e+01 4.305322e-01 -4.618427e-01 -1.115203e-01 -1.327349e-01 -6.026197e-01 -3.459826e-01 -4.987473e-01 -4.957774e-01 5.905980e-02 5.904679e-01 5.735682e-01 -6.297030e-02 5.527552e-01 -5.031823e-01 -1.957595e-01 1.441112e-01 5.179002e-01 5.295596e-01 1.004084e-01 -2.730696e-01 6.357206e-02 4.448915e-01 1.956138e-01 -1.199547e-02 -1.832536e-02 -3.691669e-01
<VARIANCE> 39
 1.195289e+01 6.718110e+01 3.249603e+01 4.613833e+01 5.455337e+01 7.574859e+01 9.927582e+01 7.102651e+01 6.299940e+01 5.360184e+01 4.751010e+01 4.351077e+01 4.585747e+01 1.097864e+00 3.431601e+00 1.286878e+00 2.363152e+00 3.151600e+00 2.750859e+00 4.072846e+00 3.112353e+00 3.622230e+00 3.380830e+00 2.644179e+00 2.490724e+00 1.436134e+00 2.749126e-01 5.556117e-01 3.130696e-01 4.719129e-01 6.859832e-01 6.286823e-01 9.120869e-01 7.134013e-01 7.458265e-01 5.561589e-01 5.982780e-01 4.534771e-01 1.919897e-01
<GCONST> 1.254435e+02
<STATE> 4
<MEAN> 39
 2.096869e+00 -1.002585e+00 -9.285401e+00 -1.512319e+01 -1.276648e+01 -4.503858e+00 3.492820e-01 -6.394538e+00 -3.544626e+00 -2.825451e+00 -3.238465e-01 -3.596182e+00 7.283815e+01 -8.603211e-02 -3.287241e-01 9.429678e-02 6.646420e-01 1.918833e-01 -3.127167e-01 -8.683602e-01 -2.462358e-01 5.239232e-01 4.857253e-01 4.446267e-02 -2.445254e-01 4.847698e-03 -2.317996e-01 2.512118e-02 1.687584e-01 2.799230e-01 2.378764e-01 -4.058771e-02 -6.401408e-02 1.548053e-01 9.081231e-02 -1.223551e-01 -1.478232e-01 1.085918e-02 -2.013311e-01
<VARIANCE> 39
 9.497570e+00 7.850894e+01 5.694850e+01 5.930637e+01 7.843573e+01 8.479801e+01 7.672071e+01 6.138823e+01 6.274160e+01 6.139481e+01 4.569735e+01 3.993549e+01 3.311517e+01 3.052195e-01 1.227407e+00 1.036797e+00 1.910818e+00 2.130694e+00 2.481740e+00 2.663589e+00 2.130998e+00 2.447169e+00 1.743405e+00 2.335558e+00 1.889099e+00 4.559016e-01 1.293680e-01 2.975393e-01 2.375998e-01 2.705640e-01 4.842412e-01 4.425916e-01 3.952167e-01 4.370476e-01 4.441923e-01 4.539373e-01 4.486712e-01 3.574475e-01 8.863101e-02
<GCONST> 1.130422e+02
<TRANSP> 5
 0.000000e+00 1.000000e+00 0.000000e+00 0.000000e+00 0.000000e+00
 0.000000e+00 7.674015e-01 2.325985e-01 0.000000e+00 0.000000e+00
 0.000000e+00 0.000000e+00 5.233649e-01 4.766351e-01 0.000000e+00
 0.000000e+00 0.000000e+00 0.000000e+00 5.140846e-01 4.859154e-01
 0.000000e+00 0.000000e+00 0.000000e+00 0.000000e+00 0.000000e+00
<ENDHMM>
~h "r"
<BEGINHMM>
<NUMSTATES> 5
<STATE> 2
<MEAN> 39
 -1.980859e-01 -5.962785e-01 -4.021572e+00 2.029712e-01 -6.659471e+00 -1.108385e+01 -6.360554e+00 -8.569971e+00 -3.892883e+00 -2.240409e+00 -6.978484e-01 -2.798111e+00 6.772998e+01 -7.532496e-02 -3.627279e-01 1.414642e-01 5.294596e-01 -3.705191e-01 -5.518025e-01 -4.821769e-01 -2.667104e-01 1.292580e-01 -2.238237e-01 6.375334e-02 5.423718e-02 3.087369e-01 1.492177e-01 5.576123e-02 -1.272614e-01 -3.382077e-01 -6.225002e-01 -5.674731e-02 2.906261e-01 7.202868e-02 -9.051809e-02 -5.270806e-02 1.306667e-01 3.691293e-02 1.686460e-01
<VARIANCE> 39
 1.966854e+01 3.806071e+01 5.840145e+01 5.307460e+01 6.704575e+01 5.558020e+01 4.725943e+01 4.605061e+01 4.274170e+01 4.279128e+01 3.468129e+01 3.546095e+01 2.747629e+01 1.718112e+00 2.249166e+00 3.589119e+00 3.844127e+00 6.686118e+00 5.027350e+00 4.329676e+00 4.040095e+00 3.974169e+00 4.267547e+00 3.473041e+00 2.985165e+00 1.341663e+00 3.068945e-01 4.708917e-01 5.272421e-01 5.433624e-01 1.055971e+00 1.003352e+00 8.174375e-01 7.986773e-01 7.441254e-01 7.421598e-01 6.734474e-01 6.463486e-01 2.931817e-01
<GCONST> 1.297934e+02
<STATE> 3
<MEAN> 39
 1.235934e+00 -1.651677e+00 -5.579671e+00 -1.123678e-01 -1.024524e+01 -1.282634e+01 -6.499546e+00 -8.558251e+00 -3.646239e+00 -2.520862e+00 4.732181e-01 -1.831525e+00 6.906878e+01 3.016693e-01 2.343963e-01 -3.337514e-02 -3.186240e-01 -1.532248e+00 -2.292839e-01 5.644270e-01 8.857681e-02 -5.400289e-01 -5.500239e-01 5.112945e-01 4.179656e-01 2.101579e-01 -7.326790e-02 1.975026e-01 8.264609e-02 -2.604674e-01 1.134897e-01 3.462805e-01 3.340397e-01 1.770020e-01 -9.119015e-02 1.202178e-02 -3.343455e-02 -8.100370e-02 -1.519186e-01
<VARIANCE> 39
 1.340848e+01 3.700387e+01 6.521827e+01 5.191317e+01 7.396616e+01 6.171082e+01 5.372503e+01 5.220307e+01 4.811614e+01 4.492975e+01 3.935997e+01 3.953386e+01 2.297785e+01 1.095690e+00 1.761656e+00 2.883098e+00 2.965132e+00 3.632514e+00 4.266510e+00 3.430329e+00 3.110404e+00 3.852791e+00 3.857302e+00 3.082194e+00 2.973085e+00 8.012663e-01 1.420054e-01 2.250136e-01 3.630823e-01 3.297662e-01 7.273727e-01 6.106565e-01 5.707096e-01 5.670469e-01 6.073382e-01 5.567398e-01 5.512706e-01 4.836446e-01 1.281134e-01
<GCONST> 1.211769e+02
<STATE> 4
<MEAN> 39
 1.328724e+00 -9.392816e-01 -4.600016e+00 -2.180967e+00 -1.318007e+01 -1.258590e+01 -5.913763e+00 -8.110961e+00 -5.136221e+00 -4.342554e+00 8.224431e-01 -2.472990e+00 6.896770e+01 -6.656832e-02 4.019960e-01 1.954281e-01 -4.014916e-01 -3.976317e-01 3.312249e-01 5.523691e-01 1.809384e-01 -2.834817e-01 -2.667012e-01 3.429599e-02 5.664182e-02 -1.576053e-01 -1.136422e-01 6.500974e-02 5.409845e-02 -8.241491e-03 3.406856e-01 1.746806e-01 1.188730e-02 2.514831e-02 6.486313e-02 8.768558e-02 -1.167810e-01 -5.823287e-02 -1.390866e-01
<VARIANCE> 39
 1.292988e+01 3.752887e+01 6.722639e+01 6.495884e+01 7.094109e+01 6.032460e+01 5.718398e+01 4.713548e+01 4.439433e+01 4.470726e+01 3.890337e+01 3.858169e+01 2.083615e+01 4.607119e-01 9.449539e-01 1.406573e+00 1.676843e+00 2.416906e+00 2.296934e+00 2.321081e+00 2.059735e+00 2.122819e+00 2.249382e+00 1.992837e+00 2.008661e+00 4.511442e-01 8.473197e-02 1.537092e-01 2.521389e-01 2.370877e-01 4.148984e-01 4.071174e-01 3.783301e-01 3.940331e-01 4.035794e-01 4.113643e-01 3.831019e-01 3.403550e-01 7.618355e-02
<GCONST> 1.086607e+02
<TRANSP> 5
 0.000000e+00 1.000000e+00 0.000000e+00 0.000000e+00 0.000000e+00
 0.000000e+00 5.389223e-01 4.610778e-01 0.000000e+00 0.000000e+00
 0.000000e+00 0.000000e+00 2.758774e-01 7.241226e-01 0.000000e+00
 0.000000e+00 0.000000e+00 0.000000e+00 5.366548e-01 4.633452e-01
 0.000000e+00 0.000000e+00 0.000000e+00 0.000000e+00 0.000000e+00
<ENDHMM>
~h "t"
<BEGINHMM>
<NUMSTATES> 5
<STATE> 2
<MEAN> 39
 -1.394765e+01 -1.497556e+00 -3.683733e+00 -5.812175e+00 -3.886143e+00 -5.984041e+00 -2.448116e+00 -2.061601e+00 1.021297e+00 -1.823831e+00 3.334680e-01 -7.477047e-01 6.612444e+01 7.070892e-01 -7.813948e-02 4.478801e-01 -2.196022e-01 -4.577816e-01 -8.470798e-01 -3.122740e-01 -7.661746e-01 -2.488474e-01 -3.961675e-01 -4.164351e-01 -6.214139e-01 1.558514e+00 7.630689e-01 2.329260e-01 -1.849511e-02 8.538370e-02 -3.352010e-01 -9.755673e-02 -1.430956e-01 -2.682928e-01 -2.830019e-01 1.548662e-02 -6.017669e-02 -1.182460e-01 -1.144740e-01
<VARIANCE> 39
 5.433672e+01 3.555928e+01 4.583455e+01 3.947607e+01 3.575536e+01 5.025284e+01 3.816361e+01 3.517896e+01 3.420382e+01 3.041621e+01 2.725811e+01 2.737236e+01 4.943230e+01 7.704700e+00 3.823090e+00 3.696060e+00 4.549204e+00 4.019131e+00 4.427229e+00 3.858131e+00 3.828659e+00 3.978469e+00 3.665689e+00 2.951842e+00 3.129862e+00 4.738221e+00 7.868173e-01 6.438932e-01 5.593197e-01 7.033143e-01 6.899490e-01 7.951594e-01 7.234007e-01 6.400768e-01 6.632515e-01 6.564736e-01 5.485234e-01 5.810093e-01 9.028553e-01
<GCONST> 1.320784e+02
<STATE> 3
<MEAN> 39
 -3.043450e+00 4.265213e-01 -2.685514e+00 -6.837886e+00 -1.005581e+01 -1.037923e+01 -5.244594e+00 -8.096153e+00 -3.294960e+00 -3.383564e+00 -2.070371e+00 -4.208691e+00 7.075063e+01 2.838845e+00 3.060219e-01 -5.454069e-01 -4.272811e-01 -1.981606e+00 -7.117386e-01 -2.566192e-01 -1.065719e+00 -1.022282e+00 8.775349e-02 3.976981e-02 -1.889141e-01 5.599152e-01 -6.855614e-01 -3.606356e-01 -2.195625e-01 1.988037e-02 3.413441e-01 4.615989e-01 3.229226e-01 5.059857e-01 2.929954e-01 1.971332e-01 3.108354e-01 4.359800e-01 -4.134394e-01
<VARIANCE> 39
 2.809271e+01 3.399981e+01 7.358781e+01 7.001456e+01 6.012421e+01 7.163515e+01 4.990742e+01 4.453534e+01 4.177781e+01 5.652907e+01 3.933607e+01 4.028877e+01 2.478499e+01 2.281245e+00 3.081044e+00 2.656411e+00 3.747375e+00 4.585653e+00 4.942749e+00 4.198442e+00 3.664466e+00 4.013772e+00 4.288454e+00 3.114477e+00 3.646203e+00 1.469895e+00 3.679673e-01 3.790259e-01 4.822074e-01 5.757977e-01 7.607493e-01 7.584735e-01 6.240952e-01 5.341359e-01 5.769252e-01 6.733363e-01 5.381938e-01 4.924493e-01 3.697466e-01
<GCONST> 1.291010e+02
<STATE> 4
<MEAN> 39
 -6.704994e-01 -1.969322e+00 -5.666545e+00 -9.469141e+00 -1.228120e+01 -9.034018e+00 -3.763823e+00 -7.632366e+00 -3.615155e+00 -2.463899e+00 -1.020499e+00 -3.268248e+00 7.205448e+01 5.835233e-01 -2.544001e-01 -3.735302e-01 1.637732e-01 -7.408886e-02 3.102174e-01 1.012909e-01 1.941363e-02 -2.419263e-01 2.249199e-01 3.317966e-01 3.227389e-01 -2.328801e-01 -5.545716e-01 3.737477e-02 1.825211e-01 2.953302e-01 5.371677e-01 1.440417e-01 -4.284270e-02 1.626214e-01 1.512385e-01 -5.039761e-02 1.943471e-03 5.471066e-02 -3.276273e-01
<VARIANCE> 39
 2.341718e+01 4.357092e+01 7.011924e+01 7.978693e+01 7.087328e+01 7.724567e+01 6.114104e+01 5.215807e+01 4.957454e+01 6.939163e+01 4.659779e+01 5.264324e+01 2.948452e+01 1.009306e+00 1.591318e+00 1.414368e+00 1.882878e+00 2.709139e+00 2.877012e+00 2.676102e+00 2.430248e+00 2.534379e+00 2.331255e+00 2.330364e+00 2.026628e+00 1.077616e+00 3.381069e-01 3.346430e-01 4.005834e-01 4.824415e-01 6.304331e-01 7.039782e-01 6.244536e-01 5.478222e-01 5.786676e-01 6.364798e-01 4.862166e-01 5.326967e-01 2.012311e-01
<GCONST> 1.223638e+02
<TRANSP> 5
 0.000000e+00 1.000000e+00 0.000000e+00 0.000000e+00 0.000000e+00
 0.000000e+00 7.372513e-01 2.627487e-01 0.000000e+00 0.000000e+00
 0.000000e+00 0.000000e+00 4.616934e-01 5.383067e-01 0.000000e+00
 0.000000e+00 0.000000e+00 0.000000e+00 4.645696e-01 5.354303e-01
 0.000000e+00 0.000000e+00 0.000000e+00 0.000000e+00 0.000000e+00
<ENDHMM>
~h "u"
<BEGINHMM>
<NUMSTATES> 5
<STATE> 2
<MEAN> 39
 7.259283e-01 5.632156e+00 -2.543596e+00 -2.823864e+00 -1.212150e+01 -9.891500e+00 -4.159534e+00 -1.203876e+01 -9.406900e+00 -5.577837e+00 7.432353e-01 -1.836516e-01 6.668395e+01 3.112026e-02 1.608975e-01 1.406699e-02 -8.104271e-01 -6.455835e-01 5.105534e-01 6.714024e-01 -4.993601e-02 -6.597926e-02 1.796074e-01 2.428821e-01 3.688471e-01 -9.847206e-02 -1.341608e-01 -2.367950e-01 -6.073818e-02 3.872351e-02 3.094174e-01 2.157098e-03 -1.510022e-01 1.807750e-01 3.133385e-01 2.269830e-01 1.945408e-02 -7.580531e-02 1.804395e-02
<VARIANCE> 39
 1.776306e+01 3.460073e+01 4.456068e+01 5.017147e+01 5.982677e+01 4.805292e+01 6.429253e+01 4.219355e+01 4.532762e+01 5.083219e+01 4.178129e+01 3.684504e+01 1.903000e+01 3.851257e-01 8.738651e-01 1.265470e+00 2.168702e+00 2.459415e+00 2.184613e+00 2.373690e+00 2.310969e+00 2.286640e+00 2.156873e+00 2.446019e+00 2.029615e+00 6.311454e-01 1.030062e-01 1.577798e-01 2.072002e-01 2.595998e-01 3.334949e-01 3.856568e-01 3.979807e-01 4.100828e-01 4.122856e-01 4.670330e-01 4.482590e-01 3.782729e-01 6.916057e-02
<GCONST> 1.087504e+02
<STATE> 3
<MEAN> 39
 8.269689e-01 4.621503e+00 -3.023805e+00 -3.811278e+00 -1.217063e+01 -8.559493e+00 -5.400441e+00 -1.067951e+01 -8.609195e+00 -5.183089e+00 9.350992e-01 -2.630165e-01 6.623833e+01 -1.579704e-01 -3.393643e-01 -5.804126e-02 -4.408768e-01 2.032012e-01 4.954514e-01 1.450444e-01 3.865256e-01 3.726451e-01 7.414362e-01 3.980433e-01 1.065507e-01 -1.242619e-01 -1.231620e-01 -2.140048e-01 -3.048792e-02 1.161823e-01 2.818562e-01 -7.181881e-02 -7.094605e-02 1.955987e-01 2.093923e-01 1.543742e-01 -4.478912e-02 -1.091710e-01 8.254278e-03
<VARIANCE> 39
 2.206378e+01 3.410598e+01 4.761114e+01 6.610992e+01 6.811028e+01 5.085891e+01 5.998552e+01 4.231273e+01 5.410111e+01 4.694647e+01 4.225088e+01 3.246867e+01 2.543164e+01 4.914527e-01 1.260048e+00 1.452827e+00 1.932307e+00 2.526493e+00 2.222199e+00 2.140287e+00 2.145610e+00 2.484025e+00 2.738659e+00 2.696603e+00 1.837841e+00 9.950161e-01 8.119952e-02 1.369733e-01 1.845326e-01 2.487524e-01 3.514484e-01 3.891981e-01 4.175234e-01 3.635694e-01 4.511390e-01 4.014347e-01 4.324617e-01 3.439796e-01 7.199539e-02
<GCONST> 1.102599e+02
<STATE> 4
<MEAN> 39
 -2.703661e-01 3.817767e+00 -3.117063e+00 -3.864114e+00 -9.956503e+00 -7.721603e+00 -4.937168e+00 -9.853952e+00 -6.672399e+00 -2.847016e+00 1.560852e+00 -8.475240e-01 6.571566e+01 -3.566501e-01 -5.072844e-01 -9.422714e-02 -6.779301e-02 5.991858e-01 3.778454e-01 2.285280e-01 7.323807e-01 6.164711e-01 6.373605e-01 3.063412e-02 -1.996593e-01 -2.488781e-01 -4.956383e-02 -4.646392e-02 -2.700675e-02 7.440209e-02 5.204920e-02 -8.935092e-02 -2.309052e-02 9.462173e-02 7.417056e-02 -6.977360e-02 -7.101299e-02 -3.373703e-02 -2.453144e-02
<VARIANCE> 39
 1.934068e+01 3.213369e+01 5.016087e+01 7.565036e+01 7.180524e+01 4.923553e+01 6.077687e+01 4.280580e+01 4.301548e+01 5.062727e+01 4.140150e+01 3.039392e+01 3.202827e+01 4.934105e-01 1.095325e+00 1.225947e+00 1.382566e+00 1.789056e+00 2.099636e+00 2.162417e+00 1.820664e+00 2.356173e+00 2.493188e+00 1.730165e+00 1.597572e+00 8.868665e-01 5.237440e-02 1.234986e-01 1.732219e-01 2.233791e-01 3.238465e-01 3.214158e-01 3.310539e-01 3.368164e-01 3.533657e-01 3.333161e-01 3.619660e-01 2.941116e-01 7.549682e-02
<GCONST> 1.062371e+02
<TRANSP> 5
 0.000000e+00 1.000000e+00 0.000000e+00 0.000000e+00 0.000000e+00
 0.000000e+00 5.056502e-01 4.943498e-01 0.000000e+00 0.000000e+00
 0.000000e+00 0.000000e+00 2.925216e-01 7.074783e-01 0.000000e+00
 0.000000e+00 0.000000e+00 0.000000e+00 5.150005e-01 4.849995e-01
 0.000000e+00 0.000000e+00 0.000000e+00 0.000000e+00 0.000000e+00
<ENDHMM>
~h "w"
<BEGINHMM>
<NUMSTATES> 5
<STATE> 2
<MEAN> 39
 3.389579e+00 8.147048e+00 -3.962828e+00 -9.502762e+00 -1.511461e+01 -8.299745e+00 -1.591462e+00 -5.375357e+00 -4.007957e+00 -3.422814e+00 -2.592664e+00 -1.903978e+00 6.450195e+01 3.626311e-01 -3.225261e-01 -8.286890e-01 -1.739256e+00 -1.221545e+00 3.990448e-01 1.328631e+00 4.452094e-01 7.472470e-03 1.112092e-01 -2.915230e-03 2.824733e-01 5.921996e-01 -1.495428e-01 -4.477612e-01 -1.056390e-01 8.241859e-02 2.432263e-01 1.843723e-01 1.944389e-01 -2.314040e-02 -9.522480e-02 -3.489667e-02 1.388268e-01 1.336785e-01 2.254924e-01
<VARIANCE> 39
 9.629259e+00 2.971109e+01 2.936417e+01 6.113892e+01 7.212159e+01 3.218248e+01 5.110959e+01 4.274783e+01 3.229753e+01 3.700621e+01 2.624124e+01 2.559337e+01 2.082645e+01 6.638151e-01 2.170419e+00 1.669903e+00 2.459163e+00 3.580709e+00 3.399087e+00 3.337622e+00 2.918339e+00 2.752829e+00 2.152983e+00 2.195936e+00 1.944431e+00 1.240817e+00 7.534203e-02 2.060970e-01 2.487889e-01 4.054962e-01 6.861981e-01 6.678178e-01 5.814286e-01 5.278035e-01 4.861593e-01 4.666687e-01 4.008941e-01 3.819486e-01 7.575876e-02
<GCONST> 1.125368e+02
<STATE> 3
<MEAN> 39
 3.935605e+00 3.759334e+00 -8.472709e+00 -1.586932e+01 -1.789210e+01 -5.429037e+00 5.257475e+00 -3.240146e+00 -4.450969e+00 -3.538401e+00 -2.821890e+00 1.152863e+00 6.773788e+01 -3.105753e-01 -1.950790e+00 -1.229538e+00 -5.510733e-01 1.044299e+00 1.615430e+00 1.155268e+00 -6.187016e-01 -7.379170e-01 1.982331e-01 1.125292e+00 7.751714e-01 1.120448e+00 -2.498330e-01 -1.056268e-01 2.398420e-01 7.320227e-01 7.278082e-01 -1.238342e-01 -7.029546e-01 -2.853932e-01 1.735383e-01 2.987399e-01 2.053957e-01 -3.523347e-01 -1.276043e-01
<VARIANCE> 39
 9.897449e+00 3.340365e+01 3.462186e+01 5.883887e+01 6.628137e+01 4.846933e+01 6.276382e+01 6.145398e+01 4.213609e+01 3.736879e+01 4.154992e+01 3.573649e+01 2.171848e+01 6.481271e-01 2.203525e+00 1.360405e+00 2.073140e+00 2.947286e+00 3.152780e+00 3.836766e+00 3.915025e+00 2.850187e+00 3.253483e+00 3.062538e+00 2.498276e+00 1.054534e+00 9.856748e-02 3.212025e-01 2.349968e-01 3.763949e-01 6.177204e-01 6.799965e-01 7.402443e-01 5.911918e-01 6.914760e-01 5.196974e-01 5.380417e-01 5.063924e-01 1.262238e-01
<GCONST> 1.178547e+02
<STATE> 4
<MEAN> 39
 2.393299e+00 -1.338659e+00 -1.076912e+01 -1.439220e+01 -1.228158e+01 -2.100520e+00 4.166795e+00 -6.519225e+00 -5.790460e+00 -1.119455e+00 1.470916e+00 3.141209e-03 7.023815e+01 -5.303174e-01 -1.342987e+00 -3.099413e-01 9.450794e-01 1.560796e+00 1.022526e-01 -8.623196e-01 -4.142091e-01 6.638759e-01 9.715270e-01 3.346019e-01 -9.295434e-01 5.199140e-01 -4.568715e-02 3.204633e-01 3.384302e-01 3.476692e-01 -1.096684e-01 -5.256220e-01 -3.403113e-01 3.188993e-01 3.371843e-01 -1.213737e-01 -4.868491e-01 -2.456602e-01 -2.602614e-01
<VARIANCE> 39
 1.375737e+01 4.621969e+01 4.127889e+01 6.713074e+01 5.644720e+01 4.832442e+01 6.809489e+01 7.243440e+01 4.031434e+01 4.539978e+01 4.476094e+01 4.780889e+01 2.981688e+01 4.568082e-01 1.367191e+00 1.050689e+00 2.032434e+00 2.098525e+00 3.734838e+00 3.757195e+00 2.581656e+00 3.157015e+00 2.683431e+00 2.673409e+00 2.531938e+00 5.838033e-01 9.506568e-02 2.237295e-01 2.404763e-01 2.829720e-01 4.016914e-01 5.172290e-01 5.560219e-01 6.093678e-01 4.616737e-01 5.404833e-01 5.179160e-01 4.419577e-01 9.898102e-02
<GCONST> 1.148125e+02
<TRANSP> 5
 0.000000e+00 1.000000e+00 0.000000e+00 0.000000e+00 0.000000e+00
 0.000000e+00 6.435772e-01 3.564227e-01 0.000000e+00 0.000000e+00
 0.000000e+00 0.000000e+00 5.024973e-01 4.975027e-01 0.000000e+00
 0.000000e+00 0.000000e+00 0.000000e+00 5.889111e-01 4.110890e-01
 0.000000e+00 0.000000e+00 0.000000e+00 0.000000e+00 0.000000e+00
<ENDHMM>
~h "aa"
<BEGINHMM>
<NUMSTATES> 5
<STATE> 2
<MEAN> 39
 1.900479e+00 -6.871470e+00 -1.356968e+01 -1.451208e+01 -7.787021e+00 2.237684e+00 4.778716e+00 -5.805528e+00 -3.710156e+00 -9.623954e-01 -3.475752e+00 -6.277104e+00 7.298054e+01 -7.981355e-02 -1.159416e-01 3.461491e-02 3.489887e-01 2.163455e-01 -2.479042e-01 -3.125050e-01 5.924649e-02 2.675214e-01 1.891348e-01 -9.887996e-02 -2.370580e-01 -5.293290e-02 -2.505699e-03 1.734208e-01 9.552221e-02 7.510581e-02 -8.686909e-02 -2.167692e-01 -1.210068e-01 6.002014e-02 5.742987e-02 -1.660033e-03 2.795648e-02 6.727320e-02 -8.684088e-02
<VARIANCE> 39
 1.131911e+01 4.232102e+01 2.697732e+01 3.686715e+01 5.467781e+01 5.214841e+01 5.805540e+01 6.982145e+01 4.659281e+01 4.720959e+01 5.701726e+01 5.042909e+01 2.908864e+01 1.545571e-01 5.053712e-01 4.682024e-01 7.062079e-01 1.077452e+00 1.348780e+00 1.259877e+00 1.398869e+00 1.279283e+00 1.162573e+00 1.307163e+00 1.166037e+00 1.479175e-01 3.181787e-02 8.169504e-02 8.859433e-02 1.234507e-01 1.642699e-01 1.979250e-01 2.207619e-01 2.329813e-01 2.245369e-01 2.109821e-01 2.095380e-01 2.076739e-01 2.231548e-02
<GCONST> 8.938746e+01
<STATE> 3
<MEAN> 39
 1.292516e+00 -6.653288e+00 -1.176394e+01 -1.032400e+01 -6.909387e+00 -4.412584e+00 7.327528e-01 -3.782161e+00 -9.994298e-03 9.341630e-01 -3.435472e+00 -7.186744e+00 7.264862e+01 -2.246843e-01 1.014527e+00 1.029594e+00 1.300496e+00 -1.639114e-02 -1.330929e+00 -1.097829e+00 1.996311e-01 4.052651e-01 -4.855223e-02 1.253853e-01 4.140915e-01 -8.375455e-01 -1.090218e-01 2.232352e-01 2.382201e-01 1.452087e-01 2.647095e-02 1.257506e-01 7.939032e-02 -4.992733e-02 -2.526004e-01 -1.863195e-01 1.198637e-01 1.937337e-01 -2.539989e-01
<VARIANCE> 39
 1.063553e+01 4.158030e+01 3.510860e+01 4.825321e+01 5.274879e+01 7.933179e+01 6.076038e+01 5.948108e+01 5.884815e+01 5.102496e+01 5.995080e+01 5.579321e+01 2.994671e+01 6.538683e-01 1.181829e+00 1.378330e+00 1.780792e+00 2.756583e+00 2.756381e+00 2.843923e+00 2.751121e+00 2.882050e+00 2.550397e+00 2.462324e+00 2.368857e+00 6.316428e-01 8.175327e-02 1.666368e-01 2.023500e-01 2.437971e-01 3.861785e-01 4.858710e-01 5.053169e-01 4.478975e-01 4.565500e-01 4.019563e-01 4.082671e-01 3.987531e-01 7.425711e-02
<GCONST> 1.127065e+02
<STATE> 4
<MEAN> 39
 -2.006305e+00 -8.104303e-01 -8.159844e+00 -6.754566e+00 -5.607066e+00 -3.227207e+00 -6.020896e-01 -2.576546e+00 -9.727414e-01 6.280283e-01 -1.124704e+00 -3.908205e+00 6.434973e+01 -8.295826e-01 5.551065e-01 7.174017e-01 8.525441e-01 1.048914e-01 -9.790108e-02 -1.242287e-01 3.288825e-01 -1.002433e-01 -2.897537e-01 3.344726e-01 5.145231e-01 -1.225765e+00 -4.187354e-02 -1.756932e-01 -6.157425e-02 -1.639732e-01 -6.997408e-02 5.353987e-02 1.213961e-01 -7.749946e-02 -6.256488e-02 -4.821902e-02 8.697554e-03 -2.677051e-02 1.942420e-01
<VARIANCE> 39
 1.844374e+01 3.019013e+01 3.057900e+01 3.826720e+01 4.102936e+01 5.884531e+01 4.673371e+01 4.153493e+01 3.896804e+01 3.786950e+01 4.121943e+01 3.476291e+01 4.240309e+01 6.972503e-01 1.328043e+00 1.984543e+00 1.632426e+00 2.032012e+00 2.639892e+00 2.629020e+00 2.522231e+00 2.692702e+00 2.386510e+00 2.256903e+00 2.048057e+00 9.965852e-01 1.120703e-01 1.966480e-01 2.385948e-01 2.641108e-01 3.833898e-01 4.618051e-01 4.356359e-01 4.410233e-01 4.587031e-01 4.161797e-01 3.999834e-01 3.707255e-01 1.598668e-01
<GCONST> 1.114358e+02
<TRANSP> 5
 0.000000e+00 1.000000e+00 0.000000e+00 0.000000e+00 0.000000e+00
 0.000000e+00 8.668453e-01 1.331547e-01 0.000000e+00 0.000000e+00
 0.000000e+00 0.000000e+00 7.033366e-01 2.966634e-01 0.000000e+00
 0.000000e+00 0.000000e+00 0.000000e+00 6.175249e-01 3.824751e-01
 0.000000e+00 0.000000e+00 0.000000e+00 0.000000e+00 0.000000e+00
<ENDHMM>
~h "ae"
<BEGINHMM>
<NUMSTATES> 5
<STATE> 2
<MEAN> 39
 1.435942e+00 -8.711226e+00 -1.299823e+01 -1.138050e+01 -8.127622e+00 -2.486833e+00 1.850464e+00 -4.175271e+00 -5.311949e-01 7.639887e-01 -1.173556e+00 -7.854960e+00 7.373817e+01 -2.609663e-01 -2.988667e-01 4.321872e-01 4.380153e-01 1.087305e-01 -7.412528e-01 -8.336200e-01 4.186237e-01 9.550547e-01 1.402933e-01 -5.505656e-01 -4.419718e-01 9.674807e-02 -2.396165e-02 1.622111e-01 1.692272e-01 1.662017e-01 -7.788303e-02 -3.086235e-01 -1.088900e-01 8.879290e-02 -6.819267e-03 -1.203019e-01 3.329834e-03 2.157873e-01 -1.062368e-01
<VARIANCE> 39
 1.291733e+01 3.956225e+01 2.884696e+01 3.834035e+01 5.193696e+01 6.726048e+01 5.196252e+01 6.042603e+01 5.801421e+01 4.538211e+01 6.329485e+01 4.038828e+01 2.699068e+01 2.884955e-01 5.267217e-01 8.310418e-01 1.391632e+00 1.585486e+00 3.007058e+00 2.055422e+00 2.321715e+00 1.895352e+00 1.724412e+00 1.903869e+00 1.666385e+00 2.071139e-01 4.432764e-02 9.785955e-02 1.300617e-01 1.672677e-01 2.495903e-01 3.014577e-01 3.584222e-01 3.367987e-01 3.451950e-01 3.053794e-01 3.222820e-01 3.004003e-01 3.651116e-02
<GCONST> 1.004360e+02
<STATE> 3
<MEAN> 39
 -5.287827e-01 -8.147636e+00 -6.823388e+00 -5.691382e+00 -1.206444e+01 -1.363040e+01 -3.583621e+00 -2.020217e-01 4.206101e+00 -3.057337e-01 -3.367364e+00 -5.960597e+00 7.330515e+01 -2.513475e-01 7.954168e-01 1.101397e+00 8.829593e-01 -5.772859e-01 -1.117988e+00 -4.915673e-01 -7.545770e-02 -4.021915e-01 -3.850962e-01 3.650021e-01 8.628020e-01 -6.028914e-01 -6.602563e-03 1.595969e-01 1.421095e-02 -4.236758e-02 1.259559e-01 3.420277e-01 1.058607e-01 -2.362407e-01 -2.977532e-01 -3.987535e-02 9.583402e-02 4.666992e-03 -1.529189e-01
<VARIANCE> 39
 1.152478e+01 3.395747e+01 4.315377e+01 3.626488e+01 7.054883e+01 6.900047e+01 4.863576e+01 5.043504e+01 4.892709e+01 4.982042e+01 4.469155e+01 4.366943e+01 2.339037e+01 3.657997e-01 5.419213e-01 1.036697e+00 1.149907e+00 1.674349e+00 1.992031e+00 1.849604e+00 2.147820e+00 1.910087e+00 1.717129e+00 1.877002e+00 1.610688e+00 2.382418e-01 4.287567e-02 1.023158e-01 1.543471e-01 1.829370e-01 2.537340e-01 2.859193e-01 2.871492e-01 3.117663e-01 3.433287e-01 2.975914e-01 3.082218e-01 2.766918e-01 4.599699e-02
<GCONST> 9.997135e+01
<STATE> 4
<MEAN> 39
 -3.694038e+00 -2.843843e+00 -2.567399e+00 -1.275964e+00 -1.015556e+01 -1.424809e+01 -3.602076e+00 -9.478237e-01 1.418290e+00 -6.711614e-01 -1.682866e+00 -3.065365e+00 6.672241e+01 -4.269916e-01 7.263062e-01 3.186367e-01 4.768695e-01 4.190979e-01 4.388805e-01 8.247066e-04 -1.423152e-01 -3.369367e-01 -1.553984e-01 8.739737e-02 3.770008e-01 -1.183632e+00 7.396128e-03 -9.145381e-02 -2.080916e-01 -1.567425e-01 7.875122e-02 2.326608e-01 9.123506e-02 6.237417e-02 2.159573e-02 8.592493e-02 3.955092e-02 -4.694145e-02 -1.686798e-02
<VARIANCE> 39
 2.200264e+01 3.247445e+01 4.937645e+01 3.241663e+01 5.935328e+01 6.439043e+01 6.674491e+01 5.356722e+01 4.764008e+01 4.983885e+01 4.679393e+01 4.784901e+01 3.451937e+01 4.703556e-01 1.018975e+00 1.472926e+00 1.300806e+00 1.900108e+00 2.340963e+00 2.009908e+00 2.105082e+00 1.922411e+00 2.335073e+00 2.081731e+00 1.804975e+00 4.589603e-01 6.005999e-02 1.443505e-01 1.957855e-01 2.070720e-01 2.672437e-01 3.372674e-01 3.722527e-01 3.629033e-01 3.685476e-01 3.942479e-01 3.768852e-01 3.324221e-01 7.483136e-02
<GCONST> 1.070211e+02
<TRANSP> 5
 0.000000e+00 1.000000e+00 0.000000e+00 0.000000e+00 0.000000e+00
 0.000000e+00 8.444481e-01 1.555519e-01 0.000000e+00 0.000000e+00
 0.000000e+00 0.000000e+00 7.432999e-01 2.567002e-01 0.000000e+00
 0.000000e+00 0.000000e+00 0.000000e+00 7.210303e-01 2.789697e-01
 0.000000e+00 0.000000e+00 0.000000e+00 0.000000e+00 0.000000e+00
<ENDHMM>
~h "ai"
<BEGINHMM>
<NUMSTATES> 5
<STATE> 2
<MEAN> 39
 -4.424410e-01 -7.045424e+00 -7.033648e+00 -5.450214e+00 -9.937430e+00 -1.334827e+01 -5.890407e+00 -4.311412e+00 4.568857e+00 3.722384e-01 -3.240535e+00 -4.970030e+00 7.431725e+01 -5.764152e-01 1.590502e-01 1.947097e+00 1.685932e+00 -9.912018e-01 -2.548676e+00 -7.543105e-01 1.037145e+00 3.325933e-01 -1.435299e+00 -4.835612e-01 8.654894e-01 -1.370581e-01 3.020155e-02 4.487873e-01 1.927931e-01 -2.305902e-01 -2.929569e-01 3.958145e-01 5.551600e-01 -2.417797e-01 -8.523773e-01 -3.274325e-01 3.577291e-01 3.810180e-01 -2.413793e-01
<VARIANCE> 39
 1.374136e+01 4.481867e+01 4.855508e+01 5.829166e+01 5.395372e+01 8.254338e+01 4.929722e+01 6.780975e+01 4.285603e+01 6.838483e+01 5.536834e+01 5.821683e+01 2.447011e+01 3.665964e-01 1.035803e+00 1.565136e+00 1.879845e+00 2.094163e+00 2.697201e+00 3.162377e+00 3.382904e+00 4.360305e+00 3.072548e+00 3.925955e+00 2.459102e+00 3.193533e-01 5.649585e-02 1.631109e-01 2.637658e-01 2.691728e-01 3.840570e-01 6.051912e-01 4.988066e-01 6.437646e-01 4.603350e-01 8.273095e-01 5.593297e-01 4.926536e-01 4.693628e-02
<GCONST> 1.145159e+02
<STATE> 3
<MEAN> 39
 -2.514404e+00 -3.408504e+00 1.823675e+00 -2.336581e+00 -1.586675e+01 -1.866992e+01 -5.847904e+00 -5.385023e+00 -2.260605e+00 -5.562630e+00 -1.971170e-01 -8.407003e-01 7.256395e+01 -3.144726e-01 9.003904e-01 1.033536e+00 5.794366e-01 -2.780591e-01 4.292887e-02 2.614787e-01 -5.330631e-01 -9.938213e-01 -3.554510e-01 1.714451e-01 5.545497e-03 -6.599074e-01 7.868467e-02 4.121896e-03 -3.681090e-01 -1.746156e-01 3.974678e-01 3.914915e-01 -1.672500e-02 -3.442571e-03 2.224254e-01 3.290855e-01 -1.406041e-01 -2.691275e-01 -1.062655e-01
<VARIANCE> 39
 1.287232e+01 3.645442e+01 6.055377e+01 5.798509e+01 6.829375e+01 6.815538e+01 4.458476e+01 6.117196e+01 5.792973e+01 5.146137e+01 4.683137e+01 4.553968e+01 1.821513e+01 2.879506e-01 7.225147e-01 1.449627e+00 1.070010e+00 1.887503e+00 1.863042e+00 1.723593e+00 2.356533e+00 2.531630e+00 2.098606e+00 2.310887e+00 1.572812e+00 3.682506e-01 4.649915e-02 9.421939e-02 1.804264e-01 1.953068e-01 3.009654e-01 3.817174e-01 3.254422e-01 4.478875e-01 3.973686e-01 4.356000e-01 4.016999e-01 3.076413e-01 4.474832e-02
<GCONST> 1.045887e+02
<STATE> 4
<MEAN> 39
 -5.075621e+00 2.423997e+00 4.091358e+00 1.367710e+00 -1.128581e+01 -1.480231e+01 -3.355732e+00 -7.391565e+00 -4.306919e+00 -3.702275e+00 -1.937852e+00 -2.426440e+00 6.631516e+01 -2.409259e-01 2.045531e-01 -2.457772e-01 1.625797e-01 9.148320e-01 8.524958e-01 1.965536e-02 4.136092e-01 2.089423e-01 3.327428e-01 -4.075536e-02 -8.414482e-02 -9.303080e-01 9.842813e-03 -1.366658e-01 -2.097785e-01 -1.289841e-01 1.251539e-01 1.597303e-01 -5.103404e-02 1.016128e-01 1.421137e-01 1.088065e-01 6.179708e-02 4.118501e-02 9.394954e-03
<VARIANCE> 39
 2.435605e+01 4.773428e+01 6.303982e+01 4.624802e+01 5.659627e+01 5.967188e+01 5.649566e+01 4.749650e+01 6.137140e+01 4.410828e+01 3.128381e+01 4.291698e+01 2.966837e+01 4.630898e-01 1.072150e+00 1.536938e+00 1.337655e+00 2.014635e+00 2.288013e+00 2.005179e+00 2.103229e+00 2.384766e+00 2.213166e+00 2.002029e+00 1.711212e+00 6.565110e-01 7.069245e-02 1.411664e-01 2.088787e-01 2.028453e-01 3.004575e-01 3.075985e-01 3.710505e-01 3.937648e-01 4.132587e-01 3.141654e-01 3.339038e-01 2.925187e-01 6.043378e-02
<GCONST> 1.074438e+02
<TRANSP> 5
 0.000000e+00 1.000000e+00 0.000000e+00 0.000000e+00 0.000000e+00
 0.000000e+00 7.259636e-01 2.740365e-01 0.000000e+00 0.000000e+00
 0.000000e+00 0.000000e+00 7.149773e-01 2.850227e-01 0.000000e+00
 0.000000e+00 0.000000e+00 0.000000e+00 6.992148e-01 3.007852e-01
 0.000000e+00 0.000000e+00 0.000000e+00 0.000000e+00 0.000000e+00
<ENDHMM>
~h "ao"
<BEGINHMM>
<NUMSTATES> 5
<STATE> 2
<MEAN> 39
 3.990777e-01 -5.185031e+00 -9.853672e+00 -1.836922e+01 -1.384652e+01 -3.005290e+00 7.504543e+00 3.554075e+00 -4.597640e+00 -5.072211e+00 -3.323885e+00 -4.458062e+00 7.711179e+01 1.387887e-01 3.268757e-01 1.724302e-01 -1.873200e-01 -6.210067e-01 -1.152808e-01 -3.927410e-02 -1.559904e-01 9.511174e-02 3.105643e-01 -1.291745e-01 7.106993e-02 -3.711331e-01 1.004074e-02 1.644943e-01 4.237582e-02 2.215504e-02 -2.758961e-02 -1.051155e-01 -7.466586e-02 -7.455448e-02 6.250002e-02 6.288783e-02 -4.202057e-02 2.173929e-02 -1.065912e-01
<VARIANCE> 39
 1.282901e+01 4.038822e+01 2.060587e+01 1.696180e+01 6.120021e+01 9.523206e+01 5.985040e+01 6.326182e+01 4.919848e+01 6.144460e+01 2.757727e+01 3.132093e+01 2.239051e+01 4.583978e-01 1.095460e+00 5.083046e-01 8.066774e-01 1.596138e+00 1.680233e+00 1.689964e+00 1.787154e+00 2.593961e+00 2.182446e+00 1.411305e+00 1.369037e+00 6.461344e-01 8.038623e-02 1.295014e-01 1.027439e-01 1.416489e-01 2.943732e-01 3.125086e-01 2.928509e-01 2.893760e-01 4.582044e-01 3.583020e-01 2.304073e-01 2.526132e-01 6.647848e-02
<GCONST> 1.000340e+02
<STATE> 3
<MEAN> 39
 3.550331e+00 -9.290107e-01 -1.064010e+01 -2.120430e+01 -1.642826e+01 2.263502e+00 5.012093e+00 -4.759980e+00 -2.721079e+00 -4.025042e+00 -4.388048e+00 -2.812267e+00 7.059366e+01 1.313838e-02 6.051224e-01 1.966239e-01 4.390010e-02 -3.962550e-01 -5.338476e-01 -1.907662e-01 2.686602e-01 5.373659e-02 6.187856e-04 -8.663884e-02 1.739872e-02 -3.835365e-01 -2.366217e-02 4.383269e-02 1.760488e-02 6.374988e-02 3.980061e-02 -6.997067e-02 -4.052548e-02 1.538013e-02 -6.236926e-03 -1.570696e-02 -4.516767e-03 -2.474714e-02 -3.182108e-02
<VARIANCE> 39
 6.488819e+00 3.940735e+01 5.893536e+01 2.550973e+01 8.846565e+01 6.342766e+01 5.025982e+01 6.919381e+01 5.443518e+01 5.316801e+01 4.195631e+01 3.815135e+01 1.378929e+01 9.459972e-02 4.099923e-01 4.169897e-01 5.549051e-01 6.808984e-01 8.671103e-01 9.026921e-01 9.884460e-01 9.330530e-01 8.846434e-01 1.024343e+00 8.125976e-01 1.189356e-01 1.615803e-02 4.141634e-02 6.018185e-02 8.134729e-02 1.157024e-01 1.226036e-01 1.386376e-01 1.573405e-01 1.479681e-01 1.586924e-01 1.679861e-01 1.302000e-01 9.241868e-03
<GCONST> 7.846941e+01
<STATE> 4
<MEAN> 39
 -3.952748e-01 7.662731e+00 -5.484173e+00 -1.345829e+01 -1.713922e+01 -7.805119e+00 1.109307e-01 2.446610e-01 -2.744962e+00 -1.275221e+00 -4.148276e+00 -3.490900e+00 6.183071e+01 -6.495334e-01 -5.149041e-02 1.742348e-01 9.797008e-01 9.407018e-01 1.082242e-01 -3.277231e-01 5.393507e-02 1.386584e-01 3.462847e-02 2.237085e-01 1.845627e-01 -7.515647e-01 -4.710860e-02 -1.331293e-01 -2.964074e-02 1.220975e-02 1.028068e-01 1.308936e-01 5.982936e-02 8.922521e-03 2.577351e-02 2.444481e-02 5.022203e-02 6.542724e-02 2.219065e-02
<VARIANCE> 39
 1.302853e+01 2.331781e+01 3.355991e+01 3.198425e+01 5.369295e+01 3.256022e+01 4.281052e+01 3.382814e+01 4.350709e+01 4.201302e+01 2.596843e+01 2.833553e+01 2.454617e+01 3.114287e-01 7.611960e-01 7.810881e-01 1.142512e+00 1.492338e+00 1.629421e+00 1.538667e+00 1.624434e+00 1.951872e+00 1.664955e+00 1.448130e+00 1.534144e+00 2.165842e-01 4.320242e-02 8.959633e-02 1.172426e-01 1.807295e-01 2.165518e-01 2.350476e-01 2.506299e-01 2.838371e-01 3.349261e-01 3.136643e-01 2.511742e-01 2.514001e-01 2.429724e-02
<GCONST> 9.336488e+01
<TRANSP> 5
 0.000000e+00 1.000000e+00 0.000000e+00 0.000000e+00 0.000000e+00
 0.000000e+00 8.411441e-01 1.588558e-01 0.000000e+00 0.000000e+00
 0.000000e+00 0.000000e+00 9.242526e-01 7.574742e-02 0.000000e+00
 0.000000e+00 0.000000e+00 0.000000e+00 9.174323e-01 8.256771e-02
 0.000000e+00 0.000000e+00 0.000000e+00 0.000000e+00 0.000000e+00
<ENDHMM>
~h "au"
<BEGINHMM>
<NUMSTATES> 5
<STATE> 2
<MEAN> 39
 1.487435e+00 -4.849133e+00 -1.001652e+01 -8.911972e+00 -1.143209e+01 -9.605610e+00 -6.545488e+00 -5.069562e+00 1.113477e+00 1.863441e-01 -3.141734e-01 -6.194859e+00 7.278552e+01 1.735290e-02 7.331132e-01 4.695646e-01 5.749667e-01 -2.363156e-01 -6.542241e-01 -6.395007e-01 -5.966146e-01 -3.319214e-01 -1.847841e-01 4.094249e-01 4.873687e-01 -4.489600e-01 -7.008404e-03 2.041713e-01 7.880986e-02 5.021609e-02 9.796112e-02 8.968414e-02 1.436503e-03 -1.483684e-01 -2.339072e-01 -1.481143e-01 -2.436641e-02 9.014785e-02 -1.342015e-01
<VARIANCE> 39
 8.734539e+00 2.954277e+01 2.544662e+01 5.132013e+01 4.812430e+01 6.845910e+01 7.599239e+01 4.897876e+01 4.850243e+01 6.537064e+01 4.961622e+01 5.625454e+01 2.197999e+01 1.871625e-01 5.697706e-01 5.838264e-01 7.960337e-01 1.140482e+00 1.754372e+00 1.424236e+00 2.045453e+00 1.877677e+00 1.615293e+00 1.438174e+00 1.388950e+00 1.827597e-01 3.519005e-02 8.617731e-02 9.999018e-02 1.336909e-01 1.899069e-01 2.696118e-01 2.518975e-01 2.541706e-01 3.078165e-01 2.894064e-01 2.420590e-01 2.297911e-01 2.651315e-02
<GCONST> 9.390204e+01
<STATE> 3
<MEAN> 39
 2.319708e+00 3.004630e+00 -6.022352e+00 -7.277584e+00 -1.157091e+01 -8.543164e+00 -5.543941e+00 -1.274399e+01 -6.731221e+00 -1.121651e+00 2.961369e+00 3.475679e-01 6.867464e+01 4.241081e-02 1.311234e+00 5.070625e-01 4.646279e-01 2.829563e-01 4.266196e-01 1.695577e-01 -1.352779e-01 -1.020334e+00 -1.115264e+00 -5.160181e-01 2.387407e-01 -1.018134e+00 -6.647822e-02 -6.127547e-02 2.807470e-02 2.421827e-02 1.144620e-01 7.028450e-02 9.877340e-02 3.979563e-01 2.032889e-01 -5.618341e-03 -1.896770e-01 -2.075321e-01 -5.554693e-02
<VARIANCE> 39
 8.347437e+00 2.881561e+01 2.290239e+01 5.124926e+01 5.055576e+01 5.828310e+01 8.128341e+01 6.277158e+01 5.664776e+01 6.016691e+01 3.984851e+01 3.946448e+01 2.078511e+01 2.554959e-01 6.735099e-01 7.452295e-01 1.223088e+00 1.517160e+00 1.867474e+00 2.032005e+00 2.706837e+00 2.158410e+00 2.409005e+00 2.079334e+00 1.880282e+00 2.523044e-01 3.916888e-02 9.205747e-02 1.238078e-01 1.938207e-01 2.669756e-01 3.127330e-01 3.691205e-01 3.777932e-01 3.734193e-01 4.151089e-01 3.350801e-01 2.808400e-01 2.917098e-02
<GCONST> 1.002409e+02
<STATE> 4
<MEAN> 39
 -2.258138e-01 8.416357e+00 -2.187119e+00 -3.290062e+00 -7.376312e+00 -6.644760e+00 -4.418337e+00 -8.048668e+00 -7.269411e+00 -5.662340e+00 -1.896723e+00 -1.715292e+00 6.247630e+01 -4.745749e-01 4.731937e-02 3.591209e-01 5.603235e-01 7.004105e-01 3.580034e-01 1.409225e-01 5.365217e-01 1.669203e-01 -1.356435e-01 -3.266537e-01 -1.299665e-01 -6.850177e-01 -4.332788e-02 -2.054225e-01 -1.077882e-01 -8.747771e-02 -1.025483e-02 8.400870e-03 3.564151e-02 -3.083116e-02 8.080006e-02 1.536122e-01 1.127562e-01 7.072005e-02 9.642275e-02
<VARIANCE> 39
 1.155362e+01 2.856058e+01 2.406542e+01 3.418354e+01 3.873104e+01 3.666728e+01 5.653907e+01 3.441127e+01 3.647596e+01 4.172201e+01 3.206601e+01 2.854902e+01 2.339318e+01 3.731029e-01 8.266127e-01 8.854787e-01 1.267754e+00 1.513439e+00 1.597871e+00 1.979461e+00 2.059624e+00 2.121214e+00 2.076522e+00 1.707139e+00 1.617076e+00 3.348889e-01 4.695242e-02 1.047872e-01 1.271182e-01 1.869737e-01 2.373044e-01 2.512389e-01 2.904680e-01 3.283035e-01 3.332774e-01 3.354488e-01 2.685558e-01 2.590132e-01 2.998357e-02
<GCONST> 9.636459e+01
<TRANSP> 5
 0.000000e+00 1.000000e+00 0.000000e+00 0.000000e+00 0.000000e+00
 0.000000e+00 7.980988e-01 2.019012e-01 0.000000e+00 0.000000e+00
 0.000000e+00 0.000000e+00 7.636734e-01 2.363266e-01 0.000000e+00
 0.000000e+00 0.000000e+00 0.000000e+00 8.084454e-01 1.915547e-01
 0.000000e+00 0.000000e+00 0.000000e+00 0.000000e+00 0.000000e+00
<ENDHMM>
~h "ee"
<BEGINHMM>
<NUMSTATES> 5
<STATE> 2
<MEAN> 39
 -4.136785e+00 -1.386505e+00 6.419472e+00 -4.326517e+00 -2.065501e+01 -1.965835e+01 -5.004279e+00 -9.331519e+00 -7.594530e+00 -5.116570e+00 2.459509e+00 -2.943980e+00 7.482461e+01 -5.976285e-03 -6.434154e-02 -2.013757e-02 -2.236803e-02 3.167634e-03 -1.873431e-02 2.652219e-02 7.468944e-02 4.502574e-02 -3.475846e-02 3.186717e-02 -1.267829e-02 -8.470830e-02 2.584874e-03 2.713683e-02 -1.893755e-02 1.108417e-02 3.808567e-02 2.475156e-02 6.960885e-03 2.032026e-02 1.422267e-02 -1.651319e-02 -3.180736e-02 -1.548708e-03 -3.904267e-02
<VARIANCE> 39
 7.689146e+00 2.311954e+01 4.025912e+01 5.571896e+01 5.846163e+01 7.342509e+01 4.275514e+01 3.444131e+01 2.632529e+01 4.254547e+01 4.608942e+01 6.670897e+01 1.819356e+01 8.108770e-02 2.790502e-01 3.400706e-01 4.346415e-01 5.801400e-01 6.102685e-01 6.435267e-01 6.590614e-01 6.421183e-01 6.829241e-01 7.369038e-01 5.791727e-01 9.109344e-02 1.617339e-02 4.717465e-02 6.205291e-02 8.122689e-02 1.125833e-01 1.189064e-01 1.255595e-01 1.237155e-01 1.226579e-01 1.353462e-01 1.311720e-01 1.097741e-01 1.614458e-02
<GCONST> 7.310585e+01
<STATE> 3
<MEAN> 39
 -3.541747e+00 -1.840500e+00 4.930696e+00 -2.156040e+00 -1.830906e+01 -2.214603e+01 -5.369157e+00 -6.350150e+00 -4.087887e+00 -6.262345e+00 -5.858538e-01 -8.913784e-01 7.243937e+01 7.209017e-02 2.097073e-01 -2.562415e-01 1.514974e-01 2.368298e-01 3.323075e-01 4.945486e-02 2.714588e-01 2.771193e-01 -1.167781e-01 -4.342431e-01 -1.825644e-01 -6.335502e-01 -2.026889e-03 1.065670e-01 -3.939432e-02 9.101442e-02 1.616339e-01 1.079445e-01 -8.984474e-03 -1.355053e-02 -2.701639e-02 1.965667e-02 -6.745377e-02 -5.435403e-02 -1.319704e-01
<VARIANCE> 39
 9.944917e+00 2.122111e+01 3.870627e+01 4.546653e+01 7.978127e+01 6.078306e+01 4.090637e+01 5.096565e+01 5.679692e+01 3.759800e+01 4.999197e+01 6.038342e+01 1.720989e+01 2.487835e-01 5.148886e-01 5.893635e-01 1.092522e+00 1.251963e+00 1.032441e+00 1.608487e+00 1.287222e+00 1.643398e+00 1.325425e+00 1.615468e+00 1.370435e+00 2.165580e-01 3.872984e-02 1.112588e-01 1.134730e-01 1.972474e-01 2.575702e-01 2.090613e-01 3.009555e-01 2.786105e-01 3.024895e-01 2.831846e-01 2.709400e-01 2.369254e-01 4.087906e-02
<GCONST> 9.464114e+01
<STATE> 4
<MEAN> 39
 -5.272532e+00 2.667977e-01 3.152480e+00 -5.674797e-01 -1.463424e+01 -1.412841e+01 -3.474167e+00 -4.786778e+00 -4.660134e+00 -5.364981e+00 -1.499789e+00 -2.318966e+00 6.444776e+01 -2.047972e-01 3.734947e-01 -6.159794e-01 3.781127e-01 1.319635e+00 1.058955e+00 3.704431e-02 3.365652e-01 3.238827e-03 2.787623e-01 -8.120722e-02 2.533190e-01 -1.216275e+00 -3.760869e-02 -5.054218e-02 -3.596353e-02 -8.013177e-02 8.966885e-02 3.679435e-02 1.141165e-02 9.986104e-03 -2.469276e-02 3.950211e-02 1.196440e-01 4.079853e-02 5.842465e-02
<VARIANCE> 39
 1.187966e+01 2.215347e+01 3.308931e+01 3.411141e+01 5.871031e+01 5.736939e+01 3.522342e+01 3.552581e+01 5.619623e+01 6.092174e+01 4.193915e+01 5.529256e+01 3.378431e+01 5.150368e-01 1.135241e+00 8.707235e-01 1.100884e+00 1.924280e+00 1.942992e+00 2.024104e+00 2.255305e+00 2.598904e+00 2.635183e+00 2.418536e+00 1.964396e+00 5.207713e-01 5.478781e-02 1.433589e-01 1.298832e-01 1.651446e-01 2.353853e-01 2.940079e-01 3.305263e-01 3.720324e-01 4.762436e-01 3.996494e-01 3.722119e-01 3.513663e-01 7.406405e-02
<GCONST> 1.042771e+02
<TRANSP> 5
 0.000000e+00 1.000000e+00 0.000000e+00 0.000000e+00 0.000000e+00
 0.000000e+00 9.311287e-01 6.887128e-02 0.000000e+00 0.000000e+00
 0.000000e+00 0.000000e+00 8.143846e-01 1.856153e-01 0.000000e+00
 0.000000e+00 0.000000e+00 0.000000e+00 8.422877e-01 1.577123e-01
 0.000000e+00 0.000000e+00 0.000000e+00 0.000000e+00 0.000000e+00
<ENDHMM>
~h "ei"
<BEGINHMM>
<NUMSTATES> 5
<STATE> 2
<MEAN> 39
 -2.730896e+00 -5.091930e+00 1.374977e+00 -5.291958e+00 -1.701089e+01 -2.042760e+01 -3.611202e+00 -1.011841e+00 -3.099224e+00 -6.679022e+00 6.887894e-01 -3.134489e+00 7.543244e+01 -1.110162e-01 4.504111e-01 6.495114e-01 1.886891e-01 -3.446807e-01 -1.620852e-01 6.336765e-03 -6.631202e-01 -6.215152e-01 4.616834e-02 4.450856e-01 3.481647e-02 -2.757750e-01 -5.153841e-03 9.604164e-02 9.100838e-03 5.704106e-02 5.832569e-02 8.245491e-02 -1.353624e-02 -9.887011e-02 -4.842868e-02 7.804346e-03 -4.420391e-02 -4.528496e-02 -7.274752e-02
<VARIANCE> 39
 6.313804e+00 2.571117e+01 3.670939e+01 5.067168e+01 6.608861e+01 8.535814e+01 3.992556e+01 5.780143e+01 4.009118e+01 5.294480e+01 4.198853e+01 4.106335e+01 1.643063e+01 1.224869e-01 3.326713e-01 4.885475e-01 5.767521e-01 7.150186e-01 8.956776e-01 8.689038e-01 1.419915e+00 1.096162e+00 1.109679e+00 9.911564e-01 7.981875e-01 1.449629e-01 2.079573e-02 5.562664e-02 7.148084e-02 8.820255e-02 1.160242e-01 1.383348e-01 1.655822e-01 2.028859e-01 1.645963e-01 1.752633e-01 1.670981e-01 1.440390e-01 2.130826e-02
<GCONST> 8.144176e+01
<STATE> 3
<MEAN> 39
 -4.242500e+00 2.443796e+00 8.958980e+00 -2.875948e+00 -1.863967e+01 -1.532363e+01 -3.644013e+00 -1.003488e+01 -9.682493e+00 -4.070059e+00 7.529507e-01 -4.485467e+00 6.956182e+01 -1.332584e-01 7.098859e-01 3.252903e-01 3.071622e-01 4.021148e-01 6.224024e-01 8.096825e-02 -3.842182e-01 -2.087240e-01 -1.061745e-01 -4.048824e-01 -2.557091e-01 -6.948919e-01 -9.709815e-03 -4.308793e-02 -8.546177e-02 1.935330e-02 1.202106e-01 2.877442e-02 1.021652e-02 1.112304e-01 7.031452e-02 -3.946817e-02 -2.816995e-02 4.248142e-02 -2.653524e-02
<VARIANCE> 39
 6.994859e+00 2.536004e+01 3.323165e+01 5.069724e+01 6.291216e+01 8.281296e+01 3.781128e+01 3.701171e+01 2.978607e+01 5.141428e+01 3.640295e+01 4.042102e+01 2.048147e+01 1.348988e-01 4.273835e-01 6.658365e-01 7.811921e-01 9.406548e-01 9.833804e-01 1.039321e+00 1.448308e+00 9.398901e-01 1.020972e+00 1.031542e+00 9.290820e-01 1.595599e-01 2.340640e-02 5.138395e-02 9.232212e-02 1.283295e-01 1.662808e-01 1.719947e-01 1.836033e-01 2.246408e-01 1.686238e-01 1.779379e-01 1.684068e-01 1.744344e-01 1.393276e-02
<GCONST> 8.343070e+01
<STATE> 4
<MEAN> 39
 -7.518620e+00 5.808644e+00 8.332758e+00 2.418725e+00 -1.112319e+01 -9.267530e+00 -1.971884e+00 -9.197368e+00 -8.298908e+00 -6.031842e+00 -2.586732e+00 -3.341095e+00 6.187794e+01 -3.293444e-01 -2.354464e-01 -8.335082e-01 1.708177e-01 1.081122e+00 8.215454e-01 1.720011e-01 5.321159e-01 2.229336e-01 2.665282e-01 9.637941e-02 2.730476e-01 -8.952608e-01 -3.210354e-02 -1.268578e-01 -1.162424e-01 -9.839901e-02 -3.508203e-02 1.158866e-02 5.180178e-02 1.333984e-01 1.033891e-01 1.162935e-01 7.589002e-02 4.665677e-02 2.896968e-02
<VARIANCE> 39
 1.145459e+01 2.736513e+01 4.825967e+01 2.724319e+01 6.770070e+01 5.799497e+01 4.149939e+01 3.423099e+01 4.124051e+01 3.748998e+01 2.173361e+01 3.562434e+01 3.064030e+01 3.357445e-01 7.931369e-01 1.121758e+00 9.438927e-01 1.859814e+00 1.522283e+00 1.866505e+00 2.241573e+00 1.617556e+00 1.784372e+00 1.619923e+00 1.457573e+00 3.477867e-01 5.584367e-02 1.161879e-01 1.612552e-01 1.494033e-01 2.982642e-01 2.797707e-01 3.588794e-01 3.788213e-01 2.470573e-01 2.853235e-01 2.793847e-01 2.531526e-01 4.609506e-02
<GCONST> 9.800623e+01
<TRANSP> 5
 0.000000e+00 1.000000e+00 0.000000e+00 0.000000e+00 0.000000e+00
 0.000000e+00 8.847370e-01 1.152629e-01 0.000000e+00 0.000000e+00
 0.000000e+00 0.000000e+00 8.971339e-01 1.028661e-01 0.000000e+00
 0.000000e+00 0.000000e+00 0.000000e+00 8.953788e-01 1.046212e-01
 0.000000e+00 0.000000e+00 0.000000e+00 0.000000e+00 0.000000e+00
<ENDHMM>
~h "ii"
<BEGINHMM>
<NUMSTATES> 5
<STATE> 2
<MEAN> 39
 -4.297328e+00 2.336069e+00 8.896729e+00 -3.231564e+00 -1.613396e+01 -1.280753e+01 -5.326805e+00 -1.212486e+01 -1.047995e+01 -7.225147e+00 -5.960588e-01 -5.115285e+00 7.052762e+01 1.385923e-01 3.122997e-01 -7.931387e-02 4.864908e-02 3.206881e-01 3.955768e-01 1.955940e-01 -5.073773e-02 -1.815919e-01 -4.663623e-02 -3.401085e-02 4.416513e-02 -4.204922e-01 -5.741810e-02 1.391602e-02 -3.880164e-02 6.313849e-02 8.918729e-02 1.305567e-02 6.052474e-02 5.195339e-02 4.009391e-02 -2.444025e-02 -3.747935e-02 7.304694e-04 -2.027309e-02
<VARIANCE> 39
 1.400597e+01 2.033543e+01 4.962172e+01 5.324388e+01 5.551371e+01 8.164793e+01 6.111636e+01 4.499978e+01 3.512857e+01 4.759272e+01 3.245240e+01 4.484439e+01 2.180042e+01 3.180492e-01 6.188074e-01 8.390021e-01 9.225023e-01 1.492002e+00 1.510755e+00 1.533242e+00 1.146671e+00 1.228755e+00 1.183799e+00 1.140595e+00 9.641322e-01 3.491183e-01 5.896414e-02 8.804142e-02 1.317635e-01 1.455653e-01 2.559696e-01 2.477570e-01 2.708998e-01 1.872180e-01 2.157148e-01 2.232359e-01 2.010325e-01 1.613656e-01 5.384741e-02
<GCONST> 9.390868e+01
<STATE> 3
<MEAN> 39
 -5.330296e+00 7.394607e+00 9.855577e+00 -8.583251e-01 -1.009334e+01 -1.291549e+01 -1.622986e+00 -1.072019e+01 -9.884556e+00 -6.156892e+00 -3.412647e+00 -3.815301e+00 6.774866e+01 -1.257904e-02 1.829738e-01 -1.710880e-01 9.530647e-02 3.924595e-01 2.144987e-01 9.909834e-02 1.243743e-01 -1.479684e-02 -9.731321e-03 -9.735605e-02 1.172631e-01 -4.194459e-01 -3.314527e-02 -8.975084e-02 -6.196709e-02 1.841834e-02 -2.940130e-02 -4.978226e-03 -1.030452e-02 1.977678e-02 2.346113e-02 -5.901676e-03 -1.536706e-02 1.186899e-02 3.057722e-02
<VARIANCE> 39
 1.993723e+01 1.875014e+01 8.505379e+01 4.609181e+01 4.522638e+01 4.671740e+01 4.894672e+01 3.625412e+01 2.528989e+01 2.635165e+01 4.783181e+01 3.135804e+01 1.761114e+01 1.843935e-01 4.089143e-01 5.767691e-01 6.345972e-01 9.320976e-01 1.053832e+00 1.091883e+00 1.103602e+00 1.155552e+00 1.013966e+00 1.134005e+00 9.425174e-01 2.109350e-01 2.894964e-02 6.917529e-02 9.647900e-02 9.907439e-02 1.846611e-01 2.015828e-01 1.924045e-01 2.039801e-01 1.925643e-01 1.818152e-01 2.014081e-01 1.617239e-01 4.346457e-02
<GCONST> 8.563853e+01
<STATE> 4
<MEAN> 39
 -6.770524e+00 6.041807e+00 5.856055e+00 2.124742e+00 -5.878350e+00 -8.028861e+00 -1.667889e+00 -8.533695e+00 -8.779720e+00 -6.072176e+00 -3.105607e+00 -2.857840e+00 6.094234e+01 -1.413371e-01 -4.317262e-01 -9.990296e-01 -1.261193e-02 6.846845e-01 8.940799e-01 3.495380e-01 6.001187e-01 2.728007e-01 1.939640e-01 5.256645e-02 2.402717e-01 -6.146459e-01 -1.717353e-03 -1.448277e-01 -1.201110e-01 -1.979283e-01 -1.546711e-01 3.504556e-02 3.470404e-02 6.508758e-02 1.615148e-01 1.331255e-01 7.461521e-02 2.343545e-03 1.320937e-01
<VARIANCE> 39
 2.868610e+01 2.649032e+01 5.069013e+01 2.762126e+01 3.663633e+01 4.977641e+01 5.797077e+01 3.792034e+01 3.193742e+01 3.585130e+01 2.538002e+01 2.643242e+01 2.358475e+01 5.710814e-01 7.435101e-01 9.317272e-01 1.126899e+00 1.570561e+00 1.564078e+00 1.998127e+00 2.002564e+00 2.125954e+00 1.904264e+00 1.676055e+00 1.805838e+00 3.529995e-01 7.522224e-02 1.475286e-01 1.891096e-01 2.082295e-01 2.714794e-01 2.983193e-01 3.738169e-01 3.293786e-01 3.665966e-01 3.416974e-01 3.233867e-01 3.557576e-01 6.921073e-02
<GCONST> 1.011591e+02
<TRANSP> 5
 0.000000e+00 1.000000e+00 0.000000e+00 0.000000e+00 0.000000e+00
 0.000000e+00 7.642611e-01 2.357390e-01 0.000000e+00 0.000000e+00
 0.000000e+00 0.000000e+00 8.078895e-01 1.921105e-01 0.000000e+00
 0.000000e+00 0.000000e+00 0.000000e+00 7.172812e-01 2.827187e-01
 0.000000e+00 0.000000e+00 0.000000e+00 0.000000e+00 0.000000e+00
<ENDHMM>
~h "oe"
<BEGINHMM>
<NUMSTATES> 5
<STATE> 2
<MEAN> 39
 1.306432e+00 -3.369556e+00 -7.764388e+00 -1.034527e+01 -1.121285e+01 -1.068454e+01 -1.039583e+01 -1.357573e+01 -1.649619e+00 2.128285e+00 2.943542e+00 -1.029361e+00 7.316936e+01 -6.573081e-01 -1.139410e+00 1.015154e+00 2.346115e+00 4.905315e-01 -2.402591e+00 -1.938227e+00 1.008747e+00 2.101208e+00 3.156260e-01 -7.811674e-01 -1.063118e+00 3.362969e-01 -6.364858e-02 2.942126e-01 4.113597e-01 -1.437411e-03 -5.110974e-01 -2.965450e-01 5.806194e-01 6.630242e-01 -1.968686e-01 -8.424777e-01 -4.881297e-01 2.659076e-01 -1.900665e-01
<VARIANCE> 39
 1.013338e+01 2.598311e+01 4.760044e+01 4.961771e+01 5.509315e+01 6.882323e+01 4.637774e+01 5.149024e+01 5.784005e+01 4.657888e+01 4.520824e+01 5.459366e+01 1.814457e+01 2.082598e-01 9.603331e-01 1.261920e+00 1.694190e+00 2.914009e+00 2.555019e+00 3.653190e+00 3.851735e+00 2.932477e+00 4.850373e+00 3.021676e+00 2.558865e+00 3.253132e-01 4.603430e-02 1.171314e-01 1.715923e-01 3.829197e-01 3.623077e-01 6.227167e-01 6.606203e-01 5.930975e-01 1.048850e+00 4.434677e-01 7.203070e-01 7.210513e-01 3.334694e-02
<GCONST> 1.118316e+02
<STATE> 3
<MEAN> 39
 -1.520837e+00 -4.635856e+00 -2.503617e-01 -3.026612e+00 -1.519623e+01 -2.044324e+01 -1.008888e+01 -4.867586e+00 -3.744314e-01 -4.650131e+00 -8.030818e-01 -3.385223e-01 7.190539e+01 -3.565080e-01 6.277960e-01 8.116974e-01 5.487149e-01 -1.725069e-01 -4.059842e-01 5.668855e-01 5.595788e-01 -6.586345e-01 -7.537513e-01 3.717352e-02 3.585093e-01 -8.064741e-01 2.191273e-02 1.811613e-01 -2.389575e-01 -1.828492e-01 2.462110e-01 4.652140e-01 4.019700e-02 -2.634440e-01 -1.020168e-01 3.428744e-01 2.023477e-01 -8.650543e-02 -2.056513e-01
<VARIANCE> 39
 9.240079e+00 2.225778e+01 4.795347e+01 4.597468e+01 6.314557e+01 5.245547e+01 3.485300e+01 3.989976e+01 4.694776e+01 5.338614e+01 4.121674e+01 3.318856e+01 1.800362e+01 3.596565e-01 8.594189e-01 1.381216e+00 1.372128e+00 2.178931e+00 2.519163e+00 2.101545e+00 2.457750e+00 1.942583e+00 2.439019e+00 2.126478e+00 1.678681e+00 7.620737e-01 6.250280e-02 1.336187e-01 2.070526e-01 2.410140e-01 3.070510e-01 3.881914e-01 3.611769e-01 3.843315e-01 4.444550e-01 3.853745e-01 3.724474e-01 2.942497e-01 6.438126e-02
<GCONST> 1.047462e+02
<STATE> 4
<MEAN> 39
 -5.689579e+00 1.538103e+00 5.639963e-01 3.359710e-01 -9.937141e+00 -1.505100e+01 -5.387096e+00 -3.869948e+00 -3.199943e+00 -3.532616e+00 8.322027e-01 4.432207e-01 6.228012e+01 -5.142931e-01 1.462855e-01 -2.981337e-01 1.359865e-01 6.778411e-01 1.081632e+00 4.235637e-01 2.218351e-01 1.568261e-01 3.613544e-01 4.619507e-02 1.018753e-01 -9.771339e-01 -2.189332e-02 -1.417324e-01 -5.111462e-02 -8.383759e-02 9.689825e-04 2.476240e-02 2.393936e-03 2.362465e-02 8.147382e-02 -1.123007e-02 -3.570976e-02 2.258308e-02 1.386217e-01
<VARIANCE> 39
 1.601760e+01 2.019757e+01 2.871343e+01 2.815005e+01 3.995110e+01 5.248660e+01 5.242114e+01 4.277345e+01 3.341349e+01 4.043244e+01 2.687191e+01 2.631657e+01 4.517319e+01 3.794002e-01 7.012691e-01 9.193856e-01 9.887137e-01 1.490810e+00 1.867387e+00 1.536706e+00 1.653516e+00 1.654058e+00 1.689961e+00 1.549702e+00 1.439889e+00 5.927956e-01 6.199097e-02 1.212980e-01 1.463706e-01 1.767942e-01 2.562770e-01 2.688248e-01 2.854322e-01 3.139555e-01 2.906063e-01 2.963112e-01 2.883500e-01 2.726647e-01 8.236961e-02
<GCONST> 9.781596e+01
<TRANSP> 5
 0.000000e+00 1.000000e+00 0.000000e+00 0.000000e+00 0.000000e+00
 0.000000e+00 7.674236e-01 2.325765e-01 0.000000e+00 0.000000e+00
 0.000000e+00 0.000000e+00 8.515028e-01 1.484971e-01 0.000000e+00
 0.000000e+00 0.000000e+00 0.000000e+00 8.937907e-01 1.062093e-01
 0.000000e+00 0.000000e+00 0.000000e+00 0.000000e+00 0.000000e+00
<ENDHMM>
~h "oi"
<BEGINHMM>
<NUMSTATES> 5
<STATE> 2
<MEAN> 39
 2.452208e+00 -4.384378e-01 -8.059389e+00 -1.182067e+01 -1.015219e+01 -8.028645e+00 -9.179624e+00 -1.557646e+01 -5.971045e+00 2.227291e-01 4.061544e+00 -4.815482e-02 7.209538e+01 -7.025676e-01 -1.211667e+00 8.614124e-01 3.215339e+00 1.222312e+00 -2.649257e+00 -2.545390e+00 2.305589e-01 1.908144e+00 6.934397e-01 -4.052538e-01 -1.736869e+00 2.830154e-01 -1.319647e-01 1.754711e-01 6.424345e-01 3.634005e-01 -6.392406e-01 -7.494730e-01 4.813377e-01 9.274714e-01 1.480452e-01 -8.939571e-01 -7.670377e-01 1.471139e-02 -1.453127e-01
<VARIANCE> 39
 1.125875e+01 2.874087e+01 4.238646e+01 7.034789e+01 4.970230e+01 6.667607e+01 7.777513e+01 5.031784e+01 6.072439e+01 5.143786e+01 4.273759e+01 5.900967e+01 1.958698e+01 3.501925e-01 8.761640e-01 1.965222e+00 2.093237e+00 3.302416e+00 3.975076e+00 2.992899e+00 4.811998e+00 3.528873e+00 5.108951e+00 5.396999e+00 2.562344e+00 3.293067e-01 5.379292e-02 1.476858e-01 1.772322e-01 5.567764e-01 4.786490e-01 8.042802e-01 1.134326e+00 5.165327e-01 1.438354e+00 7.993758e-01 7.390057e-01 1.112937e+00 4.475506e-02
<GCONST> 1.187695e+02
<STATE> 3
<MEAN> 39
 -2.352692e+00 -1.909991e+00 1.443304e+00 5.500442e-01 -1.137222e+01 -1.902267e+01 -9.648978e+00 -9.008512e+00 -4.538318e+00 -6.969823e+00 -7.466239e-01 -2.352673e+00 7.120870e+01 -5.257340e-01 3.146990e-01 9.117877e-01 7.162514e-01 -1.358874e-01 1.128671e-02 1.082950e+00 6.020384e-01 -7.663321e-01 -8.464010e-01 8.903922e-02 3.244431e-01 -5.809468e-01 6.676199e-02 1.973389e-01 -3.037893e-01 -5.293011e-01 6.984630e-02 6.592016e-01 2.330818e-01 -3.088627e-01 -1.991096e-01 2.950143e-01 1.956640e-01 5.531380e-02 -1.108159e-01
<VARIANCE> 39
 1.386210e+01 2.573647e+01 6.213667e+01 5.434179e+01 9.438672e+01 7.555174e+01 4.734227e+01 4.745939e+01 7.284509e+01 4.821874e+01 4.919967e+01 4.880500e+01 2.725304e+01 4.161831e-01 1.115718e+00 4.565162e+00 3.579154e+00 4.783956e+00 6.165909e+00 3.878495e+00 3.567349e+00 3.754960e+00 5.002560e+00 3.271922e+00 2.337932e+00 3.051576e-01 6.222459e-02 2.063045e-01 2.991653e-01 4.016073e-01 7.053424e-01 7.177489e-01 9.245145e-01 6.320170e-01 8.825246e-01 7.773816e-01 6.931385e-01 5.442814e-01 3.924041e-02
<GCONST> 1.210580e+02
<STATE> 4
<MEAN> 39
 -4.667542e+00 2.956289e+00 4.742379e+00 9.077436e-01 -1.216401e+01 -1.403354e+01 -3.690706e+00 -9.269401e+00 -7.757686e+00 -6.545128e+00 -8.427987e-01 -3.012508e+00 6.460408e+01 -3.722510e-01 2.342542e-01 -1.559983e-01 -5.853484e-02 6.714281e-01 9.184354e-01 3.181129e-01 2.514841e-01 1.363233e-01 3.045912e-01 -1.967715e-01 5.258282e-02 -8.022063e-01 5.937573e-03 -1.188206e-01 -1.510979e-01 -4.245979e-02 1.052318e-01 3.463884e-02 -7.926539e-02 1.120918e-01 1.551643e-01 5.944246e-02 1.336368e-02 2.576211e-02 1.731755e-02
<VARIANCE> 39
 1.599420e+01 2.258348e+01 3.865461e+01 3.534437e+01 6.483679e+01 5.349649e+01 4.649009e+01 4.117193e+01 3.646907e+01 3.943326e+01 2.810143e+01 4.553712e+01 3.140848e+01 3.099996e-01 9.317575e-01 1.192010e+00 1.172807e+00 1.690944e+00 1.569702e+00 1.912435e+00 2.218765e+00 1.862174e+00 1.493805e+00 1.400593e+00 1.661247e+00 2.902113e-01 5.115401e-02 1.158201e-01 1.610932e-01 1.556923e-01 2.443427e-01 2.769494e-01 3.203731e-01 3.478475e-01 3.056570e-01 2.829658e-01 2.477579e-01 2.831482e-01 3.107094e-02
<GCONST> 9.823457e+01
<TRANSP> 5
 0.000000e+00 1.000000e+00 0.000000e+00 0.000000e+00 0.000000e+00
 0.000000e+00 7.549105e-01 2.450895e-01 0.000000e+00 0.000000e+00
 0.000000e+00 0.000000e+00 8.464457e-01 1.535543e-01 0.000000e+00
 0.000000e+00 0.000000e+00 0.000000e+00 8.974375e-01 1.025626e-01
 0.000000e+00 0.000000e+00 0.000000e+00 0.000000e+00 0.000000e+00
<ENDHMM>
~h "oo"
<BEGINHMM>
<NUMSTATES> 5
<STATE> 2
<MEAN> 39
 3.487884e+00 1.050341e+01 -2.104401e+00 -1.426704e+01 -2.070971e+01 -1.327226e+01 -5.608326e+00 -5.999553e+00 -1.761012e+00 4.278032e-02 -2.413161e+00 -3.332887e+00 6.698740e+01 -9.468982e-03 -3.927018e-02 -6.673703e-02 5.765201e-02 -6.532218e-02 1.422988e-01 3.094146e-01 6.510793e-02 -1.362263e-01 -2.014427e-02 9.827283e-02 -1.802097e-02 -9.776860e-02 -1.153271e-01 -9.107964e-02 -9.656715e-02 1.086488e-01 2.761960e-01 1.123600e-01 1.147700e-01 6.862003e-02 -6.530814e-02 -1.218361e-01 5.182594e-03 7.088527e-02 -4.501335e-02
<VARIANCE> 39
 8.440956e+00 2.695330e+01 3.880531e+01 3.050011e+01 3.813111e+01 3.514738e+01 4.059672e+01 4.763784e+01 3.361345e+01 5.127005e+01 3.088745e+01 2.659862e+01 1.251671e+01 1.549484e-01 4.775827e-01 6.654434e-01 6.683857e-01 1.228652e+00 9.568211e-01 1.349400e+00 1.301440e+00 1.439548e+00 1.182305e+00 1.229540e+00 1.025428e+00 1.956003e-01 5.239608e-02 1.202316e-01 1.541592e-01 1.646917e-01 3.184799e-01 2.102839e-01 2.666908e-01 2.526649e-01 2.846122e-01 2.775396e-01 2.563488e-01 2.174766e-01 2.645312e-02
<GCONST> 8.888255e+01
<STATE> 3
<MEAN> 39
 2.668407e+00 1.038382e+01 -1.629570e+00 -1.299553e+01 -2.037535e+01 -1.236487e+01 -1.607936e+00 -5.851946e+00 -2.072283e+00 -5.732870e-01 -2.142973e+00 -5.214653e+00 6.618154e+01 -1.061145e-01 -6.360737e-01 -6.333191e-01 2.436318e-01 6.169966e-01 2.970862e-01 1.078299e+00 3.297121e-01 -9.687988e-01 -6.134126e-01 1.304567e-01 2.885388e-01 4.711429e-02 -5.718280e-02 -2.573100e-01 -1.816183e-01 3.281850e-01 5.879825e-01 7.677303e-02 -1.567942e-01 -1.541956e-01 -2.569841e-01 -1.340559e-01 1.686158e-01 3.176784e-01 -5.630156e-03
<VARIANCE> 39
 8.567159e+00 3.321503e+01 4.594474e+01 3.756809e+01 5.346155e+01 4.954699e+01 4.813529e+01 4.864228e+01 4.600631e+01 6.402841e+01 4.306327e+01 2.421742e+01 2.151040e+01 3.308159e-01 8.056973e-01 1.044791e+00 1.643856e+00 1.646912e+00 2.086168e+00 3.292764e+00 3.058144e+00 3.069499e+00 2.888554e+00 2.731300e+00 2.049335e+00 4.396123e-01 6.045245e-02 1.358414e-01 1.891651e-01 2.963535e-01 5.011826e-01 4.623127e-01 4.639042e-01 4.457398e-01 4.637869e-01 4.234951e-01 4.807768e-01 4.184859e-01 3.897590e-02
<GCONST> 1.070759e+02
<STATE> 4
<MEAN> 39
 2.991602e+00 6.604077e+00 -6.120385e+00 -1.217718e+01 -1.637971e+01 -9.400946e+00 9.547734e-01 -5.517796e+00 -7.964312e+00 -5.347683e+00 -1.233606e+00 -2.084030e+00 6.674073e+01 -1.703631e-01 -1.297191e+00 -1.041149e+00 1.685255e+00 2.693191e+00 4.737274e-01 -6.203304e-01 -7.241523e-01 -1.059725e+00 -6.462237e-02 1.045284e+00 1.178044e+00 -5.371635e-02 -1.127431e-01 -5.594144e-02 1.306395e-01 4.307394e-01 5.789980e-01 -4.355659e-02 -7.805563e-01 -2.615080e-01 5.651919e-01 4.298759e-01 2.162338e-02 -1.865465e-01 -1.041281e-01
<VARIANCE> 39
 1.448563e+01 2.694657e+01 3.002541e+01 4.779741e+01 5.412558e+01 4.336476e+01 6.114648e+01 5.158437e+01 4.815710e+01 5.178611e+01 4.035529e+01 3.734850e+01 2.799068e+01 5.921107e-01 9.651380e-01 1.658022e+00 1.796794e+00 3.167578e+00 3.811541e+00 3.410227e+00 3.171963e+00 3.487158e+00 4.110242e+00 3.205226e+00 3.204508e+00 5.265037e-01 7.864541e-02 1.419086e-01 2.561158e-01 3.456989e-01 7.950917e-01 6.659219e-01 7.656097e-01 7.481152e-01 5.669442e-01 6.188993e-01 6.564355e-01 6.278617e-01 6.410760e-02
<GCONST> 1.161631e+02
<TRANSP> 5
 0.000000e+00 1.000000e+00 0.000000e+00 0.000000e+00 0.000000e+00
 0.000000e+00 7.642975e-01 2.357025e-01 0.000000e+00 0.000000e+00
 0.000000e+00 0.000000e+00 4.907149e-01 5.092852e-01 0.000000e+00
 0.000000e+00 0.000000e+00 0.000000e+00 6.180238e-01 3.819762e-01
 0.000000e+00 0.000000e+00 0.000000e+00 0.000000e+00 0.000000e+00
<ENDHMM>
~h "ou"
<BEGINHMM>
<NUMSTATES> 5
<STATE> 2
<MEAN> 39
 3.531546e+00 4.098458e+00 -6.814708e+00 -1.235983e+01 -1.545956e+01 -7.426310e+00 -6.175685e+00 -9.302513e+00 -7.939441e+00 -5.296508e+00 1.992362e+00 2.737027e-01 6.914372e+01 -6.323112e-02 3.557062e-01 3.321632e-01 5.779560e-01 1.303363e-01 -2.479523e-01 -2.839431e-01 -1.939212e-01 -2.744480e-01 -3.861808e-01 -1.087291e-01 -3.448871e-02 -3.174050e-01 -2.754228e-02 5.050451e-02 4.026558e-02 5.324541e-02 8.892464e-02 1.524159e-02 3.945898e-02 6.882888e-02 2.646449e-02 -3.352206e-02 -7.296664e-02 -4.467833e-02 -6.984472e-02
<VARIANCE> 39
 7.303405e+00 3.347830e+01 2.126832e+01 7.053913e+01 4.869989e+01 4.931946e+01 9.258978e+01 5.622985e+01 6.274799e+01 4.836041e+01 4.042563e+01 3.776773e+01 1.419816e+01 1.282322e-01 4.258310e-01 5.183783e-01 8.670692e-01 8.391392e-01 1.146888e+00 1.076225e+00 1.327723e+00 1.201378e+00 1.303788e+00 1.150114e+00 1.096851e+00 1.768220e-01 2.231115e-02 5.680544e-02 7.479189e-02 1.275194e-01 1.538356e-01 1.932250e-01 1.716773e-01 2.230806e-01 1.900386e-01 2.263531e-01 1.796301e-01 1.739483e-01 1.897251e-02
<GCONST> 8.571474e+01
<STATE> 3
<MEAN> 39
 1.759255e+00 1.201765e+01 -1.192018e+00 -8.799877e+00 -1.395354e+01 -9.401001e+00 -1.427682e+00 -8.407323e+00 -8.717126e+00 -7.222453e+00 -4.310388e+00 -2.676866e+00 6.511705e+01 -2.931941e-01 2.753086e-01 3.274069e-01 7.858018e-01 7.470397e-01 2.087416e-01 -2.914117e-01 2.139720e-01 2.052674e-02 -2.546698e-01 -3.250290e-01 -1.747920e-01 -6.873239e-01 -7.233113e-02 -1.031288e-01 -1.239079e-02 3.449034e-02 1.030067e-01 1.137512e-01 5.248663e-03 1.193560e-02 8.548106e-02 1.113890e-01 4.512518e-02 3.209003e-02 -3.151306e-02
<VARIANCE> 39
 4.930042e+00 3.165366e+01 2.764672e+01 4.011885e+01 5.009925e+01 4.777177e+01 8.598512e+01 4.464725e+01 3.710528e+01 4.373457e+01 3.485403e+01 4.066938e+01 2.270002e+01 1.901970e-01 5.265816e-01 6.640249e-01 1.018456e+00 1.205473e+00 1.342613e+00 1.803751e+00 1.645362e+00 1.347680e+00 1.577418e+00 1.357535e+00 1.402411e+00 2.380146e-01 3.144315e-02 6.601736e-02 1.043559e-01 1.530680e-01 1.831257e-01 2.069167e-01 2.731476e-01 2.638448e-01 2.418423e-01 2.830939e-01 2.352798e-01 2.290571e-01 2.238502e-02
<GCONST> 9.076385e+01
<STATE> 4
<MEAN> 39
 -3.054716e+00 8.204767e+00 -7.969754e-01 -1.431412e+00 -5.162534e+00 -5.377238e+00 -5.032398e+00 -6.223431e+00 -6.355520e+00 -5.753940e+00 -3.611846e+00 -2.050219e+00 5.957746e+01 -7.327791e-01 -5.071790e-01 -1.515075e-01 2.883793e-01 6.562945e-01 5.133252e-01 2.606123e-01 5.075758e-01 5.222535e-01 5.116013e-01 1.301660e-01 1.905621e-01 -6.940206e-01 -1.268737e-02 -8.030558e-02 -8.694965e-02 -1.148498e-01 -6.845030e-02 3.868682e-03 8.491340e-02 3.512305e-02 4.520720e-02 6.339695e-02 4.947068e-02 4.000824e-02 6.116928e-02
<VARIANCE> 39
 1.064661e+01 2.828176e+01 2.036669e+01 2.410673e+01 2.513589e+01 2.465688e+01 3.172603e+01 3.175289e+01 2.341867e+01 3.015779e+01 3.019089e+01 2.835162e+01 2.304825e+01 3.772897e-01 7.171983e-01 7.548753e-01 1.214456e+00 1.410175e+00 1.279202e+00 1.885062e+00 1.705559e+00 1.439668e+00 1.616856e+00 1.598032e+00 1.438761e+00 3.647018e-01 5.402886e-02 1.115520e-01 1.391773e-01 2.041746e-01 2.348549e-01 2.318579e-01 2.849725e-01 2.994827e-01 2.532539e-01 2.848748e-01 2.926884e-01 2.658680e-01 4.347270e-02
<GCONST> 9.204599e+01
<TRANSP> 5
 0.000000e+00 1.000000e+00 0.000000e+00 0.000000e+00 0.000000e+00
 0.000000e+00 8.767914e-01 1.232086e-01 0.000000e+00 0.000000e+00
 0.000000e+00 0.000000e+00 8.602846e-01 1.397154e-01 0.000000e+00
