~o
<STREAMINFO> 1 39
<VECSIZE> 39<NULLD><MFCC_D_A_0><DIAGC>
~h "N"
<BEGINHMM>
<NUMSTATES> 5
<STATE> 2
<MEAN> 39
 -2.224326e+000 3.869608e+000 9.542428e-001 -3.458138e+000 -7.921994e+000 -6.621119e+000 -5.920139e-001 -4.034312e+000 -2.100028e+000 -1.666080e+000 -2.079659e+000 -1.246666e+000 6.588331e+001 2.274543e-002 1.479582e-002 1.370627e-002 5.975570e-003 -3.661323e-002 -5.320187e-002 -9.133484e-003 -1.730699e-002 -1.653184e-002 -1.525151e-002 -5.346208e-003 -9.812288e-003 -8.149792e-003 -5.211601e-003 8.047853e-003 -1.524321e-003 6.729801e-003 1.349869e-002 1.418732e-002 3.674627e-003 3.888939e-003 5.550982e-003 6.958154e-003 2.882549e-003 3.265106e-003 -2.764040e-002
<VARIANCE> 39
 3.740973e+001 5.313155e+001 6.812322e+001 7.659717e+001 8.296675e+001 1.014055e+002 5.983440e+001 6.302224e+001 6.048460e+001 4.457723e+001 3.898028e+001 3.780531e+001 7.723595e+001 1.302501e+000 1.750577e+000 1.578707e+000 2.198211e+000 2.607947e+000 2.777526e+000 2.401972e+000 2.521378e+000 2.600509e+000 2.285602e+000 2.060752e+000 1.744259e+000 2.146788e+000 1.843455e-001 2.617738e-001 2.252331e-001 3.039368e-001 3.743387e-001 4.005016e-001 4.053887e-001 4.049863e-001 4.323907e-001 3.924566e-001 3.604958e-001 3.066924e-001 2.188757e-001
<GCONST> 1.194094e+002
<STATE> 3
<MEAN> 39
 -2.224326e+000 3.869608e+000 9.542428e-001 -3.458138e+000 -7.921994e+000 -6.621119e+000 -5.920139e-001 -4.034312e+000 -2.100028e+000 -1.666080e+000 -2.079659e+000 -1.246666e+000 6.588331e+001 2.274543e-002 1.479582e-002 1.370627e-002 5.975570e-003 -3.661323e-002 -5.320187e-002 -9.133484e-003 -1.730699e-002 -1.653184e-002 -1.525151e-002 -5.346208e-003 -9.812288e-003 -8.149792e-003 -5.211601e-003 8.047853e-003 -1.524321e-003 6.729801e-003 1.349869e-002 1.418732e-002 3.674627e-003 3.888939e-003 5.550982e-003 6.958154e-003 2.882549e-003 3.265106e-003 -2.764040e-002
<VARIANCE> 39
 3.740973e+001 5.313155e+001 6.812322e+001 7.659717e+001 8.296675e+001 1.014055e+002 5.983440e+001 6.302224e+001 6.048460e+001 4.457723e+001 3.898028e+001 3.780531e+001 7.723595e+001 1.302501e+000 1.750577e+000 1.578707e+000 2.198211e+000 2.607947e+000 2.777526e+000 2.401972e+000 2.521378e+000 2.600509e+000 2.285602e+000 2.060752e+000 1.744259e+000 2.146788e+000 1.843455e-001 2.617738e-001 2.252331e-001 3.039368e-001 3.743387e-001 4.005016e-001 4.053887e-001 4.049863e-001 4.323907e-001 3.924566e-001 3.604958e-001 3.066924e-001 2.188757e-001
<GCONST> 1.194094e+002
<STATE> 4
<MEAN> 39
 -2.224326e+000 3.869608e+000 9.542428e-001 -3.458138e+000 -7.921994e+000 -6.621119e+000 -5.920139e-001 -4.034312e+000 -2.100028e+000 -1.666080e+000 -2.079659e+000 -1.246666e+000 6.588331e+001 2.274543e-002 1.479582e-002 1.370627e-002 5.975570e-003 -3.661323e-002 -5.320187e-002 -9.133484e-003 -1.730699e-002 -1.653184e-002 -1.525151e-002 -5.346208e-003 -9.812288e-003 -8.149792e-003 -5.211601e-003 8.047853e-003 -1.524321e-003 6.729801e-003 1.349869e-002 1.418732e-002 3.674627e-003 3.888939e-003 5.550982e-003 6.958154e-003 2.882549e-003 3.265106e-003 -2.764040e-002
<VARIANCE> 39
 3.740973e+001 5.313155e+001 6.812322e+001 7.659717e+001 8.296675e+001 1.014055e+002 5.983440e+001 6.302224e+001 6.048460e+001 4.457723e+001 3.898028e+001 3.780531e+001 7.723595e+001 1.302501e+000 1.750577e+000 1.578707e+000 2.198211e+000 2.607947e+000 2.777526e+000 2.401972e+000 2.521378e+000 2.600509e+000 2.285602e+000 2.060752e+000 1.744259e+000 2.146788e+000 1.843455e-001 2.617738e-001 2.252331e-001 3.039368e-001 3.743387e-001 4.005016e-001 4.053887e-001 4.049863e-001 4.323907e-001 3.924566e-001 3.604958e-001 3.066924e-001 2.188757e-001
<GCONST> 1.194094e+002
<TRANSP> 5
 0.000000e+000 1.000000e+000 0.000000e+000 0.000000e+000 0.000000e+000
 0.000000e+000 6.000000e-001 4.000000e-001 0.000000e+000 0.000000e+000
 0.000000e+000 0.000000e+000 6.000000e-001 4.000000e-001 0.000000e+000
 0.000000e+000 0.000000e+000 0.000000e+000 7.000000e-001 3.000000e-001
 0.000000e+000 0.000000e+000 0.000000e+000 0.000000e+000 0.000000e+000
<ENDHMM>
~h "a"
<BEGINHMM>
<NUMSTATES> 5
<STATE> 2
<MEAN> 39
 2.472890e+000 -2.927156e+000 -7.185342e+000 -8.732272e+000 -4.220424e+000 -2.770887e+000 -2.289436e-003 -5.813519e+000 3.599380e+000 6.455541e+000 -4.815986e+000 -6.206280e+000 7.385131e+001 -6.318292e-001 1.188843e+000 1.117101e+000 1.986191e+000 6.444093e-001 -1.562748e+000 -1.618057e+000 9.379194e-001 1.167898e+000 7.519007e-001 1.172274e+000 -1.273433e-001 -1.325839e+000 -1.558981e-001 8.305215e-001 3.789879e-001 2.109922e-001 3.269776e-002 1.370488e-001 8.753015e-002 2.055731e-001 -4.852063e-001 -6.533393e-001 2.109139e-001 1.629087e-001 -1.033082e+000
<VARIANCE> 39
 8.301876e+000 2.166433e+001 4.267002e+001 5.410831e+001 5.767957e+001 5.750532e+001 4.721972e+001 3.646229e+001 2.701226e+001 2.142566e+001 7.000947e+001 5.388142e+001 2.149291e+001 6.404513e-001 2.513462e+000 1.313682e+000 2.225538e+000 2.192822e+000 2.253210e+000 2.921269e+000 2.047422e+000 3.653871e+000 2.681453e+000 2.793416e+000 3.217680e+000 2.193739e+000 1.213413e-001 4.876825e-001 3.342751e-001 8.673912e-001 5.382773e-001 7.481758e-001 6.217123e-001 3.425769e-001 6.451641e-001 3.720011e-001 6.519746e-001 4.618954e-001 2.728888e-001
<GCONST> 1.175872e+002
<STATE> 3
<MEAN> 39
 -8.407733e-001 2.373551e+000 -4.438494e+000 -5.440834e+000 -1.883034e+000 -4.581309e+000 -2.393710e+000 -3.446486e+000 3.466883e+000 5.232102e+000 -7.079040e-001 -5.815805e+000 6.457325e+001 -8.673067e-001 3.848334e-001 4.733330e-001 2.310676e-001 3.279903e-001 2.716993e-001 2.550527e-002 8.790369e-001 -1.856335e-001 -2.909725e-001 5.894223e-001 2.432248e-001 -2.307396e+000 9.959430e-003 -2.792452e-001 -2.764018e-001 -2.869723e-001 -1.088756e-001 2.389177e-001 1.573720e-001 -9.293871e-002 -1.466421e-001 -1.015913e-001 -1.231407e-001 1.255157e-001 2.167198e-001
<VARIANCE> 39
 1.064839e+001 1.131125e+001 3.284019e+001 2.159919e+001 3.965372e+001 2.918153e+001 2.589981e+001 2.681095e+001 2.454604e+001 2.354826e+001 3.677385e+001 3.758827e+001 2.449825e+001 7.096546e-001 1.323938e+000 1.698316e+000 2.016515e+000 2.268051e+000 2.665551e+000 2.549648e+000 2.064361e+000 2.237075e+000 1.352092e+000 1.722157e+000 1.196633e+000 1.570890e+000 1.300595e-001 1.845562e-001 2.688061e-001 4.538054e-001 3.494213e-001 4.255020e-001 5.190834e-001 3.597088e-001 5.190083e-001 3.180046e-001 2.797685e-001 3.615428e-001 2.107505e-001
<GCONST> 1.052622e+002
<STATE> 4
<MEAN> 39
 -5.903446e+000 3.746318e+000 -3.171450e+000 -3.420044e+000 -4.532933e-001 -8.402092e-001 -5.195534e-001 -5.728500e-001 2.010366e+000 2.300403e+000 7.590310e-002 -2.944077e+000 5.834238e+001 -9.546531e-001 -2.096624e-002 2.778968e-001 -3.597624e-004 1.149956e-001 3.223628e-001 2.595551e-002 1.283209e-001 -1.412329e-001 -5.835497e-001 2.551181e-001 7.063900e-001 -3.326724e-001 -1.325012e-001 -1.374816e-001 1.081703e-001 -1.422914e-001 -1.582940e-001 -1.500682e-002 -6.701156e-002 -1.521952e-001 5.425264e-002 -7.361808e-002 -1.078617e-001 1.322717e-002 4.953060e-001
<VARIANCE> 39
 1.496990e+001 1.161198e+001 1.748713e+001 1.381771e+001 1.747098e+001 1.978881e+001 1.977355e+001 1.518054e+001 2.543993e+001 2.481968e+001 1.752371e+001 1.807108e+001 2.464680e+001 9.289201e-001 1.334177e+000 1.774305e+000 1.566636e+000 1.117636e+000 1.838319e+000 1.981054e+000 1.624535e+000 1.817348e+000 1.573093e+000 1.393179e+000 1.329076e+000 2.122725e+000 2.045096e-001 2.834631e-001 3.538086e-001 2.539274e-001 2.982252e-001 3.577859e-001 3.958897e-001 4.049999e-001 3.937957e-001 2.973269e-001 2.655966e-001 2.205221e-001 2.579699e-001
<GCONST> 9.916521e+001
<TRANSP> 5
 0.000000e+000 1.000000e+000 0.000000e+000 0.000000e+000 0.000000e+000
 0.000000e+000 6.303681e-001 3.696319e-001 0.000000e+000 0.000000e+000
 0.000000e+000 0.000000e+000 7.629301e-001 2.370699e-001 0.000000e+000
 0.000000e+000 0.000000e+000 0.000000e+000 8.346680e-001 1.653320e-001
 0.000000e+000 0.000000e+000 0.000000e+000 0.000000e+000 0.000000e+000
<ENDHMM>
~h "e"
<BEGINHMM>
<NUMSTATES> 5
<STATE> 2
<MEAN> 39
 -4.075521e+000 4.835202e+000 4.698260e+000 4.645903e+000 -9.021420e+000 -1.011236e+001 -3.074621e+000 -1.879385e+000 -1.099120e+000 -8.668704e-001 -1.769963e+000 -5.708157e-001 6.315805e+001 -2.314505e-001 -2.500919e-001 1.418593e-001 1.458541e-001 -6.758028e-001 7.246818e-003 4.548484e-001 6.128941e-001 3.590768e-001 5.958484e-002 -2.423661e-001 1.351853e-001 -1.044793e-001 -3.735450e-003 -9.983384e-002 -6.688043e-002 -1.103986e-001 1.244147e-002 9.876437e-002 4.905824e-002 2.129524e-002 -6.751295e-002 -4.033028e-002 1.785025e-001 2.277609e-002 3.224458e-002
<VARIANCE> 39
 2.008215e+001 2.498571e+001 4.541856e+001 4.225875e+001 6.100055e+001 6.678457e+001 4.545124e+001 4.109683e+001 5.785397e+001 2.689487e+001 3.701070e+001 3.401566e+001 4.138372e+001 1.371359e+000 1.377390e+000 2.397929e+000 1.847057e+000 4.332273e+000 2.960443e+000 3.178831e+000 2.167099e+000 3.617881e+000 2.669287e+000 2.300318e+000 1.626646e+000 2.109319e+000 2.741637e-001 2.631429e-001 3.897573e-001 3.733765e-001 6.688147e-001 5.890433e-001 5.418382e-001 4.878649e-001 7.665305e-001 3.563606e-001 4.089567e-001 4.241922e-001 3.363448e-001
<GCONST> 1.194924e+002
<STATE> 3
<MEAN> 39
 -3.588383e+000 3.649854e+000 8.444916e+000 4.247167e+000 -1.350808e+001 -1.236837e+001 -3.748719e+000 -1.850077e-001 1.485086e+000 -1.805512e+000 -1.917132e+000 1.548640e+000 6.553757e+001 -1.499283e-001 5.092875e-002 -9.336478e-002 3.528669e-001 1.601082e-001 2.725874e-001 6.139079e-001 4.831605e-001 -2.144910e-001 1.703473e-001 4.557934e-001 -8.455154e-002 -7.784474e-001 -5.395932e-002 -8.486236e-003 -1.660237e-001 5.982831e-002 5.900918e-001 2.729317e-001 9.536656e-002 -2.117650e-001 -9.388497e-002 5.126472e-002 9.240907e-002 -9.747584e-002 -2.547168e-001
<VARIANCE> 39
 1.502059e+001 2.088273e+001 5.851304e+001 4.086401e+001 5.926103e+001 6.439716e+001 7.327898e+001 5.169584e+001 4.667812e+001 2.697730e+001 4.665068e+001 4.660093e+001 2.345658e+001 5.507616e-001 9.232422e-001 1.011244e+000 1.559741e+000 3.264879e+000 4.564595e+000 1.855158e+000 2.655218e+000 1.328539e+000 1.950518e+000 2.012199e+000 1.864883e+000 1.166050e+000 1.222999e-001 1.995114e-001 2.548290e-001 3.281135e-001 4.607434e-001 5.708696e-001 5.757235e-001 4.283939e-001 4.380659e-001 3.302910e-001 3.993510e-001 4.585909e-001 1.412660e-001
<GCONST> 1.116553e+002
<STATE> 4
<MEAN> 39
 -5.325629e+000 2.196605e+000 5.148850e+000 4.919065e+000 -1.025890e+001 -9.365616e+000 4.286467e+000 2.013612e+000 1.351936e+000 -1.451953e+000 -1.511579e+000 -1.058748e+000 6.164418e+001 -2.029385e-001 -1.849924e-001 -3.615234e-001 -1.588409e-001 7.758260e-001 4.989244e-001 1.471200e-001 9.778877e-002 1.899156e-001 3.200549e-001 1.942672e-001 8.204723e-002 -7.090796e-001 -2.141453e-002 -2.264984e-002 -7.478642e-002 -8.112679e-002 1.574273e-001 6.320085e-002 -1.320900e-001 -6.357770e-002 3.640050e-002 1.453783e-002 -4.678481e-002 1.509804e-002 -2.432933e-002
<VARIANCE> 39
 1.447042e+001 2.096520e+001 3.291581e+001 3.507158e+001 5.934103e+001 4.611339e+001 5.491668e+001 3.564822e+001 2.955263e+001 2.763276e+001 4.362177e+001 3.154160e+001 3.872825e+001 3.292832e-001 6.874417e-001 8.260827e-001 1.280469e+000 1.720086e+000 2.074339e+000 1.651492e+000 1.815731e+000 1.836096e+000 1.242784e+000 1.786991e+000 1.270943e+000 4.438538e-001 4.455851e-002 9.924505e-002 1.508362e-001 1.696395e-001 3.025639e-001 3.107353e-001 2.451738e-001 3.122264e-001 3.095007e-001 2.283015e-001 3.527807e-001 2.364525e-001 5.992679e-002
<GCONST> 9.733051e+001
<TRANSP> 5
 0.000000e+000 1.000000e+000 0.000000e+000 0.000000e+000 0.000000e+000
 0.000000e+000 4.721450e-001 5.278550e-001 0.000000e+000 0.000000e+000
 0.000000e+000 0.000000e+000 3.584917e-001 6.415083e-001 0.000000e+000
 0.000000e+000 0.000000e+000 0.000000e+000 7.934487e-001 2.065512e-001
 0.000000e+000 0.000000e+000 0.000000e+000 0.000000e+000 0.000000e+000
<ENDHMM>
~h "f"
<BEGINHMM>
<NUMSTATES> 5
<STATE> 2
<MEAN> 39
 -2.224326e+000 3.869608e+000 9.542428e-001 -3.458138e+000 -7.921994e+000 -6.621119e+000 -5.920139e-001 -4.034312e+000 -2.100028e+000 -1.666080e+000 -2.079659e+000 -1.246666e+000 6.588331e+001 2.274543e-002 1.479582e-002 1.370627e-002 5.975570e-003 -3.661323e-002 -5.320187e-002 -9.133484e-003 -1.730699e-002 -1.653184e-002 -1.525151e-002 -5.346208e-003 -9.812288e-003 -8.149792e-003 -5.211601e-003 8.047853e-003 -1.524321e-003 6.729801e-003 1.349869e-002 1.418732e-002 3.674627e-003 3.888939e-003 5.550982e-003 6.958154e-003 2.882549e-003 3.265106e-003 -2.764040e-002
<VARIANCE> 39
 3.740973e+001 5.313155e+001 6.812322e+001 7.659717e+001 8.296675e+001 1.014055e+002 5.983440e+001 6.302224e+001 6.048460e+001 4.457723e+001 3.898028e+001 3.780531e+001 7.723595e+001 1.302501e+000 1.750577e+000 1.578707e+000 2.198211e+000 2.607947e+000 2.777526e+000 2.401972e+000 2.521378e+000 2.600509e+000 2.285602e+000 2.060752e+000 1.744259e+000 2.146788e+000 1.843455e-001 2.617738e-001 2.252331e-001 3.039368e-001 3.743387e-001 4.005016e-001 4.053887e-001 4.049863e-001 4.323907e-001 3.924566e-001 3.604958e-001 3.066924e-001 2.188757e-001
<GCONST> 1.194094e+002
<STATE> 3
<MEAN> 39
 -2.224326e+000 3.869608e+000 9.542428e-001 -3.458138e+000 -7.921994e+000 -6.621119e+000 -5.920139e-001 -4.034312e+000 -2.100028e+000 -1.666080e+000 -2.079659e+000 -1.246666e+000 6.588331e+001 2.274543e-002 1.479582e-002 1.370627e-002 5.975570e-003 -3.661323e-002 -5.320187e-002 -9.133484e-003 -1.730699e-002 -1.653184e-002 -1.525151e-002 -5.346208e-003 -9.812288e-003 -8.149792e-003 -5.211601e-003 8.047853e-003 -1.524321e-003 6.729801e-003 1.349869e-002 1.418732e-002 3.674627e-003 3.888939e-003 5.550982e-003 6.958154e-003 2.882549e-003 3.265106e-003 -2.764040e-002
<VARIANCE> 39
 3.740973e+001 5.313155e+001 6.812322e+001 7.659717e+001 8.296675e+001 1.014055e+002 5.983440e+001 6.302224e+001 6.048460e+001 4.457723e+001 3.898028e+001 3.780531e+001 7.723595e+001 1.302501e+000 1.750577e+000 1.578707e+000 2.198211e+000 2.607947e+000 2.777526e+000 2.401972e+000 2.521378e+000 2.600509e+000 2.285602e+000 2.060752e+000 1.744259e+000 2.146788e+000 1.843455e-001 2.617738e-001 2.252331e-001 3.039368e-001 3.743387e-001 4.005016e-001 4.053887e-001 4.049863e-001 4.323907e-001 3.924566e-001 3.604958e-001 3.066924e-001 2.188757e-001
<GCONST> 1.194094e+002
<STATE> 4
<MEAN> 39
 -2.224326e+000 3.869608e+000 9.542428e-001 -3.458138e+000 -7.921994e+000 -6.621119e+000 -5.920139e-001 -4.034312e+000 -2.100028e+000 -1.666080e+000 -2.079659e+000 -1.246666e+000 6.588331e+001 2.274543e-002 1.479582e-002 1.370627e-002 5.975570e-003 -3.661323e-002 -5.320187e-002 -9.133484e-003 -1.730699e-002 -1.653184e-002 -1.525151e-002 -5.346208e-003 -9.812288e-003 -8.149792e-003 -5.211601e-003 8.047853e-003 -1.524321e-003 6.729801e-003 1.349869e-002 1.418732e-002 3.674627e-003 3.888939e-003 5.550982e-003 6.958154e-003 2.882549e-003 3.265106e-003 -2.764040e-002
<VARIANCE> 39
 3.740973e+001 5.313155e+001 6.812322e+001 7.659717e+001 8.296675e+001 1.014055e+002 5.983440e+001 6.302224e+001 6.048460e+001 4.457723e+001 3.898028e+001 3.780531e+001 7.723595e+001 1.302501e+000 1.750577e+000 1.578707e+000 2.198211e+000 2.607947e+000 2.777526e+000 2.401972e+000 2.521378e+000 2.600509e+000 2.285602e+000 2.060752e+000 1.744259e+000 2.146788e+000 1.843455e-001 2.617738e-001 2.252331e-001 3.039368e-001 3.743387e-001 4.005016e-001 4.053887e-001 4.049863e-001 4.323907e-001 3.924566e-001 3.604958e-001 3.066924e-001 2.188757e-001
<GCONST> 1.194094e+002
<TRANSP> 5
 0.000000e+000 1.000000e+000 0.000000e+000 0.000000e+000 0.000000e+000
 0.000000e+000 6.000000e-001 4.000000e-001 0.000000e+000 0.000000e+000
 0.000000e+000 0.000000e+000 6.000000e-001 4.000000e-001 0.000000e+000
 0.000000e+000 0.000000e+000 0.000000e+000 7.000000e-001 3.000000e-001
 0.000000e+000 0.000000e+000 0.000000e+000 0.000000e+000 0.000000e+000
<ENDHMM>
~h "h"
<BEGINHMM>
<NUMSTATES> 5
<STATE> 2
<MEAN> 39
 -5.172803e+000 3.356088e+000 -1.326785e+000 -8.178106e+000 -7.018051e+000 -3.010168e+000 5.390634e+000 -1.102315e+000 7.593106e-001 -1.004325e+000 -2.876039e+000 -1.352073e+000 6.676610e+001 1.752076e+000 1.391912e+000 7.911558e-001 -1.582386e-001 -1.674926e+000 -1.501649e+000 -7.966847e-001 -1.081802e+000 -8.801457e-001 -6.593890e-001 -7.236679e-001 -3.178377e-001 1.452715e+000 1.959023e-001 -1.803429e-001 -5.302333e-002 -3.860885e-002 -2.171933e-001 -2.125956e-001 -2.695895e-001 -7.402564e-002 -3.159113e-002 5.727902e-002 1.830159e-001 1.997502e-001 1.042861e-001
<VARIANCE> 39
 4.462333e+001 6.459566e+001 6.806563e+001 8.415983e+001 7.842222e+001 6.800304e+001 4.819073e+001 5.659237e+001 5.455202e+001 3.154512e+001 3.484097e+001 3.158344e+001 2.548130e+001 2.307892e+000 2.475717e+000 2.094690e+000 3.252395e+000 3.811571e+000 3.232343e+000 2.867583e+000 3.803420e+000 3.157642e+000 2.050293e+000 2.345376e+000 2.107219e+000 1.406160e+000 4.493344e-001 6.777491e-001 4.064305e-001 4.520401e-001 6.051148e-001 5.693409e-001 4.498102e-001 6.636431e-001 5.074467e-001 3.908945e-001 4.933840e-001 4.093831e-001 1.842457e-001
<GCONST> 1.247836e+002
<STATE> 3
<MEAN> 39
 1.968101e+000 4.664596e+000 -1.256601e-002 -8.814055e+000 -1.568246e+001 -1.023489e+001 -8.902174e-001 -4.703317e+000 -2.955366e+000 -2.824720e+000 -4.365510e+000 -1.805373e+000 7.291387e+001 4.489412e-001 -1.001970e+000 -3.781781e-001 -5.683001e-001 -9.918168e-001 -6.871260e-001 -1.077904e+000 -7.849643e-001 -5.069817e-001 -6.195690e-002 7.364174e-001 8.223076e-001 1.032906e+000 -5.457088e-001 -2.548514e-001 -9.565403e-002 1.821835e-001 6.142407e-001 4.917359e-001 1.691112e-001 2.863018e-002 8.213436e-002 1.778692e-001 3.409958e-001 1.323347e-001 -4.031928e-001
<VARIANCE> 39
 2.351970e+001 6.454358e+001 7.429319e+001 7.488318e+001 5.493985e+001 8.309438e+001 3.940942e+001 4.567958e+001 5.494001e+001 3.046492e+001 3.462682e+001 4.222200e+001 2.646901e+001 8.651379e-001 2.402723e+000 1.550797e+000 2.024268e+000 3.989736e+000 3.219110e+000 3.975514e+000 3.186859e+000 2.756097e+000 1.855841e+000 2.194512e+000 2.302521e+000 1.673936e+000 2.139090e-001 5.239016e-001 3.130617e-001 4.142106e-001 5.385001e-001 4.725111e-001 6.180156e-001 6.226293e-001 6.313560e-001 3.736361e-001 5.029553e-001 3.871273e-001 1.997006e-001
<GCONST> 1.210229e+002
<STATE> 4
<MEAN> 39
 2.215798e+000 2.939570e+000 -5.928997e-001 -9.354050e+000 -1.559152e+001 -9.819580e+000 -1.992587e+000 -7.445709e+000 -4.262706e+000 -4.499475e+000 -1.927024e+000 1.458274e+000 7.328649e+001 -1.638435e-001 -6.411788e-001 -2.479486e-002 7.169386e-002 2.008193e-001 -1.419264e-001 -9.116347e-001 -9.275287e-001 -3.747511e-001 4.493985e-001 1.221807e+000 4.794863e-001 3.033223e-001 -1.595722e-001 3.318744e-002 1.245409e-001 3.181800e-001 3.596490e-001 -2.095653e-002 -9.703001e-002 9.435191e-002 2.394615e-001 2.373196e-001 -8.014248e-002 -3.355555e-001 -1.588827e-001
<VARIANCE> 39
 2.322308e+001 4.771881e+001 8.703479e+001 7.569717e+001 5.981971e+001 9.231566e+001 5.157414e+001 5.455816e+001 5.889458e+001 3.270203e+001 3.824501e+001 5.071595e+001 2.426744e+001 2.773964e-001 1.119871e+000 1.228347e+000 1.159412e+000 3.012661e+000 1.848836e+000 3.085012e+000 2.489827e+000 2.113872e+000 2.207639e+000 2.974814e+000 1.741160e+000 4.604786e-001 7.476516e-002 2.111971e-001 2.461339e-001 2.612166e-001 3.685705e-001 4.650628e-001 6.141007e-001 3.963658e-001 5.221404e-001 3.993707e-001 4.726093e-001 5.005462e-001 1.165544e-001
<GCONST> 1.124845e+002
<TRANSP> 5
 0.000000e+000 1.000000e+000 0.000000e+000 0.000000e+000 0.000000e+000
 0.000000e+000 7.861326e-001 2.138675e-001 0.000000e+000 0.000000e+000
 0.000000e+000 0.000000e+000 5.892936e-001 4.107065e-001 0.000000e+000
 0.000000e+000 0.000000e+000 0.000000e+000 5.776129e-001 4.223870e-001
 0.000000e+000 0.000000e+000 0.000000e+000 0.000000e+000 0.000000e+000
<ENDHMM>
~h "i"
<BEGINHMM>
<NUMSTATES> 5
<STATE> 2
<MEAN> 39
 -2.206223e+001 2.300466e+000 6.334605e+000 -4.779150e+000 -4.114580e+000 3.966975e-002 2.160525e+000 -9.855726e-001 2.315107e+000 -1.177544e+000 1.533168e+000 -2.680129e-001 6.785682e+001 -1.855326e-001 1.202934e-001 2.131075e+000 1.489729e+000 -5.134163e-001 -9.907557e-001 8.437065e-001 -6.106272e-001 -7.991235e-001 -5.945366e-001 -2.393738e-001 -2.981535e-001 5.540085e-001 1.258812e+000 2.288958e-001 -6.671444e-002 4.304819e-001 -3.556531e-002 -6.350273e-001 -3.973105e-001 -1.871474e-001 -3.913419e-001 -1.632535e-001 -1.475468e-001 -2.044792e-002 -3.424405e-001
<VARIANCE> 39
 2.426076e+001 2.053288e+001 2.831164e+001 3.970550e+001 3.329812e+001 3.703870e+001 3.225393e+001 2.291772e+001 2.981241e+001 2.162502e+001 1.753187e+001 1.225051e+001 1.576923e+001 8.748597e+000 2.254054e+000 2.691397e+000 3.410331e+000 3.756945e+000 3.691144e+000 2.579864e+000 2.293860e+000 2.399582e+000 1.612179e+000 2.173875e+000 1.188719e+000 1.982444e+000 5.093735e-001 5.892462e-001 5.147821e-001 4.640191e-001 7.746650e-001 4.678221e-001 5.915666e-001 4.531336e-001 4.738692e-001 3.511832e-001 4.827324e-001 2.438691e-001 2.686470e-001
<GCONST> 1.156110e+002
<STATE> 3
<MEAN> 39
 -1.124167e+001 5.223403e+000 1.519364e+001 4.294966e+000 -6.960119e+000 -7.693320e+000 -9.940714e-001 -5.504828e+000 -4.715751e+000 -5.907652e+000 -9.518232e-001 -3.529474e-001 6.741023e+001 3.745199e+000 1.658642e+000 5.460078e-001 1.928206e+000 -8.288832e-001 -3.139009e+000 -1.574591e+000 -6.805758e-001 -1.490655e+000 -1.148886e+000 -5.514682e-001 6.275070e-001 -3.118339e-001 -3.662778e-001 -7.431613e-002 -9.063332e-001 -6.051910e-001 2.500349e-001 2.144456e-001 6.407454e-002 3.040602e-001 4.991595e-001 3.002566e-001 8.372250e-002 7.784730e-002 -5.581136e-002
<VARIANCE> 39
 3.378961e+001 3.089189e+001 2.883549e+001 4.964656e+001 3.982545e+001 2.813387e+001 3.284529e+001 2.420619e+001 2.323116e+001 2.324875e+001 1.693870e+001 1.507507e+001 8.774303e+000 1.942687e+000 2.121840e+000 1.891715e+000 2.464641e+000 3.686138e+000 1.590980e+000 2.844795e+000 3.235894e+000 1.952056e+000 2.107612e+000 3.304414e+000 1.911992e+000 5.189691e-001 5.508819e-001 3.329767e-001 2.989504e-001 3.424143e-001 5.699778e-001 5.662830e-001 6.649689e-001 4.032436e-001 2.920004e-001 3.991259e-001 5.528412e-001 3.110877e-001 6.291814e-002
<GCONST> 1.100491e+002
<STATE> 4
<MEAN> 39
 -7.176923e+000 5.115205e+000 1.012295e+001 8.369597e+000 -6.274161e+000 -1.408161e+001 -7.780233e-001 -4.864624e+000 -3.350161e+000 -4.236629e+000 -9.436144e-001 6.842265e-001 6.490063e+001 1.012527e+000 2.704157e-001 -1.845392e+000 -7.408886e-002 7.190164e-001 4.306070e-002 -6.443457e-002 -2.389186e-001 5.398601e-001 7.028800e-001 3.485638e-001 -3.871601e-001 -4.308989e-001 -4.177754e-001 -9.448427e-002 -1.774675e-001 -5.988052e-001 2.695361e-001 8.775691e-001 1.682492e-001 -1.678529e-001 2.153470e-001 3.551224e-001 3.210222e-001 -1.046013e-001 -7.195851e-002
<VARIANCE> 39
 1.247710e+001 3.018614e+001 4.059850e+001 6.764054e+001 2.578658e+001 4.052628e+001 2.163132e+001 2.284946e+001 2.106188e+001 2.727014e+001 4.299275e+001 1.906732e+001 1.230629e+001 9.733465e-001 1.038325e+000 1.067899e+000 3.142424e+000 1.234814e+000 5.533766e+000 3.576061e+000 3.113584e+000 2.225462e+000 2.836317e+000 3.893396e+000 1.675458e+000 4.584253e-001 3.167845e-001 2.712007e-001 3.039373e-001 3.185785e-001 3.157518e-001 4.436732e-001 4.210827e-001 4.235212e-001 6.630669e-001 5.661064e-001 6.718971e-001 4.524757e-001 4.749947e-002
<GCONST> 1.090483e+002
<TRANSP> 5
 0.000000e+000 1.000000e+000 0.000000e+000 0.000000e+000 0.000000e+000
 0.000000e+000 7.758408e-001 2.241592e-001 0.000000e+000 0.000000e+000
 0.000000e+000 0.000000e+000 5.791200e-001 4.208801e-001 0.000000e+000
 0.000000e+000 0.000000e+000 0.000000e+000 6.062682e-001 3.937317e-001
 0.000000e+000 0.000000e+000 0.000000e+000 0.000000e+000 0.000000e+000
<ENDHMM>
~h "k"
<BEGINHMM>
<NUMSTATES> 5
<STATE> 2
<MEAN> 39
 -9.879798e+000 7.134547e-001 5.863236e+000 7.794511e-001 -1.037970e+001 -1.134394e+001 -3.871993e-001 -4.568513e+000 -2.437433e+000 -3.231845e+000 -1.687031e+000 -8.306941e-001 7.188893e+001 2.214573e+000 1.369289e+000 1.509088e+000 4.911472e-001 -1.465441e+000 -2.069217e+000 -7.891185e-001 -1.100553e+000 -1.120759e+000 -1.446686e+000 -5.636197e-001 -4.104899e-001 1.035621e+000 1.575930e-001 -1.243941e-001 -1.579934e-001 -2.217423e-001 -8.937246e-002 -6.091009e-003 -8.383372e-002 8.086593e-002 2.119880e-002 9.397070e-002 1.928027e-001 1.304828e-001 -1.064483e-001
<VARIANCE> 39
 4.707430e+001 4.259156e+001 5.237012e+001 2.551397e+001 4.424472e+001 5.667197e+001 4.097276e+001 4.986596e+001 4.172870e+001 3.347782e+001 2.999941e+001 3.110920e+001 2.031087e+001 2.445165e+000 3.816871e+000 3.107462e+000 3.128937e+000 4.047167e+000 3.481508e+000 3.664108e+000 3.103189e+000 4.432347e+000 2.812179e+000 2.511357e+000 2.164844e+000 2.597490e+000 9.109554e-001 1.059136e+000 6.808595e-001 6.330889e-001 7.249748e-001 6.687699e-001 6.406741e-001 5.200137e-001 6.582370e-001 6.344978e-001 4.767017e-001 3.857709e-001 7.177894e-001
<GCONST> 1.281760e+002
<STATE> 3
<MEAN> 39
 -2.819221e+000 2.145907e-001 8.196459e+000 -1.840140e-001 -1.743429e+001 -1.783288e+001 -2.897351e+000 -7.527139e+000 -5.994642e+000 -5.951962e+000 -1.216229e+000 -7.619858e-001 7.581559e+001 1.039130e-001 -5.488343e-001 2.523209e-001 -5.705120e-001 -7.527370e-001 -4.783725e-001 -3.807743e-001 -2.336533e-001 -2.953371e-001 2.321295e-001 7.118117e-001 4.357938e-001 3.712221e-001 -5.250204e-001 8.003451e-002 -5.548534e-002 7.630289e-002 5.110959e-001 5.827398e-001 3.135909e-001 1.396996e-001 2.245564e-001 3.048374e-001 4.063749e-003 -4.756356e-002 -3.862071e-001
<VARIANCE> 39
 1.325936e+001 5.081360e+001 5.625305e+001 3.560900e+001 7.089301e+001 7.199686e+001 4.781163e+001 8.046344e+001 5.902874e+001 2.758416e+001 3.387414e+001 4.407682e+001 1.482815e+001 5.123789e-001 1.495607e+000 1.509488e+000 9.789537e-001 2.198706e+000 2.225220e+000 1.907280e+000 2.517150e+000 1.722635e+000 1.365531e+000 1.069368e+000 9.114168e-001 7.470535e-001 2.125399e-001 3.263949e-001 3.369197e-001 2.261388e-001 5.247788e-001 6.402013e-001 4.924805e-001 4.141309e-001 5.225339e-001 2.855528e-001 3.916552e-001 2.510852e-001 8.582510e-002
<GCONST> 1.092042e+002
<STATE> 4
<MEAN> 39
 -7.126020e+000 7.784239e+000 1.092427e+001 1.200246e+000 -1.215187e+001 -1.908691e+001 -4.064200e+000 -5.227735e+000 -5.103786e+000 -5.981449e+000 1.182508e+000 1.309588e+000 7.555470e+001 -1.284636e-001 2.153440e-001 3.095002e-001 2.487329e-002 -1.077511e-001 9.167793e-002 2.530943e-001 -1.482655e-001 2.741834e-002 2.330930e-002 5.548839e-004 2.569866e-002 -2.465073e-001 -6.173109e-002 8.342145e-002 3.183077e-005 9.256294e-002 1.071739e-001 4.876363e-002 8.975153e-002 -6.664452e-003 7.737090e-002 1.123343e-002 -1.257257e-001 -6.600792e-002 -1.018933e-001
<VARIANCE> 39
 1.706527e+001 6.192759e+001 3.205306e+001 2.161665e+001 4.971111e+001 5.132143e+001 2.473890e+001 5.262040e+001 3.992103e+001 2.470897e+001 2.829039e+001 3.185599e+001 1.440046e+001 1.621925e-001 3.704336e-001 7.445233e-001 6.254550e-001 8.863802e-001 1.247637e+000 1.087752e+000 1.312022e+000 9.906248e-001 1.000038e+000 1.534557e+000 6.626042e-001 2.563205e-001 4.126595e-002 8.200333e-002 1.308483e-001 9.793267e-002 1.888956e-001 2.257607e-001 1.609527e-001 3.156958e-001 2.356689e-001 2.469349e-001 2.844531e-001 1.130907e-001 2.855137e-002
<GCONST> 8.607078e+001
<TRANSP> 5
 0.000000e+000 1.000000e+000 0.000000e+000 0.000000e+000 0.000000e+000
 0.000000e+000 7.957698e-001 2.042302e-001 0.000000e+000 0.000000e+000
 0.000000e+000 0.000000e+000 5.253903e-001 4.746097e-001 0.000000e+000
 0.000000e+000 0.000000e+000 0.000000e+000 6.948524e-001 3.051476e-001
 0.000000e+000 0.000000e+000 0.000000e+000 0.000000e+000 0.000000e+000
<ENDHMM>
~h "m"
<BEGINHMM>
<NUMSTATES> 5
<STATE> 2
<MEAN> 39
 2.106685e+000 1.125129e+001 4.399251e+000 2.569341e+000 -3.693610e+000 -1.426833e+000 -3.876543e-001 -7.655043e+000 -1.057666e+001 -1.059396e+001 -5.084091e+000 -1.457476e+000 6.367687e+001 9.600838e-001 -5.926077e-001 -1.058937e+000 -1.669753e+000 -1.319408e+000 -7.394613e-002 3.311255e-001 -2.311408e-002 3.504620e-001 3.433717e-001 -1.627381e-001 -1.929010e-001 1.515723e+000 -2.168015e-001 -5.336212e-001 -5.003592e-001 -5.642890e-001 -1.006841e-001 2.340309e-001 3.101058e-001 2.892330e-001 5.775485e-001 6.037548e-001 9.677314e-002 -2.834288e-002 1.051001e-001
<VARIANCE> 39
 1.032579e+001 2.548503e+001 4.802924e+001 4.099558e+001 6.164834e+001 7.003371e+001 4.752930e+001 4.265211e+001 5.495570e+001 5.340367e+001 4.378590e+001 2.866807e+001 2.002604e+001 9.987510e-001 2.284707e+000 3.410910e+000 4.919510e+000 2.529592e+000 2.208478e+000 2.413749e+000 3.666612e+000 4.931710e+000 5.637879e+000 2.774196e+000 1.564852e+000 1.035309e+000 1.450668e-001 2.674866e-001 3.834506e-001 4.888340e-001 4.355405e-001 3.941576e-001 4.349737e-001 4.811417e-001 6.420794e-001 6.861116e-001 5.574186e-001 2.983226e-001 1.307673e-001
<GCONST> 1.184128e+002
<STATE> 3
<MEAN> 39
 5.028853e+000 2.024811e+000 -7.118911e+000 -1.368383e+001 -1.127602e+001 7.797769e-001 5.474429e+000 -3.362784e+000 -3.166757e+000 -1.435358e+000 -5.335218e+000 -3.243887e+000 7.268539e+001 -1.853791e-001 -2.356312e+000 -1.619179e+000 -2.406063e+000 -2.131417e-001 1.651286e+000 1.418921e+000 -1.388480e-001 9.556391e-001 1.533801e+000 -1.407922e-001 -4.354714e-001 1.644237e+000 -3.270304e-001 3.842375e-001 7.262885e-001 1.120466e+000 7.547184e-001 -7.105814e-002 -4.159808e-001 -3.590418e-001 -6.020353e-001 -5.247491e-001 2.591132e-002 1.760053e-002 -4.861516e-001
<VARIANCE> 39
 6.877086e+000 3.571193e+001 2.635670e+001 2.859642e+001 6.470078e+001 5.026998e+001 5.465659e+001 7.661092e+001 3.729304e+001 5.571482e+001 4.331447e+001 4.236987e+001 1.273998e+001 8.512645e-001 1.784480e+000 2.264059e+000 4.347464e+000 4.855760e+000 3.865021e+000 3.429067e+000 4.894571e+000 5.051277e+000 5.120924e+000 3.688848e+000 2.822491e+000 1.399661e+000 8.597484e-002 2.640374e-001 2.522255e-001 2.915005e-001 5.620255e-001 7.316015e-001 5.296578e-001 8.595058e-001 5.432950e-001 9.222251e-001 6.362370e-001 3.353063e-001 9.900422e-002
<GCONST> 1.197014e+002
<STATE> 4
<MEAN> 39
 2.296119e+000 -3.237570e+000 -9.288916e+000 -1.510690e+001 -8.459112e+000 2.442797e+000 6.750082e+000 -1.777284e+000 -4.054604e+000 -1.532409e-001 -4.304455e+000 -5.025835e+000 7.609435e+001 -2.234578e-001 -4.590878e-001 -6.021655e-003 4.515043e-003 1.556903e-001 -2.246473e-002 -2.794649e-001 -1.539676e-001 4.750723e-002 3.370231e-001 1.953309e-001 -3.639675e-002 2.343818e-001 7.770073e-002 3.158795e-001 1.815878e-001 2.457482e-001 -7.956918e-002 -3.232623e-001 -2.577053e-001 4.541829e-002 -6.294136e-002 -1.375288e-001 7.098003e-002 1.127694e-001 -2.382105e-001
<VARIANCE> 39
 8.517817e+000 4.221131e+001 2.352572e+001 2.474486e+001 5.664589e+001 5.282792e+001 6.354987e+001 8.471040e+001 4.775808e+001 3.949295e+001 4.835754e+001 4.031805e+001 1.460903e+001 2.921664e-001 6.166945e-001 5.524011e-001 1.125484e+000 1.147228e+000 1.937140e+000 1.622950e+000 2.010230e+000 1.634765e+000 2.197660e+000 1.527202e+000 1.224324e+000 3.071862e-001 5.845604e-002 1.345581e-001 1.855451e-001 2.766557e-001 2.404741e-001 3.632027e-001 3.778159e-001 3.690508e-001 3.786297e-001 4.400862e-001 3.313427e-001 2.638692e-001 7.157573e-002
<GCONST> 9.975076e+001
<TRANSP> 5
 0.000000e+000 1.000000e+000 0.000000e+000 0.000000e+000 0.000000e+000
 0.000000e+000 8.467726e-001 1.532274e-001 0.000000e+000 0.000000e+000
 0.000000e+000 0.000000e+000 6.359798e-001 3.640202e-001 0.000000e+000
 0.000000e+000 0.000000e+000 0.000000e+000 7.195367e-001 2.804633e-001
 0.000000e+000 0.000000e+000 0.000000e+000 0.000000e+000 0.000000e+000
<ENDHMM>
~h "n"
<BEGINHMM>
<NUMSTATES> 5
<STATE> 2
<MEAN> 39
 2.608137e+000 4.829688e+000 1.620069e+000 2.219090e+000 -6.381513e+000 -8.359245e+000 -5.215432e+000 -7.827077e+000 -1.628087e+000 -3.882284e+000 -5.483263e+000 -7.246271e+000 6.844830e+001 1.152977e-001 8.275146e-001 3.239543e-001 4.568787e-001 4.974747e-001 -2.440951e-001 -4.138270e-001 1.390937e-001 -4.105954e-001 -1.599153e-001 2.500589e-001 -1.138462e-001 -6.880197e-001 -1.066790e-001 -2.345885e-001 -5.714038e-002 -1.651432e-001 -1.956759e-001 5.780098e-002 1.389043e-001 1.042791e-001 1.246960e-001 4.152816e-002 -2.932586e-002 1.326512e-001 2.242703e-001
<VARIANCE> 39
 1.193346e+001 2.648507e+001 5.148909e+001 3.182850e+001 7.130181e+001 7.688387e+001 4.097323e+001 3.084291e+001 3.984493e+001 4.427100e+001 2.105728e+001 5.637689e+001 2.085269e+001 3.816584e-001 1.254989e+000 1.515329e+000 2.054184e+000 2.207264e+000 1.800601e+000 2.692554e+000 1.810123e+000 2.740911e+000 2.253247e+000 1.673403e+000 1.722645e+000 7.232713e-001 5.321301e-002 1.932184e-001 1.871894e-001 2.716280e-001 3.297244e-001 3.052418e-001 4.643456e-001 3.358328e-001 5.655191e-001 4.306499e-001 2.955261e-001 2.942849e-001 7.629307e-002
<GCONST> 1.059580e+002
<STATE> 3
<MEAN> 39
 9.373984e-001 3.833644e+000 3.811925e+000 2.551039e+000 -1.158851e+001 -8.500291e+000 -6.336336e+000 -5.466870e+000 2.319645e+000 -3.644922e+000 -5.696947e+000 -2.859004e+000 6.960316e+001 -7.106898e-001 -1.411010e+000 3.185655e-001 -1.575333e-001 -1.770014e+000 -2.654584e-001 9.124711e-001 1.018962e+000 1.501309e+000 3.152410e-001 -5.254135e-001 6.053103e-001 1.172016e+000 -3.625001e-002 -2.369643e-003 1.613476e-002 -8.251945e-002 -8.574452e-002 -1.914320e-001 2.689208e-001 1.486250e-001 -2.310157e-001 7.863772e-002 1.392934e-001 -3.360103e-002 1.993001e-002
<VARIANCE> 39
 1.083158e+001 3.660773e+001 6.306817e+001 3.608260e+001 7.239247e+001 3.986203e+001 4.501317e+001 5.820206e+001 6.624963e+001 3.190555e+001 4.602315e+001 3.018641e+001 3.108681e+001 4.935032e-001 2.292966e+000 1.743828e+000 1.342932e+000 3.005461e+000 3.006078e+000 5.497280e+000 4.511542e+000 5.175716e+000 2.852514e+000 2.760444e+000 2.775775e+000 9.017353e-001 7.296693e-002 5.100619e-001 2.798826e-001 2.574593e-001 5.817466e-001 4.514767e-001 7.027503e-001 7.860863e-001 1.286680e+000 5.024557e-001 5.403286e-001 4.464366e-001 2.655609e-001
<GCONST> 1.195337e+002
<STATE> 4
<MEAN> 39
 -1.747903e+000 3.338891e+000 5.476240e+000 5.778140e-001 -1.534703e+001 -1.175089e+001 -7.962623e-001 -1.422842e+000 2.139853e+000 -1.390873e+000 -4.771291e+000 -1.246016e+000 7.027367e+001 -3.160611e-001 2.626187e-001 3.635513e-001 5.744826e-002 -5.502113e-002 -3.964298e-001 4.937184e-001 1.236284e-001 -5.793131e-001 -2.311509e-002 2.014967e-001 1.267413e-001 -3.361157e-001 6.342401e-002 8.131504e-002 -3.209291e-002 7.323240e-002 2.374747e-001 1.381823e-001 -1.558115e-001 -1.651603e-001 1.484337e-002 -6.548271e-002 -2.786579e-002 -9.450907e-002 -1.623708e-001
<VARIANCE> 39
 1.247591e+001 3.961746e+001 6.298859e+001 3.968304e+001 9.423423e+001 6.189022e+001 7.712772e+001 5.987318e+001 4.958339e+001 2.913453e+001 5.316775e+001 2.225491e+001 3.006002e+001 1.636085e-001 5.704809e-001 6.530703e-001 8.863436e-001 1.663164e+000 1.444829e+000 1.292000e+000 1.380083e+000 1.951803e+000 1.697110e+000 1.509625e+000 1.274192e+000 2.754216e-001 4.194586e-002 1.713400e-001 1.142840e-001 1.916782e-001 3.220272e-001 2.403010e-001 3.502624e-001 2.792947e-001 3.500858e-001 2.648709e-001 2.788882e-001 1.902854e-001 5.607444e-002
<GCONST> 9.783155e+001
<TRANSP> 5
 0.000000e+000 1.000000e+000 0.000000e+000 0.000000e+000 0.000000e+000
 0.000000e+000 8.570608e-001 1.429392e-001 0.000000e+000 0.000000e+000
 0.000000e+000 0.000000e+000 7.693169e-001 2.306831e-001 0.000000e+000
 0.000000e+000 0.000000e+000 0.000000e+000 7.994979e-001 2.005022e-001
 0.000000e+000 0.000000e+000 0.000000e+000 0.000000e+000 0.000000e+000
<ENDHMM>
~h "o"
<BEGINHMM>
<NUMSTATES> 5
<STATE> 2
<MEAN> 39
 -2.224326e+000 3.869608e+000 9.542428e-001 -3.458138e+000 -7.921994e+000 -6.621119e+000 -5.920139e-001 -4.034312e+000 -2.100028e+000 -1.666080e+000 -2.079659e+000 -1.246666e+000 6.588331e+001 2.274543e-002 1.479582e-002 1.370627e-002 5.975570e-003 -3.661323e-002 -5.320187e-002 -9.133484e-003 -1.730699e-002 -1.653184e-002 -1.525151e-002 -5.346208e-003 -9.812288e-003 -8.149792e-003 -5.211601e-003 8.047853e-003 -1.524321e-003 6.729801e-003 1.349869e-002 1.418732e-002 3.674627e-003 3.888939e-003 5.550982e-003 6.958154e-003 2.882549e-003 3.265106e-003 -2.764040e-002
<VARIANCE> 39
 3.740973e+001 5.313155e+001 6.812322e+001 7.659717e+001 8.296675e+001 1.014055e+002 5.983440e+001 6.302224e+001 6.048460e+001 4.457723e+001 3.898028e+001 3.780531e+001 7.723595e+001 1.302501e+000 1.750577e+000 1.578707e+000 2.198211e+000 2.607947e+000 2.777526e+000 2.401972e+000 2.521378e+000 2.600509e+000 2.285602e+000 2.060752e+000 1.744259e+000 2.146788e+000 1.843455e-001 2.617738e-001 2.252331e-001 3.039368e-001 3.743387e-001 4.005016e-001 4.053887e-001 4.049863e-001 4.323907e-001 3.924566e-001 3.604958e-001 3.066924e-001 2.188757e-001
<GCONST> 1.194094e+002
<STATE> 3
<MEAN> 39
 -2.224326e+000 3.869608e+000 9.542428e-001 -3.458138e+000 -7.921994e+000 -6.621119e+000 -5.920139e-001 -4.034312e+000 -2.100028e+000 -1.666080e+000 -2.079659e+000 -1.246666e+000 6.588331e+001 2.274543e-002 1.479582e-002 1.370627e-002 5.975570e-003 -3.661323e-002 -5.320187e-002 -9.133484e-003 -1.730699e-002 -1.653184e-002 -1.525151e-002 -5.346208e-003 -9.812288e-003 -8.149792e-003 -5.211601e-003 8.047853e-003 -1.524321e-003 6.729801e-003 1.349869e-002 1.418732e-002 3.674627e-003 3.888939e-003 5.550982e-003 6.958154e-003 2.882549e-003 3.265106e-003 -2.764040e-002
<VARIANCE> 39
 3.740973e+001 5.313155e+001 6.812322e+001 7.659717e+001 8.296675e+001 1.014055e+002 5.983440e+001 6.302224e+001 6.048460e+001 4.457723e+001 3.898028e+001 3.780531e+001 7.723595e+001 1.302501e+000 1.750577e+000 1.578707e+000 2.198211e+000 2.607947e+000 2.777526e+000 2.401972e+000 2.521378e+000 2.600509e+000 2.285602e+000 2.060752e+000 1.744259e+000 2.146788e+000 1.843455e-001 2.617738e-001 2.252331e-001 3.039368e-001 3.743387e-001 4.005016e-001 4.053887e-001 4.049863e-001 4.323907e-001 3.924566e-001 3.604958e-001 3.066924e-001 2.188757e-001
<GCONST> 1.194094e+002
<STATE> 4
<MEAN> 39
 -2.224326e+000 3.869608e+000 9.542428e-001 -3.458138e+000 -7.921994e+000 -6.621119e+000 -5.920139e-001 -4.034312e+000 -2.100028e+000 -1.666080e+000 -2.079659e+000 -1.246666e+000 6.588331e+001 2.274543e-002 1.479582e-002 1.370627e-002 5.975570e-003 -3.661323e-002 -5.320187e-002 -9.133484e-003 -1.730699e-002 -1.653184e-002 -1.525151e-002 -5.346208e-003 -9.812288e-003 -8.149792e-003 -5.211601e-003 8.047853e-003 -1.524321e-003 6.729801e-003 1.349869e-002 1.418732e-002 3.674627e-003 3.888939e-003 5.550982e-003 6.958154e-003 2.882549e-003 3.265106e-003 -2.764040e-002
<VARIANCE> 39
 3.740973e+001 5.313155e+001 6.812322e+001 7.659717e+001 8.296675e+001 1.014055e+002 5.983440e+001 6.302224e+001 6.048460e+001 4.457723e+001 3.898028e+001 3.780531e+001 7.723595e+001 1.302501e+000 1.750577e+000 1.578707e+000 2.198211e+000 2.607947e+000 2.777526e+000 2.401972e+000 2.521378e+000 2.600509e+000 2.285602e+000 2.060752e+000 1.744259e+000 2.146788e+000 1.843455e-001 2.617738e-001 2.252331e-001 3.039368e-001 3.743387e-001 4.005016e-001 4.053887e-001 4.049863e-001 4.323907e-001 3.924566e-001 3.604958e-001 3.066924e-001 2.188757e-001
<GCONST> 1.194094e+002
<TRANSP> 5
 0.000000e+000 1.000000e+000 0.000000e+000 0.000000e+000 0.000000e+000
 0.000000e+000 6.000000e-001 4.000000e-001 0.000000e+000 0.000000e+000
 0.000000e+000 0.000000e+000 6.000000e-001 4.000000e-001 0.000000e+000
 0.000000e+000 0.000000e+000 0.000000e+000 7.000000e-001 3.000000e-001
 0.000000e+000 0.000000e+000 0.000000e+000 0.000000e+000 0.000000e+000
<ENDHMM>
~h "p"
<BEGINHMM>
<NUMSTATES> 5
<STATE> 2
<MEAN> 39
 2.170228e+000 1.880357e+000 -6.445428e+000 -1.323038e+001 -9.195281e+000 -1.521517e-001 5.368779e+000 -2.842864e+000 -1.645593e+000 -8.415324e-001 -4.026766e+000 -4.124835e+000 7.142374e+001 1.342170e+000 -3.128881e-001 -2.751008e-001 -1.502502e+000 -1.753242e+000 -1.139076e-001 1.323118e-001 -4.617230e-001 -7.133353e-001 -2.414419e-001 -4.165033e-001 -6.209245e-001 1.657181e+000 -5.523227e-001 -3.799522e-001 1.390445e-001 4.899074e-001 2.235874e-001 -8.962824e-002 -4.666316e-001 7.739849e-002 2.987690e-001 1.793952e-001 3.318851e-001 2.281768e-001 -1.931314e-001
<VARIANCE> 39
 1.903588e+001 5.305098e+001 3.655713e+001 2.809045e+001 6.867590e+001 9.844389e+001 4.903768e+001 5.024542e+001 3.807745e+001 3.188970e+001 3.182634e+001 4.705729e+001 3.089646e+001 2.657134e+000 4.988699e+000 2.468356e+000 3.280997e+000 4.673328e+000 4.844295e+000 4.194829e+000 3.471128e+000 3.377391e+000 3.444534e+000 2.845280e+000 3.044747e+000 1.930327e+000 3.379786e-001 6.457516e-001 4.195064e-001 4.520738e-001 6.839076e-001 7.930962e-001 6.289538e-001 5.901327e-001 4.776850e-001 5.763569e-001 4.492046e-001 4.671812e-001 4.567826e-001
<GCONST> 1.273242e+002
<STATE> 3
<MEAN> 39
 1.685187e+000 -3.370784e+000 -7.296821e+000 -1.413345e+001 -1.203352e+001 -4.042474e+000 3.198079e+000 -1.285757e-001 -1.343328e+000 -1.230718e+000 -3.103121e+000 -4.885552e+000 7.678888e+001 3.224119e-002 4.558101e-002 1.457642e-001 3.331763e-002 -3.205711e-001 -3.931702e-001 -4.961095e-001 -1.348985e-001 4.293719e-001 4.256324e-001 -3.904195e-002 -8.812937e-003 -1.290749e-001 -5.772657e-002 2.347075e-001 2.746949e-002 1.799098e-001 1.599058e-001 -1.364784e-001 -9.030211e-004 3.244127e-002 7.058482e-002 -3.386375e-002 -4.370883e-002 1.067978e-001 -2.845745e-001
<VARIANCE> 39
 1.567459e+001 5.078391e+001 2.759704e+001 2.005423e+001 5.366777e+001 1.169909e+002 9.505025e+001 8.469386e+001 6.451807e+001 4.603710e+001 3.623908e+001 4.468686e+001 3.221835e+001 5.508481e-001 2.118628e+000 8.957385e-001 1.355481e+000 1.905995e+000 3.084707e+000 4.440363e+000 3.134210e+000 3.876171e+000 2.617750e+000 1.882919e+000 1.601743e+000 9.851973e-001 1.525657e-001 3.611020e-001 1.729562e-001 3.165773e-001 4.301155e-001 5.064433e-001 6.422345e-001 5.729983e-001 5.808553e-001 4.850166e-001 3.995709e-001 3.471055e-001 1.454721e-001
<GCONST> 1.159319e+002
<STATE> 4
<MEAN> 39
 3.769076e+000 1.646205e+000 -4.957973e+000 -1.346636e+001 -1.125505e+001 -3.361083e-001 2.501969e+000 -3.942564e+000 4.285592e-001 7.962292e-002 -4.021916e+000 -4.702486e+000 7.367906e+001 -4.038982e-002 1.509628e-001 1.510374e-001 3.446435e-001 -8.415511e-002 -5.373054e-001 -3.837128e-001 2.527927e-003 2.838408e-001 1.525107e-001 -4.416833e-002 4.483641e-002 -1.408669e-001 -3.543435e-002 8.959530e-002 7.521798e-002 1.166238e-001 6.729827e-002 -8.072540e-002 -4.659171e-003 1.596022e-002 -2.449292e-002 -1.047261e-001 3.015353e-003 2.606327e-002 -8.219504e-002
<VARIANCE> 39
 1.031030e+001 6.207248e+001 6.676758e+001 2.608017e+001 1.073688e+002 1.435595e+002 4.397885e+001 5.787038e+001 5.136250e+001 4.709070e+001 3.379031e+001 4.836588e+001 1.869591e+001 1.780912e-001 7.181448e-001 7.367898e-001 1.022016e+000 1.492625e+000 2.248841e+000 1.764928e+000 1.301126e+000 1.488587e+000 1.319634e+000 1.719835e+000 1.243836e+000 2.559608e-001 4.509145e-002 1.392807e-001 1.211525e-001 1.550282e-001 2.631195e-001 2.833380e-001 3.608514e-001 2.604844e-001 2.763017e-001 2.788735e-001 2.524852e-001 1.941972e-001 3.985676e-002
<GCONST> 9.817223e+001
<TRANSP> 5
 0.000000e+000 1.000000e+000 0.000000e+000 0.000000e+000 0.000000e+000
 0.000000e+000 7.479658e-001 2.520342e-001 0.000000e+000 0.000000e+000
 0.000000e+000 0.000000e+000 7.010446e-001 2.989555e-001 0.000000e+000
 0.000000e+000 0.000000e+000 0.000000e+000 6.800852e-001 3.199148e-001
 0.000000e+000 0.000000e+000 0.000000e+000 0.000000e+000 0.000000e+000
<ENDHMM>
~h "r"
<BEGINHMM>
<NUMSTATES> 5
<STATE> 2
<MEAN> 39
 -8.128262e-001 3.262540e+000 4.018122e+000 4.314198e+000 -9.251793e+000 -1.571383e+001 -6.331183e+000 -6.425344e+000 4.076506e-001 -2.906871e+000 2.009381e+000 -1.605998e+000 6.609404e+001 -1.150254e-001 -1.117900e-001 -1.993451e-002 2.598352e-001 6.375377e-001 3.692582e-001 4.562749e-001 -3.020150e-001 -1.697897e-001 -3.324941e-001 -1.855859e-001 -1.066984e-001 -3.498766e-001 2.253875e-002 -6.487066e-002 6.221353e-002 -1.160615e-001 -1.804713e-001 -1.852067e-001 8.316134e-002 2.379475e-001 -7.559841e-002 1.655521e-002 8.742615e-002 9.389226e-002 1.574054e-001
<VARIANCE> 39
 1.682437e+001 2.076930e+001 3.978639e+001 6.046119e+001 4.301189e+001 5.975301e+001 3.362951e+001 5.176897e+001 3.901585e+001 3.471585e+001 3.664984e+001 2.405500e+001 3.327496e+001 8.984218e-001 2.463130e+000 2.343477e+000 3.344810e+000 4.016237e+000 5.942313e+000 2.380735e+000 3.436021e+000 1.490469e+000 2.549702e+000 3.018878e+000 2.134130e+000 3.833650e+000 1.826907e-001 5.225741e-001 3.783024e-001 7.287074e-001 6.553366e-001 1.128465e+000 3.597558e-001 6.104043e-001 2.974464e-001 4.707928e-001 5.928717e-001 3.589555e-001 5.336586e-001
<GCONST> 1.212036e+002
<STATE> 3
<MEAN> 39
 -3.588226e+000 4.025153e+000 6.185945e+000 8.395871e+000 -8.407704e+000 -1.397791e+001 -7.425832e+000 -3.717883e+000 3.197025e+000 -1.920622e+000 -2.004256e+000 2.912128e+000 6.538020e+001 -4.564229e-001 -2.007353e-001 3.256868e-001 3.146278e-001 -7.630724e-001 1.178516e-001 5.876526e-001 5.795563e-001 -1.133128e-001 -6.089691e-002 3.343241e-001 8.103511e-001 -2.495551e-002 -2.996341e-002 5.873333e-002 4.457819e-002 -1.377461e-001 -3.403512e-001 3.200286e-002 8.380060e-002 2.430948e-001 6.891520e-002 -9.951735e-003 1.982881e-001 2.494968e-002 1.391925e-001
<VARIANCE> 39
 1.723112e+001 1.953277e+001 5.323189e+001 2.405728e+001 6.144100e+001 8.153175e+001 4.399523e+001 3.057609e+001 4.164456e+001 2.008214e+001 2.876314e+001 3.285574e+001 2.034011e+001 7.013693e-001 1.413314e+000 2.075414e+000 1.568996e+000 7.029025e+000 3.901520e+000 3.352074e+000 3.330918e+000 4.819034e+000 1.722179e+000 2.639329e+000 3.378540e+000 8.917261e-001 1.121721e-001 2.340311e-001 4.972138e-001 2.922758e-001 1.457149e+000 7.544507e-001 6.708754e-001 7.377989e-001 1.150629e+000 3.460588e-001 2.980540e-001 8.577357e-001 2.712308e-001
<GCONST> 1.182860e+002
<STATE> 4
<MEAN> 39
 5.994000e-002 9.958268e-001 5.978252e+000 -1.898952e+000 -1.345743e+001 -1.839576e+001 -4.056170e+000 -3.714917e+000 -4.550961e+000 -3.262921e+000 3.200026e+000 -5.882987e-001 6.899474e+001 -2.850340e-001 3.015980e-001 2.895061e-001 -2.054352e-001 2.421455e-001 3.721204e-001 2.568092e-001 3.758585e-001 -2.355630e-001 2.785449e-001 5.440641e-002 -4.189301e-001 -3.852604e-001 -4.964513e-002 5.874449e-002 -8.934613e-002 1.221526e-001 1.171536e-001 1.237643e-001 3.249986e-002 -4.396177e-002 2.886358e-002 1.301397e-002 -1.694560e-001 -9.266806e-002 -1.199327e-001
<VARIANCE> 39
 1.586973e+001 1.044919e+001 3.510055e+001 5.981004e+001 7.019669e+001 9.501367e+001 3.245921e+001 2.466263e+001 5.895091e+001 3.459682e+001 6.595412e+001 2.810927e+001 2.091040e+001 3.224439e-001 5.311348e-001 6.619528e-001 9.756730e-001 1.322766e+000 1.074685e+000 1.525563e+000 1.442618e+000 1.502082e+000 1.443737e+000 1.445234e+000 1.452184e+000 5.307600e-001 7.736203e-002 1.143925e-001 1.000951e-001 1.355266e-001 3.709181e-001 2.167185e-001 1.939000e-001 1.862184e-001 3.139324e-001 2.236169e-001 2.244757e-001 2.889579e-001 5.817901e-002
<GCONST> 9.482884e+001
<TRANSP> 5
 0.000000e+000 1.000000e+000 0.000000e+000 0.000000e+000 0.000000e+000
 0.000000e+000 7.685079e-001 2.314921e-001 0.000000e+000 0.000000e+000
 0.000000e+000 0.000000e+000 6.937488e-001 3.062513e-001 0.000000e+000
 0.000000e+000 0.000000e+000 0.000000e+000 8.195961e-001 1.804039e-001
 0.000000e+000 0.000000e+000 0.000000e+000 0.000000e+000 0.000000e+000
<ENDHMM>
~h "t"
<BEGINHMM>
<NUMSTATES> 5
<STATE> 2
<MEAN> 39
 -7.404541e+000 8.523144e-002 -7.016234e-001 -4.070865e+000 -3.653659e+000 -3.686929e+000 -3.301893e+000 -3.372704e+000 2.062193e+000 -7.420963e-001 -1.614145e+000 -5.315193e-001 6.846007e+001 1.505060e+000 2.550393e-001 -4.801468e-002 -9.090887e-001 -9.020230e-001 -8.430582e-001 -4.249767e-001 -1.097051e+000 -7.261831e-001 -1.785850e-001 -6.990194e-001 -6.619746e-001 2.112357e+000 5.428873e-001 2.803133e-001 -1.173491e-001 -5.699506e-002 -2.427997e-001 -2.475190e-002 2.476066e-001 -3.570855e-002 -3.002516e-001 8.932746e-002 5.358137e-002 5.591995e-002 -4.577992e-001
<VARIANCE> 39
 4.254101e+001 4.162449e+001 3.939116e+001 4.717093e+001 3.995055e+001 4.931033e+001 3.843351e+001 4.142343e+001 4.037069e+001 3.427437e+001 3.050094e+001 3.002361e+001 6.606898e+001 6.705974e+000 5.380166e+000 3.228530e+000 4.889978e+000 5.101019e+000 5.982486e+000 4.420958e+000 5.271363e+000 5.588202e+000 4.062516e+000 3.305383e+000 3.480129e+000 7.752310e+000 9.459271e-001 1.043688e+000 5.444707e-001 7.559723e-001 7.972630e-001 1.029428e+000 8.919072e-001 9.122891e-001 9.375976e-001 7.098132e-001 6.067531e-001 6.307972e-001 1.453908e+000
<GCONST> 1.381125e+002
<STATE> 3
<MEAN> 39
 2.021624e+000 6.786031e-001 -4.419238e+000 -1.026031e+001 -8.911827e+000 -5.670252e+000 -1.732713e+000 -6.115853e+000 -2.689056e+000 -1.679130e-001 -3.460593e+000 -2.360571e+000 7.396236e+001 1.169788e+000 -5.629719e-001 -7.491451e-001 -9.132010e-001 -1.370407e+000 -1.818728e-001 5.788447e-001 -2.308739e-001 -6.853645e-001 3.208050e-001 2.500316e-001 4.083645e-001 5.450382e-001 -8.409213e-001 -3.263360e-001 1.476068e-001 3.587829e-001 3.726890e-001 2.365507e-001 -4.213058e-002 2.668016e-001 3.976463e-001 9.075068e-002 2.703958e-001 2.321311e-001 -3.097630e-001
<VARIANCE> 39
 2.001979e+001 3.862093e+001 5.891494e+001 6.210361e+001 6.653011e+001 8.493610e+001 4.810732e+001 5.870655e+001 4.385215e+001 5.377478e+001 4.102242e+001 5.090595e+001 2.693091e+001 2.425727e+000 2.917161e+000 2.265009e+000 2.536874e+000 4.018305e+000 5.136174e+000 4.141113e+000 3.850431e+000 3.863072e+000 2.836412e+000 3.048949e+000 2.651690e+000 1.508652e+000 2.928366e-001 4.883218e-001 3.386306e-001 5.154617e-001 7.542358e-001 8.212802e-001 7.088213e-001 7.830117e-001 6.141075e-001 5.833668e-001 5.244772e-001 5.533000e-001 2.757235e-001
<GCONST> 1.279077e+002
<STATE> 4
<MEAN> 39
 2.385023e+000 -9.916974e-002 -5.315168e+000 -1.098687e+001 -9.970031e+000 -5.957217e+000 -1.752200e+000 -6.145860e+000 -2.816005e+000 -3.098859e-002 -1.443745e+000 -1.351167e+000 7.385426e+001 7.685603e-003 -2.263820e-001 1.127709e-002 1.970360e-001 -1.606572e-001 -2.262349e-001 -2.266056e-001 -2.345064e-001 2.344421e-002 3.678757e-001 2.089434e-001 7.594433e-002 -3.884528e-002 -2.376267e-001 2.710854e-002 2.005377e-001 3.291834e-001 2.421562e-001 -8.487917e-002 -2.123961e-001 7.946456e-003 2.060259e-001 3.226525e-002 -6.834805e-002 -9.430321e-002 -9.126072e-002
<VARIANCE> 39
 2.408410e+001 4.042142e+001 5.871648e+001 5.351262e+001 7.350899e+001 9.374265e+001 5.162611e+001 6.179350e+001 6.360236e+001 6.499069e+001 5.359780e+001 5.659942e+001 2.504685e+001 8.444903e-001 1.327497e+000 1.246538e+000 2.059460e+000 2.176748e+000 3.294804e+000 3.327847e+000 2.642437e+000 3.034225e+000 2.406539e+000 2.217114e+000 2.280161e+000 7.464924e-001 1.663699e-001 2.447172e-001 2.327069e-001 3.486306e-001 4.546871e-001 5.968622e-001 5.388125e-001 5.340751e-001 5.307608e-001 5.268902e-001 4.090326e-001 4.740350e-001 1.175527e-001
<GCONST> 1.182809e+002
<TRANSP> 5
 0.000000e+000 1.000000e+000 0.000000e+000 0.000000e+000 0.000000e+000
 0.000000e+000 7.789532e-001 2.210468e-001 0.000000e+000 0.000000e+000
 0.000000e+000 0.000000e+000 5.179501e-001 4.820500e-001 0.000000e+000
 0.000000e+000 0.000000e+000 0.000000e+000 6.424860e-001 3.575140e-001
 0.000000e+000 0.000000e+000 0.000000e+000 0.000000e+000 0.000000e+000
<ENDHMM>
~h "u"
<BEGINHMM>
<NUMSTATES> 5
<STATE> 2
<MEAN> 39
 -3.566618e+000 9.397195e+000 1.074267e+001 4.457865e+000 -8.420931e+000 -1.013811e+001 1.309866e+000 -1.031990e+001 -7.590084e+000 -1.566298e+000 2.160042e+000 -3.186033e+000 6.595457e+001 3.948111e-001 3.780322e-001 -6.116877e-001 -1.341947e-001 4.200671e-001 1.288643e-001 -1.884928e-001 1.354748e-001 -4.363997e-002 -4.356581e-002 5.154254e-001 3.054757e-001 -5.664494e-001 -1.609753e-001 -6.556936e-002 2.448655e-002 -2.691583e-002 1.599495e-001 2.651706e-001 -1.559296e-001 1.366919e-001 2.287834e-001 -1.894134e-001 -2.824305e-001 3.423128e-002 -1.053102e-001
<VARIANCE> 39
 7.595520e+000 1.193897e+001 7.261688e+001 2.229932e+001 4.308381e+001 6.763352e+001 3.512531e+001 4.644125e+001 3.017435e+001 3.244762e+001 2.286578e+001 2.742904e+001 2.177539e+001 3.064290e-001 5.791407e-001 5.462962e-001 2.073212e+000 1.234547e+000 3.387591e+000 2.189267e+000 2.627123e+000 2.284856e+000 1.952552e+000 1.920125e+000 1.313682e+000 3.687547e-001 1.161426e-001 1.176800e-001 1.082872e-001 1.807396e-001 1.993703e-001 5.894970e-001 3.167376e-001 5.918334e-001 3.462799e-001 4.709899e-001 3.809814e-001 2.870109e-001 3.110835e-002
<GCONST> 9.881751e+001
<STATE> 3
<MEAN> 39
 -3.200188e+000 8.260556e+000 5.884650e+000 2.652005e+000 -1.288597e+000 -9.300388e+000 -5.087124e+000 -6.035603e+000 -2.962490e+000 -4.888165e+000 3.229486e-001 -1.774586e-001 6.370773e+001 3.674012e-001 3.093074e-001 -9.709166e-001 -5.457246e-001 7.978294e-001 1.084505e+000 -6.050878e-001 -6.343197e-001 2.166531e-001 3.460724e-001 -3.063721e-001 -1.937773e-001 -5.739097e-001 -1.219010e-001 -1.235760e-001 2.293597e-002 -3.761117e-002 -1.666187e-001 1.220417e-001 2.270733e-001 -1.227516e-002 -2.394865e-001 1.420159e-001 1.221969e-001 -1.960567e-002 5.784654e-002
<VARIANCE> 39
 2.128927e+001 1.356882e+001 2.710007e+001 2.359573e+001 4.788899e+001 3.618577e+001 3.576874e+001 3.786507e+001 3.077790e+001 1.600034e+001 2.549781e+001 1.170816e+001 1.914729e+001 5.074950e-001 7.298232e-001 9.098509e-001 9.549941e-001 2.068785e+000 2.261088e+000 1.154248e+000 2.004199e+000 2.531310e+000 2.907178e+000 1.154254e+000 9.799018e-001 5.261680e-001 1.141916e-001 1.078537e-001 9.822463e-002 1.945721e-001 2.749788e-001 5.927619e-001 2.564665e-001 3.545924e-001 2.110474e-001 4.412583e-001 3.081749e-001 1.974989e-001 8.726030e-002
<GCONST> 9.586993e+001
<STATE> 4
<MEAN> 39
 -1.850515e+000 9.745498e+000 2.168858e+000 2.536193e+000 -3.978075e-001 -4.823087e+000 -4.210844e+000 -7.518349e+000 -2.913256e+000 -2.371946e+000 -3.935538e-002 -3.558814e-001 6.109771e+001 -3.504933e-001 -3.625438e-001 -2.777329e-001 -5.992408e-002 4.072964e-001 6.684167e-001 3.847358e-001 4.353121e-001 1.809245e-001 2.122986e-001 -1.521704e-001 6.781761e-002 -4.360931e-001 -8.536925e-002 -1.108983e-001 6.051977e-002 5.080947e-002 -4.031365e-002 -4.952922e-002 6.009163e-002 1.329883e-001 4.810870e-002 -5.432534e-004 4.450186e-002 2.597141e-002 2.873624e-002
<VARIANCE> 39
 1.299443e+001 1.756394e+001 1.183003e+001 1.176604e+001 1.693180e+001 2.513801e+001 3.397564e+001 3.492883e+001 2.361959e+001 1.500156e+001 1.300123e+001 1.643106e+001 2.109474e+001 3.667708e-001 7.789689e-001 7.927054e-001 9.259939e-001 9.782005e-001 1.412436e+000 1.454355e+000 1.587337e+000 1.194086e+000 1.572622e+000 1.231409e+000 7.922692e-001 1.729016e-001 5.197988e-002 1.185390e-001 1.414998e-001 1.968088e-001 2.037044e-001 2.568109e-001 2.657059e-001 2.950290e-001 2.777818e-001 3.204839e-001 2.135376e-001 1.358890e-001 2.584898e-002
<GCONST> 8.412659e+001
<TRANSP> 5
 0.000000e+000 1.000000e+000 0.000000e+000 0.000000e+000 0.000000e+000
 0.000000e+000 6.875095e-001 3.124905e-001 0.000000e+000 0.000000e+000
 0.000000e+000 0.000000e+000 7.213460e-001 2.786541e-001 0.000000e+000
 0.000000e+000 0.000000e+000 0.000000e+000 8.856090e-001 1.143910e-001
 0.000000e+000 0.000000e+000 0.000000e+000 0.000000e+000 0.000000e+000
<ENDHMM>
~h "w"
<BEGINHMM>
<NUMSTATES> 5
<STATE> 2
<MEAN> 39
 -2.224326e+000 3.869608e+000 9.542428e-001 -3.458138e+000 -7.921994e+000 -6.621119e+000 -5.920139e-001 -4.034312e+000 -2.100028e+000 -1.666080e+000 -2.079659e+000 -1.246666e+000 6.588331e+001 2.274543e-002 1.479582e-002 1.370627e-002 5.975570e-003 -3.661323e-002 -5.320187e-002 -9.133484e-003 -1.730699e-002 -1.653184e-002 -1.525151e-002 -5.346208e-003 -9.812288e-003 -8.149792e-003 -5.211601e-003 8.047853e-003 -1.524321e-003 6.729801e-003 1.349869e-002 1.418732e-002 3.674627e-003 3.888939e-003 5.550982e-003 6.958154e-003 2.882549e-003 3.265106e-003 -2.764040e-002
<VARIANCE> 39
 3.740973e+001 5.313155e+001 6.812322e+001 7.659717e+001 8.296675e+001 1.014055e+002 5.983440e+001 6.302224e+001 6.048460e+001 4.457723e+001 3.898028e+001 3.780531e+001 7.723595e+001 1.302501e+000 1.750577e+000 1.578707e+000 2.198211e+000 2.607947e+000 2.777526e+000 2.401972e+000 2.521378e+000 2.600509e+000 2.285602e+000 2.060752e+000 1.744259e+000 2.146788e+000 1.843455e-001 2.617738e-001 2.252331e-001 3.039368e-001 3.743387e-001 4.005016e-001 4.053887e-001 4.049863e-001 4.323907e-001 3.924566e-001 3.604958e-001 3.066924e-001 2.188757e-001
<GCONST> 1.194094e+002
<STATE> 3
<MEAN> 39
 -2.224326e+000 3.869608e+000 9.542428e-001 -3.458138e+000 -7.921994e+000 -6.621119e+000 -5.920139e-001 -4.034312e+000 -2.100028e+000 -1.666080e+000 -2.079659e+000 -1.246666e+000 6.588331e+001 2.274543e-002 1.479582e-002 1.370627e-002 5.975570e-003 -3.661323e-002 -5.320187e-002 -9.133484e-003 -1.730699e-002 -1.653184e-002 -1.525151e-002 -5.346208e-003 -9.812288e-003 -8.149792e-003 -5.211601e-003 8.047853e-003 -1.524321e-003 6.729801e-003 1.349869e-002 1.418732e-002 3.674627e-003 3.888939e-003 5.550982e-003 6.958154e-003 2.882549e-003 3.265106e-003 -2.764040e-002
<VARIANCE> 39
 3.740973e+001 5.313155e+001 6.812322e+001 7.659717e+001 8.296675e+001 1.014055e+002 5.983440e+001 6.302224e+001 6.048460e+001 4.457723e+001 3.898028e+001 3.780531e+001 7.723595e+001 1.302501e+000 1.750577e+000 1.578707e+000 2.198211e+000 2.607947e+000 2.777526e+000 2.401972e+000 2.521378e+000 2.600509e+000 2.285602e+000 2.060752e+000 1.744259e+000 2.146788e+000 1.843455e-001 2.617738e-001 2.252331e-001 3.039368e-001 3.743387e-001 4.005016e-001 4.053887e-001 4.049863e-001 4.323907e-001 3.924566e-001 3.604958e-001 3.066924e-001 2.188757e-001
<GCONST> 1.194094e+002
<STATE> 4
<MEAN> 39
 -2.224326e+000 3.869608e+000 9.542428e-001 -3.458138e+000 -7.921994e+000 -6.621119e+000 -5.920139e-001 -4.034312e+000 -2.100028e+000 -1.666080e+000 -2.079659e+000 -1.246666e+000 6.588331e+001 2.274543e-002 1.479582e-002 1.370627e-002 5.975570e-003 -3.661323e-002 -5.320187e-002 -9.133484e-003 -1.730699e-002 -1.653184e-002 -1.525151e-002 -5.346208e-003 -9.812288e-003 -8.149792e-003 -5.211601e-003 8.047853e-003 -1.524321e-003 6.729801e-003 1.349869e-002 1.418732e-002 3.674627e-003 3.888939e-003 5.550982e-003 6.958154e-003 2.882549e-003 3.265106e-003 -2.764040e-002
<VARIANCE> 39
 3.740973e+001 5.313155e+001 6.812322e+001 7.659717e+001 8.296675e+001 1.014055e+002 5.983440e+001 6.302224e+001 6.048460e+001 4.457723e+001 3.898028e+001 3.780531e+001 7.723595e+001 1.302501e+000 1.750577e+000 1.578707e+000 2.198211e+000 2.607947e+000 2.777526e+000 2.401972e+000 2.521378e+000 2.600509e+000 2.285602e+000 2.060752e+000 1.744259e+000 2.146788e+000 1.843455e-001 2.617738e-001 2.252331e-001 3.039368e-001 3.743387e-001 4.005016e-001 4.053887e-001 4.049863e-001 4.323907e-001 3.924566e-001 3.604958e-001 3.066924e-001 2.188757e-001
<GCONST> 1.194094e+002
<TRANSP> 5
 0.000000e+000 1.000000e+000 0.000000e+000 0.000000e+000 0.000000e+000
 0.000000e+000 6.000000e-001 4.000000e-001 0.000000e+000 0.000000e+000
 0.000000e+000 0.000000e+000 6.000000e-001 4.000000e-001 0.000000e+000
 0.000000e+000 0.000000e+000 0.000000e+000 7.000000e-001 3.000000e-001
 0.000000e+000 0.000000e+000 0.000000e+000 0.000000e+000 0.000000e+000
<ENDHMM>
~h "aa"
<BEGINHMM>
<NUMSTATES> 5
<STATE> 2
<MEAN> 39
 2.770123e+000 -5.515817e+000 -1.025918e+001 -1.464971e+001 -2.155663e+000 6.091751e+000 3.668808e+000 -7.454353e+000 -3.574677e+000 2.080482e+000 -9.716690e+000 -5.665421e+000 7.548724e+001 -2.310609e-002 1.236872e-001 -4.111227e-002 1.484091e-001 -4.805850e-002 -2.468188e-001 -9.911732e-002 9.182836e-002 2.391104e-001 1.008037e-002 1.660536e-001 -2.369642e-002 -1.399915e-001 1.456514e-002 1.385307e-001 7.638738e-002 9.427335e-002 -6.344341e-002 -1.759159e-001 -6.349274e-002 6.775155e-002 6.289688e-002 -3.729445e-002 1.087121e-001 5.472669e-002 -1.012464e-001
<VARIANCE> 39
 1.247844e+001 2.434998e+001 3.132169e+001 4.180011e+001 4.716708e+001 6.090744e+001 5.650694e+001 5.105787e+001 7.021866e+001 3.083652e+001 3.820450e+001 3.330124e+001 2.270081e+001 2.372399e-001 4.197026e-001 5.068744e-001 6.563894e-001 1.027996e+000 1.419974e+000 9.621702e-001 1.332920e+000 1.137794e+000 9.668693e-001 9.218677e-001 9.024051e-001 2.362920e-001 4.933245e-002 8.693960e-002 9.285820e-002 1.221435e-001 1.675608e-001 2.321613e-001 2.137495e-001 2.547251e-001 2.085076e-001 1.756261e-001 1.705237e-001 1.767783e-001 4.873859e-002
<GCONST> 8.822252e+001
<STATE> 3
<MEAN> 39
 2.486933e+000 2.797801e-001 -8.286606e+000 -1.075276e+001 -5.533526e+000 1.129734e+000 2.557474e+000 -4.590601e+000 -1.713125e+000 2.363447e+000 -3.456141e+000 -4.876104e+000 6.851301e+001 -3.911406e-001 1.189879e+000 6.751151e-001 1.304642e+000 3.019291e-001 -8.849871e-001 -7.716788e-001 2.656292e-001 4.805847e-001 -9.811789e-002 9.210412e-001 8.168123e-001 -1.883349e+000 -1.877188e-001 -1.957529e-002 5.513180e-002 1.112780e-001 1.725547e-001 1.627282e-001 6.040260e-002 4.731778e-002 -5.512445e-002 -1.546724e-001 -1.064308e-001 5.977136e-003 -2.095589e-001
<VARIANCE> 39
 8.762023e+000 3.467030e+001 3.783081e+001 3.326628e+001 4.615516e+001 4.991826e+001 3.822382e+001 3.829860e+001 5.885826e+001 3.780921e+001 4.595934e+001 3.581735e+001 5.573981e+001 8.985213e-001 1.167681e+000 1.845349e+000 2.165749e+000 1.830791e+000 4.489908e+000 3.066777e+000 2.791692e+000 3.672770e+000 1.905582e+000 2.570537e+000 1.918803e+000 1.200367e+000 1.243785e-001 2.630076e-001 3.191033e-001 3.674730e-001 3.570643e-001 6.839954e-001 5.311902e-001 5.252331e-001 5.236333e-001 3.515697e-001 3.755490e-001 3.606342e-001 2.669713e-001
<GCONST> 1.148468e+002
<STATE> 4
<MEAN> 39
 -2.980384e+000 3.686341e+000 -5.988493e+000 -5.540151e+000 -3.235024e+000 -8.906204e-001 1.938439e+000 -3.045839e-001 1.286506e+000 4.569272e-001 -8.033622e-001 -7.869056e-001 5.879395e+001 -9.471624e-001 -2.863441e-001 3.783157e-001 4.594225e-001 2.224669e-001 -2.456480e-001 -2.590756e-001 3.311845e-001 2.466962e-001 -1.140712e-001 5.088765e-002 1.725227e-001 -5.717065e-001 1.784338e-002 -2.387481e-001 2.727751e-002 -1.972183e-001 -3.820901e-002 -5.807404e-002 -1.443633e-001 -1.561968e-001 -4.497662e-002 1.570382e-002 -8.787835e-002 -9.662188e-002 6.328831e-001
<VARIANCE> 39
 1.371161e+001 2.131148e+001 2.162597e+001 1.468035e+001 2.409320e+001 4.103580e+001 2.870493e+001 2.079021e+001 2.150764e+001 2.155093e+001 2.840047e+001 2.859271e+001 4.365441e+001 1.083242e+000 1.834185e+000 1.365544e+000 1.761955e+000 1.820256e+000 2.494645e+000 1.888989e+000 2.183121e+000 2.764623e+000 2.168280e+000 1.636199e+000 1.870557e+000 3.949558e+000 1.971638e-001 2.589450e-001 3.034618e-001 3.181332e-001 3.322403e-001 4.347629e-001 3.859518e-001 3.880576e-001 5.117611e-001 3.904814e-001 4.066465e-001 3.310323e-001 5.012284e-001
<GCONST> 1.083428e+002
<TRANSP> 5
 0.000000e+000 1.000000e+000 0.000000e+000 0.000000e+000 0.000000e+000
 0.000000e+000 9.035257e-001 9.647433e-002 0.000000e+000 0.000000e+000
 0.000000e+000 0.000000e+000 7.692069e-001 2.307931e-001 0.000000e+000
 0.000000e+000 0.000000e+000 0.000000e+000 8.404414e-001 1.595586e-001
 0.000000e+000 0.000000e+000 0.000000e+000 0.000000e+000 0.000000e+000
<ENDHMM>
~h "ae"
<BEGINHMM>
<NUMSTATES> 5
<STATE> 2
<MEAN> 39
 9.951608e-001 -6.691821e+000 -8.141305e+000 -1.104213e+001 -5.200917e+000 -1.931779e+000 -8.608255e-001 -1.671002e+000 3.336325e+000 3.352882e+000 -7.345627e+000 -8.596646e+000 7.709666e+001 -1.302046e-001 1.233731e-001 4.747234e-001 7.346128e-001 -2.204747e-001 -1.596711e+000 -5.796990e-001 8.444421e-001 7.110009e-001 -2.668265e-001 -3.378631e-001 7.462267e-002 -1.901925e-001 -1.329929e-002 9.310627e-002 1.182629e-001 1.870374e-002 -9.493648e-002 -5.806965e-002 2.642191e-002 1.484187e-002 -4.072556e-002 -8.006505e-002 1.079233e-001 1.236488e-001 -4.465802e-002
<VARIANCE> 39
 9.658766e+000 2.573696e+001 2.482682e+001 3.945821e+001 3.503383e+001 9.559333e+001 5.598107e+001 6.570879e+001 5.501769e+001 3.817205e+001 5.058231e+001 4.233588e+001 1.423815e+001 1.930871e-001 4.307949e-001 7.247449e-001 1.117850e+000 1.280325e+000 2.276060e+000 2.282230e+000 1.985004e+000 2.305737e+000 1.445589e+000 1.444195e+000 1.319309e+000 1.728320e-001 2.910976e-002 7.304414e-002 1.065002e-001 1.388175e-001 2.008898e-001 3.723584e-001 3.959166e-001 2.975489e-001 3.731188e-001 2.540196e-001 2.623081e-001 2.155305e-001 2.118438e-002
<GCONST> 9.417518e+001
<STATE> 3
<MEAN> 39
 -6.483873e-001 -2.479147e+000 1.894668e-002 -4.789039e+000 -1.141237e+001 -1.654899e+001 -2.753370e+000 3.951074e+000 5.410499e+000 3.150603e-001 -4.635422e+000 -3.629358e+000 7.363885e+001 -2.681080e-001 8.230353e-001 1.032233e+000 6.128426e-001 -7.372928e-001 -3.402009e-001 1.830883e-001 -4.766869e-001 -5.898698e-001 -2.226562e-001 7.816032e-001 5.945476e-001 -6.666034e-001 -3.518536e-002 3.040040e-002 -7.391980e-002 5.407106e-002 1.263487e-001 1.880582e-001 -2.520798e-003 -1.501529e-001 -6.414977e-002 2.426126e-002 -7.632152e-002 -7.811760e-002 -6.287721e-002
<VARIANCE> 39
 9.384995e+000 3.399060e+001 5.086337e+001 3.659866e+001 5.411146e+001 4.416144e+001 6.912991e+001 4.434578e+001 3.753123e+001 2.761972e+001 3.701460e+001 4.214898e+001 1.475962e+001 2.389937e-001 6.020048e-001 6.005742e-001 8.864439e-001 1.078764e+000 1.439464e+000 1.185743e+000 1.456937e+000 1.045799e+000 1.341541e+000 1.484674e+000 1.341199e+000 1.998127e-001 3.731697e-002 9.086533e-002 8.114892e-002 1.867855e-001 1.708033e-001 1.612484e-001 1.746572e-001 2.470412e-001 2.112562e-001 2.112892e-001 2.043809e-001 1.546267e-001 2.708876e-002
<GCONST> 8.881766e+001
<STATE> 4
<MEAN> 39
 -4.896588e+000 3.245017e+000 4.261076e+000 2.293111e+000 -1.109780e+001 -1.423834e+001 4.897445e-001 1.440109e+000 2.702638e+000 -1.079127e+000 -1.302472e+000 -3.935074e-001 6.491100e+001 -3.724701e-001 2.362481e-001 2.228987e-002 2.844490e-001 4.484534e-001 5.146691e-001 3.063437e-001 -1.522474e-001 -1.205621e-001 5.747071e-002 2.373076e-001 2.364233e-001 -1.056146e+000 7.236485e-003 -8.339549e-002 -1.231631e-001 -8.876043e-002 1.344017e-001 8.588802e-002 -1.531668e-002 1.057168e-001 5.752389e-002 8.377720e-002 8.490008e-003 -2.136133e-002 -3.136323e-002
<VARIANCE> 39
 2.012662e+001 2.851025e+001 4.203622e+001 2.537101e+001 5.971836e+001 4.695007e+001 8.536262e+001 5.033103e+001 3.984166e+001 3.903684e+001 5.275122e+001 3.847326e+001 3.170320e+001 3.419783e-001 8.830551e-001 9.676592e-001 1.064660e+000 1.399301e+000 1.970767e+000 1.610321e+000 1.961791e+000 1.659442e+000 1.707723e+000 2.166338e+000 1.633364e+000 4.978407e-001 5.337968e-002 1.245773e-001 1.840010e-001 1.700639e-001 2.321990e-001 3.659056e-001 3.136298e-001 3.454573e-001 3.136766e-001 2.872740e-001 3.788177e-001 3.071216e-001 6.178295e-002
<GCONST> 1.018247e+002
<TRANSP> 5
 0.000000e+000 1.000000e+000 0.000000e+000 0.000000e+000 0.000000e+000
 0.000000e+000 9.092342e-001 9.076585e-002 0.000000e+000 0.000000e+000
 0.000000e+000 0.000000e+000 8.549473e-001 1.450527e-001 0.000000e+000
 0.000000e+000 0.000000e+000 0.000000e+000 9.111739e-001 8.882605e-002
 0.000000e+000 0.000000e+000 0.000000e+000 0.000000e+000 0.000000e+000
<ENDHMM>
~h "ai"
<BEGINHMM>
<NUMSTATES> 5
<STATE> 2
<MEAN> 39
 3.170093e-001 -2.793604e+000 -3.998949e-001 -4.580425e+000 -9.169106e+000 -1.638906e+001 -6.912235e+000 2.915766e-001 5.858756e+000 7.327880e-001 -3.789333e+000 -2.595125e+000 7.532413e+001 -5.139579e-001 1.213744e+000 2.031839e+000 1.705048e+000 -1.432449e+000 -1.553004e+000 -2.643054e-001 -4.064462e-001 -1.028231e+000 -1.221716e+000 1.099701e+000 1.362086e+000 -7.082080e-001 -9.361859e-002 2.316507e-001 -1.374639e-002 -1.116571e-001 2.981099e-002 6.293719e-001 3.949165e-001 -4.198964e-001 -5.075195e-001 4.869291e-002 1.479798e-001 -1.907488e-001 -1.013219e-001
<VARIANCE> 39
 1.312271e+001 2.763966e+001 6.454996e+001 4.200160e+001 7.576418e+001 7.569335e+001 5.702027e+001 4.401499e+001 4.844471e+001 4.823537e+001 4.743463e+001 4.737137e+001 9.837597e+000 4.770204e-001 9.086621e-001 1.144301e+000 1.681462e+000 1.620789e+000 4.442818e+000 2.074322e+000 4.338399e+000 3.481902e+000 3.330345e+000 2.897652e+000 2.084029e+000 2.843567e-001 5.775538e-002 1.199977e-001 2.536336e-001 1.783190e-001 4.112100e-001 4.261629e-001 3.012685e-001 5.252764e-001 4.695795e-001 5.372406e-001 6.855670e-001 4.106885e-001 3.050342e-002
<GCONST> 1.089119e+002
<STATE> 3
<MEAN> 39
 -1.753923e+000 3.963140e+000 6.747100e+000 8.041014e-001 -1.385434e+001 -1.879501e+001 -3.413425e+000 -6.267098e+000 -5.212763e+000 -2.513351e+000 -6.605965e-001 -7.808739e-001 7.078717e+001 -5.191686e-001 1.254294e+000 8.677779e-001 7.290645e-001 2.213971e-001 7.244098e-001 6.424025e-001 -9.825726e-001 -1.281793e+000 -2.492396e-001 -4.089643e-001 -2.063256e-001 -1.053155e+000 4.193619e-002 -1.531619e-001 -2.336495e-001 -1.359823e-001 2.764504e-001 1.330085e-001 -3.706868e-002 2.143532e-001 2.741321e-001 1.223517e-001 -1.773511e-001 -1.357896e-001 -3.907396e-002
<VARIANCE> 39
 1.272512e+001 2.098874e+001 4.168319e+001 4.496443e+001 5.354499e+001 5.599180e+001 4.595405e+001 3.592596e+001 7.148973e+001 2.375331e+001 2.967157e+001 3.323465e+001 9.749608e+000 4.029177e-001 7.516875e-001 1.004246e+000 9.077200e-001 1.060904e+000 8.982120e-001 2.196292e+000 1.593337e+000 2.133765e+000 1.293627e+000 1.867951e+000 1.199064e+000 2.470465e-001 5.484173e-002 8.960015e-002 1.538244e-001 1.578764e-001 2.059442e-001 2.253762e-001 3.781691e-001 3.372131e-001 3.131408e-001 2.262312e-001 3.771554e-001 2.364668e-001 2.502097e-002
<GCONST> 9.424919e+001
<STATE> 4
<MEAN> 39
 -7.036664e+000 9.683146e+000 9.298953e+000 4.247786e+000 -7.754920e+000 -1.038118e+001 4.553221e-001 -8.161248e+000 -4.764193e+000 -2.060402e+000 -2.669481e+000 -1.780975e+000 6.199161e+001 -3.265078e-001 -7.763087e-002 -2.061677e-001 6.308330e-002 6.949244e-001 7.919486e-001 2.849478e-001 1.879087e-001 1.554314e-001 9.248842e-002 1.298544e-001 5.565456e-002 -9.807054e-001 1.449643e-002 -1.536829e-001 -1.205194e-001 -6.855663e-002 7.072343e-003 -3.530018e-003 -6.109399e-002 1.111450e-001 1.207467e-001 2.458865e-002 3.816533e-002 7.772088e-002 3.597182e-002
<VARIANCE> 39
 2.592883e+001 2.985747e+001 4.084753e+001 2.691985e+001 6.800856e+001 5.239421e+001 5.345546e+001 3.544762e+001 5.498491e+001 3.846001e+001 3.575271e+001 2.808369e+001 2.397255e+001 4.371276e-001 7.909588e-001 9.118140e-001 8.808364e-001 1.390920e+000 1.219723e+000 1.504914e+000 1.880639e+000 1.718867e+000 1.449518e+000 1.694535e+000 1.293058e+000 2.130956e-001 6.908034e-002 9.724490e-002 1.380518e-001 1.758550e-001 2.236678e-001 1.780595e-001 2.459140e-001 3.156035e-001 2.810723e-001 2.264665e-001 3.075910e-001 2.692083e-001 2.113290e-002
<GCONST> 9.563847e+001
<TRANSP> 5
 0.000000e+000 1.000000e+000 0.000000e+000 0.000000e+000 0.000000e+000
 0.000000e+000 8.053197e-001 1.946803e-001 0.000000e+000 0.000000e+000
 0.000000e+000 0.000000e+000 8.031957e-001 1.968044e-001 0.000000e+000
 0.000000e+000 0.000000e+000 0.000000e+000 9.100202e-001 8.997981e-002
 0.000000e+000 0.000000e+000 0.000000e+000 0.000000e+000 0.000000e+000
<ENDHMM>
~h "ao"
<BEGINHMM>
<NUMSTATES> 5
<STATE> 2
<MEAN> 39
 2.001210e+000 -3.916958e+000 -8.256531e+000 -1.599976e+001 -1.283740e+001 -7.453426e-001 7.467984e+000 1.401142e+000 -4.176817e+000 -6.078887e+000 -6.243655e+000 -3.183875e+000 7.590079e+001 3.648769e-001 4.364696e-001 1.572099e-001 -4.363268e-001 -7.293477e-001 1.081794e-001 -2.518079e-001 -2.157444e-001 2.523723e-001 3.199478e-001 -2.052938e-001 -2.610079e-003 -5.774117e-001 5.205000e-002 1.834649e-001 4.965259e-002 1.207858e-002 -2.016670e-002 -5.768207e-002 -6.245418e-002 -4.988172e-002 2.551332e-002 1.325085e-001 -2.378421e-002 -6.565597e-002 -1.279561e-001
<VARIANCE> 39
 1.857977e+001 2.978619e+001 2.318591e+001 2.152933e+001 9.352217e+001 5.524711e+001 4.633204e+001 8.361810e+001 4.642107e+001 4.148156e+001 3.088309e+001 3.746395e+001 2.561743e+001 6.752724e-001 8.793355e-001 5.168216e-001 7.823749e-001 1.613684e+000 1.707119e+000 1.296525e+000 1.768788e+000 2.106886e+000 2.538147e+000 1.622621e+000 1.896554e+000 9.095867e-001 1.320155e-001 9.499672e-002 1.007712e-001 1.540772e-001 3.520906e-001 3.349723e-001 1.853557e-001 3.204740e-001 4.088172e-001 3.526525e-001 2.772943e-001 2.996757e-001 8.156276e-002
<GCONST> 1.015650e+002
<STATE> 3
<MEAN> 39
 6.010303e+000 2.140879e+000 -6.501234e+000 -1.888822e+001 -1.681016e+001 1.987838e+000 6.454852e+000 -2.680832e+000 -8.381156e-001 3.748722e-001 -7.517897e+000 -1.553386e+000 7.050135e+001 3.227132e-002 7.037753e-001 2.822355e-001 4.220169e-003 -3.783881e-001 -5.925314e-001 -1.833502e-001 2.108341e-001 1.140431e-001 1.182425e-001 -6.105849e-003 -8.232107e-002 -4.793659e-001 -4.099178e-002 5.511171e-002 2.057170e-002 5.380002e-002 6.600085e-002 -5.455117e-002 -5.873927e-002 1.069537e-003 3.341280e-002 -4.533775e-002 1.375959e-002 1.042758e-003 -2.795490e-002
<VARIANCE> 39
 6.153540e+000 3.030545e+001 3.577018e+001 2.525682e+001 8.196226e+001 6.546156e+001 2.837096e+001 7.945860e+001 8.076156e+001 4.155669e+001 2.251071e+001 3.126754e+001 1.948106e+001 1.341235e-001 6.305440e-001 5.075341e-001 5.049307e-001 9.415702e-001 1.357372e+000 1.353015e+000 1.305761e+000 1.331328e+000 1.214934e+000 9.011956e-001 8.775412e-001 2.528987e-001 2.656519e-002 7.700544e-002 7.729620e-002 6.530599e-002 1.943427e-001 2.017748e-001 1.991356e-001 2.171341e-001 2.240144e-001 2.177913e-001 1.575360e-001 1.841784e-001 2.527509e-002
<GCONST> 8.542020e+001
<STATE> 4
<MEAN> 39
 2.667707e+000 1.093542e+001 -1.964753e+000 -1.338371e+001 -1.499532e+001 -5.402609e+000 2.510331e+000 4.096391e-001 9.652096e-002 5.089246e-002 -5.031358e+000 -3.078673e+000 6.144942e+001 -5.281619e-001 1.320538e-001 2.087478e-001 8.272468e-001 7.343323e-001 -8.437701e-002 -3.060030e-001 1.185289e-001 1.632292e-001 -3.876803e-003 2.724749e-001 2.180591e-001 -7.811304e-001 -5.907541e-002 -1.415680e-001 -2.367584e-002 6.551134e-002 9.689268e-002 8.443470e-002 4.334846e-002 9.950778e-003 5.853362e-003 3.694492e-002 6.937605e-002 4.929670e-002 1.129744e-002
<VARIANCE> 39
 1.344418e+001 1.897591e+001 2.734538e+001 3.019520e+001 5.865640e+001 4.343250e+001 4.948021e+001 3.151297e+001 4.308088e+001 3.712358e+001 2.616866e+001 2.291625e+001 3.598681e+001 3.669233e-001 7.211918e-001 6.197894e-001 1.141606e+000 1.509916e+000 1.415467e+000 1.096933e+000 1.636068e+000 1.884304e+000 1.599523e+000 1.428285e+000 1.421297e+000 2.470800e-001 4.915865e-002 8.517938e-002 1.044565e-001 1.741004e-001 1.854405e-001 2.122291e-001 1.905034e-001 2.621942e-001 3.266274e-001 3.064356e-001 2.371582e-001 2.554771e-001 2.787640e-002
<GCONST> 9.216915e+001
<TRANSP> 5
 0.000000e+000 1.000000e+000 0.000000e+000 0.000000e+000 0.000000e+000
 0.000000e+000 7.856702e-001 2.143298e-001 0.000000e+000 0.000000e+000
 0.000000e+000 0.000000e+000 8.962291e-001 1.037709e-001 0.000000e+000
 0.000000e+000 0.000000e+000 0.000000e+000 9.277179e-001 7.228217e-002
 0.000000e+000 0.000000e+000 0.000000e+000 0.000000e+000 0.000000e+000
<ENDHMM>
~h "au"
<BEGINHMM>
<NUMSTATES> 5
<STATE> 2
<MEAN> 39
 3.073797e+000 -1.312500e+000 -7.589644e+000 -1.180867e+001 -9.096853e+000 -4.741924e+000 -1.768627e+000 -4.201122e+000 3.497759e-001 4.031176e+000 2.752250e-001 -4.892040e+000 7.484218e+001 2.295214e-001 7.258530e-001 2.481308e-001 4.984987e-001 -3.175418e-001 -6.235237e-001 -6.789020e-001 -9.173396e-001 -2.020120e-001 2.477388e-002 7.025622e-001 4.777702e-001 -5.037999e-001 2.543715e-002 1.323979e-001 1.198119e-002 7.432141e-002 7.905802e-002 4.764335e-002 7.522304e-002 -1.095559e-001 -1.397658e-001 -1.696848e-001 -2.916138e-002 9.135477e-002 -1.011042e-001
<VARIANCE> 39
 7.262303e+000 3.159407e+001 3.191289e+001 3.916610e+001 5.352869e+001 1.197368e+002 6.392051e+001 4.077441e+001 6.290494e+001 4.467348e+001 4.955995e+001 5.677297e+001 1.396198e+001 2.618469e-001 8.136744e-001 5.013228e-001 8.072020e-001 1.247762e+000 1.564483e+000 1.275142e+000 2.113510e+000 1.986750e+000 1.864705e+000 1.411311e+000 1.658258e+000 2.531653e-001 3.307968e-002 8.191539e-002 8.737328e-002 1.231493e-001 1.777241e-001 2.578931e-001 2.486833e-001 2.776742e-001 3.234054e-001 3.129191e-001 2.558875e-001 2.476584e-001 2.220201e-002
<GCONST> 9.433471e+001
<STATE> 3
<MEAN> 39
 5.468338e+000 5.651680e+000 -4.554238e+000 -8.256374e+000 -1.060170e+001 -7.609932e+000 -6.053731e+000 -1.320237e+001 -5.206810e+000 4.861342e-001 2.492238e+000 -8.414196e-001 6.897089e+001 6.322369e-002 1.236452e+000 5.064170e-001 3.679310e-001 2.807122e-001 9.271696e-002 -1.559320e-001 -3.358116e-001 -1.081309e+000 -9.395595e-001 -4.017424e-001 2.366425e-001 -9.827125e-001 -8.974510e-002 -1.918404e-002 3.623259e-002 -3.453676e-002 4.956259e-002 1.067345e-001 8.767686e-002 2.664065e-001 7.436516e-002 -1.332916e-002 -1.828569e-001 -1.398167e-001 -2.983380e-002
<VARIANCE> 39
 5.723577e+000 2.894005e+001 2.387643e+001 4.215476e+001 5.977338e+001 8.093342e+001 5.888270e+001 5.884141e+001 1.054255e+002 3.536339e+001 2.748628e+001 4.246611e+001 1.155588e+001 2.149465e-001 8.495750e-001 6.406072e-001 1.041663e+000 1.202711e+000 1.643886e+000 1.630778e+000 1.742849e+000 1.689907e+000 1.757392e+000 1.857921e+000 1.577347e+000 2.701703e-001 3.385789e-002 7.575607e-002 1.067602e-001 1.659484e-001 2.096860e-001 1.834260e-001 2.598625e-001 2.772214e-001 3.254132e-001 2.353915e-001 2.622164e-001 2.339220e-001 1.781247e-002
<GCONST> 9.326936e+001
<STATE> 4
<MEAN> 39
 1.440410e+000 1.309105e+001 9.865519e-002 -3.682786e+000 -6.156750e+000 -4.152583e+000 -2.731443e+000 -8.566760e+000 -6.470230e+000 -5.757801e+000 -2.697302e+000 -1.380491e+000 6.031715e+001 -5.661021e-001 -3.677398e-002 2.779177e-001 5.203210e-001 6.563337e-001 2.197161e-001 2.191505e-001 5.689219e-001 3.357248e-001 -1.262971e-001 -2.713885e-001 -1.970267e-002 -7.764168e-001 -6.239408e-002 -1.905047e-001 -4.755897e-002 7.503804e-003 4.040945e-002 3.692754e-003 -7.446457e-003 4.021687e-002 9.667435e-002 1.318690e-001 1.056547e-001 6.734143e-002 3.533005e-002
<VARIANCE> 39
 1.024594e+001 2.832046e+001 1.550240e+001 2.241066e+001 3.454960e+001 3.647806e+001 4.214700e+001 3.471637e+001 5.443935e+001 3.875923e+001 3.713285e+001 3.056008e+001 2.537217e+001 3.299769e-001 8.459165e-001 6.464677e-001 9.501436e-001 1.115283e+000 1.447734e+000 1.806472e+000 1.580995e+000 1.836102e+000 1.813098e+000 1.622762e+000 1.611042e+000 2.668880e-001 3.722572e-002 9.585444e-002 1.157801e-001 1.480518e-001 1.777190e-001 2.279883e-001 2.989918e-001 2.662386e-001 2.937918e-001 3.227244e-001 2.894405e-001 2.595057e-001 2.431554e-002
<GCONST> 9.205595e+001
<TRANSP> 5
 0.000000e+000 1.000000e+000 0.000000e+000 0.000000e+000 0.000000e+000
 0.000000e+000 8.550237e-001 1.449763e-001 0.000000e+000 0.000000e+000
 0.000000e+000 0.000000e+000 8.492404e-001 1.507597e-001 0.000000e+000
 0.000000e+000 0.000000e+000 0.000000e+000 9.181158e-001 8.188424e-002
 0.000000e+000 0.000000e+000 0.000000e+000 0.000000e+000 0.000000e+000
<ENDHMM>
~h "ea"
<BEGINHMM>
<NUMSTATES> 5
<STATE> 2
<MEAN> 39
 -2.224326e+000 3.869608e+000 9.542428e-001 -3.458138e+000 -7.921994e+000 -6.621119e+000 -5.920139e-001 -4.034312e+000 -2.100028e+000 -1.666080e+000 -2.079659e+000 -1.246666e+000 6.588331e+001 2.274543e-002 1.479582e-002 1.370627e-002 5.975570e-003 -3.661323e-002 -5.320187e-002 -9.133484e-003 -1.730699e-002 -1.653184e-002 -1.525151e-002 -5.346208e-003 -9.812288e-003 -8.149792e-003 -5.211601e-003 8.047853e-003 -1.524321e-003 6.729801e-003 1.349869e-002 1.418732e-002 3.674627e-003 3.888939e-003 5.550982e-003 6.958154e-003 2.882549e-003 3.265106e-003 -2.764040e-002
<VARIANCE> 39
 3.740973e+001 5.313155e+001 6.812322e+001 7.659717e+001 8.296675e+001 1.014055e+002 5.983440e+001 6.302224e+001 6.048460e+001 4.457723e+001 3.898028e+001 3.780531e+001 7.723595e+001 1.302501e+000 1.750577e+000 1.578707e+000 2.198211e+000 2.607947e+000 2.777526e+000 2.401972e+000 2.521378e+000 2.600509e+000 2.285602e+000 2.060752e+000 1.744259e+000 2.146788e+000 1.843455e-001 2.617738e-001 2.252331e-001 3.039368e-001 3.743387e-001 4.005016e-001 4.053887e-001 4.049863e-001 4.323907e-001 3.924566e-001 3.604958e-001 3.066924e-001 2.188757e-001
<GCONST> 1.194094e+002
<STATE> 3
<MEAN> 39
 -2.224326e+000 3.869608e+000 9.542428e-001 -3.458138e+000 -7.921994e+000 -6.621119e+000 -5.920139e-001 -4.034312e+000 -2.100028e+000 -1.666080e+000 -2.079659e+000 -1.246666e+000 6.588331e+001 2.274543e-002 1.479582e-002 1.370627e-002 5.975570e-003 -3.661323e-002 -5.320187e-002 -9.133484e-003 -1.730699e-002 -1.653184e-002 -1.525151e-002 -5.346208e-003 -9.812288e-003 -8.149792e-003 -5.211601e-003 8.047853e-003 -1.524321e-003 6.729801e-003 1.349869e-002 1.418732e-002 3.674627e-003 3.888939e-003 5.550982e-003 6.958154e-003 2.882549e-003 3.265106e-003 -2.764040e-002
<VARIANCE> 39
 3.740973e+001 5.313155e+001 6.812322e+001 7.659717e+001 8.296675e+001 1.014055e+002 5.983440e+001 6.302224e+001 6.048460e+001 4.457723e+001 3.898028e+001 3.780531e+001 7.723595e+001 1.302501e+000 1.750577e+000 1.578707e+000 2.198211e+000 2.607947e+000 2.777526e+000 2.401972e+000 2.521378e+000 2.600509e+000 2.285602e+000 2.060752e+000 1.744259e+000 2.146788e+000 1.843455e-001 2.617738e-001 2.252331e-001 3.039368e-001 3.743387e-001 4.005016e-001 4.053887e-001 4.049863e-001 4.323907e-001 3.924566e-001 3.604958e-001 3.066924e-001 2.188757e-001
<GCONST> 1.194094e+002
<STATE> 4
<MEAN> 39
 -2.224326e+000 3.869608e+000 9.542428e-001 -3.458138e+000 -7.921994e+000 -6.621119e+000 -5.920139e-001 -4.034312e+000 -2.100028e+000 -1.666080e+000 -2.079659e+000 -1.246666e+000 6.588331e+001 2.274543e-002 1.479582e-002 1.370627e-002 5.975570e-003 -3.661323e-002 -5.320187e-002 -9.133484e-003 -1.730699e-002 -1.653184e-002 -1.525151e-002 -5.346208e-003 -9.812288e-003 -8.149792e-003 -5.211601e-003 8.047853e-003 -1.524321e-003 6.729801e-003 1.349869e-002 1.418732e-002 3.674627e-003 3.888939e-003 5.550982e-003 6.958154e-003 2.882549e-003 3.265106e-003 -2.764040e-002
<VARIANCE> 39
 3.740973e+001 5.313155e+001 6.812322e+001 7.659717e+001 8.296675e+001 1.014055e+002 5.983440e+001 6.302224e+001 6.048460e+001 4.457723e+001 3.898028e+001 3.780531e+001 7.723595e+001 1.302501e+000 1.750577e+000 1.578707e+000 2.198211e+000 2.607947e+000 2.777526e+000 2.401972e+000 2.521378e+000 2.600509e+000 2.285602e+000 2.060752e+000 1.744259e+000 2.146788e+000 1.843455e-001 2.617738e-001 2.252331e-001 3.039368e-001 3.743387e-001 4.005016e-001 4.053887e-001 4.049863e-001 4.323907e-001 3.924566e-001 3.604958e-001 3.066924e-001 2.188757e-001
<GCONST> 1.194094e+002
<TRANSP> 5
 0.000000e+000 1.000000e+000 0.000000e+000 0.000000e+000 0.000000e+000
 0.000000e+000 6.000000e-001 4.000000e-001 0.000000e+000 0.000000e+000
 0.000000e+000 0.000000e+000 6.000000e-001 4.000000e-001 0.000000e+000
 0.000000e+000 0.000000e+000 0.000000e+000 7.000000e-001 3.000000e-001
 0.000000e+000 0.000000e+000 0.000000e+000 0.000000e+000 0.000000e+000
<ENDHMM>
~h "ee"
<BEGINHMM>
<NUMSTATES> 5
<STATE> 2
<MEAN> 39
 -2.395516e+000 5.252947e-001 8.609031e+000 -1.737874e+000 -2.081752e+001 -1.863449e+001 -4.298386e+000 -7.851987e+000 -7.154982e+000 -4.038689e+000 6.208410e-001 -1.041535e+000 7.518874e+001 -7.638458e-003 -4.862125e-003 2.179050e-002 -4.156725e-002 6.204826e-002 -3.870027e-002 -1.222979e-002 6.563362e-002 8.186583e-003 5.981061e-003 2.650771e-003 -3.802446e-003 -1.395578e-001 7.282843e-003 2.493684e-002 -1.906866e-002 2.084290e-002 4.768469e-002 3.566991e-002 4.327181e-003 8.568875e-003 2.363611e-002 -1.367450e-002 -1.156823e-002 -1.363094e-003 -3.488012e-002
<VARIANCE> 39
 4.988143e+000 3.095457e+001 4.804412e+001 4.490233e+001 4.523210e+001 5.609180e+001 3.770648e+001 4.025378e+001 2.792119e+001 3.995494e+001 4.683631e+001 7.458495e+001 1.230255e+001 9.569731e-002 2.926012e-001 3.070851e-001 5.518298e-001 7.832353e-001 7.043329e-001 7.070981e-001 6.357310e-001 7.592899e-001 7.039628e-001 6.957980e-001 5.436651e-001 1.050286e-001 1.773061e-002 4.837362e-002 5.858493e-002 1.035352e-001 1.364515e-001 1.412733e-001 1.362650e-001 1.155859e-001 1.460758e-001 1.403662e-001 1.272758e-001 1.035013e-001 1.904967e-002
<GCONST> 7.420212e+001
<STATE> 3
<MEAN> 39
 -9.965900e-001 2.337819e+000 8.039095e+000 7.451652e-001 -1.732510e+001 -2.112903e+001 -5.465328e+000 -4.589511e+000 -3.362676e+000 -5.193204e+000 -1.871863e+000 1.032854e+000 7.118728e+001 4.169798e-002 2.074430e-001 -1.806161e-001 3.672914e-002 2.977922e-001 8.008705e-002 1.209847e-001 2.676464e-001 2.715195e-001 -1.019841e-001 -2.341376e-001 -1.044459e-001 -5.284536e-001 -1.152247e-002 3.110550e-002 -3.765700e-003 4.743176e-002 1.171114e-001 7.696403e-002 3.737951e-002 5.527160e-002 -8.474035e-003 3.236877e-002 -6.927577e-002 -4.659909e-002 -7.791955e-002
<VARIANCE> 39
 1.114293e+001 2.494168e+001 2.139244e+001 3.424466e+001 9.773392e+001 5.103768e+001 2.385414e+001 4.358965e+001 5.912476e+001 2.839891e+001 4.976102e+001 3.738864e+001 1.134873e+001 2.079448e-001 5.112051e-001 6.049352e-001 9.984451e-001 1.387387e+000 8.318091e-001 1.729464e+000 1.230374e+000 1.570613e+000 1.373235e+000 1.263498e+000 1.000326e+000 1.824262e-001 3.291830e-002 8.722768e-002 9.469336e-002 1.676849e-001 2.385674e-001 1.811344e-001 2.869520e-001 2.440115e-001 3.017038e-001 2.305834e-001 2.371595e-001 2.066174e-001 2.634174e-002
<GCONST> 8.908632e+001
<STATE> 4
<MEAN> 39
 -2.793434e+000 2.736439e+000 6.654449e+000 1.845104e+000 -1.117621e+001 -1.492129e+001 -3.946398e+000 -1.497873e+000 -1.959359e+000 -3.128744e+000 -3.412750e+000 1.871716e-002 6.432847e+001 -2.673821e-001 1.144054e-001 -4.450857e-001 1.975631e-001 9.952073e-001 7.690768e-001 2.871413e-001 3.033868e-001 3.454513e-001 4.005806e-001 6.613605e-002 1.505174e-001 -1.083136e+000 -4.610502e-002 -1.597717e-002 -6.448707e-002 -1.484366e-003 9.382232e-002 7.342180e-002 2.181660e-002 -1.635994e-002 -3.068147e-002 6.995654e-002 1.222096e-001 4.754022e-002 -3.458410e-002
<VARIANCE> 39
 1.346406e+001 2.325349e+001 2.092323e+001 2.588491e+001 6.393092e+001 6.502435e+001 4.515178e+001 3.859214e+001 5.004214e+001 3.561710e+001 4.969669e+001 5.889155e+001 2.364054e+001 4.026450e-001 9.270906e-001 7.210617e-001 1.179247e+000 1.493278e+000 1.630712e+000 1.709229e+000 2.631561e+000 2.636159e+000 1.786326e+000 2.208430e+000 1.584313e+000 5.461888e-001 6.275883e-002 1.444403e-001 1.118778e-001 1.919208e-001 2.621175e-001 2.671311e-001 3.092812e-001 4.606917e-001 5.148070e-001 3.091449e-001 3.517906e-001 2.965483e-001 5.470862e-002
<GCONST> 1.014315e+002
<TRANSP> 5
 0.000000e+000 1.000000e+000 0.000000e+000 0.000000e+000 0.000000e+000
 0.000000e+000 9.346567e-001 6.534336e-002 0.000000e+000 0.000000e+000
 0.000000e+000 0.000000e+000 8.383810e-001 1.616191e-001 0.000000e+000
 0.000000e+000 0.000000e+000 0.000000e+000 8.716616e-001 1.283384e-001
 0.000000e+000 0.000000e+000 0.000000e+000 0.000000e+000 0.000000e+000
<ENDHMM>
~h "ei"
<BEGINHMM>
<NUMSTATES> 5
<STATE> 2
<MEAN> 39
 -1.432421e+000 -1.410217e+000 4.846407e+000 -2.775394e+000 -1.523876e+001 -2.140992e+001 -3.425182e+000 -1.547080e+000 -2.366955e+000 -3.999977e+000 1.141508e-001 -8.994832e-001 7.594730e+001 -5.313633e-002 4.518818e-001 5.057177e-001 2.012137e-001 -2.208935e-001 -1.055155e-001 -8.245793e-003 -6.591129e-001 -7.069607e-001 -4.719368e-002 3.089592e-001 5.532295e-002 -3.237765e-001 -6.283186e-003 7.898273e-002 -2.707427e-004 5.578114e-002 5.415518e-002 8.621486e-002 -4.307627e-003 -4.099596e-002 -4.596267e-002 -9.318841e-004 -6.293923e-002 -3.377260e-002 -6.337620e-002
<VARIANCE> 39
 4.616423e+000 2.350889e+001 3.541553e+001 5.107110e+001 5.034745e+001 6.772412e+001 5.048416e+001 4.709467e+001 4.534729e+001 4.448061e+001 3.246601e+001 3.941023e+001 9.933293e+000 1.393966e-001 3.393252e-001 5.177308e-001 6.523985e-001 7.151195e-001 9.023170e-001 9.101655e-001 1.215206e+000 9.322021e-001 1.382985e+000 1.002220e+000 9.437090e-001 1.964480e-001 2.278133e-002 5.551146e-002 9.202829e-002 1.069578e-001 1.312886e-001 1.240082e-001 1.808867e-001 2.016893e-001 1.615811e-001 1.951007e-001 1.731595e-001 1.666716e-001 2.562223e-002
<GCONST> 8.154013e+001
<STATE> 3
<MEAN> 39
 -2.476546e+000 4.644729e+000 1.172881e+001 7.430590e-001 -1.734333e+001 -1.656540e+001 -2.116695e+000 -8.517485e+000 -8.902658e+000 -3.277531e+000 -2.555663e-001 -1.208537e+000 7.018253e+001 -1.300217e-001 6.732869e-001 3.612446e-001 2.354286e-001 3.292919e-001 5.219588e-001 2.543575e-001 -2.365183e-001 -2.916104e-001 -8.613189e-002 -3.416607e-001 -3.548191e-001 -6.590670e-001 -1.735223e-002 -2.047055e-002 -3.187869e-002 4.629273e-003 8.923260e-002 5.113114e-002 -1.358241e-003 3.447402e-002 7.139339e-002 -1.270490e-002 -2.629284e-002 1.994276e-002 -2.114784e-002
<VARIANCE> 39
 4.536222e+000 2.286919e+001 2.644421e+001 4.630577e+001 6.886439e+001 7.750015e+001 2.642043e+001 4.085317e+001 4.977013e+001 4.334903e+001 3.698870e+001 3.974002e+001 1.025872e+001 1.187889e-001 4.059568e-001 6.121317e-001 9.031332e-001 1.014247e+000 1.100806e+000 1.016486e+000 1.240020e+000 8.601313e-001 7.832630e-001 7.551289e-001 8.925256e-001 1.519644e-001 2.167564e-002 4.302848e-002 9.909300e-002 1.350447e-001 1.803262e-001 1.879360e-001 1.857264e-001 2.430963e-001 1.573805e-001 1.548006e-001 1.458771e-001 1.649877e-001 1.395550e-002
<GCONST> 8.084996e+001
<STATE> 4
<MEAN> 39
 -5.623694e+000 9.886747e+000 1.294146e+001 4.763564e+000 -1.172221e+001 -8.907071e+000 8.252290e-001 -9.831042e+000 -7.322107e+000 -4.505704e+000 -2.934604e+000 -2.555495e+000 6.255971e+001 -2.891484e-001 -7.135571e-002 -4.212600e-001 2.237370e-001 1.015097e+000 8.263561e-001 2.407854e-001 2.387381e-001 8.021960e-002 2.651905e-001 -1.273660e-002 3.440603e-002 -9.207416e-001 -2.440432e-002 -1.549545e-001 -1.555289e-001 -6.981635e-002 5.180362e-002 2.487528e-002 2.661583e-002 1.446332e-001 8.809060e-002 9.249651e-002 8.403081e-002 5.818499e-002 -1.641563e-002
<VARIANCE> 39
 1.213589e+001 2.964807e+001 3.872833e+001 1.952087e+001 7.989613e+001 5.662770e+001 3.703035e+001 3.983081e+001 5.319878e+001 3.795105e+001 2.582669e+001 3.984870e+001 2.607824e+001 2.560621e-001 9.075882e-001 9.357657e-001 8.281310e-001 1.583238e+000 1.583752e+000 1.838857e+000 2.021853e+000 1.835046e+000 1.762178e+000 1.530137e+000 1.335539e+000 3.445739e-001 4.707180e-002 1.152644e-001 1.163642e-001 1.280382e-001 2.580228e-001 3.125650e-001 3.587129e-001 3.181518e-001 2.891375e-001 2.820933e-001 2.593780e-001 2.245316e-001 4.322747e-002
<GCONST> 9.645136e+001
<TRANSP> 5
 0.000000e+000 1.000000e+000 0.000000e+000 0.000000e+000 0.000000e+000
 0.000000e+000 8.889225e-001 1.110776e-001 0.000000e+000 0.000000e+000
 0.000000e+000 0.000000e+000 8.847865e-001 1.152135e-001 0.000000e+000
 0.000000e+000 0.000000e+000 0.000000e+000 9.041528e-001 9.584716e-002
 0.000000e+000 0.000000e+000 0.000000e+000 0.000000e+000 0.000000e+000
<ENDHMM>
~h "eo"
<BEGINHMM>
<NUMSTATES> 5
<STATE> 2
<MEAN> 39
 -2.224326e+000 3.869608e+000 9.542428e-001 -3.458138e+000 -7.921994e+000 -6.621119e+000 -5.920139e-001 -4.034312e+000 -2.100028e+000 -1.666080e+000 -2.079659e+000 -1.246666e+000 6.588331e+001 2.274543e-002 1.479582e-002 1.370627e-002 5.975570e-003 -3.661323e-002 -5.320187e-002 -9.133484e-003 -1.730699e-002 -1.653184e-002 -1.525151e-002 -5.346208e-003 -9.812288e-003 -8.149792e-003 -5.211601e-003 8.047853e-003 -1.524321e-003 6.729801e-003 1.349869e-002 1.418732e-002 3.674627e-003 3.888939e-003 5.550982e-003 6.958154e-003 2.882549e-003 3.265106e-003 -2.764040e-002
<VARIANCE> 39
 3.740973e+001 5.313155e+001 6.812322e+001 7.659717e+001 8.296675e+001 1.014055e+002 5.983440e+001 6.302224e+001 6.048460e+001 4.457723e+001 3.898028e+001 3.780531e+001 7.723595e+001 1.302501e+000 1.750577e+000 1.578707e+000 2.198211e+000 2.607947e+000 2.777526e+000 2.401972e+000 2.521378e+000 2.600509e+000 2.285602e+000 2.060752e+000 1.744259e+000 2.146788e+000 1.843455e-001 2.617738e-001 2.252331e-001 3.039368e-001 3.743387e-001 4.005016e-001 4.053887e-001 4.049863e-001 4.323907e-001 3.924566e-001 3.604958e-001 3.066924e-001 2.188757e-001
<GCONST> 1.194094e+002
<STATE> 3
<MEAN> 39
 -2.224326e+000 3.869608e+000 9.542428e-001 -3.458138e+000 -7.921994e+000 -6.621119e+000 -5.920139e-001 -4.034312e+000 -2.100028e+000 -1.666080e+000 -2.079659e+000 -1.246666e+000 6.588331e+001 2.274543e-002 1.479582e-002 1.370627e-002 5.975570e-003 -3.661323e-002 -5.320187e-002 -9.133484e-003 -1.730699e-002 -1.653184e-002 -1.525151e-002 -5.346208e-003 -9.812288e-003 -8.149792e-003 -5.211601e-003 8.047853e-003 -1.524321e-003 6.729801e-003 1.349869e-002 1.418732e-002 3.674627e-003 3.888939e-003 5.550982e-003 6.958154e-003 2.882549e-003 3.265106e-003 -2.764040e-002
<VARIANCE> 39
 3.740973e+001 5.313155e+001 6.812322e+001 7.659717e+001 8.296675e+001 1.014055e+002 5.983440e+001 6.302224e+001 6.048460e+001 4.457723e+001 3.898028e+001 3.780531e+001 7.723595e+001 1.302501e+000 1.750577e+000 1.578707e+000 2.198211e+000 2.607947e+000 2.777526e+000 2.401972e+000 2.521378e+000 2.600509e+000 2.285602e+000 2.060752e+000 1.744259e+000 2.146788e+000 1.843455e-001 2.617738e-001 2.252331e-001 3.039368e-001 3.743387e-001 4.005016e-001 4.053887e-001 4.049863e-001 4.323907e-001 3.924566e-001 3.604958e-001 3.066924e-001 2.188757e-001
<GCONST> 1.194094e+002
<STATE> 4
<MEAN> 39
 -2.224326e+000 3.869608e+000 9.542428e-001 -3.458138e+000 -7.921994e+000 -6.621119e+000 -5.920139e-001 -4.034312e+000 -2.100028e+000 -1.666080e+000 -2.079659e+000 -1.246666e+000 6.588331e+001 2.274543e-002 1.479582e-002 1.370627e-002 5.975570e-003 -3.661323e-002 -5.320187e-002 -9.133484e-003 -1.730699e-002 -1.653184e-002 -1.525151e-002 -5.346208e-003 -9.812288e-003 -8.149792e-003 -5.211601e-003 8.047853e-003 -1.524321e-003 6.729801e-003 1.349869e-002 1.418732e-002 3.674627e-003 3.888939e-003 5.550982e-003 6.958154e-003 2.882549e-003 3.265106e-003 -2.764040e-002
<VARIANCE> 39
 3.740973e+001 5.313155e+001 6.812322e+001 7.659717e+001 8.296675e+001 1.014055e+002 5.983440e+001 6.302224e+001 6.048460e+001 4.457723e+001 3.898028e+001 3.780531e+001 7.723595e+001 1.302501e+000 1.750577e+000 1.578707e+000 2.198211e+000 2.607947e+000 2.777526e+000 2.401972e+000 2.521378e+000 2.600509e+000 2.285602e+000 2.060752e+000 1.744259e+000 2.146788e+000 1.843455e-001 2.617738e-001 2.252331e-001 3.039368e-001 3.743387e-001 4.005016e-001 4.053887e-001 4.049863e-001 4.323907e-001 3.924566e-001 3.604958e-001 3.066924e-001 2.188757e-001
<GCONST> 1.194094e+002
<TRANSP> 5
 0.000000e+000 1.000000e+000 0.000000e+000 0.000000e+000 0.000000e+000
 0.000000e+000 6.000000e-001 4.000000e-001 0.000000e+000 0.000000e+000
 0.000000e+000 0.000000e+000 6.000000e-001 4.000000e-001 0.000000e+000
 0.000000e+000 0.000000e+000 0.000000e+000 7.000000e-001 3.000000e-001
 0.000000e+000 0.000000e+000 0.000000e+000 0.000000e+000 0.000000e+000
<ENDHMM>
~h "eu"
<BEGINHMM>
<NUMSTATES> 5
<STATE> 2
<MEAN> 39
 -2.224326e+000 3.869608e+000 9.542428e-001 -3.458138e+000 -7.921994e+000 -6.621119e+000 -5.920139e-001 -4.034312e+000 -2.100028e+000 -1.666080e+000 -2.079659e+000 -1.246666e+000 6.588331e+001 2.274543e-002 1.479582e-002 1.370627e-002 5.975570e-003 -3.661323e-002 -5.320187e-002 -9.133484e-003 -1.730699e-002 -1.653184e-002 -1.525151e-002 -5.346208e-003 -9.812288e-003 -8.149792e-003 -5.211601e-003 8.047853e-003 -1.524321e-003 6.729801e-003 1.349869e-002 1.418732e-002 3.674627e-003 3.888939e-003 5.550982e-003 6.958154e-003 2.882549e-003 3.265106e-003 -2.764040e-002
<VARIANCE> 39
 3.740973e+001 5.313155e+001 6.812322e+001 7.659717e+001 8.296675e+001 1.014055e+002 5.983440e+001 6.302224e+001 6.048460e+001 4.457723e+001 3.898028e+001 3.780531e+001 7.723595e+001 1.302501e+000 1.750577e+000 1.578707e+000 2.198211e+000 2.607947e+000 2.777526e+000 2.401972e+000 2.521378e+000 2.600509e+000 2.285602e+000 2.060752e+000 1.744259e+000 2.146788e+000 1.843455e-001 2.617738e-001 2.252331e-001 3.039368e-001 3.743387e-001 4.005016e-001 4.053887e-001 4.049863e-001 4.323907e-001 3.924566e-001 3.604958e-001 3.066924e-001 2.188757e-001
<GCONST> 1.194094e+002
<STATE> 3
<MEAN> 39
 -2.224326e+000 3.869608e+000 9.542428e-001 -3.458138e+000 -7.921994e+000 -6.621119e+000 -5.920139e-001 -4.034312e+000 -2.100028e+000 -1.666080e+000 -2.079659e+000 -1.246666e+000 6.588331e+001 2.274543e-002 1.479582e-002 1.370627e-002 5.975570e-003 -3.661323e-002 -5.320187e-002 -9.133484e-003 -1.730699e-002 -1.653184e-002 -1.525151e-002 -5.346208e-003 -9.812288e-003 -8.149792e-003 -5.211601e-003 8.047853e-003 -1.524321e-003 6.729801e-003 1.349869e-002 1.418732e-002 3.674627e-003 3.888939e-003 5.550982e-003 6.958154e-003 2.882549e-003 3.265106e-003 -2.764040e-002
<VARIANCE> 39
 3.740973e+001 5.313155e+001 6.812322e+001 7.659717e+001 8.296675e+001 1.014055e+002 5.983440e+001 6.302224e+001 6.048460e+001 4.457723e+001 3.898028e+001 3.780531e+001 7.723595e+001 1.302501e+000 1.750577e+000 1.578707e+000 2.198211e+000 2.607947e+000 2.777526e+000 2.401972e+000 2.521378e+000 2.600509e+000 2.285602e+000 2.060752e+000 1.744259e+000 2.146788e+000 1.843455e-001 2.617738e-001 2.252331e-001 3.039368e-001 3.743387e-001 4.005016e-001 4.053887e-001 4.049863e-001 4.323907e-001 3.924566e-001 3.604958e-001 3.066924e-001 2.188757e-001
<GCONST> 1.194094e+002
<STATE> 4
<MEAN> 39
 -2.224326e+000 3.869608e+000 9.542428e-001 -3.458138e+000 -7.921994e+000 -6.621119e+000 -5.920139e-001 -4.034312e+000 -2.100028e+000 -1.666080e+000 -2.079659e+000 -1.246666e+000 6.588331e+001 2.274543e-002 1.479582e-002 1.370627e-002 5.975570e-003 -3.661323e-002 -5.320187e-002 -9.133484e-003 -1.730699e-002 -1.653184e-002 -1.525151e-002 -5.346208e-003 -9.812288e-003 -8.149792e-003 -5.211601e-003 8.047853e-003 -1.524321e-003 6.729801e-003 1.349869e-002 1.418732e-002 3.674627e-003 3.888939e-003 5.550982e-003 6.958154e-003 2.882549e-003 3.265106e-003 -2.764040e-002
<VARIANCE> 39
 3.740973e+001 5.313155e+001 6.812322e+001 7.659717e+001 8.296675e+001 1.014055e+002 5.983440e+001 6.302224e+001 6.048460e+001 4.457723e+001 3.898028e+001 3.780531e+001 7.723595e+001 1.302501e+000 1.750577e+000 1.578707e+000 2.198211e+000 2.607947e+000 2.777526e+000 2.401972e+000 2.521378e+000 2.600509e+000 2.285602e+000 2.060752e+000 1.744259e+000 2.146788e+000 1.843455e-001 2.617738e-001 2.252331e-001 3.039368e-001 3.743387e-001 4.005016e-001 4.053887e-001 4.049863e-001 4.323907e-001 3.924566e-001 3.604958e-001 3.066924e-001 2.188757e-001
<GCONST> 1.194094e+002
<TRANSP> 5
 0.000000e+000 1.000000e+000 0.000000e+000 0.000000e+000 0.000000e+000
 0.000000e+000 6.000000e-001 4.000000e-001 0.000000e+000 0.000000e+000
 0.000000e+000 0.000000e+000 6.000000e-001 4.000000e-001 0.000000e+000
 0.000000e+000 0.000000e+000 0.000000e+000 7.000000e-001 3.000000e-001
 0.000000e+000 0.000000e+000 0.000000e+000 0.000000e+000 0.000000e+000
<ENDHMM>
~h "ia"
<BEGINHMM>
<NUMSTATES> 5
<STATE> 2
<MEAN> 39
 -2.224326e+000 3.869608e+000 9.542428e-001 -3.458138e+000 -7.921994e+000 -6.621119e+000 -5.920139e-001 -4.034312e+000 -2.100028e+000 -1.666080e+000 -2.079659e+000 -1.246666e+000 6.588331e+001 2.274543e-002 1.479582e-002 1.370627e-002 5.975570e-003 -3.661323e-002 -5.320187e-002 -9.133484e-003 -1.730699e-002 -1.653184e-002 -1.525151e-002 -5.346208e-003 -9.812288e-003 -8.149792e-003 -5.211601e-003 8.047853e-003 -1.524321e-003 6.729801e-003 1.349869e-002 1.418732e-002 3.674627e-003 3.888939e-003 5.550982e-003 6.958154e-003 2.882549e-003 3.265106e-003 -2.764040e-002
<VARIANCE> 39
 3.740973e+001 5.313155e+001 6.812322e+001 7.659717e+001 8.296675e+001 1.014055e+002 5.983440e+001 6.302224e+001 6.048460e+001 4.457723e+001 3.898028e+001 3.780531e+001 7.723595e+001 1.302501e+000 1.750577e+000 1.578707e+000 2.198211e+000 2.607947e+000 2.777526e+000 2.401972e+000 2.521378e+000 2.600509e+000 2.285602e+000 2.060752e+000 1.744259e+000 2.146788e+000 1.843455e-001 2.617738e-001 2.252331e-001 3.039368e-001 3.743387e-001 4.005016e-001 4.053887e-001 4.049863e-001 4.323907e-001 3.924566e-001 3.604958e-001 3.066924e-001 2.188757e-001
<GCONST> 1.194094e+002
<STATE> 3
<MEAN> 39
 -2.224326e+000 3.869608e+000 9.542428e-001 -3.458138e+000 -7.921994e+000 -6.621119e+000 -5.920139e-001 -4.034312e+000 -2.100028e+000 -1.666080e+000 -2.079659e+000 -1.246666e+000 6.588331e+001 2.274543e-002 1.479582e-002 1.370627e-002 5.975570e-003 -3.661323e-002 -5.320187e-002 -9.133484e-003 -1.730699e-002 -1.653184e-002 -1.525151e-002 -5.346208e-003 -9.812288e-003 -8.149792e-003 -5.211601e-003 8.047853e-003 -1.524321e-003 6.729801e-003 1.349869e-002 1.418732e-002 3.674627e-003 3.888939e-003 5.550982e-003 6.958154e-003 2.882549e-003 3.265106e-003 -2.764040e-002
<VARIANCE> 39
