~o
<STREAMINFO> 1 39
<VECSIZE> 39<NULLD><MFCC_D_A_0><DIAGC>
~s "silst"
<MEAN> 39
 -1.029926e+01 -8.393695e-01 -3.898048e+00 -3.052469e+00 -4.114380e+00 -4.091777e+00 -1.229524e+00 -1.445197e+00 -4.862775e-01 -1.250667e+00 2.432839e-01 -1.962329e-01 6.029931e+01 -4.768725e-02 -7.195219e-01 -5.349507e-01 -8.462623e-01 -4.220520e-01 -8.444959e-02 1.746149e-01 -9.188829e-02 9.605162e-03 -9.328502e-02 -2.152115e-03 -1.545174e-01 1.345715e+00 1.414318e-01 1.700745e-01 7.441167e-02 -6.846301e-02 -3.406788e-02 6.853519e-02 9.841835e-02 -4.539484e-02 -5.661458e-02 -4.553232e-02 -1.044971e-01 -5.430247e-02 2.388823e-02
<VARIANCE> 39
 1.640762e+01 3.357591e+01 3.343157e+01 3.708295e+01 4.044594e+01 5.628419e+01 4.008868e+01 3.570446e+01 3.447886e+01 3.265569e+01 2.530973e+01 2.391962e+01 5.489034e+01 1.821102e+00 2.858929e+00 2.558317e+00 2.917735e+00 3.827574e+00 3.915456e+00 3.182677e+00 3.136134e+00 2.881942e+00 2.868980e+00 2.433045e+00 1.956065e+00 4.412388e+00 3.103311e-01 5.384583e-01 4.082535e-01 5.453731e-01 6.712599e-01 7.044071e-01 6.600371e-01 6.015339e-01 5.739189e-01 5.488771e-01 4.620986e-01 3.780456e-01 8.133853e-01
<GCONST> 1.233001e+02
~h "a"
<BEGINHMM>
<NUMSTATES> 5
<STATE> 2
<MEAN> 39
 7.980645e-01 -4.105172e+00 -1.002549e+01 -1.060013e+01 -4.598333e+00 -4.109942e+00 -1.654939e+00 -5.992521e+00 2.168291e+00 3.810400e+00 -3.582797e+00 -7.579655e+00 7.304018e+01 -8.116081e-01 1.432933e+00 1.267287e+00 1.717740e+00 4.622245e-01 -1.410832e+00 -1.435189e+00 8.097929e-01 7.582341e-01 7.845572e-01 7.740830e-01 1.690143e-01 -1.360623e+00 -2.030835e-01 6.480060e-01 2.561520e-01 1.588118e-01 -1.137652e-01 1.037626e-01 2.007654e-01 8.065151e-02 -3.917049e-01 -5.287122e-01 1.199315e-01 3.497757e-01 -8.436248e-01
<VARIANCE> 39
 6.828462e+00 2.431645e+01 3.972840e+01 4.234762e+01 4.914318e+01 4.612832e+01 3.901943e+01 4.740479e+01 3.754551e+01 4.989324e+01 7.451213e+01 6.020045e+01 1.694924e+01 7.154222e-01 2.065434e+00 1.277537e+00 2.085439e+00 1.737805e+00 2.187928e+00 2.562362e+00 2.162102e+00 3.012874e+00 2.270268e+00 2.595587e+00 3.005839e+00 1.558211e+00 1.133299e-01 4.655552e-01 2.896882e-01 5.550067e-01 5.400811e-01 6.027496e-01 4.962942e-01 3.654173e-01 6.355132e-01 4.133045e-01 7.714118e-01 5.310301e-01 2.419816e-01
<GCONST> 1.158318e+02
<STATE> 3
<MEAN> 39
 -2.835377e+00 4.841040e-01 -7.318154e+00 -7.807452e+00 -3.915378e+00 -6.404180e+00 -3.885879e+00 -4.467563e+00 2.037903e+00 4.093816e+00 -2.974356e-01 -5.358472e+00 6.461490e+01 -9.641657e-01 3.483841e-01 4.450649e-01 2.767349e-01 1.280521e-01 1.538323e-01 1.100278e-03 6.683125e-01 -2.076122e-01 -3.186864e-01 3.100354e-01 4.121428e-01 -2.166256e+00 4.532956e-02 -2.839015e-01 -2.690333e-01 -2.466011e-01 -9.042406e-02 2.476296e-01 1.765864e-01 -5.783665e-02 -1.232435e-01 -1.890418e-01 -8.681304e-02 6.292299e-02 1.897308e-01
<VARIANCE> 39
 9.982116e+00 1.443882e+01 3.210746e+01 2.201456e+01 3.696790e+01 2.309388e+01 2.264393e+01 2.432815e+01 2.429054e+01 2.797603e+01 3.368032e+01 4.266612e+01 2.735659e+01 8.142662e-01 1.475525e+00 1.602286e+00 1.740559e+00 2.233364e+00 2.320927e+00 2.395023e+00 2.276883e+00 2.320340e+00 1.293348e+00 1.916185e+00 1.685925e+00 1.412359e+00 1.340674e-01 2.235370e-01 2.462231e-01 4.083208e-01 3.233869e-01 3.821980e-01 4.774711e-01 3.199360e-01 4.226578e-01 2.953649e-01 2.532380e-01 3.714317e-01 2.086064e-01
<GCONST> 1.047520e+02
<STATE> 4
<MEAN> 39
 -6.503614e+00 2.113460e+00 -5.122007e+00 -4.785331e+00 -2.152070e+00 -1.793241e+00 -8.603202e-01 -1.524711e+00 3.730696e-01 8.932283e-01 -2.756588e-01 -2.559124e+00 5.920180e+01 -8.327217e-01 8.610300e-02 1.645305e-01 9.236947e-03 1.302058e-01 3.357261e-01 1.852188e-01 2.237726e-01 -5.464092e-02 -4.691960e-01 2.396408e-01 5.841228e-01 -4.203555e-01 -1.878908e-01 -6.884920e-02 3.958885e-02 -1.113324e-01 -6.568582e-02 -3.295051e-02 2.734184e-03 -5.471744e-02 8.204759e-02 -7.140021e-02 -5.090758e-03 -2.570606e-02 4.827131e-01
<VARIANCE> 39
 8.459896e+00 1.279254e+01 1.615983e+01 1.333072e+01 1.708381e+01 1.753130e+01 2.540588e+01 1.516234e+01 2.300108e+01 1.815409e+01 1.594770e+01 1.797249e+01 2.179405e+01 8.143440e-01 9.947789e-01 1.151063e+00 1.196846e+00 1.072564e+00 1.509562e+00 1.681621e+00 1.542727e+00 1.714845e+00 1.486997e+00 1.316472e+00 1.420698e+00 1.377802e+00 1.954903e-01 2.621652e-01 2.768920e-01 1.853421e-01 2.892788e-01 3.175382e-01 3.905342e-01 3.726647e-01 3.266069e-01 2.844141e-01 2.700457e-01 2.602324e-01 1.603159e-01
<GCONST> 9.447395e+01
<TRANSP> 5
 0.000000e+00 1.000000e+00 0.000000e+00 0.000000e+00 0.000000e+00
 0.000000e+00 5.953755e-01 4.046245e-01 0.000000e+00 0.000000e+00
 0.000000e+00 0.000000e+00 7.314784e-01 2.685216e-01 0.000000e+00
 0.000000e+00 0.000000e+00 0.000000e+00 8.020211e-01 1.979790e-01
 0.000000e+00 0.000000e+00 0.000000e+00 0.000000e+00 0.000000e+00
<ENDHMM>
~h "e"
<BEGINHMM>
<NUMSTATES> 5
<STATE> 2
<MEAN> 39
 -5.547598e+00 2.388897e+00 2.004896e+00 1.832323e+00 -1.078998e+01 -1.262949e+01 -3.673919e+00 -4.376815e+00 -4.052232e+00 -2.783560e+00 -1.246372e+00 -6.225358e-01 6.371022e+01 -3.362523e-01 -2.067019e-01 1.745502e-01 1.451071e-01 -2.397560e-01 2.761821e-01 3.825428e-01 5.829176e-01 4.002798e-01 4.830320e-02 -2.978205e-01 2.894960e-01 -3.096468e-01 2.883282e-02 -6.842393e-02 -5.798823e-02 -1.052112e-01 -3.611969e-02 1.534364e-01 4.084846e-02 1.078025e-01 7.407082e-02 1.577486e-02 1.890143e-01 -4.837262e-02 2.967363e-02
<VARIANCE> 39
 1.769322e+01 2.680773e+01 3.752507e+01 3.754208e+01 5.524611e+01 6.011226e+01 4.223373e+01 3.930991e+01 4.453177e+01 3.353951e+01 3.787518e+01 3.046837e+01 3.976004e+01 1.277997e+00 1.326888e+00 2.086981e+00 1.727438e+00 4.249653e+00 2.474790e+00 3.216771e+00 1.936612e+00 3.387689e+00 2.354881e+00 2.596951e+00 2.125549e+00 1.993874e+00 2.314842e-01 2.882014e-01 3.374766e-01 3.262071e-01 6.558543e-01 4.873023e-01 5.591398e-01 3.908608e-01 6.369951e-01 3.101196e-01 3.731390e-01 4.667117e-01 2.876129e-01
<GCONST> 1.169319e+02
<STATE> 3
<MEAN> 39
 -5.018010e+00 1.108385e+00 4.932302e+00 1.009809e+00 -1.526428e+01 -1.581108e+01 -4.422418e+00 -3.390035e+00 -2.253125e+00 -4.410072e+00 -8.195987e-01 9.344762e-01 6.609585e+01 -1.387980e-01 1.388767e-01 -2.160158e-01 2.204610e-01 5.606148e-01 6.491423e-01 3.849233e-01 3.013442e-01 -6.836286e-02 1.709901e-01 3.502277e-01 -1.113902e-01 -9.762853e-01 -3.746345e-02 3.660000e-02 -1.433225e-01 2.612618e-02 4.866421e-01 2.885325e-01 6.292959e-02 -1.008518e-01 5.792662e-02 6.365030e-02 9.859100e-03 -1.016371e-01 -1.902079e-01
<VARIANCE> 39
 1.303855e+01 1.983217e+01 5.014546e+01 4.162013e+01 6.285336e+01 6.793975e+01 6.487116e+01 5.204137e+01 3.326120e+01 3.985071e+01 4.440932e+01 4.101921e+01 3.099370e+01 5.071420e-01 7.931019e-01 9.346076e-01 1.361499e+00 2.787941e+00 3.500526e+00 2.087710e+00 2.270737e+00 1.467521e+00 1.470950e+00 2.059861e+00 1.939866e+00 9.517480e-01 1.127430e-01 1.759056e-01 2.151708e-01 2.890885e-01 3.590681e-01 4.560226e-01 4.951651e-01 3.731366e-01 3.872457e-01 3.443386e-01 4.048881e-01 4.202500e-01 1.293312e-01
<GCONST> 1.087333e+02
<STATE> 4
<MEAN> 39
 -6.739364e+00 -2.783232e-01 7.026205e-01 1.055429e+00 -1.005951e+01 -9.715723e+00 2.041935e+00 -7.282474e-01 -5.239866e-01 -3.354182e+00 -1.269934e+00 -1.622979e+00 6.180458e+01 -2.390603e-01 -1.593706e-01 -3.985955e-01 -1.619554e-01 8.097281e-01 6.236970e-01 3.730620e-02 2.304699e-01 4.394586e-01 4.041043e-01 5.539475e-02 7.220935e-02 -6.474246e-01 -6.065145e-04 -1.439877e-02 -2.907808e-02 -6.541615e-02 4.989335e-02 1.496531e-02 -1.109799e-01 -4.370579e-02 1.508255e-02 3.539483e-02 -1.182275e-02 8.178551e-03 2.425732e-02
<VARIANCE> 39
 1.326645e+01 1.853626e+01 3.273818e+01 2.820260e+01 5.955595e+01 4.497875e+01 4.581806e+01 3.380624e+01 2.675471e+01 3.153713e+01 3.680840e+01 2.832813e+01 3.003899e+01 3.060701e-01 6.206387e-01 7.571682e-01 9.689349e-01 1.638497e+00 1.677272e+00 1.467849e+00 1.707867e+00 1.781080e+00 1.675771e+00 1.770581e+00 1.476297e+00 3.428725e-01 4.164819e-02 9.108381e-02 1.337518e-01 1.359354e-01 2.455193e-01 2.383086e-01 2.164849e-01 2.936423e-01 3.050806e-01 2.757610e-01 3.441003e-01 2.706872e-01 3.906649e-02
<GCONST> 9.401424e+01
<TRANSP> 5
 0.000000e+00 1.000000e+00 0.000000e+00 0.000000e+00 0.000000e+00
 0.000000e+00 5.109448e-01 4.890552e-01 0.000000e+00 0.000000e+00
 0.000000e+00 0.000000e+00 4.009224e-01 5.990776e-01 0.000000e+00
 0.000000e+00 0.000000e+00 0.000000e+00 8.175750e-01 1.824250e-01
 0.000000e+00 0.000000e+00 0.000000e+00 0.000000e+00 0.000000e+00
<ENDHMM>
~h "h"
<BEGINHMM>
<NUMSTATES> 5
<STATE> 2
<MEAN> 39
 -7.624388e+00 -7.327230e-01 -4.709760e+00 -9.556343e+00 -7.443053e+00 -3.852430e+00 4.196908e+00 -1.259419e+00 -5.272979e-01 -2.040809e+00 -2.501637e+00 -2.040220e+00 6.583267e+01 1.756304e+00 1.705694e+00 8.569751e-01 -1.167332e-01 -1.467167e+00 -1.394570e+00 -7.279952e-01 -1.134602e+00 -1.003113e+00 -8.013400e-01 -7.906342e-01 -4.688025e-01 1.268518e+00 3.227659e-01 3.563344e-03 6.350838e-03 -1.486999e-01 -3.922541e-01 -2.825037e-01 -2.979681e-01 -2.058076e-01 -9.459108e-02 -9.832136e-03 8.851117e-02 1.678469e-01 2.004499e-01
<VARIANCE> 39
 3.377317e+01 7.134403e+01 6.533230e+01 7.008991e+01 6.528854e+01 6.286556e+01 4.739538e+01 5.109062e+01 4.648782e+01 3.497484e+01 3.141682e+01 3.244899e+01 2.565948e+01 2.168653e+00 1.827253e+00 1.801350e+00 3.089332e+00 3.852229e+00 2.992138e+00 2.782398e+00 3.196520e+00 2.639970e+00 2.098876e+00 2.100255e+00 2.030350e+00 1.160593e+00 3.372600e-01 6.241279e-01 3.639366e-01 4.553933e-01 4.972755e-01 4.915829e-01 4.476050e-01 5.638224e-01 4.973852e-01 4.078118e-01 4.440996e-01 3.843132e-01 1.547405e-01
<GCONST> 1.212355e+02
<STATE> 3
<MEAN> 39
 7.614868e-01 3.399783e+00 -3.370431e+00 -1.240453e+01 -1.689125e+01 -1.151915e+01 -1.339922e+00 -5.836641e+00 -3.932745e+00 -4.379803e+00 -4.846249e+00 -2.382082e+00 7.177403e+01 8.284148e-01 -6.297718e-01 -2.310787e-01 -9.760177e-01 -1.604992e+00 -7.257407e-01 -8.584467e-01 -8.266340e-01 -3.568655e-01 -1.045034e-01 4.468071e-01 7.422744e-01 1.281637e+00 -6.327860e-01 -4.977733e-01 -1.492773e-01 1.971753e-01 6.583682e-01 6.146107e-01 2.290715e-01 1.498199e-01 1.564984e-01 2.046354e-01 4.138048e-01 2.121949e-01 -3.446975e-01
<VARIANCE> 39
 2.086296e+01 6.705100e+01 7.073666e+01 7.449027e+01 5.821478e+01 6.518254e+01 4.741415e+01 4.977247e+01 4.435876e+01 3.607396e+01 3.349681e+01 3.833634e+01 2.686697e+01 1.182728e+00 2.335573e+00 1.632101e+00 2.538091e+00 3.815799e+00 3.477467e+00 3.940739e+00 2.984906e+00 2.704491e+00 2.003821e+00 2.241033e+00 2.061421e+00 1.568371e+00 2.017812e-01 4.999202e-01 2.679991e-01 4.351825e-01 5.097420e-01 3.858864e-01 5.904704e-01 5.850749e-01 5.105561e-01 3.772636e-01 4.862542e-01 3.233937e-01 1.627499e-01
<GCONST> 1.200387e+02
<STATE> 4
<MEAN> 39
 1.187102e+00 1.383225e+00 -4.535504e+00 -1.312548e+01 -1.781363e+01 -8.882076e+00 -2.766031e+00 -8.989861e+00 -4.291984e+00 -6.475440e+00 -1.626612e+00 7.858065e-01 7.281255e+01 -1.451379e-01 -7.263494e-01 -1.821705e-01 2.393362e-01 4.254122e-01 1.759790e-01 -7.454056e-01 -9.311342e-01 -3.615759e-01 3.448834e-01 1.291188e+00 5.780985e-01 3.984639e-01 -1.834243e-01 -2.844100e-02 6.137706e-02 4.209747e-01 3.934425e-01 -1.190216e-01 -2.006061e-01 6.464524e-02 2.364911e-01 2.359860e-01 -2.008710e-02 -3.339640e-01 -1.650090e-01
<VARIANCE> 39
 2.086676e+01 5.148733e+01 7.930147e+01 1.013240e+02 6.050447e+01 7.101191e+01 5.729326e+01 5.341116e+01 6.778838e+01 4.180231e+01 4.513493e+01 5.175484e+01 2.043082e+01 2.460485e-01 1.041437e+00 1.187284e+00 1.378994e+00 2.794440e+00 1.781213e+00 2.670919e+00 2.526253e+00 2.248223e+00 2.132839e+00 3.220152e+00 2.111351e+00 3.591219e-01 7.326160e-02 1.543285e-01 2.058030e-01 2.872069e-01 3.503219e-01 4.993647e-01 5.421780e-01 3.796046e-01 5.473356e-01 3.747215e-01 4.968731e-01 5.006819e-01 9.451138e-02
<GCONST> 1.118989e+02
<TRANSP> 5
 0.000000e+00 1.000000e+00 0.000000e+00 0.000000e+00 0.000000e+00
 0.000000e+00 7.718030e-01 2.281970e-01 0.000000e+00 0.000000e+00
 0.000000e+00 0.000000e+00 6.088290e-01 3.911711e-01 0.000000e+00
 0.000000e+00 0.000000e+00 0.000000e+00 6.404215e-01 3.595785e-01
 0.000000e+00 0.000000e+00 0.000000e+00 0.000000e+00 0.000000e+00
<ENDHMM>
~h "i"
<BEGINHMM>
<NUMSTATES> 5
<STATE> 2
<MEAN> 39
 -2.379814e+01 1.280185e+00 1.898829e+00 -6.155518e+00 -3.730351e+00 -4.986049e+00 2.892786e+00 -1.249971e+00 1.207279e+00 -2.833662e+00 2.171196e+00 1.466165e-01 6.886280e+01 -1.629668e-01 -1.782568e-01 1.912411e+00 1.198098e+00 -3.877888e-01 -8.045881e-01 6.960725e-01 -4.910162e-01 -4.823973e-01 -4.330363e-01 -1.846828e-01 -8.362764e-02 4.210514e-01 1.032467e+00 1.470067e-01 -2.527236e-02 3.711378e-01 -9.876291e-02 -3.599037e-01 -3.374010e-01 -1.959038e-01 -2.883603e-01 -1.642232e-01 -1.355722e-01 -3.672886e-02 -2.861184e-01
<VARIANCE> 39
 2.423891e+01 2.367135e+01 5.375866e+01 3.630076e+01 3.720996e+01 5.363811e+01 4.736781e+01 2.477378e+01 2.700626e+01 2.970122e+01 1.959706e+01 2.026021e+01 1.597753e+01 7.810844e+00 2.045263e+00 2.086099e+00 2.850203e+00 2.795912e+00 2.538441e+00 2.397281e+00 2.472530e+00 2.477004e+00 1.946086e+00 1.873610e+00 1.131092e+00 1.630279e+00 3.964565e-01 5.003440e-01 3.774517e-01 3.791197e-01 4.984626e-01 4.335852e-01 5.374244e-01 4.512993e-01 4.561183e-01 3.936759e-01 3.748114e-01 2.183545e-01 1.981301e-01
<GCONST> 1.144711e+02
<STATE> 3
<MEAN> 39
 -1.234332e+01 2.977938e+00 1.154962e+01 3.123549e+00 -8.127498e+00 -1.107502e+01 -1.338563e+00 -6.654385e+00 -4.946377e+00 -7.603412e+00 -1.078421e+00 -1.669879e-01 6.791346e+01 3.663781e+00 1.507404e+00 5.035330e-01 1.831485e+00 -1.158188e+00 -2.671106e+00 -1.808787e+00 -9.761965e-01 -1.426833e+00 -1.417213e+00 -6.244493e-01 5.363451e-01 -2.436506e-01 -4.381655e-01 -1.137597e-01 -8.138138e-01 -5.662175e-01 1.921675e-01 1.563698e-01 1.601746e-01 4.471737e-01 4.367245e-01 2.241237e-01 1.401149e-01 1.200288e-01 -1.851578e-02
<VARIANCE> 39
 3.807555e+01 2.881185e+01 4.038527e+01 4.699568e+01 3.587928e+01 3.961610e+01 4.067216e+01 2.862693e+01 2.312282e+01 3.091578e+01 1.790906e+01 1.592136e+01 1.104636e+01 1.565448e+00 2.159743e+00 1.902312e+00 2.832331e+00 3.165522e+00 1.728076e+00 2.790010e+00 3.748935e+00 2.440387e+00 2.061035e+00 2.943493e+00 1.645903e+00 6.071137e-01 4.898262e-01 3.072337e-01 3.299388e-01 3.377449e-01 4.566976e-01 4.249123e-01 5.854844e-01 4.830602e-01 3.202945e-01 4.100919e-01 4.544759e-01 2.663031e-01 7.671793e-02
<GCONST> 1.111160e+02
<STATE> 4
<MEAN> 39
 -8.594637e+00 2.243320e+00 6.563656e+00 8.589391e+00 -9.198637e+00 -1.742161e+01 -1.723094e+00 -5.968532e+00 -3.265864e+00 -8.136047e+00 -1.962387e+00 2.083843e+00 6.636649e+01 9.052227e-01 3.056241e-01 -1.330024e+00 7.657683e-02 7.191762e-01 1.679820e-01 -1.928798e-01 -8.271563e-02 3.365049e-01 3.244547e-01 -6.534290e-02 -2.933682e-01 -5.352563e-01 -3.596735e-01 -8.118396e-02 -1.503958e-01 -4.523877e-01 3.540427e-01 7.543687e-01 1.308844e-01 -1.823294e-01 1.197930e-01 3.514891e-01 1.928018e-01 -2.201401e-01 -5.607223e-02
<VARIANCE> 39
 1.684077e+01 3.226699e+01 4.809687e+01 6.403201e+01 3.078282e+01 3.440656e+01 1.901096e+01 2.775420e+01 2.267762e+01 4.089583e+01 2.831746e+01 1.874821e+01 1.908969e+01 8.459364e-01 9.803109e-01 1.331093e+00 2.155967e+00 1.429365e+00 4.096870e+00 2.381544e+00 2.737900e+00 1.931231e+00 2.377041e+00 2.455904e+00 1.697627e+00 3.465888e-01 2.625904e-01 2.844157e-01 2.358520e-01 2.511549e-01 2.636927e-01 3.864001e-01 3.219940e-01 5.673290e-01 5.154272e-01 4.043832e-01 5.019903e-01 3.716962e-01 4.120927e-02
<GCONST> 1.058583e+02
<TRANSP> 5
 0.000000e+00 1.000000e+00 0.000000e+00 0.000000e+00 0.000000e+00
 0.000000e+00 8.218488e-01 1.781512e-01 0.000000e+00 0.000000e+00
 0.000000e+00 0.000000e+00 5.799099e-01 4.200902e-01 0.000000e+00
 0.000000e+00 0.000000e+00 0.000000e+00 6.777488e-01 3.222512e-01
 0.000000e+00 0.000000e+00 0.000000e+00 0.000000e+00 0.000000e+00
<ENDHMM>
~h "k"
<BEGINHMM>
<NUMSTATES> 5
<STATE> 2
<MEAN> 39
 -1.309167e+01 -2.177902e+00 3.004024e+00 -3.208614e+00 -1.098175e+01 -1.031333e+01 -1.456006e+00 -4.971754e+00 -3.716115e+00 -3.563720e+00 -1.148111e+00 -1.632810e+00 7.109622e+01 2.084096e+00 1.311850e+00 1.346180e+00 6.548605e-01 -1.397166e+00 -1.896680e+00 -8.150467e-01 -1.032555e+00 -1.089678e+00 -1.311221e+00 -6.149923e-01 -5.491669e-01 1.001100e+00 2.783746e-01 3.325563e-02 -7.969560e-02 -1.009383e-01 -1.082121e-01 -1.274666e-01 -1.182633e-01 9.753622e-03 2.868922e-02 3.220541e-02 1.325771e-01 1.382125e-01 -8.457380e-02
<VARIANCE> 39
 4.898775e+01 4.146512e+01 5.578995e+01 3.151210e+01 3.831025e+01 4.903418e+01 3.919341e+01 4.963034e+01 3.490687e+01 3.732586e+01 2.897802e+01 3.431500e+01 2.194211e+01 3.134268e+00 3.036394e+00 2.707462e+00 2.984098e+00 4.242165e+00 2.960855e+00 3.713406e+00 3.230902e+00 3.526364e+00 2.840992e+00 2.220678e+00 2.253178e+00 2.987729e+00 7.523178e-01 9.877581e-01 5.995402e-01 6.340494e-01 7.719229e-01 6.108842e-01 6.292133e-01 5.493215e-01 5.841614e-01 6.664115e-01 4.491298e-01 3.715976e-01 8.007028e-01
<GCONST> 1.273723e+02
<STATE> 3
<MEAN> 39
 -4.101769e+00 -1.670038e+00 4.798541e+00 -2.949576e+00 -1.831833e+01 -1.809790e+01 -3.883580e+00 -7.528549e+00 -6.772206e+00 -6.802335e+00 -1.058440e+00 -2.582364e+00 7.510403e+01 3.447635e-01 -7.068477e-01 1.646897e-01 -5.154103e-01 -1.096471e+00 -7.397289e-01 -4.580385e-01 -1.748464e-01 5.007067e-02 2.666948e-01 6.465234e-01 4.612727e-01 6.539757e-01 -6.622812e-01 -1.024788e-01 -6.066810e-02 -1.469297e-02 5.159943e-01 6.275312e-01 3.622076e-01 2.252527e-01 2.970895e-01 3.179822e-01 1.179153e-01 6.991436e-02 -3.905020e-01
<VARIANCE> 39
 1.304560e+01 4.123133e+01 6.318913e+01 4.429427e+01 6.256256e+01 6.599248e+01 4.861195e+01 8.702400e+01 5.532756e+01 3.436586e+01 3.445201e+01 5.269036e+01 1.432992e+01 6.810538e-01 1.260469e+00 1.534077e+00 1.131679e+00 2.351007e+00 2.375811e+00 2.002063e+00 2.325957e+00 1.774931e+00 1.560404e+00 1.905667e+00 1.166240e+00 7.622880e-01 1.889414e-01 3.691100e-01 3.254707e-01 2.118762e-01 5.099115e-01 4.543479e-01 4.867904e-01 5.058777e-01 4.793494e-01 3.344837e-01 3.898492e-01 2.590737e-01 7.532723e-02
<GCONST> 1.105876e+02
<STATE> 4
<MEAN> 39
 -7.744049e+00 2.869071e+00 8.338490e+00 -1.088431e+00 -1.575373e+01 -1.941704e+01 -5.437415e+00 -7.296916e+00 -5.975609e+00 -7.851496e+00 4.522935e-01 1.339171e+00 7.485757e+01 -9.922777e-02 1.266662e-01 2.653531e-01 -1.276244e-02 -1.525609e-01 3.720408e-02 1.983956e-01 -2.273323e-01 5.778284e-02 6.628514e-02 1.120820e-01 9.062833e-02 -1.573554e-01 -6.874011e-02 9.702485e-02 -1.301413e-02 8.283263e-02 1.663585e-01 8.049495e-02 9.793966e-02 -1.474539e-03 -2.275012e-03 3.794226e-03 -1.154219e-01 -1.024554e-01 -1.182267e-01
<VARIANCE> 39
 1.930073e+01 6.372487e+01 4.395524e+01 3.404704e+01 6.232387e+01 6.119051e+01 2.539670e+01 6.335316e+01 4.103609e+01 4.125572e+01 3.352692e+01 4.317889e+01 1.353831e+01 1.614371e-01 4.201557e-01 6.763994e-01 6.232532e-01 8.500885e-01 1.034374e+00 1.155772e+00 1.317322e+00 8.760221e-01 1.071449e+00 1.387576e+00 7.573389e-01 2.188707e-01 4.142325e-02 9.068763e-02 1.152021e-01 1.120156e-01 1.736873e-01 1.993793e-01 1.520801e-01 2.777284e-01 2.306120e-01 2.321584e-01 3.015093e-01 1.234350e-01 3.150875e-02
<GCONST> 8.811643e+01
<TRANSP> 5
 0.000000e+00 1.000000e+00 0.000000e+00 0.000000e+00 0.000000e+00
 0.000000e+00 7.998403e-01 2.001597e-01 0.000000e+00 0.000000e+00
 0.000000e+00 0.000000e+00 5.800355e-01 4.199645e-01 0.000000e+00
 0.000000e+00 0.000000e+00 0.000000e+00 6.202759e-01 3.797241e-01
 0.000000e+00 0.000000e+00 0.000000e+00 0.000000e+00 0.000000e+00
<ENDHMM>
~h "m"
<BEGINHMM>
<NUMSTATES> 5
<STATE> 2
<MEAN> 39
 4.645787e-01 7.569845e+00 1.169300e-01 1.122096e-01 -3.878660e+00 -3.986301e+00 -1.689275e+00 -8.372218e+00 -1.079626e+01 -1.145407e+01 -4.054354e+00 -1.768353e+00 6.366103e+01 1.048557e+00 -2.422760e-01 -8.967301e-01 -1.288779e+00 -1.093675e+00 -2.587870e-01 2.016936e-01 -3.387860e-01 3.091872e-02 3.187683e-02 -6.293702e-02 -2.869469e-02 1.334672e+00 -2.178216e-01 -4.715065e-01 -4.804620e-01 -5.314845e-01 -1.356427e-01 2.285983e-01 2.874167e-01 2.525725e-01 5.660897e-01 5.835429e-01 1.159113e-01 -7.069921e-03 6.764366e-02
<VARIANCE> 39
 9.510479e+00 2.235800e+01 3.446402e+01 3.321112e+01 4.318774e+01 4.305414e+01 5.119245e+01 4.640371e+01 3.733144e+01 3.960048e+01 3.994796e+01 2.370920e+01 2.148616e+01 1.216504e+00 1.858116e+00 2.711533e+00 3.637358e+00 2.370836e+00 2.020319e+00 2.299489e+00 3.065211e+00 4.234707e+00 4.434797e+00 2.300076e+00 1.578333e+00 9.612201e-01 1.438912e-01 2.447516e-01 3.009151e-01 3.844810e-01 3.710916e-01 3.877674e-01 4.228177e-01 4.434318e-01 5.339106e-01 5.635799e-01 4.591620e-01 3.115606e-01 1.264496e-01
<GCONST> 1.130772e+02
<STATE> 3
<MEAN> 39
 3.548040e+00 5.537736e-01 -1.066706e+01 -1.478316e+01 -1.167391e+01 -1.965288e+00 3.575756e+00 -6.048988e+00 -3.399311e+00 -3.642234e+00 -3.796499e+00 -2.878330e+00 7.197279e+01 -4.571028e-02 -2.214725e+00 -1.941927e+00 -2.622125e+00 -2.792119e-01 1.866289e+00 1.541663e+00 -1.294881e-01 1.283468e+00 1.630266e+00 -4.403268e-02 -5.619205e-01 1.672598e+00 -3.504682e-01 1.937501e-01 7.022411e-01 1.025339e+00 7.977198e-01 9.017441e-02 -3.482011e-01 -1.813697e-01 -5.312701e-01 -4.648863e-01 -2.405719e-02 -4.345858e-02 -3.940398e-01
<VARIANCE> 39
 6.952028e+00 3.606430e+01 3.380575e+01 3.282368e+01 5.512748e+01 5.340472e+01 5.387577e+01 7.591373e+01 3.252882e+01 4.330278e+01 3.659035e+01 4.015739e+01 1.346052e+01 8.449796e-01 1.669791e+00 2.189654e+00 4.250208e+00 4.739753e+00 3.458742e+00 3.148922e+00 4.590397e+00 4.822557e+00 4.827833e+00 3.776633e+00 3.066099e+00 1.146053e+00 8.876863e-02 2.553735e-01 2.609521e-01 3.447956e-01 4.816549e-01 7.298067e-01 5.189429e-01 7.258258e-01 4.963796e-01 6.437758e-01 4.997966e-01 3.802699e-01 9.689920e-02
<GCONST> 1.180838e+02
<STATE> 4
<MEAN> 39
 8.468603e-01 -4.359473e+00 -1.223487e+01 -1.567420e+01 -8.642352e+00 8.461208e-01 5.378223e+00 -3.997031e+00 -4.098378e+00 -2.523726e+00 -2.687149e+00 -4.916589e+00 7.592875e+01 -2.498961e-01 -5.263243e-01 -6.669573e-03 1.026085e-01 2.701909e-01 5.799465e-02 -3.325695e-01 -1.518882e-01 -3.349110e-03 3.270651e-01 1.741042e-01 -1.504280e-01 2.908359e-01 5.016847e-02 3.174031e-01 2.362104e-01 2.818996e-01 -9.578309e-02 -3.891244e-01 -2.931882e-01 3.476233e-02 -8.890791e-02 -1.312498e-01 4.042327e-02 1.553053e-01 -2.430444e-01
<VARIANCE> 39
 9.931695e+00 4.654666e+01 3.146180e+01 3.138401e+01 5.500726e+01 4.913289e+01 6.274315e+01 1.110126e+02 5.394925e+01 4.969228e+01 4.514823e+01 3.853481e+01 1.543969e+01 2.910381e-01 6.446786e-01 5.764796e-01 1.070843e+00 1.378673e+00 1.891883e+00 1.686451e+00 2.043656e+00 1.766193e+00 1.760893e+00 1.587086e+00 1.157461e+00 2.475043e-01 6.127076e-02 1.519533e-01 1.889248e-01 3.036368e-01 2.353076e-01 3.520158e-01 3.586943e-01 3.782344e-01 3.728808e-01 3.671998e-01 3.077287e-01 2.635873e-01 8.077803e-02
<GCONST> 1.008986e+02
<TRANSP> 5
 0.000000e+00 1.000000e+00 0.000000e+00 0.000000e+00 0.000000e+00
 0.000000e+00 8.560710e-01 1.439290e-01 0.000000e+00 0.000000e+00
 0.000000e+00 0.000000e+00 6.414458e-01 3.585543e-01 0.000000e+00
 0.000000e+00 0.000000e+00 0.000000e+00 7.164527e-01 2.835473e-01
 0.000000e+00 0.000000e+00 0.000000e+00 0.000000e+00 0.000000e+00
<ENDHMM>
~h "n"
<BEGINHMM>
<NUMSTATES> 5
<STATE> 2
<MEAN> 39
 1.213376e+00 3.840056e+00 -2.437806e-01 -9.708571e-01 -9.222150e+00 -1.077876e+01 -7.849433e+00 -7.384660e+00 -4.229259e+00 -7.198834e+00 -4.438966e+00 -5.245731e+00 6.750708e+01 7.528175e-02 6.615781e-01 1.264350e-01 2.562261e-01 5.226943e-01 -2.994405e-01 -3.932140e-01 1.542015e-01 -3.760417e-01 -2.930782e-01 2.044040e-01 -5.256926e-02 -4.864433e-01 -1.057228e-01 -3.199200e-01 -5.610826e-02 -1.320343e-01 -2.629279e-01 4.469605e-02 8.804803e-02 2.846908e-02 2.404361e-01 1.243499e-01 -3.051975e-02 1.228352e-01 2.545111e-01
<VARIANCE> 39
 9.686661e+00 2.622865e+01 5.190422e+01 3.561846e+01 5.227392e+01 4.224661e+01 3.805774e+01 2.846121e+01 3.349762e+01 5.392250e+01 2.728576e+01 4.022104e+01 1.540979e+01 2.840267e-01 8.572842e-01 1.178035e+00 1.317617e+00 1.824780e+00 1.202958e+00 1.904601e+00 1.201786e+00 2.001287e+00 2.333117e+00 1.592526e+00 1.293117e+00 4.432920e-01 4.289793e-02 1.293987e-01 1.721440e-01 2.184625e-01 2.625125e-01 2.339464e-01 4.010831e-01 2.678077e-01 4.051648e-01 4.514379e-01 3.098582e-01 2.558240e-01 4.955764e-02
<GCONST> 9.801684e+01
<STATE> 3
<MEAN> 39
 -8.463216e-01 2.654994e-01 -3.162026e-01 -6.473885e-01 -1.258253e+01 -1.111109e+01 -8.072701e+00 -6.192531e+00 4.004884e-01 -6.025598e+00 -5.522664e+00 -3.720368e+00 6.998595e+01 -7.160806e-01 -1.667646e+00 2.361766e-01 -1.773311e-01 -1.829511e+00 -3.073293e-01 9.260374e-01 7.841316e-01 1.332341e+00 4.168532e-01 -4.471341e-01 5.053034e-01 1.257497e+00 -3.815517e-02 4.183567e-02 6.612866e-02 -4.098227e-02 -1.051782e-01 -1.198524e-01 3.083293e-01 1.742936e-01 -2.774825e-01 -3.225297e-03 1.868986e-01 -2.992818e-02 -1.516595e-02
<VARIANCE> 39
 1.098234e+01 4.064482e+01 5.642332e+01 3.315361e+01 6.477679e+01 4.126348e+01 4.297616e+01 5.242291e+01 6.527099e+01 5.547959e+01 4.434447e+01 3.604723e+01 2.773161e+01 4.228863e-01 1.604137e+00 2.099466e+00 1.526030e+00 2.966695e+00 2.837283e+00 5.444738e+00 4.176158e+00 4.682304e+00 3.563008e+00 3.657758e+00 3.080254e+00 6.758274e-01 6.592009e-02 4.654883e-01 2.915045e-01 2.517944e-01 5.966389e-01 4.078841e-01 6.592979e-01 6.797808e-01 1.040846e+00 5.844965e-01 5.889057e-01 4.780363e-01 2.402919e-01
<GCONST> 1.191903e+02
<STATE> 4
<MEAN> 39
 -3.372617e+00 -1.857697e+00 1.552010e+00 -1.995147e+00 -1.829867e+01 -1.338286e+01 -2.609397e+00 -3.347707e+00 -1.366276e+00 -5.270658e+00 -2.933258e+00 -2.227051e+00 7.094659e+01 -2.136569e-01 2.498889e-01 3.069943e-01 1.078419e-01 -5.163752e-02 -3.058007e-01 4.050639e-01 1.007567e-01 -5.129973e-01 -7.594213e-02 1.663371e-01 2.998030e-02 -3.495455e-01 4.170132e-02 1.032379e-01 -1.002818e-02 4.085931e-02 1.998220e-01 1.031102e-01 -1.558315e-01 -1.033565e-01 1.751791e-02 -6.487208e-02 -3.740540e-02 -5.749222e-02 -1.394016e-01
<VARIANCE> 39
 1.234110e+01 4.785721e+01 6.064803e+01 3.081357e+01 6.754182e+01 5.077324e+01 5.248060e+01 6.429137e+01 6.849201e+01 4.842968e+01 5.710531e+01 3.729847e+01 2.402704e+01 1.788526e-01 5.549521e-01 7.350939e-01 9.452475e-01 1.456774e+00 1.257780e+00 1.272315e+00 1.301515e+00 1.542067e+00 1.552868e+00 1.423059e+00 1.307355e+00 2.307815e-01 3.889381e-02 1.284486e-01 1.199463e-01 2.135623e-01 2.374415e-01 2.318074e-01 3.065509e-01 2.553869e-01 2.743272e-01 2.354845e-01 2.478934e-01 2.062826e-01 4.305677e-02
<GCONST> 9.600005e+01
<TRANSP> 5
 0.000000e+00 1.000000e+00 0.000000e+00 0.000000e+00 0.000000e+00
 0.000000e+00 8.461203e-01 1.538797e-01 0.000000e+00 0.000000e+00
 0.000000e+00 0.000000e+00 7.543556e-01 2.456444e-01 0.000000e+00
 0.000000e+00 0.000000e+00 0.000000e+00 8.317096e-01 1.682904e-01
 0.000000e+00 0.000000e+00 0.000000e+00 0.000000e+00 0.000000e+00
<ENDHMM>
~h "p"
<BEGINHMM>
<NUMSTATES> 5
<STATE> 2
<MEAN> 39
 -7.364902e-01 -2.184803e-01 -8.628310e+00 -1.521711e+01 -1.053004e+01 -1.952444e+00 4.057022e+00 -3.079478e+00 -2.705755e+00 -2.714272e+00 -3.344581e+00 -2.984516e+00 6.968684e+01 1.847149e+00 2.190899e-01 -3.899790e-01 -1.833939e+00 -1.926434e+00 -3.002456e-01 3.658439e-01 -4.795428e-01 -7.936184e-01 -3.962844e-01 -2.666493e-01 -4.469946e-01 1.609173e+00 -4.238448e-01 -3.980003e-01 3.876318e-02 3.564593e-01 2.064606e-01 2.694971e-02 -3.100127e-01 8.059461e-02 2.395944e-01 2.000307e-01 3.350376e-01 1.961196e-01 -1.642675e-01
<VARIANCE> 39
 2.464338e+01 5.522718e+01 3.544956e+01 3.712478e+01 5.864079e+01 8.631010e+01 6.159892e+01 4.942384e+01 3.750788e+01 3.696980e+01 2.965324e+01 3.429606e+01 2.621722e+01 2.489081e+00 4.797320e+00 2.622006e+00 3.152151e+00 4.777482e+00 4.861163e+00 5.476275e+00 4.118284e+00 3.273569e+00 3.351808e+00 2.919567e+00 2.807294e+00 1.838712e+00 4.774342e-01 6.361989e-01 4.011837e-01 5.259424e-01 7.354159e-01 8.455458e-01 8.242037e-01 7.027434e-01 4.925272e-01 5.434291e-01 3.930695e-01 4.151222e-01 4.331283e-01
<GCONST> 1.282765e+02
<STATE> 3
<MEAN> 39
 5.085793e-01 -5.335048e+00 -9.954689e+00 -1.623168e+01 -1.317155e+01 -3.735273e+00 3.407908e+00 -1.700073e+00 -3.009869e+00 -1.809446e+00 -2.174981e+00 -4.031739e+00 7.564544e+01 1.040068e-02 -2.402233e-01 6.100421e-02 9.660998e-02 -3.073620e-01 -1.147508e-01 -4.855529e-01 -2.552463e-01 2.914338e-01 3.213502e-01 8.600223e-02 -1.442588e-01 1.079872e-01 -1.474822e-01 1.726329e-01 7.059515e-02 2.409085e-01 1.766043e-01 -9.403054e-02 -6.090004e-02 2.902336e-03 1.317272e-01 1.451121e-02 -8.919206e-02 3.492349e-02 -2.751221e-01
<VARIANCE> 39
 1.780596e+01 5.969910e+01 2.875798e+01 2.883852e+01 5.560973e+01 9.474243e+01 1.055891e+02 7.996635e+01 5.961396e+01 5.060786e+01 3.660678e+01 4.309465e+01 2.782384e+01 8.426412e-01 2.344262e+00 8.747154e-01 1.437979e+00 1.912978e+00 2.725562e+00 4.363103e+00 2.792130e+00 3.466828e+00 2.490164e+00 2.026150e+00 1.924149e+00 1.055928e+00 2.310048e-01 3.457113e-01 1.723796e-01 3.331674e-01 4.498072e-01 4.889686e-01 7.468910e-01 5.522661e-01 5.519936e-01 4.428287e-01 3.852603e-01 3.311467e-01 1.734647e-01
<GCONST> 1.173068e+02
<STATE> 4
<MEAN> 39
 2.103795e+00 -2.358292e+00 -8.900148e+00 -1.619964e+01 -1.411036e+01 -1.147539e+00 1.125844e+00 -4.749501e+00 -1.460526e+00 -2.251852e+00 -1.804205e+00 -4.505760e+00 7.348916e+01 -7.536688e-02 -6.901017e-02 7.805365e-02 3.850615e-01 -9.258769e-03 -4.370708e-01 -4.330737e-01 -5.290759e-02 3.932666e-01 1.975650e-01 -6.634832e-02 -8.776764e-02 -4.907659e-02 -5.199572e-02 8.671231e-02 8.308441e-02 1.427339e-01 5.753600e-02 -1.165671e-01 -4.939161e-02 2.285849e-02 4.756866e-03 -7.713820e-02 -4.684107e-02 1.890333e-02 -8.428498e-02
<VARIANCE> 39
 9.058455e+00 7.460399e+01 6.944931e+01 3.119881e+01 1.010623e+02 1.091866e+02 6.935764e+01 5.229380e+01 6.030724e+01 5.356339e+01 3.947937e+01 4.480375e+01 1.722767e+01 1.940851e-01 7.078453e-01 7.071482e-01 1.060806e+00 1.262627e+00 1.729890e+00 1.709742e+00 1.320606e+00 1.335034e+00 1.258942e+00 1.426444e+00 1.180195e+00 2.301237e-01 4.952395e-02 1.221804e-01 1.227001e-01 1.419761e-01 2.334987e-01 2.281479e-01 2.945445e-01 2.328773e-01 2.145912e-01 2.493927e-01 2.459258e-01 2.139471e-01 4.088800e-02
<GCONST> 9.683910e+01
<TRANSP> 5
 0.000000e+00 1.000000e+00 0.000000e+00 0.000000e+00 0.000000e+00
 0.000000e+00 7.470392e-01 2.529608e-01 0.000000e+00 0.000000e+00
 0.000000e+00 0.000000e+00 7.113470e-01 2.886530e-01 0.000000e+00
 0.000000e+00 0.000000e+00 0.000000e+00 7.260223e-01 2.739776e-01
 0.000000e+00 0.000000e+00 0.000000e+00 0.000000e+00 0.000000e+00
<ENDHMM>
~h "r"
<BEGINHMM>
<NUMSTATES> 5
<STATE> 2
<MEAN> 39
 -3.364970e+00 3.025856e-01 3.429846e+00 -8.980322e-02 -1.090405e+01 -1.393100e+01 -5.497616e+00 -5.738520e+00 -2.095696e+00 -5.672656e+00 1.843134e+00 -7.246802e-01 6.714020e+01 -4.815416e-02 -2.678153e-01 1.515468e-01 2.737489e-01 -1.051301e-01 1.012720e-01 2.470561e-01 -2.036850e-01 -5.142172e-02 -4.259277e-01 -4.123569e-02 7.387956e-02 1.457785e-01 4.679024e-02 -4.176692e-02 3.353844e-02 -3.473396e-02 -2.388428e-01 -2.274518e-01 3.832028e-02 4.822294e-02 -3.756565e-02 -3.184886e-02 1.751379e-01 1.044534e-01 1.685243e-01
<VARIANCE> 39
 1.795372e+01 2.228469e+01 3.222433e+01 4.233680e+01 6.055693e+01 6.670825e+01 4.344899e+01 3.149291e+01 2.618649e+01 3.863297e+01 3.423296e+01 2.151989e+01 3.517074e+01 1.438679e+00 2.818032e+00 1.850993e+00 2.708218e+00 7.243181e+00 4.899070e+00 2.808013e+00 2.671316e+00 1.394443e+00 3.392477e+00 3.572105e+00 2.314649e+00 3.641725e+00 2.754688e-01 5.745088e-01 2.997157e-01 5.587621e-01 1.373769e+00 8.774210e-01 5.652986e-01 5.297540e-01 2.403543e-01 7.332516e-01 6.924931e-01 4.084451e-01 6.240316e-01
<GCONST> 1.229294e+02
<STATE> 3
<MEAN> 39
 -5.029111e+00 1.406480e+00 4.355044e+00 5.523293e+00 -1.108668e+01 -1.521847e+01 -8.421315e+00 -4.576431e+00 1.475338e+00 -4.230908e+00 -8.854587e-01 2.107571e+00 6.696220e+01 -1.767957e-01 -1.031970e-01 2.974603e-02 1.708710e-01 -1.081978e+00 -5.871720e-01 3.249962e-01 4.270146e-01 -2.102197e-01 7.462498e-02 8.079540e-01 5.794222e-01 2.247498e-01 -5.803390e-02 9.510847e-02 2.128895e-02 -1.463635e-01 -5.505827e-02 -1.535760e-02 1.738192e-01 1.274792e-01 -2.089078e-01 3.790107e-02 4.621448e-02 -3.174631e-02 -1.423185e-02
<VARIANCE> 39
 1.809094e+01 2.161858e+01 4.530547e+01 2.450367e+01 6.767819e+01 6.394531e+01 4.529608e+01 2.550313e+01 4.241023e+01 2.830062e+01 2.469063e+01 3.718512e+01 2.225177e+01 8.886881e-01 1.327022e+00 1.957732e+00 1.742206e+00 4.568165e+00 3.917478e+00 4.165839e+00 2.819629e+00 4.231381e+00 1.854855e+00 2.236838e+00 2.818729e+00 8.329254e-01 1.579722e-01 2.552546e-01 4.918658e-01 4.123150e-01 1.247166e+00 9.365343e-01 8.638446e-01 5.444781e-01 8.922821e-01 4.002502e-01 3.665166e-01 7.058923e-01 3.341405e-01
<GCONST> 1.186739e+02
<STATE> 4
<MEAN> 39
 -1.643645e+00 -1.717340e+00 3.418189e+00 -1.936561e+00 -1.734998e+01 -1.814292e+01 -4.618193e+00 -6.136912e+00 -5.546379e+00 -7.250443e+00 3.549774e+00 -1.337933e+00 6.985876e+01 -2.690806e-01 3.418893e-01 -5.568931e-02 -1.210897e-01 3.350184e-01 1.722871e-01 1.678898e-01 1.209246e-01 -2.169183e-01 1.236594e-01 -3.516417e-02 -2.238069e-01 -4.352795e-01 -6.151156e-02 3.989694e-02 -6.775830e-02 7.057653e-02 1.671663e-01 1.303272e-01 1.600386e-02 -1.257078e-02 3.837280e-02 3.680845e-02 -1.767849e-01 -1.907694e-02 -1.202705e-01
<VARIANCE> 39
 1.161914e+01 1.197370e+01 3.910123e+01 5.034172e+01 4.933965e+01 6.972351e+01 3.769748e+01 3.368312e+01 3.572932e+01 5.842089e+01 5.765062e+01 3.303556e+01 1.980555e+01 2.898974e-01 4.072095e-01 6.080100e-01 8.103052e-01 1.300548e+00 9.409818e-01 1.353138e+00 1.029244e+00 1.409667e+00 1.248079e+00 1.477643e+00 1.327315e+00 4.129559e-01 6.363577e-02 8.259569e-02 9.484603e-02 1.197653e-01 2.811173e-01 1.695974e-01 2.209005e-01 1.730462e-01 2.700540e-01 2.315413e-01 2.384827e-01 2.345598e-01 3.922798e-02
<GCONST> 9.078415e+01
<TRANSP> 5
 0.000000e+00 1.000000e+00 0.000000e+00 0.000000e+00 0.000000e+00
 0.000000e+00 8.423280e-01 1.576721e-01 0.000000e+00 0.000000e+00
 0.000000e+00 0.000000e+00 6.182500e-01 3.817500e-01 0.000000e+00
 0.000000e+00 0.000000e+00 0.000000e+00 8.770313e-01 1.229687e-01
 0.000000e+00 0.000000e+00 0.000000e+00 0.000000e+00 0.000000e+00
<ENDHMM>
~h "t"
<BEGINHMM>
<NUMSTATES> 5
<STATE> 2
<MEAN> 39
 -1.174914e+01 -2.802575e+00 -4.416622e+00 -6.594724e+00 -4.132033e+00 -5.208563e+00 -3.367523e+00 -2.806290e+00 1.521650e+00 -1.982296e+00 -6.681474e-01 -4.004691e-01 6.815131e+01 1.045509e+00 1.616459e-01 6.934606e-02 -7.051486e-01 -7.052010e-01 -7.091714e-01 -3.813632e-01 -8.990335e-01 -5.036565e-01 -2.526352e-01 -5.187835e-01 -6.551840e-01 1.841796e+00 6.466966e-01 3.640000e-01 -4.959934e-02 -3.240912e-02 -3.039271e-01 -3.576149e-02 1.411472e-01 -1.692657e-01 -3.463434e-01 3.101707e-03 -4.712523e-02 -6.497505e-02 -3.045474e-01
<VARIANCE> 39
 4.128869e+01 4.080703e+01 4.205161e+01 4.004490e+01 3.449286e+01 4.946965e+01 3.641492e+01 3.829231e+01 3.364684e+01 3.003898e+01 2.859175e+01 2.797630e+01 5.070477e+01 6.280842e+00 4.823235e+00 3.086991e+00 4.023442e+00 4.368468e+00 5.724039e+00 4.147528e+00 4.383199e+00 4.835816e+00 3.431170e+00 2.933307e+00 3.081274e+00 6.557570e+00 6.403841e-01 7.924788e-01 5.102566e-01 6.354982e-01 7.226402e-01 1.020519e+00 8.192295e-01 7.282990e-01 7.534606e-01 6.335023e-01 5.714120e-01 5.763148e-01 1.123408e+00
<GCONST> 1.333281e+02
<STATE> 3
<MEAN> 39
 -1.205301e-02 -9.361869e-02 -6.170645e+00 -1.219658e+01 -1.089950e+01 -7.869163e+00 -2.919961e+00 -7.774343e+00 -4.034565e+00 -2.276787e+00 -3.361195e+00 -3.511124e+00 7.255258e+01 1.789611e+00 -1.452325e-01 -7.280263e-01 -1.186751e+00 -1.881586e+00 -2.910776e-01 5.099271e-01 -5.893252e-01 -9.181813e-01 5.150101e-02 1.449862e-01 1.728378e-01 8.215804e-01 -8.397042e-01 -5.156808e-01 -9.352550e-03 2.774598e-01 3.768165e-01 3.819019e-01 1.190723e-01 4.293688e-01 4.420742e-01 1.467732e-01 3.329036e-01 3.009706e-01 -2.792884e-01
<VARIANCE> 39
 1.844981e+01 3.608063e+01 5.579031e+01 6.126553e+01 6.274077e+01 7.174250e+01 5.320003e+01 5.375694e+01 4.373096e+01 5.150823e+01 3.918155e+01 4.671431e+01 2.234854e+01 2.806382e+00 3.345412e+00 1.988774e+00 2.651807e+00 4.364837e+00 5.088056e+00 4.201912e+00 3.843974e+00 3.783745e+00 3.247289e+00 3.113354e+00 3.031036e+00 1.322113e+00 2.147729e-01 4.165676e-01 3.326216e-01 4.700544e-01 7.096525e-01 6.696720e-01 7.176182e-01 6.345173e-01 5.922340e-01 5.041664e-01 4.859948e-01 5.252067e-01 3.212030e-01
<GCONST> 1.263313e+02
<STATE> 4
<MEAN> 39
 1.119590e-02 -2.708431e+00 -7.600361e+00 -1.299606e+01 -1.306920e+01 -7.352639e+00 -2.112117e+00 -7.594831e+00 -4.195681e+00 -3.251673e+00 -1.224204e+00 -2.189696e+00 7.359898e+01 -1.990899e-02 -3.819405e-01 -9.389183e-02 2.655529e-01 3.098029e-02 3.248991e-02 -2.034461e-01 -1.839430e-01 4.748968e-02 2.213925e-01 3.254578e-01 1.177474e-01 7.393520e-02 -2.187771e-01 1.172950e-02 1.473432e-01 2.975289e-01 2.862653e-01 -1.002637e-01 -2.247627e-01 1.134938e-02 1.701875e-01 7.930186e-02 -4.496590e-02 -7.444749e-02 -9.819064e-02
<VARIANCE> 39
 2.431486e+01 4.642623e+01 5.686131e+01 6.368694e+01 6.958444e+01 8.720988e+01 5.924432e+01 6.191474e+01 6.422813e+01 7.683204e+01 5.341100e+01 6.347912e+01 2.217594e+01 7.951778e-01 1.337640e+00 1.026729e+00 1.755324e+00 2.085222e+00 2.640920e+00 2.701027e+00 2.373740e+00 2.286026e+00 2.516452e+00 2.339746e+00 2.200259e+00 6.607484e-01 1.557655e-01 2.186693e-01 1.819994e-01 3.190193e-01 4.109746e-01 5.211959e-01 4.815664e-01 4.558001e-01 4.512371e-01 4.683294e-01 3.970356e-01 4.486163e-01 9.966308e-02
<GCONST> 1.158708e+02
<TRANSP> 5
 0.000000e+00 1.000000e+00 0.000000e+00 0.000000e+00 0.000000e+00
 0.000000e+00 7.941551e-01 2.058449e-01 0.000000e+00 0.000000e+00
 0.000000e+00 0.000000e+00 5.681165e-01 4.318835e-01 0.000000e+00
 0.000000e+00 0.000000e+00 0.000000e+00 7.271665e-01 2.728335e-01
 0.000000e+00 0.000000e+00 0.000000e+00 0.000000e+00 0.000000e+00
<ENDHMM>
~h "u"
<BEGINHMM>
<NUMSTATES> 5
<STATE> 2
<MEAN> 39
 -5.053224e+00 6.798664e+00 7.116421e+00 2.390611e+00 -9.829704e+00 -1.245817e+01 -1.485792e-01 -1.059769e+01 -7.949694e+00 -4.375129e+00 1.337265e+00 -2.245511e+00 6.551875e+01 3.699570e-01 2.980694e-01 -5.968459e-01 -1.160894e-01 4.668006e-01 2.667946e-01 -2.469835e-01 2.972072e-01 -3.849825e-02 -1.049145e-01 3.733840e-01 6.234807e-02 -6.159646e-01 -1.984684e-01 -1.038100e-01 -9.613357e-03 -2.056576e-03 2.130351e-01 1.909947e-01 -1.064324e-01 1.908337e-01 2.852493e-01 -1.135877e-01 -2.263307e-01 -1.952282e-02 -7.366269e-02
<VARIANCE> 39
 6.588595e+00 1.686676e+01 5.992519e+01 2.733523e+01 3.643494e+01 6.705780e+01 3.791120e+01 4.079775e+01 2.438852e+01 4.535627e+01 2.326300e+01 2.792044e+01 2.129800e+01 2.477677e-01 6.269560e-01 6.030483e-01 2.137724e+00 1.311984e+00 3.279239e+00 1.791225e+00 2.993201e+00 2.058498e+00 1.904488e+00 1.728840e+00 1.521647e+00 3.334069e-01 9.611580e-02 1.347497e-01 1.087552e-01 1.712225e-01 1.979923e-01 5.133396e-01 3.088364e-01 4.862047e-01 3.016679e-01 4.454843e-01 3.444152e-01 2.913623e-01 2.965956e-02
<GCONST> 9.790641e+01
<STATE> 3
<MEAN> 39
 -4.709546e+00 5.313825e+00 3.388231e+00 2.161475e+00 -3.372567e+00 -1.185962e+01 -6.302257e+00 -6.214329e+00 -3.153634e+00 -7.440225e+00 -1.173196e+00 -7.587336e-01 6.401216e+01 1.621999e-01 9.146681e-02 -9.658597e-01 -3.940439e-01 1.046511e+00 1.147812e+00 -5.148571e-01 -4.819462e-01 2.984211e-01 6.266827e-01 -4.460802e-01 -4.171973e-01 -5.335191e-01 -1.278562e-01 -1.374705e-01 3.482652e-02 -5.770653e-02 -1.725110e-01 9.361828e-02 2.873985e-01 5.690902e-02 -1.992247e-01 1.917145e-01 1.124176e-01 3.967706e-02 4.993993e-02
<VARIANCE> 39
 1.875620e+01 1.405256e+01 2.361760e+01 3.833867e+01 4.402559e+01 3.253968e+01 2.665125e+01 2.985365e+01 2.788128e+01 2.149132e+01 2.823064e+01 1.209965e+01 1.558680e+01 4.793463e-01 9.203194e-01 8.411769e-01 7.844129e-01 1.757739e+00 2.011787e+00 1.020808e+00 1.519201e+00 1.912784e+00 2.535215e+00 1.069359e+00 9.347780e-01 3.942299e-01 9.335590e-02 1.010712e-01 1.042030e-01 1.809781e-01 2.604337e-01 4.696092e-01 1.954222e-01 3.327865e-01 1.826817e-01 3.542132e-01 2.031589e-01 1.837419e-01 7.002577e-02
<GCONST> 9.194440e+01
<STATE> 4
<MEAN> 39
 -4.233924e+00 6.031106e+00 -3.034210e-02 9.563172e-01 -2.078694e+00 -7.515215e+00 -5.223130e+00 -8.403175e+00 -4.054657e+00 -3.582666e+00 -1.101284e+00 -1.647137e+00 6.158927e+01 -3.450688e-01 -4.222195e-01 -3.811777e-01 -1.251197e-01 4.276152e-01 7.834635e-01 4.433469e-01 3.924171e-01 1.859689e-01 3.700018e-01 -4.126272e-02 4.844806e-02 -4.455902e-01 -8.122625e-02 -8.912745e-02 4.870339e-02 8.586574e-03 -6.454501e-02 -3.088439e-02 9.625125e-02 1.865904e-01 9.372827e-02 -1.394073e-02 4.678917e-02 7.130676e-02 1.826604e-02
<VARIANCE> 39
 1.236713e+01 2.381998e+01 1.131793e+01 1.811430e+01 2.117466e+01 2.021140e+01 3.182799e+01 2.936773e+01 2.697781e+01 1.561535e+01 1.471602e+01 1.505194e+01 1.537127e+01 2.696303e-01 7.510031e-01 6.282615e-01 9.580339e-01 9.851073e-01 1.378910e+00 1.512366e+00 1.473165e+00 1.222889e+00 1.531555e+00 1.203415e+00 6.551458e-01 1.557818e-01 3.852035e-02 1.123557e-01 1.222197e-01 2.059055e-01 1.794566e-01 2.259700e-01 2.715293e-01 2.723998e-01 2.537816e-01 3.149070e-01 2.375869e-01 1.168825e-01 2.651050e-02
<GCONST> 8.261944e+01
<TRANSP> 5
 0.000000e+00 1.000000e+00 0.000000e+00 0.000000e+00 0.000000e+00
 0.000000e+00 6.355123e-01 3.644877e-01 0.000000e+00 0.000000e+00
 0.000000e+00 0.000000e+00 6.807399e-01 3.192600e-01 0.000000e+00
 0.000000e+00 0.000000e+00 0.000000e+00 8.380927e-01 1.619073e-01
 0.000000e+00 0.000000e+00 0.000000e+00 0.000000e+00 0.000000e+00
<ENDHMM>
~h "aa"
<BEGINHMM>
<NUMSTATES> 5
<STATE> 2
<MEAN> 39
 1.252110e+00 -7.808212e+00 -1.384961e+01 -1.515706e+01 -3.898926e+00 4.072063e+00 2.334900e+00 -8.865103e+00 -2.901968e+00 -1.258503e+00 -6.558054e+00 -6.722857e+00 7.519360e+01 -2.975173e-02 2.747186e-02 1.384600e-02 1.160931e-01 -2.790878e-02 -1.879762e-01 -1.506842e-01 1.467744e-01 2.342392e-01 -1.365930e-02 9.760053e-02 -1.056847e-01 -7.239581e-02 1.041765e-02 1.304579e-01 6.436241e-02 5.697338e-02 -8.349788e-02 -1.718692e-01 -7.561443e-02 6.858193e-02 4.506868e-02 1.059785e-02 6.467047e-02 4.128132e-02 -8.290336e-02
<VARIANCE> 39
 1.212084e+01 2.659041e+01 3.316442e+01 3.825595e+01 4.556609e+01 4.858882e+01 5.909400e+01 7.325265e+01 5.504533e+01 4.867402e+01 4.864974e+01 4.058267e+01 1.688734e+01 1.421858e-01 3.742915e-01 3.964584e-01 5.168805e-01 8.222903e-01 1.120087e+00 9.724986e-01 1.356333e+00 9.432252e-01 8.557950e-01 9.176632e-01 8.980224e-01 1.571804e-01 3.268791e-02 6.613687e-02 7.255765e-02 9.852785e-02 1.344033e-01 1.886799e-01 1.890994e-01 2.259301e-01 1.806957e-01 1.708007e-01 1.688758e-01 1.672763e-01 2.768840e-02
<GCONST> 8.386324e+01
<STATE> 3
<MEAN> 39
 1.016752e+00 -3.070784e+00 -1.170750e+01 -1.296782e+01 -6.400773e+00 -1.533521e+00 7.046577e-01 -5.315944e+00 -2.327587e+00 -7.770467e-02 -2.031303e+00 -5.037844e+00 6.971116e+01 -3.392707e-01 1.097130e+00 7.156823e-01 1.065354e+00 1.455612e-01 -7.810016e-01 -7.896051e-01 1.782403e-01 2.321980e-01 1.558124e-01 5.392386e-01 7.280605e-01 -1.689491e+00 -1.562360e-01 1.702420e-03 5.903319e-02 1.396224e-01 1.515598e-01 2.072693e-01 1.703966e-01 3.128870e-02 -1.052423e-01 -1.382447e-01 -3.248057e-02 4.374080e-02 -2.109714e-01
<VARIANCE> 39
 1.016140e+01 3.235832e+01 3.387425e+01 3.464312e+01 3.889899e+01 4.003445e+01 4.922106e+01 3.943480e+01 4.527325e+01 4.209666e+01 4.608379e+01 4.689075e+01 4.105547e+01 1.149254e+00 1.329799e+00 1.746614e+00 1.978946e+00 2.198853e+00 3.616978e+00 2.870610e+00 2.838922e+00 3.083266e+00 2.387182e+00 2.212849e+00 2.482475e+00 1.155572e+00 1.689050e-01 2.700815e-01 2.768300e-01 3.178187e-01 3.870321e-01 5.807840e-01 5.268791e-01 4.623641e-01 5.162177e-01 3.772182e-01 3.821273e-01 4.773382e-01 2.294284e-01
<GCONST> 1.148554e+02
<STATE> 4
<MEAN> 39
 -4.499604e+00 1.277306e+00 -8.109015e+00 -7.343459e+00 -4.344863e+00 -1.352179e+00 3.463295e-01 -1.883733e+00 -4.370521e-01 -1.364285e-01 -1.702021e-01 -1.756718e+00 5.974343e+01 -9.375452e-01 -2.289772e-01 4.093912e-01 3.987465e-01 1.433357e-01 -1.979975e-01 -1.067016e-01 2.932536e-01 1.784458e-01 -8.526982e-02 -4.676178e-03 2.727417e-01 -4.542145e-01 -1.793133e-02 -2.228329e-01 5.629675e-03 -2.172488e-01 -3.387246e-02 -1.620732e-01 -1.508500e-01 -1.443392e-01 -3.468744e-03 -1.000005e-02 -6.102853e-02 -6.247349e-02 5.799228e-01
<VARIANCE> 39
 1.239850e+01 2.439845e+01 2.699133e+01 1.904744e+01 1.968222e+01 2.848534e+01 2.857017e+01 2.068152e+01 1.900328e+01 2.116451e+01 2.604025e+01 2.399605e+01 3.197442e+01 9.422777e-01 1.611884e+00 1.170072e+00 1.452448e+00 1.503061e+00 2.525395e+00 1.923252e+00 2.035331e+00 2.321678e+00 1.837428e+00 1.693080e+00 1.811174e+00 2.780061e+00 1.589423e-01 2.001565e-01 2.359133e-01 2.812060e-01 2.853426e-01 4.344644e-01 3.414626e-01 3.388238e-01 3.944435e-01 3.128819e-01 3.670920e-01 3.450453e-01 3.242593e-01
<GCONST> 1.037924e+02
<TRANSP> 5
 0.000000e+00 1.000000e+00 0.000000e+00 0.000000e+00 0.000000e+00
 0.000000e+00 9.059938e-01 9.400627e-02 0.000000e+00 0.000000e+00
 0.000000e+00 0.000000e+00 8.031687e-01 1.968314e-01 0.000000e+00
 0.000000e+00 0.000000e+00 0.000000e+00 8.302025e-01 1.697976e-01
 0.000000e+00 0.000000e+00 0.000000e+00 0.000000e+00 0.000000e+00
<ENDHMM>
~h "ae"
<BEGINHMM>
<NUMSTATES> 5
<STATE> 2
<MEAN> 39
 7.876456e-03 -9.426470e+00 -1.146739e+01 -1.348973e+01 -7.806381e+00 -2.476784e+00 -1.190646e+00 -3.796934e+00 7.811887e-01 2.065101e-01 -5.052450e+00 -8.102133e+00 7.655696e+01 -2.189542e-01 1.737788e-03 4.442995e-01 8.142489e-01 -2.796122e-01 -1.453775e+00 -6.648131e-01 8.585895e-01 8.815908e-01 -2.219874e-01 -2.930652e-01 -2.535277e-02 -7.237426e-02 -1.407671e-02 9.682335e-02 1.087439e-01 1.850797e-02 -1.178673e-01 -9.865288e-02 3.387249e-02 6.004506e-02 -6.710486e-02 -8.824654e-02 8.155288e-02 1.346417e-01 -5.545405e-02
<VARIANCE> 39
 9.474105e+00 2.277940e+01 3.172679e+01 4.207381e+01 4.229781e+01 7.583705e+01 4.783501e+01 7.762126e+01 6.328042e+01 6.162420e+01 5.062034e+01 3.699189e+01 1.046818e+01 2.097580e-01 4.459156e-01 6.002907e-01 9.908229e-01 1.249571e+00 2.191103e+00 1.900165e+00 2.162634e+00 1.912126e+00 1.396773e+00 1.316153e+00 1.309310e+00 1.501684e-01 2.835947e-02 6.425993e-02 9.322866e-02 1.281977e-01 1.910131e-01 2.603231e-01 3.305089e-01 3.003623e-01 3.311488e-01 2.522461e-01 2.573920e-01 2.084688e-01 1.795068e-02
<GCONST> 9.238185e+01
<STATE> 3
<MEAN> 39
 -2.057041e+00 -5.477435e+00 -3.901163e+00 -6.075902e+00 -1.502208e+01 -1.664106e+01 -3.580958e+00 2.455531e+00 2.426187e+00 -2.755129e+00 -2.880833e+00 -4.421829e+00 7.316380e+01 -2.848364e-01 7.955641e-01 9.118896e-01 5.133289e-01 -5.483427e-01 -4.643992e-01 1.305387e-01 -3.505839e-01 -6.571574e-01 -1.303041e-01 6.001406e-01 4.479190e-01 -6.540503e-01 -2.601264e-02 2.749573e-02 -6.762104e-02 -4.559543e-03 1.747164e-01 2.035575e-01 2.175437e-02 -1.406516e-01 -3.367943e-02 3.075168e-02 -4.379739e-02 -7.799166e-02 -6.458455e-02
<VARIANCE> 39
 9.857627e+00 2.894313e+01 5.016832e+01 3.648062e+01 5.755539e+01 4.346952e+01 4.918401e+01 3.469870e+01 4.079209e+01 4.690837e+01 3.241444e+01 3.682227e+01 1.434132e+01 2.147127e-01 5.044224e-01 7.671901e-01 8.814298e-01 1.343013e+00 1.219511e+00 1.055930e+00 1.472921e+00 1.033157e+00 1.264891e+00 1.339576e+00 1.365495e+00 1.649577e-01 3.341952e-02 7.840227e-02 1.000813e-01 1.645916e-01 1.661440e-01 1.652130e-01 1.701215e-01 2.460532e-01 1.856985e-01 2.125915e-01 1.998225e-01 1.626155e-01 2.352928e-02
<GCONST> 8.757730e+01
<STATE> 4
<MEAN> 39
 -6.792048e+00 -4.555800e-01 -4.613891e-01 -7.545834e-01 -1.174499e+01 -1.443389e+01 -1.202200e+00 2.757245e-01 8.594000e-01 -1.662947e+00 -5.020313e-01 -1.334454e+00 6.390318e+01 -3.834150e-01 1.866438e-01 -1.128421e-01 1.951839e-01 6.437094e-01 6.453144e-01 2.051757e-01 -3.525106e-02 1.986020e-02 1.887256e-01 7.205299e-02 2.395984e-01 -1.029486e+00 1.233846e-02 -7.042748e-02 -9.811826e-02 -6.826670e-02 8.316055e-02 1.005297e-01 4.659463e-04 6.392251e-02 4.674206e-02 5.097459e-02 -1.449483e-03 -7.734960e-03 1.255057e-02
<VARIANCE> 39
 1.794279e+01 2.793407e+01 4.953374e+01 2.306607e+01 5.364368e+01 5.199619e+01 6.555669e+01 4.220729e+01 3.995067e+01 4.586230e+01 4.324128e+01 4.152741e+01 3.048215e+01 3.225434e-01 7.316397e-01 9.780935e-01 1.069974e+00 1.450451e+00 1.784387e+00 1.649011e+00 1.780675e+00 1.673485e+00 1.861656e+00 2.294171e+00 1.548583e+00 4.526087e-01 4.625515e-02 1.114031e-01 1.627334e-01 1.731837e-01 2.066793e-01 3.106349e-01 3.171232e-01 3.254182e-01 3.077564e-01 3.261314e-01 4.137114e-01 2.948793e-01 5.517067e-02
<GCONST> 1.003048e+02
<TRANSP> 5
 0.000000e+00 1.000000e+00 0.000000e+00 0.000000e+00 0.000000e+00
 0.000000e+00 9.019267e-01 9.807330e-02 0.000000e+00 0.000000e+00
 0.000000e+00 0.000000e+00 8.815003e-01 1.184997e-01 0.000000e+00
 0.000000e+00 0.000000e+00 0.000000e+00 9.109108e-01 8.908918e-02
 0.000000e+00 0.000000e+00 0.000000e+00 0.000000e+00 0.000000e+00
<ENDHMM>
~h "ai"
<BEGINHMM>
<NUMSTATES> 5
<STATE> 2
<MEAN> 39
 -1.051279e+00 -7.041888e+00 -4.275204e+00 -6.938838e+00 -1.178334e+01 -1.558269e+01 -7.568380e+00 -1.703074e+00 4.204347e+00 -1.928999e+00 -3.416126e+00 -4.247715e+00 7.542365e+01 -4.505336e-01 1.047323e+00 1.828518e+00 1.548313e+00 -1.377227e+00 -1.779290e+00 -4.073536e-01 -2.672128e-01 -7.723672e-01 -1.069436e+00 8.508712e-01 1.285964e+00 -5.801133e-01 -4.857918e-02 2.152072e-01 2.366968e-02 -1.464470e-01 -3.306264e-03 5.161177e-01 3.770097e-01 -3.848115e-01 -5.319806e-01 2.648056e-03 2.070877e-01 -4.973657e-02 -1.124195e-01
<VARIANCE> 39
 1.159592e+01 2.725796e+01 6.066164e+01 4.285202e+01 7.348996e+01 7.139082e+01 4.337590e+01 4.749348e+01 4.751059e+01 7.788980e+01 5.171465e+01 4.863900e+01 1.040029e+01 4.111114e-01 7.868749e-01 1.087822e+00 1.751234e+00 1.873204e+00 3.345863e+00 2.082693e+00 4.526259e+00 3.398618e+00 3.233285e+00 3.329088e+00 1.752192e+00 2.980343e-01 5.470119e-02 1.145500e-01 2.136249e-01 2.064692e-01 4.073126e-01 4.141616e-01 2.958220e-01 5.609910e-01 4.107856e-01 5.872797e-01 5.965813e-01 4.218532e-01 2.958243e-02
<GCONST> 1.083334e+02
<STATE> 3
<MEAN> 39
 -3.035575e+00 5.087349e-01 3.470949e+00 -2.369586e+00 -1.672476e+01 -1.772538e+01 -5.706367e+00 -8.500010e+00 -6.465754e+00 -5.384969e+00 -3.641935e-01 -2.337291e+00 7.042677e+01 -3.606794e-01 1.122254e+00 6.150840e-01 4.034349e-01 3.054852e-01 5.965736e-01 3.655652e-01 -7.494208e-01 -8.609260e-01 -1.016623e-01 -3.117053e-01 -3.174500e-01 -9.627338e-01 1.610214e-02 -1.338474e-01 -1.952035e-01 -7.770199e-02 2.438082e-01 1.465396e-01 -2.442513e-02 2.135868e-01 2.594551e-01 9.250895e-02 -1.449584e-01 -1.270304e-01 -3.853511e-02
<VARIANCE> 39
 1.018924e+01 2.374767e+01 5.509413e+01 4.142117e+01 5.307447e+01 4.801525e+01 3.575764e+01 3.776978e+01 5.042171e+01 3.626674e+01 3.781529e+01 3.337855e+01 1.344995e+01 3.015587e-01 6.040995e-01 9.677541e-01 1.045480e+00 1.335232e+00 9.943352e-01 1.761586e+00 1.771224e+00 2.136715e+00 1.316165e+00 1.869038e+00 1.179832e+00 2.342782e-01 4.768841e-02 8.086668e-02 1.350901e-01 1.830172e-01 2.355937e-01 2.049272e-01 3.067073e-01 3.102607e-01 3.079097e-01 2.501535e-01 3.684815e-01 2.346027e-01 2.360666e-02
<GCONST> 9.390600e+01
<STATE> 4
<MEAN> 39
 -7.811137e+00 5.879039e+00 5.117829e+00 1.106400e+00 -9.580321e+00 -1.118241e+01 -2.242292e+00 -8.927308e+00 -5.786650e+00 -3.814480e+00 -2.824513e+00 -3.064966e+00 6.222410e+01 -3.665743e-01 -1.594889e-01 -3.131820e-01 1.046799e-01 7.981448e-01 7.776507e-01 3.033634e-01 3.934210e-01 2.451721e-01 1.639576e-01 7.215935e-02 1.439824e-01 -9.051498e-01 -4.366149e-03 -1.414507e-01 -9.963206e-02 -7.629732e-02 -1.630896e-02 8.392911e-04 -6.884556e-03 1.105403e-01 1.004371e-01 4.162270e-02 6.838861e-02 1.014166e-01 4.572865e-02
<VARIANCE> 39
 2.064113e+01 3.341566e+01 4.609745e+01 2.656807e+01 5.178129e+01 4.344003e+01 4.888914e+01 3.422891e+01 4.675071e+01 4.245920e+01 3.057952e+01 3.093431e+01 2.330498e+01 3.664021e-01 7.485861e-01 9.397392e-01 8.864717e-01 1.374585e+00 1.391863e+00 1.559054e+00 1.800468e+00 1.743012e+00 1.612504e+00 1.553417e+00 1.276884e+00 2.368549e-01 5.753971e-02 1.029348e-01 1.364318e-01 1.716527e-01 2.197888e-01 2.185109e-01 2.787093e-01 2.912968e-01 2.846864e-01 2.519835e-01 2.759279e-01 2.476258e-01 1.977137e-02
<GCONST> 9.487002e+01
<TRANSP> 5
 0.000000e+00 1.000000e+00 0.000000e+00 0.000000e+00 0.000000e+00
 0.000000e+00 8.161451e-01 1.838549e-01 0.000000e+00 0.000000e+00
 0.000000e+00 0.000000e+00 8.497399e-01 1.502601e-01 0.000000e+00
 0.000000e+00 0.000000e+00 0.000000e+00 8.938779e-01 1.061221e-01
 0.000000e+00 0.000000e+00 0.000000e+00 0.000000e+00 0.000000e+00
<ENDHMM>
~h "ao"
<BEGINHMM>
<NUMSTATES> 5
<STATE> 2
<MEAN> 39
 -1.071360e-01 -6.111940e+00 -1.079803e+01 -1.861333e+01 -1.487968e+01 -7.182131e-01 6.872884e+00 1.723124e-01 -5.141996e+00 -7.620847e+00 -3.976171e+00 -3.413378e+00 7.545556e+01 2.417558e-01 4.812391e-01 1.571795e-01 -3.642670e-01 -7.303224e-01 -1.253198e-01 -7.091303e-02 -1.776564e-01 2.558653e-01 1.891858e-01 -2.251961e-01 1.477703e-01 -5.047641e-01 2.390462e-02 1.534242e-01 3.489836e-02 3.978983e-05 5.670423e-03 -5.898391e-02 -5.173592e-02 -7.132402e-02 2.555660e-02 7.508504e-02 -5.364533e-02 -1.532625e-02 -9.113127e-02
<VARIANCE> 39
 1.379305e+01 3.083031e+01 2.253802e+01 2.321590e+01 7.526998e+01 6.710745e+01 4.468468e+01 7.922893e+01 4.700282e+01 5.106200e+01 3.100570e+01 3.799380e+01 2.134645e+01 5.920081e-01 9.155020e-01 4.839677e-01 8.689821e-01 1.281094e+00 1.628381e+00 1.347047e+00 2.079174e+00 2.066892e+00 2.292201e+00 1.376787e+00 1.618862e+00 6.664598e-01 1.025094e-01 9.648675e-02 8.896905e-02 1.620698e-01 2.670245e-01 3.010676e-01 2.144127e-01 3.109159e-01 3.688236e-01 3.459023e-01 2.229207e-01 2.693095e-01 5.923960e-02
<GCONST> 9.906042e+01
<STATE> 3
<MEAN> 39
 4.258244e+00 -2.778802e-01 -1.064599e+01 -2.148434e+01 -1.749629e+01 1.062593e+00 5.823777e+00 -4.812667e+00 -2.104326e+00 -3.636850e+00 -4.775288e+00 -1.916654e+00 7.062797e+01 2.012197e-02 6.761051e-01 2.580939e-01 5.093966e-02 -3.675659e-01 -6.199286e-01 -2.727307e-01 2.634264e-01 1.192047e-01 2.857094e-02 -1.030580e-01 -9.254713e-02 -4.359620e-01 -3.976658e-02 3.649478e-02 2.322328e-02 7.342803e-02 5.400855e-02 -5.459650e-02 -5.016116e-02 8.115219e-03 3.922978e-03 -2.210016e-02 1.988018e-02 -2.281760e-02 -3.034353e-02
<VARIANCE> 39
 5.308241e+00 3.487954e+01 4.121791e+01 2.421769e+01 7.472758e+01 5.579156e+01 3.420276e+01 7.982815e+01 5.589922e+01 5.226051e+01 3.214766e+01 3.134280e+01 1.399021e+01 1.043170e-01 4.572905e-01 4.166717e-01 5.247353e-01 7.327468e-01 9.696478e-01 1.005933e+00 1.094450e+00 1.057868e+00 8.542913e-01 8.480538e-01 8.109460e-01 1.558075e-01 1.857178e-02 5.000364e-02 6.107650e-02 7.358135e-02 1.341041e-01 1.434659e-01 1.529738e-01 1.827152e-01 1.736008e-01 1.589198e-01 1.562350e-01 1.337835e-01 1.339421e-02
<GCONST> 7.875592e+01
<STATE> 4
<MEAN> 39
 -2.729189e-01 7.651717e+00 -5.518519e+00 -1.417717e+01 -1.634138e+01 -7.793280e+00 6.010523e-01 -6.422759e-01 -1.316437e+00 -1.772406e+00 -4.301342e+00 -3.456033e+00 6.121580e+01 -6.271638e-01 -9.079985e-02 2.106542e-01 9.470456e-01 9.839012e-01 4.843264e-02 -3.337485e-01 9.218264e-02 1.413392e-01 8.358669e-02 2.879082e-01 2.028881e-01 -7.512907e-01 -4.511396e-02 -1.360569e-01 -3.113510e-02 2.190880e-02 8.938535e-02 1.218380e-01 6.505007e-02 2.051007e-02 2.441529e-02 2.997111e-02 6.236951e-02 7.020913e-02 2.684841e-02
<VARIANCE> 39
 1.236984e+01 2.134493e+01 2.846511e+01 3.486224e+01 5.383775e+01 3.148462e+01 4.371677e+01 3.048123e+01 3.753490e+01 4.228992e+01 2.506489e+01 2.747519e+01 3.191907e+01 3.300646e-01 7.123504e-01 6.801988e-01 1.106482e+00 1.455724e+00 1.473281e+00 1.340900e+00 1.679274e+00 1.846449e+00 1.616118e+00 1.493195e+00 1.433115e+00 2.254556e-01 4.429628e-02 9.370387e-02 1.054689e-01 1.808761e-01 2.090847e-01 2.276313e-01 2.292445e-01 2.856771e-01 3.394367e-01 2.935288e-01 2.492028e-01 2.487093e-01 2.470418e-02
<GCONST> 9.235612e+01
<TRANSP> 5
 0.000000e+00 1.000000e+00 0.000000e+00 0.000000e+00 0.000000e+00
 0.000000e+00 8.119433e-01 1.880568e-01 0.000000e+00 0.000000e+00
 0.000000e+00 0.000000e+00 9.127535e-01 8.724650e-02 0.000000e+00
 0.000000e+00 0.000000e+00 0.000000e+00 9.191220e-01 8.087805e-02
 0.000000e+00 0.000000e+00 0.000000e+00 0.000000e+00 0.000000e+00
<ENDHMM>
~h "au"
<BEGINHMM>
<NUMSTATES> 5
<STATE> 2
<MEAN> 39
 1.154256e+00 -4.583058e+00 -1.093065e+01 -1.083189e+01 -1.078990e+01 -8.115541e+00 -6.381031e+00 -6.049956e+00 1.954596e+00 2.407229e-01 6.429607e-01 -5.237767e+00 7.465391e+01 4.681279e-02 6.286618e-01 4.374487e-01 7.365885e-01 -2.787212e-01 -8.563865e-01 -8.651668e-01 -6.927000e-01 -5.122352e-02 -1.998957e-01 3.355883e-01 4.524237e-01 -3.992649e-01 1.158477e-02 1.263254e-01 3.788037e-02 6.487127e-02 6.715626e-02 2.419032e-02 6.382684e-02 -9.646711e-02 -1.478996e-01 -1.375933e-01 -3.829431e-02 4.544403e-02 -9.296400e-02
<VARIANCE> 39
 9.521153e+00 2.906601e+01 3.400708e+01 5.939354e+01 5.255939e+01 8.550815e+01 7.098163e+01 4.283395e+01 6.632269e+01 6.652357e+01 4.080312e+01 6.004998e+01 1.286229e+01 2.135129e-01 6.364039e-01 4.694350e-01 7.660848e-01 1.022422e+00 1.342084e+00 1.269145e+00 1.906294e+00 1.805169e+00 1.559660e+00 1.457815e+00 1.493118e+00 1.782722e-01 2.712949e-02 7.207458e-02 7.481808e-02 1.057379e-01 1.605286e-01 2.193555e-01 2.101591e-01 2.179538e-01 2.717948e-01 2.486636e-01 2.387628e-01 2.471815e-01 1.720018e-02
<GCONST> 9.126788e+01
<STATE> 3
<MEAN> 39
 2.647298e+00 3.225446e+00 -5.993049e+00 -6.834113e+00 -1.155474e+01 -1.069973e+01 -9.382157e+00 -1.414971e+01 -5.670133e+00 -2.604398e+00 2.308838e+00 -5.327313e-01 6.857204e+01 -4.142859e-02 9.785572e-01 4.841627e-01 4.400423e-01 3.084268e-01 1.207005e-02 7.796109e-03 -2.240674e-01 -8.609925e-01 -7.929937e-01 -4.679824e-01 6.382218e-02 -9.183654e-01 -7.493323e-02 -4.596861e-02 6.139506e-03 -8.150688e-02 3.911411e-02 1.116743e-01 1.194657e-01 2.470822e-01 1.147662e-01 3.415065e-02 -1.284367e-01 -1.118556e-01 -2.592748e-02
<VARIANCE> 39
 8.160352e+00 2.364836e+01 2.525566e+01 4.852121e+01 4.124618e+01 6.190005e+01 6.246888e+01 6.299336e+01 8.655273e+01 5.320168e+01 2.710749e+01 3.917786e+01 1.315792e+01 1.938825e-01 6.629511e-01 6.483501e-01 1.033537e+00 1.038392e+00 1.388339e+00 1.547662e+00 1.679446e+00 1.667440e+00 1.515406e+00 1.595589e+00 1.322857e+00 2.285295e-01 2.740150e-02 6.030509e-02 9.775747e-02 1.493767e-01 1.875355e-01 1.815337e-01 2.428088e-01 2.603258e-01 2.964773e-01 2.227210e-01 2.498314e-01 2.254016e-01 1.487775e-02
<GCONST> 9.064462e+01
<STATE> 4
<MEAN> 39
 -1.537296e+00 8.816713e+00 -2.093721e+00 -3.485994e+00 -6.997313e+00 -7.264534e+00 -5.746040e+00 -9.656880e+00 -6.437102e+00 -6.582690e+00 -2.970638e+00 -1.805326e+00 6.058953e+01 -6.085863e-01 -1.407844e-01 1.860019e-01 3.588977e-01 6.464082e-01 3.887953e-01 2.860703e-01 6.091956e-01 3.472518e-01 8.086325e-02 -2.228994e-01 -4.559807e-02 -7.631813e-01 -5.193051e-02 -1.647500e-01 -7.321465e-02 -1.710643e-02 3.697645e-02 2.178473e-02 1.139508e-02 4.588788e-02 7.233098e-02 1.301152e-01 1.206052e-01 7.895637e-02 4.057955e-02
<VARIANCE> 39
 1.011688e+01 3.058858e+01 1.922601e+01 3.002592e+01 3.035035e+01 3.452200e+01 4.160158e+01 3.525730e+01 4.289736e+01 3.538156e+01 3.109363e+01 2.998957e+01 2.332758e+01 3.196142e-01 7.074216e-01 5.918031e-01 9.434742e-01 1.132026e+00 1.420052e+00 1.794724e+00 1.650220e+00 1.653115e+00 1.764355e+00 1.460703e+00 1.529873e+00 2.463435e-01 3.805310e-02 8.855084e-02 9.767468e-02 1.445339e-01 1.845198e-01 2.306509e-01 2.746299e-01 2.775023e-01 2.791112e-01 3.001764e-01 2.616246e-01 2.533559e-01 1.938377e-02
<GCONST> 9.047145e+01
<TRANSP> 5
 0.000000e+00 1.000000e+00 0.000000e+00 0.000000e+00 0.000000e+00
 0.000000e+00 8.794352e-01 1.205648e-01 0.000000e+00 0.000000e+00
 0.000000e+00 0.000000e+00 8.584024e-01 1.415976e-01 0.000000e+00
 0.000000e+00 0.000000e+00 0.000000e+00 9.037492e-01 9.625085e-02
 0.000000e+00 0.000000e+00 0.000000e+00 0.000000e+00 0.000000e+00
<ENDHMM>
~h "ee"
<BEGINHMM>
<NUMSTATES> 5
<STATE> 2
<MEAN> 39
 -4.204443e+00 -1.461073e+00 5.810305e+00 -3.983135e+00 -2.188882e+01 -1.908638e+01 -4.762619e+00 -9.694963e+00 -7.613402e+00 -5.414051e+00 2.202644e+00 -1.697295e+00 7.521017e+01 2.586525e-03 -3.325557e-02 -2.890170e-02 -2.258019e-02 2.667487e-02 -1.007321e-02 2.369348e-02 8.098789e-02 4.256146e-02 -4.816322e-02 1.578601e-02 3.191381e-03 -1.091985e-01 5.144685e-03 3.080115e-02 -2.314040e-02 1.598742e-02 3.570933e-02 1.462413e-02 9.062531e-03 1.837314e-02 1.323326e-02 -1.902851e-02 -2.631643e-02 -5.741433e-03 -3.779234e-02
<VARIANCE> 39
 7.479226e+00 2.175853e+01 4.469387e+01 5.278025e+01 4.138770e+01 5.032006e+01 3.677001e+01 4.403672e+01 2.493908e+01 4.105724e+01 5.134309e+01 6.576820e+01 9.428631e+00 8.423441e-02 2.734997e-01 3.230344e-01 4.613541e-01 5.767449e-01 6.145146e-01 6.468377e-01 6.292713e-01 6.573211e-01 6.673319e-01 6.403129e-01 5.954752e-01 9.803528e-02 1.510927e-02 4.507376e-02 5.809173e-02 8.259452e-02 1.052655e-01 1.213075e-01 1.292481e-01 1.130043e-01 1.246299e-01 1.305795e-01 1.139432e-01 1.126344e-01 1.427024e-02
<GCONST> 7.120332e+01
<STATE> 3
<MEAN> 39
 -3.139840e+00 -6.502244e-01 5.571692e+00 -1.087338e+00 -1.987417e+01 -2.180654e+01 -6.282457e+00 -5.638502e+00 -5.263205e+00 -7.019624e+00 -6.657900e-01 7.402708e-01 7.129536e+01 4.261210e-02 2.036892e-01 -2.426338e-01 9.914384e-02 3.096611e-01 1.404223e-01 2.045792e-01 1.934514e-01 1.566222e-01 -1.875122e-01 -3.227628e-01 -2.017002e-01 -5.714116e-01 -4.787212e-03 5.138193e-02 -1.901380e-02 5.615894e-02 1.651042e-01 9.430488e-02 6.431064e-03 1.933501e-02 -3.956494e-02 2.606531e-02 -8.877286e-02 -5.827763e-02 -1.054088e-01
<VARIANCE> 39
 1.035971e+01 1.998361e+01 2.767217e+01 3.892703e+01 7.966739e+01 4.906093e+01 2.739914e+01 4.360438e+01 4.986325e+01 3.535835e+01 4.398575e+01 3.660123e+01 1.369092e+01 2.229305e-01 5.248844e-01 5.821775e-01 8.917434e-01 1.254280e+00 8.979132e-01 1.694012e+00 1.207324e+00 1.464084e+00 1.273431e+00 1.355935e+00 1.390098e+00 2.141038e-01 3.756645e-02 9.972872e-02 9.789788e-02 1.668964e-01 2.146238e-01 1.954059e-01 2.928434e-01 2.459989e-01 2.482905e-01 2.538007e-01 2.437816e-01 2.254304e-01 3.291629e-02
<GCONST> 8.999050e+01
<STATE> 4
<MEAN> 39
 -5.511045e+00 6.840801e-02 3.279987e+00 -9.266181e-01 -1.379634e+01 -1.479811e+01 -3.296328e+00 -4.251199e+00 -5.000285e+00 -5.277258e+00 -1.021402e+00 -1.174332e+00 6.410709e+01 -2.666784e-01 1.355999e-01 -5.393493e-01 1.987676e-01 1.184376e+00 9.372259e-01 1.929911e-01 2.996829e-01 2.897140e-01 4.102125e-01 -8.303101e-02 2.288222e-01 -1.143743e+00 -2.347313e-02 -2.936634e-02 -5.261980e-02 -3.056866e-02 9.182717e-02 5.398870e-02 2.525738e-03 1.358315e-02 2.558684e-02 4.485289e-02 9.003438e-02 3.284907e-02 1.364010e-02
<VARIANCE> 39
 1.081067e+01 2.094930e+01 2.780406e+01 3.084873e+01 5.300007e+01 5.685918e+01 3.757833e+01 3.904462e+01 4.390183e+01 4.870002e+01 4.413229e+01 4.803603e+01 3.109066e+01 4.093810e-01 9.289226e-01 8.045377e-01 1.171793e+00 1.502307e+00 1.813174e+00 1.738519e+00 2.177964e+00 2.383253e+00 1.987893e+00 2.233508e+00 1.851727e+00 5.244156e-01 5.387716e-02 1.424605e-01 1.209756e-01 1.754637e-01 2.310285e-01 2.893732e-01 3.254065e-01 3.866537e-01 4.536215e-01 3.291586e-01 3.480670e-01 3.485414e-01 6.683139e-02
<GCONST> 1.013402e+02
<TRANSP> 5
 0.000000e+00 1.000000e+00 0.000000e+00 0.000000e+00 0.000000e+00
 0.000000e+00 9.361517e-01 6.384834e-02 0.000000e+00 0.000000e+00
 0.000000e+00 0.000000e+00 8.111859e-01 1.888141e-01 0.000000e+00
 0.000000e+00 0.000000e+00 0.000000e+00 8.550374e-01 1.449626e-01
 0.000000e+00 0.000000e+00 0.000000e+00 0.000000e+00 0.000000e+00
<ENDHMM>
~h "ei"
<BEGINHMM>
<NUMSTATES> 5
<STATE> 2
<MEAN> 39
 -2.796143e+00 -4.622553e+00 1.059593e+00 -4.920782e+00 -1.810178e+01 -1.982266e+01 -3.694140e+00 -1.644018e+00 -2.647977e+00 -6.762932e+00 9.280865e-01 -2.376611e+00 7.550210e+01 -9.909241e-02 4.879235e-01 6.483536e-01 2.171748e-01 -2.818265e-01 -9.796568e-02 -2.900647e-02 -7.854292e-01 -6.954683e-01 3.732130e-02 3.799703e-01 1.054953e-01 -3.065577e-01 -3.574658e-03 8.221265e-02 -2.098638e-03 4.746619e-02 6.118392e-02 8.329945e-02 -3.588825e-03 -7.316568e-02 -5.224991e-02 4.555727e-03 -7.189631e-02 -5.402978e-02 -6.571233e-02
<VARIANCE> 39
 6.251971e+00 2.279224e+01 3.822621e+01 4.999876e+01 4.891531e+01 6.927267e+01 4.384237e+01 5.283656e+01 3.696062e+01 5.897137e+01 3.777021e+01 4.336537e+01 9.439109e+00 1.266662e-01 3.849509e-01 5.030346e-01 5.482439e-01 7.432299e-01 8.628892e-01 8.625419e-01 1.300425e+00 9.608736e-01 1.246884e+00 9.562893e-01 9.764287e-01 1.710818e-01 2.050752e-02 5.229546e-02 7.569578e-02 9.262192e-02 1.153502e-01 1.314347e-01 1.632727e-01 1.957352e-01 1.615818e-01 1.781505e-01 1.585274e-01 1.623813e-01 2.078773e-02
<GCONST> 8.059782e+01
<STATE> 3
<MEAN> 39
 -3.871590e+00 2.478766e+00 8.713766e+00 -1.966278e+00 -1.883346e+01 -1.514894e+01 -3.336892e+00 -1.024465e+01 -9.229330e+00 -4.935310e+00 7.296032e-01 -3.113950e+00 6.967529e+01 -1.273934e-01 6.891727e-01 2.966903e-01 2.676107e-01 4.390528e-01 5.618640e-01 1.553705e-01 -2.578512e-01 -1.987947e-01 -1.126365e-01 -3.932922e-01 -3.492181e-01 -6.802870e-01 -1.862631e-02 -3.400443e-02 -7.026738e-02 2.991680e-03 1.123119e-01 3.359032e-02 -5.247829e-03 9.394252e-02 9.746566e-02 -2.869511e-02 -2.528555e-02 4.171774e-02 -2.388062e-02
<VARIANCE> 39
 5.322248e+00 2.178340e+01 3.138292e+01 4.847502e+01 5.165160e+01 6.758177e+01 2.586079e+01 3.979967e+01 3.263977e+01 5.069429e+01 3.650202e+01 3.586604e+01 1.159542e+01 1.231007e-01 3.898844e-01 6.218655e-01 8.190013e-01 9.353870e-01 1.007460e+00 1.011392e+00 1.357600e+00 9.150041e-01 9.703138e-01 9.201029e-01 9.949102e-01 1.548086e-01 2.175787e-02 4.658537e-02 9.038059e-02 1.303237e-01 1.600610e-01 1.747426e-01 1.777792e-01 2.195691e-01 1.582985e-01 1.696304e-01 1.609326e-01 1.721670e-01 1.357901e-02
<GCONST> 8.070622e+01
<STATE> 4
<MEAN> 39
 -7.241209e+00 6.318869e+00 9.363964e+00 2.359430e+00 -1.257389e+01 -9.558383e+00 -1.635323e+00 -1.038746e+01 -8.074223e+00 -6.093179e+00 -2.845787e+00 -2.980908e+00 6.280409e+01 -2.975254e-01 -1.554421e-01 -6.274657e-01 1.436445e-01 1.120690e+00 7.845116e-01 1.614967e-01 3.850406e-01 1.455086e-01 1.973293e-01 1.850127e-02 1.415888e-01 -8.980471e-01 -3.103915e-02 -1.606873e-01 -1.522025e-01 -8.774947e-02 1.657839e-02 2.137791e-02 4.700319e-02 1.481972e-01 8.775496e-02 1.215649e-01 8.677343e-02 6.181990e-02 5.547456e-03
<VARIANCE> 39
 1.149037e+01 2.668263e+01 4.588163e+01 2.214448e+01 6.882514e+01 5.367618e+01 3.754420e+01 3.436254e+01 4.269820e+01 3.886267e+01 2.481261e+01 3.842304e+01 2.892153e+01 2.927216e-01 7.995676e-01 1.101206e+00 8.856993e-01 1.720956e+00 1.431226e+00 1.722933e+00 1.987600e+00 1.669945e+00 1.680647e+00 1.550430e+00 1.434627e+00 3.367223e-01 5.076765e-02 1.078557e-01 1.344317e-01 1.432294e-01 2.745706e-01 2.680705e-01 3.355021e-01 3.347639e-01 2.593083e-01 2.683547e-01 2.626914e-01 2.486695e-01 4.153908e-02
<GCONST> 9.621258e+01
<TRANSP> 5
 0.000000e+00 1.000000e+00 0.000000e+00 0.000000e+00 0.000000e+00
 0.000000e+00 8.863584e-01 1.136416e-01 0.000000e+00 0.000000e+00
 0.000000e+00 0.000000e+00 8.784891e-01 1.215109e-01 0.000000e+00
 0.000000e+00 0.000000e+00 0.000000e+00 8.892810e-01 1.107190e-01
 0.000000e+00 0.000000e+00 0.000000e+00 0.000000e+00 0.000000e+00
<ENDHMM>
~h "ii"
<BEGINHMM>
<NUMSTATES> 5
<STATE> 2
<MEAN> 39
 -5.277769e+00 3.641386e+00 1.097567e+01 -4.414701e+00 -1.566778e+01 -1.334536e+01 -4.496728e+00 -1.386375e+01 -1.079584e+01 -6.457557e+00 -2.330697e+00 -5.386920e+00 7.127864e+01 9.340139e-03 2.368097e-01 -1.320377e-02 1.379269e-01 1.498757e-01 1.434698e-01 7.965095e-02 4.464032e-02 6.048533e-02 -1.036960e-02 -4.137099e-03 -8.003524e-02 -2.843543e-01 4.071252e-03 3.116234e-02 -5.106681e-02 5.667342e-02 8.048962e-02 2.594124e-02 2.687082e-03 5.106751e-02 3.436448e-02 -4.550111e-03 -1.925905e-02 8.143296e-03 -6.041753e-02
<VARIANCE> 39
 9.333080e+00 1.675248e+01 3.044699e+01 6.602384e+01 4.332107e+01 6.625303e+01 4.163635e+01 5.212869e+01 3.187114e+01 3.331635e+01 3.130751e+01 5.028199e+01 8.765420e+00 1.430018e-01 3.259071e-01 4.020093e-01 6.071163e-01 7.808877e-01 7.631150e-01 7.812210e-01 6.663911e-01 7.406398e-01 8.292533e-01 9.596353e-01 7.566189e-01 1.035325e-01 2.692652e-02 5.297419e-02 6.498662e-02 9.875848e-02 1.383914e-01 1.400703e-01 1.437627e-01 1.591000e-01 1.365880e-01 1.555896e-01 1.750737e-01 1.259432e-01 1.840531e-02
<GCONST> 7.677472e+01
<STATE> 3
<MEAN> 39
 -5.966870e+00 9.068316e+00 1.055176e+01 3.796506e-02 -1.151487e+01 -1.181861e+01 -7.371399e-01 -1.261200e+01 -9.044387e+00 -6.122341e+00 -3.313624e+00 -4.077177e+00 6.802757e+01 -3.708427e-02 1.985532e-01 -1.683736e-01 1.692492e-01 4.407172e-01 1.412064e-01 1.082675e-02 1.968332e-01 1.440486e-01 6.281304e-02 1.806970e-02 7.285671e-02 -4.443702e-01 -3.167604e-02 -6.097122e-02 -3.283757e-02 3.576795e-03 3.635591e-02 1.795384e-02 -3.379752e-02 3.442308e-02 2.389269e-03 -3.276099e-02 1.732060e-03 1.762525e-02 -2.905495e-02
<VARIANCE> 39
 1.307982e+01 1.449113e+01 7.753033e+01 2.636793e+01 4.062956e+01 3.890403e+01 2.522020e+01 3.749434e+01 2.782400e+01 3.084350e+01 3.246460e+01 3.052394e+01 7.668873e+00 1.389069e-01 3.612806e-01 5.238625e-01 5.704874e-01 8.289680e-01 8.927012e-01 8.728843e-01 1.041574e+00 8.722818e-01 8.127135e-01 9.894321e-01 8.529615e-01 2.162315e-01 2.289030e-02 5.198850e-02 8.338146e-02 7.845516e-02 1.320434e-01 1.528088e-01 1.732201e-01 1.758478e-01 1.668878e-01 1.460098e-01 1.630836e-01 1.567716e-01 1.847350e-02
<GCONST> 7.728124e+01
<STATE> 4
<MEAN> 39
 -9.601013e+00 8.725987e+00 9.713870e+00 2.548830e+00 -6.155139e+00 -7.539963e+00 -1.141694e-01 -1.045857e+01 -7.961454e+00 -5.418104e+00 -3.574054e+00 -3.016091e+00 6.006143e+01 -2.568182e-01 -5.106409e-01 -8.385418e-01 1.492953e-01 7.269256e-01 6.312847e-01 2.688072e-01 6.246353e-01 4.113612e-01 1.496682e-01 1.823794e-02 1.425717e-01 -7.324194e-01 -1.993471e-02 -9.458292e-02 -6.525120e-02 -9.694026e-02 -5.274191e-02 3.576194e-02 4.618685e-02 1.215466e-01 9.831454e-02 7.898267e-02 7.457999e-02 2.527857e-02 3.421105e-02
<VARIANCE> 39
 1.849777e+01 2.284252e+01 5.065435e+01 1.982393e+01 3.779096e+01 4.063943e+01 4.522971e+01 2.779858e+01 3.006633e+01 3.081661e+01 2.010136e+01 2.860148e+01 2.062930e+01 2.949707e-01 6.266618e-01 8.893384e-01 8.325263e-01 1.500061e+00 1.168918e+00 1.689740e+00 1.651685e+00 1.820961e+00 1.942297e+00 1.560053e+00 1.487235e+00 2.423688e-01 5.632604e-02 1.048327e-01 1.331920e-01 1.471318e-01 2.192143e-01 2.071355e-01 3.126565e-01 2.356416e-01 3.252879e-01 3.652915e-01 3.197034e-01 2.751547e-01 2.831732e-02
<GCONST> 9.271838e+01
<TRANSP> 5
 0.000000e+00 1.000000e+00 0.000000e+00 0.000000e+00 0.000000e+00
 0.000000e+00 9.041651e-01 9.583496e-02 0.000000e+00 0.000000e+00
 0.000000e+00 0.000000e+00 8.930221e-01 1.069779e-01 0.000000e+00
 0.000000e+00 0.000000e+00 0.000000e+00 8.799363e-01 1.200636e-01
 0.000000e+00 0.000000e+00 0.000000e+00 0.000000e+00 0.000000e+00
<ENDHMM>
~h "oe"
<BEGINHMM>
<NUMSTATES> 5
<STATE> 2
<MEAN> 39
 6.548538e-01 -4.120341e+00 -7.728774e+00 -9.394009e+00 -1.094684e+01 -1.252344e+01 -1.127136e+01 -1.243327e+01 -4.775680e-01 2.539619e+00 2.398013e+00 -8.377160e-01 7.438041e+01 -6.160105e-01 -8.988183e-01 1.108404e+00 2.221337e+00 2.708670e-01 -2.385100e+00 -1.418209e+00 1.113963e+00 1.699866e+00 -4.306365e-02 -9.375716e-01 -8.412055e-01 1.875463e-01 -6.667711e-05 3.212658e-01 3.573453e-01 -1.115701e-01 -5.155874e-01 -1.563821e-01 6.833484e-01 5.552993e-01 -3.920369e-01 -8.408080e-01 -3.702233e-01 3.691964e-01 -2.195028e-01
<VARIANCE> 39
 1.093412e+01 2.388606e+01 4.546989e+01 4.176862e+01 4.267481e+01 6.177461e+01 3.316604e+01 5.120472e+01 5.218738e+01 4.359595e+01 4.889148e+01 4.972474e+01 1.278931e+01 2.700710e-01 8.791054e-01 1.238178e+00 1.818220e+00 2.594614e+00 2.810961e+00 3.979825e+00 3.722018e+00 3.557341e+00 4.635995e+00 3.069651e+00 2.890912e+00 3.724225e-01 4.946436e-02 1.006944e-01 1.878459e-01 3.151131e-01 3.302668e-01 5.735559e-01 5.288415e-01 6.216199e-01 8.201917e-01 4.226128e-01 7.358715e-01 6.008409e-01 4.135913e-02
<GCONST> 1.102684e+02
<STATE> 3
<MEAN> 39
 -1.377849e+00 -4.248133e+00 -6.979864e-01 -2.900581e+00 -1.449231e+01 -2.116843e+01 -1.015888e+01 -4.589710e+00 -1.267418e+00 -5.665835e+00 -9.378905e-01 -6.837180e-02 7.188598e+01 -3.426290e-01 7.030282e-01 7.921653e-01 5.457098e-01 -5.291299e-02 -2.036723e-01 5.597651e-01 5.316845e-01 -5.614235e-01 -6.055608e-01 1.448432e-01 2.940074e-01 -1.010044e+00 6.617280e-04 1.439947e-01 -2.388224e-01 -1.978280e-01 2.391570e-01 4.561715e-01 1.444295e-02 -2.773789e-01 -3.593123e-03 3.908999e-01 2.460888e-01 -9.127138e-02 -1.927551e-01
<VARIANCE> 39
 8.834135e+00 2.119645e+01 4.919156e+01 4.382347e+01 4.952695e+01 5.124897e+01 3.693604e+01 4.078015e+01 3.420973e+01 5.344230e+01 4.759456e+01 2.966792e+01 1.598291e+01 4.037146e-01 8.646428e-01 1.396120e+00 1.384598e+00 2.292574e+00 2.531145e+00 2.284003e+00 2.416851e+00 2.094937e+00 2.421934e+00 2.209669e+00 1.790062e+00 9.952515e-01 6.643784e-02 1.500539e-01 2.210822e-01 2.419096e-01 3.118508e-01 3.928460e-01 3.553306e-01 4.004157e-01 3.832490e-01 3.314781e-01 3.725786e-01 2.987648e-01 7.923229e-02
<GCONST> 1.049651e+02
<STATE> 4
<MEAN> 39
 -5.731050e+00 8.942521e-01 5.574596e-01 -1.486590e-01 -9.690840e+00 -1.502473e+01 -4.760812e+00 -3.793337e+00 -2.714599e+00 -3.422209e+00 6.151188e-01 7.691667e-01 6.283655e+01 -4.834655e-01 9.150900e-02 -2.076527e-01 6.288004e-02 6.064633e-01 9.303863e-01 4.315720e-01 1.988974e-01 1.461015e-01 2.873778e-01 6.808336e-02 8.844440e-02 -8.965188e-01 -9.188811e-03 -1.141219e-01 -5.085978e-02 -5.956785e-02 1.156329e-02 3.937490e-02 -1.533878e-02 1.683800e-02 4.500315e-02 -2.054930e-02 -5.824665e-02 3.304093e-03 1.346619e-01
<VARIANCE> 39
 1.656281e+01 2.056677e+01 3.003895e+01 2.947348e+01 3.986084e+01 4.452407e+01 4.830653e+01 4.529584e+01 3.509688e+01 3.678025e+01 2.844901e+01 2.749373e+01 3.584185e+01 3.466286e-01 6.782109e-01 8.441727e-01 8.871056e-01 1.386399e+00 1.645851e+00 1.458392e+00 1.498297e+00 1.636985e+00 1.560696e+00 1.476280e+00 1.310403e+00 5.549515e-01 6.146932e-02 1.229109e-01 1.411164e-01 1.624421e-01 2.601501e-01 2.747605e-01 2.735972e-01 2.858039e-01 3.089942e-01 2.671619e-01 2.677847e-01 2.629244e-01 9.394490e-02
<GCONST> 9.638826e+01
<TRANSP> 5
 0.000000e+00 1.000000e+00 0.000000e+00 0.000000e+00 0.000000e+00
 0.000000e+00 7.836628e-01 2.163372e-01 0.000000e+00 0.000000e+00
 0.000000e+00 0.000000e+00 8.407495e-01 1.592505e-01 0.000000e+00
 0.000000e+00 0.000000e+00 0.000000e+00 9.061434e-01 9.385663e-02
 0.000000e+00 0.000000e+00 0.000000e+00 0.000000e+00 0.000000e+00
<ENDHMM>
~h "oi"
<BEGINHMM>
<NUMSTATES> 5
<STATE> 2
<MEAN> 39
 1.847950e+00 -7.498538e-01 -7.937172e+00 -9.874361e+00 -1.066668e+01 -9.004670e+00 -1.060783e+01 -1.539728e+01 -4.336813e+00 -1.990805e-01 3.766966e+00 9.376748e-01 7.262893e+01 -7.417623e-01 -1.075195e+00 1.126525e+00 3.280942e+00 9.118546e-01 -2.858853e+00 -2.161797e+00 5.996820e-01 1.706026e+00 8.780620e-02 -6.812397e-01 -1.542556e+00 1.930243e-01 -1.002751e-01 2.194784e-01 6.298699e-01 1.954898e-01 -6.773406e-01 -5.532900e-01 6.462186e-01 8.570669e-01 -7.322861e-02 -9.490243e-01 -6.711698e-01 1.557493e-01 -1.651939e-01
<VARIANCE> 39
 1.180481e+01 2.940522e+01 4.003242e+01 6.900591e+01 4.366161e+01 6.488868e+01 5.687595e+01 5.247626e+01 6.347879e+01 4.517874e+01 4.748738e+01 6.342406e+01 1.275888e+01 3.419614e-01 8.955784e-01 2.051400e+00 1.947703e+00 3.854833e+00 3.651869e+00 4.177613e+00 5.172639e+00 3.763447e+00 6.276692e+00 5.232083e+00 2.966050e+00 3.475908e-01 6.015416e-02 1.446780e-01 1.902805e-01 5.911026e-01 4.738657e-01 9.835536e-01 1.004308e+00 6.539974e-01 1.407002e+00 6.575971e-01 9.220526e-01 1.069289e+00 4.365861e-02
<GCONST> 1.193499e+02
<STATE> 3
<MEAN> 39
 -2.635688e+00 -1.316989e+00 1.411397e+00 1.443826e+00 -1.153202e+01 -1.817671e+01 -9.344040e+00 -9.156263e+00 -4.492836e+00 -8.258659e+00 -1.342391e+00 -4.642509e-01 7.128404e+01 -4.832385e-01 3.485010e-01 7.227553e-01 3.965810e-01 6.956756e-03 2.771995e-01 1.123147e+00 5.332167e-01 -7.306813e-01 -6.280860e-01 1.564889e-01 2.403221e-01 -6.205016e-01 5.884527e-02 1.661182e-01 -3.148360e-01 -5.178537e-01 7.870972e-02 5.913324e-01 1.627803e-01 -2.873782e-01 -1.118263e-01 3.704803e-01 2.011889e-01 -6.382423e-03 -8.973256e-02
<VARIANCE> 39
 1.396065e+01 2.718019e+01 6.107462e+01 5.352395e+01 8.961819e+01 8.023189e+01 4.100706e+01 4.256400e+01 5.952425e+01 4.897767e+01 4.724535e+01 4.283472e+01 1.839952e+01 4.621625e-01 1.101522e+00 4.702752e+00 3.690369e+00 5.083069e+00 5.786733e+00 3.975982e+00 3.292562e+00 3.778245e+00 4.929463e+00 3.194794e+00 2.520499e+00 2.983455e-01 6.792629e-02 2.098152e-01 3.059999e-01 4.193329e-01 7.259871e-01 8.297674e-01 8.431142e-01 7.220817e-01 7.684234e-01 7.716473e-01 6.978332e-01 5.281869e-01 3.952391e-02
<GCONST> 1.204305e+02
<STATE> 4
<MEAN> 39
 -4.563803e+00 2.710740e+00 4.330359e+00 7.311139e-01 -1.202938e+01 -1.392064e+01 -3.536071e+00 -9.216491e+00 -6.673422e+00 -6.899746e+00 -4.286051e-01 -2.057607e+00 6.505071e+01 -3.488645e-01 2.456883e-01 -9.264583e-02 -1.021462e-01 6.255407e-01 8.133883e-01 3.489605e-01 1.868842e-01 1.252913e-01 3.219788e-01 -1.348030e-01 -5.407073e-03 -7.709194e-01 2.065581e-02 -9.341294e-02 -1.468167e-01 -3.027135e-02 1.153635e-01 4.502795e-02 -7.797901e-02 7.593994e-02 1.342553e-01 5.629716e-02 -1.772830e-02 9.367853e-03 1.365647e-02
<VARIANCE> 39
 1.580862e+01 2.293932e+01 4.263267e+01 3.712879e+01 5.511403e+01 5.150813e+01 4.443865e+01 4.543076e+01 3.412387e+01 4.204581e+01 2.913054e+01 3.908961e+01 2.786904e+01 3.021711e-01 8.713139e-01 1.238592e+00 1.107694e+00 1.704217e+00 1.575781e+00 1.897991e+00 2.384770e+00 1.729278e+00 1.528161e+00 1.345284e+00 1.578308e+00 2.988040e-01 5.403687e-02 1.200562e-01 1.634499e-01 1.684524e-01 2.330962e-01 2.900944e-01 3.313142e-01 3.914925e-01 3.112155e-01 2.950493e-01 2.295693e-01 2.764651e-01 3.132940e-02
<GCONST> 9.815437e+01
<TRANSP> 5
 0.000000e+00 1.000000e+00 0.000000e+00 0.000000e+00 0.000000e+00
 0.000000e+00 7.654189e-01 2.345812e-01 0.000000e+00 0.000000e+00
 0.000000e+00 0.000000e+00 8.359363e-01 1.640637e-01 0.000000e+00
 0.000000e+00 0.000000e+00 0.000000e+00 9.014034e-01 9.859665e-02
 0.000000e+00 0.000000e+00 0.000000e+00 0.000000e+00 0.000000e+00
<ENDHMM>
~h "oo"
<BEGINHMM>
<NUMSTATES> 5
<STATE> 2
<MEAN> 39
 4.348225e+00 1.038307e+01 -2.136525e+00 -1.666313e+01 -2.138332e+01 -1.533199e+01 -7.937171e+00 -7.639133e+00 1.163119e+00 1.946094e+00 -4.244907e+00 -8.478211e-01 6.666679e+01 -5.909652e-03 1.843297e-01 4.705694e-02 1.203264e-02 -9.380464e-02 -4.137166e-03 1.918869e-01 9.527980e-02 2.250523e-02 6.326193e-02 8.512549e-04 -1.418752e-01 -2.343620e-01 -3.532019e-02 1.431722e-03 -1.812217e-02 6.129146e-02 5.668403e-02 7.966439e-03 5.554873e-02 9.378920e-02 -2.803176e-02 -7.367522e-02 3.049682e-02 -3.197016e-02 -3.775113e-02
<VARIANCE> 39
 7.500654e+00 1.856960e+01 3.100338e+01 1.962697e+01 2.594908e+01 3.166811e+01 2.358608e+01 6.332757e+01 3.977689e+01 3.703032e+01 3.275169e+01 2.490202e+01 1.072459e+01 1.516277e-01 4.110698e-01 6.023613e-01 4.368336e-01 1.102519e+00 6.421581e-01 8.857856e-01 1.133640e+00 1.078745e+00 1.023049e+00 9.972213e-01 8.349524e-01 1.632621e-01 2.544411e-02 6.510054e-02 1.022750e-01 6.979334e-02 2.144602e-01 1.371663e-01 1.750340e-01 1.755542e-01 2.036412e-01 1.669420e-01 1.644268e-01 1.472095e-01 2.014448e-02
<GCONST> 7.770635e+01
<STATE> 3
<MEAN> 39
 1.520543e+00 1.538511e+01 3.309429e-02 -1.301855e+01 -2.240010e+01 -1.429236e+01 -4.622774e+00 -2.888528e+00 2.217771e+00 3.993561e+00 -2.617546e+00 -4.020338e+00 6.329984e+01 -4.795570e-01 3.107870e-02 5.813743e-02 5.576903e-01 6.462370e-01 7.189655e-02 6.205513e-02 5.203308e-01 1.434975e-01 -2.181930e-01 3.417749e-01 6.630304e-02 -5.094020e-01 -1.123060e-01 -1.672432e-01 1.570538e-02 4.235540e-02 1.692650e-01 9.638244e-02 1.205920e-02 -6.764315e-02 -4.987562e-02 -1.791149e-02 3.010824e-02 7.984208e-02 -7.757183e-03
<VARIANCE> 39
 1.429064e+01 1.726825e+01 3.124470e+01 2.999838e+01 3.170801e+01 2.793902e+01 2.682616e+01 4.323952e+01 2.369629e+01 3.671828e+01 2.044959e+01 1.690656e+01 1.458279e+01 1.668601e-01 4.578651e-01 7.351854e-01 7.302930e-01 1.098275e+00 1.097495e+00 1.554716e+00 1.121250e+00 1.105027e+00 7.696778e-01 7.503594e-01 8.987964e-01 1.636669e-01 3.339069e-02 6.023642e-02 1.282852e-01 1.424044e-01 1.933496e-01 1.667745e-01 2.693278e-01 1.414098e-01 2.002366e-01 1.284078e-01 1.628087e-01 1.679306e-01 1.311520e-02
<GCONST> 7.984057e+01
<STATE> 4
<MEAN> 39
 -2.318951e+00 8.285156e+00 -1.882032e+00 -9.284981e+00 -1.433278e+01 -9.463388e+00 -2.716622e+00 -3.167670e+00 1.254062e+00 1.369682e+00 -1.141825e+00 -1.674345e+00 5.882449e+01 -7.118340e-01 -6.282588e-01 -2.187271e-01 6.689237e-01 1.184544e+00 5.643119e-01 1.064649e-01 2.677295e-01 -2.414521e-01 -1.241347e-01 1.248024e-01 3.660833e-01 -6.338100e-01 2.308853e-03 -1.924389e-02 -3.321999e-02 -1.684893e-02 3.094565e-02 3.289446e-02 5.511250e-04 -3.075003e-02 -6.750175e-03 -7.388558e-03 -7.992149e-03 3.619016e-02 1.461748e-02
<VARIANCE> 39
 1.197607e+01 2.350992e+01 3.191664e+01 2.838839e+01 5.258938e+01 5.156492e+01 4.717525e+01 3.761509e+01 2.906307e+01 5.278951e+01 2.590192e+01 3.028061e+01 3.410228e+01 3.595125e-01 3.833598e-01 7.145864e-01 9.646232e-01 1.379071e+00 1.280103e+00 1.426935e+00 1.483768e+00 1.444657e+00 1.468881e+00 1.617144e+00 1.372027e+00 2.270595e-01 5.858372e-02 6.511410e-02 1.251728e-01 1.612117e-01 2.470089e-01 2.294526e-01 2.647080e-01 2.893332e-01 2.988269e-01 2.804624e-01 3.198262e-01 2.583976e-01 2.400697e-02
<GCONST> 9.246110e+01
<TRANSP> 5
 0.000000e+00 1.000000e+00 0.000000e+00 0.000000e+00 0.000000e+00
 0.000000e+00 9.056420e-01 9.435804e-02 0.000000e+00 0.000000e+00
 0.000000e+00 0.000000e+00 8.073880e-01 1.926120e-01 0.000000e+00
 0.000000e+00 0.000000e+00 0.000000e+00 8.892310e-01 1.107690e-01
 0.000000e+00 0.000000e+00 0.000000e+00 0.000000e+00 0.000000e+00
<ENDHMM>
~h "ou"
<BEGINHMM>
<NUMSTATES> 5
<STATE> 2
<MEAN> 39
 3.968385e+00 4.481786e+00 -7.387717e+00 -1.455771e+01 -1.565867e+01 -7.526104e+00 -3.336686e+00 -9.504079e+00 -7.521718e+00 -6.139146e+00 6.035165e-01 1.603972e+00 6.997309e+01 -1.472770e-02 4.100245e-01 2.790460e-01 5.983129e-01 1.833851e-01 -2.629218e-01 -2.618082e-01 -2.914976e-01 -3.929288e-01 -4.526923e-01 -5.524271e-02 1.474770e-02 -3.794168e-01 -3.368107e-02 5.164089e-02 4.659510e-02 9.890930e-02 9.318936e-02 -1.261439e-03 3.476961e-03 1.183319e-01 3.122772e-02 -3.214946e-02 -7.014843e-02 -7.152950e-02 -9.023503e-02
<VARIANCE> 39
 5.689874e+00 3.097324e+01 2.375219e+01 6.953774e+01 5.316711e+01 4.737115e+01 9.126840e+01 5.534331e+01 6.367904e+01 5.185324e+01 3.608207e+01 3.336190e+01 9.082609e+00 1.444987e-01 5.862206e-01 6.360224e-01 1.150721e+00 1.102211e+00 1.459458e+00 1.336404e+00 1.514297e+00 1.203739e+00 1.401370e+00 1.478977e+00 1.321445e+00 2.324842e-01 2.734548e-02 7.299359e-02 8.657735e-02 1.641442e-01 1.871886e-01 2.114945e-01 2.365205e-01 2.244012e-01 2.167490e-01 2.311805e-01 2.380290e-01 1.980395e-01 2.705322e-02
<GCONST> 8.985917e+01
<STATE> 3
<MEAN> 39
 2.513704e+00 1.096024e+01 -2.935403e+00 -8.961061e+00 -1.355403e+01 -9.614542e+00 -2.714997e+00 -9.367349e+00 -8.167683e+00 -7.637797e+00 -3.501903e+00 -8.783933e-01 6.524038e+01 -2.732244e-01 2.590448e-01 3.938727e-01 7.694970e-01 7.275759e-01 1.216659e-01 -3.724311e-01 2.286365e-01 6.046603e-03 -1.715238e-01 -2.674626e-01 -2.653663e-01 -6.924412e-01 -7.404654e-02 -1.033885e-01 4.519457e-03 -4.297643e-04 8.712581e-02 1.114228e-01 -2.044275e-03 -1.136774e-02 7.924391e-02 1.054816e-01 4.915408e-02 1.814183e-02 -2.335859e-02
<VARIANCE> 39
 5.858104e+00 2.967657e+01 2.329703e+01 4.515498e+01 4.248505e+01 4.943952e+01 8.122627e+01 4.840599e+01 4.248343e+01 5.112174e+01 3.686928e+01 3.843223e+01 1.769960e+01 1.651054e-01 4.708264e-01 6.939496e-01 1.035449e+00 1.115157e+00 1.375501e+00 1.862319e+00 1.508768e+00 1.496191e+00 1.494003e+00 1.632424e+00 1.186696e+00 2.547928e-01 2.912710e-02 7.191408e-02 1.006349e-01 1.514723e-01 1.909339e-01 2.156070e-01 2.820847e-01 2.294997e-01 2.770639e-01 2.670732e-01 2.680710e-01 2.165309e-01 1.817543e-02
<GCONST> 9.047054e+01
<STATE> 4
<MEAN> 39
 -2.152143e+00 8.051784e+00 -4.554985e-01 -2.385091e+00 -4.984365e+00 -5.604893e+00 -4.310711e+00 -6.733193e+00 -5.559981e+00 -6.219815e+00 -3.603608e+00 -2.069150e+00 6.096624e+01 -6.100321e-01 -4.592167e-01 -3.353469e-02 2.837363e-01 6.104392e-01 3.713819e-01 2.033820e-01 4.156274e-01 3.736089e-01 3.138083e-01 1.184053e-01 1.025120e-01 -5.878873e-01 -2.652479e-02 -8.545651e-02 -8.287667e-02 -8.373770e-02 -4.306475e-02 -3.241501e-03 7.703358e-02 3.101575e-02 4.876897e-02 4.968009e-02 4.444493e-02 4.309425e-02 5.543465e-02
<VARIANCE> 39
 9.358418e+00 3.942886e+01 1.719319e+01 2.291999e+01 2.783857e+01 2.497551e+01 3.106841e+01 3.619680e+01 2.827425e+01 2.846014e+01 2.656256e+01 2.862928e+01 3.187978e+01 3.610216e-01 6.256878e-01 6.175563e-01 1.057855e+00 1.320617e+00 1.172432e+00 1.693548e+00 1.729600e+00 1.348804e+00 1.502211e+00 1.413491e+00 1.205199e+00 3.317631e-01 4.246683e-02 9.717130e-02 1.207805e-01 1.709848e-01 2.055063e-01 2.007713e-01 2.747658e-01 2.820996e-01 2.370806e-01 2.514039e-01 2.674257e-01 2.286996e-01 3.826679e-02
<GCONST> 8.966135e+01
<TRANSP> 5
 0.000000e+00 1.000000e+00 0.000000e+00 0.000000e+00 0.000000e+00
 0.000000e+00 8.561473e-01 1.438527e-01 0.000000e+00 0.000000e+00
 0.000000e+00 0.000000e+00 8.504148e-01 1.495852e-01 0.000000e+00
 0.000000e+00 0.000000e+00 0.000000e+00 8.940399e-01 1.059601e-01
 0.000000e+00 0.000000e+00 0.000000e+00 0.000000e+00 0.000000e+00
<ENDHMM>
~h "sp"
<BEGINHMM>
<NUMSTATES> 3
<STATE> 2
~s "silst"
<TRANSP> 3
 0.000000e+00 1.130059e-01 8.869941e-01
 0.000000e+00 7.454425e-01 2.545575e-01
 0.000000e+00 0.000000e+00 0.000000e+00
<ENDHMM>
~h "uu"
<BEGINHMM>
<NUMSTATES> 5
<STATE> 2
<MEAN> 39
 -1.139230e+00 2.760154e+00 -2.522871e-01 -3.739023e-01 -8.088045e+00 -1.741792e+01 -7.889664e+00 -1.479966e+01 -4.382641e+00 -9.530742e+00 -5.716468e+00 -1.728499e+00 7.103632e+01 1.294361e-01 4.627154e-01 -8.026165e-02 -1.046040e-01 7.671422e-02 2.890945e-01 -6.945997e-03 8.227526e-02 -2.793778e-01 -3.534748e-02 6.203648e-03 7.679673e-02 -5.229239e-01 -3.887182e-02 2.558719e-02 1.171614e-02 2.131305e-02 4.614636e-02 7.067633e-02 -5.976062e-02 3.395012e-02 3.291070e-02 2.901481e-02 -9.235154e-03 -7.022533e-02 -3.307609e-02
<VARIANCE> 39
 1.190097e+01 4.478029e+01 3.763037e+01 4.431097e+01 6.372653e+01 6.914501e+01 8.351427e+01 6.968613e+01 6.586348e+01 7.021365e+01 3.294038e+01 5.825230e+01 1.766475e+01 1.424108e-01 4.770814e-01 3.946377e-01 7.781018e-01 8.464288e-01 9.548995e-01 1.390766e+00 1.312347e+00 1.049672e+00 1.152125e+00 1.350597e+00 1.203566e+00 1.898072e-01 2.772051e-02 9.040557e-02 6.981451e-02 1.493327e-01 1.226426e-01 1.661700e-01 2.198931e-01 2.129930e-01 1.875033e-01 1.938939e-01 2.197360e-01 1.764762e-01 2.573447e-02
<GCONST> 8.910675e+01
<STATE> 3
<MEAN> 39
 2.200889e+00 5.569377e+00 -3.291047e-02 -7.662423e-01 -7.619617e+00 -1.322865e+01 -1.132409e+01 -1.195537e+01 -6.963391e+00 -6.465887e+00 -2.257626e+00 -3.011953e+00 6.626397e+01 -5.234492e-02 2.179404e-01 -2.582939e-02 2.494661e-02 2.241005e-01 3.222752e-01 -4.668161e-02 -3.908202e-05 -1.122463e-01 3.814023e-02 1.048349e-02 -3.695330e-02 -3.285281e-01 -4.154806e-02 -2.158354e-02 2.305841e-02 -6.700172e-03 1.465014e-03 7.078699e-03 4.486588e-02 2.571724e-02 2.836606e-02 -3.209800e-02 -1.482843e-02 1.033924e-02 -3.839494e-04
<VARIANCE> 39
 5.521392e+00 1.946105e+01 2.061572e+01 4.156130e+01 3.153035e+01 4.258571e+01 6.705017e+01 3.599137e+01 4.364837e+01 4.185460e+01 2.583569e+01 3.187486e+01 1.500908e+01 7.191884e-02 1.764211e-01 2.441293e-01 3.214067e-01 5.369383e-01 6.275998e-01 7.155582e-01 7.035637e-01 6.771189e-01 6.953589e-01 6.075309e-01 7.194405e-01 6.445739e-02 1.275244e-02 3.199802e-02 3.815937e-02 5.440114e-02 9.065058e-02 9.289328e-02 1.324880e-01 1.310819e-01 1.435790e-01 1.228588e-01 1.027258e-01 1.225155e-01 8.286438e-03
<GCONST> 6.600478e+01
<STATE> 4
<MEAN> 39
 -1.838257e+00 8.783897e+00 1.833310e+00 6.202668e-02 -5.326096e+00 -7.669577e+00 -7.537260e+00 -1.230788e+01 -8.138741e+00 -8.255881e+00 -4.750904e+00 -2.147759e+00 6.010052e+01 -6.270940e-01 -1.929218e-01 4.721984e-02 2.039330e-01 6.528916e-01 5.131097e-01 5.420364e-01 7.126006e-01 3.730651e-01 5.532752e-02 4.143885e-02 -5.849277e-02 -7.245535e-01 -8.161687e-02 -1.234163e-01 -8.728442e-02 -4.958017e-04 1.291351e-01 1.533901e-02 6.560779e-02 7.432029e-02 1.381470e-01 1.592887e-01 9.493901e-02 2.909559e-02 -1.523069e-02
<VARIANCE> 39
 1.075538e+01 1.796190e+01 1.323693e+01 3.997941e+01 6.105655e+01 3.546545e+01 3.657780e+01 6.462433e+01 5.640380e+01 3.891953e+01 3.179090e+01 2.881464e+01 2.249224e+01 3.174063e-01 5.113602e-01 6.109293e-01 1.050993e+00 1.304507e+00 1.175641e+00 1.664615e+00 1.683643e+00 1.633486e+00 1.460456e+00 1.437881e+00 1.142365e+00 1.354358e-01 5.291534e-02 7.350526e-02 1.056850e-01 1.655451e-01 1.504625e-01 2.016537e-01 2.662415e-01 2.809197e-01 2.950001e-01 2.163809e-01 2.323841e-01 1.824569e-01 2.054714e-02
<GCONST> 8.937059e+01
<TRANSP> 5
 0.000000e+00 1.000000e+00 0.000000e+00 0.000000e+00 0.000000e+00
 0.000000e+00 9.042572e-01 9.574278e-02 0.000000e+00 0.000000e+00
 0.000000e+00 0.000000e+00 9.029315e-01 9.706848e-02 0.000000e+00
 0.000000e+00 0.000000e+00 0.000000e+00 8.555046e-01 1.444954e-01
 0.000000e+00 0.000000e+00 0.000000e+00 0.000000e+00 0.000000e+00
<ENDHMM>
~h "sil"
<BEGINHMM>
<NUMSTATES> 5
<STATE> 2
<MEAN> 39
 -9.221830e+00 1.339658e+00 -2.776094e+00 -1.291435e+00 -1.985576e+00 -2.496965e+00 -6.737349e-01 -7.086216e-01 2.474757e-01 -6.439463e-01 2.270481e-01 8.828425e-02 5.590727e+01 -1.688987e-01 -2.327924e-01 -1.938107e-01 -8.891727e-02 1.786684e-01 2.525334e-01 1.570594e-01 2.646297e-01 2.144399e-01 1.644860e-01 1.190363e-01 7.762764e-02 -5.153066e-02 3.436935e-02 -1.398120e-02 -1.574547e-02 -7.627668e-02 -1.044433e-01 -7.134350e-02 -1.796767e-02 -6.972572e-02 -6.403095e-02 -8.230991e-02 -6.038085e-02 -5.471621e-02 1.078911e-01
<VARIANCE> 39
 8.375410e+00 1.135953e+01 1.491091e+01 1.372593e+01 1.769221e+01 2.314717e+01 2.351362e+01 2.212938e+01 1.997203e+01 1.761468e+01 1.492580e+01 1.436819e+01 2.118987e+01 3.173809e-01 6.392776e-01 7.275286e-01 8.673974e-01 1.226849e+00 1.378157e+00 1.403980e+00 1.487948e+00 1.489190e+00 1.411414e+00 1.331935e+00 1.311014e+00 5.597731e-01 4.187992e-02 7.594182e-02 9.759466e-02 1.252394e-01 1.679276e-01 2.036978e-01 2.325361e-01 2.347990e-01 2.510428e-01 2.383209e-01 2.248044e-01 2.220021e-01 5.507505e-02
<GCONST> 8.288344e+01
<STATE> 3
~s "silst"
<STATE> 4
<MEAN> 39
 -8.358840e+00 -2.212194e+00 -4.906756e+00 -4.444312e+00 -2.765685e+00 -2.223009e+00 6.153722e-01 -9.038964e-01 -2.952050e-01 -2.272107e+00 -9.473994e-01 -8.065459e-01 6.060271e+01 8.301358e-02 4.828386e-03 2.351454e-02 -1.729298e-01 -1.091034e-01 -1.366160e-02 7.225478e-02 -9.694970e-02 -1.528251e-01 -1.383889e-01 -1.082123e-01 -7.312468e-02 2.812043e-01 9.252972e-02 1.194551e-01 8.202448e-02 6.193536e-02 -4.089675e-02 -6.339587e-02 -5.992724e-02 -6.863974e-02 -5.295525e-02 -2.164471e-02 1.622282e-03 -9.319795e-03 3.198632e-02
<VARIANCE> 39
 1.810865e+01 2.366356e+01 3.025298e+01 2.844700e+01 2.583943e+01 3.196638e+01 3.071678e+01 3.133354e+01 2.403384e+01 2.593853e+01 2.012291e+01 1.913718e+01 3.130697e+01 8.889495e-01 1.089237e+00 9.768369e-01 1.337016e+00 1.396761e+00 1.656150e+00 1.680827e+00 1.782581e+00 1.894038e+00 1.854575e+00 1.609405e+00 1.388319e+00 1.407045e+00 1.033501e-01 1.352208e-01 1.463357e-01 1.988996e-01 2.233451e-01 2.528343e-01 2.757834e-01 2.712028e-01 2.823122e-01 2.818622e-01 2.607418e-01 2.380379e-01 9.009589e-02
<GCONST> 9.749449e+01
<TRANSP> 5
 0.000000e+00 1.000000e+00 0.000000e+00 0.000000e+00 0.000000e+00
 0.000000e+00 7.057835e-01 7.584993e-02 2.183665e-01 0.000000e+00
 0.000000e+00 0.000000e+00 6.598940e-01 3.401060e-01 0.000000e+00
 0.000000e+00 9.447274e-02 0.000000e+00 6.648515e-01 2.406758e-01
 0.000000e+00 0.000000e+00 0.000000e+00 0.000000e+00 0.000000e+00
<ENDHMM>
