~o
<STREAMINFO> 1 39
<VECSIZE> 39<NULLD><MFCC_D_A_0><DIAGC>
~h "N"
<BEGINHMM>
<NUMSTATES> 5
<STATE> 2
<MEAN> 39
 1.051684e+00 2.019144e+00 -3.313955e+00 -4.125665e+00 -7.680263e+00 -9.227292e+00 -4.234124e+00 -5.653980e+00 -4.373262e+00 -2.892473e+00 -2.335255e+00 -3.766705e+00 6.703033e+01 1.245354e-01 1.153135e+00 4.275788e-01 3.048958e-01 1.940455e-01 2.247051e-01 9.089518e-02 6.747417e-03 -9.230618e-01 -3.969074e-01 -1.556563e-01 1.706706e-01 -8.426470e-01 -5.356853e-02 -2.696133e-01 -1.252484e-01 -1.311747e-01 -1.260323e-01 -6.102324e-02 1.187294e-01 5.315205e-02 1.950029e-01 1.110444e-01 5.355591e-02 -8.063623e-02 2.418010e-01
<VARIANCE> 39
 8.160001e+00 4.124865e+01 2.626971e+01 4.100253e+01 4.402866e+01 5.594793e+01 5.115276e+01 4.912617e+01 4.995172e+01 5.446923e+01 4.751600e+01 4.413099e+01 2.505061e+01 3.178987e-01 9.843504e-01 1.177631e+00 1.701947e+00 1.954913e+00 2.603889e+00 2.323991e+00 2.454196e+00 3.057646e+00 2.429046e+00 1.946908e+00 1.924084e+00 4.802899e-01 5.825305e-02 1.400571e-01 1.911108e-01 2.799684e-01 3.385180e-01 4.261734e-01 3.837561e-01 4.198009e-01 5.113807e-01 4.219921e-01 3.627873e-01 2.988188e-01 7.168907e-02
<GCONST> 1.064997e+02
<STATE> 3
<MEAN> 39
 9.715824e-01 4.371139e+00 -2.549420e+00 -3.935764e+00 -7.807076e+00 -8.494579e+00 -3.103202e+00 -5.391326e+00 -5.943494e+00 -3.807497e+00 -2.105355e+00 -3.408227e+00 6.548679e+01 -9.120525e-02 1.599034e-01 -9.616755e-03 -2.369098e-01 -2.931302e-02 2.480835e-01 2.470322e-01 6.066559e-02 5.433282e-02 1.962413e-02 -9.527962e-02 -1.341909e-01 -6.376779e-02 -7.512395e-02 -3.844635e-01 -1.801242e-01 -1.818608e-01 -3.578436e-02 5.640879e-02 4.449563e-02 -4.577927e-02 3.605230e-01 1.663432e-01 2.786961e-02 -9.618735e-02 2.759155e-01
<VARIANCE> 39
 8.472396e+00 3.625257e+01 2.323147e+01 3.868148e+01 4.191419e+01 5.277834e+01 4.803216e+01 4.577879e+01 4.710019e+01 4.645379e+01 4.369494e+01 4.059552e+01 2.220894e+01 2.740516e-01 1.058895e+00 1.116732e+00 1.555498e+00 1.660137e+00 2.100937e+00 1.868473e+00 2.193854e+00 2.824748e+00 2.186975e+00 1.977892e+00 1.555624e+00 4.757366e-01 5.433024e-02 1.430147e-01 1.955438e-01 2.881867e-01 3.418659e-01 4.351349e-01 4.023839e-01 4.484308e-01 5.105869e-01 4.108832e-01 3.598169e-01 3.383900e-01 6.443842e-02
<GCONST> 1.042911e+02
<STATE> 4
<MEAN> 39
 3.958491e-01 8.804790e-01 -5.605828e+00 -6.020299e+00 -7.595230e+00 -5.580139e+00 -1.405977e+00 -5.024317e+00 -2.143373e+00 -2.740702e+00 -3.257889e+00 -5.365984e+00 6.737097e+01 -1.191407e-01 -5.504801e-01 -5.259159e-01 -3.430507e-01 1.289821e-01 4.557618e-01 2.925962e-01 -4.914179e-03 5.231853e-01 3.470714e-01 -8.701411e-02 -3.249361e-01 2.626322e-01 -1.900733e-02 -5.686505e-02 -2.438182e-02 8.325354e-03 6.770861e-03 -1.142114e-03 2.345755e-02 5.918829e-03 -1.249406e-02 4.778661e-02 5.576183e-02 3.328919e-03 7.337980e-03
<VARIANCE> 39
 8.302455e+00 5.093289e+01 3.684476e+01 5.041536e+01 5.186658e+01 7.521745e+01 6.040011e+01 5.889666e+01 6.866173e+01 5.807781e+01 7.087234e+01 4.249068e+01 2.315157e+01 2.583655e-01 1.215148e+00 1.299091e+00 1.488742e+00 1.714962e+00 2.223203e+00 2.009919e+00 2.258826e+00 2.889108e+00 1.938021e+00 2.134185e+00 1.759934e+00 4.948724e-01 4.263579e-02 1.874982e-01 1.910366e-01 2.332647e-01 2.942470e-01 3.512303e-01 3.715754e-01 3.824656e-01 4.622414e-01 3.423727e-01 3.268088e-01 3.015845e-01 6.970376e-02
<GCONST> 1.068504e+02
<TRANSP> 5
 0.000000e+00 1.000000e+00 0.000000e+00 0.000000e+00 0.000000e+00
 0.000000e+00 5.994167e-01 4.005833e-01 0.000000e+00 0.000000e+00
 0.000000e+00 0.000000e+00 5.636166e-01 4.363834e-01 0.000000e+00
 0.000000e+00 0.000000e+00 0.000000e+00 7.772037e-01 2.227962e-01
 0.000000e+00 0.000000e+00 0.000000e+00 0.000000e+00 0.000000e+00
<ENDHMM>
~h "a"
<BEGINHMM>
<NUMSTATES> 5
<STATE> 2
<MEAN> 39
 5.309625e-01 -2.825104e+00 -8.715428e+00 -9.278582e+00 -9.599162e+00 -6.752373e+00 -1.655889e+00 -5.805785e+00 -1.491058e+00 -3.185822e-01 4.336357e-03 -3.602515e+00 7.053705e+01 4.757391e-02 -3.241989e-01 -3.181663e-01 -1.999626e-02 1.572908e-01 2.000023e-01 -4.323767e-02 1.680595e-01 4.482825e-01 5.898138e-01 1.101237e-01 -1.778110e-01 -4.490196e-02 -1.571391e-01 2.102303e-01 2.380709e-01 2.479628e-01 1.213005e-01 -2.407842e-02 -8.057195e-02 3.859969e-02 -1.139577e-01 -1.581683e-01 -5.938820e-02 7.266641e-02 -2.810710e-01
<VARIANCE> 39
 1.714227e+01 5.034008e+01 4.186892e+01 5.256996e+01 6.070641e+01 7.449679e+01 6.517191e+01 6.208156e+01 5.185826e+01 5.007756e+01 5.596831e+01 5.729602e+01 3.461986e+01 1.263172e+00 2.023227e+00 2.191931e+00 2.926857e+00 3.013353e+00 3.469074e+00 3.600267e+00 3.097615e+00 3.481748e+00 3.478054e+00 2.918991e+00 2.895383e+00 1.397932e+00 2.322318e-01 3.249235e-01 3.571174e-01 4.220748e-01 5.474342e-01 5.612803e-01 6.057754e-01 5.760989e-01 5.965179e-01 6.017742e-01 5.561572e-01 5.416811e-01 2.155051e-01
<GCONST> 1.243867e+02
<STATE> 3
<MEAN> 39
 5.266427e-01 -3.009372e+00 -9.016438e+00 -9.086866e+00 -9.255288e+00 -6.337929e+00 -1.886434e+00 -5.571628e+00 -9.345318e-01 4.999522e-01 2.698573e-02 -3.974862e+00 7.006239e+01 -1.400176e-01 1.565263e-01 1.658500e-01 4.480098e-01 3.062029e-01 9.761010e-02 -2.183998e-01 1.851811e-01 1.323013e-01 2.249359e-01 7.646106e-03 6.874233e-03 -5.860929e-01 -1.327337e-01 2.217600e-01 2.421197e-01 2.097342e-01 7.122847e-02 -3.089602e-02 -5.182792e-02 -2.246061e-03 -1.740896e-01 -2.230142e-01 -5.535449e-02 1.157188e-01 -2.523064e-01
<VARIANCE> 39
 1.717307e+01 4.909663e+01 3.913924e+01 5.065229e+01 5.833707e+01 6.904610e+01 6.502947e+01 5.995609e+01 5.149339e+01 5.078283e+01 5.693826e+01 5.812426e+01 3.627862e+01 9.756176e-01 1.789527e+00 1.983864e+00 2.517225e+00 2.574795e+00 3.095107e+00 3.373838e+00 2.849265e+00 2.939186e+00 2.921338e+00 2.571709e+00 2.496454e+00 1.325134e+00 1.742100e-01 3.065945e-01 3.230824e-01 3.866327e-01 4.939921e-01 5.176170e-01 5.646282e-01 5.311521e-01 5.776736e-01 5.627704e-01 5.002164e-01 4.842460e-01 2.187415e-01
<GCONST> 1.212967e+02
<STATE> 4
<MEAN> 39
 -1.424755e-01 -2.364037e+00 -8.636630e+00 -8.085683e+00 -8.421288e+00 -5.668283e+00 -2.547875e+00 -5.085832e+00 -7.638893e-01 8.975819e-01 -1.331986e-01 -4.177295e+00 6.790811e+01 -3.750704e-01 4.526409e-01 4.507251e-01 6.496850e-01 3.519524e-01 5.767298e-02 -2.096859e-01 2.007697e-01 -1.079231e-01 -9.416363e-02 -1.914729e-02 2.347314e-01 -9.180514e-01 -9.670474e-02 5.349077e-02 1.021340e-01 2.825112e-02 -2.082566e-02 -3.664814e-02 2.473154e-02 -1.950329e-02 -8.284339e-02 -1.452428e-01 -2.432062e-02 7.064776e-02 -2.327589e-02
<VARIANCE> 39
 1.975523e+01 4.531993e+01 3.759845e+01 4.720894e+01 5.322131e+01 6.250016e+01 6.185960e+01 5.430808e+01 4.746942e+01 4.962828e+01 5.658384e+01 5.420101e+01 4.182679e+01 8.655504e-01 1.551759e+00 1.701651e+00 2.087433e+00 2.346461e+00 2.613898e+00 2.830023e+00 2.601455e+00 2.559018e+00 2.486959e+00 2.226534e+00 2.090163e+00 1.242693e+00 1.341484e-01 2.693577e-01 2.893294e-01 3.583832e-01 4.397685e-01 4.500637e-01 5.152104e-01 4.805994e-01 4.925143e-01 4.688434e-01 4.300079e-01 4.031706e-01 2.329969e-01
<GCONST> 1.174126e+02
<TRANSP> 5
 0.000000e+00 1.000000e+00 0.000000e+00 0.000000e+00 0.000000e+00
 0.000000e+00 2.838647e-01 7.161353e-01 0.000000e+00 0.000000e+00
 0.000000e+00 0.000000e+00 3.007717e-01 6.992282e-01 0.000000e+00
 0.000000e+00 0.000000e+00 0.000000e+00 4.795529e-01 5.204471e-01
 0.000000e+00 0.000000e+00 0.000000e+00 0.000000e+00 0.000000e+00
<ENDHMM>
~h "e"
<BEGINHMM>
<NUMSTATES> 5
<STATE> 2
<MEAN> 39
 -2.490622e+00 -8.232003e-01 -1.067884e+00 1.560602e+00 -1.050368e+01 -1.394268e+01 -7.760624e+00 -5.036074e+00 -1.953180e+00 -2.662319e+00 -1.325423e-01 -7.990852e-01 6.628625e+01 -3.065892e-01 -5.050538e-02 1.821813e-01 1.939367e-01 1.509095e-01 -7.053900e-02 -8.494394e-02 1.313308e-01 7.876727e-02 -9.636118e-02 -5.370847e-02 2.439220e-01 -2.765248e-01 1.812472e-02 -3.685247e-02 -2.509080e-01 -2.287158e-01 7.709828e-02 1.538306e-01 1.317332e-01 -6.044080e-02 -6.490194e-02 4.740306e-02 3.787095e-02 -8.673552e-02 8.959445e-02
<VARIANCE> 39
 2.311059e+01 3.203372e+01 4.209470e+01 3.778407e+01 8.519627e+01 6.477251e+01 4.049560e+01 4.474510e+01 4.350838e+01 3.638124e+01 3.291895e+01 3.314032e+01 4.204745e+01 1.039121e+00 1.969654e+00 2.182738e+00 1.797115e+00 4.402199e+00 4.404382e+00 2.660690e+00 2.448182e+00 2.995998e+00 2.823089e+00 2.250718e+00 2.306244e+00 2.630856e+00 1.952024e-01 3.596098e-01 3.632021e-01 3.799154e-01 8.013085e-01 7.195510e-01 5.237090e-01 4.610106e-01 5.680205e-01 4.520907e-01 4.148044e-01 4.264603e-01 4.388692e-01
<GCONST> 1.210216e+02
<STATE> 3
<MEAN> 39
 -2.552638e+00 -9.868835e-01 -1.275725e+00 1.489421e+00 -1.021754e+01 -1.398741e+01 -7.576315e+00 -5.249984e+00 -2.043317e+00 -2.751311e+00 -1.068249e-02 -6.541094e-01 6.660542e+01 -1.348407e-01 1.090276e-01 -1.856400e-01 -1.673906e-01 3.612197e-01 3.415456e-01 1.806519e-01 -3.901759e-02 -2.008790e-01 -8.247863e-02 6.970128e-02 -5.788395e-03 -1.592123e-01 9.294944e-02 4.668743e-02 -2.169432e-01 -1.943908e-01 5.350748e-02 2.098205e-01 1.304566e-01 -6.651603e-02 -9.060173e-02 3.110493e-02 2.673814e-02 -1.134065e-01 4.268827e-02
<VARIANCE> 39
 2.464399e+01 3.115785e+01 4.490133e+01 3.897144e+01 9.080357e+01 6.636669e+01 4.217084e+01 4.566681e+01 4.374261e+01 3.652825e+01 3.487540e+01 3.485536e+01 4.213850e+01 9.842066e-01 1.771845e+00 2.150182e+00 1.903362e+00 3.631198e+00 3.452426e+00 2.442565e+00 2.401771e+00 2.998461e+00 2.534209e+00 2.213289e+00 2.034856e+00 1.770535e+00 2.084560e-01 3.544578e-01 4.015784e-01 3.567191e-01 7.187289e-01 6.309634e-01 4.812299e-01 4.636488e-01 5.706509e-01 4.466453e-01 3.873610e-01 4.300961e-01 4.449983e-01
<GCONST> 1.198348e+02
<STATE> 4
<MEAN> 39
 -2.632856e+00 -3.641533e-01 -6.220002e-01 7.689768e-01 -1.090050e+01 -1.357742e+01 -6.790091e+00 -5.378590e+00 -3.157339e+00 -3.234621e+00 7.718114e-01 -8.233759e-01 6.626185e+01 -1.268902e-02 2.317947e-01 -4.282158e-01 -3.316385e-01 4.899613e-01 6.482226e-01 3.245033e-01 -7.149421e-02 -2.355713e-01 -3.557675e-03 1.364320e-03 -1.479977e-01 -2.671987e-01 7.584149e-02 1.151228e-02 -1.197327e-01 -1.241103e-01 -1.809915e-02 6.984831e-02 5.188881e-02 -9.757280e-03 1.237172e-02 1.410896e-02 -3.020223e-02 -3.868424e-02 5.151284e-02
<VARIANCE> 39
 2.363697e+01 2.795550e+01 4.857417e+01 3.852306e+01 1.036323e+02 6.728141e+01 4.227369e+01 4.317725e+01 4.146638e+01 3.911439e+01 3.798780e+01 3.394160e+01 3.751225e+01 1.006871e+00 1.517757e+00 1.908581e+00 1.818246e+00 3.050751e+00 2.467806e+00 2.128465e+00 2.180702e+00 2.657303e+00 2.340238e+00 2.117550e+00 1.944626e+00 1.486629e+00 1.854201e-01 2.491614e-01 3.183201e-01 2.916661e-01 5.549157e-01 4.592388e-01 3.965877e-01 3.931436e-01 4.654802e-01 4.208164e-01 3.763048e-01 3.717844e-01 2.662951e-01
<GCONST> 1.155062e+02
<TRANSP> 5
 0.000000e+00 1.000000e+00 0.000000e+00 0.000000e+00 0.000000e+00
 0.000000e+00 4.280031e-01 5.719969e-01 0.000000e+00 0.000000e+00
 0.000000e+00 0.000000e+00 3.740487e-01 6.259513e-01 0.000000e+00
 0.000000e+00 0.000000e+00 0.000000e+00 5.522412e-01 4.477589e-01
 0.000000e+00 0.000000e+00 0.000000e+00 0.000000e+00 0.000000e+00
<ENDHMM>
~h "f"
<BEGINHMM>
<NUMSTATES> 5
<STATE> 2
<MEAN> 39
 -1.660464e+01 -2.083950e+00 -9.987375e+00 -1.938390e+00 -4.134604e+00 -3.520525e+00 -1.086771e-01 -1.790540e+00 1.584343e+00 -1.123280e+00 7.415408e-01 -5.347578e-01 6.586267e+01 2.069900e+00 -1.262425e-01 -1.948918e-01 -1.357640e+00 -6.237073e-01 1.164175e-01 5.053857e-01 9.881406e-02 -5.690303e-01 -2.259240e-01 -3.326182e-01 -2.145034e-01 3.032305e-01 9.196103e-01 1.328097e-01 -2.982026e-02 -4.404693e-01 -4.265537e-01 -2.255323e-02 7.002759e-02 -1.046138e-01 -3.412204e-01 -4.097798e-02 -3.178539e-02 -9.056610e-02 1.799615e-01
<VARIANCE> 39
 3.501141e+01 2.537385e+01 2.931193e+01 3.258754e+01 3.465172e+01 2.990053e+01 3.122412e+01 2.519145e+01 2.659665e+01 2.158082e+01 2.019045e+01 1.934960e+01 2.181126e+01 5.957842e+00 1.937904e+00 1.823869e+00 3.040271e+00 2.826078e+00 2.414258e+00 2.245711e+00 2.349579e+00 2.385522e+00 2.206178e+00 1.807136e+00 1.726575e+00 1.165787e+00 5.404034e-01 3.770923e-01 3.401356e-01 4.166610e-01 4.673879e-01 4.384295e-01 4.498907e-01 4.650323e-01 3.995157e-01 4.483364e-01 3.525891e-01 3.344371e-01 2.288509e-01
<GCONST> 1.130107e+02
<STATE> 3
<MEAN> 39
 -3.406801e+00 -4.274292e-01 -1.025488e+01 -9.710442e+00 -9.344343e+00 -3.597908e+00 2.008265e+00 -2.193913e+00 -3.158537e+00 -2.638134e+00 -9.551030e-01 -1.625718e+00 6.749944e+01 4.021156e+00 -3.342611e-01 -7.142300e-01 -2.457026e+00 -2.032957e+00 -7.153434e-02 8.072762e-01 -3.892729e-01 -1.607698e+00 -1.908936e-01 -3.720466e-02 -4.595061e-01 1.487412e+00 -6.867110e-01 -5.126844e-01 -7.191791e-02 4.284180e-01 2.640373e-01 5.732820e-02 -1.215479e-01 -9.305668e-02 2.312784e-01 2.613013e-01 2.009235e-01 -8.424512e-02 1.972471e-01
<VARIANCE> 39
 5.727984e+01 2.799442e+01 3.625671e+01 5.714935e+01 4.596778e+01 4.461199e+01 3.598125e+01 3.467025e+01 2.746190e+01 2.794484e+01 2.586035e+01 3.295877e+01 2.683756e+01 3.518300e+00 3.534014e+00 3.598869e+00 3.752935e+00 3.727020e+00 3.662950e+00 3.716076e+00 4.295339e+00 2.749622e+00 3.214444e+00 2.512118e+00 2.791690e+00 1.457054e+00 9.187344e-01 4.977059e-01 3.752979e-01 6.095343e-01 7.021257e-01 5.249045e-01 4.494995e-01 4.324573e-01 5.036153e-01 4.498764e-01 3.732540e-01 3.720134e-01 2.542569e-01
<GCONST> 1.234179e+02
<STATE> 4
<MEAN> 39
 1.131997e+00 -4.242757e+00 -1.247155e+01 -1.310637e+01 -1.142264e+01 -3.236155e+00 3.396113e+00 -3.281698e+00 -4.768133e+00 -1.780391e+00 -5.000020e-01 -3.239707e+00 7.189360e+01 1.292140e+00 -1.505834e+00 -4.430411e-01 -6.529464e-01 -4.163595e-01 2.989011e-01 2.640401e-01 -3.907349e-01 -3.121917e-01 4.848274e-01 8.724152e-02 -6.339942e-01 1.195242e+00 -1.067092e+00 -5.173838e-02 3.028358e-01 8.390009e-01 7.122658e-01 6.420958e-02 -3.510834e-01 3.443605e-02 5.067936e-01 1.834195e-01 -5.869646e-02 2.517671e-02 -4.340223e-01
<VARIANCE> 39
 2.901536e+01 3.817550e+01 5.020337e+01 5.615115e+01 4.145624e+01 5.946492e+01 4.838355e+01 5.112215e+01 2.884590e+01 3.976672e+01 3.287195e+01 4.683130e+01 3.260277e+01 3.239363e+00 2.631886e+00 2.580893e+00 2.559857e+00 3.538374e+00 3.261429e+00 2.775514e+00 2.650218e+00 3.141229e+00 3.039653e+00 2.213129e+00 2.033556e+00 1.393631e+00 5.193198e-01 4.660617e-01 3.248045e-01 4.842791e-01 5.678357e-01 5.599991e-01 5.005540e-01 5.946203e-01 4.120687e-01 4.584841e-01 4.005048e-01 4.335454e-01 1.796522e-01
<GCONST> 1.219284e+02
<TRANSP> 5
 0.000000e+00 1.000000e+00 0.000000e+00 0.000000e+00 0.000000e+00
 0.000000e+00 7.447681e-01 2.552319e-01 0.000000e+00 0.000000e+00
 0.000000e+00 0.000000e+00 3.902920e-01 6.097080e-01 0.000000e+00
 0.000000e+00 0.000000e+00 0.000000e+00 4.178324e-01 5.821676e-01
 0.000000e+00 0.000000e+00 0.000000e+00 0.000000e+00 0.000000e+00
<ENDHMM>
~h "h"
<BEGINHMM>
<NUMSTATES> 5
<STATE> 2
<MEAN> 39
 -4.182253e+00 -2.272013e+00 -6.607723e+00 -9.467120e+00 -5.439599e+00 -3.767758e+00 3.923145e+00 -1.318693e+00 -7.421048e-01 -1.152971e+00 -2.799538e+00 -3.371619e+00 6.865763e+01 2.798229e-01 4.181799e-01 5.678375e-01 3.769228e-02 -6.881191e-01 -7.221103e-01 -1.287080e-01 -1.066210e-01 -2.977345e-01 -2.885957e-01 -8.684333e-02 -7.387507e-02 3.913561e-01 1.317811e-01 9.704334e-02 3.944896e-02 -3.299051e-02 -2.576807e-01 -1.461131e-01 -1.440920e-01 -1.867777e-01 -1.573143e-01 -3.956982e-02 1.345772e-01 7.400874e-02 1.057245e-02
<VARIANCE> 39
 2.774409e+01 6.618773e+01 5.442512e+01 7.058909e+01 7.177189e+01 7.790737e+01 5.282270e+01 4.999310e+01 4.661724e+01 4.203510e+01 4.239248e+01 4.061656e+01 4.057521e+01 2.181643e+00 2.359383e+00 2.350212e+00 2.892168e+00 3.646965e+00 3.366078e+00 3.005765e+00 3.097940e+00 2.843368e+00 2.325933e+00 2.597143e+00 2.380807e+00 1.120879e+00 2.641381e-01 3.927130e-01 2.718845e-01 3.760649e-01 5.161942e-01 5.444123e-01 5.357419e-01 5.302730e-01 5.320097e-01 4.227697e-01 4.861515e-01 4.148733e-01 1.132731e-01
<GCONST> 1.224629e+02
<STATE> 3
<MEAN> 39
 -2.664612e+00 -7.159303e-01 -3.842955e+00 -7.220255e+00 -8.279507e+00 -7.126093e+00 2.387760e+00 -1.885283e+00 -1.839566e+00 -1.751013e+00 -2.801259e+00 -3.799966e+00 7.005649e+01 2.789183e-01 4.982159e-01 6.996679e-01 6.531137e-02 -1.110700e+00 -7.750762e-01 -4.154998e-01 -5.749222e-01 -6.178702e-01 -3.098771e-01 4.525453e-01 2.180175e-01 1.489914e-01 1.895741e-02 -1.493126e-02 -7.366206e-02 -5.071864e-02 -5.334997e-02 3.762929e-02 -9.902055e-02 -2.070036e-01 -7.215963e-02 2.253050e-02 1.281974e-01 3.277030e-02 -6.638725e-02
<VARIANCE> 39
 2.403727e+01 5.582389e+01 6.313909e+01 7.422305e+01 6.946156e+01 7.666939e+01 4.923790e+01 5.606753e+01 5.019515e+01 4.698105e+01 4.274882e+01 3.992286e+01 4.054277e+01 1.315745e+00 1.679552e+00 2.179255e+00 2.298568e+00 2.621791e+00 2.733596e+00 2.553439e+00 2.968282e+00 2.656145e+00 2.269320e+00 2.542412e+00 2.110890e+00 9.365732e-01 2.092208e-01 2.898819e-01 2.202064e-01 3.240370e-01 5.072601e-01 4.797698e-01 4.427813e-01 5.250003e-01 5.137379e-01 4.028698e-01 4.295541e-01 3.763040e-01 1.021469e-01
<GCONST> 1.185616e+02
<STATE> 4
<MEAN> 39
 -2.125107e+00 1.278332e+00 -9.880660e-01 -6.635114e+00 -1.210924e+01 -1.023686e+01 8.044691e-01 -5.495201e+00 -4.675163e+00 -2.896224e+00 -1.055969e+00 -3.620955e+00 7.010214e+01 1.743224e-01 3.354640e-01 4.186862e-01 9.636088e-02 -6.646450e-01 -4.071051e-01 -4.161862e-01 -6.660672e-01 -5.452023e-01 -1.981563e-01 4.224799e-01 1.425387e-01 -5.208804e-02 -1.256891e-02 -5.383703e-02 -8.890788e-02 4.575343e-02 1.277038e-01 5.498532e-02 -2.494058e-02 1.949818e-02 5.264471e-02 2.769896e-02 -2.897014e-02 -2.678850e-02 -4.426317e-02
<VARIANCE> 39
 2.248162e+01 4.659322e+01 7.772383e+01 8.525809e+01 6.957335e+01 7.886104e+01 5.359856e+01 6.749798e+01 5.048721e+01 4.395495e+01 4.202958e+01 3.735516e+01 3.227787e+01 5.993463e-01 1.278693e+00 1.482738e+00 1.598900e+00 2.043171e+00 1.922374e+00 2.011271e+00 2.358700e+00 2.156457e+00 1.868707e+00 2.051934e+00 1.669411e+00 5.085368e-01 1.026241e-01 1.675092e-01 1.622343e-01 2.486252e-01 3.365008e-01 3.328556e-01 3.619950e-01 3.651673e-01 3.593019e-01 3.357367e-01 3.724973e-01 2.988292e-01 6.884086e-02
<GCONST> 1.097698e+02
<TRANSP> 5
 0.000000e+00 1.000000e+00 0.000000e+00 0.000000e+00 0.000000e+00
 0.000000e+00 5.997930e-01 4.002070e-01 0.000000e+00 0.000000e+00
 0.000000e+00 0.000000e+00 3.868553e-01 6.131448e-01 0.000000e+00
 0.000000e+00 0.000000e+00 0.000000e+00 6.062493e-01 3.937507e-01
 0.000000e+00 0.000000e+00 0.000000e+00 0.000000e+00 0.000000e+00
<ENDHMM>
~h "i"
<BEGINHMM>
<NUMSTATES> 5
<STATE> 2
<MEAN> 39
 -4.407239e+00 1.585180e+00 5.469736e+00 2.741813e+00 -1.138081e+01 -1.462144e+01 -3.579216e+00 -7.179280e+00 -4.482958e+00 -7.118909e+00 -8.485162e-01 -2.364970e+00 6.844538e+01 2.095225e-02 4.816524e-01 9.069793e-01 5.548100e-01 -5.654473e-01 -6.422810e-01 1.943437e-01 -8.439186e-02 -6.691794e-01 -7.036646e-01 2.225658e-01 2.229730e-01 -1.082970e-01 -1.927711e-02 2.643610e-03 -3.718798e-01 -1.982781e-01 2.718177e-01 3.531601e-01 1.783517e-02 6.024236e-02 7.762849e-02 2.533574e-01 2.382497e-02 -2.034861e-02 -1.652154e-01
<VARIANCE> 39
 2.273038e+01 3.497023e+01 4.833731e+01 4.842658e+01 7.787994e+01 6.623443e+01 5.237081e+01 5.225323e+01 6.049890e+01 4.316358e+01 3.544900e+01 3.365767e+01 2.572898e+01 1.517970e+00 1.656121e+00 2.769273e+00 1.916121e+00 3.608137e+00 4.220197e+00 2.924605e+00 3.249852e+00 3.078640e+00 2.972923e+00 2.463067e+00 1.965179e+00 1.205862e+00 2.816094e-01 2.911474e-01 3.604776e-01 3.622780e-01 6.972294e-01 7.711570e-01 5.640288e-01 5.900811e-01 6.294340e-01 5.687308e-01 4.728529e-01 4.043691e-01 1.694559e-01
<GCONST> 1.216055e+02
<STATE> 3
<MEAN> 39
 -4.167578e+00 2.739963e+00 6.370425e+00 3.449525e+00 -1.199230e+01 -1.498756e+01 -3.353693e+00 -7.487381e+00 -6.048757e+00 -7.763078e+00 -3.857034e-01 -2.146649e+00 6.771963e+01 6.588648e-02 3.889053e-01 -1.022740e-01 7.054369e-02 2.059016e-01 2.463116e-01 -2.637453e-02 6.487127e-02 -2.536995e-01 -2.867576e-02 1.420574e-01 1.064766e-01 -4.852048e-01 -1.660870e-02 -7.820328e-02 -3.785809e-01 -2.261690e-01 2.836146e-01 3.422450e-01 -6.770863e-02 7.998355e-02 1.904729e-01 2.447319e-01 -5.651690e-02 -2.936273e-02 -1.108500e-01
<VARIANCE> 39
 1.900371e+01 3.226666e+01 4.315392e+01 4.924358e+01 7.805620e+01 6.238811e+01 4.953551e+01 4.935940e+01 5.397231e+01 4.023426e+01 3.512767e+01 3.451503e+01 2.468330e+01 9.865673e-01 1.326259e+00 2.459303e+00 1.623472e+00 3.218421e+00 3.810215e+00 2.616907e+00 2.720731e+00 2.798872e+00 2.498334e+00 1.948743e+00 1.718524e+00 1.049514e+00 1.518032e-01 2.235776e-01 2.994926e-01 3.156764e-01 5.110840e-01 6.265401e-01 4.880551e-01 5.103846e-01 5.081716e-01 4.736601e-01 3.998680e-01 3.397547e-01 1.369976e-01
<GCONST> 1.156856e+02
<STATE> 4
<MEAN> 39
 -4.024534e+00 3.907607e+00 5.096897e+00 3.063957e+00 -1.087437e+01 -1.313688e+01 -4.070576e+00 -7.164505e+00 -6.676911e+00 -6.985464e+00 -1.833235e-01 -2.042228e+00 6.558389e+01 -1.644492e-04 8.964366e-02 -7.142521e-01 -3.705199e-01 6.012273e-01 7.036120e-01 -7.694674e-02 2.676984e-01 1.805688e-01 3.559942e-01 -3.393276e-03 8.949009e-02 -5.124653e-01 -3.184424e-02 -1.009858e-01 -1.344361e-01 -1.364183e-01 4.264150e-02 1.040083e-01 3.115443e-02 1.848750e-02 1.041432e-01 9.134893e-02 -3.676289e-02 -2.157832e-02 4.787024e-02
<VARIANCE> 39
 2.134951e+01 3.088973e+01 3.998638e+01 4.322810e+01 7.768383e+01 5.713937e+01 4.676941e+01 4.504364e+01 4.645579e+01 3.592933e+01 3.186249e+01 3.051788e+01 2.778592e+01 7.961044e-01 1.188636e+00 1.811244e+00 1.636309e+00 2.511603e+00 3.075242e+00 2.227482e+00 2.425167e+00 2.605759e+00 2.169186e+00 1.733949e+00 1.541080e+00 8.516808e-01 1.108897e-01 1.787165e-01 2.660679e-01 2.709141e-01 4.319023e-01 5.107650e-01 4.068211e-01 4.397205e-01 4.182639e-01 3.891489e-01 3.346076e-01 3.035439e-01 1.468536e-01
<GCONST> 1.108114e+02
<TRANSP> 5
 0.000000e+00 1.000000e+00 0.000000e+00 0.000000e+00 0.000000e+00
 0.000000e+00 4.457864e-01 5.542135e-01 0.000000e+00 0.000000e+00
 0.000000e+00 0.000000e+00 4.576012e-01 5.423988e-01 0.000000e+00
 0.000000e+00 0.000000e+00 0.000000e+00 6.966555e-01 3.033445e-01
 0.000000e+00 0.000000e+00 0.000000e+00 0.000000e+00 0.000000e+00
<ENDHMM>
~h "k"
<BEGINHMM>
<NUMSTATES> 5
<STATE> 2
<MEAN> 39
 -9.794449e+00 -2.721977e+00 -6.375739e+00 -7.286232e+00 -4.148488e+00 -4.097402e+00 -2.649263e+00 -4.013124e+00 4.425496e-01 -1.476099e+00 1.582574e+00 -1.220656e+00 6.566228e+01 7.620341e-01 -2.109376e-02 3.953525e-01 -3.656283e-01 -6.217642e-01 -4.674520e-01 1.747812e-02 -5.185030e-01 -4.391632e-01 -1.465094e-01 -3.052860e-01 -5.948082e-01 1.122678e+00 4.509874e-01 2.368548e-01 2.304506e-01 1.286719e-01 -3.588679e-01 -3.010967e-01 -5.138604e-02 -7.515991e-02 -2.164315e-01 -4.055495e-02 -8.035576e-02 -6.488177e-02 1.993518e-02
<VARIANCE> 39
 3.694521e+01 5.075395e+01 6.658160e+01 6.119716e+01 6.394663e+01 6.240462e+01 5.199468e+01 4.232186e+01 4.370662e+01 3.915322e+01 3.869660e+01 3.138307e+01 5.489471e+01 4.793950e+00 4.651105e+00 4.728585e+00 4.663959e+00 5.338331e+00 4.976546e+00 4.476866e+00 4.564502e+00 4.138320e+00 3.766125e+00 3.613563e+00 2.653306e+00 3.070737e+00 5.930616e-01 8.884987e-01 8.069424e-01 8.319641e-01 9.864577e-01 8.515968e-01 8.024095e-01 8.249511e-01 7.286305e-01 6.695605e-01 6.648600e-01 5.013011e-01 7.176550e-01
<GCONST> 1.369160e+02
<STATE> 3
<MEAN> 39
 -4.225655e+00 -1.191437e+00 -4.658352e+00 -8.089905e+00 -7.737034e+00 -7.035441e+00 -2.990228e+00 -5.740495e+00 -1.773640e+00 -2.335078e+00 -2.073169e-03 -3.521165e+00 6.922068e+01 1.973626e+00 4.865040e-01 6.229227e-01 1.454488e-02 -1.655467e+00 -1.180856e+00 -6.613526e-02 -4.865480e-01 -8.459060e-01 -1.049015e-01 -3.171228e-01 -5.214167e-01 8.282906e-01 -1.972333e-01 -1.667401e-01 -1.882542e-01 7.069933e-02 2.788346e-02 3.054702e-02 2.262580e-02 7.709873e-02 1.294660e-01 6.439273e-02 1.598108e-01 1.908909e-01 -1.260547e-01
<VARIANCE> 39
 4.513287e+01 5.595383e+01 7.440638e+01 5.438044e+01 6.431208e+01 6.763947e+01 5.417407e+01 4.867744e+01 4.788626e+01 4.372273e+01 4.608872e+01 3.714865e+01 4.112397e+01 2.828320e+00 3.575927e+00 3.450132e+00 3.848940e+00 4.434425e+00 4.689852e+00 4.389320e+00 4.573979e+00 4.104698e+00 3.914582e+00 3.160328e+00 2.904138e+00 1.257138e+00 6.439927e-01 5.833432e-01 5.320738e-01 5.887930e-01 8.356005e-01 7.746009e-01 6.923517e-01 7.589286e-01 6.763768e-01 6.344211e-01 5.868560e-01 4.486060e-01 2.587329e-01
<GCONST> 1.322872e+02
<STATE> 4
<MEAN> 39
 -1.824378e+00 -1.114430e+00 -4.062231e+00 -8.170813e+00 -1.036842e+01 -8.769312e+00 -3.013497e+00 -6.227564e+00 -2.537845e+00 -2.356962e+00 2.593965e-02 -4.001902e+00 7.056470e+01 1.158683e+00 1.255790e-01 2.522501e-01 1.434326e-01 -1.196985e+00 -8.511424e-01 7.183906e-03 -2.745217e-01 -4.484458e-01 -1.137778e-04 -2.393179e-03 -1.463048e-01 4.921299e-01 -4.672470e-01 -1.402333e-01 -1.719582e-01 9.886131e-02 3.416946e-01 2.307524e-01 3.851149e-02 1.083935e-01 2.056876e-01 3.950262e-02 1.240915e-01 1.839940e-01 -2.358828e-01
<VARIANCE> 39
 3.564655e+01 6.465957e+01 8.739970e+01 5.875497e+01 6.623082e+01 7.401789e+01 5.434581e+01 5.359911e+01 5.430874e+01 4.924362e+01 4.593381e+01 4.128820e+01 3.948848e+01 2.065157e+00 2.709749e+00 2.800555e+00 3.189702e+00 3.738518e+00 4.137489e+00 3.581774e+00 3.482307e+00 3.418812e+00 3.060110e+00 2.636613e+00 2.370160e+00 1.091058e+00 4.244333e-01 4.535809e-01 4.429342e-01 4.941593e-01 6.865612e-01 6.827108e-01 6.510705e-01 7.171559e-01 6.477431e-01 6.130975e-01 4.946837e-01 4.252562e-01 1.826554e-01
<GCONST> 1.281263e+02
<TRANSP> 5
 0.000000e+00 1.000000e+00 0.000000e+00 0.000000e+00 0.000000e+00
 0.000000e+00 7.067604e-01 2.932396e-01 0.000000e+00 0.000000e+00
 0.000000e+00 0.000000e+00 3.171641e-01 6.828359e-01 0.000000e+00
 0.000000e+00 0.000000e+00 0.000000e+00 2.408248e-01 7.591752e-01
 0.000000e+00 0.000000e+00 0.000000e+00 0.000000e+00 0.000000e+00
<ENDHMM>
~h "m"
<BEGINHMM>
<NUMSTATES> 5
<STATE> 2
<MEAN> 39
 1.219615e+00 6.333461e+00 -1.741203e+00 -2.049291e+00 -5.581887e+00 -5.307809e+00 -1.203536e+00 -6.671278e+00 -1.021776e+01 -1.008369e+01 -4.392798e+00 -2.328412e+00 6.519647e+01 4.339509e-01 -5.618566e-01 -1.241573e+00 -1.493760e+00 -9.182729e-01 1.130821e-01 6.618193e-01 -8.222532e-02 6.293346e-01 5.828820e-01 3.693867e-02 -8.418689e-02 8.429889e-01 -2.748467e-03 -3.659236e-01 -4.268920e-01 -4.553089e-01 -2.450993e-01 8.541566e-02 1.520920e-01 4.334186e-02 4.874944e-01 5.704587e-01 2.033293e-01 -1.028096e-01 2.320786e-01
<VARIANCE> 39
 8.506621e+00 3.018262e+01 3.587360e+01 4.051140e+01 5.271428e+01 3.487004e+01 6.346515e+01 4.461230e+01 4.321859e+01 3.770870e+01 3.442607e+01 3.296266e+01 1.852341e+01 4.933239e-01 1.262385e+00 2.387130e+00 3.552927e+00 2.718853e+00 2.263816e+00 2.595003e+00 2.393075e+00 3.234089e+00 3.351279e+00 2.368148e+00 1.767796e+00 7.454291e-01 8.990944e-02 2.067954e-01 3.331403e-01 5.269246e-01 4.661020e-01 4.301497e-01 5.000080e-01 4.594168e-01 5.899805e-01 5.357856e-01 5.109221e-01 3.881298e-01 1.074924e-01
<GCONST> 1.123474e+02
<STATE> 3
<MEAN> 39
 2.776109e+00 2.575827e+00 -8.246609e+00 -9.878568e+00 -1.044323e+01 -4.809321e+00 1.509414e+00 -6.370946e+00 -5.753516e+00 -5.176310e+00 -3.014740e+00 -2.969161e+00 6.900349e+01 2.711907e-01 -1.683622e+00 -2.050196e+00 -2.220703e+00 -9.820806e-01 7.714000e-01 1.091829e+00 -7.737426e-02 1.501643e+00 1.871068e+00 5.383079e-01 -5.034710e-01 1.375363e+00 -2.035825e-01 -1.327206e-01 3.673519e-01 5.532343e-01 3.765908e-01 4.777207e-02 -2.309344e-01 1.962207e-02 -6.744402e-02 -6.069566e-02 1.310233e-03 -1.355264e-01 -1.187147e-01
<VARIANCE> 39
 8.618367e+00 4.241045e+01 4.577583e+01 5.104548e+01 5.053806e+01 4.691206e+01 6.633743e+01 5.781483e+01 3.948042e+01 4.201761e+01 3.734808e+01 3.966664e+01 2.139006e+01 5.511848e-01 2.043325e+00 2.333145e+00 4.197216e+00 4.143519e+00 4.407526e+00 4.095716e+00 3.909041e+00 4.644451e+00 4.151234e+00 4.481995e+00 3.245230e+00 8.664813e-01 8.768021e-02 2.633590e-01 4.491002e-01 7.139743e-01 5.782683e-01 5.935538e-01 6.572849e-01 5.288944e-01 6.812040e-01 6.597168e-01 5.642715e-01 4.340234e-01 1.365214e-01
<GCONST> 1.214776e+02
<STATE> 4
<MEAN> 39
 2.388430e+00 -2.153464e+00 -1.138692e+01 -1.246041e+01 -1.034639e+01 -2.213918e+00 2.200807e+00 -6.944708e+00 -3.306314e+00 -2.674413e+00 -2.802216e+00 -5.368736e+00 7.155458e+01 -1.960180e-01 -1.157916e+00 -4.585412e-01 -2.616934e-01 1.063643e-02 2.887843e-01 6.627152e-02 8.666274e-02 8.081322e-01 8.649653e-01 2.769659e-01 -5.151033e-01 5.993342e-01 -1.263306e-01 3.332660e-01 5.778174e-01 6.505311e-01 2.301065e-01 -3.351234e-01 -4.019926e-01 9.702358e-02 -2.606088e-01 -3.669492e-01 -6.873871e-02 1.225306e-01 -3.475901e-01
<VARIANCE> 39
 9.675360e+00 5.497971e+01 3.874208e+01 4.590807e+01 5.350386e+01 6.805278e+01 7.806231e+01 7.250160e+01 4.718316e+01 4.937867e+01 5.315940e+01 5.136190e+01 2.550913e+01 4.681217e-01 1.914461e+00 1.868696e+00 2.766882e+00 2.739793e+00 3.870513e+00 3.300106e+00 2.986161e+00 3.953898e+00 3.665873e+00 3.244829e+00 2.756408e+00 8.933610e-01 8.531753e-02 2.672357e-01 3.608310e-01 5.024538e-01 5.338253e-01 6.263834e-01 6.240603e-01 5.714390e-01 5.868699e-01 5.994233e-01 5.675209e-01 4.691793e-01 1.130829e-01
<GCONST> 1.199550e+02
<TRANSP> 5
 0.000000e+00 1.000000e+00 0.000000e+00 0.000000e+00 0.000000e+00
 0.000000e+00 6.894764e-01 3.105236e-01 0.000000e+00 0.000000e+00
 0.000000e+00 0.000000e+00 4.167051e-01 5.832949e-01 0.000000e+00
 0.000000e+00 0.000000e+00 0.000000e+00 4.847179e-01 5.152822e-01
 0.000000e+00 0.000000e+00 0.000000e+00 0.000000e+00 0.000000e+00
<ENDHMM>
~h "n"
<BEGINHMM>
<NUMSTATES> 5
<STATE> 2
<MEAN> 39
 1.708434e+00 1.793125e+00 -4.215841e+00 -2.623113e+00 -8.251816e+00 -7.586901e+00 -5.340038e+00 -7.996317e+00 -6.339153e+00 -3.922303e+00 -2.486755e+00 -4.241279e+00 6.650970e+01 -6.460698e-02 1.072866e+00 1.026578e+00 1.007889e+00 9.211886e-01 -2.247722e-01 -1.023247e+00 -3.245088e-01 -9.023280e-01 -3.730977e-01 6.201042e-02 -1.480390e-01 -9.019948e-01 -5.830926e-02 -1.265069e-01 -1.461096e-01 -2.693602e-01 -1.800623e-01 -4.974901e-02 2.045176e-01 1.575377e-01 1.753489e-01 3.438381e-02 9.870082e-03 1.207500e-02 1.755624e-01
<VARIANCE> 39
 9.091303e+00 4.231967e+01 4.149107e+01 4.609413e+01 5.492983e+01 4.781952e+01 5.491527e+01 4.110600e+01 4.801493e+01 4.476602e+01 3.630607e+01 3.683003e+01 2.275682e+01 4.064454e-01 1.825644e+00 2.088748e+00 2.247312e+00 2.442338e+00 2.568513e+00 3.247155e+00 2.812568e+00 3.233157e+00 2.588353e+00 2.187704e+00 2.380826e+00 7.787057e-01 6.661780e-02 3.088284e-01 3.165603e-01 2.682784e-01 4.321168e-01 3.864423e-01 4.978724e-01 4.811132e-01 6.085435e-01 4.780600e-01 3.758456e-01 3.945437e-01 1.284861e-01
<GCONST> 1.128344e+02
<STATE> 3
<MEAN> 39
 1.535123e+00 4.277758e+00 -2.207475e+00 -9.127827e-01 -6.545764e+00 -8.469623e+00 -7.028719e+00 -8.142281e+00 -7.652695e+00 -4.341886e+00 -2.030735e+00 -4.458903e+00 6.480887e+01 -8.932877e-02 7.390986e-02 5.076760e-02 1.558128e-01 2.053010e-01 -2.664438e-01 -3.088533e-01 1.688469e-03 1.260737e-01 4.661693e-02 5.521847e-02 -1.017077e-01 -4.295878e-02 1.451583e-02 -4.281289e-01 -4.621186e-01 -3.605004e-01 -3.306458e-01 3.464282e-02 3.730149e-01 1.316398e-01 3.841481e-01 1.936579e-01 -3.436052e-02 2.457712e-02 3.526629e-01
<VARIANCE> 39
 8.270075e+00 3.300225e+01 3.006121e+01 3.648600e+01 4.560632e+01 3.485417e+01 5.371233e+01 3.696745e+01 4.414943e+01 3.877753e+01 3.090768e+01 3.603936e+01 1.907188e+01 3.021267e-01 1.889752e+00 2.468308e+00 1.918345e+00 2.245398e+00 1.846300e+00 2.725778e+00 2.227995e+00 3.013774e+00 2.360704e+00 1.778449e+00 1.875411e+00 8.034143e-01 5.648244e-02 2.729689e-01 3.216493e-01 3.185813e-01 4.391524e-01 3.888102e-01 5.786949e-01 5.138805e-01 5.868034e-01 4.841495e-01 3.888421e-01 4.393413e-01 8.833491e-02
<GCONST> 1.089462e+02
<STATE> 4
<MEAN> 39
 1.061602e+00 1.517975e+00 -3.916548e+00 -2.102826e+00 -8.775082e+00 -9.086772e+00 -6.141315e+00 -7.373641e+00 -4.797661e+00 -3.316851e+00 -2.720233e+00 -5.042583e+00 6.676613e+01 -4.591105e-02 -8.072644e-01 -1.002808e+00 -7.274138e-01 -5.829681e-01 1.138781e-01 8.812765e-01 3.455724e-01 7.548440e-01 4.932160e-01 -9.098801e-02 -1.153181e-02 6.826010e-01 -3.319455e-03 5.156215e-03 -9.011685e-02 -2.099567e-01 -1.668359e-01 9.624586e-02 2.409410e-01 1.210472e-01 5.954899e-02 -5.324688e-04 -1.378721e-02 5.907971e-02 4.215857e-02
<VARIANCE> 39
 1.029412e+01 4.398897e+01 4.664721e+01 3.787044e+01 6.302620e+01 4.199495e+01 5.410489e+01 4.603891e+01 4.953088e+01 5.479488e+01 3.878526e+01 3.659621e+01 2.674269e+01 3.426295e-01 2.102371e+00 2.783157e+00 2.513255e+00 3.065649e+00 2.780528e+00 4.040917e+00 3.082151e+00 3.855387e+00 3.099334e+00 2.521246e+00 2.449406e+00 8.744472e-01 4.808170e-02 4.251258e-01 4.764447e-01 4.135807e-01 5.689988e-01 4.581746e-01 7.134823e-01 5.234917e-01 6.613477e-01 5.410786e-01 4.603675e-01 3.807977e-01 1.741321e-01
<GCONST> 1.175101e+02
<TRANSP> 5
 0.000000e+00 1.000000e+00 0.000000e+00 0.000000e+00 0.000000e+00
 0.000000e+00 5.382895e-01 4.617104e-01 0.000000e+00 0.000000e+00
 0.000000e+00 0.000000e+00 5.978138e-01 4.021862e-01 0.000000e+00
 0.000000e+00 0.000000e+00 0.000000e+00 7.429323e-01 2.570678e-01
 0.000000e+00 0.000000e+00 0.000000e+00 0.000000e+00 0.000000e+00
<ENDHMM>
~h "o"
<BEGINHMM>
<NUMSTATES> 5
<STATE> 2
<MEAN> 39
 2.620167e+00 4.502682e+00 -8.237463e+00 -1.214682e+01 -1.427979e+01 -8.042703e+00 9.474809e-01 -4.744014e+00 -4.376892e+00 -3.046699e+00 -1.479909e+00 -1.965266e+00 6.772091e+01 2.216642e-01 3.305654e-01 -1.644105e-01 -5.363972e-01 -6.740307e-01 1.124913e-01 6.856287e-01 3.190660e-01 -1.252318e-01 -1.997301e-01 -1.692196e-01 2.154028e-01 -1.137791e-01 -2.118034e-01 -1.322174e-01 1.598040e-01 3.689035e-01 4.381811e-01 1.456007e-01 -9.165697e-02 -4.204048e-02 -1.168331e-03 -2.270821e-02 4.413753e-03 -6.374389e-02 -1.162586e-01
<VARIANCE> 39
 1.067753e+01 4.209543e+01 3.020984e+01 4.263734e+01 6.329926e+01 4.940578e+01 5.656387e+01 5.069658e+01 4.786268e+01 3.714280e+01 4.176017e+01 3.512513e+01 2.325261e+01 6.931941e-01 1.269407e+00 1.467976e+00 3.128908e+00 3.751119e+00 2.897786e+00 3.515414e+00 2.844959e+00 2.813047e+00 2.521766e+00 2.381979e+00 1.886427e+00 6.551201e-01 1.329487e-01 2.291507e-01 3.125013e-01 3.743651e-01 6.327730e-01 5.122795e-01 5.558613e-01 5.016896e-01 5.521231e-01 4.975524e-01 4.646383e-01 4.268512e-01 9.197308e-02
<GCONST> 1.146635e+02
<STATE> 3
<MEAN> 39
 2.586999e+00 4.823414e+00 -8.270692e+00 -1.202930e+01 -1.415823e+01 -7.334774e+00 2.096845e+00 -4.212057e+00 -4.831916e+00 -3.410981e+00 -1.595038e+00 -1.652065e+00 6.713563e+01 -1.947617e-01 -9.182991e-03 1.625985e-01 3.987092e-01 4.768598e-01 3.214219e-01 1.486639e-01 3.073320e-02 -1.206916e-01 -1.338376e-01 1.056831e-02 9.483416e-02 -3.298032e-01 -1.928870e-01 -1.520451e-01 1.582509e-01 3.859147e-01 4.605550e-01 5.792242e-02 -2.844430e-01 -1.218379e-01 5.406317e-02 7.051326e-02 4.040350e-02 -7.855502e-02 -8.733027e-02
<VARIANCE> 39
 1.149501e+01 3.776165e+01 2.819754e+01 4.064957e+01 5.489845e+01 4.540135e+01 5.609889e+01 5.014509e+01 4.682419e+01 3.692744e+01 4.425680e+01 3.445926e+01 2.252412e+01 6.272603e-01 1.380147e+00 1.531772e+00 2.902863e+00 3.968806e+00 2.895948e+00 3.346930e+00 2.932424e+00 2.864490e+00 2.452126e+00 2.578224e+00 1.972703e+00 6.444197e-01 1.079252e-01 1.912209e-01 2.723183e-01 3.677341e-01 5.367520e-01 4.942998e-01 5.156209e-01 4.728599e-01 5.182793e-01 4.711962e-01 4.936569e-01 3.957290e-01 8.872436e-02
<GCONST> 1.132826e+02
<STATE> 4
<MEAN> 39
 1.635682e+00 4.647080e+00 -7.502574e+00 -1.009365e+01 -1.180617e+01 -6.258577e+00 1.616567e+00 -4.288752e+00 -5.074129e+00 -3.465679e+00 -1.235625e+00 -1.611307e+00 6.583862e+01 -5.360240e-01 -3.153957e-01 3.897447e-01 9.978745e-01 1.149884e+00 3.240396e-01 -4.491225e-01 -2.139374e-01 3.354478e-02 9.822972e-02 9.882949e-02 -3.661993e-02 -4.434770e-01 -7.967567e-02 -6.979936e-02 7.800295e-02 1.378723e-01 7.194044e-02 -7.251838e-02 -1.881403e-01 -4.455065e-02 7.165012e-02 6.222751e-02 -2.185896e-02 -6.121045e-02 -3.896848e-03
<VARIANCE> 39
 1.374030e+01 3.609329e+01 2.898762e+01 4.300644e+01 5.321096e+01 4.422345e+01 5.565263e+01 5.036618e+01 4.542970e+01 3.550437e+01 4.232499e+01 3.239337e+01 2.553546e+01 7.225597e-01 1.331957e+00 1.683674e+00 2.758916e+00 3.378544e+00 2.984591e+00 3.223875e+00 2.725575e+00 2.843914e+00 2.408909e+00 2.454479e+00 2.108401e+00 6.756974e-01 1.121756e-01 2.181338e-01 2.706408e-01 3.722542e-01 6.089580e-01 4.783971e-01 4.863524e-01 4.702204e-01 4.884865e-01 4.444310e-01 4.870683e-01 3.656241e-01 1.109701e-01
<GCONST> 1.135553e+02
<TRANSP> 5
 0.000000e+00 1.000000e+00 0.000000e+00 0.000000e+00 0.000000e+00
 0.000000e+00 4.765568e-01 5.234432e-01 0.000000e+00 0.000000e+00
 0.000000e+00 0.000000e+00 4.401692e-01 5.598308e-01 0.000000e+00
 0.000000e+00 0.000000e+00 0.000000e+00 5.321185e-01 4.678815e-01
 0.000000e+00 0.000000e+00 0.000000e+00 0.000000e+00 0.000000e+00
<ENDHMM>
~h "p"
<BEGINHMM>
<NUMSTATES> 5
<STATE> 2
<MEAN> 39
 -5.308920e+00 -1.455291e+00 -7.853863e+00 -9.579834e+00 -6.257115e+00 -2.534345e+00 1.945774e+00 -1.280367e+00 -9.446253e-01 -1.485665e+00 -7.705146e-01 -1.818659e+00 6.541140e+01 5.234057e-01 -3.073863e-01 -2.527272e-01 -7.942778e-01 -6.868162e-01 -3.989840e-01 2.637626e-01 -3.369514e-01 -2.922536e-01 -3.540496e-01 -1.663170e-01 -2.225792e-01 1.221398e+00 1.381329e-01 5.196556e-02 5.112813e-02 4.208465e-02 -1.264734e-01 -6.165836e-02 -1.093085e-01 -7.959608e-02 -4.912017e-02 -3.230770e-02 5.970523e-02 1.168299e-03 7.238340e-02
<VARIANCE> 39
 3.174698e+01 4.333166e+01 2.858352e+01 4.958968e+01 4.752774e+01 5.761725e+01 5.343164e+01 3.943465e+01 2.721033e+01 2.911203e+01 2.859069e+01 2.547174e+01 6.600911e+01 4.092333e+00 4.258893e+00 1.948421e+00 3.342877e+00 5.130381e+00 4.269157e+00 3.854573e+00 3.673738e+00 2.780402e+00 3.044546e+00 2.518779e+00 2.080706e+00 4.057464e+00 5.856310e-01 8.195837e-01 3.673366e-01 5.548522e-01 8.022730e-01 7.887365e-01 6.766955e-01 6.818928e-01 5.126899e-01 5.648783e-01 4.445619e-01 3.732608e-01 7.592289e-01
<GCONST> 1.279795e+02
<STATE> 3
<MEAN> 39
 -2.073816e+00 -2.117191e+00 -8.162986e+00 -1.221575e+01 -9.202986e+00 -4.509171e+00 2.078495e+00 -3.522190e+00 -2.778417e+00 -2.652385e+00 -1.504883e+00 -2.559069e+00 7.046876e+01 7.957920e-01 4.824087e-02 2.473272e-02 -2.176919e-01 -7.699779e-01 -3.529981e-01 -3.225635e-01 -4.895631e-01 -3.612839e-01 -1.353464e-01 1.574676e-01 -7.398979e-02 6.880652e-01 -8.837208e-02 1.432045e-01 1.166198e-01 2.438478e-01 1.260936e-01 -4.235913e-02 -2.362183e-01 -3.685135e-02 7.374692e-02 9.187843e-02 9.620117e-02 3.495989e-02 -2.708430e-01
<VARIANCE> 39
 3.578819e+01 5.871245e+01 3.592913e+01 5.783237e+01 6.934032e+01 6.429066e+01 6.949710e+01 4.734280e+01 4.258319e+01 4.521901e+01 3.315240e+01 3.156168e+01 5.667704e+01 2.462750e+00 4.336950e+00 1.758987e+00 2.532730e+00 3.541388e+00 3.070741e+00 3.396872e+00 2.804249e+00 3.262510e+00 2.889307e+00 2.449303e+00 2.118452e+00 1.538672e+00 5.586423e-01 7.659340e-01 3.146721e-01 4.196262e-01 8.017909e-01 5.577183e-01 6.714927e-01 5.448719e-01 6.020769e-01 5.449117e-01 4.433515e-01 3.888294e-01 3.029783e-01
<GCONST> 1.260946e+02
<STATE> 4
<MEAN> 39
 2.150515e-01 -1.553346e+00 -8.090907e+00 -1.422440e+01 -1.311369e+01 -6.530051e+00 -1.983941e-02 -2.950037e+00 -1.556822e+00 -2.897280e+00 -1.868749e+00 -2.859566e+00 7.292818e+01 2.523390e-01 2.940356e-01 2.193089e-01 1.967534e-01 -3.605848e-01 -3.884944e-01 -4.365645e-01 -3.301838e-01 -4.840963e-03 1.217150e-01 6.879063e-02 -9.736285e-02 -3.432088e-03 -6.500655e-02 9.673914e-02 6.362268e-02 1.298638e-01 6.643524e-02 -7.542330e-02 -1.053634e-01 -2.629411e-02 3.506859e-02 3.334150e-02 6.003559e-03 -1.451259e-02 -1.339432e-01
<VARIANCE> 39
 2.261231e+01 8.555954e+01 4.415395e+01 5.504263e+01 8.146251e+01 8.743713e+01 8.036132e+01 6.243075e+01 5.965709e+01 4.754268e+01 3.143688e+01 3.381638e+01 4.707030e+01 1.186440e+00 2.527227e+00 1.042439e+00 1.589941e+00 2.207163e+00 2.035010e+00 2.639056e+00 2.215118e+00 2.760403e+00 2.120501e+00 1.910219e+00 1.531111e+00 7.662514e-01 1.948716e-01 3.192439e-01 1.603447e-01 2.801094e-01 3.891054e-01 3.341263e-01 4.432485e-01 3.649538e-01 4.405071e-01 3.712190e-01 3.229289e-01 2.592756e-01 1.138846e-01
<GCONST> 1.144429e+02
<TRANSP> 5
 0.000000e+00 1.000000e+00 0.000000e+00 0.000000e+00 0.000000e+00
 0.000000e+00 7.978532e-01 2.021468e-01 0.000000e+00 0.000000e+00
 0.000000e+00 0.000000e+00 4.036182e-01 5.963818e-01 0.000000e+00
 0.000000e+00 0.000000e+00 0.000000e+00 6.419492e-01 3.580508e-01
 0.000000e+00 0.000000e+00 0.000000e+00 0.000000e+00 0.000000e+00
<ENDHMM>
~h "r"
<BEGINHMM>
<NUMSTATES> 5
<STATE> 2
<MEAN> 39
 1.689086e+00 -1.664708e+00 -6.572746e+00 -1.681211e+00 -8.566472e+00 -1.135975e+01 -6.017289e+00 -8.669085e+00 -3.900749e+00 -1.047871e+00 2.965792e-01 -2.913557e+00 6.897841e+01 -2.840193e-02 1.378778e-01 4.096787e-01 9.742022e-01 4.583354e-02 -2.748231e-01 -6.042745e-01 -2.880884e-01 -1.033465e-01 -2.547456e-01 -3.851911e-02 8.892483e-02 -3.544345e-01 -9.560198e-02 3.885188e-02 5.477206e-02 -2.897432e-01 -2.719503e-01 1.399371e-01 2.941371e-01 1.545149e-01 2.646244e-02 -1.704164e-01 -5.056874e-02 2.156363e-02 7.971166e-02
<VARIANCE> 39
 1.284906e+01 4.008216e+01 5.432576e+01 5.049819e+01 6.552921e+01 5.754733e+01 5.418958e+01 5.056198e+01 4.880987e+01 4.629925e+01 4.025097e+01 4.237375e+01 2.544590e+01 1.123734e+00 1.782708e+00 2.798241e+00 3.724316e+00 5.709919e+00 4.610479e+00 4.178784e+00 3.498627e+00 3.880584e+00 3.761268e+00 3.499105e+00 2.882722e+00 1.289850e+00 1.772341e-01 3.006616e-01 4.108771e-01 4.461914e-01 1.049614e+00 8.242657e-01 7.407941e-01 6.867436e-01 7.038859e-01 6.542748e-01 6.210739e-01 5.639946e-01 2.443767e-01
<GCONST> 1.259459e+02
<STATE> 3
<MEAN> 39
 1.394863e+00 -1.137744e+00 -5.685862e+00 -4.978070e-01 -9.066666e+00 -1.156888e+01 -6.435678e+00 -8.687320e+00 -3.973420e+00 -1.793942e+00 3.087339e-01 -2.705922e+00 6.836411e+01 -2.051295e-01 1.954470e-01 4.708695e-01 2.691442e-01 -4.190684e-01 -1.436618e-02 2.486601e-02 3.756623e-02 -7.295024e-02 -5.104669e-01 -5.747879e-02 1.955924e-01 -1.615471e-01 -8.021365e-02 1.545428e-02 2.522440e-02 -3.106712e-01 -1.712952e-01 8.949979e-02 2.878265e-01 1.521219e-01 1.218191e-02 -8.030027e-02 6.064092e-03 4.510612e-02 8.330282e-02
<VARIANCE> 39
 1.262868e+01 3.873263e+01 5.391094e+01 4.848298e+01 6.892307e+01 5.800582e+01 5.142841e+01 4.747200e+01 4.709766e+01 4.572306e+01 3.873875e+01 3.790563e+01 2.492059e+01 9.946228e-01 1.678450e+00 2.736804e+00 3.098944e+00 5.011446e+00 4.275756e+00 3.535571e+00 3.113760e+00 3.556314e+00 3.520273e+00 3.227523e+00 2.813943e+00 1.117126e+00 1.560874e-01 3.004603e-01 3.757004e-01 4.009885e-01 9.656504e-01 7.806176e-01 6.489524e-01 6.178128e-01 6.582488e-01 6.290108e-01 5.890956e-01 5.092750e-01 2.286315e-01
<GCONST> 1.232623e+02
<STATE> 4
<MEAN> 39
 8.532079e-01 -7.901555e-01 -4.617293e+00 -5.310597e-01 -1.037053e+01 -1.170897e+01 -6.156078e+00 -8.286744e+00 -4.061028e+00 -2.955738e+00 3.066613e-01 -2.290246e+00 6.818367e+01 -2.900107e-01 2.474019e-01 4.383173e-01 -1.632514e-01 -4.120875e-01 1.322947e-01 3.815989e-01 2.541600e-01 -1.129831e-01 -5.088398e-01 -2.934835e-02 2.771742e-01 -1.355229e-01 -3.514548e-02 1.245394e-02 -2.607189e-02 -1.614822e-01 1.853270e-02 4.706733e-02 1.233623e-01 6.735415e-02 -2.112587e-03 4.531097e-02 2.134846e-02 -1.782267e-02 1.059786e-02
<VARIANCE> 39
 1.421522e+01 3.982496e+01 5.601903e+01 5.070605e+01 7.160881e+01 6.056937e+01 5.234354e+01 4.711692e+01 4.785890e+01 4.631652e+01 3.903773e+01 3.729647e+01 2.474301e+01 8.422886e-01 1.531879e+00 2.323300e+00 2.370869e+00 4.048931e+00 3.591688e+00 2.978068e+00 2.682577e+00 3.075025e+00 3.196670e+00 2.648262e+00 2.488857e+00 9.816968e-01 1.343757e-01 2.509353e-01 3.146663e-01 3.393296e-01 7.471251e-01 6.356129e-01 5.343814e-01 5.216120e-01 5.510665e-01 5.367473e-01 5.161948e-01 4.284000e-01 1.750706e-01
<GCONST> 1.190993e+02
<TRANSP> 5
 0.000000e+00 1.000000e+00 0.000000e+00 0.000000e+00 0.000000e+00
 0.000000e+00 3.830379e-01 6.169621e-01 0.000000e+00 0.000000e+00
 0.000000e+00 0.000000e+00 3.317665e-01 6.682335e-01 0.000000e+00
 0.000000e+00 0.000000e+00 0.000000e+00 4.097286e-01 5.902714e-01
 0.000000e+00 0.000000e+00 0.000000e+00 0.000000e+00 0.000000e+00
<ENDHMM>
~h "t"
<BEGINHMM>
<NUMSTATES> 5
<STATE> 2
<MEAN> 39
 -1.177824e+01 -1.306735e+00 -4.446724e+00 -6.576433e+00 -4.738300e+00 -5.608994e+00 -2.469846e+00 -2.555009e+00 6.628598e-01 -1.179609e+00 2.904531e-01 -1.114731e+00 6.605229e+01 4.681682e-01 -1.285830e-01 3.262506e-01 -1.997991e-01 -4.398984e-01 -6.111987e-01 -1.074920e-01 -5.671863e-01 -2.634654e-01 -3.320569e-01 -2.698560e-01 -3.566153e-01 1.076962e+00 4.862884e-01 1.489440e-01 6.445347e-03 9.117239e-02 -1.890918e-01 -6.018673e-02 -8.936572e-02 -1.795968e-01 -2.025731e-01 -4.471821e-02 -6.123264e-02 -6.842209e-02 -1.008157e-01
<VARIANCE> 39
 7.035890e+01 3.817678e+01 4.478188e+01 3.969308e+01 4.050977e+01 5.321276e+01 4.010606e+01 3.959139e+01 3.528402e+01 3.343944e+01 3.041225e+01 3.152592e+01 5.868628e+01 7.307816e+00 3.602654e+00 3.385381e+00 4.274027e+00 4.268377e+00 4.423722e+00 3.639450e+00 3.892887e+00 4.023856e+00 3.443001e+00 2.901101e+00 3.247236e+00 5.091439e+00 1.020990e+00 6.750529e-01 5.205287e-01 6.855585e-01 7.640929e-01 8.632456e-01 7.275283e-01 6.900191e-01 6.958323e-01 6.646500e-01 5.629173e-01 6.228579e-01 1.049080e+00
<GCONST> 1.338648e+02
<STATE> 3
<MEAN> 39
 -6.047266e+00 -9.629861e-01 -3.412590e+00 -6.406813e+00 -7.755007e+00 -8.470119e+00 -3.905645e+00 -5.466624e+00 -1.730502e+00 -2.463885e+00 -1.216284e+00 -2.907308e+00 6.895675e+01 2.045239e+00 4.323221e-01 5.033679e-02 9.096883e-02 -1.088501e+00 -6.076015e-01 -4.460284e-01 -9.115348e-01 -8.705132e-01 -2.961727e-01 -2.461222e-01 -3.143851e-01 3.425413e-01 -1.986124e-01 -6.913984e-02 -1.402221e-01 -1.177611e-02 9.892783e-02 1.918064e-01 4.029623e-02 1.510296e-01 9.929939e-02 1.056399e-01 1.598230e-01 1.891907e-01 -2.336753e-01
<VARIANCE> 39
 5.413096e+01 3.660925e+01 6.252919e+01 6.116014e+01 5.799517e+01 6.584502e+01 4.577140e+01 4.495730e+01 4.403160e+01 4.946415e+01 3.586349e+01 3.929892e+01 4.188821e+01 4.807758e+00 3.134663e+00 2.907666e+00 4.123878e+00 5.272182e+00 4.990498e+00 4.041140e+00 3.842164e+00 3.868155e+00 3.864165e+00 2.919565e+00 3.503717e+00 2.806977e+00 8.804938e-01 5.179362e-01 5.400503e-01 6.347574e-01 8.635502e-01 8.123454e-01 6.629827e-01 6.534995e-01 6.704956e-01 7.025276e-01 5.567380e-01 6.058803e-01 5.339020e-01
<GCONST> 1.338247e+02
<STATE> 4
<MEAN> 39
 -3.241313e+00 -5.852480e-01 -3.791610e+00 -7.067966e+00 -9.295052e+00 -9.177853e+00 -4.555737e+00 -6.505710e+00 -2.626078e+00 -2.767333e+00 -1.242781e+00 -3.106929e+00 6.974567e+01 1.260295e+00 1.601115e-01 -1.575918e-01 5.716540e-02 -6.398494e-01 -1.396616e-01 -1.828519e-01 -4.318216e-01 -4.627602e-01 -1.798033e-02 9.785982e-02 1.659648e-02 7.936649e-03 -4.927367e-01 -1.384250e-01 -6.188413e-02 5.492733e-02 3.269976e-01 2.136440e-01 1.132620e-01 2.532895e-01 2.097426e-01 9.385122e-02 1.256571e-01 1.586794e-01 -1.990412e-01
<VARIANCE> 39
 3.866088e+01 3.846047e+01 6.803681e+01 7.509060e+01 6.781963e+01 7.310151e+01 5.082889e+01 4.684990e+01 4.672297e+01 5.595490e+01 3.854722e+01 4.344391e+01 3.910035e+01 3.187783e+00 2.481653e+00 2.164716e+00 2.872502e+00 4.327345e+00 4.089193e+00 3.371265e+00 3.132272e+00 3.211526e+00 3.251892e+00 2.670089e+00 2.836040e+00 2.365318e+00 5.604834e-01 4.126217e-01 4.844375e-01 5.908799e-01 7.939788e-01 7.248986e-01 6.060510e-01 5.757369e-01 5.713620e-01 6.238065e-01 4.856845e-01 5.484012e-01 3.204391e-01
<GCONST> 1.293072e+02
<TRANSP> 5
 0.000000e+00 1.000000e+00 0.000000e+00 0.000000e+00 0.000000e+00
 0.000000e+00 7.288615e-01 2.711385e-01 0.000000e+00 0.000000e+00
 0.000000e+00 0.000000e+00 3.332219e-01 6.667781e-01 0.000000e+00
 0.000000e+00 0.000000e+00 0.000000e+00 2.713208e-01 7.286792e-01
 0.000000e+00 0.000000e+00 0.000000e+00 0.000000e+00 0.000000e+00
<ENDHMM>
~h "u"
<BEGINHMM>
<NUMSTATES> 5
<STATE> 2
<MEAN> 39
 -6.312006e-01 4.313982e+00 -3.174083e+00 -1.342654e+00 -8.196418e+00 -1.007610e+01 -6.818664e+00 -1.087541e+01 -7.552144e+00 -6.060790e+00 -3.093750e-01 -1.314626e+00 6.661719e+01 5.128877e-01 1.968336e-01 8.927913e-02 -2.693874e-01 -1.024076e+00 -2.946889e-01 1.432513e-02 -4.149760e-01 -3.806854e-01 5.519338e-02 3.700015e-01 1.808976e-01 2.655575e-01 -1.660506e-01 -1.667186e-01 -3.575648e-02 -5.280508e-02 6.345286e-02 1.485991e-01 1.426300e-01 1.971619e-01 1.886290e-01 2.422389e-01 8.558819e-02 2.464806e-02 -7.381261e-02
<VARIANCE> 39
 2.926252e+01 3.695306e+01 3.427104e+01 5.507080e+01 6.571962e+01 5.171115e+01 5.743175e+01 4.589464e+01 5.305268e+01 4.644534e+01 3.625158e+01 3.175295e+01 2.038433e+01 2.093221e+00 2.538414e+00 2.422118e+00 3.815478e+00 3.911627e+00 3.513032e+00 3.892737e+00 3.677673e+00 4.077693e+00 2.867096e+00 2.954301e+00 2.469438e+00 8.901295e-01 4.075380e-01 4.804172e-01 3.008188e-01 5.185719e-01 7.940193e-01 6.762691e-01 7.654576e-01 7.251485e-01 7.764379e-01 5.767881e-01 5.880386e-01 4.889907e-01 1.630304e-01
<GCONST> 1.250298e+02
<STATE> 3
<MEAN> 39
 4.048829e-01 4.230559e+00 -3.021311e+00 -2.220220e+00 -1.090927e+01 -1.042120e+01 -6.509125e+00 -1.159996e+01 -8.043961e+00 -5.308649e+00 6.543954e-01 -8.123817e-01 6.698634e+01 1.007846e-01 -9.936812e-02 1.010805e-01 -3.586175e-01 -6.089260e-01 1.795526e-01 2.630197e-01 7.258866e-02 1.246984e-01 4.658341e-01 4.005363e-01 2.186982e-01 2.331145e-02 -2.071185e-01 -1.730515e-01 -3.800359e-02 -1.748377e-03 3.519119e-01 1.917733e-01 5.379827e-02 2.417548e-01 2.269647e-01 1.688282e-01 -3.052201e-02 -5.591755e-02 -9.725492e-02
<VARIANCE> 39
 2.196689e+01 3.556876e+01 3.781419e+01 5.589505e+01 6.035532e+01 5.125879e+01 6.055929e+01 4.277869e+01 5.430460e+01 4.869014e+01 3.950379e+01 3.182049e+01 2.090313e+01 1.041808e+00 1.471086e+00 1.958977e+00 2.909809e+00 3.045532e+00 2.778373e+00 2.962424e+00 2.637498e+00 3.213418e+00 2.764227e+00 2.749627e+00 2.125292e+00 7.349425e-01 2.193341e-01 2.451594e-01 2.400760e-01 3.991421e-01 5.141863e-01 5.201824e-01 5.528734e-01 5.215890e-01 6.076970e-01 4.954169e-01 5.006074e-01 4.103117e-01 1.056293e-01
<GCONST> 1.170865e+02
<STATE> 4
<MEAN> 39
 4.366252e-01 3.894146e+00 -2.834285e+00 -3.001329e+00 -1.171234e+01 -9.757088e+00 -6.728803e+00 -1.132650e+01 -7.574410e+00 -4.102303e+00 1.145193e+00 -3.454281e-01 6.664326e+01 -1.680536e-01 -2.749476e-01 -2.484426e-02 -3.371179e-01 1.156698e-01 4.450958e-01 3.099533e-01 4.516936e-01 4.148265e-01 5.998546e-01 2.723870e-01 2.107414e-02 -1.409473e-01 -1.054369e-01 -8.743927e-02 -3.643420e-02 5.292834e-02 2.700615e-01 7.366825e-02 2.701555e-02 1.668158e-01 1.101985e-01 3.711734e-02 -8.125369e-02 -8.005538e-02 -8.313350e-02
<VARIANCE> 39
 1.961327e+01 3.645260e+01 4.022079e+01 6.575726e+01 6.263192e+01 4.912265e+01 6.724006e+01 4.293801e+01 5.120790e+01 5.144972e+01 4.245085e+01 3.250635e+01 2.451508e+01 6.612024e-01 1.197662e+00 1.481936e+00 2.036888e+00 2.701725e+00 2.377915e+00 2.464368e+00 2.202657e+00 2.722676e+00 2.611217e+00 2.340399e+00 1.882977e+00 8.114422e-01 1.073138e-01 1.595953e-01 2.044104e-01 2.732947e-01 3.760731e-01 3.559576e-01 4.171882e-01 3.971073e-01 4.699976e-01 4.184542e-01 4.376732e-01 3.604899e-01 8.288737e-02
<GCONST> 1.113701e+02
<TRANSP> 5
 0.000000e+00 1.000000e+00 0.000000e+00 0.000000e+00 0.000000e+00
 0.000000e+00 3.730955e-01 6.269045e-01 0.000000e+00 0.000000e+00
 0.000000e+00 0.000000e+00 3.142016e-01 6.857984e-01 0.000000e+00
 0.000000e+00 0.000000e+00 0.000000e+00 5.264095e-01 4.735905e-01
 0.000000e+00 0.000000e+00 0.000000e+00 0.000000e+00 0.000000e+00
<ENDHMM>
~h "w"
<BEGINHMM>
<NUMSTATES> 5
<STATE> 2
<MEAN> 39
 4.063307e+00 5.065955e+00 -7.059400e+00 -1.399022e+01 -1.781030e+01 -6.672966e+00 2.204969e+00 -4.329206e+00 -3.882572e+00 -3.067529e+00 -2.630183e+00 -6.970502e-01 6.687699e+01 -2.407461e-02 -1.317824e+00 -1.073235e+00 -1.047907e+00 6.782669e-02 1.088529e+00 1.305946e+00 -4.382838e-02 -3.465286e-01 1.224727e-01 4.824184e-01 4.880643e-01 9.207491e-01 -2.237740e-01 -2.544107e-01 1.141393e-01 4.878084e-01 5.923889e-01 7.180094e-02 -3.164687e-01 -1.612929e-01 3.583443e-03 9.902336e-02 1.483236e-01 -1.149911e-01 -4.769854e-03
<VARIANCE> 39
 9.006960e+00 4.158583e+01 3.588326e+01 6.038389e+01 6.931982e+01 4.795803e+01 6.351323e+01 5.691272e+01 3.928207e+01 3.887496e+01 3.667051e+01 3.276913e+01 2.553462e+01 6.676512e-01 3.301592e+00 1.698428e+00 2.953118e+00 4.853978e+00 3.756905e+00 4.351031e+00 4.075980e+00 3.283084e+00 2.864414e+00 3.170006e+00 2.750865e+00 1.397785e+00 9.175473e-02 3.597979e-01 2.806122e-01 5.003684e-01 7.795571e-01 8.008827e-01 9.031476e-01 6.608590e-01 7.110454e-01 5.567749e-01 5.569850e-01 5.718685e-01 1.518444e-01
<GCONST> 1.218552e+02
<STATE> 3
<MEAN> 39
 2.986834e+00 1.321447e+00 -9.041347e+00 -1.393282e+01 -1.394543e+01 -3.361126e+00 3.713112e+00 -5.821729e+00 -5.259924e+00 -2.682293e+00 -3.213991e-01 2.561649e-01 6.887811e+01 -4.370496e-01 -1.213526e+00 -4.388655e-01 3.763813e-01 1.222503e+00 6.112014e-01 -2.494641e-01 -5.018420e-01 1.603727e-01 6.064506e-01 6.071741e-01 -3.197705e-01 5.200794e-01 -1.225940e-01 1.620515e-01 3.077157e-01 4.559394e-01 9.308442e-02 -4.771907e-01 -4.664265e-01 1.188328e-01 3.032421e-01 3.973287e-02 -2.296361e-01 -2.746097e-01 -1.745311e-01
<VARIANCE> 39
 1.095568e+01 5.065894e+01 4.343893e+01 7.511230e+01 6.265026e+01 4.939602e+01 7.707021e+01 6.918419e+01 3.947274e+01 4.040927e+01 4.264875e+01 4.338424e+01 2.780931e+01 5.430977e-01 1.943735e+00 1.144517e+00 2.437550e+00 2.980834e+00 3.791595e+00 4.111844e+00 3.032741e+00 3.177794e+00 2.884136e+00 2.919474e+00 2.861372e+00 7.999315e-01 8.278843e-02 2.895878e-01 2.277529e-01 3.338482e-01 4.761723e-01 5.869606e-01 6.453686e-01 6.526486e-01 5.449339e-01 5.311922e-01 6.003839e-01 4.688828e-01 1.273986e-01
<GCONST> 1.180574e+02
<STATE> 4
<MEAN> 39
 2.289118e+00 -3.586673e-01 -9.886691e+00 -1.344720e+01 -1.209057e+01 -3.304893e+00 2.787940e+00 -5.579079e+00 -4.367178e+00 -1.577531e+00 -5.136108e-01 -2.068363e+00 6.920747e+01 -4.347767e-01 -5.809621e-01 -3.526348e-02 6.783079e-01 8.529050e-01 -1.448449e-01 -5.447130e-01 4.785408e-03 5.023950e-01 3.605289e-01 -1.159728e-02 -4.441707e-01 7.914887e-02 -3.483978e-02 1.735172e-01 1.661125e-01 1.434722e-01 -1.047158e-01 -2.703882e-01 -1.101752e-01 1.619097e-01 9.618011e-02 -7.274686e-02 -1.667383e-01 -6.813847e-03 -1.411955e-01
<VARIANCE> 39
 1.217326e+01 5.941000e+01 4.734642e+01 6.712518e+01 5.990464e+01 5.538330e+01 7.418314e+01 6.387513e+01 4.553970e+01 4.143819e+01 4.641004e+01 5.630796e+01 2.832654e+01 4.939342e-01 1.269777e+00 1.030972e+00 1.968895e+00 2.382369e+00 3.321316e+00 3.108538e+00 2.346175e+00 2.500063e+00 2.417180e+00 2.401229e+00 2.203106e+00 6.172118e-01 6.333771e-02 2.123547e-01 1.968949e-01 2.459017e-01 3.777090e-01 4.266123e-01 4.867877e-01 4.731442e-01 4.043394e-01 4.566988e-01 4.618001e-01 3.872332e-01 8.629091e-02
<GCONST> 1.124384e+02
<TRANSP> 5
 0.000000e+00 1.000000e+00 0.000000e+00 0.000000e+00 0.000000e+00
 0.000000e+00 6.549231e-01 3.450769e-01 0.000000e+00 0.000000e+00
 0.000000e+00 0.000000e+00 3.573343e-01 6.426656e-01 0.000000e+00
 0.000000e+00 0.000000e+00 0.000000e+00 5.712395e-01 4.287606e-01
 0.000000e+00 0.000000e+00 0.000000e+00 0.000000e+00 0.000000e+00
<ENDHMM>
~h "aa"
<BEGINHMM>
<NUMSTATES> 5
<STATE> 2
<MEAN> 39
 1.927477e+00 -7.196884e+00 -1.369950e+01 -1.564893e+01 -8.375446e+00 2.551159e+00 5.726997e+00 -5.600310e+00 -4.786080e+00 -1.024568e+00 -3.172992e+00 -5.736863e+00 7.360468e+01 -7.438526e-02 -4.083036e-01 -1.196825e-01 2.600846e-01 4.036419e-01 1.183980e-01 -1.553806e-01 -7.379349e-02 1.714349e-01 2.221464e-01 -1.646873e-01 -3.313176e-01 7.530440e-02 -3.291936e-02 2.123877e-01 1.223967e-01 1.323178e-01 -4.933445e-02 -2.349667e-01 -1.605237e-01 7.228740e-02 9.524977e-02 -3.208548e-02 -7.621236e-04 6.752490e-02 -1.289349e-01
<VARIANCE> 39
 1.196266e+01 4.147353e+01 2.577126e+01 3.183955e+01 5.306878e+01 4.725114e+01 5.446510e+01 7.038392e+01 4.352560e+01 4.382824e+01 5.647864e+01 4.817288e+01 2.903151e+01 2.756739e-01 7.009781e-01 5.453588e-01 8.721181e-01 1.274893e+00 1.475241e+00 1.465618e+00 1.542934e+00 1.443331e+00 1.303197e+00 1.414474e+00 1.306249e+00 2.479234e-01 7.195095e-02 1.128926e-01 1.154838e-01 1.658881e-01 2.263774e-01 2.431006e-01 2.638431e-01 2.758268e-01 2.723718e-01 2.457173e-01 2.425775e-01 2.300401e-01 4.060797e-02
<GCONST> 9.533276e+01
<STATE> 3
<MEAN> 39
 1.677544e+00 -6.940584e+00 -1.323919e+01 -1.274121e+01 -6.714104e+00 6.062719e-01 3.124050e+00 -5.293233e+00 -2.042546e+00 -2.252424e-01 -3.672352e+00 -7.272262e+00 7.263649e+01 -1.298417e-01 2.636775e-01 2.952196e-01 6.177287e-01 6.025232e-02 -7.772389e-01 -5.725287e-01 2.445740e-01 4.686432e-01 1.632548e-01 -7.033003e-02 -1.012041e-01 -2.645109e-01 -3.373905e-02 1.843569e-01 1.570829e-01 1.039202e-01 -7.518587e-02 -1.613937e-01 -1.046317e-01 1.128585e-02 1.626038e-03 -3.348649e-02 7.320975e-02 1.236545e-01 -1.195500e-01
<VARIANCE> 39
 1.036512e+01 4.152386e+01 2.954270e+01 3.840694e+01 5.116822e+01 6.205193e+01 5.859794e+01 6.904276e+01 5.054680e+01 5.031905e+01 6.101797e+01 5.284190e+01 3.078373e+01 2.622276e-01 6.678518e-01 7.258979e-01 9.981633e-01 1.389413e+00 1.689187e+00 1.687168e+00 1.689355e+00 1.668524e+00 1.426011e+00 1.616317e+00 1.414838e+00 2.466671e-01 4.327536e-02 1.053455e-01 1.149122e-01 1.458213e-01 2.032051e-01 2.443754e-01 2.705061e-01 2.835204e-01 2.695039e-01 2.560249e-01 2.515312e-01 2.534199e-01 3.894610e-02
<GCONST> 9.689934e+01
<STATE> 4
<MEAN> 39
 -1.417030e-01 -4.023782e+00 -1.038476e+01 -9.129009e+00 -6.342385e+00 -3.649516e+00 6.749201e-02 -3.286312e+00 -2.700803e-01 6.285055e-01 -2.540571e+00 -6.173973e+00 6.898356e+01 -4.695017e-01 8.015658e-01 8.331366e-01 9.921041e-01 -5.529117e-02 -7.610222e-01 -6.379535e-01 2.367897e-01 2.224161e-01 -7.933731e-02 2.471894e-01 5.144571e-01 -1.012120e+00 -6.873856e-02 5.399307e-02 1.046316e-01 3.787196e-02 2.866350e-03 9.243657e-02 6.493158e-02 -5.404228e-02 -1.818752e-01 -1.170347e-01 8.384896e-02 1.095918e-01 -8.766176e-02
<VARIANCE> 39
 1.456146e+01 4.131269e+01 3.263900e+01 4.176263e+01 4.777525e+01 6.755499e+01 5.459283e+01 5.105176e+01 4.889986e+01 4.611457e+01 5.165625e+01 4.827994e+01 5.218024e+01 6.518497e-01 1.135910e+00 1.366008e+00 1.545065e+00 2.157016e+00 2.818820e+00 2.695982e+00 2.478082e+00 2.497875e+00 2.262383e+00 2.224214e+00 2.112643e+00 7.979132e-01 8.471283e-02 1.864324e-01 2.080596e-01 2.298976e-01 3.203646e-01 4.319683e-01 4.367692e-01 4.053570e-01 4.218268e-01 3.820297e-01 3.803308e-01 3.672321e-01 1.289130e-01
<GCONST> 1.112681e+02
<TRANSP> 5
 0.000000e+00 1.000000e+00 0.000000e+00 0.000000e+00 0.000000e+00
 0.000000e+00 8.101631e-01 1.898369e-01 0.000000e+00 0.000000e+00
 0.000000e+00 0.000000e+00 7.586424e-01 2.413576e-01 0.000000e+00
 0.000000e+00 0.000000e+00 0.000000e+00 7.102661e-01 2.897339e-01
 0.000000e+00 0.000000e+00 0.000000e+00 0.000000e+00 0.000000e+00
<ENDHMM>
~h "ae"
<BEGINHMM>
<NUMSTATES> 5
<STATE> 2
<MEAN> 39
 1.572739e+00 -8.798180e+00 -1.295409e+01 -1.156179e+01 -8.790813e+00 -2.628109e+00 1.963101e+00 -4.264504e+00 -6.703380e-01 4.857476e-01 -1.258579e+00 -7.476504e+00 7.402940e+01 -1.668953e-01 -2.605915e-01 3.171560e-01 3.492948e-01 8.564860e-03 -6.194085e-01 -6.948223e-01 3.584300e-01 7.963057e-01 1.367637e-01 -4.086124e-01 -3.700714e-01 7.494560e-02 -3.097418e-02 1.422923e-01 1.596995e-01 1.660027e-01 -3.931949e-02 -2.639099e-01 -1.124184e-01 5.760081e-02 -5.867556e-04 -7.784897e-02 -6.559485e-03 1.649923e-01 -1.034513e-01
<VARIANCE> 39
 1.216331e+01 3.973296e+01 2.958141e+01 3.672816e+01 5.105964e+01 7.094667e+01 5.057993e+01 6.156044e+01 6.196326e+01 4.470202e+01 6.439957e+01 4.255172e+01 2.713911e+01 3.220343e-01 6.545359e-01 9.020070e-01 1.423178e+00 1.691210e+00 2.978903e+00 2.213738e+00 2.272330e+00 2.006966e+00 1.730551e+00 2.044517e+00 1.771840e+00 2.697620e-01 4.723749e-02 1.051152e-01 1.343859e-01 1.755724e-01 2.520827e-01 3.359037e-01 3.519948e-01 3.406231e-01 3.609417e-01 2.992866e-01 3.321053e-01 2.941228e-01 4.372360e-02
<GCONST> 1.020544e+02
<STATE> 3
<MEAN> 39
 4.612437e-01 -8.576982e+00 -9.677453e+00 -6.785346e+00 -9.848648e+00 -1.053420e+01 -2.941708e+00 -1.429282e+00 4.062189e+00 1.071514e+00 -3.119728e+00 -7.459851e+00 7.331400e+01 -2.507018e-01 5.399219e-01 1.023326e+00 9.643559e-01 -4.956401e-01 -1.443583e+00 -7.889918e-01 2.517559e-01 2.250639e-01 -3.403616e-01 -2.090766e-02 6.697487e-01 -4.576798e-01 -3.283594e-02 1.946200e-01 1.149167e-01 -1.070902e-02 8.027614e-04 1.996711e-01 1.333624e-01 -1.954456e-01 -3.391715e-01 -1.128919e-01 1.439247e-01 1.757037e-01 -1.450763e-01
<VARIANCE> 39
 1.300278e+01 3.701540e+01 3.456424e+01 3.572806e+01 5.762168e+01 7.069215e+01 5.000323e+01 5.765084e+01 5.171074e+01 4.676975e+01 5.129635e+01 4.464820e+01 2.613652e+01 4.370931e-01 8.061008e-01 1.106500e+00 1.337489e+00 1.918227e+00 2.235837e+00 2.208363e+00 2.452730e+00 2.614643e+00 1.921080e+00 2.331174e+00 1.868316e+00 3.539429e-01 5.173834e-02 1.180515e-01 1.777618e-01 2.178278e-01 2.824839e-01 3.847823e-01 3.379089e-01 3.507153e-01 3.957453e-01 3.464515e-01 3.496727e-01 3.367185e-01 5.844257e-02
<GCONST> 1.049155e+02
<STATE> 4
<MEAN> 39
 -2.353032e+00 -4.162513e+00 -4.072429e+00 -3.184837e+00 -1.103241e+01 -1.413948e+01 -3.429010e+00 -4.559246e-01 1.584840e+00 -1.087138e+00 -2.195941e+00 -4.176972e+00 6.888721e+01 -3.467813e-01 6.667236e-01 6.236126e-01 5.257143e-01 -1.015331e-02 -8.681145e-02 -1.058382e-01 -1.580709e-01 -3.665497e-01 -2.073013e-01 1.739811e-01 4.702559e-01 -8.010981e-01 9.815674e-04 6.750707e-03 -1.226511e-01 -9.104404e-02 1.098736e-01 2.406651e-01 8.212110e-02 -5.251669e-02 -5.368616e-02 3.566745e-02 3.354721e-02 -4.776621e-02 -5.585912e-02
<VARIANCE> 39
 1.885129e+01 3.524042e+01 4.387902e+01 3.565243e+01 6.300609e+01 6.676124e+01 5.466941e+01 5.187962e+01 4.856107e+01 4.909046e+01 3.864172e+01 4.231301e+01 3.781557e+01 3.481967e-01 7.516860e-01 1.245916e+00 1.121672e+00 1.612982e+00 2.154319e+00 1.671654e+00 1.829211e+00 1.806987e+00 1.836283e+00 1.844863e+00 1.660952e+00 3.813330e-01 4.386068e-02 1.146551e-01 1.665929e-01 1.813710e-01 2.346041e-01 3.074832e-01 2.884626e-01 3.170457e-01 3.207707e-01 3.244991e-01 3.162672e-01 2.921643e-01 5.421096e-02
<GCONST> 1.019751e+02
<TRANSP> 5
 0.000000e+00 1.000000e+00 0.000000e+00 0.000000e+00 0.000000e+00
 0.000000e+00 8.416930e-01 1.583069e-01 0.000000e+00 0.000000e+00
 0.000000e+00 0.000000e+00 5.866811e-01 4.133189e-01 0.000000e+00
 0.000000e+00 0.000000e+00 0.000000e+00 8.097621e-01 1.902378e-01
 0.000000e+00 0.000000e+00 0.000000e+00 0.000000e+00 0.000000e+00
<ENDHMM>
~h "ai"
<BEGINHMM>
<NUMSTATES> 5
<STATE> 2
<MEAN> 39
 -9.202862e-02 -6.650486e+00 -8.339097e+00 -8.133502e+00 -9.446928e+00 -1.047335e+01 -3.596372e+00 -6.019769e+00 2.009642e+00 1.897256e+00 -1.495944e+00 -5.090042e+00 7.447431e+01 -4.834874e-01 -3.027771e-01 1.506512e+00 1.694168e+00 -4.625431e-01 -2.474579e+00 -1.191308e+00 7.877183e-01 1.006414e+00 -6.277892e-01 -6.232691e-01 2.050812e-01 8.539651e-02 -4.865220e-02 4.357144e-01 3.988105e-01 1.708668e-02 -3.106473e-01 1.734768e-02 3.237645e-01 3.249901e-02 -5.420070e-01 -5.269347e-01 3.500266e-02 3.933240e-01 -2.601462e-01
<VARIANCE> 39
 1.278423e+01 4.222894e+01 5.181555e+01 5.972513e+01 5.537981e+01 9.914048e+01 6.315285e+01 7.322180e+01 5.143375e+01 7.006443e+01 7.098734e+01 6.122674e+01 2.520549e+01 4.848759e-01 1.500032e+00 2.368021e+00 2.368947e+00 2.696198e+00 4.059460e+00 4.238253e+00 4.225717e+00 4.877398e+00 4.946910e+00 3.771794e+00 3.097877e+00 5.245337e-01 8.634605e-02 2.218116e-01 3.677725e-01 4.416698e-01 4.376444e-01 8.636080e-01 7.756408e-01 8.408571e-01 9.277563e-01 1.008201e+00 9.199800e-01 6.045256e-01 6.618151e-02
<GCONST> 1.239883e+02
<STATE> 3
<MEAN> 39
 -1.358428e+00 -5.623251e+00 -3.154859e+00 -3.473543e+00 -1.234896e+01 -1.676938e+01 -5.479200e+00 -4.674814e+00 2.076539e+00 -2.079920e+00 -2.106446e+00 -2.610658e+00 7.362590e+01 -4.660625e-01 6.468246e-01 1.644585e+00 1.066728e+00 -8.649606e-01 -1.195338e+00 -9.990053e-02 7.326758e-02 -6.493845e-01 -9.442651e-01 1.356994e-01 6.790609e-01 -4.095033e-01 4.814572e-02 2.372482e-01 -1.574630e-01 -2.365693e-01 1.283470e-01 5.678285e-01 2.318484e-01 -2.657768e-01 -3.544726e-01 1.563323e-01 2.004707e-01 -8.772969e-02 -1.839633e-01
<VARIANCE> 39
 1.404568e+01 4.338353e+01 7.144669e+01 6.001451e+01 6.283162e+01 8.732741e+01 5.138565e+01 6.097623e+01 6.155463e+01 6.496410e+01 5.478551e+01 5.742435e+01 2.245817e+01 3.550648e-01 1.039663e+00 2.018236e+00 1.617384e+00 2.187869e+00 3.120052e+00 2.472459e+00 3.539227e+00 3.785205e+00 3.419614e+00 3.552452e+00 2.419163e+00 4.372924e-01 6.112690e-02 1.614998e-01 2.871733e-01 2.578009e-01 3.878896e-01 5.325962e-01 4.725794e-01 5.861461e-01 6.596450e-01 6.822472e-01 5.890635e-01 4.888529e-01 5.412002e-02
<GCONST> 1.156914e+02
<STATE> 4
<MEAN> 39
 -3.126821e+00 -1.377462e+00 1.789768e+00 -1.413369e+00 -1.323597e+01 -1.692140e+01 -5.435259e+00 -5.807455e+00 -1.990082e+00 -4.228113e+00 -1.571535e+00 -2.022890e+00 6.998353e+01 -2.504556e-01 5.594360e-01 3.037097e-01 3.503366e-01 3.164529e-01 4.185496e-01 5.163650e-02 -2.161598e-02 -2.810405e-01 7.901672e-02 3.257886e-02 -4.945995e-02 -7.895008e-01 3.038244e-02 -4.205152e-02 -2.219078e-01 -9.610753e-02 2.097504e-01 2.538687e-01 -1.153945e-02 3.458356e-02 9.841997e-02 1.588424e-01 2.056845e-02 -5.389175e-02 -8.456741e-02
<VARIANCE> 39
 1.592570e+01 4.667092e+01 7.034717e+01 5.522695e+01 6.597766e+01 6.540356e+01 4.669650e+01 5.857542e+01 6.955321e+01 5.201470e+01 4.115634e+01 4.555780e+01 2.901396e+01 3.713793e-01 9.687266e-01 1.739503e+00 1.288080e+00 2.105321e+00 2.279965e+00 1.766772e+00 2.279965e+00 2.657947e+00 2.245644e+00 2.166286e+00 1.729778e+00 5.771745e-01 5.671817e-02 1.308266e-01 2.065640e-01 1.942493e-01 2.981225e-01 3.364162e-01 3.277289e-01 4.060887e-01 4.285189e-01 3.595874e-01 3.798738e-01 3.014248e-01 6.352824e-02
<GCONST> 1.080098e+02
<TRANSP> 5
 0.000000e+00 1.000000e+00 0.000000e+00 0.000000e+00 0.000000e+00
 0.000000e+00 6.511817e-01 3.488183e-01 0.000000e+00 0.000000e+00
 0.000000e+00 0.000000e+00 5.343277e-01 4.656723e-01 0.000000e+00
 0.000000e+00 0.000000e+00 0.000000e+00 8.169998e-01 1.830002e-01
 0.000000e+00 0.000000e+00 0.000000e+00 0.000000e+00 0.000000e+00
<ENDHMM>
~h "ao"
<BEGINHMM>
<NUMSTATES> 5
<STATE> 2
<MEAN> 39
 1.915599e+00 -5.521162e+00 -1.152816e+01 -2.010243e+01 -1.358971e+01 2.696360e+00 5.833570e+00 -3.659446e+00 -3.839338e+00 -5.438972e+00 -3.408645e+00 -3.738399e+00 7.452479e+01 9.650569e-02 2.867196e-01 8.408357e-02 -2.200338e-01 -5.083511e-01 -1.001804e-01 5.639082e-02 7.862496e-02 4.655646e-02 1.088561e-01 -6.707936e-02 5.524343e-02 -2.424172e-01 -1.189041e-02 1.297861e-01 5.019071e-02 4.282651e-02 -1.678791e-02 -1.131127e-01 -5.594736e-02 -1.103874e-02 1.394943e-02 2.894724e-02 -4.350568e-02 5.619490e-04 -8.660551e-02
<VARIANCE> 39
 9.642143e+00 3.159003e+01 4.305663e+01 2.230631e+01 7.986187e+01 9.208997e+01 5.796689e+01 1.050884e+02 5.559095e+01 5.325861e+01 3.963729e+01 4.249908e+01 2.283701e+01 2.831369e-01 8.119045e-01 4.971047e-01 6.825768e-01 1.176721e+00 1.310416e+00 1.191746e+00 1.414973e+00 1.552095e+00 1.410036e+00 1.290597e+00 1.059953e+00 3.831345e-01 5.499414e-02 8.403721e-02 8.989390e-02 1.242006e-01 2.134735e-01 2.342268e-01 2.130502e-01 2.240289e-01 2.866547e-01 2.402038e-01 2.032314e-01 1.879655e-01 3.878913e-02
<GCONST> 9.387373e+01
<STATE> 3
<MEAN> 39
 3.402237e+00 1.404701e+00 -8.449763e+00 -2.108827e+01 -1.993222e+01 -1.666561e+00 6.001541e+00 -1.584690e+00 -3.378025e+00 -1.195855e+00 -4.810516e+00 -3.544959e+00 7.050405e+01 -1.659382e-02 7.762232e-01 2.372341e-01 1.427765e-01 -4.193292e-01 -6.179687e-01 -3.585482e-01 1.288406e-01 8.843765e-02 8.631222e-02 -1.194270e-01 -2.275937e-02 -5.694296e-01 -4.404875e-02 -5.897217e-03 1.950764e-03 1.029544e-01 9.942245e-02 -2.496715e-02 -7.693051e-02 7.487833e-07 2.352928e-02 -5.310774e-02 3.322596e-02 -4.241172e-03 -3.102280e-02
<VARIANCE> 39
 8.430416e+00 2.736608e+01 5.835625e+01 2.080544e+01 7.934103e+01 6.686910e+01 4.893480e+01 6.221741e+01 5.847983e+01 4.903720e+01 3.695480e+01 3.473635e+01 1.612555e+01 1.464820e-01 5.837311e-01 5.466478e-01 6.608109e-01 9.924658e-01 1.105743e+00 1.259885e+00 1.272451e+00 1.308777e+00 1.196327e+00 1.101305e+00 9.057639e-01 2.368055e-01 2.502655e-02 7.968450e-02 8.538160e-02 1.052977e-01 1.855595e-01 1.745411e-01 2.109744e-01 2.020389e-01 2.044660e-01 2.173542e-01 1.961857e-01 1.563708e-01 2.215490e-02
<GCONST> 8.688789e+01
<STATE> 4
<MEAN> 39
 -8.728852e-01 5.646998e+00 -6.739407e+00 -1.287086e+01 -1.383346e+01 -5.500240e+00 5.264419e-01 2.271280e-01 -2.090461e+00 -2.432700e+00 -3.975750e+00 -2.503293e+00 6.196347e+01 -4.795008e-01 1.103580e-04 1.841223e-01 7.406949e-01 6.325178e-01 -1.310474e-02 -2.768208e-01 1.259809e-01 1.366132e-01 6.419235e-02 1.337440e-01 1.353005e-01 -5.677896e-01 -2.600167e-02 -6.822674e-02 -8.201172e-03 8.974794e-03 5.202654e-02 5.518859e-02 2.875333e-02 -1.306303e-02 5.213447e-03 2.518657e-02 2.692402e-02 2.101282e-02 1.807092e-02
<VARIANCE> 39
 1.995319e+01 2.844768e+01 3.530227e+01 4.466427e+01 7.149567e+01 4.008669e+01 3.738235e+01 2.922465e+01 3.485235e+01 4.064404e+01 2.430743e+01 2.698528e+01 3.223035e+01 2.942152e-01 6.130735e-01 6.065451e-01 9.942780e-01 1.284021e+00 1.491215e+00 1.283809e+00 1.342386e+00 1.676834e+00 1.479037e+00 1.418121e+00 1.298115e+00 1.992078e-01 3.698611e-02 7.399168e-02 9.215342e-02 1.444629e-01 1.781948e-01 2.134810e-01 2.057779e-01 2.342746e-01 2.936444e-01 2.649460e-01 2.559532e-01 2.248084e-01 1.837369e-02
<GCONST> 9.050713e+01
<TRANSP> 5
 0.000000e+00 1.000000e+00 0.000000e+00 0.000000e+00 0.000000e+00
 0.000000e+00 9.107192e-01 8.928087e-02 0.000000e+00 0.000000e+00
 0.000000e+00 0.000000e+00 8.370906e-01 1.629094e-01 0.000000e+00
 0.000000e+00 0.000000e+00 0.000000e+00 9.450293e-01 5.497077e-02
 0.000000e+00 0.000000e+00 0.000000e+00 0.000000e+00 0.000000e+00
<ENDHMM>
~h "au"
<BEGINHMM>
<NUMSTATES> 5
<STATE> 2
<MEAN> 39
 1.443589e+00 -4.410289e+00 -9.860194e+00 -1.055688e+01 -1.097512e+01 -7.866460e+00 -3.738784e+00 -7.033531e+00 -1.016362e+00 2.193086e+00 1.592760e+00 -4.383760e+00 7.346452e+01 1.154558e-01 6.718856e-01 2.125579e-01 3.493876e-01 -2.913226e-01 -3.068215e-01 -3.297057e-01 -6.226919e-01 -3.000577e-01 -2.554449e-01 2.768352e-01 3.149574e-01 -4.241623e-01 -7.968192e-02 2.690060e-01 1.555513e-01 1.506200e-01 1.502593e-01 2.894384e-02 -5.117168e-02 -5.360176e-02 -1.666361e-01 -2.753092e-01 -1.078117e-01 6.473962e-02 -2.093610e-01
<VARIANCE> 39
 8.816615e+00 3.792074e+01 2.769761e+01 4.157123e+01 4.603327e+01 5.290310e+01 7.139481e+01 6.346996e+01 6.041683e+01 5.817170e+01 5.379340e+01 6.727651e+01 2.627893e+01 3.315030e-01 1.334653e+00 8.670658e-01 1.209985e+00 1.538423e+00 2.374331e+00 2.433916e+00 2.767584e+00 2.876116e+00 2.518879e+00 2.149026e+00 1.605423e+00 5.073900e-01 9.414891e-02 1.616396e-01 1.696944e-01 2.141210e-01 2.768564e-01 3.849651e-01 4.416468e-01 4.695699e-01 4.723969e-01 4.197839e-01 3.642672e-01 3.159460e-01 5.438482e-02
<GCONST> 1.073538e+02
<STATE> 3
<MEAN> 39
 1.977641e+00 -7.150398e-01 -8.245932e+00 -8.684910e+00 -1.141856e+01 -8.434916e+00 -4.692061e+00 -8.876137e+00 -2.230547e+00 4.758978e-01 1.348845e+00 -3.140801e+00 7.079485e+01 4.315458e-02 1.021521e+00 5.216718e-01 5.914091e-01 4.246972e-03 -1.243461e-01 -2.696365e-01 -3.550526e-01 -6.010835e-01 -7.863933e-01 -1.153303e-01 3.160518e-01 -7.304250e-01 -3.024571e-02 4.930819e-02 8.210347e-02 6.572792e-02 1.127812e-01 7.919373e-02 1.245490e-02 1.153213e-01 -7.059526e-02 -9.956293e-02 -8.808308e-02 -1.696089e-02 -9.096129e-02
<VARIANCE> 39
 8.056114e+00 4.626244e+01 2.845576e+01 4.405230e+01 4.628782e+01 5.818533e+01 7.699533e+01 6.761217e+01 6.897614e+01 6.608453e+01 5.177792e+01 6.342130e+01 2.118298e+01 2.267288e-01 8.184035e-01 7.468222e-01 1.154739e+00 1.405043e+00 2.202476e+00 1.963616e+00 2.804658e+00 2.536489e+00 2.583634e+00 2.086396e+00 1.828887e+00 3.412258e-01 3.884573e-02 1.288517e-01 1.253701e-01 1.864768e-01 2.324400e-01 3.220830e-01 3.504702e-01 4.444094e-01 4.652757e-01 4.191237e-01 3.334107e-01 2.997250e-01 3.655230e-02
<GCONST> 1.031578e+02
<STATE> 4
<MEAN> 39
 3.644333e-01 4.659036e+00 -4.380923e+00 -4.104756e+00 -8.656960e+00 -7.958014e+00 -6.021760e+00 -8.273039e+00 -5.476181e+00 -4.255510e+00 -6.766871e-01 -1.972044e+00 6.486755e+01 -2.661056e-01 3.711092e-01 3.548906e-01 4.468316e-01 3.945396e-01 1.857145e-01 5.052115e-02 2.210099e-01 -2.044321e-01 -3.229051e-01 -2.373449e-01 8.509339e-02 -6.275378e-01 -3.197780e-02 -9.013963e-02 -4.568886e-02 -4.718398e-02 3.353494e-02 4.096468e-02 4.256446e-02 4.845516e-02 5.785320e-02 8.007374e-02 1.910913e-02 -5.727610e-03 2.371656e-02
<VARIANCE> 39
 1.299721e+01 4.388520e+01 2.841096e+01 3.895560e+01 5.095260e+01 5.123641e+01 6.409891e+01 5.058928e+01 5.262064e+01 5.105036e+01 3.654203e+01 3.630945e+01 3.168190e+01 2.811916e-01 8.407229e-01 7.272814e-01 1.034205e+00 1.344306e+00 1.547491e+00 1.690530e+00 1.895149e+00 1.965667e+00 1.846548e+00 1.583562e+00 1.484347e+00 2.852831e-01 3.742668e-02 9.327217e-02 1.106960e-01 1.608652e-01 2.194345e-01 2.336874e-01 2.594388e-01 3.153029e-01 3.081556e-01 3.004956e-01 2.474413e-01 2.409132e-01 2.777809e-02
<GCONST> 9.664323e+01
<TRANSP> 5
 0.000000e+00 1.000000e+00 0.000000e+00 0.000000e+00 0.000000e+00
 0.000000e+00 6.637487e-01 3.362513e-01 0.000000e+00 0.000000e+00
 0.000000e+00 0.000000e+00 6.901007e-01 3.098994e-01 0.000000e+00
 0.000000e+00 0.000000e+00 0.000000e+00 8.889832e-01 1.110168e-01
 0.000000e+00 0.000000e+00 0.000000e+00 0.000000e+00 0.000000e+00
<ENDHMM>
~h "ee"
<BEGINHMM>
<NUMSTATES> 5
<STATE> 2
<MEAN> 39
 -4.205070e+00 -1.476621e+00 6.587933e+00 -3.796929e+00 -2.044648e+01 -2.001635e+01 -5.028317e+00 -9.343470e+00 -7.022921e+00 -5.581813e+00 2.154814e+00 -2.426728e+00 7.520856e+01 1.324693e-02 -8.492284e-02 -3.693299e-02 -4.959425e-02 -4.635082e-02 -8.692741e-03 -1.319967e-02 7.716307e-02 6.906801e-02 -3.855170e-02 4.519647e-02 -2.177517e-02 -9.179426e-02 -1.768880e-02 3.424021e-02 -2.579460e-02 1.822684e-02 8.653041e-02 4.762182e-02 3.026862e-02 3.305396e-02 1.680210e-02 -6.788889e-03 -5.228657e-02 -1.943184e-02 -5.951063e-02
<VARIANCE> 39
 8.031388e+00 2.305124e+01 3.999389e+01 5.642349e+01 6.052343e+01 7.188026e+01 4.302156e+01 3.698655e+01 3.226545e+01 4.324405e+01 4.517896e+01 6.538347e+01 1.562973e+01 1.197726e-01 3.722624e-01 4.230828e-01 5.607826e-01 8.323144e-01 7.357839e-01 8.327449e-01 7.903926e-01 7.866017e-01 7.879666e-01 8.549885e-01 6.779367e-01 1.684760e-01 3.050150e-02 6.725334e-02 7.830352e-02 1.005408e-01 1.708676e-01 1.499323e-01 1.672865e-01 1.587439e-01 1.508004e-01 1.571248e-01 1.520542e-01 1.258715e-01 2.712843e-02
<GCONST> 8.045663e+01
<STATE> 3
<MEAN> 39
 -3.058872e+00 -1.162428e+00 4.989867e+00 -3.000251e+00 -1.890690e+01 -1.913678e+01 -5.320764e+00 -7.409905e+00 -5.266873e+00 -5.947790e+00 -5.534397e-02 -2.599550e+00 7.203994e+01 1.336916e-01 2.464622e-01 -2.702587e-01 1.983029e-01 4.692366e-01 2.531478e-01 -4.384874e-02 2.012420e-01 5.241048e-02 -8.772009e-02 -3.033247e-01 -1.150031e-01 -5.945803e-01 -1.425741e-02 7.376386e-02 -3.995657e-02 3.411757e-02 1.023781e-01 6.189151e-02 2.740309e-03 1.825733e-02 -3.535645e-02 -7.577986e-03 -1.506885e-02 -1.780951e-02 -8.670554e-02
<VARIANCE> 39
 1.056246e+01 2.401482e+01 3.989309e+01 4.524028e+01 7.565623e+01 7.113738e+01 3.858469e+01 3.737882e+01 5.268344e+01 4.393797e+01 5.326044e+01 6.100369e+01 1.501087e+01 2.496343e-01 6.445224e-01 6.249297e-01 1.034806e+00 1.520580e+00 1.028193e+00 1.706787e+00 1.146761e+00 1.691065e+00 1.518552e+00 1.652913e+00 1.174146e+00 3.488287e-01 3.609656e-02 1.033529e-01 1.108020e-01 1.798482e-01 2.456667e-01 1.765497e-01 2.995874e-01 2.233702e-01 3.212212e-01 2.673779e-01 2.652503e-01 2.085764e-01 4.732639e-02
<GCONST> 9.477773e+01
<STATE> 4
<MEAN> 39
 -4.573299e+00 2.443637e-01 2.002524e+00 -1.661759e+00 -1.329331e+01 -1.466469e+01 -3.787009e+00 -4.492282e+00 -5.645504e+00 -5.264729e+00 -1.267824e+00 -2.134218e+00 6.483344e+01 -1.889639e-01 1.420398e-01 -4.506665e-01 1.988660e-01 8.251480e-01 6.617916e-01 8.111286e-02 3.600744e-01 1.767256e-01 1.894755e-01 -1.361146e-01 1.838555e-01 -8.071159e-01 -2.173956e-02 -3.102820e-02 -2.774292e-02 -2.891710e-02 2.710905e-02 3.343312e-02 -1.003426e-02 2.569666e-03 3.092902e-02 5.062538e-02 5.491106e-02 2.531355e-02 2.257473e-02
<VARIANCE> 39
 1.448935e+01 2.423583e+01 3.263998e+01 3.515326e+01 6.714867e+01 8.045319e+01 3.933462e+01 3.506262e+01 4.551555e+01 5.348553e+01 3.766463e+01 5.207247e+01 3.123666e+01 2.813474e-01 7.095020e-01 6.457560e-01 9.260362e-01 1.443175e+00 1.582328e+00 1.564359e+00 1.646967e+00 1.841997e+00 1.890287e+00 1.794160e+00 1.687344e+00 4.198804e-01 3.647909e-02 1.095353e-01 1.052759e-01 1.534629e-01 2.123652e-01 2.325910e-01 2.678587e-01 2.848745e-01 3.637861e-01 3.340043e-01 3.035381e-01 3.015268e-01 4.711604e-02
<GCONST> 9.757904e+01
<TRANSP> 5
 0.000000e+00 1.000000e+00 0.000000e+00 0.000000e+00 0.000000e+00
 0.000000e+00 9.374191e-01 6.258088e-02 0.000000e+00 0.000000e+00
 0.000000e+00 0.000000e+00 7.630433e-01 2.369567e-01 0.000000e+00
 0.000000e+00 0.000000e+00 0.000000e+00 8.833362e-01 1.166638e-01
 0.000000e+00 0.000000e+00 0.000000e+00 0.000000e+00 0.000000e+00
<ENDHMM>
~h "ei"
<BEGINHMM>
<NUMSTATES> 5
<STATE> 2
<MEAN> 39
 -3.354787e+00 -5.420581e+00 1.920043e+00 -5.532633e+00 -1.833067e+01 -1.951425e+01 -4.308886e+00 -2.087925e+00 -3.258548e+00 -6.210848e+00 9.873985e-02 -3.025332e+00 7.517918e+01 -1.088096e-01 5.134894e-01 6.683300e-01 2.238215e-01 -3.650247e-01 -8.566120e-02 -1.251176e-03 -6.451969e-01 -5.899348e-01 -3.986828e-02 3.447401e-01 -3.425475e-03 -3.346080e-01 1.823017e-04 9.983281e-02 7.758494e-03 6.213248e-02 8.445504e-02 9.007330e-02 1.194390e-02 -8.815169e-02 -3.703735e-02 -4.974339e-03 -5.235264e-02 -5.056517e-02 -8.838901e-02
<VARIANCE> 39
 8.489798e+00 2.871077e+01 5.031549e+01 5.093722e+01 6.512302e+01 8.624705e+01 3.924045e+01 6.742954e+01 5.765862e+01 5.195674e+01 4.428218e+01 4.879399e+01 1.869325e+01 1.608680e-01 5.165344e-01 6.222426e-01 8.192983e-01 1.014350e+00 1.136966e+00 1.171918e+00 1.623534e+00 1.168336e+00 1.314122e+00 1.179374e+00 1.069349e+00 2.206433e-01 3.031936e-02 7.119672e-02 1.007676e-01 1.451147e-01 1.660736e-01 1.756241e-01 2.139541e-01 2.418307e-01 1.894547e-01 2.048551e-01 1.871666e-01 1.846981e-01 2.732551e-02
<GCONST> 8.984826e+01
<STATE> 3
<MEAN> 39
 -4.419563e+00 1.779594e+00 9.113449e+00 -1.884433e+00 -1.891915e+01 -1.718104e+01 -3.200912e+00 -9.357045e+00 -8.485343e+00 -5.004328e+00 9.605159e-01 -2.936709e+00 7.090188e+01 -1.508529e-01 6.787932e-01 4.047959e-01 2.917855e-01 3.291562e-01 5.704698e-01 8.957870e-02 -4.084399e-01 -4.028393e-01 -7.995516e-02 -2.172402e-01 -2.455861e-01 -6.822667e-01 -3.337906e-03 -3.125228e-02 -9.544747e-02 -3.809109e-03 1.139257e-01 2.993232e-02 5.002400e-03 9.855475e-02 7.136239e-02 -1.441291e-02 -4.279600e-02 1.708666e-02 -3.935832e-02
<VARIANCE> 39
 1.028008e+01 2.604490e+01 4.162736e+01 5.366821e+01 5.991592e+01 7.974585e+01 3.504536e+01 4.024693e+01 4.303411e+01 5.286512e+01 3.460628e+01 4.276461e+01 1.796177e+01 1.420193e-01 3.783836e-01 6.186835e-01 7.340784e-01 8.944890e-01 9.868003e-01 9.257439e-01 1.362231e+00 1.053296e+00 1.007443e+00 1.093205e+00 8.945430e-01 1.842462e-01 2.349139e-02 5.634999e-02 9.511103e-02 1.152694e-01 1.546376e-01 1.726999e-01 1.649469e-01 2.300142e-01 1.696748e-01 1.833478e-01 1.655573e-01 1.536994e-01 1.579809e-02
<GCONST> 8.403535e+01
<STATE> 4
<MEAN> 39
 -6.459072e+00 4.237115e+00 5.671513e+00 2.955716e-01 -1.044094e+01 -8.532594e+00 -1.762561e+00 -7.767431e+00 -7.528903e+00 -4.963486e+00 -1.440933e+00 -3.577292e+00 6.243511e+01 -2.132755e-01 -5.880846e-02 -5.207018e-01 1.374606e-01 8.064218e-01 6.503311e-01 1.827799e-01 3.856838e-01 2.147950e-01 2.000159e-01 -9.245440e-02 1.939761e-01 -6.687244e-01 -1.642040e-02 -7.899360e-02 -6.382301e-02 -3.389590e-02 1.994133e-03 9.375587e-04 1.772651e-02 6.678085e-02 4.936437e-02 4.445835e-02 3.933844e-02 3.160248e-02 2.108860e-02
<VARIANCE> 39
 1.024494e+01 3.007469e+01 5.776625e+01 3.042741e+01 6.613479e+01 5.795039e+01 4.010544e+01 4.347255e+01 3.711715e+01 3.854678e+01 2.570616e+01 3.138959e+01 2.837991e+01 2.125843e-01 6.020638e-01 8.607187e-01 8.587353e-01 1.417735e+00 1.333415e+00 1.511976e+00 1.868520e+00 1.267068e+00 1.479295e+00 1.410530e+00 1.179301e+00 2.965837e-01 3.715544e-02 8.338168e-02 1.243223e-01 1.347997e-01 2.295334e-01 2.282123e-01 2.865894e-01 3.106349e-01 2.207366e-01 2.504540e-01 2.406487e-01 2.139660e-01 2.844546e-02
<GCONST> 9.248296e+01
<TRANSP> 5
 0.000000e+00 1.000000e+00 0.000000e+00 0.000000e+00 0.000000e+00
 0.000000e+00 9.039888e-01 9.601118e-02 0.000000e+00 0.000000e+00
 0.000000e+00 0.000000e+00 8.513306e-01 1.486694e-01 0.000000e+00
 0.000000e+00 0.000000e+00 0.000000e+00 9.296706e-01 7.032934e-02
 0.000000e+00 0.000000e+00 0.000000e+00 0.000000e+00 0.000000e+00
<ENDHMM>
~h "ii"
<BEGINHMM>
<NUMSTATES> 5
<STATE> 2
<MEAN> 39
 -5.639298e+00 9.921424e-01 8.571308e+00 3.997477e-01 -1.794544e+01 -1.566129e+01 -4.215775e+00 -1.126953e+01 -9.079153e+00 -9.393210e+00 -2.061182e-01 -4.744024e+00 7.139186e+01 7.718252e-01 -1.113424e-02 -5.304947e-01 1.239172e-01 9.157152e-02 5.547759e-02 -2.671151e-01 -2.624251e-02 -8.523893e-02 5.645189e-02 -2.233237e-03 2.023477e-01 -3.992788e-01 -1.972834e-01 6.487522e-02 -2.542516e-01 -1.857450e-01 5.527633e-01 4.128554e-01 9.535703e-02 1.919661e-01 6.531308e-02 1.404515e-01 -7.163916e-02 5.096524e-02 -1.923718e-01
<VARIANCE> 39
 1.501634e+01 3.252549e+01 5.341110e+01 4.661890e+01 7.128985e+01 5.567193e+01 5.780690e+01 4.795093e+01 3.738881e+01 4.549860e+01 3.859248e+01 3.634584e+01 2.258553e+01 1.109778e+00 1.073235e+00 2.117399e+00 1.417406e+00 3.728963e+00 3.053290e+00 2.582354e+00 2.264918e+00 1.885902e+00 1.882388e+00 1.880235e+00 1.502806e+00 6.263582e-01 1.873811e-01 2.413191e-01 3.199841e-01 3.142186e-01 5.648881e-01 5.771160e-01 5.507789e-01 4.807557e-01 4.345953e-01 3.787154e-01 3.544548e-01 3.143634e-01 8.290771e-02
<GCONST> 1.126829e+02
<STATE> 3
<MEAN> 39
 -2.903666e+00 3.230282e+00 5.979764e+00 -8.559153e-01 -1.342212e+01 -1.243881e+01 -5.351268e+00 -1.031783e+01 -9.791527e+00 -7.917230e+00 -1.728548e+00 -3.982181e+00 6.827936e+01 4.077585e-01 6.383654e-01 -5.192204e-01 -4.265031e-01 1.062699e+00 1.094951e+00 3.170919e-01 7.238494e-02 -5.039632e-01 6.082290e-02 -1.342931e-01 1.438409e-01 -7.860715e-01 -1.684697e-01 -4.151293e-02 5.857956e-02 -3.015250e-05 -9.517709e-02 9.464011e-03 2.207535e-01 -3.270893e-02 1.283312e-02 -5.936581e-02 1.140013e-02 9.009393e-03 8.322692e-02
<VARIANCE> 39
 1.581041e+01 2.781988e+01 6.726713e+01 4.476672e+01 5.158200e+01 5.751327e+01 5.472070e+01 4.162922e+01 3.447182e+01 3.868832e+01 2.994236e+01 3.507714e+01 2.814975e+01 5.347136e-01 8.661113e-01 1.265476e+00 1.552777e+00 2.228849e+00 2.518571e+00 2.504463e+00 1.675610e+00 2.026817e+00 1.930039e+00 1.556043e+00 1.306091e+00 5.458278e-01 7.876574e-02 1.646509e-01 2.291163e-01 2.226776e-01 3.608153e-01 3.732815e-01 3.797875e-01 3.363343e-01 3.483473e-01 3.151554e-01 2.795930e-01 2.249655e-01 9.962662e-02
<GCONST> 1.048578e+02
<STATE> 4
<MEAN> 39
 -5.582392e+00 6.071296e+00 7.801770e+00 -9.435642e-01 -9.250147e+00 -1.031931e+01 -2.384417e+00 -1.006669e+01 -9.514212e+00 -6.042429e+00 -3.000204e+00 -3.866617e+00 6.544656e+01 -4.420063e-02 -7.160769e-02 -4.562957e-01 2.236706e-02 4.189510e-01 3.940973e-01 1.921369e-01 2.430198e-01 1.047777e-01 7.989665e-02 -3.094235e-02 1.709629e-01 -4.087842e-01 -1.623524e-02 -9.791122e-02 -7.077332e-02 -4.505823e-02 -6.616499e-02 -7.923620e-03 1.617149e-05 1.898456e-02 8.230797e-02 4.974131e-02 1.178462e-02 -2.275328e-03 6.200624e-02
<VARIANCE> 39
 2.268946e+01 2.392207e+01 7.113832e+01 4.795427e+01 5.143673e+01 5.780434e+01 5.373866e+01 4.058706e+01 2.950510e+01 3.116640e+01 3.554095e+01 3.590035e+01 3.459534e+01 2.659728e-01 5.425740e-01 8.255075e-01 8.098837e-01 1.069860e+00 1.166374e+00 1.245375e+00 1.265002e+00 1.350565e+00 1.302043e+00 1.317857e+00 1.178591e+00 2.500940e-01 4.078062e-02 9.356142e-02 1.329530e-01 1.508768e-01 1.974040e-01 2.061444e-01 2.320071e-01 2.231168e-01 2.539453e-01 2.473430e-01 2.440344e-01 2.218386e-01 4.722805e-02
<GCONST> 9.289212e+01
<TRANSP> 5
 0.000000e+00 1.000000e+00 0.000000e+00 0.000000e+00 0.000000e+00
 0.000000e+00 7.538865e-01 2.461135e-01 0.000000e+00 0.000000e+00
 0.000000e+00 0.000000e+00 5.696884e-01 4.303116e-01 0.000000e+00
 0.000000e+00 0.000000e+00 0.000000e+00 9.014292e-01 9.857079e-02
 0.000000e+00 0.000000e+00 0.000000e+00 0.000000e+00 0.000000e+00
<ENDHMM>
~h "oe"
<BEGINHMM>
<NUMSTATES> 5
<STATE> 2
<MEAN> 39
 7.842550e-01 -2.086557e+00 -6.172540e+00 -1.138021e+01 -1.417377e+01 -1.162196e+01 -7.729495e+00 -1.144422e+01 -2.344714e+00 -7.973393e-01 1.255851e+00 4.486319e-01 7.296501e+01 -3.871349e-01 -8.499597e-01 5.704943e-01 1.488742e+00 4.927855e-01 -1.343937e+00 -1.113863e+00 4.324577e-01 8.627412e-01 7.783270e-02 5.491998e-02 -1.496035e-01 2.054992e-01 -8.441835e-02 1.277130e-01 1.888108e-01 8.355281e-02 -7.458398e-02 -7.722551e-02 1.616662e-01 2.453173e-01 -3.694870e-02 -1.991859e-01 -1.305985e-01 -4.955206e-03 -1.539757e-01
<VARIANCE> 39
 1.416207e+01 3.821625e+01 4.827136e+01 6.340185e+01 5.591094e+01 6.907958e+01 7.183074e+01 5.571023e+01 5.963810e+01 5.779139e+01 5.361129e+01 4.378510e+01 2.168613e+01 6.074268e-01 1.542687e+00 1.887758e+00 2.429826e+00 3.032802e+00 3.833335e+00 5.035536e+00 4.048170e+00 4.551733e+00 4.684196e+00 4.193209e+00 3.304451e+00 8.010476e-01 9.517551e-02 2.450964e-01 2.542452e-01 4.183830e-01 5.915862e-01 6.879292e-01 9.774539e-01 6.954780e-01 9.641628e-01 9.010075e-01 8.088854e-01 6.887729e-01 7.624824e-02
<GCONST> 1.233432e+02
<STATE> 3
<MEAN> 39
 -1.651607e+00 -4.101489e+00 -4.573469e-01 -2.786475e+00 -1.374117e+01 -1.941843e+01 -1.041784e+01 -5.883230e+00 7.817256e-02 -3.547975e+00 -5.462592e-01 4.689725e-02 7.144337e+01 -4.071842e-01 5.025491e-01 7.549225e-01 7.060734e-01 -2.471899e-02 -3.708445e-01 4.537421e-01 8.034599e-01 -4.203517e-01 -6.529149e-01 -2.489132e-02 3.259434e-01 -9.569811e-01 1.301640e-02 1.527910e-01 -2.528526e-01 -2.043487e-01 1.638503e-01 4.341388e-01 7.621802e-02 -2.581068e-01 -9.737690e-02 2.909923e-01 1.749541e-01 -2.987419e-02 -1.800742e-01
<VARIANCE> 39
 1.274231e+01 2.839801e+01 5.390546e+01 4.338046e+01 6.108364e+01 5.669920e+01 4.382368e+01 4.286412e+01 3.838877e+01 5.836815e+01 4.105322e+01 2.885772e+01 2.978019e+01 4.323710e-01 1.073715e+00 1.739701e+00 1.453038e+00 2.463870e+00 3.412471e+00 2.447792e+00 2.814096e+00 2.622884e+00 2.670452e+00 2.412534e+00 1.839130e+00 1.299711e+00 7.707979e-02 1.907763e-01 2.440197e-01 2.464758e-01 3.986840e-01 4.703170e-01 4.542694e-01 4.739426e-01 4.996847e-01 5.060516e-01 4.036345e-01 3.666289e-01 1.117026e-01
<GCONST> 1.113995e+02
<STATE> 4
<MEAN> 39
 -4.537639e+00 -3.037029e-01 3.373126e-01 -7.527149e-01 -1.144876e+01 -1.625187e+01 -6.715630e+00 -3.694521e+00 -2.494307e+00 -3.947274e+00 6.351373e-01 3.049607e-01 6.445928e+01 -4.654004e-01 2.651224e-01 -9.383454e-02 1.742488e-01 4.754324e-01 7.854379e-01 3.795195e-01 1.533232e-01 -1.176955e-02 1.856258e-01 4.617154e-02 5.406530e-02 -8.672457e-01 -1.438181e-02 -7.535008e-02 -6.622674e-02 -6.486490e-02 6.254306e-02 9.462631e-02 -1.910077e-02 -1.233880e-02 6.598820e-02 3.341544e-02 -2.081522e-02 -2.381008e-02 8.147258e-02
<VARIANCE> 39
 1.664221e+01 2.479808e+01 3.330888e+01 3.141904e+01 5.458662e+01 5.742244e+01 4.351159e+01 4.152164e+01 3.737112e+01 4.304195e+01 2.939171e+01 2.606734e+01 4.741388e+01 3.640158e-01 8.497301e-01 9.492594e-01 1.018456e+00 1.534805e+00 2.058820e+00 1.520686e+00 1.592464e+00 1.571239e+00 1.703311e+00 1.531921e+00 1.401765e+00 7.008020e-01 6.225583e-02 1.327381e-01 1.491435e-01 1.760397e-01 2.612242e-01 2.992228e-01 2.729072e-01 3.146322e-01 2.960982e-01 3.049604e-01 2.852818e-01 2.753435e-01 1.033578e-01
<GCONST> 9.964906e+01
<TRANSP> 5
 0.000000e+00 1.000000e+00 0.000000e+00 0.000000e+00 0.000000e+00
 0.000000e+00 8.713554e-01 1.286446e-01 0.000000e+00 0.000000e+00
 0.000000e+00 0.000000e+00 6.898044e-01 3.101956e-01 0.000000e+00
 0.000000e+00 0.000000e+00 0.000000e+00 9.096889e-01 9.031104e-02
 0.000000e+00 0.000000e+00 0.000000e+00 0.000000e+00 0.000000e+00
<ENDHMM>
~h "oi"
<BEGINHMM>
<NUMSTATES> 5
<STATE> 2
<MEAN> 39
 1.430286e+00 5.680609e-02 -5.028379e+00 -9.944348e+00 -1.290894e+01 -1.133512e+01 -7.788424e+00 -1.244952e+01 -5.312141e+00 -3.818820e+00 5.587702e-01 -1.066539e-01 7.172766e+01 -5.210755e-01 -6.157750e-01 8.183006e-01 1.822935e+00 4.821179e-01 -1.184187e+00 -7.714680e-01 7.329446e-02 2.122146e-01 -1.182021e-01 2.233449e-01 -4.096273e-01 6.663695e-02 -8.991483e-02 1.117802e-01 2.042749e-01 1.084330e-01 -8.833306e-02 -7.930083e-02 2.139854e-01 2.231666e-01 -3.464893e-02 -1.816547e-01 -1.425499e-01 -3.180600e-02 -1.046427e-01
<VARIANCE> 39
 1.535953e+01 3.541922e+01 5.107589e+01 1.050353e+02 7.515127e+01 9.899892e+01 8.217877e+01 5.351072e+01 5.838907e+01 6.057866e+01 5.386759e+01 5.081937e+01 2.147481e+01 4.785121e-01 1.524941e+00 3.099542e+00 4.555364e+00 4.232631e+00 6.317905e+00 6.273413e+00 4.790885e+00 5.719593e+00 5.984089e+00 5.091218e+00 3.859325e+00 5.358391e-01 8.340512e-02 2.385049e-01 4.042633e-01 7.914243e-01 8.525826e-01 1.244951e+00 1.237566e+00 9.187944e-01 1.221995e+00 1.148452e+00 1.028578e+00 8.648118e-01 5.302621e-02
<GCONST> 1.303447e+02
<STATE> 3
<MEAN> 39
 -2.857330e+00 -2.775383e-01 3.424758e+00 1.390232e+00 -1.072961e+01 -1.805034e+01 -7.292799e+00 -1.001102e+01 -5.903221e+00 -7.137774e+00 -6.528136e-01 -2.112629e+00 7.057001e+01 -4.192909e-01 4.843223e-01 3.426757e-01 7.110393e-02 2.443283e-01 8.113790e-01 7.910408e-01 3.297802e-01 -4.893013e-01 -1.328308e-01 7.026665e-02 1.428371e-01 -6.695576e-01 6.282054e-02 8.223812e-02 -3.364118e-01 -3.595654e-01 1.257112e-01 3.784074e-01 2.228664e-03 -1.196075e-01 8.062091e-02 2.367888e-01 1.943604e-02 -8.088283e-03 -6.807350e-02
<VARIANCE> 39
 1.368829e+01 2.850354e+01 6.304858e+01 4.998024e+01 9.917947e+01 7.930121e+01 4.908572e+01 5.478601e+01 7.211392e+01 5.008484e+01 4.344112e+01 4.752293e+01 2.385022e+01 4.137894e-01 1.040000e+00 3.453268e+00 3.130507e+00 4.056857e+00 5.198531e+00 3.694803e+00 3.264659e+00 3.300607e+00 4.066135e+00 2.854222e+00 2.242169e+00 2.977570e-01 5.331678e-02 1.818769e-01 2.656277e-01 3.657624e-01 6.598277e-01 7.303506e-01 7.344484e-01 6.151551e-01 6.818260e-01 7.710089e-01 5.446747e-01 4.743829e-01 3.313196e-02
<GCONST> 1.179852e+02
<STATE> 4
<MEAN> 39
 -4.817681e+00 2.173294e+00 3.385222e+00 4.768944e-02 -1.068253e+01 -1.195145e+01 -4.135008e+00 -8.273698e+00 -7.097273e+00 -6.056869e+00 -7.370466e-01 -2.860593e+00 6.413810e+01 -3.291301e-01 1.467749e-01 -3.014274e-01 -1.436857e-01 6.340593e-01 8.070300e-01 3.580885e-01 2.895286e-01 1.862604e-01 2.803537e-01 -1.577652e-01 1.080724e-01 -6.926850e-01 2.367712e-02 -6.111665e-02 -9.958361e-02 -3.633991e-02 2.716758e-02 -1.133295e-02 -5.080245e-02 6.005653e-02 9.139977e-02 4.210876e-02 1.236122e-02 -1.072467e-03 2.019878e-02
<VARIANCE> 39
 1.411764e+01 2.433206e+01 4.556828e+01 3.803711e+01 7.433221e+01 6.446883e+01 4.418593e+01 3.698861e+01 3.866958e+01 4.050127e+01 2.702113e+01 4.351876e+01 3.051569e+01 3.161898e-01 9.141139e-01 1.404418e+00 1.349417e+00 1.982225e+00 1.794730e+00 2.041548e+00 2.182169e+00 2.014274e+00 1.709312e+00 1.534111e+00 1.768905e+00 2.825302e-01 5.209715e-02 1.276962e-01 1.792947e-01 1.880494e-01 3.128661e-01 3.399301e-01 3.639612e-01 4.030328e-01 3.475706e-01 3.254371e-01 2.831106e-01 3.229608e-01 2.756922e-02
<GCONST> 1.010987e+02
<TRANSP> 5
 0.000000e+00 1.000000e+00 0.000000e+00 0.000000e+00 0.000000e+00
 0.000000e+00 8.898518e-01 1.101482e-01 0.000000e+00 0.000000e+00
 0.000000e+00 0.000000e+00 7.342950e-01 2.657050e-01 0.000000e+00
 0.000000e+00 0.000000e+00 0.000000e+00 9.102348e-01 8.976523e-02
 0.000000e+00 0.000000e+00 0.000000e+00 0.000000e+00 0.000000e+00
<ENDHMM>
~h "oo"
<BEGINHMM>
<NUMSTATES> 5
<STATE> 2
<MEAN> 39
 3.558872e+00 1.070717e+01 -1.669753e+00 -1.427388e+01 -2.064528e+01 -1.306493e+01 -4.091529e+00 -6.545187e+00 -1.965171e+00 -9.157164e-01 -3.281697e+00 -4.942777e+00 6.675933e+01 3.340716e-01 -9.430182e-02 -8.621370e-02 -2.200121e-01 -7.051391e-01 -8.619175e-02 4.303130e-01 -8.299351e-03 -4.351354e-01 -3.643905e-02 8.155649e-02 -4.427506e-02 1.663924e-01 -2.824759e-01 -3.449102e-01 -3.087325e-01 1.530866e-01 5.315648e-01 2.925402e-01 2.026027e-01 1.191796e-01 -5.557584e-02 -1.219727e-01 1.568142e-01 2.433244e-01 -5.285919e-02
<VARIANCE> 39
 6.977062e+00 2.443539e+01 4.015987e+01 3.018170e+01 4.332225e+01 3.447359e+01 4.820927e+01 4.294572e+01 3.484075e+01 5.404200e+01 3.396935e+01 2.420774e+01 1.339079e+01 6.533421e-01 1.181866e+00 1.107363e+00 1.253156e+00 3.089396e+00 1.833823e+00 2.745872e+00 2.152573e+00 2.167212e+00 1.883379e+00 1.846302e+00 1.641440e+00 3.656380e-01 1.508647e-01 2.660992e-01 2.253595e-01 2.955276e-01 4.980803e-01 3.495679e-01 4.631761e-01 4.194427e-01 4.022123e-01 3.833144e-01 4.031785e-01 3.401037e-01 4.931962e-02
<GCONST> 1.046201e+02
<STATE> 3
<MEAN> 39
 3.837900e+00 8.061969e+00 -4.824000e+00 -1.353065e+01 -1.948715e+01 -1.093197e+01 2.268808e-01 -5.659399e+00 -6.018332e+00 -4.563233e+00 -2.335884e+00 -3.751496e+00 6.763178e+01 5.258293e-02 -1.021321e+00 -1.029635e+00 8.625640e-01 1.633731e+00 4.765175e-01 1.577148e-01 -3.937435e-01 -1.200383e+00 -4.216102e-01 7.642099e-01 9.758278e-01 1.546169e-01 -1.249032e-01 -1.382281e-01 -4.859971e-02 4.511057e-01 7.693992e-01 6.670459e-02 -5.623801e-01 -2.732660e-01 2.076884e-01 2.606446e-01 1.798537e-01 5.479255e-02 -9.993502e-02
<VARIANCE> 39
 8.120919e+00 3.055365e+01 3.689782e+01 4.068830e+01 5.511522e+01 4.464342e+01 6.157306e+01 4.905725e+01 5.204787e+01 5.067036e+01 3.819422e+01 3.374406e+01 1.672545e+01 3.529597e-01 1.106823e+00 1.382059e+00 1.945721e+00 4.538565e+00 2.844779e+00 4.072212e+00 3.492855e+00 3.369511e+00 3.970576e+00 3.015351e+00 2.874185e+00 3.630468e-01 7.512875e-02 1.668889e-01 2.398965e-01 3.324737e-01 6.810052e-01 6.021276e-01 8.780838e-01 6.705918e-01 6.480907e-01 6.482200e-01 5.838923e-01 6.069638e-01 5.549991e-02
<GCONST> 1.140600e+02
<STATE> 4
<MEAN> 39
 2.577414e+00 6.709110e+00 -5.960112e+00 -1.000152e+01 -1.299137e+01 -9.559417e+00 -3.816079e+00 -7.179590e+00 -5.678587e+00 -2.421043e+00 5.065882e-01 -9.818103e-01 6.596532e+01 -3.796097e-01 -8.253078e-01 -3.917449e-01 1.489499e+00 2.154678e+00 1.611912e-01 -1.013914e+00 -6.193576e-01 4.908735e-02 5.705180e-01 6.541703e-01 2.044768e-01 -1.896054e-01 -1.091532e-01 3.369930e-02 2.446160e-01 1.575836e-01 -1.129506e-01 -1.866841e-01 -1.388210e-01 3.546597e-02 3.306502e-01 1.527165e-01 -1.545018e-01 -2.604502e-01 -3.570721e-02
<VARIANCE> 39
 1.477412e+01 3.523019e+01 3.941183e+01 4.200970e+01 8.791127e+01 4.645146e+01 5.285141e+01 5.088512e+01 5.174929e+01 5.848961e+01 3.046644e+01 3.304995e+01 2.627257e+01 5.337243e-01 9.370383e-01 1.384776e+00 2.212037e+00 5.041705e+00 3.507796e+00 3.816942e+00 3.221526e+00 2.656826e+00 2.879192e+00 2.518238e+00 2.450853e+00 4.009257e-01 8.452445e-02 1.447775e-01 2.526004e-01 2.916327e-01 8.753965e-01 6.762198e-01 6.228096e-01 4.952803e-01 5.749021e-01 5.520143e-01 4.913215e-01 5.262047e-01 7.106999e-02
<GCONST> 1.146469e+02
<TRANSP> 5
 0.000000e+00 1.000000e+00 0.000000e+00 0.000000e+00 0.000000e+00
 0.000000e+00 7.805346e-01 2.194654e-01 0.000000e+00 0.000000e+00
 0.000000e+00 0.000000e+00 6.142749e-01 3.857251e-01 0.000000e+00
 0.000000e+00 0.000000e+00 0.000000e+00 7.088447e-01 2.911552e-01
 0.000000e+00 0.000000e+00 0.000000e+00 0.000000e+00 0.000000e+00
<ENDHMM>
~h "ou"
<BEGINHMM>
<NUMSTATES> 5
<STATE> 2
<MEAN> 39
 3.411986e+00 4.962238e+00 -6.633425e+00 -1.509886e+01 -1.665726e+01 -7.976310e+00 -1.077988e+00 -8.457339e+00 -7.488678e+00 -4.383495e+00 9.805602e-02 1.665816e-01 7.006161e+01 2.020113e-02 2.763595e-01 1.273218e-01 4.566661e-01 3.165998e-02 -1.930264e-01 -4.015409e-01 -3.008955e-01 -3.402336e-01 -3.452374e-01 8.189738e-02 3.206012e-02 -2.571114e-01 -7.269485e-02 3.116873e-02 5.624986e-02 1.772808e-01 1.846336e-01 4.223733e-02 -1.032034e-02 7.456057e-02 5.449424e-02 -3.859035e-02 -7.374226e-02 -5.364995e-02 -1.194952e-01
<VARIANCE> 39
 6.190516e+00 4.294437e+01 3.568219e+01 5.431247e+01 5.576674e+01 5.747320e+01 9.769194e+01 4.910301e+01 5.252830e+01 4.452636e+01 4.771371e+01 4.073397e+01 1.747407e+01 2.284347e-01 8.163496e-01 7.701594e-01 1.295892e+00 1.476547e+00 1.571122e+00 1.606964e+00 1.678856e+00 1.620748e+00 1.682037e+00 1.565167e+00 1.391969e+00 4.041618e-01 5.718815e-02 1.150834e-01 1.218785e-01 1.945674e-01 2.528200e-01 2.684979e-01 2.994378e-01 2.964492e-01 2.819422e-01 2.940561e-01 2.677417e-01 2.407916e-01 4.486745e-02
<GCONST> 9.838389e+01
<STATE> 3
<MEAN> 39
 2.728266e+00 8.733152e+00 -3.964541e+00 -1.184056e+01 -1.509187e+01 -8.483043e+00 -2.707493e+00 -9.098713e+00 -8.652176e+00 -5.831134e+00 -9.283212e-01 -1.043506e+00 6.739201e+01 -1.663854e-01 3.025186e-01 3.008549e-01 7.078059e-01 3.894978e-01 -8.984987e-02 -3.531942e-01 7.768930e-02 -1.103620e-01 -3.461292e-01 -2.068079e-01 -1.293220e-01 -4.989847e-01 -4.472605e-02 -2.628358e-02 9.052367e-03 2.127111e-02 5.543654e-02 4.348429e-02 1.444858e-02 3.941223e-02 4.554735e-02 2.037795e-02 -2.779838e-02 -6.296820e-03 -4.231709e-02
<VARIANCE> 39
 7.761462e+00 4.412212e+01 3.424667e+01 4.873545e+01 5.373859e+01 4.524763e+01 9.167403e+01 5.809689e+01 5.033031e+01 4.536068e+01 5.564701e+01 4.475694e+01 1.724172e+01 1.966821e-01 5.026292e-01 6.498740e-01 1.041198e+00 1.148817e+00 1.291746e+00 1.515724e+00 1.570525e+00 1.256467e+00 1.432028e+00 1.449175e+00 1.351375e+00 3.233376e-01 3.110401e-02 6.911990e-02 9.867285e-02 1.444064e-01 1.701835e-01 1.939913e-01 2.349284e-01 2.413389e-01 2.112174e-01 2.435516e-01 2.314066e-01 2.107293e-01 2.347589e-02
<GCONST> 9.198457e+01
<STATE> 4
<MEAN> 39
 -1.741003e+00 7.202199e+00 -2.383140e+00 -3.338042e+00 -7.307757e+00 -5.857867e+00 -5.095296e+00 -6.071963e+00 -6.044439e+00 -6.080520e+00 -2.674052e+00 -1.873644e+00 6.128004e+01 -4.475155e-01 -1.816927e-01 6.142358e-02 3.509043e-01 5.387824e-01 3.189892e-01 9.853995e-02 2.672371e-01 2.598947e-01 1.658480e-01 -5.681516e-02 2.215500e-02 -5.023515e-01 -2.264716e-02 -5.262350e-02 -3.460424e-02 -5.053461e-02 1.945756e-04 2.669640e-02 4.752672e-02 9.870548e-03 2.807536e-02 5.242101e-02 3.085508e-02 2.519570e-02 2.297699e-02
<VARIANCE> 39
 1.725347e+01 4.553123e+01 2.424815e+01 3.184852e+01 4.064613e+01 3.586644e+01 4.921328e+01 4.002891e+01 3.495169e+01 3.617389e+01 3.061524e+01 2.828263e+01 2.787427e+01 2.797505e-01 5.759968e-01 5.983134e-01 1.005144e+00 1.156035e+00 1.181793e+00 1.469774e+00 1.486222e+00 1.333828e+00 1.423229e+00 1.397391e+00 1.192897e+00 2.405976e-01 3.418289e-02 7.629279e-02 9.932195e-02 1.568264e-01 1.845173e-01 2.028812e-01 2.301865e-01 2.567779e-01 2.321853e-01 2.596301e-01 2.387462e-01 2.144628e-01 2.654104e-02
<GCONST> 8.994938e+01
<TRANSP> 5
 0.000000e+00 1.000000e+00 0.000000e+00 0.000000e+00 0.000000e+00
 0.000000e+00 8.168942e-01 1.831057e-01 0.000000e+00 0.000000e+00
 0.000000e+00 0.000000e+00 8.489428e-01 1.510572e-01 0.000000e+00
 0.000000e+00 0.000000e+00 0.000000e+00 9.300156e-01 6.998442e-02
 0.000000e+00 0.000000e+00 0.000000e+00 0.000000e+00 0.000000e+00
<ENDHMM>
~h "uu"
<BEGINHMM>
<NUMSTATES> 5
<STATE> 2
<MEAN> 39
 -2.885476e+00 2.000258e+00 -1.872439e+00 -2.351853e-01 -7.692552e+00 -1.172956e+01 -8.979000e+00 -1.026716e+01 -4.560915e+00 -6.098967e+00 -3.589874e+00 -2.358201e+00 6.705119e+01 2.023524e+00 1.421855e+00 3.040187e-01 -5.358093e-01 -1.518997e+00 -8.652074e-01 -6.522462e-01 -1.146595e+00 -1.308951e+00 -8.763575e-01 -1.734138e-01 -7.508284e-02 2.339657e-01 -5.120932e-01 -2.112798e-01 -1.906287e-01 -3.075216e-01 -8.470572e-02 1.846023e-01 3.577067e-01 4.440121e-01 2.609569e-01 2.525827e-01 2.398140e-01 1.427058e-01 -3.285250e-02
<VARIANCE> 39
