~o
<STREAMINFO> 1 39
<VECSIZE> 39<NULLD><MFCC_D_A_0><DIAGC>
~h "N"
<BEGINHMM>
<NUMSTATES> 5
<STATE> 2
<MEAN> 39
 1.133340e+00 1.897756e+00 -3.258522e+00 -4.274634e+00 -7.440099e+00 -8.763936e+00 -4.830673e+00 -5.869256e+00 -4.219079e+00 -2.931097e+00 -2.696159e+00 -3.784952e+00 6.699635e+01 1.877123e-01 1.285360e+00 4.708277e-01 4.767036e-01 1.868501e-01 1.842757e-01 9.217862e-02 -2.354904e-02 -1.111985e+00 -4.887687e-01 -1.619149e-01 2.257563e-01 -9.614433e-01 -5.728615e-02 -2.996628e-01 -1.278831e-01 -1.446577e-01 -1.770360e-01 -1.426871e-01 1.896189e-01 8.494361e-02 1.549634e-01 1.445403e-01 8.370709e-02 -9.410419e-02 2.829505e-01
<VARIANCE> 39
 8.320971e+00 3.891450e+01 2.566558e+01 4.057938e+01 4.334902e+01 5.373550e+01 4.921614e+01 4.995277e+01 4.566251e+01 5.381477e+01 4.792204e+01 4.234192e+01 2.306115e+01 3.080404e-01 8.258348e-01 1.121057e+00 1.583986e+00 1.938072e+00 2.702713e+00 2.316728e+00 2.541861e+00 3.207491e+00 2.512505e+00 1.972444e+00 2.017548e+00 3.545513e-01 5.920448e-02 1.138511e-01 1.797041e-01 2.657440e-01 3.202173e-01 3.967097e-01 3.642969e-01 4.036965e-01 4.759711e-01 4.078098e-01 3.492056e-01 2.769914e-01 6.017238e-02
<GCONST> 1.047849e+02
<STATE> 3
<MEAN> 39
 1.077160e+00 5.543566e+00 -2.075261e+00 -3.261580e+00 -7.865683e+00 -8.852671e+00 -3.113069e+00 -4.978568e+00 -6.682563e+00 -4.318713e+00 -1.755996e+00 -3.121644e+00 6.459364e+01 -1.299803e-01 2.157944e-02 -6.773923e-02 -3.449091e-01 -4.162531e-02 1.525834e-01 2.375933e-01 2.663730e-02 1.705802e-01 1.148847e-01 -4.585265e-02 -1.445634e-01 5.768661e-02 -8.639081e-02 -4.459342e-01 -2.050381e-01 -2.504184e-01 -1.765415e-02 1.114140e-01 3.412058e-02 -1.040297e-01 4.566265e-01 1.972073e-01 7.189002e-03 -9.774949e-02 3.256472e-01
<VARIANCE> 39
 7.974901e+00 3.159040e+01 2.044023e+01 3.492920e+01 3.853527e+01 4.351091e+01 4.309798e+01 3.960517e+01 4.059937e+01 3.989217e+01 3.929417e+01 3.790746e+01 2.040112e+01 2.671685e-01 8.131337e-01 1.019149e+00 1.540370e+00 1.581776e+00 2.030981e+00 1.731036e+00 2.150741e+00 2.470976e+00 2.087610e+00 1.897443e+00 1.380397e+00 3.565734e-01 5.561113e-02 1.352212e-01 2.107931e-01 3.029685e-01 3.695991e-01 4.608647e-01 3.906490e-01 4.766339e-01 4.972268e-01 4.255109e-01 3.753109e-01 3.533979e-01 5.769898e-02
<GCONST> 1.018161e+02
<STATE> 4
<MEAN> 39
 4.363161e-01 -3.793792e-01 -6.480617e+00 -6.873246e+00 -7.806707e+00 -4.752173e+00 -1.379039e+00 -5.352602e+00 -1.306282e+00 -2.554264e+00 -3.565451e+00 -5.693354e+00 6.814595e+01 -8.204180e-02 -7.468792e-01 -6.731542e-01 -4.397432e-01 1.197883e-01 5.345970e-01 3.659929e-01 -2.055786e-02 6.248821e-01 4.499714e-01 -9.152341e-02 -4.017696e-01 3.928528e-01 -1.126211e-03 8.334909e-03 1.953801e-03 5.071701e-02 -6.898696e-03 -3.165899e-02 3.511596e-02 3.547159e-02 -9.697580e-02 2.655744e-02 7.512010e-02 5.200063e-04 -3.789001e-02
<VARIANCE> 39
 8.092118e+00 4.772079e+01 3.600890e+01 5.229455e+01 5.384928e+01 8.026587e+01 6.527361e+01 6.624535e+01 6.796392e+01 6.007764e+01 7.742819e+01 4.242344e+01 2.253845e+01 2.625811e-01 1.231739e+00 1.344665e+00 1.623119e+00 1.878985e+00 2.284602e+00 2.217223e+00 2.413837e+00 3.015053e+00 2.057514e+00 2.271474e+00 1.896714e+00 4.995701e-01 4.109745e-02 1.756514e-01 1.810788e-01 2.203045e-01 2.965621e-01 3.489110e-01 3.882582e-01 3.730099e-01 4.260136e-01 3.371196e-01 3.230835e-01 3.066584e-01 5.738733e-02
<GCONST> 1.073586e+02
<TRANSP> 5
 0.000000e+00 1.000000e+00 0.000000e+00 0.000000e+00 0.000000e+00
 0.000000e+00 5.678389e-01 4.321612e-01 0.000000e+00 0.000000e+00
 0.000000e+00 0.000000e+00 6.450678e-01 3.549323e-01 0.000000e+00
 0.000000e+00 0.000000e+00 0.000000e+00 7.428049e-01 2.571951e-01
 0.000000e+00 0.000000e+00 0.000000e+00 0.000000e+00 0.000000e+00
<ENDHMM>
~h "a"
<BEGINHMM>
<NUMSTATES> 5
<STATE> 2
<MEAN> 39
 5.967845e-01 -3.825070e+00 -9.147838e+00 -9.822260e+00 -9.908161e+00 -7.194414e+00 -1.405794e+00 -5.724888e+00 -1.057646e+00 -2.658966e-02 -1.033681e-02 -3.958988e+00 7.161926e+01 1.151791e-01 -4.364323e-01 -4.286273e-01 -6.876794e-02 1.320638e-01 2.898904e-01 1.014471e-02 1.877520e-01 4.927955e-01 5.803607e-01 4.690552e-02 -2.782565e-01 5.282771e-02 -1.769885e-01 3.160827e-01 3.252245e-01 3.216408e-01 1.614323e-01 -2.952833e-02 -1.316402e-01 2.809786e-02 -1.741473e-01 -2.268439e-01 -6.605052e-02 1.245895e-01 -3.760997e-01
<VARIANCE> 39
 1.627757e+01 5.020208e+01 4.270675e+01 5.311108e+01 6.249248e+01 8.324986e+01 6.827061e+01 6.540955e+01 5.283882e+01 5.289076e+01 5.879326e+01 5.778411e+01 3.363465e+01 1.040462e+00 1.758444e+00 2.058386e+00 2.837207e+00 3.010259e+00 3.668766e+00 3.778087e+00 3.148499e+00 3.461157e+00 3.381287e+00 2.908120e+00 2.898735e+00 1.079591e+00 2.422782e-01 2.935304e-01 3.271261e-01 3.834058e-01 5.753534e-01 5.912263e-01 6.162899e-01 6.158084e-01 6.051916e-01 6.299111e-01 5.775905e-01 5.573335e-01 1.810885e-01
<GCONST> 1.239944e+02
<STATE> 3
<MEAN> 39
 8.884934e-01 -4.095415e+00 -9.633789e+00 -9.881452e+00 -9.755398e+00 -6.411087e+00 -1.538954e+00 -5.598599e+00 -5.531880e-01 5.788441e-01 -2.265646e-01 -4.499672e+00 7.135127e+01 -5.239378e-02 4.012965e-01 3.459263e-01 5.856388e-01 3.092300e-01 -9.249881e-03 -3.892003e-01 1.235126e-01 1.450574e-02 6.751573e-02 -5.757002e-02 8.905072e-02 -7.122520e-01 -1.586705e-01 3.301333e-01 3.216505e-01 2.917087e-01 1.285204e-01 -4.270881e-02 -1.095433e-01 -1.485077e-02 -2.232658e-01 -2.434739e-01 -3.563719e-02 1.609493e-01 -3.539025e-01
<VARIANCE> 39
 1.543032e+01 5.148399e+01 3.904332e+01 5.192386e+01 5.961391e+01 7.274284e+01 6.879757e+01 6.242732e+01 5.434869e+01 5.326057e+01 5.751112e+01 5.991141e+01 3.504847e+01 8.012465e-01 1.647966e+00 1.780706e+00 2.417297e+00 2.516899e+00 3.194071e+00 3.337120e+00 2.743192e+00 2.815710e+00 2.692794e+00 2.480105e+00 2.321112e+00 1.027125e+00 1.574753e-01 2.621073e-01 2.773277e-01 3.360013e-01 4.851161e-01 5.321870e-01 5.504353e-01 5.284609e-01 5.778472e-01 5.594581e-01 4.931276e-01 4.733456e-01 1.660890e-01
<GCONST> 1.196915e+02
<STATE> 4
<MEAN> 39
 -1.219407e-01 -1.814137e+00 -8.441132e+00 -7.901977e+00 -8.155398e+00 -5.542802e+00 -2.939392e+00 -4.789978e+00 -9.451898e-01 5.589839e-01 -5.043162e-01 -4.222086e+00 6.718297e+01 -4.629822e-01 5.889207e-01 5.402940e-01 7.690758e-01 3.963997e-01 4.385407e-02 -2.334986e-01 2.359041e-01 -1.660579e-01 -1.446716e-01 4.344866e-03 3.372654e-01 -1.115160e+00 -1.041500e-01 -2.831990e-02 3.716258e-02 -3.381147e-02 -2.780350e-02 -1.791775e-02 7.691787e-02 -4.437671e-03 -3.445925e-02 -9.473522e-02 -9.380268e-03 4.980190e-02 4.110769e-02
<VARIANCE> 39
 1.821454e+01 4.273374e+01 3.623155e+01 4.585020e+01 5.027195e+01 6.003552e+01 5.763154e+01 5.112330e+01 4.536316e+01 4.718840e+01 5.515496e+01 5.132027e+01 4.164776e+01 7.623171e-01 1.368050e+00 1.568725e+00 1.939639e+00 2.223767e+00 2.395532e+00 2.581783e+00 2.455661e+00 2.383223e+00 2.314176e+00 2.146266e+00 1.932458e+00 1.094582e+00 1.136871e-01 2.276874e-01 2.579224e-01 3.294854e-01 4.041951e-01 4.166593e-01 4.667759e-01 4.330790e-01 4.498764e-01 4.149263e-01 3.901286e-01 3.646038e-01 1.979917e-01
<GCONST> 1.142439e+02
<TRANSP> 5
 0.000000e+00 1.000000e+00 0.000000e+00 0.000000e+00 0.000000e+00
 0.000000e+00 2.923301e-01 7.076699e-01 0.000000e+00 0.000000e+00
 0.000000e+00 0.000000e+00 2.960700e-01 7.039300e-01 0.000000e+00
 0.000000e+00 0.000000e+00 0.000000e+00 5.796537e-01 4.203464e-01
 0.000000e+00 0.000000e+00 0.000000e+00 0.000000e+00 0.000000e+00
<ENDHMM>
~h "e"
<BEGINHMM>
<NUMSTATES> 5
<STATE> 2
<MEAN> 39
 -2.425236e+00 -8.899356e-01 -6.851254e-01 1.479426e+00 -1.132351e+01 -1.443012e+01 -7.318919e+00 -5.025885e+00 -1.829898e+00 -3.102781e+00 -9.612028e-02 -6.898088e-01 6.691889e+01 -2.943758e-01 3.153056e-03 4.144113e-01 3.262429e-01 2.992911e-02 -2.127938e-01 -5.555614e-02 2.817945e-01 9.108310e-02 -1.570864e-01 7.153037e-02 3.977227e-01 -3.324075e-01 -2.674487e-02 7.947724e-03 -2.715377e-01 -1.880023e-01 2.255519e-01 2.083694e-01 1.095212e-01 -8.888681e-02 -8.183593e-02 1.567199e-01 3.289145e-02 -1.166176e-01 -5.895298e-02
<VARIANCE> 39
 2.300216e+01 3.315318e+01 4.012153e+01 4.060251e+01 7.935355e+01 6.644261e+01 4.363228e+01 4.767903e+01 4.546369e+01 3.816237e+01 3.268734e+01 3.281264e+01 3.697989e+01 1.132672e+00 1.856657e+00 1.886978e+00 1.725090e+00 4.411658e+00 4.481303e+00 2.717731e+00 2.499074e+00 2.771252e+00 3.007590e+00 2.310280e+00 2.261972e+00 2.933337e+00 2.283086e-01 3.634745e-01 2.954925e-01 3.901560e-01 7.416050e-01 7.132081e-01 5.325424e-01 4.694510e-01 5.651746e-01 4.306982e-01 4.115278e-01 4.278258e-01 3.423174e-01
<GCONST> 1.207464e+02
<STATE> 3
<MEAN> 39
 -2.341202e+00 -1.286395e+00 -1.007504e+00 1.633052e+00 -1.081752e+01 -1.460796e+01 -7.472261e+00 -4.986797e+00 -1.492146e+00 -2.822424e+00 -1.957542e-01 -2.809951e-01 6.717888e+01 -1.385031e-01 2.670079e-01 -8.856980e-02 -5.283259e-02 4.865564e-01 4.138050e-01 1.805699e-01 -5.472750e-02 -3.443720e-01 1.723036e-02 9.786871e-02 -1.511960e-02 -4.736330e-01 7.723085e-02 7.888947e-02 -2.668711e-01 -1.878722e-01 1.942537e-01 3.069893e-01 1.035933e-01 -1.391371e-01 -1.353240e-01 7.268380e-02 1.785127e-02 -1.841424e-01 -2.820979e-02
<VARIANCE> 39
 2.541725e+01 3.316757e+01 4.250776e+01 4.189791e+01 8.400570e+01 7.049342e+01 4.674463e+01 4.924138e+01 4.590873e+01 3.704457e+01 3.487564e+01 3.601829e+01 4.353720e+01 8.621258e-01 1.384134e+00 1.753474e+00 1.625352e+00 3.120984e+00 3.061149e+00 2.282001e+00 2.249522e+00 2.621057e+00 2.376239e+00 2.070585e+00 1.763571e+00 1.353846e+00 1.888303e-01 3.566034e-01 3.650702e-01 3.523693e-01 6.687589e-01 6.068313e-01 4.786355e-01 4.540125e-01 5.594075e-01 4.583623e-01 3.685852e-01 4.076321e-01 4.318619e-01
<GCONST> 1.179460e+02
<STATE> 4
<MEAN> 39
 -2.528113e+00 -4.371520e-01 1.493637e-01 8.108599e-01 -1.228484e+01 -1.418414e+01 -6.689969e+00 -5.413662e+00 -3.670162e+00 -3.368888e+00 1.145124e+00 -7.009099e-01 6.630422e+01 -8.860841e-02 3.128874e-01 -3.413063e-01 -1.536171e-01 7.128136e-01 7.190136e-01 2.189537e-01 -1.171874e-01 -2.101383e-01 7.990357e-02 -7.144123e-02 -1.378615e-01 -5.102647e-01 3.390080e-02 -2.603138e-02 -1.358739e-01 -9.766207e-02 5.330274e-02 8.324863e-02 1.384927e-02 -8.704372e-03 6.565575e-02 3.904810e-03 -5.488198e-02 -4.068005e-02 7.663365e-02
<VARIANCE> 39
 2.096299e+01 2.790674e+01 4.368843e+01 3.794810e+01 1.022990e+02 6.236727e+01 4.144489e+01 4.080334e+01 3.720916e+01 3.855004e+01 3.977746e+01 3.369932e+01 4.004378e+01 7.063391e-01 1.145737e+00 1.427012e+00 1.376199e+00 2.356275e+00 2.076605e+00 1.877752e+00 1.853420e+00 2.242418e+00 2.024840e+00 1.897308e+00 1.648211e+00 9.592291e-01 1.432832e-01 2.004461e-01 2.562546e-01 2.509095e-01 4.559537e-01 3.658291e-01 3.456214e-01 3.433427e-01 3.862927e-01 3.572911e-01 3.399442e-01 3.060070e-01 2.518225e-01
<GCONST> 1.098859e+02
<TRANSP> 5
 0.000000e+00 1.000000e+00 0.000000e+00 0.000000e+00 0.000000e+00
 0.000000e+00 3.725952e-01 6.274049e-01 0.000000e+00 0.000000e+00
 0.000000e+00 0.000000e+00 2.717403e-01 7.282597e-01 0.000000e+00
 0.000000e+00 0.000000e+00 0.000000e+00 6.497186e-01 3.502814e-01
 0.000000e+00 0.000000e+00 0.000000e+00 0.000000e+00 0.000000e+00
<ENDHMM>
~h "f"
<BEGINHMM>
<NUMSTATES> 5
<STATE> 2
<MEAN> 39
 -1.726593e+01 -2.457391e+00 -9.891795e+00 -1.439404e+00 -3.758071e+00 -3.735442e+00 -2.986959e-01 -1.731112e+00 2.004835e+00 -9.960492e-01 1.026053e+00 -4.597996e-01 6.582250e+01 1.861646e+00 -1.072803e-01 -5.688512e-02 -1.139369e+00 -4.698338e-01 9.827855e-02 4.420867e-01 8.942479e-02 -5.013197e-01 -2.496005e-01 -3.631835e-01 -2.407879e-01 2.002882e-01 1.002732e+00 2.094027e-01 5.660722e-03 -4.594794e-01 -4.580392e-01 -3.542318e-02 5.555226e-02 -1.219836e-01 -3.846532e-01 -7.443377e-02 -5.670141e-02 -9.582318e-02 1.531451e-01
<VARIANCE> 39
 2.484878e+01 2.486001e+01 3.098500e+01 2.996437e+01 3.411079e+01 3.188624e+01 3.062728e+01 2.519949e+01 2.567163e+01 2.150542e+01 1.956102e+01 1.888948e+01 2.147519e+01 5.543664e+00 1.869276e+00 1.800907e+00 2.795257e+00 2.502523e+00 2.336818e+00 2.131845e+00 2.176016e+00 2.284147e+00 2.215061e+00 1.794680e+00 1.646264e+00 1.055527e+00 3.941768e-01 3.224478e-01 3.406366e-01 3.972942e-01 4.522838e-01 4.427938e-01 4.603689e-01 4.844980e-01 3.902468e-01 4.514208e-01 3.563567e-01 3.434127e-01 2.249482e-01
<GCONST> 1.113835e+02
<STATE> 3
<MEAN> 39
 -3.201661e+00 1.046188e+00 -9.190036e+00 -9.150745e+00 -9.074296e+00 -3.695926e+00 1.635355e+00 -2.320343e+00 -3.490902e+00 -3.042910e+00 -1.482927e+00 -1.803966e+00 6.652490e+01 4.489758e+00 7.020205e-03 -7.665058e-01 -2.777481e+00 -2.388800e+00 -2.304323e-01 8.252613e-01 -4.436388e-01 -1.854087e+00 -2.609668e-01 -6.413762e-02 -3.506873e-01 1.525633e+00 -7.038269e-01 -6.887862e-01 -2.230462e-01 3.107897e-01 1.967375e-01 7.463340e-02 -5.765655e-02 -5.008968e-02 2.567338e-01 3.184620e-01 2.738139e-01 -3.893438e-02 3.080559e-01
<VARIANCE> 39
 3.774749e+01 2.186762e+01 3.470163e+01 5.202719e+01 4.277647e+01 4.466349e+01 3.755476e+01 3.207707e+01 2.281280e+01 2.674768e+01 2.565359e+01 3.101367e+01 2.458736e+01 2.776149e+00 3.079656e+00 3.812925e+00 3.665092e+00 3.688855e+00 3.962641e+00 4.082920e+00 4.884112e+00 2.695094e+00 3.314216e+00 2.668700e+00 3.041896e+00 1.195433e+00 5.857193e-01 3.763331e-01 3.048990e-01 5.329112e-01 5.804101e-01 5.061786e-01 4.351814e-01 3.653049e-01 4.136141e-01 4.139884e-01 3.381859e-01 3.465966e-01 2.190635e-01
<GCONST> 1.199361e+02
<STATE> 4
<MEAN> 39
 1.810144e+00 -4.498618e+00 -1.298760e+01 -1.379954e+01 -1.197709e+01 -3.075020e+00 3.738136e+00 -3.348310e+00 -5.227339e+00 -1.885128e+00 -3.071244e-01 -2.998173e+00 7.215863e+01 1.158449e+00 -1.732791e+00 -5.384889e-01 -6.804889e-01 -3.308666e-01 4.528187e-01 3.724303e-01 -3.448774e-01 -2.537425e-01 5.320849e-01 1.608628e-01 -6.097759e-01 1.253534e+00 -1.143226e+00 -3.652615e-02 3.440804e-01 9.055556e-01 7.857757e-01 1.077377e-01 -3.491534e-01 3.384723e-02 5.479803e-01 2.008237e-01 -9.115706e-02 -2.902571e-03 -4.724268e-01
<VARIANCE> 39
 2.089614e+01 3.705126e+01 4.937672e+01 5.098728e+01 3.931139e+01 6.210769e+01 4.826615e+01 5.471089e+01 2.894649e+01 4.032986e+01 3.336674e+01 4.788299e+01 2.983343e+01 2.743574e+00 2.330451e+00 2.372699e+00 2.403336e+00 3.436085e+00 3.009331e+00 2.789138e+00 2.640917e+00 2.931530e+00 3.000734e+00 2.133157e+00 2.068269e+00 1.398053e+00 4.469490e-01 4.263410e-01 3.049620e-01 4.704960e-01 5.018581e-01 5.603985e-01 5.065467e-01 6.399883e-01 4.029472e-01 4.497453e-01 3.997005e-01 4.374544e-01 1.384012e-01
<GCONST> 1.201729e+02
<TRANSP> 5
 0.000000e+00 1.000000e+00 0.000000e+00 0.000000e+00 0.000000e+00
 0.000000e+00 7.496508e-01 2.503493e-01 0.000000e+00 0.000000e+00
 0.000000e+00 0.000000e+00 3.936621e-01 6.063380e-01 0.000000e+00
 0.000000e+00 0.000000e+00 0.000000e+00 4.975194e-01 5.024806e-01
 0.000000e+00 0.000000e+00 0.000000e+00 0.000000e+00 0.000000e+00
<ENDHMM>
~h "h"
<BEGINHMM>
<NUMSTATES> 5
<STATE> 2
<MEAN> 39
 -5.492891e+00 -2.406510e+00 -6.434330e+00 -9.090958e+00 -4.670644e+00 -2.535167e+00 4.040404e+00 -1.016043e+00 -2.094287e-01 -9.131711e-01 -2.286428e+00 -2.925804e+00 6.714133e+01 3.784667e-01 4.537098e-01 4.970491e-01 -7.280605e-02 -5.795959e-01 -6.818681e-01 -6.532053e-02 -1.593690e-01 -3.861597e-01 -3.897027e-01 -2.818169e-01 -2.614895e-01 4.923165e-01 2.683719e-01 1.918802e-01 4.707449e-02 -7.657071e-02 -3.583656e-01 -2.472486e-01 -1.912856e-01 -2.240658e-01 -2.263405e-01 -7.401666e-02 9.267319e-02 6.483153e-02 7.756372e-02
<VARIANCE> 39
 2.839693e+01 6.675920e+01 4.869865e+01 6.680651e+01 6.646464e+01 6.992353e+01 5.080116e+01 4.663430e+01 4.742634e+01 3.806700e+01 4.187125e+01 3.757932e+01 4.243908e+01 2.631270e+00 2.653373e+00 2.439861e+00 2.995797e+00 3.728390e+00 3.516872e+00 3.100540e+00 3.109472e+00 2.887362e+00 2.374331e+00 2.575779e+00 2.391455e+00 1.367272e+00 2.692195e-01 4.103067e-01 2.904648e-01 4.086755e-01 5.071841e-01 5.541266e-01 5.431021e-01 5.193214e-01 5.451171e-01 4.384076e-01 5.010841e-01 4.260953e-01 1.392604e-01
<GCONST> 1.231460e+02
<STATE> 3
<MEAN> 39
 -2.536750e+00 -3.637863e-01 -3.056784e+00 -6.493915e+00 -8.613127e+00 -8.056297e+00 1.970195e+00 -1.576751e+00 -1.951909e+00 -2.497540e+00 -3.414048e+00 -4.180697e+00 7.019032e+01 6.184894e-01 6.001301e-01 6.724311e-01 -2.352388e-01 -1.556832e+00 -1.040507e+00 -5.187164e-01 -7.808676e-01 -8.384063e-01 -3.474090e-01 5.489376e-01 3.392093e-01 3.793399e-01 -6.457530e-02 -1.337061e-01 -1.473082e-01 -1.108969e-01 -2.586850e-02 1.199166e-01 -7.331446e-02 -2.276706e-01 -1.774004e-02 1.122840e-01 2.142955e-01 9.189744e-02 -8.299649e-02
<VARIANCE> 39
 2.374995e+01 5.635589e+01 6.255227e+01 7.483056e+01 6.680065e+01 7.171535e+01 4.547457e+01 5.445572e+01 4.983851e+01 4.581588e+01 4.294182e+01 3.708783e+01 4.323095e+01 1.575871e+00 1.813594e+00 2.567096e+00 2.617765e+00 2.687510e+00 2.963487e+00 2.708401e+00 2.906471e+00 2.836389e+00 2.375423e+00 2.466465e+00 2.169673e+00 1.350388e+00 2.667119e-01 3.483576e-01 2.265544e-01 3.183441e-01 4.999726e-01 5.022459e-01 4.514271e-01 5.721288e-01 5.258619e-01 4.050412e-01 4.170236e-01 3.722918e-01 1.230581e-01
<GCONST> 1.202234e+02
<STATE> 4
<MEAN> 39
 -1.979039e+00 1.762975e+00 -6.823221e-01 -7.234848e+00 -1.228904e+01 -9.799877e+00 1.259256e+00 -4.963322e+00 -4.573702e+00 -2.795861e+00 -1.256384e+00 -3.474900e+00 7.015697e+01 2.841152e-01 2.732246e-01 3.126534e-01 -1.311719e-01 -8.354192e-01 -4.181020e-01 -4.453316e-01 -8.096545e-01 -6.145904e-01 -1.685922e-01 5.082405e-01 2.061062e-01 7.573289e-02 -5.643244e-02 -1.184142e-01 -1.105039e-01 8.892994e-02 1.774735e-01 7.993914e-02 -2.630524e-02 4.261810e-02 8.406182e-02 2.513405e-02 -1.519384e-02 -2.373174e-02 -5.106327e-02
<VARIANCE> 39
 2.457257e+01 4.785090e+01 7.049949e+01 8.790948e+01 6.780711e+01 7.155338e+01 5.153402e+01 6.104190e+01 4.457066e+01 4.377128e+01 3.983311e+01 3.464335e+01 3.219861e+01 5.430561e-01 1.414981e+00 1.565858e+00 1.485937e+00 2.119576e+00 1.983387e+00 1.936656e+00 2.320152e+00 2.098472e+00 1.807399e+00 1.902941e+00 1.493384e+00 5.553714e-01 1.208369e-01 1.769266e-01 1.713264e-01 2.573242e-01 3.605940e-01 3.261074e-01 3.439657e-01 3.403700e-01 3.118351e-01 3.207675e-01 3.627590e-01 2.788646e-01 8.163558e-02
<GCONST> 1.092554e+02
<TRANSP> 5
 0.000000e+00 1.000000e+00 0.000000e+00 0.000000e+00 0.000000e+00
 0.000000e+00 6.828914e-01 3.171086e-01 0.000000e+00 0.000000e+00
 0.000000e+00 0.000000e+00 3.325621e-01 6.674379e-01 0.000000e+00
 0.000000e+00 0.000000e+00 0.000000e+00 5.848684e-01 4.151315e-01
 0.000000e+00 0.000000e+00 0.000000e+00 0.000000e+00 0.000000e+00
<ENDHMM>
~h "i"
<BEGINHMM>
<NUMSTATES> 5
<STATE> 2
<MEAN> 39
 -4.040151e+00 1.325810e+00 5.321880e+00 2.690326e+00 -1.175960e+01 -1.532477e+01 -4.225859e+00 -7.160686e+00 -4.391164e+00 -7.560065e+00 -1.036419e+00 -2.205297e+00 6.888672e+01 -1.222383e-03 3.522687e-01 1.036991e+00 6.308456e-01 -9.170909e-01 -8.712191e-01 3.550638e-01 -5.138256e-03 -7.809899e-01 -8.534988e-01 4.017081e-01 3.393195e-01 2.532566e-02 -5.359188e-02 5.189510e-02 -3.838612e-01 -2.047205e-01 3.580454e-01 4.894316e-01 9.430612e-02 6.120637e-02 7.451249e-02 3.528368e-01 4.866412e-02 -5.741929e-02 -2.447876e-01
<VARIANCE> 39
 2.023840e+01 3.652070e+01 4.645406e+01 5.132836e+01 7.819971e+01 6.459558e+01 5.390617e+01 5.125261e+01 6.107809e+01 4.193253e+01 3.617863e+01 3.436494e+01 2.457420e+01 1.361505e+00 1.711974e+00 2.478996e+00 1.906841e+00 3.547463e+00 3.982882e+00 3.113304e+00 3.393666e+00 3.016093e+00 2.889403e+00 2.635005e+00 2.033001e+00 1.199599e+00 3.137622e-01 3.143150e-01 3.672080e-01 3.974311e-01 7.725378e-01 7.599765e-01 6.023249e-01 6.289864e-01 6.865705e-01 5.806239e-01 5.029384e-01 4.499967e-01 1.700133e-01
<GCONST> 1.221954e+02
<STATE> 3
<MEAN> 39
 -4.028930e+00 2.209459e+00 7.096235e+00 3.612158e+00 -1.322969e+01 -1.631788e+01 -2.887342e+00 -7.946198e+00 -6.493746e+00 -8.604133e+00 -2.057469e-01 -1.999264e+00 6.858294e+01 9.637038e-02 3.969456e-01 -1.868549e-01 1.094618e-01 3.237878e-01 3.246670e-01 -7.428358e-02 6.152123e-02 -1.722727e-01 1.012354e-01 1.500260e-01 4.754638e-02 -5.210606e-01 -2.144549e-02 -3.849773e-02 -4.453834e-01 -2.359449e-01 4.508286e-01 4.600069e-01 -1.364956e-01 1.111970e-01 2.608564e-01 3.137712e-01 -1.119189e-01 -4.861178e-02 -1.876434e-01
<VARIANCE> 39
 1.620570e+01 3.245699e+01 4.266697e+01 5.297915e+01 7.850141e+01 6.286779e+01 5.372847e+01 5.149873e+01 5.683998e+01 4.223030e+01 3.834877e+01 4.003122e+01 2.211192e+01 8.421804e-01 1.226977e+00 2.333242e+00 1.509261e+00 3.005354e+00 3.487004e+00 2.598599e+00 2.702513e+00 2.662956e+00 2.316331e+00 1.872442e+00 1.634397e+00 1.026470e+00 1.454312e-01 2.061807e-01 2.628007e-01 3.163287e-01 4.487230e-01 5.614203e-01 4.978337e-01 5.231421e-01 5.052545e-01 4.603641e-01 4.146259e-01 3.424951e-01 1.002775e-01
<GCONST> 1.144371e+02
<STATE> 4
<MEAN> 39
 -3.802437e+00 4.045668e+00 4.767266e+00 2.732011e+00 -1.091561e+01 -1.246038e+01 -4.218597e+00 -7.308868e+00 -6.784216e+00 -6.563963e+00 -7.772486e-02 -2.268338e+00 6.529907e+01 -3.859028e-02 1.293921e-01 -7.028489e-01 -3.836158e-01 6.976671e-01 8.069271e-01 -5.486308e-02 2.919428e-01 1.994028e-01 3.754420e-01 -6.035736e-02 8.262049e-02 -5.861832e-01 -4.583475e-02 -1.107633e-01 -9.646288e-02 -1.076849e-01 -5.684812e-03 3.446919e-02 3.951040e-02 1.976155e-02 8.029947e-02 3.561440e-02 -4.071940e-02 -8.035815e-03 6.689240e-02
<VARIANCE> 39
 2.077623e+01 2.917798e+01 3.810052e+01 4.100748e+01 7.600586e+01 5.145939e+01 4.529009e+01 4.508923e+01 4.290620e+01 3.282135e+01 3.090010e+01 2.938210e+01 2.623074e+01 7.115013e-01 1.072184e+00 1.603234e+00 1.495079e+00 2.309425e+00 2.860812e+00 2.095789e+00 2.308014e+00 2.412750e+00 2.050817e+00 1.684029e+00 1.500087e+00 7.669529e-01 9.309741e-02 1.607352e-01 2.433680e-01 2.408094e-01 3.804474e-01 4.574976e-01 3.827667e-01 4.125802e-01 3.795114e-01 3.492054e-01 3.136893e-01 2.883449e-01 1.207402e-01
<GCONST> 1.078171e+02
<TRANSP> 5
 0.000000e+00 1.000000e+00 0.000000e+00 0.000000e+00 0.000000e+00
 0.000000e+00 4.034711e-01 5.965289e-01 0.000000e+00 0.000000e+00
 0.000000e+00 0.000000e+00 4.644832e-01 5.355169e-01 0.000000e+00
 0.000000e+00 0.000000e+00 0.000000e+00 7.200736e-01 2.799263e-01
 0.000000e+00 0.000000e+00 0.000000e+00 0.000000e+00 0.000000e+00
<ENDHMM>
~h "k"
<BEGINHMM>
<NUMSTATES> 5
<STATE> 2
<MEAN> 39
 -1.092711e+01 -2.983761e+00 -6.000108e+00 -6.690668e+00 -4.023960e+00 -3.678461e+00 -2.287852e+00 -3.646329e+00 8.474445e-01 -1.214563e+00 1.840367e+00 -7.198181e-01 6.476663e+01 3.569563e-01 -8.417255e-02 3.480120e-01 -3.498807e-01 -2.591320e-01 -2.141291e-01 3.114946e-02 -4.847603e-01 -2.878702e-01 -1.352667e-01 -2.413894e-01 -5.477136e-01 1.013846e+00 5.501090e-01 3.249580e-01 3.020894e-01 1.460764e-01 -3.798001e-01 -3.549804e-01 -8.684806e-02 -1.064249e-01 -2.814758e-01 -9.397095e-02 -1.250625e-01 -1.205040e-01 5.405207e-02
<VARIANCE> 39
 3.006705e+01 4.640662e+01 6.941907e+01 6.287075e+01 6.161669e+01 5.896045e+01 5.118230e+01 3.985751e+01 4.078016e+01 3.770146e+01 3.456077e+01 2.900941e+01 5.039935e+01 4.024588e+00 4.397693e+00 4.766739e+00 4.486624e+00 4.604538e+00 4.387561e+00 4.104471e+00 3.920717e+00 3.879425e+00 3.441343e+00 3.270028e+00 2.441787e+00 3.090852e+00 4.771113e-01 7.731850e-01 7.194726e-01 8.181704e-01 9.401828e-01 8.039116e-01 7.806943e-01 7.682300e-01 6.660390e-01 6.372859e-01 5.993657e-01 4.711951e-01 7.356586e-01
<GCONST> 1.340573e+02
<STATE> 3
<MEAN> 39
 -4.313393e+00 1.409510e-01 -3.873361e+00 -7.343676e+00 -6.327329e+00 -6.547282e+00 -3.408884e+00 -6.046489e+00 -2.203751e+00 -2.894342e+00 -5.220460e-01 -4.063511e+00 6.850630e+01 2.693619e+00 8.982418e-01 8.388367e-01 7.586642e-03 -2.090543e+00 -1.659134e+00 -2.145539e-01 -6.049432e-01 -1.197753e+00 -2.674693e-01 -5.747467e-01 -7.285914e-01 9.852170e-01 -1.583474e-01 -3.767754e-01 -3.786206e-01 -1.133979e-01 -1.834579e-01 -3.436600e-02 8.088482e-02 1.132172e-01 1.917659e-01 1.607803e-01 2.400552e-01 2.690097e-01 1.324305e-02
<VARIANCE> 39
 3.562726e+01 4.864486e+01 7.260474e+01 5.378284e+01 5.786551e+01 6.178379e+01 5.413961e+01 4.261104e+01 4.296391e+01 4.056600e+01 4.585252e+01 3.456287e+01 3.560486e+01 2.355894e+00 3.392997e+00 3.580907e+00 4.103804e+00 4.416390e+00 4.857760e+00 4.901165e+00 5.517219e+00 4.293327e+00 4.479265e+00 3.457655e+00 3.166554e+00 1.145633e+00 4.604714e-01 4.499754e-01 4.688984e-01 5.038833e-01 6.883022e-01 6.781929e-01 6.563197e-01 6.682390e-01 5.918934e-01 5.764001e-01 5.776005e-01 4.089127e-01 2.178957e-01
<GCONST> 1.297042e+02
<STATE> 4
<MEAN> 39
 -8.721223e-01 -6.959417e-01 -4.307230e+00 -8.671133e+00 -1.058951e+01 -9.236088e+00 -3.243704e+00 -6.363714e+00 -2.926482e+00 -2.330975e+00 -7.219815e-02 -4.096009e+00 7.102517e+01 1.449372e+00 -1.853567e-01 -3.396702e-02 -2.283037e-01 -1.624878e+00 -1.014202e+00 1.040371e-01 -1.928195e-01 -4.423478e-01 1.278534e-01 7.028768e-02 -1.114804e-01 8.390570e-01 -6.676925e-01 -2.955526e-01 -2.638392e-01 9.429500e-02 4.507564e-01 3.709161e-01 9.337476e-02 1.582150e-01 3.274056e-01 1.030753e-01 1.938398e-01 2.439810e-01 -2.624226e-01
<VARIANCE> 39
 2.654192e+01 6.431045e+01 8.942967e+01 6.292958e+01 6.477687e+01 7.475959e+01 5.384642e+01 5.515566e+01 5.351817e+01 5.072337e+01 4.818614e+01 4.126335e+01 3.891996e+01 1.931626e+00 2.781414e+00 2.816742e+00 3.191843e+00 3.731477e+00 4.455808e+00 4.011082e+00 3.769590e+00 3.635085e+00 3.230512e+00 2.845711e+00 2.538668e+00 9.884251e-01 3.261900e-01 4.340270e-01 4.470663e-01 5.056166e-01 6.296757e-01 6.328833e-01 6.553416e-01 7.713286e-01 6.392648e-01 6.322048e-01 5.298918e-01 4.297729e-01 1.699333e-01
<GCONST> 1.280311e+02
<TRANSP> 5
 0.000000e+00 1.000000e+00 0.000000e+00 0.000000e+00 0.000000e+00
 0.000000e+00 7.229907e-01 2.770093e-01 0.000000e+00 0.000000e+00
 0.000000e+00 0.000000e+00 2.762965e-01 7.237035e-01 0.000000e+00
 0.000000e+00 0.000000e+00 0.000000e+00 2.531820e-01 7.468180e-01
 0.000000e+00 0.000000e+00 0.000000e+00 0.000000e+00 0.000000e+00
<ENDHMM>
~h "m"
<BEGINHMM>
<NUMSTATES> 5
<STATE> 2
<MEAN> 39
 9.930570e-01 6.555221e+00 -1.024191e+00 -1.277254e+00 -5.049129e+00 -5.306242e+00 -1.693671e+00 -6.850413e+00 -1.052693e+01 -1.032892e+01 -4.379303e+00 -2.216646e+00 6.473823e+01 4.505727e-01 -4.064127e-01 -1.045966e+00 -1.237739e+00 -8.240563e-01 -1.610454e-02 4.804496e-01 -1.236986e-01 4.250673e-01 3.924882e-01 3.832070e-02 -8.929402e-03 7.531334e-01 1.947841e-02 -3.847591e-01 -4.994651e-01 -5.264768e-01 -3.089146e-01 6.444290e-02 1.778574e-01 5.869084e-02 5.360759e-01 6.102243e-01 2.130682e-01 -9.419519e-02 2.588633e-01
<VARIANCE> 39
 8.445114e+00 2.881985e+01 3.192611e+01 3.428467e+01 5.046894e+01 3.403358e+01 6.334547e+01 4.320945e+01 4.057686e+01 3.547872e+01 3.423362e+01 3.288197e+01 1.774773e+01 5.506502e-01 1.062961e+00 2.095777e+00 3.023081e+00 2.403488e+00 1.955978e+00 2.299886e+00 2.169471e+00 3.001111e+00 3.102324e+00 2.177781e+00 1.629028e+00 6.534843e-01 8.881362e-02 2.027752e-01 2.791866e-01 4.276422e-01 4.065806e-01 4.062969e-01 4.808697e-01 4.541663e-01 5.262736e-01 4.846699e-01 5.040460e-01 3.926464e-01 1.003575e-01
<GCONST> 1.094961e+02
<STATE> 3
<MEAN> 39
 3.103659e+00 3.089997e+00 -8.524049e+00 -1.037535e+01 -1.116608e+01 -5.645020e+00 1.476818e+00 -5.969789e+00 -5.650677e+00 -4.832933e+00 -2.602720e+00 -2.406587e+00 6.892580e+01 3.886666e-01 -1.874426e+00 -2.446635e+00 -2.716800e+00 -1.237538e+00 9.412845e-01 1.441090e+00 -1.574684e-02 1.652360e+00 2.132505e+00 6.226062e-01 -5.253702e-01 1.580876e+00 -2.607042e-01 -1.999322e-01 4.141234e-01 6.354507e-01 5.084884e-01 1.954080e-01 -1.827516e-01 -2.440679e-02 -1.016637e-01 -8.589077e-02 -5.792354e-02 -2.082443e-01 -1.234791e-01
<VARIANCE> 39
 8.174685e+00 3.812601e+01 3.813287e+01 4.382232e+01 4.711888e+01 4.310693e+01 6.293730e+01 5.453088e+01 3.524745e+01 3.619152e+01 3.258357e+01 3.596640e+01 2.008494e+01 5.853904e-01 1.980370e+00 2.035641e+00 3.847144e+00 4.451039e+00 4.630102e+00 4.275723e+00 4.325729e+00 4.875028e+00 4.136505e+00 4.859612e+00 3.477291e+00 8.427106e-01 8.103742e-02 2.024898e-01 3.299491e-01 5.397487e-01 5.189371e-01 5.555796e-01 6.202343e-01 5.084464e-01 6.647562e-01 5.570038e-01 5.038095e-01 3.838166e-01 1.085405e-01
<GCONST> 1.185340e+02
<STATE> 4
<MEAN> 39
 2.503501e+00 -2.465663e+00 -1.162727e+01 -1.267940e+01 -1.057452e+01 -1.631420e+00 2.889984e+00 -7.343319e+00 -3.449519e+00 -2.042384e+00 -2.372849e+00 -5.289743e+00 7.181097e+01 -2.847355e-01 -1.477563e+00 -5.030283e-01 -2.446508e-01 2.161263e-01 5.105663e-01 8.214153e-02 -1.364227e-02 9.511223e-01 9.614230e-01 1.640349e-01 -7.800160e-01 7.871137e-01 -1.437717e-01 4.349009e-01 7.254786e-01 7.959461e-01 2.752503e-01 -4.601739e-01 -5.464495e-01 1.318509e-01 -3.098288e-01 -4.901955e-01 -1.107390e-01 1.578053e-01 -4.152343e-01
<VARIANCE> 39
 8.945430e+00 5.239177e+01 3.734708e+01 4.468033e+01 5.370248e+01 6.640624e+01 7.810484e+01 7.508244e+01 4.803298e+01 4.931186e+01 5.232804e+01 5.082368e+01 2.448896e+01 4.566994e-01 1.600224e+00 1.518801e+00 2.347345e+00 2.781273e+00 3.913553e+00 3.265059e+00 3.147241e+00 4.425786e+00 3.703784e+00 3.411813e+00 2.836244e+00 6.468595e-01 8.521530e-02 2.552749e-01 3.095721e-01 4.674360e-01 5.572802e-01 6.128460e-01 6.495666e-01 6.221324e-01 6.142262e-01 5.776789e-01 6.212643e-01 5.003532e-01 1.005195e-01
<GCONST> 1.190192e+02
<TRANSP> 5
 0.000000e+00 1.000000e+00 0.000000e+00 0.000000e+00 0.000000e+00
 0.000000e+00 7.201785e-01 2.798215e-01 0.000000e+00 0.000000e+00
 0.000000e+00 0.000000e+00 4.030838e-01 5.969163e-01 0.000000e+00
 0.000000e+00 0.000000e+00 0.000000e+00 4.360823e-01 5.639177e-01
 0.000000e+00 0.000000e+00 0.000000e+00 0.000000e+00 0.000000e+00
<ENDHMM>
~h "n"
<BEGINHMM>
<NUMSTATES> 5
<STATE> 2
<MEAN> 39
 1.949374e+00 1.775013e+00 -4.356915e+00 -2.156424e+00 -8.056332e+00 -7.239922e+00 -5.754987e+00 -8.438038e+00 -6.188363e+00 -3.692973e+00 -2.785602e+00 -4.353937e+00 6.618440e+01 -1.017356e-01 1.392394e+00 1.311774e+00 1.189064e+00 1.147687e+00 -1.848125e-01 -1.139807e+00 -2.290498e-01 -1.164890e+00 -5.691299e-01 7.290896e-02 -2.000136e-01 -1.165308e+00 -8.791294e-02 -1.226881e-01 -1.301710e-01 -3.427704e-01 -2.285141e-01 -7.691225e-02 2.689054e-01 2.076096e-01 1.688872e-01 -2.091803e-03 3.587648e-02 1.024897e-02 2.166723e-01
<VARIANCE> 39
 9.209568e+00 3.550597e+01 3.790269e+01 4.376936e+01 5.182295e+01 4.359352e+01 5.005997e+01 4.187354e+01 4.535228e+01 4.503296e+01 3.541525e+01 3.615575e+01 1.970300e+01 4.371933e-01 1.541839e+00 1.975600e+00 2.191156e+00 2.515561e+00 2.877740e+00 3.265066e+00 3.119753e+00 3.012569e+00 2.569130e+00 2.325796e+00 2.563918e+00 5.467569e-01 5.620574e-02 2.468147e-01 2.631039e-01 2.410876e-01 3.876155e-01 3.777088e-01 4.299714e-01 4.371108e-01 5.203265e-01 4.605351e-01 3.621571e-01 3.768931e-01 9.249320e-02
<GCONST> 1.101796e+02
<STATE> 3
<MEAN> 39
 1.305644e+00 5.571244e+00 -1.013835e+00 -4.604485e-01 -6.160655e+00 -8.616651e+00 -7.096470e+00 -7.424289e+00 -7.959071e+00 -4.931383e+00 -2.046264e+00 -4.245782e+00 6.402745e+01 -6.423819e-02 -2.847292e-03 -5.482630e-02 6.094573e-02 2.179928e-01 -1.994190e-01 -2.573403e-01 -3.759475e-02 1.050406e-01 9.610678e-02 1.142061e-01 -9.450536e-02 -6.053708e-04 4.473920e-02 -5.019971e-01 -5.146700e-01 -3.182353e-01 -3.111352e-01 2.791413e-02 2.920342e-01 4.173177e-02 4.021139e-01 2.592888e-01 -3.402203e-02 3.015792e-02 3.793263e-01
<VARIANCE> 39
 8.325587e+00 2.611361e+01 2.607113e+01 3.278350e+01 3.823659e+01 3.219297e+01 5.237744e+01 3.529176e+01 4.021377e+01 3.608048e+01 2.705079e+01 3.599566e+01 1.684505e+01 2.342845e-01 1.175476e+00 1.606963e+00 1.346888e+00 1.580346e+00 1.493730e+00 1.792243e+00 1.704783e+00 2.024737e+00 1.750814e+00 1.404083e+00 1.420183e+00 3.957912e-01 5.199192e-02 1.987815e-01 2.863727e-01 3.127314e-01 4.045307e-01 3.653174e-01 5.216663e-01 4.772309e-01 5.183840e-01 4.394630e-01 3.474959e-01 4.118967e-01 6.479967e-02
<GCONST> 1.014725e+02
<STATE> 4
<MEAN> 39
 9.869406e-01 6.579292e-02 -5.476951e+00 -2.139986e+00 -8.054491e+00 -9.002533e+00 -6.128560e+00 -7.799543e+00 -4.032312e+00 -2.188893e+00 -2.532384e+00 -5.404913e+00 6.764751e+01 -2.578340e-02 -1.389212e+00 -1.645683e+00 -1.251479e+00 -1.033476e+00 3.040291e-01 1.399294e+00 4.655025e-01 1.277035e+00 8.438784e-01 -2.033241e-01 -4.973727e-03 1.200709e+00 -3.748970e-02 2.038991e-01 7.436302e-02 -2.470960e-01 -2.311361e-01 1.123219e-01 3.481984e-01 2.359189e-01 -1.818697e-02 -1.222006e-01 -3.840903e-02 6.708343e-02 -5.779174e-02
<VARIANCE> 39
 1.235147e+01 4.235312e+01 4.764630e+01 4.099073e+01 6.410286e+01 4.467242e+01 5.360553e+01 4.855146e+01 5.677834e+01 5.735370e+01 4.092047e+01 3.878249e+01 2.719768e+01 5.202925e-01 2.028593e+00 2.910954e+00 2.997682e+00 3.587422e+00 3.653407e+00 4.807812e+00 4.036337e+00 5.111845e+00 4.116549e+00 3.318888e+00 3.526044e+00 6.445895e-01 5.781411e-02 4.155930e-01 5.223680e-01 4.775907e-01 7.097837e-01 5.473459e-01 7.890855e-01 5.853971e-01 8.065985e-01 6.074348e-01 5.499347e-01 4.291030e-01 1.896384e-01
<GCONST> 1.222708e+02
<TRANSP> 5
 0.000000e+00 1.000000e+00 0.000000e+00 0.000000e+00 0.000000e+00
 0.000000e+00 5.029837e-01 4.970163e-01 0.000000e+00 0.000000e+00
 0.000000e+00 0.000000e+00 7.278726e-01 2.721274e-01 0.000000e+00
 0.000000e+00 0.000000e+00 0.000000e+00 6.511122e-01 3.488878e-01
 0.000000e+00 0.000000e+00 0.000000e+00 0.000000e+00 0.000000e+00
<ENDHMM>
~h "o"
<BEGINHMM>
<NUMSTATES> 5
<STATE> 2
<MEAN> 39
 2.819437e+00 4.201240e+00 -8.522239e+00 -1.258128e+01 -1.481849e+01 -8.597148e+00 8.580743e-01 -4.773767e+00 -4.204677e+00 -2.844906e+00 -1.331463e+00 -1.819570e+00 6.820868e+01 2.635400e-01 4.476523e-01 -1.204356e-01 -7.162378e-01 -1.022455e+00 1.168969e-01 9.847031e-01 4.784324e-01 -1.210482e-01 -2.779759e-01 -3.253167e-01 1.893589e-01 -1.177164e-01 -2.493731e-01 -1.161365e-01 2.196296e-01 4.475519e-01 5.182838e-01 1.684688e-01 -1.116372e-01 -4.992171e-02 -4.453486e-03 -4.013719e-02 -7.593429e-03 -1.058084e-01 -1.610244e-01
<VARIANCE> 39
 1.034972e+01 4.360812e+01 3.182653e+01 3.790950e+01 5.874546e+01 5.133314e+01 5.592066e+01 5.100467e+01 5.107753e+01 3.709488e+01 4.062097e+01 3.633059e+01 2.350539e+01 5.619906e-01 1.365970e+00 1.357826e+00 2.787057e+00 3.150037e+00 2.751436e+00 3.462715e+00 2.876127e+00 2.781607e+00 2.655200e+00 2.447584e+00 1.858740e+00 6.465522e-01 1.345893e-01 2.273334e-01 3.234831e-01 3.287788e-01 5.482453e-01 5.393285e-01 5.421588e-01 5.224800e-01 5.945080e-01 5.342045e-01 4.674125e-01 4.476081e-01 9.190356e-02
<GCONST> 1.141502e+02
<STATE> 3
<MEAN> 39
 2.952865e+00 4.930764e+00 -8.451511e+00 -1.315795e+01 -1.564591e+01 -7.427273e+00 2.915439e+00 -4.005511e+00 -5.046181e+00 -3.832256e+00 -2.120197e+00 -1.626930e+00 6.750043e+01 -1.927773e-01 -7.944945e-04 2.041024e-01 5.415395e-01 6.398473e-01 3.289741e-01 7.575022e-02 -6.863772e-02 -2.344639e-01 -1.554106e-01 1.426793e-01 1.094599e-01 -3.532092e-01 -2.124857e-01 -1.764883e-01 1.434172e-01 4.704895e-01 6.088679e-01 8.785948e-02 -3.799438e-01 -1.637514e-01 6.638645e-02 1.147859e-01 9.765495e-02 -7.469808e-02 -1.088676e-01
<VARIANCE> 39
 1.002840e+01 3.687761e+01 2.756804e+01 3.846963e+01 5.081941e+01 4.568477e+01 5.617313e+01 5.205666e+01 4.563604e+01 3.967418e+01 4.757488e+01 3.443401e+01 2.074244e+01 4.681840e-01 1.304835e+00 1.479450e+00 2.350751e+00 3.122289e+00 2.690775e+00 2.836391e+00 2.876579e+00 2.859358e+00 2.408329e+00 2.459475e+00 1.940073e+00 6.069252e-01 9.545840e-02 1.659800e-01 2.193969e-01 2.936548e-01 3.913448e-01 4.595858e-01 4.703515e-01 4.409046e-01 4.876655e-01 4.631888e-01 4.886762e-01 3.852506e-01 6.788639e-02
<GCONST> 1.101729e+02
<STATE> 4
<MEAN> 39
 1.325441e+00 4.620427e+00 -7.336845e+00 -9.410531e+00 -1.107391e+01 -5.916285e+00 1.408709e+00 -4.138932e+00 -4.916633e+00 -3.432907e+00 -9.180836e-01 -1.440473e+00 6.541934e+01 -6.810690e-01 -3.760054e-01 4.322559e-01 1.225990e+00 1.482874e+00 4.177776e-01 -6.635461e-01 -2.640966e-01 1.219650e-01 2.412501e-01 1.630795e-01 -1.026353e-01 -5.748573e-01 -8.371942e-02 -7.126374e-02 5.683587e-02 7.514485e-02 1.484953e-03 -9.790741e-02 -1.512865e-01 -2.392185e-02 1.094276e-01 6.058548e-02 -7.775600e-02 -7.747148e-02 1.549605e-02
<VARIANCE> 39
 1.346392e+01 3.635077e+01 2.942482e+01 3.914204e+01 4.547301e+01 4.508110e+01 5.235322e+01 4.989807e+01 4.499430e+01 3.564049e+01 4.162983e+01 3.257235e+01 2.729631e+01 7.296852e-01 1.262822e+00 1.574360e+00 2.642065e+00 2.986165e+00 3.040051e+00 3.203970e+00 2.656948e+00 2.858349e+00 2.437412e+00 2.350309e+00 2.106547e+00 6.637336e-01 1.057382e-01 2.231063e-01 2.809382e-01 3.409718e-01 5.144946e-01 4.635659e-01 4.638011e-01 4.744862e-01 4.856328e-01 4.368237e-01 4.830106e-01 3.636261e-01 1.121482e-01
<GCONST> 1.126166e+02
<TRANSP> 5
 0.000000e+00 1.000000e+00 0.000000e+00 0.000000e+00 0.000000e+00
 0.000000e+00 4.802630e-01 5.197370e-01 0.000000e+00 0.000000e+00
 0.000000e+00 0.000000e+00 4.762951e-01 5.237049e-01 0.000000e+00
 0.000000e+00 0.000000e+00 0.000000e+00 5.153233e-01 4.846767e-01
 0.000000e+00 0.000000e+00 0.000000e+00 0.000000e+00 0.000000e+00
<ENDHMM>
~h "p"
<BEGINHMM>
<NUMSTATES> 5
<STATE> 2
<MEAN> 39
 -7.365386e+00 -1.142458e+00 -7.058337e+00 -7.419483e+00 -4.382183e+00 -2.978522e+00 6.703892e-01 -1.526455e+00 -3.521542e-01 -1.526254e+00 -3.339424e-01 -1.360425e+00 6.380893e+01 5.391255e-01 -3.795364e-01 -3.885858e-01 -1.003521e+00 -4.617909e-01 -3.065456e-01 5.675164e-01 -3.181608e-01 -3.680165e-01 -4.448422e-01 -2.926157e-01 -3.237626e-01 1.475867e+00 3.285522e-01 1.746663e-01 1.401168e-02 -9.556523e-02 -2.643526e-01 -3.627209e-02 -2.125688e-02 -8.426373e-02 -1.782580e-01 -7.676780e-02 -2.201554e-02 -5.102539e-02 1.042307e-01
<VARIANCE> 39
 2.305341e+01 4.024601e+01 2.932956e+01 4.082008e+01 3.587649e+01 5.231307e+01 3.807394e+01 3.399159e+01 2.277226e+01 2.621416e+01 2.558774e+01 2.316524e+01 5.048219e+01 4.241051e+00 4.461066e+00 2.240201e+00 3.667954e+00 5.238545e+00 4.901057e+00 4.110644e+00 4.069098e+00 2.899683e+00 3.096399e+00 2.654203e+00 2.160342e+00 3.943967e+00 5.126106e-01 8.616219e-01 4.313499e-01 5.786605e-01 7.875583e-01 8.810501e-01 7.002376e-01 7.137900e-01 5.030742e-01 5.767530e-01 4.740690e-01 3.836007e-01 8.190737e-01
<GCONST> 1.270158e+02
<STATE> 3
<MEAN> 39
 -1.049125e+00 -1.513742e+00 -8.502285e+00 -1.389432e+01 -1.013499e+01 -4.066844e+00 4.354761e+00 -3.513089e+00 -3.564522e+00 -3.120434e+00 -2.537364e+00 -2.817675e+00 7.146331e+01 1.397399e+00 1.130241e-01 -2.038537e-01 -7.427222e-01 -1.250464e+00 -4.036642e-01 -1.866542e-01 -6.030400e-01 -6.564455e-01 -1.976742e-01 1.040439e-01 -6.595223e-02 1.078473e+00 -2.880416e-01 -6.198460e-02 1.404418e-01 4.013277e-01 2.075861e-01 -4.326916e-02 -3.787889e-01 -5.598167e-02 2.631077e-01 2.404099e-01 2.515839e-01 1.173592e-01 -3.434893e-01
<VARIANCE> 39
 3.421287e+01 5.032743e+01 3.507512e+01 5.293627e+01 7.664046e+01 6.443449e+01 8.464476e+01 4.633573e+01 4.042796e+01 4.755559e+01 3.517904e+01 3.172596e+01 3.595251e+01 2.800737e+00 5.406148e+00 2.201948e+00 3.097244e+00 4.426591e+00 3.206434e+00 3.720407e+00 3.265472e+00 3.500280e+00 3.179601e+00 2.874364e+00 2.209131e+00 1.700747e+00 6.795718e-01 9.402315e-01 3.624959e-01 4.809424e-01 9.456468e-01 6.076469e-01 7.877340e-01 6.440902e-01 6.793845e-01 6.059132e-01 5.017343e-01 4.350097e-01 3.235185e-01
<GCONST> 1.292063e+02
<STATE> 4
<MEAN> 39
 3.060433e-01 -3.293762e+00 -8.771878e+00 -1.450314e+01 -1.218030e+01 -5.449549e+00 2.303715e+00 -2.716241e+00 -2.011154e+00 -3.938259e+00 -1.446095e+00 -3.150505e+00 7.439574e+01 4.507684e-01 3.185974e-01 2.008102e-01 1.117727e-01 -5.350153e-01 -3.622457e-01 -5.317930e-01 -4.710742e-01 -7.430770e-03 2.745944e-01 6.432014e-02 -1.953825e-01 7.823917e-02 -1.546454e-01 8.357099e-02 9.987101e-02 2.047217e-01 1.283755e-01 -9.317503e-02 -1.846750e-01 8.829718e-03 1.458279e-01 1.145490e-01 -1.709236e-02 -2.883084e-02 -2.073033e-01
<VARIANCE> 39
 2.102229e+01 6.554575e+01 3.744395e+01 4.993309e+01 8.164814e+01 8.150816e+01 8.116060e+01 7.763754e+01 6.142970e+01 4.546065e+01 3.222158e+01 3.461882e+01 4.657375e+01 1.539705e+00 3.487236e+00 1.119130e+00 1.814014e+00 2.892036e+00 2.411615e+00 3.106937e+00 2.716403e+00 3.287479e+00 2.869750e+00 2.301841e+00 1.872857e+00 9.463794e-01 2.577886e-01 4.250915e-01 2.047993e-01 3.836280e-01 4.793732e-01 3.963840e-01 5.457265e-01 4.654936e-01 5.430213e-01 4.305023e-01 4.319268e-01 3.085400e-01 1.367662e-01
<GCONST> 1.196538e+02
<TRANSP> 5
 0.000000e+00 1.000000e+00 0.000000e+00 0.000000e+00 0.000000e+00
 0.000000e+00 7.936035e-01 2.063965e-01 0.000000e+00 0.000000e+00
 0.000000e+00 0.000000e+00 4.748962e-01 5.251039e-01 0.000000e+00
 0.000000e+00 0.000000e+00 0.000000e+00 5.735157e-01 4.264843e-01
 0.000000e+00 0.000000e+00 0.000000e+00 0.000000e+00 0.000000e+00
<ENDHMM>
~h "r"
<BEGINHMM>
<NUMSTATES> 5
<STATE> 2
<MEAN> 39
 1.526657e+00 -1.265254e+00 -6.491564e+00 -1.235736e+00 -7.371868e+00 -1.084713e+01 -6.198766e+00 -9.063112e+00 -3.916026e+00 -5.497875e-01 1.829128e-01 -3.029520e+00 6.844065e+01 -8.315561e-02 1.249373e-01 4.214394e-01 1.152235e+00 3.540284e-01 -2.510143e-01 -7.471941e-01 -2.736106e-01 6.542446e-02 -1.471478e-01 -2.007719e-01 -6.451498e-02 -4.428444e-01 -6.964570e-02 -3.004254e-02 4.079625e-03 -3.916155e-01 -4.605312e-01 9.147380e-02 3.853992e-01 2.007194e-01 3.088964e-02 -2.274992e-01 -4.323679e-02 5.373660e-02 1.914110e-01
<VARIANCE> 39
 1.377811e+01 4.022781e+01 5.327291e+01 4.766463e+01 6.085672e+01 5.709168e+01 4.896467e+01 5.056190e+01 4.541323e+01 4.348892e+01 3.768263e+01 4.190471e+01 2.793901e+01 1.294922e+00 1.981641e+00 2.961246e+00 3.660628e+00 5.384631e+00 4.814572e+00 3.994365e+00 3.639780e+00 4.098085e+00 3.596923e+00 3.534485e+00 2.780205e+00 1.430150e+00 2.158300e-01 3.431706e-01 4.626745e-01 4.628962e-01 1.003475e+00 8.871099e-01 7.401211e-01 7.113631e-01 6.983323e-01 6.567718e-01 6.130714e-01 5.877163e-01 2.637804e-01
<GCONST> 1.266414e+02
<STATE> 3
<MEAN> 39
 1.110041e+00 -8.433859e-01 -5.599980e+00 1.517104e-01 -7.761676e+00 -1.111841e+01 -6.701546e+00 -8.514634e+00 -3.524292e+00 -1.346875e+00 -1.407205e-01 -3.014019e+00 6.778246e+01 -1.954063e-01 8.900821e-03 3.894163e-01 1.114028e-01 -6.943329e-01 -1.194984e-01 1.472432e-01 1.064625e-01 -3.585993e-02 -6.232798e-01 -4.401894e-02 2.923778e-01 4.954453e-02 -2.562781e-02 -3.788146e-02 -2.068888e-02 -4.142756e-01 -3.968607e-01 2.320229e-02 3.830660e-01 1.508968e-01 -5.453759e-02 -1.488391e-01 9.298718e-02 1.019666e-01 1.960834e-01
<VARIANCE> 39
 1.317194e+01 3.794214e+01 5.150401e+01 4.626541e+01 6.281700e+01 5.347643e+01 4.738153e+01 4.580680e+01 4.260015e+01 4.170121e+01 3.726230e+01 3.539798e+01 2.616090e+01 1.313337e+00 1.860871e+00 3.208794e+00 3.080249e+00 4.653601e+00 4.490962e+00 3.221819e+00 3.073216e+00 3.666018e+00 3.559816e+00 3.293888e+00 2.760055e+00 1.117428e+00 1.836201e-01 3.669378e-01 4.010424e-01 4.163779e-01 9.471493e-01 8.239065e-01 6.234422e-01 6.440364e-01 6.663433e-01 6.387249e-01 5.958581e-01 5.227612e-01 2.602802e-01
<GCONST> 1.237905e+02
<STATE> 4
<MEAN> 39
 8.544230e-01 -1.255098e+00 -5.077333e+00 -5.200447e-01 -1.011263e+01 -1.193991e+01 -6.092866e+00 -7.897917e+00 -3.528208e+00 -2.787725e+00 1.144126e-01 -2.257761e+00 6.853078e+01 -1.818643e-01 1.252941e-01 3.690373e-01 -3.071210e-01 -8.210779e-01 -4.509342e-02 5.438137e-01 2.756400e-01 -2.020163e-01 -6.704046e-01 7.983855e-02 3.590479e-01 9.367768e-02 -8.962631e-03 6.147833e-02 -1.215447e-02 -1.575933e-01 1.328048e-02 7.902546e-02 1.404053e-01 3.597525e-02 -5.463752e-02 4.893247e-02 3.930923e-02 -4.130549e-02 -8.494579e-03
<VARIANCE> 39
 1.479758e+01 3.911359e+01 5.619158e+01 5.146993e+01 6.991180e+01 5.979844e+01 5.219769e+01 4.598949e+01 4.678801e+01 4.486226e+01 3.900788e+01 3.562686e+01 2.418304e+01 1.043526e+00 1.757015e+00 2.751171e+00 2.462209e+00 3.955782e+00 3.779550e+00 2.926560e+00 2.829143e+00 3.236965e+00 3.570381e+00 2.780622e+00 2.751374e+00 1.017657e+00 1.592434e-01 2.470901e-01 3.405857e-01 3.363478e-01 7.102453e-01 6.609543e-01 5.079031e-01 5.231016e-01 5.654819e-01 5.159506e-01 5.487533e-01 3.990473e-01 1.561950e-01
<GCONST> 1.199479e+02
<TRANSP> 5
 0.000000e+00 1.000000e+00 0.000000e+00 0.000000e+00 0.000000e+00
 0.000000e+00 3.584780e-01 6.415220e-01 0.000000e+00 0.000000e+00
 0.000000e+00 0.000000e+00 2.455028e-01 7.544971e-01 0.000000e+00
 0.000000e+00 0.000000e+00 0.000000e+00 3.394619e-01 6.605381e-01
 0.000000e+00 0.000000e+00 0.000000e+00 0.000000e+00 0.000000e+00
<ENDHMM>
~h "t"
<BEGINHMM>
<NUMSTATES> 5
<STATE> 2
<MEAN> 39
 -1.277493e+01 -1.404503e+00 -4.448335e+00 -6.156301e+00 -4.222756e+00 -5.305892e+00 -2.175882e+00 -1.939238e+00 1.002907e+00 -1.247662e+00 6.435345e-01 -6.374748e-01 6.531476e+01 1.358084e-01 -2.795838e-01 3.506263e-01 -2.180910e-01 -2.126931e-01 -5.632966e-01 -8.124629e-02 -4.693669e-01 -6.693122e-02 -3.216201e-01 -2.880304e-01 -4.037768e-01 1.202723e+00 6.108204e-01 1.971379e-01 2.827113e-02 7.407255e-02 -2.258406e-01 -1.034818e-01 -1.476457e-01 -2.526142e-01 -2.375162e-01 -4.338870e-02 -1.099924e-01 -1.493074e-01 -2.783740e-02
<VARIANCE> 39
 6.235163e+01 3.766780e+01 4.176335e+01 3.673693e+01 3.732674e+01 5.067010e+01 3.859026e+01 3.524648e+01 3.306373e+01 3.050881e+01 2.784788e+01 2.812090e+01 5.625952e+01 6.447262e+00 3.336541e+00 3.315273e+00 4.108966e+00 3.634786e+00 4.131934e+00 3.493817e+00 3.511469e+00 3.618224e+00 3.240992e+00 2.761494e+00 2.978730e+00 4.982464e+00 9.324085e-01 6.580188e-01 4.908785e-01 6.892137e-01 7.188269e-01 8.211285e-01 7.049638e-01 6.447702e-01 6.788391e-01 6.419722e-01 5.287080e-01 5.668915e-01 1.013487e+00
<GCONST> 1.313064e+02
<STATE> 3
<MEAN> 39
 -6.472942e+00 -4.218563e-01 -2.515397e+00 -6.261714e+00 -6.863093e+00 -8.591709e+00 -4.161995e+00 -5.847867e+00 -1.669164e+00 -2.979843e+00 -2.144320e+00 -3.814702e+00 6.980290e+01 3.079627e+00 8.526155e-01 7.868855e-02 1.540003e-02 -1.651924e+00 -9.316293e-01 -6.055565e-01 -1.379118e+00 -1.313959e+00 -3.203498e-01 -4.243695e-01 -6.144477e-01 5.331826e-01 -1.517829e-01 -1.260810e-01 -2.591776e-01 -4.266706e-02 -6.614354e-02 2.201609e-01 1.235621e-01 2.134935e-01 6.234245e-02 1.597842e-01 2.999262e-01 3.542371e-01 -3.775099e-01
<VARIANCE> 39
 4.827004e+01 3.381273e+01 6.514481e+01 5.790973e+01 5.072535e+01 6.205315e+01 4.407225e+01 4.009880e+01 4.188175e+01 4.689047e+01 3.572226e+01 3.685201e+01 2.972807e+01 3.610749e+00 3.210464e+00 3.171659e+00 4.892208e+00 5.610739e+00 5.534361e+00 4.499219e+00 4.193988e+00 4.115423e+00 4.518075e+00 3.151548e+00 4.000247e+00 2.225045e+00 6.781365e-01 4.761519e-01 5.355316e-01 5.877309e-01 7.922586e-01 7.870616e-01 6.310348e-01 5.743186e-01 6.183025e-01 6.988713e-01 5.557129e-01 5.399775e-01 5.467360e-01
<GCONST> 1.324014e+02
<STATE> 4
<MEAN> 39
 -2.064606e+00 -4.255706e-01 -4.259524e+00 -8.340686e+00 -1.044736e+01 -9.527647e+00 -4.243409e+00 -7.210823e+00 -3.117294e+00 -2.472732e+00 -1.547982e+00 -3.637444e+00 7.103279e+01 1.691775e+00 6.388037e-02 -3.547997e-01 -1.791115e-01 -1.146505e+00 -1.962605e-01 -6.059119e-02 -5.400378e-01 -6.326548e-01 4.681531e-02 1.968849e-01 9.985443e-02 1.770597e-01 -7.272897e-01 -2.382419e-01 -5.478755e-02 1.247187e-01 4.602660e-01 3.336821e-01 1.677894e-01 3.697145e-01 2.953214e-01 8.356916e-02 1.853032e-01 2.696401e-01 -3.282637e-01
<VARIANCE> 39
 3.212413e+01 3.898455e+01 7.462267e+01 7.845155e+01 6.695081e+01 7.528529e+01 5.316192e+01 4.805098e+01 4.591578e+01 5.799094e+01 3.961665e+01 4.735365e+01 3.024430e+01 2.875804e+00 2.573427e+00 2.141508e+00 2.869962e+00 4.251924e+00 4.340590e+00 3.480659e+00 3.261834e+00 3.332386e+00 3.402844e+00 2.686400e+00 2.820057e+00 1.861081e+00 4.166458e-01 4.088706e-01 5.194895e-01 6.238888e-01 7.804831e-01 7.137291e-01 6.407129e-01 5.779034e-01 5.748140e-01 6.594042e-01 4.986409e-01 5.674468e-01 2.607063e-01
<GCONST> 1.288736e+02
<TRANSP> 5
 0.000000e+00 1.000000e+00 0.000000e+00 0.000000e+00 0.000000e+00
 0.000000e+00 7.258309e-01 2.741691e-01 0.000000e+00 0.000000e+00
 0.000000e+00 0.000000e+00 2.233808e-01 7.766191e-01 0.000000e+00
 0.000000e+00 0.000000e+00 0.000000e+00 2.568428e-01 7.431573e-01
 0.000000e+00 0.000000e+00 0.000000e+00 0.000000e+00 0.000000e+00
<ENDHMM>
~h "u"
<BEGINHMM>
<NUMSTATES> 5
<STATE> 2
<MEAN> 39
 -4.052816e-01 4.270390e+00 -3.381096e+00 -1.133999e+00 -7.735239e+00 -1.062020e+01 -6.902692e+00 -1.114686e+01 -7.317787e+00 -5.934093e+00 -6.924334e-01 -1.634205e+00 6.699825e+01 6.010370e-01 2.748505e-01 3.766321e-02 -2.096260e-01 -1.235789e+00 -2.699485e-01 2.674550e-02 -6.370845e-01 -5.907642e-01 1.047792e-01 5.156887e-01 2.226027e-01 2.080380e-01 -2.335066e-01 -1.943715e-01 -1.114930e-02 -4.332897e-02 7.905571e-02 2.342689e-01 1.695466e-01 2.624464e-01 2.133535e-01 2.155455e-01 6.574447e-02 6.843351e-02 -1.298358e-01
<VARIANCE> 39
 2.654189e+01 3.784649e+01 3.358840e+01 5.804063e+01 6.115228e+01 5.097816e+01 5.773804e+01 4.536925e+01 5.045665e+01 5.011341e+01 3.874456e+01 3.496217e+01 1.822417e+01 1.664691e+00 2.610261e+00 2.495942e+00 4.146674e+00 3.849451e+00 3.670956e+00 4.380306e+00 3.748857e+00 4.321254e+00 3.027620e+00 3.110317e+00 2.779580e+00 8.352242e-01 4.310842e-01 5.274291e-01 3.368250e-01 5.868610e-01 8.412533e-01 7.637951e-01 8.612313e-01 7.750719e-01 8.285148e-01 6.212190e-01 6.296275e-01 5.610675e-01 1.489759e-01
<GCONST> 1.262734e+02
<STATE> 3
<MEAN> 39
 7.876657e-01 4.374257e+00 -3.567282e+00 -2.043787e+00 -1.079726e+01 -1.047926e+01 -5.896521e+00 -1.218684e+01 -8.743391e+00 -5.183072e+00 6.750910e-01 -1.063116e+00 6.693549e+01 1.354907e-01 -3.337605e-02 1.053418e-01 -4.173467e-01 -8.016555e-01 2.617553e-01 3.219611e-01 -3.238359e-02 -1.351485e-02 3.876310e-01 3.173804e-01 3.450185e-01 -2.199342e-02 -2.759914e-01 -2.242192e-01 1.546571e-02 2.723694e-02 4.259630e-01 1.819748e-01 -2.713697e-02 3.140624e-01 3.497635e-01 1.529830e-01 -6.693114e-02 -5.142766e-02 -8.158369e-02
<VARIANCE> 39
 2.083573e+01 3.515132e+01 3.703117e+01 5.321270e+01 5.569804e+01 5.103984e+01 5.836028e+01 4.248614e+01 5.420160e+01 4.781426e+01 3.767259e+01 3.112355e+01 2.007146e+01 7.969036e-01 1.380875e+00 1.847326e+00 3.380445e+00 2.926831e+00 3.033492e+00 3.225199e+00 2.581594e+00 2.921254e+00 2.729738e+00 2.778185e+00 2.351346e+00 6.921421e-01 1.929604e-01 2.437722e-01 2.585243e-01 3.944341e-01 4.983700e-01 5.389257e-01 5.669608e-01 5.243579e-01 5.886807e-01 5.485843e-01 5.022880e-01 4.026716e-01 1.037000e-01
<GCONST> 1.165074e+02
<STATE> 4
<MEAN> 39
 1.115996e+00 4.007255e+00 -3.845550e+00 -4.251970e+00 -1.255016e+01 -9.434683e+00 -6.071682e+00 -1.155393e+01 -7.865242e+00 -4.095779e+00 1.164923e+00 -1.463232e-01 6.690447e+01 -1.687564e-01 -3.088685e-01 -6.005654e-02 -3.972586e-01 9.930460e-02 3.648449e-01 2.448865e-01 4.684437e-01 4.717788e-01 4.936703e-01 2.200579e-01 -1.157560e-02 -5.113044e-02 -1.005616e-01 -9.422920e-02 -2.268944e-03 9.875974e-02 2.669258e-01 2.539206e-02 4.377337e-03 1.563978e-01 1.136895e-01 4.743222e-02 -5.807215e-02 -1.092964e-01 -5.585454e-02
<VARIANCE> 39
 1.555239e+01 3.619471e+01 3.623914e+01 6.416724e+01 5.728650e+01 5.220641e+01 7.433560e+01 4.061469e+01 4.722847e+01 5.193121e+01 4.157971e+01 3.287236e+01 2.446919e+01 4.343626e-01 1.069914e+00 1.200119e+00 1.873494e+00 2.376443e+00 2.128633e+00 2.172039e+00 1.905469e+00 2.311322e+00 2.534588e+00 2.208513e+00 1.764619e+00 6.340612e-01 6.654044e-02 1.257787e-01 1.609874e-01 2.220711e-01 3.155792e-01 3.196405e-01 3.645679e-01 3.434212e-01 3.913812e-01 3.847282e-01 4.180090e-01 3.285748e-01 5.852489e-02
<GCONST> 1.065555e+02
<TRANSP> 5
 0.000000e+00 1.000000e+00 0.000000e+00 0.000000e+00 0.000000e+00
 0.000000e+00 3.233013e-01 6.766987e-01 0.000000e+00 0.000000e+00
 0.000000e+00 0.000000e+00 2.565092e-01 7.434909e-01 0.000000e+00
 0.000000e+00 0.000000e+00 0.000000e+00 6.987690e-01 3.012310e-01
 0.000000e+00 0.000000e+00 0.000000e+00 0.000000e+00 0.000000e+00
<ENDHMM>
~h "w"
<BEGINHMM>
<NUMSTATES> 5
<STATE> 2
<MEAN> 39
 4.122682e+00 6.213105e+00 -6.360093e+00 -1.390101e+01 -1.814963e+01 -7.421013e+00 2.043641e+00 -3.565853e+00 -3.483172e+00 -3.044585e+00 -3.243631e+00 -8.730608e-01 6.621366e+01 4.672272e-02 -1.246781e+00 -1.126144e+00 -1.378375e+00 -3.269598e-01 1.065364e+00 1.615299e+00 8.574229e-02 -4.247846e-01 -1.868176e-02 4.055756e-01 6.567163e-01 9.937907e-01 -2.310733e-01 -3.470524e-01 3.276854e-02 4.579915e-01 6.635062e-01 2.074615e-01 -2.417912e-01 -2.469664e-01 -7.695755e-02 9.975038e-02 2.595212e-01 -2.477378e-02 4.517276e-02
<VARIANCE> 39
 8.697618e+00 3.593321e+01 3.528532e+01 5.449647e+01 6.757008e+01 4.307685e+01 5.887886e+01 5.084735e+01 3.783487e+01 3.756388e+01 3.365703e+01 3.093694e+01 2.329914e+01 7.579966e-01 2.956001e+00 1.651690e+00 2.557513e+00 4.677708e+00 3.669991e+00 3.602788e+00 3.859251e+00 3.221493e+00 2.698653e+00 2.965638e+00 2.519206e+00 1.238621e+00 9.440798e-02 3.197845e-01 2.732430e-01 4.770863e-01 7.171002e-01 7.171794e-01 8.363550e-01 5.951253e-01 6.449945e-01 5.606519e-01 4.827176e-01 5.189879e-01 1.421660e-01
<GCONST> 1.191778e+02
<STATE> 3
<MEAN> 39
 3.023632e+00 9.803194e-01 -9.645155e+00 -1.476920e+01 -1.432005e+01 -2.562723e+00 5.011640e+00 -5.936971e+00 -6.081941e+00 -3.004933e+00 1.378812e-01 1.413000e+00 6.915276e+01 -5.036626e-01 -1.632163e+00 -6.574243e-01 4.860424e-01 1.665407e+00 8.644351e-01 -3.798897e-01 -9.135294e-01 1.133235e-01 9.139487e-01 1.106004e+00 -3.498480e-01 7.651928e-01 -1.461772e-01 1.699546e-01 3.640437e-01 6.077763e-01 1.996541e-01 -5.907795e-01 -6.956858e-01 1.440056e-01 4.924397e-01 1.567434e-01 -3.216307e-01 -4.858397e-01 -2.182009e-01
<VARIANCE> 39
 1.133624e+01 4.601677e+01 4.219616e+01 7.354790e+01 6.028933e+01 4.537508e+01 7.227582e+01 7.197756e+01 3.726212e+01 3.954678e+01 4.296374e+01 4.093442e+01 2.782164e+01 5.647627e-01 1.888002e+00 1.068546e+00 2.058406e+00 2.661091e+00 3.507409e+00 3.670233e+00 3.037801e+00 3.128681e+00 3.072768e+00 2.882044e+00 2.669813e+00 7.541565e-01 9.667583e-02 2.953836e-01 2.248989e-01 3.111150e-01 4.366305e-01 5.568089e-01 6.368192e-01 6.301171e-01 5.615904e-01 5.055622e-01 5.725577e-01 4.715532e-01 1.304234e-01
<GCONST> 1.169097e+02
<STATE> 4
<MEAN> 39
 2.320570e+00 -4.645899e-01 -1.035215e+01 -1.381349e+01 -1.188579e+01 -2.654624e+00 2.918586e+00 -5.932615e+00 -5.059354e+00 -1.259061e+00 3.827686e-01 -1.766800e+00 6.926749e+01 -4.878126e-01 -7.840468e-01 -8.694797e-02 8.039820e-01 1.063009e+00 -1.461847e-01 -7.187403e-01 -4.439196e-02 6.671175e-01 5.423128e-01 -3.712901e-02 -6.816893e-01 1.777907e-01 -3.386468e-02 2.184241e-01 2.172121e-01 1.749859e-01 -1.589653e-01 -3.409742e-01 -1.321061e-01 2.338469e-01 1.403635e-01 -1.368728e-01 -2.639296e-01 -3.212214e-02 -1.806347e-01
<VARIANCE> 39
 1.281428e+01 4.985333e+01 4.277494e+01 6.820943e+01 5.992742e+01 5.054438e+01 7.244724e+01 6.533147e+01 4.132085e+01 4.216120e+01 4.513332e+01 5.432789e+01 2.736445e+01 5.221140e-01 1.280884e+00 9.550569e-01 1.858229e+00 2.235775e+00 3.355473e+00 3.083297e+00 2.213164e+00 2.543415e+00 2.498569e+00 2.324918e+00 2.370757e+00 5.796484e-01 6.723857e-02 2.136515e-01 2.100182e-01 2.316287e-01 3.627064e-01 4.242642e-01 4.639544e-01 5.097546e-01 3.919167e-01 4.592344e-01 4.865452e-01 3.773020e-01 8.526542e-02
<GCONST> 1.118367e+02
<TRANSP> 5
 0.000000e+00 1.000000e+00 0.000000e+00 0.000000e+00 0.000000e+00
 0.000000e+00 6.389377e-01 3.610623e-01 0.000000e+00 0.000000e+00
 0.000000e+00 0.000000e+00 3.306158e-01 6.693842e-01 0.000000e+00
 0.000000e+00 0.000000e+00 0.000000e+00 5.104298e-01 4.895702e-01
 0.000000e+00 0.000000e+00 0.000000e+00 0.000000e+00 0.000000e+00
<ENDHMM>
~h "aa"
<BEGINHMM>
<NUMSTATES> 5
<STATE> 2
<MEAN> 39
 1.838777e+00 -6.931512e+00 -1.363442e+01 -1.604345e+01 -8.648770e+00 2.765992e+00 6.402245e+00 -5.453427e+00 -5.420122e+00 -7.958317e-01 -2.941185e+00 -5.164342e+00 7.348853e+01 -7.935879e-02 -4.143229e-01 -1.277076e-01 2.422983e-01 4.360059e-01 1.796291e-01 -1.481309e-01 -1.357346e-01 1.450687e-01 2.206199e-01 -1.117762e-01 -3.059814e-01 7.420537e-02 -1.029320e-02 2.063906e-01 9.387800e-02 1.097618e-01 -5.863092e-02 -2.419364e-01 -1.593469e-01 8.428137e-02 1.087314e-01 -2.241015e-02 -1.130066e-02 5.426790e-02 -1.174287e-01
<VARIANCE> 39
 1.305386e+01 4.191697e+01 2.583298e+01 3.070176e+01 5.338229e+01 4.508382e+01 5.200560e+01 6.911549e+01 3.917358e+01 4.243104e+01 5.228730e+01 4.691509e+01 3.075771e+01 2.018318e-01 5.473325e-01 4.441999e-01 7.289787e-01 1.144016e+00 1.225707e+00 1.295213e+00 1.382411e+00 1.305759e+00 1.191048e+00 1.314103e+00 1.225030e+00 1.758015e-01 5.911196e-02 9.950945e-02 1.039485e-01 1.448152e-01 2.058308e-01 2.275279e-01 2.524664e-01 2.608085e-01 2.523981e-01 2.308477e-01 2.271527e-01 2.166733e-01 3.288652e-02
<GCONST> 9.166494e+01
<STATE> 3
<MEAN> 39
 1.764045e+00 -7.173598e+00 -1.329727e+01 -1.208494e+01 -6.298865e+00 3.793624e-01 2.278348e+00 -5.626883e+00 -1.080455e+00 -8.124189e-01 -4.031500e+00 -7.994237e+00 7.271562e+01 -1.066898e-01 2.824144e-01 3.133630e-01 5.949045e-01 -3.331579e-02 -9.146273e-01 -5.822350e-01 3.369776e-01 4.986682e-01 1.612706e-01 -1.481087e-01 -1.483858e-01 -2.443567e-01 -2.796479e-02 1.937768e-01 1.702724e-01 9.027874e-02 -1.000459e-01 -1.774788e-01 -1.021893e-01 3.754210e-03 -1.588373e-02 -1.675651e-02 8.388354e-02 1.354942e-01 -1.085573e-01
<VARIANCE> 39
 9.261746e+00 4.123829e+01 2.955736e+01 3.768695e+01 5.172060e+01 6.539223e+01 5.671927e+01 7.060105e+01 4.944911e+01 5.387161e+01 6.546477e+01 5.212201e+01 2.750730e+01 2.142202e-01 5.153056e-01 6.337988e-01 8.976797e-01 1.274113e+00 1.503361e+00 1.580883e+00 1.616100e+00 1.654006e+00 1.406597e+00 1.589142e+00 1.366509e+00 1.690710e-01 3.406110e-02 9.354489e-02 1.031795e-01 1.385970e-01 1.803119e-01 2.151953e-01 2.447102e-01 2.728612e-01 2.507960e-01 2.470428e-01 2.428370e-01 2.479425e-01 3.035829e-02
<GCONST> 9.402120e+01
<STATE> 4
<MEAN> 39
 -1.854516e-01 -4.083304e+00 -1.020391e+01 -8.982298e+00 -6.282359e+00 -4.084702e+00 -9.945869e-02 -3.111838e+00 -1.041811e-01 1.001210e+00 -2.477659e+00 -5.970110e+00 6.908450e+01 -5.022241e-01 8.787426e-01 9.285013e-01 1.094429e+00 -5.155842e-02 -7.241460e-01 -6.457228e-01 2.593950e-01 2.288764e-01 -1.451478e-01 2.600549e-01 5.726797e-01 -1.106505e+00 -8.894596e-02 4.573641e-02 1.061114e-01 4.652668e-02 1.180742e-02 1.465324e-01 1.095349e-01 -5.445617e-02 -2.064022e-01 -1.451507e-01 9.209686e-02 1.140555e-01 -1.036163e-01
<VARIANCE> 39
 1.415209e+01 4.296901e+01 3.370301e+01 4.344762e+01 4.580857e+01 6.968810e+01 5.332187e+01 4.981708e+01 5.078972e+01 4.529283e+01 5.235746e+01 4.761727e+01 5.224543e+01 7.337167e-01 1.189415e+00 1.525588e+00 1.692489e+00 2.339012e+00 3.101708e+00 2.931618e+00 2.649945e+00 2.623612e+00 2.426470e+00 2.348393e+00 2.213034e+00 7.885106e-01 9.127655e-02 2.082646e-01 2.301821e-01 2.496903e-01 3.564705e-01 4.656434e-01 4.761155e-01 4.350743e-01 4.497613e-01 4.081421e-01 4.061148e-01 3.889804e-01 1.429711e-01
<GCONST> 1.132786e+02
<TRANSP> 5
 0.000000e+00 1.000000e+00 0.000000e+00 0.000000e+00 0.000000e+00
 0.000000e+00 8.016347e-01 1.983654e-01 0.000000e+00 0.000000e+00
 0.000000e+00 0.000000e+00 7.506489e-01 2.493511e-01 0.000000e+00
 0.000000e+00 0.000000e+00 0.000000e+00 7.271864e-01 2.728136e-01
 0.000000e+00 0.000000e+00 0.000000e+00 0.000000e+00 0.000000e+00
<ENDHMM>
~h "ae"
<BEGINHMM>
<NUMSTATES> 5
<STATE> 2
<MEAN> 39
 1.865631e+00 -7.920019e+00 -1.326537e+01 -1.210765e+01 -8.710091e+00 -1.803844e+00 2.663361e+00 -4.693475e+00 -1.998984e+00 2.173933e-01 -4.108014e-01 -6.996706e+00 7.344482e+01 -2.003662e-01 -3.925335e-01 2.386675e-01 2.218583e-01 1.675975e-01 -3.436311e-01 -6.408189e-01 2.662941e-01 8.045428e-01 2.391890e-01 -4.806840e-01 -5.672603e-01 1.575017e-01 -4.872850e-02 1.229368e-01 1.816547e-01 1.907644e-01 -1.688555e-02 -3.152633e-01 -1.668843e-01 1.131587e-01 7.878882e-02 -7.574585e-02 -6.048403e-02 1.342964e-01 -9.417717e-02
<VARIANCE> 39
 1.268888e+01 4.189477e+01 2.879903e+01 3.720925e+01 5.008091e+01 6.368827e+01 4.899648e+01 5.908966e+01 5.764302e+01 4.546892e+01 6.076796e+01 4.068592e+01 2.803909e+01 2.739686e-01 5.508373e-01 8.398003e-01 1.361128e+00 1.564698e+00 2.812256e+00 2.162939e+00 2.250078e+00 1.886345e+00 1.717905e+00 1.872581e+00 1.641068e+00 2.142319e-01 4.888110e-02 9.888409e-02 1.324654e-01 1.628758e-01 2.587986e-01 2.978556e-01 3.349705e-01 3.213398e-01 3.116001e-01 3.008017e-01 3.172946e-01 2.845963e-01 3.816174e-02
<GCONST> 1.000527e+02
<STATE> 3
<MEAN> 39
 2.456752e-01 -9.792156e+00 -9.716136e+00 -7.045407e+00 -9.686327e+00 -1.053799e+01 -3.255740e+00 -5.844303e-01 5.232982e+00 8.912874e-01 -4.127334e+00 -8.234698e+00 7.409226e+01 -2.271537e-01 5.568213e-01 1.068636e+00 1.085536e+00 -6.442320e-01 -1.765772e+00 -8.173665e-01 4.080915e-01 3.286210e-01 -4.115865e-01 4.371522e-02 8.490292e-01 -4.573795e-01 -1.852936e-02 2.408989e-01 1.424439e-01 3.533669e-03 -1.487339e-02 2.371027e-01 1.527311e-01 -2.790752e-01 -4.437700e-01 -1.247048e-01 2.252600e-01 2.490121e-01 -1.809853e-01
<VARIANCE> 39
 1.187199e+01 3.197270e+01 3.283226e+01 3.510191e+01 5.803877e+01 6.578879e+01 4.758063e+01 5.526731e+01 4.583702e+01 4.861346e+01 5.023116e+01 4.204523e+01 2.577979e+01 4.908487e-01 6.422151e-01 1.142021e+00 1.251001e+00 1.976917e+00 2.130958e+00 2.330141e+00 2.604095e+00 2.626142e+00 1.862022e+00 2.441573e+00 1.686080e+00 2.901280e-01 5.387064e-02 1.138371e-01 1.701978e-01 2.225584e-01 2.944291e-01 3.693053e-01 3.581454e-01 3.450367e-01 3.718007e-01 3.580529e-01 3.403788e-01 3.158859e-01 5.244114e-02
<GCONST> 1.037384e+02
<STATE> 4
<MEAN> 39
 -2.469281e+00 -3.968490e+00 -3.529813e+00 -2.880961e+00 -1.139539e+01 -1.500644e+01 -3.381210e+00 -6.307363e-01 1.566859e+00 -1.064086e+00 -1.914002e+00 -3.691952e+00 6.904421e+01 -3.558673e-01 7.324870e-01 6.273814e-01 5.266817e-01 2.805804e-02 -6.194800e-03 -6.869131e-02 -2.147473e-01 -4.389544e-01 -2.169958e-01 1.676321e-01 4.180187e-01 -8.757147e-01 2.109932e-04 -1.002635e-02 -1.576346e-01 -1.022411e-01 1.346587e-01 2.712115e-01 8.272914e-02 -2.159561e-02 -1.033505e-02 6.544797e-02 8.632710e-03 -8.872002e-02 -6.428070e-02
<VARIANCE> 39
 1.851784e+01 3.456385e+01 4.641452e+01 3.691655e+01 6.455050e+01 6.402498e+01 5.886052e+01 5.380757e+01 4.907772e+01 5.014750e+01 4.039764e+01 4.396618e+01 3.458406e+01 3.631640e-01 7.775138e-01 1.198399e+00 1.146898e+00 1.581149e+00 1.956982e+00 1.667740e+00 1.820918e+00 1.719974e+00 1.804090e+00 1.863260e+00 1.627231e+00 3.824571e-01 4.490758e-02 1.131361e-01 1.666249e-01 1.900768e-01 2.270127e-01 2.979460e-01 2.943263e-01 3.276682e-01 3.172278e-01 3.211148e-01 3.175834e-01 2.909485e-01 5.120306e-02
<GCONST> 1.019759e+02
<TRANSP> 5
 0.000000e+00 1.000000e+00 0.000000e+00 0.000000e+00 0.000000e+00
 0.000000e+00 8.390721e-01 1.609279e-01 0.000000e+00 0.000000e+00
 0.000000e+00 0.000000e+00 6.767412e-01 3.232588e-01 0.000000e+00
 0.000000e+00 0.000000e+00 0.000000e+00 7.921556e-01 2.078443e-01
 0.000000e+00 0.000000e+00 0.000000e+00 0.000000e+00 0.000000e+00
<ENDHMM>
~h "ai"
<BEGINHMM>
<NUMSTATES> 5
<STATE> 2
<MEAN> 39
 3.999357e-01 -7.462419e+00 -9.966444e+00 -8.898952e+00 -8.304917e+00 -8.189642e+00 -3.660205e+00 -6.621723e+00 2.457229e+00 3.161166e+00 -1.598034e+00 -6.428243e+00 7.467645e+01 -5.225819e-01 -5.415641e-01 1.400080e+00 1.886647e+00 -2.678269e-01 -2.714549e+00 -1.658885e+00 1.195745e+00 1.706605e+00 -5.061421e-01 -1.106296e+00 -1.301934e-01 1.657746e-01 -4.807130e-02 5.102642e-01 5.074121e-01 4.897212e-02 -4.782408e-01 -1.906763e-01 4.063045e-01 2.229669e-01 -5.871982e-01 -7.964904e-01 -2.637636e-02 5.918604e-01 -2.803907e-01
<VARIANCE> 39
 1.211080e+01 4.506256e+01 4.252513e+01 5.379000e+01 4.817587e+01 8.605503e+01 5.562318e+01 6.904456e+01 4.479513e+01 6.602502e+01 7.001564e+01 5.710220e+01 2.414670e+01 4.492608e-01 1.176997e+00 1.862845e+00 2.172046e+00 2.261206e+00 3.561500e+00 3.334409e+00 3.452308e+00 3.186093e+00 4.222620e+00 2.594378e+00 2.851724e+00 3.852833e-01 8.127531e-02 1.984932e-01 2.924862e-01 3.667632e-01 3.869930e-01 7.030452e-01 6.564798e-01 7.385598e-01 7.709180e-01 7.636360e-01 8.570439e-01 4.725691e-01 6.377079e-02
<GCONST> 1.181333e+02
<STATE> 3
<MEAN> 39
 -1.196038e+00 -6.328941e+00 -3.570300e+00 -3.634526e+00 -1.262378e+01 -1.661325e+01 -6.064729e+00 -3.326943e+00 3.298998e+00 -2.844587e+00 -2.819540e+00 -2.501134e+00 7.405446e+01 -5.045425e-01 7.270804e-01 1.948280e+00 1.133631e+00 -1.230839e+00 -1.436738e+00 8.415674e-02 2.882104e-02 -1.092103e+00 -1.287053e+00 4.919447e-01 1.099995e+00 -4.058629e-01 5.505237e-02 2.667523e-01 -1.611877e-01 -2.765371e-01 1.439194e-01 6.786473e-01 2.917922e-01 -4.700530e-01 -5.008012e-01 2.577654e-01 2.803617e-01 -1.582736e-01 -1.822889e-01
<VARIANCE> 39
 1.359215e+01 4.106778e+01 5.813510e+01 6.186241e+01 5.931908e+01 7.873379e+01 4.814344e+01 6.099557e+01 5.478722e+01 5.873209e+01 5.047149e+01 5.337383e+01 2.151147e+01 3.192972e-01 8.149524e-01 1.590161e+00 1.306858e+00 1.937935e+00 2.314106e+00 2.347422e+00 3.465686e+00 3.117306e+00 3.033418e+00 3.526561e+00 1.866925e+00 3.146504e-01 5.352774e-02 1.253516e-01 2.084525e-01 2.506652e-01 3.257324e-01 4.949208e-01 4.148784e-01 4.944802e-01 5.251217e-01 5.210262e-01 5.171335e-01 3.983786e-01 4.073195e-02
<GCONST> 1.101829e+02
<STATE> 4
<MEAN> 39
 -3.275062e+00 -7.844930e-01 3.120376e+00 -1.029255e+00 -1.443009e+01 -1.758802e+01 -5.081902e+00 -6.440253e+00 -3.570128e+00 -5.041897e+00 -1.106024e+00 -1.604771e+00 7.011485e+01 -2.195317e-01 5.893760e-01 2.622300e-01 2.985127e-01 4.020596e-01 4.857363e-01 1.224452e-01 -9.325850e-02 -2.983837e-01 1.098725e-01 -9.003422e-02 -2.399199e-01 -7.652490e-01 4.832679e-02 -7.505581e-02 -2.969735e-01 -1.165295e-01 2.885343e-01 2.600293e-01 -5.665332e-02 1.038982e-01 2.236234e-01 2.210098e-01 -4.178838e-02 -8.560970e-02 -7.100960e-02
<VARIANCE> 39
 1.592305e+01 4.565936e+01 6.430551e+01 5.582045e+01 6.496187e+01 6.316647e+01 4.928428e+01 5.968196e+01 6.200389e+01 4.929243e+01 4.250873e+01 4.535250e+01 2.491160e+01 3.393418e-01 8.986872e-01 1.596866e+00 1.223139e+00 1.932175e+00 2.001647e+00 1.714474e+00 2.189474e+00 2.442777e+00 2.032198e+00 1.977329e+00 1.552288e+00 5.582008e-01 5.451359e-02 1.147793e-01 1.930433e-01 1.843949e-01 2.890480e-01 3.145138e-01 3.330499e-01 3.859338e-01 3.871284e-01 3.572178e-01 3.749168e-01 2.921348e-01 5.512485e-02
<GCONST> 1.059135e+02
<TRANSP> 5
 0.000000e+00 1.000000e+00 0.000000e+00 0.000000e+00 0.000000e+00
 0.000000e+00 6.420364e-01 3.579637e-01 0.000000e+00 0.000000e+00
 0.000000e+00 0.000000e+00 6.272725e-01 3.727275e-01 0.000000e+00
 0.000000e+00 0.000000e+00 0.000000e+00 7.967362e-01 2.032637e-01
 0.000000e+00 0.000000e+00 0.000000e+00 0.000000e+00 0.000000e+00
<ENDHMM>
~h "ao"
<BEGINHMM>
<NUMSTATES> 5
<STATE> 2
<MEAN> 39
 1.547507e+00 -6.343643e+00 -1.230804e+01 -1.955705e+01 -1.216906e+01 3.311485e+00 5.053136e+00 -4.207643e+00 -4.049716e+00 -6.072480e+00 -2.998106e+00 -4.091371e+00 7.488950e+01 1.075225e-01 2.149038e-01 3.591913e-02 -2.624908e-01 -4.610361e-01 -3.562295e-02 1.154239e-01 7.092477e-02 4.260453e-02 4.699992e-02 -2.918192e-02 9.955761e-02 -2.104496e-01 -7.429340e-03 1.474955e-01 5.935796e-02 2.965163e-02 -3.104055e-02 -1.346739e-01 -3.549805e-02 -7.788129e-03 -1.179664e-03 3.513154e-02 -6.383162e-02 -4.564201e-04 -9.411583e-02
<VARIANCE> 39
 9.477390e+00 2.925325e+01 3.695203e+01 2.176962e+01 7.191156e+01 9.202673e+01 6.016697e+01 1.037344e+02 4.646722e+01 5.278836e+01 3.900371e+01 4.227626e+01 2.303071e+01 2.681240e-01 7.868449e-01 4.436453e-01 6.852145e-01 1.141086e+00 1.199524e+00 1.130908e+00 1.332473e+00 1.519041e+00 1.302350e+00 1.334117e+00 1.106612e+00 3.786719e-01 5.477199e-02 7.898232e-02 8.694586e-02 1.211125e-01 2.188838e-01 2.239971e-01 2.024684e-01 2.222238e-01 2.845926e-01 2.419092e-01 2.092432e-01 1.900746e-01 3.715590e-02
<GCONST> 9.265008e+01
<STATE> 3
<MEAN> 39
 3.820501e+00 2.127387e+00 -8.769492e+00 -2.123292e+01 -1.931003e+01 -1.233928e+00 6.081839e+00 -1.831071e+00 -3.087590e+00 -2.059645e+00 -4.907986e+00 -3.072660e+00 6.987888e+01 -2.684440e-02 7.706322e-01 2.933692e-01 1.995951e-01 -3.903857e-01 -6.611978e-01 -3.908896e-01 1.818209e-01 6.800155e-02 6.377296e-02 -1.278433e-01 -3.512447e-02 -5.425564e-01 -4.287405e-02 -5.446747e-03 7.961328e-03 1.010272e-01 8.856465e-02 -2.103004e-02 -7.601298e-02 -1.089844e-02 2.082068e-02 -3.292498e-02 2.532615e-02 -1.681556e-02 -2.731501e-02
<VARIANCE> 39
 6.773963e+00 2.663663e+01 5.780462e+01 2.422835e+01 7.546440e+01 5.787820e+01 4.513209e+01 5.695749e+01 5.939491e+01 4.822562e+01 3.575973e+01 3.626955e+01 1.509996e+01 1.109024e-01 4.712079e-01 5.071747e-01 5.994422e-01 8.260460e-01 1.022578e+00 1.056745e+00 1.147086e+00 1.147204e+00 1.088795e+00 1.014750e+00 9.055326e-01 1.572886e-01 1.969040e-02 6.188443e-02 7.979380e-02 9.208812e-02 1.407406e-01 1.631872e-01 1.729451e-01 1.844737e-01 1.837628e-01 1.905149e-01 1.710449e-01 1.477578e-01 1.399166e-02
<GCONST> 8.222162e+01
<STATE> 4
<MEAN> 39
 -1.923992e+00 6.077141e+00 -6.146016e+00 -1.144367e+01 -1.326995e+01 -6.316474e+00 -3.576972e-01 5.541509e-01 -2.220996e+00 -2.111592e+00 -3.893757e+00 -2.610666e+00 6.064660e+01 -5.832060e-01 -1.683990e-01 1.464869e-01 8.169428e-01 8.359621e-01 1.555031e-01 -2.195505e-01 9.089722e-02 1.585783e-01 8.911543e-02 1.706208e-01 1.798505e-01 -5.788323e-01 -1.971168e-02 -8.159617e-02 -1.475151e-02 -1.262932e-02 4.211581e-02 7.146272e-02 4.318839e-02 -6.279328e-03 1.775073e-02 3.344303e-02 3.968341e-02 4.647289e-02 3.047193e-02
<VARIANCE> 39
 1.670874e+01 2.862888e+01 2.949051e+01 3.462222e+01 6.769590e+01 3.556894e+01 3.520386e+01 2.821724e+01 3.471047e+01 3.791492e+01 2.366194e+01 2.580764e+01 2.740388e+01 2.871212e-01 5.425845e-01 6.616061e-01 1.077108e+00 1.231893e+00 1.489197e+00 1.398332e+00 1.461606e+00 1.784868e+00 1.561638e+00 1.496396e+00 1.353885e+00 2.119182e-01 3.845504e-02 7.932370e-02 1.010545e-01 1.596331e-01 1.919591e-01 2.249280e-01 2.243623e-01 2.565675e-01 3.156110e-01 2.866417e-01 2.733355e-01 2.425355e-01 1.885906e-02
<GCONST> 9.067047e+01
<TRANSP> 5
 0.000000e+00 1.000000e+00 0.000000e+00 0.000000e+00 0.000000e+00
 0.000000e+00 8.932412e-01 1.067589e-01 0.000000e+00 0.000000e+00
 0.000000e+00 0.000000e+00 9.041750e-01 9.582498e-02 0.000000e+00
 0.000000e+00 0.000000e+00 0.000000e+00 9.331622e-01 6.683789e-02
 0.000000e+00 0.000000e+00 0.000000e+00 0.000000e+00 0.000000e+00
<ENDHMM>
~h "au"
<BEGINHMM>
<NUMSTATES> 5
<STATE> 2
<MEAN> 39
 1.137532e+00 -6.348220e+00 -1.070111e+01 -1.111209e+01 -1.064675e+01 -7.569796e+00 -3.501594e+00 -4.893813e+00 -1.166909e-01 2.004868e+00 2.399124e-01 -5.953356e+00 7.427344e+01 5.882831e-02 4.022693e-01 1.879323e-01 3.351038e-01 -4.060577e-01 -4.600911e-01 -4.668861e-01 -5.131311e-01 -2.049842e-02 5.097982e-02 4.515626e-01 3.041919e-01 -2.648780e-01 -8.447539e-02 3.544808e-01 1.856875e-01 1.847070e-01 1.462164e-01 -2.527886e-02 -1.116526e-01 -2.145919e-01 -2.164799e-01 -2.618093e-01 -2.844864e-02 1.499374e-01 -2.515274e-01
<VARIANCE> 39
 9.606153e+00 3.035011e+01 2.636654e+01 4.103904e+01 4.428690e+01 5.351222e+01 6.432294e+01 5.156861e+01 5.085856e+01 5.648403e+01 5.590491e+01 6.289213e+01 2.622823e+01 3.047986e-01 1.046320e+00 7.597619e-01 1.081201e+00 1.419752e+00 2.235821e+00 2.230628e+00 2.664658e+00 2.521106e+00 1.975316e+00 1.806271e+00 1.349282e+00 3.892871e-01 1.092629e-01 1.267322e-01 1.657892e-01 1.981055e-01 2.663798e-01 3.785498e-01 4.096083e-01 3.862957e-01 4.348551e-01 3.795677e-01 3.479869e-01 2.851635e-01 5.424910e-02
<GCONST> 1.039026e+02
<STATE> 3
<MEAN> 39
 2.208462e+00 -3.684536e-01 -8.197814e+00 -8.605597e+00 -1.201276e+01 -9.090078e+00 -5.557588e+00 -9.503798e+00 -2.349347e+00 1.742093e-01 1.642989e+00 -2.530056e+00 7.072759e+01 6.862187e-02 1.182889e+00 5.928121e-01 5.888693e-01 2.839090e-02 -1.178675e-01 -2.610052e-01 -4.740963e-01 -8.619919e-01 -8.970782e-01 -1.105957e-01 4.700142e-01 -8.016570e-01 -2.536478e-02 3.033031e-02 6.711775e-02 5.615279e-02 1.343818e-01 1.193079e-01 5.362688e-02 1.883058e-01 -5.279420e-02 -9.173987e-02 -1.331260e-01 -8.288962e-02 -8.775876e-02
<VARIANCE> 39
 7.633042e+00 3.641430e+01 2.605120e+01 4.616183e+01 4.948864e+01 6.642019e+01 8.318389e+01 7.084410e+01 6.865189e+01 6.401575e+01 5.100177e+01 5.860431e+01 1.747573e+01 1.893016e-01 6.454753e-01 6.767508e-01 1.091808e+00 1.325771e+00 2.170740e+00 1.879271e+00 2.568318e+00 2.174675e+00 2.421981e+00 2.113034e+00 1.824281e+00 2.703904e-01 3.249085e-02 9.082842e-02 1.075069e-01 1.751710e-01 2.296106e-01 3.092989e-01 3.277191e-01 4.274860e-01 4.182192e-01 3.899672e-01 3.227608e-01 2.926862e-01 2.634178e-02
<GCONST> 1.001395e+02
<STATE> 4
<MEAN> 39
 3.542082e-01 6.439155e+00 -3.267735e+00 -3.537159e+00 -8.456914e+00 -7.948099e+00 -5.984288e+00 -8.963862e+00 -6.610888e+00 -5.112237e+00 -8.557180e-01 -1.582458e+00 6.419170e+01 -3.166746e-01 3.502247e-01 3.893213e-01 4.957028e-01 5.231838e-01 2.840080e-01 1.266211e-01 3.542625e-01 -1.403855e-01 -3.321105e-01 -3.623663e-01 -6.185138e-02 -6.789802e-01 -4.576244e-02 -1.398333e-01 -7.050057e-02 -6.023186e-02 3.117751e-02 4.007098e-02 5.036033e-02 5.652621e-02 1.055354e-01 1.152553e-01 4.587880e-02 3.285921e-03 4.498460e-02
<VARIANCE> 39
 1.132246e+01 3.633231e+01 2.516383e+01 3.694273e+01 4.564632e+01 4.606948e+01 6.586651e+01 4.667673e+01 4.782080e+01 4.675072e+01 3.460635e+01 3.235825e+01 2.549337e+01 2.743669e-01 7.581978e-01 7.051459e-01 1.023248e+00 1.329836e+00 1.434017e+00 1.731032e+00 1.834245e+00 1.961480e+00 1.830252e+00 1.559215e+00 1.480757e+00 2.684854e-01 3.737688e-02 8.643155e-02 1.084798e-01 1.562552e-01 2.163476e-01 2.295114e-01 2.664357e-01 3.098214e-01 3.066808e-01 3.065009e-01 2.439278e-01 2.474786e-01 2.499969e-02
<GCONST> 9.471912e+01
<TRANSP> 5
 0.000000e+00 1.000000e+00 0.000000e+00 0.000000e+00 0.000000e+00
 0.000000e+00 7.308598e-01 2.691402e-01 0.000000e+00 0.000000e+00
 0.000000e+00 0.000000e+00 7.821187e-01 2.178813e-01 0.000000e+00
 0.000000e+00 0.000000e+00 0.000000e+00 8.530669e-01 1.469331e-01
 0.000000e+00 0.000000e+00 0.000000e+00 0.000000e+00 0.000000e+00
<ENDHMM>
~h "ee"
<BEGINHMM>
<NUMSTATES> 5
<STATE> 2
<MEAN> 39
 -4.202213e+00 -1.380133e+00 6.488050e+00 -4.105663e+00 -2.041917e+01 -1.998011e+01 -4.976665e+00 -9.285110e+00 -7.434181e+00 -5.268875e+00 2.403259e+00 -2.614805e+00 7.489794e+01 -4.213559e-03 -6.795891e-02 -2.251780e-02 -3.380389e-02 -1.287787e-02 -1.058292e-02 1.532306e-02 8.015984e-02 5.205398e-02 -2.345886e-02 4.158109e-02 -3.376858e-03 -9.802651e-02 -5.521672e-03 3.447930e-02 -2.498331e-02 1.467372e-02 5.781471e-02 4.061235e-02 1.475431e-02 2.993500e-02 1.828641e-02 -1.208543e-02 -4.849910e-02 -1.123881e-02 -5.157560e-02
<VARIANCE> 39
 7.802834e+00 2.339376e+01 4.047776e+01 5.546746e+01 5.936773e+01 7.294460e+01 4.263250e+01 3.500212e+01 2.764671e+01 4.282239e+01 4.525997e+01 6.737856e+01 1.748108e+01 9.440105e-02 3.118216e-01 3.621152e-01 4.852322e-01 6.459056e-01 6.543376e-01 6.913221e-01 7.335044e-01 6.616188e-01 6.982669e-01 7.532082e-01 6.116008e-01 1.211926e-01 2.053959e-02 5.315322e-02 6.703136e-02 8.916095e-02 1.354773e-01 1.330445e-01 1.404951e-01 1.386789e-01 1.297076e-01 1.391302e-01 1.414039e-01 1.143241e-01 2.046539e-02
<GCONST> 7.585741e+01
<STATE> 3
<MEAN> 39
 -3.073458e+00 -2.034079e+00 4.964493e+00 -2.718212e+00 -2.036099e+01 -1.960807e+01 -4.827968e+00 -7.075400e+00 -3.332382e+00 -6.969934e+00 -6.859499e-01 -2.288779e+00 7.223662e+01 1.954344e-01 3.717280e-01 -3.459367e-01 2.474781e-01 4.365328e-01 3.467312e-01 1.916206e-02 2.227858e-01 1.642582e-01 -1.565988e-01 -5.598668e-01 -2.431946e-01 -7.388942e-01 -5.641435e-03 1.267266e-01 -3.816761e-02 8.414428e-02 2.110140e-01 6.836077e-02 -1.642846e-02 2.215208e-03 -1.010788e-01 1.594913e-03 -3.870252e-02 -3.409631e-02 -1.342526e-01
<VARIANCE> 39
 8.995491e+00 2.019477e+01 3.832963e+01 4.703637e+01 7.183591e+01 6.632282e+01 3.894162e+01 4.622576e+01 6.492603e+01 4.547871e+01 4.950905e+01 5.145837e+01 1.470820e+01 2.737545e-01 6.834052e-01 6.569915e-01 1.218863e+00 1.622787e+00 1.203858e+00 1.838462e+00 1.333902e+00 2.005095e+00 1.763701e+00 1.970829e+00 1.511475e+00 3.266700e-01 4.433978e-02 1.216588e-01 1.197542e-01 2.046623e-01 2.518574e-01 2.111053e-01 3.324420e-01 2.731220e-01 3.727591e-01 3.214554e-01 3.011087e-01 2.821169e-01 5.436138e-02
<GCONST> 9.800298e+01
<STATE> 4
<MEAN> 39
 -5.309004e+00 7.839267e-01 2.074389e+00 -1.006580e+00 -1.220557e+01 -1.417459e+01 -3.512858e+00 -4.177361e+00 -5.496132e+00 -4.707052e+00 -1.684338e+00 -1.376548e+00 6.369068e+01 -2.797325e-01 1.278058e-01 -5.452097e-01 2.429196e-01 1.046503e+00 9.058535e-01 1.109550e-01 4.486252e-01 2.415102e-01 2.492928e-01 -7.151216e-02 2.978067e-01 -9.435768e-01 -1.878156e-02 -5.813988e-02 -2.580385e-02 -4.705704e-02 1.572784e-02 3.091174e-02 -1.533949e-02 -3.147134e-03 2.834593e-02 3.914114e-02 1.092084e-01 1.512919e-02 5.251959e-02
<VARIANCE> 39
 1.517473e+01 2.474425e+01 2.790967e+01 3.278012e+01 4.911619e+01 7.641400e+01 3.737012e+01 3.640448e+01 4.454251e+01 5.193811e+01 3.432100e+01 5.398835e+01 2.761183e+01 3.121337e-01 7.817847e-01 7.142799e-01 9.851561e-01 1.521219e+00 1.697296e+00 1.610221e+00 1.860205e+00 2.025770e+00 2.017258e+00 1.879958e+00 1.804448e+00 4.485185e-01 3.959166e-02 1.173933e-01 1.161485e-01 1.572112e-01 2.180856e-01 2.482225e-01 2.770566e-01 3.248637e-01 3.901417e-01 3.548946e-01 3.225391e-01 3.220985e-01 4.447379e-02
<GCONST> 9.851743e+01
<TRANSP> 5
 0.000000e+00 1.000000e+00 0.000000e+00 0.000000e+00 0.000000e+00
 0.000000e+00 9.373965e-01 6.260346e-02 0.000000e+00 0.000000e+00
 0.000000e+00 0.000000e+00 7.891783e-01 2.108217e-01 0.000000e+00
 0.000000e+00 0.000000e+00 0.000000e+00 8.580046e-01 1.419955e-01
 0.000000e+00 0.000000e+00 0.000000e+00 0.000000e+00 0.000000e+00
<ENDHMM>
~h "ei"
<BEGINHMM>
<NUMSTATES> 5
<STATE> 2
<MEAN> 39
 -3.121507e+00 -6.269654e+00 7.450089e-01 -5.878973e+00 -1.775206e+01 -1.968454e+01 -4.428241e+00 -9.463314e-01 -2.544185e+00 -6.834284e+00 -2.476946e-01 -3.267037e+00 7.556564e+01 -1.019039e-01 4.399667e-01 6.883796e-01 2.119939e-01 -4.458881e-01 -1.926869e-01 2.464193e-02 -6.190073e-01 -5.839623e-01 -6.483300e-02 4.442909e-01 6.858632e-02 -2.810100e-01 -9.289234e-05 1.341176e-01 2.850031e-02 8.007487e-02 7.860598e-02 8.273942e-02 2.766890e-03 -1.353600e-01 -6.309956e-02 1.132551e-02 -4.633827e-02 -6.478691e-02 -1.030993e-01
<VARIANCE> 39
 7.572978e+00 2.540661e+01 4.568139e+01 4.583818e+01 6.566582e+01 8.621600e+01 4.063647e+01 6.249926e+01 5.640142e+01 4.961335e+01 4.489105e+01 4.556544e+01 1.799739e+01 1.552291e-01 5.048648e-01 6.225837e-01 8.148822e-01 9.694883e-01 1.042568e+00 1.190775e+00 1.690360e+00 1.202483e+00 1.396430e+00 1.186924e+00 1.054955e+00 2.116726e-01 2.963657e-02 7.165818e-02 1.031857e-01 1.468677e-01 1.650455e-01 1.788158e-01 2.222933e-01 2.439246e-01 1.959101e-01 2.129087e-01 1.985261e-01 1.879197e-01 2.941326e-02
<GCONST> 8.941753e+01
<STATE> 3
<MEAN> 39
 -4.382253e+00 2.320896e+00 9.261643e+00 -2.150674e+00 -1.855911e+01 -1.639945e+01 -3.283335e+00 -9.878259e+00 -8.977817e+00 -4.144410e+00 1.052160e+00 -3.345741e+00 7.048311e+01 -1.501864e-01 6.902431e-01 3.878002e-01 2.828580e-01 3.587018e-01 6.358263e-01 6.289945e-02 -4.235516e-01 -3.349062e-01 -3.919436e-02 -2.977577e-01 -2.731850e-01 -6.682979e-01 -1.072691e-03 -3.202012e-02 -9.403871e-02 -1.186348e-03 1.192233e-01 3.177905e-02 8.636670e-03 1.137754e-01 7.212538e-02 -2.936966e-02 -3.885120e-02 2.573980e-02 -3.074080e-02
<VARIANCE> 39
 9.866977e+00 2.486637e+01 3.821570e+01 5.170395e+01 6.331416e+01 8.305316e+01 3.530192e+01 3.637241e+01 3.791746e+01 5.105947e+01 3.588709e+01 4.514639e+01 1.845047e+01 1.278419e-01 3.703136e-01 5.628898e-01 7.041240e-01 7.958229e-01 9.703927e-01 9.511967e-01 1.267488e+00 1.041677e+00 9.263622e-01 1.022323e+00 8.342082e-01 1.547079e-01 2.096983e-02 4.932034e-02 8.484192e-02 1.119031e-01 1.390266e-01 1.703126e-01 1.688863e-01 2.169134e-01 1.621984e-01 1.687908e-01 1.635259e-01 1.444032e-01 1.327176e-02
<GCONST> 8.201224e+01
<STATE> 4
<MEAN> 39
 -7.021522e+00 4.931892e+00 6.137274e+00 1.100447e+00 -1.041947e+01 -8.313478e+00 -1.618977e+00 -8.032904e+00 -7.822577e+00 -5.520367e+00 -2.035982e+00 -3.650758e+00 6.160509e+01 -2.703846e-01 -1.974925e-01 -7.128559e-01 1.144016e-01 9.232169e-01 6.870348e-01 1.898861e-01 5.671064e-01 2.741534e-01 2.253710e-01 -8.616410e-03 3.036166e-01 -7.526655e-01 -2.373199e-02 -9.977217e-02 -6.824694e-02 -5.289039e-02 -2.937021e-02 -7.687332e-04 3.134657e-02 8.277163e-02 7.237662e-02 7.283406e-02 5.464555e-02 3.062658e-02 2.508848e-02
<VARIANCE> 39
 1.037932e+01 2.734703e+01 5.036143e+01 3.099662e+01 6.190552e+01 5.078850e+01 4.180725e+01 4.116187e+01 3.587166e+01 3.801222e+01 2.437301e+01 3.041149e+01 2.534844e+01 2.543025e-01 6.792060e-01 8.839108e-01 9.543954e-01 1.615710e+00 1.460087e+00 1.605422e+00 2.048535e+00 1.398944e+00 1.727316e+00 1.589226e+00 1.336269e+00 3.051130e-01 4.365439e-02 9.911315e-02 1.416801e-01 1.434322e-01 2.631285e-01 2.527037e-01 3.091385e-01 3.435292e-01 2.414614e-01 2.834678e-01 2.671577e-01 2.413135e-01 3.281449e-02
<GCONST> 9.468017e+01
<TRANSP> 5
 0.000000e+00 1.000000e+00 0.000000e+00 0.000000e+00 0.000000e+00
 0.000000e+00 8.949258e-01 1.050742e-01 0.000000e+00 0.000000e+00
 0.000000e+00 0.000000e+00 8.979416e-01 1.020584e-01 0.000000e+00
 0.000000e+00 0.000000e+00 0.000000e+00 9.123985e-01 8.760159e-02
 0.000000e+00 0.000000e+00 0.000000e+00 0.000000e+00 0.000000e+00
<ENDHMM>
~h "ii"
<BEGINHMM>
<NUMSTATES> 5
<STATE> 2
<MEAN> 39
 -5.779786e+00 -8.424789e-02 8.368000e+00 6.615158e-01 -1.920667e+01 -1.601242e+01 -4.193705e+00 -1.132630e+01 -8.508397e+00 -1.046006e+01 -2.464697e-03 -4.631330e+00 7.195232e+01 9.023113e-01 -2.420142e-01 -6.646168e-01 2.029233e-01 -4.793751e-02 -7.858467e-02 -3.948863e-01 2.251158e-02 6.774189e-02 1.252883e-01 -2.083471e-02 2.774888e-01 -3.105478e-01 -2.425400e-01 1.135635e-01 -3.055105e-01 -2.382085e-01 7.425343e-01 5.449384e-01 8.770652e-02 2.482833e-01 7.194904e-02 2.178979e-01 -8.864383e-02 6.524264e-02 -2.752423e-01
<VARIANCE> 39
 1.214567e+01 3.341513e+01 4.892960e+01 5.114709e+01 6.490914e+01 5.099282e+01 5.797229e+01 4.526122e+01 3.929678e+01 4.434711e+01 3.944322e+01 3.754769e+01 2.107929e+01 1.083851e+00 1.027493e+00 2.374158e+00 1.471519e+00 3.867741e+00 2.992669e+00 2.692449e+00 2.387991e+00 1.912795e+00 2.000602e+00 2.048259e+00 1.610342e+00 6.406105e-01 2.252554e-01 2.703831e-01 3.354328e-01 3.602774e-01 5.259613e-01 6.753794e-01 6.037758e-01 5.336332e-01 5.123165e-01 4.149562e-01 3.664277e-01 3.812855e-01 8.512308e-02
<GCONST> 1.139963e+02
<STATE> 3
<MEAN> 39
 -1.777607e+00 2.461935e+00 3.372785e+00 -3.917661e-01 -1.205578e+01 -1.138239e+01 -5.949307e+00 -9.532900e+00 -9.087314e+00 -8.168561e+00 -1.799742e+00 -3.444090e+00 6.704486e+01 4.835562e-01 8.953720e-01 -5.709817e-01 -7.419128e-01 1.501859e+00 1.523397e+00 4.440823e-01 5.747184e-02 -9.380882e-01 1.023247e-01 -7.527831e-02 2.169143e-01 -1.023189e+00 -2.686270e-01 -3.869928e-02 2.045786e-01 8.143222e-02 -2.367395e-01 -8.049911e-02 3.698260e-01 -5.318550e-02 -2.664103e-02 -1.567195e-01 3.706199e-02 1.854339e-03 1.337300e-01
<VARIANCE> 39
 1.393377e+01 2.932747e+01 5.303715e+01 4.103551e+01 4.758771e+01 5.939980e+01 4.580908e+01 4.220475e+01 3.548883e+01 3.819178e+01 2.698319e+01 3.311621e+01 3.003434e+01 5.754855e-01 9.525201e-01 1.413358e+00 1.676801e+00 2.412144e+00 2.884063e+00 2.997756e+00 2.166313e+00 1.998652e+00 2.260523e+00 1.715020e+00 1.405327e+00 6.833529e-01 8.685639e-02 1.931502e-01 2.431140e-01 2.622877e-01 3.800527e-01 4.415441e-01 3.896568e-01 3.998291e-01 4.057280e-01 3.386451e-01 2.879407e-01 2.496340e-01 1.064282e-01
<GCONST> 1.070357e+02
<STATE> 4
<MEAN> 39
 -5.784051e+00 6.234945e+00 9.029418e+00 -1.201058e+00 -1.004358e+01 -1.107645e+01 -2.462730e+00 -1.065873e+01 -9.854808e+00 -5.860962e+00 -2.969893e+00 -4.234833e+00 6.648515e+01 -5.519556e-02 -1.220718e-02 -3.324213e-01 1.172225e-01 3.581497e-01 3.085079e-01 1.566404e-01 2.097665e-01 1.079055e-01 3.720269e-02 -3.587740e-02 1.126207e-01 -4.088956e-01 -1.060054e-02 -7.327821e-02 -6.587064e-02 -1.798636e-02 -2.691052e-02 -3.082608e-04 -8.205940e-03 3.338351e-02 6.245166e-02 3.240036e-02 4.535369e-03 9.520484e-03 2.737534e-02
<VARIANCE> 39
 2.080138e+01 2.245594e+01 6.863352e+01 5.091576e+01 5.477351e+01 6.124139e+01 5.651973e+01 3.953976e+01 2.878574e+01 3.060891e+01 3.710262e+01 3.666594e+01 3.287250e+01 2.113268e-01 4.805417e-01 7.331088e-01 6.879395e-01 9.544082e-01 1.008303e+00 1.108341e+00 1.105677e+00 1.201751e+00 1.202253e+00 1.246423e+00 1.065697e+00 2.121327e-01 3.276538e-02 7.766854e-02 1.066780e-01 1.196385e-01 1.704910e-01 1.835301e-01 2.049947e-01 1.932642e-01 2.212144e-01 2.215914e-01 2.269345e-01 1.969809e-01 3.709619e-02
<GCONST> 8.915121e+01
<TRANSP> 5
 0.000000e+00 1.000000e+00 0.000000e+00 0.000000e+00 0.000000e+00
 0.000000e+00 7.390068e-01 2.609932e-01 0.000000e+00 0.000000e+00
 0.000000e+00 0.000000e+00 5.564416e-01 4.435584e-01 0.000000e+00
 0.000000e+00 0.000000e+00 0.000000e+00 8.988666e-01 1.011334e-01
 0.000000e+00 0.000000e+00 0.000000e+00 0.000000e+00 0.000000e+00
<ENDHMM>
~h "oe"
<BEGINHMM>
<NUMSTATES> 5
<STATE> 2
<MEAN> 39
 1.803533e+00 -1.152733e+00 -7.901625e+00 -1.348239e+01 -1.388675e+01 -9.331071e+00 -6.596503e+00 -1.279353e+01 -3.856065e+00 -3.866722e-01 1.690158e+00 5.622353e-01 7.264084e+01 -4.444267e-01 -1.217202e+00 3.489172e-01 1.639074e+00 7.919314e-01 -1.343797e+00 -1.608420e+00 1.759893e-01 1.203578e+00 5.509223e-01 1.663338e-01 -3.972540e-01 4.463778e-01 -1.281701e-01 9.051151e-02 3.184991e-01 2.523453e-01 -1.148851e-01 -2.950565e-01 8.113125e-02 4.090570e-01 1.031439e-01 -3.034583e-01 -2.774020e-01 -4.748058e-02 -1.270030e-01
<VARIANCE> 39
 1.022536e+01 3.665318e+01 4.316945e+01 5.503895e+01 6.192570e+01 6.043725e+01 7.308135e+01 5.059393e+01 5.858055e+01 5.747782e+01 5.317368e+01 4.981905e+01 1.985448e+01 2.977656e-01 1.128703e+00 1.683440e+00 2.453795e+00 2.806894e+00 3.802613e+00 3.920237e+00 4.161634e+00 4.275344e+00 4.143013e+00 4.527733e+00 3.350056e+00 3.977620e-01 6.870423e-02 2.094022e-01 1.721104e-01 4.139778e-01 6.372387e-01 5.641359e-01 1.077096e+00 6.487569e-01 1.017744e+00 9.117268e-01 7.633895e-01 7.853649e-01 5.374645e-02
<GCONST> 1.191970e+02
<STATE> 3
<MEAN> 39
 -1.709739e+00 -4.891714e+00 -1.035570e+00 -3.227592e+00 -1.425656e+01 -2.023658e+01 -1.075403e+01 -5.551660e+00 2.741655e-01 -3.945183e+00 -1.123519e+00 -4.155970e-01 7.241801e+01 -4.077947e-01 5.482807e-01 9.370355e-01 7.180204e-01 -2.065227e-01 -5.731614e-01 5.876179e-01 8.354052e-01 -6.254187e-01 -9.230335e-01 1.347563e-02 4.864515e-01 -8.733120e-01 2.949369e-02 2.259634e-01 -2.683369e-01 -2.341570e-01 2.219263e-01 5.048677e-01 9.846322e-02 -3.170012e-01 -1.597746e-01 3.586623e-01 2.792680e-01 -2.985603e-02 -2.318880e-01
<VARIANCE> 39
 1.171140e+01 2.606339e+01 5.553904e+01 4.485192e+01 5.957608e+01 5.654663e+01 3.823717e+01 4.040780e+01 4.025002e+01 5.541972e+01 3.953392e+01 3.267527e+01 2.256205e+01 4.291465e-01 1.014286e+00 1.636619e+00 1.489087e+00 2.462965e+00 3.294173e+00 2.477376e+00 2.909094e+00 2.436388e+00 2.850586e+00 2.404663e+00 1.840541e+00 1.099978e+00 7.374630e-02 1.604479e-01 2.295082e-01 2.575714e-01 3.639908e-01 4.564750e-01 4.545078e-01 4.280697e-01 5.431175e-01 4.707910e-01 3.826175e-01 3.452529e-01 8.586590e-02
<GCONST> 1.097824e+02
<STATE> 4
<MEAN> 39
 -5.039974e+00 5.031041e-01 2.508058e-01 -4.747999e-01 -1.075301e+01 -1.557622e+01 -5.717192e+00 -3.403455e+00 -2.921399e+00 -3.958295e+00 8.013900e-01 3.156948e-01 6.358621e+01 -4.531616e-01 2.307422e-01 -1.689288e-01 1.421325e-01 5.183282e-01 8.799705e-01 3.724070e-01 1.326238e-01 6.966710e-02 2.988556e-01 4.767478e-02 7.200327e-02 -8.802599e-01 -1.496619e-02 -1.008360e-01 -4.734262e-02 -5.944970e-02 4.224352e-02 5.535469e-02 -1.168588e-02 1.745532e-02 7.539804e-02 1.169335e-03 -4.988604e-02 -1.683483e-02 9.900633e-02
<VARIANCE> 39
 1.608897e+01 2.243396e+01 2.992815e+01 3.115406e+01 5.191954e+01 5.513170e+01 4.540958e+01 4.274923e+01 3.720949e+01 4.051395e+01 2.787791e+01 2.698219e+01 4.736240e+01 3.272622e-01 6.826057e-01 8.597013e-01 9.211873e-01 1.395860e+00 1.827340e+00 1.440607e+00 1.470280e+00 1.477177e+00 1.583954e+00 1.462694e+00 1.379406e+00 5.326363e-01 5.437236e-02 1.100521e-01 1.340219e-01 1.674438e-01 2.389632e-01 2.684117e-01 2.581244e-01 2.945893e-01 2.692037e-01 2.863803e-01 2.731046e-01 2.703286e-01 7.722314e-02
<GCONST> 9.664153e+01
<TRANSP> 5
 0.000000e+00 1.000000e+00 0.000000e+00 0.000000e+00 0.000000e+00
 0.000000e+00 8.539830e-01 1.460170e-01 0.000000e+00 0.000000e+00
 0.000000e+00 0.000000e+00 8.232270e-01 1.767730e-01 0.000000e+00
 0.000000e+00 0.000000e+00 0.000000e+00 9.104661e-01 8.953382e-02
 0.000000e+00 0.000000e+00 0.000000e+00 0.000000e+00 0.000000e+00
<ENDHMM>
~h "oi"
<BEGINHMM>
<NUMSTATES> 5
<STATE> 2
<MEAN> 39
 2.381020e+00 4.751403e-01 -6.989726e+00 -1.272821e+01 -1.297854e+01 -8.750713e+00 -7.455009e+00 -1.335819e+01 -5.566340e+00 -2.393864e+00 1.402141e+00 3.947176e-01 7.157039e+01 -5.637492e-01 -9.735858e-01 6.876146e-01 2.206123e+00 8.088024e-01 -1.554499e+00 -1.441758e+00 -7.212423e-03 6.772996e-01 1.310903e-01 2.194512e-01 -6.421453e-01 2.496688e-01 -1.284555e-01 1.010921e-01 3.934033e-01 3.352715e-01 -1.939624e-01 -3.642180e-01 2.137590e-01 4.415193e-01 1.438855e-02 -3.870180e-01 -2.790788e-01 -6.744348e-02 -1.181160e-01
<VARIANCE> 39
 1.278432e+01 3.463327e+01 3.945584e+01 8.038206e+01 6.700185e+01 7.414526e+01 8.947026e+01 5.307879e+01 5.691793e+01 5.791919e+01 5.318370e+01 5.175766e+01 2.112385e+01 3.679219e-01 1.081383e+00 2.515862e+00 3.888771e+00 3.518512e+00 6.051728e+00 4.811045e+00 5.268405e+00 5.145539e+00 6.076597e+00 5.810139e+00 4.045568e+00 4.212316e-01 7.632216e-02 2.040431e-01 2.545892e-01 6.830575e-01 8.235133e-01 1.025346e+00 1.303877e+00 7.949343e-01 1.312428e+00 1.047673e+00 1.038765e+00 1.009802e+00 5.340536e-02
<GCONST> 1.266569e+02
<STATE> 3
<MEAN> 39
 -2.530384e+00 -1.369749e+00 2.879209e+00 1.677820e+00 -1.161683e+01 -1.996370e+01 -8.300741e+00 -9.184472e+00 -5.124211e+00 -8.069582e+00 -1.032725e+00 -1.818706e+00 7.141919e+01 -4.772329e-01 5.101601e-01 7.251006e-01 3.972379e-01 8.224487e-03 5.086087e-01 1.070456e+00 3.287324e-01 -8.326882e-01 -4.448197e-01 1.992517e-01 2.038060e-01 -6.736186e-01 6.034969e-02 1.337372e-01 -4.107780e-01 -4.961535e-01 2.067077e-01 5.993969e-01 4.656767e-02 -2.884150e-01 1.329733e-02 3.928529e-01 1.107465e-01 -3.612384e-02 -9.132831e-02
<VARIANCE> 39
 1.327886e+01 2.676511e+01 5.657978e+01 5.023714e+01 9.672083e+01 7.407417e+01 4.605455e+01 5.018193e+01 7.039897e+01 4.658538e+01 4.668098e+01 4.947467e+01 2.350752e+01 3.973528e-01 1.063804e+00 3.885295e+00 2.980784e+00 4.419246e+00 4.967927e+00 3.695651e+00 2.979283e+00 3.407580e+00 4.220325e+00 2.808402e+00 2.038802e+00 2.984875e-01 5.077983e-02 1.960389e-01 2.418374e-01 3.747928e-01 6.335888e-01 6.966696e-01 7.526667e-01 6.012176e-01 6.936823e-01 7.240403e-01 5.684804e-01 4.302448e-01 3.405760e-02
<GCONST> 1.173030e+02
<STATE> 4
<MEAN> 39
 -4.864589e+00 2.700565e+00 4.021036e+00 2.848502e-01 -1.115665e+01 -1.231702e+01 -3.701541e+00 -8.569998e+00 -7.489135e+00 -5.878538e+00 -7.316216e-01 -3.105715e+00 6.387303e+01 -3.627166e-01 1.204874e-01 -2.718558e-01 -1.013287e-01 6.952020e-01 8.543819e-01 2.997794e-01 2.998283e-01 2.583074e-01 3.418112e-01 -1.671584e-01 9.901720e-02 -7.201395e-01 1.396745e-02 -8.862714e-02 -1.082206e-01 -1.897334e-02 5.057415e-02 -4.689851e-03 -6.944407e-02 8.397175e-02 1.087878e-01 3.200945e-02 1.754613e-02 2.174440e-02 2.540092e-02
<VARIANCE> 39
 1.454834e+01 2.143051e+01 4.044264e+01 3.493565e+01 6.819358e+01 5.672345e+01 4.458788e+01 4.032226e+01 3.603748e+01 3.953107e+01 2.557854e+01 4.229286e+01 2.927739e+01 2.794331e-01 8.808894e-01 1.291316e+00 1.154628e+00 1.689823e+00 1.668978e+00 1.888741e+00 2.237012e+00 1.927984e+00 1.537382e+00 1.457365e+00 1.760613e+00 2.711667e-01 5.134234e-02 1.160898e-01 1.618399e-01 1.638963e-01 2.710079e-01 2.972255e-01 3.244914e-01 3.848326e-01 3.128379e-01 2.863963e-01 2.612971e-01 3.058668e-01 2.699142e-02
<GCONST> 9.834895e+01
<TRANSP> 5
 0.000000e+00 1.000000e+00 0.000000e+00 0.000000e+00 0.000000e+00
 0.000000e+00 8.634524e-01 1.365476e-01 0.000000e+00 0.000000e+00
 0.000000e+00 0.000000e+00 8.260536e-01 1.739464e-01 0.000000e+00
 0.000000e+00 0.000000e+00 0.000000e+00 9.041480e-01 9.585197e-02
 0.000000e+00 0.000000e+00 0.000000e+00 0.000000e+00 0.000000e+00
<ENDHMM>
~h "oo"
<BEGINHMM>
<NUMSTATES> 5
<STATE> 2
<MEAN> 39
 3.385422e+00 1.094374e+01 -1.462470e+00 -1.415393e+01 -2.064673e+01 -1.367807e+01 -5.089622e+00 -6.102106e+00 -1.555117e+00 9.269691e-02 -2.717761e+00 -4.047032e+00 6.685213e+01 1.390662e-01 -6.447399e-02 -7.805266e-02 -1.669939e-01 -4.400819e-01 1.730317e-02 3.956826e-01 1.125865e-01 -1.674011e-01 -3.538593e-02 2.062728e-02 -4.281312e-02 3.660934e-02 -2.173003e-01 -2.506025e-01 -2.260982e-01 1.141737e-01 3.958885e-01 2.399267e-01 2.115441e-01 1.161219e-01 -6.676480e-02 -1.526120e-01 7.726629e-02 1.624364e-01 -4.651063e-02
<VARIANCE> 39
 8.095964e+00 2.485494e+01 3.714630e+01 3.156955e+01 4.132581e+01 3.184397e+01 4.340663e+01 4.530665e+01 3.221164e+01 4.775637e+01 3.205939e+01 2.749649e+01 1.322804e+01 4.063497e-01 7.303215e-01 8.292775e-01 9.272454e-01 2.105255e+00 1.301525e+00 1.984324e+00 1.647257e+00 1.647596e+00 1.485382e+00 1.398507e+00 1.253591e+00 3.066874e-01 1.265723e-01 2.250841e-01 2.099767e-01 2.191670e-01 4.085051e-01 2.932503e-01 3.356803e-01 3.407145e-01 3.483343e-01 3.047891e-01 3.133339e-01 2.742936e-01 4.057358e-02
<GCONST> 9.767821e+01
<STATE> 3
<MEAN> 39
 3.858434e+00 7.365925e+00 -5.645128e+00 -1.407670e+01 -1.948160e+01 -1.005339e+01 2.152284e+00 -4.835279e+00 -6.935382e+00 -6.403806e+00 -3.098187e+00 -3.647052e+00 6.795458e+01 1.103385e-01 -1.266341e+00 -1.336636e+00 1.005376e+00 1.922151e+00 6.271417e-01 2.760955e-01 -6.059157e-01 -1.709464e+00 -5.557783e-01 1.058600e+00 1.426610e+00 2.401048e-01 -1.166009e-01 -1.618378e-01 -6.503412e-02 5.829211e-01 9.896746e-01 5.931923e-02 -8.221654e-01 -4.464210e-01 2.564874e-01 4.296406e-01 3.092457e-01 8.651625e-02 -1.277543e-01
<VARIANCE> 39
 8.169718e+00 2.832392e+01 3.149173e+01 4.107722e+01 5.199593e+01 4.652616e+01 5.262907e+01 4.833062e+01 4.682868e+01 4.295531e+01 3.629951e+01 3.451609e+01 1.699460e+01 3.130606e-01 9.700474e-01 1.192591e+00 1.791876e+00 4.079851e+00 3.206734e+00 4.155974e+00 3.484257e+00 3.031657e+00 4.254134e+00 3.017966e+00 2.528710e+00 3.542867e-01 7.582754e-02 1.804617e-01 2.181311e-01 3.010959e-01 5.755717e-01 6.680684e-01 7.399110e-01 6.504605e-01 6.472025e-01 5.944058e-01 5.584806e-01 6.336695e-01 6.052000e-02
<GCONST> 1.123548e+02
<STATE> 4
<MEAN> 39
 3.116287e+00 4.871062e+00 -8.126676e+00 -9.699923e+00 -1.061790e+01 -8.277735e+00 -2.944379e+00 -8.603075e+00 -8.040856e+00 -3.500135e+00 1.749368e+00 3.317604e-01 6.683570e+01 -4.201751e-01 -9.833690e-01 -3.321804e-01 2.065274e+00 2.871365e+00 1.272788e-01 -1.790566e+00 -1.083749e+00 4.239068e-01 1.185383e+00 8.370947e-01 -9.967372e-02 -2.420121e-01 -1.782497e-01 8.910707e-02 4.595561e-01 2.084668e-01 -2.827912e-01 -3.692534e-01 -1.497456e-01 1.606888e-01 5.571525e-01 1.934335e-01 -3.714092e-01 -5.169551e-01 -4.422090e-02
<VARIANCE> 39
 1.374007e+01 3.275197e+01 3.804489e+01 4.235968e+01 8.092539e+01 5.176357e+01 4.829871e+01 4.761058e+01 5.107998e+01 6.101152e+01 3.410767e+01 3.510120e+01 2.647186e+01 5.984358e-01 9.572462e-01 1.484528e+00 2.142994e+00 5.318307e+00 4.812862e+00 4.041109e+00 3.871405e+00 2.693658e+00 3.076896e+00 2.886534e+00 2.831660e+00 5.039217e-01 1.004093e-01 1.652686e-01 2.653220e-01 3.040641e-01 8.450599e-01 8.039827e-01 6.091580e-01 5.448310e-01 6.334144e-01 6.590127e-01 6.049294e-01 5.927743e-01 9.562118e-02
<GCONST> 1.174315e+02
<TRANSP> 5
 0.000000e+00 1.000000e+00 0.000000e+00 0.000000e+00 0.000000e+00
 0.000000e+00 8.319664e-01 1.680336e-01 0.000000e+00 0.000000e+00
 0.000000e+00 0.000000e+00 6.090560e-01 3.909440e-01 0.000000e+00
 0.000000e+00 0.000000e+00 0.000000e+00 5.821631e-01 4.178369e-01
 0.000000e+00 0.000000e+00 0.000000e+00 0.000000e+00 0.000000e+00
<ENDHMM>
~h "ou"
<BEGINHMM>
<NUMSTATES> 5
<STATE> 2
<MEAN> 39
 3.487797e+00 3.435845e+00 -7.736063e+00 -1.510004e+01 -1.655658e+01 -7.790187e+00 -2.118696e+00 -8.678438e+00 -6.394415e+00 -4.325566e+00 6.725547e-01 -4.717219e-02 7.044317e+01 7.793323e-03 1.816465e-01 9.604703e-02 5.139136e-01 -3.550133e-02 -1.989667e-01 -4.435440e-01 -4.248284e-01 -4.084586e-01 -3.047082e-01 1.500436e-01 9.770091e-02 -2.147258e-01 -8.286749e-02 7.684386e-02 8.139958e-02 2.126873e-01 2.166386e-01 4.203996e-02 -4.905103e-03 9.316910e-02 5.321656e-02 -7.598593e-02 -1.107444e-01 -7.206175e-02 -1.539505e-01
<VARIANCE> 39
 5.447264e+00 4.286599e+01 3.606282e+01 5.678777e+01 5.337480e+01 5.645874e+01 1.030003e+02 4.737534e+01 5.320019e+01 4.547174e+01 4.993787e+01 4.022808e+01 1.782359e+01 2.147249e-01 9.009919e-01 8.475573e-01 1.404734e+00 1.506904e+00 1.735751e+00 1.811488e+00 1.753928e+00 1.880937e+00 1.735464e+00 1.881642e+00 1.590032e+00 4.241296e-01 5.652060e-02 1.151051e-01 1.333398e-01 1.941643e-01 2.813457e-01 3.011852e-01 3.221080e-01 3.423952e-01 3.380013e-01 3.339906e-01 3.166847e-01 2.800016e-01 4.553616e-02
<GCONST> 1.005510e+02
<STATE> 3
<MEAN> 39
 2.757771e+00 8.858898e+00 -3.647597e+00 -1.119506e+01 -1.508704e+01 -8.684995e+00 -3.656296e+00 -9.083572e+00 -9.056424e+00 -6.243334e+00 -9.987586e-01 -1.400687e+00 6.723052e+01 -1.618807e-01 3.356097e-01 3.439504e-01 7.163761e-01 4.342136e-01 -8.050980e-02 -3.195335e-01 9.942125e-02 -7.711918e-02 -3.761473e-01 -2.637540e-01 -1.556980e-01 -4.947096e-01 -4.031486e-02 -3.704911e-02 6.400191e-03 2.356062e-02 6.435832e-02 6.237157e-02 9.257421e-03 2.395052e-02 3.987917e-02 3.894055e-02 -5.566705e-03 -3.343623e-03 -3.536572e-02
<VARIANCE> 39
 7.041482e+00 4.281224e+01 3.189579e+01 4.949474e+01 4.914194e+01 4.743624e+01 9.213869e+01 5.651190e+01 4.971298e+01 4.785225e+01 5.196128e+01 4.456407e+01 1.479761e+01 1.383277e-01 3.784769e-01 5.702060e-01 8.769787e-01 1.022444e+00 1.169441e+00 1.315934e+00 1.413621e+00 1.137716e+00 1.358083e+00 1.323520e+00 1.204126e+00 2.235339e-01 2.252001e-02 5.493466e-02 7.944222e-02 1.243627e-01 1.510079e-01 1.696823e-01 2.067515e-01 2.162178e-01 1.989131e-01 2.224941e-01 2.023986e-01 1.873256e-01 1.524184e-02
<GCONST> 8.717984e+01
<STATE> 4
<MEAN> 39
 -2.662783e+00 7.254502e+00 -1.923297e+00 -2.101813e+00 -5.925723e+00 -5.524005e+00 -4.944177e+00 -5.746401e+00 -5.846488e+00 -5.910659e+00 -3.208695e+00 -2.002123e+00 6.031024e+01 -5.462945e-01 -3.133096e-01 -1.454485e-02 2.978754e-01 6.017330e-01 4.301459e-01 1.848685e-01 3.679803e-01 3.542984e-01 2.914292e-01 -2.277803e-03 4.758672e-02 -5.516654e-01 -1.612007e-02 -6.098351e-02 -5.183176e-02 -7.451802e-02 -2.525522e-02 1.454664e-02 6.290323e-02 2.511298e-02 3.554519e-02 5.320012e-02 3.654078e-02 3.128387e-02 3.395116e-02
<VARIANCE> 39
 1.338761e+01 4.217795e+01 2.356948e+01 2.316135e+01 3.272045e+01 3.009505e+01 4.117554e+01 3.538401e+01 3.088527e+01 3.341240e+01 2.784999e+01 2.705119e+01 2.535521e+01 2.907638e-01 5.830260e-01 6.126746e-01 1.067410e+00 1.218879e+00 1.165793e+00 1.648396e+00 1.551298e+00 1.387946e+00 1.445197e+00 1.437122e+00 1.245666e+00 2.474684e-01 3.902960e-02 8.494939e-02 1.108582e-01 1.681395e-01 1.932081e-01 2.127368e-01 2.544361e-01 2.757063e-01 2.525569e-01 2.735310e-01 2.557812e-01 2.324421e-01 2.728572e-02
<GCONST> 8.962498e+01
<TRANSP> 5
 0.000000e+00 1.000000e+00 0.000000e+00 0.000000e+00 0.000000e+00
 0.000000e+00 8.184277e-01 1.815722e-01 0.000000e+00 0.000000e+00
 0.000000e+00 0.000000e+00 8.949871e-01 1.050129e-01 0.000000e+00
 0.000000e+00 0.000000e+00 0.000000e+00 9.072428e-01 9.275718e-02
 0.000000e+00 0.000000e+00 0.000000e+00 0.000000e+00 0.000000e+00
<ENDHMM>
~h "uu"
<BEGINHMM>
<NUMSTATES> 5
<STATE> 2
<MEAN> 39
 -2.445993e+00 2.499504e+00 -1.983317e+00 -3.264041e-01 -6.965571e+00 -1.144593e+01 -9.475480e+00 -1.085744e+01 -4.611133e+00 -6.274296e+00 -4.027563e+00 -3.159295e+00 6.688663e+01 2.597118e+00 1.703780e+00 3.499113e-01 -8.010859e-01 -2.097691e+00 -1.330527e+00 -1.053692e+00 -1.623610e+00 -1.643211e+00 -1.108935e+00 -1.780280e-01 1.876561e-02 3.949124e-01 -7.293046e-01 -3.709476e-01 -2.154481e-01 -4.061792e-01 -1.844090e-01 2.393743e-01 5.171819e-01 6.329203e-01 3.746250e-01 3.657616e-01 3.351887e-01 2.829846e-01 -1.337844e-02
<VARIANCE> 39
