~o
<STREAMINFO> 1 39
<VECSIZE> 39<NULLD><MFCC_D_A_0><DIAGC>
~h "a"
<BEGINHMM>
<NUMSTATES> 5
<STATE> 2
<MEAN> 39
 -3.153528e+00 -1.497893e-01 -6.649252e+00 -7.618104e+00 -4.245485e+00 -3.345061e+00 -1.209915e+00 -5.320532e+00 -4.594598e-01 2.800215e-01 -1.307303e+00 -4.054919e+00 6.668807e+01 -4.640957e-01 -7.105079e-02 -3.192490e-02 -1.395265e-02 6.651422e-02 -8.203249e-02 -1.729860e-01 2.456838e-01 3.508900e-01 3.153710e-01 2.567001e-01 -2.294743e-02 -3.570094e-01 -9.387515e-02 6.823869e-02 1.022705e-01 9.527686e-02 6.510361e-03 -2.375021e-03 9.324190e-03 1.435840e-02 -3.487155e-02 -1.026728e-01 -1.001369e-02 3.933557e-02 -1.006170e-01
<VARIANCE> 39
 3.826067e+01 3.416337e+01 5.070609e+01 4.177680e+01 3.906964e+01 3.534759e+01 3.874711e+01 4.498083e+01 4.014350e+01 4.849139e+01 4.506335e+01 4.629322e+01 5.518647e+01 1.819559e+00 2.683262e+00 2.725638e+00 3.450755e+00 2.259875e+00 2.656637e+00 2.790275e+00 2.486264e+00 3.063927e+00 3.268265e+00 2.638879e+00 2.215776e+00 3.529948e+00 2.613290e-01 4.736784e-01 4.722128e-01 6.272047e-01 4.199835e-01 5.082940e-01 5.322402e-01 4.458744e-01 5.320022e-01 4.955990e-01 4.718000e-01 4.073786e-01 4.798835e-01
<GCONST> 1.233149e+02
<STATE> 3
<MEAN> 39
 -4.802179e+00 2.305126e-02 -6.361208e+00 -7.339070e+00 -4.047467e+00 -3.609627e+00 -1.555046e+00 -4.532150e+00 2.545371e-01 6.259861e-01 -6.876009e-01 -3.933048e+00 6.551260e+01 -6.917439e-01 8.036097e-02 2.172181e-01 1.612291e-01 4.445940e-02 -8.524305e-02 -9.848648e-02 2.513383e-01 2.321977e-01 3.697591e-02 2.123750e-01 1.008276e-01 -4.556865e-01 -7.866497e-02 4.243090e-02 8.555405e-02 4.965398e-02 -1.457283e-02 -1.344159e-03 3.495996e-02 -4.592335e-03 -4.586371e-02 -1.016795e-01 -2.346197e-02 4.136951e-02 3.767254e-03
<VARIANCE> 39
 5.085156e+01 2.989870e+01 5.018319e+01 3.600332e+01 3.527806e+01 3.368343e+01 3.445786e+01 4.078135e+01 3.516686e+01 4.318423e+01 3.863637e+01 4.318969e+01 5.459742e+01 2.278285e+00 2.349546e+00 2.560581e+00 2.653957e+00 2.051549e+00 2.604897e+00 2.646652e+00 2.341302e+00 2.818031e+00 2.717018e+00 2.255259e+00 2.089260e+00 3.332685e+00 3.334359e-01 4.349181e-01 4.420246e-01 5.135434e-01 3.792647e-01 4.901616e-01 5.136642e-01 4.192869e-01 5.100356e-01 4.298434e-01 4.099069e-01 3.755488e-01 4.685553e-01
<GCONST> 1.206816e+02
<STATE> 4
<MEAN> 39
 -7.553201e+00 6.974528e-01 -5.147659e+00 -6.390438e+00 -3.787722e+00 -4.036032e+00 -1.328599e+00 -3.532661e+00 7.565942e-01 -3.341951e-01 -2.414261e-01 -3.395659e+00 6.470473e+01 -8.072488e-01 1.417874e-01 4.385214e-01 2.289984e-01 -2.603075e-02 -1.276779e-01 4.648090e-02 1.816182e-01 7.319556e-02 -2.137435e-01 1.319146e-01 2.067134e-01 -1.889053e-01 -2.865404e-02 5.041256e-03 6.463612e-02 2.125704e-02 -2.313447e-02 -1.745137e-02 3.281746e-02 -2.390433e-02 -4.151060e-02 -6.149248e-02 -2.345348e-02 2.118420e-02 8.157226e-02
<VARIANCE> 39
 7.068841e+01 2.652116e+01 5.818814e+01 3.431315e+01 3.289041e+01 3.623456e+01 3.415694e+01 3.777913e+01 3.148104e+01 4.162484e+01 3.002932e+01 3.803018e+01 4.833530e+01 3.298663e+00 2.185271e+00 2.671659e+00 2.151131e+00 1.996075e+00 2.568807e+00 2.455401e+00 2.376539e+00 2.646590e+00 2.287312e+00 1.978350e+00 2.018354e+00 3.059837e+00 4.698785e-01 4.157182e-01 4.463437e-01 4.119780e-01 3.529564e-01 4.649595e-01 4.788606e-01 4.193567e-01 4.934208e-01 3.915519e-01 3.614517e-01 3.563883e-01 4.101216e-01
<GCONST> 1.192577e+02
<TRANSP> 5
 0.000000e+00 1.000000e+00 0.000000e+00 0.000000e+00 0.000000e+00
 0.000000e+00 6.557540e-01 3.442460e-01 0.000000e+00 0.000000e+00
 0.000000e+00 0.000000e+00 6.557539e-01 3.442462e-01 0.000000e+00
 0.000000e+00 0.000000e+00 0.000000e+00 7.739917e-01 2.260083e-01
 0.000000e+00 0.000000e+00 0.000000e+00 0.000000e+00 0.000000e+00
<ENDHMM>
~h "e"
<BEGINHMM>
<NUMSTATES> 5
<STATE> 2
<MEAN> 39
 -4.060760e+00 6.354721e-01 1.609013e+00 -5.383134e-01 -1.150067e+01 -1.264333e+01 -3.682050e+00 -4.221163e+00 -2.313205e+00 -4.514518e+00 -7.244408e-01 -1.159708e+00 6.659601e+01 -1.702570e-01 -4.811336e-02 1.625106e-01 1.280413e-01 -1.179490e-01 -1.718798e-01 1.683343e-01 1.970146e-01 5.154128e-02 1.701100e-03 1.596555e-02 4.845123e-02 -9.409860e-02 5.710934e-03 7.226784e-05 -3.253932e-02 -1.406752e-02 3.498033e-02 3.510984e-02 1.036919e-02 -1.118174e-02 -7.225913e-04 1.287001e-02 2.090916e-03 -7.576065e-03 -2.516622e-02
<VARIANCE> 39
 2.468116e+01 2.801632e+01 4.653506e+01 4.307310e+01 7.571081e+01 6.947395e+01 5.431927e+01 4.370602e+01 4.257119e+01 4.472963e+01 4.676060e+01 3.682800e+01 4.332754e+01 1.153888e+00 1.513419e+00 1.459257e+00 1.656024e+00 3.338647e+00 2.953078e+00 2.540851e+00 2.197350e+00 2.459149e+00 2.170274e+00 2.277663e+00 1.877208e+00 1.887245e+00 1.957725e-01 2.720200e-01 2.359037e-01 2.917711e-01 5.398424e-01 4.638378e-01 4.331665e-01 3.964253e-01 4.456148e-01 3.901096e-01 4.106689e-01 3.463838e-01 2.804180e-01
<GCONST> 1.164153e+02
<STATE> 3
<MEAN> 39
 -4.580647e+00 5.260925e-01 1.972735e+00 -2.243891e-01 -1.166175e+01 -1.296544e+01 -3.118864e+00 -3.680920e+00 -2.174014e+00 -4.432647e+00 -6.759512e-01 -1.039291e+00 6.617405e+01 -1.625096e-01 -4.507241e-02 5.568331e-02 8.678985e-02 1.542488e-02 -4.633602e-02 1.855050e-01 1.640788e-01 6.264445e-02 4.333286e-02 2.117950e-02 3.368461e-02 -1.934707e-01 1.631130e-03 2.086970e-03 -3.711302e-02 -1.518761e-02 4.835026e-02 5.019658e-02 -1.595220e-03 -1.247099e-02 2.866215e-03 1.483865e-02 4.057434e-03 -2.076713e-03 -3.992853e-02
<VARIANCE> 39
 2.307004e+01 2.482258e+01 4.330746e+01 4.176011e+01 7.383969e+01 7.087885e+01 5.627097e+01 4.443938e+01 4.072984e+01 4.343190e+01 4.674283e+01 3.508932e+01 4.236462e+01 1.039979e+00 1.345668e+00 1.363224e+00 1.601764e+00 3.282742e+00 2.899281e+00 2.348993e+00 2.136124e+00 2.308002e+00 2.116064e+00 2.232652e+00 1.839797e+00 1.709635e+00 1.777901e-01 2.450483e-01 2.191963e-01 2.825524e-01 5.155306e-01 4.463820e-01 4.050931e-01 3.880446e-01 4.180848e-01 3.812146e-01 4.056476e-01 3.459050e-01 2.453418e-01
<GCONST> 1.146202e+02
<STATE> 4
<MEAN> 39
 -5.116550e+00 2.801561e-01 1.758855e+00 -2.419796e-01 -1.127142e+01 -1.244305e+01 -2.402698e+00 -3.266197e+00 -2.029840e+00 -4.410935e+00 -4.863291e-01 -1.129478e+00 6.534099e+01 -1.690133e-01 -3.266815e-02 -7.008798e-02 3.848008e-02 2.076688e-01 1.439376e-01 1.560398e-01 1.372249e-01 9.810746e-02 9.501755e-02 2.956370e-02 4.371101e-02 -3.224886e-01 -2.398140e-03 -3.613383e-04 -3.171375e-02 -1.185180e-02 4.284299e-02 4.999452e-02 -1.161398e-02 -4.875045e-03 6.722216e-03 1.196864e-02 4.272816e-03 4.236140e-03 -3.004764e-02
<VARIANCE> 39
 2.142422e+01 2.140548e+01 4.155930e+01 3.756928e+01 7.549504e+01 7.392202e+01 5.621793e+01 4.316400e+01 3.748229e+01 4.313475e+01 4.517444e+01 3.364752e+01 4.287357e+01 8.585033e-01 1.147437e+00 1.210726e+00 1.479474e+00 3.193762e+00 2.701732e+00 2.162200e+00 2.039951e+00 2.083019e+00 2.069201e+00 2.136540e+00 1.808225e+00 1.403749e+00 1.464139e-01 2.084838e-01 1.950071e-01 2.610992e-01 4.985185e-01 4.192000e-01 3.760915e-01 3.722937e-01 3.782804e-01 3.726607e-01 3.943315e-01 3.453935e-01 1.983711e-01
<GCONST> 1.118428e+02
<TRANSP> 5
 0.000000e+00 1.000000e+00 0.000000e+00 0.000000e+00 0.000000e+00
 0.000000e+00 6.772246e-01 3.227753e-01 0.000000e+00 0.000000e+00
 0.000000e+00 0.000000e+00 6.772246e-01 3.227754e-01 0.000000e+00
 0.000000e+00 0.000000e+00 0.000000e+00 7.944433e-01 2.055567e-01
 0.000000e+00 0.000000e+00 0.000000e+00 0.000000e+00 0.000000e+00
<ENDHMM>
~h "h"
<BEGINHMM>
<NUMSTATES> 5
<STATE> 2
<MEAN> 39
 -4.077135e+00 -3.377047e-01 -2.701942e+00 -8.323839e+00 -1.152314e+01 -8.265539e+00 -1.029239e+00 -4.860792e+00 -3.063290e+00 -3.060555e+00 -1.112681e+00 -1.293579e+00 6.878368e+01 3.071908e-01 1.234583e-01 2.199108e-01 -1.444631e-02 -4.210856e-01 -4.494670e-01 -3.268866e-01 -3.787265e-01 -2.457941e-01 -1.347818e-01 5.595350e-02 -4.573938e-03 4.795305e-01 -2.454407e-02 -8.849837e-03 8.204663e-03 5.324262e-02 3.670075e-02 9.879582e-04 -1.052644e-02 4.807051e-03 8.795235e-03 -4.860149e-04 1.899974e-02 8.315715e-03 -5.365454e-02
<VARIANCE> 39
 3.958413e+01 5.452115e+01 7.732204e+01 7.771560e+01 8.919070e+01 1.014624e+02 6.499868e+01 6.914901e+01 5.582319e+01 4.220874e+01 3.758504e+01 4.003737e+01 4.939507e+01 1.325186e+00 1.914930e+00 1.572768e+00 2.370149e+00 3.062284e+00 2.886519e+00 2.715927e+00 2.769345e+00 2.437143e+00 2.137953e+00 2.324702e+00 1.946333e+00 1.018353e+00 2.002259e-01 3.056687e-01 2.391112e-01 3.290968e-01 4.627165e-01 4.710993e-01 4.557158e-01 4.740059e-01 4.478531e-01 4.061275e-01 4.305707e-01 3.707365e-01 1.082453e-01
<GCONST> 1.200256e+02
<STATE> 3
<MEAN> 39
 -3.128475e+00 4.418373e-02 -1.865326e+00 -8.046770e+00 -1.284390e+01 -9.885262e+00 -2.224489e+00 -6.189135e+00 -3.851599e+00 -3.588568e+00 -8.156097e-01 -1.289745e+00 7.012624e+01 2.014668e-01 1.003301e-01 2.424693e-01 1.576215e-01 -2.774716e-01 -4.203060e-01 -3.159986e-01 -3.321348e-01 -1.986865e-01 -1.346382e-01 9.578496e-02 6.596049e-03 2.702545e-01 -3.323390e-02 -4.039492e-03 4.850108e-03 4.455430e-02 4.310314e-02 1.289369e-02 1.186940e-02 2.068176e-02 1.584270e-02 -2.177738e-03 5.785172e-03 1.265544e-04 -6.388029e-02
<VARIANCE> 39
 3.563779e+01 5.450706e+01 8.491016e+01 8.212689e+01 8.337795e+01 1.034579e+02 6.710535e+01 6.957417e+01 5.799415e+01 4.505533e+01 4.024303e+01 4.399192e+01 4.217098e+01 1.149876e+00 1.724364e+00 1.524253e+00 2.356066e+00 2.896976e+00 2.838602e+00 2.758304e+00 2.724791e+00 2.453506e+00 2.175853e+00 2.376478e+00 1.975543e+00 9.255189e-01 1.659030e-01 2.639599e-01 2.289346e-01 3.164260e-01 4.300999e-01 4.615041e-01 4.585279e-01 4.658431e-01 4.518830e-01 4.129496e-01 4.384011e-01 3.763783e-01 9.122495e-02
<GCONST> 1.191410e+02
<STATE> 4
<MEAN> 39
 -2.590702e+00 3.205745e-01 -9.025565e-01 -6.998482e+00 -1.381664e+01 -1.155250e+01 -3.573931e+00 -7.532076e+00 -4.423018e+00 -4.812885e+00 -3.159163e-01 -1.552832e+00 7.052640e+01 5.592420e-02 1.307075e-01 2.238795e-01 2.654224e-01 -7.692599e-02 -2.735006e-01 -2.005483e-01 -1.969211e-01 -1.209801e-01 -1.243886e-01 5.701210e-02 -1.917842e-02 -2.230636e-02 -2.646279e-02 6.783433e-03 -4.427881e-03 1.485878e-02 3.787545e-02 3.049694e-02 2.531420e-02 2.804312e-02 1.341427e-02 1.619152e-03 -1.028550e-02 -4.032516e-03 -5.450313e-02
<VARIANCE> 39
 2.932146e+01 5.175650e+01 8.901418e+01 8.306192e+01 7.431722e+01 9.793313e+01 6.648946e+01 6.554528e+01 5.689559e+01 4.872488e+01 4.109175e+01 4.827385e+01 3.542338e+01 8.382666e-01 1.402568e+00 1.388581e+00 2.120401e+00 2.484078e+00 2.630466e+00 2.565706e+00 2.448726e+00 2.268163e+00 2.083293e+00 2.215678e+00 1.886184e+00 7.522049e-01 1.152756e-01 2.009851e-01 1.978200e-01 2.799729e-01 3.654108e-01 4.070286e-01 4.170110e-01 4.097270e-01 4.162897e-01 3.897699e-01 4.019980e-01 3.571826e-01 6.501079e-02
<GCONST> 1.151017e+02
<TRANSP> 5
 0.000000e+00 1.000000e+00 0.000000e+00 0.000000e+00 0.000000e+00
 0.000000e+00 7.369424e-01 2.630576e-01 0.000000e+00 0.000000e+00
 0.000000e+00 0.000000e+00 7.369432e-01 2.630568e-01 0.000000e+00
 0.000000e+00 0.000000e+00 0.000000e+00 8.630375e-01 1.369626e-01
 0.000000e+00 0.000000e+00 0.000000e+00 0.000000e+00 0.000000e+00
<ENDHMM>
~h "i"
<BEGINHMM>
<NUMSTATES> 5
<STATE> 2
<MEAN> 39
 -1.303033e+01 2.175226e+00 3.251013e+00 -1.189150e+00 -6.255548e+00 -8.890956e+00 -8.147525e-01 -4.277452e+00 -1.621797e+00 -4.661571e+00 2.924674e-01 -5.911725e-01 6.645290e+01 3.692919e-01 1.679609e-01 4.134894e-01 5.464782e-01 -6.815119e-02 -3.939804e-01 -1.231675e-01 -1.903600e-01 -3.165935e-01 -2.820616e-01 -9.822113e-02 7.786655e-02 1.425215e-02 1.226237e-01 2.216041e-02 -9.739362e-02 -1.662724e-02 5.691244e-02 3.497534e-02 -3.363910e-02 -1.109315e-03 1.614987e-02 3.739503e-02 -5.776790e-03 -1.567419e-02 -6.883836e-02
<VARIANCE> 39
 8.186072e+01 2.854385e+01 6.855597e+01 7.373438e+01 4.120614e+01 7.057355e+01 4.153648e+01 3.799857e+01 3.743248e+01 3.718532e+01 2.404137e+01 2.457898e+01 2.910386e+01 5.213803e+00 1.908991e+00 2.972646e+00 3.092390e+00 2.486965e+00 3.578339e+00 2.621502e+00 2.636019e+00 2.672877e+00 2.138895e+00 2.053832e+00 1.663941e+00 1.511744e+00 6.669748e-01 3.496169e-01 3.860612e-01 4.721362e-01 4.035681e-01 5.205697e-01 4.524846e-01 4.743460e-01 4.858747e-01 3.792602e-01 3.733990e-01 3.123036e-01 2.158746e-01
<GCONST> 1.206825e+02
<STATE> 3
<MEAN> 39
 -1.153344e+01 2.674032e+00 3.993191e+00 2.527382e-01 -6.347574e+00 -9.891808e+00 -1.337255e+00 -4.791491e+00 -2.379137e+00 -5.271523e+00 3.052139e-02 -3.805248e-01 6.619474e+01 6.016554e-01 2.169648e-01 1.246040e-01 4.429204e-01 1.115728e-01 -2.302864e-01 -1.990290e-01 -1.628561e-01 -2.261031e-01 -1.635038e-01 -1.094490e-01 4.467127e-02 -1.795476e-01 5.057774e-02 1.065827e-02 -1.044865e-01 -5.300717e-02 6.561261e-02 6.541736e-02 -1.762309e-02 1.475827e-02 4.303096e-02 4.455106e-02 1.570683e-03 -8.823028e-03 -6.382584e-02
<VARIANCE> 39
 7.612414e+01 2.900651e+01 6.081897e+01 7.201914e+01 4.163392e+01 6.828687e+01 4.201355e+01 3.825423e+01 3.659027e+01 3.513787e+01 2.463485e+01 2.315718e+01 2.663716e+01 4.059923e+00 1.718569e+00 2.679443e+00 2.954676e+00 2.466116e+00 3.713646e+00 2.457648e+00 2.655645e+00 2.505353e+00 2.178807e+00 2.054421e+00 1.632769e+00 1.082132e+00 5.488731e-01 3.047455e-01 3.288040e-01 4.226997e-01 3.864611e-01 5.064136e-01 4.226249e-01 4.689547e-01 4.450747e-01 3.772887e-01 3.761778e-01 3.108787e-01 1.481292e-01
<GCONST> 1.181221e+02
<STATE> 4
<MEAN> 39
 -9.059585e+00 3.280905e+00 3.507110e+00 1.406977e+00 -5.801450e+00 -1.039699e+01 -1.987008e+00 -4.945108e+00 -2.453974e+00 -5.751109e+00 -3.267061e-01 -2.294548e-01 6.544936e+01 5.630747e-01 1.905467e-01 -1.665576e-01 2.150133e-01 2.838629e-01 5.682556e-02 -2.015271e-01 -6.694126e-02 -5.834741e-02 9.146724e-03 -9.663529e-02 1.597127e-02 -3.411576e-01 -2.980288e-02 -1.276078e-02 -7.243206e-02 -6.310076e-02 4.432910e-02 7.394746e-02 1.079226e-02 2.435064e-02 4.422187e-02 4.306191e-02 6.447772e-03 -1.008301e-02 -3.709153e-02
<VARIANCE> 39
 6.069282e+01 2.804861e+01 5.118103e+01 6.064501e+01 4.348699e+01 6.298866e+01 4.489559e+01 3.961921e+01 3.650081e+01 3.419401e+01 2.493649e+01 2.168746e+01 2.584726e+01 2.758491e+00 1.495423e+00 1.976397e+00 2.430547e+00 2.173948e+00 3.380064e+00 2.233191e+00 2.536944e+00 2.218224e+00 2.170658e+00 1.942141e+00 1.515492e+00 6.776422e-01 3.668191e-01 2.453527e-01 2.493673e-01 3.298287e-01 3.346692e-01 4.447496e-01 3.723537e-01 4.394396e-01 3.853243e-01 3.736278e-01 3.566059e-01 2.892064e-01 9.369361e-02
<GCONST> 1.130099e+02
<TRANSP> 5
 0.000000e+00 1.000000e+00 0.000000e+00 0.000000e+00 0.000000e+00
 0.000000e+00 6.557418e-01 3.442583e-01 0.000000e+00 0.000000e+00
 0.000000e+00 0.000000e+00 6.557415e-01 3.442585e-01 0.000000e+00
 0.000000e+00 0.000000e+00 0.000000e+00 7.739670e-01 2.260330e-01
 0.000000e+00 0.000000e+00 0.000000e+00 0.000000e+00 0.000000e+00
<ENDHMM>
~h "k"
<BEGINHMM>
<NUMSTATES> 5
<STATE> 2
<MEAN> 39
 -7.981013e+00 -7.746820e-01 4.162105e+00 -3.522218e+00 -1.329119e+01 -1.301740e+01 -2.461155e+00 -5.774840e+00 -4.622033e+00 -4.514573e+00 -3.732059e-01 -1.394936e+00 7.096303e+01 4.068755e-01 2.728003e-01 4.537565e-01 7.068373e-02 -4.746914e-01 -4.582921e-01 -1.602513e-01 -3.837176e-01 -3.312999e-01 -2.361610e-01 -2.081446e-02 -8.933809e-02 2.713522e-01 -2.437191e-02 -2.605882e-03 -2.995772e-02 3.999298e-03 3.821854e-02 5.488872e-02 4.408216e-03 7.331175e-03 9.133697e-03 2.345489e-02 1.905039e-02 3.257106e-03 -5.854587e-02
<VARIANCE> 39
 3.772867e+01 4.052998e+01 6.903078e+01 4.001784e+01 8.978069e+01 9.943421e+01 4.137576e+01 7.054224e+01 4.865968e+01 3.934027e+01 3.446219e+01 4.115123e+01 4.760991e+01 1.858166e+00 1.625448e+00 1.414016e+00 1.483719e+00 2.362689e+00 2.411026e+00 1.932498e+00 2.054934e+00 2.078522e+00 1.975561e+00 1.639500e+00 1.408363e+00 1.487155e+00 2.941521e-01 2.944466e-01 2.223727e-01 2.585146e-01 4.047721e-01 4.077630e-01 3.520394e-01 3.483291e-01 3.626339e-01 3.542553e-01 3.005664e-01 2.438420e-01 2.628941e-01
<GCONST> 1.150939e+02
<STATE> 3
<MEAN> 39
 -6.823289e+00 5.548096e-02 5.532437e+00 -3.334670e+00 -1.484386e+01 -1.432553e+01 -3.014989e+00 -7.111775e+00 -5.697998e+00 -5.218045e+00 -2.991176e-01 -1.712351e+00 7.166933e+01 2.648051e-01 2.417020e-01 3.374679e-01 7.398082e-02 -3.193287e-01 -2.564765e-01 -1.256980e-01 -3.272032e-01 -2.662376e-01 -1.435305e-01 2.123478e-02 -7.782357e-02 9.488054e-02 -4.191868e-02 -9.784317e-03 -3.371618e-02 3.162768e-03 4.818929e-02 5.450212e-02 1.341928e-02 2.151079e-02 2.274374e-02 2.360535e-02 5.513281e-03 3.760312e-03 -4.746369e-02
<VARIANCE> 39
 2.994712e+01 4.367888e+01 7.110081e+01 4.577000e+01 8.784471e+01 9.231925e+01 4.190767e+01 7.186212e+01 4.904884e+01 3.977913e+01 3.755397e+01 4.705350e+01 3.758382e+01 1.364790e+00 1.198511e+00 1.122068e+00 1.115634e+00 1.977955e+00 1.951133e+00 1.693736e+00 1.810247e+00 1.807955e+00 1.641384e+00 1.477523e+00 1.288769e+00 9.843217e-01 2.082325e-01 2.047594e-01 1.699845e-01 1.829343e-01 3.138943e-01 3.216797e-01 3.038582e-01 2.965155e-01 3.084597e-01 2.950147e-01 2.702220e-01 2.150235e-01 1.523419e-01
<GCONST> 1.090861e+02
<STATE> 4
<MEAN> 39
 -5.968358e+00 4.691710e-01 5.862505e+00 -3.502428e+00 -1.564507e+01 -1.464731e+01 -3.227559e+00 -8.597473e+00 -6.366216e+00 -6.058226e+00 -3.564095e-02 -2.409716e+00 7.166791e+01 1.026336e-01 1.826777e-01 1.803844e-01 9.283169e-02 -8.171913e-02 -5.786997e-02 -5.449483e-02 -1.814399e-01 -1.470078e-01 -6.814343e-02 -7.770839e-03 -5.138178e-02 -9.103630e-02 -2.580694e-02 -6.491983e-03 -2.680448e-02 5.738467e-03 4.582976e-02 3.503812e-02 1.577074e-02 2.762397e-02 2.159911e-02 1.142934e-02 -8.143052e-03 4.986735e-03 -3.679084e-02
<VARIANCE> 39
 2.282450e+01 4.489453e+01 6.792071e+01 5.148633e+01 8.224004e+01 8.123820e+01 4.076237e+01 6.884557e+01 4.449801e+01 4.188690e+01 4.403446e+01 5.132135e+01 2.950029e+01 8.358529e-01 7.882909e-01 8.536574e-01 8.236969e-01 1.572860e+00 1.470504e+00 1.468297e+00 1.554973e+00 1.371911e+00 1.293740e+00 1.302557e+00 1.169013e+00 6.303040e-01 1.259348e-01 1.300383e-01 1.253345e-01 1.324293e-01 2.284587e-01 2.411498e-01 2.547585e-01 2.405218e-01 2.345064e-01 2.343001e-01 2.312908e-01 1.904568e-01 7.831518e-02
<GCONST> 1.011086e+02
<TRANSP> 5
 0.000000e+00 1.000000e+00 0.000000e+00 0.000000e+00 0.000000e+00
 0.000000e+00 7.418987e-01 2.581014e-01 0.000000e+00 0.000000e+00
 0.000000e+00 0.000000e+00 7.418988e-01 2.581013e-01 0.000000e+00
 0.000000e+00 0.000000e+00 0.000000e+00 8.691640e-01 1.308360e-01
 0.000000e+00 0.000000e+00 0.000000e+00 0.000000e+00 0.000000e+00
<ENDHMM>
~h "m"
<BEGINHMM>
<NUMSTATES> 5
<STATE> 2
<MEAN> 39
 -4.584285e-01 1.119338e+00 -6.048923e+00 -7.391763e+00 -5.891680e+00 -1.458334e+00 1.483483e+00 -5.640843e+00 -5.134775e+00 -5.083462e+00 -3.164112e+00 -2.518232e+00 6.791223e+01 2.757401e-01 -3.673003e-01 -4.895970e-01 -7.049522e-01 -3.830074e-01 6.687830e-02 1.415567e-01 -1.385398e-01 1.758210e-01 2.663933e-01 -8.859968e-03 -1.342543e-01 6.496825e-01 -5.607587e-02 -2.061620e-02 -5.278746e-03 -2.843601e-03 1.892996e-02 -1.189001e-04 -2.006235e-02 1.976513e-02 4.350490e-02 5.000045e-02 2.642985e-02 1.407817e-02 -6.022989e-02
<VARIANCE> 39
 2.675318e+01 5.212051e+01 6.245659e+01 8.570152e+01 6.003862e+01 5.450411e+01 5.978174e+01 6.761670e+01 5.665118e+01 5.760524e+01 4.087218e+01 3.163323e+01 5.685335e+01 1.029367e+00 1.883478e+00 2.180557e+00 3.446472e+00 2.421960e+00 2.402805e+00 2.332601e+00 2.631892e+00 3.117388e+00 3.358364e+00 2.004957e+00 1.565184e+00 1.397892e+00 1.436132e-01 2.648979e-01 3.490743e-01 5.362943e-01 4.156000e-01 4.038550e-01 4.183268e-01 4.397425e-01 5.427414e-01 5.779175e-01 3.523138e-01 2.734241e-01 1.457527e-01
<GCONST> 1.194305e+02
<STATE> 3
<MEAN> 39
 1.257191e-01 -1.116848e-01 -7.604918e+00 -9.646002e+00 -6.992809e+00 -1.236196e+00 1.777953e+00 -5.994754e+00 -4.337770e+00 -4.048593e+00 -3.062326e+00 -2.914011e+00 6.960168e+01 1.205434e-01 -3.038282e-01 -3.829531e-01 -5.680467e-01 -2.795950e-01 2.325024e-02 2.894950e-02 -8.858900e-02 2.217903e-01 3.108198e-01 5.876766e-02 -8.581537e-02 3.814804e-01 -4.684671e-02 2.683077e-02 4.185099e-02 5.567431e-02 3.784351e-02 -1.493457e-02 -3.526070e-02 1.478556e-02 7.893412e-03 1.492834e-03 1.798892e-02 1.600058e-02 -8.825337e-02
<VARIANCE> 39
 2.358346e+01 5.213866e+01 6.054618e+01 8.071814e+01 6.235438e+01 5.974561e+01 6.268642e+01 7.104405e+01 5.661875e+01 5.704129e+01 4.318373e+01 3.572168e+01 5.191524e+01 9.415240e-01 1.857434e+00 2.019440e+00 3.378242e+00 2.296046e+00 2.495698e+00 2.380991e+00 2.529520e+00 2.826066e+00 3.045309e+00 1.983697e+00 1.604078e+00 1.601969e+00 1.326444e-01 2.560188e-01 3.149748e-01 4.997565e-01 3.920773e-01 4.168714e-01 4.171462e-01 4.172464e-01 4.836149e-01 5.152741e-01 3.436854e-01 2.770072e-01 1.564929e-01
<GCONST> 1.186959e+02
<STATE> 4
<MEAN> 39
 1.779754e-01 -1.048836e+00 -9.004616e+00 -1.157003e+01 -7.797021e+00 -1.278353e+00 1.326422e+00 -6.329705e+00 -3.030206e+00 -3.415478e+00 -2.600824e+00 -3.236263e+00 7.006934e+01 -3.190973e-02 -4.684489e-02 -1.094530e-01 -2.083527e-01 -1.238655e-01 -8.565822e-02 -1.188282e-01 -1.804576e-02 1.592422e-01 1.818704e-01 8.965374e-02 -8.018359e-03 -3.276109e-02 -2.985619e-02 4.303911e-02 4.848833e-02 6.515130e-02 2.886862e-02 -1.936879e-02 -2.385882e-02 1.285159e-02 -9.834070e-03 -2.313689e-02 4.969663e-03 1.423199e-02 -7.372577e-02
<VARIANCE> 39
 2.325079e+01 4.848567e+01 5.384706e+01 7.149603e+01 6.242828e+01 6.516339e+01 6.587403e+01 7.067014e+01 5.537004e+01 5.646609e+01 4.259972e+01 3.975100e+01 4.978046e+01 8.947549e-01 1.698870e+00 1.653707e+00 2.685598e+00 1.875980e+00 2.491881e+00 2.305650e+00 2.253207e+00 2.432196e+00 2.418869e+00 1.817922e+00 1.650666e+00 1.642333e+00 1.262808e-01 2.292473e-01 2.494745e-01 3.793390e-01 3.234443e-01 4.127091e-01 4.011187e-01 3.649154e-01 4.065983e-01 4.044967e-01 3.128611e-01 2.854097e-01 1.611102e-01
<GCONST> 1.156919e+02
<TRANSP> 5
 0.000000e+00 1.000000e+00 0.000000e+00 0.000000e+00 0.000000e+00
 0.000000e+00 7.254992e-01 2.745009e-01 0.000000e+00 0.000000e+00
 0.000000e+00 0.000000e+00 7.254993e-01 2.745006e-01 0.000000e+00
 0.000000e+00 0.000000e+00 0.000000e+00 8.524950e-01 1.475050e-01
 0.000000e+00 0.000000e+00 0.000000e+00 0.000000e+00 0.000000e+00
<ENDHMM>
~h "n"
<BEGINHMM>
<NUMSTATES> 5
<STATE> 2
<MEAN> 39
 -9.598111e-01 -1.423409e+00 -2.532803e+00 -3.672119e+00 -1.215105e+01 -9.131041e+00 -4.111452e+00 -5.651761e+00 -2.129647e+00 -4.784569e+00 -3.632932e+00 -4.549606e+00 7.099163e+01 -1.210829e-01 1.525678e-01 3.176877e-01 2.244577e-01 -2.355349e-01 -3.151637e-01 -1.967996e-02 8.601871e-02 3.303116e-02 8.448213e-04 1.113934e-01 8.978883e-02 -1.633204e-01 -2.309553e-02 -1.222057e-02 2.518559e-02 -2.397202e-03 -2.870368e-02 -5.236824e-03 2.804338e-02 2.034680e-03 -1.037055e-02 -3.375955e-03 -1.034308e-03 1.354520e-02 7.653752e-03
<VARIANCE> 39
 1.729555e+01 4.948281e+01 7.693533e+01 5.703949e+01 9.479633e+01 7.365748e+01 5.711933e+01 4.774621e+01 5.315380e+01 6.981917e+01 4.754261e+01 5.174558e+01 3.423496e+01 5.332614e-01 1.703213e+00 1.370325e+00 1.491315e+00 2.478665e+00 1.783111e+00 2.661136e+00 2.186393e+00 2.940316e+00 2.468492e+00 2.093802e+00 1.818531e+00 9.870316e-01 7.405621e-02 2.245109e-01 1.842956e-01 2.168386e-01 3.591966e-01 2.882277e-01 4.308093e-01 3.682530e-01 5.287167e-01 4.017530e-01 3.437218e-01 3.059346e-01 1.175581e-01
<GCONST> 1.129423e+02
<STATE> 3
<MEAN> 39
 -1.457715e+00 -1.013380e+00 -1.410917e+00 -2.991498e+00 -1.307514e+01 -1.013463e+01 -3.978623e+00 -5.342055e+00 -2.127979e+00 -4.787474e+00 -3.236140e+00 -4.205570e+00 7.050479e+01 -1.879928e-01 1.158511e-01 3.823435e-01 2.117606e-01 -3.046208e-01 -3.026916e-01 7.838267e-02 7.761380e-02 -8.245392e-03 -1.438315e-02 9.681495e-02 1.228063e-01 -1.539173e-01 -1.683954e-02 -1.071678e-02 1.320064e-02 -4.447708e-03 -1.069674e-02 1.099829e-02 3.140620e-02 -1.854710e-03 -1.474535e-02 -7.142549e-03 -9.148885e-03 7.009061e-03 -1.691952e-03
<VARIANCE> 39
 1.791144e+01 4.776719e+01 7.199939e+01 4.980479e+01 9.311144e+01 6.468221e+01 5.635933e+01 4.838742e+01 5.474326e+01 6.501305e+01 4.678604e+01 4.972959e+01 3.565265e+01 4.792024e-01 1.633440e+00 1.316993e+00 1.396556e+00 2.543960e+00 1.708857e+00 2.641315e+00 2.216297e+00 2.929057e+00 2.411433e+00 2.071807e+00 1.794643e+00 9.334733e-01 6.678820e-02 2.176493e-01 1.805751e-01 2.066843e-01 3.689868e-01 2.763074e-01 4.295644e-01 3.726664e-01 5.209449e-01 3.938699e-01 3.371292e-01 3.003733e-01 1.111396e-01
<GCONST> 1.118263e+02
<STATE> 4
<MEAN> 39
 -2.265673e+00 -9.439597e-01 3.365576e-02 -2.320173e+00 -1.445569e+01 -1.101561e+01 -3.424559e+00 -5.095503e+00 -2.367059e+00 -5.237956e+00 -2.692109e+00 -3.863071e+00 6.989149e+01 -2.325893e-01 9.705895e-02 3.721088e-01 1.851994e-01 -2.446997e-01 -1.932315e-01 1.819686e-01 5.184405e-02 -7.437262e-02 -2.762062e-02 5.832706e-02 1.207975e-01 -2.043879e-01 -8.180118e-03 -2.079528e-03 -7.783622e-03 -3.725253e-03 2.686119e-02 2.905243e-02 2.182714e-02 -3.080023e-03 -1.228564e-02 -4.562100e-03 -1.067760e-02 -2.377280e-03 -1.920741e-02
<VARIANCE> 39
 1.797191e+01 4.487741e+01 6.603520e+01 4.237378e+01 8.975127e+01 5.721243e+01 5.587132e+01 5.009607e+01 5.530426e+01 6.036359e+01 4.739369e+01 4.792097e+01 3.708957e+01 3.975107e-01 1.439659e+00 1.177326e+00 1.215471e+00 2.523703e+00 1.611766e+00 2.403774e+00 2.118656e+00 2.650945e+00 2.225267e+00 1.966996e+00 1.668107e+00 7.932176e-01 5.708536e-02 1.943133e-01 1.624711e-01 1.870729e-01 3.434900e-01 2.500760e-01 4.016532e-01 3.546356e-01 4.610284e-01 3.620703e-01 3.191106e-01 2.804833e-01 9.207673e-02
<GCONST> 1.088173e+02
<TRANSP> 5
 0.000000e+00 1.000000e+00 0.000000e+00 0.000000e+00 0.000000e+00
 0.000000e+00 7.066205e-01 2.933796e-01 0.000000e+00 0.000000e+00
 0.000000e+00 0.000000e+00 7.066206e-01 2.933795e-01 0.000000e+00
 0.000000e+00 0.000000e+00 0.000000e+00 8.244565e-01 1.755435e-01
 0.000000e+00 0.000000e+00 0.000000e+00 0.000000e+00 0.000000e+00
<ENDHMM>
~h "p"
<BEGINHMM>
<NUMSTATES> 5
<STATE> 2
<MEAN> 39
 -1.020393e+00 -8.964081e-01 -7.551361e+00 -1.308797e+01 -1.104789e+01 -3.641375e+00 9.321094e-01 -3.007692e+00 -1.978513e+00 -1.399722e+00 -2.082296e+00 -2.775834e+00 6.991603e+01 3.293997e-01 8.427703e-02 7.573805e-02 -2.274383e-01 -5.001832e-01 -2.879138e-01 -1.776762e-01 -2.050594e-01 -8.870326e-04 -6.398575e-02 -5.424686e-02 -8.227219e-02 3.525714e-01 -6.450786e-02 2.464902e-02 4.288606e-02 9.973235e-02 5.159408e-02 -3.410038e-02 -4.973874e-02 1.378970e-03 3.110384e-02 -7.693291e-03 1.951298e-02 2.663357e-02 -9.539621e-02
<VARIANCE> 39
 3.318297e+01 6.777548e+01 4.170252e+01 5.884340e+01 7.780819e+01 8.959953e+01 6.810904e+01 6.226902e+01 5.135186e+01 4.166038e+01 3.519091e+01 3.875230e+01 5.971737e+01 1.357264e+00 1.937527e+00 1.265029e+00 2.317291e+00 2.586155e+00 2.820575e+00 2.721958e+00 2.579122e+00 2.315200e+00 2.151169e+00 1.907173e+00 1.738367e+00 1.507328e+00 2.091189e-01 3.006272e-01 1.997949e-01 3.024048e-01 3.961101e-01 4.415756e-01 4.582139e-01 4.264997e-01 3.805289e-01 3.755585e-01 3.365125e-01 3.034607e-01 2.035152e-01
<GCONST> 1.178032e+02
<STATE> 3
<MEAN> 39
 -1.950719e-01 -4.656510e-01 -7.125937e+00 -1.334031e+01 -1.250360e+01 -4.883685e+00 7.031834e-02 -3.729448e+00 -1.828045e+00 -1.780560e+00 -2.171011e+00 -2.952024e+00 7.063720e+01 1.564153e-01 1.888146e-01 1.844864e-01 6.419372e-02 -3.365638e-01 -3.905309e-01 -2.624184e-01 -1.859193e-01 5.587447e-02 -1.022352e-01 -1.684988e-02 -1.806101e-02 6.219959e-02 -4.661295e-02 2.978018e-02 2.783826e-02 7.612682e-02 4.904617e-02 -1.970809e-02 -1.283680e-02 1.080759e-02 6.516173e-03 -1.135146e-02 1.002433e-02 1.526432e-02 -8.173278e-02
<VARIANCE> 39
 2.795563e+01 7.825918e+01 4.766199e+01 6.071737e+01 7.905199e+01 9.877299e+01 7.440324e+01 6.950376e+01 5.772543e+01 4.815156e+01 3.827775e+01 4.116537e+01 4.858922e+01 1.025045e+00 1.589648e+00 1.135945e+00 2.033731e+00 2.234242e+00 2.530950e+00 2.532057e+00 2.467473e+00 2.234810e+00 2.045267e+00 1.839850e+00 1.666369e+00 1.133954e+00 1.568953e-01 2.266146e-01 1.664609e-01 2.517279e-01 3.346524e-01 3.720165e-01 4.141382e-01 3.862394e-01 3.564048e-01 3.483148e-01 3.173569e-01 2.872757e-01 1.366354e-01
<GCONST> 1.147868e+02
<STATE> 4
<MEAN> 39
 -8.931160e-03 7.143688e-02 -6.605418e+00 -1.237890e+01 -1.339306e+01 -6.206267e+00 -1.437179e+00 -4.323009e+00 -1.755693e+00 -3.456549e+00 -1.969530e+00 -3.087949e+00 7.001234e+01 4.172355e-03 2.695573e-01 2.434221e-01 2.621590e-01 -1.564704e-01 -3.597369e-01 -2.122757e-01 -1.088337e-01 1.248918e-03 -1.223380e-01 -9.035392e-03 1.200816e-02 -1.970796e-01 -2.900025e-02 1.305677e-02 1.131698e-02 3.231949e-02 3.827443e-02 1.479858e-02 1.345281e-02 1.700540e-02 -1.174413e-02 -3.728708e-04 3.196825e-03 5.673388e-03 -5.153487e-02
<VARIANCE> 39
 2.464000e+01 8.351509e+01 5.446486e+01 7.278366e+01 8.040573e+01 9.771677e+01 8.069958e+01 6.979766e+01 5.895577e+01 5.714069e+01 3.922097e+01 4.206319e+01 4.172198e+01 7.385982e-01 1.280682e+00 1.013268e+00 1.688168e+00 1.948895e+00 2.241963e+00 2.282522e+00 2.225463e+00 2.036555e+00 1.841814e+00 1.713656e+00 1.551973e+00 7.834836e-01 1.078687e-01 1.690650e-01 1.356773e-01 2.111291e-01 2.728736e-01 3.058351e-01 3.608750e-01 3.352311e-01 3.200366e-01 3.087972e-01 2.870280e-01 2.588999e-01 8.424104e-02
<GCONST> 1.105555e+02
<TRANSP> 5
 0.000000e+00 1.000000e+00 0.000000e+00 0.000000e+00 0.000000e+00
 0.000000e+00 7.295127e-01 2.704873e-01 0.000000e+00 0.000000e+00
 0.000000e+00 0.000000e+00 7.295125e-01 2.704876e-01 0.000000e+00
 0.000000e+00 0.000000e+00 0.000000e+00 8.593426e-01 1.406574e-01
 0.000000e+00 0.000000e+00 0.000000e+00 0.000000e+00 0.000000e+00
<ENDHMM>
~h "r"
<BEGINHMM>
<NUMSTATES> 5
<STATE> 2
<MEAN> 39
 -3.913866e+00 2.495799e-01 3.064818e+00 7.249436e-01 -1.226323e+01 -1.628379e+01 -5.980692e+00 -4.974562e+00 -1.644808e+00 -4.923071e+00 6.422086e-01 2.235994e-01 6.804309e+01 3.846695e-02 -5.863609e-02 1.197011e-01 1.918735e-01 -2.266651e-01 -9.660281e-02 1.784402e-01 2.246705e-02 -5.232947e-02 -6.137166e-02 7.342166e-02 7.028066e-02 -2.359967e-02 -2.613517e-02 3.454929e-03 -1.566337e-02 -2.760783e-02 2.063854e-02 4.638066e-02 3.605832e-02 2.402749e-02 -1.080022e-02 -3.836612e-03 6.886873e-03 3.596797e-03 -3.492176e-02
<VARIANCE> 39
 2.402137e+01 2.053518e+01 4.385640e+01 4.566873e+01 5.969949e+01 6.837306e+01 4.905817e+01 3.965304e+01 3.846591e+01 3.963137e+01 3.649735e+01 3.026970e+01 3.679847e+01 1.417760e+00 1.605899e+00 1.475250e+00 1.964841e+00 4.524902e+00 3.926831e+00 2.684332e+00 2.649534e+00 1.975565e+00 2.364569e+00 2.407405e+00 2.129351e+00 2.347076e+00 2.628619e-01 3.218444e-01 2.750052e-01 3.836955e-01 8.607289e-01 6.835605e-01 4.832126e-01 5.045641e-01 3.773686e-01 4.624126e-01 4.580641e-01 4.182663e-01 3.988597e-01
<GCONST> 1.190878e+02
<STATE> 3
<MEAN> 39
 -3.841794e+00 7.070279e-02 3.364049e+00 1.151947e+00 -1.288000e+01 -1.641171e+01 -5.425848e+00 -4.864836e+00 -1.850367e+00 -5.120997e+00 8.949342e-01 4.031519e-01 6.790894e+01 -3.762397e-02 -4.473162e-02 7.114044e-02 1.166786e-01 -1.530498e-01 2.291251e-02 2.615857e-01 9.913419e-02 -6.475611e-02 -5.650805e-02 8.861729e-02 6.476899e-02 -1.107118e-01 -2.479998e-02 6.473851e-03 -1.873264e-02 -2.759717e-02 2.863806e-02 3.386654e-02 2.364619e-02 2.510885e-02 -4.471053e-03 4.485686e-03 5.566026e-03 -7.703234e-03 -2.857845e-02
<VARIANCE> 39
 2.147249e+01 2.074863e+01 4.363015e+01 4.471903e+01 5.792947e+01 6.701855e+01 5.056511e+01 3.891551e+01 4.020069e+01 4.096894e+01 3.904234e+01 3.202242e+01 3.497389e+01 1.140994e+00 1.414077e+00 1.428209e+00 1.739218e+00 4.234978e+00 3.565336e+00 2.560917e+00 2.425875e+00 1.937881e+00 2.199191e+00 2.371791e+00 2.117394e+00 1.858396e+00 2.110983e-01 2.793925e-01 2.686931e-01 3.400542e-01 8.157167e-01 6.371549e-01 4.644663e-01 4.530866e-01 3.756716e-01 4.256300e-01 4.471250e-01 4.092994e-01 3.262772e-01
<GCONST> 1.168187e+02
<STATE> 4
<MEAN> 39
 -3.865956e+00 -2.399421e-01 3.420719e+00 1.044889e+00 -1.354650e+01 -1.598603e+01 -4.565009e+00 -4.645546e+00 -2.348983e+00 -5.640904e+00 1.419665e+00 2.806989e-01 6.771003e+01 -1.082417e-01 -1.196755e-02 -5.091042e-03 3.703373e-02 -1.672972e-02 1.396071e-01 2.894884e-01 1.528773e-01 -5.967088e-02 -9.571045e-03 8.002343e-02 1.350484e-02 -2.003135e-01 -2.033807e-02 8.633096e-03 -2.533983e-02 -2.339647e-02 4.403598e-02 2.885271e-02 7.245027e-03 1.224399e-02 6.134552e-04 1.636625e-02 -3.787192e-03 -1.626148e-02 -3.279455e-02
<VARIANCE> 39
 1.951304e+01 2.064768e+01 4.131827e+01 4.320467e+01 5.870154e+01 6.639738e+01 5.202574e+01 3.748209e+01 3.997243e+01 4.510693e+01 4.100874e+01 3.437592e+01 3.533285e+01 9.007765e-01 1.216319e+00 1.328490e+00 1.474970e+00 3.824158e+00 2.933444e+00 2.317568e+00 2.062229e+00 1.877871e+00 2.007216e+00 2.280272e+00 2.041824e+00 1.380565e+00 1.653730e-01 2.362321e-01 2.461578e-01 2.867600e-01 7.373552e-01 5.250243e-01 4.178794e-01 3.750704e-01 3.610929e-01 3.815421e-01 4.211938e-01 3.842425e-01 2.426014e-01
<GCONST> 1.133382e+02
<TRANSP> 5
 0.000000e+00 1.000000e+00 0.000000e+00 0.000000e+00 0.000000e+00
 0.000000e+00 6.635746e-01 3.364255e-01 0.000000e+00 0.000000e+00
 0.000000e+00 0.000000e+00 6.635742e-01 3.364258e-01 0.000000e+00
 0.000000e+00 0.000000e+00 0.000000e+00 7.789698e-01 2.210303e-01
 0.000000e+00 0.000000e+00 0.000000e+00 0.000000e+00 0.000000e+00
<ENDHMM>
~h "t"
<BEGINHMM>
<NUMSTATES> 5
<STATE> 2
<MEAN> 39
 -3.689677e+00 -1.501173e+00 -5.561704e+00 -8.458430e+00 -8.004513e+00 -6.248525e+00 -2.478591e+00 -5.661761e+00 -1.979383e+00 -1.794810e+00 -1.584678e+00 -2.123005e+00 6.923542e+01 2.123172e-01 -4.814922e-03 1.087408e-01 4.385145e-03 -3.028219e-01 -2.789993e-01 -1.289761e-01 -1.711093e-01 -1.182101e-01 -6.840866e-02 -2.698529e-02 -3.227990e-02 2.227690e-01 -3.059095e-02 3.277496e-03 2.278238e-02 4.537191e-02 1.407430e-02 -1.216356e-02 -1.210537e-02 1.367243e-02 1.765887e-02 -9.019737e-03 1.320813e-02 1.611115e-02 -3.902764e-02
<VARIANCE> 39
 4.987449e+01 4.331273e+01 5.912673e+01 6.734857e+01 6.531551e+01 8.187354e+01 5.577504e+01 6.030122e+01 4.994106e+01 4.732041e+01 4.066999e+01 4.290793e+01 6.166683e+01 2.647294e+00 2.095788e+00 1.757709e+00 2.597558e+00 2.906819e+00 3.455687e+00 2.880971e+00 2.925073e+00 3.024172e+00 2.429046e+00 2.264067e+00 2.244931e+00 2.623361e+00 3.837392e-01 3.618196e-01 2.781745e-01 3.733173e-01 4.793604e-01 5.822657e-01 5.222333e-01 4.966975e-01 5.329360e-01 4.420295e-01 4.234185e-01 4.122575e-01 3.896475e-01
<GCONST> 1.249604e+02
<STATE> 3
<MEAN> 39
 -3.088360e+00 -1.516915e+00 -5.121041e+00 -8.222757e+00 -8.959566e+00 -7.296204e+00 -3.032886e+00 -6.193918e+00 -2.227010e+00 -2.115638e+00 -1.588702e+00 -2.162930e+00 6.983930e+01 1.238578e-01 2.220774e-02 1.771152e-01 1.482356e-01 -2.424077e-01 -3.212159e-01 -1.602122e-01 -1.267508e-01 -6.160963e-02 -1.053989e-01 -2.826564e-03 4.145290e-03 1.096683e-01 -2.549817e-02 1.340890e-02 1.984700e-02 4.252788e-02 2.221812e-02 -6.911515e-03 -4.190836e-03 1.329639e-02 1.338401e-02 -1.286025e-02 4.103051e-03 9.092917e-03 -3.865712e-02
<VARIANCE> 39
 4.799276e+01 4.521986e+01 6.444936e+01 7.237279e+01 6.931004e+01 9.103429e+01 5.905296e+01 6.318794e+01 5.253783e+01 5.141314e+01 4.196338e+01 4.395539e+01 5.490719e+01 2.259103e+00 1.867989e+00 1.700432e+00 2.517586e+00 2.757626e+00 3.341122e+00 2.774503e+00 2.797696e+00 2.859744e+00 2.408362e+00 2.188958e+00 2.088208e+00 2.227806e+00 3.285998e-01 3.086264e-01 2.581711e-01 3.506381e-01 4.496919e-01 5.515178e-01 4.949593e-01 4.761218e-01 5.027794e-01 4.355303e-01 4.084520e-01 3.847753e-01 3.161514e-01
<GCONST> 1.235722e+02
<STATE> 4
<MEAN> 39
 -2.484996e+00 -1.523254e+00 -4.670555e+00 -7.489059e+00 -1.003363e+01 -8.614668e+00 -3.785024e+00 -6.703936e+00 -2.220210e+00 -3.234188e+00 -1.376220e+00 -2.278055e+00 6.998737e+01 5.720459e-02 9.641340e-02 2.113127e-01 2.514112e-01 -1.539802e-01 -2.855797e-01 -1.397328e-01 -6.460881e-02 -3.442923e-02 -1.395642e-01 -2.703027e-03 1.941837e-02 -6.004112e-02 -1.513545e-02 1.843323e-02 6.057314e-03 1.873195e-02 2.337506e-02 1.444281e-02 9.534138e-03 1.213241e-02 1.829331e-03 -5.054479e-03 -1.106396e-03 3.024394e-03 -3.916807e-02
<VARIANCE> 39
 4.201595e+01 4.744486e+01 6.863491e+01 7.876011e+01 7.288567e+01 9.362457e+01 6.219888e+01 6.339825e+01 5.314901e+01 5.674858e+01 4.262441e+01 4.431029e+01 4.588275e+01 1.719018e+00 1.642896e+00 1.545882e+00 2.272261e+00 2.546252e+00 3.060039e+00 2.565718e+00 2.582595e+00 2.564940e+00 2.317247e+00 2.063709e+00 1.897973e+00 1.750601e+00 2.463772e-01 2.535213e-01 2.243038e-01 3.124161e-01 4.009121e-01 4.852262e-01 4.463292e-01 4.345827e-01 4.477709e-01 4.111557e-01 3.746428e-01 3.427729e-01 2.350234e-01
<GCONST> 1.204043e+02
<TRANSP> 5
 0.000000e+00 1.000000e+00 0.000000e+00 0.000000e+00 0.000000e+00
 0.000000e+00 7.161636e-01 2.838364e-01 0.000000e+00 0.000000e+00
 0.000000e+00 0.000000e+00 7.161634e-01 2.838366e-01 0.000000e+00
 0.000000e+00 0.000000e+00 0.000000e+00 8.411683e-01 1.588317e-01
 0.000000e+00 0.000000e+00 0.000000e+00 0.000000e+00 0.000000e+00
<ENDHMM>
~h "u"
<BEGINHMM>
<NUMSTATES> 5
<STATE> 2
<MEAN> 39
 -7.537378e+00 3.935416e+00 2.857307e+00 1.850957e+00 -4.497604e+00 -9.469061e+00 -2.829101e+00 -5.200817e+00 -2.781899e+00 -5.119301e+00 -6.530014e-01 -2.215680e-01 6.370372e+01 3.954675e-01 1.361679e-01 -3.744722e-01 4.471722e-03 4.453574e-01 3.181742e-01 -1.175913e-01 1.551665e-02 7.655002e-02 1.444533e-01 -7.286987e-02 -3.423983e-02 -4.443143e-01 -7.465027e-02 -4.097036e-02 -4.529520e-02 -5.363834e-02 6.044572e-03 6.084651e-02 3.401426e-02 2.876505e-02 3.560235e-02 4.040860e-02 1.404847e-02 -1.367604e-02 -1.616243e-02
<VARIANCE> 39
 4.087041e+01 2.698148e+01 4.249069e+01 4.774170e+01 4.125623e+01 5.745368e+01 4.160699e+01 4.188490e+01 3.347152e+01 3.175833e+01 2.305242e+01 1.920005e+01 2.624322e+01 1.802907e+00 1.269285e+00 1.512935e+00 1.998446e+00 1.883911e+00 3.086233e+00 1.935005e+00 2.445907e+00 1.962694e+00 2.177305e+00 1.772655e+00 1.351885e+00 4.485013e-01 2.278323e-01 1.942996e-01 2.088750e-01 2.772770e-01 3.055082e-01 4.327098e-01 3.223946e-01 4.225888e-01 3.428083e-01 3.868933e-01 3.420125e-01 2.642042e-01 6.432111e-02
<GCONST> 1.074834e+02
<STATE> 3
<MEAN> 39
 -6.766043e+00 4.155658e+00 1.718955e+00 1.663051e+00 -3.230220e+00 -8.260139e+00 -3.025250e+00 -4.993571e+00 -2.439844e+00 -4.504413e+00 -8.061504e-01 -3.579729e-01 6.239207e+01 1.748725e-01 1.170799e-02 -4.493476e-01 -1.127956e-01 4.385152e-01 4.584646e-01 -4.316619e-03 9.762955e-02 1.513468e-01 2.382413e-01 -3.338523e-02 -6.971554e-02 -4.628538e-01 -7.632765e-02 -5.066478e-02 -2.033380e-02 -3.683632e-02 -2.060592e-02 4.305378e-02 3.700757e-02 2.753413e-02 1.461505e-02 2.626536e-02 1.860329e-02 -2.506595e-03 -8.827019e-04
<VARIANCE> 39
 2.790683e+01 2.569406e+01 3.425408e+01 3.846436e+01 3.886340e+01 5.272679e+01 4.169464e+01 4.395754e+01 3.300455e+01 3.007991e+01 2.145190e+01 1.820134e+01 2.682642e+01 1.216331e+00 1.079271e+00 1.195468e+00 1.597945e+00 1.610364e+00 2.541521e+00 1.796070e+00 2.299474e+00 1.843675e+00 2.077474e+00 1.581804e+00 1.208740e+00 3.611074e-01 1.460270e-01 1.590586e-01 1.723496e-01 2.377888e-01 2.721893e-01 3.919512e-01 2.988483e-01 3.973011e-01 3.250626e-01 3.879166e-01 3.118725e-01 2.402955e-01 5.095838e-02
<GCONST> 1.024869e+02
<STATE> 4
<MEAN> 39
 -6.478134e+00 3.791463e+00 1.449143e-01 1.143610e+00 -2.013496e+00 -6.499360e+00 -2.666927e+00 -4.068035e+00 -1.530018e+00 -3.570739e+00 -8.040327e-01 -5.694391e-01 6.110015e+01 -4.967876e-02 -1.281717e-01 -4.133887e-01 -1.870422e-01 3.447573e-01 5.087749e-01 1.052862e-01 1.895742e-01 1.613711e-01 2.744769e-01 1.532029e-02 -5.072958e-02 -4.121866e-01 -5.200479e-02 -3.690021e-02 9.716683e-03 -1.921057e-02 -3.715345e-02 5.708539e-03 2.289753e-02 2.584996e-02 -8.256767e-03 -6.655187e-03 1.336392e-02 1.795887e-02 1.470494e-02
<VARIANCE> 39
 1.913487e+01 2.485146e+01 2.514748e+01 3.036610e+01 3.377962e+01 4.812259e+01 4.167460e+01 4.470392e+01 3.348402e+01 2.820728e+01 2.035993e+01 1.715871e+01 2.612047e+01 7.268093e-01 8.597257e-01 9.835347e-01 1.277612e+00 1.363294e+00 1.955472e+00 1.702238e+00 2.029436e+00 1.746679e+00 1.818764e+00 1.388763e+00 1.143472e+00 2.952285e-01 9.126428e-02 1.260592e-01 1.414521e-01 2.079296e-01 2.387739e-01 3.265260e-01 2.973238e-01 3.566271e-01 3.183130e-01 3.599423e-01 2.669546e-01 2.326033e-01 3.846001e-02
<GCONST> 9.675887e+01
<TRANSP> 5
 0.000000e+00 1.000000e+00 0.000000e+00 0.000000e+00 0.000000e+00
 0.000000e+00 6.557250e-01 3.442750e-01 0.000000e+00 0.000000e+00
 0.000000e+00 0.000000e+00 6.557251e-01 3.442749e-01 0.000000e+00
 0.000000e+00 0.000000e+00 0.000000e+00 7.739317e-01 2.260683e-01
 0.000000e+00 0.000000e+00 0.000000e+00 0.000000e+00 0.000000e+00
<ENDHMM>
~h "aa"
<BEGINHMM>
<NUMSTATES> 5
<STATE> 2
<MEAN> 39
 -6.110593e-01 -3.592048e+00 -1.101289e+01 -1.226414e+01 -5.252091e+00 1.878176e-01 1.294571e+00 -5.705364e+00 -2.697470e+00 -1.360767e+00 -3.409225e+00 -4.982329e+00 7.040714e+01 -1.088009e-01 8.157693e-02 8.562764e-02 1.151152e-01 -4.971126e-02 -2.025638e-01 -1.672909e-01 3.365164e-02 1.409114e-01 5.060931e-02 1.245667e-01 5.639037e-02 -2.379343e-01 -1.124779e-02 2.416690e-02 3.329905e-02 3.678088e-02 -5.949423e-03 -3.258639e-02 -1.749219e-02 8.122243e-03 -3.765517e-03 -1.029946e-02 7.162627e-03 1.275547e-02 -2.399671e-02
<VARIANCE> 39
 2.356735e+01 4.567044e+01 4.418295e+01 4.961115e+01 4.066222e+01 5.363166e+01 5.348491e+01 6.384858e+01 4.728630e+01 4.307152e+01 4.812213e+01 3.947186e+01 5.504623e+01 1.168652e+00 1.552245e+00 1.382061e+00 2.009826e+00 1.613927e+00 2.675479e+00 2.174454e+00 2.178177e+00 2.157541e+00 1.832375e+00 1.695722e+00 1.797165e+00 2.119668e+00 1.817824e-01 2.340185e-01 2.177966e-01 2.903582e-01 2.911988e-01 4.554239e-01 4.021375e-01 3.620756e-01 3.777130e-01 3.316685e-01 3.025626e-01 3.204737e-01 2.407316e-01
<GCONST> 1.135264e+02
<STATE> 3
<MEAN> 39
 -1.075495e+00 -3.165448e+00 -1.050322e+01 -1.167101e+01 -5.503125e+00 -7.356482e-01 6.145877e-01 -5.474725e+00 -2.250546e+00 -1.217700e+00 -2.933833e+00 -4.697336e+00 6.945448e+01 -1.207166e-01 1.388492e-01 1.735161e-01 1.933516e-01 -9.071457e-02 -2.935846e-01 -2.044208e-01 5.233882e-02 1.018934e-01 2.463621e-02 1.361260e-01 8.781817e-02 -2.538445e-01 1.754774e-03 1.196988e-02 2.117101e-02 1.391768e-02 -1.414594e-02 -2.064537e-02 -7.991108e-03 1.521462e-03 -1.331535e-02 -7.202642e-03 7.871171e-04 6.145529e-03 6.193636e-03
<VARIANCE> 39
 2.577303e+01 4.469574e+01 4.528429e+01 5.085413e+01 4.189523e+01 5.330760e+01 5.195533e+01 5.710412e+01 4.436021e+01 4.272670e+01 4.535030e+01 4.104752e+01 5.819387e+01 1.398022e+00 1.635137e+00 1.400681e+00 1.973128e+00 1.694162e+00 2.695891e+00 2.299415e+00 2.224764e+00 2.336257e+00 1.875466e+00 1.792084e+00 1.937797e+00 2.459117e+00 2.206189e-01 2.558779e-01 2.248355e-01 2.940077e-01 3.023428e-01 4.695273e-01 4.249474e-01 3.707942e-01 4.120083e-01 3.372400e-01 3.243830e-01 3.452171e-01 2.921543e-01
<GCONST> 1.151471e+02
<STATE> 4
<MEAN> 39
 -1.604841e+00 -2.615138e+00 -9.648133e+00 -1.093345e+01 -6.264584e+00 -2.323822e+00 -3.641894e-01 -5.231357e+00 -1.891574e+00 -1.472063e+00 -2.202214e+00 -4.244309e+00 6.851556e+01 -5.444835e-02 1.428994e-01 2.036602e-01 1.637730e-01 -1.838968e-01 -3.295909e-01 -1.866540e-01 3.755239e-02 1.344461e-02 -3.322545e-03 1.155335e-01 8.781232e-02 -1.173559e-01 1.455833e-02 1.003603e-03 6.758610e-03 -6.165081e-03 -1.879571e-02 -4.932824e-03 3.764311e-03 -7.137618e-03 -1.541177e-02 -7.017857e-03 -5.290514e-03 2.804329e-05 2.588320e-02
<VARIANCE> 39
 2.936436e+01 4.299289e+01 4.749014e+01 5.549859e+01 4.808128e+01 5.266311e+01 5.048081e+01 4.918038e+01 4.138094e+01 4.445876e+01 4.021780e+01 4.198254e+01 5.693996e+01 1.762117e+00 1.766771e+00 1.430365e+00 2.038221e+00 1.899534e+00 2.715245e+00 2.448745e+00 2.285372e+00 2.517558e+00 1.976822e+00 1.886166e+00 2.079770e+00 2.750534e+00 2.772534e-01 2.813277e-01 2.291259e-01 3.039273e-01 3.289614e-01 4.856162e-01 4.460197e-01 3.855508e-01 4.495826e-01 3.497877e-01 3.464284e-01 3.651119e-01 3.416409e-01
<GCONST> 1.170898e+02
<TRANSP> 5
 0.000000e+00 1.000000e+00 0.000000e+00 0.000000e+00 0.000000e+00
 0.000000e+00 7.299364e-01 2.700636e-01 0.000000e+00 0.000000e+00
 0.000000e+00 0.000000e+00 7.299360e-01 2.700640e-01 0.000000e+00
 0.000000e+00 0.000000e+00 0.000000e+00 8.520162e-01 1.479838e-01
 0.000000e+00 0.000000e+00 0.000000e+00 0.000000e+00 0.000000e+00
<ENDHMM>
~h "ae"
<BEGINHMM>
<NUMSTATES> 5
<STATE> 2
<MEAN> 39
 -1.896368e+00 -6.219293e+00 -6.610863e+00 -8.438037e+00 -1.093623e+01 -9.782299e+00 -1.575109e+00 -9.921074e-03 1.239652e+00 -1.318151e+00 -3.118768e+00 -4.667220e+00 7.313634e+01 -2.111699e-01 2.895343e-01 4.580318e-01 5.835890e-01 -2.579004e-01 -7.273721e-01 -1.824794e-01 1.800849e-01 7.150030e-02 -1.170026e-01 1.614174e-01 2.209858e-01 -3.945123e-01 -1.840523e-02 3.096457e-02 5.704924e-03 -7.487246e-03 1.484114e-02 6.494670e-02 3.646026e-02 -3.510572e-02 -3.231280e-02 1.604177e-03 2.233336e-02 1.074064e-02 -5.005327e-02
<VARIANCE> 39
 2.080289e+01 3.877007e+01 6.777927e+01 6.198468e+01 5.752849e+01 1.161396e+02 6.097380e+01 6.188157e+01 5.218121e+01 5.175590e+01 4.357251e+01 4.565422e+01 2.857824e+01 4.647938e-01 8.813315e-01 1.016504e+00 1.267489e+00 1.622547e+00 2.587193e+00 1.789156e+00 2.268450e+00 2.103454e+00 1.595164e+00 1.785592e+00 1.480488e+00 5.156798e-01 6.770793e-02 1.155102e-01 1.352265e-01 1.798424e-01 2.257377e-01 3.100449e-01 2.757207e-01 3.133931e-01 2.953455e-01 2.764219e-01 2.703469e-01 2.219196e-01 5.151726e-02
<GCONST> 1.043617e+02
<STATE> 3
<MEAN> 39
 -2.756334e+00 -5.007645e+00 -4.959096e+00 -6.404936e+00 -1.178281e+01 -1.200025e+01 -2.021652e+00 4.268517e-01 1.335147e+00 -1.703909e+00 -2.457462e+00 -3.858026e+00 7.148133e+01 -2.683275e-01 3.682271e-01 4.305552e-01 5.181197e-01 -1.500816e-01 -4.416304e-01 -5.368635e-02 4.837006e-02 -2.597577e-02 -9.141967e-02 2.068763e-01 2.298985e-01 -5.645921e-01 -1.355801e-02 9.901995e-03 -2.464571e-02 -2.695183e-02 4.343352e-02 9.176043e-02 3.300396e-02 -3.339478e-02 -1.939524e-02 1.001085e-02 2.808792e-03 -7.758174e-03 -4.468009e-02
<VARIANCE> 39
 2.167458e+01 4.074561e+01 6.943544e+01 5.936123e+01 5.878560e+01 9.866577e+01 5.996674e+01 5.524917e+01 4.701651e+01 5.069748e+01 4.273895e+01 4.460215e+01 3.437529e+01 3.888289e-01 8.238968e-01 1.040246e+00 1.188241e+00 1.604040e+00 2.440079e+00 1.677324e+00 2.106952e+00 1.937308e+00 1.599419e+00 1.807766e+00 1.438628e+00 4.839025e-01 5.555948e-02 1.090535e-01 1.412123e-01 1.790890e-01 2.136939e-01 2.878183e-01 2.710018e-01 3.008520e-01 2.886113e-01 2.788518e-01 2.912501e-01 2.208942e-01 4.499597e-02
<GCONST> 1.030405e+02
<STATE> 4
<MEAN> 39
 -4.232485e+00 -3.407673e+00 -3.755202e+00 -4.503347e+00 -1.191597e+01 -1.230922e+01 -2.040829e+00 1.743383e-01 7.850344e-01 -2.787663e+00 -1.576234e+00 -3.132031e+00 6.841519e+01 -3.032636e-01 3.153253e-01 2.520083e-01 3.496911e-01 1.240212e-01 -2.705269e-02 5.820680e-02 -3.161063e-02 -4.123788e-02 5.723201e-03 1.518565e-01 1.797338e-01 -6.695744e-01 -7.375838e-03 -1.707808e-02 -4.206820e-02 -3.057492e-02 5.501246e-02 7.863369e-02 1.670940e-02 -4.089164e-03 -3.641471e-06 1.437973e-02 -9.853702e-03 -1.159066e-02 -2.297015e-02
<VARIANCE> 39
 2.379811e+01 3.809952e+01 6.170986e+01 5.002195e+01 6.339002e+01 7.907510e+01 5.186561e+01 4.690161e+01 4.265604e+01 5.263941e+01 3.833337e+01 4.061037e+01 4.593797e+01 3.356538e-01 7.749117e-01 1.058074e+00 1.096482e+00 1.606721e+00 2.182914e+00 1.532725e+00 1.816890e+00 1.790101e+00 1.600108e+00 1.775915e+00 1.429641e+00 4.842564e-01 4.834610e-02 1.020949e-01 1.403543e-01 1.719130e-01 1.999318e-01 2.815204e-01 2.679126e-01 2.831442e-01 2.844842e-01 2.800522e-01 3.087144e-01 2.343636e-01 4.549440e-02
<GCONST> 1.013344e+02
<TRANSP> 5
 0.000000e+00 1.000000e+00 0.000000e+00 0.000000e+00 0.000000e+00
 0.000000e+00 7.333435e-01 2.666565e-01 0.000000e+00 0.000000e+00
 0.000000e+00 0.000000e+00 7.333438e-01 2.666562e-01 0.000000e+00
 0.000000e+00 0.000000e+00 0.000000e+00 8.629442e-01 1.370558e-01
 0.000000e+00 0.000000e+00 0.000000e+00 0.000000e+00 0.000000e+00
<ENDHMM>
~h "ai"
<BEGINHMM>
<NUMSTATES> 5
<STATE> 2
<MEAN> 39
 -3.301745e+00 -1.612937e+00 -9.428639e-01 -4.901511e+00 -1.204248e+01 -1.229602e+01 -3.973999e+00 -6.095233e+00 -2.135466e+00 -3.006638e+00 -1.921299e+00 -3.346375e+00 7.054446e+01 -2.792587e-01 5.247722e-01 6.105922e-01 5.978429e-01 -6.078994e-02 -2.400847e-01 -4.232669e-02 -2.772998e-01 -3.232971e-01 -2.584473e-01 6.774912e-02 1.443594e-01 -6.065704e-01 -1.535324e-02 -9.275887e-03 -5.354138e-02 -4.092937e-02 6.626472e-02 1.059790e-01 5.001441e-02 2.500548e-02 -9.686222e-03 1.888630e-02 -4.063205e-03 -1.264607e-02 -4.258502e-02
<VARIANCE> 39
 2.576482e+01 5.886056e+01 9.116209e+01 7.092791e+01 6.526339e+01 9.959099e+01 5.315987e+01 5.296753e+01 6.011283e+01 5.329890e+01 3.917089e+01 3.797120e+01 3.913982e+01 5.823787e-01 1.283115e+00 1.581193e+00 1.869108e+00 2.111398e+00 3.276974e+00 2.469943e+00 2.612066e+00 2.816356e+00 2.263412e+00 2.343096e+00 1.892646e+00 6.753539e-01 7.453206e-02 1.454976e-01 1.769441e-01 2.398843e-01 3.029841e-01 3.975897e-01 3.743469e-01 3.969948e-01 4.343824e-01 3.767726e-01 4.090608e-01 3.178251e-01 6.211527e-02
<GCONST> 1.127471e+02
<STATE> 3
<MEAN> 39
 -4.286201e+00 6.217504e-02 7.697623e-01 -3.120186e+00 -1.192995e+01 -1.257473e+01 -3.940627e+00 -6.819499e+00 -3.190673e+00 -3.706080e+00 -1.765420e+00 -2.960847e+00 6.838115e+01 -3.153905e-01 4.446317e-01 3.881695e-01 4.372255e-01 1.583910e-01 8.750662e-02 9.574971e-02 -1.608052e-01 -2.918546e-01 -1.566819e-01 4.892966e-02 1.067285e-01 -7.142447e-01 -3.830828e-03 -4.544232e-02 -8.129897e-02 -5.370092e-02 6.093395e-02 8.802882e-02 2.793547e-02 4.456257e-02 3.047181e-02 3.609192e-02 -2.429293e-03 -7.970153e-03 -1.966127e-02
<VARIANCE> 39
 2.514426e+01 5.978656e+01 8.596947e+01 6.014091e+01 6.448549e+01 8.513671e+01 5.070050e+01 4.919976e+01 5.960855e+01 4.741975e+01 3.504980e+01 3.463579e+01 4.161230e+01 4.646820e-01 1.129928e+00 1.478686e+00 1.564785e+00 1.946530e+00 2.555938e+00 2.116267e+00 2.318042e+00 2.497184e+00 1.980895e+00 2.048661e+00 1.648066e+00 4.969957e-01 6.376774e-02 1.298694e-01 1.618304e-01 2.071542e-01 2.804859e-01 3.190882e-01 3.372376e-01 3.556898e-01 3.796840e-01 3.198691e-01 3.616625e-01 2.835848e-01 4.325281e-02
<GCONST> 1.080089e+02
<STATE> 4
<MEAN> 39
 -5.645470e+00 6.466236e-01 7.479619e-01 -2.194255e+00 -1.078292e+01 -1.041105e+01 -3.617950e+00 -6.650412e+00 -3.758873e+00 -4.576903e+00 -1.443611e+00 -2.965648e+00 6.533110e+01 -2.937108e-01 2.025538e-01 4.971307e-02 2.242995e-01 3.494494e-01 3.277985e-01 1.463646e-01 5.769888e-02 -7.273851e-02 3.353284e-02 3.563114e-02 1.058325e-01 -6.629990e-01 1.329553e-03 -5.191037e-02 -6.892522e-02 -3.956534e-02 3.312993e-02 4.705351e-02 7.028227e-03 4.414412e-02 4.551855e-02 2.909053e-02 6.119926e-03 5.968193e-03 1.370374e-03
<VARIANCE> 39
 2.243475e+01 5.354301e+01 7.622872e+01 4.499847e+01 6.554956e+01 7.499432e+01 4.583131e+01 4.539149e+01 5.364149e+01 4.454001e+01 3.110811e+01 3.243024e+01 4.664016e+01 3.918237e-01 1.025942e+00 1.290487e+00 1.281195e+00 1.818229e+00 1.965386e+00 1.811095e+00 2.129141e+00 2.220100e+00 1.699174e+00 1.763204e+00 1.454651e+00 4.327997e-01 5.588501e-02 1.216260e-01 1.479145e-01 1.874028e-01 2.723356e-01 2.778981e-01 3.107661e-01 3.413636e-01 3.424713e-01 2.776562e-01 3.151336e-01 2.645345e-01 3.407879e-02
<GCONST> 1.036155e+02
<TRANSP> 5
 0.000000e+00 1.000000e+00 0.000000e+00 0.000000e+00 0.000000e+00
 0.000000e+00 7.168695e-01 2.831306e-01 0.000000e+00 0.000000e+00
 0.000000e+00 0.000000e+00 7.168690e-01 2.831309e-01 0.000000e+00
 0.000000e+00 0.000000e+00 0.000000e+00 8.520121e-01 1.479879e-01
 0.000000e+00 0.000000e+00 0.000000e+00 0.000000e+00 0.000000e+00
<ENDHMM>
~h "ao"
<BEGINHMM>
<NUMSTATES> 5
<STATE> 2
<MEAN> 39
 1.611870e+00 1.939774e-02 -8.882960e+00 -1.838286e+01 -1.601600e+01 -1.731686e+00 4.622480e+00 -2.603424e+00 -2.266519e+00 -3.668591e+00 -4.488239e+00 -2.767614e+00 7.000853e+01 2.924995e-02 3.927295e-01 1.316806e-01 -7.284672e-03 -1.913440e-01 -2.845712e-01 -1.561897e-01 1.809828e-02 1.267667e-01 1.011761e-01 -4.203676e-02 1.242830e-02 -3.813108e-01 -2.459105e-02 1.734898e-02 1.395053e-02 5.187417e-02 4.720449e-02 -7.016468e-03 -1.760826e-02 4.377096e-03 -5.803458e-03 -2.405615e-03 1.180814e-02 -1.468281e-03 -4.447706e-02
<VARIANCE> 39
 1.826740e+01 5.234449e+01 4.293967e+01 4.203232e+01 8.140782e+01 7.169994e+01 5.248925e+01 7.747397e+01 5.192025e+01 5.483082e+01 3.236546e+01 3.135301e+01 4.197689e+01 6.828994e-01 1.086667e+00 7.928543e-01 1.510210e+00 1.704059e+00 1.734406e+00 1.754571e+00 1.834324e+00 1.895034e+00 1.686700e+00 1.369614e+00 1.267555e+00 8.562235e-01 1.081061e-01 1.333859e-01 1.228653e-01 2.008186e-01 2.489794e-01 2.770312e-01 2.933415e-01 3.024816e-01 3.236833e-01 2.862126e-01 2.487321e-01 2.174256e-01 9.304767e-02
<GCONST> 1.046190e+02
<STATE> 3
<MEAN> 39
 1.553633e+00 1.618527e+00 -8.277197e+00 -1.803706e+01 -1.646051e+01 -2.922122e+00 3.907911e+00 -2.414559e+00 -1.868476e+00 -3.311142e+00 -4.586893e+00 -2.734704e+00 6.831396e+01 -8.179048e-02 4.107225e-01 1.723014e-01 1.980991e-01 8.532122e-03 -2.925887e-01 -2.141377e-01 5.628740e-02 1.048157e-01 8.318315e-02 8.948687e-03 8.292086e-03 -5.247054e-01 -3.369742e-02 -1.194111e-02 4.290228e-03 5.193012e-02 5.987111e-02 1.163993e-02 -1.022393e-02 1.165295e-02 -5.080703e-03 -5.793886e-03 1.855536e-02 3.023743e-03 -3.090016e-02
<VARIANCE> 39
 1.769240e+01 5.259457e+01 4.160720e+01 4.229803e+01 7.827329e+01 6.962512e+01 5.279105e+01 6.797018e+01 4.797897e+01 5.347742e+01 3.133074e+01 3.034796e+01 4.542854e+01 6.271183e-01 1.029432e+00 7.275124e-01 1.404320e+00 1.817681e+00 1.629730e+00 1.701570e+00 1.803313e+00 1.845502e+00 1.658093e+00 1.383918e+00 1.275782e+00 6.775950e-01 9.314359e-02 1.267152e-01 1.131048e-01 1.824844e-01 2.446325e-01 2.530757e-01 2.892517e-01 2.977454e-01 3.180219e-01 2.827182e-01 2.468529e-01 2.175813e-01 7.238363e-02
<GCONST> 1.028740e+02
<STATE> 4
<MEAN> 39
 4.943557e-01 3.178037e+00 -7.635279e+00 -1.615028e+01 -1.521869e+01 -3.940337e+00 2.546371e+00 -2.134952e+00 -1.481646e+00 -3.600080e+00 -4.187503e+00 -2.762870e+00 6.542471e+01 -2.500909e-01 2.519053e-01 1.784104e-01 4.342934e-01 2.938019e-01 -1.923454e-01 -2.304534e-01 1.344973e-01 8.858919e-02 7.530253e-02 8.437341e-02 3.667380e-02 -5.787672e-01 -3.373343e-02 -3.923475e-02 -4.809448e-03 3.665008e-02 5.446363e-02 3.234761e-02 3.166692e-03 9.518459e-03 2.128802e-03 -4.678355e-04 1.887129e-02 1.155097e-02 -8.790813e-03
<VARIANCE> 39
 2.126240e+01 4.389212e+01 3.872472e+01 5.306357e+01 7.896327e+01 5.884756e+01 4.963122e+01 5.311915e+01 4.086842e+01 5.306414e+01 2.915259e+01 2.995801e+01 4.846225e+01 5.338275e-01 9.541694e-01 6.944293e-01 1.272212e+00 1.795540e+00 1.589367e+00 1.640741e+00 1.707349e+00 1.786747e+00 1.640986e+00 1.435017e+00 1.320416e+00 4.896836e-01 7.394017e-02 1.106577e-01 1.070211e-01 1.696882e-01 2.280836e-01 2.345375e-01 2.808999e-01 2.880481e-01 3.164225e-01 2.844772e-01 2.511336e-01 2.233690e-01 5.009536e-02
<GCONST> 1.005417e+02
<TRANSP> 5
 0.000000e+00 1.000000e+00 0.000000e+00 0.000000e+00 0.000000e+00
 0.000000e+00 7.478942e-01 2.521058e-01 0.000000e+00 0.000000e+00
 0.000000e+00 0.000000e+00 7.478938e-01 2.521063e-01 0.000000e+00
 0.000000e+00 0.000000e+00 0.000000e+00 8.747671e-01 1.252329e-01
 0.000000e+00 0.000000e+00 0.000000e+00 0.000000e+00 0.000000e+00
<ENDHMM>
~h "au"
<BEGINHMM>
<NUMSTATES> 5
<STATE> 2
<MEAN> 39
 2.713060e-01 7.170563e-01 -7.159764e+00 -8.458121e+00 -9.778157e+00 -7.405276e+00 -5.573780e+00 -9.196974e+00 -2.791250e+00 -1.956329e+00 2.669032e-01 -2.541629e+00 6.944366e+01 -1.220010e-02 4.630966e-01 2.688842e-01 3.323251e-01 5.056275e-02 -1.828607e-01 -2.462381e-01 -2.005531e-01 -2.044230e-01 -2.469912e-01 -3.638323e-02 8.012424e-02 -4.691980e-01 -2.972590e-02 1.260687e-03 7.398126e-03 1.431663e-02 4.608052e-02 3.901647e-02 3.636363e-02 4.446745e-02 -3.684690e-03 -1.510360e-02 -2.424507e-02 -3.181302e-03 -4.907934e-02
<VARIANCE> 39
 1.846557e+01 6.095940e+01 4.185480e+01 6.005756e+01 5.033990e+01 7.285836e+01 6.906522e+01 6.580667e+01 7.204329e+01 6.102658e+01 3.646813e+01 4.845569e+01 4.311395e+01 7.037821e-01 1.198439e+00 9.124113e-01 1.499161e+00 1.555508e+00 1.978888e+00 2.019927e+00 2.208574e+00 2.291009e+00 2.105254e+00 1.749246e+00 1.751492e+00 8.636142e-01 1.013951e-01 1.391512e-01 1.362332e-01 2.085080e-01 2.319983e-01 2.881530e-01 2.973086e-01 3.199799e-01 3.540988e-01 3.141748e-01 2.815312e-01 2.831882e-01 7.081404e-02
<GCONST> 1.078480e+02
<STATE> 3
<MEAN> 39
 3.977609e-02 2.429369e+00 -6.090610e+00 -7.127475e+00 -9.358256e+00 -7.893728e+00 -6.273574e+00 -9.651248e+00 -3.603669e+00 -2.888217e+00 -1.428723e-02 -2.246206e+00 6.746941e+01 -1.284767e-01 4.230727e-01 2.734480e-01 3.558897e-01 2.040163e-01 -2.777777e-02 -9.787346e-02 -2.251689e-02 -1.878560e-01 -2.618795e-01 -1.156029e-01 6.235223e-02 -6.088402e-01 -3.387255e-02 -3.095466e-02 -7.327315e-03 -1.769690e-03 3.570428e-02 3.968577e-02 3.794176e-02 5.287894e-02 1.876253e-02 1.019573e-02 -1.503094e-02 -5.099868e-03 -2.279569e-02
<VARIANCE> 39
 1.798500e+01 5.920986e+01 3.921954e+01 5.762881e+01 4.839123e+01 6.559072e+01 6.180373e+01 6.290946e+01 7.159866e+01 5.801308e+01 3.543886e+01 4.325005e+01 4.702055e+01 5.620385e-01 1.092410e+00 7.991345e-01 1.274251e+00 1.453071e+00 1.851060e+00 1.914031e+00 2.078942e+00 2.144377e+00 1.991573e+00 1.660134e+00 1.633818e+00 6.195354e-01 7.477487e-02 1.217560e-01 1.203446e-01 1.833487e-01 2.204120e-01 2.644876e-01 2.825718e-01 2.994307e-01 3.302194e-01 3.044426e-01 2.706156e-01 2.658258e-01 5.079304e-02
<GCONST> 1.043543e+02
<STATE> 4
<MEAN> 39
 -1.197815e+00 3.619349e+00 -5.023075e+00 -5.202414e+00 -8.036918e+00 -7.782576e+00 -6.548824e+00 -8.785442e+00 -3.859959e+00 -4.072101e+00 -7.427267e-01 -2.103472e+00 6.449374e+01 -2.733150e-01 2.171567e-01 2.079921e-01 3.034289e-01 3.212538e-01 1.472148e-01 9.240139e-02 1.889491e-01 -7.121575e-02 -1.277791e-01 -1.308972e-01 5.021961e-02 -6.160814e-01 -2.874061e-02 -5.164160e-02 -1.918294e-02 -1.299595e-02 1.809519e-02 2.759112e-02 2.702978e-02 4.026537e-02 3.273160e-02 3.057969e-02 4.792621e-03 1.544045e-03 4.570646e-03
<VARIANCE> 39
 2.193490e+01 4.908214e+01 3.353246e+01 5.063641e+01 4.655764e+01 5.715195e+01 5.750548e+01 5.687806e+01 6.310046e+01 5.077254e+01 3.286065e+01 3.759720e+01 4.835741e+01 4.436231e-01 1.015208e+00 7.237728e-01 1.089935e+00 1.323107e+00 1.715727e+00 1.809239e+00 1.846331e+00 1.926427e+00 1.854334e+00 1.538547e+00 1.484064e+00 4.344535e-01 5.634013e-02 1.114911e-01 1.090403e-01 1.621606e-01 2.060091e-01 2.487124e-01 2.696054e-01 2.817003e-01 3.007290e-01 2.861905e-01 2.571791e-01 2.482339e-01 3.603405e-02
<GCONST> 1.002196e+02
<TRANSP> 5
 0.000000e+00 1.000000e+00 0.000000e+00 0.000000e+00 0.000000e+00
 0.000000e+00 7.392146e-01 2.607854e-01 0.000000e+00 0.000000e+00
 0.000000e+00 0.000000e+00 7.392140e-01 2.607860e-01 0.000000e+00
 0.000000e+00 0.000000e+00 0.000000e+00 8.643755e-01 1.356245e-01
 0.000000e+00 0.000000e+00 0.000000e+00 0.000000e+00 0.000000e+00
<ENDHMM>
~h "ee"
<BEGINHMM>
<NUMSTATES> 5
<STATE> 2
<MEAN> 39
 -4.116168e+00 -1.016683e+00 4.881849e+00 -2.589095e+00 -1.926470e+01 -1.791097e+01 -5.214817e+00 -7.625074e+00 -5.950330e+00 -6.393427e+00 2.356977e-01 -1.278279e+00 7.311693e+01 7.412042e-02 4.288141e-02 -7.279910e-02 2.790641e-02 1.269577e-01 3.294878e-02 -4.851315e-02 8.909794e-02 5.181779e-02 -4.341423e-02 -6.484891e-02 -4.757753e-02 -2.238925e-01 -1.445217e-02 4.663925e-03 -1.578744e-02 1.524408e-03 3.795690e-02 2.781205e-02 1.703825e-02 2.060614e-02 1.193997e-02 1.477255e-02 -3.539379e-03 -1.271024e-03 -3.255751e-02
<VARIANCE> 39
 1.530719e+01 2.736092e+01 4.459219e+01 5.241557e+01 6.738107e+01 6.247997e+01 3.727750e+01 4.515620e+01 4.002462e+01 4.278738e+01 5.297579e+01 5.640438e+01 2.170673e+01 4.412370e-01 7.901527e-01 6.397931e-01 8.283406e-01 1.691208e+00 1.223693e+00 1.480078e+00 1.270171e+00 1.429107e+00 1.337093e+00 1.288886e+00 1.134221e+00 5.631970e-01 6.784365e-02 1.283825e-01 9.983435e-02 1.449582e-01 2.318445e-01 2.087797e-01 2.537579e-01 2.112931e-01 2.670526e-01 2.249260e-01 2.210858e-01 1.998791e-01 6.410237e-02
<GCONST> 9.628223e+01
<STATE> 3
<MEAN> 39
 -3.940753e+00 -8.480039e-01 4.515883e+00 -2.486851e+00 -1.856625e+01 -1.763869e+01 -5.256194e+00 -7.123848e+00 -5.697947e+00 -6.448361e+00 -4.577518e-02 -1.469328e+00 7.208540e+01 1.599999e-02 5.464389e-02 -1.266790e-01 3.532995e-02 2.479826e-01 1.320667e-01 2.467025e-02 1.588497e-01 9.227715e-02 1.486953e-02 -7.437098e-02 -4.504973e-02 -3.348172e-01 -1.786601e-02 4.540840e-04 -1.438983e-02 1.723152e-03 2.785871e-02 2.422162e-02 1.940372e-02 1.467017e-02 1.013611e-02 1.805227e-02 -1.060741e-04 3.921779e-03 -2.645678e-02
<VARIANCE> 39
 1.446672e+01 2.791752e+01 4.520661e+01 5.074009e+01 6.839101e+01 6.261301e+01 3.784433e+01 4.545692e+01 4.087675e+01 4.530612e+01 5.443547e+01 5.398221e+01 2.699467e+01 4.000585e-01 8.367288e-01 6.579711e-01 8.691106e-01 1.666648e+00 1.260134e+00 1.535971e+00 1.337767e+00 1.570660e+00 1.442132e+00 1.364462e+00 1.214043e+00 6.085781e-01 6.067516e-02 1.296755e-01 1.031064e-01 1.488583e-01 2.279436e-01 2.112244e-01 2.617394e-01 2.313891e-01 2.917701e-01 2.417770e-01 2.320988e-01 2.142375e-01 6.407408e-02
<GCONST> 9.740891e+01
<STATE> 4
<MEAN> 39
 -4.195195e+00 -9.709759e-01 3.280225e+00 -2.586748e+00 -1.682829e+01 -1.624430e+01 -4.533164e+00 -6.273684e+00 -5.084158e+00 -6.303463e+00 -2.923176e-01 -1.810730e+00 6.998970e+01 -7.627962e-02 4.306653e-02 -1.921454e-01 4.360221e-02 3.713933e-01 2.561173e-01 1.151191e-01 2.240146e-01 1.415870e-01 1.045592e-01 -7.040448e-02 1.974464e-03 -4.484268e-01 -1.939045e-02 -4.540853e-03 -1.260428e-02 1.261795e-03 1.943129e-02 2.204794e-02 1.453260e-02 4.290407e-03 9.221252e-03 1.820657e-02 6.044650e-03 1.170950e-02 -1.836831e-02
<VARIANCE> 39
 1.428411e+01 2.717839e+01 4.638606e+01 4.554582e+01 7.492258e+01 6.888355e+01 3.900351e+01 5.079313e+01 4.095142e+01 4.829356e+01 5.169656e+01 4.819917e+01 3.897228e+01 3.791493e-01 8.714622e-01 7.102522e-01 8.960305e-01 1.657547e+00 1.347243e+00 1.601004e+00 1.476139e+00 1.677011e+00 1.590070e+00 1.498921e+00 1.324522e+00 6.810392e-01 5.762946e-02 1.329862e-01 1.109964e-01 1.484111e-01 2.198220e-01 2.187769e-01 2.743607e-01 2.598826e-01 3.053568e-01 2.651553e-01 2.520614e-01 2.366014e-01 6.473432e-02
<GCONST> 9.917126e+01
<TRANSP> 5
 0.000000e+00 1.000000e+00 0.000000e+00 0.000000e+00 0.000000e+00
 0.000000e+00 7.423329e-01 2.576671e-01 0.000000e+00 0.000000e+00
 0.000000e+00 0.000000e+00 7.423329e-01 2.576671e-01 0.000000e+00
 0.000000e+00 0.000000e+00 0.000000e+00 8.676189e-01 1.323811e-01
 0.000000e+00 0.000000e+00 0.000000e+00 0.000000e+00 0.000000e+00
<ENDHMM>
~h "ei"
<BEGINHMM>
<NUMSTATES> 5
<STATE> 2
<MEAN> 39
 -4.570578e+00 -7.977033e-02 5.086983e+00 -2.035796e+00 -1.717414e+01 -1.528206e+01 -3.321772e+00 -6.861588e+00 -5.232032e+00 -5.675060e+00 -2.300918e-01 -2.320091e+00 7.086600e+01 -1.071123e-01 3.715372e-01 3.064785e-01 1.985336e-01 1.246405e-01 2.323356e-01 8.678026e-02 -3.057309e-01 -2.743794e-01 -3.654046e-02 -2.796834e-02 -1.691066e-02 -4.257080e-01 -8.598681e-03 -2.101963e-03 -3.766136e-02 3.279026e-03 6.131211e-02 3.699822e-02 1.154788e-02 3.329830e-02 1.523872e-02 3.736259e-03 -1.686417e-02 -8.559360e-04 -4.336008e-02
<VARIANCE> 39
 1.332117e+01 4.723028e+01 6.922322e+01 4.914596e+01 6.256350e+01 7.705649e+01 3.965511e+01 6.281073e+01 5.885989e+01 5.064843e+01 3.620184e+01 4.399996e+01 3.295286e+01 3.653071e-01 7.957658e-01 1.005961e+00 9.248015e-01 1.597605e+00 1.436332e+00 1.463560e+00 1.901804e+00 1.525853e+00 1.499613e+00 1.353564e+00 1.297391e+00 5.732052e-01 5.629384e-02 1.085891e-01 1.335102e-01 1.526691e-01 2.054010e-01 2.139955e-01 2.578671e-01 2.933426e-01 2.392499e-01 2.534271e-01 2.215431e-01 2.174392e-01 5.234277e-02
<GCONST> 9.932158e+01
<STATE> 3
<MEAN> 39
 -5.001266e+00 1.278236e+00 5.987936e+00 -1.320213e+00 -1.638061e+01 -1.425740e+01 -2.991318e+00 -7.784168e+00 -6.116124e+00 -5.758777e+00 -4.399142e-01 -2.362260e+00 6.911814e+01 -1.354278e-01 3.359725e-01 1.422351e-01 1.938050e-01 3.426400e-01 3.554346e-01 1.165633e-01 -1.609846e-01 -1.963276e-01 -9.141046e-03 -8.011500e-02 -1.901679e-02 -5.597834e-01 -7.609146e-03 -2.188872e-02 -5.738963e-02 -6.704246e-03 5.886577e-02 2.789705e-02 3.998424e-03 4.601578e-02 2.861026e-02 1.254290e-02 -8.827867e-03 2.047706e-03 -3.011337e-02
<VARIANCE> 39
 1.236608e+01 4.624799e+01 6.508364e+01 4.628308e+01 6.758377e+01 7.790482e+01 3.726151e+01 5.631007e+01 5.339884e+01 4.981831e+01 3.430421e+01 4.107132e+01 3.707708e+01 2.976238e-01 7.253289e-01 1.050256e+00 9.012457e-01 1.577166e+00 1.354666e+00 1.391522e+00 1.894631e+00 1.446108e+00 1.431341e+00 1.283263e+00 1.250356e+00 4.583490e-01 4.704546e-02 9.706851e-02 1.267558e-01 1.474582e-01 2.079407e-01 2.157601e-01 2.549779e-01 2.913398e-01 2.214374e-01 2.425056e-01 2.167062e-01 2.101963e-01 4.277708e-02
<GCONST> 9.732726e+01
<STATE> 4
<MEAN> 39
 -5.595401e+00 2.217419e+00 5.429019e+00 -9.443171e-01 -1.401059e+01 -1.217160e+01 -2.524148e+00 -7.916207e+00 -6.423617e+00 -5.859257e+00 -7.018243e-01 -2.558652e+00 6.645264e+01 -1.667439e-01 1.894244e-01 -1.231706e-01 1.381855e-01 5.574977e-01 4.466235e-01 1.227838e-01 6.724092e-02 -3.192496e-02 7.363800e-02 -8.995082e-02 9.862270e-03 -6.244208e-01 -9.703888e-03 -3.972378e-02 -5.994851e-02 -1.584591e-02 4.216269e-02 1.684371e-02 2.403128e-03 4.862934e-02 3.570642e-02 1.947323e-02 6.208517e-03 8.172366e-03 -1.080586e-02
<VARIANCE> 39
 1.177048e+01 4.118456e+01 6.269527e+01 4.017439e+01 7.661931e+01 7.692146e+01 3.569726e+01 5.075255e+01 4.590172e+01 4.769887e+01 3.190229e+01 3.601192e+01 4.135789e+01 2.714860e-01 7.400731e-01 1.122937e+00 9.189349e-01 1.579268e+00 1.348718e+00 1.500611e+00 1.871685e+00 1.435937e+00 1.446923e+00 1.290599e+00 1.221935e+00 4.025106e-01 4.423076e-02 9.542449e-02 1.310951e-01 1.500978e-01 2.230961e-01 2.312666e-01 2.856660e-01 2.879418e-01 2.230878e-01 2.433352e-01 2.250239e-01 2.052272e-01 4.196600e-02
<GCONST> 9.681048e+01
<TRANSP> 5
 0.000000e+00 1.000000e+00 0.000000e+00 0.000000e+00 0.000000e+00
 0.000000e+00 7.314203e-01 2.685797e-01 0.000000e+00 0.000000e+00
 0.000000e+00 0.000000e+00 7.314203e-01 2.685796e-01 0.000000e+00
 0.000000e+00 0.000000e+00 0.000000e+00 8.549559e-01 1.450441e-01
 0.000000e+00 0.000000e+00 0.000000e+00 0.000000e+00 0.000000e+00
<ENDHMM>
~h "ii"
<BEGINHMM>
<NUMSTATES> 5
<STATE> 2
<MEAN> 39
 -6.846232e+00 6.070515e+00 1.056877e+01 -1.381478e+00 -1.230487e+01 -1.113535e+01 -2.357300e+00 -1.181682e+01 -8.869270e+00 -5.874301e+00 -2.526680e+00 -4.255759e+00 6.801511e+01 4.956258e-03 1.492096e-01 -9.070565e-02 1.284294e-01 2.474780e-01 1.159264e-01 4.674066e-02 8.083183e-02 8.761117e-02 -3.794701e-02 -2.272983e-02 -2.177377e-02 -3.080006e-01 -2.545460e-02 -2.900391e-02 -4.698716e-02 -6.392231e-03 3.123454e-02 2.137092e-02 1.186708e-02 2.993985e-02 2.389262e-02 3.474065e-03 -6.144740e-03 1.655097e-02 -2.982733e-02
<VARIANCE> 39
 1.703451e+01 3.283636e+01 6.118066e+01 4.836355e+01 5.679348e+01 5.870747e+01 3.859840e+01 5.176238e+01 3.365766e+01 3.471977e+01 3.034880e+01 4.067705e+01 2.516689e+01 4.808190e-01 6.739701e-01 8.051475e-01 7.388144e-01 1.214171e+00 1.259350e+00 1.184508e+00 1.343340e+00 1.199441e+00 1.239048e+00 1.168612e+00 1.107919e+00 4.080305e-01 7.673577e-02 1.064901e-01 1.150908e-01 1.117639e-01 1.762412e-01 2.044228e-01 2.147167e-01 2.070931e-01 2.114713e-01 2.270332e-01 2.134243e-01 1.872250e-01 4.168179e-02
<GCONST> 9.308598e+01
<STATE> 3
<MEAN> 39
 -6.950699e+00 6.470340e+00 9.978538e+00 -9.380698e-01 -1.120103e+01 -1.056063e+01 -2.153090e+00 -1.132720e+01 -8.467161e+00 -5.982793e+00 -2.636443e+00 -4.245067e+00 6.670715e+01 -6.737905e-02 4.484289e-02 -2.491602e-01 1.060105e-01 3.457595e-01 1.846361e-01 8.103326e-02 1.724876e-01 1.510622e-01 -1.896886e-02 -3.578385e-02 3.878271e-02 -4.029749e-01 -1.728082e-02 -3.450123e-02 -4.270316e-02 -7.390490e-03 2.202628e-02 1.674346e-02 1.025404e-02 2.456746e-02 1.537202e-02 9.701082e-03 2.116959e-03 1.820713e-02 -2.158339e-02
<VARIANCE> 39
 1.616455e+01 3.214529e+01 6.319507e+01 4.583448e+01 5.772936e+01 5.983189e+01 3.937186e+01 5.124607e+01 3.302071e+01 3.348666e+01 3.006080e+01 3.773650e+01 2.856313e+01 3.843412e-01 6.333687e-01 7.799825e-01 7.546166e-01 1.194956e+00 1.209079e+00 1.198702e+00 1.322711e+00 1.206829e+00 1.282306e+00 1.214933e+00 1.151058e+00 3.366279e-01 6.439765e-02 9.796298e-02 1.102633e-01 1.148667e-01 1.794012e-01 1.980734e-01 2.213178e-01 2.067621e-01 2.183736e-01 2.363771e-01 2.260064e-01 2.006198e-01 3.473241e-02
<GCONST> 9.234817e+01
<STATE> 4
<MEAN> 39
 -7.263715e+00 5.527735e+00 7.428819e+00 -9.328439e-01 -9.122225e+00 -9.353073e+00 -1.881405e+00 -9.925897e+00 -7.299049e+00 -6.132926e+00 -2.630575e+00 -3.900652e+00 6.469109e+01 -1.260178e-01 -1.154698e-01 -3.970605e-01 7.522591e-02 4.145016e-01 2.633023e-01 1.078839e-01 2.919481e-01 2.203233e-01 5.917469e-02 -5.625827e-03 1.342563e-01 -4.493051e-01 -1.133932e-02 -3.717994e-02 -3.226747e-02 -1.150663e-02 1.023184e-02 1.898810e-02 9.978629e-03 2.782426e-02 1.770297e-02 1.750222e-02 1.060618e-02 1.381212e-02 -9.066960e-03
<VARIANCE> 39
 1.679272e+01 3.731297e+01 7.185040e+01 4.187672e+01 5.556465e+01 5.570753e+01 3.851569e+01 5.639000e+01 3.629938e+01 3.187808e+01 2.866205e+01 3.441032e+01 3.231549e+01 3.697020e-01 6.549740e-01 7.973707e-01 8.000567e-01 1.245423e+00 1.200011e+00 1.288799e+00 1.468139e+00 1.344374e+00 1.323024e+00 1.319785e+00 1.205304e+00 3.215063e-01 6.379689e-02 9.770116e-02 1.124022e-01 1.292627e-01 1.920374e-01 1.993780e-01 2.379418e-01 2.269064e-01 2.468508e-01 2.419834e-01 2.519124e-01 2.162311e-01 3.581395e-02
<GCONST> 9.379976e+01
<TRANSP> 5
 0.000000e+00 1.000000e+00 0.000000e+00 0.000000e+00 0.000000e+00
 0.000000e+00 7.369044e-01 2.630956e-01 0.000000e+00 0.000000e+00
 0.000000e+00 0.000000e+00 7.369043e-01 2.630957e-01 0.000000e+00
 0.000000e+00 0.000000e+00 0.000000e+00 8.651128e-01 1.348872e-01
 0.000000e+00 0.000000e+00 0.000000e+00 0.000000e+00 0.000000e+00
<ENDHMM>
~h "oe"
<BEGINHMM>
<NUMSTATES> 5
<STATE> 2
<MEAN> 39
 -2.285048e+00 -1.095885e+00 -2.786321e+00 -6.228371e+00 -1.211904e+01 -1.374685e+01 -6.649340e+00 -6.801224e+00 -2.092978e+00 -2.757116e+00 3.514926e-01 4.313749e-01 6.913213e+01 -1.953732e-01 -4.387076e-02 2.257946e-01 4.160127e-01 1.151855e-01 -2.249981e-01 -1.902670e-02 1.475900e-01 2.745963e-02 -6.503439e-02 2.160546e-02 -6.450492e-03 -2.476081e-01 -1.595372e-02 2.030155e-02 -1.339151e-02 -3.029455e-02 1.104700e-02 5.566899e-02 4.106782e-02 1.486494e-02 -4.949362e-03 1.041032e-04 -1.295061e-02 -7.850462e-03 -3.397122e-02
<VARIANCE> 39
 2.799654e+01 3.721626e+01 4.804357e+01 7.360274e+01 5.859525e+01 8.079747e+01 5.590687e+01 5.425404e+01 4.475267e+01 5.071829e+01 4.291466e+01 3.301625e+01 4.321947e+01 1.377821e+00 1.816034e+00 1.689928e+00 2.617611e+00 3.053769e+00 3.520337e+00 3.322015e+00 3.182451e+00 3.144788e+00 2.950775e+00 2.747705e+00 2.278759e+00 1.763856e+00 2.115668e-01 2.766123e-01 2.463281e-01 3.342867e-01 5.121771e-01 5.155243e-01 5.565354e-01 5.660703e-01 5.808140e-01 5.563470e-01 5.007315e-01 4.619730e-01 2.091128e-01
<GCONST> 1.218133e+02
<STATE> 3
<MEAN> 39
 -3.044988e+00 -1.147128e+00 -2.071685e+00 -4.951994e+00 -1.166931e+01 -1.421728e+01 -6.501747e+00 -6.224381e+00 -2.075548e+00 -2.938289e+00 3.263352e-01 3.710729e-01 6.818000e+01 -2.308520e-01 1.557008e-02 1.549880e-01 2.878901e-01 1.563607e-01 -2.279213e-02 1.130050e-01 1.739884e-01 6.622760e-03 -4.785854e-02 -1.611743e-02 -2.766097e-02 -3.278080e-01 -1.919783e-03 1.253865e-02 -2.843908e-02 -4.049245e-02 1.071446e-02 6.092745e-02 2.800303e-02 4.281618e-03 -5.096925e-03 9.954175e-03 -6.016039e-03 -2.667513e-03 -1.517949e-02
<VARIANCE> 39
 2.827452e+01 3.454928e+01 4.754515e+01 6.660043e+01 5.675794e+01 7.917653e+01 5.351537e+01 5.240135e+01 4.224767e+01 4.807491e+01 4.114289e+01 3.241814e+01 4.396534e+01 1.321568e+00 1.688917e+00 1.569748e+00 2.346947e+00 2.773958e+00 3.253822e+00 2.961714e+00 2.909930e+00 2.830966e+00 2.646618e+00 2.494924e+00 2.134031e+00 1.754133e+00 2.094924e-01 2.626709e-01 2.266769e-01 2.996098e-01 4.691558e-01 4.649667e-01 4.984418e-01 5.211771e-01 5.202673e-01 4.934896e-01 4.507678e-01 4.302109e-01 2.108485e-01
<GCONST> 1.192593e+02
<STATE> 4
<MEAN> 39
 -4.082837e+00 -1.082177e+00 -1.737139e+00 -4.148327e+00 -1.097225e+01 -1.354409e+01 -5.636360e+00 -5.408206e+00 -2.279236e+00 -3.283222e+00 3.185816e-01 7.250285e-02 6.679804e+01 -2.089541e-01 4.657708e-02 3.548339e-02 1.362806e-01 2.069419e-01 1.983153e-01 1.927606e-01 1.565493e-01 -6.400049e-06 1.216906e-02 -3.032995e-02 -1.583292e-02 -3.380203e-01 7.498879e-03 1.922346e-03 -2.802986e-02 -2.787086e-02 9.364661e-03 4.204350e-02 3.032631e-03 -8.092867e-04 4.354729e-03 1.353514e-02 4.076440e-03 7.339744e-03 -3.661834e-03
<VARIANCE> 39
 2.997725e+01 3.191316e+01 4.552004e+01 6.060886e+01 5.743910e+01 7.645432e+01 5.114220e+01 4.970483e+01 4.001066e+01 4.593691e+01 3.644143e+01 3.251809e+01 4.399762e+01 1.305237e+00 1.573365e+00 1.362477e+00 2.054961e+00 2.631855e+00 2.886769e+00 2.597800e+00 2.610161e+00 2.572869e+00 2.364137e+00 2.187849e+00 2.033832e+00 1.608620e+00 2.042455e-01 2.457181e-01 1.966594e-01 2.705010e-01 4.348481e-01 4.104376e-01 4.464018e-01 4.659896e-01 4.643273e-01 4.339291e-01 3.949994e-01 4.059151e-01 1.931821e-01
<GCONST> 1.162383e+02
<TRANSP> 5
 0.000000e+00 1.000000e+00 0.000000e+00 0.000000e+00 0.000000e+00
 0.000000e+00 7.260188e-01 2.739812e-01 0.000000e+00 0.000000e+00
 0.000000e+00 0.000000e+00 7.260191e-01 2.739809e-01 0.000000e+00
 0.000000e+00 0.000000e+00 0.000000e+00 8.479419e-01 1.520581e-01
 0.000000e+00 0.000000e+00 0.000000e+00 0.000000e+00 0.000000e+00
<ENDHMM>
~h "oi"
<BEGINHMM>
<NUMSTATES> 5
<STATE> 2
<MEAN> 39
 -1.659409e+00 1.159222e+00 -1.151523e+00 -4.311429e+00 -1.190963e+01 -1.232793e+01 -5.583099e+00 -9.650780e+00 -4.966968e+00 -5.775942e+00 -2.701179e-01 -4.767762e-01 6.907520e+01 -2.566958e-01 5.697878e-02 3.443711e-01 5.023080e-01 1.687939e-01 -1.235603e-01 2.868421e-02 6.660619e-02 -1.566877e-02 -9.607497e-02 -2.917130e-02 -8.202337e-02 -2.725183e-01 -9.429511e-03 2.290131e-02 -3.072318e-02 -5.404405e-02 2.123915e-02 7.390809e-02 4.290085e-02 2.947853e-02 4.592075e-03 2.026691e-02 -1.454991e-02 7.395550e-03 -4.135326e-02
<VARIANCE> 39
 2.259725e+01 3.411707e+01 7.098798e+01 9.118874e+01 7.532887e+01 8.510001e+01 5.971235e+01 5.481846e+01 4.966633e+01 4.668977e+01 4.369307e+01 4.247922e+01 2.728382e+01 8.116038e-01 1.671919e+00 2.586962e+00 4.083219e+00 4.062074e+00 4.968126e+00 4.288829e+00 3.469747e+00 3.454421e+00 3.573729e+00 3.464616e+00 2.692004e+00 6.750309e-01 1.054318e-01 2.369930e-01 3.291501e-01 4.900320e-01 6.395208e-01 7.695214e-01 7.724617e-01 6.663488e-01 6.741024e-01 7.099274e-01 6.746820e-01 5.463517e-01 6.856802e-02
<GCONST> 1.239595e+02
<STATE> 3
<MEAN> 39
 -2.520611e+00 1.444204e+00 -2.334380e-01 -3.001864e+00 -1.127829e+01 -1.232064e+01 -5.258635e+00 -9.315675e+00 -4.975042e+00 -5.960742e+00 -4.530308e-01 -7.410245e-01 6.801199e+01 -2.550424e-01 1.124969e-01 2.115547e-01 2.893934e-01 2.192246e-01 1.143474e-01 1.476897e-01 1.400192e-01 3.646962e-03 -1.920178e-02 -6.717145e-02 -3.994963e-02 -3.801271e-01 8.329610e-03 5.125959e-03 -5.122469e-02 -7.034343e-02 9.329783e-03 6.432097e-02 2.444806e-02 1.975439e-02 7.958312e-03 2.634300e-02 -9.135979e-04 1.583430e-02 -2.319619e-02
<VARIANCE> 39
 2.252602e+01 3.339199e+01 7.041871e+01 8.319213e+01 7.530904e+01 8.000536e+01 5.626686e+01 5.146837e+01 4.786909e+01 4.460981e+01 4.097620e+01 4.104518e+01 2.981885e+01 7.082923e-01 1.520504e+00 2.416415e+00 3.595714e+00 3.765035e+00 4.524397e+00 3.796234e+00 3.160585e+00 3.129700e+00 3.259528e+00 3.016427e+00 2.439728e+00 6.120563e-01 9.252261e-02 2.173858e-01 2.969302e-01 4.252149e-01 5.795912e-01 6.766512e-01 6.871293e-01 6.087098e-01 5.989169e-01 6.410208e-01 5.777681e-01 4.854311e-01 5.805374e-02
<GCONST> 1.206650e+02
<STATE> 4
<MEAN> 39
 -3.465621e+00 1.573347e+00 -2.887394e-01 -2.857753e+00 -1.033684e+01 -1.088127e+01 -4.537439e+00 -8.358543e+00 -4.732804e+00 -6.091296e+00 -6.324875e-01 -1.198372e+00 6.617000e+01 -1.944867e-01 7.048109e-02 1.606924e-02 5.506762e-02 2.324360e-01 2.662023e-01 1.790233e-01 1.858130e-01 5.490541e-02 7.877672e-02 -5.374068e-02 2.646021e-02 -3.865346e-01 9.562673e-03 -1.735675e-02 -4.084047e-02 -4.032993e-02 3.294734e-03 2.340708e-02 -1.375676e-03 1.101922e-02 1.436131e-02 1.824428e-02 9.838739e-03 1.277507e-02 -2.230141e-03
<VARIANCE> 39
 2.313568e+01 3.205708e+01 6.396878e+01 7.573007e+01 7.537324e+01 7.239137e+01 4.964758e+01 4.653624e+01 4.369310e+01 4.234443e+01 3.674261e+01 3.973177e+01 3.460133e+01 6.313459e-01 1.394486e+00 2.052589e+00 2.890829e+00 3.455840e+00 3.711070e+00 3.107468e+00 2.809487e+00 2.698087e+00 2.749426e+00 2.475166e+00 2.191402e+00 5.723007e-01 8.341926e-02 1.989240e-01 2.529565e-01 3.532984e-01 5.062134e-01 5.619855e-01 5.598696e-01 5.330765e-01 4.999070e-01 5.341125e-01 4.580129e-01 4.201629e-01 5.187107e-02
<GCONST> 1.160752e+02
<TRANSP> 5
 0.000000e+00 1.000000e+00 0.000000e+00 0.000000e+00 0.000000e+00
 0.000000e+00 7.176806e-01 2.823194e-01 0.000000e+00 0.000000e+00
 0.000000e+00 0.000000e+00 7.176803e-01 2.823196e-01 0.000000e+00
 0.000000e+00 0.000000e+00 0.000000e+00 8.452649e-01 1.547352e-01
 0.000000e+00 0.000000e+00 0.000000e+00 0.000000e+00 0.000000e+00
<ENDHMM>
~h "oo"
<BEGINHMM>
<NUMSTATES> 5
<STATE> 2
<MEAN> 39
 1.442778e+00 9.738108e+00 -2.124570e+00 -1.358305e+01 -2.009285e+01 -1.244260e+01 -5.021843e+00 -5.794967e+00 1.641759e+00 1.644941e+00 -2.686211e+00 -3.093436e+00 6.486852e+01 -1.706825e-01 3.325835e-02 4.973784e-02 1.783216e-01 1.484155e-01 5.089421e-02 1.344056e-01 1.422972e-01 5.603053e-02 -3.526325e-02 1.641191e-01 2.000202e-02 -3.152450e-01 -3.944085e-02 -4.371262e-02 -9.668458e-03 3.382368e-02 7.331739e-02 3.559067e-02 1.560739e-02 2.042227e-02 -2.031064e-02 -1.808598e-02 1.272080e-02 2.253221e-02 -3.016091e-02
<VARIANCE> 39
 1.867951e+01 3.931025e+01 3.510675e+01 4.038452e+01 7.277724e+01 5.194603e+01 4.669849e+01 6.026277e+01 3.348757e+01 4.274430e+01 3.320929e+01 3.075682e+01 2.518752e+01 5.867003e-01 9.150448e-01 7.787718e-01 9.118177e-01 2.191503e+00 1.237210e+00 1.704492e+00 1.462850e+00 1.281835e+00 1.295556e+00 1.494807e+00 1.147463e+00 5.044780e-01 7.671081e-02 1.259070e-01 1.312888e-01 1.368422e-01 3.000192e-01 2.155229e-01 3.146912e-01 2.530779e-01 2.458632e-01 2.282203e-01 2.818624e-01 1.962391e-01 6.467705e-02
<GCONST> 9.800240e+01
<STATE> 3
<MEAN> 39
 6.475875e-01 9.621831e+00 -2.004410e+00 -1.279907e+01 -1.920016e+01 -1.201421e+01 -4.426239e+00 -5.190524e+00 1.730786e+00 1.451373e+00 -2.159729e+00 -2.917239e+00 6.360910e+01 -2.976504e-01 -1.161103e-01 1.208658e-02 2.893396e-01 4.063536e-01 1.888425e-01 1.665558e-01 2.046309e-01 -3.961814e-03 -7.311787e-02 1.803430e-01 1.072536e-01 -4.106040e-01 -3.157603e-02 -4.448952e-02 -1.611324e-02 2.484750e-02 6.583648e-02 4.126513e-02 2.853906e-03 8.531078e-03 -1.856705e-02 -7.825669e-03 -4.554903e-03 2.343531e-02 -2.190686e-02
<VARIANCE> 39
 1.982323e+01 3.802886e+01 3.506096e+01 4.201363e+01 7.997971e+01 5.164231e+01 4.700286e+01 5.621164e+01 3.172091e+01 4.419026e+01 2.934404e+01 2.906666e+01 2.788634e+01 5.037364e-01 9.132938e-01 7.491721e-01 9.268509e-01 2.062346e+00 1.290663e+00 1.636521e+00 1.402570e+00 1.294136e+00 1.279965e+00 1.443229e+00 1.172091e+00 4.190378e-01 6.740159e-02 1.209510e-01 1.238761e-01 1.474754e-01 2.927948e-01 2.288839e-01 3.055646e-01 2.472622e-01 2.491352e-01 2.249723e-01 2.696153e-01 1.987256e-01 5.145249e-02
<GCONST> 9.708154e+01
<STATE> 4
<MEAN> 39
 -1.296991e+00 7.722207e+00 -2.773958e+00 -1.103861e+01 -1.587499e+01 -9.788427e+00 -3.228253e+00 -4.011410e+00 1.246470e+00 3.321534e-01 -1.546675e+00 -2.326252e+00 6.164594e+01 -3.913853e-01 -2.557167e-01 -5.728887e-02 3.725483e-01 6.381744e-01 3.278602e-01 1.602569e-01 2.264588e-01 -3.974790e-02 -6.035934e-02 1.251490e-01 1.857390e-01 -4.422389e-01 -1.771507e-02 -2.565610e-02 -1.656642e-02 1.168370e-02 3.356236e-02 2.411490e-02 -5.225538e-03 -1.801750e-03 -8.873172e-03 -2.615968e-03 -8.584198e-03 1.134321e-02 -5.170636e-03
<VARIANCE> 39
 2.488375e+01 4.025380e+01 3.172673e+01 4.504617e+01 1.069265e+02 5.490891e+01 4.694566e+01 4.500396e+01 2.782962e+01 4.543462e+01 2.369642e+01 2.703601e+01 3.037783e+01 4.449380e-01 7.805306e-01 7.371290e-01 9.997826e-01 1.915361e+00 1.353790e+00 1.550577e+00 1.392694e+00 1.336639e+00 1.331307e+00 1.374849e+00 1.180713e+00 3.684682e-01 6.377562e-02 1.132498e-01 1.228094e-01 1.710742e-01 2.947736e-01 2.566825e-01 2.927068e-01 2.515940e-01 2.602008e-01 2.344548e-01 2.565862e-01 1.980775e-01 4.562213e-02
<GCONST> 9.677902e+01
<TRANSP> 5
 0.000000e+00 1.000000e+00 0.000000e+00 0.000000e+00 0.000000e+00
 0.000000e+00 7.262124e-01 2.737875e-01 0.000000e+00 0.000000e+00
 0.000000e+00 0.000000e+00 7.262121e-01 2.737879e-01 0.000000e+00
 0.000000e+00 0.000000e+00 0.000000e+00 8.555748e-01 1.444251e-01
 0.000000e+00 0.000000e+00 0.000000e+00 0.000000e+00 0.000000e+00
<ENDHMM>
~h "ou"
<BEGINHMM>
<NUMSTATES> 5
<STATE> 2
<MEAN> 39
 6.389811e-01 5.828880e+00 -4.385603e+00 -8.688087e+00 -1.163987e+01 -7.229224e+00 -2.964442e+00 -8.134824e+00 -5.293245e+00 -5.728374e+00 -1.459584e+00 -6.984307e-01 6.662653e+01 -1.100121e-01 1.265411e-01 1.620041e-01 3.764954e-01 2.491484e-01 -4.819867e-02 -1.423450e-01 -3.569615e-02 -4.090504e-02 -1.265432e-01 -5.250287e-02 -2.368579e-02 -3.323059e-01 -3.464198e-02 -1.432009e-02 5.703776e-03 2.295443e-02 4.849983e-02 1.760497e-02 5.753685e-03 3.616235e-02 2.222288e-02 1.204391e-02 -7.298742e-03 -5.614503e-03 -4.434231e-02
<VARIANCE> 39
 2.177166e+01 5.662793e+01 3.522722e+01 7.322421e+01 6.199431e+01 5.068095e+01 7.128900e+01 5.264506e+01 5.915327e+01 5.123914e+01 4.273582e+01 3.869950e+01 3.512595e+01 7.887002e-01 1.235126e+00 1.015153e+00 1.825360e+00 1.864278e+00 1.822220e+00 2.208169e+00 2.030417e+00 1.970180e+00 1.958783e+00 1.856835e+00 1.517070e+00 9.851568e-01 1.092739e-01 1.825210e-01 1.639646e-01 2.567347e-01 2.745532e-01 2.851723e-01 3.739936e-01 3.147569e-01 3.430373e-01 3.307929e-01 3.142813e-01 2.648154e-01 1.100696e-01
<GCONST> 1.089658e+02
<STATE> 3
<MEAN> 39
 9.015870e-02 6.225982e+00 -3.800669e+00 -7.256554e+00 -1.056825e+01 -7.261758e+00 -3.385492e+00 -8.094220e+00 -5.310230e+00 -6.064110e+00 -1.698600e+00 -8.326268e-01 6.528053e+01 -2.226326e-01 5.259683e-02 1.612211e-01 4.031972e-01 3.773268e-01 2.286263e-02 -1.095266e-01 8.200742e-02 3.982189e-02 -6.117954e-02 -6.455165e-02 -3.497818e-02 -4.406739e-01 -3.175405e-02 -2.745487e-02 -3.906883e-03 -1.183462e-03 2.612968e-02 1.610741e-02 8.354969e-03 3.270650e-02 2.609572e-02 2.383529e-02 4.655542e-05 -1.639065e-03 -2.132197e-02
<VARIANCE> 39
 2.196130e+01 5.423248e+01 3.294783e+01 6.864334e+01 6.124158e+01 4.618391e+01 6.705339e+01 5.216048e+01 5.628931e+01 4.878263e+01 4.163587e+01 3.694200e+01 3.840007e+01 6.787410e-01 1.137662e+00 9.698054e-01 1.618258e+00 1.713256e+00 1.763157e+00 2.103599e+00 1.935115e+00 1.948821e+00 1.909188e+00 1.826388e+00 1.494156e+00 8.791619e-01 9.178318e-02 1.647604e-01 1.566745e-01 2.334794e-01 2.619100e-01 2.778285e-01 3.484437e-01 3.004756e-01 3.373490e-01 3.188505e-01 3.102621e-01 2.650802e-01 1.006961e-01
<GCONST> 1.069853e+02
<STATE> 4
<MEAN> 39
 -1.225529e+00 5.731323e+00 -3.585294e+00 -5.316634e+00 -8.529724e+00 -6.867821e+00 -3.982646e+00 -7.359865e+00 -4.550047e+00 -6.169416e+00 -1.877383e+00 -1.102039e+00 6.329465e+01 -3.219314e-01 -7.928150e-02 1.125048e-01 3.297839e-01 4.217465e-01 1.157517e-01 -2.313096e-02 1.933446e-01 1.330151e-01 7.527280e-02 -3.605875e-02 -2.868164e-02 -4.451056e-01 -2.167370e-02 -3.311116e-02 -1.158147e-02 -1.729747e-02 4.625972e-05 9.926661e-03 1.133524e-02 2.121094e-02 2.280308e-02 2.611990e-02 1.017041e-02 4.415141e-03 5.246216e-03
<VARIANCE> 39
 2.387271e+01 5.173433e+01 3.030806e+01 5.673772e+01 5.674874e+01 4.118207e+01 6.062095e+01 4.886467e+01 5.139444e+01 4.401608e+01 3.744331e+01 3.296014e+01 4.104298e+01 5.852426e-01 1.002837e+00 9.249109e-01 1.431370e+00 1.586806e+00 1.638006e+00 1.951352e+00 1.776000e+00 1.858172e+00 1.833359e+00 1.751325e+00 1.459485e+00 7.911764e-01 7.884096e-02 1.423530e-01 1.496711e-01 2.099650e-01 2.519509e-01 2.620074e-01 3.102103e-01 2.838023e-01 3.158559e-01 3.052074e-01 3.006774e-01 2.648447e-01 9.235937e-02
<GCONST> 1.040794e+02
<TRANSP> 5
 0.000000e+00 1.000000e+00 0.000000e+00 0.000000e+00 0.000000e+00
 0.000000e+00 7.215746e-01 2.784254e-01 0.000000e+00 0.000000e+00
 0.000000e+00 0.000000e+00 7.215748e-01 2.784252e-01 0.000000e+00
 0.000000e+00 0.000000e+00 0.000000e+00 8.486876e-01 1.513124e-01
 0.000000e+00 0.000000e+00 0.000000e+00 0.000000e+00 0.000000e+00
<ENDHMM>
~h "uu"
<BEGINHMM>
<NUMSTATES> 5
<STATE> 2
<MEAN> 39
 -6.949185e-01 4.157527e+00 -3.614852e-01 -4.488289e-01 -7.564161e+00 -1.366522e+01 -8.970018e+00 -1.300582e+01 -4.602270e+00 -7.270901e+00 -3.836166e+00 -1.925051e+00 6.797960e+01 7.523613e-02 2.279558e-01 1.622662e-02 4.963181e-02 5.445527e-02 1.815840e-01 -4.678084e-02 6.649037e-02 -1.379381e-01 -6.798238e-02 1.615737e-03 2.900204e-02 -3.784146e-01 -4.509345e-02 -1.310933e-02 5.989233e-04 1.736674e-03 2.018843e-02 2.692367e-02 1.430779e-02 3.307240e-02 2.592027e-02 4.447826e-03 -1.091119e-03 -8.997435e-04 -2.080236e-02
<VARIANCE> 39
 2.470938e+01 4.175364e+01 3.302318e+01 4.546711e+01 5.140274e+01 6.424374e+01 7.503032e+01 6.279611e+01 7.568446e+01 5.917060e+01 3.101053e+01 4.408279e+01 2.940878e+01 7.050748e-01 5.967105e-01 4.839751e-01 7.491558e-01 9.423482e-01 1.221246e+00 1.518650e+00 1.533986e+00 1.256541e+00 1.121494e+00 1.056025e+00 1.071108e+00 3.133866e-01 8.247892e-02 9.939164e-02 8.175609e-02 1.340628e-01 1.357058e-01 1.736402e-01 2.466159e-01 2.368312e-01 2.106807e-01 1.954568e-01 1.809787e-01 1.731241e-01 3.910412e-02
<GCONST> 9.411081e+01
<STATE> 3
<MEAN> 39
 -6.667280e-01 4.917339e+00 -2.676044e-01 -2.360070e-01 -7.238397e+00 -1.288182e+01 -9.048254e+00 -1.260762e+01 -4.972116e+00 -7.460734e+00 -3.764518e+00 -1.784690e+00 6.646983e+01 -6.964632e-02 1.732003e-01 6.968565e-03 5.127896e-02 1.336578e-01 2.836761e-01 2.165234e-02 1.757545e-01 -6.720553e-02 -4.555553e-02 1.456468e-02 2.064424e-02 -4.462684e-01 -3.809064e-02 -2.707380e-02 -6.172913e-03 3.016838e-04 2.832235e-02 2.021466e-02 2.069333e-02 2.919194e-02 2.989304e-02 1.153982e-02 -9.269561e-04 1.638186e-03 -1.467677e-02
<VARIANCE> 39
 1.996090e+01 4.193830e+01 2.915596e+01 4.463817e+01 5.365888e+01 6.385991e+01 6.738604e+01 6.162276e+01 7.354505e+01 5.925456e+01 3.065052e+01 4.111649e+01 3.361855e+01 4.508678e-01 5.379158e-01 4.606649e-01 7.038779e-01 8.835369e-01 1.083745e+00 1.450923e+00 1.382454e+00 1.233627e+00 1.096670e+00 1.080522e+00 9.829938e-01 2.399458e-01 5.310195e-02 8.174927e-02 7.462627e-02 1.252150e-01 1.300141e-01 1.613384e-01 2.396195e-01 2.092887e-01 2.119996e-01 1.901098e-01 1.854000e-01 1.583181e-01 2.831324e-02
<GCONST> 9.085423e+01
<STATE> 4
<MEAN> 39
 -1.642895e+00 4.701597e+00 -5.967872e-01 2.061388e-01 -6.324212e+00 -1.189725e+01 -8.565142e+00 -1.087081e+01 -3.955914e+00 -7.459129e+00 -3.438572e+00 -1.490678e+00 6.459941e+01 -2.209528e-01 3.580218e-02 -2.758975e-02 4.483785e-02 2.641710e-01 3.927944e-01 1.637772e-01 3.024500e-01 3.612097e-02 3.487938e-02 4.093951e-02 -7.427390e-03 -4.720280e-01 -3.112434e-02 -3.906427e-02 -1.352562e-02 -2.512493e-03 2.757466e-02 9.058606e-03 2.590710e-02 3.136390e-02 3.147342e-02 2.347269e-02 2.898664e-03 9.195667e-04 -3.972771e-03
<VARIANCE> 39
 1.939328e+01 4.085300e+01 2.416449e+01 3.750151e+01 5.501111e+01 6.451455e+01 5.924415e+01 6.211458e+01 6.965751e+01 5.680549e+01 2.902924e+01 3.662787e+01 3.662049e+01 3.426330e-01 6.197869e-01 4.780477e-01 7.807988e-01 9.583722e-01 1.111610e+00 1.582895e+00 1.332289e+00 1.482352e+00 1.319717e+00 1.101783e+00 9.847118e-01 2.430468e-01 4.396358e-02 8.203625e-02 7.446848e-02 1.315987e-01 1.437822e-01 1.803288e-01 2.741412e-01 2.014419e-01 2.439581e-01 2.279773e-01 1.910667e-01 1.571504e-01 2.737680e-02
<GCONST> 9.121979e+01
<TRANSP> 5
 0.000000e+00 1.000000e+00 0.000000e+00 0.000000e+00 0.000000e+00
 0.000000e+00 7.330311e-01 2.669689e-01 0.000000e+00 0.000000e+00
 0.000000e+00 0.000000e+00 7.330315e-01 2.669685e-01 0.000000e+00
 0.000000e+00 0.000000e+00 0.000000e+00 8.583221e-01 1.416778e-01
 0.000000e+00 0.000000e+00 0.000000e+00 0.000000e+00 0.000000e+00
<ENDHMM>
~h "sil"
<BEGINHMM>
<NUMSTATES> 5
<STATE> 2
<MEAN> 39
 -7.180508e+00 1.404662e+00 -2.096991e+00 -3.126066e+00 -5.633557e+00 -5.467748e+00 -1.250752e+00 -2.813075e+00 -1.796793e+00 -2.450913e+00 -1.024484e+00 -7.914664e-01 6.039582e+01 -9.651564e-03 -1.498167e-01 -1.285835e-01 -1.484637e-01 4.849996e-03 2.671905e-02 6.122753e-02 1.888574e-02 -2.207848e-02 -4.307847e-02 -4.640166e-02 -3.702328e-02 2.655151e-01 3.946346e-02 1.759331e-02 -1.217137e-02 -3.316418e-02 -1.845500e-02 4.744556e-03 1.343035e-02 -1.817574e-02 -1.743914e-02 3.427593e-05 -1.218093e-02 -6.631931e-03 4.372119e-02
<VARIANCE> 39
 2.760081e+01 3.644091e+01 4.217360e+01 4.044356e+01 6.063748e+01 6.164074e+01 4.037429e+01 4.703183e+01 4.074554e+01 3.628692e+01 2.638848e+01 2.503268e+01 4.914024e+01 1.116323e+00 1.573574e+00 1.334506e+00 1.752695e+00 2.190154e+00 2.193671e+00 2.015441e+00 2.160750e+00 2.174498e+00 1.994289e+00 1.785140e+00 1.535833e+00 2.630214e+00 1.404008e-01 2.200488e-01 1.788273e-01 2.359064e-01 2.810402e-01 3.079944e-01 3.341660e-01 3.289870e-01 3.370453e-01 3.173449e-01 2.882414e-01 2.524654e-01 2.115517e-01
<GCONST> 1.096843e+02
<STATE> 3
<MEAN> 39
 -6.959326e+00 1.063592e+00 -2.539335e+00 -3.735190e+00 -5.676904e+00 -5.297327e+00 -9.288106e-01 -2.824008e+00 -1.985078e+00 -2.552128e+00 -1.257938e+00 -9.525465e-01 6.131606e+01 9.623390e-02 -1.040093e-01 -1.498761e-01 -2.015368e-01 -2.702476e-02 7.171631e-02 9.820910e-02 5.497634e-04 -4.261512e-02 -2.377614e-03 -5.666396e-02 -4.277436e-02 2.648102e-01 3.107648e-02 1.862518e-02 2.227241e-03 -5.478447e-03 -1.314856e-02 9.669959e-03 7.984721e-03 -6.434110e-03 -4.908124e-03 1.323715e-02 1.005208e-03 -5.324464e-04 -1.354571e-02
<VARIANCE> 39
 3.020760e+01 3.897885e+01 4.310491e+01 4.582751e+01 5.580302e+01 5.902053e+01 4.233382e+01 4.638381e+01 4.300076e+01 3.664148e+01 2.781413e+01 2.612561e+01 5.540942e+01 1.446735e+00 1.620401e+00 1.442657e+00 1.912194e+00 2.443148e+00 2.421236e+00 2.137905e+00 2.322376e+00 2.339668e+00 2.108207e+00 1.863357e+00 1.655986e+00 2.346190e+00 1.864873e-01 2.713006e-01 2.178445e-01 2.876410e-01 3.451485e-01 3.728383e-01 3.843173e-01 3.835249e-01 4.022796e-01 3.704827e-01 3.335794e-01 2.976713e-01 2.323207e-01
<GCONST> 1.134150e+02
<STATE> 4
<MEAN> 39
 -6.405416e+00 3.071756e-01 -3.407460e+00 -4.648995e+00 -5.840498e+00 -4.799466e+00 -6.484628e-01 -2.863915e+00 -1.880962e+00 -2.566016e+00 -1.257966e+00 -1.127287e+00 6.228457e+01 9.368150e-02 -1.043567e-01 -1.154842e-01 -1.512638e-01 -5.308314e-02 6.902445e-02 4.791359e-02 -1.376497e-02 7.531110e-03 4.776725e-02 8.820727e-03 -5.283445e-03 1.486417e-01 4.315875e-03 6.304014e-03 1.176254e-02 1.071252e-02 -1.426773e-02 -1.098557e-02 -1.480396e-02 -1.147494e-02 2.032301e-03 2.965705e-03 9.751362e-03 3.695047e-03 -1.001550e-02
<VARIANCE> 39
 3.313467e+01 3.695610e+01 4.434440e+01 5.237825e+01 5.869172e+01 6.170991e+01 4.320839e+01 4.746184e+01 4.168110e+01 3.632788e+01 2.821390e+01 2.785606e+01 7.012194e+01 1.178319e+00 1.340330e+00 1.262147e+00 1.724474e+00 2.198729e+00 2.262278e+00 2.012828e+00 2.155604e+00 2.175403e+00 1.996942e+00 1.750022e+00 1.614885e+00 1.311293e+00 1.570081e-01 2.137821e-01 1.882801e-01 2.573425e-01 3.200970e-01 3.478163e-01 3.442355e-01 3.460906e-01 3.658028e-01 3.425502e-01 3.070558e-01 2.795886e-01 1.540671e-01
<GCONST> 1.105371e+02
<TRANSP> 5
 0.000000e+00 1.000000e+00 0.000000e+00 0.000000e+00 0.000000e+00
 0.000000e+00 7.297898e-01 2.702102e-01 0.000000e+00 0.000000e+00
 0.000000e+00 0.000000e+00 7.297913e-01 2.702087e-01 0.000000e+00
 0.000000e+00 0.000000e+00 0.000000e+00 8.572280e-01 1.427719e-01
 0.000000e+00 0.000000e+00 0.000000e+00 0.000000e+00 0.000000e+00
<ENDHMM>
